solver_type L1R_LR
nr_class 2
label 1 -1
nr_feature 98199
bias -1
w
-1.960327296185903 
0.3250916419560525 
0 
-1.215553934537514 
-1.186154912607693 
0 
0.4576374319399523 
0 
0.2509106699293917 
0 
2.135630030730146 
0.03575214197139737 
0 
0 
0 
2.957784030451543 
1.125272313635636 
1.492393571530441 
1.375340630436432 
0 
1.054124733039788 
0.1701431233055417 
-1.012831595188766 
0 
1.591543855743088 
0 
0 
0 
0 
1.344903904075728 
0.7322138627803873 
0 
0 
2.993647550312988 
0 
-0.5338950968344901 
0 
0 
0 
0 
0 
0 
-0.8653585882881748 
0.1469546426021357 
0 
-1.667609648303188 
0 
0 
0 
-2.238401870974971 
0 
0 
-1.891986906527313 
0 
0 
0 
0 
0 
-0.262313523140514 
0 
0 
-1.186939596301253 
1.478206509539737 
-1.56991764792441 
0 
-0.9169693021890153 
0 
0 
1.384248569193543 
0.4848477737341428 
0 
1.332215269295173 
0.8136826004261215 
0 
0 
0 
0 
0 
0 
-0.2619757854260414 
0 
1.877874914433936 
1.530338252013564 
0 
0 
0 
0 
-2.151182524752619 
0 
0 
0 
-0.6036381100615457 
1.281089759965098 
0 
0 
0 
0 
0 
0 
-0.1201942317043701 
0 
0.1156010531735406 
0 
0 
0 
-0.6498027474278068 
-0.1917644230789567 
0 
-1.164259826464479 
-1.239659568903597 
0 
0 
0 
0 
0 
0 
0 
0 
0 
0 
0 
2.892818101943651 
0 
0 
1.267715999812385 
0 
-0.26094962153146 
0 
0 
-0.426306859909243 
1.991334503182972 
-0.3551260201937874 
-0.9866704230989968 
-0.7239194534885917 
0 
0.6513046864669927 
-0.07436481575162945 
-1.471696630839523 
-0.4897166049639329 
0.1849670790797705 
-1.866732950920994 
0 
0 
0 
0.5628978816469364 
-0.112784943720736 
-1.222409632758202 
0 
0 
0 
0 
0 
-0.04942616390921842 
0.4109020359815831 
0 
0 
0 
0 
0.5948887066556634 
0 
-1.266027216768641 
1.788904916191543 
0.6402158309980628 
0 
1.20916540095587 
0 
0 
0 
0 
0 
0 
0 
0 
0 
0 
-2.105312129763634 
0.6058339273071906 
0 
1.85307257731491 
0 
0 
0 
0 
0 
-0.6066433470936701 
-0.2521980437138588 
-0.8234543207232968 
0 
0 
0 
0 
-0.5736299953020212 
0 
0 
-0.2871702400819001 
0 
-1.797688070243361 
0 
0 
0 
-0.9859687526383409 
-0.3663013867600473 
0 
0.7829227511939266 
0 
0 
0 
-0.4011384047738788 
0 
0 
-0.4526760710072912 
0 
0 
-0.7392906758516332 
0 
-1.454326158196415 
0 
0 
0.07642901747516512 
0 
-1.181753309117006 
0 
-0.5372000259765053 
0 
0 
0 
0 
0 
0 
0 
-0.3756526182976916 
-1.119169218878934 
0 
0 
-0.2852716477229146 
-1.040048703446786 
0 
0 
0 
0 
0 
0 
-0.3454460330256379 
0 
-1.069250539632367 
0 
0 
0 
0 
0 
0.626743502634979 
0 
-1.47572192011093 
0 
0 
0 
0 
-0.1887712537358455 
0 
0 
0 
0 
1.420916267277952 
0 
0 
-0.4175553527549273 
0 
0 
0 
-1.207739214010887 
0.0231303718453611 
0 
0 
0 
0 
0 
0 
0.6206454344989076 
-0.6682617455395037 
0 
0 
0 
0 
0 
0 
-1.07867313821457 
1.053424192587559 
0.3861364070111908 
0 
0.09402239378979396 
-2.124911453460689 
0 
0 
-0.8115852925515317 
0 
0 
0 
0.2301309785523706 
0 
0 
2.427858240312303 
0 
0 
0 
0 
0.2636360796088688 
0 
1.274111637787334 
0 
0.6733245862762884 
0 
0.1444451572690429 
1.165893069287654 
0.491396726176894 
0 
-0.7800547578305033 
0 
0 
0 
0 
0 
0.5421844772979865 
1.273260933979854 
0 
0 
-0.7295393166441234 
0.3681885662483169 
-0.3449393744397394 
-0.8597891174776345 
0 
-0.3754338328720999 
0 
-1.492725350356313 
0 
0 
0 
-0.263917844419545 
0 
0 
-2.364032559735206 
0 
0 
0 
0 
-0.7408038710655515 
0.2966877400502365 
0 
0 
0 
0 
0 
-1.232911414087253 
0 
0 
-0.8384213516008091 
0 
0 
0 
0 
0 
0 
-1.342046061589757 
0 
0 
0 
-1.16695294712542 
0 
0.5409827253798725 
0 
0 
-2.255977989721083 
0 
0 
-1.011234663251249 
0.5105320305998279 
-2.282773595195136 
0 
0 
-1.988313756102703 
0.8405835323647231 
1.266169796973434 
0 
0 
0.5515511958886633 
0.6709307850655268 
0 
-1.090855332582996 
0 
0 
0 
-0.7365798738722875 
-0.1197329893310964 
-0.5187850610178039 
0 
0 
0.8456779685678548 
0 
-0.9558919864294123 
0 
1.253830466505077 
0 
0 
0 
0 
-0.1972901638865171 
0 
-0.8605366962704223 
0 
0.4139895181043041 
2.361636584524139 
0 
-2.213542739049774 
0 
0 
0 
0 
0 
0 
0 
0 
0 
0 
0 
0 
0 
0 
0 
-3.453749856522874 
1.601435947423163 
-1.568254855442921 
0 
0 
0 
0 
0.5508285017564008 
0.9596962701340676 
0.6216240459442155 
-1.305175371193122 
0 
0 
0 
-2.624935295866784 
-2.264239778815068 
-0.4861037604437068 
0 
0.4203627209372604 
0 
0 
0.8500974745996489 
0 
-3.616623628468347 
0 
-0.606721402667619 
-1.937687649011519 
0 
0 
-0.93685284209621 
-0.2662987192911886 
0 
-0.4668876070457898 
0 
-1.161281644711032 
0 
0 
0.1768266284862721 
-1.584559884965397 
-4.11056368651034 
0 
0 
0 
0 
0 
0 
0 
0 
0 
-0.9767445972575842 
-0.1552676107190582 
0 
0 
0 
0 
0 
0.4856016927467857 
0 
-1.718693357517219 
-0.6340331707596465 
0 
0 
1.315856568105162 
0 
0 
0 
0 
2.143055028764278 
0 
-0.7199348841208209 
-0.1217657472596259 
0 
0 
0 
0 
0 
2.16090119000165 
0 
0 
0 
-3.41657034879715 
0 
0.8380303993758955 
0 
1.048986214036019 
-2.743631409227121 
0 
-0.1852501455656563 
2.920130820747682 
1.064368313315348 
0 
0 
0 
0 
0 
0 
0 
-0.8285474834732147 
0 
0 
-0.1530500306371124 
2.661528694742715 
0 
0 
-1.11517438461085 
0 
0 
-1.152337077603515 
0 
-2.470598377301158 
0 
0 
-0.1929396044035216 
0 
-0.07451029438207329 
0 
0 
0 
0.1846668483666539 
0 
0 
0 
0 
0 
0.5627563184400035 
0.2809664750566887 
1.68142109913218 
0.1462774229975821 
0.7398617717195529 
0 
0 
-0.7477339064590572 
0 
0 
0 
0 
0 
0 
0 
0 
0 
-2.840173088224063 
0 
0 
0 
-0.1245920466974897 
0 
0 
0 
0 
0 
0 
0 
0 
0 
-0.1978150767328945 
-1.000955266887735 
0 
0 
0 
0.07890632077030114 
-0.8862218370242697 
0 
0 
0 
-0.05213553708139657 
0.7211578356774608 
0 
0 
0.5019695011086972 
0 
-0.4499840709164594 
0 
0 
0 
0 
1.543452165308795 
0 
0 
0 
0 
0 
0 
0 
0 
0 
0 
0 
0 
0 
-1.991974498251211 
0 
0 
-0.3667350780524837 
-0.4859240460188912 
0 
0 
0 
0 
0 
0 
0.3143573522288689 
-1.084209955607645 
1.66948646186703 
0 
0 
0 
-2.581708108065857 
0 
-0.6760782289489279 
0 
-0.4348405427516863 
0 
0 
0 
0.8355559092830317 
0.7190748312479652 
0 
0 
0.9319555847117319 
0 
-1.244951469690586 
0 
0 
0 
-1.340985161941661 
0 
0 
0 
0 
0 
0 
0 
0 
0 
-0.09212269513397116 
0 
-0.2871050963021674 
0 
-4.356094810992405 
-0.5710194561208406 
-0.5995220904441752 
0 
0 
-2.345631763895538 
0 
0 
0 
2.077554586428733 
-2.594351745456386 
-1.303417704458264 
0 
0 
0 
1.780496049761789 
0 
2.361739916425147 
0 
0 
0 
-0.6127403666973093 
0 
0 
0 
0 
0.109103843456759 
0 
0 
0 
0 
0 
0 
0 
0 
0 
0 
0 
0 
0 
0 
0 
0 
0 
-1.257846171758013 
0 
0 
2.758768364490228 
0 
0 
0 
0 
0 
0 
0 
0 
0 
0 
0 
0 
0 
0 
0 
0 
1.037366890879062 
1.906827106417456 
0 
0 
0 
0 
-3.203131238303482 
0 
0 
0 
0.3363592130600473 
0 
0 
0 
-0.5030183915509301 
0 
0 
0 
0 
0 
0 
0 
0 
2.000508330896029 
0 
0 
0 
-0.7505923575883731 
0 
0 
0 
0 
2.094755069385148 
0 
0 
0 
-0.9112087747127339 
0 
0 
-2.878204664826512 
0 
0 
0 
0 
0 
0 
0 
0 
0 
0 
0 
0 
-0.2587424545013002 
-1.61026153119406 
0 
0 
0 
0 
3.228993955831774 
-0.5908509830573455 
0 
0 
0 
0 
0 
0 
0 
0 
0 
1.487638823689877 
2.283437350994021 
0 
0 
0 
0 
4.204941091110308 
0 
0 
0 
0 
-0.4159120405432529 
0 
0 
-0.9134752159547747 
0 
0 
-0.2298266052594684 
0 
0.9491608279201155 
0 
0 
0 
0 
0 
0 
0 
0 
0 
0 
0 
0 
-1.345131493041717 
0 
0 
0 
0 
0 
0 
0 
0 
0 
0 
0 
0 
0 
0 
0 
0 
0.5426653157311041 
0 
0 
0 
0.3918517577310705 
0 
0 
0 
0 
0 
0 
0 
0 
0 
-0.7609804591650495 
0 
-0.4379441990827265 
0 
-1.290828954383626 
0 
-0.625498392153331 
-1.448035417866421 
0 
-0.5498677116328614 
1.421832550480538 
-0.7446327717097582 
0 
0.105744845083356 
-3.176681544090533 
0.6281291790579222 
0 
0 
0 
0 
0 
0.2467598145470693 
0.499816110790974 
-0.0812509480448589 
0.1454454385257762 
0 
0 
0 
0 
0 
0 
0 
-1.102170253358672 
-3.889421246070771 
0 
0 
0 
0 
0 
0 
0 
-1.822192077655602 
0 
0 
0 
0.1850553155106628 
1.535144801107449 
0 
0 
0 
0 
0 
0 
0 
0 
0 
0 
-1.986646888720744 
-1.80839680982367 
0 
0 
0 
0 
0.2906408538387009 
0 
0.590765467087543 
0 
0 
0 
0 
0 
0 
0 
0.06711676234536415 
0 
-0.157492950138558 
0 
0 
0 
0 
0 
0 
0 
0 
0 
-0.02801470892680667 
0 
0 
0 
0 
0 
0 
0 
0 
0.2179196965297499 
-0.7686676026415852 
-0.1367344573458887 
0 
0 
-0.4218143360313545 
0 
0 
0 
0 
0 
0 
0 
0 
0 
0 
0.2411715024002508 
0 
0 
0 
0 
0.2977168251385044 
0 
0 
0 
0 
0 
2.797999539233486 
0 
0 
0 
0 
0 
0.4096638228938674 
0 
0 
0 
0 
0.238102383950266 
0 
0 
0 
0 
0 
0 
0 
0.7935089657727729 
0 
0 
0 
0 
0.7433997902413214 
-2.18094569953219 
-0.9787724027548935 
0 
0.7015268257421603 
0 
0 
0.7117478092171541 
0 
2.320613061512358 
0 
0 
0 
0 
1.648445143183547 
0 
0 
0 
0 
-0.5391504188601985 
-0.345394172562087 
0 
0 
0 
0.6848873510433065 
0 
0 
1.649680264209316 
0.0009098575286939784 
-0.1812242956342737 
0 
0 
-0.491247131688401 
0 
-0.2606498443651317 
0 
-1.952613923292727 
0 
0.4962138923953373 
0 
0 
0 
-0.6314250295438858 
0 
-1.030318312804557 
0.3147710457434281 
0 
0 
0 
0 
0 
0 
0 
0 
0 
0 
-0.8679041495325021 
0 
0 
0 
-0.09648525986083721 
0 
0 
0 
-0.1291722693989888 
0 
1.128737907842412 
0 
0 
-1.667961918083524 
0 
0 
0 
0 
0 
-0.9771164487147188 
0 
0 
-6.756758099927641 
0 
0 
-0.9790943297635212 
0 
0 
0 
0 
-1.54313549954788 
-1.35228525468384 
0.4425307472317717 
0 
0 
0 
0 
-0.4414339937485395 
0 
-1.909117449179775 
0 
-0.1253620549245846 
0 
0 
0 
0 
0 
0 
0 
0 
0.6064570433652767 
0 
0 
0 
0.2833597096484896 
0 
-0.3784640203381266 
0 
0 
-2.093964723839848 
0 
-0.8570968405224082 
0 
0 
0 
0 
0 
-0.02336216354110227 
0 
0 
0 
0 
0 
0 
0 
0 
0 
0 
-0.7562867471940488 
0 
0 
-1.001058682652315 
0.947573102097757 
1.289276750999025 
0 
0 
0.8024224322693525 
0 
0 
0 
0 
0 
0 
0 
-2.602583434912925 
0 
-1.191318559341912 
1.280670049389161 
0 
0 
-4.296622772430142 
-3.028156842364571 
-1.44243394859561 
0 
0 
0 
0 
0 
0 
0 
0 
-0.9360660216495771 
0.2851479789391577 
-0.1016975153528721 
0 
0 
-0.7300030843769431 
-2.484202364786456 
0 
0 
0.7137065561082294 
0 
0 
0 
0 
0 
-1.815117614615905 
0 
1.16865606172699 
0 
0 
0 
0 
0 
0 
0.282726632362008 
0 
0 
0 
0 
-0.6478948279273373 
0 
1.388833340278271 
0 
0 
0 
-1.179480764055821 
-0.9863799954612533 
0 
0 
0.1411361846113745 
0 
-1.273280101969272 
0 
0 
-0.7281710423300278 
0 
0 
0 
0 
0 
0 
0 
0 
-0.7352455695426601 
0.9706429218249302 
0 
0 
0 
0.1424710316922412 
0.5724440451827867 
0 
0 
0 
0 
0 
0 
0.5131096066451417 
1.063348690190036 
0 
0 
0 
0 
0 
-2.866926441467982 
0 
0 
0.2581593628752681 
0 
1.243120299053641 
0 
0 
0 
0 
0 
0 
0.2923954698162956 
0 
-3.691497996278203 
-3.877259902448493 
0.8613729979061324 
0 
0.1041878391851848 
0 
-2.448371441481975 
0 
-0.09793028029032883 
-0.884558009215909 
0 
0 
0 
0 
-1.049710577763389 
1.952898297990128 
0 
0 
0 
0 
0 
0 
-3.689987519550094 
0 
0 
-1.179230523807968 
0 
-1.604899990959058 
0 
0 
-0.2498786608250567 
0 
0 
0 
0.6335553750514796 
0 
0 
0 
1.301609091855368 
1.771370913767786 
-0.1707279828711522 
0 
2.010775359972122 
0 
-0.3391516312205269 
0 
0 
0 
-4.973088925260467 
-0.4979052769846169 
-1.184146260596326 
0 
-0.4198356006087491 
0 
-0.2655985392785697 
0 
-0.7748702956523379 
0 
0 
0.339349186578412 
0 
0 
-0.2623516300361437 
0 
0 
0 
-2.113253969904894 
-2.209063187518067 
0 
0 
0 
0 
0 
-0.8199262567262844 
0.6815550838961059 
0.08444406634971541 
0 
0 
-0.8607330870223844 
-0.3963467351823138 
-0.5234591224988248 
0 
0 
0 
0 
0 
1.206768911231073 
0 
0 
0 
0.7277050263539584 
0 
0 
0 
0 
-0.2246867086833548 
-1.950111182415103 
0 
0 
0 
0.7088397686798157 
0 
0 
0 
0 
0 
1.339751039080765 
0.01110530822521726 
0.7151918328528754 
-1.076330783318033 
0 
0 
0 
0 
-0.888477398672733 
0 
0 
0 
0 
0 
0 
0 
0 
0.5033122878395228 
0 
0 
0 
0 
0 
0 
-2.321715922192733 
0 
0 
0 
0 
-2.774637640332855 
0.1102291973181488 
0 
0 
0 
-1.271850593220509 
0 
0 
0.6193915650945894 
-2.322616876382764 
1.293538202359026 
0 
-0.7610329400937632 
0 
0 
0 
0 
0 
0 
0 
0.7767062795225733 
0 
-0.5476205778811507 
-1.329135863492045 
0.8058297584531541 
-2.126856273690327 
1.425848542442176 
0.5506914704850843 
0 
0 
-0.5906997627869536 
-0.6498301732435452 
0 
0 
0 
0 
0 
0 
0.5534005097574876 
0 
0 
1.080070855569542 
0 
0 
0 
0 
0 
0.6294588835451467 
1.208088069918102 
0 
0 
0 
0 
0 
0 
0 
0 
-0.5257608751370877 
0.2627440281000176 
0 
0 
-1.942636334369046 
0 
-0.1239559382256759 
0 
0 
-1.512355561132207 
0 
0 
-1.404715672301282 
-1.225762838054125 
0 
0 
0 
0 
0.7239712418007969 
0 
0 
0 
0 
0 
0 
0 
0 
-0.5463452684680846 
0 
0 
-1.239372205253019 
0 
0 
0 
0 
-0.4016932557607054 
0 
0 
-0.8748471316182064 
0 
-1.192911577032657 
0 
0 
1.246584286134202 
0 
0 
0.7456542187681227 
1.189768365781028 
0 
0 
1.384997448362272 
0 
0 
0 
-0.2859055273419492 
-0.5148830038748838 
0 
0 
0 
0 
0 
0 
0 
0 
0 
-4.500996908272281 
0 
-0.08743157032361239 
-1.183306816942143 
0 
0 
0 
0 
0.4721918695968716 
0 
0 
0 
-1.120534990523025 
0 
0 
0 
-5.492085147408245 
-0.1178577293232426 
0 
0 
0 
0 
0 
0 
0 
0 
0 
0 
0 
0 
-1.296999577297382 
-0.3113243768819661 
0 
0 
-0.51250435132045 
0 
0 
0 
-0.9167820486156487 
0 
0 
0.7536041341783578 
0 
0 
0 
0 
0 
0 
0 
0 
0 
0 
0 
0 
0 
-0.9610126161990906 
0 
0.6253974109984768 
0 
0 
0 
0 
0 
0 
-1.666761221165596 
0 
0 
0 
0 
0 
0 
0 
-3.245192596148561 
-1.746937912432572 
0 
1.825758335301364 
0 
0 
0 
-0.5623408372095311 
0 
-0.6790680305090506 
0 
-0.03722578704619008 
0 
0 
0.01059013736276444 
0 
0 
0 
0 
-1.94008820124234 
0 
0 
0 
0 
0 
0.5286515000353084 
0 
0 
0.8580242571879504 
0 
0 
0 
0.6468449162415192 
0 
0 
0 
1.076987619408192 
5.316444765039688 
0 
0 
0 
-0.6382289226515046 
1.312867827696928 
0 
0 
0 
0 
0 
-0.4805821562500842 
0 
1.070743271820733 
0 
0 
0 
0.6726347842118644 
0 
0 
-0.2540344794536886 
0 
-0.2142449446592056 
0 
0 
0 
0.475983614425638 
0.1433230439940926 
0 
0 
-0.3928814420409241 
-0.4106316229933643 
0 
0 
0 
0 
0 
0.5535186607181681 
0 
0 
-1.759122120008608 
-1.224314611297683 
0 
0 
0 
0 
0 
0 
-1.77910278703303 
0 
0 
0 
0 
0 
0 
0 
0 
0 
0 
-2.915826535165722 
3.318205356970471 
0 
1.00682962379164 
1.906135425618181 
0 
0 
0 
0 
0 
0.01469322816043876 
-1.57497742649468 
-1.19807557884224 
0 
0 
0 
0 
0 
0 
0 
-0.1162145658160959 
0.7526695962364637 
0 
0 
0 
0 
0 
0 
0 
0 
0.6817512345251722 
-0.6965547293784317 
0 
0 
-0.1257441475648819 
0 
0 
0 
-0.1919209368780206 
-1.10097510828606 
-0.9178263765524952 
0 
0 
-0.1730370159352298 
0 
-0.8012686194431087 
0 
-0.7412714138369563 
0 
0 
0.4063827152812592 
0.6236115164979112 
0 
0 
0 
0 
0 
-2.416005333238406 
0 
0.5282346340992402 
0 
0 
0 
-1.409920640183395 
0 
0 
0 
0 
0 
0 
0 
0 
0 
0 
0 
0 
0.02401803580506572 
0 
0 
0 
0 
0 
-0.3143247169026975 
0 
0 
0.2892101574891952 
0 
0 
0 
0 
0 
0 
0 
0 
-0.7943169680350243 
0 
0 
-1.363122010819441 
0 
0 
0 
0 
0 
0 
0 
0 
0 
0 
0 
-0.2129369969268155 
0 
0 
0 
0 
-1.202367123852765 
0 
0 
0 
0 
0 
0 
0 
0 
0 
0 
0 
-0.9111548262955421 
0 
0 
0 
0 
0.1493996905209578 
-0.7204503028091229 
-1.445616001940145 
0 
0 
0 
0 
0 
0 
0 
1.056431722396995 
0 
0 
0 
0 
0 
0 
0 
0 
0.1789219852983226 
-1.627969628795329 
0 
0 
-1.60142761226257 
0 
0 
0 
0 
1.475332086838386 
-0.1882908491499035 
1.367978898299348 
0 
0 
0 
-0.9278152622771066 
0 
0 
0 
0 
0 
0 
0 
0 
0 
0 
0 
0 
-0.7524860464666203 
1.555698782625021 
0 
0 
0 
0 
0 
3.217002308455396 
0 
0 
0 
0 
0 
0 
0 
0 
0 
0 
0 
0 
0 
0 
0 
0 
0 
0 
0 
0 
0 
-1.321319409280906 
0 
0 
0 
0 
0 
0 
5.743365377629631 
0 
0 
0 
0 
0 
0 
0 
0 
0 
0.1240056394327961 
-1.21657703029096 
0 
0 
0 
0 
0 
0 
-1.841550591432513 
0 
0 
0 
1.061899117529353 
0 
0.2046987651532742 
-0.06635872690300447 
0.4413291637864285 
-0.6164892889821622 
-0.8555801589944365 
1.557920283592709 
0 
0 
0 
0 
0 
0 
0 
-0.3138101916297627 
0 
0 
-1.595384072047626 
-0.05491989733900516 
0 
0 
0 
0 
-0.9882963427237019 
0 
0 
-0.05726432162592916 
0 
0 
0 
0 
-0.15722392617533 
-0.1209096421916369 
0 
-0.6168524381315459 
0 
0 
0 
0 
0 
-0.7239956557402669 
0 
0.4513354950485441 
0 
0 
2.458392400387996 
-2.575178175080385 
0 
0.6910227362467789 
0 
0.8710029074520764 
0 
0 
0 
-0.3883575954061814 
0 
0 
0 
0 
0.7357438614317294 
0 
0 
0 
0 
0 
0 
0 
0 
0 
0 
0 
0 
0 
0 
0 
0 
0.7961761291868628 
0 
0 
0 
0 
0 
-0.7668926450974767 
0 
0 
0.4537893145589386 
0 
0.5703990410767117 
0 
3.031403372965621 
-1.526695933880239 
0 
-5.58659466793111 
0 
-2.360788505178757 
-1.037232663366149 
0 
0 
0 
0 
-1.113159029932854 
0 
0 
-0.0817559533664914 
0 
0 
0 
-0.9257918481116361 
-2.152344371804363 
0 
0 
-0.3184463581223592 
0.1580242436536513 
-0.6803250975900332 
-1.528098235914619 
0 
0 
0 
-2.391369442505757 
0 
0 
3.533949594913891 
0 
0 
0.8742918263158243 
-0.7752713011016864 
0 
0 
0 
0.8412050914825651 
0 
0 
0 
0 
0 
-0.7433795269480572 
0 
-1.244509141444111 
0 
-3.358899125624767 
0 
0 
0 
0 
0 
0 
0 
0 
0 
0 
0 
-0.2405016430363468 
0 
-0.2914552463454336 
0 
0 
0 
0 
0 
0 
-1.651667018066128 
0 
0 
0 
-1.610927766442785 
0 
0 
0 
0 
0 
0 
0 
0 
0 
0 
0 
0 
0 
0 
-2.011786897042806 
0 
0 
0 
0.208615276421801 
0 
0 
0 
-0.3738059247065856 
0 
0 
-1.773841409181874 
0 
0 
0 
0 
0 
0 
0 
0 
0 
0 
0 
0 
0.3520064090112721 
0 
0 
0 
0 
0 
0 
0 
-0.8971821140537987 
0 
0 
-0.3630747362240651 
0 
1.116169940461737 
0 
0 
0 
0 
0 
-1.52064005406124 
0 
0 
-3.073553764896743 
-0.1437034348305395 
0 
0 
0 
0 
0 
-0.7224984104456477 
0 
0.1263486239933023 
0 
0 
-3.840916038515422 
0 
0 
0.7257368925149411 
0 
0 
0 
0 
0 
0 
0 
0 
0.6902754372218232 
0 
-0.6221797249814008 
0 
-1.205121576078678 
0 
0 
0 
0 
-0.1984668350526444 
-0.9651453524740395 
0 
0 
0 
-1.548830729868317 
0 
-0.6451616788305086 
0 
0 
0 
0 
0 
0 
0 
0 
0 
0 
0 
0 
0 
0 
-0.6262345039271021 
-1.969056283245273 
0 
0 
0 
-0.6797893037334802 
0 
0 
0 
0 
0 
0 
0 
0 
0 
-1.961000303833854 
0 
0 
0 
0 
0 
0.7222522869602061 
0 
0 
0 
0 
0 
0 
0 
0 
0 
-0.1351821792433212 
0 
0 
0 
0 
0 
0 
-0.5169274137908764 
0.1910660175673077 
0 
-2.941206189579001 
0 
0 
0 
-0.8204120197245804 
0 
-3.195059356542621 
0.06337107350737377 
-1.266808877301614 
0 
0 
0 
0 
-0.2301191344216663 
0 
0 
0 
0 
0 
0 
0 
0 
0 
0 
0 
0 
0 
0 
0 
0 
0 
-1.509277614959744 
0 
0 
0 
0 
0 
0 
0 
0 
0 
0 
0 
-0.4858188109084011 
1.109516123449046 
0 
0 
0 
0 
0 
0 
0 
0 
0 
0.1599196601420511 
0 
-0.3952184514246572 
0 
0 
0 
0 
0 
0 
0 
1.836496733055177 
0 
0 
-0.2250272759842246 
0 
0 
0 
-0.7336084221525289 
0 
0 
0 
0 
0 
0 
0 
0 
0 
-0.321925104037413 
0 
-0.6657697485689601 
0 
0 
0 
0.6352069891266831 
0 
0 
0 
0 
0 
0 
0 
0 
-2.82816304646619 
-1.028709265896933 
0 
0 
0 
0.587428128603439 
0 
0.09527812652258484 
0 
0 
0 
-0.7540367292658642 
0 
-1.17601849367272 
0 
0 
2.101238729083294 
0 
-1.338993262149179 
0.8788684541812043 
0 
0 
0 
0 
0.3382633607349214 
0 
0 
0 
0 
3.063222350534537 
0 
0 
0 
0 
0 
0 
0 
0 
0 
0 
-1.41302102969473 
0 
0.5061535072831613 
0 
-0.5490466750553004 
0 
0 
0 
1.02448981118972 
0 
0 
0.04293709287607921 
0 
0 
0 
0 
0 
-0.4477210950453236 
0 
0 
0 
0 
0 
0 
0 
0 
0 
0 
0 
0 
0 
0 
0 
0 
0 
0 
-0.9543872214732996 
-0.1025913434782256 
0 
-0.8770550074937817 
0 
0 
0 
3.189996229353787 
0 
0 
0 
-4.493064216140896 
0.3565500428009984 
0 
0 
0 
0 
0 
0.2423772393524948 
0 
0 
0 
0 
0 
0 
0 
0 
-1.941776954638405 
-1.528142831864575 
0 
0 
-0.8084453444463293 
0.626978671875869 
0 
0 
-0.9778213722017203 
0 
0 
0 
0 
0 
0 
0 
0 
0 
0 
0 
0 
-1.323995064360844 
0 
0 
0 
0 
0.0554208350429858 
0 
-0.4574315106833707 
0 
-0.7618469940059778 
0 
0 
0 
0 
0 
0 
0 
0 
0 
0 
0 
0 
1.407525533921579 
0 
0 
0 
3.135405560328223 
0 
0 
0 
0 
0 
0 
0.3845470307462049 
0 
0 
0 
-1.259865921588681 
0 
-0.6278040082218214 
0 
0 
0 
-1.188205392456452 
-1.824161343084323 
0.06557910578651696 
0 
-1.852340921237782 
0 
-0.6000826346541603 
0 
0 
0 
0 
0 
0 
0 
0 
-0.2111221657050411 
0 
0.1531050312434216 
0 
0 
0 
0 
0 
-0.3002147895565322 
0 
0 
0 
0 
0 
0 
0 
0 
0 
0 
-1.208933015809692 
0 
0 
0 
0 
0 
0 
0 
0 
0 
0 
1.262406448716324 
0 
0 
0 
0 
0 
0 
0 
0 
0 
1.023713516802641 
0 
0 
0 
0 
-0.257991220373995 
0.3282032794065308 
0 
0 
0 
0 
0 
0 
0 
0 
0.5298094355043994 
0 
0 
0 
0 
0 
0.6079887583461237 
0 
0 
0 
0 
-0.3421083088319371 
0 
0 
-1.507506200845663 
0 
0 
0 
0 
0 
0 
0 
-0.7526856640117297 
0 
0 
0 
0 
-1.189335759537058 
0 
-1.589165389411518 
-3.954124349764537 
0 
0 
0 
0 
0 
0 
-0.7504438290262789 
0 
0 
-0.918362581753561 
0 
0 
0 
0 
-0.9997389541917633 
0 
1.088959526243053 
0 
0 
0 
0 
0 
0 
0 
0 
0 
0 
0 
0 
0 
0 
0 
0 
-0.7824347862706202 
0 
-0.3593961709974157 
0 
0 
0 
0 
0 
0 
0 
0.08092380647278452 
-0.7689603017400691 
-1.067811788446646 
0 
0 
0 
0 
0 
0 
-0.3956679444933688 
0 
0.1170752357396251 
0 
2.674132446378417 
0 
0 
-0.14548416325223 
0.4900425161080736 
0 
0 
0 
0 
-0.2054567927070692 
0.01007401477365462 
-0.6683399776438678 
0 
0 
0 
0.9119314666791314 
0 
0 
0 
0 
0 
0 
0.4499935703194068 
0 
0 
0 
0 
0 
0 
-0.2030301895621739 
0 
-2.72093662251201 
0 
0 
0 
0 
0 
0 
0 
0 
0 
0 
0 
0.6702894097054607 
0.9516740663651787 
0 
0.2272327068554648 
0 
0 
0 
0 
0.1467755867171223 
0 
0 
0 
0 
0 
0 
0 
0 
-1.257644153119482 
0 
-0.6091560998934681 
0 
0 
-0.7540192537240691 
0 
0 
0 
0 
0 
0 
0 
-0.1219948738912219 
0 
0 
-0.5398859311009389 
0 
1.619201533520379 
0 
-0.3234525418903745 
0 
0 
0 
-0.5256529169260295 
0 
3.083042700009047 
0 
0 
5.452176931556784 
0 
0 
0 
0 
0 
0 
1.675175159956706 
0 
0 
0 
-1.436695959801041 
0 
0 
1.484197249812755 
-0.4898149531947916 
0 
0 
-0.3457876487483335 
0 
0 
0 
0 
0.3296302417059209 
0 
0 
0 
0 
0 
0 
0 
0 
0.01945748968013735 
0 
0 
0 
0 
0 
0 
-1.748848457663998 
0 
0 
-1.781793875814744 
0 
0 
0 
0 
-0.2579927696233685 
0 
0 
0 
0 
0 
0 
0 
0 
0 
0 
0 
0 
-1.760264346833524 
0 
0 
0 
0 
0 
0 
0 
0 
0 
0 
-0.4267738377068326 
0 
0 
0 
0 
0 
0 
0 
0 
0 
-1.1770726225107 
0 
0 
0 
0 
0 
1.122320376435232 
0 
0 
0.6228486901782921 
0 
0 
0 
0 
0 
0.6161449755447719 
-0.3118903256721722 
0 
0 
0 
0 
-1.581528229084763 
0 
0 
0 
0 
0 
0 
0 
-0.1299261352623182 
0 
0 
0 
0 
0 
0 
0 
0 
-0.934143648515848 
0 
0 
0 
0 
0 
0 
-5.011882798668379 
0 
0 
0 
0 
-6.636441795768445 
-1.706324171980943 
-1.022378018919662 
0 
0 
0 
-0.3424820720458344 
-0.9221773828103939 
1.106508071660867 
-1.098140553608605 
0 
0 
-1.186093363252796 
0 
0 
0 
0 
0 
0 
0 
0 
0 
0 
1.449172679990116 
0 
1.50946272742494 
0 
0 
0 
0 
-0.1023561948693077 
0 
0 
0 
0 
0 
2.361878907771552 
0.6925725109769488 
0 
0 
-1.748706297674069 
0 
0 
0 
-0.2452291128821501 
0.3984124735270092 
0.3738938108913295 
-3.037039658699626 
-3.976456277911845 
0 
0 
0 
0 
-3.886659388956447 
0 
0 
0 
0 
0 
0 
0 
2.019691040820602 
0 
-1.735356816774528 
0 
0 
0 
-0.4616682953291932 
2.164537830182623 
0 
0 
0 
0 
0 
0 
0 
0 
0 
0 
-0.3094039401310976 
1.960464953346736 
0 
0.6321313748133275 
0 
0.3954976852064268 
-0.1606227203329289 
0 
0 
0 
0 
-1.18894396073916 
-1.997525065946605 
0 
-1.484895032079618 
-0.2959297343162795 
0 
0 
0 
0 
0 
-2.036531821921344 
0 
-0.1483451992074477 
-2.237216102135922 
0 
0 
0 
0 
0 
0 
0.9939717191595913 
0 
0 
0 
0 
0 
0 
0 
-2.793482049826189 
0 
0 
0 
0.1375679899326794 
-0.4795157889941173 
0 
0 
0 
0 
0 
-4.704013969045631 
0 
0 
0 
0 
0 
0 
0 
0 
2.238384988112727 
0 
0 
-0.1511929237897431 
1.984599997521875 
1.389198230119646 
0 
0 
0 
0 
0 
0 
0 
0 
0 
0 
0 
0 
0 
0.2334009324394192 
0 
0 
0 
0.8168883628718003 
0 
0 
0 
0 
0 
0 
2.240207145365503 
0 
-3.147637705886958 
0 
0 
0.3144729825105503 
0 
0 
0 
0 
-2.113961948721452 
0 
1.473544491026999 
0 
0 
0 
0 
0 
0 
0 
0 
0 
0 
1.739191104636175 
0 
0 
-0.1763507054852011 
0 
0 
0 
0 
0 
-0.6104024970420906 
-0.342463492578394 
0 
0 
0.7709610370904529 
0 
0 
0 
0 
0 
0.4887981794709225 
0 
0 
0 
0 
0 
0 
0 
0 
0.9338427331958189 
0 
0 
0 
0 
0 
0 
0 
0 
-1.07842862120475 
0 
0 
-1.301302708184675 
0 
0 
0 
0 
0 
0.6648965001890369 
0 
-3.561471838984282 
0 
0 
0 
0 
0 
0 
0 
0 
0 
0 
0 
0 
0 
0 
0 
0 
0 
0 
0 
0 
0 
0 
0 
0 
0 
0 
0 
0 
0 
0.6353140062760582 
0 
0 
-0.2064082633747603 
0 
0 
-1.370626992884361 
0 
0 
0 
0 
0 
0 
0 
0 
0 
-1.362745859629841 
0 
0 
0 
0 
0 
0 
0 
0 
0.1968981661360084 
0 
0 
0 
0 
0 
0 
0 
0 
0 
0 
0 
0 
0 
0 
0 
0 
-2.397469690739558 
0 
0 
0 
0 
0 
1.701768557275166 
0 
0 
0 
-0.5687445373744865 
-0.05304640824778098 
0.9779996106720962 
0 
0 
0 
0.3361658980176149 
0 
0 
0.1650759336092706 
0 
0 
0 
0 
-1.753121229045967 
0.1041289882569587 
0 
0.7181404832945507 
0 
0 
0 
0 
0 
0 
0 
0.3594114834434593 
2.674287943232188 
0 
0 
0.7170085568410775 
0 
0.417753836152519 
0 
0 
0 
0 
0 
0 
0 
0 
0 
1.030347202075244 
0 
0 
0 
0 
0 
0 
0 
0 
0 
0 
0.462212547800127 
0 
0 
0 
-0.5942821753674283 
-1.954127504985788 
0 
0 
0 
-1.37971048688233 
-0.4924244489476791 
0 
-0.7651889833261328 
0 
0 
0 
0 
0 
0 
0 
0 
0 
3.602539517080637 
0 
0 
0 
0 
0 
0 
-2.228033446495722 
-0.2295813407390132 
0 
0 
-4.646677072665145 
0 
0 
0.1828279866375199 
1.324038233076041 
-0.05761332705384716 
0 
0 
0 
0 
0 
0.8763029594198586 
0 
0 
0 
2.327979753291711 
0.1659320254518358 
0 
0 
0 
0 
0 
0 
0 
0 
0 
0 
0 
0 
0 
0 
0 
0 
0 
0 
0 
0 
0 
0 
0 
0 
-0.7359040617561135 
0 
0 
0 
0 
0 
0 
-0.308605650592721 
0 
0 
0 
0 
0 
-5.159884374504131 
0 
1.51504473744294 
-0.2584230548050207 
0 
0 
0 
0 
0 
0 
1.222020827936548 
0 
0 
0 
0 
0 
0 
0 
0 
0 
0 
0.2166135237000119 
0 
0 
-0.9666340471903478 
0.135465809934612 
-0.352051330824294 
0 
0 
0 
0 
0 
0 
0 
0 
0 
0 
0 
-1.221900044615978 
-1.636350025509368 
0 
0 
0 
0 
0 
0.6762535150902069 
-0.07489121282330602 
0 
0 
0.09421562518824059 
0 
0 
0 
0 
-1.461860308783959 
0 
-0.8502509914479312 
0 
0 
0 
0 
0 
0 
0 
0 
0.356047205354703 
1.487312134533793 
0 
0 
0 
1.636753612318681 
0 
0 
0 
0.1835950683550869 
0 
-0.6274922892554473 
0 
0 
0 
0 
0 
0 
0 
0 
0 
0 
-1.177911920293664 
0 
2.842138336748766 
-0.5852900270744471 
0 
1.118275781534742 
0 
-1.532544946712316 
0 
-0.2458493431010773 
0 
0 
0 
0 
0 
-0.440176035691179 
0 
-0.9470153813613705 
0 
-2.291612383013084 
0 
1.074387882526382 
0 
0 
0 
0 
0 
0 
0 
0.7025879919050539 
-0.04959669641879969 
0 
0 
0 
0.8661889510597913 
0 
0 
0 
0 
0 
0 
0 
0 
-2.356087651199599 
0 
0 
0 
0 
0 
0 
0 
0 
0 
0 
0 
1.909131666671944 
0 
1.324780497877853 
0 
-1.71461065159223 
0 
0 
0 
-1.944754836949027 
-0.7139167861021156 
0 
0 
0 
0 
0 
0 
0 
0 
0 
0 
0 
0 
-0.1655532727042996 
0 
0 
0 
0 
0 
0 
0.6356173819518386 
0 
0 
0 
0 
0 
0 
0 
0.185890554748778 
0 
0 
-2.523787366415167 
-0.9651649932890611 
-0.9654791746370437 
-0.6126423665434084 
0 
0 
0 
0 
0 
-2.052831751422319 
0 
0 
0 
0 
0 
0 
-1.032378526387211 
1.778514422819627 
0 
0 
0 
0 
0 
0 
0 
0 
0 
0 
0 
0 
0 
0 
0 
0 
0 
0 
0 
0 
0 
0 
0 
0 
0 
0 
0 
0 
0 
0 
0 
0 
0 
0 
0 
0 
0 
0 
0.2186065473093071 
0 
0 
0 
0 
0 
0 
0 
0 
-1.094969945944873 
0 
0 
0 
-0.6272835696665876 
0 
0 
0 
1.669664137268297 
1.022936851481979 
0 
-0.08561368380502647 
0 
0 
0 
0 
2.284830837002626 
0 
0 
0 
0 
0.452904840522015 
-0.6586662611795709 
0 
0 
0 
0 
0 
0 
0 
0 
0 
0 
0 
0 
0.1517775664687645 
0 
0 
0 
0 
0 
0 
0 
0 
0 
0 
3.09606790799807 
0 
0 
0 
0 
0 
0 
0 
-0.5396303442269472 
0 
0 
0 
0 
0 
0 
0 
0 
0 
0 
0 
0 
0 
0 
0 
0 
0 
0 
0 
0 
0 
0 
0 
0 
-0.1238107238948608 
0.5481983028176019 
0 
1.444922760619298 
0 
0 
0 
0 
0 
0 
-1.678752494677832 
0 
-0.1083423207007127 
0 
0 
0 
0 
0 
0 
0 
0 
0 
-0.4678589386071147 
-0.2956689262372175 
0 
0 
0 
0 
0 
0 
0 
0 
-0.3821547753115345 
0 
0 
0 
0 
0.673329759253642 
0 
0 
0.3958170614929324 
0 
0 
0 
0 
0 
0 
0 
0 
0 
0 
0 
-3.294506134805746 
0 
0.9553497049284077 
0 
0 
0 
-2.298093265251691 
0 
0 
0 
0 
-0.5416984947298182 
0 
0 
0 
0 
0 
0 
0 
0 
0 
0 
0 
0 
0 
0 
0 
0 
-1.652592838276113 
0 
0 
0 
-1.20318016375441 
0.04338249192004228 
-0.4240833510240475 
0 
0.8415238615962877 
0.1797245995125755 
0 
0 
0 
-0.5517318300226873 
0 
0 
-0.9152886513763963 
0 
0 
0 
0 
-1.025101946467017 
0 
0.02553043712612063 
0 
0 
0 
0 
-1.603877151455866 
0 
0.1964348519711146 
0 
-1.544353214607282 
0 
-0.5563387876435911 
0 
-1.652717510678895 
0 
0 
0 
0 
-7.006927808698999 
-5.378057941276045 
0.4639672993713775 
0 
0 
0 
-0.6191147189598345 
0 
0 
0 
0 
1.283083058321268 
0 
0 
0 
-0.210823994345891 
0 
0 
0 
0 
0 
0 
0 
0 
0 
0 
-1.405441988604227 
0 
0 
0 
0 
0 
-1.979636103847676 
0 
0 
0 
0 
0 
0 
0 
0 
0 
0 
0 
0 
0 
0 
0 
0.1702838863683828 
0.5219980264107008 
0 
0 
0 
0 
0 
0 
0 
0 
0 
0 
0 
0 
0 
0 
0 
0 
0 
0 
0 
0 
-0.3809135660255916 
-0.1822908396672913 
0 
0 
0 
0 
0 
0 
1.620415429705201 
0 
0 
0 
0 
0 
0 
0 
0.6766729731114275 
0 
0 
0 
0 
0 
0 
-0.5125163072125119 
0 
0 
0 
0 
0 
0 
0 
-0.07222556819093565 
0 
0 
0 
0 
0 
0 
0 
0 
0 
0.2067022626227822 
0 
0 
-0.2306154404194303 
1.466192908148494 
0 
0.4855074001643686 
0 
1.407441553313352 
0 
0 
0 
0 
0 
0 
0 
0 
-0.9752053085131939 
0 
0 
0 
0 
-1.827465642819909 
0 
0.8463381468960746 
0 
0 
0 
0 
0 
0 
0 
2.246485883717245 
-0.3820902440563273 
0 
-0.5438533919336296 
0 
0 
0 
0 
0 
0 
0 
0 
0 
0 
0 
0 
0 
0 
0 
0 
0 
0.7063044788412389 
0 
-0.1013390466248556 
0 
0 
0 
0 
-1.086676816725243 
0 
0 
0 
0 
1.055715901410136 
0 
0 
0 
0 
0 
0 
0 
0.1946603232195227 
0 
0 
0 
0 
0 
0 
0 
0 
3.186789155364654 
0 
0 
0 
0 
-0.3368434290642039 
0 
0 
-1.06248498463912 
0 
0 
0 
-2.249691536982132 
0 
-0.6019608625099326 
0 
0 
-1.729532083165487 
0 
0 
0 
0 
0 
0.5822922026587982 
0.04755391828698754 
0 
-1.712041651713365 
0 
0 
0 
0 
0 
0 
0 
0 
0 
0 
0 
0 
0 
0 
0 
0 
1.047073675208407 
0 
0 
0 
0 
-2.123403827176595 
0.3697621708184219 
0 
0 
0 
0 
0 
0 
0 
0 
0 
0 
0 
0 
0 
0 
0 
0 
13.26017322343473 
-0.4528639960881526 
0 
0 
0 
0 
0 
0 
0 
0 
0 
0 
0 
0 
0 
-1.037198938537319 
0 
0 
0 
-0.7601200919774614 
0 
0 
0 
0 
0 
0 
0 
0 
0 
-0.8360911275798948 
0 
0 
0 
-1.974576445027223 
0 
0 
-1.779361116577518 
-1.281963088958707 
0 
-0.9141495995667227 
0 
0 
1.11713211467606 
-1.296234506369907 
0 
0 
0 
0 
0 
0 
-1.054510356327227 
0 
-0.5689364188000847 
0 
0 
0 
0 
0 
0 
0 
0 
0 
0 
0 
0 
1.089494227729754 
0 
0 
0 
0 
0 
0 
-0.4999250012032562 
0 
0 
0 
0 
0 
0 
0 
0 
0 
-0.381809989402649 
0 
0 
0 
0 
0 
0 
0 
0 
0 
0 
0 
0 
-1.310786935589288 
0 
0 
0 
0.3289326185415317 
0 
0 
0 
0 
0 
0 
0 
0 
0 
0 
0 
0 
0 
0 
0 
0 
0 
0 
0 
0 
0 
0 
0 
0 
0 
0 
0 
0 
0 
0 
0 
0 
0 
-1.193457093146519 
0 
0 
0 
0 
0 
0 
0 
0 
0 
0 
0 
0 
0 
-0.7348723813203081 
0 
0 
0 
0 
-0.6705084892940749 
0 
0 
0 
0 
0 
-0.402288452247588 
0 
-1.150424764645133 
0 
0 
0 
-2.476144908732091 
0 
-0.4532264743282817 
0 
0 
0 
0 
0 
0 
0 
0 
0 
0 
0 
0 
3.304904430894006 
0 
0 
0 
0 
0 
0 
0 
0.4826136012184739 
0 
0 
0 
0 
0 
0 
0 
0 
0 
0 
0 
-1.256305718140912 
0 
0 
0 
0 
0 
-4.281942824811118 
0 
-3.123656820295811 
0.7862196349899907 
0 
0 
0 
0 
0 
0 
0 
0 
0 
-0.6584908585747704 
0 
0 
0 
0 
0 
0 
0 
0 
0 
0 
0 
-0.6042850081857714 
0 
0.3100601296864466 
0 
0 
-3.911796787394335 
0 
0 
0 
-1.619274885015714 
0 
-1.202778822187958 
0 
0 
0 
0 
0 
0 
0 
0 
0 
0 
-0.3661654885617946 
0 
0 
0 
0 
0 
0 
0 
0.01635677110226767 
0 
0 
0 
0 
0 
-1.025751220740007 
0 
0 
-1.335092267004933 
0 
0 
0 
0 
0 
0 
0 
0 
0 
0 
0 
0 
0 
0 
0 
0 
0 
0 
-1.918727015741434 
0 
0 
0 
0 
0 
2.799279842261492 
0 
0 
0 
0 
0 
0 
0 
0 
0 
0 
0 
0.8002672842760047 
0 
0 
0 
0 
0 
0 
0 
0 
0 
0 
0 
-0.2355860651123621 
0 
0 
0 
-0.6482346855545379 
0 
0 
-1.095341125874829 
0 
0 
0 
0 
0 
0 
0 
0 
-0.2499701613443695 
0 
-0.8675632689514126 
0 
0 
0 
0 
0 
0 
0 
0 
0 
0 
0 
0 
0 
0 
0 
0 
0 
0 
0 
0 
0 
0 
0 
0 
0 
0 
0 
0 
0 
0 
0 
0 
0 
0 
0 
0 
0 
0 
-1.075294819512095 
0 
-0.472352067813428 
0 
0 
0 
0 
0 
0.3013548101277617 
0.7558815307249452 
0 
0 
0 
0 
0 
0 
0 
0 
0 
0 
0 
-0.492953053405594 
0 
0 
0 
0 
0 
0 
0 
0 
0 
0 
0 
0 
0 
0 
0 
0 
0 
1.679491602247667 
0 
0 
0 
-0.2393901552359497 
0 
0 
0 
0 
0 
0 
0 
-2.254493578740267 
0 
0 
0 
0 
0 
0 
0 
0 
0 
0 
0 
0 
0 
0 
0 
0 
0 
0 
0 
0 
0 
0 
0 
0 
0 
0 
0 
0.5733462822242135 
0 
0 
0 
0 
0 
0 
0 
0 
0 
0 
0 
0 
-1.335638100501282 
0 
0 
0 
0 
0 
0 
0 
0 
0 
0 
0.8351152030574163 
0 
-0.5696161561665042 
0 
0 
0 
0 
0 
0 
0 
0 
0 
0 
0 
0 
0 
0 
0 
0 
0 
0 
0 
0 
0 
0 
0 
-1.905990285119687 
0 
0 
0 
0 
0 
0 
0 
0 
0 
-0.5452982689620308 
0 
0 
0 
0 
0 
0 
0 
-1.63181305878066 
0 
0 
0 
-3.056043117042201 
0 
0 
0 
0 
-0.4273470586288732 
0 
0.8425551108979225 
0 
0 
0 
0 
0 
0 
0 
0 
0 
0 
0 
0 
0 
0 
0 
0 
0 
0 
-0.4724606484497759 
0 
0 
0 
0 
0 
0 
0 
0 
0 
0 
0 
0 
0 
-0.2075608357044606 
0 
0 
0 
0 
0 
0 
0 
0 
0 
0 
0 
0 
0 
0 
0.2957832165970547 
0 
0 
0 
0 
0 
0 
0 
0 
0 
0 
0 
0 
0 
-0.5053253403851412 
0 
-1.217644892189994 
0 
0 
0 
0 
0.1050416476828769 
1.251921690993092 
0 
0 
0 
0 
0 
0 
0 
0 
0 
0 
0 
0 
0 
0 
0 
0 
0 
0 
0 
0 
0 
0 
0 
0 
0 
0 
0 
0 
-3.919165307738914 
0 
-2.53116694600592 
0 
0 
0 
0 
0 
0 
0 
0 
0.3239949272193132 
0 
0 
0 
0 
0 
0 
0 
0 
0 
1.13545444091675 
0 
0 
-0.6790974437056773 
0 
0 
0 
0 
0 
0 
0 
0 
0 
0 
0 
0 
0 
-0.2179846807936456 
0 
0 
0 
0 
0 
0 
0 
0 
0 
0 
0 
0 
0 
-0.6451103040284874 
0 
0 
0 
-3.432830162016991 
0 
0 
0 
0 
0.0231350856093067 
0 
0 
0 
0 
0.9509465779494946 
0 
0 
0 
0 
0.918591093970582 
0 
0 
0 
0 
0 
0 
0 
0 
-0.86100358624847 
0 
0 
0 
0 
0 
0 
0 
0.7693950334899973 
0 
0 
-2.014924441418755 
0 
0 
0 
0.0248118870271659 
0 
0 
-1.141583610927862 
0 
0 
0 
0 
0 
0 
-1.320068852220305 
0 
0 
0 
-0.5714851913419928 
-0.1164509579817371 
0 
0 
0 
0 
0 
0 
0 
0 
0 
0 
0 
0 
0 
0.1769206096454841 
0 
0 
0 
0 
0 
0 
0 
1.0656450333837 
0 
0 
0 
0 
0 
0 
-1.016283199647533 
1.371421937337171 
0 
0 
0 
0 
0 
-2.493769594862182 
0 
0 
0 
0 
0 
0 
0 
0 
0 
0 
0 
0 
0 
0 
0 
0 
0 
0 
0 
-3.006609567966328 
0 
0 
0 
0 
0 
0 
0 
0 
0 
0 
0 
0 
0 
0 
0 
0 
0 
0 
0 
0 
0 
0 
0 
0 
0 
0.1270680568616751 
0 
0 
0 
0 
0 
0 
0 
0 
0 
0 
0 
0 
0 
0.6758866897404078 
0 
-0.6342348198945854 
0 
0 
0 
0 
0 
0 
0 
0 
0 
0 
0 
0 
0 
0 
0 
0 
0 
0 
0 
0 
0 
0 
0 
0 
0 
0 
0 
0 
0 
0 
0 
0 
-2.73070463792443 
0 
0 
0 
0 
0 
0 
0 
-0.339217697128071 
0 
0 
-0.6873096225324905 
0 
-1.412493439532222 
0 
0 
1.037805215639551 
0 
0 
0 
0 
0 
0 
0 
0 
0 
0 
-3.816181005942965 
0 
0 
0 
0 
0 
0 
0 
0 
0 
0 
0 
0 
0 
0 
0 
0 
0 
0 
0 
0 
0 
1.88716740565774 
-0.5942285419498077 
0 
0 
0 
0 
0 
0.4663909795183458 
0 
0 
0 
-2.350607839811565 
0 
0 
0 
0 
0 
0 
0 
0 
0 
-1.918198043745644 
0 
0 
0 
0 
0 
0 
0 
0 
0 
0 
0 
0 
0 
0 
0 
0 
0 
0 
0 
0 
0 
0 
0 
0 
0 
0 
0 
0 
0 
0 
0 
0 
0 
0 
0 
0 
-0.6008385702604314 
0 
0 
0 
0 
0 
0 
0 
0 
0 
0 
0 
0 
0 
0 
0 
0 
0 
0 
0 
0 
0 
-1.88392582186766 
0 
0 
-1.197767804038459 
0 
0.2551899426385398 
0 
-0.9911163162349205 
0 
0 
0 
0 
0 
0 
0.6450337704520647 
0 
0 
-0.7591830955531215 
1.829000583796119 
0 
0 
0 
0 
0 
0 
0 
0 
0 
0 
0 
0 
0 
0 
0 
0 
0 
0 
0 
0 
0 
0 
0 
0 
0 
0 
0 
0 
0 
0 
0 
-1.815891820369856 
0 
1.489349468939088 
-0.1351312138512583 
0 
0 
0 
-0.3793582784015942 
0 
-0.5793795896924918 
0 
0 
0 
0 
0 
0 
0 
0 
0 
0 
0 
0 
0 
0 
0 
0 
-1.856558728609715 
0 
0 
0 
0 
0 
0 
1.460119250051045 
0 
0 
0 
0 
0 
0 
0 
0 
0 
0 
0 
0 
0 
0 
0 
0.5377721987644948 
-0.4766285048151905 
0 
0 
0.1368414524272362 
0 
0 
0 
0 
0 
0 
0 
0 
0 
0 
0 
0 
0.9383300123404718 
0 
0 
0 
0 
0 
0 
0 
0 
0 
0 
0 
0 
0 
0 
0 
0 
0 
0 
0 
0 
0 
0 
0 
0 
0 
0 
0 
0.24082501833542 
0 
0 
0 
0 
0 
0 
0 
0 
0 
0 
0 
0 
0 
0 
0 
0.1086096209937479 
0 
0 
0 
0 
0 
0 
0 
0 
0 
0 
0 
0 
0 
0 
0 
0 
0.1503109149853076 
0 
0 
0 
0 
0 
0 
0 
0 
0 
0 
0 
0 
0 
0 
-1.972250671240569 
0 
0 
0 
0 
0 
0 
0 
0 
0 
0 
0 
0 
0 
0 
0 
0 
0 
-1.11002678221825 
0 
0 
0 
0 
0 
0 
0 
0 
0 
0 
0 
0 
0 
-0.1715306029091664 
0 
0 
0 
0 
0 
0 
0 
0 
0 
0 
0 
0 
0 
0 
0 
0 
0 
0 
0 
0 
0 
0.2661294746821241 
0 
0 
0 
0 
0 
0 
0 
0 
0 
0 
0 
0 
0 
0 
0 
0 
0 
0 
0 
0 
0 
0 
-1.275253612431109 
0 
0 
0 
0 
0 
0 
0 
0 
0 
0 
0 
0.2091146577915846 
0.2538227043377386 
0 
-1.072528020983531 
0 
0 
0 
0 
0 
0 
0 
0 
0 
-1.012742112309558 
0 
0 
0 
0 
0 
0 
1.864268896484358 
0 
0 
0 
0 
0 
0 
0 
0 
0 
0 
-1.361250716076373 
0 
0 
0 
0 
0 
0 
0 
0 
0 
0 
0 
0 
0 
-0.1979514468843408 
0 
0 
0 
0 
0 
-0.5822735712859225 
0 
0 
0 
0 
0 
0 
0 
0 
0 
0 
0 
0 
0 
0 
0 
0 
0 
0 
0 
0 
0 
0 
0 
0 
0 
0 
0 
0 
0 
0 
0 
-0.4206584247161898 
0 
0 
0 
0 
-1.079820269222222 
0 
0 
0 
0 
0 
0 
0 
0 
0 
0 
0 
0 
0 
0 
0 
0 
0 
0 
0 
0 
0 
0 
0 
0 
0 
0 
0 
0 
0 
0 
0 
0 
0 
0 
0 
0 
0 
-0.7176709909502986 
0 
0 
0 
0 
0 
0 
0 
0 
-0.5387770437492052 
0 
0 
0 
0 
0 
0 
0 
0 
0 
0 
0 
0 
0 
0 
0 
0 
0 
0 
0 
0 
0 
0 
0 
0 
0 
0 
0 
0 
0 
0 
0 
0 
0 
0 
0 
0 
0 
0 
0 
0 
0 
0 
0 
0 
0 
0 
0 
0 
0 
0 
0 
-0.7895499499672558 
0 
0 
0 
0 
0 
0 
0 
0 
0 
0 
0 
0 
0 
0 
0 
0 
0 
0 
0 
0 
0 
0 
0 
0 
0 
0 
0 
0 
-3.594240719493758 
-1.892037390821994 
0 
-1.307115547418414 
0 
0 
0 
0 
0 
0 
0 
0 
0 
0 
0 
0 
0 
0 
0 
0 
0 
0 
0 
0 
0 
0 
0 
-0.5924310591528175 
0 
0 
0 
0 
0 
0 
-1.793466570179319 
0 
0 
0 
0 
0 
0 
0 
0 
0 
0 
0 
0 
0 
0 
0 
0 
-0.4828515035974132 
0 
-2.659890979145962 
0 
0 
0 
0 
0 
0.2646628642193646 
0 
0 
0 
0 
0 
0 
0 
0 
0 
0 
0 
0 
0 
0 
0 
0 
0 
0 
0.7519874506091521 
0 
0 
1.237691720788982 
0 
0 
0 
0 
0 
0 
0 
-0.76789086444997 
0 
0 
0 
0 
0 
0 
0 
0 
0 
0 
0 
0 
0 
0 
0 
0 
0 
0 
0 
0 
0 
0 
0 
0 
0 
0 
0 
0 
0 
0 
0 
0 
0 
0 
0 
0 
0 
0 
0 
0 
0 
0 
0 
0 
0 
0 
0 
0 
0 
0 
0 
0 
0 
0 
0 
0 
0 
0 
0 
0 
0 
0 
0 
0 
0 
0 
0 
0 
0 
0.6128456519577288 
-1.338293365650406 
-0.994148570828285 
-0.6643832333976546 
0.203754398256181 
0 
-1.557743371068638 
0 
0 
0 
0 
0 
0 
0 
0 
0 
0 
0 
-3.01934859315548 
0 
0 
0 
0 
-0.9609500052056648 
0 
0 
0 
0 
0 
0 
0 
0 
0 
3.488508776771752 
0 
0 
0 
0 
0 
0 
0 
0 
0 
0 
0 
0 
1.685902668589864 
0 
0 
0 
1.915993232911414 
0 
0 
0 
0 
0 
0 
0 
0 
0 
0 
0 
0.9406897287007814 
0 
0 
0 
0 
0 
0 
0 
0 
0 
0 
0 
0 
0 
0 
0 
0 
0 
0 
0 
0 
0 
0 
-1.164165587881917 
0 
0 
0 
0 
0 
0 
0 
0 
-2.299898773467563 
0 
0 
0 
-2.134738242136014 
0 
0 
0 
0 
0 
0 
0 
0 
0 
0 
0 
0 
0 
0 
0 
0 
0 
0 
0 
0 
0 
2.405913598309283 
0 
0 
0 
0 
0 
-0.3544740607347349 
0 
0 
0 
0 
0 
0.08504672598616157 
0 
0 
0 
0 
0 
0 
0 
0 
0 
0 
0.6163945005061535 
0 
0 
0 
0 
0 
0 
0 
0 
0 
-1.196707517147908 
0 
0 
0 
0 
0 
0 
0 
0 
0 
0 
-4.354526665368797 
0 
0 
0 
0 
0 
-1.282170312763861 
0 
0 
0 
0.3378447793819733 
0 
0 
0 
0 
0 
0 
-0.7439517641531686 
0 
0 
0 
0 
0 
0 
0 
0 
0 
-2.348452067185266 
0 
0 
0.6909064095751525 
0 
0 
0 
0 
0 
0 
0 
0.06456064381114381 
0 
0 
0 
0 
0 
0 
-0.7018548536889228 
0 
0 
0 
0 
0 
0 
0 
0 
0.0266637327500872 
-1.481052780780896 
0 
0 
0 
0 
0 
0 
0 
0 
0 
0 
0 
0 
-3.249253687198172 
0 
0 
0 
-2.834297347213374 
-0.5939379023804675 
0 
0 
0 
0 
0 
0 
-0.1204630567353232 
0 
0 
0 
0 
0 
0 
0 
0 
0 
0 
0 
0 
0 
0 
0 
-0.7320164838845432 
0 
0 
0 
0 
0 
-0.392246312032077 
0 
-0.7129560113312029 
0 
0 
0 
0 
0 
-1.049942480132286 
0 
0 
0 
0 
0 
0 
0 
0 
0 
0 
0 
0 
0 
0 
0 
0 
0 
0 
0 
0 
0 
0 
0 
0 
0 
0 
0 
0 
0 
0 
0 
0 
0 
0 
0 
0 
0 
0 
0 
0 
0 
0 
0 
0 
0 
0 
-1.30523049061681 
-2.502779781315782 
0 
0 
0 
0 
-0.4235962222676171 
0 
0 
0 
0 
0 
0 
0 
0 
0 
0 
0 
0 
0 
0 
0 
0 
0 
0 
0 
0 
0 
0 
0 
0 
0 
0 
0 
0 
0 
0 
0 
0 
0 
0 
0 
0 
0 
-0.4903911446517077 
0 
0 
0 
0 
0 
0 
0 
0 
0.8157303588449318 
0 
0 
0 
0 
0 
1.593301786742242 
1.021160949350121 
0 
0 
0 
-1.902720245383276 
0 
0 
0 
0 
0 
0 
0 
0.512223922765869 
0 
0 
0 
0 
0 
0 
0 
0 
0 
0 
0 
0 
0 
0 
0 
0 
0 
0 
0 
0 
0 
0 
0 
0 
0 
0 
-0.5594179897392283 
0 
0 
0 
0 
0 
0 
0 
0 
0 
0 
-0.1284078845526907 
-0.3299878721127279 
0 
0 
0 
0 
0 
-0.82269446640694 
0 
0 
0 
0 
0 
0 
0 
0 
0 
0 
0 
0 
0 
0 
0 
0 
0 
0 
0 
0 
0 
0 
-1.049070696436696 
0 
0 
0 
0 
0 
0 
0 
0 
0 
0 
0 
0 
0 
0 
0 
0 
0 
0 
0 
0 
0 
0 
0 
0 
0 
0 
0 
0 
0 
0 
0 
0 
0.5847938353344178 
0 
0 
0.2623817881001039 
0 
-2.33155357711815 
0 
0 
0 
0 
0 
0 
0 
0 
0 
-0.1782225038997304 
0 
0 
0 
0 
0 
0 
0 
0 
0 
0 
0 
0 
0 
0 
-1.549054503983158 
0 
0 
0 
0 
-2.425063482703306 
0 
0 
0 
-0.673459754800621 
0 
0 
0 
0 
0 
0 
0 
0 
0 
0 
0 
0 
0 
0 
0 
0 
0 
0 
0 
0 
0 
0 
0 
0 
0 
0 
0 
-0.2315081503877471 
0 
0 
0 
0 
0 
0 
-1.074890528860611 
0 
0 
0 
0 
0 
0 
0 
0 
0 
0 
0 
0 
0 
0 
0 
0 
0 
0 
0 
0 
-2.736076349008447 
0 
-2.403311466083838 
0 
0 
0 
0 
0 
0 
0 
0 
-3.872269755488851 
-1.288953530541092 
0 
0 
0.89256678694739 
0 
0 
0 
0 
0 
0 
0 
0 
0 
-2.471404599013563 
0 
0 
0 
0 
0 
0 
0 
0 
0 
0 
0 
0 
0 
0 
0 
0 
0 
0 
0 
0 
0 
0 
0 
0 
0 
0 
0 
0 
-0.9616774348059689 
0 
0 
-0.8421084660719529 
0 
0 
0 
-0.03001191580416201 
0 
0 
0 
-0.1721463183347222 
0 
0 
0 
0 
0 
0 
0 
0 
0 
0 
0 
0 
0 
1.416709565563892 
0 
0 
0 
0 
0 
0 
0 
0 
0 
0 
0 
-1.87650577888184 
0 
0 
0 
0 
0 
0 
0 
0 
0 
-1.357110910920656 
0 
0 
0 
0.08475122860959659 
0 
0 
0 
0 
0 
0 
0 
0 
0 
0 
0 
0 
-1.061329121551478 
0 
0 
0 
0 
0 
0 
0 
0 
0 
0 
0 
0 
0 
0 
0 
0 
0 
-0.9277100626547337 
0 
0 
0 
0 
0 
0 
0 
0 
0 
0 
0 
0 
0 
0 
0 
0 
0 
0 
0 
0 
-5.229824575434703 
0 
0 
0 
0 
0 
0 
0 
0 
0 
0 
0 
0 
0 
0 
0 
0 
0 
0 
0 
0 
0 
0 
0 
0 
-1.191206887313837 
0 
0 
0.160880580579162 
0 
0 
0.7752566129744647 
0 
0 
0 
0 
0 
0 
0 
0 
0 
0 
0 
0 
0 
0 
0 
0 
-0.5096351631861769 
0 
0 
0 
0 
0 
0 
0 
0 
0 
0 
0 
0 
0 
0 
0 
0 
0 
0 
0 
0 
0 
0 
5.793362242844352 
0 
0 
0 
0 
0 
0 
0 
0 
0 
0 
0 
0 
0 
0 
0 
0 
0 
0 
0 
0 
0 
0 
0 
0 
0 
0 
0 
0 
0 
0 
0 
0 
0 
0 
0 
-0.2711230988134359 
0 
0 
0 
-0.6162912015964542 
0 
0 
0 
-2.000487423583911 
0 
0 
0 
0 
0 
0 
0 
0 
0 
0 
0 
0 
1.986572770037819 
0 
0 
0 
0 
0.5101964068064956 
0 
0 
0 
0 
-0.06447142323736776 
0 
-1.338130394536564 
0 
0 
0 
0 
0 
0 
0 
0 
0 
0 
0 
0 
0 
0 
0 
0 
0 
0 
0 
-0.3805627041513769 
0 
0 
0 
0 
0 
0.5998987377813123 
0 
0 
0 
0 
0 
0 
0 
0 
0 
0 
0 
0 
0 
0 
0 
0 
0 
0 
0 
0 
0 
0 
0 
0 
0 
0 
0 
0 
0 
0 
0 
0 
0 
1.351584780437923 
1.144914727184376 
0 
0 
1.761868101779613 
0 
0 
0 
0 
0 
0 
0 
0 
0 
0 
0 
0 
0 
0 
0 
0 
0 
0 
0.8730235646582573 
0 
0 
0 
0 
0 
0 
0 
0 
0 
0 
0 
0 
0 
0 
0 
0 
0 
0 
0 
0 
0 
0 
0 
0 
1.32409218173266 
-2.057319540737256 
0 
0 
0 
0 
0 
0 
0 
0 
0 
0 
0 
0 
0 
0 
0 
0 
0 
0 
0 
0 
-0.662582917650845 
0.9940657417021571 
0 
0 
0 
0 
0 
0 
0 
-0.9976197192203694 
0 
0 
0 
0 
0 
0 
0 
0 
-0.652129545299989 
0 
0 
0 
0 
0 
0 
0 
0 
0 
0 
-0.928458446336516 
0 
0 
0 
0 
0 
0 
0 
0 
0 
0 
0 
-1.805308620102692 
0 
0 
0 
0 
0 
0 
0 
0 
0 
0 
0 
-0.1331351227609562 
0 
-1.182101559033615 
0.1599263566403463 
0.9311849593288116 
0 
0 
0 
-0.5103252453593717 
-1.870254432297194 
0 
-1.345838061040268 
-0.1712394767732478 
0 
0 
0 
0 
0 
0 
0 
0 
0 
0 
0 
0 
0 
0 
0 
0 
0 
0 
0 
0 
0.4952133844290224 
0 
0 
0 
0 
0 
0 
0 
0 
0 
0 
0 
0 
0 
0 
0 
0 
0 
0 
0 
0 
0 
0 
0 
0 
0 
0 
0 
0 
0.973569881215957 
0 
0 
-3.546849603395921 
0 
0 
0 
0 
-1.025715754380811 
0 
0 
0 
0 
0 
0 
0 
0 
0.1375880859040657 
0 
0 
0 
0 
0 
0 
0 
0 
0 
0 
0 
0 
0 
0 
0 
0 
0 
-0.4788501514174106 
0 
0 
0 
0 
0 
0 
0 
0 
0 
0 
0 
0 
0 
-1.797856627045707 
0 
0 
0 
0 
-0.01631184267787133 
0 
0 
0 
0 
0 
0 
0 
0 
0 
0 
0 
0 
0 
0 
0 
0 
0 
0 
0 
0 
0.7485365589715302 
0 
0 
0.03984331547350244 
0 
0 
0 
0 
0 
0 
-1.705252601861435 
0 
0 
0 
0 
0 
0 
0 
0 
0 
0 
-1.091302389305764 
0 
0 
0 
0 
0 
0 
0 
0 
0 
0 
0 
0 
0 
0 
0 
0 
0 
0 
0 
0 
0 
0 
0 
0 
0 
0 
0 
0 
0 
0 
0 
0 
-0.8757176923936184 
0 
0 
0 
0 
0 
0 
0 
0 
0 
0 
0 
0 
0 
0 
0 
0 
0 
0 
0 
0 
0 
0 
0 
-0.3275514586280314 
0 
0 
0 
0 
0 
0 
0 
0 
0 
0 
0 
0 
0 
0 
0 
0 
0 
0 
0 
0 
0 
0 
0 
0 
0 
0 
0 
0 
0 
0 
0 
0 
0 
0 
0 
0 
0 
0 
0 
0 
0 
0 
0 
0 
0 
0 
0 
0 
0 
0 
0 
0 
0 
0 
0 
0 
0 
0 
-1.721668851885057 
0 
0 
0 
0 
0 
0 
0 
0 
0 
2.00639445890379 
0 
0 
0 
0 
0 
0 
0 
0 
0 
0 
0 
0 
0 
0 
0 
0 
0 
0 
0 
0 
0 
0 
0 
0 
0 
0 
0 
0 
0 
0 
0 
0 
0 
0 
0 
0 
0 
0 
0 
0 
0 
0 
0 
0.5739751359678923 
0 
0 
0 
0 
0 
0 
0 
0 
0 
0 
0 
0 
0 
0 
0 
0 
0 
0 
0 
0 
0 
0 
0 
0 
0 
0 
0 
0 
0 
-2.112629322949699 
0 
0 
0 
-1.415857614105316 
0 
0 
0 
0 
0 
0 
0 
0 
0 
0 
0 
0 
-0.4710079603036028 
0 
0 
0 
0 
0 
0 
0 
0 
0 
0 
0 
0 
0 
0 
-1.89817815343624 
0 
0 
0.5936818823310357 
0 
-0.3019580107633784 
0 
0 
0 
0 
-3.437239989515009 
0 
0 
0 
0 
0 
0 
0 
0.3961146374458583 
0 
0 
0 
0 
0 
1.875255675704386 
0 
0 
0 
0 
0 
2.204272173178241 
0 
0 
0 
0 
0 
0 
0 
0 
0 
-0.5999396006316569 
0 
0 
0 
0 
0 
0 
0 
0 
0 
0 
0 
0 
0 
0 
0 
0 
0 
0 
0 
0 
0 
0 
0 
0 
0 
0 
0 
0 
0 
0 
0 
0 
0 
0 
0 
0 
0 
0 
0 
0 
0 
0 
0 
0 
0 
0 
0 
0 
0 
0 
0 
0 
0 
0 
0 
0 
0 
0 
0 
0 
0 
0 
0 
0 
0 
0 
0 
0 
-0.09700337243399225 
0 
0 
-1.1169083186246 
0 
0 
0 
0 
0 
0 
0 
0 
0 
0 
0 
0 
0 
0 
0 
0 
0 
0 
0 
0 
0 
0 
0 
0 
0 
0 
0 
0 
0 
0 
0 
0 
0 
0 
0 
0 
0 
0 
0 
0 
0 
0 
0 
0 
0 
0 
0 
0 
0 
0 
0 
0 
0 
0 
0 
0 
0 
0 
0 
0 
0 
0 
0 
0 
0 
0 
0 
0 
0 
0 
0 
0 
0 
0 
0 
0 
0 
0 
0 
0 
0 
0 
0 
0 
0 
-0.4820610228341477 
0 
-4.426332976556804 
2.960327230738183 
0 
0 
0 
0 
0 
0 
0 
0 
0 
0 
0 
0 
0 
-2.644639386568395 
0 
0 
0 
0 
0 
0 
0 
0 
0 
0 
0 
0 
0 
0 
0 
0 
0 
0 
0 
0 
0 
0 
0 
0 
0 
0 
0 
0 
0 
0 
0 
0 
0 
0 
0 
0 
0 
0 
0 
0 
0 
0 
0 
0 
0 
0 
0 
0 
0 
0 
0 
0 
-1.749453874619166 
0 
0 
2.725168006192791 
0 
0 
-0.8819086441103533 
0 
-1.089140620985587 
1.843028552615597 
0 
0 
0 
0 
0 
0 
0 
0 
0 
-0.7576415878387067 
0.5753912737825502 
0 
0 
0 
0 
0 
0 
0 
0 
0 
0 
0 
0 
0 
0 
0 
0 
0 
0 
0 
0 
0 
0 
0 
0 
-6.348607024808549 
0 
0 
0 
0 
0 
0 
0 
0 
0 
0 
0 
0 
0 
0 
-0.2415275877195473 
0 
0 
0 
0 
-0.4824786459699771 
0 
0 
0 
0 
0 
0 
0 
0 
0 
0 
0 
0 
0 
0 
0 
0 
0 
0 
0 
0 
0 
0 
0 
0 
0 
0 
0 
0 
0 
0 
0.1123965799779468 
0 
0 
0 
0 
0 
0 
0 
0 
0.1655356679364678 
0 
0 
0 
0 
0 
0 
0 
0 
0 
0 
0 
0 
0 
0 
0 
0 
0 
0 
0 
0 
0 
0 
0 
0 
0 
0 
0 
0 
0 
0 
0 
0 
0 
0 
0 
0 
0 
0 
0 
0 
0 
0 
0 
0 
0 
0 
0 
0 
0 
-0.6069656723771474 
0 
0 
0 
0 
0 
0 
0 
0 
0 
0 
0 
0 
0 
0 
0 
0 
0 
0 
0 
0 
0 
0 
0 
0 
0 
0 
0 
0 
0 
0 
0 
0 
0 
0 
0 
0 
0 
-0.4546619119946576 
-2.79837007637259 
0 
0 
0 
0 
0 
0 
0 
0 
0 
0 
0 
0 
0 
0 
0 
0 
0.3290160732815055 
0 
0 
0 
0 
0 
0 
0 
0 
0 
0 
0 
0 
0 
1.443327274989138 
0 
0 
0 
0 
0 
0 
0 
0 
0 
0 
0 
0 
0 
0 
0 
0 
0 
0 
0 
0.393005504757979 
0 
0 
-0.5229917072808992 
1.813583843514574 
0 
0 
0 
0 
0 
0 
0 
0 
-0.2699266591386092 
0 
0 
0 
0 
0 
0 
0 
0 
-0.2671543759136655 
0 
0 
0 
0 
0 
0 
0 
0 
0 
0 
0 
0 
0 
0 
0 
0 
0 
0 
0 
0 
0 
0 
0 
0 
0 
0 
0 
0 
0 
0 
-2.092652098017786 
0 
0 
0 
0 
0 
0 
0 
0.4886656070022461 
0 
0 
0 
0 
0 
0 
0 
0 
0 
0 
0 
0 
0 
0 
0 
0 
0 
0 
0 
0 
0 
0 
1.516163089639786 
0 
0 
0 
0 
0 
0 
0 
0 
0 
0 
0 
0 
0 
0 
0 
0 
0 
0 
0 
0 
0 
0 
0 
0 
0 
0 
0 
0 
0 
0 
0 
0 
0 
0 
0 
0 
0 
0 
0 
0 
0 
0 
0 
0 
0 
0 
0 
0 
-0.2041294502904456 
0 
0 
0 
0 
0 
-1.41969243104149 
0 
0 
0 
0 
0 
0 
0 
0 
0 
0 
0 
0 
0 
0 
0 
0 
0 
0 
0 
0 
0 
0 
0 
0 
0 
0 
0 
0 
0 
0 
0 
0 
0 
0 
0 
0 
0 
0 
0 
0 
0 
0 
0 
0 
0 
0 
0 
0 
0 
0 
0 
-0.6417728326988701 
0 
0 
0 
0 
0 
0 
0 
0 
0 
0 
0 
-1.203659195888429 
0 
0 
0 
0 
0 
0 
0 
0 
0 
0 
0 
0 
0 
0 
0 
0 
0 
0 
0 
0 
0 
0 
0 
0 
0 
0 
0 
0 
0 
0 
0 
0 
0 
0 
0 
0 
0 
0 
0 
0 
0 
0 
0 
0 
0 
0 
0 
-0.5640686501999476 
0 
0 
0 
0 
0 
0 
0 
0 
0 
0 
0 
0 
0 
0 
-1.288639076180765 
0 
0 
0 
0 
0 
0 
0 
0 
0 
0 
0 
0 
0 
0 
0 
0 
0 
0 
0 
0 
0 
0 
0 
0 
0 
0 
0 
0 
0 
0 
0 
0 
0 
0 
0 
0 
0 
0 
0 
0 
0 
0 
0 
0 
0 
0 
0 
0 
0 
0 
0 
0 
0 
0 
0.3846702322221336 
0 
0 
0 
0 
0 
0 
0 
0 
0 
0 
0 
0 
0 
0 
0 
0 
0 
0 
0 
0 
0 
0 
0 
0 
0 
0 
0 
0 
0 
0 
0 
0 
0 
0 
0 
0 
0 
0 
0 
0 
0 
0 
0 
0 
0 
0 
0 
0 
0 
0 
0 
0 
0 
0 
0 
0 
0 
0 
0 
-0.4562488480525567 
0 
0 
0 
0 
0 
0 
0 
0 
0 
-0.07447959960361204 
0 
0 
0 
0 
0 
0 
0 
0 
0 
0 
0 
0 
-0.372865718059579 
0 
0 
0.8099285950890716 
0 
0 
0 
0 
0 
0 
-0.3130604598225338 
0 
0 
0 
0 
0 
0 
0 
0 
0 
0 
0 
0 
0 
0 
0 
0 
0 
0 
0.06569224712959898 
0 
0 
0 
0 
0 
0 
0 
0 
0 
0 
0 
0 
0 
0 
0 
0 
0 
0 
0 
0 
0 
1.441606012153606 
0 
1.030924730401765 
0 
0 
0 
0 
-0.3863545346831263 
0 
0 
0 
0 
0 
0 
0 
0 
0 
0 
0 
0 
0 
0 
0 
0 
0 
0 
0 
0.4250822727738101 
0 
-1.011679053205034 
0 
0 
0 
0 
0 
0 
0 
0 
0 
0 
0 
0 
0 
0 
0 
0 
0 
0 
0 
-0.08158636608938294 
2.933503275161409 
0 
0 
0 
0 
0 
0 
0 
0 
0 
0 
0 
0.360997262625803 
0 
-2.710863505790815 
-0.2884734433982263 
0 
0 
0 
0 
0 
-0.8191332257141099 
0 
0 
0 
0 
0 
0 
0 
0 
0 
0 
0 
0 
0 
0 
-0.4091316363822441 
0 
0 
0 
0 
0 
0 
0 
0 
0 
0 
0 
0 
0 
0 
0 
0 
0 
0 
0 
0 
0 
0 
0 
0 
0 
0 
0 
0 
0 
0 
0 
0 
0 
0 
0 
0 
0 
0 
0 
0 
0 
0 
0 
0 
-0.6089991104806575 
0 
0 
0 
0 
0 
2.475918448007119 
1.014694190974987 
0 
0 
0 
0 
0 
0 
0 
0 
0 
0 
0 
0 
0 
0 
0 
0 
0 
0 
0 
0 
0 
0 
0 
0 
0 
0 
0 
0 
0 
0 
0 
0 
0 
0 
0 
0 
0 
-1.69181342483678 
0 
0 
0 
0 
0 
0 
0 
0 
0 
0 
0 
0 
0 
0 
0 
0 
0 
0 
0 
0 
0 
1.855285250643973 
0 
0 
0 
0 
0 
0 
0 
-1.864610794215448 
0 
0 
0 
0 
0 
0 
0 
0 
0 
0 
0 
0 
0 
0 
0 
0 
0 
0 
0.04381022646680965 
0 
1.403090056723434 
0 
0 
0 
0 
0 
0 
0 
-1.016224920340417 
0 
0 
0 
0 
0 
0 
0 
0 
0 
0 
0.2552622602840919 
0 
0 
0 
0 
0 
0 
0 
0 
0 
0 
0 
0 
0 
0 
0 
0 
0 
0 
0 
0 
0 
0 
0 
0 
0 
0 
0 
0 
0 
0 
0 
0 
0 
0 
0 
0 
0 
0 
-0.08912637378225007 
0 
0 
0 
0 
0 
0 
0 
0 
0 
0 
0 
0 
0 
0 
0 
0 
0 
0 
0 
0 
0 
0 
0 
0 
0 
0 
0 
0 
0 
0 
0 
0 
0 
0 
0 
0 
0 
0 
0 
0 
0 
0 
3.293252075637011 
0.8700382768062815 
0 
0 
0 
0 
0 
0 
0 
0 
0 
0 
0 
0 
0 
0 
0 
0 
1.217861551704139 
0 
0 
0 
0 
0 
0 
0 
0 
0 
0 
0 
0 
0 
0 
0 
0 
0 
0 
0 
0 
0 
0 
0 
0 
0 
0 
0 
0 
0 
0 
0 
0 
0 
0 
0 
0 
0 
0 
0 
0 
0 
0 
0 
0 
0 
0 
0 
0 
0 
0 
0 
0 
0 
0 
0 
0 
1.225481860794925 
0 
0 
0 
0 
0 
0 
0 
0 
0 
0 
0 
0 
0 
0 
0 
0 
0 
0 
0 
0 
0 
0 
0 
0 
0 
0 
0 
0 
0 
0 
0 
0 
0 
0 
0 
0 
0 
0 
0 
0 
0 
0 
0 
0 
0 
0.4643488809111513 
0 
-1.648355035733609 
0 
0 
0 
0 
0 
0 
0 
0 
0 
0 
0 
0 
0 
0 
0 
0 
0 
0 
0 
-2.931307571914922 
0 
0 
-0.09155058783076644 
0 
0 
0 
0 
-2.853269779529293 
0 
0 
0 
0 
0 
0 
0 
0 
2.162647453505759 
0 
0 
0 
0 
0 
0 
0 
0 
0 
0 
0 
0 
0 
0 
0 
0 
0 
0 
0 
0 
0 
0 
0 
0 
0 
0 
0 
0 
0 
0 
0 
0 
0 
0 
0 
0 
0 
0 
0 
0.01164217048147296 
0 
0 
0 
-1.064118609551635 
0 
0 
0 
0 
0 
0 
0 
0 
0 
0 
0 
0 
0 
-0.5494201129871127 
0 
0 
0 
0 
0.4014765194243031 
0 
0 
0 
0.9674822428131147 
0 
0 
0 
0 
0 
0 
0 
0 
0 
0 
0 
0 
0 
0 
0 
0 
0 
0 
0 
0 
0 
0 
0 
0 
0 
0 
0 
0 
0 
0 
0 
0 
0 
0 
0 
0 
0 
0 
0 
0 
0 
0 
0 
0 
0 
0 
0 
0 
0 
0 
0 
0 
0 
0 
0 
0 
0 
0 
0 
0 
0 
0 
0 
0 
0 
0 
0 
0 
0 
0 
0 
0 
0 
0 
0 
0 
0 
0 
0 
0 
0 
0 
0 
0 
0 
0 
0 
0 
0 
0 
0 
0 
0 
0 
0 
0 
0 
1.841539001254167 
0 
0 
0 
0 
0 
0 
0 
0 
0 
0 
0 
0 
0 
0 
0 
0 
0 
0 
0 
0 
0 
0 
0 
0 
0 
0 
0 
0 
0 
0 
0 
0 
0 
0 
0 
0 
0 
0 
0 
0 
0 
0 
0 
0 
0 
0 
0 
0 
0 
0 
0 
0 
0 
0 
0 
0 
0 
0 
0 
0 
0 
0 
0 
0 
0 
0 
0 
0 
0 
0 
0 
0 
0 
0 
0 
0 
0 
0 
0 
1.850508548961309 
0 
0 
0 
0 
0 
0 
0 
0 
0 
0 
0 
0 
0 
0 
0 
0 
0 
0 
0 
0 
0 
0 
0 
0 
0 
0 
0 
0 
0 
0 
0 
0 
0 
0 
0 
0 
0 
0 
0 
0 
0 
0 
0 
0 
0 
0 
0 
0 
0 
0 
0 
0 
0 
0 
0 
0 
0 
0 
0 
0 
0 
0 
2.667043459176286 
0 
0 
0 
0 
0 
0 
0 
1.659051219038944 
0 
0 
0 
0 
0 
0 
0 
0 
0 
0 
1.455863421458261 
0 
0 
0 
0 
0 
0 
0 
-3.514217663460517 
0 
0 
0 
0 
0 
0 
0 
0 
0 
0 
0 
0 
0 
0 
0 
0 
0 
0 
0 
0 
0 
0 
0 
0 
0 
0 
0 
0 
0 
0 
0 
0 
0 
0 
0 
0 
0 
0 
0 
0 
0 
0 
0 
0 
0 
0 
0 
0 
0 
0 
0 
0 
0 
0 
0 
0 
0.06244064008813242 
0 
-0.5040342777695119 
0 
0 
0 
0 
0 
0 
0 
0 
0 
0 
0 
0 
0 
0 
0 
0 
0 
0 
0 
0 
0 
0 
0 
0 
0 
0 
0 
0 
0 
0 
0 
0 
0 
0 
0 
1.267826453578919 
0 
0 
0 
0 
0 
0 
0 
0 
0 
0 
0 
0 
0 
0 
0 
0 
0 
0 
0 
0 
0 
0.8540706512677475 
0 
0 
0 
0 
0 
0 
0 
0 
0 
0 
0 
0 
0 
0 
0 
0 
0 
0 
0 
0 
0 
0 
0 
0 
0 
0 
0 
0 
0 
0 
0 
0 
0 
0 
0 
0 
0 
0 
0 
0 
0 
0 
0 
0 
0 
0 
0 
0 
0 
0 
0 
0 
0 
0 
0 
0 
0 
0 
0 
0 
0 
0 
0 
-1.581488568550824 
0 
0 
0 
0 
0 
0 
0 
0 
0 
0 
0 
0 
0 
0 
0 
0 
0 
0 
0 
0 
0 
0 
0 
0 
0 
0 
0 
0 
0 
0 
0 
0 
0 
0 
0 
0 
0 
0 
0 
0 
0 
0 
0 
0 
0 
0 
0 
0 
0 
0 
0 
0 
-1.529242365589564 
0 
-0.3400550572434622 
0 
0 
-0.3904155522274194 
0 
0 
0 
0 
-1.618040538992577 
0 
0 
-0.322690496625774 
0 
0 
0 
0 
0 
0 
0 
0 
0 
0 
0 
0 
0 
0 
0 
0 
0 
-1.692278453400627 
0 
0 
0.6153113511819375 
0 
0 
0 
0 
0 
0 
0 
0 
0 
0 
0 
0 
0 
0 
0 
0.3337157877944458 
0 
0 
0 
0 
0 
0 
-0.1706321202302853 
0 
0 
0 
0 
0 
1.874127604057335 
0 
0 
0 
0 
0 
0 
0 
0 
0 
0 
0 
0 
0 
0 
0 
0 
0 
0 
0 
0 
0 
0 
0 
0 
0 
0 
0 
0 
0 
0 
0 
0 
0 
0 
0 
0 
0 
-2.223699114302441 
0 
0 
0 
0 
0 
0 
0 
0 
0 
0 
0 
0 
0 
0 
0 
0 
0 
0 
0 
0 
0 
0 
0 
0 
0 
0 
0 
0 
0 
0 
0 
0 
0 
0 
0 
0 
0 
0 
0 
0 
0 
0 
0 
0 
0 
0 
0 
0 
0 
0 
0 
0 
0 
0 
0 
0 
0 
0 
0 
-0.08751814355371118 
0 
0 
0 
0 
0 
1.161496016798392 
0 
0 
0 
0 
0 
0 
0 
-0.489901490669041 
0 
0 
0 
0 
0 
0 
0 
0 
0 
0 
0 
0 
0 
0 
0 
0 
0 
0 
0 
0 
0 
0 
0 
0 
0 
0 
0 
0 
0 
0 
0 
0 
0 
0 
0 
0 
0 
0 
0 
0 
0 
0 
0 
0 
0 
0.1874420347865649 
0 
0 
0 
0 
0 
0 
0 
-2.109520723002382 
0 
0 
0 
0 
0 
0 
0 
0 
0 
0 
0 
0 
0 
0 
0 
0 
0 
0 
0 
0 
0 
0 
0 
0 
0 
0 
0 
0 
0 
0 
0 
0 
0 
0 
0 
0 
0 
0 
0 
0 
0.9181081287927116 
0 
0.292201239714417 
0 
0 
0 
0 
0 
0 
0 
0 
0 
0 
0 
0 
0 
0 
0 
0 
0 
0 
0 
0 
2.760922735739567 
0 
-0.4154873412833285 
0 
0 
0 
0 
0 
0 
0 
0 
0 
0 
0 
0 
0 
0 
-2.593657042280456 
0 
0 
0 
0 
0 
0 
0 
0 
0 
0 
0 
0 
0 
0 
0 
0 
0 
0 
0 
0 
0 
0 
0 
0 
0 
0 
0 
0 
0 
0 
0 
0 
0 
0 
0 
0 
0 
0 
0 
0 
0 
0 
0 
0 
0 
0 
0 
1.419151266716823 
0 
0.02182272304384234 
0 
0 
0 
0 
0 
0 
0 
0 
0 
0 
0 
0 
0 
0 
0 
0 
0 
0 
0 
0 
0 
0 
0 
0 
0 
0 
0 
0 
0 
0 
0 
0 
0 
0 
0 
0 
0 
0 
0 
0 
0 
0 
0 
0 
0 
0 
0 
0 
0 
0 
0 
0 
0 
0 
0 
0 
0 
0 
0 
0 
0 
0 
0 
0 
0 
0 
0 
0 
0 
0 
0 
0 
0 
0 
0 
0 
0 
0 
0 
0 
0 
0 
0 
0 
0 
0 
0 
0 
0 
0 
0 
0 
0 
0 
0 
0 
0 
0 
0 
0 
0 
0 
0 
0 
0 
0 
0 
0 
0 
0 
0 
0 
0 
0 
0 
0 
0 
0 
0 
0 
0 
0 
0 
0 
0 
0 
0 
0 
0 
0 
0 
0 
0 
0 
0 
0 
0 
0 
0 
0 
0 
0 
-0.237119935654655 
0 
0 
0 
0 
0 
0 
0 
0 
0 
0 
0 
0 
0 
0 
0 
0 
0 
0 
0 
0 
0 
0 
-0.6085873834049866 
0 
0 
0 
0 
0 
0 
0 
0 
0 
0 
0 
0 
-0.5966445125147818 
0 
0 
0 
0 
0 
0 
0 
0 
-1.189596262934181 
0 
0 
0 
0 
0 
0 
0 
0 
0 
0 
0 
0 
0 
0 
0 
0 
0 
0 
0 
0 
0 
0 
0 
0 
0 
0 
0 
0 
0 
0 
0 
0 
0 
0 
0 
0 
0 
0 
0 
0 
0 
0 
0 
0 
0 
0 
0 
-0.9411640241439694 
0 
0 
0 
0 
0 
0 
0 
0 
0 
0 
0 
0 
0 
0 
0 
0 
0 
0 
0 
0.6642586652429583 
0 
0 
0 
0 
0 
0 
0 
0 
0 
0 
0 
0 
0 
0 
0 
0 
0 
0 
0 
0 
0 
0 
0 
0 
0 
0 
0 
0 
0 
0 
0 
0 
0 
0 
0 
0 
0 
0 
0 
0 
0 
0 
0 
0 
0 
0 
0 
0 
0 
0 
0 
0 
0 
0 
0 
0 
0 
0 
0 
0 
0 
0 
0 
0 
0 
0 
0 
0 
0 
0 
0 
0 
0 
0 
0 
0 
0 
0 
0 
0 
0 
0 
0 
0 
0 
0 
0 
0 
0 
0 
0 
0 
0 
0 
0 
0 
0 
0 
0 
0 
0 
0 
0 
0 
0 
0 
0.1949155845476895 
0 
0 
0 
0 
0 
0 
0 
0 
0 
0 
0 
0 
0 
0 
0 
0 
0 
0 
0 
0 
0 
0 
0 
0 
0 
0 
0 
0 
0 
0 
0 
0 
0 
0 
0 
0 
0 
0 
0 
0 
0 
0 
0 
0 
0 
0 
0 
0 
0 
1.394131533309818 
0 
0 
0 
0 
0 
0 
0 
0 
0 
0 
0 
0 
0 
0 
0 
0 
0 
0 
0 
0 
0 
0 
0 
0 
0 
0 
0 
0 
0 
0 
0 
0 
0 
0 
0 
0 
0 
0 
0 
0 
0 
0 
0 
0.9388571148280306 
0 
0 
0 
0 
0 
0 
0 
0 
0 
0 
0 
0 
0 
0 
0 
0 
0 
0 
0 
0 
0 
0 
0 
0 
0 
0 
0 
0 
0 
0 
0 
0 
0 
0 
0 
0 
0 
0 
0 
0 
0 
0 
0 
0 
0 
0 
0 
0 
0 
0 
0 
0 
0 
0 
-0.5530950644672054 
0 
0 
0 
0 
0 
0 
0 
-1.631834839214144 
0 
0 
0 
0 
0 
0 
0 
0 
0 
0 
0 
0 
0 
0 
0 
0 
0 
0 
0 
0.03111889414544325 
0 
0 
0 
0 
0 
0 
0 
0 
0 
0 
0 
0 
0 
0 
0 
0 
0 
0 
0 
0 
-0.6837660149904152 
0 
0 
0 
0 
0 
0 
0 
0 
0 
0 
0 
0 
0 
0 
0 
0 
0 
0 
0 
0 
0 
0 
0 
0 
0 
0 
0 
0 
0 
0 
0 
0 
0 
0.8511540401507095 
0 
0 
0 
0 
0 
0 
0 
0 
0 
0 
0 
0 
0 
0 
0 
0 
0 
0 
0 
0 
0 
0 
0 
0 
0 
0 
0 
0 
0 
0 
0 
0 
0 
0 
0 
0 
0 
0 
0 
0 
0 
0 
0 
0 
0 
0 
0 
0 
0 
0 
0 
0 
0 
0 
0 
-0.1218189963755593 
0 
0 
0 
0 
0 
0 
0 
0 
0 
0 
0 
0 
0 
-0.07086883753223251 
0 
0 
0 
0 
0 
0 
0 
0 
0 
0 
0 
0 
0 
0 
0 
0 
0 
0 
0 
0 
0 
0 
0 
0 
0 
0 
0 
0 
0 
0 
0 
0 
0 
0 
0 
-1.170894703774746 
0 
0 
0 
0 
0 
0 
0 
0 
0 
0 
0 
0 
0 
0 
0 
0 
0 
0 
0 
0 
0 
0 
0 
0 
0 
0 
0 
0 
0 
0 
0 
0 
0 
0 
0 
0 
0 
0 
0 
0 
0 
0 
0 
0 
0 
0 
0 
0 
0 
0 
0 
0 
0 
0 
0 
0 
0 
0 
0 
0 
0 
0 
0 
0 
0 
0 
0 
0 
0 
0 
0 
0 
0 
0 
0 
0 
0 
0 
0 
0 
0 
0 
0 
0 
0 
0 
0 
0 
0 
0 
0 
0 
0 
0 
0 
0 
0 
0 
0 
0 
0 
0 
0 
0 
0.1181043834990133 
-0.4994622585541674 
0 
0 
0 
0 
0 
0 
0 
0 
0 
0 
0 
0 
0 
0 
0 
0 
0 
1.341377258739808 
0 
0 
0 
0 
0 
0 
0 
3.081101449438227 
0 
0 
0 
0 
0 
0 
0 
-5.984499248270688 
0 
0 
0 
0 
0 
0 
0 
0 
0 
0 
0 
0 
0 
0 
0 
0 
0 
0 
0 
0 
0 
0 
0 
0 
0 
0 
0 
0 
0 
0 
0 
0 
0 
0 
0 
0 
0 
0 
0 
0 
0 
0 
0 
0 
0 
0 
0 
0 
0 
0 
0.5533247500575713 
0 
0 
0 
0 
0 
0 
0 
0 
0 
0 
0 
0 
0 
0 
0 
0 
0 
0 
0 
0 
0 
0 
0 
0 
0 
0 
0 
0 
0 
0 
0 
0 
0 
0 
0 
0 
0 
0 
0 
0 
0 
0 
0 
0 
0 
0 
0 
0 
0 
0 
0 
0 
0 
0 
0 
0 
0 
0 
0 
0 
0 
0 
0 
0 
0 
0 
0 
0 
0 
0 
0 
0 
0 
0 
0 
0 
0 
0 
0 
0 
0.5933125347642807 
0 
0 
0 
0 
0 
0 
0 
0 
0 
0 
0 
0 
0 
0 
0 
0 
0 
0 
0 
0 
0 
0 
0.1850669157602566 
0 
0 
0 
-2.292379400826974 
0 
0 
0 
0 
0 
0 
0 
0 
0 
0 
0 
0 
0 
0 
0 
0 
0 
0 
0 
-1.078560549873929 
0 
0 
0 
0 
0 
0 
0 
0 
0 
0 
0 
-0.4646196726056648 
0 
0 
0 
0 
0 
0 
0 
0 
0 
0 
0 
0 
0 
0 
0 
0 
0 
0 
0 
0 
0 
0 
0 
0 
0 
0 
0 
0 
0 
0 
0 
0 
0 
0 
0 
0 
0 
0 
0 
0 
0 
0 
0 
0 
0 
0 
0 
0 
0 
0 
0 
0 
0 
0 
0 
0 
0 
0 
0 
0 
0 
0 
0 
0 
0 
0 
0 
0.00240039151935339 
0 
0 
0 
0 
0 
-0.373644953824792 
0 
0 
0 
0 
0 
0 
0 
0 
0 
0 
0 
0 
0 
0 
0 
0 
0 
0 
0 
0 
0 
0 
0 
0 
0 
0 
0 
0 
0 
0 
0 
0 
0 
0 
0 
0 
0 
0 
0 
0 
0 
0 
0 
0 
0 
0 
0 
0 
0 
0 
0 
0 
0 
0 
0 
0 
0 
0 
0 
0 
0 
0 
0 
0 
0 
0 
0 
0 
0 
0 
0 
0 
0 
0 
0 
0 
0 
0 
0 
0 
0 
0 
0 
0 
0 
0 
0 
0 
0 
0 
0 
0 
0 
0 
0 
0 
0 
0 
0 
0 
0 
-1.144233584725208 
0 
0 
0 
0 
0 
0 
0 
0 
0 
0 
0 
0 
0 
0 
0 
0 
0 
0 
0 
0 
0 
0 
0 
0 
0 
0 
0 
0 
0 
0 
0 
0 
0 
0 
0 
0 
0 
0 
0 
0 
0 
0 
0 
0 
0 
0 
0 
0 
0 
0 
0 
0 
0 
0 
0 
0 
0 
0 
0 
0 
0 
0 
0 
0 
0 
0 
0 
0 
0 
0 
0 
0 
0 
0 
0 
0.7517038235864804 
0 
0 
0 
0 
0 
0 
0 
0 
0 
0 
0 
0 
0 
0 
0 
0 
0 
0 
0 
0 
0 
0 
0 
0 
0.5443197239825506 
0 
0 
0 
0 
0 
0 
0 
0 
0 
-1.050981561671262 
0 
0 
0 
0 
0 
0 
0 
0 
0 
0 
0 
0 
0 
0 
0 
0 
0 
0 
0 
0 
0 
0 
0 
0 
0 
0 
0 
0 
0 
0 
0 
0 
0 
0 
0 
0 
0 
0 
0 
-1.317746495444703 
0 
0 
0 
0 
0 
0 
0 
0 
0 
0 
0 
0 
0 
0 
0 
-0.1188350196895019 
0 
0 
0 
0 
0 
0 
0 
0 
0 
0 
0 
0 
0 
0 
0 
0 
0 
0 
0 
0 
0 
0 
0 
0 
0 
0 
0 
0 
0 
0 
0 
0 
0 
0 
0 
0 
0 
-1.222021250636022 
0 
0 
0 
0 
0 
0 
0 
0 
0 
0 
0 
0 
0 
0 
0 
0 
0 
0 
0 
0 
0 
0 
0 
0 
0 
0 
0 
0 
0 
0 
0 
0 
0 
0 
0 
0 
0 
0 
0 
0 
0 
0 
0 
1.68915898064945 
0 
0 
0 
0 
0 
0 
0 
0 
0 
0 
0 
0 
2.26351888804911 
0 
0 
0 
0 
0 
0 
0 
0 
0 
0 
0 
0 
0 
0 
0 
0 
0 
0 
0 
0 
-0.5510877568309277 
0 
0 
0 
0 
0 
0 
0 
0 
0 
0 
0 
0 
-1.401941032287666 
0 
0 
0 
0 
0 
0 
0 
0 
0 
0 
0 
0 
0 
0 
0 
0 
0 
0 
0 
0 
0 
0 
0 
0 
0 
0 
0 
0 
0 
0 
0 
-0.2331012567303377 
0 
0 
0 
0 
0 
0 
0 
-0.9605564293552253 
0 
0 
0 
0 
0 
0 
0 
0 
0 
0 
0 
0 
0 
0 
0 
0 
0 
0 
0 
0 
0 
0 
0 
0 
0 
0 
0 
0 
0 
0 
0 
0 
0 
0 
0 
0 
0 
0 
0 
0 
0 
0 
0 
0 
0 
0 
0 
0 
0 
0 
0 
0 
0 
0 
0 
0 
0 
0 
0 
0 
0 
0 
0 
0 
0 
0 
0 
0 
0 
0 
0 
0 
0 
0 
0 
0 
0 
0 
0 
0 
0 
0 
0 
0 
0 
0 
0 
0 
0 
0 
0 
0 
0 
0 
0 
0 
-0.3314341270676088 
0 
0 
0 
0 
0 
0 
0 
0 
0 
0 
0 
0 
0 
0 
0 
0 
0 
0 
0 
0 
0 
0 
0 
0 
0 
0 
0 
0 
0 
0 
0 
0 
0 
0 
0 
0 
0 
0 
0 
0.3262082181519727 
0 
0 
0 
0 
0 
0 
0 
0 
0 
0 
0 
0 
0 
0 
0 
-0.4095043999215058 
0 
0 
0 
0 
0 
0 
0 
0 
0 
0 
0 
0 
0 
0 
0 
0 
0 
0 
0 
0 
0 
0 
0 
0 
0 
0 
0 
0 
0 
0 
0 
0 
0 
0 
0 
0 
0 
0 
0 
0 
0 
0 
0 
0 
0 
0 
0 
0 
0 
0 
0 
0 
0 
0 
0 
0 
0 
0 
0 
0 
0 
0 
0 
0 
0 
0.986414293212238 
0 
0 
0 
0 
0 
0 
0 
0 
0 
0 
0 
0 
0 
0 
0 
0 
-1.052163907217117 
0 
0 
0 
0 
0 
0 
0 
0 
0 
0 
0 
0 
0 
0 
0 
0 
0 
0 
0 
0 
0 
0 
0 
0 
0 
0 
0 
0 
0 
0 
0 
0 
0 
0 
0 
0 
0 
0 
0 
0 
0 
0 
0 
0 
0 
0 
0 
0 
0 
0 
0 
0 
0 
0 
0 
0 
0 
0 
0 
0 
0 
0 
0 
0 
0 
0 
0 
0 
0 
0 
0 
0 
0 
0 
0 
0 
0 
0 
0 
0 
0 
0 
0 
0 
0 
0 
0 
0 
0 
0 
0 
1.995810553807843 
0 
0 
0 
0 
0 
0 
0 
0 
0 
0.4881268073486812 
0 
0 
-1.283575000947206 
0 
0 
0 
0 
0 
0 
0 
0 
0 
1.907293296780282 
0 
0 
0 
0 
0 
0 
0 
0 
0 
0 
0 
0 
0 
0 
0 
0 
0 
0 
0 
0 
0 
0 
0 
0 
0 
0 
0 
0 
0 
0 
0 
0 
0 
0 
0 
0 
0 
0 
0 
0 
0 
0 
0 
0 
0 
0 
0 
0 
0 
0 
0 
0 
0 
0 
0 
0 
0 
0 
0 
0 
0 
0 
0 
0 
0 
0 
0 
0 
0 
0 
0 
0 
0 
0 
0 
0 
0 
0 
0 
0 
0 
0 
0 
0 
0 
0 
0 
0 
0 
0 
0 
0 
0 
0 
0 
0 
0 
0 
0 
0 
0 
0 
0 
0 
0 
0 
0 
0 
0 
0 
0 
0 
0 
0 
0 
0 
0 
0 
0 
0 
0 
0 
0 
0 
0 
0 
0 
0 
0 
0 
0 
0 
0 
0 
0 
0 
0 
0 
0 
0 
0 
0 
0 
0 
0 
0 
0 
0 
0 
0 
0 
0 
0 
0 
0 
0 
0 
0 
0 
0 
0 
0 
0 
0 
0 
0 
0 
0 
0 
0 
0 
0 
0 
0 
0 
0 
0 
0 
0 
0 
0 
0 
0 
0 
0 
0 
0 
0 
0 
0 
0 
0 
0 
0 
0 
0 
0 
0 
0 
0 
0 
0 
0 
0 
0 
0 
0 
0 
0 
0 
0 
0 
0 
0 
0 
0 
0 
0 
0 
0 
0 
0 
0 
0 
0 
0 
0 
0 
0 
0 
0 
0 
0 
0 
0 
0 
0 
0 
0 
0 
0 
0 
0 
0 
-0.7903008381056091 
0 
0 
0 
0 
0 
0 
0 
0 
0 
0 
0 
0 
0 
0 
0 
0 
0 
0 
0 
0 
0 
0 
0 
0 
0 
0 
0 
0 
0 
0 
0 
0 
0 
0 
0 
0 
0 
0 
-0.1590699710017239 
0 
0 
0 
0 
0 
0 
0 
0 
0 
0 
0 
0 
0 
0 
0 
0 
0 
0 
0 
0 
0 
0 
0 
0 
0 
0 
0 
0 
0 
0 
0 
0 
0 
0 
0 
0 
0 
0 
0 
0 
0 
0 
0 
0 
0 
0 
0 
0 
0 
0 
0 
0 
0 
0 
0 
0 
0 
0 
0 
0 
0 
0 
-0.2528572759810541 
0 
0 
0 
0 
0 
0 
0 
0 
0 
0 
0 
0 
0 
0 
0 
0 
0 
0 
-2.293778804396644 
0 
0 
0 
0 
0 
0 
0 
0 
0 
0 
0 
0 
0 
0 
0 
0 
0 
0 
0 
0 
0 
0 
0 
0 
0 
0 
0 
0 
0 
0 
0 
0 
-0.3691693864898626 
0 
-0.3155838194474671 
0 
0 
0.2687163137271661 
0 
0 
0 
0 
0 
0 
0 
0 
0 
0 
0 
0 
0 
0 
0 
0 
0 
0 
0 
0 
0 
0 
0 
0 
0.2365476785323216 
0 
0 
0 
0 
0 
0 
0 
0 
0 
0 
0 
0 
0 
0 
0 
0 
0 
0 
0 
0 
0 
0 
0 
0 
0 
0 
0 
0 
0 
0 
0 
0 
0 
0 
0 
0 
0 
0 
0 
0 
0 
0 
0 
0 
0 
0 
0 
0 
0 
0 
0 
0 
0 
-1.635179398234767 
0 
0 
0 
0 
0 
-0.1539628739692761 
0 
0 
0 
0 
0 
0 
0 
0 
0 
0 
0 
0 
0 
0 
0 
0 
0 
0 
0 
0 
0 
0 
0 
0 
0 
0 
0 
0 
0 
0 
0 
0 
0.4169939257814364 
0 
0 
0 
0 
0 
0 
0 
0 
0 
0 
0 
0 
0 
0 
0 
0 
0 
0 
0 
0 
0 
0 
0 
-0.5267245439334402 
0.581245112694263 
0 
0 
0 
0 
0 
0 
0 
0 
0 
0 
0 
0 
0 
0 
0 
0.7398526014424233 
0 
0 
0 
0 
0 
0 
0 
0 
0 
0 
0 
0 
0 
0 
0 
0 
0 
0 
1.883683210375675 
0 
0 
0 
1.407916871890018 
0 
0 
0 
0 
0 
0 
0 
0 
0 
0 
0 
0 
0 
4.733455807989945 
0 
0 
0 
0 
0 
0 
0 
0 
0 
0 
0 
0 
0 
0 
0 
0 
0 
0 
0.1020734969129111 
0 
0 
0 
0 
0 
0 
0 
0 
0 
0 
0 
0 
0 
0 
0 
0 
0 
0 
0 
0 
0 
0 
0 
0 
0 
0 
0 
0 
0 
0 
0 
0 
0 
0 
0 
0 
0 
0 
0 
0 
0 
0 
0 
0 
0 
0 
0 
0 
0 
0 
0 
0 
0 
0 
0 
0 
0 
0 
0 
0 
0 
0 
0 
0 
0 
0 
0 
0 
0 
0 
0 
0 
0 
0 
0 
0 
0 
0 
0 
0 
0 
0 
0 
0 
0 
0 
0 
0 
0.7821957624194224 
0 
0 
0 
0 
0 
0 
0 
0 
0 
0 
0 
0 
0 
0 
0 
0 
0 
0 
0 
0 
0 
0 
0 
0 
0 
0 
0 
0 
0 
0 
0 
0 
0 
0 
0 
0 
0 
0 
0 
0 
0 
0 
0 
0 
0 
0 
0 
-0.2863567768499439 
0 
0 
0 
0 
0 
0 
0 
0 
0 
0 
0 
0 
0 
0 
0 
0 
0 
0 
0 
0 
0 
0 
0 
0 
0 
0 
0 
0 
0 
0 
0 
0 
0 
0 
0 
0 
0 
0 
-1.089796612560169 
0 
0 
0 
0 
0 
0 
0 
0.7091618185437315 
0 
0 
0 
0 
0 
0 
0 
0 
0 
0 
0 
0 
0 
0 
0 
0 
0 
0 
0 
0 
0 
0 
0 
0 
0 
0 
0 
0 
0 
0 
0 
0 
0 
0 
0 
0 
0 
0 
5.909184475275256 
0 
0 
0 
0 
0 
0 
0 
0 
0 
0 
0 
0 
0 
0 
0 
0.05731490429520423 
0 
0 
0 
0 
0 
0 
0 
0 
0 
0 
-0.6534903429166856 
0 
0 
0 
0 
0 
0 
0 
0 
0 
0 
0 
0 
0 
0 
0 
0 
0 
0 
0 
0 
0 
0 
0 
0 
0 
0 
0 
0 
0 
-4.975495275304537 
0 
0 
0 
0 
0 
0 
0 
0 
0 
0 
0 
0 
0 
0 
0 
0 
0 
0 
0 
0 
0 
0 
0 
0 
0 
0 
1.89331331704215 
0 
0 
0 
0 
0 
0 
0 
0 
0 
0 
0 
0 
0 
0 
0 
0 
-1.096896025831986 
0 
0.5290605506668277 
0 
0 
0 
0 
0 
0 
0 
0 
0 
0 
0 
0 
0 
0 
0.6205502657765216 
0 
0 
0 
0 
0 
0 
0 
0 
0 
0 
0 
0 
0 
0 
0 
0 
0 
0 
0 
0 
0 
0 
0 
0 
0 
0 
0 
0 
0 
0 
0 
0 
0 
0 
0 
0 
0 
0 
0 
0 
0 
0 
0 
0 
0 
0 
0 
0 
0 
0 
0 
0 
0 
0 
0 
0 
0 
0 
0 
-0.2617608861966627 
0 
0 
0 
0 
0 
0 
0 
0 
0 
0 
0 
0 
0 
0 
0 
0 
0 
0 
0 
0 
0 
0 
0 
0 
0 
0 
0 
0 
0 
0 
0 
0 
0 
0 
0 
0 
0 
0 
0 
0 
0 
0 
0 
0 
0 
0 
0 
0 
0 
0 
0 
0 
0 
0 
0 
0 
0 
0 
0 
0 
0 
0 
0 
0 
0 
0 
0 
0 
0 
0.2401111335917055 
0 
0 
0 
0 
0 
0 
0 
0 
0 
0 
0 
0 
0 
0 
0 
0 
0 
0 
0 
0 
0 
0 
0 
0 
0 
0 
0 
0 
0 
0 
0 
0 
0 
0 
0 
0 
0 
0 
0 
0 
0 
0 
0 
0 
0 
0 
0 
0 
0 
1.122232219181954 
0 
0 
0 
0 
0 
0 
0 
0 
0 
0 
0 
0 
0 
0 
0 
0 
0 
0 
0 
0 
0 
0 
0 
0 
0 
0 
0 
0 
0 
0 
0 
0 
0 
0 
0 
0 
0 
0 
0 
0 
0 
0 
0 
0 
0 
0 
0 
0 
0 
0 
0 
0 
0 
0 
0 
0 
0 
0 
0 
0 
0 
0 
0 
1.331358775833591 
0 
0 
0 
0 
0 
0 
0 
0 
0 
0 
0 
0 
0 
0 
0 
0 
0 
0 
0 
0 
0 
0 
0 
0 
0 
0 
0 
0 
0 
0 
0 
0 
0 
0 
0 
0 
0 
0 
0 
0 
0 
-0.4561317766402849 
0 
0 
0 
0 
0 
0 
0 
0 
0 
0 
0 
-0.5128170370261439 
0 
0 
0 
-0.5539012082432266 
0 
0 
0 
0 
0 
0 
0 
0 
0 
0 
0 
0 
0 
0 
0 
0 
0 
0 
0 
0 
0 
0 
0 
0 
0.2353195401109265 
0 
-0.5019634736761157 
0 
0 
0 
0 
0 
0 
0 
0 
0 
0 
0 
0 
0 
0 
0 
0 
0 
0 
0 
0 
0 
0 
0 
0 
0 
0 
0 
0 
0 
0 
0 
0 
0 
0 
0 
0 
0 
0 
0 
0 
0 
0 
0 
0 
0 
0 
0 
0 
0 
0 
0 
0 
0 
0 
0 
0 
0 
0 
0 
0 
0 
0 
0 
0 
0 
0 
0 
0 
0 
0 
0 
0 
0 
0 
0 
0 
0 
0 
0 
0 
0 
0 
0 
0 
0 
0 
0 
0 
0 
0 
0 
0 
0 
0 
0 
0 
1.704847819143342 
0 
0 
0 
0 
0 
0 
0 
0 
0 
0 
0 
0 
0 
0 
0 
0 
0 
0 
0 
0 
0 
0 
0 
0 
0 
0 
0 
0 
0 
0 
0 
0 
0 
0 
0 
0 
0 
0 
0 
0 
0 
0 
0 
0 
0 
0 
0 
0 
0 
0 
0 
0 
0 
0 
0 
0 
0 
0 
0 
0 
0 
0 
0 
0 
0 
0 
0 
0 
0 
0 
0 
0 
0 
0 
0 
0 
0 
0 
0 
0 
0 
0 
0 
0 
0 
0 
0 
0 
0 
0 
-3.598497002979828 
0 
0 
0 
0 
0 
0 
0 
0 
0 
0 
-0.6945166117528896 
0 
0 
0 
0 
0 
0 
0 
0 
0 
0 
-0.5790831199029202 
0 
0 
0 
0 
0 
0 
0 
0 
0 
0 
0.3407475005754354 
0 
0 
0 
0 
0 
0 
0 
0 
0 
0 
0 
0 
0 
0 
0 
0 
0 
0 
0 
0 
0 
0 
0 
0 
0 
0 
0 
0 
0 
0 
0 
0 
0 
0.3032125634224486 
0 
0 
0 
0 
0 
0 
0 
0 
0 
0 
0 
0 
0 
0 
0 
0 
0 
0 
0 
0 
0 
0 
0 
0 
0 
0 
0 
0 
0.3787803733313633 
0 
0 
0 
0 
0 
0 
0 
0 
0 
0 
0 
0 
0 
0 
0 
0 
0 
0 
0 
0 
0 
0 
0 
0 
0 
0 
0 
0 
0 
0 
0 
0 
0 
0 
0 
0 
0 
0 
0 
0 
0 
0 
0 
0 
0 
0 
0 
0 
0 
0 
0 
0 
0 
0 
0 
0 
0 
0 
0 
0 
0 
0 
0 
0 
0 
-0.07219417328840092 
0 
0 
0 
0 
0 
0 
0 
0 
0 
0 
0 
0 
0 
0 
0 
0 
0 
0 
0 
0 
0 
0 
0 
0 
0 
0 
0 
0 
0 
0 
0 
0 
0 
0 
0 
0 
0 
0 
0 
0 
0 
0 
0 
0 
0 
0 
0 
0 
0 
0 
0 
0 
0 
0 
0 
0 
0 
0 
0 
0 
0 
0 
0 
0 
0 
0 
0 
0 
0 
0 
0 
-0.7798738039993021 
0 
0 
0 
0 
0 
0 
0 
0 
0 
0 
1.277478407112563 
0 
0 
0 
0 
0 
0 
0 
0 
0 
0 
0 
0 
0 
3.478756414815097 
0 
0 
0 
0 
0 
0 
0 
0 
0 
0 
0 
0 
0 
0 
0 
0 
0 
0 
0 
0 
0 
0 
0 
0 
0 
0 
0 
0 
0 
0 
0 
0 
-0.6827652673905583 
0 
0 
0 
0 
0 
0 
0 
0 
0 
0 
0 
0 
0 
0 
0 
0 
0 
0 
0 
0 
0 
0 
0 
0 
0 
0 
0 
0 
0 
0 
0 
0 
-1.427857563831755 
0 
0 
0 
0 
0 
0 
0 
0 
0 
0 
0 
0 
0 
0 
0 
0 
0 
0 
0 
0 
0 
0 
0 
0 
0 
0 
0 
0 
0 
0 
0 
0 
0 
0 
0 
0 
0 
0 
0 
0 
0 
0 
0 
0 
0 
0 
0 
0 
0 
0 
0 
0 
0 
0 
0 
0 
0 
0 
0 
0 
0 
0 
0 
0 
0 
0 
0 
0 
0 
0 
0 
0 
0 
0 
0 
0 
0 
0 
0 
0 
0 
0 
0 
0 
0 
0 
0 
0 
0 
0 
0 
0 
0 
0 
0 
0 
0 
0 
0 
0 
0 
0 
0 
0 
0 
0 
0 
0 
0 
0 
0 
0 
0 
0 
0 
0 
0 
0 
0 
0 
0 
0 
0 
1.062998232880614 
0 
0 
0 
0 
0 
0 
0 
0 
0 
0 
0 
0 
0 
0 
0 
0 
0 
0 
0 
0 
0 
0 
0 
0 
0 
0 
0 
0 
0 
0 
0 
0 
0 
0 
0 
0 
0 
0 
0 
0 
0 
0 
0 
0 
0 
0 
0 
0 
0 
0 
0 
0 
0 
0 
0 
0 
0 
0 
0 
0 
0 
0 
0 
0 
0 
0 
0 
0 
0 
0 
0 
0 
0 
0 
0 
0 
0 
0 
0 
0 
0 
0 
0 
0 
0 
-0.4544087262734312 
0 
0 
0 
0 
0 
0 
0 
0 
0 
0 
0 
0 
0 
0 
0 
0 
0 
0 
0 
-2.469815952502569 
0 
0 
0 
0 
0 
0 
0 
0 
0 
0 
0 
0 
0 
0 
0 
-4.133241068238508 
0 
0 
0 
0 
1.915908294213776 
0 
0 
0 
0 
0 
0 
0 
0 
0 
0 
0 
0 
0 
0 
0 
2.524390605975798 
0 
0 
0 
0 
0 
0 
0 
0 
0 
0 
0 
0 
0 
0 
0 
0 
0 
0 
0 
0 
0 
0 
0 
0 
0 
0 
0 
0 
0 
0 
0 
0 
0 
0 
0 
0 
0 
0 
0 
0 
0 
0 
0 
0 
0 
0 
0 
0 
0 
0 
0 
0 
0 
0 
0 
0 
0 
0 
0 
0 
0 
0 
0 
0 
0 
0 
0 
0 
0 
0 
0 
0 
0 
0 
0 
0 
0 
0 
0 
0 
-0.5765476262364074 
0 
0 
0 
0 
0 
0 
0 
0 
0 
0 
0 
0 
0.006557918753165741 
0 
0 
0 
0 
0 
0 
0 
0 
0 
0 
0 
0 
0 
0 
0 
0 
0 
0 
0 
0 
0 
0 
0 
0 
0 
0 
0 
0 
0 
0 
0 
0 
0 
0 
0 
0 
0 
0 
0 
0 
0 
0 
0 
0 
0 
0 
0 
0 
0 
0 
0 
0 
0 
0 
0 
0 
0 
0 
0 
0 
0 
0 
0 
0 
0 
0 
0 
0 
0 
0 
0 
0 
0 
0 
0 
0 
0 
0 
0 
0 
0 
0 
0 
0 
0 
0 
0 
0 
0 
0 
0 
0 
0 
0 
0 
0 
0 
0 
0 
0 
0 
0 
0 
0 
0 
0 
0 
0 
0 
0 
0 
0 
0 
0 
0 
0 
0 
0 
0 
0 
0 
0 
0 
0 
0 
0 
0 
0 
0 
0 
0 
0 
0 
0 
0 
0 
0 
0 
0 
0 
0 
0 
0 
0 
0 
0 
0 
0 
0 
0 
0 
0 
0 
0 
0 
0 
0 
0 
0 
-0.8322760140418295 
0 
0 
0 
0 
0 
0 
0 
0 
-1.673314748133399 
0 
0 
-0.7129718654558707 
0 
0 
0 
0 
0 
0 
0 
0 
0 
0 
0 
0 
0 
0 
0 
0 
0 
0 
0 
0 
0 
0 
0 
0 
0 
0 
0 
0 
0 
0 
0 
0 
0 
0 
0 
0 
0 
0 
0 
0 
0 
0 
0 
0 
0 
0 
0 
0 
0 
0 
0 
2.908080177121245 
0 
0 
0 
0 
0 
0 
0 
0 
0 
0 
0 
0 
0 
0 
0 
0 
0 
0 
0 
0 
0 
0 
0 
0 
0 
0 
0 
0 
0 
0 
0 
0 
0 
0 
0 
0 
0 
0 
0 
0 
0 
0 
0 
0 
0 
0 
0 
0 
0 
0 
0 
0 
0 
0 
0 
0 
0 
0 
0 
0 
0 
0 
0 
0 
0 
0 
0 
0 
0 
0 
0 
0 
0 
0 
0 
0 
0 
0 
0 
0 
0 
0 
0 
0 
0 
0 
0 
0 
0 
0 
0 
0 
0 
0 
0 
0 
0 
0 
0 
0 
0 
0 
0 
0 
0 
0 
0 
0 
0 
0 
0 
0 
0 
0 
0 
0 
0 
0 
0 
0 
0 
0 
0 
-0.4063270052609977 
0 
0 
0 
0 
0 
0 
0 
0 
0 
0 
0 
0 
0 
0 
1.184212419780163 
0 
0 
0 
0 
0 
0 
0 
0 
0 
0 
0 
0 
0 
0 
0 
0 
0 
0 
0 
0 
0 
0 
0 
0 
0 
0 
0 
0 
0 
0 
0 
0 
0 
0 
0 
0 
0 
0 
0 
0 
0 
0 
0 
0 
0 
0 
0 
0 
0 
-1.786362823784602 
0 
0 
0 
0 
0 
0 
0 
0 
0 
0 
0 
0 
0 
0 
0 
1.135881756660167 
0 
0 
0 
0 
0 
0 
0 
0 
0 
0 
0 
0 
0 
0 
0 
0 
0 
0 
0 
1.244642694045829 
0 
0 
0 
0 
0 
0 
0 
0 
0 
0 
0 
0 
0 
0 
0 
0 
0 
0 
0 
0 
0 
0 
0 
0 
0 
-3.768062123950811 
0 
0 
0 
0 
0 
0 
0 
0 
0 
0 
0 
0 
0 
0 
0 
0 
0 
0 
0 
0 
0 
0 
0 
0 
0 
0 
0 
0 
0 
0 
0 
2.220254544061532 
0 
0 
0 
0 
0 
0 
0 
0 
0 
0 
0 
0 
0 
0 
0 
0 
0 
0 
0 
0 
0 
0 
0 
0 
0 
0 
0 
0 
0 
0 
0 
0 
0 
0 
0 
0 
0 
0 
0 
0 
0 
0 
0 
-0.1812599338989344 
0 
0 
0 
0 
0 
0 
0 
0 
0 
0 
0 
0 
0 
0 
0 
0 
0 
0 
0 
0 
0 
0 
0 
0 
0 
0 
0 
0 
0 
0 
0 
0 
0 
0 
0 
0 
0 
0 
0 
0 
0 
0 
0 
0 
0 
0 
0 
0 
0 
0 
0 
0 
0 
0 
0 
0 
0 
0 
0 
0 
0 
0 
-2.748059492924611 
0 
0 
0 
0 
0 
0.8354665282911226 
0 
0 
0 
0 
0 
0 
0 
0 
0 
0 
0 
0 
0 
0 
0 
0 
0 
0 
0 
0 
0 
0 
0 
0 
0 
0 
0 
0 
0 
0 
0 
0 
0 
0 
0 
0 
0 
0 
0 
0 
0 
0 
0 
0 
0 
0 
0 
0 
0 
0 
0 
0 
0 
0 
0 
0 
0 
0 
0 
0 
0 
0 
0 
0 
0 
0 
0 
0 
0 
0 
0 
0 
0 
0 
0 
0 
0 
0 
0 
0 
0 
0 
0 
0 
0 
0 
-0.1596827664260741 
0 
0 
0 
0 
0 
0 
0 
0 
0 
0 
0 
0 
0 
0 
0 
0 
0 
0 
0 
0 
0 
0 
0 
0 
0 
0 
0 
0 
0 
0 
0 
0 
0 
0 
0 
0 
0 
0 
0 
0 
0 
0 
0 
0 
0 
0 
0 
0 
0 
0 
0 
0 
0 
0 
0 
0 
0 
0 
0 
0 
0 
0 
0 
0 
0 
0.5173952700696525 
0 
0 
-0.9187263110673821 
0 
0 
0 
0 
0 
0 
0 
0 
0 
0 
0 
0 
0 
0 
0 
0 
0 
0 
0 
0 
0 
0 
0 
0 
0 
0 
0 
0 
0 
0 
0 
0 
0 
0 
0 
0 
0 
0 
0 
0 
0 
0 
0 
0 
0 
0 
0 
0 
0 
0 
0 
0 
0 
0 
0 
0 
0 
0 
0 
0 
0 
0 
0 
0 
0 
0 
0 
0 
0 
0 
0 
0 
0 
0 
0 
0 
0 
0 
0 
0 
0 
0 
0 
0 
0 
0 
0 
0 
0 
0 
0 
0 
0 
0 
0 
0 
0 
0 
0 
0 
0 
0 
0 
0 
0 
0 
0 
0 
0 
0 
0 
0 
0 
0 
0 
0 
0 
0 
0 
0 
0 
0 
0 
0 
0 
0 
0 
0 
0 
0 
0 
0 
0 
0 
0 
0 
0 
0 
0 
0 
0 
0 
0 
0 
0 
0 
0 
0 
0 
0 
0 
0 
0 
0 
0 
0 
0 
0 
0 
0 
0 
0 
0 
0 
0 
0 
0 
0 
0 
0 
0 
0 
0 
0 
0 
0 
0 
0 
0 
0 
0 
0 
0 
0 
0 
0 
0 
0 
0 
0 
0 
0 
0 
0 
0 
0 
-1.031306224354252 
0 
0 
0 
0 
0 
0 
0 
0 
0 
0 
2.033058158307167 
0 
0 
0 
0 
0 
0 
0 
0 
0 
0 
0 
0 
0 
0 
0 
0 
0 
0 
0 
0 
0 
0 
0 
0 
0 
0 
0 
0 
0 
0 
0 
0 
0 
0 
0 
0 
0 
0 
0 
0 
0 
0 
0 
0 
0 
0 
0 
0 
0 
0 
0 
0 
0 
0 
0 
0 
0 
0 
0 
0 
0 
0 
0 
0 
0 
0 
0 
0 
0 
0 
0 
0 
0 
0 
0 
0 
0 
0 
0 
0 
0 
0 
0 
0 
0 
0 
0 
0 
0 
0 
0 
0 
0 
0 
0 
0 
0 
0 
0 
0 
0 
0 
0 
0 
0 
0 
0 
0 
0 
0 
0 
0 
0 
0 
0 
0 
0 
0 
0 
0 
0 
0 
0 
0 
0 
0 
0 
0 
0 
0 
0 
0 
0 
0 
0 
0 
0 
0 
0 
0 
0 
0.846003051388905 
0 
0 
0 
0 
0 
0 
0 
0 
0 
0 
0 
0 
0 
0 
0 
0 
0 
0 
0 
0 
0 
0 
0 
0 
0 
0 
0 
0 
0 
0 
0 
0 
0 
0 
0 
0 
0 
0 
0 
0 
0 
0 
0 
0 
0 
0 
0 
0 
0 
0 
0 
0 
0 
0 
0 
0 
0 
0 
0 
0 
0 
0 
0 
0 
0 
0 
0 
0 
0 
0 
0 
0 
0 
0 
0 
0 
0 
0 
0 
0 
0 
0 
0 
0 
0 
0 
0 
0 
0 
0 
0 
0 
0 
0 
0 
0 
0 
0 
0 
0 
0 
0 
0 
0 
0 
0 
0 
-1.079391508640391 
0 
0 
0 
0 
0 
0 
0 
0 
0 
0 
0 
0 
0 
0 
0 
0 
0 
0 
0 
0 
0 
0 
0 
0 
0 
0 
0 
0 
0 
0 
1.297040023446946 
0 
0 
0 
0 
0 
0 
0 
0 
0 
0 
0 
0 
0 
0 
0 
0 
0 
0 
0 
0 
0 
0 
0 
0 
0 
0 
0 
0 
0 
0 
0 
0 
0 
0 
0 
0 
0 
0 
0 
0 
0 
0 
0 
0 
-1.207049521479966 
0 
0 
0 
0 
0 
0 
0 
-2.929359844524967 
0 
0 
2.161989616572696 
0 
0 
0 
0 
0 
0 
0 
0 
0 
0 
0 
0 
0 
0 
0 
-0.9651656832011546 
0 
0 
0 
0 
0 
0 
0 
0 
0 
0 
0 
0 
0 
0 
0 
0 
0 
0 
0 
0 
0 
0 
0 
0 
0 
0 
0 
0 
0 
0 
0 
0 
0 
0 
0 
0 
0 
0 
0 
0 
0 
0 
0 
0 
0 
0 
0 
0 
0 
0 
0 
0 
0 
0 
0 
0 
0 
0 
0 
0 
0 
0 
0 
-0.2081241936343987 
0 
0 
0 
0 
0 
0 
0 
0 
0 
0 
0 
0 
0 
0 
0 
0 
0 
0 
0 
0 
0 
0 
0 
0 
0 
0 
0 
0 
0 
0 
0 
0 
0 
0 
0 
0 
0 
0 
0 
0 
0 
0 
0 
0 
0 
0 
0 
0 
0 
0 
0 
0 
0 
0 
0 
0 
0 
0 
0 
0 
0 
0 
0 
0 
0 
0 
0 
0 
0 
0 
0 
0 
0 
0 
0 
0 
0 
0 
0 
0 
0 
0 
0 
0 
0 
0 
0 
0 
0 
0 
0 
0 
0 
0 
0 
0 
0 
0 
0 
0 
0 
0 
0 
0 
0 
0 
0 
0 
0 
0 
0 
0 
0 
0 
0 
1.099864081189209 
0 
0 
0 
-2.023325332271275 
0 
0 
0 
0 
0 
0 
0 
0 
0 
0 
0 
0 
0 
0 
0 
0 
0 
0 
0 
0 
0 
0 
0 
0 
0 
0 
0 
0 
0 
0 
-0.8449383831340253 
0 
0 
0 
-3.408721216655058 
0 
0 
0 
0 
0 
0 
0 
0 
0 
0 
0 
0 
0 
0 
0 
0 
0 
0 
0 
0 
0 
0 
0 
0 
0 
0 
0 
0 
0 
0 
0 
0 
0 
0 
0 
0 
0 
0 
0 
0 
0 
0 
0 
0 
0 
0 
0 
0 
0 
0 
0 
0 
0 
0 
0 
0 
0 
0 
0 
0 
0 
0 
0 
0 
0 
0 
0 
0 
0 
0 
0 
0 
0 
0 
0 
0 
0 
0 
0 
0 
0 
0 
0 
0 
0 
0 
0 
0 
0 
0 
0 
0 
0 
0 
0 
0 
0 
0 
0 
0 
0 
0 
0 
0 
0 
0 
0 
0 
0 
0 
0 
0 
0 
0 
0 
0 
0 
0 
0 
0 
0 
0 
0 
0 
0 
0 
0 
0 
0 
0 
0 
0 
0 
0 
0 
0 
0 
0 
0 
0 
0 
0 
0 
0 
0 
0 
0 
0 
0 
0 
0 
-0.5861067036187102 
0 
0 
0 
0 
0 
0 
0 
0 
0 
0 
0 
0 
0 
0 
0 
0 
0 
0 
0 
0 
0 
0 
0 
0 
0 
0 
0 
0 
0 
0 
0 
0 
0 
0 
0 
0 
0 
0 
0 
0 
0 
0 
0 
0 
0 
0 
0 
0 
0 
0 
0 
0 
0 
0 
0 
0 
0 
0 
0 
0 
0 
1.408544695604051 
0 
0 
0 
0 
0 
0 
0 
0 
0 
0 
0 
0 
0 
0 
0 
0 
0 
0 
0 
0 
0 
0 
0 
0 
0 
0 
0 
-0.5238827434018515 
0 
0 
0 
0 
0 
0 
0 
0 
0 
0 
0 
0 
0 
0 
0 
0 
0 
0 
0 
0 
0 
0 
0 
0 
0 
0 
0 
0 
0 
0 
0 
0 
0 
0 
0 
-0.6928422903539901 
0 
0 
0 
0 
0 
0 
0 
0 
0 
0 
0 
0 
0 
0 
0 
0 
0 
0 
0 
0 
0 
0 
0 
0 
0 
0 
0 
0 
0 
0 
0 
0 
0 
0 
0 
0 
0 
0 
0 
0 
0 
0 
0 
0 
0 
0 
0 
0 
0 
0 
0 
0 
0 
0 
0 
0 
0 
0 
0 
0 
0 
0 
0 
0.9947672540326954 
0 
0 
0 
0 
0 
0 
0 
0 
0 
0 
0 
0 
0 
0 
0 
0 
0 
0 
0 
0 
0 
0 
0 
0 
0 
0 
0 
0 
0 
0 
0 
0 
0 
0 
0 
0 
0 
0 
0 
0 
0 
0 
0 
0 
0 
0 
0 
0 
0 
0 
0 
0 
0.2895853105686399 
0 
0 
0 
0 
0 
0 
0 
0 
0 
0 
0 
0 
0 
0 
0 
0 
0 
0 
0 
0 
0 
0 
0 
0 
0 
0 
0 
0 
0 
0 
0 
0 
0 
0 
0 
0 
0 
0 
0 
0 
0 
0 
0 
0 
0 
0 
0 
0 
0 
0 
0 
0 
0 
0 
0 
0 
0 
0 
-3.600379275321076 
0 
0 
0 
0 
0 
0 
0 
0 
0 
0 
0 
0 
0 
0 
0 
0 
0 
0 
0 
0 
0 
0 
0 
0 
0 
0 
0 
0 
0 
0 
0 
0 
0 
0 
0 
0 
0 
0 
0 
0 
0 
0 
0 
0 
0 
0 
0.009774663351741948 
0 
0 
0 
0 
0 
0 
0 
0 
0 
0 
0 
0 
0 
0 
0 
0 
0 
0 
0 
0 
0 
0 
0 
0 
0 
0 
0 
0 
-1.405904511676705 
0 
0 
0 
0 
0 
0 
0 
0 
0 
0 
0 
0 
0 
0 
0 
0 
0 
0 
0 
0 
0 
0 
0 
0 
0 
0 
0 
0 
0 
0 
0 
0 
0 
0 
0 
0 
0 
0 
0 
0 
0 
0 
0 
0 
0 
0 
0 
0 
0.4878902426272237 
0 
0 
0 
0 
0.8598928926992197 
0 
0 
0 
0 
0 
0 
0 
0 
0 
0 
0 
0 
0 
0 
0 
-2.571343816655365 
0 
0 
0 
0 
0 
0 
0 
0 
0 
0 
0 
0 
0 
0 
0 
0 
0 
0 
0 
0 
0 
0 
0 
-0.9259105931068389 
0 
0 
0 
0 
0 
0 
0 
0 
0 
0 
0 
0 
0 
0 
0 
0 
0 
0 
0 
0 
0 
0 
0 
0 
0 
0 
0 
0 
0 
0 
0 
0 
0 
0 
0 
0 
0 
0 
0 
0 
0 
0 
0 
0 
0 
0 
0 
0 
0 
0 
0 
0 
0 
0 
0 
0 
0 
0 
0 
0 
0 
0 
0 
0 
0 
0 
0 
0 
0 
0 
0 
0 
0 
0 
0 
0 
0 
0 
0 
0 
0 
0 
0 
0 
0 
0 
0 
0 
0 
0 
0 
0 
-1.93668194345873 
0 
0 
0 
0 
0 
0 
0 
0 
0 
0 
0 
0 
0 
0 
0 
0 
0 
0 
0 
0 
-1.396403364163505 
0 
0 
0 
0 
0 
0 
0 
0 
0 
0 
0 
0 
0 
0 
0 
0 
0 
0 
0 
0 
0 
0 
0 
0 
0 
0 
0 
0 
0 
-0.5202445940184642 
0 
0 
0 
0 
0 
0 
0 
0 
0 
0 
0 
0 
0 
0 
0 
0 
0 
0 
0 
0 
0 
0 
0 
0 
0 
0 
0 
0 
0 
0 
-0.4544888663166691 
0 
0 
0 
0 
-0.5718594009449255 
0 
0 
0 
0 
0 
0 
0 
0 
0 
0 
0 
0 
0 
0 
0 
0 
0 
0 
0 
0 
0 
0 
0 
0 
0 
0 
0 
0 
0 
0 
0 
0 
0 
0 
0 
0 
0 
0 
0 
0 
0 
0 
0 
0 
0 
0 
0 
0 
0 
0 
0 
0 
1.71266679524061 
0 
0 
0 
0 
0 
0 
0 
0 
-2.310629706178151 
0 
0 
0 
0 
0 
0 
0 
0 
0 
0 
0 
0 
0 
0 
0 
0 
0 
0 
0 
0 
0 
0 
0 
0 
0 
0 
0 
0 
0 
0 
0 
0 
0 
0 
0 
0 
0 
0 
0 
0 
0 
0 
0 
0 
0 
0 
0 
0 
-0.746935032659351 
0 
0 
0 
0 
0 
0 
0 
0 
0 
0 
0 
0 
0 
0 
0 
0 
0 
0 
0 
0 
0 
0 
0 
0 
0 
0 
0 
0 
0 
0 
0 
0 
0 
0 
0 
0 
-1.665654947121819 
-0.6456410105400134 
0 
0 
0 
0 
0 
0 
0.9408244654329075 
0 
0 
0 
0 
0 
0 
0 
0 
0 
0 
0 
0 
-3.874386217248303 
0 
0 
0 
0 
0 
0 
0 
0 
0 
0 
0 
0 
0 
0 
0 
0 
0 
0 
0 
0 
0 
0 
0 
0 
0 
0 
0 
0 
0 
0 
0 
0 
0 
0 
0 
0 
0 
0 
0 
-0.2132241276551371 
0 
0 
0 
0 
0 
0 
0 
0 
0 
0 
0 
0 
0 
0 
0 
0 
0 
0 
0 
0 
0 
0 
0 
0 
0 
0 
0 
0 
0 
0 
0 
0 
0 
0 
0 
0 
0 
0 
0 
0 
0 
0 
0 
0 
0 
0 
0 
-4.400084304867863 
0 
0 
0 
2.551532153374318 
0 
0 
0 
0 
0 
0 
0 
0 
0.03193989768488039 
0 
0 
0 
0 
0 
-3.059200589381474 
0 
0 
0 
0 
0 
0 
1.182398704073374 
0 
0 
0 
0 
0 
0 
0 
0 
0 
0 
0 
0 
0 
0 
0 
0 
0 
0 
0 
0 
0 
-1.049597750473056 
0 
3.061708801869957 
0 
0 
0 
0 
0 
0 
0 
0 
0 
0 
0 
0 
0 
0 
0 
0 
0 
0 
0 
0 
0 
0 
0 
0 
0 
0 
0 
0 
0 
0 
0 
0 
-0.9943186936669587 
0 
0 
0 
0 
0 
0 
0 
0 
0 
0 
0 
0 
0 
0 
0 
0 
0 
0 
0 
0 
0 
0 
0 
0 
0 
0 
0 
0 
0 
0 
0 
0 
0 
0 
0 
0 
0 
0 
0 
0 
0 
0 
0 
0 
0 
0 
0 
0 
0 
0 
0 
0 
0 
0 
0 
0 
0 
0 
0 
0 
0 
0 
0 
0.4733558098327288 
0 
0 
0 
0 
0 
0 
0 
0 
0 
0 
0 
0 
0 
0 
0 
0 
0 
0 
0 
0 
0 
0 
0 
0 
0.9137441784885172 
0 
0 
0 
0 
0 
0 
0 
0 
0 
0 
0 
0 
0 
0 
0 
0 
0 
0 
0 
0 
0 
0 
0 
0 
0 
0 
0 
0 
0 
0 
0 
0 
0 
0 
0 
0 
0 
0 
0 
0 
0 
0 
0 
0 
0 
0 
0 
0 
0 
0 
0 
0 
0 
0 
0 
0 
0 
0 
0 
0 
0.09785271103186599 
0 
0 
0 
0 
0 
0 
0 
0 
0 
0 
0 
0 
1.316367039651734 
0 
0 
0 
0 
0 
0 
0 
0 
0 
0 
0 
0 
0 
0 
0 
0 
0 
0 
0 
0 
0 
0 
0 
0 
0 
0 
0 
0 
0 
0 
0 
-2.305504102332288 
0 
0 
0 
0 
0 
0 
0 
0 
0 
0 
0 
0 
0 
0 
0 
0 
0 
0 
0 
0 
0 
0 
2.923012915486726 
0 
0 
0 
0 
0 
0 
0 
0 
0 
0 
0 
0 
0 
0 
0 
0 
0 
0 
0 
0 
0 
0 
0 
0 
0 
0 
0 
0 
0 
0 
0 
0 
0 
0 
0 
0 
0 
0 
0 
0 
0 
0 
0 
0 
0 
0 
0 
0 
0 
0 
0 
0 
0 
0 
0 
0 
0 
0 
0 
0 
0 
0 
0 
0 
0 
0 
0 
0 
0 
0 
0 
0 
0 
0 
0 
0 
0 
0 
0 
0 
0 
0 
0 
0 
0 
0 
0 
0 
0 
0 
0 
0 
0 
0 
0 
0 
0 
0.140232900732787 
0 
0 
0 
0 
0 
0 
0 
0 
0 
0 
0 
0 
0 
0 
0 
0 
0 
0 
0 
0 
0 
0 
0 
0 
0 
0 
0 
0 
0 
0 
0.4156444662207668 
0 
0 
0 
0 
0 
0 
0 
0 
0 
0 
0 
0 
0 
0 
0 
0 
0 
0 
0 
0 
0 
0 
0 
0 
0 
0 
0 
0 
0 
0 
0 
0 
0 
0 
0 
0 
0 
0 
0 
0 
0 
0 
0 
0 
0 
0 
0 
0 
0 
0 
0 
0 
0 
0 
0 
0 
0 
0 
0 
0 
0 
0 
0 
0 
0 
0 
0 
0 
0 
0 
0 
0 
0 
0 
0 
0 
0 
0 
0 
0 
0 
0 
0 
0 
0 
0 
0 
0 
1.650896102603756 
0 
0 
0 
0 
0 
0 
0 
0 
0 
0 
0 
0 
0 
0 
0 
0 
0 
0 
0 
0 
0 
0 
0 
0 
0 
0 
0 
0 
0 
0 
0 
0 
0 
0 
0 
0 
0 
0 
0 
0 
0 
0 
0 
0 
0 
0 
0 
0 
0 
0 
0 
0 
0 
0 
0 
0 
0 
0 
0 
0 
0 
0 
0 
0 
0 
0 
0 
0 
0 
0 
0 
0 
0 
0 
0 
0 
0 
0 
0 
0 
0 
0 
0 
0 
0 
0 
0 
0 
0 
0 
1.813824310429578 
0 
0 
0.5135783393391346 
0 
0 
0 
0 
0 
0 
0 
0 
0 
0 
0 
0 
0 
0 
0 
0 
0 
0 
0 
0 
0 
0 
0 
0 
0 
0 
0 
0 
0 
0 
0 
0 
0 
0 
0 
0 
0 
0 
0 
0 
0 
0 
0 
0 
0 
0 
0 
0 
0 
0 
0 
0 
0 
0 
0 
0 
0 
0 
0 
0 
0 
0 
0 
0 
0 
0 
0 
0 
-1.044179830699632 
0.07713434370881506 
0 
0 
0 
0 
0 
0 
0 
0 
0 
0 
0 
0 
0.4349668341222916 
0 
0 
0 
0 
0 
0 
0 
0 
0 
0 
0 
0 
0 
0 
0 
0 
0 
0 
0 
0 
0 
0 
0 
0 
0 
0 
0 
0 
0 
0 
0 
0 
0 
0 
0 
0 
0 
0 
0 
0 
0 
0 
0 
0 
1.217880473966459 
0 
0 
0 
0 
0 
0.1427354882823099 
0 
0 
-0.6779410992407994 
0 
0 
0 
0 
0 
0 
0 
0 
0 
0 
0 
0 
0 
0 
0 
0 
0 
0.05802791338221216 
0 
0 
0 
0 
0 
0 
0 
0 
0 
0 
0 
0 
0 
0 
0 
0 
0 
0 
0 
0 
7.19947752852639 
0 
0 
0 
1.866323607180546 
0 
0 
0 
0 
0 
0 
0 
0 
0 
0 
0 
0 
0 
0 
0 
0 
0 
0 
0 
0 
0 
0 
0 
0 
0 
0 
0 
2.042461974515729 
0 
0 
0 
0 
0 
0 
0 
0 
1.385450634732582 
1.51740782291012 
0 
0 
0 
0 
0.8521322884131007 
0 
0 
0 
0 
0 
0 
0 
0 
0 
0 
0 
0 
0 
0 
0 
1.867351193131358 
0 
0 
0 
0 
0 
0 
0 
0 
1.027998244582193 
0 
0 
0 
0 
0 
0 
0 
0 
4.106302187438185 
0 
0 
0 
0 
0 
0 
0.3828852014235346 
0 
0 
0 
0 
0 
0 
0 
0 
0 
0 
0 
0.4173164989537189 
2.546241707077333 
0 
0 
1.693152611785867 
0 
0 
0 
-1.421972434487177 
0 
0 
0 
0 
0 
0 
0 
0 
0 
0 
0 
0 
3.444755499814025 
0 
0 
0 
0 
0 
0 
0 
0 
0 
0 
0 
0 
0 
0 
0 
0 
0 
1.77196860573821 
0 
2.777679202012911 
0 
0 
0 
0 
0 
0 
0 
0 
0 
0 
0 
0 
0 
0 
0 
0 
0 
0 
0 
0 
0 
0 
0 
0 
0 
0 
0 
0 
0 
0 
0 
0 
0 
0 
0 
0 
0 
0 
0 
0 
0 
0 
0 
0 
0 
0 
1.935398719553413 
0 
0 
0.891115692255635 
0 
0 
1.599395790408294 
0 
0 
0 
0 
0 
0 
0 
0 
0 
0 
-0.717433448755232 
0 
0 
0 
0 
-0.9137168828121114 
0 
0 
0 
0 
0 
0 
0 
0 
0 
0 
0 
0 
0 
0 
0 
0 
0 
0 
0 
0 
0 
0 
0.162239188536305 
0 
-0.1216481186668873 
0 
0 
0 
0 
0 
0 
0 
0 
0 
0 
0 
0 
0 
0 
0 
2.499055131105643 
0.4614129381086899 
0 
0 
0 
0 
0 
0 
0 
0 
0 
0 
-0.07707788515708126 
-1.923537481555453 
0 
0 
0 
0 
1.214166755393386 
0 
-2.396598830647735 
0 
0 
0 
0 
0 
0 
0 
0 
0 
0 
0 
0 
0 
0 
-0.1864383053279202 
0 
0 
0 
0 
0 
0 
0 
0 
-0.8442101397788016 
0 
0 
0 
0 
0 
0 
0 
0 
0.503095722147502 
0 
0 
0 
0 
0 
0.889323428296309 
0 
0 
0.3129617872742003 
0 
0 
0 
0 
0 
2.418823818675542 
0 
0 
0 
0 
0 
0.3293454800307565 
0 
0 
0.7556514937853297 
0 
0 
0 
0 
0 
0 
0 
0 
0 
0 
0 
0.8311094968068346 
0 
0 
0 
0 
0 
0 
0 
0 
0 
0 
0 
0 
0.8155203003967156 
0.1278034574095569 
0 
0 
0 
0 
0 
0 
0 
0 
0 
0 
0 
0 
0 
0.3534732949446985 
0 
0 
0 
0 
0 
0 
0 
0 
0 
0 
0 
0 
0 
0 
-1.23005143517066 
0 
0 
0 
0 
0 
0 
0 
0 
0 
0 
0 
0 
0 
0 
0 
0 
0 
0 
0 
0 
0 
0 
0 
0 
0 
0 
0 
0 
0 
0 
0 
0 
0 
0 
0 
0 
0 
0 
0 
0 
-0.7991880262217292 
0 
0 
0 
0 
0 
0 
0 
0 
0 
-3.043866169711098 
0 
0 
0 
0 
0 
0 
0 
0 
0 
0 
0 
0 
-4.815824079909253 
0 
0 
0 
0 
0 
0 
-2.278546374425127 
0 
0 
0 
0 
0 
0 
0 
0 
0 
0 
0 
0 
0 
0 
0 
0 
0 
0 
0 
0 
0 
0 
0 
0 
0 
0 
0 
0 
0 
0 
0 
0 
0 
0 
0 
0 
0 
0 
0 
0 
0 
0 
0 
0 
0 
-1.685941100551868 
0 
0 
0 
0 
0 
0 
0 
0 
0 
0 
0 
0 
0 
0 
0 
0 
0 
0 
0 
0 
0 
0 
0 
0 
0 
0 
0 
0 
0 
0 
0 
0 
0 
0 
0 
0 
0 
0 
0 
0 
0 
0 
0 
0 
0 
0 
0 
0 
0 
0 
0 
0 
0 
0 
0 
0 
0 
0 
0 
-2.213905534020009 
0 
0 
0 
0 
0 
0 
0 
0 
0 
0 
0 
0 
0 
0 
0 
0 
0 
0 
0 
0 
0 
0 
0 
0 
0 
0 
0 
0 
0 
0 
0 
0 
0 
0 
0 
0 
0 
0 
0 
0 
0 
0 
0 
0 
0 
0 
-4.309665935447591 
0 
0 
0 
0 
-1.443708339109352 
0 
0 
0 
0 
0 
0 
0 
0 
0 
0 
0 
0 
0 
0 
0 
0 
0 
0 
0 
0 
0 
0 
0 
0 
0 
0 
0 
0 
0 
0 
0 
0 
0 
0 
0 
0 
0 
0 
0 
0 
0 
0 
0 
0 
0 
0 
0 
0 
0 
0 
0 
0 
0 
0 
0 
0 
0 
0 
0 
0 
0 
0 
0 
0 
0 
0 
0 
0 
0 
0 
0 
0 
0 
0 
0 
0 
-3.575837269453611 
0 
0 
0 
0 
0 
0 
0 
0 
0 
0 
0 
0 
0 
0 
0 
0 
0 
0 
0 
-2.985146623990699 
0 
0 
0 
0 
0 
0 
0 
0 
0 
0 
0 
0 
0 
0 
0 
0 
0 
0 
0 
0 
0 
0 
0 
0 
0 
0 
0 
-0.7489234288386019 
0 
0 
0 
0 
0 
0 
0 
0 
0 
0 
0 
0 
0 
0 
-0.1093252603272856 
0 
0 
0 
0 
0 
0 
0 
0 
0 
0 
0 
0 
0 
0 
0 
0 
0 
0 
0 
0 
0 
0 
0 
0 
0 
0 
0 
0.9079498048181943 
0 
0 
0 
-2.305130122329384 
-1.044129027532918 
0 
0 
0 
0 
0 
0 
0 
0 
-1.647780800452499 
-2.027738833542689 
0 
0 
0 
0 
0 
0 
0 
0 
-1.363099317420514 
0 
0 
0 
0 
0 
0 
0 
0 
0 
0 
0 
0 
0 
0 
0 
0 
0 
0 
0 
0 
0 
0 
0 
0 
0 
0 
0 
0 
0 
0 
0 
0 
0 
0 
0 
0 
0 
0 
0 
0 
0 
0 
0 
0 
0 
0 
0 
0 
0 
0 
0 
0 
0 
0 
0 
0 
0 
0 
0 
0.7693981721683046 
0 
0 
0 
0 
0 
0 
0 
0 
0 
0 
0 
0 
0 
0 
0 
0 
0 
0 
0 
0 
0 
0 
0 
0 
0 
0 
0 
0 
0 
0 
0 
0 
0 
0 
0 
0 
0 
0 
0 
0 
0 
0 
0 
0 
0 
0 
0 
0 
0 
0 
0 
0 
0 
0.6209936823999634 
0 
0 
0 
0 
0 
0 
0 
0 
0 
0 
0 
0 
0 
0 
0 
0 
0 
0 
0 
0 
0 
0 
0 
0 
0 
0 
0 
0 
0 
0 
0 
0 
0.01373856796215071 
0 
0 
0 
0 
0 
0 
0 
0 
0 
0 
0 
0 
0.8253888840642399 
0 
0 
0 
0 
0 
0 
0 
0 
0 
0 
0 
0 
0 
0 
0 
0 
0 
0 
0 
0 
0 
0 
0 
0 
0 
0 
0 
0 
0 
0 
0 
0 
0 
0 
0 
0 
0 
0 
0 
0 
0 
-0.3322568914065771 
0 
0 
0 
0 
0 
0 
0 
0 
1.168749471233203 
0 
0 
0 
0 
0 
0 
0 
0 
0 
0 
0 
0 
0 
0 
0 
0 
0 
0 
0 
0 
0 
0 
0 
0 
0 
0 
0 
0 
0 
0 
0 
0 
0 
0 
0 
0 
0 
0 
0 
0 
0 
0 
0 
0 
0 
0 
0 
0 
0 
0 
0 
0 
0 
0 
0 
0 
0 
0 
0 
0 
0 
0 
0 
0 
0 
0 
0 
0 
0 
0 
0 
0 
0 
0 
0 
0 
0 
0 
0 
0 
0 
0 
0 
0 
0 
0 
0 
0 
0 
0 
0 
0 
0 
0 
0 
-1.094942494375934 
0 
0 
0 
0 
0 
0 
0 
0 
0 
0 
0 
0 
0 
0 
0 
0 
0 
0 
0 
0 
0 
0 
0 
0 
0 
0 
0 
0 
0 
0 
0 
0 
0 
3.098072516208056 
0 
0 
0 
0 
0 
0 
0 
0 
0 
0 
0 
0 
0 
0 
0 
0 
0 
0 
0 
0 
0 
0 
0 
0 
0 
0 
0 
0 
0 
0 
0 
0 
0 
0 
0 
0 
0 
0 
0 
0 
0 
0 
0 
0 
0 
0 
0 
0 
0 
0 
0 
0 
0 
0 
0 
0 
0 
0 
0 
0 
0 
0 
0 
0 
0 
0 
0 
0 
0 
0 
0 
0 
0 
0 
0 
0 
0 
0 
0 
0 
0 
0 
0 
0 
0 
0 
0 
0 
0 
0 
0 
0 
0 
0 
0 
0 
0 
0 
0 
0 
0 
0 
0 
0 
0 
0 
0 
0 
0 
0 
0 
0 
0 
0 
0.7498329516405929 
0 
0 
-0.1493421809625455 
0 
0 
0 
0 
0 
0 
0 
0 
0 
0 
0 
0 
0.4955208580452991 
0 
0 
0 
0 
0 
0 
0 
0 
0 
0 
0 
0.0439122507040477 
0 
0 
0 
0 
0 
0 
0 
0 
0 
0 
0 
0 
0 
0 
0 
0 
0 
0 
0 
0 
0 
0 
0 
0 
0 
0 
0 
0 
0 
0 
0 
0 
0 
0 
0 
0 
0 
0 
0 
0 
0 
0 
0 
0 
0 
0 
0 
0 
-0.05361851813245104 
0 
0 
0 
-1.119540870386151 
0 
0 
0 
0 
0 
0 
0 
0 
0 
0 
0 
0 
0 
0 
0 
0 
0 
0 
0 
0 
0 
0 
0 
0 
0 
0 
0.4265926889807659 
0 
0 
0 
0 
2.888443615396536 
0 
0 
0 
0 
0 
0 
0 
0 
0 
0 
0 
0 
0 
0 
0 
0 
0 
0 
0 
0 
0 
0 
0 
0 
0 
0 
0 
0 
0 
0 
0 
0 
0 
0 
0 
0 
0 
0 
0 
0 
0 
0 
0 
0 
0 
0 
0 
-1.736818704389857 
0 
0 
0 
0 
0 
0 
0 
0 
0 
0 
0 
0 
0 
0 
0 
0 
0 
0 
0 
0 
0 
0 
0 
0 
0 
0 
0 
0 
0 
0 
0 
-1.930646957854351 
0 
0 
0 
0 
0 
0 
0 
-0.4272584868456913 
0 
0 
0 
0 
0 
0 
0 
0 
0 
0 
0 
0 
0 
0 
0 
0 
0 
0 
0 
0 
0 
0 
0 
0 
0 
0 
0 
0 
0 
0 
0 
0 
0 
0 
0 
0 
0 
-0.4469486094623859 
0 
0 
0 
0 
0 
0 
0 
0 
0 
0 
0 
0 
0 
1.55235429176589 
0 
0 
0 
0 
0 
0 
0 
0 
0 
0 
0 
0 
0 
0 
0 
0 
0 
0 
0 
0 
0 
0 
0 
0 
0 
0 
0 
0 
0 
0 
0 
0 
0 
0 
0 
0 
0 
0 
0 
0 
0 
0 
0 
0 
0 
0 
0 
0 
0 
0 
0 
0 
0 
0 
0 
0 
0 
0 
0 
0 
0 
0 
0 
0 
0 
0 
0 
0 
0 
0 
0 
0 
0 
0 
0 
0 
0 
0 
0 
0 
0 
0 
0 
0 
0 
0 
0 
0 
0 
0 
0 
0 
0 
0 
0 
0 
0 
0 
0 
0 
0 
0 
0 
0 
0 
0 
0 
0 
0 
0 
0 
0 
0 
0 
0 
0.3466866962751811 
0 
0 
0 
0 
0 
0 
0 
0 
-2.333855513783651 
0 
0 
0 
0 
0 
0 
0 
0 
0 
0.7944977466802595 
-2.417368177706133 
0 
0 
0 
0 
0 
0 
0 
0 
0 
0 
-0.8976548482724046 
0 
0 
0.9301196158166899 
0 
0 
0 
0 
0 
1.204862210488772 
0 
0 
0 
0 
0 
0 
0 
0 
0 
0 
0 
0 
0 
0 
0 
0 
0.8999592326333969 
0 
0 
0 
0 
0 
0 
0 
0 
0 
0 
6.012744898259698 
-1.847576330195117 
0 
0 
0 
0 
0 
0 
0 
0 
0 
0 
0.3351899407913707 
0 
0 
0 
0 
0 
-0.2422739188385044 
0 
0 
0 
0 
0 
0 
0 
0 
0 
0 
0 
0 
0 
0 
0 
0 
0 
0 
0 
0 
0 
0 
0 
0 
0 
0 
0 
0 
0 
0 
0 
0 
0 
0 
0 
0 
0 
0 
0 
0 
0 
0 
0 
0 
0 
0 
0 
0 
0 
0 
0 
0 
0 
0 
0 
0 
0 
0 
0 
0 
0 
0 
0 
0 
0 
0 
0 
0 
0 
0 
0 
0 
0 
0 
0 
0 
0 
0 
0 
0 
0 
0 
0 
0 
0 
0 
0 
0 
0 
0 
0 
0 
0 
0 
0 
0 
0 
0 
0 
0 
0 
0 
0 
0 
0 
0 
0 
0 
0 
0 
0 
0 
0 
0 
0 
0 
0 
0 
0 
0 
0 
0 
0 
0 
0 
0 
0 
0 
0 
0 
0 
0 
0 
0 
0 
0 
0 
0 
0 
0 
0 
0 
0 
0 
0 
0 
0 
0 
0 
0 
0 
0 
0 
0 
0 
0 
0 
0 
0 
0 
0 
0 
0 
0 
0 
0 
0 
0 
0 
0 
0 
0 
0 
0 
0 
0 
0 
0 
0 
0 
0 
0 
0 
0 
0 
0 
0 
0 
0 
0 
0 
0 
0 
0 
0 
0 
0 
0 
0 
0 
0 
0 
0 
0 
0 
0 
0 
0 
0 
0 
0 
0 
1.056376782087436 
0 
0 
0 
0 
0 
0 
1.697492507601789 
0 
0 
0 
0 
0 
0 
0 
0 
0 
0 
0 
0 
0 
0 
0 
0 
0 
0 
0 
-1.016103993673194 
0 
0 
0 
0 
0 
0 
0 
0 
-5.615226275746701 
0 
0 
0 
0 
0 
0 
0 
0 
0 
0 
0 
0 
0 
0 
0 
0 
0 
0 
0 
0 
0 
0 
0 
0 
0 
0 
0 
0 
0 
0 
0 
0 
0 
0 
0 
0 
0 
0 
0 
0 
0 
0 
0 
0 
0 
0 
0 
0 
0 
0 
0 
0 
0 
0 
0 
0 
0 
0 
0 
0 
0 
0 
0 
0 
0 
0 
0 
0 
0 
0 
0 
0 
0 
0 
0 
0 
0 
0 
0 
0 
0 
0 
0 
0 
0 
0 
0 
0 
0 
0 
0 
0 
0 
0 
0 
0 
0 
0 
0 
0 
0 
0 
0 
0 
0 
0 
0 
0 
0 
0 
0 
0 
0 
0 
0 
0 
0 
0 
0 
0 
0 
0 
0 
0 
0 
0 
0 
0 
0 
0 
0 
0 
0 
0 
0 
0 
0 
0 
0 
0 
0 
0 
0 
0 
0 
0 
0 
0 
0 
0 
0 
0 
0 
0 
0 
0 
0 
0 
0 
0 
0 
0 
0 
0 
0 
0 
0 
0 
0 
0 
0 
0 
0 
0 
0 
0 
0 
0 
0 
0 
0 
0 
0 
0 
0 
0 
0 
0 
0 
0 
0 
0 
0 
0 
0 
0 
0 
0 
0 
0 
0 
0 
0.3777690809689367 
0 
0 
0 
0 
0 
0 
0 
0 
0 
0 
0 
0 
0 
0 
0 
0 
0 
0 
0 
0 
0 
0 
0 
0 
0 
0 
0 
-1.291460606002009 
0 
0 
0 
0 
0 
0 
0 
0 
0 
0 
0 
0 
-1.735254557337607 
0 
0 
0 
0 
0 
0 
0 
0 
0 
0 
0 
0 
0 
0 
0 
0 
0 
0 
0 
0 
0 
0 
0 
0 
0 
0 
0 
0 
0 
0 
0 
0 
0 
0 
0 
0 
0 
1.682341044711637 
0 
0 
0 
0 
0 
0 
0 
0 
0 
0 
0 
0 
0 
0 
0 
0 
0 
0 
0 
0 
0 
0 
0 
0 
0 
0 
0 
0 
0 
0 
0 
0 
0 
0 
0 
0 
0 
0 
0 
0 
0 
0 
0 
0 
0 
0 
0 
0 
0 
0 
0 
0 
0 
0 
0 
0 
0 
0 
0 
0 
0 
0 
0 
0 
0 
0 
0 
0 
0 
0 
0 
0 
0 
0 
0 
0 
0 
0 
0 
0 
0 
0 
0 
0 
0 
0 
0 
0 
0 
0 
0 
0 
0 
0 
0 
0 
0 
0 
0 
0 
0 
0 
0 
0 
0 
0 
0 
0 
0 
0 
0 
0 
0 
0 
0 
0 
0 
0 
0 
0 
0 
0 
0 
0 
0 
0 
0 
0 
0 
0 
0 
0 
0 
0 
0 
0 
0 
0 
0 
0 
-0.3429725478903774 
0 
0 
0 
0 
0 
0 
0 
0 
0 
0 
0 
0 
0 
0 
0 
0 
0 
0 
0 
0 
0 
0 
0 
0 
0 
0 
0 
0 
0 
0 
0 
0 
0 
0 
0 
0 
0 
0 
0 
0 
0 
0 
0 
0 
0 
0 
0 
0 
0 
0 
0 
0 
0 
0 
0 
0 
0 
0 
0 
0 
0 
0 
0 
0 
0 
0 
0 
0 
0 
0 
0 
0 
0 
0 
0 
0 
0 
0 
0 
0 
0 
0 
0 
0 
0 
0 
0 
0 
0 
0 
0 
0 
0 
0 
0 
0 
0 
0 
0 
0 
0 
0 
0 
0 
0 
0 
0 
0 
0 
0 
0 
0 
0 
0 
0 
0 
0 
0 
0 
0 
0 
0 
0 
0 
0 
0 
0 
0 
0 
0 
0 
0 
0 
0 
0 
0 
0 
0 
0 
0 
0 
0 
0 
0 
0 
0 
0 
0 
0 
0 
0 
0 
0 
0 
0 
0 
0 
2.279859660598464 
0 
0 
0 
0 
0 
0 
0 
0 
0 
0 
0 
0 
0 
0 
0 
0 
0 
0 
0 
0.158229538423727 
0 
0 
0 
0 
0 
0 
0 
0 
0 
0 
0 
0 
0 
0 
0 
0 
0 
0 
0 
0 
0 
0 
0 
0 
0 
0 
0 
0 
0 
0 
0 
0 
0 
0 
0 
0 
0 
0 
0 
0 
0 
0 
0 
0 
0 
0 
0 
0 
0 
0 
0 
0 
0 
0 
0 
0 
0 
0 
0 
0 
0 
0 
0 
0 
0 
0 
0 
0 
0 
-2.045373400691773 
0 
0 
0 
0 
0 
0 
0 
0 
0 
0 
0 
0 
0 
0 
0 
0 
0 
0 
0 
0 
0 
0 
0 
0 
0 
0 
0 
0 
0 
0 
0 
0 
0 
0 
0 
0 
0 
0 
0 
0 
0 
0 
0 
0 
0 
0 
0 
0 
0 
0 
0 
0 
0 
0 
0 
0 
0 
0 
0 
0 
0 
0 
0 
0 
0 
0 
0 
0 
0 
0 
0 
0 
0 
0 
0 
0 
0 
0 
0 
0 
0 
0 
0 
0 
0 
0 
0 
0 
0 
0 
0 
0 
0 
0 
0 
0 
0 
0 
0 
0 
0 
0 
0 
0 
0 
0 
0 
0 
0 
0 
0 
0 
0 
0 
0 
0 
0 
0 
0 
0 
0 
0 
0 
0 
0 
0 
0 
0 
0 
0.1388103896521879 
0 
0 
0 
0 
0 
0 
0 
0 
0 
0 
0 
0 
0 
0 
0 
0 
0 
0 
-4.910252592051056 
0 
0 
0 
0 
0 
0 
0 
-0.4043129618220938 
0 
0 
0 
0 
0 
0 
0 
0 
0 
1.379189471312602 
0 
0 
0 
0 
0 
0 
0 
0 
0 
0 
0 
0 
0 
0 
0 
0 
0 
0 
0 
0 
0 
0 
0 
0 
0 
0 
0 
-0.6381717294370598 
0 
0 
0 
0 
0 
0 
0 
0 
0 
0 
0 
0 
0 
0 
0 
0 
0 
0 
0 
0 
0 
0 
0 
0 
0 
0 
0 
0 
0 
0 
0 
0 
-1.07128292459342 
0 
0 
0 
0 
0 
0 
0 
0 
0 
0 
0 
0 
0 
0 
0 
0 
0 
0 
0 
0 
0 
0 
0 
0 
0 
0 
0 
0 
0 
0 
0 
0 
0 
0 
0 
0 
0 
0 
0 
0 
0 
0 
0 
0 
0 
0 
0 
0 
0 
0 
0 
0 
0 
0 
0 
0 
0 
0 
0 
0 
0 
0 
0 
0 
2.063431151699238 
0 
0 
0 
0 
0 
0 
0 
0 
0 
0 
0 
0 
0 
0 
0 
0 
0 
0 
0 
0 
0 
0 
0 
0 
0 
0 
0 
0 
0 
0 
0 
0 
0 
0 
0 
0 
0 
0 
0 
0 
0 
0 
0 
0 
0 
0 
0 
0 
0 
0 
0 
0 
0 
0 
0 
0 
0 
0 
0 
0 
0 
0 
0 
0 
0 
0 
0 
0 
0 
0 
0 
0 
0 
0 
0 
0 
0 
0 
0 
0 
0 
0 
0 
0 
0 
0 
0 
0 
0 
0 
0 
0 
0 
0 
0 
0 
0 
0 
0 
0 
0 
0 
0 
0 
0 
0 
0 
0 
0 
0 
0 
-0.6804353807841276 
0 
0 
0 
0 
0 
0 
0 
0 
0 
0 
0 
0 
0 
0 
0 
0 
0 
0 
0 
0 
0 
0 
0 
0 
0 
0 
0 
0 
0 
0 
0 
0 
0 
0 
0 
0 
0 
0 
0 
0 
0 
0 
0 
0 
0 
0 
0 
0 
0 
0 
0 
0 
0 
0 
0 
0 
0 
0 
0 
-1.159291094885973 
0 
0 
0 
0 
0 
0 
0 
0 
0 
0 
0 
0 
0 
0 
0 
0 
0 
0 
0 
0 
0 
0 
0 
0 
0 
0 
0 
0 
2.225248333148252 
0 
0 
0.9282392545714805 
0 
0 
0 
0 
0 
0 
0 
0 
0 
0 
0 
0 
0 
0 
0 
0 
0 
0 
0 
0 
0 
0 
0 
0 
0 
0 
0 
0 
0 
0 
0 
0 
0 
0 
0 
0 
0 
0 
0 
0 
0 
0 
0 
0 
0 
0 
0 
0 
0 
0 
0 
0 
0 
0 
0 
0 
0 
0 
0 
0 
0 
0 
0 
0 
0 
0 
0 
0 
0 
0 
0 
0 
0 
0 
0 
-2.415726837713792 
0 
0 
0 
0 
0 
0 
0 
0 
0 
0 
0 
0 
0 
0 
0 
0 
0 
0 
0 
0 
0 
0 
0 
0 
0 
0 
0 
0 
0 
0 
0 
0 
0 
0 
0 
0 
0 
0 
0 
0 
0 
0 
0 
0 
0 
0 
0 
0 
0 
0 
0 
0 
0 
0 
0 
0 
0 
0 
0 
0 
0 
0 
0 
0 
0 
0 
0 
0 
0 
0 
0 
0 
0 
0 
0 
0 
0 
0 
0 
0 
0 
0 
0 
0 
0 
0 
0 
0 
0 
0 
0 
0 
0 
0 
0 
0 
0 
0 
0 
0 
0 
0 
0 
0 
0 
0 
0 
0 
0 
0 
0 
0 
0 
0 
0 
0 
0 
0 
0 
0 
0 
0 
0 
0 
0 
-1.558479680605969 
0 
0 
0 
0 
0 
0 
0 
0 
0 
0 
0 
0 
0 
0 
0 
0 
0 
0 
0 
0 
0 
0 
0 
0 
0 
0 
0 
0 
0 
0 
0 
0 
0 
0 
0 
0 
0 
0 
0 
0 
0 
0 
0 
0 
0 
0 
0 
0 
0 
0 
0 
0 
0 
0 
0 
0 
0 
0 
0 
0 
0 
0 
0 
0 
0 
0 
0 
0 
0 
0 
0 
0 
0 
0 
0 
0 
0 
0 
0 
0 
0 
0 
0 
0 
0 
0 
0 
0 
0 
0 
0 
0 
0 
0 
0 
0 
0 
0 
0 
0 
0 
0 
0 
0 
0 
0 
0 
0 
0 
0 
0 
0 
0 
0 
0 
0 
0 
0 
0 
0 
0 
0 
0 
0 
0 
0 
0 
0 
0 
0 
0 
0 
0 
0 
0 
0 
0 
0 
0 
0 
0 
0 
0 
0 
0 
0 
0 
0 
0 
0 
0 
0 
0 
0 
0 
0 
0 
0 
0 
0 
0 
0 
0 
0 
0 
0 
0 
0 
0 
0 
0 
0 
0 
0 
0 
0 
0 
0 
0 
0 
0 
0 
0 
0 
0 
0 
0 
0 
0 
0 
0 
0 
0 
0 
0 
0 
0 
0 
0 
0 
0 
0 
0 
0 
0 
0 
0 
0 
0 
0 
0 
0 
0 
0 
0 
0 
0 
0 
0 
0 
0 
0 
0 
0 
0 
0 
0 
0 
0 
0 
0 
0 
0 
0 
0 
0 
0 
0 
0 
0 
0 
0 
0 
0 
0 
0 
0 
0 
0 
0 
0 
0 
0 
-1.449023247327663 
0 
0 
0 
0 
0 
0 
0 
0 
0 
0 
0 
0 
0 
0 
0 
0 
0 
0 
0 
0 
0 
0 
0 
0 
0 
0 
0 
0 
0 
0 
0 
0 
0 
0 
0 
0 
0 
0 
0 
0 
0 
0 
0 
0 
0 
0 
-1.356946842876402 
0 
0 
0 
0 
0 
0 
0 
0 
0 
0 
0 
0 
0 
0 
0 
0 
0 
0 
0 
0 
0 
0 
0 
0 
0 
0 
0 
0 
0 
0 
0 
0 
0 
0 
0 
0 
0 
0 
0 
0 
0 
0 
0 
0 
0 
0 
0 
0 
0 
0 
0 
0 
0 
0 
0 
0 
0 
0 
0 
0 
0 
0 
0 
0 
0 
0 
0 
0 
0 
0 
0 
0 
0 
0 
0 
0 
0 
0 
0 
0 
0 
0 
0 
0 
0 
0 
0 
0 
0 
0 
0 
0 
0 
0 
0 
0 
0 
0 
0 
0 
0 
0 
0 
0 
0 
0 
0 
0 
0 
0 
0 
0 
0 
0 
0 
0 
0 
0 
0 
0 
0 
0 
0 
0 
0 
0 
0 
0 
0 
0 
0 
0 
0 
0 
0 
0 
0 
0 
0 
0 
0 
0 
0 
0 
0 
0 
0.7449163691025839 
0 
0 
0 
0 
0 
0 
0 
0 
0 
0 
0 
0 
0 
0 
0 
0 
0 
0 
0 
0 
0 
0 
0 
0 
0 
0 
0 
0 
0 
0 
0 
0 
0 
0 
0 
0 
0 
0 
0 
0 
0 
0 
0 
0 
0 
0 
0 
0 
0 
0 
0 
0 
0 
0 
0 
0 
0 
0 
0 
0 
0 
0 
0 
0 
0 
0 
0 
0 
0 
0 
0 
0 
0 
0 
0 
0 
0 
0 
0 
0 
0 
0 
0 
0 
0 
0 
0 
0 
0 
0 
0 
0 
0 
0 
0 
0 
0 
0 
0 
0 
0 
0 
0 
0 
0 
0 
0 
0 
0 
0 
0 
0 
0 
0 
0 
0 
0 
0 
0 
0 
0 
0 
0 
0 
0 
0 
0 
0 
0 
0 
0 
0 
0 
0 
0 
0 
0 
0 
0 
0 
0 
0 
0 
0 
0 
0 
0 
0 
0 
0 
0 
0 
0 
0 
0 
0 
0 
0 
0 
0 
0 
0 
0 
0 
0 
0 
0 
0 
0 
0 
0 
0 
0 
0 
0 
0 
0 
0 
0 
0 
0 
0 
0 
0 
0 
0 
0 
0 
0 
0 
0 
0 
0 
0 
0 
0 
0 
0 
0 
0 
0 
0 
0 
0 
0 
0 
0 
0 
0 
0 
0 
0 
0 
0 
0 
0 
0 
0 
0 
0 
0 
0 
0 
0 
0 
0 
0 
0 
0 
0 
0 
0 
0 
0 
0 
0 
0 
0 
0 
0 
0 
0 
0 
0 
0 
0 
0 
0 
0 
0 
0 
0 
0 
0 
0 
0 
0 
0 
0 
0 
0 
0 
0 
0 
0 
0 
0 
0 
0 
0 
0 
0 
0 
0 
0 
0 
0 
0 
0 
0 
0 
0 
0 
0 
0 
0 
0 
0 
0 
0 
0 
0 
0 
0 
0 
0 
0 
0 
0 
0 
0 
0 
0 
0 
0 
0 
0 
0 
0 
0 
0 
0 
0 
0 
0 
0 
0 
0 
0 
0 
0 
0 
0 
0 
0 
0 
0 
0 
0 
0 
0 
0 
0 
0 
0 
0 
0 
0 
0 
0 
0 
0 
0 
0 
0 
0 
0 
0 
0 
0 
0 
0 
0 
0 
0 
0 
0 
0 
0 
0 
0 
0 
0 
0 
0 
0 
0 
0 
0 
0 
0 
0 
0 
0 
0 
0 
0 
0 
0 
0 
0 
0 
0 
0 
0 
0 
0 
0 
0 
0 
0 
0 
0 
0 
0 
0 
0 
0 
0 
0 
0 
0 
0 
0 
0 
0 
0 
0 
0 
0 
0 
0 
0 
0 
0 
0 
0 
0 
0 
0 
0 
0 
0 
0 
0 
0 
0 
0 
0 
0 
0 
0 
0 
0 
0 
0 
0 
0 
0 
0 
0 
0 
0 
0 
0 
0 
0 
0 
0 
0 
0 
0 
0 
0 
0 
0 
0 
0 
0 
0 
0 
0 
0 
0 
0 
0 
0 
0 
0 
0 
0 
0 
0 
0 
0 
0 
0 
0 
0 
0 
0 
0 
0 
0 
0 
0 
0 
0 
0 
0 
0 
0 
0 
0 
0 
0 
0 
0 
0 
0 
0 
0 
0 
0 
0 
0 
0 
0 
0 
0 
0 
0 
0 
0 
0 
0 
0 
0 
0 
0 
0 
0.4375728037980496 
0 
0 
0 
0 
0 
0 
0 
0 
0 
0 
0 
0 
0 
0 
0 
0 
0 
0 
0 
0 
0 
0 
0 
0 
0 
0 
0 
0 
0 
0 
0 
0 
0 
0 
0 
0 
0 
0 
0 
0 
0 
0 
0 
0 
0 
0 
0 
0 
0 
0 
0 
0 
0 
0 
0 
0 
0 
0 
0 
0 
0 
0 
0.005482959813092948 
0 
0 
0 
0 
0 
0 
0 
0 
0 
0 
0 
0 
0 
0 
0 
0 
-0.8598323041093936 
0 
0 
0 
0 
0 
0 
0 
0 
0 
0 
0 
0 
0 
0 
0 
0 
0 
0 
0 
0 
0 
0 
0 
0 
0 
0 
0 
0 
0 
0 
0 
0 
0 
0 
0 
0 
0 
0 
0 
0 
0 
0 
0 
0 
0 
0 
0 
0 
0 
0 
0 
0 
0 
0 
0 
0 
0 
0 
0 
0 
0 
0 
0 
0 
0 
0 
0 
0 
0 
0 
0 
0 
0 
0 
0 
0 
0 
0 
0 
0 
0 
0 
0 
0 
0 
0 
0 
0 
0 
0 
0 
0 
0 
0 
0 
0 
0 
0 
0 
0 
0 
0 
0 
0 
0 
0 
0 
0 
0 
0 
0 
0 
0 
0 
0 
0 
0 
0 
0 
0 
0 
0 
0 
0 
0 
0 
0 
0 
0 
0 
0 
0 
0 
0 
0 
0 
0 
0 
0 
0 
0 
0 
0 
0 
-0.05304542729765343 
0 
0 
0 
0 
0 
0 
0 
0 
0 
0 
0 
0 
0 
0 
0 
0 
0 
0 
0 
0 
0 
0 
0 
0 
0 
0 
0 
0 
0 
0 
0 
0 
0 
0 
0 
0 
0 
0 
0 
0 
0 
0 
0 
0 
0 
0 
0 
0 
0 
0 
0 
0 
0 
0 
0 
0 
0 
0 
0 
0 
0 
0 
0 
0 
0 
0 
0 
0 
0 
0 
0 
0 
0 
0 
0 
0 
0 
0 
0 
0 
0 
0 
0 
0 
0 
0 
0 
0 
0 
0 
0 
0 
0 
0 
0 
0 
0 
0 
0 
0 
0 
0 
0 
0 
0 
0 
0 
0 
0 
0 
0 
0 
0 
0 
0 
0 
0 
0 
0 
0 
0 
0 
0 
0 
0 
0 
0 
0 
0 
0 
0 
0 
0 
0 
0 
0 
0 
0 
0 
0 
0 
0 
0 
0 
0 
0 
0 
0 
0 
2.864107627149853 
0 
0 
0 
0 
0 
0 
0 
0 
0 
0 
0 
0 
0 
0 
0 
0 
0 
0 
0.1306855982246418 
0 
0 
0 
0 
0 
0 
0 
0 
0 
0 
0 
0 
0 
0 
0 
0 
0 
0 
0 
0 
0 
0 
0 
0 
0 
0 
0 
0 
0 
0 
0 
0 
0 
0 
0 
0 
1.932735514914902 
0 
0 
0 
0 
0 
0 
0 
0 
0 
0 
0 
0 
0 
0 
0 
0 
0 
0 
0 
0 
0 
0 
0 
0 
0 
0 
0 
0 
0 
0 
0 
0 
0 
0 
0 
0 
0 
0 
0 
0 
0 
0 
0 
0 
0 
0 
0 
0 
0 
0 
0 
0 
0 
0 
0 
0 
0 
0 
0 
0 
0 
0 
0 
0 
0 
0 
0 
0 
0 
0 
0 
0 
0 
0 
0 
0 
0 
0 
0 
0 
0 
0 
0 
-2.311084091123694 
-2.177000025140659 
0 
0 
0 
0 
0 
0 
0 
0 
0 
0 
0 
0 
0 
0 
0 
0 
0 
0 
0 
0 
0 
0 
0 
0 
0 
0 
0 
0 
0 
0 
0 
0 
0 
0 
0 
0 
0 
0 
0 
0 
0 
0 
0 
0 
0 
0 
0 
0 
0 
0 
0 
0 
0 
0 
0 
0 
0 
0 
0 
0 
0 
0 
0 
0 
0 
0 
0 
0 
-1.324147084624499 
0 
0 
0 
0 
0 
0 
0 
0 
0 
0 
0 
0 
0 
0 
0 
0 
0 
0 
0 
0 
0 
0 
0 
0 
0 
0 
0 
0 
0 
0 
0 
0 
0 
0 
0 
0 
0 
0 
0 
0 
0 
0 
0 
0 
0 
0 
0 
0 
0 
0 
0 
0 
0 
0 
0 
0 
0 
0 
0 
0 
0 
0 
0 
0 
0 
0 
0 
0 
0 
0 
0 
0 
0 
0 
0 
0 
0 
0 
0 
0 
0 
0 
0 
0 
0 
0 
0 
0 
0 
0 
0 
0 
0 
0 
0 
0 
0 
0 
0 
0 
0 
0 
0 
0 
0 
0 
0 
0 
0 
0 
0 
0 
0 
0 
0 
0 
0 
0 
0 
0 
0 
0 
0 
0 
0 
0 
0 
0 
0 
0 
0 
0 
0 
0 
0 
0 
0 
0 
0 
0 
0 
0 
0 
0 
0 
0 
0 
0 
0 
0 
0 
0 
0 
0 
0 
0 
0 
0 
0 
0 
0 
0 
0 
0 
0 
0.725057274480101 
0 
0 
0 
0 
0 
0 
0 
0 
0 
0 
0 
0 
0 
0 
0 
0 
0 
0 
0 
0 
0 
0 
0 
0 
0 
0 
0 
0 
0 
0 
0 
0 
0 
0 
0 
0 
0 
0 
0 
0 
0 
0 
0 
0 
0 
0 
0 
0 
0 
0 
0 
0 
0 
0 
0 
0 
0 
0 
0 
0 
0 
0 
0 
0 
0 
0 
0 
0 
0 
0 
0.4374842889835761 
0 
0 
0 
0 
0.2016347627845841 
0 
0 
0 
0 
0 
0 
0 
0 
0 
0 
0 
0 
0 
0 
0 
0 
0 
0 
0 
0 
0 
0 
0 
0 
0 
0 
0 
0 
0 
0 
0 
0 
0 
0 
0 
0 
0 
0 
0 
0 
0 
0 
0 
0 
0 
0 
0 
0 
0 
0 
0 
0 
0 
0 
0 
0 
0 
0 
0 
0 
0 
0 
0 
0 
0 
0 
0 
0 
0 
0 
0 
0 
0 
0 
0 
0 
0 
0 
0 
0 
0 
0 
0 
0 
0 
0 
0 
0 
0 
0 
0 
0 
0 
0 
0 
0 
0.3803369766486949 
0 
0 
0 
0 
0 
0 
0 
0 
0 
0 
0 
0 
0 
0 
0 
0 
0 
0 
0 
0 
0 
0 
0 
0 
0 
0 
0 
0 
0 
0 
0 
0 
0 
0 
0 
0 
0 
0 
0 
0 
0 
0 
0 
0 
0 
0 
0 
0 
0 
0 
0 
0 
0 
0 
-4.552577024901604 
0 
0 
0 
0 
0 
0 
0 
0 
0 
0 
0 
0 
0 
0 
0 
0 
0 
0 
0 
0 
0 
0 
0 
0 
0 
0 
0 
0 
0 
0 
0 
0 
-2.386237998200774 
0 
0 
0 
0 
0 
0 
0 
0 
0 
0 
0 
0 
0 
0 
0 
0 
0 
0 
0 
0 
0 
0 
0 
0 
0 
0 
0 
0 
0 
0 
0 
0 
0 
0 
0 
0 
0 
0 
0 
0 
0 
0 
0 
0 
0 
0 
0 
0 
0 
0 
0 
0 
0 
0 
0 
0 
0 
0 
0 
0 
0 
0 
0 
0 
0 
0 
0 
0 
0 
0 
0 
0 
0 
0 
0 
0 
0 
0 
0 
0 
0 
0 
0 
0 
0 
0 
0 
0 
0 
0 
0 
0 
0 
0 
0 
0 
0 
0 
0 
0 
0 
0 
0 
0 
0 
0 
0 
0 
0 
-1.364990960393 
0 
0 
0 
0 
0 
0 
0 
0 
0 
0 
0 
0 
0 
0 
0 
0 
0 
0 
0 
0 
0 
0 
0 
0 
0 
0 
0 
0 
0 
0 
0 
0 
0 
0 
0 
0 
0 
0 
0 
0 
0 
0 
0 
0 
0 
0 
0 
0 
0 
0 
0 
0 
0 
0 
0 
0 
0 
0 
0 
0 
0 
0 
0 
0 
0 
0 
0 
0 
0 
0 
0 
0 
0 
0 
0 
0 
0 
0 
0 
0 
0 
0 
0 
0 
0 
0 
0 
0 
0 
0 
0 
0 
0 
0 
0 
0 
0 
0 
0 
0 
0 
0 
0 
0 
0 
0 
0 
0 
0 
0 
0 
0 
0 
0 
0 
0 
0 
0 
0 
0 
0 
0 
0 
0 
0 
0 
0 
0 
0 
0 
0 
0 
0 
0 
0 
0 
0 
0 
0 
0 
0 
0 
0 
0 
0 
0 
0 
0 
0 
0 
0 
0 
0 
0 
0 
0 
0 
0 
0 
0 
0 
0 
0 
0 
0 
0 
0 
0 
0 
0 
0 
0 
0 
0 
0 
0 
0 
0 
0 
0 
0 
0 
0 
0 
0 
0 
0 
0 
0 
0 
0 
0 
0 
0 
0 
0 
0 
0 
0 
0 
0 
0 
0 
0 
0 
0 
0 
0 
0 
0 
0 
0 
0 
0 
0 
0 
0 
0 
0 
0 
0 
0 
0 
0 
0 
0 
0 
0 
0 
0 
0 
0 
0 
0 
0 
0 
0 
0 
0 
0 
0 
0 
0 
0 
0 
0 
0 
0 
0 
0 
0 
0 
0 
0 
0 
0 
0 
0 
0 
0 
0 
0 
0 
0 
0 
0 
0 
0 
0 
0 
0 
0 
0 
0 
0 
0 
0 
0 
0 
0 
0 
0 
0 
0 
0 
0 
0 
0 
0 
0 
0 
0 
0 
0 
0 
0 
0 
0 
0 
0 
0 
0 
0 
0 
0 
0 
0 
0 
0 
0 
0 
0 
0 
0 
0 
0 
0 
0 
0 
0 
0 
0 
0 
0 
0 
0 
0 
0 
0 
0 
0 
0 
0 
0 
0 
0 
0 
0 
0 
0 
0 
0 
0 
0 
0 
0 
0 
0 
0 
0 
0 
0 
0 
0 
0 
0 
0 
0 
0 
0 
0 
0 
0 
0 
0 
0 
0 
0 
0 
0 
0 
0 
0 
0 
0 
0 
0 
0 
0 
0 
0 
0 
0 
0 
0 
0 
0 
0 
0 
0 
0 
0 
0 
0 
0 
0 
0 
0 
0 
0 
0 
0 
0 
0 
0 
0 
0 
0 
0 
0 
0 
0 
0 
0 
0 
0 
0 
0 
0 
0 
0 
0 
0 
0 
0 
0 
0 
0 
0 
0 
0 
0 
0 
0 
0 
0 
0 
0 
0 
0 
0 
0 
0 
0 
0 
0 
0 
0 
0 
0 
0 
0 
0 
0 
0 
0 
0 
0 
0 
0 
0 
0 
0 
0 
0 
0 
0 
0 
0 
0 
0 
0 
0 
0 
0 
0 
0 
0 
0 
0 
0 
0 
0 
0 
0 
0 
0 
0 
0 
0 
0 
0 
0 
0 
0 
0 
0 
0 
0 
0 
0 
0 
0 
0 
0 
0 
0 
0 
0 
0 
0 
0 
0 
0 
0 
0 
0 
0 
0 
0 
0 
0 
0 
0 
0 
0 
0 
0 
0 
0 
0 
0 
0 
0 
0 
0 
0 
0 
0 
0 
0 
0 
0 
0 
0 
0 
0 
0 
0 
0 
0 
0 
0 
0 
0 
0 
0 
0 
0 
0 
0 
0 
0 
0 
0 
0 
0.2427921078184397 
0 
0 
0 
0 
0 
0 
0 
0 
0 
0 
0 
0 
0 
0 
0 
0 
0 
0 
0 
0 
0 
0 
0 
0 
0 
0 
0 
0 
0 
0 
0 
0 
0 
0 
0 
0 
0 
0 
0 
0 
0 
0 
0 
0 
0 
0 
0 
0 
0 
0 
0 
0 
0 
0 
0 
0 
0 
0 
0 
0 
0 
0 
0 
0 
0 
0 
0 
0 
0 
0 
0 
0 
0 
0 
0 
0 
0 
0 
0 
0 
0 
0 
0 
0 
0 
0 
0 
0 
0 
0 
0 
0 
0 
0 
0 
0 
0 
0 
0 
0 
0 
0 
0 
0 
0 
0 
0 
0 
0 
0 
0 
0 
0 
0 
0 
0 
0 
0 
0 
0 
0 
0 
0 
0 
0 
0 
0 
0 
0 
0 
0 
0 
0 
0 
0 
0 
0 
0 
0 
0 
0 
0 
0 
0 
0 
0 
0 
0 
0 
0 
0 
0 
0 
0 
0 
0 
0 
0 
0 
0 
0 
0 
0 
0 
0 
0 
0 
0 
0 
0 
0 
0 
0 
0 
0 
0 
0 
0 
0 
0 
0 
0 
0 
0 
0 
0 
0 
0 
0 
0 
0 
0 
0 
0 
0 
0 
0 
0 
0 
0 
