solver_type L1R_LR
nr_class 2
label 1 -1
nr_feature 98199
bias -1
w
-1.896423001060235 
0.3921063302846437 
0 
-1.60262379848004 
-1.107897432856357 
0 
0 
0 
0.2316540147484901 
0 
2.173285483839345 
0 
0 
0 
0 
3.074359285462359 
1.146900968554567 
1.317923932008466 
1.219542642362982 
0 
1.258406983740368 
0.1031724967511245 
-0.5426896457762582 
0 
1.623849406964438 
0 
0 
0 
0 
1.392684501157963 
0.5183363063442584 
0 
0 
2.814786040082663 
0 
-0.4511131838583577 
-0.1861160038964741 
0 
0 
0 
0 
0 
-1.636830916772839 
0.02670439876022522 
0 
-1.758224667663494 
0.5771789326992141 
0 
0 
-2.373273569768555 
0 
0 
-1.72987435294439 
-0.06182319838498718 
0 
0 
0 
0 
-0.3740334910641339 
0 
0 
-1.362422247229937 
1.500286807183884 
-1.521070503204206 
0 
-0.7106169334841439 
0 
0 
1.237963989353096 
0.4717787374193114 
0 
1.141662983158273 
0.8222770213970244 
0 
0 
0 
0 
0 
0 
-0.2221145822406159 
0 
1.96184810348714 
1.419609539494655 
0 
0 
0 
-0.333959026970465 
-2.136994088026143 
0 
0 
0 
-0.2042922097173947 
1.332475277111181 
0 
0 
0 
0 
-0.3297991390048404 
0.003567521528994937 
-0.3446990598079973 
0 
0.155568289296154 
0 
0 
0 
-0.9812887677880504 
-0.2139487119915847 
0 
-0.6423621780915403 
-1.42675378330045 
0 
0 
0 
0 
0 
0 
0 
0 
0 
0 
0 
2.475352640648394 
0 
0 
1.271412533204783 
0 
-0.647250931982818 
0 
0 
-0.5484853657092158 
2.127523704820098 
-0.538063746123761 
-1.74443932449678 
-0.7933084383059215 
0 
0.4257783207103505 
0 
-1.496967888971438 
-0.4904381439042216 
0.3359126888922552 
-2.040709187391887 
0 
0 
0 
0.5151364466666668 
-0.08773477081510575 
-1.485664811883819 
0 
0 
0 
0 
0 
0.1441032871362432 
0.3895398386618791 
0 
0 
0 
0 
0.7556080785812837 
0 
-1.332050106516892 
1.886223207003757 
0.5432361122492778 
0 
1.344670069226921 
0 
0 
0 
0.07341467205951831 
0 
0 
0 
0 
0 
-0.01452662100617187 
-2.069002965462215 
0.3628423794397471 
0 
1.769141252536946 
0 
0 
0 
0 
0 
-1.201124790959952 
-0.6365006947064736 
-0.3569078245473263 
0 
0 
0 
0 
0 
0 
0 
-0.238412264867735 
0 
-0.7883688193376391 
0 
0 
0 
-1.010891237090686 
-0.247302718093794 
0 
0.7653415354763599 
0 
0 
0 
-0.4228338124539199 
0 
0 
-0.2270590533073782 
0 
0 
-0.9675958720012958 
0 
-1.642675147558566 
0 
0 
0 
0 
-1.59907225173124 
0 
-0.1646157189338094 
0 
0 
0 
0 
0 
0 
0 
-0.3187758151540139 
-1.637347744788646 
0 
0 
-0.3545975576378185 
-0.9533882694013223 
0 
0 
0 
0 
0 
0 
-0.1404085622615471 
0 
-1.175825637851096 
0 
0 
0 
0 
0 
0.6956920876020392 
0 
-1.85282802387469 
0 
0 
0 
0 
0 
0 
0 
0 
0 
1.564294372883889 
0 
0 
-0.5095472922794211 
0 
0 
0 
-1.120476334361196 
0 
0 
0 
0 
0 
0 
0 
0.5686438280398416 
-0.785570615211451 
0 
0 
0 
0 
0 
0 
-1.181520727564947 
0.9402302005275481 
0.4260366955819033 
0 
0.2249210075972045 
-2.187134571717308 
0 
0 
-1.129002230417813 
0 
0 
0 
0.2354576673772065 
0 
0 
2.041679990084559 
0 
0 
0 
0 
0.4361240981543061 
0 
1.370168366038163 
0 
0.4077833844176137 
0 
0.07229587050896237 
1.201950300025182 
0.3555123376414532 
0 
0 
0 
0 
0 
0 
0 
0.43879001161454 
1.693799794008544 
0 
-0.4849081030107704 
-0.8854357443162563 
0.2144996301612853 
0 
-0.8965638666818777 
0 
-0.316773661911948 
0 
-1.052091345091463 
0 
0 
0 
-0.1407720742660787 
0 
0 
0 
-0.1923086380409736 
0 
0 
0 
0.6715003739043943 
0.1418142692239088 
0.04771140662148716 
0 
0 
0 
0 
-1.572373899873081 
-0.1227015418348487 
0 
-0.8516622498892037 
0 
0 
0 
0 
0 
0 
-1.472330254780748 
0 
0 
0 
-1.306034589734354 
0 
0.5181843779069504 
0 
0 
-2.237839662997092 
0 
0 
-1.071266712846986 
0.619733768168653 
-1.984789284452946 
0 
0 
-1.236276257365121 
0.7232384269858697 
1.227684324123709 
0 
0 
0 
0.3702018184871643 
0 
-0.8650469640067572 
0 
0 
0 
-0.6604115172524806 
-0.1603341828516217 
-0.2874765555195665 
0 
0 
0.2670617301698822 
0 
-1.290716155199139 
0 
1.30605905830817 
0 
0 
0 
0 
-0.05056757634448631 
0 
-1.02641176764243 
0 
0.6099338502409606 
2.496273030804456 
0 
-1.447174593595812 
0 
0 
0 
0 
0 
0 
0 
0 
0 
-0.1215024338214998 
0 
0 
0 
0.03357812969681066 
-0.08399676576505608 
-3.476974310419351 
1.848235860115958 
-1.467886618897834 
0 
0 
0 
0 
0.5852076319057914 
0.9890573810133411 
0.5449825642044887 
-1.375165588658114 
0 
0 
0 
-1.10545862868494 
-2.090078382743036 
-0.4850577727330582 
0 
0.4623874378981842 
0 
0 
1.099030742915308 
0 
-3.671736895689551 
0 
0 
-2.027832930700505 
0 
0 
-1.107157031235929 
-0.2220912454484794 
-0.0907532817474687 
-0.4402823787866492 
0 
-1.117277652144552 
0 
0.05317192239532404 
0.2874764324942523 
-1.351240057119758 
-3.948471889554432 
0 
0 
0 
0 
0 
0 
0 
0 
0 
-1.247808726076424 
0 
0 
0 
0 
0 
0 
0 
0 
-1.439489526497146 
-0.5788818312451093 
0 
0 
1.562534303371542 
0 
0 
0 
0 
0 
0 
-1.128253227621803 
-0.02334789447261762 
0 
0 
0 
0 
0.06698318264137441 
2.316494785153003 
0 
0 
0 
-3.110808497048351 
0 
0.879814013576974 
0 
0.8604763202053308 
-3.227004568183005 
0 
0 
2.542317925819187 
1.144505828334768 
0 
0 
0 
0 
0 
0 
0 
-0.1968560235271041 
-0.04752116578013894 
0 
-0.2769843432147525 
2.349633590467763 
0 
0 
-1.347357490819106 
0 
0 
-1.339846523000752 
0 
-2.369896229684474 
0 
0.001738114176669963 
-0.1905951468583152 
0 
0 
0 
0 
0 
0.07243529687353692 
0 
0 
0 
0 
0 
0.04602443282946494 
0.2158108101117024 
1.498706795317917 
0.08420588182984912 
0.6854902766798793 
0 
0 
-0.577404561180487 
0 
0 
0 
0 
0 
0 
0 
0 
0 
-2.5498844993379 
0 
0 
0 
-0.2064375815306423 
0 
0 
0 
0 
0 
0 
0 
0 
0 
0 
-1.182650661777187 
0 
0 
0 
0.02166031871030578 
-0.5511648809114641 
0 
0 
0 
0 
0.6497067908208962 
0 
0 
0.4385891746769022 
-0.02912920350072564 
-0.6535609635060979 
0 
0 
0 
0 
0.8600381042100924 
0 
0 
0 
0 
0 
0 
0 
0 
0 
0 
0 
0 
0 
-1.850799787800983 
0 
0 
-0.4978578688664394 
-0.5510167156077725 
0 
-0.214753978561087 
0 
0 
0 
0.08750716835766137 
0.6633465780968509 
-0.9619807453263783 
1.697541815144469 
0 
0 
0 
-1.729986892612824 
0 
-0.4546987147067959 
0 
-0.4045347338027951 
0 
0 
0 
0.8023856923812404 
0.7557438391459529 
0 
0 
0.857783655212746 
0 
-1.474567409622893 
0 
0 
0 
-1.366828316406307 
0 
0.3723269462792384 
0.3603198824051769 
0 
0 
0 
0 
0 
0 
-0.1816024375869498 
0 
0 
0 
-4.082257667865521 
-0.5344177969776852 
-0.4438512375031145 
0 
0 
-1.091453193995792 
0 
0 
0 
1.747223253774801 
-2.480548506160202 
-1.432710474332744 
0 
0 
0 
1.729599532380507 
0 
2.32428292147704 
0 
0 
0 
0 
-0.05445205312061874 
0 
0 
0 
0.01697655678010628 
0 
0 
0 
0 
0 
0 
0 
0 
0 
0 
0 
0 
0 
0 
0 
0 
0 
-1.148311061691586 
0 
0 
2.733153856134465 
0 
0 
0 
-0.2304760014940223 
0 
0 
0 
0 
0 
0.6842307909850915 
0 
0 
0 
0 
0 
0 
0.7237149322551323 
1.902057702002028 
0 
0 
0 
0 
-2.885702637179109 
0 
0 
0 
0.1422162527582541 
0 
-0.2790224115881556 
0 
-0.622993745833675 
0 
0 
0 
0 
0 
0 
0 
0 
2.425637465973073 
0 
0 
-0.08008663755954359 
-0.4957793742684856 
0 
0 
0 
0 
1.384668271952773 
0 
0 
0 
-1.238580081706068 
0 
0 
-3.01514085046322 
0 
0 
0 
0 
0 
0 
0 
0 
0 
0 
0 
0 
-0.03824836225466208 
-1.308255952033132 
0 
0 
0 
0 
0 
0 
0 
0 
0 
0 
0 
0 
0 
0 
0 
1.609284657940501 
2.244029170360383 
0 
0 
0 
0 
4.117548812964542 
0 
0 
0 
0 
-0.07933831750098579 
0 
0 
-0.7223096461242701 
0 
0 
0 
0 
2.532347230688749 
0 
0 
0 
0 
0 
0 
0 
0 
-0.4480333958030011 
0 
0 
0 
-1.340011107801611 
0 
0 
0 
0 
0 
0 
0 
0 
0 
0 
0 
0 
0 
0 
0.001461043953468173 
0 
0.3246332065238534 
0 
0 
0 
0.2889264980651919 
0 
0 
0 
0 
0 
0 
0 
0 
0 
-0.4951012247837889 
0 
-0.01990591974286051 
0 
-1.323537747726469 
0 
0 
-1.74646519544031 
0 
-1.032268388945493 
1.419118609945069 
-0.8421537601137958 
0 
0.318248630450013 
-3.091043655656787 
0.5463245977224285 
0 
0 
0 
0 
0 
0.3349889716402829 
0.4481274906769076 
-0.3157749878127726 
0.4570425049199001 
0 
-0.2537530522271204 
0 
0 
0 
0 
0 
-1.331896772643517 
-3.952912002636798 
0 
0 
0 
0 
0 
0 
0 
-1.503940346685011 
0 
0 
0 
0 
1.509753860509238 
0 
0 
0 
0 
0 
0 
0 
0 
0 
0 
-2.276464037831442 
-1.403740004447402 
0 
0 
0 
0 
0.2695576761181176 
0 
0.6621732898124225 
0 
0 
0 
0 
0 
0 
0 
0.1880568416673172 
0 
-0.1348213234854445 
0 
0 
0 
0 
0 
0 
0 
0 
0 
0 
0 
0 
0 
0 
0 
0 
0 
0 
0.7149593652566623 
-0.6458767392617277 
-0.211304718837361 
-0.09101649560160358 
0 
-0.295929593077432 
0 
0.05793452610344293 
0 
0 
0 
0 
0 
0 
0 
0 
0.3070227944746906 
0 
0 
0 
0 
0.08519655739495881 
0 
0 
0 
0 
0 
2.806594672144333 
0 
0 
0 
0 
0 
0.4504161515070133 
0 
0 
0 
-0.1846351124817603 
0 
0 
0 
0 
0 
0 
0 
0 
0.7709021136586048 
0 
0 
0 
0 
0.63091085028481 
-2.129845047580084 
-1.040332837781347 
-0.09207388454337617 
0.2366170506083271 
0 
0 
0.6973321582420339 
0 
2.456094205634142 
0 
0 
0 
0.628349868530338 
2.230533560123406 
0 
0 
0 
0 
-0.2998369104777955 
-0.450149991183993 
0 
0 
0.01348794499351289 
0.5578058081944546 
0 
0 
1.91340582202644 
0.04930494046387729 
-0.1707838531972172 
0 
0 
-0.6192809881518148 
0 
-0.295907328881259 
-1.721396604287104 
-1.968126329555688 
0 
0.4550822694598601 
0 
0.1491202413667148 
-0.2808554320316373 
-0.6412380928387134 
0 
-1.121670629502938 
0.2550263455169974 
0 
0 
0 
0 
0 
0 
0 
0 
0 
0 
-1.108403799597356 
0 
0 
0 
-0.2642665559130256 
0 
0 
0 
-0.1931331398334094 
0 
1.361957078296584 
0 
0 
-1.513419212966199 
0 
0 
0 
0 
0 
-0.8862944379374376 
0 
0 
-2.533757758103093 
0 
0 
-1.170553085579492 
0 
0 
0 
0 
-1.506136136021967 
-1.39302501155589 
0.171638241743219 
0 
0 
0 
0 
0 
0 
-2.292158963753579 
0 
-0.3679429905265603 
0 
0 
0 
0 
0 
0.367844900185966 
0 
0 
0.8231728075229875 
0 
0 
0 
0.08885509278745761 
0 
-0.4312630169026386 
0 
0 
-2.877825475752533 
0 
-0.7213525329654185 
0 
0 
0 
0 
-0.4358298357808577 
0 
0 
0 
0 
0 
0 
0.2068342484137813 
0 
0 
0 
0 
0 
0 
0 
-0.6963271899306617 
0.8867795861018397 
1.130854322708 
0 
0 
0.592054273243856 
0 
0 
0 
0 
0 
0 
0 
-2.152961591720408 
0 
-1.268377529784482 
0.8258738719674926 
0 
0 
-3.926832348992768 
-3.402760477372346 
-1.842412021464784 
0 
0 
0 
0 
1.204271300706851 
0 
0 
0.09488467479594161 
-1.092790255634358 
0.1515801229156424 
0 
0 
0 
-1.69901977047125 
-2.65471468561736 
0 
0 
0.850380279419707 
0 
0 
0 
0 
0 
-1.344870602568492 
0 
1.534462909036276 
0 
0 
0 
1.333789923813253 
0 
0 
0.148166164253123 
0 
0 
0 
0 
0 
0 
1.007982723928389 
-0.03332565573769276 
0 
0 
-1.244570025576694 
-0.6433583784827438 
0 
0 
0 
0 
-1.245791196896063 
0 
0 
-0.4220330528140049 
0 
0 
0 
0 
0 
0 
0 
0 
-0.4052125620315193 
0.8729513382441027 
0 
0 
0 
0.2413635303489881 
0.4420004153814909 
0 
0 
0 
0 
0 
0 
0.4997267539541646 
0.6258179940961253 
0 
0 
0 
0 
0 
-2.894755970984253 
0 
0 
0.6210915504747082 
0 
1.852423766783272 
0 
0 
0 
0 
0 
0.5430341502265091 
0.0839174487856536 
0 
-3.736296677239065 
-3.707524741616149 
0.6355080447604954 
0 
0.1313761448752268 
0 
-1.905919887389728 
0 
-0.1610154487734381 
-0.9525887224412619 
0 
0 
0 
0 
-1.217980680168265 
1.484259564580555 
0 
0 
0 
0 
0 
0 
-3.590278825982486 
0 
0 
-0.8090186253795298 
0 
-1.827047903865152 
0.3754472713445303 
0 
-0.2288368391520849 
0 
0 
0 
0.9759962102358958 
0 
0 
0 
1.841175782769482 
1.72093481786252 
-0.3369531649914828 
0 
1.833915365230906 
0 
-1.64445183045497 
0 
0 
0 
-3.951628642549468 
-0.6577032458211538 
-0.2389004181871244 
0 
-0.6966388949464595 
0 
-0.4642962872887533 
0 
-0.8838067956144186 
-0.1300240547868829 
0 
0.1727169961615841 
0 
0 
0 
0 
0 
0 
-2.256126028784906 
-2.146245500485277 
0 
0 
0 
0 
0 
-0.8710134863259569 
0.8460372119176258 
0 
0 
0 
-0.6584673185395218 
-0.4929029182570686 
-0.6137676973283424 
0 
0 
0 
0 
0 
1.014123447023129 
0 
0 
0 
0.8220509391303759 
0 
0 
0 
0 
-0.1211905523060416 
-1.477895692242675 
0 
0 
0 
0.6042816038990764 
0 
0.3009943546197436 
0 
0 
0 
1.132070019127191 
0 
0.3710468743924468 
-0.7332299744802697 
0 
0 
0 
0 
-0.8793539769463208 
0 
0 
0 
0 
0 
0 
0 
0 
0.4888014640943342 
0 
0 
0 
0 
0 
0 
-1.495179713104441 
0 
0 
0 
0 
-2.752218287996399 
0.007035911015004643 
0 
0 
0 
-1.208067979077796 
0 
0 
0.4823915418564455 
-1.82580892537857 
1.499196655666799 
0 
-0.6311775571317055 
0 
0 
0 
0 
0 
0 
0 
0.8823056388056332 
-0.1354143970988118 
-0.4951572450735874 
-0.8825585557667721 
0.1224820263869466 
-2.107497286886081 
1.465753961792232 
0.4856566433405625 
0 
0 
-0.2255662439963876 
-0.4648369832228119 
0 
0 
0 
0 
0 
0 
0.2670264078828215 
0 
0 
0.7760993306321412 
0 
0 
0 
0 
0 
0.6421744764671202 
0.8603042156714178 
0 
0 
0 
0 
0 
0 
0 
0 
-0.6515587610645688 
0.3288851159031487 
0 
0 
-2.349599604385171 
0 
-0.1551902322963393 
0 
0.07962433610420565 
-1.537960852354094 
0 
0 
-1.424528596799796 
-1.075654011866603 
0 
0 
0 
0 
0.9421485493101821 
0 
0 
0 
0 
0 
0 
0 
0 
-0.6650725875422691 
0 
0 
-1.130191363847332 
0 
0 
0 
0 
-0.4911075900956001 
0 
0 
-0.8837782630726703 
0 
-1.441523711182368 
0 
0.07635624409347898 
1.450111640607309 
0 
0 
0.3560619152113458 
0.5082810937627036 
0 
0 
1.980688039220978 
0 
0 
0 
-0.4781293658798943 
-0.3179802478929192 
0 
0 
0 
0 
0 
0 
0 
0 
0 
-4.510811376954138 
0 
0 
-1.207864182499642 
0 
0 
0 
0 
0.4028172624343303 
0 
0 
0 
-1.681016555953623 
0 
0 
0 
-5.866480306296334 
-0.2411042586870495 
0 
0 
0 
0 
0 
0 
0 
0 
0 
0 
0 
0 
0 
-0.2872180531143741 
0 
0 
-0.6814695431940173 
0 
0 
0 
-0.954117361942734 
0 
0 
0 
0 
0 
0 
0 
0 
0 
0 
0 
0 
0 
0 
0 
0 
-0.09028827476558445 
0 
0.9613450835876231 
0 
0 
0 
0 
0 
0 
-0.9978165362247452 
0 
0 
0 
0 
0 
0 
0 
-3.059336569364729 
-1.664936357043745 
0 
2.178422387021638 
0.013222835158728 
0 
0 
-1.557977768010118 
0 
-0.5581991473525237 
0 
-0.05268145880084912 
0 
0 
0 
0 
0 
0 
0 
-2.003410667209478 
0 
0 
0 
0 
0 
0.5377425709421313 
0 
0 
0.8925684611260992 
0 
0 
0 
0.6255261954859394 
0 
0 
0 
1.069223322702301 
4.985462064641556 
0 
0 
0 
-0.5997026799675809 
1.242779785981182 
0 
0 
0 
0 
0 
-0.4718997282805278 
0 
1.046615256110525 
0 
0 
0 
0.7160649411432053 
0 
0 
-0.2805129977684411 
0 
-0.4410807862354939 
0 
0 
0 
0.2644864740966932 
0.1246156523406359 
0 
0 
-0.4422091350464747 
-0.8341117372140013 
0 
0 
0 
0 
0 
0.1893083977170592 
0 
0 
-3.990715563350341 
-1.069155366073834 
0 
0 
0 
0 
0 
-0.07336169518784454 
-1.795111451354385 
0 
0 
0 
0 
0 
0 
0 
0 
0 
0 
-2.960260842316738 
2.869357498271402 
0 
0.4624405051197682 
1.722098246655409 
0 
0 
0 
0 
0 
0 
-1.250809887970923 
-0.9308501814725776 
0 
0 
0 
0 
0 
0 
0 
0 
0.8979545528663161 
0 
0 
0 
0 
0 
0 
0 
0 
0.4582768857141852 
-0.3896625430529631 
0 
0 
0 
0 
0 
0 
-0.2143493917641129 
-1.035690643540975 
-1.005451879320053 
0 
0 
-0.03310435736890037 
0 
-0.7234227766444101 
0 
-1.310713857204178 
0 
0 
0.782822287851012 
0.6048623472497074 
0 
-0.02692871556049534 
0 
0 
0 
-1.997502174456261 
0 
0.7035235136830198 
0 
0 
0 
-1.460220500722035 
0 
0 
0 
0 
0 
0 
0 
0 
0 
0 
0 
0 
0.03520593926020373 
0 
0 
0 
0 
0 
-0.5294178273267022 
0 
0 
0 
0 
0 
0 
0 
0 
0 
0 
0 
-1.421598551618113 
0 
0 
-1.429548442642114 
0 
0 
0 
0 
0 
0 
0 
0 
0 
0 
0 
-0.167902740767211 
0 
0 
0 
0 
-1.150427099155775 
0 
0 
0 
0 
0 
0 
0 
0 
0 
0 
0 
0 
0 
0 
0 
0 
0.02101751967665287 
0 
-2.67585696401386 
0 
0 
0 
0 
0 
0 
0 
0.6155220403805061 
0 
0 
0 
0 
0 
0 
0 
0 
0.1190864465660834 
-1.603756048281738 
0 
0 
-1.499613599244205 
0 
0 
0 
0 
1.248096921899989 
0 
1.474692648414572 
0 
0 
0 
-0.8600062144556582 
0 
0 
0 
0 
0 
0 
0 
0 
0.1612912360549516 
0 
0 
0 
-0.6567020561617267 
1.160894246576153 
0 
0 
0 
0 
0 
3.180859884487941 
0 
0 
0 
0 
0 
0 
0 
0 
0 
0 
0 
0 
0 
0 
0 
0 
0 
0 
0 
0 
0 
-1.38415908717567 
0 
0 
0 
0 
0 
0 
0.5868580259796143 
0 
0 
0 
0 
0 
0 
0 
0 
0 
0.2246253982832239 
-1.30974628878484 
0 
0 
0 
0 
0 
0 
-1.905288876934355 
0 
0 
0 
1.217324863632502 
0 
0 
-0.1130788299449663 
0.3515306494816211 
-0.4728354351962103 
-0.9486311222088101 
1.20621128710443 
0 
0 
0 
0 
0 
0 
0 
-0.1616664519820203 
0 
0 
-1.306056026760352 
-0.1259373154913073 
0 
0 
0 
0 
-1.061602693585403 
0 
0 
-0.4096991206469645 
0 
0 
0 
0 
-0.2595840507207879 
-0.09588555820275772 
0 
0 
0 
0 
0 
0 
0 
-0.7532448983809728 
0 
0.8889418880743192 
0 
0 
3.598645377394568 
-3.057815424484013 
0 
0.5264766842010051 
0 
0.6939276594377681 
0 
0 
0 
-0.543920892046485 
0 
0 
0 
0 
0.7759904259201901 
0 
0 
0 
0 
0 
0 
0 
0 
0 
0 
0 
0 
0 
0 
0 
0 
0.6492839164773528 
0 
0 
0 
0 
0 
0 
0 
0 
0.3815621032618851 
0 
0.7626371480838778 
0 
3.006924232254187 
-1.232696336776129 
0 
-3.054729494628443 
0 
-1.575445749408494 
-0.3761901566744921 
0 
0 
0 
0 
-0.8500928925460476 
0 
0 
-0.2382399576728282 
0 
0 
0 
-0.190380758781067 
-1.67624481862612 
0 
0 
-0.3624953350477232 
0.3091615547319416 
-0.9300798620531203 
-1.333487475334182 
0 
0 
0 
-2.483262860058296 
-0.2971392942071672 
0 
3.53919859968901 
0 
0 
0.7689283376561255 
-0.7491833852345968 
0 
0 
0 
0.7998521041534336 
0 
0 
0 
0 
0 
-0.7679200950330185 
-0.4951675770120894 
-0.9593066182906046 
0 
-3.021494860071506 
0 
0 
0 
0 
0 
0 
0 
0 
0 
0 
0 
-0.2562319017000533 
0 
-0.2304443878346089 
0 
0 
0 
0.2162309633150545 
0 
0 
-2.22686824654388 
0 
0 
0 
-1.653797266048229 
0 
0 
0 
0 
0 
0 
0 
0 
0 
0 
0 
0 
0 
0 
-1.916035292167187 
0 
0 
0 
0.6840129035542337 
0 
0 
0 
-0.04084980940895405 
0 
0 
-2.317662125212599 
0 
0 
-0.3396349511884503 
0 
0 
0 
0 
0 
0 
0 
0 
0 
0.5445643663302657 
0 
0 
0 
-0.0436230872550156 
0 
0 
0 
-1.131968650384817 
0 
0 
-0.02983099765784293 
0 
0.7942232714239559 
0 
0 
0 
0 
0 
-1.58931013804354 
0 
0 
-2.942824275676624 
-0.2262369443669297 
0 
0 
0 
0 
0 
-1.205426436084239 
0 
0.1734780014242021 
0 
0 
-3.93599283065219 
0 
0 
0.6401634458525671 
0 
0 
0 
0 
-0.6946499943529656 
0 
0 
0 
0.7695454332510356 
0 
-0.4841693559746727 
0 
-1.228520166605977 
0 
0 
0 
0 
0 
-1.031985794155739 
0 
0 
0 
-1.409247218874434 
0 
-0.5676860151006712 
0 
0 
0 
0 
0 
0 
0 
0 
0 
0 
0 
0 
0 
0 
-1.934988156370776 
-2.729984188550346 
0 
0 
0 
-0.7173452446519673 
0 
0 
0 
0 
0 
0 
0 
0.01125371025849276 
0 
-2.123821623216927 
0 
0 
0 
0 
0 
0 
0 
-0.4891181318878136 
0 
0 
0 
0 
0 
0 
0 
-0.3661029841537712 
0 
0 
0 
0 
0 
0 
-0.5572664450915007 
0.071133782218585 
0 
-1.389094946243939 
0 
0 
0 
-0.7696971266899861 
0 
-3.366546494659472 
0 
-1.455273777269624 
0 
0 
0 
0 
-0.1186186640963407 
0 
0 
0 
0 
0 
0 
0 
0 
0 
0 
0 
0 
0 
0 
0 
0 
0 
-1.831231984474621 
0 
0 
0 
0 
0 
0 
0 
0 
0 
0 
0 
-0.8327577878385105 
0.7715868595338896 
0 
0 
0 
0 
0 
0 
0.1495428007078026 
0 
0 
0.07065255442621839 
0 
-0.4704828852867015 
0 
0 
0 
0 
0 
0 
0 
1.937444691138653 
0 
0 
-0.1522206800889249 
0 
0 
0 
-0.7247872833464416 
0 
0 
0 
0 
0 
0 
0 
0 
0 
-0.4348196634234894 
0 
-0.8803765187152577 
0 
0 
0 
0.5310497125096088 
0 
0 
0 
0 
0 
0 
0 
0 
-2.750668547768223 
-0.9888235696990757 
0 
-0.3674250933252787 
0 
0.5470956703825376 
0 
0 
0 
0 
0 
-0.669919085104544 
0 
-0.8069574277924504 
0 
0 
1.420875657769109 
0 
-1.232771981254226 
1.284859704266806 
0 
0 
0 
0 
0.1126469398597591 
0 
0 
0 
0 
3.026488191389265 
0 
0 
0 
0 
0 
0 
0 
0 
0 
0 
0 
0 
0.4960900524973145 
-0.1421249142417558 
-0.561081920913083 
0 
0 
0 
1.010736360084399 
0 
0 
1.061036134684402 
0 
0 
0 
0 
0 
-0.6950750101107003 
0 
0 
0 
0 
0 
0 
0 
0 
0 
0 
0 
0 
0 
0 
0 
0 
0 
0 
-0.1445655373918927 
-0.2717761587683175 
0 
0 
0 
0 
0 
2.671066796297091 
0 
0 
0 
-4.43992641355047 
0 
0 
0 
0 
0 
0 
0 
0 
0 
0 
0 
0 
0 
0 
0 
-1.751888982657079 
-1.646062900568063 
0 
0 
-1.142280515820581 
0.5618704916918811 
0 
0 
-0.9212363276900399 
0 
0 
0 
0 
0 
0 
0 
0 
0 
0 
0 
0 
-1.201294233628755 
0 
0 
0 
0 
0 
0 
-0.4058836351587303 
0 
-0.777948017100509 
0 
0 
0 
0 
0 
0 
0 
0 
0 
0 
-0.1369069935323998 
0 
1.086462513469666 
0 
0 
0 
3.597398386662532 
0 
0 
0 
0 
0 
0 
0.8349759137193442 
0 
0 
0 
-1.308519391223882 
0 
-0.760276282949633 
0 
0 
0 
-0.767536733755912 
-2.231608737850484 
0.1295292150890528 
0 
-2.413463338023606 
0 
-0.5600347935237084 
0 
0 
0 
0 
0 
0 
0 
0 
-0.2452994139897731 
0 
0.5010286485043713 
0 
0 
0 
0 
0 
-1.119076434879315 
0 
0 
0 
0 
0 
0 
0 
0 
0 
0 
-0.8680185044001477 
0 
0 
0 
0 
0 
-0.2324108631975702 
0 
0 
0 
0 
1.209746573670559 
0 
0 
0 
0 
0 
0 
0 
0 
0 
1.059095290396656 
0 
0 
0 
0 
0 
0.09703014882780139 
0 
0 
0 
0 
0 
0 
0 
0 
0.6066338921190886 
0 
0.09233132939213075 
0 
0 
0 
0.2859813162492723 
0 
0 
0 
0 
-0.4030668031965952 
0 
0 
-1.637579585314102 
0 
0 
0 
0 
0 
0 
0 
-0.7780882095003979 
0 
0 
0 
0 
-1.165594418176151 
0 
-1.614854553241288 
-4.034014346784338 
0 
0 
0 
0 
0 
0 
-1.200301436078977 
0 
0 
-1.303558417378021 
0 
0 
0 
0 
-0.8626978891109474 
0 
1.056522170419918 
0 
0 
0 
0 
0 
0 
0 
0 
0 
0 
0 
0 
0 
0 
0 
0 
-0.4634735379283216 
0 
-0.4460098208395305 
0 
0 
0 
0 
0 
0 
0 
0.08641791414137685 
-0.675612301544067 
-1.171689858618387 
0 
0 
0 
0 
0 
0 
-0.1956383534427822 
0 
0.1083821437094825 
0 
2.069818494001495 
0 
0.2271711916777639 
0 
0.2427939163786137 
0 
0 
0 
0 
-0.488229759529685 
0 
-0.5234546053513699 
0 
0 
0 
0.9337292559151725 
0 
0 
0 
0 
0 
0 
0.4053340977853912 
0 
0 
0 
0 
0 
0 
-0.06996446461546087 
0 
-2.39857403807172 
0 
0 
0 
0 
0 
0 
0 
0 
0 
0 
0 
0.5731454180943957 
1.106345384436802 
0 
0.1798889615424875 
0 
0 
0 
0 
0.1144337500151288 
0 
0 
0 
0 
-1.08809820657269 
0 
0 
0 
-0.6716427780640017 
0 
-0.7025464680614121 
0 
0 
-0.5670783446302123 
0 
0 
0 
0 
0 
0 
0 
0 
0 
0 
-0.8384215032213001 
0 
1.521158220898589 
0 
-0.2644130784464449 
0 
-0.6234894565620569 
0 
0 
0 
2.977490073894535 
0 
0 
5.498983597113866 
0 
0 
0 
0 
0 
0 
1.766657842070682 
0 
0 
0 
-2.162498995377479 
0 
0 
1.523453263532417 
-0.1452202089594537 
0 
0 
-0.07492106302589038 
0 
0 
0 
0 
0.1213379217410399 
0 
0 
0 
0 
0 
0 
0 
0 
0 
0 
0 
0 
0 
0 
0 
-2.19236164451188 
0 
0 
-1.87690719447404 
0 
0 
0 
0 
0 
0 
0 
0 
0 
0 
0 
0 
0.2715103215729718 
0 
0 
0 
0 
-1.739426547775559 
0 
0 
0 
0 
0 
0 
0 
0 
0 
0 
-0.5092318122881882 
0 
0 
0 
0 
0 
0 
0 
0 
0 
-1.736344737661018 
0 
0 
0 
0 
0 
1.291318224113584 
0 
0 
0.8036689732272631 
0 
0 
0 
0 
0 
0.5293180552228326 
-0.3763462550952917 
0 
0 
-0.1195495342607572 
0 
-1.677025766467712 
0 
0 
0 
0 
0 
-0.1446132117441451 
0 
-0.1721133964314232 
0 
0 
0 
0 
0 
0 
0 
0 
-0.9859831857848408 
0 
0 
0 
-0.374241219471791 
0 
0 
-4.783545965743928 
0 
0 
0 
0 
-6.747226807330514 
-1.75523346072486 
-1.224689603658268 
0 
0 
0 
-0.5815254710941513 
-0.6954496141455016 
1.103893605365167 
-1.091779188608854 
0 
0 
-0.8451953588611538 
0 
0 
0 
0 
0.04911927710916531 
0 
0 
0 
0 
0 
1.166334109542055 
0 
1.351232880197558 
0 
0 
0 
0 
-0.1613840856668475 
0 
0 
0 
0 
0 
1.897246121736744 
0.8475756578675618 
0 
0 
-1.77840207321205 
0 
0 
0 
-0.2628848654099605 
0.250550889462141 
0.4609688149239098 
-2.927085706593077 
-3.751709252621528 
0 
0 
0 
0 
-3.279890670731465 
-0.2456386525769188 
0 
0 
0 
0 
0 
0 
2.293548417786196 
0 
-1.863959314015446 
0 
0 
0 
-0.5209145800461158 
1.975117826765752 
0 
0 
0 
0 
0 
0 
0 
0 
0 
0 
-0.4713051234185844 
1.949357536939954 
0 
0.6066741142674544 
0 
0.3237020397052871 
-0.6038331595179948 
0 
-0.6340364325397879 
0 
0 
-0.9773003814275041 
0 
0 
-0.6183545088889172 
-0.8599233437639504 
0.07246270376664432 
0 
0 
0 
0 
-1.843986626805996 
0 
0 
-2.093406363309268 
0 
0 
0 
0 
0 
0 
1.207834761671723 
0 
0 
0 
0 
0 
0 
0 
-0.3795184541377565 
-0.1587012709708564 
0 
0 
0.003548475914858064 
-0.2042764379491847 
0 
0 
0 
0 
0 
-5.104537594492611 
0 
0 
0 
0 
0 
0 
0 
0 
1.230969456848966 
0 
0 
-0.3953375548478797 
1.601424631273346 
1.697259807437549 
0 
0 
0 
0 
0 
0 
0 
0 
0 
0 
0 
0 
0 
0 
0 
0 
0 
0.657869916683347 
0 
0 
0 
0.706348351861488 
0 
0 
2.095681575806867 
0 
-1.700821357149217 
0.770306136708577 
0 
0.3120811081047885 
0 
0 
0 
0 
-2.188406977728922 
0 
1.362537371140739 
0 
-1.280187596396811 
0 
0 
0 
0 
0 
0 
0 
0 
1.711479825422856 
0 
0 
-0.1339186391284407 
0 
0 
0 
0 
0 
-0.6489706280508342 
-0.3710442008973252 
0 
0 
1.372757912641445 
0 
0 
0 
0 
0 
0.3656034730959116 
0 
0 
0 
0 
0 
0 
0 
0 
0.04382499666524296 
0 
0 
0 
0 
-0.07872804551107582 
0 
0 
0.01871826371868834 
-1.273795055359373 
0 
0 
-0.94794860675898 
0 
0 
0 
0 
0 
0.5735497742754083 
0 
-3.409306767172054 
0 
0 
0 
0 
0 
0 
0 
0 
0 
0 
0 
0 
0 
0 
0 
0 
0 
0.2174515160941977 
0 
0 
0 
0 
0 
0 
0 
0 
0 
0 
0 
0.6484476683800953 
0 
0 
-0.6700887428509336 
0 
0 
0 
0 
0 
0 
0 
0 
0 
0 
0 
0 
-1.551472343238582 
0 
0 
0 
0 
0 
0 
0 
0 
0 
0 
0 
0 
0 
0 
0 
0 
0 
0 
0 
0 
0 
0 
0 
0 
0 
-2.553490920323084 
0 
0 
0 
0 
0 
1.661482464714754 
0 
0 
-0.1044343073067511 
-0.6480742192898109 
-0.05449186122999725 
1.018050783662591 
0 
0 
0 
0.2005805079941376 
0 
0 
0.1834048277630046 
0 
0 
0 
0 
-1.665486285427155 
0 
0 
0.03517821820809844 
0 
0 
0 
0 
0 
0 
-0.08420365242759718 
0.3561728474392544 
2.558422502391188 
0 
0 
0.1836467095497687 
0 
0.24378564183486 
0 
0 
0 
0 
0 
0 
0 
0 
0 
1.055097629850694 
0 
0 
0 
0 
0 
0 
0 
0 
0 
0 
0.3855319146987423 
0 
0 
0 
-0.5516364563770145 
-1.293943839471034 
0 
0 
0 
-1.44383210040537 
-0.965460763332847 
0 
-0.6422172195034038 
0 
0 
0 
0 
0 
0 
0 
0 
0 
3.438086425513888 
0 
0 
0 
0 
0 
0 
-2.090910622757357 
-0.3168498165681957 
0 
0 
-4.75477263448354 
0 
0 
0.1431077607801871 
1.352730894268235 
0 
0 
0 
-0.1099190711914566 
0 
0 
0.7339644468016349 
0 
0 
0 
2.281123378642886 
0 
0 
0 
0 
0 
0 
0 
0 
0.1045283895492411 
0 
0 
0 
0 
0 
0 
0 
0 
0 
0 
0 
0 
0 
0 
0 
0 
-0.1152366788246034 
0 
0 
0 
0 
0 
0 
-0.5064246495771193 
0 
0 
0 
0 
0 
-5.287566314490244 
0 
1.709218961812798 
-0.2345535843475831 
0 
0 
0 
0 
0 
0 
1.106204547869073 
0 
0 
0 
0 
0 
0 
0 
0 
0 
0 
0.1856612898034619 
0 
0 
-1.064443265459286 
0.002587925401705338 
-0.3942044769365063 
0 
0 
0 
-0.129955222096826 
0 
0 
0 
0 
0 
0 
0 
-1.178680930318879 
-1.637010736217119 
0 
0 
0 
0 
0 
0.4253543227355647 
-0.1269716766276166 
0 
0 
0.04716607763521047 
0 
0 
0 
0 
-1.695780662191246 
0 
-0.5783228242701859 
0 
0 
0 
0 
0 
0 
0 
-0.2091641020854297 
0.3137530772709814 
1.530140397780954 
0 
0 
0 
1.411099922418581 
0 
0 
0 
0.1514908101765266 
0 
-1.004577654665228 
0 
0 
0 
0 
0 
0.006533638536178083 
0 
0 
0.1763904510760754 
0 
-1.110261398642481 
0 
2.125291532910909 
-0.3930982065984397 
0 
1.221149482177369 
0 
-1.343026900867612 
0 
-0.1765816056967602 
0 
0 
0 
0 
0 
-0.4032073654604669 
0 
-0.7826603736957909 
0 
-2.195438574025414 
0 
1.161930641475216 
0 
0 
0.07598820342037413 
0 
0 
0 
0 
0.6098240759868018 
-0.1540532182242224 
0 
0 
0 
0.6262643015803688 
0 
0 
0 
0 
0 
0 
0 
0 
-2.548721775350132 
0 
0 
0 
0 
0 
0 
0 
0 
0 
0 
0 
1.952890615913568 
0 
1.345578119442618 
0 
-0.5272051075919191 
0 
0 
0 
-2.039081579178512 
-0.6505959607629479 
0 
0 
0 
0 
0 
0 
0 
0 
0 
0 
0 
0 
-0.157268495300518 
0 
0 
0 
0 
0 
0 
1.035157542046013 
0 
0 
0 
0 
0 
0 
0 
0.2221647667161472 
0 
0 
-2.445366915600098 
-0.9739028706889409 
-1.048404855444433 
-0.7031918756519157 
0 
0 
0 
0 
0 
-2.028456099855434 
0 
0 
0 
0 
0 
0 
-1.142780423747444 
1.757789115778093 
0 
0 
0 
0 
0 
0 
0 
0 
0 
0 
0 
0 
0 
0 
0 
0 
0 
0 
0 
0 
0 
0.00791024033065413 
0 
0 
0 
0 
0 
0 
0 
0 
0 
0 
0 
0 
0 
0 
0 
0 
0.1367996262320253 
0 
0 
0 
0 
0.1435656791220099 
0 
0 
0 
-1.268734606051442 
0 
0 
0 
-0.448489300951307 
0 
0 
0 
1.609788946269634 
1.282080013862819 
0.03409129204172991 
-0.1093632245420145 
0 
0 
0 
0 
2.318375949634436 
0 
0 
0 
0 
0.6045831204768867 
-1.069581383405881 
0 
0 
0 
0 
-0.08342021411762678 
0 
0.04289757526213048 
0 
0 
0 
0 
0 
0 
0.5561366489886976 
0 
0 
0 
0 
0 
0 
0 
0 
0 
2.958011260416868 
0 
0 
0 
0 
0 
0 
0 
-0.7999518109317115 
0 
0 
0 
0 
0 
0 
0 
0 
0 
0 
0 
0 
0 
0 
0 
0 
0 
0 
0 
0 
0 
0 
0.5088719457996288 
0 
-0.08775875846170514 
0.4521301522397242 
0 
1.472581825458456 
0 
0 
0 
0 
0 
0 
-1.620248926651407 
0 
-0.2533839903961028 
0 
0 
0 
0 
0 
0 
0 
0 
0 
-0.6193780935352358 
0 
0 
0 
0 
0 
0 
0 
0 
0 
-0.3731438968172877 
0 
0 
0.02787941052493547 
0 
0.5316233231855259 
0 
0 
0.2557329260149309 
0 
0 
0 
0 
0 
0 
0 
0 
0 
0 
0 
-2.173951134802972 
0 
0.6908356320045581 
0 
0 
0 
-2.061526607034382 
0 
0 
0 
0 
-0.4405268171015734 
0 
0 
0 
0 
0 
0 
0 
0 
0 
0 
0 
0 
0 
0 
0 
0 
-1.78762861010509 
0 
0 
0 
-1.225837594462529 
0 
0 
0 
0.696009784604271 
0.5018023967673725 
0 
0 
0 
-0.325191099432581 
0 
0 
-0.9039815579356046 
0 
0 
0 
0 
-1.022562339005869 
0 
0 
0 
0 
0 
0 
-1.978021978068484 
0 
0.2383615235670204 
0 
-1.519516612556867 
0 
0 
0 
-1.893659715325597 
0 
0 
0 
0 
-7.005414539117511 
-5.404092389967373 
0.1408229897961795 
0 
0 
0 
-0.665449159992387 
0 
-0.07499750766743107 
0 
0 
1.63335562696332 
0 
0 
0 
-0.2694255136790015 
0 
0 
0 
0 
0 
0 
0 
0 
0 
0 
-1.339159545144472 
0 
0 
0 
0 
0 
-1.000526786327046 
0 
0 
0 
0 
0 
0 
0 
0 
0 
0 
0 
0 
0 
0 
0 
0 
0.3247975620718996 
0 
0 
0 
0 
0 
0 
0 
0 
0 
0 
0 
0 
0 
0 
0 
0 
0 
0 
0 
0 
-0.09656228435008146 
-0.1400733820534466 
0 
0 
0 
0 
0 
0 
1.378896574274066 
0 
0 
0 
0 
0 
0 
0 
0.7661294469500281 
0 
0 
0 
0 
0 
0 
-0.6062974478555609 
0 
0 
0 
0 
0 
0 
0 
-0.8323620605410356 
0 
0 
0 
0 
0 
0 
0 
0 
0 
0.0261366031546695 
0 
0 
-0.235306772729064 
1.54093926895332 
0 
0.3843693766278208 
0 
0.5558550789140169 
0 
0 
0 
0 
0 
0 
0 
0 
-0.8075422628424498 
0 
-1.213080368313557 
0 
0 
-1.678777232533813 
0 
0.9694868240058218 
0 
0 
0 
0 
0 
0 
0 
2.164461195164021 
-0.2526807250802171 
0 
-0.5029531031231597 
0 
0 
0 
0 
0 
0 
0 
0 
0 
0 
0 
0 
0 
0 
0 
0 
0 
0.7051826840653667 
0 
-0.6521527972725825 
0 
0 
0 
0 
-1.150444388348845 
0 
0 
0 
0 
1.298999970138388 
0 
0 
0 
0 
0 
0 
0 
0 
0 
0 
0 
0 
0 
0 
0 
0 
3.269738898618274 
0 
0 
0 
0 
-0.2774657784170079 
0 
0 
-0.935701419553165 
0.1662904464263289 
0 
0 
-1.876431897281813 
0 
-0.8476663144432864 
0.1064070636837364 
0 
-1.685412499382263 
0 
0 
0 
0 
0 
0.4959334404784021 
0 
0 
-1.47072008130119 
0 
0 
0 
0 
0 
0 
0 
0 
0 
0 
0 
0 
0 
0 
0 
0 
0.9288384136350487 
0 
0 
0 
0 
-2.269165942464635 
0.8048059293721603 
0 
0 
0 
0 
0 
0 
0 
0 
0 
0 
0 
0 
0 
0 
0 
0 
13.0057171160698 
-0.40703232959675 
0 
0 
0 
0 
0 
0 
0 
0 
0 
0 
0 
0 
0 
-1.078149398699149 
0 
0 
0 
-0.7652495385666911 
0 
0 
0 
0 
0 
0 
0 
0 
0 
-0.892051963913518 
0 
0 
0 
-2.723227993625176 
0 
0 
-1.754792861471439 
-0.7141516961515477 
0 
-0.08566711885701545 
0 
0 
0.9618744217937301 
-1.33794936085404 
0 
0 
-0.3400531134296546 
0 
0 
0 
-1.092450857451002 
0 
-0.4693952614807142 
0 
0 
0 
0 
0 
0 
0 
0 
0 
0 
0 
0 
0.7177205627920522 
0 
0 
0 
0 
0 
0 
-0.336660020115536 
0 
0 
0 
0 
0 
0 
0 
0 
0 
-0.2234762011626004 
0 
0 
0 
0 
0 
0 
0 
0 
0 
0 
0 
0 
-1.583870037172348 
0 
0 
0 
0 
0 
0 
0 
0 
0 
0 
0 
0 
0 
0 
0 
0 
0 
0 
0 
0 
0 
0 
0 
0 
0 
0 
0 
0 
0 
0 
0 
0 
0 
0 
0 
0 
0 
-1.246029285716448 
0 
0 
0 
0 
0 
0 
0 
0 
0 
0 
0 
0 
0 
-0.7281898135622875 
0 
0 
0 
0 
-0.541931593855577 
0 
0 
0 
0 
0 
-1.398201393515072 
0 
-0.8424878457211157 
0 
0 
0 
-2.156016806315838 
0 
-0.8405318218552554 
0 
0 
0 
0 
0 
0 
0 
0 
0 
0 
0 
0 
2.927244949755284 
0 
0 
0 
0 
0 
0 
0.2598544146617827 
0.6564085200988703 
0 
0 
0 
0 
0 
0 
0 
0 
0.07499347584060094 
0 
0 
-1.222728563819189 
0 
0 
0 
0 
0 
-4.433966553803018 
0 
-3.287265072836619 
0.8080103562671557 
0 
0 
0 
0 
0 
0 
0 
0 
0 
-0.8434710588850667 
0 
0 
0 
0 
0 
0 
0 
0 
0 
0 
0 
-0.6799655757420359 
0 
0.07187494240059694 
0 
0 
-3.624975556886497 
0 
0 
0 
-1.667317065581017 
0 
-1.223572683329117 
0 
0 
0 
0 
0 
0 
0 
0 
0 
0 
-0.4727603970127232 
0 
0 
0 
0 
0 
0 
0 
0.009145341889206689 
0 
0 
0 
0 
0 
-0.8233501352581821 
0 
0 
-1.163128755225647 
0.1177509158313326 
0 
0 
0 
0 
2.495682578349306 
0 
0 
0 
0 
0 
0 
0 
0 
0 
0 
0 
0 
-1.958363670173863 
0 
0 
0 
0 
0 
2.806634152997641 
0 
0 
0 
0 
0 
0 
0 
0 
0 
0 
0 
0.7493532889958676 
0 
0 
0 
0 
0 
0 
0 
0 
0 
0 
0 
-0.2825478617670014 
0 
0 
0 
0 
0 
0 
-0.9811179452324096 
0 
0 
0 
0 
0 
0 
0 
0 
-0.3816418847213221 
0 
-0.5512498042692319 
0 
0 
0 
0 
0 
0 
0 
0 
0 
0 
0 
0 
0 
0 
0 
0 
0 
0 
0 
0 
0 
0 
0.2242735364006737 
0 
0 
0 
0 
0 
0 
0 
0 
0 
0 
0 
0 
0 
0 
0 
-0.8325073251619291 
0 
0 
0 
0 
0 
0 
0 
0.4574148907023298 
0.7243347785150176 
0 
0 
0 
0 
0 
0 
0 
0 
0 
0 
0 
-0.751068377461752 
0 
-0.0207698824719143 
0 
0 
-1.150914309806902 
0 
0 
0 
0 
0 
0 
0 
0 
0 
0 
0 
0 
1.624439985085143 
0 
0 
0 
-0.276442918561014 
0 
0 
0 
0 
0 
0 
0 
-2.192298160245016 
0.8268879889919812 
0 
0 
0 
0 
0 
0 
0 
0 
0 
0 
0 
0 
0 
0 
0 
0 
0 
0 
0 
0 
0 
0 
0 
0 
0 
0 
0.5090602186055815 
0 
0 
0 
0 
0 
0 
0 
0 
0 
0 
0 
0 
-1.308685957164677 
0 
0 
0 
0 
0 
0 
0 
0 
0 
0 
0.5699339528448012 
0 
-0.7664002559025891 
0 
0 
0 
0 
0 
0 
0 
0 
0 
0 
0 
0 
0 
0 
0 
0 
0 
0 
0 
0 
0 
0 
0 
-2.014548003499136 
0 
0 
0 
0 
0 
0 
0 
0 
0 
0 
0 
0 
0 
0 
0 
0 
0 
-0.9459707836066301 
0 
0 
0 
-4.060744453509252 
0 
0 
0 
0 
-0.4470580055296227 
0 
0.8548053612265442 
0 
0 
0 
0 
0 
0 
0 
0 
0 
0 
0 
0 
0 
0 
0 
0 
0 
0 
-0.4136671997022609 
0 
0 
0 
0 
0 
0 
0 
0 
0 
0 
0 
0 
0 
-0.1290850757033278 
0 
0 
0 
0 
0 
0 
0 
0 
0 
0 
0 
0 
0 
0 
0 
0 
0 
0 
0 
0 
0 
0 
0 
0 
0 
0 
0 
0 
-0.6474083228384686 
0 
-1.137682444827991 
0 
0 
0 
0 
0.339382613767131 
1.357802054832706 
0 
0 
0 
0 
0 
0 
0 
0 
0 
0 
0 
0 
0 
0 
0 
0 
0 
0 
0 
0 
0 
0 
0 
0 
0 
0 
0 
0 
-4.048994192069698 
0 
-2.024167122264477 
0.008239152386847333 
0 
0 
0 
0 
0 
0 
0 
0.2273018455095227 
0 
0 
0 
0 
0 
0 
0 
0 
0 
1.132599722726427 
0 
0 
-1.044963141044832 
0 
0 
0 
0 
0 
0 
0 
0 
0 
0 
0 
0 
0 
-0.2023867115858631 
0 
0 
0 
0 
0 
0 
0 
0 
0 
0 
0 
0 
0 
-1.516896001848626 
0 
0 
0 
-3.523020758480403 
0 
0 
0 
0 
0.0468215936805564 
0 
0 
0 
0 
0.7405582081937544 
0 
0 
0 
0 
0.6342449257783098 
0 
0 
0 
0 
0 
0 
0 
0 
-0.8769132131793418 
0 
0 
0 
0 
0 
0 
0 
0.878926807840254 
0 
0 
-1.920680469153493 
0 
0 
0 
0 
0 
0 
-1.305561905539128 
0 
0 
0 
0 
0 
0 
-1.04265654467129 
0 
0 
0 
-0.49209050586247 
-0.1260375949402576 
0 
0 
0 
0 
0 
0 
0 
0 
0 
0 
0 
0 
0 
0.3423281860648829 
0 
0 
0 
0 
0 
0 
0 
0.8312968171853272 
0 
0 
0 
0 
0 
0 
-1.175963839383938 
0.7571587483539261 
0 
0 
0 
0 
0 
-1.009345085427787 
0 
0 
0 
0 
0 
0 
0 
0 
0 
0 
0 
0 
0 
0 
0 
0 
0 
0 
0 
-3.484297402348576 
0 
0 
0 
0 
0 
0 
0 
0 
0 
0 
-0.05433175166075516 
0 
0 
0 
0 
0 
0 
0 
0 
0 
0 
0 
0 
0 
0 
0 
0 
0 
0 
0 
0 
0 
0 
0 
0 
0 
0 
0 
0 
0.5030411610469769 
0 
-0.1292810517835215 
0 
0 
0 
0 
0 
0 
0 
0 
0 
0 
0 
0 
0 
0 
0 
0 
0 
0 
0 
0 
0 
0 
0 
0 
0 
0 
0 
0 
0 
0 
0 
0 
-2.522491263082657 
0 
0 
0 
0 
0 
0 
0 
-0.4336208909623485 
0 
0 
-0.6937103637998537 
0 
-1.519123970897144 
0.3738378091995055 
0 
1.20725653016274 
0 
0 
0 
0 
0 
0 
0 
0 
0 
0 
-3.648393436870368 
0 
0 
0 
0 
0 
0 
0 
0 
0 
0 
0 
0 
0 
0 
0 
0 
0 
0 
0 
0 
0 
1.95198122363689 
-0.7596591680805785 
0 
0 
0 
0 
0 
0.4978944928498343 
0 
0 
0 
-2.637879683454378 
1.293913588524909 
0 
0 
0 
0 
0 
0 
0 
0 
-1.878687557731611 
0 
0 
0 
0 
0 
0 
0 
0 
0 
0 
0 
0 
0 
0 
0 
0 
0 
0 
0 
0 
0 
0 
0 
0 
0 
0 
0 
0 
0 
0 
0 
0 
0 
0 
0 
0 
-0.4481480978629108 
0 
0 
0 
0 
0 
0 
0 
0 
0 
0 
0 
0 
0 
0 
0 
0 
0 
0 
0 
0 
0 
-1.334299048560449 
0 
0 
-1.130828755285041 
0 
0 
0 
-1.165086008302121 
0 
0 
0 
0 
0 
0 
0.6300260338457532 
0 
0 
-0.8015722102308253 
1.765601029032615 
0 
0 
0 
0 
0 
0 
0 
0 
0 
-0.1906809916939462 
0 
0 
0 
0 
0 
0 
0 
0 
0 
0 
0 
0 
0 
0 
0 
0 
0 
0 
0 
0 
0 
-1.905966069152173 
0 
1.406542137674781 
-0.2828087390002802 
0 
0 
0 
-0.4475880692315835 
0 
-0.8088465047743573 
0 
0 
0 
0 
0 
0 
0 
0 
0 
0 
0 
0 
0 
0 
0 
0 
-2.269683020756614 
0 
0 
0 
0 
0 
0 
1.285069280170522 
0 
0 
0 
0 
0 
0 
0 
0 
0 
0 
0 
0 
0 
0 
0 
0.4711141601048371 
-0.221215584999437 
0 
0 
0.09284266391411243 
0 
0 
0 
0 
0 
0 
0 
0 
0 
0 
0 
0 
1.117721067556408 
0 
0 
0 
0 
0 
0 
0 
0 
0 
0 
0 
0 
0 
0 
0 
0 
0 
0 
0 
0 
0 
0 
0 
0 
0 
0 
0 
0.2868534180924064 
0 
0 
0 
0 
0 
0 
0 
0 
0 
0 
0 
0 
0 
0 
0 
0.119181861289045 
0 
0 
0 
0 
0 
0 
0 
0 
0 
0 
0 
0 
0 
0 
0 
0 
0 
0 
0 
0 
0 
0 
0 
0 
0 
0 
0 
0 
0 
0 
0 
-1.983423064589098 
0 
0 
0 
0 
0 
0 
0 
0 
0 
0 
0 
0 
0 
0 
0 
0 
0 
-1.37519850954875 
0 
0 
0 
0 
0 
0 
0 
0 
0 
0 
0 
0 
0 
-0.608436173342111 
0 
0 
0 
0 
0 
0 
0 
0 
0 
0.5790432378378965 
0 
0 
0 
0 
0 
0 
0 
0 
0 
0 
0 
0.09076964353461946 
0 
0 
0 
0 
0 
0 
0 
-2.21746436394749 
0 
0 
0 
0 
0 
0 
0 
0 
0 
0 
0 
0 
0 
0 
-1.29016218623974 
0 
0 
0 
0 
0 
0 
0 
0 
0 
0 
0 
0.7947448765954773 
0 
0 
-0.9991191408986908 
0 
0 
0 
0 
0 
0 
0 
0 
0 
-0.7155839957177413 
0 
0 
0 
0 
0 
0 
1.563582582977849 
0 
0 
0 
0 
0 
0 
0 
0 
0 
0 
-1.464733487586833 
0 
0 
0 
0 
0 
0 
0 
0 
0 
0 
0 
0 
0 
-0.1615278471134574 
0 
0 
0 
0 
0 
-0.5523249107267697 
0 
0 
0 
0 
0 
0 
0 
0 
0 
0 
0 
0 
0 
0 
0 
0 
0 
0 
0 
0 
0 
0 
0 
0 
0 
0 
0 
0 
0 
0 
0 
-0.04841551437376001 
0 
0 
0 
0 
-1.330105665299722 
0 
0 
0 
0 
0 
0 
0 
0 
0.003480109469566417 
0 
0 
0 
0 
0 
0 
0 
0 
0 
0 
0 
0 
0 
0 
0 
0 
0 
0 
0 
0 
0 
0 
0 
0 
0 
0 
0 
0 
-0.5002277556854223 
0 
0 
0 
0 
0 
0 
0 
0 
-0.4719254402364218 
0 
0 
0 
0 
0 
0 
0 
0 
0 
0 
0 
0 
0 
0 
0 
0 
0 
0 
0 
0 
0 
0 
0 
0 
0 
0 
0 
0 
0 
0 
0 
0 
0 
0 
0 
0 
0 
0 
0 
0 
0 
0 
0 
0 
0 
0 
0 
0 
0 
0 
0 
-0.7903781523865323 
0 
0 
0 
0 
0 
0 
0 
0 
0 
0 
0 
0 
0 
0 
0 
0 
0 
0 
0 
0 
0 
0 
0 
0 
0 
0 
0 
0 
-3.627571145678271 
-1.77682429049782 
0 
-1.153574546102508 
0 
0 
0 
0 
0 
0 
0 
0 
0 
0 
0 
0 
0 
0 
0 
0 
0 
0 
0 
0 
0 
0 
0 
-0.6219257262978101 
0 
0 
0 
0 
0 
0 
-1.742049374825752 
0 
0 
0 
0 
0 
0 
0 
0 
0 
0 
0 
0 
0 
0 
0 
0 
-1.044783745573221 
0 
-2.64405392291327 
0 
0 
0 
0 
0 
0.8363866115496913 
0 
0 
0 
0 
0 
0 
0 
0 
0 
0 
0 
0 
0 
-0.1914735021624097 
0 
0 
0 
0 
0.7964585078665907 
0 
0 
1.060300308223231 
0 
0 
0 
0 
0 
0 
0 
-0.5305535797402641 
0 
0 
0 
0 
0 
0 
0 
0 
0 
0 
0 
0 
0 
0 
0 
0 
0 
-0.1593938819382518 
0 
0 
0 
0 
0 
0 
0 
0 
0 
0 
0 
0 
0 
0 
0 
0 
0 
0 
0 
0 
0 
0 
0 
0 
0 
0 
0 
0 
0 
0 
0 
0 
0 
0 
0 
0 
0 
0 
0 
0 
0 
0 
0 
0 
0 
0 
0 
0 
0 
0 
0 
0.6611298665577188 
-1.302438291607578 
-0.4941666845430489 
-0.5998538441246413 
0.08739685533686334 
0 
0 
-0.02886457766883875 
0 
0 
0 
0 
0 
0 
0 
0 
0 
0 
-2.741170534151427 
0 
0 
0 
0 
-0.8669947811748221 
0 
0 
0 
0 
0 
0 
0 
0 
0 
3.28488105980431 
0 
0 
0 
0 
0 
0 
0 
0 
0 
0 
0 
0 
1.320694347518315 
0 
0 
0 
1.996853096044394 
0 
0 
0 
0 
0 
0 
0 
0 
0 
0 
0 
0.362985637539689 
0 
0 
0 
0 
0 
0 
0 
0 
0 
0 
0 
0 
0 
0 
0 
0 
0 
0 
0 
0 
0 
0 
-0.8007359819977393 
0.2246728836593867 
0 
0 
0 
0 
0 
0 
0 
-2.449480178027918 
0 
0 
0 
-2.28579750448439 
0 
0 
0 
0 
0 
0 
0 
-0.06881368443169515 
0 
0 
0 
0 
0 
0 
0 
0 
0 
0 
0 
0 
0 
2.53952570289809 
0 
0 
0 
0 
0 
0 
0 
0 
0 
0 
0 
0 
0 
0 
0 
0 
0 
0 
0 
0 
0 
0 
0.6260057575578945 
0 
0 
0 
0 
0 
0 
0 
0 
0 
-1.334056214797503 
0 
0 
0 
0 
0 
0 
0 
0 
0 
0 
-3.732544815234971 
0 
0 
0 
0 
0 
-1.18533965860297 
0 
0 
0 
0.2823495592752426 
0 
0 
0 
0 
0 
0 
-0.6777588904568024 
0 
0 
0 
0 
0 
0 
0 
0 
0 
-2.719070384973742 
0 
0 
0.6712698524188935 
0 
0 
0 
0 
0 
0 
0 
0 
0 
0 
0 
0 
0 
0 
-0.5510310552222364 
0 
0 
0 
0 
0 
0 
0 
0 
0 
-1.905044362635751 
0 
0 
0 
0 
0 
0 
0 
0 
0 
0 
0 
0 
-3.35654748528656 
0 
0 
0 
-3.138987871285402 
-0.3357614557518516 
0 
0 
0 
0 
0 
0 
-0.2938508086589429 
0 
0 
0 
0 
0 
0 
0.9045849954067293 
0 
0 
0 
0 
0 
0 
0 
0 
-0.5364076869679818 
0 
0 
0 
0 
0 
-0.5205882911871154 
0 
-0.7597031567138005 
0 
0 
0 
0 
0 
-0.9442676465245795 
0 
0 
0 
0 
0 
0 
0 
0 
0 
0 
0 
0 
0 
0 
0 
0 
0 
0 
0 
0 
0 
0 
0 
0 
0 
0 
0 
0 
0 
0 
0 
0 
0 
0 
0 
0 
0 
0 
0 
0 
0 
0 
0 
0 
0 
0 
-1.276978474058897 
-2.499183309661472 
0 
0 
0 
0 
-0.4617204802227782 
0 
0 
0 
0 
0 
0 
0 
0 
0 
0 
0 
0 
0 
0 
0 
0 
0 
0 
0 
0 
0 
0 
0 
0 
0 
0 
0 
0 
0 
0 
0 
0 
0 
0 
0 
0 
0 
-0.4653732793413932 
0 
0 
0 
0 
0 
0 
0 
0 
0.9308199282497932 
0 
0 
0 
0 
0 
1.228827463402401 
0.890038549419233 
0 
0 
0 
-1.92948859036798 
0 
0 
0 
0 
0 
0 
0 
0.4918960536457306 
0 
0 
0 
0 
0 
0 
0 
0 
0 
0 
0 
0 
0 
0 
0 
0 
0 
0 
0 
0 
0 
0 
0 
0 
0 
0 
-0.6181778577601043 
0.4916174009718148 
0 
0 
0 
0 
0 
0 
0 
0 
0 
0 
0 
0 
0 
0 
0 
0 
-0.8724667865165648 
0 
0 
0 
0 
0 
0 
0 
0 
0 
0 
0 
0 
0 
0 
0 
0 
0 
0 
0 
0 
0 
0 
-1.728058392701111 
0 
0 
0 
0 
0 
0 
0 
0 
0 
0 
0 
0 
0 
0 
0 
0 
0 
0 
0 
0 
0 
0 
0 
0 
0 
0 
0 
0 
0 
0 
0 
0 
2.014273625312872 
0 
0 
0.8107585064033561 
0 
-2.022598610988891 
0 
0 
0 
0 
0 
0 
0 
0 
0 
-1.904316185771186 
0 
0 
0 
0 
0 
0 
1.413125803272683 
0 
0 
0 
0 
0 
0 
0 
-0.7141773969138594 
0 
0 
0 
0 
-2.39590265930317 
0 
0 
0 
-0.5369153998521963 
0 
0 
0 
0 
0 
0 
0 
0 
0 
0 
0 
0 
0 
0 
0 
0 
0 
0 
0 
0 
0 
0 
0 
0 
0 
0 
0 
-0.2829080969896511 
0 
0 
0 
0 
0 
0 
-1.064317176626803 
0 
0 
0 
0 
0 
0 
0 
0 
0 
0 
0 
0 
0 
0 
0 
0 
0 
0 
0 
0 
-2.338827281575834 
0 
-2.298403246559275 
0 
0 
0 
0 
0 
0 
0 
0 
-3.36372502843872 
-1.219589970485096 
0 
0 
0.7122979420795017 
0 
0 
0 
0 
0 
0 
0 
0 
0 
-2.371537093871582 
0 
0 
0 
0 
0 
0 
0 
0 
0 
0 
0 
0 
0 
0 
0 
0 
0 
0 
0 
0 
0 
0 
0 
0 
0 
0 
0 
0 
-1.691550215821307 
0 
0 
-1.016903662214968 
0 
0 
0 
-0.008666509334507419 
0 
0 
0 
-0.09114147873425264 
0 
0 
0 
0 
0 
0 
0 
0 
0 
0 
0 
0 
0 
1.504417429287322 
0 
0 
0 
0 
0 
0 
0 
0 
0 
0 
0 
-2.595729660531784 
0 
0 
0 
0 
0 
0 
0 
0 
0 
0 
0 
0 
0 
0.2380745759923368 
0 
0 
0 
0 
0 
0 
0 
0 
0 
0 
0 
0 
-1.140610831531187 
0 
0 
0 
0 
0 
0 
0 
0 
0 
0 
0 
0 
0 
0 
0 
0 
0 
-1.039507122776872 
0 
0 
0 
0 
0 
0 
0 
0 
0 
0 
0 
0 
0 
0 
0 
0 
0 
0 
0 
0 
-5.986036238116404 
0 
0 
0 
0 
0.06555106556093 
0 
0 
0 
0 
0 
0 
0 
0 
0 
0 
0 
0 
0 
0 
0 
0 
0 
0 
0 
-1.084165374632912 
0 
0 
0 
0 
0 
0.1961080496405042 
0 
0 
0 
0 
0 
0 
0 
0 
0 
0 
0 
0 
0 
0 
0 
0 
0 
0 
0 
0 
0 
0 
0 
0 
0 
0 
0 
0 
0 
0 
0 
0 
0 
0 
0 
0 
0 
0 
0 
6.06155541633628 
0 
0 
0 
0 
0 
0 
0 
0 
0 
0 
0 
0 
0 
0 
0 
0 
0 
0 
0 
0 
0 
0 
0 
0 
0 
0 
0 
0 
0 
0 
0 
0 
0 
0 
0 
-0.3254180257733016 
0 
0 
0 
-0.7912232355706741 
0 
0 
0 
-2.212803056580172 
0 
0 
0 
0 
0 
0 
0 
0 
0 
0 
0 
0 
1.326478329337277 
0 
0 
0 
0 
1.829178484425293 
0 
0 
0 
0 
0 
0 
-1.467407100896609 
0 
0 
0 
0 
0 
0 
0 
0 
0 
0 
0 
0 
0 
0 
0 
0 
0 
0 
0 
0 
0 
0 
0 
0 
0 
0.7621972199230341 
0 
0 
0 
0 
0 
0 
0 
0 
0 
0 
0 
0 
0 
0 
0 
0 
0 
0 
0 
0 
0 
0 
0 
0 
0 
0 
0 
0 
0 
0 
0 
0 
0 
1.230533091184771 
0.5312359327957845 
0 
0 
1.456361622213711 
0 
0 
0 
0 
0 
0 
0 
0 
0 
0 
0 
0 
0 
0 
0 
0 
0 
0 
0.8969868468601921 
0 
0 
0 
0 
0 
0 
0 
0 
0 
0 
0 
0 
-0.8386030741660706 
0 
0 
0 
0 
0 
0 
0 
0 
0 
0 
0 
1.305221316045928 
-2.082720004030214 
0 
0 
0 
0 
0 
0 
0 
0 
0 
0 
-0.3967561820927381 
0 
0 
0 
1.026561387974668 
0 
0 
0 
0 
0 
-0.744987944191712 
1.132438272268371 
0 
0 
0 
0 
0 
0 
0 
-1.151849497601587 
0 
0 
0 
0 
0 
0 
0 
0 
-0.6119372593461214 
0 
0 
0 
0 
0 
0 
0 
0 
0 
0 
-0.8880780381102672 
0 
0 
0 
0 
0 
0 
0 
0 
0 
0 
0 
-2.037105478084714 
0 
0 
0 
0 
0 
0 
0 
0 
0 
0 
0 
-0.1323360384773532 
0 
-1.295265518613168 
0.2675694179131681 
0.7479749581478632 
0 
0 
0 
0 
-1.585934932552281 
0 
-1.052451245063727 
-0.1486353700541283 
0 
0 
0 
0 
0 
0 
0 
0 
0 
0 
0 
0 
0 
0 
0 
0 
0 
0 
0 
0 
0.8677194056406977 
0 
0 
0 
0 
0 
0 
0 
0 
0 
0 
0 
0 
0 
0 
0 
0 
0 
0 
0 
0 
0 
0 
0 
0 
0 
0 
0 
0 
0.8306576718673577 
0 
0 
-3.756476247635852 
0 
0 
0 
0 
-0.8430082728282183 
0 
0 
0 
0 
0 
0 
0 
0 
0.03505783043220955 
0 
0 
0 
0 
0 
0 
0 
0 
0 
0 
0 
0 
0 
0 
0 
0 
0 
-0.6882323459292222 
0 
0 
0 
0 
0 
0 
0 
0 
0 
0 
0 
0 
0 
-2.11117515643617 
0 
0 
0 
0 
-0.311110115887823 
0 
0 
0 
0 
0 
0 
0 
0 
0 
0 
0 
0 
0 
0 
0 
0 
0 
0 
0 
0 
0.613296653988846 
0 
0 
0 
0 
0 
0 
0 
0 
0 
-1.582563631482812 
0 
0 
0 
0 
0 
0 
0 
0 
0 
0 
-0.8950577994209372 
0 
0 
0 
0 
0 
0 
0 
0 
0 
0 
0 
0 
0 
0 
0 
0 
0 
0 
0 
0 
0 
0 
0 
0 
0 
0 
0 
0 
0 
0 
0 
0 
-0.8805194298069463 
0 
0 
0 
0 
0 
0 
0 
0 
0 
0 
0 
0 
0 
0 
0 
0 
0 
0 
0 
0 
0 
0 
0 
-0.214636030758181 
0 
0 
0 
0 
0 
0 
0 
0 
0 
0 
0 
0 
0 
0 
0 
0 
0 
0 
0 
0 
0 
0 
0 
0 
0 
0 
0 
0 
0 
0 
0 
0 
0 
0 
0 
0 
0 
0 
0 
0 
0 
0 
0 
0 
0 
0 
0 
0 
0 
0 
0 
0 
0 
0 
0 
0 
0 
0 
-1.754740659807313 
0 
0 
0 
0 
0 
0 
0 
-0.3391522170007454 
0 
1.958313255826842 
0 
0 
0 
0 
0 
0 
0 
0 
0 
0 
0 
0 
0 
0 
0 
0 
0 
0 
0 
1.206177772670179 
0 
0 
0 
0 
0 
0 
0 
0 
0 
0 
0 
0 
0 
0 
0 
0 
0 
0 
0 
0 
0 
0 
0 
0 
0 
0 
0 
0 
0 
0 
0 
0 
0 
0 
0 
0 
0 
0 
0 
0 
0 
0 
0 
0 
0 
0 
0 
0 
0 
0 
0 
0 
0 
-2.088256896884917 
0 
0 
0 
-1.84421253794601 
0 
0 
0 
0 
0 
0 
0 
0 
0 
0 
0 
0 
-0.5849897022759428 
0 
0 
0 
0 
0 
0 
0 
0 
0 
0 
0 
0 
0 
0 
-2.04393475538514 
0 
0 
0.2087824517279026 
0 
-0.3730901834291589 
0 
0 
0 
0 
-3.467468703589105 
0 
0 
0 
0 
0 
-0.09492129609210807 
0 
0.4058538842490455 
0 
0 
0 
0 
0 
1.348394661709729 
0 
0 
0 
0 
0 
2.123126392664064 
0 
0 
0 
0 
0 
0 
0 
0 
0 
-0.9626930578376017 
0 
0 
0 
0 
0 
0 
0 
0 
0 
0 
0 
0 
0 
0 
0 
0 
0 
0 
0 
0 
0 
0 
0 
0 
0 
0 
0 
0 
0 
0 
0 
0 
0 
0 
0 
0 
0 
0 
0 
0 
0 
0 
0 
0 
0 
0 
0 
0 
0 
0 
0 
0 
0 
0 
0 
0 
0 
0 
0 
0 
0 
0 
0 
0 
0 
0 
0 
0 
0 
0 
0 
-0.9718300064489193 
0 
0 
0 
0 
0 
0 
0 
0 
0 
0 
0 
0 
0 
0 
0 
0 
0 
0 
0 
0 
0 
0 
0 
0 
0 
0 
0 
0 
0 
0 
0 
0 
0 
0 
0 
0 
0 
0 
0 
0 
0 
0 
0 
0 
0 
0 
0 
0 
0 
0 
0 
0 
0 
0 
0 
0 
0 
0 
0 
0 
0 
0 
0 
0 
0 
0 
0 
0 
0 
0 
0 
0 
0 
0 
0 
0 
0 
0 
0 
0 
0 
0 
0 
0 
0 
-0.5253155067654118 
0 
-4.587519270524384 
2.867565525359527 
0 
0 
0 
0 
0 
0 
0 
0 
0 
0 
0 
0 
0 
0 
0 
0 
0 
0 
0 
0 
0 
-0.2018897353553834 
0 
0 
0 
0 
0 
0 
0 
0 
0 
0 
0 
0 
0 
0 
0 
0 
0 
0 
0 
0 
0 
0 
0 
0 
0 
0 
0 
0 
0 
0 
0 
0 
0 
0 
0 
0 
0 
0 
0 
0 
0 
0 
0 
0 
-2.259528148954275 
0 
0 
2.788420694446542 
0 
0 
-1.030099749221684 
0 
-1.240582157971355 
1.759476079812256 
0 
0 
0 
0 
0 
0 
0 
0 
0 
-0.4283494226987705 
0.5391267613778884 
0 
0 
0 
0 
0 
0 
0 
0 
0 
0 
0 
0 
0 
0 
0 
0 
0 
0 
0 
0 
0 
0 
0 
0 
-6.929360481314654 
0 
0 
0 
-0.07538827121706598 
0 
0 
0 
0 
0 
0 
0 
0 
0 
0 
-0.2826312795939469 
0 
0 
0 
0 
0 
0 
0 
0 
0 
0 
0 
0 
0 
0 
0 
0 
0 
0 
0 
0 
0 
0 
0 
0 
0 
0 
0 
0 
0 
0 
0 
0 
0 
0 
0 
0 
0 
0 
0 
0 
0 
0 
0 
0 
0.06375991098094808 
0 
0 
0 
0 
0 
0 
0 
-0.1973516393745085 
0 
0 
0 
0 
0 
0 
0 
0 
0 
0 
0 
0 
0 
0 
0 
0 
0 
0 
0 
0 
0 
0 
0 
0 
0 
0 
0 
0 
0 
0 
0 
0 
0 
0 
0 
0 
0.1327068064594218 
0 
0 
0 
0 
-0.734028738476922 
0 
0 
0 
0 
0 
0 
0 
0 
0 
0 
0 
0 
0 
0 
-0.4372659433429677 
0 
0 
0 
0 
0 
0 
0 
0 
0 
0 
0 
0 
0 
0 
0 
0 
0 
0 
0 
0 
0 
0 
-0.6614836461946689 
-2.623468847834855 
0 
0 
0 
0 
0 
0 
0 
0 
0 
0 
0 
0 
0 
0 
0 
0 
0.447060712336831 
0 
0 
0 
0 
0 
0 
0 
0 
0 
0 
0 
0 
0 
1.372940797137907 
0 
0 
0 
0 
0 
0 
0 
0 
0 
0 
0 
0 
0 
0 
0 
0 
0 
0 
0 
0 
0 
0 
-0.6355907328152256 
1.793103698891972 
0 
0 
0 
0 
0 
0 
0 
0 
-0.439449855550793 
0 
0 
0 
0 
0 
0 
0 
0 
-0.1676581968634534 
0 
0 
0 
0 
0 
0 
0 
0 
0 
0 
0 
0 
0 
0 
0 
0 
0 
0 
0 
0 
0 
0 
0 
0 
0 
0 
0 
0 
0 
0 
-1.996613190326366 
0 
0 
0 
0 
0 
0 
0 
0.6493191574375233 
0 
0 
0 
0 
0 
0 
0 
0 
0 
0 
0 
0 
0 
0 
0 
0 
0 
0 
0 
0 
0 
0 
1.012380589506528 
0 
0 
0 
0 
0 
0 
0 
0 
0 
0 
0 
0 
0 
0 
0 
0 
0 
0 
0 
0 
0 
0 
0 
0 
0 
0 
0 
0 
0 
0 
0 
0 
0 
0 
0 
0 
0 
0 
0 
0 
0 
0 
0 
0 
0 
0 
0 
0 
-0.1556092160478295 
0 
0 
0 
0 
0 
-0.4432046280658472 
0 
0 
0 
0 
0 
0 
0 
0 
0 
0 
0 
0 
0 
0 
0 
0 
0 
0 
0 
0 
0 
0 
0 
0 
0 
0 
0 
0 
0 
0 
0 
0 
0 
0 
0 
0 
0 
0 
0 
0 
0 
0 
0 
0 
0 
0 
0 
0 
0 
0 
0 
-0.606697056466853 
0 
0 
0 
0 
0 
0 
0 
0 
0 
0 
0 
-1.223745960047221 
0 
0 
0 
0 
0 
0 
0 
0 
0 
0 
0 
0 
0 
0 
0 
0 
0 
0 
0 
0 
0 
0 
0 
0 
0 
0 
0 
0 
0 
0 
0 
0 
0 
0 
0 
0 
0 
0 
0 
0 
0 
0 
0 
0 
0 
0 
0 
-0.8117881680520692 
0 
0 
0 
0 
0 
0 
0 
0 
0 
0 
0 
0 
0 
0 
-1.520457569521869 
0 
0 
0 
0 
0 
0 
0 
0 
0 
0 
0 
-0.1347669919833761 
0 
0 
0 
0 
0 
0 
0 
0 
0 
0 
0 
0 
0 
0 
0 
0 
0 
0 
0 
0 
0 
0 
0 
0 
0 
0 
0 
0 
0 
0 
0 
0 
0 
0 
0 
0 
0 
0 
0 
0 
0 
0 
0.5544821995344081 
0 
0 
0 
0 
0 
0 
0 
0 
0 
0 
0 
0 
0 
0 
0 
0 
0 
0 
0 
0 
0 
0 
0 
0 
0 
0 
0 
0 
0 
0 
0 
0 
0 
0 
0 
0 
0 
0 
0 
-0.9570164344609715 
0 
0 
0 
0 
0 
0 
0 
0 
0 
0 
0 
0 
0 
0 
0 
0 
0 
0 
0 
-0.58377181354121 
0 
0 
0 
0 
0 
0 
0 
0 
0 
0 
0 
0 
0 
0 
0 
0 
0 
0 
0 
0 
0 
0 
-0.4327962618162155 
0 
0 
0.9236907353017851 
0 
0 
0 
0 
0 
0 
-0.2161462446789687 
0 
0 
0 
0 
0 
0 
0 
0 
0 
0 
0 
0 
0 
0 
0 
0 
0 
0 
0 
0 
0 
0 
0 
0 
0 
0 
0 
0 
0 
0 
0 
0 
0 
0 
0 
0 
0 
0 
0 
0 
1.451509505263601 
0 
0.978841009820274 
0 
0 
0 
0 
-0.4344530960284395 
0 
0 
0 
0 
0 
0 
0 
0 
0 
0 
0 
0 
0 
0 
0 
0 
0 
0 
0 
0.3661201627542756 
0 
-0.9808428657285926 
0 
0 
0 
0 
0 
0 
0 
0 
0 
0 
0 
0 
0 
0 
0 
0 
0 
0 
0 
-0.04335021902889931 
2.691640217852672 
-0.06747230793461706 
0 
0 
0 
0 
0 
0 
0 
0 
0 
0 
0.1859428417923068 
0 
-2.744552363464502 
-0.4193110880298711 
0 
0 
0 
0 
0 
-0.413835561614274 
0 
0 
0 
0 
0 
0 
0 
0 
0 
0 
0 
0 
0 
0 
-0.2571167195765551 
0 
0 
0 
0 
0 
0 
0 
0 
0 
0 
0 
0 
0 
0 
0 
0 
0 
0 
0 
0 
0 
0 
0 
0 
0 
0 
0 
0 
0 
0 
0 
0 
0 
0 
0 
0 
0 
0 
0 
0 
0 
0 
0 
0 
-0.7558063905672888 
0 
0 
0 
0 
0 
3.477332600386551 
0.800473539672099 
0 
0 
0 
0 
0 
0 
0 
0 
0 
0 
0 
0 
0 
0 
0 
0 
0 
0 
0 
0 
0 
0 
0 
0 
0 
0 
0 
0 
0 
0 
0 
0 
0 
0 
0 
0 
0 
-0.7187865867956346 
0 
0 
0 
0 
0 
0 
0 
0 
0 
0 
0 
0 
0 
0 
0 
0 
0 
0 
0 
0 
0 
1.796065050276231 
0 
0 
0 
0 
0 
0 
0 
-1.981454933368753 
0 
0 
0 
0 
0 
0 
0 
0 
0 
0 
0 
0 
0 
0 
0 
0 
0 
0 
0 
0 
1.513734231360588 
0 
0 
0 
0 
0 
0 
0 
-1.044751112739986 
0 
0 
0 
0 
0 
0 
0 
0 
0 
0 
0.1782411385441143 
0 
0 
0 
0 
0 
0 
0 
0 
0 
0 
0 
0 
0 
0 
0 
0 
0 
0 
0 
0 
0 
0 
0 
0 
0 
0 
0 
0 
0 
0 
0 
0 
0 
0 
0 
0 
0 
0 
-0.1186534103655844 
0 
0 
0 
0 
0 
0 
0 
0 
0 
0 
0 
0 
0 
0 
0 
0 
0 
0 
0 
0 
0 
0 
0 
0 
0 
0 
0 
0 
0 
0 
0 
0 
0 
0 
0 
0 
0 
0 
0 
0 
0 
0 
2.696300733603238 
0.8526327565240128 
0 
0 
0 
0 
0 
0 
0 
0 
0 
0 
0 
0 
0 
0 
0 
0 
1.147612948970492 
0 
0 
0 
0 
0 
0 
0 
0 
0 
0 
0 
0 
0 
0 
0 
0 
0 
0 
0 
0 
0 
0 
0 
0 
0 
0 
0 
0 
0 
0 
0 
0 
0 
0 
0 
0 
0 
0 
0 
0 
0 
0 
0 
0 
0 
0 
0 
0 
0 
0 
0 
0 
0 
0 
0 
0 
0 
0 
0 
0 
0 
0 
0 
0 
0 
0 
0 
0 
0 
0 
0 
0 
0 
0 
0 
0 
0 
0 
0 
0 
0 
0 
0 
0 
0 
0 
0 
0 
0 
0 
0 
0 
0 
0 
0 
0 
0 
0 
0 
0 
0 
0 
0.2557922317695159 
0 
-1.445284682381945 
0 
0 
0 
0 
0 
0 
0 
0 
0 
0 
0 
0 
0 
0 
0 
0 
0 
0 
0 
-2.873046629380099 
0 
0 
-0.4589320683382595 
0 
0 
0 
0 
-2.63968887309788 
0 
0 
0 
0 
0 
0 
0 
0 
1.748346496983015 
0 
0 
0 
0 
0 
0 
0 
0.005917043452619604 
0 
0 
0 
0 
0 
0 
0 
0 
0 
0 
0 
0 
0 
0 
0 
0 
0 
0 
0 
0 
0 
0 
0 
0 
0 
0 
0 
0 
0 
0 
0 
0 
0 
0 
0 
-0.9136710180315013 
0 
0 
0 
0 
0 
0 
0 
0 
0 
0 
0 
0 
0 
-0.6312115895257858 
0 
0 
0 
0 
0.1292556517877605 
0 
0 
0 
0.8839934517433939 
0 
0 
0 
0 
0 
0 
0 
0 
0 
0 
0 
0 
0 
0 
0 
0 
0 
0 
0 
0 
0 
0 
0 
0 
0 
0 
0 
0 
0 
0 
0 
0 
0 
0 
0 
0 
0 
0 
0 
0 
0 
0 
0 
0 
0 
0 
0 
0 
0 
0 
0 
0 
0 
0 
0 
0 
0 
0 
0 
0 
0 
0 
0 
0 
0 
1.143973602970743 
0 
0 
0 
0 
0 
0 
0 
0 
0 
0 
0 
0 
0 
0 
0 
0 
0 
0 
0 
0 
0 
0 
0 
0 
0 
0 
0 
0 
0 
0 
0 
1.785255339847957 
0 
0 
0 
0 
0 
0 
0 
0 
0 
0 
0 
0 
0 
0 
0 
0 
0 
0 
0 
0 
0 
0 
0 
0 
0 
0 
0 
0 
0 
0 
0 
0 
0 
0 
0 
0 
0 
0 
0 
0 
0 
0 
0 
0 
0 
0 
0 
0 
0 
0 
0 
0 
0 
0 
0 
0 
0 
0 
0 
0 
0 
0 
0 
0 
0 
0 
0 
0 
0 
0 
0 
0 
0 
0 
0 
0 
0 
0 
0 
1.542415500255649 
0 
0 
0 
0 
0 
0 
0 
0 
0 
0 
0 
0 
0 
0 
0 
0 
0 
0 
0 
0 
0 
0 
0 
0 
0 
0 
0 
0 
0 
0 
0 
0 
0 
0 
0 
0 
0 
0 
0 
0 
0 
0 
0 
0 
0 
0 
0 
0 
0 
0 
0 
0 
0 
0 
0 
0 
0 
0 
0 
0 
0 
0 
0 
0 
0 
0 
0 
0 
0 
0 
1.587805828579459 
0 
0 
0 
0 
0 
0 
0 
0 
0 
0 
1.568100934149961 
0 
0 
0 
0 
0 
0 
0 
-2.859263997596671 
0 
0 
0 
0 
0 
0 
0 
0 
0 
0 
0 
0 
0 
0 
0 
0 
0 
0 
0 
0 
0 
0 
0 
0 
0 
0 
0 
0 
0 
0 
0 
0 
0 
0 
0 
0 
0 
0 
0 
0 
0 
0 
0 
0 
0 
0 
0 
0 
0 
0 
0 
0 
0 
0 
0 
0 
0.00989857481728294 
0 
-0.5376852116966554 
0 
0 
0 
0 
0 
0 
0 
0 
0 
0 
0 
0 
0 
0 
0 
0 
0 
0 
0 
0 
0 
0 
0 
0 
0 
0 
0 
0 
0 
0 
0 
0 
0 
0 
0 
1.041057464248562 
0 
0 
0 
0 
0 
0 
0 
0 
0 
0 
0 
0 
0 
0 
0 
0 
0 
0 
0 
0 
0 
0.7897811110387893 
0 
0 
0 
0 
0 
0 
0 
0 
0 
0 
0 
0 
0 
0 
0 
0 
0 
0 
0 
0 
0 
0 
0 
0 
0 
0 
0 
0 
0 
0 
0 
0 
0 
0 
0 
0 
0 
0 
0 
0 
0 
0 
0 
0 
0 
0 
0 
0 
0 
0 
0 
0 
0 
0 
0 
0 
0 
0 
0 
-0.1269002160840909 
0 
0 
0 
-1.107298532238284 
0 
0 
0 
0 
0 
0 
0 
0 
0 
0 
0 
0 
0 
0 
0 
0 
0 
0 
0 
0 
0 
0 
0 
0 
0 
0 
0 
0 
0 
0 
0 
0 
0 
0 
0 
0 
0 
0 
0 
0 
0 
0 
0 
0 
0 
0 
0 
0 
0 
0 
0 
0 
-1.824634482305542 
0 
-0.1472654174950524 
0 
0 
-0.2039315258398994 
0 
0 
0 
0 
-1.554681697837021 
0 
0 
-0.3570267096040799 
0 
0 
0 
0 
0 
0 
0 
0 
0 
0 
0 
0 
0 
0 
0 
0 
0 
-2.672825414839626 
0 
0 
0.5474206507526165 
0 
0 
0 
0 
0 
0 
0 
0 
0 
0 
0 
0 
0 
0 
0 
0.2106384102278511 
0 
0 
0 
0 
0 
0 
-0.4244007621596065 
0 
0 
0 
0 
0 
2.18928299441472 
0 
0 
0 
0 
0 
0 
0 
0 
0 
0 
0 
0 
0 
0 
0 
0 
0 
0 
0 
0 
0 
0 
0 
0 
0 
0 
0 
0 
0 
0 
0 
0 
0 
0 
0 
0 
0 
-2.094043417134126 
0 
0 
0 
0 
0 
0 
0 
0 
0 
0 
0 
0 
0 
0 
0 
0 
0 
0 
0 
0 
0 
0 
0 
0 
0 
0 
0 
0 
0 
0 
0 
0 
0 
0 
0 
0 
0 
0 
0 
0 
0 
0 
0 
0 
0 
0 
0 
0 
0 
0 
0 
0 
0 
0 
0 
0 
0 
0 
0 
0 
0 
0 
0 
0 
0 
1.036953634099872 
0 
0 
0 
0 
0 
0 
0 
-0.1875165826194203 
0 
0 
0 
0 
0 
0 
0 
0.04759906474597667 
0 
0 
0 
0 
0 
0 
0 
0 
0 
0 
0 
0 
0 
0 
0 
0 
0 
0 
0 
0 
0 
0 
0 
0 
0 
0 
0 
0 
0 
0 
0 
0 
0 
0 
0 
0 
0 
0.2351844359080866 
0 
0 
0 
0 
0 
0 
0 
-2.037327004613383 
0 
0 
0 
0 
0 
0 
0 
0 
0 
0 
0 
0 
0 
0 
0 
0 
0 
0 
0 
0 
0 
0 
0 
0 
0 
0 
0 
0 
0 
0 
0 
0 
0 
0 
0 
0 
0 
0 
0 
0 
1.006320804951808 
0 
0.3761215979497676 
0 
0 
0 
0 
0 
0 
0 
0 
0 
0 
0 
0 
0 
0 
0 
0 
0 
0 
0 
0 
2.581380110628222 
0 
-0.5406495334252592 
0 
0 
0 
0 
0 
0 
0 
0 
0 
0 
0 
0 
0 
0 
-4.754095475167986 
0 
0 
0 
0 
0 
0 
0 
0 
0 
0 
0 
0 
0 
0 
0 
0 
0 
0 
0 
0 
0 
0 
0 
0 
0 
0 
0 
0 
0 
0 
0 
0 
0 
0 
0 
0 
0 
0 
0 
0 
0 
0 
0 
0 
0 
0 
0 
1.939138047033608 
0 
0 
0 
0 
0 
0 
0 
0 
0 
0 
0 
0 
0 
0 
0 
0 
0 
0 
0 
0 
0 
0 
0 
0 
0 
0 
0 
0 
0 
0 
0 
0 
0 
0 
0 
0 
0 
0 
0 
0 
0 
0 
0 
0 
0 
0 
0 
0 
0 
0 
0 
0 
0 
0 
0 
0 
0 
0 
0 
0 
0 
0 
0 
0 
0 
0 
0 
0 
0 
0 
0 
0 
0 
0 
0 
0 
0 
0 
0 
0 
0 
0 
0 
0 
0 
0 
0 
0 
0 
0 
0 
0 
0 
0 
0 
0 
0 
0 
0 
0 
0 
0 
0 
0 
0 
0 
0 
0 
0 
0 
0.2581661697690342 
0 
0 
0 
0 
0 
0 
0 
0 
0 
0 
0 
0 
0 
0 
0 
0 
0 
0 
0 
0 
0 
0 
0 
0 
0 
0 
0 
0 
0 
0 
0 
0 
0 
-0.1035288239834687 
0 
0 
0 
0 
0 
0 
0 
0 
0 
0 
0 
0 
0 
0 
0 
0 
0 
0 
0 
0 
0 
0 
-0.6603970509123562 
0 
0 
0 
0 
0 
0 
0 
0 
0 
0 
0 
0 
-0.4922881559667219 
0 
0 
0 
0 
0 
0 
0 
0 
-1.124184119306272 
0 
0 
0 
0 
0 
0 
0 
0 
0 
0 
0 
0 
0 
0 
0 
0 
0 
0 
0 
0 
0 
0 
0 
0 
0 
0 
0 
0 
0 
0 
0 
0 
0 
0 
0 
0 
0 
0 
0 
0 
0 
0 
0 
0 
0 
0 
0 
-0.8912162828726159 
0 
0 
0 
0 
0 
0 
0 
0 
0 
0 
0 
0 
0 
0 
0 
0 
0 
0 
0 
0.6291061661636594 
0 
0 
0 
0 
0 
0 
0 
0 
0 
0 
0 
0 
0 
0 
0 
0 
0 
0 
0 
0 
0 
0 
0 
0 
0 
0 
0 
0 
0 
0 
0 
0 
0 
0 
0 
0 
0 
0 
0 
0 
0 
0 
0 
0 
0 
0 
0 
0 
0 
0 
0 
0 
0 
0 
0 
0 
0 
0 
0 
0 
0 
0 
0 
0 
0 
0 
0 
0 
0 
0 
0 
0 
0 
0 
0 
0 
0 
0 
0 
0 
0 
0 
0 
0 
0 
0 
0 
0 
0 
0 
0 
0 
0 
0 
0 
0 
0 
0 
0 
0 
0 
0 
0 
0 
0 
0 
0 
0 
0 
0 
0 
0 
0 
0 
0 
0 
0 
0 
0 
0 
0 
0 
0 
0 
0 
0 
0 
0 
0 
0 
0 
0 
0 
0 
0 
0 
0 
0 
0 
0 
0 
0 
0 
0 
0 
0 
0 
0 
0 
0 
0 
0 
0 
0 
0 
0 
1.31703919256057 
0 
0 
0 
0 
0 
0 
0 
0 
0 
0 
0 
0 
0 
0 
0 
0 
0 
0 
0 
0 
0 
0 
0 
0 
0 
0 
0 
0 
0 
0 
0 
0 
0 
0 
0 
0 
0 
0 
0 
0 
0 
0 
0 
1.457364097698216 
0 
0 
0 
0 
0 
0 
0 
0 
0 
0 
0 
0 
0 
0 
0 
0 
0 
0 
0 
0 
0 
0 
0 
0 
0 
0 
0 
0 
0 
0 
0 
0 
0 
0 
0 
0 
0 
0 
0 
0 
0 
0 
0 
0 
0 
-0.07730805373231516 
0 
0 
0 
0 
0 
0 
0 
0 
-0.9854754024152146 
0 
0 
0 
0 
0 
0 
0 
-1.36840265771121 
0 
0 
0 
0 
0 
0 
0 
0 
0 
0 
0 
0 
0 
0 
0 
0 
0 
0 
0 
0 
0 
0 
0 
0 
0 
0 
0 
0 
0 
0 
0 
0 
0 
0 
0 
0 
0 
0 
0 
0 
-0.4856886167387473 
0 
0 
0 
0 
0 
0 
0 
0 
0 
0 
0 
0 
0 
0 
0 
0 
0 
0 
0 
0 
0 
0 
0 
0 
0 
0 
0 
0 
0 
0 
0 
0 
0 
0.8066579655891256 
0 
0 
0 
0 
0 
0 
0 
0 
0 
0 
0 
0 
0 
0 
0 
0 
0 
0 
0 
0 
0 
0 
0 
0 
0 
0 
0 
0 
0 
0 
0 
0 
0 
0 
0 
0 
0 
0 
0 
0 
0 
0 
0 
0 
0 
0 
0 
0 
0 
0 
0 
0 
0 
0 
0 
-0.1286647719701742 
0 
0 
0 
0 
0 
0 
0 
0 
0 
0 
0 
0 
0 
-0.3379745798493406 
0 
0 
0 
0 
0 
0 
0 
0 
0 
0 
0 
0 
0 
0 
0 
0 
0 
0 
0 
0 
0 
0 
0 
0 
0 
0 
0 
0 
0 
0 
0 
0 
0 
0 
0 
-1.171562117819231 
0 
0 
0 
0 
0 
0 
0 
0 
0 
0 
0 
0 
0 
0 
0 
0 
0 
0 
0 
0 
0 
0 
0 
0 
0 
0 
0 
0 
0 
0 
0 
0 
0 
0 
0 
0 
0 
0 
0 
0 
0 
0 
0 
0 
0 
0 
0 
0 
0 
0 
0 
0 
0 
0 
0 
0 
0 
0 
0 
0 
0 
0 
0 
0 
0 
0 
0 
0 
0 
0 
0 
0 
-0.06674089300022842 
0 
0 
0 
0 
0 
0 
0 
0 
0 
0 
0 
0 
0 
0 
0 
0 
0 
0 
0 
0 
0 
0 
0 
0 
0 
0 
0 
0 
0 
0 
0 
0.09284540754916927 
-0.6196247051467206 
0 
0 
0 
0 
0 
0 
0 
0 
0 
0 
0 
0 
0 
0 
0 
0 
0 
1.364287281210136 
0 
0 
0 
0 
0 
0 
0 
3.111100353423259 
0 
0 
0 
0 
0 
0 
0 
-5.925512753405718 
0 
0 
0 
0 
0 
0 
0 
0 
0 
0 
0 
0 
0 
0 
0 
0 
0 
0 
0 
0 
0 
0 
0 
0 
0 
0 
0 
0 
0 
0 
0 
0 
0 
0 
0 
0 
0 
0 
0 
0 
0 
0 
0 
0 
0 
0 
0 
0 
0 
0 
0.6479514804839329 
0 
0 
0 
0 
0 
0 
0 
0 
0 
0 
0 
0 
0 
0 
0 
0 
0 
0 
0 
0 
0 
0 
0 
0 
0 
0 
0 
0 
0 
0 
0 
0 
0 
0 
0 
0 
0 
0 
0 
0 
0 
0 
0 
0 
0 
0 
0 
0 
0 
0 
0 
0 
0 
0 
0 
0 
0 
0 
0 
0 
0 
0 
0 
0 
0 
0 
0 
0 
0 
0 
0 
0 
0 
0 
0 
0 
0 
0 
0 
0 
0.5118889415502548 
0 
0 
0 
0 
0 
0 
0 
0 
0 
0 
0 
0 
0 
0 
0 
0 
0 
0 
0 
0 
0 
0 
0.03417707410935891 
0 
0 
0 
-2.228931202901149 
0 
0 
0.7132793216923128 
0 
0 
0 
0 
0 
0 
0 
0 
0 
0 
0 
0 
0 
0 
0 
0 
-1.071002768298817 
0 
0 
0 
0 
0 
0 
0 
0 
0 
0 
0 
-0.4310912679861996 
0 
0 
0 
0 
0 
0 
0 
0 
0 
0 
0 
0 
0 
0 
0 
0 
0 
0 
0 
0 
0 
0 
0 
0 
0 
0 
0 
0 
0 
0 
0 
0 
0 
0 
0 
0 
0 
0 
0 
0 
0 
0 
0 
0 
0 
0 
0 
0 
0 
0 
0 
0 
0 
0 
0 
0 
0 
0 
0 
0 
0 
0 
0 
0 
0 
0 
0 
0.07593991332762815 
0 
0 
0 
0 
0 
-0.2745220800619123 
0 
0 
0 
0 
0 
0 
0 
0 
0 
0 
0 
0 
0 
0 
0 
0 
0 
0 
0 
0 
0 
0 
0 
0 
0 
0 
0 
0 
0 
0 
0 
0 
0 
0 
0 
0 
0 
0 
0 
0 
0 
0 
0 
0 
0 
0 
0 
0 
0 
0 
0 
0 
0 
0 
-0.1510113990053711 
0 
0 
0 
0 
0 
0 
0 
0 
0 
0 
0 
0 
0 
0 
0 
0 
0 
0 
0 
0 
0 
0 
0 
0 
0 
0 
0 
0 
0 
0 
0 
0 
0 
0 
0 
0 
0 
0 
0 
0 
0 
0 
0 
0 
0 
0 
-1.158217694785354 
0 
0 
0 
0 
0 
0 
0 
0 
0 
0 
0 
0 
0 
0 
0 
0 
0 
0 
0 
0 
0 
0 
0 
0 
0 
0 
0 
0 
0 
0 
0 
0 
0 
0 
0 
0 
0 
0 
0 
0 
0 
0 
0 
0.0805103501363011 
0 
0 
0 
0 
0 
0 
0 
0 
0 
0 
0 
0 
0 
0 
0 
0 
0 
0 
0 
0 
0 
0 
0 
0 
0 
0 
0 
0 
0 
0 
0 
0.6138353726190412 
0 
0 
0 
0 
0 
0 
0 
0 
0 
0 
0 
0 
0 
0 
0 
0 
0 
0 
0 
0 
0 
0 
0 
0.04371926491253059 
0.5481033460062627 
0 
0 
0 
0 
0 
0 
0 
0 
0 
-0.707066194844618 
0 
0 
0 
0 
0 
0 
0 
0 
0 
0 
0 
0 
0 
0 
0 
0 
0 
0 
0 
0 
0 
0 
0 
0 
0 
0 
0 
0 
0 
0 
0 
0 
0 
0 
0 
0 
0 
0 
0 
-1.031965628247998 
0 
0 
0 
0 
0 
0 
0 
0 
0 
0 
0 
0 
0 
0 
0 
-0.8649337974030366 
0 
0 
0 
0 
0 
0 
0 
0 
0 
0 
0 
0 
0 
0 
0 
0 
0 
0 
0 
0 
0 
0 
0 
0 
0 
0 
0 
0 
0 
0 
0 
0 
0 
0 
0 
0 
0 
-1.299913108210662 
0 
0 
0 
0 
0 
0 
0 
0 
0 
0 
0 
0 
0 
0 
0 
0 
0 
0 
0 
0 
0 
0 
0 
0 
0 
0 
0 
0 
0 
0 
0 
0 
0 
0 
0 
0 
0 
0 
0 
0 
0 
0 
0 
1.657265150608636 
0 
0 
0 
0 
0 
0 
0 
0 
0 
0 
0 
0 
2.220563314187646 
0 
0 
0 
0 
0 
0 
0 
0 
0 
0 
0 
0 
0 
0 
0 
0 
0 
0 
0 
0 
-0.7137937989666615 
0 
0 
0 
0 
0 
0 
0 
0 
0 
0 
0 
0 
-1.38647546864556 
0 
0 
0 
0 
0 
0 
0 
0 
0 
0 
0 
0 
0 
0 
0 
0 
0 
0 
0 
0 
0 
0 
0 
0 
0 
0 
0 
0 
0 
0 
0 
0 
0 
0 
0 
0 
0 
0 
0 
-0.9973916564054089 
0 
0 
0 
0 
0 
0 
0 
0 
0 
0 
0 
0 
0 
0 
0 
0 
0 
0 
0 
0 
0 
0 
0 
0 
0 
0 
0 
0 
0 
0 
0 
0 
0 
0 
0 
0 
0 
0 
0 
0 
0 
0 
0 
0 
0 
0 
0 
0 
0 
0 
0 
0 
0 
0 
0 
0 
0 
0 
0 
0 
0 
0 
0 
0 
0 
0 
0 
0 
0 
0 
0 
0 
0 
0 
0 
0 
0 
0 
0 
0 
0 
0 
0 
0 
0 
0 
0 
0 
0 
0 
0 
0 
0 
0 
0 
0 
-0.3039690316486993 
0 
0 
0 
0 
0 
0 
0 
0 
0 
0 
0 
0 
0 
0 
0 
0 
0 
0 
0 
0 
0 
0 
0 
0 
0 
0 
0 
0 
0 
0 
0 
0 
0 
0 
0 
0 
0 
0 
0 
0.3451450628480673 
0 
0 
0 
0 
0 
0 
0 
0 
0 
0 
0 
0 
0 
0 
0 
0 
0 
0 
0 
0 
0 
0 
0 
0 
0 
0 
0 
0 
0 
0 
0 
0 
0 
0 
0 
0 
0 
0 
0 
0 
0 
0 
0 
0 
0 
0 
0 
0 
0 
0 
0 
0 
0 
0 
0 
0 
0 
0 
0 
0 
0 
0 
0 
0 
0 
0 
0 
0 
0 
0 
0 
0 
0 
0 
0 
0 
0 
0 
0 
0 
0.1822081981324736 
0.873831541664596 
0 
0 
0 
0 
0 
0 
0 
0 
0 
0 
0 
0 
0 
0 
0 
0 
-1.077268759884944 
0 
0 
0 
0 
0 
0 
0 
0 
0 
0 
0 
0 
0 
0 
0 
0 
0 
0 
0 
0 
-0.2410523160888375 
0 
0 
0 
0 
0 
0 
0 
0 
0 
0 
0 
0 
0 
0 
0 
0 
0 
0 
-0.94104915544642 
0 
0 
0 
0 
0 
0 
0 
0 
0 
0 
0 
0 
0 
0 
0 
0 
0 
0 
0 
0 
0 
0 
0 
0 
0 
0 
0 
0 
0 
0 
0 
0 
0 
0 
0 
0 
0 
0 
0 
0 
0 
0 
0 
0 
0 
0 
0 
0 
0 
0 
0 
2.072458166582531 
0 
0 
0 
0 
0 
0 
0 
0 
0 
0.8356461986473164 
0 
0 
-1.32546058294289 
0 
0 
0 
0 
0 
0 
0 
0 
0 
1.918704040088886 
0 
0 
0 
0 
0 
0 
0 
0 
0 
0 
0 
0 
0 
0 
0 
0 
0 
0 
0 
0 
0 
0 
0 
0 
0 
0 
0 
0 
0 
0 
0 
0 
0 
0 
0 
0 
0 
0 
0 
0 
0 
0 
0 
0 
0 
0 
0 
0 
0 
0 
0 
0 
0 
0 
0 
0 
0 
0 
0 
0 
0 
0 
0 
0 
0 
0 
0 
0 
0 
0 
0 
0 
0 
0 
0 
0 
0 
0.2243053042236929 
0 
0 
0 
0 
0 
0 
0 
0 
0 
0 
0 
0 
0 
0 
0 
0 
0 
0 
0 
0 
0 
0 
0 
0 
0 
0 
0 
0 
0 
0 
0 
0 
0 
0 
0 
0 
0 
0 
0 
0 
0 
0 
0 
0 
0 
0 
0 
0 
0 
0 
0 
0 
0 
0 
0 
0 
0 
0 
0 
0 
0 
0 
0 
0 
0 
0 
0 
0 
0 
0 
0 
0 
0 
0 
0 
0 
0 
0 
0 
0 
0 
0 
0 
0 
0 
0 
0 
0 
0 
0 
0 
0 
0 
0 
0 
0 
0 
0 
0 
0 
0 
0 
0 
0 
0 
0 
0 
0 
0 
0 
0 
0 
0 
0 
0 
0 
0 
0 
0 
0 
0 
0 
0 
0 
0 
0 
0 
0 
0 
0 
0 
0 
0 
0 
0 
0 
0 
0 
0 
0 
0 
0 
0 
0 
0 
0 
0.5339097610036591 
0 
0 
0 
0 
0 
0 
0 
0 
0 
0 
0 
0 
0 
0 
0 
0 
0 
0 
0 
-0.7171220069382255 
0 
0 
0 
0 
0 
0 
0 
0 
0 
0 
0 
0 
0 
0 
0 
0 
0 
0 
0 
0 
0 
0 
0 
0 
0 
0 
0 
0 
0 
0 
0 
0 
0 
0 
0 
0 
0 
0 
-0.2908227966847017 
0 
0 
0 
0 
0 
0 
0 
0 
0 
0 
0 
0 
0 
0 
0 
0 
0 
0 
0 
0 
0 
0 
0 
0 
0 
0 
0 
0 
0 
0 
0 
0 
0 
0 
0 
0 
0 
0 
0 
0 
0 
0 
0 
0 
0 
0 
0 
0 
0 
0 
0 
0 
0 
0 
0 
0 
0 
0 
0 
0 
0 
0 
-0.1795368668579644 
0 
0 
0 
0 
0 
0 
0 
0 
0 
0 
0 
0 
0 
0 
0 
0 
0 
0 
-2.173476860761521 
0 
0 
0 
0 
0 
0 
0 
0 
0 
0 
0 
0 
0 
0 
0 
0 
0 
0 
0 
0 
0 
0 
0 
0 
0 
0 
0 
0 
0 
0 
0 
0 
-0.3620295166722167 
0 
-0.20159884593899 
0 
0 
0.4481374524921809 
0 
0 
0 
0 
0 
0 
0 
0 
0 
0 
0 
0 
0 
0 
0 
0 
0 
0 
0 
0 
0 
0 
0 
0 
0.7437751906953233 
0 
0 
0 
0 
0 
0 
0 
0 
0 
0 
0 
0 
0 
0 
0 
0 
0 
0 
0 
0 
0 
0 
0 
0 
0 
0 
0 
0 
0 
0 
0 
0 
0 
0 
0 
0 
0 
0 
0 
0 
0 
0 
0 
0 
0 
0 
0 
0 
0 
0 
0 
0 
0 
-1.423351549691585 
0 
0 
0 
0 
0 
-0.1433938321163781 
0 
0 
0 
0 
0 
0 
0 
0 
0 
0 
0 
0 
0 
0 
0 
0 
0 
0 
0 
0 
0 
0 
0 
0 
0 
0 
0 
0 
0 
0 
0 
0 
0.3898538712082627 
0 
0 
0 
0 
0 
0 
0 
0 
0 
0 
0 
0 
0 
0 
0 
0 
0 
0 
0 
0 
0 
0 
0 
-0.349846755083936 
0 
0 
0 
0 
0 
0 
0 
0 
0 
0 
0 
0 
0 
0 
0 
0 
0.495433198311628 
0 
0 
0 
0 
0 
0 
0 
0 
0 
0 
0 
0 
0 
0 
0 
0 
0 
0 
1.949081015682942 
0 
0 
0 
1.425621436913177 
0 
0 
0 
0 
0 
0 
0 
0 
0 
0 
0 
0 
0 
4.661670026102983 
0 
0 
0 
0 
0 
0 
0 
0 
0 
0 
0 
0 
0 
0 
0 
0 
0 
0 
0.03707742591766385 
0 
0 
0 
0 
0 
0 
0 
0 
0 
0 
0 
0 
0 
0 
0 
0 
0 
0 
0 
0 
0 
0 
0 
0 
0 
0 
0 
0 
0 
0 
0 
0 
0 
0 
0 
0 
0 
0 
0 
0 
0 
0 
0 
0 
0 
0 
0 
0 
0 
0 
0 
0 
0 
0 
0 
0 
0 
0 
0 
0 
0 
0 
0 
0 
0 
0 
0 
0 
0 
0 
0 
0 
0 
0 
0 
0 
0 
0 
0 
0 
0 
0 
0 
0 
0 
0 
0 
0 
0.8511388184606007 
0 
0 
0 
0 
0 
0 
0 
0 
0 
0 
0 
0 
0 
0 
0 
0 
0 
0 
0 
0 
0 
0 
0 
0 
0 
0 
0 
0 
0 
0 
0 
0 
0 
0 
0 
0 
0 
0 
0 
0 
0 
0 
0 
0 
0 
0 
0 
-0.4479353501728398 
0 
0 
0 
0 
0 
0 
0 
0 
0 
0 
0 
0 
0 
0 
0 
0 
0 
0 
0 
0 
0 
0 
0 
0 
0 
0 
0 
0 
0 
0 
0 
0 
0 
0 
0 
0 
0 
0 
-1.169157030671492 
0 
0 
0 
0 
0 
0 
0 
0.6978359190474299 
0 
0 
0 
0 
0 
0 
0 
0 
0 
0 
0 
0 
0 
0 
0 
0 
0 
0 
0 
0 
0 
0 
0 
0 
0 
0 
0 
0 
0 
0 
0 
0 
0 
0 
0 
0 
0 
0 
6.029954878539734 
0 
0 
0 
0 
0 
0 
0 
0 
0 
0 
0 
0 
0 
0 
0 
0 
0 
0 
0 
0 
0 
0 
0 
0 
0 
0 
-0.7834031345695539 
0 
0 
0 
0 
0 
0 
0 
0 
0 
0 
0 
0 
0 
0 
0 
0 
0 
0 
0 
0 
0 
0 
0 
0 
0 
0 
0 
0 
0 
-3.15544751749442 
0 
0 
0 
0 
0 
0 
0 
0 
0 
0 
0 
0 
0 
0 
0 
0 
0 
0 
0 
0 
0 
0 
0 
0 
0 
0 
1.830838224394785 
0 
0 
0 
0 
0 
0 
0 
0 
0 
0 
0 
0 
0 
0 
0 
0 
-1.117509594621493 
0 
0.003616682889970638 
0 
0 
0 
0 
0 
0 
0 
0 
0 
0 
0 
0 
0 
0 
0 
0 
0 
0 
0 
0 
0 
0 
0 
0 
0 
0 
0 
0 
0 
0 
0 
0 
0 
0 
0 
0 
0 
0 
0 
0 
0 
0 
0 
0 
0 
0 
0 
0 
0 
0 
0 
0 
0 
0 
0 
0 
0 
0 
0 
0 
0 
0 
0 
0 
0 
0 
0 
0 
0 
0 
0 
0 
0 
0 
0 
0 
0 
0 
0 
0 
0 
0 
0 
0 
0 
0 
0 
0 
0 
0 
0 
0 
0 
0 
0 
0 
0 
0 
0 
0 
0 
0 
0 
0 
0 
0 
0 
0 
0 
0 
0 
0 
0 
0 
0 
0 
0 
0 
0 
0 
0 
0 
0 
0 
0 
0 
0 
0 
0 
0 
0 
0 
0 
0 
0 
0 
0 
0 
0 
0 
0 
0 
0 
0 
0.2179132249828468 
0 
0 
0 
0 
0 
0 
0 
0 
0 
0 
0 
0 
0 
0 
0 
0 
0 
0 
0 
0 
0 
0 
0 
0 
0 
0 
0 
0 
0 
0 
0 
0 
0 
0 
0 
0 
0 
0 
0 
0 
0 
0 
0 
0 
0 
0 
0 
0 
0 
1.063069396875111 
0 
0 
0 
0 
0 
0 
0 
0 
0 
0 
0 
0 
0 
0 
0 
0 
0 
0 
0 
0 
0 
0 
0 
0 
0 
0 
0 
0 
0 
0 
0 
0 
0 
0 
0 
0 
0 
0 
0 
0 
0 
0 
0 
0 
0 
0 
0 
0 
0 
0 
0 
0 
0 
0 
0 
0 
0 
0 
0 
0 
0 
0 
0 
1.103465366257164 
0 
0 
0 
0 
0 
0 
0 
0 
0 
0 
0 
0 
0 
0 
0 
0 
0 
0 
0 
0 
0 
0 
0 
0 
0 
0 
0 
0 
0 
0 
0 
0 
0 
0 
0 
0 
0 
0 
0 
0 
0 
-0.4675461253996945 
0 
0 
0 
0 
0 
0 
0 
0 
0 
0 
0 
-0.4788505484407899 
0 
0 
0 
-0.5839349099746667 
0 
0 
0 
0 
0 
0 
0 
0 
0 
0 
0 
0 
0 
0 
0 
0 
0 
0 
0 
0 
0 
0 
0 
0 
0.2243586568715524 
0 
-0.4123247338754824 
0 
0 
0 
0 
0 
0 
0 
0 
0 
0 
0 
0 
0 
0 
0 
0 
0 
0 
0 
0 
0 
0 
0 
0 
0 
0 
0 
0 
0 
0 
0 
0 
0 
0 
0 
0 
0 
0 
0 
0 
0 
0 
0 
0 
0 
0 
0 
0 
0 
0 
0 
0 
0 
0 
0 
0 
0 
0 
0 
0 
0 
0 
0 
0 
0 
0 
0 
0 
0 
0 
0 
0 
0 
0 
0 
0 
0 
0 
0 
0 
0 
0 
0 
0 
0 
0 
0 
0 
0 
0 
0 
0 
0 
0 
0 
0 
1.692424267543856 
0 
0 
0 
0 
0 
0 
0 
0 
0 
0 
0 
0 
0 
0 
0 
0 
0 
0 
0 
0 
0 
0 
0 
0 
0 
0 
0 
0 
0 
0 
0 
0 
0 
0 
0 
0 
0 
0 
0 
0 
0 
0 
0 
0 
0 
0 
0 
0 
0 
0 
0 
0 
0 
0 
0 
0 
0 
0 
0 
0 
0 
0 
0 
0 
0 
0 
0 
0 
0 
0 
0 
0 
0 
0 
0 
0 
0 
0 
0 
0 
0 
0 
0 
0 
0 
0 
0 
0 
0 
0 
-3.471335870386769 
0 
0 
0 
0 
0 
0 
0 
0 
0 
0 
-0.6429754744682252 
0 
0 
0 
0 
0 
0 
0 
0 
0 
0 
-0.2058539512008566 
0 
0 
0 
0 
0 
0 
0 
0 
0 
0 
0.07224751643710323 
0 
0 
0 
0 
0 
0 
0 
0 
0 
0 
0 
0 
0 
0 
0 
0 
0 
0 
0 
0 
0 
0 
0 
0 
0 
0 
0 
0 
0 
0 
0 
0 
0 
0.2919737761488995 
0 
0 
0 
0 
0 
0 
0 
0 
0 
0 
0 
0 
0 
0 
0 
0 
0 
0 
0 
0 
0 
0 
0 
0 
0 
0 
0 
0 
0.3061374246746886 
0 
0 
0 
0 
0 
0 
0 
0 
0 
0 
0 
0 
0 
0 
0 
0 
0 
0 
0 
0 
0 
0 
0 
0 
0 
0 
0 
0 
0 
0 
0 
0 
0 
0 
0 
0 
0 
0 
0 
0 
0 
0 
0 
0 
0 
0 
0 
0 
0 
0 
0 
0 
0 
0 
0 
0 
0 
0 
0 
0 
0 
0 
0 
0 
0 
0 
0 
0 
0 
0 
0 
0 
0 
0 
0 
0 
0 
0 
0 
0 
0 
0 
0 
0 
0 
0 
0 
0 
0 
0 
0 
0 
0 
0 
0 
0 
0 
0 
0 
0 
0 
0 
0 
0 
0 
0 
0 
0 
0 
0 
0 
0 
0 
0 
0 
0 
0 
0 
0 
0 
0 
0 
0 
0 
0 
0 
0 
0 
0 
0 
0 
0 
0 
0 
0 
0 
0 
-0.6930140734876644 
0 
0 
0 
0 
0 
0 
0 
0 
0 
0 
1.196039515090289 
0 
0 
0 
0 
0 
0 
0 
0 
0 
0 
0 
0 
0 
3.295598915715401 
0 
0 
0 
0 
0 
0 
0 
0 
0 
0 
0 
0 
0 
0 
0 
0 
0 
0 
0 
0 
0 
0 
0 
0 
0 
0 
0 
0 
0 
0 
0 
0 
-0.7175871079351297 
0 
0 
0 
0 
0 
0 
0 
0 
0 
0 
0 
0 
0 
0 
0 
0 
0 
0 
0 
0 
0 
0 
0 
0 
0 
0 
0 
0 
0 
0 
0 
0 
-1.430772467554621 
0 
0 
0 
0 
0 
0 
0 
0 
0 
0 
0 
0 
0 
0 
0 
0 
0 
0 
0 
0 
0 
0 
0 
0 
0 
0 
0 
0 
0 
0 
0 
0 
0 
0 
0 
0 
0 
0 
0 
0 
0 
0 
0 
0 
0 
0 
0 
0 
0 
0 
0 
0 
0 
0 
0 
0 
0 
0 
0 
0 
0 
0 
0 
0 
0 
0 
0 
0 
0 
0 
0 
0 
0 
0 
0 
0 
0 
0 
0 
0 
0 
0 
0 
0 
0 
0 
0 
0 
0 
0 
0 
0 
0 
0 
0 
0 
0 
0 
0 
0 
0 
0 
0 
0 
0 
0 
0 
0 
0 
0 
0 
0 
0 
0 
0 
0 
0 
0 
0 
0 
0 
0 
0 
0.935196398234437 
0 
0 
0 
0 
0 
0 
0 
0 
0 
0 
0 
0 
0 
0 
0 
0 
0 
0 
0 
0 
0 
0 
0 
0 
0 
0 
0 
0 
0 
0 
0 
0 
0 
0 
0 
0 
0 
0 
0 
0 
0 
0 
0 
0 
0 
0 
0 
0 
0 
0 
0 
0 
0 
0 
0 
0 
0 
0 
0 
0 
0 
0 
0 
0 
0 
0 
0 
0 
0 
0 
0 
0 
0 
0 
0 
0 
0 
0 
0 
0 
0 
0 
0 
0 
0 
-0.447491456025978 
0 
0 
0 
0 
0 
0 
0 
0 
0 
0 
0 
0 
0 
0 
0 
0 
0 
0 
0 
-2.534670362332064 
0 
0 
0 
0 
0 
0 
0 
0 
0 
0 
0 
0 
0 
0 
0 
-4.086900168465891 
0 
0 
0 
0 
1.707425593846742 
0 
0 
0 
0 
0 
0 
0 
0 
0 
0 
0 
0 
0 
0 
0 
2.765048873955605 
0 
0 
0 
0 
0 
0 
0 
0 
0 
0 
0 
0 
0 
0 
0 
0 
0 
0 
0 
0 
0 
0 
0 
0 
0 
0 
0 
0 
0 
0 
0 
0 
0 
0 
0 
0 
0 
0 
0 
0 
0 
0 
0 
0 
0 
0 
0 
0 
0 
0 
0 
0 
0 
0 
0 
0 
0 
0 
0 
0 
0 
0 
0 
0 
0 
0 
0 
0 
0 
0 
0 
0 
0 
0 
0 
0 
0 
0 
0 
0 
-0.3893748062795184 
0 
0 
0 
0 
0 
0 
0 
0 
0 
0 
0 
0 
0 
0 
0 
0 
0 
0 
0 
0 
0 
0 
0 
0 
0 
0 
0 
0 
0 
0 
0 
0 
0 
0 
0 
0 
0 
0 
0 
0 
0 
0 
0 
0 
0 
0 
0 
0 
0 
0 
0 
0 
0 
0 
0 
0 
0 
0 
0 
0 
0 
0 
0 
0 
0 
0 
0 
0 
0 
0 
0 
0 
0 
0 
0 
0 
0 
0 
0 
0 
0 
0 
0 
0 
0 
0 
0 
0 
0 
0 
0 
0 
0 
0 
0 
0 
0 
0 
0 
0 
0 
0 
0 
0 
0 
0 
0 
0 
0 
0 
0 
0 
0 
0 
0 
0 
0 
0 
0 
0 
0 
0 
0 
0 
0 
0 
0 
0 
0 
0 
0 
0 
0 
0 
0 
0 
0 
0 
0 
0 
0 
0 
0 
0 
0 
0 
0 
0 
0 
0 
0 
0 
0 
0 
0 
0 
0 
0 
0 
0 
0 
0 
0 
0 
0 
0 
0 
0 
0 
0 
0 
0 
-0.9153239274272887 
0 
0 
0 
0 
0 
0 
0 
0 
-1.517784486414936 
0 
0 
-0.9643438821169044 
0 
0 
0 
0 
0 
0 
0 
0 
0 
0 
0 
0 
0 
0 
0 
0 
0 
0 
0 
0 
0 
0 
0 
0 
0 
0 
0 
0 
0 
0 
0 
0 
0 
0 
0 
0 
0 
0 
0 
0 
0 
0 
0 
0 
0 
0 
0 
0 
0 
0 
0 
1.637489030809978 
0 
0 
0 
0 
0 
0 
0 
0 
0 
0 
0 
0 
0 
0 
0 
0 
0 
0 
0 
0 
0 
0 
0 
0 
0 
0 
0 
0 
0 
0 
0 
0 
0 
0 
0 
0 
0 
0 
0 
0 
0 
0 
0 
0 
0 
0 
0 
0 
0 
0 
0 
0 
0 
0 
0 
0 
0 
0 
0 
0 
0 
0 
0 
0 
0 
0 
0 
0 
0 
0 
0 
0 
0 
0 
0 
0 
0 
0 
0 
0 
0 
0 
0 
0 
0 
0 
0 
0 
0 
0 
0 
0 
0 
0 
0 
0 
0 
0 
0 
0 
0 
0 
0 
0 
0 
0 
0 
0 
0 
0 
0 
0 
0 
0 
0 
0 
0 
0 
0 
0 
0 
0 
0 
-0.3833026156726827 
0 
0 
0 
0 
0 
0 
0 
0 
0 
0 
0 
0 
0 
0 
1.208592158430267 
0 
0 
0 
0 
0 
0 
0 
0 
0 
0 
0 
0 
0 
0 
0 
0 
0 
0 
0 
0 
0 
0 
0 
0 
0 
0 
0 
0 
0 
0 
0 
0 
0 
0 
0 
0 
0 
0 
0 
0 
0 
0 
0 
0 
0 
0 
0 
0 
0 
-0.769867995546476 
0 
0 
0 
0 
0 
0 
0 
0 
0 
0 
0 
0 
0 
0 
0 
0 
0 
0 
0 
0 
0 
0 
0 
0 
0 
0 
0 
0 
0 
0 
0 
0 
0 
0 
0 
1.416889282110685 
0 
0 
0 
0 
0 
0 
0 
0 
0 
0 
0 
0 
0 
0 
0 
0 
0 
0 
0 
0 
0 
0 
0 
0 
0 
-5.117785650444806 
0 
0 
0 
0 
0 
0 
0 
0 
0 
0 
0 
0 
0 
0 
0 
0 
0 
0 
0 
0 
0 
0 
0 
0 
0 
0 
0 
0 
0 
0 
0 
2.495603861534174 
0 
0 
0 
0 
0 
0 
0 
0 
0 
0 
0 
0 
0 
0 
0 
0 
0 
0 
0 
0 
0 
0 
0 
0 
0 
0 
0 
0 
0 
0 
0 
0 
0 
0 
0 
0 
0 
0 
0 
0 
0 
0 
0 
-0.09233781125336846 
0 
0 
0 
0 
0 
0 
0 
0 
0 
0 
0 
0 
0 
0 
0 
0 
0 
0 
0 
0 
0 
0 
0 
0 
0 
0 
0 
0 
0 
0 
0 
0 
0 
0 
0 
0 
0 
0.04654228405298936 
0 
0 
0 
0 
0 
0 
0 
0 
0 
0 
0 
0 
0 
0 
0 
0 
0 
0 
0 
0 
0 
0 
0 
0 
-2.897059105788673 
0 
0 
0 
0 
0 
1.163689103134439 
0 
0 
0 
0 
0 
0 
0 
0 
0 
0 
0 
0 
0 
0 
0 
0 
0 
0 
0 
0 
0 
0 
0 
0 
0 
0 
0 
0 
0 
0 
0 
0 
0 
0 
0 
0 
0 
0 
0 
0 
0 
0 
0 
0 
0 
0 
0 
0 
0 
0 
0 
0 
0 
0 
0 
0 
0 
0 
0 
0 
0 
0 
0 
0 
0 
0 
0 
0 
0 
0 
0 
0 
0 
0 
0 
0 
0 
0 
0 
0 
0 
0 
0 
0 
0 
0 
-0.198097802907774 
0 
0 
0 
0 
0 
0 
0 
0 
0 
0 
0 
0 
0 
0 
0 
0 
0 
0 
0 
0 
0 
0 
0 
0 
0 
0 
0 
0 
0 
0 
0 
0 
0 
0 
0 
0 
0 
0 
0 
0 
0 
0 
0 
0 
0 
0 
0 
0 
0 
0 
0 
0 
0 
0 
0 
0 
0 
0 
0 
0 
0 
0 
0 
0 
0 
0.5251621035447835 
0 
0 
-0.7412470881824097 
0 
0 
0 
0 
0 
0 
0 
0 
0 
0 
0 
0 
0 
0 
0 
0 
0 
0 
0 
0 
0 
0 
0 
0 
0 
0 
0 
0 
0 
0 
0 
0 
0 
0 
0 
0 
0 
0 
0 
0 
0 
0 
0 
0 
0 
0 
0 
0 
0 
0 
0 
0 
0 
0 
0 
0 
0 
0 
0 
0 
0 
0 
0 
0 
0 
0 
0 
0 
0 
0 
0 
0 
0 
0 
0 
0 
0 
0 
0 
0 
0 
0 
0 
0 
0 
0 
0 
0 
0 
0 
0 
0 
0 
0 
0 
0 
0 
0 
0 
0 
0 
0 
0 
0 
0 
0 
0 
0 
0 
0 
0 
0 
0 
0 
0 
0 
0 
0 
0 
0 
0 
0 
0 
0 
0 
0 
0 
0 
0 
0 
0 
0 
0 
0 
0 
0 
0 
0 
0 
0 
0 
0 
0 
0 
0 
0 
0 
0 
0 
0 
0 
0 
0 
0 
0 
0 
0 
0 
0 
0 
0 
0 
0 
0 
0 
0 
0 
0 
0 
0 
0 
0 
0 
0 
0 
0 
0 
0 
0 
0 
0 
0 
0 
0 
0 
0 
0 
0 
0 
0 
0 
0 
0 
0 
0 
0 
-0.9309733581446565 
0 
0 
0 
0 
0 
0 
0 
0 
0 
0 
1.743432501873333 
0 
0 
0 
0 
0 
0 
0 
0 
0 
0 
0 
0 
0 
0 
0 
0 
0 
0 
0 
0 
0 
0 
0 
0 
0 
0 
0 
0 
0 
0 
0 
0 
0 
0 
0 
0 
0 
0 
0 
0 
0 
0 
0 
0 
0 
0 
0 
0 
0 
0 
0 
0 
0 
0 
0 
0 
0 
0 
0 
0 
0 
0 
0 
0 
0 
0 
0 
0 
0 
0 
0 
0 
0 
0 
0 
0 
0 
0 
0 
0 
0 
0 
0 
0 
0 
0 
0 
0 
0 
0 
0 
0 
0 
0 
0 
0 
0 
0 
0 
0 
0 
0 
0 
0 
0 
0 
0 
0 
0 
0 
0 
0 
0 
0 
0 
0 
0 
0 
0 
0 
0 
0 
0 
0 
0 
0 
0 
0 
0 
0 
0 
0 
0 
0 
0 
0 
0 
0 
0 
0 
0 
0.6819281472137257 
0 
0 
0 
0 
0 
0 
0 
0 
0 
0 
0 
0 
0 
0 
0 
0 
0 
0 
0 
0 
0 
0 
0 
0 
0 
0 
0 
0 
0 
0 
0 
0 
0 
0 
0 
0 
0 
0 
0 
0 
0 
0 
0 
0 
0 
0 
0 
0 
0 
0 
0 
0 
0 
0 
0 
0 
0 
0 
0 
0 
0 
0 
0 
0 
0 
0 
0 
0 
0 
0 
0 
0 
0 
0 
0 
0 
0 
0 
0 
0 
0 
0 
0 
0 
0 
0 
0 
0 
0 
0 
0 
0 
0 
0 
0 
0 
0 
0 
0 
0 
0 
0 
0 
0 
0 
0 
0 
-0.9637715045131858 
0 
0 
0 
0 
0 
0 
0 
0 
0 
0 
0 
0 
0 
0 
0 
0 
0 
0 
0 
0 
0 
0 
0 
0 
0 
0 
0 
0 
0 
0 
1.454878691115325 
0 
0 
0 
0 
0 
0 
0 
0 
0 
0 
0 
0 
0 
0 
0 
0 
0 
0 
0 
0 
0 
0 
0 
0 
0 
0 
0 
0 
0 
0 
0 
0 
0 
0 
0 
0 
0 
0 
0 
0 
0 
0 
0 
0 
-1.183166001346391 
0 
0 
0 
0 
0 
0 
0 
-2.849707024803514 
0 
0 
2.261864816237269 
0 
0 
0 
0 
0 
0 
0 
0 
0 
0 
0 
0 
0 
0 
0 
-0.643314383788455 
0 
0 
0 
0 
0 
0 
0 
0 
0 
0 
0 
0 
0 
0 
0 
0 
0 
0 
0 
0 
0 
0 
0 
0 
0 
0 
0 
0 
0 
0 
0 
0 
0 
0 
0 
0 
0 
0 
0 
0 
0 
0 
0 
0 
0 
0 
0 
0 
0 
0 
0 
0 
0 
0 
0 
0 
0 
0 
0 
0 
0 
0 
0 
-0.4611887836646368 
0 
0 
0 
0 
0 
0 
0 
0 
0 
0 
0 
0 
0 
0 
0 
0 
0 
0 
0 
0 
0 
0 
0 
0 
0 
0 
0 
0 
0 
0 
0 
0 
0 
0 
0 
0 
0 
0 
0 
0 
0 
0 
0 
0 
0 
0 
0 
0 
0 
0 
0 
0 
0 
0 
0 
0 
0 
0 
0 
0 
0 
0 
0 
0 
0 
0 
0 
0 
0 
0 
0 
0 
0 
0 
0 
0 
0 
0 
0 
0 
0 
0 
0 
0 
0 
0 
0 
0 
0 
0 
0 
0 
0 
0 
0 
0 
0 
0 
0 
0 
0 
0 
0 
0 
0 
0 
0 
0 
0 
0 
0 
0 
0 
0 
0 
1.110140432669682 
0 
0 
0 
-2.371004874192424 
0 
0 
0 
0 
0 
0 
0 
0 
0 
0 
0 
0 
0 
0 
0 
0 
0 
0 
0 
0 
0 
0 
0 
0 
0 
0 
0 
0 
0 
0 
-0.8429599802221167 
0 
0 
0 
-3.064483242483439 
0 
0 
0 
0 
0 
0 
0 
0 
0 
0 
0 
0 
0 
0 
0 
0 
0 
0 
0 
0 
0 
0 
0 
0 
0 
0 
0 
0 
0 
0 
0 
0 
0 
0 
0 
0 
0 
0 
0 
0 
0 
0 
0 
0 
0 
0 
0 
0 
0 
0 
0 
0 
0 
0 
0 
0 
0 
0 
0 
0 
0 
0 
0 
0 
0 
0 
0 
0 
0 
0 
0 
0 
0 
0 
0 
0 
0 
0 
0 
0 
0 
0 
0 
0 
0 
0 
0 
0 
0 
0 
0 
0 
0 
0 
0 
0 
0 
0 
0 
0 
0 
0 
0 
0 
0 
0 
0 
0 
0 
0 
0 
0 
0 
0 
0 
0 
0 
0 
0 
0 
0 
0 
0 
0 
0 
0 
0 
0 
0 
0 
0 
0 
0 
0 
0 
0 
0 
0 
0 
0 
0 
0 
0 
0 
0 
0 
0 
0 
0 
0 
0 
-0.6085889448253474 
0 
0 
0 
0 
0 
0 
0 
0 
0 
0 
0 
0 
0 
0 
0 
0 
0 
0 
0 
0 
0 
0 
0 
0 
0 
0 
0 
0 
0 
0 
0 
0 
0 
0 
0 
0 
0 
0 
0 
0 
0 
0 
0 
0 
0 
0 
0 
0 
0 
0 
0 
0 
0 
0 
0 
0 
0 
0 
0 
0 
0 
1.42355628184389 
0 
0 
0 
0 
0 
0 
0 
0 
0 
0 
0 
0 
0 
0 
0 
0 
0 
0 
0 
0 
0 
0 
0 
0 
0 
0 
0 
-0.7633165709397179 
0 
0 
-0.104595691380087 
0 
0 
0 
0 
0 
0 
0 
0 
0 
0 
0 
0 
0 
0 
0 
0 
0 
0 
0 
0 
0 
0 
0 
0 
0 
0 
0 
0 
0 
0 
0 
0 
-0.6379807483354659 
0 
0 
0 
0 
0 
0 
0 
0 
0 
0 
0 
0 
0 
0 
-0.3756848280271206 
0 
0 
0 
0 
0 
0 
0 
0 
0 
0 
0 
0 
0 
0 
0 
0 
0 
0 
0 
0 
0 
0 
0 
0 
0 
0 
0 
0 
0 
0 
0 
0 
0 
0 
0 
0 
0 
0 
0 
0 
0 
0 
0 
0 
0 
0 
0 
0 
0.9275904921801049 
0 
0 
0 
0 
0 
0 
0 
0 
0 
0 
0 
0 
0 
0 
0 
0 
0 
0 
0 
0 
0 
0 
0 
0 
0 
0 
0 
0 
0 
0 
0 
0 
0 
0 
0 
0 
0 
0 
0 
0 
0 
0 
0 
0 
0 
0 
0 
0 
0 
0 
0 
0 
0 
0 
0 
0 
0 
0 
0 
0 
0 
0 
0 
0 
0 
0 
0 
0 
0 
0 
0 
0 
0 
0 
0 
0 
0 
0 
0 
0 
0 
0 
0 
0 
0 
0 
0 
0 
0 
0 
0 
0 
0 
0 
0 
0 
0 
0 
0 
0 
0 
0 
0 
0 
0 
0 
0 
0 
0 
0 
0 
-4.056792699850802 
0 
0 
0 
0 
0 
0 
0 
0 
0 
0 
0 
0 
0 
0 
0 
0 
0 
0 
0 
0 
0 
0 
0 
0 
0 
0 
0 
0 
0 
0 
0 
0 
0 
0 
0 
0 
0 
0 
0 
0 
0 
0 
0 
0 
0 
0 
0 
0 
0 
0 
0 
0 
0 
0 
0 
0 
0 
0 
0 
0 
0 
0 
0 
0 
0 
0 
0 
0 
0 
0 
0 
0 
0 
0 
0 
-1.339646245645996 
0 
0 
0 
0 
0 
0 
0 
0 
0 
0 
0 
0 
0 
0 
0 
0 
0 
0 
0 
0 
0 
0 
0 
0 
0 
0 
0 
0 
0 
0 
0 
0 
0 
0 
0 
0 
0 
0 
0 
0 
0 
0 
0 
0 
0 
0 
0 
0 
0 
0 
0 
0 
0 
0.5615814733932991 
0 
0 
0 
0 
0 
0 
0 
0 
0 
0 
0 
0 
0 
0 
0 
-1.734602832094446 
0 
0 
0 
0 
0 
0 
0 
0 
0 
0 
0 
0 
0 
0 
0 
0 
0 
0 
0 
0 
0 
0 
0 
-0.9646096117281423 
0 
0 
0 
0 
0 
0 
0 
0 
0 
0 
-0.08356245381318109 
0 
0 
0 
0 
0 
0 
0 
0 
0 
0 
0 
0 
0 
0 
0 
0 
0 
0 
0 
0 
0 
0 
0 
0 
0 
0 
0 
0 
0 
0 
0 
0 
0 
0 
0 
0 
0 
0 
0 
0 
0 
0 
0 
0 
0 
0 
0 
0 
0 
0 
0 
0 
0 
0 
0 
0 
0 
0 
0 
0 
0 
0 
0 
0 
0 
0 
0 
0 
0 
0 
0 
0 
0 
0 
0 
0 
0 
0 
0 
0 
0 
-2.128224126476259 
0 
0 
0 
0 
0 
0 
0 
0 
0 
0 
0 
0 
0 
0 
0 
0 
0 
0 
0 
0 
-1.455149807737088 
0 
0 
0 
0 
0 
0 
0 
0 
0 
0 
0 
0 
0 
0 
0 
0 
0 
0 
0 
0 
0 
0 
0 
0 
0 
0 
0 
0 
0 
-0.900970743042132 
0 
0 
0 
0 
0 
0 
0 
0 
0 
0 
0 
0 
0 
0 
0 
0 
0 
0 
0 
0 
0 
0 
0 
0 
0 
0 
0 
0 
0 
0 
-0.5373117085889967 
0 
0 
0 
0 
-0.423794780109613 
0 
0 
0 
0 
0 
0 
0 
0 
0 
0 
0 
0 
0 
0 
0 
0 
0 
0 
0 
0 
0 
0 
0 
0 
0 
0 
0 
0 
0 
0 
0 
0 
0 
0 
0 
0 
0 
0 
0 
0 
0 
0 
0 
0 
0 
0 
0 
0 
0 
0 
0 
0 
1.638774186939979 
0 
0 
0 
0 
0 
0 
0 
0 
-2.552346183978828 
0 
0 
0 
0 
0 
0 
0 
0 
0 
0 
0 
0 
0 
0 
0 
0 
0 
0 
0 
0 
0 
0 
0 
0 
0 
0 
0 
0 
0 
0 
0 
0 
0 
0 
0 
0 
0 
0 
0 
0 
0 
0 
0 
0 
0 
0 
0 
0 
-0.03668355301779205 
0 
0 
0 
0 
0 
0 
0 
0 
0 
0 
0 
0 
0 
0 
0 
0 
0 
0 
0 
0 
0 
0 
0 
0 
0 
0 
0 
0 
0 
0 
0 
0 
0 
0 
0 
0 
-1.775101809921566 
-0.6509719868246459 
0 
0 
0 
0 
0 
0 
0.9747816789367793 
0 
0 
0 
0 
0 
0 
0 
0 
0 
0 
0 
0 
-3.969246613989793 
0 
0 
0 
0 
0 
0 
0 
0 
0 
0 
0 
0 
0 
0 
0 
0 
0 
0 
0 
0 
0 
0 
0 
0 
0 
0 
0 
0 
0 
0 
0 
0 
0 
0 
0 
0 
0 
0 
0 
-0.2339096340007879 
0 
0 
0 
0 
0 
0 
0 
0 
0 
0 
0 
0 
0 
0 
0 
0 
0 
0 
0 
0 
0 
0 
0 
0 
0 
0 
0 
0 
0 
0 
0 
0 
0 
0 
0 
0 
0 
0 
0 
0 
0 
0 
0 
0 
0 
0 
0 
-4.31283273189891 
0 
0 
0 
2.786768706434306 
0 
0 
0 
0 
0 
0 
0 
0 
0.5647429651974153 
0 
0 
0 
0 
0 
-3.7911796328744 
0 
0 
0 
0 
0 
0 
1.159355075815714 
0 
0 
0 
0 
0 
0 
0 
0 
0 
0 
0 
0 
0 
0 
0 
0 
0 
0 
0 
0 
0 
-0.7479485043214398 
0 
2.377687600807911 
0 
0 
0 
0 
0 
0 
0 
0 
0 
0 
0 
0 
0 
0 
0 
0 
0 
0 
0 
0 
0 
0 
0 
0 
0 
0 
0 
0 
0 
0 
0 
0 
-0.5764627292931119 
0 
0 
0 
0 
0 
0 
0 
0 
0 
0 
0 
0 
0 
0 
0 
0 
0 
0 
0 
0 
0 
0 
0 
0 
0 
0 
0 
0 
0 
0 
0 
0 
0 
0 
0 
0 
0 
0 
0 
0 
0 
0 
0 
0 
0 
0 
0 
0 
0 
0 
0 
0 
0 
0 
0 
0 
0 
0 
0 
0 
0 
0 
0 
1.167807270564735 
0 
0 
0 
0 
0.5676728942256663 
0 
0 
0 
0 
0 
0 
0 
0 
0 
0 
0 
0 
0 
0 
0 
0 
0 
0 
0 
0.7129058482543751 
0 
0 
0 
0 
0 
0 
0 
0 
0 
0 
0 
0 
0 
0 
0 
0 
0 
0 
0.1697480635622004 
0 
0 
0 
0 
0 
0 
0 
0 
0 
0 
0 
0 
0 
0 
0 
0 
0 
0 
0 
0 
0 
0 
0 
0 
0 
0 
0 
0 
0 
0 
0 
0 
0 
0 
0 
0 
0 
0 
0 
0 
0 
0 
0 
0 
0 
0 
0 
0 
0 
0 
0 
0 
0 
0 
1.860423720518006 
0 
0 
0 
0 
0 
0 
0 
0 
0 
0 
0 
0 
0 
0 
0 
0 
0 
0 
0 
0 
0 
0 
0 
0 
0 
0 
0 
0 
0 
0 
0 
-1.776505804330195 
0 
0 
0 
0 
0 
0 
0 
0 
0 
0 
0 
0 
0 
0 
0 
0 
0 
0 
0 
0 
0 
0 
2.819341165275695 
0 
0 
0 
0 
0 
0 
0 
0 
0 
0 
0 
0 
0 
0 
0 
0 
0 
0 
0 
0 
0 
0 
0 
0 
0 
0 
0 
0 
0 
0 
0 
0 
0 
0 
0 
0 
0 
0 
0 
0 
0 
0 
0 
0 
0 
0 
0 
0 
0 
0 
0 
0 
0 
0 
0 
0 
0 
0 
0 
0 
0 
0 
0 
0 
0 
0 
0 
0 
0 
0 
0 
0 
0 
0 
0 
0 
0 
0 
0 
0 
0 
0 
0 
0 
0 
0 
0 
0 
0 
0 
0 
0 
0 
0 
0 
0 
0 
0.3723692044821003 
0 
0 
0 
0 
0 
0 
0 
0 
0 
0 
0 
0 
0 
0 
0 
0 
0 
0 
0 
0 
0 
0 
0 
0 
0 
0 
0 
0 
0 
0 
0.5152243725716553 
0 
0 
0 
0 
0 
0 
0 
0 
0 
0 
0 
0 
0 
0 
0 
0 
0 
0 
0 
0 
0 
0 
0 
0 
0 
0 
0 
0 
0 
0 
0 
0 
0 
0 
0 
0 
0 
0 
0 
0 
0 
0 
0 
0 
0 
0 
0 
0 
0 
0.1127550170242602 
0 
0 
0 
0 
0 
0 
0 
0 
0 
0 
0 
0 
0 
0 
0 
0 
0 
0 
0 
0 
0 
0 
0 
0 
0 
0 
0 
0 
0 
0 
0 
0 
0 
0 
0 
0 
0 
0 
1.700091167492059 
0 
0 
0 
0 
0 
0 
0 
0 
0 
0 
0 
0 
0 
0 
0 
0 
0 
0 
0 
0 
0 
0 
0 
-0.4151539125743491 
0 
0 
0 
0 
0 
0 
0 
0 
0 
0 
0 
0 
0 
0 
0 
0 
0 
0 
0 
0 
0 
0 
0 
0 
0 
0 
0 
0 
0 
0 
0 
0 
0 
0 
0 
0 
0 
0 
0 
0 
0 
0 
0 
0 
0 
0 
0 
0 
0 
0 
0 
0 
0 
0 
0 
0 
0 
0 
0 
0 
0 
0 
0 
0 
0 
0 
1.743004731010428 
0 
0 
0.5235095866414151 
0 
0 
0 
0 
0 
0 
0 
0 
0 
0 
0 
0 
0 
0 
0 
0 
0 
0 
0 
0 
0 
0 
0 
0 
0 
0 
0 
0 
0 
0 
0 
0 
0 
0 
0 
0 
0 
0 
0 
0 
0 
0 
0 
0 
0 
0 
0 
0 
0 
0 
0 
0 
0 
0 
0 
0 
0 
0 
0 
0 
0 
0 
0 
0 
0 
0 
0 
0 
-0.8652365610820256 
0 
0 
0 
0 
0 
0 
0 
0 
0 
0 
0 
0 
0 
0.346714706237083 
0 
0 
0 
0 
0 
0 
0 
0 
0 
0 
0 
0 
0 
0 
0 
0 
0 
0 
0 
0 
0 
0 
0 
0 
0 
0 
0 
0 
0 
0 
0 
0 
0 
0 
0 
0 
0 
0 
0 
0 
0 
0 
0 
0 
1.265609452325216 
0 
0 
0 
0 
0 
0 
0 
0 
-1.446441026217988 
0 
0 
0 
0 
0 
0 
0 
0 
0 
0 
0 
0 
0 
0 
0 
0 
0 
0 
0 
0 
0 
0 
0 
0 
0 
0 
0 
0 
0 
0 
0 
0 
0 
0 
0 
0 
0 
0 
0 
0 
0 
0 
0 
0 
0 
0 
0 
0 
0 
0 
0 
0 
0 
0 
0 
0 
0 
0 
0 
0 
0 
0 
0 
0 
0 
0 
0 
0 
0 
0 
0 
0 
0 
0 
0 
-0.05084760713028682 
0 
0 
0 
0 
0 
0 
0 
0 
0 
0 
0 
0 
0 
0 
0 
0 
0 
0 
0 
0 
0 
0 
0 
0 
0 
0 
0 
0 
0 
0 
0 
0 
0 
0 
0 
0 
0 
0 
0 
0 
0 
0 
0 
0 
0 
0 
0 
0 
0 
0 
0 
0 
0 
0 
0 
0 
0 
0 
0 
0 
0 
0 
0 
0 
0 
0 
0 
0 
0 
0 
0 
0 
0 
0 
0 
0 
0 
0 
0 
0 
0 
0 
0 
0 
0 
0 
0 
0 
0 
0 
0 
0 
0 
0 
0 
0 
0 
0 
0 
0 
0 
0 
0 
0 
0 
0 
0 
0 
0 
0 
0 
0 
0 
0 
0 
0 
0 
0 
0 
0 
0 
0 
0 
0 
0 
0 
0 
0 
0 
0 
0 
0 
0 
0 
0 
0 
0 
0 
0 
0 
0 
0 
0 
0 
0 
0 
0 
0 
0 
0 
1.566802036590033 
0 
0 
0.8744821313616273 
0 
0 
1.277180659796274 
0 
0 
0 
0 
0 
0 
0 
0 
0 
0 
-1.494814493345102 
0 
0 
0 
0 
-0.7757276454052544 
0 
0 
0 
0 
0 
0 
0 
0 
0 
0 
0 
0 
0 
0 
0 
0 
0 
0 
0 
0 
0 
0 
0 
0 
-0.1711710373897747 
0 
0 
0 
0 
0 
0 
0 
0 
0 
0 
0 
0 
0 
0 
0 
2.551791947858673 
0.4559564507068293 
0 
0 
0 
0 
0 
0 
0 
0 
0 
0 
-0.1019240827535208 
-1.899793993187366 
0 
0 
0 
0 
1.130286665520079 
0 
-2.318616428274386 
0 
0 
0 
0 
0 
0 
0 
0 
0 
0 
0 
0 
0 
0 
-0.1681011849827452 
0 
0 
0 
0 
0 
0 
0 
0 
-0.9017173612607219 
0 
0 
0 
0 
0 
0 
0 
0 
0.4549785868585474 
0 
0 
0 
0 
0 
0.8932325473537144 
0 
0 
0.2270353744643909 
0 
0 
0 
0 
0 
2.161942425476256 
0 
0 
0 
0 
0 
0.3518022196153975 
0 
0 
0.7874398111508205 
0 
0 
0 
0 
0 
0 
0 
0 
0 
0 
0 
0.8825776094738805 
0 
0 
0 
0 
0 
0 
0 
0 
0 
0 
0 
0 
0.9238233257513624 
0 
0 
0 
0 
0 
0 
0 
0 
0 
0 
0 
0 
0 
0 
0.3971484857837844 
0 
0 
0 
0 
0 
0 
0 
0 
0 
0 
0 
0 
0 
0 
-0.9561806857171715 
0 
0 
0 
0 
0 
0 
0 
0 
0 
0 
0 
0 
0 
0 
0 
0 
0 
0 
0 
0 
0 
0 
0 
0 
0 
0 
0 
0 
0 
0 
0 
0 
0 
0 
0 
0 
0 
0 
0 
0 
-0.7507201673178751 
0 
0 
0 
0 
0 
0 
0 
0 
0 
-2.970013173398031 
0 
0 
0 
0 
0 
0 
0 
0 
0 
0 
0 
0 
-4.704613658944084 
0 
0 
0 
-0.1412230979303595 
0 
0 
-2.192859633092548 
0 
0 
0 
0 
0 
0 
0 
0 
0 
0 
0 
0 
0 
0 
0 
0 
0 
0 
0 
0 
0 
0 
0 
0 
0 
0 
0 
0 
0 
0 
0 
0 
0 
0 
0 
0 
0 
0 
0 
0 
0 
0 
0 
0 
0 
-1.756478714786293 
0 
0 
0 
0 
0 
0 
0 
0 
0 
0 
0 
0 
0 
0 
0 
0 
0 
0 
0 
0 
0 
0 
0 
0 
0 
0 
0 
0 
0 
0 
0 
0 
0 
0 
0 
0 
0 
0 
0 
0 
0 
0 
0 
0 
0 
0 
0 
0 
0 
0 
0 
0 
0 
0 
0 
0 
0 
0 
0 
-1.982835610563369 
0 
0 
0 
0 
0 
0 
0 
0 
0 
0 
0 
0 
0 
0 
0 
0 
0 
0 
0 
0 
0 
0 
0 
0 
0 
0 
0 
0 
0 
0 
0 
0 
0 
0 
0 
0 
0 
0 
0 
0 
0 
0 
0 
0 
0 
0 
-4.2089126848693 
0 
0 
0 
0 
-3.095470565162434 
0 
0 
0 
0 
0 
0 
0 
0 
0 
0 
0 
0 
-0.1831032887824251 
0 
0 
0 
0 
0 
0 
0 
0 
0 
0 
0 
0 
0 
0 
0 
0 
0 
0 
0 
0 
0 
0 
0 
0 
0 
0 
0 
0 
0 
0 
0 
0 
0 
0 
0 
0 
0 
0 
0 
0 
0 
0 
0 
0 
0 
0 
0 
0 
0 
0 
0 
0 
0 
0 
0 
0 
0 
0 
0 
0 
0 
0 
0 
-3.414254602869585 
0 
0 
0 
0 
0 
0 
0 
0 
0 
0 
0 
0 
0 
0 
0 
0 
0 
0 
0 
-2.454504865225949 
0 
0 
0 
0 
0 
0 
0 
0 
0 
0 
0 
0 
0 
0 
0 
0 
0 
0 
0 
0 
0 
0 
0 
0 
0 
0 
0 
-0.729164468349667 
0 
0 
0 
0 
0 
0 
0 
0 
0 
0 
0 
0 
0 
0 
0 
0 
0 
0 
0 
0 
0 
0 
0 
0 
0 
0 
0 
0 
0 
0 
0 
0 
0 
0 
0 
0 
0 
0 
0 
0 
0 
0 
0.8480295858365433 
0 
0 
0 
-1.971344637167382 
-0.7666070521814009 
0 
0 
0 
0 
0 
0 
0 
0 
-1.632558268906159 
-2.30274018574936 
0 
0 
0 
0 
0 
0 
0 
0 
-1.624623908974474 
0 
0 
0 
0 
0 
0 
0 
0 
0 
0 
0 
0 
0 
0 
0 
0 
0 
0 
0 
0 
0 
0 
0 
0 
0 
0 
0 
0 
0 
0 
0 
0 
0 
0 
0 
0 
0 
0 
0 
0 
0 
0 
0 
0 
0 
0 
0 
0 
0 
0 
0 
0 
0 
0 
0 
0 
0 
0 
0 
0.6849726738756479 
0 
0 
0 
0 
0 
0 
0 
0 
0 
0 
0 
0 
0 
0 
0 
0 
0 
0 
0 
0 
0 
0 
0 
0 
0 
0 
0 
0 
0 
0 
0 
0 
0 
0 
0 
0 
0 
0 
0 
0 
0 
0 
0 
0 
0 
0 
0 
0 
0 
0 
0 
0 
0 
0.5620996339983012 
0 
0 
0 
0 
0 
0 
0 
0 
0 
0 
0 
0 
0 
0 
0 
0 
0 
0 
0 
0 
0 
0 
0 
0 
0 
0 
0 
0 
0 
0 
0 
0 
0 
0 
0 
0 
0 
0 
0 
0 
0 
0 
0 
0 
0 
0.7267693403452387 
0 
0 
0 
0 
0 
0 
0 
0 
0 
0 
0 
0 
0 
0 
0 
0 
0 
0 
0 
0 
0 
0 
0 
0 
0 
0 
0 
0 
0 
0 
0 
0 
0 
0 
0 
0 
0 
0 
0 
0 
0 
-0.2601990252453308 
0 
0 
0 
0 
0 
0 
0 
0 
1.110764709949918 
0 
0 
0 
0 
0 
0 
0 
0 
0 
0 
0 
0 
0 
0 
0 
0 
0 
0 
0 
0 
0 
0 
0 
0 
0 
0 
0 
0 
0 
0 
0 
0 
0 
0 
0 
0 
0 
0 
0 
0 
0 
0 
0 
0 
0 
0 
0 
0 
0 
0 
0 
0 
0 
0 
0 
0 
0 
0 
0 
0 
0 
0 
0 
0 
0 
0 
0 
0 
0 
0 
0 
0 
0 
0 
0 
0 
0 
0 
0 
0 
0 
0 
0 
0 
0 
0 
0 
0 
0 
0 
0 
0 
0 
0 
0 
-1.020568433383941 
0 
0 
0 
0 
0 
0 
0 
0 
0 
0 
0 
0 
0 
0 
0 
0 
0 
0 
0 
0 
0 
0 
0 
0 
0 
0 
0 
0 
0 
0 
0 
0 
0 
2.610711210963848 
0 
0 
0 
0 
0 
0 
0 
0 
0 
0 
0 
0 
0 
0 
0 
0 
0 
0 
0 
0 
0 
0 
0 
0 
0 
0 
0 
0 
0 
0 
0 
0 
0 
0 
0 
0 
0 
0 
0 
0 
0 
0 
0 
0 
0 
0 
0 
0 
0 
0 
0 
0 
0 
0 
0 
0 
0 
0 
0 
0 
0 
0 
0 
0 
0 
0 
0 
0 
0 
0 
0 
0 
0 
0 
0 
0 
0 
0 
0 
0 
0 
0 
0 
0 
0 
0 
0 
0 
0 
0 
0 
0 
0 
0 
0 
0 
0 
0 
0 
0 
0 
0 
0 
0 
0 
0 
0 
0 
0 
0 
0 
0 
0 
0 
0.6603905677434867 
0 
0 
0 
0 
0 
0 
0 
0 
0 
0 
0 
0 
0 
0 
0 
0 
0 
0 
0 
0 
0 
0 
0 
0 
0 
0 
0 
0.3500523828892531 
0 
0 
0 
0 
0 
0 
0 
0 
0 
0 
0 
0 
0 
0 
0 
0 
0 
0 
0 
0 
0 
0 
0 
0 
0 
0 
0 
0 
0 
0 
0 
0 
0 
0 
0 
0 
0 
0 
0 
0 
0 
0 
0 
0 
0 
0 
0 
0 
-0.0647658419859484 
0 
0 
0 
-1.244512804808545 
0 
0 
0 
0 
0 
0 
0 
0 
0 
0 
0 
0 
0 
0 
0 
0 
0 
0 
0 
0 
0 
0 
0 
0 
0 
0 
0.4062238108654101 
0 
0 
0 
0 
3.38113245441885 
0 
0 
0 
0 
0 
0 
0 
0 
0 
0 
0 
0 
0 
0 
0 
0 
0 
0 
0 
0 
0 
0 
0 
0 
0 
0 
0 
0 
0 
0 
0 
0 
0 
0.0912772249504545 
0 
0 
0 
0 
0 
0 
0 
-0.09959525871633615 
0 
0 
0 
0 
0 
-1.642186344290555 
0 
0 
0 
0 
0 
0 
0 
0 
0 
0 
0 
0 
0 
0 
0 
0 
0 
0 
0 
0 
0 
0 
0 
0 
0 
0 
0 
0 
0 
0 
0 
-1.348949860403174 
0 
0 
0 
0 
0 
0 
0 
-0.5141477050939072 
0 
0 
0 
0 
0 
0 
0 
0 
0 
0 
0 
0 
0 
0 
0 
0 
0 
0 
0 
0 
0 
0 
0 
0 
0 
0 
0 
0 
0 
0 
0 
0 
0 
0 
0 
0 
0 
-0.159356097521139 
0 
0 
0 
0 
0 
0 
0 
0 
0 
0 
0 
0 
0 
1.585488578264612 
0 
0 
0 
0 
0 
0 
0 
0 
0 
0 
0 
0 
0 
0 
0 
0 
0 
0 
0 
0 
0 
0 
0 
0 
0 
0 
0 
0 
0 
0 
0 
0 
0 
0 
0 
0 
0 
0 
0 
0 
0 
0 
0 
0 
0 
0 
0 
0 
0 
0 
0 
0 
0 
0 
0 
0 
0 
0 
0 
0 
0 
0 
0 
0 
0 
0 
0 
0 
0 
0 
0 
0 
0 
0 
0 
0 
0 
0 
0 
0 
0 
0 
0 
0 
0 
0 
0 
0 
0 
0 
0 
0 
0 
0 
0 
0 
0 
0 
0 
0 
0 
0 
0 
0 
0 
0 
0 
0 
0 
0 
0 
0 
0 
0 
0 
0.3593505215716655 
0 
0 
0 
0 
0 
0 
0 
0 
-2.513483897132511 
0 
0 
0 
0 
0 
0 
0 
0 
0 
0.6832135704874127 
-2.403563805023812 
0 
0 
0 
0 
0 
0 
0 
0 
0 
0 
-0.8959457929061677 
0 
0 
0.8656011776614264 
0 
0 
0 
0 
0 
1.147905135616395 
0 
0 
0 
0 
0 
0 
0 
0 
0 
0 
0 
0 
0 
0 
0 
0 
0.9317863786593764 
0 
0 
0 
0 
0 
0 
0 
0 
0 
0 
5.844216599871879 
-1.859842243564216 
0 
0 
0 
0 
0 
0 
0 
0 
0 
0 
0.3661640644016177 
0 
0 
0 
0 
0 
-0.2752264268461569 
0 
0 
0 
0 
0 
0 
0 
0 
0 
0 
0 
0.02990334746114701 
0 
0 
0 
0 
0 
0 
0 
0 
0 
0 
0 
0 
0 
0 
0 
0 
0 
0 
0 
0 
0 
0 
0 
0 
0 
0 
0 
0 
0 
0 
0 
0 
0 
0 
0 
0 
0 
0 
0 
0 
0 
0 
0 
0 
0 
0 
0 
0 
0 
0 
0 
0 
0 
0 
0 
0 
0 
0 
0 
0 
0 
0 
0 
0 
0 
0 
0 
0 
0 
0 
0 
0 
0 
0 
0 
0 
0 
0 
0 
0 
0 
0 
0 
0 
0 
0 
0 
0 
0 
0 
0 
0 
0 
0 
0 
0 
0 
0 
0 
0 
0 
0 
0 
0 
0 
0 
0 
0 
0 
0 
0 
0 
0 
0 
0 
0 
0 
0 
0 
0 
0 
0 
0 
0 
0 
0 
0 
0 
0 
0 
0 
0 
0 
0 
0 
0 
0 
0 
0 
0 
0 
0 
0 
0 
0 
0 
0 
0 
0 
0 
0 
0 
0 
0 
0 
0 
0 
0 
0 
0 
0 
0 
0 
0 
0 
0 
0 
0 
0 
0 
0 
0 
0 
0 
0 
0 
0 
0 
0 
0 
0 
0 
0 
0 
0 
0 
0 
0 
0 
0 
0 
0 
0 
0 
0 
0 
0 
0 
0 
0 
0.9226366440632439 
0 
0 
0 
0 
0 
0 
1.628648513906278 
0 
0 
0 
0 
0 
0 
0 
0 
0 
0 
0 
0 
0 
0 
0 
0 
0 
0 
0 
-1.048048141381397 
0 
0 
0 
0 
0 
0 
0 
0 
-5.747297945415697 
0 
0 
0 
0 
0 
0 
0 
0 
0 
0 
0 
0 
0 
0 
0 
0 
0 
0 
0 
0 
0 
0 
0 
0 
0 
0 
0 
0 
0 
0 
0 
0 
0 
0 
0 
0 
0 
0 
0 
0 
0 
0 
0 
0 
0 
0 
0 
0 
0 
0 
0 
0 
0 
0 
0 
0 
0 
0 
0 
0 
0 
0 
0 
0 
0 
0 
0 
0 
0 
0 
0 
0 
0 
0 
0 
0 
0 
0 
0 
0 
0 
0 
0 
0 
0 
0 
0 
0 
0 
0 
0 
0 
0 
0 
0 
0 
0 
0 
0 
0 
0 
0 
0 
0 
0 
0 
0 
0 
0 
0 
0 
0 
0 
0 
0 
0 
0 
0 
0 
0 
0 
0 
0 
0 
0 
0 
0 
0 
0 
0 
0 
0 
0 
0 
0 
0 
0 
0 
0 
0 
0 
0 
0 
0 
0 
0 
0 
0 
0 
0 
0 
0 
0 
0 
0 
0 
0 
0 
0 
0 
0 
0 
0 
0 
0 
0 
0 
0 
0 
0 
0 
0 
0 
0 
0 
0 
0 
0 
0 
0 
0 
0 
0 
0 
0 
0 
0 
0 
0 
0 
0 
0 
0 
0 
0 
0 
0 
0 
0 
0 
0 
0 
0.2917132600341381 
0 
0 
0 
0 
0 
0 
0 
0 
0 
0 
0 
0 
0 
0 
0 
0 
0 
0 
0 
0 
0 
0 
0 
0 
0 
0 
0 
-1.339281114838582 
0 
0 
0 
0 
0 
0 
0 
0 
0 
0 
0 
0 
-0.5930277042662986 
0 
0 
0 
0 
0 
0 
0 
0 
0 
0 
0 
0 
0 
0 
0 
0 
0 
0 
0 
0 
0 
0 
0 
0 
0 
0 
0 
0 
0 
0 
0 
0 
0 
0 
0 
0 
0 
1.802005103146785 
0 
0 
0 
0 
0 
0 
0 
0 
0 
0 
0 
0 
0 
0 
0 
0 
0 
0 
0 
0 
0 
0 
0 
0 
0 
0 
0 
0 
0 
0 
0 
0 
0 
0 
0 
0 
0 
0 
0 
0 
0 
0 
0 
0 
0 
0 
0 
0 
0 
0 
0 
0 
0 
0 
0 
0 
0 
0 
0 
0 
0 
0 
0 
0 
0 
0 
0 
0 
0 
0 
0 
0 
0 
0 
0 
0 
0 
0 
0 
0 
0 
0 
0 
0 
0 
0 
0 
0 
0 
0 
0 
0 
0 
0 
0 
0 
0 
0 
0 
0 
0 
0 
0 
0 
0 
0 
0 
0 
0 
0 
0 
0 
0 
0 
0 
0 
0 
0 
0 
0 
0 
0 
0 
0 
0 
0 
0 
0 
0 
0 
0 
0 
0 
0 
0 
0 
0 
0 
0 
0 
-0.3075652373450244 
0 
0 
0 
0 
0 
0 
0 
0 
0 
0 
0 
0 
0 
0 
0 
0 
0 
0 
0 
0 
0 
0 
0 
0 
0 
0 
0 
0 
0 
0 
0 
0 
0 
0 
0 
0 
0 
0 
0 
0 
0 
0 
0 
0 
0 
0 
0 
0 
0 
0 
0 
0 
0 
0 
0 
0 
0 
0 
0 
0 
0 
0 
0 
0 
0 
0 
0 
0 
0 
0 
0 
0 
0 
0 
0 
0 
0 
0 
0 
0 
0 
0 
0 
0 
0 
0 
0 
0 
0 
0 
0 
0 
0 
0 
0 
0 
0 
0 
0 
0 
0 
0 
0 
0 
0 
0 
0 
0 
0 
0 
0 
0 
0 
0 
0 
0 
0 
0 
0 
0 
0 
0 
0 
0 
0 
0 
0 
0 
0 
0 
0 
0 
0 
0 
0 
0 
0 
0 
0 
0 
0 
0 
0 
0 
0 
0 
0 
0 
0 
0 
0 
0 
0 
0 
0 
0 
0 
2.277010987633414 
0 
0 
0 
0 
0 
0 
0 
0 
0 
0 
0 
0 
0 
0 
0 
0 
0 
0 
0 
0.1576576018725288 
0 
0 
0 
0 
0 
0 
0 
0 
0 
0 
0 
0 
0 
0 
0 
0 
0 
0 
0 
0 
0 
0 
0 
0 
0 
0 
0 
0 
0 
0 
0 
0 
0 
0 
0 
0 
0 
0 
0 
0 
0 
0 
0 
0 
0 
0 
0 
0 
0 
0 
0 
0 
0 
0 
0 
0 
0 
0 
0 
0 
0 
0 
0 
0 
0 
0 
0 
0 
0 
-1.922247032580159 
0 
0 
0 
0 
0 
0 
0 
0 
0 
0 
0 
0 
0 
0 
0 
0 
0 
0 
0 
0 
0 
0 
0 
0 
0 
0 
0 
0 
0 
0 
0 
0 
0 
0 
0 
0 
0 
0 
0 
0 
0 
0 
0 
0 
0 
0 
0 
0 
0 
0 
0 
0 
0 
0 
0 
0 
0 
0 
0 
0 
0 
0 
0 
0 
0 
0 
0 
0 
0 
0 
0 
0 
0 
0 
0 
0 
0 
0 
0 
0 
0 
0 
0 
0 
0 
0 
0 
0 
0 
0 
0 
0 
0 
0 
0 
0 
0 
0 
0 
0 
0 
0 
0 
0 
0 
0 
0 
0 
0 
0 
0 
0 
0 
0 
0 
0 
0 
0 
0 
0 
0 
0 
0 
0 
0 
0 
0 
0 
0 
0.008755590682427587 
0 
0 
0 
0 
0 
0 
0 
0 
0 
0 
0 
0 
0 
0 
0 
0 
0 
0 
-5.15811650857381 
0 
0 
0 
0 
0 
0 
0 
-1.016145403192915 
0 
0 
0 
0 
0 
0 
0 
0 
0 
1.454020953909884 
0 
0 
0 
0 
0 
0 
0 
0 
0 
0 
0 
0 
0 
0 
0 
0 
0 
0 
0 
0 
0 
0 
0 
0 
0 
0 
0 
-0.6707466400312272 
0 
0 
0 
0 
0 
0 
0 
0 
0 
0 
0 
0 
0 
0 
0 
0 
0 
0 
0 
0 
0 
0 
0 
0 
0 
0 
0 
0 
0 
0 
0 
0 
-0.9648304825855264 
0 
0 
0 
0 
0 
0 
0 
0 
0 
0 
0 
0 
0 
0 
0 
0 
0 
0 
0 
0 
0 
0 
0 
0 
0 
0 
0 
0 
0 
0 
0 
0 
0 
0 
0 
0 
0 
0 
0 
0 
0 
0 
0 
0 
0 
0 
0 
0 
0 
0 
0 
0 
0 
0 
0 
0 
0 
0 
0 
0 
0 
0 
0 
0 
2.094110211346291 
0 
0 
0 
0 
0 
0 
0 
0 
0 
0 
0 
0 
0 
0 
0 
0 
0 
0 
0 
0 
0 
0 
0 
0 
0 
0 
0 
0 
0 
0 
0 
0 
0 
0 
0 
0 
0 
0 
0 
0 
0 
0 
0 
0 
0 
0 
0 
0 
0 
0 
0 
0 
0 
0 
0 
0 
0 
0 
0 
0 
0 
0 
0 
0 
0 
0 
0 
0 
0 
0 
0 
0 
0 
0 
0 
0 
0 
0 
0 
0 
0 
0 
0 
0 
0 
0 
0 
0 
0 
0 
0 
0 
0 
0 
0 
0 
0 
0 
0 
0 
0 
0 
0 
0 
0 
0 
0 
0 
0 
0 
0 
-0.7165826797269621 
0 
0 
0 
0 
0 
0 
0 
0 
0 
0 
0 
0 
0 
0 
0 
0 
0 
0 
0 
0 
0 
0 
0 
0 
0 
0 
0 
0 
0 
0 
0 
0 
0 
0 
0 
0 
0 
0 
0 
0 
0 
0 
0 
0 
0 
0 
0 
0 
0 
0 
0 
0 
0 
0 
0 
0 
0 
0 
0 
-1.153571354941462 
0 
0 
0 
0 
0 
0 
0 
0 
0 
0 
0 
0 
0 
0 
0 
0 
0 
0 
0 
0 
0 
0 
0 
0 
0 
0 
0 
0 
1.706307019093745 
0 
0 
0.9891911064936034 
0 
0 
0 
0 
0 
0 
0 
0 
0 
0 
0 
0 
0 
0 
0 
0 
0 
0 
0 
0 
0 
0 
0 
0 
0 
0 
0 
0 
0 
0 
0 
0 
0 
0 
0 
0 
0 
0 
0 
0 
0 
0 
0 
0 
0 
0 
0 
0 
0 
0 
0 
0 
0 
0 
0 
0 
0 
0 
0 
0 
0 
0 
0 
0 
0 
0 
0 
0 
0 
0 
0 
0 
0 
0 
0 
-2.516905464859681 
0 
0 
0 
0 
0 
0 
0 
0 
0 
0 
0 
0 
0 
0 
0 
0 
0 
0 
0 
0 
0 
0 
0 
0 
0 
0 
0 
0 
0 
0 
0 
0 
0 
0 
0 
0 
0 
0 
0 
0 
0 
0 
0 
0 
0 
0 
0 
0 
0 
0 
0 
0 
0 
0 
0 
0 
0 
0 
0 
0 
0 
0 
0 
0 
0 
0 
0 
0 
0 
0 
0 
0 
0 
0 
0 
0 
0 
0 
0 
0 
0 
0 
0 
0 
0 
0 
0 
0 
0 
0 
0 
0 
0 
0 
0 
0 
0 
0 
0 
0 
0 
0 
0 
0 
0 
0 
0 
0 
0 
0 
0 
0 
0 
0 
0 
0 
0 
0 
0 
0 
0 
0 
0 
0 
0 
-1.519250721995038 
0 
0 
0 
0 
0 
0 
0 
0 
0 
0 
0 
0 
0 
0 
0 
0 
0 
0 
0 
0 
0 
0 
0 
0 
0 
0 
0 
0 
0 
0 
0 
0 
0 
0 
0 
0 
0 
0 
0 
0 
0 
0 
0 
0 
0 
0 
0 
0 
0 
0 
0 
0 
0 
0 
0 
0 
0 
0 
0 
0 
0 
0 
0 
0 
0 
0 
0 
0 
0 
0 
0 
0 
0 
0 
0 
0 
0 
0 
0 
0 
0 
0 
0 
0 
0 
0 
0 
0 
0 
0 
0 
0 
0 
0 
0 
0 
0 
0 
0 
0 
0 
0 
0 
0 
0 
0 
0 
0 
0 
0 
0 
0 
0 
0 
0 
0 
0 
0 
0 
0 
0 
0 
0 
0 
0 
0 
0 
0 
0 
0 
0 
0 
0 
0 
0 
0 
0 
0 
0 
0 
0 
0 
0 
0 
0 
0 
0 
0 
0 
0 
0 
0 
0 
0 
0 
0 
0 
0 
0 
0 
0 
0 
0 
0 
0 
0 
0 
0 
0 
0 
0 
0 
0 
0 
0 
0 
0 
0 
0 
0 
0 
0 
0 
0 
0 
0 
0 
0 
0 
0 
0 
0 
0 
0 
0 
0 
0 
0 
0 
0 
0 
0 
0 
0 
0 
0 
0 
0 
0 
0 
0 
0 
0 
0 
0 
0 
0 
0 
0 
0 
0 
0 
0 
0 
0 
0 
0 
0 
0 
0 
0 
0 
0 
0 
0 
0 
0 
0 
0 
0 
0 
0 
0 
0 
0 
0 
0 
0 
0 
0 
0 
0 
0 
-1.651898816648779 
0 
0 
0 
0 
0 
0 
0 
0 
0 
0 
0 
0 
0 
0 
0 
0 
0 
0 
0 
0 
0 
0 
0 
0 
0 
0 
0 
0 
0 
0 
0 
0 
0 
0 
0 
0 
0 
0 
0 
0 
0 
0 
0 
0 
0 
0 
0 
0 
0 
0 
0 
0 
0 
0 
0 
0 
0 
0 
0 
0 
0 
0 
0 
0 
0 
0 
0 
0 
0 
0 
0 
0 
0 
0 
0 
0 
0 
0 
0 
0 
0 
0 
0 
0 
0 
0 
0 
0 
0 
0 
0 
0 
0 
0 
0 
0 
0 
0 
0 
0 
0 
0 
0 
0 
0 
0 
0 
0 
0 
0 
0 
0 
0 
0 
0 
0 
0 
0 
0 
0 
0 
0 
0 
0 
0 
0 
0 
0 
0 
0 
0 
0 
0 
0 
0 
0 
0 
0 
0 
0 
0 
0 
0 
0 
0 
0 
0 
0 
0 
0 
0 
0 
0 
0 
0 
0 
0 
0 
0 
0 
0 
0 
0 
0 
0 
0 
0 
0 
0 
0 
0 
0 
0 
0 
0 
0 
0 
0 
0 
0 
0 
0 
0 
0 
0 
0 
0 
0 
0 
0 
0 
0 
0 
0.4930645261634085 
0 
0 
0 
0 
0 
0 
0 
0 
0 
0 
0 
0 
0 
0 
0 
0 
0 
0 
0 
0 
0 
0 
0 
0 
0 
0 
0 
0 
0 
0 
0 
0 
0 
0 
0 
0 
0 
0 
0 
0 
0 
0 
0 
0 
0 
0 
0 
0 
0 
0 
0 
0 
0 
0 
0 
0 
0 
0 
0 
0 
0 
0 
0 
0 
0 
0 
0 
0 
0 
0 
0 
0 
0 
0 
0 
0 
0 
0 
0 
0 
0 
0 
0 
0 
0 
0 
0 
0 
0 
0 
0 
0 
0 
0 
0 
0 
0 
0 
0 
0 
0 
0 
0 
0 
0 
0 
0 
0 
0 
0 
0 
0 
0 
0 
0 
0 
0 
0 
0 
0 
0 
0 
0 
0 
0 
0 
0 
0 
0 
0 
0 
0 
0 
0 
0 
0 
0 
0 
0 
0 
0 
0 
0 
0 
0 
0 
0 
0 
0 
0 
0 
0 
0 
0 
0 
0 
0 
0 
0 
0 
0 
0 
0 
0 
0 
0 
0 
0 
0 
0 
0 
0 
0 
0 
0 
0 
0 
0 
0 
0 
0 
0 
0 
0 
0 
0 
0 
0 
0 
0 
0 
0 
0 
0 
0 
0 
0 
0 
0 
0 
0 
0 
0 
0 
0 
0 
0 
0 
0 
0 
0 
0 
0 
0 
0 
0 
0 
0 
0 
0 
0 
0 
0 
0 
0 
0 
0 
0 
0 
0 
0 
0 
0 
0 
0 
0 
0 
0 
0 
0 
0 
0 
0 
0 
0 
0 
0 
0 
0 
0 
0 
0 
0 
0 
0 
0 
0 
0 
0 
0 
0 
0 
0 
0 
0 
0 
0 
0 
0 
0 
0 
0 
0 
0 
0 
0 
0 
0 
0 
0 
0 
0 
0 
0 
0 
0 
0 
0 
0 
0 
0 
0 
0 
0 
0 
0 
0 
0 
0 
0 
0 
0 
0 
0 
0 
0 
0 
0 
0 
0 
0 
0 
0 
0 
0 
0 
0 
0 
0 
0 
0 
0 
0 
0 
0 
0 
0 
0 
0 
0 
0 
0 
0 
0 
0 
0 
0 
0 
0 
0 
0 
0 
0 
0 
0 
0 
0 
0 
0 
0 
0 
0 
0 
0 
0 
0 
0 
0 
0 
0 
0 
0 
0 
0 
0 
0 
0 
0 
0 
0 
0 
0 
0 
0 
0 
0 
0 
0 
0 
0 
0 
0 
0 
0 
0 
0 
0 
0 
0 
0 
0 
0 
0 
0 
0 
0 
0 
0 
0 
0 
0 
0 
0 
0 
0 
0 
0 
0 
0 
0 
0 
0 
0 
0 
0 
0 
0 
0 
0 
0 
0 
0 
0 
0 
0 
0 
0 
0 
0 
0 
0 
0 
0 
0 
0 
0 
0 
0 
0 
0 
0 
0 
0 
0 
0 
0 
0 
0 
0 
0 
0 
0 
0 
0 
0 
0 
0 
0 
0 
0 
0 
0 
0 
0 
0 
0 
0 
0 
0 
0 
0 
0 
0 
0 
0 
0 
0 
0 
0 
0 
0 
0 
0 
0 
0 
0 
0 
0 
0 
0 
0 
0 
0 
0 
0 
0 
0 
0 
0 
0 
0 
0 
0 
0 
0 
0 
0 
0 
0 
0 
0 
0 
0 
0 
0 
0 
0 
0 
0 
0 
0 
0.3644667441578521 
0 
0 
0 
0 
0 
0 
0 
0 
0 
0 
0 
0 
0 
0 
0 
0 
0 
0 
0 
0 
0 
0 
0 
0 
0 
0 
0 
0 
0 
0 
0 
0 
0 
0 
0 
0 
0 
0 
0 
0 
0 
0 
0 
0 
0 
0 
0 
0 
0 
0 
0 
0 
0 
0 
0 
0 
0 
0 
0 
0 
0 
0 
0 
0 
0 
0 
0 
0 
0 
0 
0 
0 
0 
0 
0 
0 
0 
0 
0 
-0.7602652573068229 
0 
0 
0 
0 
0 
0 
0 
0 
0 
0 
0 
0 
0 
0 
0 
0 
0 
0 
0 
0 
0 
0 
0 
0 
0 
0 
0 
0 
0 
0 
0 
0 
0 
0 
0 
0 
0 
0 
0 
0 
0 
0 
0 
0 
0 
0 
0 
0 
0 
0 
0 
0 
0 
0 
0 
0 
0 
0 
0 
0 
0 
0 
0 
0 
0 
0 
0 
0 
0 
0 
0 
0 
0 
0 
0 
0 
0 
0 
0 
0 
0 
0 
0 
0 
0 
0 
0 
0 
0 
0 
0 
0 
0 
0 
0 
0 
0 
0 
0 
0 
0 
0 
0 
0 
0 
0 
0 
0 
0 
0 
0 
0 
0 
0 
0 
0 
0 
0 
0 
0 
0 
0 
0 
0 
0 
0 
0 
0 
0 
0 
0 
0 
0 
0 
0 
0 
0 
0 
0 
0 
0 
0 
0 
0 
-0.0448260714624451 
0 
0 
0 
0 
0 
0 
0 
0 
0 
0 
0 
0 
0 
0 
0 
0 
0 
0 
0 
0 
0 
0 
0 
0 
0 
0 
0 
0 
0 
0 
0 
0 
0 
0 
0 
0 
0 
0 
0 
0 
0 
0 
0 
0 
0 
0 
0 
0 
0 
0 
0 
0 
0 
0 
0 
0 
0 
0 
0 
0 
0 
0 
0 
0 
0 
0 
0 
0 
0 
0 
0 
0 
0 
0 
0 
0 
0 
0 
0 
0 
0 
0 
0 
0 
0 
0 
0 
0 
0 
0 
0 
0 
0 
0 
0 
0 
0 
0 
0 
0 
0 
0 
0 
0 
0 
0 
0 
0 
0 
0 
0 
0 
0 
0 
0 
0 
0 
0 
0 
0 
0 
0 
0 
0 
0 
0 
0 
0 
0 
0 
0 
0 
0 
0 
0 
0 
0 
0 
0 
0 
0 
0 
0 
0 
0 
0 
0 
0 
0 
2.659649087191323 
0 
0 
0 
0 
0 
0 
0 
0 
0 
0 
0 
0 
0 
0 
0 
0 
0 
0 
0.0269840076779577 
0 
0 
0 
0 
0 
0 
0 
0 
0 
0 
0 
0 
0 
0 
0 
0 
0 
0 
0 
0 
0 
0 
0 
0 
0 
0 
0 
0 
0 
0 
0 
0 
0 
0 
0 
0 
1.692821958800065 
0 
0 
0 
0 
0 
0 
0 
0 
0 
0 
0 
0 
0 
0 
0 
0 
0 
0 
0 
0 
0 
0 
0 
0 
0 
0 
0 
0 
0 
0 
0 
0 
0 
0 
0 
0 
0 
0 
0 
0 
0 
0 
0 
0 
0 
0 
0 
0 
0 
0 
0 
0 
0 
0 
0 
0 
0 
0 
0 
0 
0 
0 
0 
0 
0 
0 
0 
0 
0 
0 
0 
0 
0 
0 
0 
0 
0 
0 
0 
0 
0 
0 
0 
-2.166530101588792 
-2.157748828797618 
0 
0 
0 
0 
0 
0 
0 
0 
0 
0 
0 
0 
0 
0 
0 
0 
0 
0 
0 
0 
0 
0 
0 
0 
0 
0 
0 
0 
0 
0 
0 
0 
0 
0 
0 
0 
0 
0 
0 
0 
0 
0 
0 
0 
0 
0 
0 
0 
0 
0 
0 
0 
0 
0 
0 
0 
0 
0 
0 
0 
0 
0 
0 
0 
0 
0 
0 
0 
-1.485071280027731 
0 
0 
0 
0 
0 
0 
0 
0 
0 
0 
0 
0 
0 
0 
0 
0 
0 
0 
0 
0 
0 
0 
0 
0 
0 
0 
0 
0 
0 
0 
0 
0 
0 
0 
0 
0 
0 
0 
0 
0 
0 
0 
0 
0 
0 
0 
0 
0 
0 
0 
0 
0 
0 
0 
0 
0 
0 
0 
0 
0 
0 
0 
0 
0 
0 
0 
0 
0 
0 
0 
0 
0 
0 
0 
0 
0 
0 
0 
0 
0 
0 
0 
0 
0 
0 
0 
0 
0 
0 
0 
0 
0 
0 
0 
0 
0 
0 
0 
0 
0 
0 
0 
0 
0 
0 
0 
0 
0 
0 
0 
0 
0 
0 
0 
0 
0 
0 
0 
0 
0 
0 
0 
0 
0 
0 
0 
0 
0 
0 
0 
0 
0 
0 
0 
0 
0 
0 
0 
0 
0 
0 
0 
0 
0 
0 
0 
0 
0 
0 
0 
0 
0 
0 
0 
0 
0 
0 
0 
0 
0 
0 
0 
0 
0 
0 
0.642567541862034 
0 
0 
0 
0 
0 
0 
0 
0 
0 
0 
0 
0 
0 
0 
0 
0 
0 
0 
0 
0 
0 
0 
0 
0 
0 
0 
0 
0 
0 
0 
0 
0 
0 
0 
0 
0 
0 
0 
0 
0 
0 
0 
0 
0 
0 
0 
0 
0 
0 
0 
0 
0 
0 
0 
0 
0 
0 
0 
0 
0 
0 
0 
0 
0 
0 
0 
0 
0 
0 
0 
0.4096655424054698 
0 
0 
0 
0 
0.405079779643946 
0 
0 
0 
0 
0 
0 
0 
0 
0 
0 
0 
0 
0 
0 
0 
0 
0 
0 
0 
0 
0 
0 
0 
0 
0 
0 
0 
0 
0 
0 
0 
0 
0 
0 
0 
0 
0 
0 
0 
0 
0 
0 
0 
0 
0 
0 
0 
0 
0 
0 
0 
0 
0 
0 
0 
0 
0 
0 
0 
0 
0 
0 
0 
0 
0 
0 
0 
0 
0 
0 
0 
0 
0 
0 
0 
0 
0 
0 
0 
0 
0 
0 
0 
0 
0 
0 
0 
0 
0 
0 
0 
0 
0 
0 
0 
0 
0.37201933401768 
0 
0 
0 
0 
0 
0 
0 
0 
0 
0 
0 
0 
0 
0 
0 
0 
0 
0 
0 
0 
0 
0 
0 
0 
0 
0 
0 
0 
0 
0 
0 
0 
0 
0 
0 
0 
0 
0 
0 
0 
0 
0 
0 
0 
0 
0 
0 
0 
0 
0 
0 
0 
0 
0 
-4.430108805477289 
0 
0 
0 
0 
0 
0 
0 
0 
0 
0 
0 
0 
0 
0 
0 
0 
0 
0 
0 
0 
0 
0 
0 
0 
0 
0 
0 
0 
0 
0 
0 
0 
-2.354163453821259 
0 
0 
0 
0 
0 
0 
0 
0 
0 
0 
0 
0 
0 
0 
0 
0 
0 
0 
0 
0 
0 
0 
0 
0 
0 
0 
0 
0 
0 
0 
0 
0 
0 
0 
0 
0 
0 
0 
0 
0 
0 
0 
0 
0 
0 
0 
0 
0 
0 
0 
0 
0 
0 
0 
0 
0 
0 
0 
0 
0 
0 
0 
0 
0 
0 
0 
0 
0 
0 
0 
0 
0 
0 
0 
0 
0 
0 
0 
0 
0 
0 
0 
0 
0 
0 
0 
0 
0 
0 
0 
0 
0 
0 
0 
0 
0 
0 
0 
0 
0 
0 
0 
0 
0 
0 
0 
0 
0 
0 
-1.162777416068444 
0 
0 
0 
0 
0 
0 
0 
0 
0 
0 
0 
0 
0 
0 
0 
0 
0 
0 
0 
0 
0 
0 
0 
0 
0 
0 
0 
0 
0 
0 
0 
0 
0 
0 
0 
0 
0 
0 
0 
0 
0 
0 
0 
0 
0 
0 
0 
0 
0 
0 
0 
0 
0 
0 
0 
0 
0 
0 
0 
0 
0 
0 
0 
0 
0 
0 
0 
0 
0 
0 
0 
0 
0 
0 
0 
0 
0 
0 
0 
0 
0 
0 
0 
0 
0 
0 
0 
0 
0 
0 
0 
0 
0 
0 
0 
0 
0 
0 
0 
0 
0 
0 
0 
0 
0 
0 
0 
0 
0 
0 
0 
0 
0 
0 
0 
0 
0 
0 
0 
0 
0 
0 
0 
0 
0 
0 
0 
0 
0 
0 
0 
0 
0 
0 
0 
0 
0 
0 
0 
0 
0 
0 
0 
0 
0 
0 
0 
0 
0 
0 
0 
0 
0 
0 
0 
0 
0 
0 
0 
0 
0 
0 
0 
0 
0 
0 
0 
0 
0 
0 
0 
0 
0 
0 
0 
0 
0 
0 
0 
0 
0 
0 
0 
0 
0 
0 
0 
0 
0 
0 
0 
0 
0 
0 
0 
0 
0 
0 
0 
0 
0 
0 
0 
0 
0 
0 
0 
0 
0 
0 
0 
0 
0 
0 
0 
0 
0 
0 
0 
0 
0 
0 
0 
0 
0 
0 
0 
0 
0 
0 
0 
0 
0 
0 
0 
0 
0 
0 
0 
0 
0 
0 
0 
0 
0 
0 
0 
0 
0 
0 
0 
0 
0 
0 
0 
0 
0 
0 
0 
0 
0 
0 
0 
0 
0 
0 
0 
0 
0 
0 
0 
0 
0 
0 
0 
0 
0 
0 
0 
0 
0 
0 
0 
0 
0 
0 
0 
0 
0 
0 
0 
0 
0 
0 
0 
0 
0 
0 
0 
0 
0 
0 
0 
0 
0 
0 
0 
0 
0 
0 
0 
0 
0 
0 
0 
0 
0 
0 
0 
0 
0 
0 
0 
0 
0 
0 
0 
0 
0 
0 
0 
0 
0 
0 
0 
0 
0 
0 
0 
0 
0 
0 
0 
0 
0 
0 
0 
0 
0 
0 
0 
0 
0 
0 
0 
0 
0 
0 
0 
0 
0 
0 
0 
0 
0 
0 
0 
0 
0 
0 
0 
0 
0 
0 
0 
0 
0 
0 
0 
0 
0 
0 
0 
0 
0 
0 
0 
0 
0 
0 
0 
0 
0 
0 
0 
0 
0 
0 
0 
0 
0 
0 
0 
0 
0 
0 
0 
0 
0 
0 
0 
0 
0 
0 
0 
0 
0 
0 
0 
0 
0 
0 
0 
0 
0 
0 
0 
0 
0 
0 
0 
0 
0 
0 
0 
0 
0 
0 
0 
0 
0 
0 
0 
0 
0 
0 
0 
0 
0 
0 
0 
0 
0 
0 
0 
0 
0 
0 
0 
0 
0 
0 
0 
0 
0 
0 
0 
0 
0 
0 
0 
0 
0 
0 
0 
0 
0 
0 
0 
0 
0 
0 
0 
0 
0 
0 
0 
0 
0 
0 
0 
0 
0 
0 
0 
0 
0 
0 
0 
0 
0 
0 
0 
0 
0 
0 
0 
0 
0 
0 
0 
0 
0 
0 
0 
0 
0 
0 
0 
0 
0 
0 
0 
0 
0 
0 
0 
0 
0 
0 
0 
0 
0 
0 
0 
0 
0 
0 
0 
0 
0 
0 
0 
0 
0 
0 
0 
0 
0 
0 
0 
0 
0 
0 
0 
0 
0 
0 
0 
0 
0 
0 
0 
0 
0 
0 
0.4541605206469297 
0 
0 
0 
0 
0 
0 
0 
0 
0 
0 
0 
0 
0 
0 
0 
0 
0 
0 
0 
0 
0 
0 
0 
0 
0 
0 
0 
0 
0 
0 
0 
0 
0 
0 
0 
0 
0 
0 
0 
0 
0 
0 
0 
0 
0 
0 
0 
0 
0 
0 
0 
0 
0 
0 
0 
0 
0 
0 
0 
0 
0 
0 
0 
0 
0 
0 
0 
0 
0 
0 
0 
0 
0 
0 
0 
0 
0 
0 
