solver_type L1R_LR
nr_class 2
label 1 -1
nr_feature 98199
bias -1
w
-2.001829348561381 
0.3949806501522629 
0 
-1.381632961060685 
-1.025665381682929 
0 
0.1683325983940836 
0 
0.2776887177353112 
0 
2.166136716365529 
0 
0 
0 
0 
3.085246219195249 
1.192088733872003 
1.408760563921471 
1.202814413815283 
0.06428169650783586 
1.196397187971869 
0.2457625167632352 
-0.5828390969888555 
0 
1.921489162645208 
0 
0 
0 
0 
1.347442868739627 
0.5776138373458216 
0 
0 
3.813473124491824 
0 
-0.5747593264668305 
0 
0 
0 
0 
0 
0 
-1.044569888750804 
0.2211806508528581 
-0.003521017241582294 
-1.614758341246294 
0.6151674099330845 
0 
0 
-2.286556187713332 
0 
0 
-1.940071701656353 
-0.01853721815820328 
0 
0 
0 
0 
-0.2887906749906393 
0 
0 
-1.324002017636169 
1.292560389414733 
-1.624875159516569 
0 
-0.8256849130671699 
0 
0 
1.349393828236748 
0.3592445710099926 
0 
1.137408237951781 
0.8794507009420426 
0 
0 
0 
0 
0 
0 
-0.2732960613800705 
0 
2.219992378113448 
1.506435654341995 
0 
-0.08886921821535165 
0 
0 
-2.075002447007913 
0 
0 
0 
-0.350856301998953 
0.9524485356564252 
0 
0 
0 
0 
-0.3916855044079696 
0.07848559887461867 
-0.4109374083293806 
0.001734786100609623 
0.2581646657146253 
0 
-0.002815466180657196 
0 
-0.8225684994716083 
-0.1933916891117025 
0 
-0.751993694516051 
-1.386544849433728 
0 
-0.03654798091219536 
0 
0 
0 
0 
0 
0 
0 
0 
0 
2.660898908969017 
0 
0 
0.9075895004653736 
0 
-0.3100914682671809 
0 
0 
-0.57815414312155 
2.168257014403597 
-0.5407899080139043 
-1.163788692674696 
-0.774110787373855 
0 
0.4954805882342998 
0 
-1.57400813878664 
-0.5351438215455497 
0.4006844954958608 
-2.08837234614322 
0 
0 
0 
0.5131810061340483 
-0.1641400188401317 
-1.355256353989327 
0 
-0.09487009695060107 
0 
0 
0 
0.125031556289515 
0.4300550036758349 
0 
0 
0 
0 
0.7616002994358367 
-0.007917293894118436 
-1.376364608203573 
1.754776008799875 
0.764184417519283 
0 
1.287189987304238 
0 
0 
0 
0 
0 
0 
0 
0 
0 
0 
-2.326437935866622 
0.3304017771823147 
0 
1.731708748658131 
0 
0 
0 
0 
0 
-0.7411488602737273 
-0.4942015821852594 
-0.6059837040826865 
0 
0 
0 
0 
0 
0 
0 
-0.2245625056025127 
0 
-1.084868007756146 
0 
0 
0 
-1.020090123237065 
-0.2896937318266148 
0 
0.851719620011592 
0 
0 
0 
-0.2763140583866549 
0 
0 
-0.2677782017154181 
0 
0 
-1.050078071770104 
0 
-1.162096443619809 
0 
0 
0.2259756200247101 
0 
-1.338718129226803 
0 
-0.2685240657930676 
0 
0 
0 
0 
0 
0 
0 
-0.3484361567512557 
-1.16194002453124 
0 
0 
-0.2329955382109086 
-0.9053335690314076 
0 
0 
0 
0 
0 
0 
-0.1482859916646051 
0 
-1.251770280249354 
0 
0 
0 
0 
0 
0.8626585302565321 
0 
-1.960620421530771 
0 
0 
0 
0 
0 
0 
0 
0 
0 
1.412253189933378 
0 
0 
-0.3727437370539318 
0 
0 
0 
-1.125796415384296 
0 
0 
0 
0.02724705721935147 
0 
0 
0 
0.7915231969604465 
-1.131048407931544 
0 
0 
0 
0 
0 
0 
-1.229231964990518 
1.024273245653688 
0.3590121397392067 
0 
0.2469445264445372 
-2.192880694702743 
0 
0 
-1.179443765325506 
0 
0 
0 
0.1918519374518573 
0 
0 
1.877877477045399 
0 
0 
0 
0 
0.7108358656883791 
0 
1.401919457783543 
0 
0.3623357382377988 
0 
0.01814128416011411 
1.177859852985285 
0.4478274458359343 
0 
0 
0 
0 
0 
0 
0 
0.5518293510843707 
1.875287911401635 
0 
-0.4063140974523187 
-0.8758101377637304 
0.3262926620593062 
0 
-0.9284307187606415 
0 
-0.3582766826932797 
0 
-1.239321553960387 
0 
0 
0 
-0.1885114451291188 
0 
0 
0 
-0.1347641424980783 
0 
0 
0 
0.7017580625801605 
0.2653620625545612 
0.03988889334943473 
0 
0 
0 
0 
-1.330734930434372 
-0.02003349532945779 
0 
-1.013861705018356 
0.01922731917200145 
0 
-0.04667913984110918 
0 
0 
0 
-1.357637482694679 
0 
0 
0 
-1.247026297309748 
0 
0.5022406600884495 
0 
0 
-2.328423492042018 
0 
0 
-0.8958871084961427 
0.8341798266405931 
-2.058313047439185 
0 
0 
-1.321200357220009 
0.9096147672597946 
1.24155214611335 
0 
0 
0.3999561195400982 
0.3043246165260604 
0 
-1.328453185336466 
0 
0 
0 
-0.9369160611222334 
-0.1854336251201666 
-0.4939243228550569 
0 
0 
0.4796078493882386 
0 
-0.7943200440668 
0 
1.265011732561342 
0 
0 
0 
0 
-0.1560280708394277 
0 
-0.9856027165578634 
0 
0.7643434146871089 
2.532454040847536 
0 
-1.484117347362693 
0 
0 
0 
0 
0 
0 
0 
0 
0 
0 
0 
0 
0 
0 
0 
-3.655644347273136 
2.078136176869569 
-1.554747649032092 
0 
0 
0 
0 
0.5949951741096849 
0.9898770411025956 
0.4378367891419835 
-1.410042691677606 
0 
0 
0 
-1.43156535409495 
-2.428811330471368 
-0.5722923075240135 
0 
0.3950955967006581 
0 
0 
1.033255928832404 
0.150714873806634 
-3.882679719687763 
0 
0 
-2.143285677914 
0 
0 
-1.106845588379709 
-0.2796512111816464 
-0.4922763758292723 
-0.4497743256676177 
0 
-1.106939821061517 
0 
0.1123276124042929 
0.2592887344591282 
-1.53584543545274 
-4.290518928209412 
0 
0 
0 
0 
0 
0 
0 
0 
0 
-1.28825335964857 
0 
0 
0 
0 
0 
0 
0.2574349837100873 
0 
-2.072664688601627 
-0.784384159624645 
0 
0 
1.547026126594181 
0 
0 
0 
0 
2.409706337040653 
0 
-0.7677858389273354 
-0.0388244282293086 
0 
0 
-0.1954285141073424 
0 
0.04496196471808187 
2.262080945139458 
0 
0 
0 
-3.611104044329198 
0 
0.5948579142588499 
0 
1.21821044414505 
-2.880591861598205 
0 
-0.1457096440630177 
2.753862126989144 
1.229893177062837 
0 
0 
0 
0 
0 
0 
0 
-0.3626890711875085 
0 
0 
-0.304186226234387 
2.545524082292934 
0 
0 
-1.309321032488858 
0 
0 
-1.042488619271827 
0.06129049407729759 
-2.299768009034283 
0 
0 
-0.2404713119021833 
0 
0 
0 
0 
0 
0.171099781562779 
0 
0 
0 
0 
0 
0.550862029512504 
0.2177415318584146 
1.60709210447698 
0.177946684538365 
0.8032566226782206 
0 
0 
-0.6791238502280514 
0 
0 
0 
0 
0 
0 
0 
0 
0 
-2.484928059514577 
0 
0 
0 
-0.2430599154501522 
-0.2460747117933524 
0 
0 
0 
0 
0 
0 
0 
0 
0 
-1.137303558320369 
0 
0 
0 
0.02171214498998257 
-0.4246729648008772 
0 
0 
0 
0 
0.8787056619117305 
0 
0 
0.4369126514726445 
-0.05559119571314004 
-0.6840706700166328 
0 
0 
0 
0 
1.513751541092607 
0 
0 
0 
0 
0 
0 
0 
0 
0 
0 
0 
0 
0 
-1.943554655091816 
0 
0 
-0.38042645003953 
-0.2957036358261467 
0 
-0.03244429643635185 
0 
0 
0 
0.1589304870303016 
0.451520441025368 
-1.18824415636885 
1.878536024554454 
0 
0 
0 
-1.777593179631214 
0 
-0.8241703352187704 
-0.213302966608067 
-0.4955973847913032 
0 
0 
0 
0.8350433714902069 
0.7950483607857388 
0 
0 
0.936784122340849 
0 
-1.353005304499845 
0 
0 
0 
-1.313478672329806 
0 
0.3143230916445314 
0.3033047115394388 
0 
0 
0 
0 
0 
0 
-0.2519102197763461 
0 
-0.2190388276661626 
0 
-4.64557937299547 
-0.656852079068796 
-0.8382553181541242 
0 
0 
-2.596425039505863 
0 
0 
0 
2.236151036042055 
-2.605240746699701 
-1.36585172984392 
0 
0 
0 
1.788321064036265 
0 
2.279341123058987 
0 
0 
0 
0 
-0.4317308427234552 
0 
0 
0 
0.230953031443591 
0 
0 
0.3083781527064078 
0 
0 
0 
0 
0 
0 
0 
0 
0 
0 
0 
0 
0 
0 
-1.202587099488496 
0 
0 
2.735383230442628 
0 
0 
0 
-0.06908298618417555 
0 
0 
0 
0 
0 
0.4088979140646099 
0 
0 
0 
0 
0 
0 
0.8905336076217099 
1.817992048301641 
0 
0 
0 
0 
-3.282706214912383 
0 
0 
0 
0.2448327394738379 
0 
0 
0 
-0.6524406490102167 
0 
0 
0 
0 
0 
0 
0 
0 
2.098168944936246 
0 
0 
0 
-0.7872061810074061 
0 
0 
0 
0 
1.648474758157257 
0 
0 
0 
-1.411046197718626 
0 
0 
-2.842203418238141 
0 
0 
0 
0 
0 
0 
0 
0 
0 
0 
0 
0 
-0.04653222979382328 
-1.57964802203288 
0 
0 
0 
0 
3.092385149439987 
0 
0 
0 
0 
0 
0 
0 
0 
0 
0 
1.37498500252151 
2.199387937874883 
0 
0 
0 
0 
4.22164428067011 
0 
0 
0 
0 
-0.1697405791049794 
0 
-0.6153082989765352 
-0.8741818337048265 
0 
0 
-0.521512299028348 
0 
2.542792958821842 
0 
0 
0.007177720083215155 
0 
0 
0 
0 
0 
0 
0 
0 
0 
-1.581009985640428 
0 
0 
0 
-0.07755584179146396 
0 
0 
0 
0 
0 
0 
0 
0 
0 
0 
0.1480018406332727 
0 
0.3721048677292885 
0 
0 
0 
0.195367532912066 
0 
0 
0 
0 
0 
0 
0 
0 
0 
-0.5876540858431315 
0 
-0.2068955305721787 
0 
-1.300207121983584 
0 
-0.1265133862943652 
-1.726277773787553 
0 
-0.6587225473722232 
1.31096055630447 
-0.6273929550602296 
0 
0.358112168282917 
-3.155754545187227 
0.5483995519077741 
0 
0 
0.03535482696910832 
0 
0 
0.4040211321066595 
0.4809392180841984 
-0.04469898798005174 
0.4989699258716186 
0 
-0.2210769737646126 
0 
0 
0 
0 
0 
-1.443803730379587 
-4.124527622957254 
0 
0 
0.01675376684730319 
0 
0 
0 
0 
-1.687379520980928 
0 
0 
0 
0 
1.625408047132733 
0 
0 
0 
0 
0 
0 
0 
0 
0 
0 
-2.466276303893057 
-1.675568464132551 
0 
0 
0 
0 
0.3446500805589992 
0 
0.6281507779226815 
0 
0 
0 
0 
0 
0 
0 
0.4894528406218262 
0 
-0.3061515544115611 
0 
0 
0 
0 
0 
0 
0 
0 
0 
0 
0 
0 
0 
0 
0 
0 
0 
0 
0.8125654619090365 
-0.7893964741363614 
-0.2303534483730752 
0 
0 
-0.5348181861982924 
0 
0.02703197777223163 
0 
0 
0 
0 
0 
0 
0 
0 
0.2675509006213391 
0 
0 
0 
0 
0.3819855721456574 
0 
0 
0 
0 
0 
2.984804936376628 
0 
0 
0 
0 
-0.0358052420879659 
0.7687637631532699 
0 
0 
0 
-0.1947324496649397 
0.1039472331307745 
0 
0 
0 
0 
0 
0 
0 
0.5608319863156286 
0 
0 
0 
0 
0.6639872963536246 
-2.23314172372128 
-1.041479475340693 
-0.28775501918217 
0.5477656863094336 
0 
0 
0.5130020826294223 
0 
2.459294356875542 
0 
0 
0 
0.4780069364676075 
2.15661884001273 
0 
0 
0 
0 
-0.3821557668059712 
-0.5296162881367535 
0 
0 
0.1996672191684793 
0.6352182940053015 
0 
0 
1.698789041137802 
0 
-0.05304382874862167 
0 
0 
-0.6289397086441807 
0 
-0.5402894432248977 
0 
-1.919767560017912 
0 
0.5228793881090982 
0 
0.1415232888269901 
-0.0169240385419364 
-0.751464087235627 
0 
-1.107207759898086 
0.1519164191253798 
0 
0 
0 
0 
0 
0 
0 
0 
0 
0 
-1.127916996298098 
0 
0 
0 
-0.3305878780299941 
0 
0 
0 
-0.3411959269491189 
0 
1.341504968220761 
0 
0 
-1.410184857203031 
0 
0 
0 
0 
0 
-0.9748665798866676 
0 
0 
-2.510515858507306 
0 
0 
-1.117996437006358 
0 
0 
0 
0 
-1.585454085150316 
-1.379731796192745 
0.4193388769962045 
0 
0 
0 
0 
0 
0 
-2.202177559431966 
0 
-0.3368081577928906 
0 
0 
0 
0 
0 
0.2080137530103055 
0 
0 
0.6261749719598119 
0 
0 
0 
0.1428000825980097 
0 
-0.2686430081164158 
0 
0 
-2.620604761393444 
0 
-1.103449416365455 
0 
0 
0 
0 
0 
-0.191664249151954 
0 
0 
0 
0 
0 
0.5294465485042479 
0 
0 
0 
0 
0 
0 
0 
-0.7771037497041703 
0.9061695252737589 
1.170262547725312 
0 
0 
0.5208207534303228 
0 
0 
0 
0 
0 
0 
0 
-2.341644996692679 
0 
-1.28800700036079 
0.8233073671943219 
0.2176680985256418 
0 
-4.1852816990812 
-3.068127438812334 
-1.668693675080051 
0 
0 
0 
0 
1.266994550098003 
0 
0 
0.1721888463675638 
-1.039699323215076 
0.30458936032072 
0 
0 
0 
-1.281638134953679 
-2.664350943168055 
0 
0 
0.8815066985179817 
0 
0 
0 
0 
0 
-2.428273516769445 
0 
1.425478612877581 
0 
0 
0 
1.205291544814996 
0 
0 
0.1544546298965273 
0 
0 
0 
0 
0 
0 
1.160561626121055 
-0.1353691122531163 
0 
0 
-1.215174565539114 
-0.7596119607709533 
0 
0 
0 
0 
-1.404822505216739 
0 
0 
-0.3805425582194413 
0 
0 
0 
0 
0 
0 
0 
0 
-0.6429446019477907 
0.9128494604188377 
0 
0 
0 
0.3983198558481528 
0.5378527173546183 
0 
0 
0 
0 
0 
0 
0.5010651576279038 
1.042691355330177 
0 
0 
0 
0 
0 
-3.640000724002256 
0 
0 
0.6998843103758154 
0 
1.68114366745356 
0 
-0.00491942885648888 
0 
0 
0 
0.0968223527951833 
0 
0 
-3.663618168640191 
-3.838196017898271 
0.9609370806589439 
0 
0.1278821565890201 
0 
-2.311739776385715 
0 
-0.2301571729170066 
-0.9344130650734673 
0 
0 
0 
0 
-1.196518225257602 
1.784937291721561 
0 
0 
0 
0 
0 
0 
-3.780162121933811 
0 
0 
-0.8463158649131509 
0 
-1.781706090153349 
0.5502443531873357 
0 
-0.7915272215750792 
0 
0.06304604094759508 
0 
1.114289690829153 
0 
0 
0 
1.980003186539995 
2.23066352001851 
-0.3900211227732098 
0 
2.034752885493811 
0 
-1.392460527657182 
0.05577694097006301 
0 
0 
-4.326154828815089 
-0.5380343423853506 
-0.3001432891021332 
0 
-0.7079993963148661 
0 
-0.5665103484235172 
0 
-0.5765403127869799 
-0.3172805430889897 
0 
0.01020685207836919 
0 
0 
0 
0 
0 
0 
-2.367601387642504 
-2.067397430443218 
0 
0 
0 
0 
0 
-0.687894795814138 
0.9613964396577142 
0 
0 
0 
-0.6729606533727168 
-0.5843766984289083 
-0.7138852542963764 
0 
0 
0 
0 
0 
1.087734270387296 
0 
0 
0 
0.933263031053724 
0 
0 
0 
0 
-0.02871330517201029 
-1.580646140115567 
0 
0 
0 
0.6387861446102443 
0 
0.3039793690672929 
0 
0 
0 
1.200041210493397 
0.06322380294926583 
0.05305296064874148 
-0.8067111573300155 
0 
0 
0 
0 
-1.004015104524289 
0 
0 
0 
0 
0 
0 
0 
0 
0.4155328168864828 
0 
0 
0 
0 
0 
0 
-2.247227195496163 
0 
0 
0 
0 
-2.777283103055425 
0.2491250814332995 
0 
0 
0 
-1.615207319956042 
0 
0 
0.5449221559249133 
-1.7766174513906 
1.431697798654162 
0 
-0.7536002911761238 
0 
0 
0 
0 
0 
0 
0 
0.7744908560286136 
0 
-0.5346027157157393 
-1.128559868692798 
0.5448499218171908 
-2.428972540725899 
1.494664324762175 
0.3806896124470725 
0 
0 
-0.01514224690856651 
-0.6137480965273466 
0 
-0.09980863014333194 
0 
0 
0 
0 
0.5805226593896301 
0 
0 
1.252868873367041 
0 
0 
0 
0 
0 
0.9378040626336467 
0.95971899164562 
0 
0 
0 
0 
0 
0 
0 
0 
-0.9600635700799886 
0.3495128512134647 
0 
0 
-2.126740882240173 
0 
-0.2114290270907499 
-0.1615768451797744 
0.06011899165936269 
-1.579678976740804 
0 
0 
-1.555586280265986 
-1.385753611716907 
0 
0 
0 
0 
1.053591497855867 
0 
0 
0 
0 
0 
0 
0 
0 
-0.653017679184778 
0 
0 
-1.25175149684843 
0 
0 
0 
0 
-0.6647168310511864 
0 
0 
-1.013439444886553 
0 
-1.314865114557504 
0 
0.09538829390228715 
1.457837958643435 
0 
0 
0.008526906265456095 
0.4821415879267807 
0 
0 
2.209800893337737 
0 
0 
0 
-0.4698543892429047 
-0.4463951117359787 
0 
0 
0 
0 
0 
0 
0 
0 
0 
-4.556445182782386 
0 
0 
-1.442676951624798 
0 
0 
0 
0 
0.5488446549092194 
0 
0 
0 
-1.625764343502486 
0 
0 
0 
-5.841712315810551 
-0.7573189450698027 
0 
0 
0 
0 
0 
0 
0 
0 
0 
-0.01021856305220505 
0 
0 
0 
-0.2356231482209089 
0 
0 
-0.9926813897771303 
0 
0 
0 
-1.016883173683505 
0 
0 
0.1436527345194861 
0 
0 
0 
0 
0 
0 
0 
0 
0 
0 
0 
0 
0 
-0.923894622395269 
-0.1026402177913023 
1.030077195722231 
0 
0 
0 
0 
0 
0 
-0.8533521341772288 
0 
0 
0 
0 
0 
0 
0 
-3.499881435779068 
-1.7534663130046 
0 
2.293104691229007 
0.2628543219011231 
0 
0 
-1.24224995860799 
0 
-0.7309113063912203 
0 
-0.3207368573823271 
0 
0 
0 
0 
0 
0 
0 
-2.157890749300542 
0 
0 
0 
0 
0 
0.6053891909703538 
0 
0 
0.9340181270924911 
0 
0 
0 
0.6251752323235528 
0 
0 
0 
1.08523522299066 
5.372875315965896 
0 
0 
0 
-0.6603523483737934 
1.388038351523461 
0 
0 
0 
0 
0 
-0.5236350350515845 
0 
1.074019893836064 
0 
0 
0 
0.6820146689908037 
0 
0 
-0.4941279078900442 
0 
-0.5010189481437497 
0 
0 
0 
0.3159328298869727 
0.1061449792602395 
0 
0 
-0.4943346470702735 
-0.767989990213257 
0 
0 
0 
0 
0 
0.3402284367284909 
0 
0 
-2.249923185590199 
-4.867671122728758 
0 
0 
0 
0 
0 
-0.2857572960515691 
-1.847373141611016 
0 
0 
0 
0 
0 
0 
0 
0 
0 
0 
-2.967104975213256 
2.882359699571316 
0 
1.142117723611298 
1.768609969773 
0 
0 
0 
0 
0 
0 
-1.276667035788865 
-0.671824957721283 
0 
0 
0 
0 
0 
0 
0 
0 
0.9518903240826518 
0 
0 
0 
0 
0 
0 
0 
0 
0.5519030765397904 
-0.6125204874725947 
0 
0 
-0.05877879452116878 
0 
0 
0 
-0.3089432904397524 
-1.187812721415967 
-0.8572817950200251 
0 
0 
0 
0 
-0.5432446460596397 
0 
-0.8395527051130162 
0 
0 
0.4995951379971237 
0.5713305071850408 
0 
-0.1169386304226644 
0 
0 
0 
-2.075583545092099 
0 
0.9373765144345693 
0 
0 
0 
-1.426957472578412 
0 
0 
0 
0 
0 
0 
0 
0 
0 
0 
0 
0 
0 
0 
0 
0 
0 
0 
-0.6613097513730921 
0 
0 
0.04067921290167521 
0 
0 
0 
0 
0 
0 
0 
0 
-1.28929494198662 
0 
0 
-1.640292333762689 
0 
0 
0 
0 
0 
0 
0 
0 
0 
0 
0 
-0.2602124513173912 
0 
0 
0 
0 
-1.262982885382811 
0 
0 
0 
0 
0 
0 
0 
0 
0 
0 
0 
0 
0 
0 
0 
0 
0.1811647106160967 
-1.236003584517754 
-2.729714993310656 
0 
0 
0 
0 
0 
0 
0 
0.5946263879238041 
0 
0 
0 
0 
0 
0 
0.0634661686057402 
0 
0.06745643636022049 
-1.593282599948644 
0 
0 
-1.371527234251792 
0 
0 
0 
0 
1.279353511847333 
0 
1.447559426550547 
0 
0 
0 
-1.048331899867694 
0 
0 
0 
0 
0 
0 
0 
0 
0.1341421419740441 
0 
0 
0 
-0.7757415605725122 
1.434585978216767 
0 
0 
0 
0 
0 
3.225413672339326 
0 
0 
0 
0 
0 
0 
0 
0 
0 
0 
0 
0 
0 
0 
0 
0 
0 
0 
0 
0 
0 
-1.411158880976002 
0 
0 
0 
0 
0 
0 
6.043831705971275 
0 
0 
0 
0 
0 
0 
0 
0 
0 
0.2739403930904019 
-1.297959349705502 
0 
0 
0 
0 
0 
0 
-1.94057066557724 
0 
0 
0 
1.212519429980108 
0 
0.1383020577504827 
-0.09866572002673135 
0.1345604415044873 
-0.5725134081585088 
-0.9628082556839009 
1.424492764721846 
0 
0 
0 
0 
0 
0 
0 
-0.1897619940978503 
0 
0 
-1.095690570490195 
-0.2652623042046636 
0 
0 
0 
0 
-1.294942121438259 
0 
0 
-0.3959238656560432 
0 
0 
0 
0 
-0.2952162552831427 
-0.283442485330466 
0 
0 
0 
0 
0 
0 
0 
-0.7591146030426212 
0 
0.645799161451168 
0 
0 
3.926975390833613 
-2.673429418129062 
0 
0.5208587179170893 
0 
0.8328644386760101 
0 
0 
0 
-0.5340713972913278 
0 
0 
0 
0 
1.129741518011092 
0 
0 
0 
0 
0 
0 
0 
0 
0 
0 
0 
0 
0 
0 
0 
0 
0.691811514325527 
0 
0 
0 
0 
0 
-0.1559984040094447 
0 
0 
0.4010676499259159 
0 
0.7711000670872125 
0 
3.382830018853589 
-1.784421316765489 
0 
-3.179689523373012 
0 
-1.676159696328846 
-0.4510163493406135 
0 
0 
0 
0 
-0.9620744181558725 
0 
0 
-0.2671413707138255 
0 
0 
0 
-0.2890671349633079 
-1.640904213835468 
0 
0 
-0.6106625140114089 
0.3517232810766923 
-1.206960310667911 
-1.534238391557959 
0 
0 
0 
-2.574472389728648 
-0.04652049402865179 
0 
3.439220596891925 
0 
0 
1.048084974146545 
-0.9557449642671264 
0 
0 
0 
0.799512167958445 
0 
0 
0 
0 
0 
-1.076876768572159 
-0.3552819913927059 
-1.315568997689304 
0 
-3.645531011724283 
-0.5439469191206221 
0 
0 
-0.1567611398667399 
0 
0 
0 
0 
0 
0 
0 
-0.2511406132443635 
0 
-0.3917781532435085 
0 
0 
0 
0.4445091296720453 
0 
0 
-2.028637697553257 
0 
0 
0 
-1.723796974592764 
0 
0 
0 
0 
0 
0 
0 
0 
0 
-0.2346441693362056 
0 
0 
0 
0 
-1.855858534269006 
0.009804124069865371 
0 
0 
0.8541598848285241 
0 
0 
0 
-0.1201285825110906 
0 
0 
-2.315674772566153 
0 
0 
-0.600048342927285 
0 
0 
0 
0 
0 
0 
0 
0 
0 
0.6585505219056231 
0 
0 
0 
-0.1307702635292418 
0 
0 
0 
-2.001020361444284 
0 
0 
-0.03097620711706372 
0 
1.114976908329218 
0 
0 
0 
0 
0 
-1.700009295063615 
0 
0 
-3.100875278479197 
-0.2618678443283171 
0 
0 
0 
0 
0 
-1.134719118143113 
0 
0.2388167228267269 
0 
0 
-4.248733259600408 
0 
0 
0.7951107881582334 
0 
0 
0 
0 
-0.1032005969846651 
0 
0 
0 
0.6975320194512047 
0 
-0.536024095660902 
0 
-1.236920821446565 
0 
0 
0 
0 
-0.0933560069655824 
-1.103871248846192 
0 
0 
0 
-1.625446551762632 
0 
-0.5302877834469771 
0 
0 
0 
0 
0 
0 
0 
0 
0 
0 
0 
0 
0 
0 
-2.010906182157513 
-2.712376519125872 
0 
0 
0 
-1.022501750171207 
0 
0 
0 
0 
0 
0 
0 
0.2118298443189309 
0 
-2.502733819967897 
0 
0 
0 
0 
0 
0.8920307684620025 
0 
-0.3050360966838155 
0 
0 
0 
0 
0 
0 
0 
-0.05780319237090085 
0 
0 
0 
0 
0 
0 
-0.4924054849822014 
0.1930622512520088 
0 
-1.431221584243781 
0 
0 
0 
-0.7541943494086468 
0 
-3.33767257394166 
0.09319404684040022 
-1.462786743031058 
0 
0 
0 
0 
-0.1907508762322257 
0 
0 
0 
0 
0 
0 
0 
0 
0 
0 
0 
0 
0 
0 
-0.07705703210160754 
0 
-0.07463544176355856 
-1.736544442868224 
0 
0 
0 
0 
0 
0 
0 
0 
0 
0 
0 
-0.6718143723205237 
0.8536417502181167 
0 
0 
0 
0 
0 
0 
0.351896788400985 
0 
0 
0.0382024375019358 
0 
-0.3653789743149967 
0 
0 
0 
0 
0 
0 
0 
1.918567740137234 
0 
0 
-0.176981365640334 
0 
0 
0 
-0.9436977638685572 
0 
0 
0 
0 
0 
0 
0 
0 
0 
-0.555585163098951 
0 
-1.023001077442286 
0 
0 
0 
0.5571261158808545 
0 
0 
0 
0 
0 
0 
-0.1573031083933643 
0 
-2.801217332036704 
-1.127559279638153 
0 
-0.1623190532725998 
0 
0.5523741192223158 
0 
0.002238660549358951 
0 
0 
0 
-0.6934624112180171 
0 
-1.1765304190985 
0 
0 
1.498135556565873 
-0.008026713887424986 
-1.396918387679629 
1.398322877754023 
0 
0 
0 
0 
0.1298513837494183 
0 
0 
0 
0 
3.193501678059598 
0 
0 
0 
0 
0 
0 
0 
0 
0 
0 
0 
0 
0.3045061819293284 
-0.1542063371734398 
-0.6381119798958064 
0 
0 
0 
0.989836116258228 
0 
0 
1.04133270261958 
0 
0 
0 
0 
0 
-0.7112126262021438 
0 
0 
0 
0 
0 
0 
0 
0 
0 
0 
0 
0 
0 
0 
0 
0 
0 
0 
-0.1370452063482161 
-0.1933672205749517 
0 
-0.007782681850838949 
0 
0 
0 
2.712575610575127 
0 
0 
0 
-4.646901301532695 
0.1318225554695929 
0 
0 
0 
0 
0 
0.04462759079039633 
0 
0 
0 
0 
0 
0 
0 
0 
-1.862178298136255 
-1.718542149269221 
0 
0 
-1.218712492291362 
0.6887245910407849 
0 
0 
-1.290591477156149 
0 
0 
0 
0 
0 
0 
0 
0 
0 
0 
0 
0 
-1.672782959709213 
0 
0 
0 
0 
0 
0 
-0.4153466996011581 
0 
-0.8698684785016814 
0 
0 
0 
0.3031937433947556 
0 
0 
0 
0 
0 
0 
-0.3271931073017353 
0 
1.299908679487595 
0 
0 
0 
3.41010903099948 
0 
0 
0 
0 
0 
-0.1105881456482446 
0.703094019246592 
-0.1864162418173304 
0 
0 
-1.74743244020054 
-0.06944703035646611 
-0.5646899885163657 
0 
0 
0 
-0.7132588299208617 
-1.958890882150521 
0.02645845969623625 
0 
-2.557883631905573 
0 
-0.7227567334457294 
0 
0 
0 
0 
0 
0 
0 
0 
0 
0 
0.378492526630124 
0 
0 
0 
0 
0 
-1.392971076885958 
0 
0 
0 
0 
0 
0 
0 
0 
0 
0 
-0.7954133311426868 
0 
0 
0 
0 
0 
0 
0 
0 
0 
0 
1.225778347758928 
0 
0 
0 
0 
0 
0 
0 
0 
0 
0.9877822600561911 
0 
0 
0 
0 
-0.049393339183304 
0.1754508876796636 
0 
0 
0 
0 
0 
0 
0 
0 
0.5455557842387324 
0 
0.2556092306117629 
0 
0 
0 
0.4977445221341518 
0 
0 
0 
0 
-0.4487457226748149 
0 
0 
-1.809378374116794 
0 
0 
0 
0 
0 
0 
0 
-0.7905027634995326 
0 
0 
0 
0 
-1.586785012012016 
0 
-1.585766559516816 
-4.312149042188883 
0 
0 
0 
0 
0 
0 
-0.8404928372526996 
0 
0 
-1.542298130965957 
0 
0 
0 
0 
-1.237222404441187 
0 
1.226673002144691 
0 
0 
0 
0 
0 
0 
0 
0 
0 
0 
0 
0 
0 
0 
0 
0 
-0.7638029210438322 
0 
-0.5766420343319429 
0 
0 
0 
0 
0 
0 
0 
0.163602375273208 
-0.7907875370045259 
-1.242581546307065 
0 
0 
0 
0 
0 
0 
-0.4344514982314105 
0 
0.2437137759547099 
0 
2.538055699269145 
0 
0.2466220738420773 
-0.06974048786207142 
0.4177657973863977 
0 
0 
0 
0 
-0.7862453097668091 
0.07421083510080301 
-0.6379595553583628 
0 
0 
0 
0.9326162911389291 
0 
0 
0 
0 
0 
0 
0.4324685402907059 
0 
0 
0 
0 
0 
0 
-0.6227358113454101 
0 
-2.581072388224871 
0 
0 
0 
0 
0 
0 
0 
0 
0 
0 
0 
0.6668770907462446 
1.016259372287934 
0 
0.1712397235456388 
0 
0 
0 
0 
0.2760305899037877 
0 
0 
0 
0 
-0.6131370233273815 
0 
0 
0 
-0.86054054029637 
0 
-0.5942435598044551 
0 
0 
-0.5916211544617738 
0 
0 
0 
0 
0 
0 
0 
0 
0 
0 
-0.9371623096928266 
0 
0 
0 
-0.5588457792548247 
0 
-1.229768229273132 
0 
0 
0 
3.105711097125498 
0 
0 
5.800736054869938 
0 
0 
0 
-5.199129828278729 
0 
0 
1.807518305541259 
0 
0 
0 
0 
0 
0 
1.279238965204744 
-0.6378032474000324 
0 
0 
0 
0 
0 
0 
0 
0 
0 
0 
0 
0 
0 
0 
0 
0 
0 
0 
0 
0 
0 
0 
0 
-1.927786290085233 
0 
0 
-1.404666195301236 
0 
0 
0 
0 
0 
-0.2172661053833455 
0 
0 
0 
0 
0 
0 
0.09208540342334372 
0 
0 
0 
0 
-2.106436752584401 
-0.001228324693912359 
0 
0 
0 
0 
0 
0 
0 
0 
-0.109253693421536 
-0.7307035462238921 
0 
0 
0 
0 
-0.3456885207446938 
0 
0 
0 
0 
-1.071857158273262 
0 
0 
0 
0 
0 
1.14898088754303 
0 
0 
0.777053796300593 
0 
0 
0 
0 
0 
0.6557649494609986 
-0.3978894021173548 
0 
0 
-0.3007309424243245 
0 
-1.721622646386859 
0 
0 
0 
0 
0 
-0.1461893731507346 
0 
-0.3337302248179693 
0 
0 
0 
0 
0 
0 
0 
0 
-1.053992366672614 
0 
0 
0 
-0.473017597674332 
0 
0 
-5.111216332716339 
0 
0 
0 
0 
-6.832793679508582 
-1.644649852249413 
-1.305856761284654 
0 
0 
0 
-0.6009199296570278 
-0.7291709139521501 
1.070542818926723 
-1.088250177572445 
0 
0 
-0.9020750052188326 
0 
0 
0 
0 
0.1094620590913597 
0 
0 
0 
0 
0 
1.137022471754751 
0 
1.569356069876016 
0 
0 
0 
0 
-0.1863227793583226 
0 
0 
0 
0 
0 
1.924135153318943 
0.7773185169431718 
0 
0 
-1.916635164027932 
0 
0 
0 
-0.276369270669873 
0.7346265992156711 
0.4053288764853398 
-3.6121942044808 
-4.02492822969254 
0 
0 
0 
0 
-3.855051407506822 
0 
0 
0 
0 
0 
0 
0 
2.500476134363216 
0 
-1.910809611173856 
0 
0 
0 
-0.4934421384486667 
1.818265552822461 
0 
0 
0 
0 
0 
0 
0 
0 
0 
0 
-0.5046670384939367 
1.871589402041499 
0 
0.5839464874688893 
0 
0.384695844606493 
-0.5682674197326942 
0 
-0.7907607057054722 
0 
0 
-0.9635526208697299 
0 
0 
-0.6343496216439739 
-0.9465247781562218 
0.141589733683381 
0 
0 
0 
0 
-2.067736308630706 
0 
0 
-2.461142711706308 
0 
0 
0 
0 
0 
0 
1.572236942774289 
0 
0 
0 
0 
0 
0 
0 
-0.6956595961499081 
-0.5827981245457499 
0 
0 
0 
-0.5257579386864106 
0 
0 
0 
0 
0 
-4.843632853975355 
0 
0 
0 
0 
0 
0 
0 
0 
1.22684745927549 
0 
0 
-0.3525498581375842 
1.628163742194741 
1.793752456667228 
0 
0 
0 
0 
0 
0 
0 
0 
0 
0 
0 
0 
0 
0 
0 
0 
0 
0.7291664548364027 
0 
-0.123782327717736 
0 
0.5790297135793737 
0 
0 
2.101574293028255 
0 
-1.799693984396423 
0.8144080352547054 
0 
0.3680034205570808 
0 
0 
0 
0 
-2.407249502866967 
0 
1.452926224830555 
0 
-1.495314177963884 
0 
0 
0 
0 
0 
0 
0 
0 
1.788897312432782 
0 
0 
-0.161814065609105 
0 
0 
0 
0 
0 
-0.6818326836863836 
-0.364495754641956 
0 
0 
1.298951786938033 
0 
0 
0 
0 
0 
0.4056419549894759 
0 
0 
0 
0 
0 
0 
0 
0 
0.1949931373452415 
0 
0 
0 
0 
-0.0953889588043642 
0 
0 
0.08297286172078096 
-1.107205985806126 
0 
0 
-0.8900041020210314 
0 
0 
0 
0 
0 
0.5876931569860293 
0 
-3.540573461416685 
0 
0 
0 
0 
0 
0 
0 
0 
0 
0 
0 
0 
0 
0 
0 
0 
0 
0.2433695424850203 
0 
0 
0 
0 
0 
0 
0 
0 
0 
0 
0 
0.6666494512907533 
0 
0 
-0.710830795235472 
0 
0 
0 
0 
0 
0 
0 
0 
0 
0 
0 
0 
-1.442304296484364 
0 
0 
0 
0 
0 
0 
0 
0 
0 
0 
0 
0 
0 
0 
0 
0 
0 
0 
0 
0 
0 
0 
0 
0 
0 
-2.593694004529553 
0 
0 
0 
0 
0 
1.614255470329818 
0 
0 
-0.1091651310399548 
-0.6489228512232997 
-0.0450127323231897 
0.9389611005370802 
0 
0 
0 
0.1971181456366868 
0 
0 
0.08823585410604137 
0 
0 
0 
0 
-1.859595227027283 
0.01339088040696239 
0 
0 
0 
0 
0 
0 
0 
0 
0 
0.4531014673447662 
2.677858200535925 
0 
0 
0.6851540637864395 
0 
0.3249782566942827 
0 
0 
0 
0 
0 
0 
0 
0 
0 
0.9606755488520087 
0 
0 
0 
0 
0 
0 
0 
0 
0 
0 
0.5173745291552216 
0 
0 
0 
-0.4949585096457209 
-2.117004032088507 
0 
0 
0 
-1.417918500983889 
-1.230946119900713 
0 
-0.8851956173571236 
0 
0 
0 
0 
0 
0 
0 
0 
0 
4.115622885263139 
0 
0 
0 
0 
0 
0 
-2.191022672223837 
-0.1230411789162247 
0 
0 
-4.704630619662288 
0 
0 
0.1305575716240048 
1.304586169310599 
-0.0859135665919554 
0 
0 
-0.1413801072711635 
0 
0 
0.9224932534247099 
0 
0 
0 
2.352969252784279 
0.03049083869232507 
-1.616876279105176 
0 
0 
0 
0 
0 
0 
0 
0 
0 
0 
0 
0 
0 
0 
0 
0 
0 
0 
0 
0 
0 
0 
0 
-0.3358844286132338 
0 
0 
0 
0 
0 
0 
-0.4104736085231988 
0 
0 
0 
0 
0 
-5.519986645874485 
0 
1.686098896526266 
-0.2885192188977612 
0 
0 
0 
0 
0 
0 
1.35374139504728 
0 
0 
0 
0 
0 
0 
0 
0 
0 
0 
0.2971638441377698 
0 
0 
-1.068128167806955 
0.07376481392678336 
-0.463727435077858 
0 
0 
0 
-0.1611398619551763 
0 
0 
0 
0 
0 
0 
0 
-1.337044909921522 
-1.65911431595685 
0 
0 
0 
0 
0 
0.2803913937549871 
-0.08769986460423714 
0 
0 
0 
0 
0 
0 
0 
-1.69444613388499 
0 
-0.2448228144665408 
0 
0 
0 
0 
0 
0 
0 
0 
0.3746679873033569 
1.622957651284163 
0 
0 
0 
1.737792018679379 
0 
0 
0 
0.2072803996482909 
0 
-0.9115718643993261 
0 
0 
0 
0 
0 
0 
0 
0 
0.2650193663996808 
0 
-1.066270639647549 
0 
2.17110426164845 
-0.5583189975953516 
0 
1.303362256791357 
0 
-1.390775592718933 
0 
-0.4140693681369891 
0 
0 
0 
0 
0 
-0.3784322449888478 
0 
-0.7044108601541677 
0 
-2.309266205663473 
0 
1.037476448546737 
0 
0 
0.02614555491880102 
0 
0 
0 
0 
0.724271301632029 
-0.1513433330432271 
0 
0 
0 
0.7119712384393068 
0 
0 
0 
0 
0 
0 
0 
0 
-2.813337493575609 
0 
0 
0 
0 
0 
0 
0 
0 
0 
0 
0 
1.928266597820032 
0 
1.292279498571011 
0 
-0.7150683542610216 
0 
0 
0 
-2.162346234536642 
-0.7015361027011112 
0 
0 
0 
0 
0 
0 
0 
0 
0 
0 
0 
0 
-0.1536477910416911 
0 
0 
0 
0 
0 
0 
1.187462611519971 
0 
0 
0 
0 
0 
0 
0 
0.1861768624162174 
0 
0 
-4.929128860776517 
-1.048957831256946 
-1.040716217757565 
-0.7561831200633173 
0 
0 
0 
0 
0 
-2.106599232441225 
0 
0 
0 
0 
0 
0 
-1.187216781531844 
1.98301492349911 
0 
0 
0 
0 
0 
0 
0 
0 
0 
0 
0 
0 
0 
0 
0 
0 
0 
0 
0 
0 
0 
0.01922052372684704 
0 
0 
0 
0 
0 
0 
0 
0 
0 
0 
0 
0 
0 
0 
0 
0 
0.122906842412413 
0 
0 
0 
0 
0.1953713798777172 
0 
0 
0 
-0.9362220965427429 
0 
0 
0 
-0.5130863699968665 
0 
0 
0 
1.880437450054236 
1.292605799423802 
0.2946047049568989 
-0.2370965817040689 
0 
-0.0226531035656535 
0 
0 
2.646249263243985 
0 
0 
0 
0 
0.7354594096229606 
-1.40240833623706 
0 
0 
0 
0 
-0.2863254231128229 
0 
0.07314711342427807 
0 
0 
0 
0 
0 
0.1527453295953662 
0.6539760725216002 
0 
0 
0 
0 
0 
0 
0 
0 
0 
3.179466795220868 
0 
0 
1.117816109381028 
0 
0 
0 
0 
-0.8211093020947713 
0 
0 
0 
0 
0 
0 
0 
0 
-0.1669137842174786 
0 
0 
0 
0 
0 
0 
0 
0 
0 
0 
0 
0 
0 
0.07884872424004583 
0 
-0.07174451350414002 
0.499801122365103 
0 
1.497854046319339 
0 
0 
0 
0 
0 
0 
-1.762161770767866 
0 
-0.3307658903155372 
0 
0 
0 
0 
0 
0 
0 
0 
0 
-1.169822506348925 
-0.4822296216709694 
0 
0 
0 
0 
0 
0 
0 
0 
-0.4666509293812195 
0 
0 
0.05851396011109597 
0 
0.7018066260390365 
0 
0 
0.2229426182623264 
0 
0 
0 
0.07994318102811099 
0 
0 
0 
0 
0 
0 
0 
-2.103057052043273 
0 
0.8922755380242553 
0 
0 
0 
-2.263833158566751 
0 
0 
0 
0 
-0.6762349025214011 
0 
0 
0 
0 
0 
0 
0 
0 
0 
0 
0 
0 
0 
0 
0 
0 
-2.083379606959638 
0 
0 
0 
-1.462560602261786 
0 
-0.05164015712603472 
0 
0.9657802362486871 
0.6050448707366058 
0.2664916853567497 
0 
0 
-0.5968149132484676 
0 
0 
-1.05221339962161 
0 
0 
0 
0 
-1.154808672944 
0 
0 
0 
0 
0 
0 
-2.043013262810317 
0 
0.1471004091455284 
0 
-1.497995239929769 
0 
0 
0 
-1.825536970744131 
0 
0 
0 
0 
-7.540280001548718 
-5.246024421376635 
0.4352793499166687 
0 
0 
0 
-0.8761538279877301 
0 
-0.2065986936876401 
0 
0 
1.66614613485274 
0 
0 
0 
-0.6194671001539113 
0 
0 
0 
0 
0 
0 
0 
0 
0 
0 
-1.4055244171362 
0 
0 
0 
0 
0 
-1.485725214195834 
0 
0 
0 
0 
0 
0 
0 
0 
0 
0 
0 
0 
0 
0 
0 
0 
0.6368185144364584 
0 
0 
0 
0 
0 
0 
0 
0 
0 
0 
0 
0 
0 
0 
0 
-0.01651769855291456 
0 
0 
0 
0 
-0.2217549210498005 
-0.2517708377089221 
0 
0 
0 
0 
0 
0 
1.640778604880012 
0 
0 
0 
0 
0 
0 
0 
0.9676099340229071 
-0.01251264640013448 
0 
0 
0 
0 
0 
-0.6323136233964318 
0 
0 
0 
0 
0 
0 
0 
-0.4492946078967584 
0 
0 
0 
0 
0 
0 
0 
0 
0 
0.1954895753856754 
0 
0 
-0.5071858229985308 
1.595973927416042 
0 
0.5174117608249944 
0 
1.375389747116099 
0 
0 
0 
0 
0 
0 
0 
0 
-0.8874432259429675 
0 
0 
0 
0 
-1.86559088253129 
0 
1.28578037641712 
0 
0 
0 
0 
0 
0 
0 
2.085283636636162 
-0.5179609881614741 
0 
-0.2651935350589161 
0 
0 
0 
0 
0 
0 
0 
0 
0 
0 
0 
0 
0 
0 
0 
0 
0 
0.3071038776212391 
0 
-0.8418220315563325 
0 
0 
0 
0 
-1.216600481298886 
0 
0 
0 
0 
1.262420399801281 
0 
0 
0 
0 
0 
0 
0 
0.1426762434824235 
0 
0 
0 
0 
0 
0 
0.1352833792026449 
0 
3.350839717710254 
0 
0 
0 
0 
-0.3816522119893009 
0 
0 
-1.327295315271648 
0.1257286346966391 
0 
0 
-2.360726665656447 
0 
-0.809291167886254 
0.08978482478843725 
0 
-1.935970882391089 
0 
0 
0 
0 
0 
0.8438009745078454 
0 
0 
-1.542277981305509 
0 
0 
0 
0 
0 
0 
0 
0 
0 
0 
0 
0 
0 
0 
0 
0 
1.079846953675591 
0 
0 
0 
0 
-2.255689791962765 
0.2688106161995097 
0 
0 
0 
0 
0 
0 
0 
0 
0 
0 
0 
0 
0 
0 
0 
0 
14.1274314943273 
-0.5167141672430798 
0 
0 
0 
0 
0 
0 
0 
0 
0 
0 
0 
0 
0 
-1.156764100653345 
0 
0 
0 
-0.9808618858458971 
0 
0 
0 
0 
0 
0 
0 
0 
0 
-0.9740483512792943 
0 
0 
0 
-1.863504272282089 
0 
0 
-2.319487648150719 
-0.8659065820490411 
0 
-0.3571429634027549 
0 
0 
1.309320209418978 
-1.537518498016424 
0 
0 
-0.3437346506615328 
0 
0 
0 
-0.9312272635179096 
0 
-0.5827010475326994 
0 
0 
0 
0 
0 
0 
0 
0 
0 
0 
0 
0 
0.7825044817524274 
0 
0 
0 
0 
0 
0 
-0.5456636296365426 
0 
0 
0 
0 
0 
0 
0 
0 
0 
-0.4653244613124631 
0 
0 
0 
0 
0 
0 
0 
0 
0 
0 
0 
0 
-1.354429151857874 
0 
0 
0 
0.4349708989432387 
0 
0 
0 
0 
0 
0 
0 
0 
0 
0 
0 
0 
0 
0 
0 
0 
0 
0 
0 
0 
0 
0 
0 
0 
0 
0 
0 
0 
-0.05233674153478247 
0 
0 
0 
0 
-1.499722337033938 
0 
0 
0 
0 
0 
0 
0 
0 
0 
0 
0 
0 
0 
-0.7475873628596897 
0 
0 
0 
0 
-0.7322866750609679 
0 
0 
0 
0 
0 
-1.441747861871765 
0 
-0.7573187087786363 
0 
0 
0 
-2.469396855935207 
0 
-0.6916140613020774 
0 
0 
0 
0 
0 
0 
0 
0 
0 
0 
0 
0 
3.245818750443417 
0 
0 
0 
0 
0 
0 
0.392456905685597 
0.5091741993213071 
0 
0 
0 
0 
0 
0 
0 
0 
0.2383764959536485 
0 
0 
-1.511729320328355 
0 
0 
0 
0 
0 
-4.392138388533165 
0 
-3.800284908715299 
0.7976217427708435 
0 
0 
0 
0 
0 
0 
0 
0 
0 
-0.598633904819138 
0 
0 
0 
0 
0 
0 
0 
0 
0 
0 
0 
-0.7515023959236228 
0 
0.2260805129224238 
0 
0 
-4.083737117660141 
0 
0 
0 
-1.799913262437017 
0 
-1.251602865849995 
0 
0 
0 
0 
0 
0 
0 
0 
0 
0 
-0.6214643396248943 
0 
0 
0 
0 
0 
0 
0 
0 
0 
0 
0 
0 
0 
-1.196048352615543 
0 
0 
-1.46369396503311 
0.08626079061099205 
0 
0 
0 
0 
2.393936150180092 
0 
0 
0 
0 
0 
0 
0 
0 
0 
0 
0 
0 
-1.862971694271331 
0 
0 
0 
0 
0 
3.0497526229551 
0 
0 
0 
0 
0 
0 
0 
0 
0 
0 
0 
0.821937939998193 
0 
0 
0 
0 
0 
0 
0 
0 
0 
0 
0 
-0.06624880116080632 
0 
0 
0 
0 
0 
0 
-1.298319092939914 
0 
0 
0 
0 
0 
0 
0 
0 
-0.1608689251947162 
0 
-1.228826781042326 
0 
0 
0 
0 
0 
0 
0 
0 
0 
0 
0 
0 
0 
0 
0 
0 
0 
0 
0 
0 
0 
0 
0.5687770992712937 
0 
0 
0 
0 
0 
0 
0 
0 
0 
0 
0 
0 
0 
0 
0 
-0.9705431886419131 
0 
0 
0 
0 
0 
0 
0 
0.3278270739310019 
1.021905457521781 
0 
0 
0 
0 
0 
0 
0 
0 
0 
0 
0 
-0.9172476506119962 
0 
0 
0 
0 
0 
0 
0 
0 
0 
0 
0 
0 
0 
0 
0 
0 
0 
1.708841578910569 
0 
0 
0 
-0.3036172378842372 
0 
0 
0 
0 
0 
0 
0 
-2.254966059991305 
1.148840193803991 
0 
0 
0 
0 
0 
0 
0 
0 
0 
0 
0 
0 
0 
0 
0 
0 
0 
0 
0 
0 
0 
0 
0 
0 
0 
0 
0.6111078483267457 
0 
0 
0 
0 
0 
0 
0 
0 
0 
0 
0 
0 
-1.792455085425216 
0 
0 
0 
0 
0 
0 
0 
0 
0 
0 
0.8371158799130583 
0 
-1.104561781940482 
0 
0 
0 
0 
0 
0 
0 
0 
0 
0 
0 
0 
0 
0 
0 
0 
0 
0 
0 
0 
0 
0 
0 
-2.027352594408361 
0 
0 
0 
0 
0 
0 
0 
0 
0 
0 
0 
0 
0 
0 
0 
0 
0 
-1.257713478629822 
0 
0 
0 
-4.031494799636431 
0 
0 
0 
0 
-0.3074985628783922 
0 
0.8852406211684515 
0 
0 
0 
0 
-0.3181925283207682 
0 
0 
0 
0 
0 
0 
0 
0 
0 
0 
0 
0 
0 
-0.5145365659747438 
0 
0 
0 
0 
0 
0 
0 
0 
0 
0 
0 
0 
0 
-0.1554752007288404 
0 
0 
0 
0 
0 
0 
0 
0 
0 
0 
0 
0 
0 
0 
0 
0 
0 
0 
0 
0 
0 
0 
0 
0 
0 
0 
0 
0 
-0.9335976506646041 
0 
-1.284822056452485 
0 
0 
0 
0 
0.7221461329594141 
1.617661391980273 
0 
0 
0.06331606837804418 
0 
0 
0 
0 
0 
0 
0 
0 
0 
0 
0 
0 
0 
0 
0 
0 
0 
0 
0 
0 
0 
0 
0 
0 
0 
-3.885162805894359 
0 
-2.556872578371639 
0 
0 
0 
0 
0 
0 
0 
0 
0.3542110006836029 
0 
0 
0 
0 
0 
0 
0 
0 
0 
1.193423169413175 
0 
0 
-0.8972351058104042 
0 
0 
0 
0 
0 
0 
0 
0 
0 
0 
0 
0 
0 
-0.2502347683921407 
0 
0 
0 
0 
0 
0 
0 
0 
0 
0 
0 
0 
0 
-1.490651464745326 
0 
0 
0 
-3.928327935068734 
0 
0 
0 
0 
0.1862716174841498 
0 
0 
0 
0 
0.8024679857494796 
0 
0 
0 
0 
1.094164122478911 
0 
0 
0 
0 
0 
0 
0 
0 
-0.9964165508487457 
0 
0 
0 
0 
0 
0 
0 
0.9270140587171218 
0 
0 
-2.044804201992388 
0 
0 
0 
0 
0 
0 
-1.32677330310389 
0 
0 
0 
0 
0 
0 
-1.144955929925615 
0 
0 
0 
-0.5278532706453896 
-0.09347058969912962 
0 
0 
0 
0 
0 
0 
0 
0 
0 
0 
0 
0 
0 
0.3077315238793138 
0 
0 
0 
0 
0 
0 
0 
0.9967614055063676 
0 
0 
0 
0 
0 
0 
-1.104064255208921 
1.289953747537052 
0 
0 
0 
0 
0 
-2.348661147821562 
0 
0 
0 
0 
0 
0 
0 
0 
0 
0 
0 
0 
0 
0 
0 
0 
0 
0 
0 
-3.87366345101572 
0 
0 
0 
0 
0 
0 
0 
0 
0 
0 
-0.5686670091925495 
0 
0 
0 
0 
0 
0 
0 
0 
0 
0 
0 
0 
0 
0 
0 
0 
-0.1895020858644944 
0 
0 
0 
0 
0 
0 
0 
0 
0 
0 
0 
0.3478494931289076 
0 
-0.1879248489188346 
0 
0 
0 
0 
0 
0 
0 
0 
0 
0 
0 
0 
0 
0 
-0.2532448367315381 
0 
0 
0 
0 
0 
0 
0 
0 
0 
0 
0 
0 
0 
0 
0 
0 
0 
-2.690130433109379 
0 
0 
0 
0 
0 
0 
0 
-0.7056900857962882 
0 
0 
-0.7948075014217698 
0 
-1.726897941603779 
0.4081687035001185 
0 
1.302438154180114 
0 
0 
0 
0 
0 
0 
0 
0 
0 
0 
-3.915880751811112 
0 
0 
0 
0 
0 
0 
0 
0 
0 
0 
0 
0 
0 
0 
0 
-0.04169446193653395 
0 
0 
0 
0 
0 
2.182291042536764 
-0.7538577679351091 
0 
0 
0 
0 
0 
0.4269078465597188 
0 
0 
0 
-2.493595580066925 
1.316830483582205 
0 
0 
0 
0 
0 
0 
0 
0 
-2.315658496539549 
0 
0 
0 
0 
0 
0 
0 
0 
0 
0 
0 
0 
0 
0 
0 
0 
0 
0 
0 
0 
0 
0 
0 
0 
0 
0 
0 
0 
0 
0 
0 
0 
0 
0 
0 
0 
-0.7747934997872308 
0 
0 
0 
0 
0 
0 
0 
0 
0 
0 
0 
0 
0 
0 
0 
0 
0 
0 
0 
0 
0 
-1.810094658699188 
0 
0 
-1.361766914414924 
-0.008619150545632634 
0.02618678156904498 
0 
-1.528299570721463 
0 
0.07585414590225996 
0 
0 
0 
0 
0.640118957217821 
0 
0 
-0.8236299898251263 
2.007289695477455 
0 
0 
0 
0 
0 
0 
0 
0 
0 
-0.3301319960698524 
0 
0 
0 
0 
0 
0 
0 
0 
0 
0 
0 
0 
0 
0 
0 
0 
0 
0 
0 
0 
0 
-1.975748989577736 
0 
1.341521034665622 
-0.302952956531591 
0 
0 
0 
-0.9894249113029846 
0 
-0.7082690579971609 
0 
0 
0 
0 
0 
0 
0 
0 
0 
0 
0 
0 
0 
0 
0 
0 
-2.063322281032212 
0 
0 
0 
0 
0 
0 
1.851663978896324 
0 
0 
0 
0 
0 
0 
0 
0 
0 
0 
0 
0 
0 
0 
0 
0.4938642576973701 
-0.476017498796638 
0 
0 
0.1025422373243132 
0 
0 
0 
0 
0 
0 
0 
0 
0 
0 
0 
0 
0.9059473412323489 
0 
0 
0 
0 
0 
0 
0 
0 
0 
0 
0 
0 
0 
0 
0 
0 
0 
0 
0 
0 
0 
0 
0 
0 
0 
0 
0 
0.2917729243062195 
0 
0 
0 
0 
0 
0 
0 
0 
0 
0 
0 
0 
0 
0 
0 
0.1954752628137187 
0 
0 
0 
0 
0 
0 
0 
0 
0 
0 
0 
0 
0 
0 
0 
0 
0.1857642652766493 
0 
0 
0 
0 
0 
0 
0 
0 
0 
0 
0 
0 
0 
-0.04107834775656751 
-2.318107007690343 
0 
0 
0 
0 
0 
0 
0 
0 
0 
0 
0 
0 
0 
0 
0 
0 
0 
-1.231767699517851 
0 
0 
0 
0 
0 
0 
0 
0 
0 
0 
0 
0 
0 
-0.8105527382367143 
0 
0 
0 
0 
0 
0 
0 
0 
0 
0.8026936542182824 
0 
0 
0 
0 
0 
0 
0 
0 
0 
0 
0 
0.1756958858963237 
0 
0 
0 
0 
0 
0 
0 
-0.1605747691589389 
0 
0 
0 
0 
0 
0 
0 
0 
0 
0 
0 
0 
0 
0 
-1.530293555200402 
0 
0 
0 
0 
0 
0 
0 
0 
0 
0 
0 
1.436947747157709 
0 
0 
-1.048703741136602 
0 
0 
0 
0 
0 
0 
0 
0 
0 
-0.7319791140759059 
0 
0 
0 
0 
0 
0 
1.603083865415165 
0 
0 
0 
0 
0 
0 
0 
0 
0 
0 
-1.574984785077733 
0 
0 
0 
0 
0 
0 
0 
0 
0 
0 
0 
0 
0 
-0.08020331050408747 
0 
0 
0 
0 
0 
-0.6521395203460364 
0 
0 
0 
0 
0 
0 
0 
-0.1311994556945521 
0 
0 
0 
0 
0 
0 
0 
0 
0 
0 
0 
0 
0 
0 
0 
0 
0 
0 
0 
0 
0 
0 
0 
-0.202247191390714 
-0.2143742739610861 
0 
0 
0 
-1.353169647991043 
0 
0 
0 
0 
0 
0 
0 
0 
0.2236192742268932 
0 
0 
0 
0 
0 
0 
0 
0 
0 
0 
0 
0 
0 
0 
0 
0 
0 
0 
0 
0 
0 
0 
0 
0 
0 
0 
0 
0 
-0.7464659351973778 
0 
0 
0 
0 
0 
0 
0 
0 
-0.517375389433372 
0 
0 
0 
0 
0 
0 
0 
0 
0 
0 
0 
0 
0 
0 
0 
0 
0 
0 
0 
0 
0 
0 
0 
0 
0 
0 
0 
0 
0 
0 
0 
0 
0 
0 
0 
0 
0 
0 
0 
0 
0 
0 
0 
0 
0 
0 
0 
0 
0 
0 
0 
-0.7323290904834624 
0 
0 
0 
0 
0 
0 
0 
0 
0 
0 
0 
0 
0 
0 
0 
0 
0 
0 
0 
0 
0 
0 
0 
0 
0 
0 
0 
0 
-3.972918337970966 
-2.053437463543662 
0 
-1.353363439556018 
0 
0 
0 
0 
0 
0 
0 
0 
0 
0 
0 
0 
0 
0 
-0.1529657961821879 
0 
0 
0 
0 
0 
0 
0 
0 
-0.5832404752751936 
0 
0 
0 
0 
0 
0 
-1.846598337895662 
0 
0 
0 
0 
0 
0 
0 
0 
0 
0 
0 
0 
0 
0 
0 
0 
-1.573480796801136 
0 
-2.938809738183331 
0 
0 
0 
0 
0 
0.7743829126263112 
0 
0 
0 
0 
0 
0 
0 
0 
0 
0 
0 
0 
0 
-0.1970908183713459 
0 
0 
0 
0 
0 
0 
0 
1.095625158622109 
0 
0 
0 
0 
0 
0 
0 
-0.7465266593993561 
0 
0 
0 
0 
0 
0 
0 
0 
0 
0 
0 
0 
0 
0 
0 
0 
0 
-0.4859628168574143 
0 
0 
0 
0 
0 
0 
0 
0 
0 
0 
0 
0 
0 
0 
0 
0 
0 
0 
0 
0 
0 
0 
0 
0 
0 
0 
0 
0 
0 
0 
0 
0 
0 
0 
0 
0 
0 
0 
0 
0 
0 
0 
0 
0 
0 
0 
0 
0 
0 
0 
0 
0.6586353497395631 
-1.338505837696711 
-0.9839273896993378 
-0.532523614644734 
0.1065192664207134 
0 
0 
-0.6705946820008072 
0 
0 
0 
0 
0 
0 
0 
0 
0 
-0.03861807298442941 
-2.890717981863322 
0 
0 
0 
0 
-0.9999447239000286 
0 
0 
0 
0 
0 
0 
0 
0 
0 
3.251605162449307 
0 
0 
0 
0 
0 
0 
0 
0 
0 
0 
0 
0 
1.61501346831135 
0 
0 
0 
2.019152133928277 
0 
0 
0 
0 
0 
0 
0 
0 
0 
0 
0 
0.8354292146179907 
0 
0 
0 
0 
0 
0 
0 
0 
0 
0 
0 
0 
0 
0 
0 
0 
0 
0 
0 
0 
0 
0 
-0.8924133191419278 
0.3304694365927849 
0 
0 
0 
0 
0 
0 
0 
-1.835973040044108 
0 
0 
0 
-2.054380762534554 
-0.1543482532827529 
0 
0 
0 
0 
0 
0 
-0.1700408234823945 
0 
0 
0 
0 
0 
0 
0 
0 
0 
0 
0 
0 
0 
2.456215971969006 
0 
0 
0 
0 
0 
0 
0 
0 
0 
0 
0 
0 
0 
0 
0 
0 
0 
0 
0 
0 
0 
0 
0.7673055810664873 
0 
0 
0 
0 
0 
0 
0 
0 
0 
-1.481856243108663 
0 
0 
0 
0 
0 
0 
0 
0 
0 
0 
-3.921695517233408 
0 
0 
0 
0 
0 
-1.728818471717886 
0 
0 
0 
0.2451601153129643 
0 
0 
0 
0 
0 
0 
-0.7311492424378451 
0 
0 
0 
0 
0 
0 
0 
0 
0 
-2.687431848536808 
0 
0 
0.6383135013441336 
0 
0 
0 
0 
0 
0 
0 
0.1151708472101933 
0 
0 
0 
0 
0 
0 
-0.5496178935871787 
0 
0 
0 
0 
0 
0 
0 
0 
0.2634434791073408 
-2.033799742192292 
0 
0 
0 
0 
0 
0 
0 
0 
0 
0 
0 
0 
-3.096294500318338 
0 
0 
0 
-3.136294777021067 
-1.044774999793304 
0 
0 
0 
0 
0 
0 
-0.6616750537477545 
0 
0 
0 
0 
0 
0 
0.8751408965557191 
0 
0 
0 
0 
0 
0 
0 
0 
-1.020713097085084 
0 
0 
0 
0 
0 
-0.7100855543281551 
0 
-0.7422258686550548 
0 
0 
0 
0 
0 
-1.297769376324075 
0 
0 
0 
0 
0 
0 
0 
0 
0 
0 
0 
0 
0 
0 
0 
0 
0 
0 
0 
0 
0 
0 
0 
0 
0 
0 
0 
0 
0 
0 
0 
0 
0 
0 
0 
0 
0 
0 
0 
0 
0 
0 
0 
0 
0 
0 
-1.340201240238529 
-2.671104913939362 
0 
0 
0 
0 
-0.4874282429916976 
0 
0 
0 
0 
0 
0 
0 
0 
0 
0 
0 
0 
0 
0 
0 
0 
0 
0 
0 
0 
0 
0 
0 
0 
0 
0 
0 
0 
0 
0 
0 
0 
0 
0 
0 
0 
0 
-0.5002278892158941 
0 
0 
0 
0 
0 
0 
0 
0 
0.9392987912162707 
0 
0 
0 
0 
0 
1.355087334771339 
1.148847873767712 
0 
0 
0 
-1.961324993739131 
0 
0 
0 
0 
0 
0 
0 
0.5829762574878735 
0 
0 
0 
0 
0 
0 
0 
0 
0 
0 
0 
0 
0 
0 
0 
0 
0 
0 
0 
0 
0 
0 
0 
0 
0 
0 
-0.9200228674769301 
0.2035354467661353 
0 
0 
0 
0 
0 
0 
0 
0 
0 
0 
0 
0 
0 
0 
0 
0 
-0.8808125328792918 
0 
0 
0 
0 
0 
0 
0 
0 
0 
0 
0 
0 
0 
0 
0 
0 
0 
0 
0 
0 
0 
0 
-1.955328991400782 
0 
0 
0 
0 
0 
0 
0 
0 
0 
0 
0 
0 
0 
0 
0 
0.3987083051630312 
0 
0 
0 
0 
0 
0 
0 
0 
0 
0 
0 
0 
0 
0 
0 
0 
2.1599322667557 
0 
0 
0.4818102060917971 
0 
-1.865148026656965 
0 
0 
0 
-0.00947080784338198 
0 
0 
0 
0 
0 
-2.086396831762842 
0 
0 
0 
0 
0 
0 
1.323096290664008 
0 
0 
0 
0 
0 
0 
0 
-1.481737053298872 
0 
0 
0 
0 
-2.331973848596215 
0 
0 
0 
-0.610698125000165 
0 
0 
0 
0 
0 
0 
0.129783901621117 
0 
0 
0 
0 
0 
0 
0 
0 
0 
0 
0 
0 
0 
0 
0 
0 
0 
0 
0 
0 
-0.4347370592225684 
0 
0 
0 
0 
0 
0 
-1.100014538994061 
0 
0 
0 
0 
0 
0 
0 
0 
0 
0 
0 
0 
0 
0 
0 
0 
0 
0 
0 
0 
-2.82904236883587 
0 
-2.69526235140835 
0 
0 
0 
0 
0 
0 
0 
0 
-4.870154871571409 
-1.34834006250782 
0 
0 
0.862794234871075 
0 
0 
0 
0 
0 
0 
0 
0 
0 
-2.723540128747711 
0 
0 
0 
0 
0 
0 
0 
0 
0 
0 
0 
0 
0 
0 
0 
0 
0 
0 
0 
0 
0 
0 
0 
0 
0 
0 
0 
0 
-1.423465171446382 
0 
0 
-1.31199234422136 
0 
0 
0 
-0.1868802773785767 
0 
0 
0 
-0.2725048271854698 
0 
0 
0 
0 
0 
0 
0 
0 
0 
0 
0 
0 
0 
1.629553893146909 
0 
0 
0 
0 
0 
0 
0 
0 
0 
0 
0 
-3.213053627732323 
0 
0 
0 
0 
0 
0 
0 
0 
0 
0 
0 
0 
0 
0.1192239864332715 
0 
0 
0 
0 
0 
0 
0 
0 
0 
0 
0 
0 
-1.163036952624889 
0 
0 
0 
0 
0 
0 
0 
0 
0 
0 
0 
-0.02898224836040092 
0 
0 
0 
0 
0 
-1.225524204649284 
0 
0 
0 
0 
0 
0 
0 
0 
0 
0 
0 
0 
0 
0 
0 
0 
0 
0 
0 
0 
-6.217556412517305 
0 
0 
0 
0 
0 
0 
0 
0 
0 
0 
0 
0 
0 
0 
0 
0 
0 
0 
0 
0 
0 
0 
0 
0 
-1.179187964103071 
0 
0 
0.0610650973807943 
0 
0 
0.1425619319661645 
0 
0 
0 
0 
0 
0 
0 
0 
0 
0 
0 
0 
0 
0 
0 
0 
-0.8392320533027161 
0 
0 
0 
0 
0 
0 
0 
0 
0 
0 
0 
0 
0 
0 
0 
0 
0 
0 
0 
0 
0 
0 
6.373019197240158 
0 
0 
0 
0 
0 
0 
0 
0 
0 
0 
0 
0 
0 
0 
0 
0 
0 
0 
0 
0 
0 
0 
0 
0 
0 
0 
0 
0 
0 
0 
0 
0 
0 
0 
0 
-0.6772306552910095 
0 
0 
0 
-0.8841575146897024 
0 
0 
0 
-2.034923561886435 
0 
0 
0 
0 
0 
0 
0 
0 
0 
0 
0 
0 
2.199547446528672 
0 
0 
0 
0 
2.295130502081177 
0 
0 
0 
0 
-0.09018545313363459 
0 
-1.671377144620772 
0 
0 
0 
0 
0 
0 
0 
0 
0 
0 
0 
0 
0 
0 
0 
0 
0 
0 
0 
-0.5154233170400941 
0 
0 
0 
0 
0 
0.744590719760222 
0 
0 
0 
0 
-0.1693777296451243 
0 
0 
0 
0 
0 
0 
0 
0 
0 
0 
0 
0 
-0.1146389983296861 
0 
0 
0 
0 
0 
0 
0 
0 
0 
0 
0 
0 
0 
0 
0 
1.865557796883336 
0.7252627355408502 
0 
0 
1.474658679357183 
0 
0 
0 
0 
0 
0 
0 
0 
0 
0 
0 
0 
0 
0 
0 
0 
0 
0 
1.07171251972712 
0 
0 
0.2058116960346608 
0 
0 
0 
0 
0 
0 
0 
0 
0 
0 
0 
0 
0 
0 
0 
0 
0 
0 
0 
0 
0 
1.403058286841457 
-2.067477281134749 
0 
0 
0 
0 
0 
0 
0 
0 
0 
0.395874493978692 
-0.7640269341519638 
0 
0 
0 
1.117307621800637 
0 
0 
0 
0 
0 
-0.7758993908510602 
0.7649272944916291 
0 
0 
0 
0 
0 
0 
0 
-1.44929396467745 
0 
0 
0 
0 
0 
0 
0 
0 
-1.090289128188419 
-0.07243000401525154 
0 
0 
0 
0 
0 
0 
0 
0 
0 
-1.307006824283641 
0 
0 
0 
0 
0 
0 
0 
0 
0 
0 
0 
-2.208308947583267 
0 
0 
0 
0 
0 
0 
0 
0 
0 
0 
0 
-0.420163868229994 
0 
-1.249680322472153 
0.3130316341915811 
0.8528386288297633 
0 
0 
0 
-0.241584979345772 
-2.093204768542188 
0 
-0.9919580870764357 
-0.2483215845324615 
0 
0 
0 
0 
0 
0 
0 
0 
0 
0 
0 
0 
0 
0 
0 
0 
0 
0 
0 
0 
0.6964654047798885 
0 
0 
0 
0 
0 
0 
0 
0 
0 
0 
0 
0 
0 
0 
0 
0 
0 
0 
0 
0 
0 
0 
0 
0 
0.1470025594818136 
0 
0 
0 
1.020862002252895 
0 
0 
-3.593720983457077 
0 
0 
0 
0 
-1.047957772750079 
0 
0 
0 
0 
0 
0 
0 
0 
0.2573127715075795 
0 
0 
0 
0 
0 
0 
0 
0 
0 
0 
0 
0 
0 
0 
0 
0 
0 
-0.9642064403699608 
0 
0 
0 
0 
0 
0 
0 
0 
0 
0 
0 
0 
0 
-2.209525179184951 
0 
0 
0 
0 
-0.2737961760650796 
0 
0 
0 
0 
0 
0 
0 
0 
0 
0 
0 
0 
0 
0 
0 
0 
0 
0 
0 
0 
0.6227624091021852 
0 
0 
0 
0 
0 
0 
0 
0 
0 
-1.889171431587996 
0 
0 
0 
0 
0 
0 
0 
0 
0 
0 
-0.6711077612485452 
0 
0 
0 
0 
0 
0 
0 
0 
0 
0 
0 
0 
0 
0 
0 
0 
0 
0 
0 
0 
0 
0 
0 
0 
0 
0 
0 
0 
0 
0 
0 
0 
-1.028064592449734 
0 
0 
0 
0 
0 
0 
0 
0 
0 
0 
0 
0 
0 
0 
0 
0 
0 
0 
0 
0 
0 
0 
0 
-0.5989900461677921 
0 
0 
0 
0 
0 
0 
0 
0 
0 
0 
0 
0 
0 
0 
0 
0 
0 
0 
0 
0 
0 
0 
0 
0 
0 
0 
0 
0 
0 
0 
0 
0 
0 
0 
0 
0 
0 
0 
0 
0 
0 
0 
0 
0 
0 
0 
0 
0 
0 
0 
0 
0 
0 
0 
0 
0 
0 
0 
-1.798122143607513 
0 
0 
0 
0 
0 
0 
0 
-0.09607315003131353 
0 
2.172350645895639 
0 
0 
0 
0 
0 
0 
0 
-0.08205687773312373 
0 
0 
0 
0 
0 
0 
0 
0 
0 
0 
0 
1.328077801303597 
0 
0 
0 
0 
0 
0 
0 
0 
0 
0 
0 
0 
0 
0 
0 
0 
0 
0 
0 
0 
0 
0 
0 
0.7488693416950333 
0 
0 
0 
0 
0 
0 
0 
0 
0 
0 
0 
0 
0 
0 
0 
0 
0 
0 
0 
0 
0 
0 
0 
0 
0 
0 
0 
0 
0 
-2.389743004057418 
0 
0 
0 
-2.042320484435829 
0 
0 
0 
0 
0 
0 
0 
0 
0 
0 
0 
0 
-0.5461148894984516 
0 
0 
0 
0 
-0.2890734965111917 
0 
0 
0 
0 
0 
0 
0 
0 
0 
-3.003693167818924 
0 
0 
0.6233562629163679 
0 
0 
0 
0 
0 
0 
-3.715566117383327 
0 
0 
0 
0 
0 
-0.05652198568784626 
0 
0.3499766038274831 
0 
0 
0 
0 
0 
1.420667230938096 
0 
0 
0 
0.05815979151249862 
0 
2.391669602512361 
0 
0 
0 
0 
0 
0 
0 
0 
0 
-0.938899995654862 
0 
0 
0 
0 
0 
0 
0 
0 
0 
0 
0 
0 
0 
0 
0 
0 
0 
0 
0 
0 
0 
0 
0 
0 
0 
0 
0 
0 
0 
0 
0 
0 
0 
0 
0 
0 
0 
0 
0 
0 
0 
0 
0 
0 
0 
0 
0 
0 
0 
0 
0 
0 
0 
0 
0 
0 
0 
0 
0 
0 
0 
0 
0 
0 
0 
0 
0 
0 
0 
0 
0 
-1.262334747111942 
0 
0 
0 
0 
0 
0 
0 
0 
0 
0 
0 
0 
0 
0 
0 
0 
0 
0 
0 
0 
0 
0 
0 
0 
0 
0 
0 
0 
0 
0 
0 
0 
0 
0 
0 
0 
0 
0 
0 
0 
0 
0 
0 
0 
0 
0 
0 
0 
0 
0 
0 
0 
0 
0 
0 
0 
0 
0 
0 
0 
0 
0 
0 
0 
0 
0 
0 
0 
0 
0 
0 
0 
0 
0 
0 
0 
0 
0 
0 
0 
0 
0 
0 
0 
0 
-0.7198215875462488 
0 
-4.664752118859321 
3.081233621226147 
0 
0 
0 
0 
0 
0 
0 
0 
0 
0 
0 
0 
0 
0 
0 
0 
0 
0 
0 
0 
0 
-0.2388096464168877 
0 
0 
0 
0 
0 
0 
0 
0 
0 
0 
0 
0 
0 
0 
0 
0 
0 
0 
0 
0 
0 
0 
0 
0 
0 
0 
0 
0 
0 
0 
0 
0 
0 
0 
0 
0 
0 
0 
0 
0 
0 
0 
0 
0 
-2.876273345894204 
0 
0 
2.992013797354879 
0 
0 
-1.285752494355044 
0 
-1.181838114091788 
1.914184319542073 
0 
0 
0 
0 
0 
0 
0 
0 
0 
-0.8387855772895828 
0.5679800843653579 
0 
0 
0 
0 
0 
0 
0 
0 
0 
0 
0 
0 
0 
0 
0 
0 
0 
0 
0 
0 
0 
0 
0 
0 
-7.193928477282293 
0 
0 
0 
-0.1761301125879754 
0 
0 
0 
0 
0 
0 
0 
0 
0 
0 
-0.2880531880743834 
0 
0 
0 
0 
0 
0 
0 
0 
0 
0 
0 
0 
0 
0 
0 
0 
0 
0 
0 
0 
0 
0 
0 
0 
0 
0 
0 
0 
0 
0 
0 
0 
0 
0 
0 
0.2579465886741318 
0 
0 
0 
0 
0 
0 
0 
0 
0.2110561824614465 
0 
0 
0 
0 
0 
0 
0 
-0.1488958938696696 
0 
0 
0 
0 
0 
0 
0 
0 
0 
0 
0 
0 
0 
0 
0 
0 
0 
0 
0 
0 
0 
0 
0 
0 
0 
0 
0 
0 
0 
0 
0 
0 
0 
0 
0 
0 
0.171032266036589 
0 
0 
0 
0 
-0.6727936328325376 
0 
0 
0 
0 
0 
0 
0 
0 
0 
0 
0 
0 
0 
0 
-0.9200384878280704 
0 
0 
0 
0 
0 
0 
0 
0 
0 
0 
0 
0 
0 
0 
0 
-0.1139166758358764 
0 
0 
0 
0 
0 
0 
-0.8742684364763587 
-2.954558553963453 
0 
0 
0 
0 
0 
0 
0 
0 
0 
0 
0 
0 
0 
0 
0 
0 
0.4290175928698934 
0 
0 
0 
0 
0 
0 
0 
0 
0 
0 
0 
0 
0 
1.656880812401475 
0 
0 
0 
0 
0 
0 
0 
0 
0 
0 
0 
0 
0 
0 
0 
0 
0 
0 
0 
0 
0 
0 
-0.5498434701900974 
1.795580011816037 
0 
0 
0 
0 
0 
0 
0 
0 
-0.6574546392522541 
0 
0 
0 
0 
0 
0 
0 
0 
-0.3154514866693997 
0 
0 
0 
0 
0 
0 
0 
0 
0 
0 
0 
0 
0 
0 
0 
0 
0 
0 
0 
0 
0 
0 
0 
0 
0 
0 
0 
0 
0 
0 
-2.149704366678375 
0 
0 
0 
0 
0 
-0.07328074442934406 
0 
1.05760396905542 
0 
0 
0 
0 
0 
0 
0 
0 
0 
0 
0 
0 
0 
0 
0 
0 
0 
0 
0 
0 
0 
0 
1.094352230870365 
0 
0 
0 
0 
0 
0 
0 
0 
0 
0 
0 
0 
0 
-0.04787488847155035 
0 
0 
0 
0 
0 
0 
0 
0 
0 
0 
0 
0 
0 
0 
0 
0 
0 
0 
0 
0 
0 
0 
0 
0 
0 
0 
0 
0 
0 
0 
0 
0 
0 
0 
-0.1650038208837832 
0 
0 
0 
0 
0 
-0.6608043500365941 
0 
0 
0 
0 
0 
0 
0 
0 
0 
0 
0 
0 
0 
0 
0 
0 
0 
0 
0 
0 
0 
0 
0 
0 
0 
0 
0 
0 
0 
0 
0 
0 
0 
0 
0 
0 
0 
0 
0 
0 
0 
0 
0 
0 
0 
0 
0 
0 
0 
0 
0 
-0.8563052945825471 
0 
0 
0 
0 
0 
0 
0 
0 
0 
0 
0 
-1.92408376942129 
0 
0 
0 
0 
0 
0 
0 
0 
0 
0 
0 
0 
0 
0 
0 
0 
0 
0 
0 
0 
0 
0 
0 
0 
0 
0 
0 
0 
0 
0 
0 
0 
0 
0 
0 
0 
0 
0 
0 
0 
0 
0 
0 
0 
0 
0 
0 
-0.6860736692011897 
0 
0 
0 
0 
0 
0 
0 
0 
0 
0 
0 
0 
0 
0 
-1.558114645923139 
0 
0 
0 
0 
0 
0 
0 
0 
0 
0 
0 
-0.2905659253476372 
0 
0 
0 
0 
0 
0 
0 
0 
0 
0 
0 
0 
0 
0 
0 
0 
0 
0 
0 
0 
0 
0 
0 
0 
0 
0 
0 
0 
0 
0 
0 
0 
0 
0 
0 
0 
0 
0 
0 
0 
0 
0 
0.3637046607466533 
0 
0 
0 
0 
0 
0 
0 
0 
0 
0 
0 
0 
0 
0 
0 
0 
0 
0 
0 
0 
0 
0 
0 
0 
0 
0 
0 
0 
0 
0 
0 
0 
0 
0 
0 
0 
0 
0 
0 
-1.334860868511437 
0 
0 
0 
0 
0 
0 
0 
0 
0 
0 
0 
0 
0 
0 
0 
0 
0 
0 
0 
-0.7282940411233756 
0 
0 
0 
0 
0 
0 
0 
0 
0 
0 
0 
0 
0 
0 
0 
0 
0 
0 
0 
0 
0 
0 
-0.5991860408997993 
0 
0 
0.9763409441079862 
0 
0 
0 
0 
0 
0 
-0.5784532442921868 
0 
0 
0 
0 
0 
0 
0 
0 
0 
0 
0 
0 
0 
0 
0 
0 
0 
0 
0.003666655094948429 
0 
0 
0 
0 
0 
0 
0 
0 
0 
0 
0 
0 
0 
0 
0 
0 
0 
0 
0 
0 
0 
1.532739501149762 
0 
1.079967553963102 
0 
0 
0 
0 
-0.4817492312344044 
0 
0 
0 
0 
0 
0 
0 
0 
0 
0 
0 
0 
0 
0 
0 
0 
0 
0 
0 
0 
0 
-0.9733810389535373 
0 
0 
0 
0.4516384392392664 
0 
0 
0 
0 
0 
0 
0 
0 
0 
0 
0 
0 
0 
0 
0 
-0.2656804556905417 
3.269473966422273 
0 
0 
0 
0 
0 
0 
0 
0 
0 
0 
0 
0.3522956549652857 
0 
-3.025743729026562 
-0.2853247474109722 
0 
0 
0 
0 
0 
-1.15311637196494 
0 
0 
0 
0 
0 
0 
0 
0 
0 
0 
0 
0 
0 
0 
-0.4360626762245309 
0 
0 
0 
0 
0 
0 
0 
0 
0 
0 
0 
0 
0 
0 
0 
0 
0 
0 
0 
0 
0 
0 
0 
0 
0 
0 
0 
0 
0 
0 
0 
0 
0 
0 
0 
0 
0 
0 
0 
0 
0 
0 
0 
0 
-0.8505629420803046 
0 
0 
0 
0 
0 
3.630775855891141 
0.9958377363187591 
0 
0 
0 
0 
0 
0 
0 
0 
0 
0 
0 
0 
0 
0 
0 
0 
0 
0 
0 
0 
0 
0 
0 
0 
0 
0 
0 
0 
0 
0 
0 
0 
0 
0 
0 
0 
0 
-1.685930550699074 
0 
0 
0 
0 
0 
0 
0 
0 
0 
0 
0 
0 
0 
0 
0 
0 
0 
0 
0 
0 
0 
1.916564724258006 
0 
0 
0 
0 
0 
0 
0 
-2.034142421264507 
0 
0 
0 
0 
0 
0 
0 
0 
0 
0 
0 
0 
0 
0 
0 
0 
0 
0 
0.08823859963791692 
0 
1.546684139454112 
0 
0 
0 
0 
0 
0 
0 
-1.074438432505263 
0 
0 
0 
0 
0 
0 
0 
0 
0 
0 
0.3600304370827545 
0 
0 
0 
0 
0 
0 
0 
0 
0 
0 
-0.1159179804176078 
0 
0 
0 
0 
0 
0 
0 
0 
0 
0 
0 
0 
0 
0 
0 
0 
0 
0 
0 
0 
0 
0 
0 
0 
0 
0 
0 
-0.3626683630634487 
0 
0 
0 
0 
0 
0 
0 
0 
0 
0 
0 
0 
0 
0 
0 
0 
0 
0 
0 
0 
0 
0 
0 
0 
0 
0 
0 
0 
0 
0 
0 
0 
0 
0 
0 
0 
0 
0 
0 
0 
0 
0 
2.732350911658312 
0.9527047836642908 
0 
0 
0 
0 
0 
0 
0 
0 
0 
0 
0 
0 
0 
0 
0 
0 
1.245143988949714 
0 
0 
0 
0 
0 
0 
0 
0 
0 
0 
0 
0 
0 
0 
0 
0 
0 
0 
0 
0 
0 
0 
0 
0 
0 
0 
0 
0 
0 
0 
0 
0 
0 
0 
0 
0 
0 
0 
0 
0 
0 
0 
0 
0 
0 
0 
0 
0 
0 
0 
0 
0 
0 
-0.04106013875114113 
0 
0 
1.202415143418322 
0 
0 
0 
0 
0 
0 
0 
0 
0 
0 
0 
0 
0 
0 
0 
0 
0 
0 
0 
0 
0 
0 
0 
0 
0 
0 
0 
0 
0 
0 
0 
0 
0 
0 
0 
0 
0 
0 
0 
0 
0 
0 
0 
0 
0 
0.8309808865738084 
0 
-1.972717724568204 
0 
0 
0 
0 
0 
0 
0 
0 
0 
0 
0 
0 
0 
0 
0 
0 
0 
0 
0 
-2.996821792958682 
0 
0 
-0.4522269088822346 
0 
0 
0 
0 
-3.146652329865217 
0 
0 
0 
0 
0 
0 
0 
0 
2.067424490733562 
0 
0 
0 
0 
0 
0 
0 
0.06958080928008562 
0 
0 
0 
0 
0 
0 
0 
0 
0 
0 
0 
0 
0 
0 
0 
0 
0 
0 
0 
0 
0 
0 
0 
0 
0 
0 
0 
0 
0 
0 
0 
0.06855233342419791 
0 
0 
0 
-1.337052872382531 
0 
0 
0 
0 
0 
0 
0 
0 
0 
0 
0 
0 
0 
-1.335252326825053 
0 
0 
0 
0 
0.3717899125179134 
0 
0 
0 
1.046786069983295 
0 
0 
0 
0 
0 
0 
0 
0 
0 
0 
0 
0 
0 
0 
0 
0 
0 
0 
0 
0 
0 
0 
0 
0 
0 
0 
0 
0 
0 
0 
0 
0 
0 
0 
0 
0 
0 
0 
0 
0 
0 
0 
0 
0 
0 
0 
0 
0 
0 
0 
0 
0 
0 
0 
0 
0 
0 
0 
0 
0 
0 
0 
0 
0 
0 
1.190131674115057 
0 
0 
0 
0 
0 
0 
0 
0 
0 
0 
0 
0 
0 
0 
0 
0 
0 
0 
0 
0 
0 
0 
0 
0 
0 
0 
0 
0 
0 
0 
0 
1.856940866455121 
0 
0 
0 
0 
0 
0 
0 
0 
0 
0 
0 
0 
0 
0 
0 
0 
0 
0 
0 
0 
0 
0 
0 
0 
0 
0 
0 
0 
0 
0 
0 
0 
0 
0 
0 
0 
0 
0 
0 
0 
0 
0 
0 
0 
0 
0 
0 
0 
0 
0 
0 
0 
0 
0 
0 
0 
0 
0 
0 
0 
0 
0 
0 
0 
0 
0 
0 
0 
0 
0 
0 
0 
0 
0 
0 
0 
0 
0 
0 
1.764497444725111 
0 
0 
0 
0 
0 
0 
0 
0 
0 
0 
0 
0 
0 
0 
0 
0 
0 
0 
0 
0.06856307929049499 
0 
0 
0 
0 
0 
0 
0 
0 
0 
0 
0 
0 
0 
0 
0 
0 
0 
0 
0 
0 
0 
0 
0 
0 
0 
0 
0 
0 
0 
0 
0 
0 
0 
0 
0 
0 
0 
0 
0 
0 
0 
0 
2.758475451587973 
0 
0 
0 
0 
0 
0 
0 
0 
0 
0 
0 
0 
0 
0 
0 
0 
0 
0 
1.692413101586891 
0 
0 
0 
0 
0 
0 
0 
-3.339939143626074 
0 
0 
0 
0 
0 
0 
0 
0 
0 
0 
0 
0 
0 
0 
0 
0 
0 
0 
0 
0 
0 
0 
0 
0 
0 
0 
0 
0 
0 
0 
0 
0 
0 
0 
0 
0 
0 
0 
0 
0 
0 
0 
0 
0 
0 
0 
0 
0 
0 
0 
0 
0 
0 
0 
0 
0 
0 
0 
-0.573239951743573 
0 
0 
0 
0 
0 
0 
0 
0 
0 
0 
0 
0 
0 
0 
0 
0 
0 
0 
0 
0 
0 
0 
0 
0 
0 
0 
0 
0 
0 
0 
0 
0 
0 
0 
0 
1.117825826598821 
0 
0 
0 
0 
0 
0 
0 
0 
0 
0 
0 
0 
0 
0 
0 
0 
0 
0 
0 
0 
0 
0.8138224588900088 
0 
0 
0 
0 
0 
0 
0 
0 
0 
0 
0 
0 
0 
0 
0 
0 
0 
0 
0 
0 
0 
0 
0 
0 
0 
0 
0 
0 
0 
0 
0 
0 
0 
0 
0 
0 
0 
0 
0 
0 
0 
0 
0 
0 
0 
0 
0 
0 
0 
0 
0 
0 
0 
0 
0 
0 
0 
0 
0 
0 
0 
0 
0 
-1.477942151644299 
0 
0 
0 
0 
0 
0 
0 
0 
0 
0 
0 
0 
0 
0 
0 
0 
0 
0 
0 
0 
0 
0 
0 
0 
0 
0 
0 
0 
0 
0 
0 
0 
0 
0 
0 
0 
0 
0 
0 
0 
0 
0 
0 
0 
0 
0 
0 
0 
0 
0 
0 
0 
-1.868838091287663 
0 
-0.4163936253299464 
0 
0 
-0.4068155353742112 
0 
0 
0 
0 
-1.652223561061663 
0 
0 
-0.4214697516511872 
0 
0 
0 
0 
0 
0 
0 
0 
0 
0 
0 
0 
0 
0 
0 
0 
0 
-2.625884987249102 
0 
0 
0.8766837449029635 
0 
0 
0 
0 
0 
0 
0 
0 
0 
0 
0 
0 
0 
0 
0 
0.6307772592991874 
0 
0 
0 
0 
0 
0 
-0.3354593202055719 
0 
0 
0 
0 
0 
2.608942190197177 
0 
0 
0 
0 
0 
0 
0 
0 
0 
0 
0 
0 
0 
0 
0 
0 
0 
0 
0 
0 
0 
0 
0 
0 
0 
0 
0 
0 
0 
0 
0 
0 
0 
0 
0 
0 
0 
-2.375048288983663 
0 
0 
0 
0 
0 
0 
0 
0 
0 
0 
0 
0 
0 
0 
0 
0 
0 
0 
0 
0 
0 
0 
0 
0 
0.07734268020508069 
0 
0 
0 
0 
0 
0 
0 
0 
0 
0 
0 
0 
0 
0 
0 
0 
0 
0 
0 
0 
0 
0 
0 
0 
0 
0 
0 
0 
0 
0 
0 
0 
0 
0 
-0.07009875528076937 
0 
0 
0 
0 
0 
1.096241746451272 
0 
0 
0 
0 
0 
0 
0 
-0.6516187324092637 
0 
0 
0 
0 
0 
0 
0 
0.2515764929060863 
0 
0 
0 
0 
0 
0 
0 
0 
0 
0 
0 
0 
0 
0 
0 
0 
0 
0.5434984697155857 
0 
0 
0 
0 
0 
0 
0 
0 
0 
0 
0 
0 
0 
0 
0 
0 
0 
0 
0 
0 
0 
0 
0 
0 
0 
0 
0 
-2.144144291098379 
0 
0 
0 
0 
0 
0 
0 
0 
0 
0 
0 
0 
0 
0 
0 
0 
0 
0 
0 
0 
0 
0 
0 
0 
0 
0 
0 
0 
0 
0 
0 
0 
0 
0 
0 
0 
0 
0 
0 
0 
1.025685709685804 
0 
0.3179476240827667 
0 
0 
0 
0 
0 
0 
0 
0 
0 
0 
0 
0 
0 
0 
0 
0 
0 
0 
0 
0 
2.889991726833942 
0 
-0.5182139488528951 
0 
0 
0 
0 
0 
0 
0 
0 
0 
0 
0 
0 
0 
0 
-2.849967091901565 
0 
0 
0 
0 
0 
0 
0 
0 
0 
0 
0 
0 
0 
0 
0 
0 
0 
0 
0 
0 
0 
0 
0 
0 
0 
0 
0 
0 
0 
0 
-0.0179119206470957 
0 
0 
0 
0 
0 
0 
0 
0 
0 
0 
0 
0 
0 
0 
0 
0 
2.063182850660951 
0 
0.05039774955222266 
0 
0 
0 
0 
0 
0 
0 
0 
0 
0 
0 
0 
0 
0 
0 
0 
0 
0 
0 
0 
0 
0 
0 
0 
0 
0 
0 
0 
0 
0 
0 
0 
0 
0 
0 
0 
0 
0 
0 
0 
0 
0 
0 
0 
0 
0 
0 
0 
0 
0 
0 
0 
0 
0 
0 
0 
0 
0 
0 
0 
0 
0 
0 
0 
0 
0 
0 
0 
0 
0 
0 
0 
0 
0 
0 
0 
0 
0 
0 
0 
0 
0 
0 
0 
0 
0 
0 
0 
0 
0 
0 
0 
0 
0 
0 
0 
0 
0 
0 
0 
0 
0 
0 
0 
0 
0 
0 
0 
0.2301460623352115 
0 
0 
0 
0 
0 
0 
0 
0 
0 
0 
0 
0 
0 
0 
0 
0 
0 
0 
0 
0 
0 
0 
0 
0 
0 
0 
0 
0 
0 
0 
0 
0 
0 
-0.06174688586443537 
0 
0 
0 
0 
0 
0 
0 
0 
0 
0 
0 
0 
0 
0 
0 
0 
0 
0 
0 
0 
0 
0 
-1.03378714220727 
0 
0 
0 
0 
0 
0 
0 
0 
0 
0 
0 
0 
-0.7012937811654195 
0 
0 
0 
0 
0 
0 
0 
0 
-1.345950636793606 
0 
0 
0 
0 
0 
0 
0 
0 
0 
0 
0 
0 
0 
0 
0 
0 
0 
0 
0 
0 
0.2360776998761618 
0 
0 
0 
0 
0 
0 
0 
0 
0 
0 
0 
0 
0 
0 
0 
0 
0 
0 
0 
0 
0 
0 
0 
0 
0 
0 
-1.000485801790437 
0 
0 
0 
0 
0 
0 
0 
0 
0 
0 
0 
0 
0 
0 
0 
0 
0 
0 
0 
0.7586806708223537 
0 
0 
0 
0 
0 
0 
0 
0 
0 
0 
0 
0 
0 
0 
0 
0 
0 
0 
0 
0 
0 
0 
0 
0 
0 
0 
0 
0 
0 
0 
0 
0 
0 
0 
0 
0 
0 
0 
0 
0 
0 
0 
0 
0 
0 
0 
0 
0 
0 
0 
0 
0 
0 
0 
0 
0 
0 
0 
0 
0 
0 
0 
0 
0 
0 
0 
0 
0 
0 
0 
0 
0 
0 
0 
0 
0 
0 
0 
0 
0 
0 
0 
0 
0 
0 
0 
0 
0 
0 
0 
0 
0 
0 
0 
0 
0 
0 
0 
0 
0 
0 
0 
0 
0 
0 
0 
0.2047350452671605 
0 
0 
0 
0 
0 
0 
0 
0 
0 
0 
0 
0 
0 
0 
0 
0 
0 
0 
0 
0 
0 
-0.07572829954986134 
0 
0 
0 
0 
0 
0 
0 
0 
0 
0 
0 
0 
0 
0 
0 
0 
0 
0 
0 
0 
0 
0 
0 
0 
0 
0 
0 
1.516511278463215 
0 
0 
0 
0 
0 
0 
0 
0 
0 
0 
0 
0 
0 
0 
0 
0 
0 
0 
0 
0 
0 
0 
0 
0 
0 
0 
0 
0 
0 
0 
0 
0 
0 
0 
0 
0 
0 
0 
0 
0 
0 
0 
0 
1.664813731228659 
0 
0 
0 
0 
0 
0 
0 
0 
0 
0 
0 
0 
0 
0 
0 
0 
0 
0 
0 
0 
0 
0 
0 
0 
0 
0 
0 
0 
0 
-0.007192553119237911 
0 
0 
0 
0 
0 
0 
0 
0 
0 
0 
0 
0 
0 
0 
0 
-0.1251202494970986 
0 
0 
0 
0 
0 
0 
0 
0 
-1.037288815989909 
0 
0 
0 
0 
0 
0 
0 
-1.75926665343407 
0 
0 
0 
0 
0 
0 
0 
0 
0 
0 
0 
0 
0 
0 
0 
0 
0 
0 
0 
0 
0 
0 
0 
0 
0 
0 
0 
0 
0 
0 
0 
0 
0 
0 
0 
0 
0 
0 
0 
0 
-0.6211602130330761 
0 
0 
0 
0 
0 
0 
0 
0 
0 
0 
0 
0 
0 
0 
0 
0 
0 
0 
0 
0 
0 
0 
0 
0 
0 
0 
0 
0 
0 
0 
0 
0 
0 
0.8902169498534935 
0 
0 
0 
0 
0 
0 
0 
0 
0 
0 
0 
0 
0 
0 
0 
0 
0 
0 
0 
0 
0 
0 
0 
0 
0 
0 
0 
0 
0 
0 
0 
0 
0 
0 
0 
0 
0 
0 
0 
0 
0 
0 
0 
0 
0 
0 
0 
0 
0 
0 
0 
0 
0 
0 
0 
-0.2090940080330533 
0 
0 
0 
0 
0 
0 
0 
0 
0 
0 
0 
0 
0 
-0.167893315553862 
0 
0 
0 
0 
0 
0 
0 
0 
0 
0 
0 
0 
0 
0 
0 
0 
0 
0 
0 
0.7089363007676174 
0 
0 
0 
0 
0 
0 
0 
0 
0 
0 
0 
0 
0 
0 
0 
-1.337431814290759 
0 
0 
0 
0 
0 
0 
0 
0 
0 
0 
0 
0 
0 
0 
0 
0 
0 
0 
0 
0 
0 
0 
0 
0 
0 
0 
0 
0 
0 
0 
0 
0 
0 
0 
0 
0 
0 
0 
0 
0 
0 
0 
0 
0 
0 
0 
0 
0 
0 
0 
0 
0 
0 
0 
0 
0 
0 
0 
0 
0 
0 
0 
0 
0 
0 
0 
0 
0 
0 
0 
0 
0 
-0.07821418596581685 
0 
0 
0 
0 
0 
0 
0 
0 
0 
0 
0 
0 
0 
0 
0 
0 
0 
0 
0 
0 
0 
0 
0 
0 
0 
0 
0 
0 
0 
0 
0 
0.09196441772020492 
-0.7418750155207543 
0 
0 
0 
0 
0 
0 
0 
0 
0 
0 
0 
0 
0 
0 
0 
0 
0 
1.337206672107588 
0 
0 
0 
0 
0 
0 
0 
3.270297057503693 
0 
0 
0 
0 
0 
0 
0 
-6.106397603829487 
0 
0 
0 
0 
0 
0 
0 
0 
0 
0 
0 
0 
0 
0 
0 
0 
0 
0 
0 
0 
0 
0 
0 
0 
0 
0 
0 
0 
0 
0 
0 
0 
0 
0 
0 
0 
0 
0 
0 
0 
0 
0 
0 
0 
0 
0 
0 
0 
0 
0 
0.7965473694933248 
0 
0 
0 
0 
0 
0 
0 
0 
0 
0 
0 
0 
0 
0 
0 
0 
0 
0 
0 
0 
0 
0 
0 
0 
0 
0 
0 
0 
0 
0 
0 
0 
0 
0 
0 
0 
0 
0 
0 
0 
0 
0 
0 
0 
0 
0 
0 
0 
0 
0 
0 
0 
0 
0 
0 
0 
0 
0 
0 
0 
0 
0 
0 
0 
0 
0 
0 
0 
0 
0 
0 
0 
0 
0 
0 
0 
0 
0 
0 
0 
0.6798867401598654 
0 
0 
0 
0 
0 
0 
0 
0 
0 
0 
0 
0 
0 
0 
0 
0 
0 
0 
0 
0 
0 
0 
0.2156554431220696 
0 
0 
0 
-2.371893561046562 
0 
0 
0.7875585197854964 
0 
0 
0 
0 
0 
0 
0 
0 
0 
0 
0 
0 
0 
0 
0 
0 
-1.339197082615125 
0 
0 
0 
0 
0 
0 
0 
0 
0 
0 
-0.08117831765748275 
-0.6045633287258716 
0 
0 
0 
0 
0 
0 
0 
0 
0 
0 
0 
0 
0 
0 
0 
0 
0 
0 
0 
0 
0 
0 
0 
0 
0 
0 
0 
0 
0 
0 
0 
0 
0 
0 
0 
0 
0 
0 
0 
0 
0 
0 
0 
0 
0 
0 
0 
-0.01334348627579797 
0 
0 
0 
0 
0 
0 
0 
0 
0 
0 
0 
0 
0 
0 
0 
0 
0 
0 
0 
0.0792442082929283 
0 
0 
0 
0 
0 
-0.3932242527513438 
0 
0 
0 
0 
0 
0 
0 
0 
0 
0 
0 
0 
0 
0 
0 
0 
0 
0 
0 
0 
0 
0 
0 
0 
0 
0 
0 
0 
0 
0 
0 
0 
0 
0 
0 
0 
0 
0 
0 
0 
0 
0 
0 
0 
0 
0 
0 
0 
0 
0 
0 
0 
0 
0 
0 
0 
0 
0 
0 
0 
0 
0 
0 
0 
0 
0 
0 
0 
0 
0 
0 
0 
0 
0 
0 
0 
0 
0 
0 
0 
0 
0 
0 
0 
0 
0 
0 
0 
0 
0 
0 
0 
0 
0 
0 
0 
0 
0 
0 
0 
0 
-1.255356927507288 
0 
0 
0 
0 
0 
0 
0 
0 
0 
0 
0 
0 
0 
0 
0 
0 
0 
0 
0 
0 
0 
0 
0 
0 
0 
0 
0 
0 
0 
0 
0 
0 
0 
0 
0 
0 
0 
0 
0 
0 
0 
0 
0 
0 
0 
0 
0 
0 
0 
0 
0 
0 
0 
0 
0 
0 
0 
0 
0 
0 
0 
0 
0 
0 
0 
0 
0 
0 
0 
0 
0 
0 
0 
0 
0 
0.6228902024520209 
0 
0 
0 
0 
0 
0 
0 
0 
0 
0 
0 
0 
0 
0 
0 
0 
0 
0 
0 
0 
0 
0 
0 
0 
0.5726618381722811 
0 
0 
0 
0 
0 
0 
0 
0 
0 
-0.7054366430356052 
0 
0 
0 
0 
0 
0 
0 
0 
0 
0 
0 
0 
0 
0 
0 
0 
0 
0 
0 
0 
0 
0 
0 
0 
0 
0 
0 
0 
0 
0 
0 
0 
0 
0 
0 
0 
0 
0 
0 
-1.279277933561124 
0 
0 
0 
0 
0 
0 
0 
0 
0 
0 
0 
0 
0 
0 
0 
-0.4619665625604537 
0 
0 
0 
0 
0 
0 
0 
0 
0 
0 
0 
0 
0 
0 
0 
0 
0 
0 
0 
0 
0 
0 
0 
0 
0 
0 
0 
0 
0 
0 
0 
0 
0 
0 
0 
0 
0 
-1.3513261901254 
0 
0 
0 
0 
0 
0 
0 
0 
0 
0 
0 
0 
0 
0 
0 
0 
0 
0 
0 
0 
0 
0 
0 
0 
0 
0 
0 
0 
0 
0 
0 
0 
0 
0 
0 
0 
0 
0 
0 
0 
0 
0 
0 
1.654060760140319 
0 
0 
0 
0 
0 
0 
0 
0 
0 
0 
0 
0 
1.840426320892751 
0 
0 
0 
0 
0 
0 
0 
0 
0 
0 
0 
0 
0 
0 
0 
0 
0 
0 
0 
0 
-0.8822253218396489 
0 
0 
0 
0 
0 
0 
0 
0 
0 
0 
0 
0 
-1.456435514012711 
0 
0 
0 
0 
0 
0 
0 
0 
0 
0 
0 
0 
0 
0 
0 
0 
0.7016178741966287 
0 
0 
0 
0 
0 
0 
0 
0 
0 
0 
0 
0 
0 
0 
0 
0 
0 
0 
0 
0 
0 
0 
-0.9257376524066913 
0 
0 
0 
0 
0 
0 
0 
0 
0 
0 
0 
0 
0 
0 
0 
0 
0 
0 
0 
0 
0 
0 
0 
0 
0 
0 
0 
0 
0 
0 
0 
0 
0 
0 
0 
0 
0 
0 
0 
0 
0 
0 
0 
0 
0 
0 
0 
0 
0 
0 
0 
0 
0 
0 
0 
0 
0 
0 
0 
0 
0 
0 
0 
0 
0 
0 
0 
0 
0 
0 
0 
0 
0 
0 
0 
0 
0 
0 
0 
0 
0 
0 
0 
0 
0 
0 
0 
0 
0 
0 
0 
0 
0 
0 
0 
0 
-0.362217080466337 
0 
0 
0 
0 
0 
0 
0 
0 
0 
0 
0 
0 
0 
0 
0 
0 
0 
0 
0 
0 
0 
0 
0 
0 
0 
0 
0 
0 
0 
0 
0 
0 
0 
0 
0 
0 
0 
0 
0 
0.765089758816736 
0 
0 
0 
0 
0 
0 
0 
0 
0 
0 
0 
0 
0 
0 
0 
-0.5533029078336708 
0 
0 
0 
0 
0 
0 
0 
0 
0 
0 
0 
0 
0 
0 
0 
0 
0 
0 
0 
0 
0 
0 
0 
0 
0 
0 
0 
0 
0 
0 
0 
0 
0 
0 
0 
0 
0 
0 
0 
0 
0 
0 
0 
0 
0 
0 
0 
0 
0 
0 
0 
0 
0 
0 
0 
0 
0 
0 
0 
0 
0 
0 
0 
0 
0.2062726739292156 
0.7839671697576182 
0 
0 
0 
0 
0 
0 
0 
0 
0 
0 
0 
0 
0 
0 
0 
0 
-1.091450819193877 
0 
0 
0 
0 
0 
0 
0 
0 
0 
0 
0 
0 
0 
0 
0 
0 
0 
0 
0 
0 
0 
0 
0 
0 
0 
0 
0 
0 
0 
0 
0 
0 
0 
0 
0 
0 
0 
0 
0 
0 
0 
0 
0 
0 
0 
0 
0 
0 
0 
0 
0 
0 
0 
0 
0 
0 
0 
0 
0 
0 
0 
0 
0 
0 
0 
0 
0 
0 
0 
0 
0 
0 
0 
0 
0 
0 
0 
0 
0 
0 
0 
0 
0 
0 
0 
0 
0 
0 
0 
0 
0 
2.280274876330453 
0 
0 
0 
0 
0 
0 
0 
0 
0 
0.8814231872360575 
0 
0 
-1.305956445730448 
0 
0 
0 
0 
0 
0 
0 
0 
0 
2.062609909360698 
0 
0 
0 
0 
0 
0 
0 
0 
0 
0 
0 
0 
0 
0 
0 
0 
0 
0 
0 
0 
0 
0 
0 
0 
0 
0 
0 
0 
0 
0 
0 
0 
0 
0 
0 
0 
0 
0 
0 
0 
0 
0 
0 
0 
0 
0 
0 
0 
0 
0 
0 
0 
0 
0 
0 
0 
0 
0 
0 
0 
0 
0 
0 
0 
0 
0 
0 
0 
0 
0 
0 
0 
0 
0 
0 
0 
0 
0 
0 
0 
0 
0 
0 
0 
0 
0 
0 
0 
0 
0 
0 
0 
0 
0 
0 
0 
0 
0 
0 
0 
0 
0 
0 
0 
0 
0 
0 
0 
0 
0 
0 
0 
0 
0 
0 
0 
0 
0 
0 
0 
0 
0 
0 
0 
0 
0 
0 
0 
0 
0 
0 
0 
0 
0 
0 
0 
0 
0 
0 
0 
0 
0 
0 
0 
0 
0 
0 
0 
0 
0 
0 
0 
0 
0 
0 
0 
0 
0 
0 
0 
0 
0 
0 
0 
0 
0 
0 
0 
0 
0 
0 
0 
0 
0 
0 
0 
0 
0 
0 
0 
0 
0 
0 
0 
0 
0 
0 
0 
0 
0 
0 
0 
0 
0 
0 
0 
0 
0 
0 
0 
0 
0 
0 
0 
0 
0 
0 
0 
0 
0 
0 
0 
0 
0 
0 
0 
0 
0 
0 
0 
0 
0 
0 
0 
0.5808044118777498 
0 
0 
0 
0 
0 
0 
0 
0 
0 
0 
0 
0 
0 
0 
0 
0 
0 
0 
0 
-1.092419987337708 
0 
0 
0 
0 
0 
0 
0 
0 
0 
0 
0 
0 
0 
0 
0 
0 
0 
0 
0 
0 
0 
0 
0 
0 
0 
0 
0 
0 
0 
0 
0 
0 
0 
0 
0 
0 
0 
0 
-0.4196148784848681 
0 
0 
0 
0 
0 
0 
0 
0 
0 
0 
0 
0 
0 
0 
0 
0 
0 
0 
0 
0 
0 
0 
0 
0 
0 
0 
0 
0 
0 
0 
0 
0 
0 
0 
0 
0 
0 
0 
0 
0 
0 
0 
0 
0 
0 
0 
0 
0 
0 
0 
0 
0 
0 
0 
0 
0 
0 
0 
0 
0 
0 
0 
-0.3569483034881547 
0 
0 
0 
0 
0 
0 
0 
0 
0 
0 
0 
0 
0 
0 
0 
0 
0 
0 
-2.405725414665699 
0 
0 
0 
0 
0 
0 
0 
0 
0 
0 
0 
0 
0 
0 
0 
0 
0 
0 
0 
0 
0 
0 
0 
0 
0 
0 
0 
0 
0 
0 
0 
0 
-0.2994717994856109 
0 
-0.8963589451564542 
0 
0 
0.5090437331676975 
0 
0 
0 
0 
0 
0 
0 
0 
0 
0 
0 
0 
0 
0 
0 
0 
0 
0 
0 
0 
0 
0 
0 
0 
0.6014381743032174 
0 
0 
0 
0 
0 
0 
0 
0 
0 
0 
0 
0 
0 
0 
0 
0 
0 
0 
0 
0 
0 
0 
0 
0 
0 
0 
0 
0 
0 
0 
0 
0 
0 
0 
0 
0 
0 
0 
0 
0 
0 
0 
0 
0 
0 
0 
0 
0 
0 
0 
0 
0 
0 
-1.439425882004594 
0 
0 
0 
0 
0 
-0.1382090148229274 
0 
0 
0 
0 
0 
0 
0 
0 
0 
0 
0 
0 
0 
0 
0 
0 
0 
0 
0 
0 
0 
0 
0 
0 
0 
0 
0 
0 
0 
0 
0 
0 
0.382449477261825 
0 
0 
0 
0 
0 
0 
0 
0 
0 
0 
0 
0 
0 
0 
0 
0 
0 
0 
0 
0 
0 
0 
0 
-0.8177745127373517 
0.6246599259686171 
0 
0 
0 
0 
0 
0 
0 
0 
0 
0 
0 
0 
0 
0 
0 
0.8377806517700611 
0 
0 
0 
0 
0 
0 
0 
0 
0 
0 
0 
0 
0 
0 
0 
0 
0 
0 
1.864161726205406 
0 
0 
0 
1.504160734506841 
0 
0 
0 
0 
0 
0 
0 
0 
0 
0 
0 
0 
0 
4.792088517120949 
0 
0 
0 
0 
0 
0 
0 
0 
0 
0 
0 
0 
0 
0 
0 
0 
0 
0 
0.1161480120442856 
0 
0 
0 
0 
0 
0 
0 
0 
0 
0 
0 
0 
0 
0 
0 
0 
0 
0 
0 
0 
0 
0 
0 
0 
0 
0 
0 
0 
0 
0 
0 
0 
0 
0 
0 
0 
0 
0 
0 
0 
0 
0 
0 
0 
0 
0 
0 
0 
0 
0 
0 
0 
0 
0 
0 
0 
0 
0 
0 
0 
0 
0 
0 
0 
0 
0 
0 
0 
0 
0 
0 
0 
0 
0 
0 
0 
0 
0 
0 
0 
0 
0 
0 
0 
0 
0 
0 
0 
1.369632454182718 
0 
0 
0 
0 
0 
0 
0 
0 
0 
0 
0 
0 
0 
0 
0 
0 
0 
0 
0 
0 
0 
0 
0 
0 
0 
0 
0 
0 
0 
0 
0 
0 
0 
0 
0 
0 
0 
0 
0 
0 
0 
0 
0 
0 
0 
0 
0 
-0.3491616004919397 
0 
0 
0 
0 
0 
0 
0 
0 
0 
0 
0 
0 
0 
0 
0 
0 
0 
0 
0 
0 
0 
0 
0 
0 
0 
0 
0 
0 
0 
0 
0 
0 
0 
0 
0 
0 
0 
0 
-1.423254708574049 
0 
0 
0 
0 
0 
0 
0 
0.7810614197201604 
0 
0 
0 
0 
0 
0 
0 
0 
0 
0 
0 
0 
0 
0 
0 
0 
0 
0 
0 
0 
0 
0 
0 
0 
0 
0 
0 
0 
0 
0 
0 
0 
0 
0 
0 
0 
0 
0 
6.490347651448063 
0 
0 
0 
0 
0 
0 
0 
0 
0 
0 
0 
0 
0 
0 
0 
0.02174358607091834 
0 
0 
0 
0 
0 
0 
0 
0 
0 
0 
-1.127137643979298 
0 
0 
0 
0 
0 
0 
0 
0 
0 
0 
0 
0 
0 
0 
0 
0 
0 
0 
0 
0 
0 
0 
0 
0 
0 
0 
0 
0 
0 
-5.558675753923823 
0 
0 
0 
0 
0 
0 
0 
0 
0 
0 
0 
0 
0 
0 
0 
0 
0 
0 
0 
0 
0 
0 
0 
0 
0 
0 
2.128238292225468 
0 
0 
0 
0 
0 
0 
0 
0 
0 
0 
0 
0 
0 
0 
0 
0 
-1.171947716147105 
0 
0.2069342800970672 
0 
0 
0 
0 
0 
0 
0 
0 
0 
0 
0 
0 
0 
0 
0 
0 
0 
0 
0 
0 
0 
0 
0 
0 
0 
0 
0 
0 
0 
0 
0 
0 
0 
0 
0 
0 
0 
0 
0 
0 
0 
0 
0 
0 
0 
0 
0 
0 
0 
0 
0 
0 
0 
0 
0 
0 
0 
0 
0 
0 
0 
0 
0 
0 
0 
0 
0 
0 
0 
0 
0 
0 
0 
0 
-0.7562689391977052 
0 
0 
0 
0 
0 
0 
0 
0 
0 
0 
0 
0 
0 
0 
0 
0 
0 
0 
0 
0 
0 
0 
0 
0 
0 
0 
0 
0 
0 
0 
0 
0 
0 
0 
0 
0 
0 
0 
0 
0 
0 
0 
0 
0 
0 
0 
0 
0 
0 
0 
0 
0 
0 
0 
0 
0 
0 
0 
0 
0 
0 
0 
0 
0 
0 
0 
0 
0 
0 
0.2938689658236974 
0 
0 
0 
0 
0 
0 
0 
0 
0 
0 
0 
0 
0 
0 
0 
0 
0 
0 
0 
0 
0 
0 
0 
0 
0 
0 
0 
0 
0 
0 
0 
0 
0 
0 
0 
0 
0 
0 
0 
0 
0 
0 
0 
0 
0 
0 
0 
0 
0 
1.220514640683158 
0 
0 
0 
0 
0 
0 
0 
0 
0 
0 
0 
0 
0 
0 
0 
0 
0 
0 
0 
0 
0 
0 
0 
0 
0 
0 
0 
0 
0 
0 
0 
0 
0 
0 
0 
0 
0 
0 
0 
0 
0 
0 
0 
0 
0 
0 
0 
0 
0 
0 
0 
0 
0 
0 
0 
0 
0 
0 
0 
0 
0 
0 
0 
1.321668503680612 
0 
0 
0 
0 
0 
0 
0 
0 
0 
0 
0 
0 
0 
0 
0 
0 
0 
0 
0 
0 
0 
0 
0 
0 
0 
0 
0 
0 
0 
0 
0 
0 
0 
0 
0 
0 
0 
0 
0 
0 
0 
-0.5020884972563845 
0 
0 
0 
0 
0 
0 
0 
0 
0 
0 
0 
-0.417747090003689 
0 
0 
0 
-0.698023493542322 
0 
0 
0 
0 
0 
0 
0 
0 
0 
0 
0 
0 
0 
0 
0 
0 
0 
0 
0 
0 
0 
0 
0 
0 
0 
0 
-0.5907441806603012 
0 
0 
0 
0 
0 
0 
0 
0 
0 
0 
0 
0 
0 
0 
0 
0 
0 
0 
0 
0 
0 
0 
0 
0 
0 
0 
0 
0 
0 
0 
0 
0 
0 
0 
0 
0 
0 
0 
0 
0 
0 
0 
0 
0 
0 
0 
0 
0 
0 
0 
0 
0 
0 
0 
0 
0 
0 
0 
0 
0 
0 
0 
0 
0 
0 
0 
0 
0 
0 
0 
0 
0 
0 
0 
0 
0 
0 
0 
0 
0 
0 
0 
0 
0 
0 
0 
0 
0 
0 
0 
0 
0 
0 
0 
0 
0 
1.617914974391397 
0 
0 
0 
0 
0 
0 
0 
0 
0 
0 
0 
0 
0 
0 
0 
0 
0 
0 
0 
0 
0 
0 
0 
0 
0 
0 
0 
0 
0 
0 
0 
0 
0 
0 
0 
0 
0 
0 
0 
0 
0 
0 
0 
0 
0 
0 
0 
0 
0 
0 
0 
0 
0 
0 
0 
0 
0 
0 
0 
0 
0 
0 
0 
0 
0 
0 
0 
0 
0 
0 
0 
0 
0 
0 
0 
0 
0 
0 
0 
0 
0 
0 
0 
0 
0 
0 
0 
0 
0 
0 
-3.518960824080044 
0 
0 
0 
0 
0 
0 
0 
0 
0 
0 
-0.8358788495406507 
0 
0 
0 
0 
0 
0 
0 
0 
0 
0 
-0.2076423714261748 
0 
0 
0 
0 
0 
0 
0 
0 
0 
0 
0.3977900971830019 
0 
0 
0 
0 
0 
0 
0 
0 
0 
0 
0 
0 
0 
0 
0 
0 
0 
0 
0 
0 
0 
0 
0 
0 
0 
0 
0 
0 
0 
0 
0 
0 
0 
0.6097529588012408 
0 
0 
0 
0 
0 
0 
0 
0 
0 
0 
0 
0 
0 
0 
0 
0 
0 
0 
0 
0 
0 
0 
0 
0 
0 
0 
0 
0 
0.5238817134368305 
0 
0 
0 
0 
0 
0 
0 
0 
0 
0 
0 
0 
0 
0 
0 
0 
0 
0 
0 
0 
0 
0 
0 
0 
0 
0 
0 
0 
0 
0 
0 
0 
0 
0 
0 
0 
0 
0 
0 
0 
0 
0 
0 
0 
0 
0 
0 
0 
0 
0 
0 
0 
0 
0 
0 
0 
0 
0 
0 
0 
0 
0 
0 
0 
0 
-0.37357922988277 
0 
0 
0 
0 
0 
0 
0 
0 
0 
0 
0 
0 
0 
0 
0 
0 
0 
0 
0 
0 
0 
0 
0 
0 
0 
0 
0 
0 
0 
0 
0 
0 
0 
0 
0 
0 
0 
0 
0 
0 
0 
0 
0 
0 
0 
0 
0 
0 
0 
0 
0 
0 
0 
0 
0 
0 
0 
0 
0 
0 
0 
0 
0 
0 
0 
0 
0 
0 
0 
0 
0 
-1.04443796819655 
0 
0 
0 
0 
0 
0 
0 
0 
0 
0 
1.506381020416329 
0 
0 
0 
0 
0 
0 
0 
0 
0 
0 
0 
0 
0 
3.282035265073711 
0 
0 
0 
0 
0 
0 
0 
0 
0 
0 
0 
0 
0 
0 
0 
0 
0 
0 
0 
0 
0 
0 
0 
0 
0 
0 
0 
0 
0 
0 
0 
0 
-1.346227864639256 
0 
0 
0 
0 
0 
0 
0 
-0.1405946848707236 
0 
0 
0 
0 
0 
0 
0 
0 
0 
0 
0 
0 
0 
0 
0 
0 
0 
0 
0 
0 
0 
0 
0 
0 
-1.708596870338657 
0 
0 
0 
0 
0 
0 
0 
0 
0 
0 
0 
0 
0 
0 
0 
0 
0 
0 
0 
0 
0 
0 
0 
0 
0 
0 
0 
0 
0 
0 
0 
0 
0 
0 
0 
0 
0 
0 
0 
0 
0 
0 
0 
0 
0 
0 
0 
0 
0 
0 
0 
0 
0 
0 
0 
0 
0 
0 
0 
0 
0 
0 
0 
0 
0 
0 
0 
0 
0 
0 
0 
0 
0 
0 
0 
0 
0 
0 
0 
0 
0 
0 
0 
0 
0 
0 
0 
0 
0 
0 
0 
0 
0 
0 
0 
0 
0 
0 
0 
0 
0 
0 
0 
0 
0 
0 
0 
0 
0 
0 
0 
0 
0 
0 
0 
0 
0 
0 
0 
0 
0 
0 
0 
0.9812977310112667 
0 
0 
0 
0 
0 
0 
0 
0 
0 
0 
0 
0 
0 
0 
0 
0 
0 
0 
0 
0 
0 
0 
0 
0 
0 
0 
0 
0 
0 
0 
0 
0 
0 
0 
0 
0 
0 
0 
0 
0 
0 
0 
0 
0 
0 
0 
0 
0 
0 
0 
0 
0 
0 
0 
0 
0 
0 
0 
0 
0 
0 
0 
0 
0 
0 
0 
0 
0 
0 
0 
0 
0 
0 
0 
0 
0 
0 
0 
0 
0 
0 
0 
0 
0 
0 
-0.4948584320074011 
0 
0 
0 
0 
0 
0 
0 
0 
0 
0 
0 
0 
0 
0 
0 
0 
0 
0 
0 
-2.897774338367566 
0 
0 
0 
0 
0 
0 
0 
0 
0 
0 
0 
0 
0 
0 
0 
-4.340588812959113 
0 
0 
0 
0 
1.956926574114894 
0 
0 
0 
0 
0 
0 
0 
0 
0 
0 
0 
0 
0 
0 
0 
2.799412988809661 
0 
0 
0 
0 
0 
0 
0 
0 
0 
0 
0 
0 
0 
0 
0 
0 
0 
0 
0 
0 
0 
0 
0 
0 
0 
0 
0 
0 
0 
0 
0 
0 
0 
0 
0 
0 
0 
0 
0 
0 
0 
0 
0 
0 
0 
0 
0 
0 
0 
0 
0 
0 
0 
0 
0 
0 
0 
0 
0 
0 
0 
0 
0 
0 
0 
0 
0 
0 
0 
0 
0 
0 
0 
0 
0 
0 
0 
0 
0 
0 
-0.4121003319892206 
0 
0 
0 
0 
0 
0 
0 
0 
0 
0 
0 
0 
0 
0 
0 
0 
0 
0 
0 
0 
0 
0 
0 
0 
0 
0 
0 
0 
0 
0 
0 
0 
0 
0 
0 
0 
0 
0 
0 
0 
0 
0 
0 
0 
0 
0 
0 
0 
0 
0 
0 
0 
0 
0 
0 
0 
0 
0 
0 
0 
0 
0 
0 
0 
0 
0.04725731794418586 
0 
0 
0 
0 
0 
0 
0 
0 
0 
0 
0 
0 
0 
0 
0 
0 
0 
0.04468361187312316 
0 
0 
0 
0 
0 
0 
0 
0 
0 
0 
0 
0 
0 
0 
0 
0 
0 
0 
0 
0 
0 
0 
0 
0 
0 
0 
0 
0 
0 
0 
0 
0 
0 
0 
0 
0 
0 
0 
0 
0 
0 
0 
0 
0 
0 
0 
0 
0 
0 
0 
0 
0 
0 
0 
0 
0 
0 
0 
0 
0 
0 
0 
0 
0 
0 
0 
0 
0 
0 
0 
0 
0 
0 
0 
0 
0 
0 
0 
0 
0 
0 
0 
0 
0 
0 
0 
0 
0 
-0.9273510994693867 
0 
0 
0 
0 
0 
0 
0 
0 
-1.620109598516354 
0 
0 
-0.8558050896149954 
0 
0 
0 
0 
0 
0 
0 
0 
0 
0 
0 
0 
0 
0 
0 
0 
0 
0 
0 
0 
0 
0 
0 
0 
0 
0 
0 
0 
0 
0 
0 
0 
0 
0 
0 
0 
0 
0 
0 
0 
0 
0 
0 
0 
0 
0 
0 
0 
0 
0 
0 
2.899024992254712 
0 
0 
0 
0 
0 
0 
0 
0 
0 
0 
0 
0 
0 
0 
0 
0 
0 
0 
0 
0 
0 
0 
0 
0 
0 
0 
0 
0 
0 
0 
0 
0 
0 
0 
0 
0 
0 
0 
0 
0 
0 
0 
0 
0 
0 
0 
0 
0 
0 
0 
0 
0 
0 
0 
0 
0 
0 
0 
0 
0 
0 
0 
0 
0 
0 
0 
0 
0 
0 
0 
0 
0 
0 
0 
0 
0 
0 
0 
0 
0 
0 
0 
0 
0 
0 
0 
0 
0 
0 
0 
0 
0 
0 
0 
0 
0 
0 
0 
0 
0 
0 
0 
0 
0 
0 
0 
0 
0 
0 
0 
0 
0 
0 
0 
0 
0 
0 
0 
0 
0 
0 
0 
0 
-0.7828805236500314 
0 
0 
0 
0 
0 
0 
0 
0 
0 
0 
0 
0 
0 
0 
1.275324421670258 
0 
0 
0 
0 
0 
0 
0 
0 
0 
0 
0 
0 
0 
0 
0 
0 
0 
0 
0 
0 
0 
0 
0 
0 
0 
0 
0 
0 
0 
0 
0 
0 
0 
0 
0 
0 
0 
0 
0 
0 
0 
0 
0 
0 
0 
0 
0 
0 
0 
-1.282952626876101 
0 
0 
0 
0 
0 
0 
0 
0 
0 
0 
0 
0 
0 
0 
0 
0.859699429503675 
0 
0 
0 
0 
0 
0 
0 
0 
0 
0 
0 
0 
0 
0 
0 
0 
0 
0 
0 
1.264867826191972 
0 
0 
0 
0 
0 
0 
0 
0 
0 
0 
0 
0 
0 
0 
0 
0 
0 
0 
0 
0 
0 
0 
0 
0 
0 
-5.541280636926891 
0 
0 
0 
0 
0 
0 
0 
0 
0 
0 
0 
0 
0 
0 
0 
0 
0 
0 
0 
0 
0 
0 
0 
0 
0 
0 
0 
0 
0 
0 
0 
2.523068185998569 
0 
0 
0 
0 
0 
0 
0 
0 
0 
0 
0 
0 
0 
0 
0 
0 
0 
0 
0 
0 
0 
0 
0 
0 
0 
0 
0 
0 
-0.3916795504932258 
0 
0 
0 
0 
0 
0 
0 
0 
0 
0 
0 
0 
0 
0 
-0.09878525300850397 
0 
0 
0 
0 
0 
0 
0 
0 
0 
0 
0 
0 
0 
0 
0 
0 
0 
0 
0 
0 
0 
0 
0 
0 
0 
0 
0 
0 
0 
0 
0 
0 
0 
0 
0 
0 
0 
0.08931515412860576 
0 
0 
0 
0 
0 
0 
0 
0 
0 
0 
0 
0 
0 
0 
0 
0 
0 
0 
0 
0 
0 
0 
0 
0 
-3.092610887683145 
0 
0 
0 
0 
0 
1.012408963879796 
0 
0 
0 
0 
0 
0 
0 
0 
0 
0 
0 
0 
0 
0 
0 
0 
0 
0 
0 
0 
0 
0 
0 
0 
0 
0 
0 
0 
0 
0 
0 
0 
0 
0 
0 
0 
0 
0 
0 
0 
0 
0 
0 
0 
0 
0 
0 
0 
0 
0 
0 
0 
0 
0 
0 
0 
0 
0 
0 
0 
0 
0 
0 
0 
0 
0 
0 
0 
0 
0 
0 
0 
0 
0 
0 
0 
0 
0 
0 
0 
0 
0 
0 
0 
0 
0 
-0.1141494481470399 
0 
0 
0 
0 
0 
0 
0 
0 
0 
0 
0 
0 
0 
0 
0 
0 
0 
0 
0 
0 
0 
0 
0 
0 
0 
0 
0 
0 
0 
0 
0 
0 
0 
0 
0 
0 
0 
0 
0 
0 
0 
0 
0 
0 
0 
0 
0 
0 
0 
0 
0 
0 
0 
0 
0 
0 
0 
0 
0 
0 
0 
0 
0 
0 
0 
0.483953153371852 
0 
0 
-1.065882182565222 
0 
0 
0 
0 
0 
0 
0 
0 
0 
0 
0 
0 
0 
0 
0 
0 
0 
0 
0 
0 
0 
0 
0 
0 
0 
0 
0 
0 
0 
0 
0 
0 
0 
0 
0 
0 
0 
0 
0 
0 
0 
0 
0 
0 
0 
0 
0 
0 
0 
0 
0 
0 
0 
0 
0 
0 
0 
0 
0 
0 
0 
0 
0 
0 
0 
0 
0 
0 
0 
0 
0 
0 
0 
0 
0 
0 
0 
0 
0 
0 
0 
0 
0 
0 
0 
0 
0 
0 
0 
0 
0 
0 
0 
0 
0 
0 
0 
0 
0 
0 
0 
0 
0 
0 
0 
0 
0 
0 
0 
0 
0 
0 
0 
0 
0 
0 
0 
0 
0 
0 
0 
0 
0 
0 
0 
0 
0 
0 
0 
0 
0 
0 
0 
0 
0 
0 
0 
0 
0 
0 
0 
-0.2297371773645566 
0 
0 
0 
0 
0 
0 
0 
0 
0 
0 
0 
0 
0 
0 
0 
0 
0 
0 
0 
0 
0 
0 
0 
0 
0 
0 
0 
0 
0 
0 
0 
0 
0 
0 
0 
0 
0 
0 
0 
0 
0 
0 
0 
0 
0 
0 
0 
0 
0 
0 
0 
0 
0 
0 
-1.113255985732716 
0 
0 
0 
0 
0 
0 
0 
0 
0 
0 
1.755694349222426 
0 
0 
0 
0 
0 
0 
0 
0 
0 
0 
0 
0 
0 
0 
0 
0 
0 
0 
0 
0 
0 
0 
0 
0 
0 
0 
0 
0 
0 
0 
0 
0 
0 
0 
0 
0 
0 
0 
0 
0 
0 
0 
0 
0 
0 
0 
0 
0 
0 
0 
0 
0 
0 
0 
0 
0 
0 
0 
0 
0 
0 
0 
0 
0 
0.09159892458027651 
0 
0 
0 
0 
0 
0 
0 
0 
0 
0 
0 
0 
0 
0 
0 
0 
0 
0 
0 
0 
0 
0 
0 
0 
0 
0.04618802606923714 
0 
0 
0 
0 
0 
0 
0 
0 
0 
0 
0 
0 
0 
0 
0 
0 
0 
0 
0 
0 
0 
0 
0 
0 
0 
0 
0 
0 
0 
0 
0 
0 
0 
0 
0 
0 
0 
0 
0 
0 
0 
0 
0 
0 
0 
0 
0 
0 
0 
0 
1.051865557005034 
0 
0 
0 
0 
0 
0 
0 
0 
0 
0 
0 
0 
0 
0 
0 
0 
0 
0 
0 
0 
0 
0 
0 
0 
0 
0 
0 
0 
0 
0 
0 
0 
0 
0 
0 
0 
0 
0 
0 
0 
0 
0 
0 
0 
0 
0 
0 
0 
0 
0 
0 
0 
0 
0 
0 
0 
0 
0 
0 
0 
0 
0 
0 
0 
0 
0 
0 
0 
0 
0 
0 
0 
0 
0 
0 
0 
0 
0 
0 
0 
0 
0 
0 
0 
0 
0 
0 
0 
0 
0 
0 
0 
0 
0 
0 
0 
0 
0 
0 
0 
0 
0 
0 
0 
0 
0 
0 
-1.186677749740281 
0 
0 
0 
0 
0 
0 
0 
0 
0 
0 
0 
0 
0 
0 
0 
0 
0 
0 
0 
0 
0 
0 
0 
0 
0 
0 
0 
0 
0 
0 
1.362903089047733 
0 
0 
0 
0 
0 
0 
0 
0 
0 
0 
0 
0 
0 
0 
0 
0 
0 
0 
0 
0 
0 
0 
0 
0 
0 
0 
0 
0 
0 
0 
0 
0 
0 
0 
0 
0 
0 
0 
0 
0 
0 
0 
0 
0 
-2.088825141939829 
0 
0 
0 
0 
0 
0 
0 
-2.973680309395679 
0 
0 
2.30640110569194 
0 
0 
0 
0 
0 
0 
0 
0 
0 
0 
0 
0 
0 
0 
0 
-1.182505438925237 
0 
0 
0 
0 
0 
0 
0 
0 
0 
0 
0 
0 
0 
0 
0 
0 
0 
0 
0 
0 
0 
0 
0 
0 
0 
0 
0 
0 
0 
0 
0 
0 
0 
0 
0 
0 
0 
0 
0 
0 
0 
0 
0 
0 
0 
0 
0 
0 
0 
0 
0 
0 
0 
0 
0 
0 
0 
0 
0 
0 
0 
0 
0 
-0.4380485234877325 
0 
0 
0 
0 
0 
0 
0 
0 
0 
0 
0 
0 
0 
0 
0 
0 
0 
0 
0 
0 
0 
0 
0 
0 
0 
0 
0 
0 
0 
0 
0 
0 
0 
0 
0 
0 
0 
0 
0 
0 
0 
0 
0 
0 
0 
0 
0 
0 
0 
0 
0 
0 
0 
0 
0 
0 
0 
0 
0 
0 
0 
0 
0 
0 
0 
0 
0 
0 
0 
0 
0 
0 
0 
0 
0 
0 
0 
0 
0 
0 
0 
0 
0 
0 
0 
0 
0 
0 
0 
0 
0 
0 
0 
0 
0 
0 
0 
0 
0 
0 
0 
0 
0 
0 
0 
0 
0 
0 
0 
0 
0 
0 
0 
0 
0 
1.875115303004302 
0 
0 
0 
-2.567166011172197 
0 
0 
0 
0 
0 
0 
0 
0 
0 
0 
0 
0 
0 
0 
0 
0 
0 
0 
0 
0 
0 
0 
0 
0 
0 
0 
0 
0 
0 
0 
-0.8062935067599236 
0 
0 
0 
-3.382870975565688 
0 
0 
0 
0 
0 
0 
0 
0 
0 
0 
0 
0 
0 
0 
0 
0 
0 
0 
0 
0 
0 
0 
0 
0 
0 
0 
0 
0 
0 
0 
0 
0 
0 
0 
0 
0 
0 
0 
0 
0 
0 
0 
0 
0 
0 
0 
0 
0 
0 
0 
0 
0 
0 
0 
0 
0 
0 
0 
0 
0 
0 
0 
0 
0 
0 
0 
0 
0 
0 
0 
0 
0 
0 
0 
0 
0 
0 
0 
0 
0 
0 
0 
0 
0 
0 
0 
0 
0 
0 
0 
0 
0 
0 
0 
0 
0 
0 
0 
0 
0 
0 
0 
0 
0 
0 
0 
0 
0 
0 
0 
0 
0 
0 
0 
0 
0 
0 
0 
0 
0 
0 
0 
0 
0 
0 
0 
0 
0 
0 
0 
0 
0 
0 
0 
0 
0 
0 
0 
0 
0 
0 
0 
0 
0 
0 
0 
0 
0 
0 
0 
0 
-0.8879987691133339 
0 
0 
0 
0 
0 
0 
0 
0 
0 
0 
0 
0 
0 
0 
0 
0 
0 
0 
0 
0 
0 
0 
0 
0 
0 
0 
0 
0 
0 
0 
0 
0 
0 
0 
0 
0 
0 
0 
0 
0 
0 
0 
0 
0 
0 
0 
0 
0 
0 
0 
0 
0 
0 
0 
0 
0 
0 
0 
0 
0 
0 
1.545264284841841 
0 
0 
0 
0 
0 
0 
0 
0 
0 
0 
0 
0 
0 
0 
0 
0 
0 
0 
0 
0 
0 
0 
0 
0 
0 
0 
0 
-1.204035141310978 
0 
0 
0 
0 
0 
0 
0 
0 
0 
0 
0 
0 
0 
0 
0 
0 
0 
0 
0 
0 
0 
0 
0 
0 
0 
0 
0 
0 
0 
0 
0 
0 
0 
0 
0 
-0.6172958685133351 
0 
0 
0 
0 
0 
0 
0 
0 
0 
0 
0 
0 
0 
0 
0 
0 
0 
0 
0 
0 
0 
0 
0 
0 
0 
0 
0 
0 
0 
0 
0 
0 
0 
0 
0 
0 
0 
0 
0 
0 
0 
0 
0 
0 
0 
0 
0 
0 
0 
0 
0 
0 
0 
0 
0 
0 
0 
0 
0 
0 
0 
0 
0 
1.037355490647853 
0 
0 
0 
0 
0 
0 
0 
0 
0 
0 
0 
0 
0 
0 
0 
0 
0 
0 
0 
0 
0 
0 
0 
0 
0 
0 
0 
0 
0 
0 
0 
0 
0 
0 
0 
0 
0 
0 
0 
0 
0 
0 
0 
0 
0 
0 
0 
0 
0 
0 
0 
0 
0 
0 
0 
0 
0 
0 
0 
0 
0 
0 
0 
0 
0 
0 
0 
0 
0 
0 
0 
0 
0 
0 
0 
0 
0 
0 
0 
0 
0 
0 
0 
0 
0 
0 
0 
0 
0 
0 
0 
0 
0 
0 
0 
0 
0 
0 
0 
0 
0 
0 
0 
0 
0 
0 
0 
0 
0 
0 
0 
-4.358496442574904 
0 
0 
0 
0 
0 
0 
0 
0 
0 
0 
0 
0 
0 
0 
0 
0 
0 
0 
0 
0 
0 
0 
0 
0 
0 
0 
0 
0 
0 
0 
0 
0 
0 
0 
0 
0 
0 
0 
0 
0 
0 
0 
0 
0 
0 
0 
0.4079394837871708 
0 
0 
0 
0 
0 
0 
0 
0 
0 
0 
0 
0 
0 
0 
0 
0 
0 
0 
0 
0 
0 
0 
0 
0 
0 
0 
0 
0 
-1.459699766531712 
0 
0 
0 
0 
0 
0 
0 
0 
0 
0 
0 
0 
0 
0 
0 
0 
0 
0 
0 
0 
0 
0 
0 
0 
0 
0 
0 
0 
0 
0 
0 
0 
0 
0 
0 
0 
0 
0 
0 
0 
0 
0 
0 
0 
0 
0 
0 
0 
0.568413426463491 
0 
0 
0.05617470170136957 
0 
0.8965903695095137 
0 
0 
0 
0 
0 
0 
0 
0 
0 
0 
0 
0 
0 
0 
0 
-1.80532883972589 
0 
0 
0 
0 
0 
0 
0 
0 
0 
0 
0 
0 
0 
0 
0 
0 
0 
0 
0 
0 
0 
0 
0 
-1.084406751940384 
0 
0 
0 
0 
0 
0 
0 
0 
0 
0 
-0.0404617919778367 
0 
0 
0 
0 
0 
0 
0 
0 
0 
0 
0 
0 
0 
0 
0 
0 
0 
0 
0 
0 
0 
0 
0 
0 
0 
0 
0 
0 
0 
0 
0 
0 
0 
0 
0 
0 
0 
0 
0 
0 
0 
0 
0 
0 
0 
0 
0 
0 
0 
0 
0 
0 
0 
0 
0 
0 
0 
0 
0 
0 
0 
0 
0 
0 
0 
0 
0 
0 
0 
0 
0 
0 
0 
0 
0 
0 
0 
0 
0 
0 
0 
-2.471823346719265 
0 
0 
0 
0 
0 
0 
0 
0 
0 
0 
0 
0 
0 
0 
0 
0 
0 
0 
0 
0 
-1.495181109781571 
0 
0 
0 
0 
0 
0 
0 
0 
0 
0 
0 
0 
0 
0 
0 
0 
0 
0 
0 
0 
0 
0 
0 
0 
0 
0 
0 
0 
0 
-0.5286008415359772 
0 
0 
0 
0 
0 
0 
0 
0 
0 
0 
0 
0 
0 
0 
0 
0 
0 
0 
0 
0 
0 
0 
0 
0 
0 
0 
0 
0 
0 
0 
-0.9016232443673584 
0 
0 
0 
0 
-0.5477590463547888 
0 
0 
0 
0 
0 
0 
0 
0 
0 
0 
0 
0 
0 
0 
0 
0 
0 
0 
0 
0 
0 
0 
0 
0 
0 
0 
0 
0 
0 
0 
0 
0 
0 
0 
0 
0 
0 
0 
0 
0 
0 
0 
0 
0 
0 
0 
0 
0 
0 
0 
0 
0 
1.769225791425761 
0 
0 
0 
0 
0 
0 
0 
0 
-2.806850432786216 
0 
0 
0 
0 
0 
0 
0 
0 
0 
0 
0 
0 
0 
0 
0 
0 
0 
0 
0 
0 
0 
0 
0 
0 
0 
0 
0 
0 
0 
0 
0 
0 
0 
0 
0 
0 
0 
0 
0 
0 
0 
0 
0 
0 
0 
0 
0 
0 
-0.09954547955228385 
0 
0 
0 
0 
0 
0 
0 
0 
0 
0 
0 
0 
0 
0 
0 
0 
0 
0 
0 
0 
0 
0 
0 
0 
0 
0 
0 
0 
0 
0 
0 
0 
0 
0 
0 
0 
-2.24244886482072 
-0.7243565347187583 
0 
0 
0 
0 
0 
0 
0.9246328811785924 
0 
0 
0 
0 
0 
0 
0 
0 
0 
0 
0 
0 
-4.493468375933292 
0 
0 
0 
0 
0 
0 
0 
0 
0 
0 
0 
0 
0 
0 
0 
0 
0 
0 
0 
0 
0 
0 
0 
0 
0 
0 
0 
0 
0 
0 
0 
0 
0 
0 
0 
0 
0 
0 
0 
-0.2542244328040572 
0 
0 
0 
0 
0 
0 
0 
0 
0 
0 
0 
0 
0 
0 
0 
0 
0 
0 
0 
0 
0 
0 
0 
0 
0 
0 
0 
0 
0 
0 
0 
0 
0 
0 
0 
0 
0 
0 
0 
0 
0 
0 
0 
0 
0 
0 
0 
-4.704113834554975 
0 
0 
0 
2.281450988301602 
0 
0 
0 
0 
0 
0 
0 
0 
0.112472914140524 
0 
0 
0 
0 
0 
-3.317062442119649 
0 
0 
0 
0 
0 
0 
1.211303546796704 
0 
0 
0 
0 
0 
0 
0 
0 
0 
0 
0 
0 
0 
0 
0 
0 
0 
0 
0 
0 
0 
-1.069971497041892 
0 
2.480678872535282 
0 
0 
0 
0 
0 
0 
0 
0 
0 
0 
0 
0 
0 
0 
0 
0 
0 
0 
0 
0 
0 
0 
0 
0 
0 
0 
0 
0 
0 
0 
0 
0 
-1.812097149336513 
0 
0 
0 
0 
0 
0 
0 
0 
0 
0 
0 
0 
0 
0 
0 
0 
0 
0 
0 
0 
0 
0 
0 
0 
0 
0 
0 
0 
0 
0 
0 
0 
0 
0 
0 
0 
0 
0 
0 
0 
0 
0 
0 
0 
0 
0 
0 
0 
0 
0 
0 
0 
0 
0 
0 
0 
0 
0 
0 
0 
0 
0 
0 
0.5565743333380705 
0 
0 
0 
0 
0 
0 
0 
0 
0 
0 
0 
0 
0 
0 
0 
0 
0 
0 
0 
0 
0 
0 
0 
0 
0.9096555180361987 
0 
0 
0 
0 
0 
0 
0 
0 
0 
0 
0 
0 
0 
0 
0 
0 
0 
0 
0.1620961496042609 
0 
0 
0 
0 
0 
0 
0 
0 
0 
0 
0 
0 
0 
0 
0 
0 
0 
0 
0 
0 
0 
0 
0 
0 
0 
0 
0 
0 
0 
0 
0 
0 
0 
0 
0 
0 
0 
0 
0 
0 
0 
0.04362289987593868 
0 
0 
0 
0 
0 
0 
0 
0 
0 
0 
0 
0 
1.589292364917478 
0 
0 
0 
0 
0 
0 
0 
0 
0 
0 
0 
0 
0 
0 
0 
0 
0 
0 
0 
0 
0 
0 
0 
0 
0 
0 
0 
0 
0 
0 
0 
-2.28274950401208 
0 
0 
0 
0 
0 
0 
0 
0 
0 
0 
0 
0 
0 
0 
0 
0 
0 
0 
0 
0 
0 
0 
2.846918443760784 
0 
0 
0 
0 
0 
0 
0 
0 
0 
0 
0 
0 
0 
0 
0 
0 
0 
0 
0 
0 
0 
0 
0 
0 
0 
0 
0 
0 
0 
0 
0 
0 
0 
0 
0 
0 
0 
0 
0 
0 
0 
0 
0 
0 
0 
0 
0 
0 
0 
0 
0 
0 
0 
0 
0 
0 
0 
0 
0 
0 
0 
0 
0 
0 
0 
0 
0 
0 
0 
0 
0 
0 
0 
0 
0 
0 
0 
0 
0 
0 
0 
0 
0 
0 
0 
0 
0 
0 
0 
0 
0 
0 
0 
0 
0 
0 
0 
0.6331813143580248 
0 
0 
0 
0 
0 
0 
0 
0 
0 
0 
0 
0 
0 
0 
0 
0 
0 
0 
0 
0 
0 
0 
0 
0 
0 
0 
0 
0 
0 
0 
0.5834070770707731 
0 
0 
0 
0 
0 
0 
0 
0 
0 
0 
0 
0 
0 
0 
0 
0 
0 
0 
0 
0 
0 
0 
0 
0 
0 
0 
0 
0 
0 
0 
0 
0 
0 
0 
0 
0 
0 
0 
0 
0 
0 
0 
0 
0 
0 
0 
0 
0 
0 
0.4930263684151878 
0 
0 
0 
0 
0 
0 
0 
0 
0 
0 
0 
0 
0 
0 
0 
0 
0 
0 
0 
0 
0 
0 
0 
0 
0 
0 
0 
0 
0 
0 
0 
0 
0 
0 
0 
0 
0 
0 
1.692468601031936 
0 
0 
0 
0 
0 
0 
0 
0 
0 
0 
0 
-0.199020721443828 
0 
0 
0 
0 
0 
0 
0 
0 
0 
0 
0 
-0.9153397197577421 
0 
0 
0 
0 
0 
0 
0 
0 
0 
0 
0 
0 
0 
0 
0 
0 
0 
0 
0 
0 
0 
0 
0 
0 
0 
0 
0 
0 
0 
0 
0 
0 
0 
0 
0 
0 
0 
0 
0 
0 
0 
0 
0 
0 
0 
0 
0 
0 
0 
0 
0 
0 
0 
0 
0 
0 
0 
0 
0 
0 
0 
0 
0 
0 
0 
0 
1.798060617551224 
0 
0 
0.4988781755291239 
0 
0 
0 
0 
0 
0 
0 
0 
0 
0 
0 
0 
0 
0 
0 
0 
0 
0 
0 
0 
0 
0 
0 
0 
0 
0 
0 
0 
0 
0 
0 
0 
0 
0 
0 
0 
0 
0 
0 
0 
0 
0 
0 
0 
0 
0 
0 
0 
0 
0 
0 
0 
0 
0 
0 
0 
0 
0 
0 
0 
0 
0 
0 
0 
0 
0 
0 
0 
-1.230697810463528 
0 
0 
0 
0 
0 
0 
0 
0 
0 
0 
0 
0 
0 
0.3347956436496893 
0 
0 
0 
0 
0 
0 
0 
0 
0 
0 
0 
0 
0 
0 
0 
0 
0 
0 
0 
0 
0 
0 
0 
0 
0 
0 
0 
0 
0 
0 
0 
0 
0 
0 
0 
0 
0 
0 
0 
0 
0 
0 
0 
0 
1.238556537046542 
0 
0 
0 
0 
0 
0.113034098247703 
0 
0 
-2.012278545769713 
0 
0 
0 
0 
0 
0 
0 
0 
0 
0 
0 
0 
0 
0 
0 
0 
0 
0.2028784446781735 
0 
0 
0 
0 
0 
0 
0 
0 
0 
0 
0 
0 
0 
0 
0 
0 
0 
0 
0 
0 
6.794768993506032 
0 
0 
0 
2.013464298668169 
0 
0 
0 
0 
0 
0 
0 
0 
0 
0 
0 
0 
0 
0 
0 
0 
0 
0 
0 
0 
0 
0 
0 
0 
0 
0 
0 
1.94803408719057 
0 
0 
0 
0 
0 
0 
0 
0 
1.467576465014561 
1.610413615248208 
0 
0 
0 
0 
0.8570610571983313 
0 
0 
0 
0 
0 
0 
0 
0 
0 
0 
0 
0 
0 
0 
0 
1.93741098168159 
0 
0 
0 
0 
0 
0 
0 
0 
1.139919603235801 
0 
0 
0 
0 
0 
0 
0 
0 
4.131772133181884 
0 
0 
0 
0 
0 
0 
0.3568612276990658 
0 
0 
0 
0 
0 
0 
0 
0 
0 
0 
0 
0.5465528171854214 
2.609763973422832 
0 
0 
1.69941442569664 
0 
0 
0 
-0.0867077217757994 
0 
0 
0 
0 
0 
0 
0 
0 
0 
0 
0 
0 
3.471721588987169 
0 
0 
0 
0 
0 
0 
0 
0 
0 
0 
0 
0 
0 
0 
0 
0 
0 
1.782021952637649 
0 
2.911279120442138 
0 
0 
0 
0 
0 
0 
0 
0 
0 
0 
0 
0 
0 
0 
0 
0 
0 
0 
0 
0 
0 
0 
0 
0 
0 
0 
0 
0 
0 
0 
0 
0 
0 
0 
0 
0 
0 
0 
0 
0 
0 
0 
0 
0 
0 
0 
1.907484128335095 
0 
0 
1.109184659009729 
0 
0 
1.55957610219657 
0 
0 
0 
0 
0 
0 
0 
0 
0 
0 
-1.003235769765909 
0 
0 
0 
0 
-0.8289449167037242 
0 
0 
0 
0 
0 
0 
0 
0 
0 
0 
0 
0 
0 
0 
0 
0 
0 
0 
0 
0 
0 
0 
0.2055104665490267 
0 
-0.3188181552195943 
0 
0 
0 
0 
0 
0 
0 
0 
0 
0 
0 
0 
0 
0 
0 
2.521535542820013 
0.5970425478304069 
0 
0 
0 
0 
0 
0 
0 
0 
0 
0 
-0.2673560330031199 
-1.868108028040669 
0 
0 
0 
0 
1.215755729671691 
0 
-2.734051203542614 
0 
0 
0 
0 
0 
0 
0 
0 
0 
0 
0 
0 
0 
0 
-0.1557427530928813 
0 
0 
0 
0 
0 
0 
0 
0 
-0.892386030269679 
0 
0 
0 
0 
0 
0 
0 
0 
0.5170168657854215 
0 
0 
0 
0 
0 
0.8804321821655765 
0 
0 
0.4289201727946218 
0 
0 
0 
0 
0 
2.549546373484068 
0 
0 
0 
0 
0 
0.3544282688191062 
0 
0 
0.7981366548193452 
0 
0 
0 
0 
0 
0 
0 
0 
0 
0 
0 
0.8891511343994848 
0 
0 
0 
0 
0 
0 
0 
0 
0 
0 
0 
0 
0.8512439355144716 
0.1283040379482807 
0 
0 
0 
0 
0 
0 
0 
0 
0 
0 
0 
0 
0 
0.3707718646231971 
0 
0 
0 
0 
0 
0 
0 
0 
0 
0 
0 
0 
0 
0 
-1.282574024422507 
0 
0 
0 
0 
0 
0 
0 
0 
0 
0 
0 
0 
0 
0 
0 
0 
0 
0 
0 
0 
0 
0 
0 
0 
0 
0 
0 
0 
0 
0 
0 
0 
0 
0 
0 
0 
0 
0 
0 
0 
-1.242289122910194 
0 
0 
0 
0 
0 
0 
0 
0 
0 
-3.662885675020613 
0 
0 
0 
0 
0 
0 
0 
0 
0 
0 
0 
0 
-5.098942863189792 
0 
0 
0 
-0.2677641035432237 
0 
0 
-2.436011460359978 
0 
0 
0 
0 
0 
0 
0 
0 
0 
0 
0 
0 
0 
0 
0 
0 
0 
0 
0 
0 
0 
0 
0 
0 
0 
0 
0 
0 
0 
0 
0 
0 
0 
0 
0 
0 
0 
0 
0 
0 
0 
0 
0 
0 
0 
-2.135639001835907 
0 
0 
0 
0 
0 
0 
0 
0 
0 
0 
0 
0 
0 
0 
0 
0 
0 
0 
0 
0 
0 
0 
0 
0 
0 
0 
0 
0 
0 
0 
0 
0 
0 
0 
0 
0 
0 
0 
0 
0 
0 
0 
0 
0 
0 
0 
0 
0 
0 
0 
0 
0 
0 
0 
0 
0 
0 
0 
0 
-2.732958390023076 
0 
0 
0 
0 
0 
0 
0 
0 
0 
0 
0 
0 
0 
0 
0 
0 
0 
0 
0 
0 
0 
0 
0 
0 
0 
0 
0 
0 
0 
0 
0 
0 
0 
0 
0 
0 
0 
0 
0 
0 
0 
0 
0 
0 
0 
0 
-4.561219652678151 
0 
0 
0 
0 
-1.631935944211068 
0 
0 
0 
0 
0 
0 
0 
0 
0 
-0.02412047161159437 
0 
0 
-0.309115984013204 
0 
0 
0 
0 
0 
0 
0 
0 
0 
0 
0 
0 
0 
0 
0 
0 
0 
0 
0 
0 
0 
0 
0 
0 
0 
0 
0 
0 
0 
0 
0 
0 
0 
0 
0 
0 
0 
0 
0 
0 
0 
0 
0 
0 
0 
0 
0 
0 
0 
0 
0 
0 
0 
0 
0 
0 
0 
0 
0 
0 
0 
0 
0 
-3.922485612042606 
0 
0 
0 
0 
0 
0 
0 
0 
0 
0 
0 
0 
0 
0 
0 
0 
0 
0 
0 
-2.982377101080049 
0 
0 
0 
0 
0 
0 
0 
0 
0 
0 
0 
0 
0 
0 
0 
0 
0 
0 
0 
0 
0 
0 
0 
0 
0 
0 
0 
-0.9257675394793344 
0 
0 
0 
0 
0 
0 
0 
0 
0 
0 
0 
0 
0 
0 
-0.1272369760325192 
0 
0 
0 
0 
0 
0 
0 
0 
0 
0 
0 
0 
0 
0 
0 
0 
0 
0 
0 
0 
0 
0 
0 
0 
0 
0 
0 
1.003356666309647 
0 
0 
0 
-2.504962036568745 
-1.182355849869462 
0 
0 
0 
0 
0 
0 
0 
0 
-1.600582640993421 
-2.321445070429296 
0 
0 
0 
0 
0 
0 
0 
0 
-1.648004275117407 
0 
0 
0 
0 
0 
0 
0 
0 
0 
0 
0 
0 
0 
0 
0 
0 
0 
0 
0 
0 
0 
0 
0 
0 
0 
0 
0 
0 
0 
0 
0 
0 
0 
0 
0 
0 
0 
0 
0 
0 
0 
0 
0 
0 
0 
0 
0 
0 
0 
0 
0 
0 
0 
0 
0 
0 
0 
0 
0 
0.7834302263216902 
0 
0 
0 
0 
0 
0 
0 
0 
0 
0 
0 
0 
0 
0 
0 
0 
0 
0 
0 
0 
0 
0 
0 
0 
0 
0 
0 
0 
0 
0 
0 
0 
0 
0 
0 
0 
0 
0 
0 
0 
0 
0 
0 
0 
0 
0 
0 
0 
0 
0 
0 
0 
0 
0.6628981056492577 
0 
0 
0 
0 
0 
0 
0 
0 
0 
0 
0 
0 
0 
0 
0 
0 
0 
0 
0 
0 
0 
0 
0 
0 
0 
0 
0 
0 
0 
0 
0 
0 
0.00879095821264566 
0 
0 
0 
0 
0 
0 
0 
0 
0 
0 
0 
0 
0.753121027914983 
0 
0 
0 
0 
0 
0 
0 
0 
0 
0 
0 
0 
0 
0 
0 
0 
0 
0 
0 
0 
0 
0 
0 
0 
0 
0 
0 
0 
0 
0 
0 
0 
0 
0 
0 
0 
0 
0 
0 
0 
0 
-0.3328453635118134 
0 
0 
0 
0 
0 
0 
0 
0 
1.098963927854297 
0 
0 
0 
0 
0 
0 
0 
0 
0 
0 
0 
0 
0 
0 
0 
0 
0 
0 
0 
0 
0 
0 
0 
0 
0 
0 
0 
0 
0 
0 
0 
0 
0 
0 
0 
0 
0 
0 
0 
0 
0 
0 
0 
0 
0 
0 
0 
0 
0 
0 
0 
0 
0 
0 
0 
0 
0 
0 
0 
0 
0 
0 
0 
0 
0 
0 
0 
0 
0 
0 
0 
0 
0 
0 
0 
0 
0 
0 
0 
0 
0 
0 
0 
0 
0 
0 
0 
0 
0 
0 
0 
0 
0 
0 
0 
-1.242215057230201 
0 
0 
0 
0 
0 
0 
0 
0 
0 
0 
0 
0 
0 
0 
0 
0 
0 
0 
0 
0 
0 
0 
0 
0 
0 
0 
0 
0 
0 
0 
0 
0 
0 
3.39125656433537 
0 
0 
0 
0 
0 
0 
0 
0 
0 
0 
0 
0 
0 
0 
0 
0 
0 
0 
0 
0 
0 
0 
0 
0 
0 
0 
0 
0 
0 
0 
0 
0 
0 
-0.08730160129637014 
0 
0 
0 
0 
0 
0 
0 
0 
0 
0 
0 
0 
0 
0 
0 
0 
0 
0 
0 
0 
0 
0 
0 
0 
0 
0 
0 
0 
0 
0 
0 
0 
0 
0 
0 
0 
0 
0 
0 
0 
0 
0 
0 
0 
0 
0 
0 
0 
0 
0 
0 
0 
0 
0 
0 
0 
0 
0 
0 
0 
0 
0 
0 
0 
0 
0 
0 
0 
0 
0 
0 
0 
0 
0 
0 
0 
0 
0 
0 
0 
0.9512776671873406 
0 
0 
-0.2063811866774543 
0 
0 
0 
0 
0 
0 
0 
0 
0 
0 
0 
0 
0.1811232420837509 
0 
0 
0 
0 
0 
0 
0 
0 
0 
0 
0 
0.1425612198175912 
0 
0 
0 
0 
0 
0 
0 
0 
0 
0 
0 
0 
0 
0 
0 
0 
0 
0 
0 
0 
0 
0 
0 
0 
0 
0 
0 
0 
0 
0 
0 
-0.4015825076988142 
0 
0 
0 
0 
0 
0 
0 
0 
0 
0 
0 
0 
0 
0 
0 
0 
-0.2262360409277265 
0 
0 
0 
-1.319699895916088 
0 
0 
0 
0 
0 
0 
0 
0 
0 
0 
0 
0 
0 
0 
0 
0 
0 
0 
0 
0 
0 
0 
0 
0 
0 
0 
0.3856567713885409 
0 
0 
0 
0 
3.658796509823781 
0 
0 
0 
0 
0 
0 
0 
0 
0 
0 
0 
0 
0 
0 
0 
0 
0 
0 
0 
0 
0 
0 
0 
0 
0 
0 
0 
0 
0 
0 
0 
0 
0 
0.09824932338626068 
0 
0 
0 
0 
0 
0 
0 
-0.1055644574417699 
0 
0 
0 
0 
0 
0 
0 
0 
0 
0 
0 
0 
0 
0 
0 
0 
0 
0 
0 
0 
0 
0 
0 
0 
0 
0 
0 
0 
0 
0 
0 
0 
0 
0 
0 
0 
0 
-1.475006325126465 
0 
0 
0 
0 
0 
0 
0 
-0.5342238264457483 
0 
0 
0 
0 
0 
0 
0 
0 
0 
0 
0 
0 
0 
0 
0 
0 
0 
0 
0 
0 
0 
0 
0 
0 
0 
0 
0 
0 
0 
0 
0 
0 
0 
0 
0 
0 
0 
-0.01438540091047183 
0 
0 
0 
0 
0 
0 
0 
0 
0 
0 
0 
0 
0 
1.538285805061179 
0 
0 
0 
0 
0 
0 
0 
0 
0 
0 
0 
0 
0 
0 
0 
0 
0 
0 
0 
0 
0 
0 
0 
0 
0 
0 
0 
0 
0 
0 
0 
0 
-0.1940938741219562 
0 
0 
0 
0 
0 
0 
0 
0 
0 
0 
0 
0 
0 
0 
0 
0 
0 
0 
0 
0 
0 
0 
0 
0 
0 
0 
0 
0 
0 
0 
0 
0 
0 
0 
0 
0 
0 
0 
0 
0 
0 
0 
0 
0 
0 
0 
0 
0 
0 
0 
0 
0 
0 
0 
0 
0 
0 
0 
0 
0 
0 
0 
0 
0 
0 
0 
0 
0 
0 
0 
0 
0 
0 
0 
0 
0 
0 
0 
0 
0 
0 
0 
0.454377077088292 
0 
0 
0 
0 
0 
0 
0 
0 
-2.622494599941652 
0 
0 
0 
0 
0 
0 
0 
0 
0 
0.7884508470890391 
-2.573939530952797 
0 
0 
0 
0 
0 
0 
0 
0 
0 
0 
-0.9122553552554217 
0 
0 
0.9553387015974142 
0 
0 
0 
0 
0 
1.284758234956406 
0 
0 
0 
0 
0 
0 
0 
0 
0 
0 
0 
0 
0 
0 
0 
0 
1.105188566504078 
0 
0 
0 
0 
0 
0 
0 
0 
0 
0 
6.009793382137631 
-1.82897531044821 
0 
0 
0 
0 
0 
0 
0 
0 
0 
0 
0.3742287365957951 
0 
0 
0 
0 
0 
-0.3144276334081131 
-0.2350895374368422 
0 
0 
0 
0 
0 
0 
0 
0 
0 
0 
0 
0 
0 
0 
0 
0 
0 
0 
0 
0 
0 
0 
0.1719963764427375 
0 
0 
0 
0 
0 
0 
0 
0 
0 
0 
0 
0 
0 
0 
0 
0 
0 
0 
0 
0 
0 
0 
0 
0 
0 
0 
0 
0 
0 
0 
0 
0 
0 
0 
0 
0 
0 
0 
0 
0 
0 
0 
0 
0 
0 
0 
0 
0 
0 
0 
0 
0 
0 
0 
0 
0 
0 
0 
0 
0 
0 
0 
0 
0 
0 
0 
0 
0 
0 
0 
0 
0 
0 
0 
0 
0 
0 
0 
0 
0 
0 
0 
0 
0 
0 
0 
0 
0 
0 
0 
0 
0 
0 
0 
0 
0 
0 
0 
0 
0 
0 
0 
0 
0 
0 
0 
0 
0 
0 
0 
0 
0 
0 
0 
0 
0 
0 
0 
0 
0 
0 
0 
0 
0 
0 
0 
0 
0 
0 
0 
0 
0 
0 
0 
0 
0 
0 
0 
0 
0 
0 
0 
0 
0 
0 
0 
0 
0 
0 
0 
0 
0 
0 
0 
0 
0 
0 
0 
0 
0 
0 
0 
0 
0 
0 
0 
0 
0 
0 
0 
0 
0 
0 
0 
0 
0 
0 
0 
0 
0 
0 
0 
0 
0 
0 
0 
0 
0 
1.009194816344257 
0 
0 
0 
0 
0 
0 
1.873432011905447 
0 
0 
0 
0 
0 
0 
0 
0 
0 
0 
0 
0 
0 
0 
0 
0 
0 
0 
0 
-1.19463872777491 
0 
0 
0 
0 
0 
0 
0 
0 
-5.811904640153234 
0 
0 
0 
0 
0 
0 
0 
0 
0 
0 
0 
0 
0 
0 
0 
0 
0 
0 
0 
0 
0 
0 
0 
0 
0 
0 
0 
0 
0 
0 
0 
0 
0 
0 
0 
0 
0 
0 
0 
0 
0 
0 
0 
0 
0 
0 
0 
0 
0 
0 
0 
0 
0 
0 
0 
0 
0 
0 
0 
0 
0 
0 
0 
0 
0 
0 
0 
0 
0 
0 
0 
0 
0 
0 
0 
0 
0 
0 
0 
0 
0 
0 
0 
0 
0 
0 
0 
0 
0 
0 
0 
0 
0 
0 
0 
0 
0 
0 
0 
0 
0 
0 
0 
0 
0 
0 
0 
0 
0 
0 
0 
0 
0 
0 
0 
0 
0 
0 
0 
0 
0 
0 
0 
0 
0 
0 
0 
0 
0 
0 
0 
0 
0 
0 
0 
0 
0 
0 
0 
0 
0 
0 
0 
0 
0 
0 
0 
0 
0 
0 
0 
0 
0 
0 
0 
0 
0 
0 
0 
0 
0 
0 
0 
0 
0 
0 
0 
0 
0 
0 
0 
0 
0 
0 
0 
0 
0 
0 
0 
0 
0 
0 
0 
0 
0 
0 
0 
0 
0 
0 
0 
0 
0 
0 
0 
0 
0 
0 
0 
0 
0 
0 
0.3539267327956526 
0 
0 
0 
0 
0 
0 
0 
0 
0 
0 
0 
0 
0 
0 
0 
0 
0 
0 
0 
0.1353314590793972 
0 
0 
0 
0 
0 
0 
0 
-1.500481458301316 
0 
0 
0 
0 
0 
0 
0 
0 
0 
0 
0 
0 
-2.106102239284089 
0 
0 
0 
0 
0 
-0.03687910665097566 
0 
0 
0 
0 
0 
0 
0 
0 
0 
0 
0 
0 
0 
0 
0 
0 
0 
0 
0 
0 
0 
0 
0 
0 
0 
0 
0 
0 
0 
0 
0 
1.629747790461095 
0 
0 
0 
0 
0 
0 
0 
0 
0 
0 
0 
0 
0 
0 
0 
0 
0 
0 
0 
0 
0 
0 
0 
0 
0 
0 
0 
0 
0 
0 
0 
0 
0 
0 
0 
0 
0 
0 
0 
0 
0 
0 
0 
0 
0 
0 
0 
0 
0 
0 
0 
0 
0 
0 
0 
0 
0 
0 
0 
0 
0 
0 
0 
0 
0 
0 
0 
0 
0 
0 
0 
0 
0 
0 
0 
0 
0 
0 
0 
0 
0 
0 
0 
0 
0 
0 
0 
0 
0 
0 
0 
0 
0 
0 
0 
0 
0 
0 
0 
0 
0 
0 
0 
0 
0 
0 
0 
0 
0 
0 
0 
0 
0 
0 
0 
0 
0 
0 
0 
0 
0 
0 
0 
0 
0 
0 
0 
0 
0 
0 
0 
0 
0 
0 
0 
0 
0 
0 
0 
0 
-0.378959554919905 
0 
0 
0 
0 
0 
0 
0 
0 
0 
0 
0 
0 
0 
0 
0 
0 
0 
0 
0 
0 
0 
0 
0 
0 
0 
0 
0 
0 
0 
0 
0 
0 
0 
0 
0 
0 
0 
0 
0 
0 
0 
0 
0 
0 
0 
0 
0 
0 
0 
0 
0 
0 
0 
0 
0 
0 
0 
0 
0 
0 
0 
0 
0 
0 
0 
0 
0 
0 
0 
0 
0 
0 
0 
0 
0 
0 
0 
0 
0 
0 
0 
0 
0 
0 
0 
0 
0 
0 
0 
0 
0 
0 
0 
0 
0 
0 
0 
0 
0 
0 
0 
0 
0 
0 
0 
0 
0 
0 
0 
0 
0 
0 
0 
0 
0 
0 
0 
0 
0 
0 
0 
0 
0 
0 
0 
0 
0 
0 
0 
0 
0 
0 
0 
0 
0 
0 
0 
0 
0 
0 
0 
0 
0 
0 
0 
0 
0 
0 
0 
0 
0 
0 
0 
0 
0 
0 
0 
2.488938799365863 
0 
0 
0 
0 
0 
0 
0 
0 
0 
0 
0 
0 
0 
0 
0 
0 
0 
0 
0 
0.1984602991592042 
0 
0 
0 
0 
0 
0 
0 
0 
0 
0 
0 
0 
0 
0 
0 
0 
0 
0 
0 
0 
0 
0 
0 
0 
0 
0 
0 
0 
0 
0 
0 
0 
0 
0 
0 
0 
0 
0 
0 
0 
0 
0 
0 
0 
0 
0 
0 
0 
0 
0 
0 
0 
0 
0 
0 
0 
0 
0 
0 
0 
0 
0 
0 
0 
0 
0 
0 
0 
0 
-2.074323091846438 
0 
0 
0 
0 
0 
0 
0 
0 
0 
0 
0 
0 
0 
0 
0 
0 
0 
0 
0 
0 
0 
0 
0 
0 
0 
0 
0 
0 
0 
0 
0 
0 
0 
0 
0 
0 
0 
0 
0 
0 
0 
0 
0 
0 
0 
0 
0 
0 
0 
0 
0 
0 
0 
0 
0 
0 
0 
0 
0 
0 
0 
0 
0 
0 
0 
0 
0 
0 
0 
0 
0 
0 
0 
0 
0 
0 
0 
0 
0 
0 
0 
0 
0 
0 
0 
0 
0 
0 
0 
0 
0 
0 
0 
0 
0 
0 
0 
0 
0 
0 
0 
0 
0 
0 
0 
0 
0 
0 
0 
0 
0 
0 
0 
0 
0 
0 
0 
0 
0 
0 
0 
0 
0 
0 
0 
0 
0 
0 
0 
0.1340376517634682 
0 
0 
0 
0 
0 
0 
0 
0 
0 
0 
0 
0 
0 
0 
0 
0 
0 
0 
-5.3012458394557 
0 
0 
0 
0 
0 
0 
0 
-0.6118615045369753 
0 
0 
0 
0 
0 
0 
0 
0 
0 
1.473891504444407 
0 
0 
0 
0 
0 
0 
0 
0 
0 
0 
0 
0 
0 
0 
0 
0 
0 
0 
0 
0 
0 
0 
0 
0 
0 
0 
0 
-0.6514506061023558 
0 
0 
0 
0 
0 
0 
0 
0 
0 
0 
0 
0 
0 
0 
0 
0 
0 
0 
0 
0 
0 
0 
0 
0 
0 
0 
0 
0 
0 
0 
0 
0 
-1.176483345183646 
0 
0 
0 
0 
0 
0 
0 
0 
0 
0 
0 
0 
0 
0 
0 
0 
0 
0 
0 
0 
0 
0 
0 
0 
0 
0 
0 
0 
0 
0 
0 
0 
0 
0 
0 
0 
0 
0 
0 
0 
0 
0 
0 
0 
0 
0 
0 
0 
0 
0 
0 
0 
0 
0 
0 
0.0590222802304675 
0 
0 
0 
0 
0 
0 
0 
0 
2.200274636257643 
0 
0 
0 
0 
0 
0 
0 
0 
0 
0 
0 
0 
0 
0 
0 
0 
0 
0 
0 
0 
0 
0 
0 
0 
0 
0 
0 
0 
0 
0 
0 
0 
0 
0 
0 
0 
0 
0 
0 
0 
0 
0 
0 
0 
0 
0 
0 
0 
0 
0 
0 
0 
0 
0 
0 
0 
0 
0 
0 
0 
0 
0 
0 
0 
0 
0 
0 
0 
0 
0 
0 
0 
0 
0 
0 
0 
0 
0 
0 
0 
0 
0 
0 
0 
0 
0 
0 
0 
0 
0 
0 
0 
0 
0 
0 
0 
0 
0 
0 
0 
0 
0 
0 
0 
0 
0 
0 
0 
0 
0 
0 
-0.7547599444553158 
0 
0 
0 
0 
0 
0 
0 
0 
0 
0 
0 
0 
0 
0 
0 
0 
0 
0 
0 
0 
0 
0 
0 
0 
0 
0 
0 
0 
0 
0 
0 
0 
0 
0 
0 
0 
0 
-0.02647746553731597 
0 
0 
0 
0 
0 
0 
0 
0 
0 
0 
0 
0 
0 
0 
0 
0 
0 
0 
0 
0 
0 
-1.251563125077652 
0 
0 
0 
0 
0 
0 
0 
0 
0 
0 
0 
0 
0 
0 
0 
0 
0 
0 
0 
0 
0 
0 
0 
0 
0 
0 
0 
0 
1.876839478022524 
0 
0 
1.042285277420528 
0 
0 
0 
0 
0 
0 
0 
0 
0 
0 
0 
0 
0 
0 
0 
0 
0 
0 
0 
0 
0 
0 
0 
0 
0 
0 
0 
0 
0 
0 
0 
0 
0 
0 
0 
0 
0 
0 
0 
0 
0 
0 
0 
0 
0 
0 
0 
0 
0 
0 
0 
0 
0 
0 
0 
0 
0 
0 
0 
0 
0 
0 
0 
0 
0 
0 
0 
0 
0 
0 
0 
0 
0 
0 
0 
-2.137876583998407 
0 
0 
0 
0 
0 
0 
0 
0 
0 
0 
0 
0 
0 
0 
0 
0 
0 
0 
0 
0 
0 
0 
0 
0 
0 
0 
0 
0 
0 
0 
0 
0 
0 
0 
0 
0 
0 
0 
0 
0 
0 
0 
0 
0 
0 
0 
0 
0 
0 
0 
0 
0 
0 
0 
0 
0 
0 
0 
0 
0 
0 
0 
0 
0 
0 
0 
0 
0 
0 
0 
0 
0 
0 
0 
0 
0 
0 
0 
0 
0 
0 
0 
0 
0 
0 
0 
0 
0 
0 
0 
0 
0 
0 
0 
0 
0 
0 
0 
0 
0 
0 
0 
0 
0 
0 
0 
0 
0 
0 
0 
0 
0 
0 
0 
0 
0 
0 
0 
0 
0 
0 
0 
0 
0 
0 
-1.183142311397039 
0 
0 
0 
0 
0 
0 
0 
0 
0 
0 
0 
0 
0 
0 
0 
0 
0 
0 
0 
0 
-0.04877760597447266 
0 
0 
0 
0 
0 
0 
0 
0 
0 
0 
0 
0 
0 
0 
0 
0 
0 
0 
0 
0 
0 
0 
0 
0 
0 
0 
0 
0 
0 
0 
0 
0 
0 
0 
0 
0 
0 
0 
0 
0 
0 
0 
0 
0 
0 
0 
0 
0 
0 
0 
0 
0 
0 
0 
0 
0 
0 
0 
0 
0 
0 
0 
0 
0 
0 
0 
0 
0 
0 
0 
0 
0 
0 
0 
0 
0 
0 
0 
0 
0 
0 
0 
0 
0 
0 
0 
0 
0 
0 
0 
0 
0 
0 
0 
0 
0 
0 
0 
0 
0 
0 
0 
0 
0 
0 
0 
0 
0 
0 
0 
0 
0 
0 
0 
0 
0 
0 
0 
0 
0 
0 
0 
0 
0 
0 
0 
0 
0 
0 
0 
0 
0 
0 
0 
0 
0 
0 
0 
0 
0 
0 
0 
0 
0 
0 
0 
0 
0 
0 
0 
0 
0 
0 
0 
0 
0 
0 
0 
0 
0 
0 
0 
0 
0 
0 
0 
0 
0 
0 
0 
0 
0 
0 
0 
0 
0 
0 
0 
0 
0 
0 
0 
0 
0 
0 
0 
0 
0 
0 
0 
0 
0 
0 
0 
0 
0 
0 
0 
0 
0 
0 
0 
0 
0 
0 
0 
0 
0 
0 
0 
0 
0 
0 
0 
0 
0 
0 
0 
0 
0 
0 
0 
0 
0 
0 
0 
0 
0 
0 
0 
0 
0 
-0.5343550864182219 
0 
0 
0 
0 
0 
0 
0 
0 
0 
0 
0 
0 
0 
0 
0 
0 
0 
0 
0 
0 
0 
0 
0 
0 
0 
0 
0 
0 
0 
0 
0 
0 
0 
0 
0 
0 
0 
0 
0 
0 
0 
0 
0 
0 
0 
0 
0 
0 
0 
0 
0 
0 
0 
0 
0 
0 
0 
0 
0 
0 
0 
0 
0 
0 
0 
0 
0 
0 
0 
0 
0 
0 
0 
0 
0 
0 
0 
0 
0 
0 
0 
0 
0 
0 
0 
0 
0 
0 
0 
0 
0 
0 
0 
0 
0 
0 
0 
0 
0 
0 
0 
0 
0 
0 
0 
0 
0 
0 
0 
0 
0 
0 
0 
0 
0 
0 
0 
0 
0 
0 
0 
0 
0 
0 
0 
0 
0 
0 
0 
0 
0 
0 
0 
0 
0 
0 
0 
0 
0 
0 
0 
0.03431475633053872 
0 
0 
0 
0 
0 
0 
0 
0 
0 
0 
0 
0 
0 
0 
0 
0 
0 
0 
0 
0 
0 
0 
0 
0 
0 
0 
0 
0 
0 
0 
0 
0 
0 
0 
0 
0 
0 
0 
0 
0 
0 
0 
0 
0 
0 
0 
0 
0 
0 
0 
0 
0.2844105268915884 
0 
0 
0 
0 
0 
0 
0 
0 
0 
0 
0 
0 
0 
0 
0 
0 
0 
0 
0 
0 
0 
0 
0 
0 
0 
0 
0 
0 
0 
0 
0 
0 
0 
0 
0 
0 
0 
0 
0 
0 
0 
0 
0 
0 
0 
0 
0 
0 
0 
0 
0 
0 
0 
0 
0 
0 
0 
0 
0 
0 
0 
0 
0 
0 
0 
0 
0 
0 
0 
0 
0 
0 
0 
0 
0 
0 
0 
0 
0 
0 
0 
0 
0 
0 
0 
0 
0 
0 
0 
0 
0 
0 
0 
0 
0 
0 
0 
0 
0 
0 
0 
0 
0 
0 
0 
0 
0 
0 
0 
0 
0 
0 
0 
0 
0 
0 
0 
0 
0 
0 
0 
0 
0 
0 
0 
0 
0 
0 
0 
0 
0 
0 
0 
0 
0 
0 
0 
0 
0 
0 
0 
0 
0 
0 
0 
0 
0 
0 
0 
0 
0 
0 
0 
0 
0 
0 
0 
0 
0 
0 
0 
0 
0 
0 
0 
0 
0 
0 
0 
0 
0 
0 
0 
0 
0 
0 
0 
0 
0 
0 
0 
0 
0 
0 
0 
0 
0 
0 
0 
0 
0 
0 
0 
0 
0 
0 
0 
0 
0 
0 
0 
0 
0 
0 
0 
0 
0 
0 
0 
0 
0 
0 
0 
0 
0 
0 
0 
0 
0 
0 
0 
0 
0 
0 
0 
0 
0 
0 
0 
0 
0 
0 
0 
0 
0 
0 
0 
0 
0.03499825771391709 
0 
0 
0 
0 
0 
0 
0 
0 
0 
0 
0 
0 
0 
0 
0 
0 
0 
0 
0 
0 
0 
0 
0 
0 
0 
0 
0 
0 
0 
0 
0 
0 
0 
0 
0 
0 
0 
0 
0 
0 
0 
0 
0 
0 
0 
0 
0 
0 
0 
0 
0 
0 
0 
0 
0 
0 
0 
0 
0 
0 
0 
0 
0 
0 
0 
0 
0 
0 
0 
0 
0 
0 
0 
0 
0 
0 
0 
0 
0 
0 
0 
0 
0 
0 
0 
0 
0 
0 
0 
0 
0 
0 
0 
0 
0 
0 
0 
0 
0 
0 
0 
0 
0 
0 
0 
0 
0 
0 
0 
0 
0 
0 
0 
0 
0 
0 
0 
0 
0 
0 
0 
0 
0 
0 
0 
0 
0 
0 
0 
0 
0 
0 
0 
0 
0 
0 
0 
0 
0 
0 
0 
0 
0 
0 
0 
0 
0 
0 
0 
0 
0 
0 
0 
0 
0 
0 
0 
0 
0 
0 
0 
0 
0 
0 
0 
0 
0 
0 
0 
0 
0 
0 
0 
0 
0 
0 
0 
0 
0 
0 
0 
0 
0 
0 
0 
0 
0 
0 
0 
0 
0 
0 
0 
0 
0 
0 
0 
0 
0 
0 
0 
0 
0 
0 
0 
0 
0 
0 
0 
0 
0 
0 
0 
0 
0 
0 
0 
0 
0 
0 
0 
0 
0 
0 
0 
0 
0 
0 
0 
0 
0 
0 
0 
0 
0 
0 
0 
0 
0 
0 
0 
0 
0 
0 
0 
0 
0 
0 
0 
0 
0 
0 
0 
0 
0 
0 
0 
0 
0 
0 
0 
0 
0 
0 
0 
0 
0 
0 
0 
0 
0 
0 
0 
0 
0 
0 
0 
0 
0 
0 
0 
0 
0.5099279225225523 
0 
0 
0 
0 
0 
0 
0 
0 
0 
0 
0 
0 
0 
0 
0 
0 
0 
0 
0 
0 
0 
0 
0 
0 
0 
0 
0 
0 
0 
0 
0 
0 
0 
0 
0 
0 
0 
0 
0 
0 
0 
0 
0 
0 
0 
0 
0 
0 
0 
0.1206175419894515 
0 
0 
0 
0 
0 
0 
0 
0 
0 
0 
0 
0 
0.1012105101891126 
0 
0 
0 
0 
0 
0 
0 
0 
0 
0 
0 
0 
0 
0 
0 
0 
-0.9185856116490413 
0 
0 
0 
0 
0 
0 
0 
0 
0 
0 
0 
0 
0 
0 
0 
0 
0 
0 
0 
0 
0 
0 
0 
0 
0 
0 
0 
0 
0 
0 
0 
0 
0 
0 
0 
0 
0 
0 
0 
0 
0 
0 
0 
0 
0 
0 
0 
0 
0 
0 
0 
0 
0 
0 
0 
0 
0 
0 
0 
0 
0 
0 
0 
0 
0 
0 
0 
0 
0 
0 
0 
0 
0 
0 
0 
0 
0 
0 
0 
0 
0 
0 
0 
0 
0 
0 
0 
0 
0 
0 
0 
0 
0 
0 
0 
0 
0 
0 
0 
0 
0 
0 
0 
0 
0 
0 
0 
0 
0 
0 
0 
0 
0 
0 
0 
0 
0 
0 
0 
0 
0 
0 
0 
0 
0 
0 
0 
0 
0 
0 
0 
0 
0 
0 
0 
0 
0 
0 
0 
0 
0 
0 
0 
0 
-0.1291575340593259 
0 
0 
0 
0 
0 
0 
0 
0 
0 
0 
0 
0 
0 
0 
0 
0 
0 
0 
0 
0 
0 
0 
0 
0 
0 
0 
0 
0 
0 
0 
0 
0 
0 
0 
0 
0 
0 
0 
0 
0 
0 
0 
0 
0 
0 
0 
0 
0 
0 
0 
0 
0 
0 
0 
0 
0 
0 
0 
0 
0 
0 
0 
0 
0 
0 
0 
0 
0 
0 
0 
0 
0 
0 
0 
0 
0 
0 
0 
0 
0 
0 
0 
0 
0 
0 
0 
0 
0 
0 
0 
0 
0 
0 
0 
0 
0 
0 
0 
0 
0 
0 
0 
0 
0 
0 
0 
0 
0 
0 
0 
0 
0 
0 
0 
0 
0 
0 
0 
0 
0 
0 
0 
0 
0 
0 
0 
0 
0 
0 
0 
0 
0 
0 
0 
0 
0 
0 
0 
0 
0 
0 
0 
0 
0 
0 
0 
0 
0 
0 
2.837558409008988 
0 
0 
0 
0 
0 
0 
0 
0 
0 
0 
0 
0 
0 
0 
0 
0 
0 
0 
0.1170611322918554 
0 
0 
0 
0 
0 
0 
0 
0 
0 
0 
0 
0 
0 
0 
0 
0 
0 
0 
0 
0 
0 
0 
0 
0 
0 
0 
0 
0 
0 
0 
0 
0 
0 
0 
0 
0 
1.899990964404959 
0 
0 
0 
0 
0 
0 
0 
0 
0 
0 
0 
0 
0 
0 
0 
0 
0 
0 
0 
0 
0 
0 
0 
0 
0 
0 
0 
0 
0 
0 
0 
0 
0 
0 
0 
0 
0 
0 
0 
0 
0 
0 
0 
0 
0 
0 
0 
0 
0 
0 
0 
0 
0 
0 
0 
0 
0 
0 
0 
0 
0 
0 
0 
0 
0 
0 
0 
0 
0 
0 
0 
0 
0 
0 
0 
0 
0 
0 
0 
0 
0 
0 
0 
-2.653952358878401 
-2.277278819824546 
0 
0 
0 
0 
0 
0 
0 
0 
0 
0 
0 
0 
0 
-0.002108454879038569 
0 
0 
0 
0 
0 
0 
0 
0 
0 
0 
0 
0 
0 
0 
0 
0 
0 
0 
0 
0 
0 
0 
0 
0 
0 
0 
0 
0 
0 
0 
0 
0 
0 
0 
0 
0 
0 
0 
0 
0 
0 
0 
0 
0 
0 
0 
0 
0 
0 
0 
0 
0 
0 
0 
-1.736667212909164 
0 
0 
0 
0 
0 
0 
0 
0 
0 
0 
0 
0 
0 
0 
0 
0 
0 
0 
0 
0 
0 
0 
0 
0 
0 
0 
0 
0 
0 
0 
0 
0 
0 
0 
0 
0 
0 
0 
0 
0 
0 
0 
0 
0 
0 
0 
0 
0 
0 
0 
0 
0 
0 
0 
0 
0 
0 
0 
0 
0 
0 
0 
0 
0 
0 
0 
0 
0 
0 
0 
0 
0 
0 
0 
0 
0 
0 
0 
0 
0 
0 
0 
0 
0 
0 
0 
0 
0 
0 
0 
0 
0 
0 
0 
0 
0 
0 
0 
0 
0 
0 
0 
0 
0 
0 
0 
0 
0 
0 
0 
0 
0 
0 
0 
0 
0 
0 
0 
0 
0 
0 
0 
0 
0 
0 
0 
0 
0 
0 
0 
0 
0 
0 
0 
0 
0 
0 
0 
0 
0 
0 
0 
0 
0 
0 
0 
0 
0 
0 
0 
0 
0 
0 
0 
0 
0 
0 
0 
0 
0 
0 
0 
0 
0 
0 
0.8608528414133445 
0 
0 
0 
0 
0 
0 
0 
0 
0 
0 
0 
0 
0 
0 
0 
0 
0 
0 
0 
0 
0 
0 
0 
0 
0 
0 
0 
0 
0 
0 
0 
0 
0 
0 
0 
0 
0 
0 
0 
0 
0 
0 
0 
0 
0 
0 
0 
0 
0 
0 
0 
0 
0 
0 
0 
0 
0 
0 
0 
0 
0 
0 
0 
0 
0 
0 
0 
0 
0 
0 
0.4598005480801112 
0 
0 
0 
0 
0.3910437472441909 
0 
0 
0 
0 
0 
0 
0 
0 
0 
0 
0 
0 
0 
0 
0 
0 
0 
0 
0 
0 
0 
0 
0 
0 
0 
0 
0 
0 
0 
0 
0 
0 
0 
0 
0 
0 
0 
0 
0 
0 
0 
0 
0 
0 
0 
0 
0 
0 
0 
0 
0 
0 
0 
0 
0 
0 
0 
0 
0 
0 
0 
0 
0 
0 
0 
0 
0 
0 
0 
0 
0 
0 
0 
0 
0 
0 
0 
0 
0 
0 
0 
0 
0 
0 
0 
0 
0 
