solver_type L1R_LR
nr_class 2
label 1 -1
nr_feature 98199
bias -1
w
-2.045331139521942 
0.4193165296669018 
0 
-1.413173392623357 
-1.022963447789205 
0 
0.4637612245780564 
0 
0.2292331948329387 
0 
2.104398664853744 
0 
0 
0 
0 
3.16987929585641 
1.171856440581267 
1.449933847200285 
1.148398588997299 
0.04085880513213738 
1.133592097060213 
0.0190506847023169 
-0.6837321319873974 
0 
1.744175877158592 
0 
0 
0 
0 
1.292234243065577 
0.5513062294862167 
0 
0 
3.73982665445213 
0 
-0.5041793650502313 
0 
0 
0 
0 
0 
0 
-1.070559275695682 
0.1173993753597746 
-0.006785411796364621 
-1.74167964921998 
0.5536558625815624 
0 
0 
-2.218960330417197 
0 
0 
-1.671238048353003 
-0.05386661106073967 
0 
0 
0 
0 
-0.3154878229001265 
0 
0 
-1.323033645452715 
1.394083540947771 
-1.673490106180024 
0 
-0.7842163994275377 
0 
0 
1.343886668659964 
0.4743905211080564 
0 
1.174844492298906 
0.8307949506091861 
0 
0 
0 
0 
0 
0 
-0.2954156581115128 
0 
2.151240207484617 
1.497260404208683 
0 
-0.1174418119642561 
0 
0 
-2.081763318554774 
0 
0 
0 
-0.3871168945829562 
1.340252495907937 
0 
0 
0 
0 
0 
0.1031582894350263 
-0.3808985617146363 
0.04166792584925941 
0.1735451771449192 
0 
0 
0 
-0.7951482619745184 
-0.235088377529925 
0 
-0.6865026781539472 
-1.436184401975045 
0 
-0.05055220264150278 
0 
-0.1013432366720827 
0 
0 
0 
0 
0 
0 
0 
2.633653644514968 
0 
0 
1.237594472670534 
0 
-0.4114145444322748 
0 
0 
-0.5630491817565717 
2.197703097901034 
-0.5675705455886264 
-1.235840192442145 
-0.8051792523071244 
0 
0.4920886767526732 
0 
-1.227382363317667 
-0.5655287293396734 
0.2793312169346113 
-2.136000556359021 
0 
0 
0 
0.6127802282957526 
-0.1176221522978685 
-1.373256022641634 
0 
-0.07853491445255328 
0 
0 
0 
0.1787933810599376 
0.4659547101762419 
0 
0 
0 
0 
0.6833415044688175 
-0.00893257637321894 
-1.199188578212294 
1.8206781945081 
0.9030739746144256 
0 
1.241383282978971 
0 
0 
0 
0.001465162727962966 
0 
0 
0 
0 
0 
0 
-2.174467531392354 
0.4695288167181175 
0 
1.770675704896895 
0 
0 
0 
0 
0 
-0.8332114686354062 
-0.6216466558079019 
-0.4545182781647295 
0 
0 
0 
0 
0 
0 
0 
-0.2702124311738466 
0 
-1.071188555039414 
0 
0 
0 
-1.006917892298018 
-0.4061769287645246 
0 
0.8230206101953183 
0 
0 
0 
-0.5695006263333892 
0 
0 
-0.2773407140930033 
0 
0 
-1.04720514861264 
0 
-1.211963347278773 
0 
0 
0 
0 
-1.365977361062637 
0 
-0.286082226791495 
0 
0 
0 
0 
0 
0 
0 
-0.3129239764149891 
-1.320943250702247 
0 
0 
-0.1347944180134201 
-1.010737048322014 
0 
0 
0 
0 
0 
0 
-0.1300196086211734 
0 
-1.290132813591909 
0 
0 
0 
0 
0 
0.7873487095224214 
0 
-1.745779586691751 
0 
0 
0 
0 
0 
0 
-0.007763619615228659 
0 
0 
1.479263689715042 
0 
0 
-0.3997934702644492 
0 
0 
0 
-1.146920551801608 
0 
0 
0 
0 
0 
0 
0 
0.6918991730496836 
-1.024370009529915 
0 
0 
0 
0 
0 
0 
-1.205389149432996 
1.054791087993607 
0.3579449415458753 
0 
0.2132703056632 
-2.124942712561462 
0 
0 
-1.22863577336358 
0 
0 
0 
0.1679946853039567 
0 
0 
2.03772048909709 
0 
0 
0 
0 
0.6200278592623237 
0 
1.343893140807486 
0 
0.3640841286713217 
0 
0.1095563410432243 
1.1767068979575 
0.3569669215054535 
0 
0 
0 
0 
0 
0 
0 
0.4212669126819019 
1.721044250559282 
0 
-0.2329586713717115 
-0.9691208190686435 
0.3053424248311738 
0 
-0.9820582469179204 
0 
-0.333010205086417 
0 
-1.301852500576889 
0 
0 
0 
-0.1502505182921221 
0 
0 
0 
-0.1680637586419564 
0 
0 
0 
0.7660256741755603 
0.2723353056996364 
0.05002180779939647 
0 
0 
0 
0 
-1.42703973134726 
-0.03648096582784611 
0 
-1.020349646250016 
0.003718309709333164 
0 
-0.01020307778435765 
0 
0 
0 
-1.418432807392833 
0 
0 
0 
-1.310502554280531 
0 
0.4483813339586364 
0 
0 
-2.07283153835668 
0 
0 
-0.9399481090835348 
0.7312850886280374 
-2.165497587258678 
0 
0 
-1.241360093396782 
0.9620313245506709 
1.186297978627495 
0 
0 
0.4508273390028257 
0.1692854094928295 
0 
-1.154801515268517 
0 
0 
0 
-0.8094891357923565 
-0.2014162862732604 
-0.5229996234569541 
0.1328774667735578 
0 
0.5655289787518527 
0 
-0.8378423535367148 
0.07980091938843939 
1.475446472681872 
0 
0 
0 
0 
-0.313851770627018 
0 
-1.083959886966097 
0 
0.8038162261936904 
2.655639248568129 
0 
-1.61328373342504 
0 
0 
0 
0 
0 
0 
0 
0 
0 
0 
0 
0 
0 
0 
0 
-3.688800231014495 
2.00561371244899 
-1.576838188269668 
0 
0 
0 
0 
0.5886830670818011 
0.9278180142943012 
0.5714230040142745 
-1.600349632164364 
0 
0 
0 
-1.451012365255194 
-2.10382246788657 
-0.5138541818171374 
0 
0.4548860363326167 
0 
0 
1.108692016275474 
0.04221822020328216 
-3.896773935972105 
0 
0 
-2.239932277551201 
0 
0 
-1.080221354930469 
-0.3217709443342123 
-0.4006681886582472 
-0.4120843949514379 
0 
-1.327981047965727 
0 
0.0933858116371795 
0.2390545557001402 
-1.493175936447284 
-4.397346356315636 
0 
0 
0 
0 
0 
0 
0 
0 
0 
-1.264711250594921 
0 
0 
0 
0 
0 
0 
0.3292557022617718 
0 
-1.740634053916008 
-0.7029417821005408 
0 
0 
1.546162073867733 
0 
0 
0 
0 
2.345877899023237 
0 
-0.8633581420021597 
0 
0 
0 
-0.018301351621793 
0.05793650209531299 
0 
2.331019287754495 
0 
0 
0 
-3.712264594823268 
0 
0.8135242165194002 
0 
1.219570665832455 
-3.071762438112166 
0 
-0.0819580171623481 
2.669426803725016 
1.291063719863595 
0 
0 
0 
0 
0 
0 
0 
-0.3884559003416206 
-0.09167392505544349 
0 
-0.2851860505985365 
2.568067985476858 
0 
0 
-1.497112202895313 
0 
0 
-1.181904786267618 
0 
-2.379871805477954 
0 
0 
-0.1496379444038452 
0 
0 
0 
0 
0 
0.1888544572042889 
0 
0 
0 
0 
0 
0.4975231372475577 
0.3030463715858058 
1.524670275904505 
0.1096304499335487 
0.8873454763391409 
0 
0 
-0.7579309309783934 
0 
0 
0 
0 
0 
0 
0 
0 
0 
-2.532918674505241 
0 
0 
0 
-0.2557974348043984 
0 
0 
0 
0 
0 
0 
0 
0 
0 
0 
-1.236986909134739 
0 
0 
0 
0.008719711896344372 
-0.4627605761713853 
0 
0 
0 
0 
0.9466271924730724 
0 
0 
0.4140505400863443 
-0.1581533406930523 
-0.8371760921325206 
0 
0 
0 
0 
1.539095984190879 
0 
0 
0 
0 
0 
0 
0 
0 
0 
0 
0 
0 
0 
-1.946739790719341 
0 
0 
-0.4771977903671043 
-0.5590543874547426 
0 
-0.06740148090180761 
0 
0 
0 
0.02615629877273819 
0.3667413002122534 
-1.126326755024889 
1.801224183033699 
0 
0 
0 
-1.844383614678991 
0 
-0.7326762055510546 
-0.06437316837239095 
-0.5091490038536981 
0 
0 
0 
0.8319341156978808 
0.83202296774498 
0 
0 
0.9195332013749691 
0 
-1.348473266270055 
0 
0 
0 
-1.408244549553471 
0 
0.3428388277053284 
0.2530150739841564 
0 
0 
0 
0 
0 
0 
-0.2151568660643733 
0 
-0.2362919178399554 
0 
-4.668224061277081 
-0.6751929523371648 
-0.9318313780067993 
0 
0 
-2.672065974858274 
0 
0 
0 
2.737099205579651 
-2.388159936506801 
-1.449223554709782 
0 
0 
0 
1.735311606359603 
0 
2.246418188998431 
0 
0 
0 
-0.03275736993550626 
-0.393231981465196 
0 
0 
0 
0.07332101725792851 
0 
0 
0.2585111297858538 
0 
0 
0 
0 
0 
0 
0 
0 
0 
0 
0 
0 
0 
0 
-1.270075355097218 
0 
0 
2.676487653373658 
0 
0 
0 
-0.3378555631674894 
0 
0 
0 
0 
0 
0.5389539147250188 
0 
0 
0 
0 
0 
0 
0.903521944010944 
1.804518634332532 
0 
0 
0 
0 
-3.30564036023314 
0 
0 
0 
0.2853895657073168 
0 
0 
0 
-0.7088427692516964 
0 
0 
0 
0 
0 
0 
0 
0 
2.0930940264151 
0 
0 
0 
-0.7739811060997662 
0 
0 
0 
0 
1.567053399537674 
0 
0 
0 
-1.331215899653933 
0 
0 
-3.034840381248193 
0 
0 
0 
0 
0 
0 
0 
0 
0 
0 
0 
0 
-0.0144179950833066 
-1.455491855079017 
0 
0 
0 
0 
2.978715143062189 
0 
0 
0 
0 
0 
0 
0 
0 
0 
0 
1.378779505276437 
2.212521036881157 
0 
0 
0 
0 
4.229447227619899 
0 
0 
0 
0 
-0.09647202343669725 
0 
-0.7779279178463385 
-0.9180551316210051 
0 
0 
0 
0 
2.610359786104926 
0 
0 
0 
0 
0 
0 
0 
0 
0 
0 
0 
0 
-1.582598017572812 
0 
0 
0 
-0.1501167246880077 
0 
0 
0 
0 
0 
0 
0 
0 
0 
0 
0.1104138307549153 
0 
0.3899298180254251 
0 
0 
0 
0.08463267836025945 
0 
0 
0 
0 
0 
0 
0 
0 
0 
-0.5777550084821086 
0 
-0.2957196626437814 
0 
-1.296928889217764 
0 
-0.1468990921596187 
-1.764286809168961 
0 
-0.7513060263253614 
1.371616601373987 
-0.6933427224101894 
0 
0.4136129190741338 
-3.166944171477188 
0.5484335723703526 
0 
0 
0.01875140894598016 
0 
0 
0.3115446240059895 
0.4189189956193504 
-0.217937361455272 
0.5838888637992764 
0 
-0.3531559966465289 
0 
0 
0 
0 
0 
-1.505035904419624 
-3.937958583357054 
0 
0 
0.03170495087573406 
0 
0 
0 
0 
-1.589147310538683 
0 
0 
0 
0.2437990891976353 
1.585867884110313 
0 
0 
0 
0 
0 
0 
0 
0 
0 
0 
-2.471478260996332 
-1.654789706419089 
0 
0 
0 
0 
0.2908055766723871 
0 
0.6349684510934323 
0 
0 
0 
0 
0 
0 
0 
0.3235363918922668 
-0.04857309153531582 
-0.2122676763529109 
0 
0 
0 
0 
0 
0 
0 
0 
0 
0 
0 
0 
0 
0 
0 
0 
0 
0 
0.7198906632793013 
-0.7880388405387636 
-0.2284779738337127 
0 
0 
-0.4708343523226259 
0 
0.02992026316420773 
0 
0 
0 
0 
0 
0 
0 
0 
0.2885035443889627 
0 
0 
0 
0 
0.3972743647532623 
0 
0 
0 
0 
0 
2.865623534622181 
0 
0 
0 
0 
0 
0.4818601009264473 
0 
0 
0 
-0.2898774038895834 
0.1325373063357009 
0 
0 
0 
0 
0 
0 
0 
0.708716218734187 
0 
0 
0 
0 
0.6311552022341809 
-2.291081378302708 
-1.082493085120157 
-0.1016905944946911 
0.6152884902309872 
0 
0 
0.700969799407058 
0 
2.38275680037221 
0 
0 
0 
0.4919224785542021 
2.146047295218687 
0 
0 
0 
0 
-0.4658959551472098 
-0.539659013154793 
0 
0 
0.1493144975596033 
0.4678321675280107 
0 
0 
1.858137121552519 
0.1089622445665868 
-0.0673569176781767 
0 
0 
-0.6060365293028069 
0 
-0.484089754032109 
0 
-1.884425303707371 
0 
0.4377740717704017 
0 
0.1005372490820559 
0 
-0.6236378643352428 
0 
-1.141929045601581 
0.1435017340145375 
0 
0 
0 
0 
0 
0 
0 
0 
0 
0 
-0.9417184578224742 
0 
0 
0 
-0.3005915584851495 
0 
0 
0 
-0.3347042199226032 
0 
1.326191913998759 
0 
0 
-1.500601247045581 
0 
0 
0 
0 
0 
-1.029477379726781 
0 
0 
-2.562317211722595 
0 
0 
-1.123032083514194 
0 
0 
0 
0 
-1.534817578657612 
-1.439934565655612 
0.3313234257306906 
0 
0 
0 
0 
0 
0 
-2.278950865567853 
0 
-0.4086935317475891 
0 
0 
0 
0 
0 
0.2185638377346476 
0 
0 
0.7152681433599997 
0 
0 
0 
0.09507214108397276 
0 
-0.3199845081646958 
0 
0 
-2.636958426863413 
0 
-1.136906884190501 
0 
-0.03608215397612857 
0 
0 
0 
-0.2147676834561228 
0 
0 
0 
0 
0 
0.4481196808762401 
0 
0 
0 
0 
0 
0 
0 
-0.808807922748776 
0.9031736785884509 
1.187907503389132 
0 
0 
0.530660150833749 
0 
0 
0 
0 
0 
0 
0 
-2.411018594257985 
0 
-1.259581633781109 
1.045386404659442 
0.2212622192763654 
0 
-4.080167166165044 
-3.091150637180018 
-1.751514656746461 
0 
0 
0 
0 
1.081786982603845 
0 
0 
0.09152769246294434 
-1.059054241731508 
0.2599233432817437 
0 
0 
0 
-1.292340951017691 
-2.703915853187446 
0 
0 
0.8661760374389527 
0 
0 
0 
0 
0 
-2.06035178547239 
0 
1.432201923086962 
0 
0 
0 
1.139517936483137 
0 
0 
0.102357502125348 
0 
0 
0 
0 
0 
0 
1.562225041929961 
-0.07931429359574599 
0 
0 
-1.422577590146822 
-0.7288607907836617 
0 
0 
0 
0 
-1.401960182994086 
0 
0 
-0.5895837006921533 
0 
0 
0 
0 
0 
0 
0 
0 
-0.5886606429742569 
0.9401823984753497 
0 
0 
0 
0.3550364182224763 
0.4567185231602249 
0 
0 
0 
0 
0 
0 
0.5600269941324778 
0.9012368255113803 
0.0119395334593464 
0 
0 
0 
0 
-3.134074234045638 
0 
0 
0.6550738052606303 
0 
1.737376413535975 
0 
-0.1384882323175158 
0 
0 
0 
0.5684202314321674 
0.1702951753752062 
0 
-3.782885192893966 
-3.582837908528187 
0.9622274034966847 
0 
0.1034492297553433 
0 
-2.273283950271826 
0 
0 
-0.9272735349956761 
0 
0 
0 
0 
-1.274005775005458 
1.781337345858251 
0 
0 
0 
0 
0 
0 
-3.9101881151841 
0 
0 
-0.8715175441097214 
0 
-1.845261850534136 
0.5444795445963739 
0 
-0.7998992157056675 
0 
0.04193728026623828 
0 
0.9720809892748176 
0 
0 
0 
1.91599394190902 
2.223960447858712 
-0.5257358096956315 
0 
1.975845485628338 
0 
-1.548720165697574 
0.146426274044054 
0 
0 
-4.403348462469392 
-0.5884781585269197 
-0.1554987697345256 
0 
-0.6797866518193636 
0 
-0.7306080124659624 
0 
-0.7166587830012332 
-0.3786756638290684 
0 
0.12473912439794 
0 
0 
0 
0 
0 
0 
-2.398610722854484 
-2.191691865059975 
0 
0 
0 
0 
0 
-0.8876362686240892 
0.8877524666992341 
0 
0 
0 
-0.7253220789821553 
-0.5398111917999678 
-0.7115341740561931 
0 
0 
0 
0 
0 
0.9368480364466586 
0 
0 
0 
1.024059093918384 
0 
0 
0 
0 
-0.1202797985778652 
-1.601750346654424 
0 
0 
0 
0.7031042989432359 
0 
0.3117529083777271 
0 
0 
0 
1.337134802753444 
0.01918414048127033 
0.3725301611453227 
-0.8220158684137426 
0 
0 
0 
0 
-0.9741006819739174 
0 
0 
0 
0 
0 
0 
0 
0 
0.408662458513202 
0 
0 
0 
0 
0 
0 
-2.15601323803403 
0 
0 
0 
0 
-2.86511240925024 
0.2642204547890574 
0 
0 
0 
-1.637098344651674 
0 
0 
0.4965970090354266 
-1.888141116698559 
1.467974580544394 
0 
-0.7320450236420427 
0 
0 
0 
0 
0 
0 
0 
0.7830199647835765 
0 
-0.6178234401560402 
-1.081759003777837 
0.5125827714197614 
-2.426325225050221 
1.383631311304485 
0.3497408371419273 
0 
0 
0 
-0.6748241733458075 
0 
-0.115053593761732 
0 
0 
0 
0 
0.5410269905003792 
0 
0 
1.135580619499451 
-0.03136016877288179 
0 
0 
0 
0 
0.8872437097640399 
0.9542723783007275 
0 
0 
0 
0 
0 
0 
0 
0 
-0.9834679568696134 
0.3107037879821509 
0 
0 
-2.229931677560987 
0 
-0.1168773705734774 
0 
0.04193548012085314 
-1.608246336155178 
0 
0 
-1.52961248844598 
-1.367404883228623 
0 
0 
0 
0 
1.023109266461291 
0 
0 
0 
0 
0 
0 
0 
0 
-0.6766894772637846 
0 
0 
-1.293995342495201 
0 
0 
0 
0 
-0.705782417427692 
0 
0 
-1.063901593405812 
0 
-1.355147566621776 
0 
0.08758505331705059 
1.344913457708464 
0 
0 
0.5684093706923078 
0.6974470173607184 
0 
0 
2.168130525780573 
0 
0 
0 
-0.596963212037974 
-0.5123609448624349 
0 
0 
0 
0 
0 
0 
0 
0 
0 
-4.548484961293852 
0 
0 
-1.285828024876491 
0 
0 
0 
0 
0.5354376329740903 
0 
0 
0 
-1.747850750477464 
0 
0 
0 
-5.876410583194968 
-0.4298799732678029 
0 
0 
0 
0 
0 
0 
0 
0 
0 
-0.06443192345363001 
0 
0 
0 
-0.3110647680319467 
0 
0 
-0.7723075610317431 
0 
0 
0 
-1.003281940271565 
0 
0 
0.1539710084111462 
0 
0 
0 
0 
0 
0 
0 
0 
0 
0 
0 
0 
0 
-0.9851078771935422 
-0.09870320701512625 
0.9804004378421535 
0 
0 
0 
0 
0 
0 
-0.9520333556343714 
0 
0 
0 
0 
0 
0 
0 
-3.796812674928146 
-1.81781109118916 
0 
2.291423168742679 
0.1566228378829755 
0 
0 
-1.196813042548431 
0 
-0.6585199985497027 
0 
-0.1756492225303671 
0 
0 
0 
0 
0 
0 
0 
-2.202382909595752 
0 
0 
0 
0 
0 
0.5756235050414679 
0 
0 
0.9239915623387 
0 
0 
0 
0.5886218172043589 
0 
0 
0 
1.080708787451462 
5.274910576844024 
0 
0 
0 
-0.6781459459307336 
1.278262327976321 
0 
0 
0 
0 
0 
-0.558178963351342 
0 
1.063510567423097 
0 
0 
0 
0.6991327988258216 
0 
0 
-0.3562496127300405 
0 
-0.4890047873976674 
0 
0 
0 
0.2812192630230825 
0.13362574415219 
0 
0 
-0.5396132345048507 
-0.9043651276891004 
0 
0 
0 
0 
0 
0.2524581825725702 
0 
0 
-1.745610935978372 
-1.632760645884379 
0 
0 
0 
0 
0 
-0.3908225715989189 
-1.893826411179472 
0 
0 
0 
0 
0 
0 
0 
0 
0 
0 
-3.079283380234584 
3.025658905620043 
0 
1.180014798869101 
1.783797043325774 
0 
0 
0 
0 
0 
0.2046806711345749 
-1.235231237276854 
-0.9438163624363232 
0 
0 
0 
0 
0 
0 
0 
0 
0.9049835671571133 
0 
0 
0 
0 
0 
0 
0 
0 
0.4845243624485714 
-0.566350479888927 
0 
0 
0 
0 
0 
0 
-0.28800907867476 
-1.133080596668567 
-1.213574658147632 
0 
0 
-0.08392019315611321 
0 
-0.5081313302523635 
0 
-0.9212219145583088 
0 
0 
0.723409252786467 
0.5461295886804347 
0 
-0.1909020163736913 
0 
0 
0 
-2.176042461922136 
0 
0.7161950767541748 
0 
0 
0 
-1.72031929040947 
0 
0 
0 
0 
0 
0 
0 
0 
0 
0 
0 
0 
0 
0 
0 
0 
0 
0 
-0.5254524166200503 
0 
0 
0.09452455546485336 
0 
0 
0 
0 
0 
0 
0 
0 
-1.310580291430687 
0 
0 
-1.527970124026113 
0 
0 
0 
0 
0 
0 
0 
0 
0 
0 
0 
-0.1879161319230819 
0 
0 
0 
0 
-1.270129510418073 
0 
0 
0 
0 
0 
0 
0 
0 
0 
0 
0 
0 
0 
0 
0 
0 
0.10759026094212 
-0.6505059977442705 
-2.624886496157687 
0 
0 
0 
0 
0 
0 
0 
0.5200681276319493 
0 
0 
0 
0 
0 
0 
0.152801234064698 
0 
0.09655883419002696 
-1.625635736687473 
0 
0 
-1.38265664385143 
0 
0 
0 
0 
1.366791084813114 
0 
1.410297114357507 
0 
0 
0 
-1.100643972017093 
0 
0 
0 
0 
0 
0 
0 
0 
0.03672317345438866 
0 
0 
0 
-0.7577393986372718 
1.283507749578561 
0 
0 
0 
0 
0 
3.189064272200185 
0 
0 
0 
0 
0 
0 
0 
0 
0 
0 
0 
0 
0 
0 
0 
0 
0 
0 
0 
0 
0 
-1.423957258100211 
0 
0 
0 
0 
0 
0 
5.985751031391308 
0 
0 
0 
0 
0 
0 
0 
0 
0 
0.2523432602175023 
-1.313681042521988 
0 
0 
0 
0 
0 
0 
-1.926446354591894 
0 
0 
0 
1.160379981592572 
0 
0.131239787509038 
-0.1378598936449512 
0.3362637452988761 
-0.5466431521516306 
-1.034702045421654 
1.407629188370627 
0 
0 
0 
0 
0 
0 
0 
-0.1744992322033679 
0 
0 
-1.340567700261189 
-0.1791608212591965 
0 
0 
0 
0 
-1.250732799455454 
0 
0 
-0.4022831099439252 
0 
0 
0 
0 
-0.4121464586269205 
-0.3288470716231514 
0 
0 
0 
0 
0 
0 
0 
-0.7487828770533216 
0 
0.5947860263943147 
0 
0 
4.133659913045748 
-2.596025837299122 
0 
0.4816681087759632 
0 
1.200300406640456 
0 
0 
0 
-0.6062184216596632 
0 
0 
0 
0 
0.8019204730022542 
0 
0 
0 
0 
0 
0 
0 
0 
0 
0 
0 
0 
0 
0 
0 
0 
0.6760383757202751 
0 
0 
0 
0 
0 
-0.1627663666680447 
0 
0 
0.4359100893868927 
0 
0.8005997245857378 
0 
3.178391606909525 
-1.832894191454422 
0 
-3.150215422331609 
0 
-1.619157645993307 
-0.4043778919013426 
0 
0 
0 
0 
-1.016564485943713 
0 
0 
-0.3495584508554301 
0 
0 
0 
-0.3625971446908196 
-1.882176241690085 
0 
0 
-0.638188876237052 
0.392180572474312 
-1.02931800850039 
-1.498954178315866 
0 
0 
0 
-2.581496810268632 
0 
0 
3.487596903704406 
0 
0 
0.9309514530797619 
-0.7282201905294059 
0 
0 
0 
0.7528977821113919 
0 
0 
0 
0 
0 
-1.150797721553943 
-0.2943096967788876 
-1.305149768872707 
0 
-3.599322054686776 
-0.6563754684011399 
0 
0 
-0.1179323048181064 
0 
0 
0 
0 
0 
0 
0 
-0.2642264171831998 
0 
-0.3785419280712226 
0 
0 
0 
0.278572217837382 
0 
0 
-2.051106986619099 
0 
0 
0 
-1.72375342185361 
0 
0 
0 
0 
0 
0 
0 
0 
0 
0 
0 
0 
0 
0 
-2.056809210234472 
0.1413017920031003 
0 
0 
0.8772837579076984 
0 
0 
0 
-0.08312455906628076 
0 
0 
-2.12735671043274 
0 
0 
-0.6018531766136587 
0 
0 
0 
0 
0 
0 
0 
0 
0 
0.5561847943685933 
0 
0 
0 
-0.1442161437004312 
0 
0 
0 
-1.11759914485313 
0 
0 
-0.04293922239280386 
0 
1.04706798287297 
0 
0 
0 
0 
0 
-1.71424197118874 
0 
0 
-3.050072635446417 
-0.2523165786111488 
0 
0 
0 
0 
0 
-1.128115475500085 
0 
0.2558986320887262 
0 
0 
-4.316470019357519 
0 
0 
0.7496850823087955 
0 
0 
0 
0 
-0.05358255098486908 
0 
0 
0 
0.6364085694855945 
0 
-0.5629773307263096 
0 
-1.233217346471437 
0 
0 
0.04456618932060949 
0 
0 
-1.046029863016513 
0 
0 
0 
-1.755023360916334 
0 
-0.533729432914419 
0 
0 
0 
0 
0 
0 
0 
0 
0 
0 
0 
0 
0 
0 
-1.499173561505838 
-2.755303862583556 
0 
0 
0 
-0.7032484837276217 
0 
0 
0 
0 
0 
0 
0 
0.1025992868400893 
0 
-2.534307278013251 
0 
0 
0 
0 
0 
0.7067284284221864 
0 
-0.1589854203890206 
0 
0 
0 
0 
0 
0 
0 
0 
0 
0 
0 
0 
0 
0 
-0.5318070008085938 
0.1364895312794229 
0 
-1.513427577253853 
0 
0 
0 
-0.7921951195111339 
0 
-3.500370201389515 
0.001967807503586963 
-1.75579129674704 
0 
0 
0 
0 
-0.1565542699764505 
0 
0 
0 
0 
0 
0 
0 
0 
0 
0 
0 
0 
0 
0 
0 
0 
-0.09721932250131 
-1.739350382154154 
0 
0 
0 
0 
0 
0 
0 
0 
0 
0 
0 
-0.7919029050211106 
0.7751202598733231 
0 
0 
0 
0 
0 
0 
0.2386051883849396 
0 
0 
0.04519667423998698 
0 
-0.4360114996119893 
0 
0 
0 
0 
0 
0 
0 
1.862221387980406 
0 
0 
-0.2919112465530006 
0 
0 
0 
-0.2462140391198238 
0 
0 
0 
0 
0 
0 
0 
0 
0 
-0.5415836609338766 
0 
-0.8910775334687699 
0 
0 
0 
0.5701345531485517 
0 
0 
0 
0 
0 
0 
-0.1810774625676955 
0 
-2.824321871321082 
-1.15994418130658 
0 
-0.03865053478430949 
0 
0.5492741336077402 
0 
0 
0 
0 
0 
-0.6967620942904328 
0 
-1.342597073804537 
0 
0 
1.813245906235949 
0 
-1.28217983261886 
1.416379466009632 
0 
0 
0 
0 
0.3481673681490918 
0 
0 
0 
0 
2.917336237676336 
0 
0 
0 
0 
0 
0 
0 
0 
0 
-0.1018104597835735 
0 
0 
0.3437587161400342 
-0.02231921312723485 
-0.658263455216857 
0 
0 
0 
0.9249764626084548 
0 
0 
1.011680686828714 
0 
0 
0 
0 
0 
-0.7104820723560555 
0 
0 
0 
0 
0 
0 
0 
0 
0 
0 
0 
0 
0 
0 
0 
0 
0 
0 
-0.1734420580712043 
-0.2210385812119783 
0 
-0.08610402804708321 
0 
0 
0 
2.7404502633464 
0 
0 
0 
-4.676331955133288 
0.06501681419748914 
0 
0 
0 
0 
0 
0.07990425453359386 
0 
0 
0 
0 
0 
0 
0 
0 
-1.85906699377241 
-1.66815225277016 
0 
0 
-1.249307645493529 
0.8889425199659182 
0 
0 
-1.17612450994637 
0 
0 
0 
0 
0 
0 
0 
0 
0 
0 
0 
0 
-1.613930787620286 
0 
0 
0 
0 
0 
0 
-0.5150933773021948 
0 
-0.8489605655016013 
0 
0 
0 
0 
0 
0 
0 
0 
0 
0 
-0.3271366181354485 
0 
1.224693299374231 
0 
0 
0 
3.436864836834544 
0 
0 
0 
0 
0 
0 
0.9373328078207506 
-0.1931565910458111 
0 
0 
-1.4777559858682 
0 
-0.9493321142655242 
0 
0 
0 
-0.8826603517748682 
-1.990886700507336 
0.0841179260268918 
0 
-2.488087663708647 
0 
-0.8131589518066401 
0 
0 
0 
0 
0 
0 
0 
0 
-0.2700906549339113 
0 
0.4440343663733615 
0 
0 
0 
0 
0 
-1.594062754693021 
0 
0 
0 
0 
0 
0 
0 
0 
0 
0 
-0.7045064316420653 
0 
0 
0 
0 
0 
0 
0 
0 
0 
0 
1.255593222414673 
0 
0 
0 
0 
0 
0 
0 
0 
0 
1.039213813967859 
0 
0 
0 
0 
-0.03013088081965049 
0.1551044215791898 
0 
0 
0 
0 
0 
0 
0 
0 
0.5262326165786792 
0 
0.2735379130946624 
0 
0 
0 
0.3820356056412499 
0 
0 
0 
0 
-0.4865144232587372 
0 
0 
-1.760634812493548 
0 
0 
0 
0 
0 
0 
0 
-0.7839687441108939 
0 
0 
0 
0 
-1.645573587280461 
0 
-1.575759334025726 
-4.249028980713734 
0 
0 
0 
0 
0 
0 
-0.9171763936390024 
0 
0 
-1.484634879239233 
0 
0 
0 
0 
-1.083485512414615 
0 
1.137864434293471 
0 
0 
0 
0 
0 
0 
0 
0 
0 
0 
0 
0 
0 
0 
0 
0 
-0.7760978512361698 
0 
-0.4907873874575517 
0 
0 
0 
0 
0 
0 
0 
0.1711119119615911 
-0.621628992720869 
-1.274571788132398 
0 
0 
0 
0 
0 
0 
-0.4728692016483245 
0 
0.2186744373305774 
0 
2.455429330922398 
0 
0.1827351286240723 
-0.1442087759577208 
0.4258970577696093 
0 
0 
0 
0 
-0.7962009674541829 
0 
-0.5555969317250956 
0 
0 
0 
0.9344586186828497 
0 
0 
0 
0 
0 
0 
0.4325460268531491 
0 
0 
0 
0 
0.3095235858301675 
0 
-0.393115718445427 
0 
-2.528037876271705 
0 
0 
0 
0 
0 
0 
0 
0 
0 
0 
0 
0.6424935332918826 
1.081701000510157 
0 
0.1360187456379506 
0 
0 
0 
0 
0.1660491049832709 
0 
0 
0 
0 
-0.4000307541826059 
0 
0 
0 
-0.8079500633460806 
0 
-0.6325208968317727 
0 
0 
-0.4731323580034585 
0 
0 
0 
0 
0 
0 
0 
0 
0 
0 
-0.8577360943618198 
0 
1.411545788281851 
0 
-0.3539106884041849 
0 
-0.8403676845201143 
0 
-0.1119049820633097 
0 
3.063738583504476 
0 
0 
5.731829319961807 
0 
0 
0 
0 
0 
0 
1.642687848815411 
0 
0 
0 
-1.516573484833232 
0 
0 
1.528059759880134 
-0.4321522557944113 
0 
0 
-0.4381878114462628 
0 
0 
0 
0 
0.4089706610384343 
0 
0 
0 
0 
0 
0 
0 
0 
0 
0 
0 
0 
0 
0 
0 
-1.98492602911857 
0 
0 
-1.759442336287113 
0 
0 
0 
0 
0 
-0.1013601093104818 
0 
0 
0 
0 
0 
0 
0.2594635683152067 
0 
0 
0 
0 
-1.783100235416581 
0 
0 
0 
0 
0 
0 
0 
0 
0 
-0.1194036063577717 
-0.4594897124681722 
0 
0 
0 
0 
0 
0 
0 
0 
0 
-1.689642572884909 
0 
0 
0 
0 
-0.03040307186031845 
1.126295967274012 
0 
0 
0.7502851865327124 
0 
0 
0 
0 
0 
0.632751620020977 
-0.4150419345644297 
0 
0 
-0.2445286083278503 
0 
-1.689783213367234 
0 
0 
0 
0 
0 
-0.04956889334974114 
0 
-0.3066432772994477 
0 
0 
0 
0 
0 
0 
0 
0 
-1.058395662807843 
0 
0 
0 
-0.5263254243315756 
0 
0 
-5.127527700290845 
0 
0 
0 
0 
-6.836281668091022 
-1.687379332271134 
-1.322712350247725 
0 
0 
0 
-0.5119923744693102 
-0.7248370150738247 
1.102331468247447 
-1.108364244185247 
0 
0 
-0.9278630543768353 
0 
0 
0 
0 
0.08928561172536113 
0 
0 
0 
0 
0 
1.141164864267445 
0 
1.548396831076356 
0 
0 
0 
0 
-0.1907730895457802 
0 
0 
0 
0 
0 
1.895564327787118 
0.7079672269703599 
0 
0 
-1.759163100140572 
0 
0 
0 
-0.3713204656212614 
0.5329259130262166 
0.3980523042896694 
-3.600904020035142 
-4.070472074315546 
0 
0 
0 
0 
-3.90041894547455 
0 
0 
0 
0 
0 
0 
0 
2.5293210051566 
0 
-1.937853538477413 
0 
0 
0 
-0.4726062251150024 
1.966686162544355 
0 
0 
0 
0 
0 
0 
0 
0 
0 
0 
-0.519755540289783 
1.857593467739293 
0 
0.5847008427814111 
0 
0.3610670854575254 
-0.3040093816703174 
0 
-0.8053979472310991 
0 
0 
-0.8675338068350832 
0 
0 
-0.7429358889252721 
-0.994937685177024 
0.09410544600299699 
0 
0 
0 
0 
-2.075005442830893 
0 
0 
-2.403054709121302 
0 
0 
0 
0 
0 
0 
1.772907585622076 
0 
0 
0 
0 
0 
0 
0 
-0.6494904758269465 
-0.2940631242831798 
0 
0 
0.1359630074865026 
-0.5756972032870431 
0 
0 
0 
0 
0 
-4.906342659730769 
0 
0 
0 
0 
0 
0 
0 
0 
1.177416485403213 
0 
0 
-0.3533212222845998 
1.653244329100234 
1.78543675820576 
0 
0 
0 
0 
0 
0 
0 
0 
0 
0 
0 
0 
0 
0 
0 
0 
0 
0.7208269675053625 
0 
-0.1554300418554722 
0 
0.5310564543449304 
0 
0 
2.066322690021454 
0 
-1.892139178233135 
0.8265387258286833 
0 
0.3939357502383796 
0 
0 
0 
0 
-2.424689170291236 
0 
1.412183086400371 
0 
-1.468280981667776 
0 
0 
0 
0 
0 
0 
0 
0 
1.813916838021176 
0 
0 
-0.1414490945576632 
0 
0 
0 
0 
0 
-0.7459290208083 
-0.3679387317825996 
0 
0 
1.347523481986679 
0 
0 
0 
0 
0 
0.4003157145030865 
0 
0 
0 
0 
0 
0 
0 
0 
0.1925938006638602 
0 
0 
0 
0 
-0.07050763949710824 
0 
0 
0.09019757377651202 
-1.110966746595878 
0 
0 
-0.9502482034430861 
0 
0 
0 
0 
0 
0.5597776465914324 
0 
-3.540983621474403 
0 
0 
0 
0 
0 
0 
0 
0 
0 
0 
0 
0 
0 
0 
0 
0 
0 
0.2658044117622661 
0 
0 
0 
0 
0 
0 
0 
0 
0 
0 
0 
0.6852352274639997 
0 
0 
-0.7348733627201299 
0 
0 
0 
0 
0 
0 
0 
0 
0 
0 
0 
0 
-1.431241808116393 
0 
0 
0 
0 
0 
0 
0 
0 
0 
0 
0 
0 
0 
0 
0 
0 
0 
0 
0 
0 
0 
0 
0 
0 
0 
-2.63578377082929 
0 
0 
0 
0 
0 
1.579928818612531 
0 
0 
-0.08067399702931023 
-0.6241209377424758 
-0.04269944307588446 
0.9606958534997147 
0 
0 
0 
0.198291070555366 
0 
0 
0.06366596801780622 
0 
0 
0 
0 
-1.888911308159909 
0.002358503040895292 
0 
0.2330279017479408 
0 
0 
0 
0 
0 
0 
0 
0.3944374094273346 
2.627719866318744 
0 
0 
0.6775767660609963 
0 
0.3718377486943155 
0 
0 
0 
0 
0 
0 
0 
0 
0 
0.966977017885957 
0 
0 
0 
0 
0 
0 
0 
0 
0 
0 
0.5181987326542438 
0 
0 
0 
-0.5243412657009999 
-2.133022616715627 
0 
0 
0 
-1.405949694495181 
-1.191338659879275 
0 
-0.8230065388685113 
0 
0 
0 
0 
0 
0 
0 
0 
0 
3.897222785017936 
0 
0 
0 
0 
0 
0 
-2.263131564279231 
-0.1846871860765179 
0 
0 
-4.731401196371215 
0 
0 
0.1258847206940983 
1.276347471004507 
-0.1844823952208224 
0 
0 
-0.1594046580781853 
0 
0 
0.8962193312327792 
0 
0 
0 
2.339185962459925 
0 
0 
0 
0 
0 
0 
0 
0 
0 
0 
0 
0 
0 
0 
0 
0 
0 
0 
0 
0 
0 
0 
0 
0 
0 
-0.2945165954223885 
0 
0 
0 
0 
0 
0 
-0.55313524928886 
0 
0 
0 
0 
0 
-5.508867538850793 
0 
1.661815837672722 
-0.3121977861052939 
0 
0 
0 
0 
0 
0 
1.334676634054472 
0 
0 
0 
0 
0 
0 
0 
0 
0 
0 
0.2858886016549209 
0 
0 
-1.063001915742521 
0.07125886852065441 
-0.5651559993336313 
0 
0 
0 
-0.1555205039672122 
0 
0 
0 
0 
0 
0 
0 
-1.325087860181915 
-1.650846443574863 
0 
0 
0 
0 
0 
0.7770032762420347 
-0.2182365361634412 
0 
0 
0.05397476328979474 
0 
0 
0 
0 
-1.687811280198327 
0 
-0.2416219355167542 
0 
0 
0 
0 
0 
0 
0 
0 
0.3723062093013808 
1.517010221684452 
0 
0 
0 
1.669284801750573 
0 
0 
0 
0.1858307769319475 
0 
-0.9010525894208604 
0 
0 
0 
0 
0 
0 
0 
0 
0.224098977677913 
0 
-1.264796412904337 
0 
2.33286657744278 
-0.594520367960465 
0 
1.225664762993219 
0 
-1.494285974166828 
0 
-0.3472560801765023 
0 
0 
0 
0 
0 
-0.287701211231656 
0 
-0.7651657360176921 
0 
-2.412360810704117 
0 
1.1651803986263 
0 
0 
0.05815729096466941 
0 
0 
0 
0 
0.7109066152084043 
-0.1347710096915492 
0 
0 
0 
0.7264312747637777 
0 
0 
0 
0 
0 
0 
0 
0 
-2.783238226600793 
0 
0 
0 
0 
0 
0 
0 
0 
0 
0 
0 
1.909136715912518 
0 
1.301621201506903 
0 
-0.7510427737091181 
0 
0 
0 
-2.180231277954106 
-0.696014183467784 
0 
0 
0 
0 
0 
0 
0 
0 
0 
0 
0 
0 
-0.1860689891909095 
0 
0 
0 
0 
0 
0 
1.156627586675292 
0 
0 
0 
0 
0 
0 
0 
0.1503062514457228 
0 
0 
-2.544323709719363 
-1.097811813624582 
-1.09793628785618 
-0.7402002118232641 
0 
0 
0 
0 
0 
-2.106101081608543 
0 
0 
0 
0 
0 
0 
-1.226519046608641 
1.972483273809255 
0 
0 
0 
0 
0 
0 
0 
0 
0 
0 
0 
0 
0 
0 
0 
0 
0 
0 
0 
0 
0 
0.0004190385632383619 
0 
0 
0 
0 
0 
0 
0 
0 
0 
0 
0 
0 
0 
0 
0 
0 
0.1190457846310359 
0 
0 
0 
0 
0.161216263173759 
0 
0 
0 
-1.259919334219287 
0 
0 
0 
-0.5849019030946229 
0 
0 
0 
1.858564283304636 
1.328395117546761 
0.1271224284676872 
-0.1825856965896559 
0 
0 
0 
0 
2.597880714898124 
0 
0 
0 
0 
0.6778621331534663 
-1.11876872269357 
0 
0 
0 
0 
-0.4106981342134147 
0 
0.2642760719447907 
0 
0 
0 
0 
0 
0.1735739395490122 
0.5722414037563972 
0 
0 
0 
0 
0 
0 
0 
0 
0 
3.302108148534147 
0 
0 
0 
0 
0 
0 
0 
-0.9331899277633701 
0 
0 
0 
0 
0 
0 
0 
0 
-0.2220455500800764 
0 
0 
0 
0 
0 
0 
0 
0 
0 
0 
0 
0 
0 
0 
0 
-0.1808394449110111 
0.5301608760265588 
0 
1.410535991196532 
0 
0 
0 
0 
0 
0 
-1.792352796611178 
0 
-0.3395470761594698 
0 
0 
0 
0 
0 
0 
0 
0 
0 
-0.642954664330154 
-0.3854949845040611 
0 
0 
0 
-0.1416365212763721 
0 
0 
0 
0 
-0.4345496795131659 
0 
0 
0 
0 
0.6295535198197306 
0 
0 
0.2478742596153726 
0 
0 
0 
0.07902073906707435 
0 
0 
0 
0 
0 
0 
0 
-2.185130328828856 
0 
0.8509222712068063 
0 
0 
0 
-2.453683486534217 
0 
0 
0 
0 
-0.6137889174229505 
0 
0 
0 
0 
0 
0 
0 
0 
0 
0 
0 
0 
0 
0 
0 
0 
-1.870343011027829 
0 
0 
0 
-1.387547731802219 
0 
-0.03994923073490792 
0 
0.9625600084161428 
0.542233319129253 
0.1650643179338493 
0 
0 
-0.6343842635486338 
0 
0 
-1.006122993512841 
0 
0 
0 
0 
-1.135703561476142 
0 
0 
0 
0 
0 
0 
-2.047001380346389 
0 
0.1578186426399917 
0 
-1.519966506982061 
0 
0 
0 
-1.887106420555259 
0 
0 
0 
0 
-7.468124413899777 
-5.586193826125101 
0.5237892267910626 
0 
0 
0 
-0.7523329043432173 
0 
-0.5606650491225054 
0 
0 
1.732367821456124 
0 
0 
0 
-0.6440553318694132 
0 
0 
0 
0 
0 
0 
0 
0 
0 
0 
-1.387221961564206 
0 
0 
0 
0 
0 
-1.426066490266449 
0 
0 
0 
0 
0 
0 
0 
0 
0 
0 
0 
0 
0 
0 
0 
0 
0.5368873169605403 
0 
0 
0 
0 
0 
0 
0 
0 
0 
0 
0 
0 
0 
0 
0 
-0.04531489321831538 
0 
0 
0 
0 
-0.4151020675684342 
-0.3158154983398513 
0 
0 
0 
0 
0 
0 
1.568564844741718 
0 
0 
0 
0 
0 
0 
0 
0.9590892361903618 
-0.01415109909793949 
0 
0 
0 
0 
0 
-0.7358959911790349 
0 
0 
0 
0 
0 
0 
0 
-0.5142895675712399 
0 
0 
0 
0 
0 
0 
0 
0 
0 
0.1623969056851878 
0 
0 
-0.3303588582269397 
1.597573840078963 
0 
0.5105679112839887 
0 
1.323618684639733 
0 
0 
0 
0 
0 
0 
0 
0 
-0.8881701168653572 
0 
0 
0 
0 
-1.951642797523568 
0 
1.10608847295046 
0 
0 
0 
0 
0 
0 
0 
2.174481934891168 
-0.477978328660869 
0 
-0.3021614055486435 
0 
0 
0 
0 
0 
0 
0 
0 
0 
0 
0 
0 
0 
0 
0 
0 
0 
0.7715377031587917 
0 
-0.827425159020138 
0 
0 
0 
0 
-1.182075871704178 
0 
0 
0 
0 
1.294763788795831 
0 
0 
0 
0 
0 
0 
0 
0.07654506223654368 
0 
0 
0 
0 
0 
0 
0.2115278381125061 
0 
3.382300426176983 
0 
0 
0 
0 
-0.3981598411964675 
0 
0 
-1.376969142326636 
0.2298010447820312 
0 
0 
-2.324702218802173 
0 
-0.9120884579133201 
0.09270804806560788 
0 
-1.843596600359019 
0 
0 
0 
0 
0 
0.7121821547141715 
0 
0 
-1.471144990119434 
0 
0 
0 
0 
0 
0 
0 
0 
-0.03267543190811426 
0 
0 
0 
0 
0 
0 
0 
1.159160708302923 
0 
0 
0 
0 
-2.186134812035639 
0.8540351903698451 
0 
0 
0 
0 
0 
0 
0 
0 
0 
0 
0 
0 
0 
0 
0 
0 
14.04727593641844 
-0.4787557062831599 
0 
0 
0 
0 
0 
0 
0 
0 
0 
0 
0 
0 
0 
-1.148264181646788 
0 
0 
0 
-0.9601807198545765 
0 
0 
0 
0 
0 
0 
0 
0 
0 
-0.9601247460659013 
0 
0 
0 
-1.87620309114 
0 
0 
-2.005678250803839 
-0.9542595483413587 
0 
-0.2829646327872641 
0 
0 
1.288852880068037 
-1.495451144602412 
0 
0 
-0.306733598624519 
0 
0 
0 
-0.9654458738427527 
0 
-0.5613926620894087 
0 
0 
0 
0 
0 
0 
0 
0 
0 
0 
0 
0 
0.9833190180216215 
0 
0 
0 
0 
0 
0 
-0.545770956350663 
0 
0 
0 
0 
0 
0 
0 
0 
0 
-0.4086081827538036 
0 
0 
0 
0 
0 
0 
0 
0 
0 
0 
0 
0 
-1.387920720157134 
0 
0 
0 
0.2887426727310777 
0 
0 
0 
0 
0 
0 
0 
0 
0 
0 
0 
0 
0 
0 
0 
0 
0 
0 
0 
0 
0 
0 
0 
0 
0 
0 
0 
0 
0 
0 
0 
0 
0 
-1.52326204060223 
0 
0 
0 
0 
0 
0 
0 
0 
0 
0 
0 
0 
0 
-0.7461782627221483 
0 
0 
0 
0 
-0.7465348627099612 
0 
0 
0 
0 
0 
-1.42462642382044 
0 
-0.8820900332036462 
0 
0 
0 
-2.49711180742351 
0 
-0.7390224683000674 
0 
0 
0 
0 
0 
0 
0 
0 
0 
0 
0 
0 
3.306837058644507 
0 
0 
0 
0 
0 
0 
0.4034022595428563 
0.5881128009311374 
0 
0 
0 
0 
0 
0 
0 
0 
0.197360305823209 
0 
0 
-1.429660677521653 
0 
0 
0 
0 
0 
-4.668857117734108 
0 
-3.652166830112028 
0.7800851729914368 
0 
0 
0 
0 
0 
0 
0 
0 
0 
-0.6262014840654219 
0 
0 
0 
0 
0 
0 
0 
0 
0 
0 
0 
-0.7844833880940183 
0 
0.1786240069968833 
0 
0 
-4.068444799410764 
0 
0 
0 
-1.802941273312621 
0 
-1.23344216789889 
0 
0 
0 
0 
0 
0 
0 
0 
0 
0 
-0.6067085222355116 
0 
0 
0 
0 
0 
0 
0 
0.07012265846905372 
0 
0 
0 
0 
0 
-1.200855689986114 
0 
0 
-1.505322945340184 
0.08508387788266215 
0 
0 
0 
0 
2.456628939774693 
0 
0 
0 
0 
0 
0 
0 
0 
0 
0 
0 
0 
-1.846266058775082 
0 
0 
0 
0 
0 
2.921611670381478 
0 
0 
0 
0 
0 
0 
0 
0 
0 
0 
0 
0.8218561046694907 
0 
0 
0 
0 
0 
0 
0 
0 
0 
0 
0 
-0.2720469049465506 
0 
0 
0 
0 
0 
0 
-1.64789579672743 
0 
0 
0 
0 
0 
0 
0 
0 
-0.3383449538994808 
0 
-1.209600177909236 
0 
0 
0 
0 
0 
0 
0 
0 
0 
0 
0 
0 
0 
0 
0 
0 
0 
0 
0 
0 
0 
0 
0.5837672567403932 
0 
0 
0 
0 
0 
0 
0 
0 
0 
0 
0 
0 
0 
0 
0 
-0.9740441002479202 
0 
0 
0 
0 
0 
0 
0 
0.380368582253054 
0.8809409402737289 
0 
0 
0 
0 
0 
0 
0 
0 
0 
0 
0 
-0.8243383200034684 
0 
0 
0 
0 
0 
0 
0 
0 
0 
0 
0 
0 
0 
0 
0 
0 
0 
1.759921295382628 
0 
0 
0 
-0.3169338290593611 
0 
0 
0 
0 
0 
0 
0 
-2.418759254369134 
1.517943128725183 
0 
0 
0 
0 
0 
0 
0 
0 
0 
0 
0 
0 
0 
0 
0 
0 
0 
0 
0 
0 
0 
0 
0 
0 
0 
0 
0.6880056456464762 
0 
0 
0 
0 
0 
0 
0 
0 
0 
0 
0 
0 
-1.741900785137273 
0 
0 
0 
0 
0 
0 
0 
0 
0 
0 
0.8560232996407373 
0 
-0.7087396624851695 
0 
0 
0 
0 
0 
0 
0 
0 
0 
0 
0 
0 
0 
0 
0 
0 
0 
0 
0 
0 
0 
0 
0 
-2.015587973228858 
0 
0 
0 
0 
0 
0 
0 
0 
0 
0 
0 
0 
0 
0 
0 
0 
0 
-1.111245790297484 
0 
0 
0 
-3.826343803647685 
0 
0 
0 
0 
-0.4911160791782818 
0 
0.8408101373362111 
0 
0 
0 
0 
-0.3584011245686262 
0 
0 
0 
0 
0 
0 
0 
0 
0 
0 
0 
0 
0 
-0.4860612406982325 
0 
0 
0 
0 
0 
0 
0 
0 
0 
0 
0 
0 
0 
-0.2049390792016007 
0 
0 
0 
0 
0 
0 
0 
0 
0 
0 
0 
0 
0 
0 
0.02282322220651344 
0 
0 
0 
0 
0 
0 
0 
0 
0 
0 
0 
0 
0 
-0.8828607435752224 
0 
-1.200217730664785 
0 
0 
0 
0 
0.6289777513790887 
1.220851896687564 
0 
0 
0.1098667084953199 
0 
0 
0 
0 
0 
0 
0 
0 
0 
0 
0 
0 
0 
0 
0 
0 
0 
0 
0 
0 
0 
0 
0 
0 
0 
-4.068133676559902 
0 
-2.61808877627428 
0 
0 
0 
0 
0 
0 
0 
0 
0.3393645262635835 
0 
0 
0 
0 
0 
0 
0 
0 
0 
1.094714031356836 
0 
0 
-0.7931288235237343 
0 
0 
0 
0 
0 
0 
0 
0 
0 
0 
0 
0 
0 
-0.2372839517200941 
0 
0 
0 
0 
0 
0 
0 
0 
0 
0 
0 
0 
0 
-1.674728500694683 
0 
0 
0 
-3.924426075392316 
0 
0 
0 
0 
0.1651380282382067 
0 
0 
0 
0 
0.8218000243661752 
0 
0 
0 
0 
0.9343184324038626 
0 
0 
0 
0 
0 
0 
0 
0 
-0.9799101854578137 
0 
0 
0 
0 
0 
0 
0 
0.9329006954859105 
0 
0 
-2.065457325181316 
0 
0 
0 
0 
0 
0 
-1.300784925185767 
0 
0 
0 
0 
0 
0 
-1.210420043035419 
0 
0 
0 
-0.5945207598266388 
-0.2006512939549949 
0 
0 
0 
0 
0 
0 
0 
0 
0 
0 
0 
0 
0 
0.3501117137437164 
0 
0 
0 
0 
0 
0 
0 
1.094862544084585 
0 
0 
0 
0 
0 
0 
-1.122987135457639 
1.220504796881964 
0 
0 
0 
0 
0 
-2.400870581047993 
0 
0 
0 
0 
0 
0 
0 
0 
0 
0 
0 
0 
0 
0 
0 
0 
0 
0 
0 
-3.952257765578856 
0 
0 
0 
0 
0 
0 
0 
0 
0 
0 
-0.5274629973313613 
0 
0 
0 
0 
0 
0 
0 
0 
0 
0 
0 
0 
0 
0 
0 
0 
0 
0 
0 
0 
0 
0 
0 
0 
0 
0 
0 
0 
0.391254273621874 
0 
-0.2022355895608828 
0 
0 
0 
0 
0 
0 
0 
0 
0 
0 
0 
0 
0 
0 
-0.2535247823653739 
0 
0 
0 
0 
0 
0 
0 
0 
0 
0 
0 
0 
0 
0 
0 
0 
0 
-2.701845448962079 
0 
0 
0 
0 
0 
0 
0 
-0.6724325297725783 
0 
0 
-0.7958793942062137 
0 
-1.692651704044014 
0.4059468463115649 
0 
1.241374792102455 
0 
0 
0 
0 
0 
0 
0 
0 
0 
0 
-3.900193498097851 
0 
0 
0 
0 
0 
0 
0 
0 
0 
0 
0 
0 
0 
0 
0 
0 
0 
0 
0 
0 
0 
2.177427827195739 
-0.8036676304200026 
0 
0 
0 
0 
0 
0.5799384547138708 
0 
0 
0 
-2.579738400198804 
1.33077476524263 
0 
0 
0 
0 
0 
0 
0 
0 
-2.264833667973897 
0 
0 
0 
0 
0 
0 
0 
0 
0 
0 
0 
0 
0 
0 
0 
0 
0 
0 
0 
0 
0 
0 
0 
0 
0 
0 
0 
0 
0 
0 
0 
0 
0 
0 
0 
0 
-0.6858166877617118 
0 
0 
0 
0 
0 
0 
0 
0 
0 
0 
0 
0 
0 
0 
0 
0 
0 
0 
0 
0 
0 
-1.807732504820918 
0 
0 
-1.320166149023242 
0 
0.02913728062883506 
0 
-1.48552715051218 
0 
0 
0 
0 
0 
0 
0.6258843397777884 
0 
0 
-0.8610710851934845 
1.88792853201392 
0 
0 
0 
0 
0 
0 
0 
0 
0 
-0.3150051855615452 
0 
0 
0 
0 
0 
0 
0 
0 
0 
0 
0 
0 
0 
0 
0 
0 
0 
0 
0 
0 
0 
-1.986183630730969 
0 
1.574199889211906 
-0.3444520054726576 
0 
0 
0 
-0.8793669959793468 
0 
-0.7469201322038297 
0 
0 
0 
0 
0 
0 
0 
0 
0 
0 
0 
0 
0 
0 
0 
0 
-2.06463497069236 
0 
0 
0 
0 
0 
0 
1.913675668635226 
0 
0 
0 
0 
0 
0 
0 
0 
0 
0 
0 
0 
0 
0 
0 
0.4586350944306897 
-0.5288264926167927 
0 
0 
0.07038418550643945 
0 
0 
0 
0 
0 
0 
0 
0 
0 
0 
0 
0 
0.9715422691907492 
0 
0 
0 
0 
0 
0 
0 
0 
0 
0 
0 
0 
0 
0 
0 
0 
0 
0 
0 
0 
0 
0 
0 
0 
0 
0 
0 
0.2489051654626788 
0 
0 
0 
0 
0 
0 
0 
0 
0 
0 
0 
0 
0 
0 
0 
0.056270007956032 
0 
0 
0 
0 
0 
0 
0 
0 
0 
0 
0 
0 
0 
0 
0 
0 
0.1846015344149186 
0 
0 
0 
0 
0 
0 
0 
0 
0 
0 
0 
0 
0 
0 
-2.417421274266613 
0 
0 
0 
0 
0 
0 
0 
0 
0 
0 
0 
0 
0 
0 
0 
0 
0 
-1.201872406150255 
0 
0 
0 
0 
0 
0 
0 
0 
0 
0 
0 
0 
0 
-0.7837561618796414 
0 
0 
0 
0 
0 
0 
0 
0 
0 
0.940123875923232 
0 
0 
0 
0 
0 
0 
0 
0 
0 
0 
0 
0.2025154080374549 
0 
0 
0 
0 
0 
0 
0 
-0.03506921231854017 
0 
0 
0 
0 
0 
0 
0 
0 
0 
0 
0 
0 
0 
0 
-1.536797635207943 
0 
0 
0 
0 
0 
0 
0 
0 
0 
0 
0 
1.456176910068896 
0 
0 
-1.118976662620682 
0 
0 
0 
0 
0 
0 
0 
0 
0 
-0.7831595290796094 
0 
0 
0 
0 
0 
0 
1.806636859390328 
0 
0 
0 
0 
0 
0 
0 
0 
0 
0 
-1.559875014235863 
0 
0 
0 
0 
0 
0 
0 
0 
0 
0 
0 
0 
0 
-0.1901583613270916 
0 
0 
0 
0 
0 
-0.6205640674676637 
0 
0 
0 
0 
0 
0 
0 
0 
0 
0 
0 
0 
0 
0 
0 
0 
0 
0 
0 
0 
0 
0 
0 
0 
0 
0 
0 
0 
0 
0 
0 
-0.2266575775648236 
-0.2029970165887501 
0 
0 
0 
-1.305274845597484 
0 
0 
0 
0 
0 
0 
0 
0 
0.1000511133969016 
0 
0 
0 
0 
0 
0 
0 
0 
0 
0 
0 
0 
0 
0 
0 
0 
0 
0 
0 
0 
0 
0 
0 
0 
0 
0 
0 
0 
-0.7725543112229661 
0 
0 
0 
0 
0 
0 
0 
0 
-0.5247818014732228 
0 
0 
0 
0 
0 
0 
0 
0 
0 
0 
0 
0 
0 
0 
0 
0 
0 
0 
0 
0 
0 
0 
0 
0 
0 
0 
0 
0 
0 
0 
0.2686842335415017 
0 
0 
0 
0 
0 
0 
0 
0 
0 
0 
0 
0 
0 
0 
0 
0 
0 
0 
0 
0 
-0.8277979164353283 
0 
0 
0 
0 
0 
0 
0 
0 
0 
0 
0 
0 
0 
0 
0 
0 
0 
0 
0 
0 
0 
0 
0 
0 
0 
0 
0 
0 
-4.02749660864468 
-2.029674916182113 
0 
-1.415553927447841 
0 
0 
0 
0 
0 
0 
0 
0 
0 
0 
0 
0 
0 
0 
0 
0 
0 
0 
0 
0 
0 
0 
0 
-0.5893079196100465 
0 
0 
0 
0 
0 
0 
-1.860135582211199 
0 
0 
0 
0 
0 
0 
0 
0 
0 
0 
0 
0 
0 
0 
0 
0 
-1.502423821091952 
0 
-2.818726140403383 
0 
0 
0 
0 
0 
0.7596302634573586 
0 
0 
0 
0 
0 
0 
0 
0 
0 
0 
0 
0 
0 
-0.1813036516531869 
0 
0 
0 
0 
0.8960717485167623 
0 
0 
1.059763443384067 
0 
0 
0 
0 
0 
0 
0 
-0.7262284110947654 
0 
0 
0 
0 
0 
0 
0 
0 
0 
0 
0 
0 
0 
0 
0 
0 
0 
-0.4645980318086365 
0 
0 
0 
0 
0 
0 
0 
0 
0 
0 
0 
0 
0 
0 
0 
0 
0 
0 
0 
0 
0 
0 
0 
0 
0 
0 
0 
0 
0 
0 
0 
0 
0 
0 
0 
0 
0 
0 
0 
0 
0 
0 
0 
0 
0 
0 
0 
0 
0 
0 
0 
0.639601419465474 
-1.428256925397429 
-0.9577144554566661 
-0.5729685217479712 
0.1077542205833156 
0 
-0.5032063613402595 
-0.5179659816285798 
0 
0 
0 
0 
0 
0 
0 
0 
0 
0 
-3.051216166241879 
0 
0 
0 
0 
-0.9956480089254953 
0 
0 
0 
0 
0 
0 
0 
0 
0 
3.291764637157729 
0 
0 
0 
0 
0 
0 
0 
0 
0 
0 
0 
0 
1.544065505982996 
0 
0 
0 
2.01562856816801 
0 
0 
0 
0 
0 
0 
0 
0 
0 
0 
0 
0.9158060054379926 
0 
0 
0 
0 
0 
0 
0 
0 
0 
0 
0 
0 
0 
0 
0 
0 
0 
0 
0 
0 
0 
0 
-0.8190886320927662 
0.3410917056106322 
0 
0 
0 
0 
0 
0 
0 
-2.097801350826142 
0 
0 
0 
-2.064696984546155 
-0.09150314167272809 
0 
0 
0 
0 
0 
0 
-0.1918339911749064 
0 
0 
0 
0 
0 
0 
0 
0 
0 
0 
0 
0 
0 
2.4834298542777 
0 
0 
0 
0 
0 
0 
0 
0 
0 
0 
0.006426175040963437 
0 
0 
0 
0 
0 
0 
0 
0 
0 
0 
0 
0.7032964494167457 
0 
0 
0 
0 
0 
0 
0 
0 
0 
-1.413084340582063 
0 
0 
0 
0 
0 
0 
0 
0 
0 
0 
-4.475610192588091 
0 
0 
0 
0 
0 
-1.823474948929798 
0 
0 
0 
0.164516212167917 
0 
0 
0 
0 
0 
0 
-0.77889854843463 
0 
0 
0 
0 
0 
0 
0 
0 
0 
-2.691391971619899 
0 
0 
0.6499965783760725 
0 
0 
0 
0 
0 
0 
0 
0.1177761128221935 
0 
0 
0 
0 
0 
0 
-0.6683373205512445 
0 
0 
0 
0 
0 
0 
0 
0 
0.2554509193061329 
-2.085792964656059 
0 
0 
0 
0 
0 
0 
0 
0 
0 
0 
0 
0 
-3.425053065650718 
0 
0 
0 
-3.188079726673582 
-1.048855908440239 
0 
0 
0 
0 
0 
0 
-0.5932487049089222 
0 
0 
0 
0 
0 
0 
0.9135580096866531 
0 
0 
0 
0 
0 
0 
0 
0 
-1.055837809444695 
0 
0 
0 
0 
0 
-0.7246806676630416 
0 
-0.7424618391060837 
0 
0 
0 
0 
0 
-1.211736663201606 
0 
0 
0 
0 
0 
0 
0 
0 
0 
0 
0 
0 
0 
0 
0 
0 
0 
0 
0 
0 
0 
0 
0 
0 
0 
0 
0 
0 
0 
0 
0 
0 
0 
0 
0 
0 
0 
0 
0 
0 
0 
0 
0 
0 
0 
0 
-1.536895539216302 
-2.676566079514132 
0 
0 
0 
0 
-0.5232914092930017 
0 
0 
0 
0 
0 
0 
0 
0 
0 
0 
0 
0 
0 
0 
0 
0 
0 
0 
0 
0 
0 
0 
0 
0 
0 
0 
0 
0 
0 
0 
0 
0 
0 
0 
0 
0 
0 
-0.5262631233076925 
0 
0 
0 
0 
0 
0 
0 
0 
0.9740513043149396 
0 
0 
0 
0 
0 
1.339398946126618 
1.130601155213351 
0 
0 
0 
-1.93911809439932 
0 
0 
0 
0 
0 
0 
0 
0.5563590790489605 
0 
0 
0 
0 
0 
0 
0 
0 
0 
0 
0 
0 
0 
0 
0 
0 
0 
0 
0 
0 
0 
0 
0 
0 
0 
0 
-0.1117551471993881 
0.1043718083195405 
0 
0 
0 
0 
0 
0 
0 
0 
0 
0 
0 
0 
0 
0 
0 
0 
-0.8624485072412484 
0 
0 
0 
0 
0 
0 
0 
0 
0 
0 
0 
0 
0 
0 
0 
0 
0 
0 
0 
0 
0 
0 
-1.955780601479547 
0 
0 
0 
0 
0 
0 
0 
0 
0 
0 
0 
0 
0 
0 
0 
0.5419213824920369 
0 
0 
0 
0 
0 
0 
0 
0 
0 
0 
0 
0 
0 
0 
0 
0 
2.231032681330049 
0 
0 
0.5046796741475373 
0 
-2.41595214969614 
0 
0 
0 
0 
0 
0 
0 
0 
0 
-2.107609213003498 
0 
0 
0 
0 
0 
0 
1.230851788563838 
0 
0 
0 
0 
0 
0 
0 
-1.433562316094156 
0 
0 
0 
0 
-2.422706161000896 
0 
0 
0 
-0.6061001753254999 
0 
0 
0 
0 
0 
0 
0.1519331916637039 
0 
0 
0 
0 
-0.07473584015182515 
0 
0 
0 
0 
0 
0 
0 
0 
0 
0 
0 
0 
0 
0 
0 
-0.4602710469945149 
0 
0 
0 
0 
0 
0 
-1.133289497018385 
0 
0 
0 
0 
0 
0 
0 
0 
0 
0 
0 
0 
0 
0 
0 
0 
0 
0 
0 
0 
-2.759229628727349 
0 
-2.650661171034988 
0 
0 
0 
0 
0 
0 
0 
0 
-3.883730629441311 
-1.392588498349916 
0 
0 
0.8120588125651472 
0 
0 
0 
0 
0 
0 
0 
0 
0 
-2.756680715044334 
0 
0 
0 
0 
0 
0 
0 
0 
0 
0 
0 
0 
0 
0 
0 
0 
0 
0 
0 
0 
0 
0 
0 
0 
0 
0 
0 
0 
-1.53558141000545 
0 
0 
-1.067064432801451 
0 
0 
0 
-0.1523611045620071 
0 
0 
0 
-0.2568169953283579 
0 
0 
0 
0 
0 
0 
0 
0 
0 
0 
0 
0 
0 
1.534635006878169 
0 
0 
0 
0 
0 
0 
0 
0 
0 
0 
0 
-3.345003784539348 
0 
0 
0 
0 
0 
0 
0 
0 
0 
0 
0 
0 
0 
0.146342632462877 
0 
0 
0 
0 
0 
0 
0 
0 
0 
0 
0 
0 
-1.273112291934012 
0 
0 
0 
0 
0 
0 
0 
0 
0 
0 
0 
0 
0 
0 
0 
0 
0 
-1.280543241044412 
0 
0 
0 
0 
0 
0 
0 
0 
0 
0 
0 
0 
0 
0 
0 
0 
0 
0 
0 
0 
-6.219128190289032 
0 
0 
0 
0 
0 
0 
0 
0 
0 
0 
0 
0 
0 
0 
0 
0 
0 
0 
0 
0 
0 
0 
0 
0 
-0.7345045552593607 
0 
0 
0.04606108169260612 
0 
0 
0.127945909692513 
0 
0 
0 
0 
0 
0 
0 
0 
0 
0 
0 
0 
0 
0 
0 
0 
-0.5237237629063084 
0 
0 
0 
0 
0 
0 
0 
0 
0 
0 
0 
0 
0 
0 
0 
0 
0 
0 
0 
0 
0 
0 
6.278532175844136 
0 
0 
0 
0 
0 
0 
0 
0 
0 
0 
0 
0 
0 
0 
0 
0 
0 
0 
0 
0 
0 
0 
0 
0 
0 
0 
0 
0 
0 
0 
0 
0 
0 
0 
0 
-0.6462979717030679 
0 
0 
0 
-0.8502197413987837 
0 
0 
0 
-2.095280579032812 
0 
0 
0 
0 
0 
0 
0 
0 
0 
0 
0 
0 
2.165338225945781 
0 
0 
0 
0 
1.963176664886798 
0 
0 
0 
0 
-0.09795558524211281 
0 
-1.650824785232343 
0 
0 
0 
0 
0 
0 
0 
0 
0 
0 
0 
0 
0 
0 
0 
0 
0 
0 
0 
-0.5481287964217315 
0 
0 
0 
0 
0 
0.7081260201121403 
0 
0 
0 
0 
-0.1467003302146913 
0 
0 
0 
0 
0 
0 
0 
0 
0 
0 
0 
0 
-0.1174357677958914 
0 
0 
0 
0 
0 
0 
0 
0 
0 
0 
0 
0 
0 
0 
0 
1.863068975136579 
0.6076831069126824 
0 
0 
1.48972866752464 
0 
0 
0 
0 
0 
0 
0 
0 
0 
0 
0 
0 
0 
0 
0 
0 
0 
0 
1.049291817244442 
0 
0 
0 
0 
0 
0 
0 
0 
0 
0 
0 
0 
0 
0 
0 
0 
0 
0 
0 
0 
0 
0 
0 
0 
1.358307877739908 
-2.07264481122926 
0 
0 
0 
0 
0 
0 
0 
0 
0 
0.765066844860271 
-0.7658150946038992 
0 
0 
0 
1.021969990974295 
0 
0 
0 
0 
0 
-0.788152355370554 
0.8945748265835778 
0 
0 
0 
0 
0 
0 
0 
-1.586504240899535 
0 
0 
0 
0 
0 
0 
0 
0 
-0.8708860736631636 
-0.06118552742542365 
0 
0 
0 
0 
0 
0 
0 
0 
0 
-1.19494047731685 
0 
0 
0 
0 
0 
0 
0 
0 
0 
0 
0 
-2.207843452047489 
0 
0 
0 
0 
0 
0 
0 
0 
0 
0 
0 
0 
0 
-1.265904468460285 
0.2553851352720045 
0.7325025036796923 
0 
0 
0 
-0.1635213041867865 
-2.150928926944036 
0 
-1.119681010739237 
-0.2037192763881749 
0 
0 
0 
0 
0 
0 
0 
0 
0 
0 
0 
0 
0 
0 
0 
0 
0 
0 
0 
0 
0.763095367273364 
0 
0 
0 
0 
0 
0 
0 
0 
0 
0 
0 
0 
0 
0 
0 
0 
0 
0 
0 
0 
0 
0 
0 
0 
0 
0 
0 
0 
0.9435985699805899 
0 
0 
-3.70915255436516 
0 
0 
0 
0 
-1.091514961199505 
0 
0 
0 
0 
0 
0 
0 
0 
0.2148698877847355 
0 
0 
0 
0 
0 
0 
0 
0 
0 
0 
0 
0 
0 
0 
0 
0 
0 
-0.9454067673635723 
0 
0 
0 
0 
0 
0 
0 
0 
0 
0 
0 
0 
0 
-2.280416468151436 
0 
0 
0 
0 
-0.2263155138005252 
0 
0 
0 
0 
0 
0 
0 
0 
0 
0 
0 
0 
0 
0 
0 
-0.1155209774631109 
0 
0 
0 
0 
0.6806744166735914 
0 
0 
0 
0 
0 
0 
0 
0 
0 
-1.849971055467666 
0 
0 
0 
0 
0 
0 
0 
0 
0 
0 
-0.9367487178608246 
0 
0 
0 
0 
0 
0 
0 
0 
0 
0 
0 
0 
0 
0 
0 
0 
0 
0 
0 
0 
0 
0 
0 
0 
0 
0 
0 
0 
0 
0 
0 
0 
-0.8903738877127647 
0 
0 
0 
0 
0 
0 
0 
0 
0 
0 
0 
0 
0 
0 
0 
0 
0 
0 
0 
0 
0 
0 
0 
-0.7091082402103507 
0 
0 
0 
0 
0 
0 
0 
0 
0 
0 
0 
0 
0 
0 
0 
0 
0 
0 
0 
0 
0 
0 
0 
0 
0 
0 
0 
0 
0 
0 
0 
0 
0 
0 
0 
0 
0 
0 
0 
0 
0 
0 
0 
0 
0 
0 
0 
0 
0 
0 
0 
0 
0 
0 
0 
0 
0 
0 
-1.787698099139896 
0 
0 
0 
0 
0 
0 
0 
-0.1503863636829619 
0 
2.165183944631423 
0 
0 
0 
0 
0 
0 
0 
0 
0 
0 
0 
0 
0 
0 
0 
0 
0 
0 
0 
1.37679186916087 
0 
0 
0 
0 
0 
0 
0 
0 
0 
0 
0 
0 
0 
0 
0 
0 
0 
0 
0 
0 
0 
0 
0 
0.7039022924886843 
0 
0 
0 
0 
0 
0 
0 
0 
0 
0 
0 
0 
0 
0 
0 
0 
0 
0 
0 
0 
0 
0 
0 
0 
0 
0 
0 
0 
0 
-2.353612385700076 
0 
0 
0 
-2.004233259366609 
0 
0 
0 
0 
0 
0 
0 
0 
0 
0 
0 
0 
-0.6907581386051596 
0 
0 
0 
0 
0 
0 
0 
0 
0 
0 
0 
0 
0 
0 
-3.115817869281337 
0 
0 
0.5380381982424844 
0 
-0.6765428875811042 
0 
0 
0 
0 
-3.577804796106385 
0 
0 
0 
0 
0 
-0.1326882036607479 
0 
0.4040783082482888 
0 
0 
0 
0 
0 
1.450368831928116 
0 
0 
0 
0 
0 
2.232178011403152 
0 
0 
0 
0 
0 
0 
0 
0 
0 
-1.035141212598041 
0 
0 
0 
0 
0 
0 
0 
0 
0 
0 
0 
0 
0 
0 
0 
0 
0 
0 
0 
0 
0 
0 
0 
0 
0 
0 
0 
0 
0 
0 
0 
0 
0 
0 
0 
0 
0 
0 
0 
0 
0 
0 
0 
0 
0 
0 
0 
0 
0 
0 
0 
0 
0 
0 
0 
0 
0 
0 
0 
0 
0 
0 
0 
0 
0 
0 
0 
0 
0 
0 
0 
-1.174955085717387 
0 
0 
0 
0 
0 
0 
0 
0 
0 
0 
0 
0 
0 
0 
0 
0 
0 
0 
0 
0 
0 
0 
0 
0 
0 
0 
0 
0 
0 
0 
0 
0 
0 
0 
0 
0 
0 
0 
0 
0 
0 
0 
0 
0 
0 
0 
0 
0 
0 
0 
0 
0 
0 
0 
0 
0 
0 
0 
0 
0 
0 
0 
0 
0 
0 
0 
0 
0 
0 
0 
0 
0 
0 
0 
0 
0 
0 
0 
0 
0 
0 
0 
0 
0 
0 
-0.6366051468585207 
0 
-4.89666209364691 
3.058240982175033 
0 
0 
0 
0 
0 
0 
0 
0 
0 
0 
0 
0 
0 
0 
0 
0 
0 
0 
0 
0 
0 
-0.3181077417626875 
0 
0 
0 
0 
0 
0 
0 
0 
0 
0 
0 
0 
0 
0 
0 
0 
0 
0 
0 
0 
0 
0 
0 
0 
0 
0 
0 
0 
0 
0 
0 
0 
0 
0 
0 
0 
0 
0 
0 
0 
0 
0 
0 
0 
-2.788438565465945 
0 
0 
2.809127054502541 
0 
0 
-1.24965980109823 
0 
-1.230623208047269 
1.894568524840687 
0 
0 
0 
0 
0 
0 
0 
0 
0 
-0.8156769491941175 
0.5819053164081759 
0 
0 
0 
0 
0 
0 
0 
0 
0 
0 
0 
0 
0 
0 
0 
0 
0 
0 
0 
0 
0 
0 
0 
0 
-7.189379703049755 
0 
0 
0 
-0.1830850519622564 
0 
0 
0 
0 
0 
0 
0 
0 
0 
0 
-0.3557310041803488 
0 
0 
0 
0 
0 
0 
0 
0 
0 
0 
0 
0 
0 
0 
0 
0 
0 
0 
0 
0 
0 
0 
0 
0 
0 
0 
0 
0 
0 
0 
0 
0 
0 
0 
0 
0.2923699022295717 
0 
0 
0 
0 
0 
0 
0 
0 
0.1798387690591753 
0 
0 
0 
0 
0 
0 
0 
-0.1654547798105143 
0 
0 
0 
0 
0 
0 
0 
0 
0 
0 
0 
0 
0 
0 
0 
0 
0 
0 
0 
0 
0 
0 
0 
0 
0 
0 
0 
0 
0 
0 
0 
0 
0 
0 
0 
0 
0.2346328015449987 
0 
0 
0 
0 
-0.6619034853950988 
0 
0 
0 
0 
0 
0 
0 
0 
0 
0 
0 
0 
0 
0 
-0.9631538984655854 
0 
0 
0 
0 
0 
0 
0 
0 
0 
0 
0 
0 
0 
0 
0 
-0.05962611779051025 
0 
0 
0 
0 
0 
0 
-0.8465837117779167 
-2.872542210460817 
0 
0 
0 
0 
0 
0 
0 
0 
0 
0 
0 
0 
0 
0 
0 
0 
0.4269729748599413 
0 
0 
0 
0 
0 
0 
0 
0 
0 
0 
0 
0 
0 
1.445809597299345 
0 
0 
0 
0 
0 
0 
0 
0 
0 
0 
0 
0 
0 
0 
0 
0 
0 
0 
0 
0 
0 
0 
-0.5176481632831179 
1.779756717544171 
0 
0 
0 
0 
0 
0 
0 
0 
-0.7497147854153103 
0 
0 
0 
0 
0 
0 
0 
0 
-0.3663844948682338 
0 
0 
0 
0 
0 
0 
0 
0 
0 
0 
0 
0 
0 
0 
0 
0 
0 
0 
0 
0 
0 
0 
0 
0 
0 
0 
0 
0 
0 
0 
-2.192624321518775 
0 
0 
0 
0 
0 
0 
0 
1.041707353439305 
0 
0 
0 
0 
0 
0 
0 
0 
0 
0 
0 
0 
0 
0 
0 
0 
0 
0 
0 
0 
0 
0 
1.154472341690038 
0 
0 
0 
0 
0 
0 
0 
0 
0 
0 
0 
0 
0 
-0.02788479172263444 
0 
0 
0 
0 
0 
0 
0 
0 
0 
0 
0 
0 
0 
0 
0 
0 
0 
0 
0 
0 
0 
0 
0 
0 
0 
0 
0 
0 
0 
0 
0 
0 
0 
0 
-0.2927792517367966 
0 
0 
0 
0 
0 
-0.6903324419933173 
0 
0 
0 
0 
0 
0 
0 
0 
0 
0 
0 
0 
0 
0 
0 
0 
0 
0 
0 
0 
0 
0 
0 
0 
0 
0 
0 
0 
0 
0 
0 
0 
0 
0 
0 
0 
0 
0 
0 
0 
0 
0 
0 
0 
0 
0 
0 
0 
0 
0 
0 
-0.8552488023028877 
0 
0 
0 
0 
0 
0 
0 
0 
0 
0 
0 
-1.885161749604442 
0 
0 
0 
0 
0 
0 
0 
0 
0 
0 
0 
0 
0 
0 
0 
0 
0 
0 
0 
0 
0 
0 
0 
0 
0 
0 
0 
0 
0 
0 
0 
0 
0 
0 
0 
0 
0 
0 
0 
0 
0 
0 
0 
0 
0 
0 
0 
-0.7450241850664227 
0 
0 
0 
0 
0 
0 
0 
0 
0 
0 
0 
0 
0 
0 
-1.546267152580912 
0 
0 
0 
0 
0 
0 
0 
0 
0 
0 
0 
-0.2690675908155369 
0 
0 
0 
0 
0 
0 
0 
0 
0 
0 
0 
0 
0 
0 
0 
0 
0 
0 
0 
0 
0 
0 
0 
0 
0 
0 
0 
0 
0 
0 
0 
0 
0 
0 
0 
0 
0 
0 
0 
0 
0 
0 
0.5176113838360511 
0 
0 
0 
0 
0 
0 
0 
0 
0 
0 
0 
0 
0 
0 
0 
0 
0 
0 
0 
0 
0 
0 
0 
0 
0 
0 
0 
0 
0 
0 
0 
0 
0 
0 
0 
0 
0 
0 
0 
-1.249951615922226 
0 
0 
0 
0 
0 
0 
0 
0 
0 
0 
0 
0 
0 
0 
0 
0 
0 
0 
0 
-0.7164422078756582 
0 
0 
0 
0 
0 
0 
0 
0 
0 
0 
0 
0 
0 
0 
0 
0 
0 
0 
0 
0 
0 
0 
-0.3412886185787432 
0 
0 
1.031048658279181 
0 
0 
0 
0 
0 
0 
-0.5599652852802974 
0 
0 
0 
0 
0 
0 
0 
0 
0 
0 
0 
0 
0 
0 
0 
0 
0 
0 
0.00454434101194387 
0 
0 
0 
0 
0 
0 
0 
0 
0 
0 
0 
0 
0 
0 
0 
0 
0 
0 
0 
0 
0 
1.586834653119519 
0 
1.125097892984782 
0 
0 
0 
0 
-0.4057903091729126 
0 
0 
0 
0 
0 
0 
0 
0 
0 
0 
0 
0 
0 
0 
0 
0 
0 
0 
0 
0 
0 
-0.9742039451491318 
0 
0 
0 
0.4238183370713313 
0 
0 
0 
0 
0 
0 
0 
0 
0 
0 
0 
0 
0 
0 
0 
-0.2590510164363709 
3.25126079516596 
0 
0 
0 
0 
0 
0 
0 
0 
0 
0 
0 
0.4222848527689517 
0 
-3.058573787328628 
-0.3409527934430308 
0 
0 
0 
0 
0 
-1.211447034330205 
0 
0 
0 
0 
0 
0 
0 
0 
0 
0 
0 
0 
0 
0 
-0.3730097468181314 
0 
0 
0 
0 
0 
0 
0 
0 
0 
0 
0 
0 
0 
0 
0 
0 
0 
0 
0 
0 
0 
0 
0 
0 
0 
0 
0 
0 
0 
0 
0 
0 
0 
0 
0 
0 
0 
0 
0 
0 
0 
0 
0 
0 
-0.8321616240986529 
0 
0 
0 
0 
0 
3.682482202844481 
0.9497390219200443 
0 
0 
0 
0 
0 
0 
0 
0 
0 
0 
0 
0 
0 
0 
0 
0 
0 
0 
0 
0 
0 
0 
0 
0 
0 
0 
0 
0 
0 
0 
0 
0 
0 
0 
0 
0 
0 
-1.107408421570872 
0 
0 
0 
0 
0 
0 
0 
0 
0 
0 
0 
0 
0 
0 
0 
0 
0 
0 
0 
0 
0 
1.874716297274257 
0 
0 
0 
0 
0 
0 
0 
-2.188016992025395 
0 
0 
0 
0 
0 
0 
0 
0 
0 
0 
0 
0 
0 
0 
0 
0 
0 
0 
0 
0 
1.522862748918762 
0 
0 
0 
0 
0 
0 
0 
-1.087520444631529 
0 
0 
0 
0 
0 
0 
0 
0 
0 
0 
0.3216960937190742 
0 
0 
0 
0 
0 
0 
0 
0 
0 
0 
-0.1485844006265356 
0 
0 
0 
0 
0 
0 
0 
0 
0 
0 
0 
0 
0 
0 
0 
0 
0 
0 
0 
0 
0 
0 
0 
0 
0 
0 
0 
-0.1764940545619206 
0 
0 
0 
0 
0 
0 
0 
0 
0 
0 
0 
0 
0 
0 
0 
0 
0 
0 
0 
0 
0 
0 
0 
0 
0 
0 
0 
0 
0 
0 
0 
0 
0 
0 
0 
0 
0 
0 
0 
0 
0 
0 
2.703524553717761 
0.8676700576665135 
0 
0 
0 
0 
0 
0 
0 
0 
0 
0 
0 
0 
0 
0 
0 
0 
1.125789676546207 
0 
0 
0 
0 
0 
0 
0 
0 
0 
0 
0 
0 
0 
0 
0 
0 
0 
0 
0 
0 
0 
0 
0 
0 
0 
0 
0 
0 
0 
0 
0 
0 
0 
0 
0 
0 
0 
0 
0 
0 
0 
0 
0 
0 
0 
0 
0 
0 
0 
0 
0 
0 
0 
-0.06283039547538562 
0 
0 
1.238551387455038 
0 
0 
0 
0 
0 
0 
0 
0 
0 
0 
0 
0 
0 
0 
0 
0 
0 
0 
0 
0 
0 
0 
0 
0 
0 
0 
0 
0 
0 
0 
0 
0 
0 
0 
0 
0 
0 
0 
0 
0 
0 
0 
0 
0 
0 
0.776613714745813 
0 
-1.647332602553613 
0 
0 
0 
0 
0 
0 
0 
0 
0 
0 
0 
0 
0 
0 
0 
0 
0 
0 
0 
-3.037190138065769 
0 
0 
-0.4246075417113109 
0 
0 
0 
0 
-3.21587600739887 
0 
0 
0 
0 
0 
0 
0 
0 
1.998796797375026 
0 
0 
0 
0 
0 
0 
0 
0.1097428375050951 
0 
0 
0 
0 
0 
0 
0 
0 
0 
0 
0 
0 
0 
0 
0 
0 
0 
0 
0 
0 
0 
0 
0 
0 
0 
0 
0 
0 
0 
0 
0 
0.08095447509123425 
0 
0 
0 
-1.358004018408716 
0 
0 
0 
0 
0 
0 
0 
0 
0 
0 
0 
0 
0 
-1.272410599768404 
0 
0 
0 
0 
0.4345614519861457 
0 
0 
0 
1.039453411020185 
0 
0 
0 
0 
0 
0 
0 
0 
0 
0 
0 
0 
0 
0 
0 
0 
0 
0 
0 
0 
0 
0 
0 
0 
0 
0 
0 
0 
0 
0 
0 
0 
0 
0 
0 
0 
0 
0 
0 
0 
0 
0 
0 
0 
0 
0 
0 
0 
0 
0 
0 
0 
0 
0 
0 
0 
0 
0 
0 
0 
0 
0 
0 
0 
0 
1.210381406079718 
0 
0 
0 
0 
0 
0 
0 
0 
0 
0 
0 
0 
0 
0 
0 
0 
0 
0 
0 
0 
0 
0 
0 
0 
0 
0 
0 
0 
0 
0 
0 
1.798914248933392 
0 
0 
0 
0 
0 
0 
0 
0 
0 
0 
0 
0 
0 
0 
0 
0 
0 
0 
0 
0 
0 
0 
0 
0 
0 
0 
0 
0 
0 
0 
0 
0 
0 
0 
0 
0 
0 
0 
0 
0 
0 
0 
0 
0 
0 
0 
0 
0 
0 
0 
0 
0 
0 
0 
0 
0 
0 
0 
0 
0 
0 
0 
0 
0 
0 
0 
0 
0 
0 
0 
0 
0 
0 
0 
0 
0 
0 
0 
0 
1.785725616997741 
0 
0 
0 
0 
0 
0 
0 
0 
0 
0 
0 
0 
0 
0 
0 
0 
0 
0 
0 
0 
0 
0 
0 
0 
0 
0 
0 
0 
0 
0 
0 
0 
0 
0 
0 
0 
0 
0 
0 
0 
0 
0 
0 
0 
0 
0 
0 
0 
0 
0 
0 
0 
0 
0 
0 
0 
0 
0 
0 
0 
0 
0 
2.667553648380056 
0 
0 
0 
0 
0 
0 
0 
1.602914152481661 
0 
0 
0 
0 
0 
0 
0 
0 
0 
0 
1.659958517134367 
0 
0 
0 
0 
0 
0 
0 
-3.357794171871263 
0 
0 
0 
0 
0 
0 
0 
0 
0 
0 
0 
0 
0 
0 
0 
0 
0 
0 
0 
0 
0 
0 
0 
0 
0 
0 
0 
0 
0 
0 
0 
0 
0 
0 
0 
0 
0 
0 
0 
0 
0 
0 
0 
0 
0 
0 
0 
0 
0 
0 
0 
0 
0 
0 
0 
0 
0.09889565411957779 
0 
-0.6050151029955616 
0 
0 
0 
0 
0 
0 
0 
0 
0 
0 
0 
0 
0 
0 
0 
0 
0 
0 
0 
0 
0 
0 
0 
0 
0 
0 
0 
0 
0 
0 
0 
0 
0 
0 
0 
1.079039257000424 
0 
0 
0 
0 
0 
0 
0 
0 
0 
0 
0 
0 
0 
0 
0 
0 
0 
0 
0 
0 
0 
0.7779255618022056 
0 
0 
0 
0 
0 
0 
0 
0 
0 
0 
0 
0 
0 
0 
0 
0 
0 
0 
0 
0 
0 
0 
0 
0 
0 
0 
0 
0 
0 
0 
0 
0 
0 
0 
0 
0 
0 
0 
0 
0 
0 
0 
0 
0 
0 
0 
0 
0 
0 
0 
0 
0 
0 
0 
0 
0 
0 
0 
0 
0 
0 
0 
0 
-1.568317414768396 
0 
0 
0 
0 
0 
0 
0 
0 
0 
0 
0 
0 
0 
0 
0 
0 
0 
0 
0 
0 
0 
0 
0 
0 
0 
0 
0 
-0.1317751272136393 
0 
0 
0 
0 
0 
0 
0 
0 
0 
0 
0 
0 
0 
0 
0 
0 
0 
0 
0 
0 
0 
0 
0 
0 
-1.87831689662213 
0 
-0.4856637276757408 
0 
0 
-0.4144122420583991 
0 
0 
0 
0 
-1.629797968284432 
0 
0 
-0.4312185711704421 
0 
0 
0 
0 
0 
0 
0 
0 
0 
0 
0 
0 
0 
0 
0 
0 
0 
-2.666102726253537 
0 
0 
0.8640225475085915 
0 
0 
0 
0 
0 
0 
0 
0 
0 
0 
0 
0 
0 
0 
0 
0.4275888340714074 
0 
0 
0 
0 
0 
0 
-0.3506921640361731 
0 
0 
0 
0 
0 
2.672336523711419 
0 
0 
0 
0 
0 
0 
0 
0 
0 
0 
0 
0 
0 
0 
0 
0 
0 
0 
0 
0 
0 
0 
0 
0 
0 
0 
0 
0 
0 
0 
0 
0 
0 
0 
0 
0 
0 
-2.25578605645287 
0 
0 
0 
0 
0 
0 
0 
0 
0 
0 
0 
0 
0 
0 
0 
0 
0 
0 
0 
0 
0 
0 
0 
0 
0.08143425017161138 
0 
0 
0 
0 
0 
0 
0 
0 
0 
0 
0 
0 
0 
0 
0 
0 
0 
0 
0 
0 
0 
0 
0 
0 
0 
0 
0 
0 
0 
0 
0 
0 
0 
0 
-0.009210278315209181 
0 
0 
0 
0 
0 
1.254302075809687 
0 
0 
0 
0 
0 
0 
0 
-0.6395063269380168 
0 
0 
0 
0 
0 
0 
0 
0.09319893969013227 
0 
0 
0 
0 
0 
0 
0 
0 
0 
0 
0 
0 
0 
0 
0 
0 
0 
0.20313095589206 
0 
0 
0 
0 
0 
0 
0 
0 
0 
0 
0 
0 
0 
0 
0 
0 
0 
0 
0 
0.3849977305027622 
0 
0 
0 
0 
0 
0 
0 
-2.113420691836895 
0 
0 
0 
0 
0 
0 
0 
0 
0 
0 
0 
0 
0 
0 
0 
0 
0 
0 
0 
0 
0 
0 
0 
0 
0 
0 
0 
0 
0 
0 
0 
0 
0 
0 
0 
0 
0 
0 
0 
0 
0.9179625954562496 
0 
0.3897261313979974 
0 
0 
0 
0 
0 
0 
0 
0 
0 
0 
0 
0 
0 
0 
0 
0 
0 
0 
0 
0 
2.799381915075342 
0 
-0.4862562894867463 
0 
0 
0 
0 
0 
0 
0 
0 
0 
0 
0 
0 
0 
0 
-2.575254187762835 
0 
0 
0 
0 
0 
0 
0 
0 
0 
0 
0 
0 
0 
0 
0 
0 
0 
0 
0 
0 
0 
0 
0 
0 
0 
0 
0 
0 
0 
0 
-0.1000673513438208 
0 
0 
0 
0 
0 
0 
0 
0 
0 
0 
0 
0 
0 
0 
0 
0 
2.105276251184436 
0 
0.2259380544988195 
0 
0 
0 
0 
0 
0 
0 
0 
0 
0 
0 
0 
0 
0 
0 
0 
0 
0 
0 
0 
0 
0 
0 
0 
0 
0 
0 
0 
0 
0 
0 
0 
0 
0 
0 
0 
0 
0 
0 
0 
0 
0 
0 
0 
0 
0 
0 
0 
0 
0 
0 
0 
0 
0 
0 
0 
0 
0 
0 
0 
0 
0 
0 
0 
0 
0 
0 
0 
0 
0 
0 
0 
0 
0 
0 
0 
0 
0 
0 
0 
0 
0 
0 
0 
0 
0 
0 
0 
0 
0 
0 
0 
0 
0 
0 
0 
0 
0 
0 
0 
0 
0 
0 
0 
0 
0 
0 
0 
0.2547217557022132 
0 
0 
0 
0 
0 
0 
0 
0 
0 
0 
0 
0 
0 
0 
0 
0 
0 
0 
0 
0 
0 
0 
0 
0 
0 
0 
0 
0 
0 
0 
0 
0 
0 
-0.1594637138989491 
0 
0 
0 
0 
0 
0 
0 
0 
0 
0 
0 
0 
0 
0 
0 
0 
0 
0 
0 
0 
0 
0 
-1.121674770846504 
0 
0 
0 
0 
0 
0 
0 
0 
0 
0 
0 
0 
-0.528473607396759 
0 
0 
0 
0 
0 
0 
0 
0 
-1.305406381184339 
0 
0 
0 
0 
0 
0 
0 
0 
0 
0 
0 
0 
0 
0 
0 
0 
0 
0 
0 
0 
0.2857118870088209 
0 
0 
0 
0 
0 
0 
0 
0 
0 
0 
0 
0 
0 
0 
0 
0 
0 
0 
0 
0 
0 
0 
0 
0 
0 
0 
-1.005491369184734 
0 
0 
0 
0 
0 
0 
0 
0 
0 
0 
0 
0 
0 
0 
0 
0 
0 
0 
0 
0.7461769125910622 
0 
0 
0 
0 
0 
0 
0 
0 
0 
0 
0 
0 
0 
0 
0 
0 
0 
0 
0 
0 
0 
0 
0 
0 
0 
0 
0 
0 
0 
0 
0 
0 
0 
0 
0 
0 
0 
0 
0 
0 
0 
0 
0 
0 
0 
0 
0 
0 
0 
0 
0 
0 
0 
0 
0 
0 
0 
0 
0 
0 
0 
0 
0.01536076544957786 
0 
0 
0 
0 
0 
0 
0 
0 
0 
0 
0 
0 
0 
0 
0 
0 
0 
0 
0 
0 
0 
0 
0 
0 
0 
0 
0 
0 
0 
0 
0 
0 
0 
0 
0 
0 
0 
0 
0 
0 
0 
0 
0 
0.1311929684166966 
0 
0 
0 
0 
0 
0 
0 
0 
0 
0 
0 
0 
0 
0 
0 
0 
0 
0 
0 
0 
0 
-0.09042765755979168 
0 
0 
0 
0 
0 
0 
0 
0 
0 
0 
0 
0 
0 
0 
0 
0 
0 
0 
0 
0 
0 
0 
0 
0 
0 
0 
0 
1.371114939307977 
0 
0 
0 
0 
0 
0 
0 
0 
0 
0 
0 
0 
0 
0 
0 
0 
0 
0 
0 
0 
0 
0 
0 
0 
0 
0 
0 
0 
0 
0 
0 
0 
0 
0 
0 
0 
0 
0 
0 
0 
0 
0 
0 
1.628999712309374 
0 
0 
0 
0 
0 
0 
0 
0 
0 
0 
0 
0 
0 
0 
0 
0 
0 
0 
0 
0 
0 
0 
0 
0 
0 
0 
0 
0 
0 
0 
0 
0 
0 
0 
0 
0 
0 
0 
0 
0 
0 
0 
0 
0 
0 
-0.09795743041228998 
0 
0 
0 
0 
0 
0 
0 
0 
-0.9665095107687028 
0 
0 
0 
0 
0 
0 
0 
-1.767685052211966 
0 
0 
0 
0 
0 
0 
0 
0 
0 
0 
0 
0 
0 
0 
0 
0 
0 
0 
0 
0 
0 
0 
0 
0 
0 
0 
0 
0 
0 
0 
0 
0 
0 
0 
0 
0 
0 
0 
0 
0 
-0.5958721543110706 
0 
0 
0 
0 
0 
0 
0 
0 
0 
0 
0 
0 
0 
0 
0 
0 
0 
0 
0 
0 
0 
0 
0 
0 
0 
0 
0 
0 
0 
0 
0 
0 
0 
0.9274579114167719 
0 
0 
0 
0 
0 
0 
0 
0 
0 
0 
0 
0 
0 
0 
0 
0 
0 
0 
0 
0 
0 
0 
0 
0 
0 
0 
0 
0 
0 
0 
0 
0 
0 
0 
0 
0 
0 
0 
0 
0 
0 
0 
0 
0 
0 
0 
0 
0 
0 
0 
0 
0 
0 
0 
0 
-0.2019921214491083 
0 
0 
0 
0 
0 
0 
0 
0 
0 
0 
0 
0 
0 
-0.1631510451464047 
0 
0 
0 
0 
0 
0 
0 
0 
0 
0 
0 
0 
0 
0 
0 
0 
0 
0 
0 
0 
0 
0 
0 
0 
0 
0 
0 
0 
0 
0 
0 
0 
0 
0 
0 
-1.384579778148122 
0 
0 
0 
0 
0 
0 
0 
0 
0 
0 
0 
0 
0 
0 
0 
0 
0 
0 
0 
0 
0 
0 
0 
0 
0 
0 
0 
0 
0 
0 
0 
0 
0 
0 
0 
0 
0 
0 
0 
0 
0 
0 
0 
0 
0 
0 
0 
0 
0 
0 
0 
0 
0 
0 
0 
0 
0 
0 
0 
0 
0 
0 
0 
0 
0 
0 
0 
0 
0 
0 
0 
0 
-0.1208238839786952 
0 
0 
0 
0 
0 
0 
0 
0 
0 
0 
0 
0 
0 
0 
0 
0 
0 
0 
0 
0 
0 
0 
0 
0 
0 
0 
0 
0 
0 
0 
0 
0.08657639319659391 
-0.7371859020655293 
0 
0 
0 
0 
0 
0 
0 
0 
0 
0 
0 
0 
0 
0 
0 
0 
0 
1.348999029093988 
0 
0 
0 
0 
0 
0 
0 
3.305241878550141 
0 
0 
0 
0 
0 
0 
0 
-6.101285621620436 
0 
0 
0 
0 
0 
0 
0 
0 
0 
0 
0 
0 
0 
0 
0 
0 
0 
0 
0 
0 
0 
0 
0 
0 
0 
0 
0 
0 
0 
0 
0 
0 
0 
0 
0 
0 
0 
0 
0 
0 
0 
0 
0 
0 
0 
0 
0 
0 
0 
0 
0.7536105799932711 
0 
0 
0 
0 
0 
0 
0 
0 
0 
0 
0 
0 
0 
0 
0 
0 
0 
0 
0 
0 
0 
0 
0 
0 
0 
0 
0 
0 
0 
0 
0 
0 
0 
0 
0 
0 
0 
0 
0 
0 
0 
0 
0 
0 
0 
0 
0 
0 
0 
0 
0 
0 
0 
0 
0 
0 
0 
0 
0 
0 
0 
0 
0 
0 
0 
0 
0 
0 
0 
0 
0 
0 
0 
0 
0 
0 
0 
0 
0 
0 
0.6519628122061334 
0 
0 
0 
0 
0 
0 
0 
0 
0 
0 
0 
0 
0 
0 
0 
0 
0 
0 
0 
0 
0 
0 
0.2274823700904332 
0 
0 
0 
-2.366052166944049 
0 
0 
0.7536681414346786 
0 
0 
0 
0 
0 
0 
0 
0 
0 
0 
0 
0 
0 
0 
0 
0 
-1.321220766828235 
0 
0 
0 
0 
0 
0 
0 
0 
0 
0 
-0.1195254663822159 
-0.549026519353253 
0 
0 
0 
0 
0 
0 
0 
0 
0 
0 
0 
0 
0 
0 
0 
0 
0 
0 
0 
0 
0 
0 
0 
0 
0 
0 
0 
0 
0 
0 
0 
0 
0 
0 
0 
0 
0 
0 
0 
0 
0 
0 
0 
0 
0 
0 
0 
0 
0 
0 
0 
0 
0 
0 
0 
0 
0 
0 
0 
0 
0 
0 
0 
0 
0 
0 
0 
0.06218873664017567 
0 
0 
0 
0 
0 
-0.3962885919338368 
0 
0 
0 
0 
0 
0 
0 
0 
0 
0 
0 
-0.03402092434821869 
0 
0 
0 
0 
0 
0 
0 
0 
0 
0 
0 
0 
0 
0 
0 
0 
0 
0 
0 
0 
0 
0 
0 
0 
0 
0 
0 
0 
0 
0 
0 
0 
0 
0 
0 
0 
0 
0 
0 
0 
0 
0 
0 
0 
0 
0 
0 
0 
0 
0 
0 
0 
0 
0 
0 
0 
0 
0 
0 
0 
0 
0 
0 
0 
0 
0 
0 
0 
0 
0 
0 
0 
0 
0 
0 
0 
0 
0 
0 
0 
0 
0 
0 
0 
0 
0 
0 
0 
0 
-1.239063792156733 
0 
0 
0 
0 
0 
0 
0 
0 
0 
0 
0 
0 
0 
0 
0 
0 
0 
0 
0 
0 
0 
0 
0 
0 
0 
0 
0 
0 
0 
0 
0 
0 
0 
0 
0 
0 
0 
0 
0 
0 
0 
0 
0 
0 
0 
0 
0 
0 
0 
0 
0 
0 
0 
0 
0 
0 
0 
0 
0 
0 
0 
0 
0 
0 
0 
0 
0 
0 
0 
0 
0 
0 
0 
0 
0 
0.5963489729219056 
0 
0 
0 
0 
0 
0 
0 
0 
0 
0 
0 
0 
0 
0 
0 
0 
0 
0 
0 
0 
0 
0 
0 
0 
0.5810094301774917 
0 
0 
0 
0 
0 
0 
0 
0 
0 
-0.5511130764070948 
0 
0 
0 
0 
0 
0 
0 
0 
0 
0 
0 
0 
0 
0 
0 
0 
0 
0 
0 
0 
0 
0 
0 
0 
0 
0 
0 
0 
0 
0 
0 
0 
0 
0 
0 
0 
0 
0 
0 
-1.257650321061889 
0 
0 
0 
0 
0 
0 
0 
0 
0 
0 
0 
0 
0 
0 
0 
-0.5182478992104355 
0 
0 
0 
0 
0 
0 
0 
0 
0 
0 
0 
0 
0 
0 
0 
0 
0 
0 
0 
0 
0 
0 
0 
0 
0 
0 
0 
0 
0 
0 
0 
0 
0 
0 
0 
0 
0 
-1.398271793525584 
0 
0 
0 
0 
0 
0 
0 
0 
0 
0 
0 
0 
0 
0 
0 
0 
0 
0 
0 
0 
0 
0 
0 
0 
0 
0 
0 
0 
0 
0 
0 
0 
0 
0 
0 
0 
0 
0 
0 
0 
0 
0 
0 
1.681946362740966 
0 
0 
0 
0 
0 
0 
0 
0 
0 
0 
0 
0 
2.292818774963807 
0 
0 
0 
0 
0 
0 
0 
0 
0 
0 
0 
0 
0 
0 
0 
0 
0 
0 
0 
0 
-0.7026592253064762 
0 
0 
0 
0 
0 
0 
0 
0 
0 
0 
0 
0 
-1.451384084367754 
0 
0 
0 
0 
0 
0 
0 
0 
0 
0 
0 
0 
0 
0 
0 
0 
0.6011027907906287 
0 
0 
0 
0 
0 
0 
0 
0 
0 
0 
0 
0 
0 
0 
0 
0 
0 
0 
0 
0 
0 
0 
-0.9830975123490356 
0 
0 
0 
0 
0 
0 
0 
0 
0 
0 
0 
0 
0 
0 
0 
0 
0 
0 
0 
0 
0 
0 
0 
0 
0 
0 
0 
0 
0 
0 
0 
0 
0 
0 
0 
0 
0 
0 
0 
0 
0 
0 
0 
0 
0 
0 
0 
0 
0 
0 
0 
0 
0 
0 
0 
0 
0 
0 
0 
0 
0 
0 
0 
0 
0 
0 
0 
0 
0 
0 
0 
0 
0 
0 
0 
0 
0 
0 
0 
0 
0 
0 
0 
0 
0 
0 
0 
0 
0 
0 
0 
0 
0 
0 
0 
0 
-0.3715378363712879 
0 
0 
0 
0 
0 
0 
0 
0 
0 
0 
0 
0 
0 
0 
0 
0 
0 
0 
0 
0 
0 
0 
0 
0 
0 
0 
0 
0 
0 
0 
0 
0 
0 
0 
0 
0 
0 
0 
0 
0.8149924077627012 
0 
0 
0 
0 
0 
0 
0 
0 
0 
0 
0 
0 
0 
0 
0 
-0.5486147459831847 
0 
0 
0 
0 
0 
0 
0 
0 
0 
0 
0 
0 
0 
0 
0 
0 
0 
0 
0 
0 
0 
0 
0 
0 
0 
0 
0 
0 
0 
0 
0 
0 
0 
0 
0 
0 
0 
0 
0 
0 
0 
0 
0 
0 
0 
0 
0 
0 
0 
0 
0 
0 
0 
0 
0 
0 
0 
0 
0 
0 
0 
0 
0 
0 
0.202967397396338 
0.9282249048006604 
0 
0 
0 
0 
0 
0 
0 
0 
0 
0 
0 
0 
0 
0 
0 
0 
-1.009132052153969 
0 
0 
0 
0 
0 
0 
0 
0 
0 
0 
0 
0 
0 
0 
0 
0 
0 
0 
0 
0 
0 
0 
0 
0 
0 
0 
0 
0 
0 
0 
0 
0 
0 
0 
0 
0 
0 
0 
0 
0 
0 
0 
0 
0 
0 
0 
0 
0 
0 
0 
0 
0 
0 
0 
0 
0 
0 
0 
0 
0 
0 
0 
0 
0 
0 
0 
0 
0 
0 
0 
0 
0 
0 
0 
0 
0 
0 
0 
0 
0 
0 
0 
0 
0 
0 
0 
0 
0 
0 
0 
0 
2.285496139125706 
0 
0 
0 
0 
0 
0 
0 
0 
0 
0.8775524073067679 
0 
0 
-1.30483351997192 
0 
0 
0 
0 
0 
0 
0 
0 
0 
2.009534160306808 
0 
0 
0 
0 
0 
0 
0 
0 
0 
0 
0 
0 
0 
0 
0 
0 
0 
0 
0 
0 
0 
0 
0 
0 
0 
0 
0 
0 
0 
0 
0 
0 
0 
0 
0 
0 
0 
0 
0 
0 
0 
0 
0 
0 
0 
0 
0 
0 
0 
0 
0 
0 
0 
0 
0 
0 
0 
0 
0 
0 
0 
0 
0 
0 
0 
0 
0 
0 
0 
0 
0 
0 
0 
0 
0 
0 
0 
0 
0 
0 
0 
0 
0 
0 
0 
0 
0 
0 
0 
0 
0 
0 
0 
0 
0 
0 
0 
0 
0 
0 
0 
0 
0 
0 
0 
0 
0 
0 
0 
0 
0 
0 
0 
0 
0 
0 
0 
0 
0 
0 
0 
0 
0 
0 
0 
0 
0 
0 
0 
0 
0 
0 
0 
0 
0 
0 
0 
0 
0 
0 
0 
0 
0 
0 
0 
0 
0 
0 
0 
0 
0 
0 
0 
0 
0 
0 
0 
0 
0 
0 
0 
0 
0 
0 
0 
0 
0 
0 
0 
0 
0 
0 
0 
0 
0 
0 
0 
0 
0 
0 
0 
0 
0 
0 
0 
0 
0 
0 
0 
0 
0 
0 
0 
0 
0 
0 
0 
0 
0 
0 
0 
0 
0 
0 
0 
0 
0 
0 
0 
0 
0 
0 
0 
0 
0 
0 
0 
0 
0 
0 
0 
0 
0 
0 
0.5201301173828808 
0 
0 
0 
0 
0 
0 
0 
0 
0 
0 
0 
0 
0 
0 
0 
0 
0 
0 
0 
-0.9208943096320236 
0 
0 
0 
0 
0 
0 
0 
0 
0 
0 
0 
0 
0 
0 
0 
0 
0 
0 
0 
0 
0 
0 
0 
0 
0 
0 
0 
0 
0 
0 
0 
0 
0 
0 
0 
0 
0 
0 
-0.4259701244732371 
0 
0 
0 
0 
0 
0 
0 
0 
0 
0 
0 
0 
0 
0 
0 
0 
0 
0 
0 
0 
0 
0 
0 
0 
0 
0 
0 
0 
0 
0 
0 
0 
0 
0 
0 
0 
0 
0 
0 
0 
0 
0 
0 
0 
0 
0 
0 
0 
0 
0 
0 
0 
0 
0 
0 
0 
0 
0 
0 
0 
0 
0 
-0.3984205865740174 
0 
0 
0 
0 
0 
0 
0 
0 
0 
0 
0 
0 
0 
0 
0 
0 
0 
0 
-2.404013595817849 
0 
0 
0 
0 
0 
0 
0 
0 
0 
0 
0 
0 
0 
0 
0 
0 
0 
0 
0 
0 
0 
0 
0 
0 
0 
0 
0 
0 
0 
0 
0 
0 
-0.353419790596767 
0 
-0.8307994244286427 
0 
0 
0.5246184675485305 
0 
0 
0 
0 
0 
0 
0 
0 
0 
0 
0 
0 
0 
0 
0 
0 
0 
0 
0 
0 
0 
0 
0 
0 
0.4904477483180044 
0 
0 
0 
0 
0 
0 
0 
0 
0 
0 
0 
0 
0 
0 
0 
0 
0 
0 
0 
0 
0 
0 
0 
0 
0 
0 
0 
0 
0 
0 
0 
0 
0 
0 
0 
0 
0 
0 
0 
0 
0 
0 
0 
0 
0 
0 
0 
0 
0 
0 
0 
0 
0 
-1.536193591225803 
0 
0 
0 
0 
0 
-0.1847570071496047 
0 
0 
0 
0 
0 
0 
0 
0 
0 
0 
0 
0 
0 
0 
0 
0 
0 
0 
0 
0 
0 
0 
0 
0 
0 
0 
0 
0 
0 
0 
0 
0 
0.3181168436250871 
0 
0 
0 
0 
0 
0 
0 
0 
0 
0 
0 
0 
0 
0 
0 
0 
0 
0 
0 
0 
0 
0 
0 
-0.6352424473356396 
0.5896027868222969 
0 
0 
0 
0 
0 
0 
0 
0 
0 
0 
0 
0 
0 
0 
0 
0.7877617814911578 
0 
0 
0 
0 
0 
0 
0 
0 
0 
0 
0 
0 
0 
0 
0 
0 
0 
0 
1.955971309157229 
0 
0 
0 
1.501671388258915 
0 
0 
0 
0 
0 
0 
0 
0 
0 
0 
0 
0 
0 
4.766117118705723 
0 
0 
0 
0 
0 
0 
0 
0 
0 
0 
0 
0 
0 
0 
0 
0 
0 
0 
0.1290291611741384 
0 
0 
0 
0 
0 
0 
0 
0 
0 
0 
0 
0 
0 
0 
0 
0 
0 
0 
0 
0 
0 
0 
0 
0 
0 
0 
0 
0 
0 
0 
0 
0 
0 
0 
0 
0 
0 
0 
0 
0 
0 
0 
0 
0 
0 
0 
0 
0 
0 
0 
0 
0 
0 
0 
0 
0 
0 
0 
0 
0 
0 
0 
0 
0 
0 
0 
0 
0 
0 
0 
0 
0 
0 
0 
0 
0 
0 
0 
0 
0 
0 
0 
0 
0 
0 
0 
0 
0 
0.9364628576812293 
0 
0 
0 
0 
0 
0 
0 
0 
0 
0 
0 
0 
0 
0 
0 
0 
0 
0 
0 
0 
0 
0 
0 
0 
0 
0 
0 
0 
0 
0 
0 
0 
0 
0 
0 
0 
0 
0 
0 
0 
0 
0 
0 
0 
0 
0 
0 
-0.5031762518490112 
0 
0 
0 
0 
0 
0 
0 
0 
0 
0 
0 
0 
0 
0 
0 
0 
0 
0 
0 
0 
0 
0 
0 
0 
0 
0 
0 
0 
0 
0 
0 
0 
0 
0 
0 
0 
0 
0 
-1.404846920345363 
0 
0 
0 
0 
0 
0 
0 
0.7537327819710125 
0 
0 
0 
0 
0 
0 
0 
0 
0 
0 
0 
0 
0 
0 
0 
0 
0 
0 
0 
0 
0 
0 
0 
0 
0 
0 
0 
0 
0 
0 
0 
0 
0 
0 
0 
0 
0 
0 
6.431334197884033 
0 
0 
0 
0 
0 
0 
0 
0 
0 
0 
0 
0 
0 
0 
0 
0.0007273986067029351 
0 
0 
0 
0 
0 
0 
0 
0 
0 
0 
-1.037278198343599 
0 
0 
0 
0 
0 
0 
0 
0 
0 
0 
0 
0 
0 
0 
0 
0 
0 
0 
0 
0 
0 
0 
0 
0 
0 
0 
0 
0 
0 
-5.617359816597792 
0 
0 
0 
0 
0 
0 
0 
0 
0 
0 
0 
0 
0 
0 
0 
0 
0 
0 
0 
0 
0 
0 
0 
0 
0 
0 
1.961269327703207 
0 
0 
0 
0 
0 
0 
0 
0 
0 
0 
0 
0 
0 
0 
0 
0 
-1.196409916202818 
0 
0.2515008129253898 
0 
0 
0 
0 
0 
0 
0 
0 
0 
0 
0 
0 
0 
0 
0 
0 
0 
0 
0 
0 
0 
0 
0 
0 
0 
0 
0 
0 
0 
0 
0 
0 
0 
0 
0 
0 
0 
0 
0 
0 
0 
0 
0 
0 
0 
0 
0 
0 
0 
0 
0 
0 
0 
0 
0 
0 
0 
0 
0 
0 
0 
0 
0 
0 
0 
0 
0 
0 
0 
0 
0 
0 
0 
0 
-0.7168530953634138 
0 
0 
0 
0 
0 
0 
0 
0 
0 
0 
0 
0 
0 
0 
0 
0 
0 
0 
0 
0 
0 
0 
0 
0 
0 
0 
0 
0 
0 
0 
0 
0 
0 
0 
0 
0 
0 
0 
0 
0 
0 
0 
0 
0 
0 
0 
0 
0 
0 
0 
0 
0 
0 
0 
0 
0 
0 
0 
0 
0 
0 
0 
0 
0 
0 
0 
0 
0 
0 
0.2886654360080189 
0 
0 
0 
0 
0 
0 
0 
0 
0 
0 
0 
0 
0 
0 
0 
0 
0 
0 
0 
0 
0 
0 
0 
0 
0 
0 
0 
0 
0 
0 
0 
0 
0 
0 
0 
0 
0 
0 
0 
0 
0 
0 
0 
0 
0 
0 
0 
0 
0 
1.25061829051949 
0 
0 
0 
0 
0 
0 
0 
0 
0 
0 
0 
0 
0 
0 
0 
0 
0 
0 
0 
0 
0 
0 
0 
0 
0 
0 
0 
0 
0 
0 
0 
0 
0 
0 
0 
0 
0 
0 
0 
0 
0 
0 
0 
0 
0 
0 
0 
0 
0 
0 
0 
0 
0 
0 
0 
0 
0 
0 
0 
0 
0 
0 
0 
1.303270794726887 
0 
0 
0 
0 
0 
0 
0 
0 
0 
0 
0 
0 
0 
0 
0 
0 
0 
0 
0 
0 
0 
0 
0 
0 
0 
0 
0 
0 
0 
0 
0 
0 
0 
0 
0 
0 
0 
0 
0 
0 
0 
-0.5443213511438485 
0 
0 
0 
0 
0 
0 
0 
0 
0 
0 
0 
-0.4902550717703447 
0 
0 
0 
-0.6535570639522763 
0 
0 
0 
0 
0 
0 
0 
0 
0 
0 
0 
0 
0 
0 
0 
0 
0 
0 
0 
0 
0 
0 
0 
0 
0.4302598268750278 
0 
-0.6243211345890646 
0 
0 
0 
0 
0 
0 
0 
0 
0 
0 
0 
0 
0 
0 
0 
0 
0 
0 
0 
0 
0 
0 
0 
0 
0 
0 
0 
0 
0 
0 
0 
0 
0 
0 
0 
0 
0 
0 
0 
0 
0 
0 
0 
0 
0 
0 
0 
0 
0 
0 
0 
0 
0 
0 
0 
0 
0 
0 
0 
0 
0 
0 
0 
0 
0 
0 
0 
0 
0 
0 
0 
0 
0 
0 
0 
0 
0 
0 
0 
0 
0 
0 
0 
0 
0 
0 
0 
0 
0 
0 
0 
0 
0 
0 
0 
0 
1.584132095245195 
0 
0 
0 
0 
0 
0 
0 
0 
0 
0 
0 
0 
0 
0 
0 
0 
0 
0 
0 
0 
0 
0 
0 
0 
0 
0 
0 
0 
0 
0 
0 
0 
0 
0 
0 
0 
0 
0 
0 
0 
0 
0 
0 
0 
0 
0 
0 
0 
0 
0 
0 
0 
0 
0 
0 
0 
0 
0 
0 
0 
0 
0 
0 
0 
0 
0 
0 
0 
0 
0 
0 
0 
0 
0 
0 
0 
0 
0 
0 
0 
0 
0 
0 
0 
0 
0 
0 
0 
0 
0 
-3.489700859206403 
0 
0 
0 
0 
0 
0 
0 
0 
0 
0 
-0.9254987672935073 
0 
0 
0 
0 
0 
0 
0 
0 
0 
0 
-0.7377033217543733 
0 
0 
0 
0 
0 
0 
0 
0 
0 
0 
0.2363726329473726 
0 
0 
0 
0 
0 
0 
0 
0 
0 
0 
0 
0 
0 
0 
0 
0 
0 
0 
0 
0 
0 
0 
0 
0 
0 
0 
0 
0 
0 
0 
0 
0 
0 
0.5218006646431814 
0 
0 
0 
0 
0 
0 
0 
0 
0 
0 
0 
0 
0 
0 
0 
0 
0 
0 
0 
0 
0 
0 
0 
0 
0 
0 
0 
0 
0.5811426473098544 
0 
0 
0 
0 
0 
0 
0 
0 
0 
0 
0 
0 
0 
0 
0 
0 
0 
0 
0 
0 
0 
0 
0 
0 
0 
0 
0 
0 
0 
0 
0 
0 
0 
0 
0 
0 
0 
0 
0 
0 
0 
0 
0 
0 
0 
0 
0 
0 
0 
0 
0 
0 
0 
0 
0 
0 
0 
0 
0 
0 
0 
0 
0 
0 
0 
-0.4392628689286837 
0 
0 
0 
0 
0 
0 
0 
0 
0 
0 
0 
0 
0 
0 
0 
0 
0 
0 
0 
0 
0 
0 
0 
0 
0 
0 
0 
0 
0 
0 
0 
0 
0 
0 
0 
0 
0 
0 
0 
0 
0 
0 
0 
0 
0 
0 
0 
0 
0 
0 
0 
0 
0 
0 
0 
0 
0 
0 
0 
0 
0 
0 
0 
0 
0 
0 
0 
0 
0 
0 
0 
-0.9675039723513295 
0 
0 
0 
0 
0 
0 
0 
0 
0 
0 
1.354051066032327 
0 
0 
0 
0 
0 
0 
0 
0 
0 
0 
0 
0 
0 
3.239710995759826 
0 
0 
0 
0 
0 
0 
0 
0 
0 
0 
0 
0 
0 
0 
0 
0 
0 
0 
0 
0 
0 
0 
0 
0 
0 
0 
0 
0 
0 
0 
0 
0 
-1.268785644788682 
0 
0 
0 
0 
0 
0 
0 
-0.1003485530660462 
0 
0 
0 
0 
0 
0 
0 
0 
0 
0 
0 
0 
0 
0 
0 
0 
0 
0 
0 
0 
0 
0 
0 
0 
0 
0 
0 
0 
0 
0 
0 
0 
0 
0 
0 
0 
0 
0 
0 
0 
0 
0 
0 
0 
0 
0 
0 
0 
0 
0 
0 
0 
0 
0 
0 
0 
0 
0 
0 
0 
0 
0 
0 
0 
0 
0 
0 
0 
0 
0 
0 
0 
0 
0 
0 
0 
0 
0 
0 
0 
0 
0 
0 
0 
0 
0 
0 
0 
0 
0 
0 
0 
0 
0 
0 
0 
0 
0 
0 
0 
0 
0 
0 
0 
0 
0 
0 
0 
0 
0 
0 
0 
0 
0 
0 
0 
0 
0 
0 
0 
0 
0 
0 
0 
0 
0 
0 
0 
0 
0 
0 
0 
0 
0 
0 
0 
0 
0 
0 
0 
0 
0 
0 
0 
0 
0 
0 
0 
0.9692234970579323 
0 
0 
0 
0 
0 
0 
0 
0 
0 
0 
0 
0 
0 
0 
0 
0 
0 
0 
0 
0 
0 
0 
0 
0 
0 
0 
0 
0 
0 
0 
0 
0 
0 
0 
0 
0 
0 
0 
0 
0 
0 
0 
0 
0 
0 
0 
0 
0 
0 
0 
0 
0 
0 
0 
0 
0 
0 
0 
0 
0 
0 
0 
0 
0 
0 
0 
0 
0 
0 
0 
0 
0 
0 
0 
0 
0 
0 
0 
0 
0 
0 
0 
0 
0 
0 
-0.4812534231297327 
0 
0 
0 
0 
0 
0 
0 
0 
0 
0 
0 
0 
0 
0 
0 
0 
0 
0 
0 
-2.933902670979661 
0 
0 
0 
0 
0 
0 
0 
0 
0 
0 
0 
0 
0 
0 
0 
-4.30413311010342 
0 
0 
0 
0 
1.902197467178264 
0 
0 
0 
0 
0 
0 
0 
0 
0 
0 
0 
0 
0 
0 
0 
2.935976750658232 
0 
0 
0 
0 
0 
0 
0 
0 
0 
0 
0 
0 
0 
0 
0 
0 
0 
0 
0 
0 
0 
0 
0 
0 
0 
0 
0 
0 
0 
0 
0 
0 
0 
0 
0 
0 
0 
0 
0 
0 
0 
0 
0 
0 
0 
0 
0 
0 
0 
0 
0 
0 
0 
0 
0 
0 
0 
0 
0 
0 
0 
0 
0 
0 
0 
0 
0 
0 
0 
0 
0 
0 
0 
0 
0 
0 
0 
0 
0 
0 
-0.4466434376737236 
0 
0 
0 
0 
0 
0 
0 
0 
0 
0 
0 
0 
0.0008895633317691789 
0 
0 
0 
0 
0 
0 
0 
0 
0 
0 
0 
0 
0 
0 
0 
0 
0 
0 
0 
0 
0 
0 
0 
0 
0 
0 
0 
0 
0 
0 
0 
0 
0 
0 
0 
0 
0 
0 
0 
0 
0 
0 
0 
0 
0 
0 
0 
0 
0 
0 
0 
0 
0.07178586275788575 
0 
0 
0 
0 
0 
0 
0 
0 
0 
0 
0 
0 
0 
0 
0 
0 
0 
0 
0 
0 
0 
0 
0 
0 
0 
0 
0 
0 
0 
0 
0 
0 
0 
0 
0 
0 
0 
0 
0 
0 
0 
0 
0 
0 
0 
0 
0 
0 
0 
0 
0 
0 
0 
0 
0 
0 
0 
0 
0 
0 
0 
0 
0 
0 
0 
0 
0 
0 
0 
0 
0 
0 
0 
0 
0 
0 
0 
0 
0 
0 
0 
0 
0 
0 
0 
0 
0 
0 
0 
0 
0 
0 
0 
0 
0 
0 
0 
0 
0 
0 
0 
0 
0 
0 
0 
0 
-0.8787815127573931 
0 
0 
0 
0 
0 
0 
0 
0 
-1.696807254625833 
0 
0 
-0.9382730577598143 
0 
0 
0 
0 
0 
0 
0 
0 
0 
0 
0 
0 
0 
0 
0 
0 
0 
0 
0 
0 
0 
0 
0 
0 
0 
0 
0 
0 
0 
0 
0 
0 
0 
0 
0 
0 
0 
0 
0 
0 
0 
0 
0 
0 
0 
0 
0 
0 
0 
0 
0 
3.037630906580423 
0 
0 
0 
0 
0 
0 
0 
0 
0 
0 
0 
0 
0 
0 
0 
0 
0 
0 
0 
0 
0 
0 
0 
0 
0 
0 
0 
0 
0 
0 
0 
0 
0 
0 
0 
0 
0 
0 
0 
0 
0 
0 
0 
0 
0 
0 
0 
0 
0 
0 
0 
0 
0 
0 
0 
0 
0 
0 
0 
0 
0 
0 
0 
0 
0 
0 
0 
0 
0 
0 
0 
0 
0 
0 
0 
0 
0 
0 
0 
0 
0 
0 
0 
0 
0 
0 
0 
0 
0 
0 
0 
0 
0 
0 
0 
0 
0 
0 
0 
0 
0 
0 
0 
0 
0 
0 
0 
0 
0 
0 
0 
0 
0 
0 
0 
0 
0 
0 
0 
0 
0 
0 
0 
-0.7270841933664284 
0 
0 
0 
0 
0 
0 
0 
0 
0 
0 
0 
0 
0 
0 
1.191644293575877 
0 
0 
0 
0 
0 
0 
0 
0 
0 
0 
0 
0 
0 
0 
0 
0 
0 
0 
0 
0 
0 
0 
0 
0 
0 
0 
0 
0 
0 
0 
0 
0 
0 
0 
0 
0 
0 
0 
0 
0 
0 
0 
0 
0 
0 
0 
0 
0 
0 
-1.156786162773964 
0 
0 
0 
0 
0 
0 
0 
0 
0 
0 
0 
0 
0 
0 
0 
0.940691136595738 
0 
0 
0 
0 
0 
0 
0 
0 
0 
0 
0 
0 
0 
0 
0 
0 
0 
0 
0 
1.179776368975595 
0 
0 
0 
0 
0 
0 
0 
0 
0 
0 
0 
0 
0 
0 
0 
0 
0 
0 
0 
0 
0 
0 
0 
0 
0 
-5.605730266572797 
0 
0 
0 
0 
0 
0 
0 
0 
0 
0 
0 
0 
0 
0 
0 
0 
0 
0 
0 
0 
0 
0 
0 
0 
0 
0 
0 
0 
0 
0 
0 
2.45638932477685 
0 
0 
0 
0 
0 
0 
0 
0 
0 
0 
0 
0 
0 
0 
0 
0 
0 
0 
0 
0 
0 
0 
0 
0 
0 
0 
0 
0 
0 
0 
0 
0 
0 
0 
0 
0 
0 
0 
0 
0 
0 
0 
0 
-0.5972366745555542 
0 
0 
0 
0 
0 
0 
0 
0 
0 
0 
0 
0 
0 
0 
0 
0 
0 
0 
0 
0 
0 
0 
0 
0 
0 
0 
0 
0 
0 
0 
0 
0 
0 
0 
0 
0 
0 
0 
0 
0 
0 
0 
0 
0 
0 
0 
0 
0 
0 
0 
0 
0 
0 
0 
0 
0 
0 
0 
0 
0 
0 
0 
-2.973234424603373 
0 
0 
0 
0 
0 
1.033957256613731 
0 
0 
0 
0 
0 
0 
0 
0 
0 
0 
0 
0 
0 
0 
0 
0 
0 
0 
0 
0 
0 
0 
0 
0 
0 
0 
0 
0 
0 
0 
0 
0 
0 
0 
0 
0 
0 
0 
0 
0 
0 
0 
0 
0 
0 
0 
0 
0 
0 
0 
0 
0 
0 
0 
0 
0 
0 
0 
0 
0 
0 
0 
0 
0 
0 
0 
0 
0 
0 
0 
0 
0 
0 
0 
0 
0 
0 
0 
0 
0 
0 
0 
0 
0 
0 
0 
-0.2964734817250906 
0 
0 
0 
0 
0 
0 
0 
0 
0 
0 
0 
0 
0 
0 
0 
0 
0 
0 
0 
0 
0 
0 
0 
0 
0 
0 
0 
0 
0 
0 
0 
0 
0 
0 
0 
0 
0 
0 
0 
0 
0 
0 
0 
0 
0 
0 
0 
0 
0 
0 
0 
0 
0 
0 
0 
0 
0 
0 
0 
0 
0 
0 
0 
0 
0 
0.4916786435138827 
0 
0 
-1.125749278619261 
0 
0 
0 
0 
0 
0 
0 
0 
0 
0 
0 
0 
0 
0 
0 
0 
0 
0 
0 
0 
0 
0 
0 
0 
0 
0 
0 
0 
0 
0 
0 
0 
0 
0 
0 
0 
0 
0 
0 
0 
0 
0 
0 
0 
0 
0 
0 
0 
0 
0 
0 
0 
0 
0 
0 
0 
0 
0 
0 
0 
0 
0 
0 
0 
0 
0 
0 
0 
0 
0 
0 
0 
0 
0 
0 
0 
0 
0 
0 
0 
0 
0 
0 
0 
0 
0 
0 
0 
0 
0 
0 
0 
0 
0 
0 
0 
0 
0 
0 
0 
0 
0 
0 
0 
0 
0 
0 
0 
0 
0 
0 
0 
0 
0 
0 
0 
0 
0 
0 
0 
0 
0 
0 
0 
0 
0 
0 
0 
0 
0 
0 
0 
0 
0 
0 
0 
0 
0 
0 
0 
0 
-0.1961040246340591 
0 
0 
0 
0 
0 
0 
0 
0 
0 
0 
0 
0 
0 
0 
0 
0 
0 
0 
0 
0 
0 
0 
0 
0 
0 
0 
0 
0 
0 
0 
0 
0 
0 
0 
0 
0 
0 
0 
0 
0 
0 
0 
0 
0 
0 
0 
0 
0 
0 
0 
0 
0 
0 
0 
-1.17684904758214 
0 
0 
0 
0 
0 
0 
0 
0 
0 
0 
1.758502356899226 
0 
0 
0 
0 
0 
0 
0 
0 
0 
0 
0 
0 
0 
0 
0 
0 
0 
0 
0 
0 
0 
0 
0 
0 
0 
0 
0 
0 
0 
0 
0 
0 
0 
0 
0 
0 
0 
0 
0 
0 
0 
0 
0 
0 
0 
0 
0 
0 
0 
0 
0 
0 
0 
0 
0 
0 
0 
0 
0 
0 
0 
0 
0 
0 
0.03362016352176746 
0 
0 
0 
0 
0 
0 
0 
0 
0 
0 
0 
0 
0 
0 
0 
0 
0 
0 
0 
0 
0 
0 
0 
0 
0 
0 
0 
0 
0 
0 
0 
0 
0 
0 
0 
0 
0 
0 
0 
0 
0 
0 
0 
0 
0 
0 
0 
0 
0 
0 
0 
0 
0 
0 
0 
0 
0 
0 
0 
0 
0 
0 
0 
0 
0 
0 
0 
0 
0 
0 
0 
0 
0 
0 
0 
0 
1.106847282340046 
0 
0 
0 
0 
0 
0 
0 
0 
0 
0 
0 
0 
0 
0 
0 
0 
0 
0 
0 
0 
0 
0 
0 
0 
0 
0 
0 
0 
0 
0 
0 
0 
0 
0 
0 
0 
0 
0 
0 
0 
0 
0 
0 
0 
0 
0 
0 
0 
0 
0 
0 
0 
0 
0 
0 
0 
0 
0 
0 
0 
0 
0 
0 
0 
0 
0 
0 
0 
0 
0 
0 
0 
0 
0 
0 
0 
0 
0 
0 
0 
0 
0 
0 
0 
0 
0 
0 
0 
0 
0 
0 
0 
0 
0 
0 
0 
0 
0 
0 
0 
0 
0 
0 
0 
0 
0 
0 
-1.193331772762063 
0 
0 
0 
0 
0 
0 
0 
0 
0 
0 
0 
0 
0 
0 
0 
0 
0 
0 
0 
0 
0 
0 
0 
0 
0 
0 
0 
0 
0 
0 
1.306280683809546 
0 
0 
0 
0 
0 
0 
0 
0 
0 
0 
0 
0 
0 
0 
0 
0 
0 
0 
0 
0 
0 
0 
0 
0 
0 
0 
0 
0 
0 
0 
0 
0 
0 
0 
0 
0 
0 
0 
0 
0 
0 
0 
0 
0 
-1.223414936766596 
0 
0 
0 
0 
0 
0 
0 
-3.001975385386781 
0 
0 
2.342784260176676 
0 
0 
0 
0 
0 
0 
0 
0 
0 
0 
0 
0 
0 
0 
0 
-1.218467161780554 
0 
0 
0 
0 
0 
0 
0 
0 
0 
0 
0 
0 
0 
0 
0 
0 
0 
0 
0 
0 
0 
0 
0 
0 
0 
0 
0 
0 
0 
0 
0 
0 
0 
0 
0 
0 
0 
0 
0 
0 
0 
0 
0 
0 
0 
0 
0 
0 
0 
0 
0 
0 
0 
0 
0 
0 
0 
0 
0 
0 
0 
0 
0 
-0.3210583880746039 
0 
0 
0 
0 
0 
0 
0 
0 
0 
0 
0 
0 
0 
0 
0 
0 
0 
0 
0 
0 
0 
0 
0 
0 
0 
0 
0 
0 
0 
0 
0 
0 
0 
0 
0 
0 
0 
0 
0 
0 
0 
0 
0 
0 
0 
0 
0 
0 
0 
0 
0 
0 
0 
0 
0 
0 
0 
0 
0 
0 
0 
0 
0 
0 
0 
0 
0 
0 
0 
0 
0 
0 
0 
0 
0 
0 
0 
0 
0 
0 
0 
0 
0 
0 
0 
0 
0 
0 
0 
0 
0 
0 
0 
0 
0 
0 
0 
0 
0 
0 
0 
0 
0 
0 
0 
0 
0 
0 
0 
0 
0 
0 
0 
0 
0 
1.49290979151367 
0 
0 
0 
-2.650583933153536 
0 
0 
0 
0 
0 
0 
0 
0 
0 
0 
0 
0 
0 
0 
0 
0 
0 
0 
0 
0 
0 
0 
0 
0 
0 
0 
0 
0 
0 
0 
-0.8528913443903177 
0 
0 
0 
-3.504364981235033 
0 
0 
0 
0 
0 
0 
0 
0 
0 
0 
0 
0 
0 
0 
0 
0 
0 
0 
0 
0 
0 
0 
0 
0 
0 
0 
0 
0 
0 
0 
0 
0 
0 
0 
0 
0 
0 
0 
0 
0 
0 
0 
0 
0 
0 
0 
0 
0 
0 
0 
0 
0 
0 
0 
0 
0 
0 
0 
0 
0 
0 
0 
0 
0 
0 
0 
0 
0 
0 
0 
0 
0 
0 
0 
0 
0 
0 
0 
0 
0 
0 
0 
0 
0 
0 
0 
0 
0 
0 
0 
0 
0 
0 
0 
0 
0 
0 
0 
0 
0 
0 
0 
0 
0 
0 
0 
0 
0 
0 
0 
0 
0 
0 
0 
0 
0 
0 
0 
0 
0 
0 
0 
0 
0 
0 
0 
0 
0 
0 
0 
0 
0 
0 
0 
0 
0 
0 
0 
0 
0 
0 
0 
0 
0 
0 
0 
0 
0 
0 
0 
0 
-0.8540944138641547 
0 
0 
0 
0 
0 
0 
0 
0 
0 
0 
0 
0 
0 
0 
0 
0 
0 
0 
0 
0 
0 
0 
0 
0 
0 
0 
0 
0 
0 
0 
0 
0 
0 
0 
0 
0 
0 
0 
0 
0 
0 
0 
0 
0 
0 
0 
0 
0 
0 
0 
0 
0 
0 
0 
0 
0 
0 
0 
0 
0 
0 
1.359912958725551 
0 
0 
0 
0 
0 
0 
0 
0 
0 
0 
0 
0 
0 
0 
0 
0 
0 
0 
0 
0 
0 
0 
0 
0 
0 
0 
0 
-1.147140089554323 
0 
0 
0 
0 
0 
0 
0 
0 
0 
0 
0 
0 
0 
0 
0 
0 
0 
0 
0 
0 
0 
0 
0 
0 
0 
0 
0 
0 
0 
0 
0 
0 
0 
0 
0 
-0.6893022882789518 
0 
0 
0 
0 
0 
0 
0 
0 
0 
0 
0 
0 
0 
0 
0 
0 
0 
0 
0 
0 
0 
0 
0 
0 
0 
0 
0 
0 
0 
0 
0 
0 
0 
0 
0 
0 
0 
0 
0 
0 
0 
0 
0 
0 
0 
0 
0 
0 
0 
0 
0 
0 
0 
0 
0 
0 
0 
0 
0 
0 
0 
0 
0 
0.9978591147353264 
0 
0 
0 
0 
0 
0 
0 
0 
0 
0 
0 
0 
0 
0 
0 
0 
0 
0 
0 
0 
0 
0 
0 
0 
0 
0 
0 
0 
0 
0 
0 
0 
0 
0 
0 
0 
0 
0 
0 
0 
0 
0 
0 
0 
0 
0 
0 
0 
0 
0 
0 
0 
0 
0 
0 
0 
0 
0 
0 
0 
0 
0 
0 
0 
0 
0 
0 
0 
0 
0 
0 
0 
0 
0 
0 
0 
0 
0 
0 
0 
0 
0 
0 
0 
0 
0 
0 
0 
0 
0 
0 
0 
0 
0 
0 
0 
0 
0 
0 
0 
0 
0 
0 
0 
0 
0 
0 
0 
0 
0 
0 
-4.335519647911469 
0 
0 
0 
0 
0 
0 
0 
0 
0 
0 
0 
0 
0 
0 
0 
0 
0 
0 
0 
0 
0 
0 
0 
0 
0 
0 
0 
0 
0 
0 
0 
0 
0 
0 
0 
0 
0 
0 
0 
0 
0 
0 
0 
0 
0 
0 
0.3258655429792819 
0 
0 
0 
0 
0 
0 
0 
0 
0 
0 
0 
0 
0 
0 
0 
0 
0 
0 
0 
0 
0 
0 
0 
0 
0 
0 
0 
0 
-1.472082904493337 
0 
0 
0 
0 
0 
0 
0 
0 
0 
0 
0 
0 
0 
0 
0 
0 
0 
0 
0 
0 
0 
0 
0 
0 
0 
0 
0 
0 
0 
0 
0 
0 
0 
0 
0 
0 
0 
0 
0 
0 
0 
0 
0 
0 
0 
0 
0 
0 
0.6237095061526555 
0 
0 
0 
0 
0.8483088068110982 
0 
0 
0 
0 
0 
0 
0 
0 
0 
0 
0 
0 
0 
0 
0 
-1.836089653666302 
0 
0 
0 
0 
0 
0 
0 
0 
0 
0 
0 
0 
0 
0 
0 
0 
0 
0 
0 
0 
0 
0 
0 
-1.060818561502816 
0 
0 
0 
0 
0 
0 
0 
0 
0 
0 
-0.1018716659645051 
0 
0 
0 
0 
0 
0 
0 
0 
0 
0 
0 
0 
0 
0 
0 
0 
0 
0 
0 
0 
0 
0 
0 
0 
0 
0 
0 
0 
0 
0 
0 
0 
0 
0 
0 
0 
0 
0 
0 
0 
0 
0 
0 
0 
0 
0 
0 
0 
0 
0 
0 
0 
0 
0 
0 
0 
0 
0 
0 
0 
0 
0 
0 
0 
0 
0 
0 
0 
0 
0 
0 
0 
0 
0 
0 
0 
0 
0 
0 
0 
0 
-2.224052089425916 
0 
0 
0 
0 
0 
0 
0 
0 
0 
0 
0 
0 
0 
0 
0 
0 
0 
0 
0 
0 
-1.46126440688767 
0 
0 
0 
0 
0 
0 
0 
0 
0 
0 
0 
0 
0 
0 
0 
0 
0 
0 
0 
0 
0 
0 
0 
0 
0 
0 
0 
0 
0 
-0.4916662001214742 
0 
0 
0 
0 
0 
0 
0 
0 
0 
0 
0 
0 
0 
0 
0 
0 
0 
0 
0 
0 
0 
0 
0 
0 
0 
0 
0 
0 
0 
0 
-0.9180854049357162 
0 
0 
0 
0 
-0.5938873060317603 
0 
0 
0 
0 
0 
0 
0 
0 
0 
0 
0 
0 
0 
0 
0 
0 
0 
0 
0 
0 
0 
0 
0 
0 
0 
0 
0 
0 
0 
0 
0 
0 
0 
0 
0 
0 
0 
0 
0 
0 
0 
0 
0 
0 
0 
0 
0 
0 
0 
0 
0 
0 
1.813950312937671 
0 
0 
0 
0 
0 
0 
0 
0 
-2.742310601625017 
0 
0 
0 
0 
0 
0 
0 
0 
0 
0 
0 
0 
0 
0 
0 
0 
0 
0 
0 
0 
0 
0 
0 
0 
0 
0 
0 
0 
0 
0 
0 
0 
0 
0 
0 
0 
0 
0 
0 
0 
0 
0 
0 
0 
0 
0 
0 
0 
-0.005614815455681907 
0 
0 
0 
0 
0 
0 
0 
0 
0 
0 
0 
0 
0 
0 
0 
0 
0 
0 
0 
0 
0 
0 
0 
0 
0 
0 
0 
0 
0 
0 
0 
0 
0 
0 
0 
0 
-2.243812057316139 
-0.7027758615494023 
0 
0 
0 
0 
0 
0 
0.9348647720087627 
0 
0 
0 
0 
0 
0 
0 
0 
0 
0 
0 
0 
-4.372305077971454 
0 
0 
0 
0 
0 
0 
0 
0 
0 
0 
0 
0 
0 
0 
0 
0 
0 
0 
0 
0 
0 
0 
0 
0 
0 
0 
0 
0 
0 
0 
0 
0 
0 
0 
0 
0 
0 
0 
0 
-0.2485127620068239 
0 
0 
0 
0 
0 
0 
0 
0 
0 
0 
0 
0 
0 
0 
0 
0 
0 
0 
0 
0 
0 
0 
0 
0 
0 
0 
0 
0 
0 
0 
0 
0 
0 
0 
0 
0 
0 
0 
0 
0 
0 
0 
0 
0 
0 
0 
0 
-4.70918992722163 
0 
0 
0 
2.323485656146744 
0 
0 
0 
0 
0 
0 
0 
0 
0.1636043950645399 
0 
0 
0 
0 
0 
-3.246125494224537 
0 
0 
0 
0 
0 
0 
1.175231146410028 
0 
0 
0 
0 
0 
0 
0 
0 
0 
0 
0 
0 
0 
0 
0 
0 
0 
0 
0 
0 
0 
-1.145244216174041 
0 
2.382840259942343 
0 
0 
0 
0 
0 
0 
0 
0 
0 
0 
0 
0 
0 
0 
0 
0 
0 
0 
0 
0 
0 
0 
0 
0 
0 
0 
0 
0 
0 
0 
0 
0 
-0.7539413788144141 
0 
0 
0 
0 
0 
0 
0 
0 
0 
0 
0 
0 
0 
0 
0 
0 
0 
0 
0 
0 
0 
0 
0 
0 
0 
0 
0 
0 
0 
0 
0 
0 
0 
0 
0 
0 
0 
0 
0 
0 
0 
0 
0 
0 
0 
0 
0 
0 
0 
0 
0 
0 
0 
0 
0 
0 
0 
0 
0 
0 
0 
0 
0 
0.5454096696583703 
0 
0 
0 
0 
0 
0 
0 
0 
0 
0 
0 
0 
0 
0 
0 
0 
0 
0 
0 
0 
0 
0 
0 
0 
0.8353113472307789 
0 
0 
0 
0 
0 
0 
0 
0 
0 
0 
0 
0 
0 
0 
0 
0 
0 
0 
0.2094941358388456 
0 
0 
0 
0 
0 
0 
0 
0 
0 
0 
0 
0 
0 
0 
0 
0 
0 
0 
0 
0 
0 
0 
0 
0 
0 
0 
0 
0 
0 
0 
0 
0 
0 
0 
0 
0 
0 
0 
0 
0 
0 
0.05342562855818969 
0 
0 
0 
0 
0 
0 
0 
0 
0 
0 
0 
0 
1.537510312088695 
0 
0 
0 
0 
0 
0 
0 
0 
0 
0 
0 
0 
0 
0 
0 
0 
0 
0 
0 
0 
0 
0 
0 
0 
0 
0 
0 
0 
0 
0 
0 
-2.360390807976446 
0 
0 
0 
0 
0 
0 
0 
0 
0 
0 
0 
0 
0 
0 
0 
0 
0 
0 
0 
0 
0 
0 
2.847961628948285 
0 
0 
0 
0 
0 
0 
0 
0 
0 
0 
0 
0 
0 
0 
0 
0 
0 
0 
0 
0 
0 
0 
0 
0 
0 
0 
0 
0 
0 
0 
0 
0 
0 
0 
0 
0 
0 
0 
0 
0 
0 
0 
0 
0 
0 
0 
0 
0 
0 
0 
0 
0 
0 
0 
0 
0 
0 
0 
0 
0 
0 
0 
0 
0 
0 
0 
0 
0 
0 
0 
0 
0 
0 
0 
0 
0 
0 
0 
0 
0 
0 
0 
0 
0 
0 
0 
0 
0 
0 
0 
0 
0 
0 
0 
0 
0 
0 
0.4469032252696958 
0 
0 
0 
0 
0 
0 
0 
0 
0 
0 
0 
0 
0 
0 
0 
0 
0 
0 
0 
0 
0 
0 
0 
0 
0 
0 
0 
0 
0 
0 
0.6002837586571778 
0 
0 
0 
0 
0 
0 
0 
0 
0 
0 
0 
0 
0 
0 
0 
0 
0 
0 
0 
0 
0 
0 
0 
0 
0 
0 
0 
0 
0 
0 
0 
0 
0 
0 
0 
0 
0 
0 
0 
0 
0 
0 
0 
0 
0 
0 
0 
0 
0 
0.3841471895688297 
0 
0 
0 
0 
0 
0 
0 
0 
0 
0 
0 
0 
0 
0 
0 
0 
0 
0 
0 
0 
0 
0 
0 
0 
0 
0 
0 
0 
0 
0 
0 
0 
0 
0 
0 
0 
0 
0 
1.63576177146304 
0 
0 
0 
0 
0 
0 
0 
0 
0 
0 
0 
-0.258737816434601 
0 
0 
0 
0 
0 
0 
0 
0 
0 
0 
0 
-0.8996546778451832 
0 
0 
0 
0 
0 
0 
0 
0 
0 
0 
0 
0 
0 
0 
0 
0 
0 
0 
0 
0 
0 
0 
0 
0 
0 
0 
0 
0 
0 
0 
0 
0 
0 
0 
0 
0 
0 
0 
0 
0 
0 
0 
0 
0 
0 
0 
0 
0 
0 
0 
0 
0 
0 
0 
0 
0 
0 
0 
0 
0 
0 
0 
0 
0 
0 
0 
1.688488237710859 
0 
0 
0.4264129555822132 
0 
0 
0 
0 
0 
0 
0 
0 
0 
0 
0 
0 
0 
0 
-0.01104059184955827 
0 
0 
0 
0 
0 
0 
0 
0 
0 
0 
0 
0 
0 
0 
0 
0 
0 
0 
0 
0 
0 
0 
0 
0 
0 
0 
0 
0 
0 
0 
0 
0 
0 
0 
0 
0 
0 
0 
0 
0 
0 
0 
0 
0 
0 
0 
0 
0 
0 
0 
0 
0 
0 
-1.167541296658278 
0 
0 
0 
0 
0 
0 
0 
0 
0 
0 
0 
0 
0 
0.3392082107157275 
0 
0 
0 
0 
0 
0 
0 
0 
0 
0 
0 
0 
0 
0 
0 
0 
0 
0 
0 
0 
0 
0 
0 
0 
0 
0 
0 
0 
0 
0 
0 
0 
0 
0 
0 
0 
0 
0 
0 
0 
0 
0 
0 
0 
1.22408719773436 
0 
0 
0 
0 
0 
0.094848401350137 
0 
0 
-2.101494061687874 
0 
0 
0 
0 
0 
0 
0 
0 
0 
0 
0 
0 
0 
0 
0 
0 
0 
0.1334547492279326 
0 
0 
0 
0 
0 
0 
0 
0 
0 
0 
0 
0 
0 
0 
0 
0 
0 
0 
0 
0 
6.956176309238211 
0 
0 
0 
1.995132266822817 
0 
0 
0 
0 
0 
0 
0 
0 
0 
0 
0 
0 
0 
0 
0 
0 
0 
0 
0 
0 
0 
0 
0 
0 
0 
0 
0 
1.966945014705745 
0 
0 
0 
0 
0 
0 
0 
0 
1.487138333023098 
1.60066939540748 
0 
0 
0 
0 
0.8714969843199921 
0 
0 
0 
0 
0 
0 
0 
0 
0 
0 
0 
0 
0 
0 
0 
1.904618989842086 
0 
0 
0 
0 
0 
0 
0 
0 
1.112359375039568 
0 
0 
0 
0 
0 
0 
0 
0 
4.099751031664639 
0 
0 
0 
0 
0 
0 
0.3149945985652208 
0 
0 
0 
0 
0 
0 
0 
0 
0 
0 
0 
0.544681506477138 
2.512615987912509 
0 
0 
1.656497448647401 
0 
0 
0 
-0.1641248612751102 
0 
0 
0 
0 
0 
0 
0 
0 
0 
0 
0 
0 
3.391761483820798 
0 
0 
0 
0 
0 
0 
0 
0 
0 
0 
0 
0 
0 
0 
0 
0 
0 
1.799570216306677 
0 
2.951987599995829 
0 
0 
0 
0 
0 
0 
0 
0 
0 
0 
0 
0 
0 
0 
0 
0 
0 
0 
0 
0 
0 
0 
0 
0 
0 
0 
0 
0 
0 
0 
0 
0 
0 
0 
0 
0 
0 
0 
0 
0 
0 
0 
0 
0 
0 
0 
1.997609030585626 
0 
0 
1.006401615800334 
0 
0 
1.552818519277292 
0 
0 
0 
0 
0 
0 
0 
0 
0 
0 
-1.037724806895649 
0 
0 
0 
0 
-0.9438733825048818 
0 
0 
0 
0 
0 
0 
0 
0 
0 
0 
0 
0 
0 
0 
0 
0 
0 
0 
0 
0 
0 
0 
0.221823590697925 
0 
-0.3089515679547526 
0 
0 
0 
0 
0 
0 
0 
0 
0 
0 
0 
0 
0 
0 
0 
2.519788815938584 
0.5408066744795206 
0 
0 
0 
0 
0 
0 
0 
0 
0 
0 
-0.2241228072252109 
-1.866357673267186 
0 
0 
0 
0 
1.181833216769064 
0 
-2.680286863872621 
0 
0 
0 
0 
0 
0 
0 
0 
0 
0 
0 
0 
0 
0 
-0.224345628657597 
0 
0 
0 
0 
0 
0 
0 
0 
-0.9404864561903995 
0 
0 
0 
0 
0 
0 
0 
0 
0.5000682696864502 
0 
0 
0 
0 
0 
0.9441530646277681 
0 
0 
0.5156122601079083 
0 
0 
0 
0 
0 
2.474350719893008 
0 
0 
0 
0 
0 
0.3340913359965654 
0 
0 
0.8129928039854865 
0 
0 
0 
0 
0 
0 
0 
0 
0 
0 
0 
0.8409988014501796 
0 
0 
0 
0 
0 
0 
0 
0 
0 
0 
0 
0 
0.9014824864558308 
0.2184117328710941 
0 
0 
0 
0 
0 
0 
0 
0 
0 
0 
0 
0 
0 
0.4441283428480437 
0 
0 
0 
0 
0 
0 
0 
0 
0 
0 
0 
0 
0 
0 
-1.252260253978351 
0 
0 
0 
0 
0 
0 
0 
0 
0 
0 
0 
0 
0 
0 
0 
0 
0 
0 
0 
0 
0 
0 
0 
0 
0 
0 
0 
0 
0 
0 
0 
0 
0 
0 
0 
0 
0 
0 
0 
0 
-1.20579448767343 
0 
0 
0 
0 
0 
0 
0 
0 
0 
-3.646242507577815 
0 
0 
0 
0 
0 
0 
0 
0 
0 
0 
0 
0 
-5.07619184942045 
0 
0 
0 
-0.2632819532655873 
0 
0 
-2.409585080701098 
0 
0 
0 
0 
0 
0 
0 
0 
0 
0 
0 
0 
0 
0 
0 
0 
0 
0 
0 
0 
0 
0 
0 
0 
0 
0 
0 
0 
0 
0 
0 
0 
0 
0 
0 
0 
0 
0 
0 
0 
0 
0 
0 
0 
0 
-2.125421264864037 
0 
0 
0 
0 
0 
0 
0 
0 
0 
0 
0 
0 
0 
0 
0 
0 
0 
0 
0 
0 
0 
0 
0 
0 
0 
0 
0 
0 
0 
0 
0 
0 
0 
0 
0 
0 
0 
0 
0 
0 
0 
0 
0 
0 
0 
0 
0 
0 
0 
0 
0 
0 
0 
0 
0 
0 
0 
0 
0 
-2.658746777300169 
0 
0 
0 
0 
0 
0 
0 
0 
0 
0 
0 
0 
0 
0 
0 
0 
0 
0 
0 
0 
0 
0 
0 
0 
0 
0 
0 
0 
0 
0 
0 
0 
0 
0 
0 
0 
0 
0 
0 
0 
0 
0 
0 
0 
0 
0 
-4.587210097656056 
0 
0 
0 
0 
-1.592916594663662 
0 
0 
0 
0 
0 
0 
0 
0 
0 
-0.03501981953644635 
0 
0 
-0.3243431986206816 
0 
0 
0 
0 
0 
0 
0 
0 
0 
0 
0 
0 
0 
0 
0 
0 
0 
0 
0 
0 
0 
0 
0 
0 
0 
0 
0 
0 
0 
0 
0 
0 
0 
0 
0 
0 
0 
0 
0 
0 
0 
0 
0 
0 
0 
0 
0 
0 
0 
0 
0 
0 
0 
0 
0 
0 
0 
0 
0 
0 
0 
0 
0 
-3.821315030444403 
0 
0 
0 
0 
0 
0 
0 
0 
0 
0 
0 
0 
0 
0 
0 
0 
0 
0 
0 
-2.928616231682435 
0 
0 
0 
0 
0 
0 
0 
0 
0 
0 
0 
0 
0 
0 
0 
0 
0 
0 
0 
0 
0 
0 
0 
0 
0 
0 
0 
-0.8961339877121893 
0 
0 
0 
0 
0 
0 
0 
0 
0 
0 
0 
0 
0 
0 
-0.1550209595831735 
0 
0 
0 
0 
0 
0 
0 
0 
0 
0 
0 
0 
0 
0 
0 
0 
0 
0 
0 
0 
0 
0 
0 
0 
0 
0 
0 
0.9942495517519217 
0 
0 
0 
-2.51220898144171 
-1.223766487100865 
0 
0 
0 
0 
0 
0 
0 
0 
-1.652289626537021 
-2.4279360364546 
0 
0 
0 
0 
0 
0 
0 
0 
-1.681691287769626 
0 
0 
0 
0 
0 
0 
0 
0 
0 
0 
0 
0 
0 
0 
0 
0 
0 
0 
0 
0 
0 
0 
0 
0 
0 
0 
0 
0 
0 
0 
0 
0 
0 
0 
0 
0 
0 
0 
0 
0 
0 
0 
0 
0 
0 
0 
0 
0 
0 
0 
0 
0 
0 
0 
0 
0 
0 
0 
0 
0.6683979391180592 
0 
0 
0 
0 
0 
0 
0 
0 
0 
0 
0 
0 
0 
0 
0 
0 
0 
0 
0 
0 
0 
0 
0 
0 
0 
0 
0 
0 
0 
0 
0 
0 
0 
0 
0 
0 
0 
0 
0 
0 
0 
0 
0 
0 
0 
0 
0 
0 
0 
0 
0 
0 
0 
0.6113391922679771 
0 
0 
0 
0 
0 
0 
0 
0 
0 
0 
0 
0 
0 
0 
0 
0 
0 
0 
0 
0 
0 
0 
0 
0 
0 
0 
0 
0 
0 
0 
0 
0 
0 
0 
0 
0 
0 
0 
0 
0 
0 
0 
0 
0 
0 
0.7578806697462109 
0 
0 
0 
0 
0 
0 
0 
0 
0 
0 
0 
0 
0 
0 
0 
0 
0 
0 
0 
0 
0 
0 
0 
0 
0 
0 
0 
0 
0 
0 
0 
0 
0 
0 
0 
0 
0 
0 
0 
0 
0 
-0.399713547613015 
0 
0 
0 
0 
0 
0 
0 
0 
1.127810212003697 
0 
0 
0 
0 
0 
0 
0 
0 
0 
0 
0 
0 
0 
0 
0 
0 
0 
0 
0 
0 
0 
0 
0 
0 
0 
0 
0 
0 
0 
0 
0 
0 
0 
0 
0 
0 
0 
0 
0 
0 
0 
0 
0 
0 
0 
0 
0 
0 
0 
0 
0 
0 
0 
0 
0 
0 
0 
0 
0 
0 
0 
0 
0 
0 
0 
0 
0 
0 
0 
0 
0 
0 
0 
0 
0 
0 
0 
0 
0 
0 
0 
0 
0 
0 
0 
0 
0 
0 
0 
0 
0 
0 
0 
0 
0 
-1.437207311190847 
0 
0 
0 
0 
0 
0 
0 
0 
0 
0 
0 
0 
0 
0 
0 
0 
0 
0 
0 
0 
0 
0 
0 
0 
0 
0 
0 
0 
0 
0 
0 
0 
0 
3.310592813823184 
0 
0 
0 
0 
0 
0 
0 
0 
0 
0 
0 
0 
0 
0 
0 
0 
0 
0 
0 
0 
0 
0 
0 
0 
0 
0 
0 
0 
0 
0 
0 
0 
0 
-0.1088116595308737 
0 
0 
0 
0 
0 
0 
0 
0 
0 
0 
0 
0 
0 
0 
0 
0 
0 
0 
0 
0 
0 
0 
0 
0 
0 
0 
0 
0 
0 
0 
0 
0 
0 
0 
0 
0 
0 
0 
0 
0 
0 
0 
0 
0 
0 
0 
0 
0 
0 
0 
0 
0 
0 
0 
0 
0 
0 
0 
0 
0 
0 
0 
0 
0 
0 
0 
0 
0 
0 
0 
0 
0 
0 
0 
0 
0 
0 
0 
0 
0 
0.8161376334597513 
0 
0 
-0.2070863147134161 
0 
0 
0 
0 
0 
0 
0 
0 
0 
0 
0 
0 
0.2313948369965128 
0 
0 
0 
0 
0 
0 
0 
0 
0 
0 
0 
0.08774313412277077 
0 
0 
0 
0 
0 
0 
0 
0 
0 
0 
0 
0 
0 
0 
0 
0 
0 
0 
0 
0 
0 
0 
0 
0 
0 
0 
0 
0 
0 
0 
0 
-0.3692760810199121 
0 
0 
0 
0 
0 
0 
0 
0 
0 
0 
0 
0 
0 
0 
0 
0 
-0.2215674845187098 
0 
0 
0 
-1.434983568652194 
0 
0 
0 
0 
0 
0 
0 
0 
0 
0 
0 
0 
0 
0 
0 
0 
0 
0 
0 
0 
0 
0 
0 
0 
0 
0 
0.471809062328749 
0 
0 
0 
0 
3.672643788075788 
0 
0 
0 
0 
0 
0 
0 
0 
0 
0 
0 
0 
0 
0 
0 
0 
0 
0 
0 
0 
0 
0 
0 
0 
0 
0 
0 
0 
0 
0 
0 
0 
0 
0 
0 
0 
0 
0 
0 
0 
0 
-0.1159232075454752 
0 
0 
0 
0 
0 
-1.958163090138121 
0 
0 
0 
0 
0 
0 
0 
0 
0 
0 
0 
0 
0 
0 
0 
0 
0 
0 
0 
0 
0 
0 
0 
0 
0 
0 
0 
0 
0 
0 
0 
-1.42877995239255 
0 
0 
0 
0 
0 
0 
0 
-0.580170364516637 
0 
0 
0 
0 
0 
0 
0 
0 
0 
0 
0 
0 
0 
0 
0 
0 
0 
0 
0 
0 
0 
0 
0 
0 
0 
0 
0 
0 
0 
0 
0 
0 
0 
0 
0 
0 
0 
-0.0399396958408956 
0 
0 
0 
0 
0 
0 
0 
0 
0 
0 
0 
0 
0 
1.431023996569256 
0 
0 
0 
0 
0 
0 
0 
0 
0 
0 
0 
0 
0 
0 
0 
0 
0 
0 
0 
0 
0 
0 
0 
0 
0 
0 
0 
0 
0 
0 
0 
0 
-0.2053746225638395 
0 
0 
0 
0 
0 
0 
0 
0 
0 
0 
0 
0 
0 
0 
0 
0 
0 
0 
0 
0 
0 
0 
0 
0 
0 
0 
0 
0 
0 
0 
0 
0 
0 
0 
0 
0 
0 
0 
0 
0 
0 
0 
0 
0 
0 
0 
0 
0 
0 
0 
0 
0 
0 
0 
0 
0 
0 
0 
0 
0 
0 
0 
0 
0 
0 
0 
0 
0 
0 
0 
0 
0 
0 
0 
0 
0 
0 
0 
0 
0 
0 
0 
0.444819077372454 
0 
0 
0 
0 
0 
0 
0 
0 
-2.595816204842331 
0 
0 
0 
0 
0 
0 
0 
0 
0 
0.7928845627163735 
-2.551094883168603 
0 
0 
0 
0 
0 
0 
0 
0 
0 
0 
-0.9433232666073419 
0 
0 
0.9409263017512409 
0 
0 
0 
0 
0 
1.260311619067531 
0 
0 
0 
0 
0 
0 
0 
0 
0 
0 
0 
0 
0 
0 
0 
0 
1.060634388116122 
0 
0 
0 
0 
0 
0 
0 
0 
0 
0 
5.945448304831803 
-1.876551355634957 
0 
0 
0 
0 
0 
0 
0 
0 
0 
0 
0.3565626263621662 
0 
0 
0 
0 
0 
-0.3414609011057219 
-0.1114436022558519 
0 
0 
0 
0 
0 
0 
0 
0 
0 
0 
0 
0 
0 
0 
0 
0 
0 
0 
0 
0 
0 
0 
0.1247561577337887 
0 
0 
0 
0 
0 
0 
0 
0 
0 
0 
0 
0 
0 
0 
0 
0 
0 
0 
0 
0 
0 
0 
0 
0 
0 
0 
0 
0 
0 
0 
0 
0 
0 
0 
0 
0 
0 
0 
0 
0 
0 
0 
0 
0 
0 
0 
0 
0 
0 
0 
0 
0 
0 
0 
0 
0 
0 
0 
0 
0 
0 
0 
0 
0 
0 
0 
0 
0 
0 
0 
0 
0 
0 
0 
0 
0 
0 
0 
0 
0 
0 
0 
0 
0 
0 
0 
0 
0 
0 
0 
0 
0 
0 
0 
0 
0 
0 
0 
0 
0 
0 
0 
0 
0 
0 
0 
0 
0 
0 
0 
0 
0 
0 
0 
0 
0 
0 
0 
0 
0 
0 
0 
0 
0 
0 
0 
0 
0 
0 
0 
0 
0 
0 
0 
0 
0 
0 
0 
0 
0 
0 
0 
0 
0 
0 
0 
0 
0 
0 
0 
0 
0 
0 
0 
0 
0 
0 
0 
0 
0 
0 
0 
0 
0 
0 
0 
0 
0 
0 
0 
0 
0 
0 
0 
0 
0 
0 
0 
0 
0 
0 
0 
0 
0 
0 
0 
0 
0 
1.113268607337087 
0 
0 
0 
0 
0 
0 
1.758438059676945 
0 
0 
0 
0 
0 
0 
0 
0 
0 
0 
0 
0 
0 
0 
0 
0 
0 
0 
0 
-1.208987000704262 
0 
0 
0 
0 
0 
0 
0 
0 
-5.84580341315761 
0 
0 
0 
0 
0 
0 
0 
0 
0 
0 
0 
0 
0 
0 
0 
0 
0 
0 
0 
0 
0 
0 
0 
0 
0 
0 
0 
0 
0 
0 
0 
0 
0 
0 
0 
0 
0 
0 
0 
0 
0 
0 
0 
0 
0 
0 
0 
0 
0 
0 
0 
0 
0 
0 
0 
0 
0 
0 
0 
0 
0 
0 
0 
0 
0 
0 
0 
0 
0 
0 
0 
0 
0 
0 
0 
0 
0 
0 
0 
0 
0 
0 
0 
0 
0 
0 
0 
0 
0 
0 
0 
0 
0 
0 
0 
0 
0 
0 
0 
0 
0 
0 
0 
0 
0 
0 
0 
0 
0 
0 
0 
0 
0 
0 
0 
0 
0 
0 
0 
0 
0 
0 
0 
0 
0 
0 
0 
0 
0 
0 
0 
0 
0 
0 
0 
0 
0 
0 
0 
0 
0 
0 
0 
0 
0 
0 
0 
0 
0 
0 
0 
0 
0 
0 
0 
0 
0 
0 
0 
0 
0 
0 
0 
0 
0 
0 
0 
0 
0 
0 
0 
0 
0 
0 
0 
0 
0 
0 
0 
0 
0 
0 
0 
0 
0 
0 
0 
0 
0 
0 
0 
0 
0 
0 
0 
0 
0 
0 
0 
0 
0 
0 
0.3262901606807735 
0 
0 
0 
0 
0 
0 
0 
0 
0 
0 
0 
0 
0 
0 
0 
0 
0 
0 
0 
0.1113830321105502 
0 
0 
0 
0 
0 
0 
0 
-1.45648959090982 
0 
0 
0 
0 
0 
0 
0 
0 
0 
0 
0 
0 
-2.219729810246007 
0 
0 
0 
0 
0 
-0.02118930173511724 
0 
0 
0 
0 
0 
0 
0 
0 
0 
0 
0 
0 
0 
0 
0 
0 
0 
0 
0 
0 
0 
0 
0 
0 
0 
0 
0 
0 
0 
0 
0 
1.693199971805456 
0 
0 
0 
0 
0 
0 
0 
0 
0 
0 
0 
0 
0 
0 
0 
0 
0 
0 
0 
0 
0 
0 
0 
0 
0 
0 
0 
0 
0 
0 
0 
0 
0 
0 
0 
0 
0 
0 
0 
0 
0 
0 
0 
0 
0 
0 
0 
0 
0 
0 
0 
0 
0 
0 
0 
0 
0 
0 
0 
0 
0 
0 
0 
0 
0 
0 
0 
0 
0 
0 
0 
0 
0 
0 
0 
0 
0 
0 
0 
0 
0 
0 
0 
0 
0 
0 
0 
0 
0 
0 
0 
0 
0 
0 
0 
0 
0 
0 
0 
0 
0 
0 
0 
0 
0 
0 
0 
0 
0 
0 
0 
0 
0 
0 
0 
0 
0 
0 
0 
0 
0 
0 
0 
0 
0 
0 
0 
0 
0 
0 
0 
0 
0 
0 
0 
0 
0 
0 
0 
0 
-0.3795822862551243 
0 
0 
0 
0 
0 
0 
0 
0 
0 
0 
0 
0 
0 
0 
0 
0 
0 
0 
0 
0 
0 
0 
0 
0 
0 
0 
0 
0 
0 
0 
0 
0 
0 
0 
0 
0 
0 
0 
0 
0 
0 
0 
0 
0 
0 
0 
0 
0 
0 
0 
0 
0 
0 
0 
0 
0 
0 
0 
0 
0 
0 
0 
0 
0 
0 
0 
0 
0 
0 
0 
0 
0 
0 
0 
0 
0 
0 
0 
0 
0 
0 
0 
0 
0 
0 
0 
0 
0 
0 
0 
0 
0 
0 
0 
0 
0 
0 
0 
0 
0 
0 
0 
0 
0 
0 
0 
0 
0 
0 
0 
0 
0 
0 
0 
0 
0.009369133590123329 
0 
0 
0 
0 
0 
0 
0 
0 
0 
0 
0 
0 
0 
0 
0 
0 
0 
0 
0 
0 
0 
0 
0 
0 
0 
0 
0 
0 
0 
0 
0 
0 
0 
0 
0 
0 
0 
0 
0 
0 
0 
2.453813703437755 
0 
0 
0 
0 
0 
0 
0 
0 
0 
0 
0 
0 
0 
0 
0 
0 
0 
0 
0 
0.2329483538994435 
0 
0 
0 
0 
0 
0 
0 
0 
0 
0 
0 
0 
0 
0 
0 
0 
0 
0 
0 
0 
0 
0 
0 
0 
0 
0 
0 
0 
0 
0 
0 
0 
0 
0 
0 
0 
0 
0 
0 
0 
0 
0 
0 
0 
0 
0 
0 
0 
0 
0 
0 
0 
0 
0 
0 
0 
0 
0 
0 
0 
0 
0 
0 
0 
0 
0 
0 
0 
0 
-2.213022475145646 
0 
0 
0 
0 
0 
0 
0 
0 
0 
0 
0 
0 
0 
0 
0 
0 
0 
0 
0 
0 
0 
0 
0 
0 
0 
0 
0 
0 
0 
0 
0 
0 
0 
0 
0 
0 
0 
0 
0 
0 
0 
0 
0 
0 
0 
0 
0 
0 
0 
0 
0 
0 
0 
0 
0 
0 
0 
0 
0 
0 
0 
0 
0 
0 
0 
0 
0 
0 
0 
0 
0 
0 
0 
0 
0 
0 
0 
0 
0 
0 
0 
0 
0 
0 
0 
0 
0 
0 
0 
0 
0 
0 
0 
0 
0 
0 
0 
0 
0 
0 
0 
0 
0 
0 
0 
0 
0 
0 
0 
0 
0 
0 
0 
0 
0 
0 
0 
0 
0 
0 
0 
0 
0 
0 
0 
0 
0 
0 
0 
0.1001695786544627 
0 
0 
0 
0 
0 
0 
0 
0 
0 
0 
0 
0 
0 
0 
0 
0 
0 
0 
-5.441416899671218 
0 
0 
0 
0 
0 
0 
0 
-0.6172976411736577 
0 
0 
0 
0 
0 
0 
0 
0 
0 
1.496837938284319 
0 
0 
0 
0 
0 
0 
0 
0 
0 
0 
0 
0 
0 
0 
0 
0 
0 
0 
0 
0 
0 
0 
0 
0 
0 
0 
0 
-0.6142493909796728 
0 
0 
0 
0 
0 
0 
0 
0 
0 
0 
0 
0 
0 
0 
0 
0 
0 
0 
0 
0 
0 
0 
0 
0 
0 
0 
0 
0 
0 
0 
0 
0 
-1.12621671027218 
0 
0 
0 
0 
0 
0 
0 
0 
0 
0 
0 
0 
0 
0 
0 
0 
0 
0 
0 
0 
0 
0 
0 
0 
0 
0 
0 
0 
0 
0 
0 
0 
0 
0 
0 
0 
0 
0 
0 
0 
0 
0 
0 
0 
0 
0 
0 
0 
0 
0 
0 
0 
0 
0 
0 
0 
0 
0 
0 
0 
0 
0 
0 
0 
2.1652822749345 
0 
0 
0 
0 
0 
0 
0 
0 
0 
0 
0 
0 
0 
0 
0 
0 
0 
0 
0 
0 
0 
0 
0 
0 
0 
0 
0 
0 
0 
0 
0 
0 
0 
0 
0 
0 
0 
0 
0 
0 
0 
0 
0 
0 
0 
0 
0 
0 
0 
0 
0 
0 
0 
0 
0 
0 
0 
0 
0 
0 
0 
0 
0 
0 
0 
0 
0 
0 
0 
0 
0 
0 
0 
0 
0 
0 
0 
0 
0 
0 
0 
0 
0 
0 
0 
0 
0 
0 
0 
0 
0 
0 
0 
0 
0 
0 
0 
0 
0 
0 
0 
0 
0 
0 
0 
0 
0 
0 
0 
0 
0 
-0.7689576421781604 
0 
0 
0 
0 
0 
0 
0 
0 
0 
0 
0 
0 
0 
0 
0 
0 
0 
0 
0 
0 
0 
0 
0 
0 
0 
0 
0 
0 
0 
0 
0 
0 
0 
0 
0 
0 
0 
0 
0 
0 
0 
0 
0 
0 
0 
0 
0 
0 
0 
0 
0 
0 
0 
0 
0 
0 
0 
0 
0 
-1.26461615146913 
0 
0 
0 
0 
0 
0 
0 
0 
0 
0 
0 
0 
0 
0 
0 
0 
0 
0 
0 
0 
0 
0 
0 
0 
0 
0 
0 
0 
1.922506614515325 
0 
0 
0.9407764793098907 
0 
0 
0 
0 
0 
0 
0 
0 
0 
0 
0 
0 
0 
0 
0 
0 
0 
0 
0 
0 
0 
0 
0 
0 
0 
0 
0 
0 
0 
0 
0 
0 
0 
0 
0 
0 
0 
0 
0 
0 
0 
0 
0 
0 
0 
0 
0 
0 
0 
0 
0 
0 
0 
0 
0 
0 
0 
0 
0 
0 
0 
0 
0 
0 
0 
0 
0 
0 
0 
0 
0 
0 
0 
0 
0 
-2.590832971778562 
0 
0 
0 
0 
0 
0 
0 
0 
0 
0 
0 
0 
0 
0 
0 
0 
0 
0 
0 
0 
0 
0 
0 
0 
0 
0 
0 
0 
0 
0 
0 
0 
0 
0 
0 
0 
0 
0 
0 
0 
0 
0 
0 
0 
0 
0 
0 
0 
0 
0 
0 
0 
0 
0 
0 
0 
0 
0 
0 
0 
0 
0 
0 
0 
0 
0 
0 
0 
0 
0 
0 
0 
0 
0 
0 
0 
0 
0 
0 
0 
0 
0 
0 
0 
0 
0 
0 
0 
0 
0 
0 
0 
0 
0 
0 
0 
0 
0 
0 
0 
0 
0 
0 
0 
0 
0 
0 
0 
0 
0 
0 
0 
0 
0 
0 
0 
0 
0 
0 
0 
0 
0 
0 
0 
0 
-1.160092263460431 
0 
0 
0 
0 
0 
0 
0 
0 
0 
0 
0 
0 
0 
0 
0 
0 
0 
0 
0 
0 
-0.08629838100361437 
0 
0 
0 
0 
0 
0 
0 
0 
0 
0 
0 
0 
0 
0 
0 
0 
0 
0 
0 
0 
0 
0 
0 
0 
0 
0 
0 
0 
0 
0 
0 
0 
0 
0 
0 
0 
0 
0 
0 
0 
0 
0 
0 
0 
0 
0 
0 
0 
0 
0 
0 
0 
0 
0 
0 
0 
0 
0 
0 
0 
0 
0 
0 
0 
0 
0 
0 
0 
0 
0 
0 
0 
0 
0 
0 
0 
0 
0 
0 
0 
0 
0 
0 
0 
0 
0 
0 
0 
0 
0 
0 
0 
0 
0 
0 
0 
0 
0 
0 
0 
0 
0 
0 
0 
0 
0 
0 
0 
0 
0 
0 
0 
0 
0 
0 
0 
0 
0 
0 
0 
0 
0 
0 
0 
0 
0 
0 
0 
0 
0 
0 
0 
0 
0 
0 
0 
0 
0 
0 
0 
0 
0 
0 
0 
0 
0 
0 
0 
0 
0 
0 
0 
0 
0 
0 
0 
0 
0 
0 
0 
0 
0 
0 
0 
0 
0 
0 
0 
0 
0 
0 
0 
0 
0 
0 
0 
0 
0 
0 
0 
0 
0 
0 
0 
0 
0 
0 
0 
0 
0 
0 
0 
0 
0 
0 
0 
0 
0 
0 
0 
0 
0 
0 
0 
0 
0 
0 
0 
0 
0 
0 
0 
0 
0 
0 
0 
0 
0 
0 
0 
0 
0 
0 
0 
0 
0 
0 
0 
0 
0 
0 
0 
-1.892869548836707 
0 
0 
0 
0 
0 
0 
0 
0 
0 
0 
0 
0 
0 
0 
0 
0 
0 
0 
0 
0 
0 
0 
0 
0 
0 
0 
0 
0 
0 
0 
0 
0 
0 
0 
0 
0 
0 
0 
0 
0 
0 
0 
0 
0 
0 
0 
0 
0 
0 
0 
0 
0 
0 
0 
0 
0 
0 
0 
0 
0 
0 
0 
0 
0 
0 
0 
0 
0 
0 
0 
0 
0 
0 
0 
0 
0 
0 
0 
0 
0 
0 
0 
0 
0 
0 
0 
0 
0 
0 
0 
0 
0 
0 
0 
0 
0 
0 
0 
0 
0 
0 
0 
0 
0 
0 
0 
0 
0 
0 
0 
0 
0 
0 
0 
0 
0 
0 
0 
0 
0 
0 
0 
0 
0 
0 
0 
0 
0 
0 
0 
0 
0 
0 
0 
0 
0 
0 
0 
0 
0 
0 
0 
0 
0 
0 
0 
0 
0 
0 
0 
0 
0 
0 
0 
0 
0 
0 
0 
0 
0 
0 
0 
0 
0 
0 
0 
0 
0 
0 
0 
0 
0 
0 
0 
0 
0 
0 
0 
0 
0 
0 
0 
0 
0 
0 
0 
0 
0 
0 
0 
0 
0 
0 
0.448086506983452 
0 
0 
0 
0 
0 
0 
0 
0 
0 
0 
0 
0 
0 
0 
0 
0 
0 
0 
0 
0 
0 
0 
0 
0 
0 
0 
0 
0 
0 
0 
0 
0 
0 
0 
0 
0 
0 
0 
0 
0 
0 
0 
0 
0 
0 
0 
0 
0 
0 
0 
0 
0 
0 
0 
0 
0 
0 
0 
0 
0 
0 
0 
0 
0 
0 
0 
0 
0 
0 
0 
0 
0 
0 
0 
0 
0 
0 
0 
0 
0 
0 
0 
0 
0 
0 
0 
0 
0 
0 
0 
0 
0 
0 
0 
0 
0 
0 
0 
0 
0 
0 
0 
0 
0 
0 
0 
0 
0 
0 
0 
0 
0 
0 
0 
0 
0 
0 
0 
0 
0 
0 
0 
0 
0 
0 
0 
0 
0 
0 
0 
0 
0 
0 
0 
0 
0 
0 
0 
0 
0 
0 
0 
0 
0 
0 
0 
0 
0 
0 
0 
0 
0 
0 
0 
0 
0 
0 
0 
0 
0 
0 
0 
0 
0 
0 
0 
0 
0 
0 
0 
0 
0 
0 
0 
0 
0 
0 
0 
0 
0 
0 
0 
0 
0 
0 
0 
0 
0 
0 
0 
0 
0 
0 
0 
0 
0 
0 
0 
0 
0 
0 
0 
0 
0 
0 
0 
0 
0 
0 
0 
0 
0 
0 
0 
0 
0 
0 
0 
0 
0 
0 
0 
0 
0 
0 
0 
0 
0 
0 
0 
0 
0 
0 
0 
0 
0 
0 
0 
0 
0 
0 
0 
0 
0 
0 
0 
0 
0 
0 
0 
0 
0 
0 
0 
0 
0 
0 
0 
0 
0 
0 
0 
0 
0 
0 
0 
0 
0 
0 
0 
0 
0 
0 
0 
0 
0 
0 
0 
0 
0 
0 
0 
0 
0 
0 
0 
0 
0 
0 
0 
0 
0 
0 
0 
0 
0 
0 
0 
0 
0 
0 
0 
0 
0 
0 
0 
0 
0 
0 
0 
0 
0 
0 
0 
0 
0 
0 
0 
0 
0 
0 
0 
0 
0 
0 
0 
0 
0 
0 
0 
0 
0 
0 
0 
0 
0 
0 
0 
0 
0 
0 
0 
0 
0 
0 
0 
0 
0 
0 
0 
0 
0 
0 
0 
0 
0 
0 
0 
0 
0 
0 
0 
0 
0 
0 
0 
0 
0 
0 
0 
0 
0 
0 
0 
0 
0 
0 
0 
0 
0 
0 
0 
0 
0 
0 
0 
0 
0 
0 
0 
0 
0 
0 
0 
0 
0 
0 
0 
0 
0 
0 
0 
0 
0 
0 
0 
0 
0 
0 
0 
0 
0 
0 
0 
0 
0 
0 
0 
0 
0 
0 
0 
0 
0 
0 
0 
0 
0 
0 
0 
0 
0 
0 
0 
0 
0 
0 
0 
0 
0 
0 
0 
0 
0 
0 
0 
0 
0 
0 
0 
0 
0 
0 
0 
0 
0 
0 
0 
0 
0 
0 
0 
0 
0 
0 
0 
0 
0 
0 
0 
0 
0 
0 
0 
0 
0 
0 
0 
0 
0 
0 
0 
0 
0 
0 
0 
0 
0 
0 
0 
0 
0 
0 
0 
0 
0 
0 
0 
0 
0 
0 
0 
0 
0 
0 
0 
0 
0 
0 
0 
0 
0 
0 
0 
0 
0 
0 
0 
0 
0 
0 
0.5254641605875968 
0 
0 
0 
0 
0 
0 
0 
0 
0 
0 
0 
0 
0 
0 
0 
0 
0 
0 
0 
0 
0 
0 
0 
0 
0 
0 
0 
0 
0 
0 
0 
0 
0 
0 
0 
0 
0 
0 
0 
0 
0 
0 
0 
0 
0 
0 
0 
0 
0 
0 
0 
0 
0 
0 
0 
0 
0 
0 
0 
0 
0 
0 
0.1139390784638911 
0 
0 
0 
0 
0 
0 
0 
0 
0 
0 
0 
0 
0 
0 
0 
0 
-0.9027073058064694 
0 
0 
0 
0 
0 
0 
0 
0 
0 
0 
0 
0 
0 
0 
0 
0 
0 
0 
0 
0 
0 
0 
0 
0 
0 
0 
0 
0 
0 
0 
0 
0 
0 
0 
0 
0 
0 
0 
0 
0 
0 
0 
0 
0 
0 
0 
0 
0 
0 
0 
0 
0 
0 
0 
0 
0 
0 
0 
0 
0 
0 
0 
0 
0 
0 
0 
0 
0 
0 
0 
0 
0 
0 
0 
0 
0 
0 
0 
0 
0 
0 
0 
0 
0 
0 
0 
0 
0 
0 
0 
0 
0 
0 
0 
0 
0 
0 
0 
0 
0 
0 
0 
0 
0 
0 
0 
0 
0 
0 
0 
0 
0 
0 
0 
0 
0 
0 
0 
0 
0 
0 
0 
0 
0 
0 
0 
0 
0 
0 
0 
0 
0 
0 
0 
0 
0 
0 
0 
0 
0 
0 
0 
0 
0 
-0.288978973514675 
0 
0 
0 
0 
0 
0 
0 
0 
0 
0 
0 
0 
0 
0 
0 
0 
0 
0 
0 
0 
0 
0 
0 
0 
0 
0 
0 
0 
0 
0 
0 
0 
0 
0 
0 
0 
0 
0 
0 
0 
0 
0 
0 
0 
0 
0 
0 
0 
0 
0 
0 
0 
0 
0 
0 
0 
0 
0 
0 
0 
0 
0 
0 
0 
0 
0 
0 
0 
0 
0 
0 
0 
0 
0 
0 
0 
0 
0 
0 
0 
0 
0 
0 
0 
0 
0 
0 
0 
0 
0 
0 
0 
0 
0 
0 
0 
0 
0 
0 
0 
0 
0 
0 
0 
0 
0 
0 
0 
0 
0 
0 
0 
0 
0 
0 
0 
0 
0 
0 
0 
0 
0 
0 
0 
0 
0 
0 
0 
0 
0 
0 
0 
0 
0 
0 
0 
0 
0 
0 
0 
0 
0 
0 
0 
0 
0 
0 
0 
0 
2.750343619065987 
0 
0 
0 
0 
0 
0 
0 
0 
0 
0 
0 
0 
0 
0 
0 
0 
0 
0 
0.1681744387530057 
0 
0 
0 
0 
0 
0 
0 
0 
0 
0 
0 
0 
0 
0 
0 
0 
0 
0 
0 
0 
0 
0 
0 
0 
0 
0 
0 
0 
0 
0 
0 
0 
0 
0 
0 
0 
1.861788002982707 
0 
0 
0 
0 
0 
0 
0 
0 
0 
0 
0 
0 
0 
0 
0 
0 
0 
0 
0 
0 
0 
0 
0 
0 
0 
0 
0 
0 
0 
0 
0 
0 
0 
0 
0 
0 
0 
0 
0 
0 
0 
0 
0 
0 
0 
0 
0 
0 
0 
0 
0 
0 
0 
0 
0 
0 
0 
0 
0 
0 
0 
0 
0 
0 
0 
0 
0 
0 
0 
0 
0 
0 
0 
0 
0 
0 
0 
0 
0 
0 
0 
0 
0 
-2.691024090225761 
-2.195141400880936 
0 
0 
0 
0 
0 
0 
0 
0 
0 
0 
0 
0 
0 
0 
0 
0 
0 
0 
0 
0 
0 
0 
0 
0 
0 
0 
0 
0 
0 
0 
0 
0 
0 
0 
0 
0 
0 
0 
0 
0 
0 
0 
0 
0 
0 
0 
0 
0 
0 
0 
0 
0 
0 
0 
0 
0 
0 
0 
0 
0 
0 
0 
0 
0 
0 
0 
0 
0 
-1.670752087869467 
0 
0 
0 
0 
0 
0 
0 
0 
0 
0 
0 
0 
0 
0 
0 
0 
0 
0 
0 
0 
0 
0 
0 
0 
0 
0 
0 
0 
0 
0 
0 
0 
0 
0 
0 
0 
0 
0 
0 
0 
0 
0 
0 
0 
0 
0 
0 
0 
0 
0 
0 
0 
0 
0 
0 
0 
0 
0 
0 
0 
0 
0 
0 
0 
0 
0 
0 
0 
0 
0 
0 
0 
0 
0 
0 
0 
0 
0 
0 
0 
0 
0 
0 
0 
0 
0 
0 
0 
0 
0 
0 
0 
0 
0 
0 
0 
0 
0 
0 
0 
0 
0 
0 
0 
0 
0 
0 
0 
0 
0 
0 
0 
0 
0 
0 
0 
0 
0 
0 
0 
0 
0 
0 
0 
0 
0 
0 
0 
0 
0 
0 
0 
0 
0 
0 
0 
0 
0 
0 
0 
0 
0 
0 
0 
0 
0 
0 
0 
0 
0 
0 
0 
0 
0 
0 
0 
0 
0 
0 
0 
0 
0 
0 
0 
0 
0.7786018893553567 
0 
0 
0 
0 
0 
0 
0 
0 
0 
0 
0 
0 
0 
0 
0 
0 
0 
0 
0 
0 
0 
0 
0 
0 
0 
0 
0 
0 
0 
0 
0 
0 
0 
0 
0 
0 
0 
0 
0 
0 
0 
0 
0 
0 
0 
0 
0 
0 
0 
0 
0 
0 
0 
0 
0 
0 
0 
0 
0 
0 
0 
0 
0 
0 
0 
0 
0 
0 
0 
0 
0.4571363896515767 
0 
0 
0 
0 
0.3943880005720096 
0 
0 
0 
0 
0 
0 
0 
0 
0 
0 
0 
0 
0 
0 
0 
0 
0 
0 
0 
0 
0 
0 
0 
0 
0 
0 
0 
0 
0 
0 
0 
0 
0 
0 
0 
0 
0 
0 
0 
0 
0 
0 
0 
0 
0 
0 
0 
0 
0 
0 
0 
0 
0 
0 
0 
0 
0 
0 
0 
0 
0 
0 
0 
0 
0 
0 
0 
0 
0 
0 
0 
0 
0 
0 
0 
0 
0 
0 
0 
0 
0 
0 
0 
0 
0 
0 
0 
0 
0 
0 
0 
0 
0 
0 
0 
0 
0.5621181932638918 
0 
0 
0 
0 
0 
0 
0 
0 
0 
0 
0 
-0.02302995932183562 
0 
0 
0 
0 
0 
0 
0 
0 
0 
0 
0 
0 
0 
0 
0 
0 
0 
0 
0 
0 
0 
0 
0 
0 
0 
0 
0 
0 
0 
0 
0 
0 
0 
0 
0 
0 
0 
0 
0 
0 
0 
0 
-4.748154795873408 
0 
0 
0 
0 
0 
0 
0 
0 
0 
0 
0 
0 
0 
0 
0 
0 
0 
0 
0 
0 
0 
0 
0 
0 
0 
0 
0 
0 
0 
0 
0 
0 
-2.828137903094295 
0 
0 
0 
0 
0 
0 
0 
0 
0 
0 
