solver_type L1R_LR
nr_class 2
label 1 -1
nr_feature 98199
bias -1
w
-1.736586782284206 
0.4088705846428307 
0 
-1.364111177073732 
-1.060001205471225 
0 
0.7624608094300335 
0 
0 
-0.0001412171535770212 
1.952057595041748 
0 
0 
0 
0 
3.019392931593234 
1.082634559354491 
1.357385017285974 
1.275606169713783 
-0.2267983711675941 
0.9804192149714908 
0.621244250759567 
-0.4829197831663207 
0 
1.592320381923105 
0 
0 
0 
0 
0 
0.3366209207137177 
0 
0 
3.684660427826764 
0 
-0.6187332746020779 
-0.00835159727841908 
0 
0 
0 
0 
0 
-1.068778489586449 
0 
-0.02487594398022572 
-1.656684661300484 
0.4909341196555022 
0 
0 
-2.01259188597025 
0 
0 
-2.085507754049926 
-0.05400633051141464 
0 
0 
0 
0 
-0.4831680549756079 
0 
0 
-1.285306164533957 
1.280718939617172 
-1.628426765901699 
0 
-0.7791988176903869 
0 
0 
0.7963539602619757 
0.637399223303162 
0 
0.9524641680942457 
0.7211745179200927 
0 
0 
0 
-0.0426049664356307 
0 
0 
-0.2644767404951946 
0 
0.8514200467531222 
1.320906958918366 
0 
-1.037852719794003 
0 
-0.1680733973584041 
-2.22120653951541 
0 
0 
0 
-0.362776838048922 
1.311333690791817 
0 
0 
0 
0 
-0.2828255933213707 
0.08084211844014959 
-0.3260037918617791 
0 
0.1254199659049193 
0 
0 
0 
-0.7042419829115347 
-0.1702301866707494 
0 
-0.650300949375933 
-1.470076824626132 
0 
0 
0 
-0.03472259949550899 
0 
0 
0 
0 
0 
0 
0 
2.586785079968527 
0 
0 
1.273630630546055 
0 
-0.5889385518235412 
0 
0 
-0.5316987212604255 
2.201384111736881 
-0.5402784901530416 
-1.060174036239526 
-0.7844509991133799 
0 
0.4811602378824224 
0 
-1.535073289251153 
-0.4844430197487183 
0.241769839536964 
-1.820901516151373 
0 
0 
0.06049998843642794 
0.5323476277200621 
-0.137045070650565 
-1.312757502042281 
0 
-0.08742931167765422 
0 
0 
0 
0.1727528082581748 
0.4297343613944005 
0 
0 
0 
0 
0.7307049538073858 
-0.03213135120859766 
-1.388661940864045 
1.634532088815498 
0.6395799204473341 
0 
1.294435529137208 
0 
0 
0 
0.002836467839849807 
0 
0 
0 
0 
0 
0 
-2.226263453749944 
0.4893628660636922 
0 
1.823074488847499 
0 
0 
0 
0 
0 
-0.5548623621099786 
-0.489232310441543 
-0.5618443090142532 
0 
0 
0 
0 
0 
0 
0 
-0.2691723668475557 
0 
-0.7477244997697917 
0 
0 
0 
-0.9327031795306265 
-0.3308691833817439 
0 
0.7886947244507562 
0 
0 
0 
-0.4922658044011963 
0 
0 
-0.1944104989815242 
0 
0 
-0.9532270187487092 
0 
-1.16142527049882 
0 
0 
0.1085795138887549 
0 
-1.403908194832083 
0 
-0.09870728711730882 
0 
0 
0 
0 
0 
0 
0 
-0.1729846535111117 
-1.74378678923307 
0 
0 
-0.108674363120632 
-0.9082628861938477 
0 
0 
0 
0 
0 
0 
-0.06058045009429217 
0 
-1.257442163613506 
0 
0 
0 
0 
0 
0.8089921812488481 
0 
-1.687490486815965 
0 
0 
0 
0 
0 
0 
0 
0 
0 
1.57223902429263 
0 
0 
-0.4135272498143219 
0 
0 
0 
-1.172758377985221 
0 
0 
0 
0 
0 
0 
0 
0.8696904508441966 
-0.8992783290496024 
0 
0 
0 
0 
0 
0 
-1.300682711197858 
1.072178178678723 
0.3877197734884145 
0 
0.1949976828017616 
-2.17953870442337 
0 
0 
-1.107605733597087 
0 
0 
0 
0.1345783527694295 
0 
0 
1.852989774628118 
0 
0 
0 
0 
0.5823901010937213 
0 
1.215823804140006 
0 
0.2703102637050741 
0 
0.2188728326184189 
0.9692697319712988 
0.3381160161963353 
0 
0 
0 
0 
0 
0 
0 
0.354522360380238 
1.745424313805174 
0 
-0.3422497782968406 
-0.932192973030788 
0.2979731199341322 
0 
-1.241016818682758 
0 
-0.3294995090378439 
0 
-1.206214159520934 
0 
0 
0 
-0.2062525691909605 
0 
0 
0 
-0.3243895430246189 
0 
0 
0 
0.6735320543353971 
0.2275666970466013 
0.085922891756819 
0 
0 
-0.09138020299679631 
0 
-1.332140373746615 
-0.03705535873043017 
0 
-0.8049803577362521 
0 
0 
0 
0 
0 
0 
-1.137268448495846 
0 
0 
0 
-1.375634004412712 
0 
0.4660990103672308 
0 
0 
-2.57248600027124 
0 
0 
-0.9209897221698232 
0.5407358123681348 
-2.067473643033855 
0 
0 
-1.276967163707192 
0.788322766591138 
1.200777133750861 
0 
0 
0.4299194300111965 
0.370968214649687 
0 
-1.182714830648064 
0 
0 
0 
-0.7553621804132374 
-0.1101390720733573 
-0.4394325337803857 
0.03483611394047002 
0 
0.3356245613195328 
0 
-0.873022887865252 
0 
0.4668882831616543 
0 
0 
0 
0 
-0.1257594273601617 
0 
-1.136492820046925 
0 
0.6518831288309501 
2.577632647543017 
0 
-1.45425227804174 
0 
0 
0 
0 
0 
0 
0 
0 
0 
-0.05939877052022846 
0 
0 
0 
0.08111448359968106 
0 
-3.461083731861766 
1.914045867967057 
-1.568723420962742 
0 
0 
0 
0 
0.7175740957335755 
0.8310840529546082 
0.5209547952118515 
-1.492314085318526 
0 
0 
0 
-1.226791346665539 
-1.741996141043629 
-0.5784893833950638 
0 
0.4129140682097407 
0 
0 
0.9738662222167765 
0.0006851584821423937 
-3.589927535092988 
0 
0 
-1.933051105289501 
0 
0 
-1.027247908856024 
-0.2105832603071071 
-0.3038629138475936 
-0.4304609610957118 
0 
-1.313519462194913 
0 
0 
0.1410612117998459 
-1.383566785522183 
-4.231063037401743 
0 
0 
0 
0 
0 
0 
0 
0 
0 
-1.01516620386851 
0 
0 
0 
0 
0 
0 
0 
0 
-1.469712226751946 
-0.6112704132815827 
0 
0 
1.323033801090765 
0 
0 
0 
0 
2.280279386448324 
0 
-0.6593896630333735 
-0.1063537871347189 
0 
0 
0 
0.1241978220294263 
0 
2.263989627444293 
0 
0 
0 
-3.562944573714224 
0 
0.4857510891539933 
0 
1.061839851305929 
-2.944104689572368 
0 
-0.05738523938831146 
2.514524988196356 
1.259150101584364 
0 
0 
0 
0 
0 
0 
0 
-0.1668076499699054 
-0.0285691584795334 
0 
-0.4777094039937386 
2.607058850639757 
0 
0 
-1.415797896404276 
0 
0 
-1.339739977463231 
0 
-2.290105773535886 
0 
0 
-0.1904033268436668 
0 
0 
0 
0 
0 
0.1129361662689403 
0 
0 
0 
0 
0 
0.5999853165665166 
0.1311377336673505 
1.600982647948567 
0.0415557057064724 
0.8539260480033308 
0 
0 
-0.8844586588479135 
0 
0 
0 
0 
0 
0 
0 
0 
0 
-2.489948754280308 
0 
0 
0 
-0.280933551294352 
0 
0 
0 
0 
0 
-0.4401146630158971 
0 
0 
0 
0 
-1.181553765536688 
0 
0 
0 
0 
-0.4019702062848179 
0 
0 
0 
0 
0.9296789201469388 
0 
0 
0.03311469195958013 
-0.07488553849438688 
-0.742809400368836 
0 
0 
0 
0 
1.395725463995333 
0 
0 
0 
0 
0 
0 
0 
0 
0 
0 
0 
0 
0 
-1.882031922815793 
0 
0 
-0.4782368871274022 
-0.4707784922476829 
0 
0 
0 
0 
0 
0 
0 
-0.9070083432068512 
1.85774505093384 
0 
0 
0 
-1.696617883728992 
0 
-0.6038122673709213 
-0.008050306874137618 
-0.494052790547659 
0 
0 
0 
0.8303922297008691 
0.7693208081002023 
0 
0 
1.134192201348337 
0 
-1.473945307125841 
0 
0 
0 
-1.425631741605622 
0 
0.2469260887239119 
0.2541218367996067 
0 
0 
0 
0 
0 
0 
-0.2445647898257277 
0 
-0.1066557698166252 
0 
-4.309033969775504 
-0.6058647479577719 
-0.6399206364397558 
0 
0 
-2.424254657883752 
0 
0 
0 
2.010312910176543 
-2.626126042530583 
-1.246194905691515 
0 
0 
0 
1.566752754886579 
0 
2.213675285992403 
0 
0 
0 
0 
-0.3012888290357144 
0 
0 
0 
0.05493399824367557 
0 
0 
0.05045739379569193 
0 
0 
0 
0 
0 
0 
0 
0 
0 
0 
0 
0 
0 
0 
-1.185266167896209 
0 
0 
2.740223643236146 
0 
0 
0 
-0.2434413703400995 
0 
0 
0 
0 
0 
0.4563937237703846 
0 
0 
0 
0 
0 
0 
0.6963527546399672 
1.828737688118954 
0 
0 
0 
0 
-3.218637598955259 
0 
0 
0 
0.2508553621285283 
0 
0 
0 
-0.6219355480006902 
0 
0 
0 
0 
0 
0 
0 
0 
1.821393412891013 
0 
0 
0 
-0.6279139228136085 
0 
0 
0 
0 
1.75034315440128 
0 
0 
0 
-1.262297675963573 
-0.2362138886086558 
0 
-2.893027505703931 
0 
0 
0 
0 
0 
0 
0 
0 
0 
0 
0 
0 
0 
-1.51104669117434 
0 
0 
0 
0 
2.887106765960967 
0 
0 
0 
0 
0 
0 
0 
0 
0 
0 
1.45315243008688 
2.259036949562689 
0 
0 
0 
0 
3.96519952655686 
0 
0 
0 
0 
-0.1425471979473368 
0 
-0.3849410822028982 
-1.09293766297104 
0 
0 
-0.2211739621163636 
0 
2.516228465629221 
0 
0 
0 
0 
0 
0 
0 
0 
0 
0 
0 
0 
-1.432606358071034 
0 
0 
0 
0 
0 
0 
0 
0 
0 
0 
0 
0 
0 
0 
0.2265948377257741 
0 
0.4098505296630284 
0 
0 
0 
0 
0 
0 
0 
0 
0 
0 
0 
0 
0 
-0.834120186502866 
0 
-0.2179020087655974 
0 
-1.324777056366623 
0 
0 
-1.625930997214146 
0 
-0.6874697891118814 
1.280341211354013 
-0.6796650076774708 
0 
0.0250881540006409 
-3.205424301856282 
0.5316115797196759 
0 
0 
0.03392908199793483 
0 
0 
0.2092554730564424 
0.3967091806826395 
-0.2736652671996083 
0.468293864958502 
0 
-0.1774896616659467 
0 
0 
0 
0 
0 
-1.355611007972463 
-3.821028024080241 
0 
0 
0 
0 
0 
0 
0 
-1.502270390915087 
0 
0 
0 
0.2540871935510145 
1.628926875059935 
0 
0 
0 
0 
0 
0 
0 
0 
0 
0 
-2.234014007356528 
-1.496840532304857 
0 
0 
0 
0 
0.3389914616062986 
0 
0.6909192782190705 
0 
-0.02835802548498359 
0 
0 
0 
0 
0 
0.1263261217188711 
0 
-0.182414481332724 
0 
0 
0 
0 
0 
0 
0 
0 
0 
0 
0 
0 
0 
0 
0 
0 
0 
0 
0.8009538701675967 
-0.8319903158456651 
-0.2445078497714689 
-0.02524787282562773 
0 
-0.306993373371319 
0 
0 
0 
0 
0 
0 
0 
0 
0 
0 
0.1672473670045256 
0 
0 
0 
0 
0.1735931037480413 
-0.01233467607236683 
0 
0 
0 
0 
2.896648701433972 
0 
0 
0 
0 
0 
0.37456494454751 
0 
0 
0 
-0.1233051565558581 
0.158932342257633 
0 
0 
0 
0 
0 
0 
0 
0.6427178124349494 
0 
0 
0 
0 
0.1407700927553378 
-2.177672905969263 
-0.9723747798061639 
-0.2850336745615031 
0.6092834303435047 
0 
0 
0.7845663498429588 
0 
2.191475160858721 
0 
0 
0 
0.0545486720013247 
2.189716549347668 
0 
0 
0 
0 
-0.2663665952003804 
-0.2289456428963984 
0 
0 
0 
0.3915182395096459 
0 
0 
1.826328806686764 
0.02776631140278229 
-0.1327532021150497 
0 
0 
-0.5039482362701221 
0 
-0.4680633460372126 
0 
-1.938246151381406 
0 
0.5893473324169319 
0 
0.2984416168670513 
0 
-0.7815308389431688 
0 
-1.053366028306038 
0.07387754144053088 
0 
0 
0 
0 
0 
0 
0 
0 
0 
0 
-1.142827402359165 
0 
0 
0 
-0.2317284752217236 
0 
0 
0 
-0.2710213880078211 
0 
1.319913428688383 
0 
0 
-1.467251519328215 
0 
0 
0 
0 
0 
-0.9745848610557895 
0 
0 
-2.477125463352261 
0 
0 
-0.9456788205446755 
0 
0 
0 
0 
-1.64337694419913 
-1.488343046384505 
0.3090097147647583 
0 
0 
0 
0 
0 
0 
-2.249056436055156 
0 
-0.2633840842787616 
0 
0 
0 
0 
0 
0.2816775416724521 
0 
0 
0.712403503005785 
0 
0 
0 
0.1248717760849519 
0 
-0.06633395975409902 
0 
0 
-2.345846139529151 
0 
-1.010473289761906 
0 
0 
0 
0 
0 
0 
0 
-0.03638325987546395 
0 
0 
0 
0.3877617819802929 
0 
0 
0 
0 
0 
0 
0 
-0.6669927133613673 
0.9513730333351308 
1.161238386412721 
0 
0 
0.1638001523815907 
0 
0 
0 
0 
0 
0 
0 
-2.221506397972285 
0 
-1.389657658685199 
0.8195253588936603 
0.1161108917912872 
0 
-4.103243930401627 
-2.892422746966013 
-1.864682032802605 
0 
0 
0 
0 
1.168861638896049 
0 
0 
0.07481565016348461 
-1.073278212123175 
0.3224361578806146 
0 
0 
0 
-0.9223301933463983 
-2.67655428301402 
0 
0 
0.9242708209040986 
0 
0 
0 
0 
0 
-1.884564733997109 
0 
1.200998836410748 
0 
0 
0 
0.7852034212313005 
0 
0 
0 
0 
0 
0 
0 
0 
0 
1.613854476536395 
-0.03557617846604206 
0 
0 
-1.15096986081193 
-1.10872131279374 
0 
0 
0 
0 
-1.305973834985859 
0 
0 
-0.4521079565090873 
0 
0 
0 
0 
0 
0 
0 
0 
0 
1.009693779340627 
0 
0 
0 
0.324101569248555 
0.4420707397635251 
0 
0 
0 
0 
0 
0 
0.4781229366659524 
0.8141173159825289 
0 
0 
0 
0 
0 
-2.991545737366306 
0 
0 
0.7140452666375788 
0 
1.775338875048742 
0 
-0.03983659772187409 
0 
0 
0 
0.4471775496010059 
0.1741398533987602 
0 
-3.641281415686269 
-3.825949865584134 
0.9689532771216703 
0 
0.08736522985886329 
0 
-1.916433609358703 
0 
-0.2859243152444629 
-0.8664596085246289 
0 
0 
0 
0 
-1.222092594437284 
1.703631729374816 
0 
0 
0 
0 
0 
0 
-4.328249667594789 
0 
0 
-0.8940513650072034 
0 
-1.708154144787383 
0.6235119413221884 
0 
-0.241974366315865 
0 
0 
0 
1.012154668888471 
0 
0 
0 
1.308650113447332 
1.88477384150308 
-0.2781246925457437 
0 
1.929407646612012 
0 
-1.403779660180745 
0.1091980899651207 
0 
0 
-5.59608249125117 
-0.6368408035760894 
-0.1458024596988038 
0 
-0.5151654547642726 
0 
-0.475890736447108 
0 
-0.7073296449265627 
-0.2809204239514244 
0 
0 
0 
0 
0 
0 
0 
0 
-2.204621057583951 
-2.106043590421842 
0 
0 
0 
0 
0 
-0.8746751222666845 
0.4878778256054402 
0 
0 
0 
-0.9334819482836413 
-0.4709768070151597 
-0.6472215611148455 
0 
0 
0 
0 
0 
1.241543914453493 
0 
0 
0 
0.8172223820911886 
0 
0 
0 
0 
0 
-1.409864908278533 
0 
0 
0 
0.6210018560798474 
0 
0.2737514043561041 
0 
0 
0 
1.129425737950356 
0.009694060722045933 
0.3957056831116737 
-0.7676673517699469 
0 
0 
0 
0 
-0.7831479512122209 
0 
0 
0 
0 
0 
0 
0 
0 
0.4594210031753314 
0 
0 
0 
0 
0 
0 
-2.055086013095985 
0 
0 
0 
0 
-2.81519300305552 
0.2064382053432246 
0 
0 
0 
-1.358622266994029 
0 
0 
0.4109057448834665 
-1.844171747275349 
1.36627108594046 
0 
-0.7174459143505543 
0 
0 
0 
0 
0 
0 
0 
0.8703606033533684 
0 
-0.5370843717599868 
-0.8855545001031375 
0.6882856604991989 
-2.641627937152108 
1.069825116990519 
0.2925138340848338 
0 
0 
0 
-0.5643586673235924 
0 
-0.05294727610214136 
0 
0 
0 
0 
0.2615234147783561 
0 
0 
0.7622071832594791 
-0.04454892738007404 
0 
0 
0 
-0.1305456435652515 
0.9186213472347777 
0.6108198047590261 
0 
0 
0 
0 
0 
0 
0 
0 
-0.8716600852870113 
0.2910487794108234 
0 
0 
-1.985610554437954 
0 
-0.3457847939110875 
0 
0.04050457399441818 
-1.533847044915154 
0 
0 
-1.463525716863797 
-1.634557696769633 
0 
0 
0 
0 
0.8198684725408629 
0 
0 
0 
0 
0 
0 
0 
0 
-0.5820175899395464 
0 
0 
-1.601102089122858 
0 
0 
0 
0 
-0.8172777826368123 
0 
0 
-0.649490720445976 
0 
-1.291639299468747 
0 
0.08511124400927829 
1.413191702434644 
0 
0 
0 
0.4289739052023948 
0 
0 
2.18164923650031 
0 
0 
0 
-0.4598806589022498 
-0.3376634932484587 
0 
0 
0 
0 
0 
0 
0 
0 
0 
-4.690930644834385 
0 
-0.1904940954748428 
-1.405009858431209 
0 
0 
0 
0 
0.5599153958940385 
0 
0 
0 
-1.437388879961052 
0 
0 
0 
-5.396297065533338 
-0.251592499753902 
0 
0 
0 
0 
0 
0 
0 
0 
0 
0 
0 
0 
0 
-0.4023765769519107 
0 
0 
-0.5510810800324512 
0 
0 
0 
-0.990246289418621 
0 
0 
0.3275590585049789 
0 
0 
0 
0 
0 
0 
0 
0 
0 
-0.01614346609483748 
0 
0 
0 
-0.6849372995925819 
-0.05180816422354576 
1.084933182562383 
-0.0259083684180296 
0 
0 
0 
0 
0 
-0.7237499346615794 
0 
0 
0 
0 
0 
0 
0 
-3.416962983376122 
-1.802840843118005 
0 
2.266812640875913 
0.1533852657214804 
0 
0 
-0.8277496069382618 
0 
-0.703807525480649 
0 
-0.1755089466448032 
0 
0 
0 
0 
0 
0 
0 
-2.151257579985043 
0 
0 
0 
0 
0 
0.3610982874960805 
0 
0 
0.8498888561148306 
0 
0 
0 
0.6836221432530072 
0 
0 
0 
1.083540512794666 
5.282775605241596 
0 
0 
0 
-0.5489331544783415 
1.340992876767269 
0 
0 
0 
0 
0 
-0.5507516221953395 
0 
1.003726340920003 
0 
0 
0 
0.6946470462474611 
0 
0 
-0.287194598309606 
0 
-0.3304026617355406 
0 
0 
0 
0.2559286569604529 
0.001173895290305516 
0 
0 
-0.34635760993208 
-0.7439975033137622 
0 
0 
0 
0 
0 
0.5259539675569103 
0 
0 
-1.887110421802511 
-1.372209280116231 
0 
0 
0 
0 
0 
-0.2042852014455953 
-1.740958510307702 
0 
0 
0 
0 
0 
0 
0 
0 
0 
0 
-2.918510439075198 
2.888278372302232 
0 
1.153502012389645 
1.736290608531693 
0 
0 
0 
0 
0 
0.1680019730608144 
-1.309837855679167 
-0.980864391329399 
0 
0 
0 
0 
0 
0 
0 
0 
0.8375900455528049 
0 
0 
0 
0 
0 
0 
0 
0 
0.458770201212265 
-0.2686402758202573 
0 
0 
-0.06103266447663194 
0 
0 
0 
-0.7819154479506676 
-1.486274122845892 
-1.171047445620497 
0 
0 
-0.02643401915324775 
0 
-0.4059675941692862 
0 
-0.9336333503112633 
0 
0 
0.7303119166551285 
0.4296055672552653 
0 
-0.4186602610914133 
0 
0 
0 
-2.014568045713901 
0 
0.7867035428459669 
0 
0 
0 
-1.300514300290322 
0 
0 
0 
0 
0 
0 
0 
0 
0 
0 
0 
0 
0.06881995567340384 
0 
0 
0 
0 
0 
-0.5738382008391707 
0 
0 
0.07584556548906336 
0 
0 
0 
0 
0 
0 
0 
0 
-1.048271012400622 
0 
0 
-1.424001029055384 
0 
0 
0 
0 
0 
0 
0 
0 
0 
0 
0 
-0.2574867321594943 
0 
0 
0 
0 
-1.288498159895684 
0 
0 
0 
0 
0 
0 
0 
0 
0 
0 
0 
0 
0 
0 
0 
0 
0 
-0.5835269141915933 
-2.204378619897299 
0 
0 
0 
0 
0 
0 
0 
0.624992763005619 
0 
0 
0 
0 
0 
0 
0 
0 
0.07993793503404409 
-1.599180550870408 
0 
0 
-1.347601282738378 
0 
0 
0 
0 
1.095496016060574 
0 
1.443948160206522 
0 
0 
0 
-0.8464231245784516 
0 
0 
0 
0 
0 
0 
0 
0 
0.06126371408225888 
0 
0 
0 
-0.7441650516164963 
1.21917594565809 
0 
0 
0 
0 
0 
3.243499641253357 
0 
0 
0 
0 
0 
0 
0 
0 
0 
0 
0 
0 
0 
0 
0 
0 
0 
0 
0 
0 
0 
-1.33486494435511 
0 
0 
0 
0 
0 
0 
5.955629041234347 
0 
0 
0 
0 
0 
0 
0 
0 
0 
0.3403860187806906 
-1.241965348408696 
0 
0 
0 
0 
0 
0 
-1.879220313362645 
0 
0 
0 
1.160992382063372 
0 
0.2586201914748745 
0 
0.3244243818835503 
-0.4932833076886257 
-0.9977663059290886 
1.163557570049705 
0 
0 
0 
0 
0 
0 
0 
-0.1049371228450508 
0 
0 
-1.235851855838756 
-0.1332749926481973 
0 
0 
0 
0 
-1.309947456587602 
0 
0 
-0.4788848270680323 
0 
0 
0 
0 
-0.3205330620206996 
-0.1478613378855946 
0 
0 
0 
0 
0 
0 
0 
-0.7331884353600305 
0 
0.6756879646872257 
0 
0 
3.70531978601358 
-2.612947371021889 
0 
0.5058144258019848 
0 
0.7678204796405481 
0 
0 
0 
-0.4974562710793707 
0 
0 
0 
-0.1166069281857023 
0.7649657074798855 
0 
0 
0 
0 
0 
0 
0 
0 
0 
0 
0 
0 
0 
0 
0 
0 
0.6521273003433006 
0 
0 
0 
0 
0 
-0.1568357282646369 
0 
0 
0.4090230369498247 
0 
0.8732323213901808 
0 
3.439805809562824 
-1.65373583609829 
0 
-3.064031365440812 
0 
-1.63773571181074 
-0.251496516188155 
0 
0 
0 
0 
-1.012817338124235 
0 
0 
-0.2748248782068753 
0 
0 
0 
-0.2685547267239377 
-1.776979573665249 
0 
0 
-0.1985089495320536 
0.2490775434081957 
-1.122299185687129 
-1.347183539850486 
0 
0 
0 
-2.539994988454045 
0 
0 
3.429397113621133 
0 
0 
0.854687064511566 
-0.8449280044906576 
0 
0 
0 
0.8241999409336026 
0 
0 
0 
0 
0 
-0.9339729351365808 
0 
-1.323786709660703 
0 
-3.233330799132152 
-0.3258446558923434 
0 
0 
-0.06980270647321589 
0 
0 
0 
0 
0 
0 
0 
-0.238855051411635 
0 
-0.2661493193206637 
0 
0 
0 
0.1847172534147173 
0 
0 
-1.980118731759102 
0 
0 
0 
-1.639684602264783 
0 
0 
0 
0 
0 
0 
0 
0 
0 
-0.1684026795794384 
0 
0 
0 
0 
-1.92095472186309 
0.07650369454414789 
0 
0 
1.336824235579542 
0 
0 
0 
0 
0 
0 
-2.211495782449287 
0 
0 
-0.4539893305243026 
0 
0 
0 
0 
0 
0 
0 
0 
0 
0.2561417674929608 
0 
0 
0 
-0.1563866883525007 
0 
0 
0 
-1.12190038943339 
0 
0 
0 
0 
1.228525014728183 
0 
0 
0 
0 
0 
-1.492583805976601 
0 
0 
-2.936646162269116 
-0.08859977708650432 
0 
0 
0 
0 
0 
-0.9665345342332967 
0 
0 
0 
0 
-3.650673344828495 
-0.06002527862877764 
0 
0.6265665077767181 
0 
0 
0 
0 
0 
0 
0 
0 
0.6353448689088659 
0 
-0.4058535105127832 
0 
-1.220147100019251 
0 
0 
0 
0 
-0.06386000349956351 
-1.103077715179823 
0 
0 
0 
-1.508504799761234 
0 
-0.3166019620236604 
0 
0 
0 
0 
0 
0 
0 
0 
0 
0 
0 
0 
0 
0 
-1.919004146083172 
-2.634013828194616 
0 
0 
0 
-0.6718243896679585 
0 
0 
0 
0 
0 
0 
0 
0 
0 
-2.205023907867893 
0 
0 
0 
0 
0 
0 
0 
-0.2802314513671729 
0 
0 
0 
0 
0 
0 
0 
-0.1304388831376765 
0 
0 
0 
0 
0 
0 
-0.607332598381002 
0.1665510228342163 
0 
-1.278223776282009 
0 
0 
0 
-0.7934733789696143 
0 
-3.372464688414828 
0 
-1.364802493759646 
0 
0 
0 
0 
-0.3194447952237859 
0 
0 
0 
0 
0 
0 
0 
0 
0 
0 
0 
0 
0 
0 
-0.1764859118396063 
0 
0 
-1.510193377813893 
0 
0 
0 
0 
0 
0 
0 
0 
0 
0 
0 
-0.5801230349561121 
0.6443903410411003 
0 
0 
0 
0 
0 
0 
0.3122974856525654 
0 
0 
0.125727069159336 
0 
-0.3830607183690725 
0 
0 
0 
0 
0 
0 
0 
1.960178235019171 
0 
0 
-0.101373145350967 
0 
0 
0 
-1.030857746490834 
0 
0 
0 
0 
0 
0 
0 
0 
0 
-0.4457351746103984 
0 
-0.7108789381704529 
0 
0 
0 
0.5183249661658358 
0 
0 
0 
0 
0 
0 
0 
0 
-2.989417978027797 
-1.054723370184566 
0 
0 
0 
0.4983056992887468 
0 
0.02324443694339898 
0 
0 
0 
-0.734693507057365 
0 
-1.073282627556747 
0 
0 
1.727698741450646 
0 
-1.350931987575794 
1.23821550751013 
0 
0 
0 
0 
0.2127956508130917 
0 
0 
0 
0 
2.95704252217773 
0 
0 
0 
0 
0 
0 
0 
0 
0 
0 
0 
0 
0.3190140390286216 
-0.1080530758441053 
-0.5921121917999805 
0 
0 
0 
0.9663884514906972 
0 
0 
1.040028863320443 
0 
0 
0 
0 
0 
-0.5511504535440391 
0 
0 
0 
0 
0 
0 
0 
0 
0 
0 
0 
0 
0 
0 
0 
0 
0 
0 
-0.4061203409013543 
-0.2035537184061414 
0 
0 
0 
0 
0 
2.775771431893773 
0 
0 
0 
-4.547839969805406 
0 
0 
0 
0 
0 
0 
0 
0 
0 
0 
0 
0 
0 
0 
0 
-1.512250197590453 
-1.809839532856019 
0 
0 
-1.1307719912944 
0.5994663165790054 
0 
0 
-0.8960023510703054 
0 
0 
0 
0 
0 
0 
0 
0 
0 
0 
0 
0 
-1.415844293094829 
0 
0 
0 
0 
0.09292077198128983 
0 
-0.4263373831773955 
0 
-0.8683211925741087 
0 
0 
0 
0.02100096373851689 
0 
0 
0 
0 
0 
0 
-0.1961399414921606 
0 
1.309092379021387 
0 
0 
0 
3.461241976955771 
0 
0 
0 
0 
0 
0 
0.7229640014440796 
0 
0 
0 
-1.378959868096926 
0 
-0.8316175988507556 
0 
0 
0 
-0.8468955557369418 
-1.858536552936864 
0.1399051678902165 
0 
-2.144996686429887 
0 
-0.6505544599836619 
0 
0 
0 
0 
0.00659890621492252 
0 
0 
0 
-0.2159376848054817 
0 
0.5382359308331547 
0 
0 
0 
0 
0 
-1.09752605092899 
0 
0 
0 
0 
0 
0 
0 
0 
0 
0 
-0.759988347480285 
0 
0 
0 
0 
0 
0 
0 
0 
0 
0 
1.254207332209081 
0 
0 
0 
0 
0 
0 
0 
0 
0 
1.041260245102398 
0 
0 
0 
0 
-0.05708272697710896 
0.2369751690949444 
0 
0 
0 
0 
0 
0 
0 
0 
0.3434564445304102 
0 
0.02053881073420224 
0 
0 
0 
0.3553197351237985 
0 
0 
0 
0 
-0.3366298088189522 
0 
0 
-1.613476482266923 
0 
0 
0 
0 
0 
0 
0 
-0.7565174157563348 
0 
0 
0 
0 
-1.446465668443378 
0 
-1.520302147504694 
-4.036266254408502 
0 
0 
0 
0 
0 
0 
-0.8071941668556778 
0 
0 
-1.137087589333784 
0 
0 
0 
0 
-1.823000419605247 
0 
1.124415898463056 
0 
0 
0 
0 
0 
0 
0 
0 
0 
0 
0 
0 
0 
0 
0 
0 
-0.6324822136005218 
0 
-0.3735687857581532 
0 
0 
0 
0 
0 
0 
0 
0.1743795465536253 
-1.350029423672835 
-1.017010087972899 
0 
0 
0 
0 
0 
-0.1992846627436355 
-0.3037600670815485 
0 
0.2316702325063823 
0 
2.445584804450719 
0 
0.1007169454564213 
0 
0.1941303496352357 
0 
0 
0 
0 
-0.4033057920574214 
0.05852762216842995 
-0.5954263148368026 
0 
0 
0 
0.9254734889237076 
0 
0 
0 
0 
0 
0 
0.4038200383712104 
0 
0 
0 
0 
0 
0 
-0.2287253435625831 
0 
-2.363806326648608 
0 
0 
0 
0 
0 
0 
0 
0 
0 
0 
0 
0.6061215401980339 
0.9222391572587045 
0 
0 
0 
0 
0 
0 
0 
0 
0 
0 
0 
-0.2297061061024022 
0 
0 
0 
-0.7581096713435885 
0 
-0.7382991489848685 
0 
0 
-0.161293513699446 
0 
0 
0 
0 
0 
0 
0 
0 
0 
0 
-0.7200779779702778 
0 
1.355737274929178 
0 
-0.3182840097736561 
0 
-0.5720923742054623 
0 
0 
0 
2.742492398931549 
0 
0 
5.36850187171356 
0 
0 
0 
0 
0 
0 
1.937373308027542 
0 
0 
0 
-1.430672433562243 
0 
0 
1.41710415813008 
-0.4153647234568398 
0 
0 
-0.187646282969881 
0 
0 
0 
0 
0.2945083587121468 
0 
0 
0 
0 
0 
0 
0 
0 
0 
0 
0 
0 
0 
0 
0 
-1.635938597764924 
0 
0 
-1.816882619246665 
0 
0 
0 
0 
0 
0 
0 
0 
0 
0 
0 
0 
0.4026700565043938 
0 
0 
0 
0 
-1.656927574902411 
0 
0 
0 
0 
0 
0 
0 
0 
0 
-0.05806586237817227 
-0.4801796143880375 
0 
0 
0 
0 
0 
0 
0 
0 
0 
-1.356290792917025 
0 
0 
0 
0 
0 
1.280715248554579 
0 
0 
0.8019125058509388 
0 
0 
0 
0 
0 
0.1573556424157801 
-0.3840202254091495 
0 
0 
-0.1525080539917618 
0 
-1.674535844466264 
0 
0 
0 
0.04385732031530194 
0 
-0.1031695447418142 
0 
-0.1941996001814113 
0 
0 
0 
0 
0 
0 
0 
0 
-0.9272868561636617 
0 
0 
0 
-0.3237070647854384 
0 
0 
-4.939028952004619 
0 
0 
0 
0 
-6.645996811965325 
-1.673617722017368 
-1.1198366248161 
0 
0 
0 
-0.4328939223301143 
-0.6396770288680088 
1.076188123017596 
-1.044216989624904 
0 
0 
-0.8793279126960661 
0 
0 
0 
0 
0.08832917139862169 
0 
0 
0 
0 
0 
1.127235811023867 
0 
1.568954492441899 
0 
0 
0 
0 
-0.2630901331315672 
0 
0 
0 
0 
0 
1.8947962081349 
0.7548661821383651 
0 
0 
-1.64088721269554 
0 
0 
0 
-0.2403936609341205 
0.4621132113947744 
0.4047721085874546 
-3.21004559780077 
-3.823588492346397 
0 
0 
0 
0 
-3.841535012312679 
0 
0 
0 
0 
0 
0 
0 
2.303662061054793 
0 
-1.981704243704097 
0 
0 
0 
-0.2224671371554188 
2.104412482608808 
0 
0 
0 
0 
0 
0 
0 
0 
0 
0.1355545011975887 
-0.5079753821342795 
1.86554098613447 
0 
0.3799260061460824 
0 
0.09229681774611248 
0 
0 
-0.5855770321566229 
0 
0 
-0.9884954811149569 
0 
0 
-0.6039273828759588 
-0.9536976506291132 
0.1326565561916566 
0 
0 
0 
0 
-2.017695534928701 
0 
0 
-2.381620608271087 
0 
0 
0 
0 
0 
0 
1.24602928356274 
0 
0 
0 
0 
0 
0 
0 
-0.5404496660796266 
-0.1985385688120077 
0 
0 
0.03446968542366895 
-0.2575526016012451 
0 
0 
0 
0 
0 
-4.908812277267159 
0 
0 
0 
0 
0 
0 
0 
0 
0.7941878300969861 
0 
0 
-0.2823433862498312 
1.522831659841441 
1.753723798887724 
0 
0 
0 
0 
0 
0 
0 
0 
0 
0 
0 
0 
0 
0 
0 
0 
0 
0.7132846480010374 
0.01629460919279689 
-0.1436117639029794 
0 
0.5277369998134752 
0 
0 
2.068916723592187 
0 
-1.439261636898543 
0.7591491649119563 
0 
0 
0 
0 
0 
0 
-2.098398275730628 
0 
1.390409809877023 
0 
-1.353326484529164 
0 
0 
0 
0 
0 
0 
0 
0 
1.7884634381957 
0 
0 
-0.2122561392084353 
0 
0 
0 
0 
0 
-0.6286290927838082 
-0.4814678785541785 
0 
0 
1.140832743351204 
0 
0 
0 
0 
0 
0 
0 
0 
0 
0 
0 
0 
0 
0 
0.1594630368307195 
0 
0 
0 
0 
0 
0 
0 
0 
-1.067913655936744 
0 
0 
-0.6502461801842362 
0 
0 
0 
0 
0 
0.4359500342146886 
0 
-3.587416914059484 
0 
0 
0 
0 
0 
0 
0 
0 
0 
0 
0 
0 
0 
0 
0 
0 
0 
0.1653235351870402 
0 
0 
0 
0 
0 
0 
0 
0 
0 
0 
0 
0.6311790675402437 
0 
0 
-0.6455289883349007 
0 
0 
0 
0 
0 
0 
0 
0 
0 
0 
0 
0 
-1.345699747602231 
0 
0 
0 
0 
0 
0 
0 
0 
0 
0 
0 
0 
0 
0 
0 
0 
0 
0 
0 
0 
0 
0 
0 
0 
0 
-2.58855213940682 
0 
0 
0 
0 
0 
1.588425940904181 
0 
0 
-0.104683928692591 
-0.6036515282694043 
-0.0251606142855814 
0.9022560363502367 
0 
0 
0 
0.1821403338525364 
0 
0 
0.1266953908434248 
0 
0 
0 
0 
-1.742649947256188 
0 
0 
0.1851574046589519 
0 
0 
0 
0 
0 
0 
0 
0.3616656218344743 
2.529576367923599 
0 
0 
0.3473018454546044 
0 
0.2719834638303252 
0 
0 
0 
0 
0 
0 
0 
0 
0 
1.15867692210875 
0 
0 
0 
0 
0 
0 
0 
0 
0 
0 
0.4411893408705749 
0 
0 
0 
-0.5233265329486455 
-2.002726697684208 
0 
0 
0 
-1.373588980802981 
-1.066429664876465 
0 
-0.9257332679986595 
0 
0 
0 
0 
0 
0 
0 
0 
0 
3.428542213998293 
0 
0 
0 
0 
0 
0 
-1.929567855040923 
-0.184619229657329 
0 
0 
-4.626721328403499 
0 
0 
0.1894188607488018 
1.481298908733115 
-0.1869696675249133 
0 
0 
-0.06333895094163698 
0 
0 
0.8917796546184552 
0 
0 
0 
2.229173417613068 
0 
0 
0 
0 
0 
0 
0 
0 
0 
0 
-0.3634979637244357 
0 
0 
0 
0 
0 
0 
0 
0 
0 
0 
0 
0 
0 
0 
-0.1984438511742788 
0 
0 
0 
0 
0 
0 
-0.474965375386411 
0 
0 
0 
0 
0 
-5.331629894823487 
0 
1.565065906859595 
-0.2862574228358437 
0 
0 
0 
0 
0 
0 
1.171500232490873 
0 
0 
0 
0 
0 
0 
0 
0 
0 
0 
0.2318716982647757 
-0.004336071838479022 
0 
-1.067203121271441 
0.0587190462214954 
-0.4024443075616404 
0 
0 
0 
-0.09719714961415761 
0 
0 
0 
0 
0 
0 
0 
-1.19002571146071 
-1.568828341620148 
0 
0 
0 
0 
0 
0.7031727046316532 
-0.1034737859968138 
0 
0 
0.06137162745881838 
0 
0 
0 
0 
-1.573318955033824 
0 
-0.07825903132872933 
0 
0 
0 
0 
0 
0 
0 
0 
0.3934650595847697 
1.439031863606506 
0 
0 
0 
1.617337128044147 
0 
0 
0 
0.09992791974233009 
0 
-0.7246657595507066 
0 
0 
0 
0 
0 
0.01646834287208636 
0 
0 
0.1752842559413821 
0 
-1.038866065021431 
0 
1.974542285851198 
-0.4313974287708637 
0 
0.8208467563191675 
0 
-1.768888485296104 
0 
-0.2714028147974231 
0 
0 
0 
0 
0 
-0.5002769134067309 
0 
-0.8264957925537956 
0 
-2.220553378944328 
0 
1.168607257049673 
0 
0 
0.01888401572762353 
0 
0 
0 
0 
0.6912232673112099 
-0.1806221413219262 
0 
0 
0 
0.7225377006497885 
0 
0 
0 
0 
0 
0 
0 
0 
-2.575101696839969 
0 
0 
0 
0 
0 
0 
0 
0 
0 
0 
0 
1.961803801418483 
0 
1.293948650062667 
0 
-0.7229747260018232 
0 
0 
0 
-2.091727885737305 
-0.6453961796386322 
0 
0 
0 
0 
0 
0 
0 
0 
0 
0 
0 
0 
-0.1539738734796772 
0 
0 
0 
0 
0 
0 
0.789077582110308 
0 
0 
0 
0 
0 
0 
0 
0.08240213944589038 
0 
0 
-2.677167564773804 
-1.141734864241687 
-1.142774150028888 
-0.8038791796961412 
0 
0 
0 
0 
0 
-2.077965622311592 
0 
0 
0 
0 
0 
0 
-1.677411042422191 
1.787686326225151 
0 
0 
0 
0 
0 
0 
0 
0 
0 
0 
0 
0 
0 
0 
0 
0 
0 
0 
0 
0 
0 
0 
0 
0 
0 
0 
0 
0 
0 
0 
0 
0 
0 
0 
0 
0 
0 
0 
0.08216878613522148 
0 
0 
0 
0 
0.1720022083114774 
0 
0 
0 
-1.235236172325692 
0 
0 
0 
-0.4596064989351297 
0 
0 
0 
1.837965271476372 
1.306783237832119 
0.0519348740032487 
-0.1795372396270433 
0 
0 
0 
0 
2.26988564908444 
0 
0 
0 
0 
0.6164918327133229 
-1.096928841079534 
0 
0 
0 
0 
-1.921040233451435 
0 
0.01982659717359576 
0 
0 
0 
0 
0 
0 
0.6231847982172724 
0 
0 
0 
0 
0 
0 
0 
0 
0 
3.064684311959837 
0 
0 
0 
0 
0 
0 
0 
-0.7727003665511587 
0 
0 
0 
0 
0 
0 
0 
0 
-0.1395225763975729 
0 
0 
0 
0 
0 
0 
0 
0 
0 
0 
0 
0 
0 
0.3363640748682962 
0 
-0.2096156768465037 
0.4868129035851107 
0 
1.391011231149812 
0 
0 
0 
0 
0 
0 
-1.571787554513482 
0 
-0.309033079774193 
0 
0 
0 
0 
0 
0 
0 
0 
0 
-0.7743121749763431 
-0.2268589222760647 
0 
0 
0 
-0.06767157888050168 
0 
0 
0 
0 
-0.3944251061724505 
0 
0 
0 
0 
0.5809705874881258 
0 
0 
0.4294460609185403 
0 
0 
0 
0.03207918994830968 
0 
0 
0 
0 
0 
0 
0 
-2.181868154565755 
0 
0.6968220992871258 
0 
0 
0 
-2.075423287892172 
0 
0 
0 
0 
-0.4713227423954722 
0 
0 
0 
0 
0 
0 
0 
0 
0 
0 
0 
0 
0 
0 
0 
0 
-1.857634264519207 
0 
0 
0 
-1.112157569301437 
0 
0 
0 
0.867701092521311 
0.3606822594506046 
0.2076063140069278 
0 
0 
-0.4229721632660997 
0 
0 
-1.055601458731676 
0 
0 
0 
0 
-1.484422198072456 
0 
0 
0 
0 
0 
0 
-1.958629661916785 
0 
0.16872545424583 
0 
-1.522624310695574 
0 
0 
0 
-1.878480740016753 
0 
0 
0 
0 
-7.06710160236432 
-5.403302305369226 
0.4667360997863286 
0 
0 
0 
-0.6402833683340684 
0 
-0.3711441293051858 
0 
0 
1.457911585271051 
0 
0 
0 
-0.5809222622062447 
0 
0 
0 
0 
0 
0 
0 
0 
0 
0 
-1.160095614488096 
0 
0 
0 
0 
0 
-1.052885271698172 
0 
0 
0 
0 
0 
0 
0 
0 
0 
0 
0 
0 
0 
0 
0 
0 
0 
0 
0 
0 
0 
0 
0 
0 
0 
0 
0 
0 
0 
0 
0 
0 
0 
0 
0 
0 
0 
-0.1275570848798016 
-0.05352322085815033 
0 
0 
0 
0 
0 
0 
1.433805136556615 
0 
0 
0 
0 
0 
0 
0 
0.9343671017609738 
0 
0 
0 
0 
0 
0 
-0.5915240883686482 
0 
0 
0 
0 
0 
0 
0 
-0.4705540931466742 
0 
0 
0 
0 
0 
0 
0 
0 
0 
0.1670174643287138 
0 
0 
-0.2239494522777125 
1.581183960233645 
0 
0.3875216734769657 
0 
1.61146810546498 
0 
0 
0 
0 
0 
0 
0 
0 
-0.7438561689604704 
0 
0 
0 
0 
-1.783015352269781 
0 
1.053345849613574 
0 
0 
0 
0 
0 
0 
0 
2.106722939811434 
-0.395201333518178 
0 
-0.8890028719291661 
0 
0 
0 
0 
0 
0 
0 
0 
0 
0 
0 
0 
0 
0 
0 
0 
0 
0.5941024904108986 
0 
-0.6890757891292282 
0 
0 
0 
0 
-1.174157084069013 
0 
0 
0 
0 
1.149385743641466 
0 
0 
0 
0 
0 
0 
0 
0.06511680323532962 
0 
0 
0 
0 
0 
0 
0 
0 
3.414932104100306 
0 
0 
0 
0 
-0.306457055986431 
0 
0 
-1.146738840424418 
0 
0 
0 
-2.315029368206324 
0 
-0.8543528262104525 
0.1066470288828569 
0 
-1.730136394648679 
0 
0 
0 
0 
0 
0.5933140548084872 
0 
0 
-1.302585681253129 
0 
0 
0 
0 
0 
0 
0 
0 
0 
0 
0 
0 
0 
0 
0 
0 
1.004388979910099 
0 
0 
0 
0 
-2.187776934659912 
0.778287419255477 
0 
0 
0 
0 
0 
0 
0 
0 
0 
0 
0 
0 
0 
0 
0 
0 
13.20630115477097 
-0.4825861666070242 
0 
0 
0 
0 
0 
0 
0 
0 
0 
0 
0 
0 
0 
-1.126574725619528 
0 
0 
0 
-0.86503792377768 
0 
0 
0 
0 
0 
0 
0 
0 
0 
-0.8691941649145915 
0 
0 
0 
-1.799373506028024 
0 
0 
-1.799339362396911 
-0.8791130003632547 
0 
-0.1855575392763266 
0 
0 
1.127165830291588 
-1.427701633277253 
0 
0 
-0.379665592150463 
0 
0 
0 
-0.8804132842646379 
0 
-0.5532584612471495 
0 
0 
0 
0 
0 
0 
0 
0 
0 
0 
0 
0 
0.5368583180625761 
0 
0 
0 
0 
0 
0 
-0.3704865898198678 
0 
0 
0 
0 
0 
0 
0 
0 
0 
-0.3146711814207114 
0 
0 
0 
0 
0 
0 
0 
0 
0 
0 
0 
0 
-1.49104472161563 
0 
0 
0 
0.430267004318617 
0 
0 
0 
0 
0 
0 
0 
0 
0 
0 
0 
0 
0 
0 
0 
0 
0 
0 
0 
0 
0 
0 
0 
0 
0 
0 
0 
0 
0 
0 
0 
0 
0 
-1.310451159409361 
0 
0 
0 
0 
0 
0 
0 
0 
0 
0 
0 
0 
0 
-0.7382982397360985 
0 
0 
0 
0 
-0.6229092028418539 
0 
0 
0 
0 
0 
-1.286221340393928 
0 
-0.7934257038585045 
0 
0 
0 
-2.250517271556234 
0 
-0.759249868678557 
0 
0 
0 
0 
0 
0 
0 
0 
0 
0 
0 
0 
3.042339399718165 
0 
0 
0 
0 
0 
0 
0.2768443639371056 
0.6325320144633446 
0 
0 
0 
0 
0 
0 
0 
0 
0.1236632735056134 
0 
0 
-0.5071821508417788 
0 
0 
0 
0 
0 
-4.358287849719085 
0 
-3.200819555917088 
0.7774773788838864 
0 
0 
0 
0 
0 
0 
0 
0 
0 
-0.6683112652092748 
0 
0 
0 
0 
0 
0 
0 
0 
0 
0 
0 
-0.7611083183443888 
0 
0.1675594946404627 
0 
0 
-3.93775172208061 
0 
0 
0 
-1.730877885772956 
0 
-1.219916031691259 
0 
0 
0 
0 
0 
0 
0 
0 
0 
0 
-0.5434204167409863 
0 
0 
0 
0 
0 
0 
0 
0 
0 
0 
0 
0 
0 
-1.080326424368327 
0 
0 
-1.126587064251819 
0 
0 
0 
0 
0 
2.420959210978904 
0 
0 
0 
0 
0 
0 
0 
0 
0 
0 
0 
0 
-1.780649481361855 
0 
0 
0 
0 
0 
2.905617426674709 
0 
0 
0 
0 
0 
0 
0 
0 
0 
0 
0 
0.7840970615027687 
0 
0 
0 
0 
0 
0 
0 
0 
0 
0 
0 
-0.2660264429046689 
0 
0 
0 
0 
0 
0 
-1.186751035513993 
0 
0 
0 
0 
0 
0 
0 
0 
-0.139940849088164 
0 
-1.075900989460263 
0 
0 
0 
0 
0 
0 
0 
0 
0 
0 
0 
0 
0 
0 
0 
0 
0 
0 
0 
0 
0 
0 
0.3045971949032976 
0 
0 
0 
0 
0 
0 
0 
0 
0 
0 
0 
0 
0 
0 
0 
-1.074793897178414 
0 
0 
0 
0 
0 
0 
0 
0.3381506914432985 
0.5824578340998718 
0 
0 
0 
0 
0 
0 
0 
0 
0 
0 
0 
-0.6047796928245574 
0 
0 
0 
0 
0 
0 
0 
0 
0 
0 
0 
0 
0 
0 
0 
0 
0 
1.470910709843207 
0 
0 
0 
-0.2848919086351162 
0 
0 
0 
0 
0 
0 
0 
-2.206569558190448 
1.038835038507518 
0 
0 
0 
0 
0 
0 
0 
0 
0 
0 
0 
0 
0 
0 
0 
0 
0 
0 
0 
0 
0 
0 
0 
0 
0 
0 
0.5375766104982852 
0 
0 
0 
0 
0 
0 
0 
0 
0 
0 
0 
0 
-1.468171095990608 
0 
0 
0 
0 
0 
0 
0 
0 
0 
0 
0.8072270855381851 
0 
-0.8109846105517942 
0 
0 
0 
0 
0 
0 
0 
0 
0 
0 
0 
0 
0 
0 
0 
0 
0 
0 
0 
0 
0 
0 
0 
-1.94511789506695 
0 
0 
0 
0 
0 
0 
0 
0 
0 
0 
0 
0 
0 
0 
0 
0 
0 
-0.9459596615522686 
0 
0 
0 
-3.680911767203614 
0 
0 
0 
0 
-0.5181137499324606 
0 
0.7882420870551576 
0 
0 
0 
0 
-0.4352634476224326 
0 
0 
0 
0 
0 
0 
0 
0 
0 
0 
0 
0 
0 
-0.4087106137136669 
0 
0 
0 
0 
0 
0 
0 
0 
0 
0 
0 
0 
0 
-0.1849841122096129 
0 
0 
0 
0 
0 
0 
0 
0 
0 
0 
0 
0 
0 
0 
0 
0 
0 
0 
0 
0 
0 
0 
0 
0 
0 
0 
0 
0 
-0.5963912546047886 
0 
-1.038216728640696 
0 
0 
0 
0 
0.4346476925839609 
1.157418178964361 
0 
0 
0.08081790682324187 
0 
0 
0 
0 
0 
0 
0 
0 
0 
0 
0 
0 
0 
0 
0 
0 
0 
0 
0 
0 
0 
0 
0 
0 
0 
-3.752457390290223 
0 
-2.425943650189991 
0 
0 
0 
0 
0 
0 
0 
0 
0.251846378733133 
0 
0 
0 
0 
0 
0 
0 
0 
0 
1.154714992822816 
0 
0 
-0.6237029514172825 
0 
0 
0 
0 
0 
0 
0 
0 
0 
0 
0 
0 
0 
-0.09961430930359154 
0 
0 
0 
0 
0 
0 
0 
0 
0 
0 
0 
0 
0 
-1.595420185667241 
0 
0 
0 
-3.871122814919529 
0 
0 
0 
0 
0.1501226997513485 
0 
0 
0 
0 
0.1657794375822039 
0 
0 
0 
0 
0.6126367587613624 
0 
0 
0 
0 
0 
0 
0 
0 
-0.8359026619275484 
0 
0 
0 
0 
0 
0 
0 
0.9048886060307879 
0 
0 
-1.857459280102533 
0 
0 
0 
0 
0 
0 
-1.301919051479869 
0 
0 
0 
0 
0 
0 
-1.216084342707882 
0 
0 
0 
-0.6367053071957163 
-0.6467153383171987 
0 
0 
0 
0 
0 
0 
0 
0 
0 
0 
0 
0 
0 
0.3845507753543125 
0 
0 
0 
0 
0 
0 
0 
0.8852200599546081 
0 
0 
0 
0 
0 
0 
-1.095885566230393 
1.137002116865052 
0 
0 
0 
0 
0 
-1.558835759126616 
0 
0 
0 
0 
0 
0 
0 
0 
0 
0 
0 
0 
0 
0 
0 
0 
0 
0 
0 
-3.458068735657937 
0 
0 
0 
0 
0 
0 
0 
0 
0 
0 
-0.5251641691914106 
0 
0 
0 
0 
0 
0 
0 
0 
0 
0 
0 
0 
0 
0 
0 
0 
0 
0 
0 
0 
0 
0 
0 
0 
0 
0 
0 
0 
0.283002955550666 
0 
-0.1835870829388976 
0 
0 
0 
0 
0 
0 
0 
0 
0 
0 
0 
0 
0 
0 
0 
0 
0 
0 
0 
0 
0 
0 
0 
0 
0 
0 
0 
0 
0 
0 
0 
0 
-2.848388691581612 
0 
0 
0 
0 
0 
0 
0 
-0.3636161013094167 
0 
0 
-0.6387914250264593 
0 
-1.486103690602856 
0.1715759180905686 
0 
1.350134141962154 
0 
0 
0 
0 
0 
0 
0 
0 
0 
0 
-3.897245061123779 
0 
0 
0 
0 
0 
0 
0 
0 
0 
0 
0 
0 
0 
0 
0 
0 
0 
0 
0 
0 
0 
0 
-0.8452348508061245 
0 
0 
0 
0 
0 
0.5662031394756123 
0 
0 
0 
-2.467662558958851 
1.354455754299529 
0 
0 
0 
0 
0 
0 
0 
0 
-1.875308227197665 
0 
0 
0 
0 
0 
0 
0 
0 
0 
0 
0 
0 
0 
0 
0 
0 
0 
0 
0 
0 
0 
0 
0 
0 
0 
0 
0 
0 
0 
0 
0 
0 
0 
0 
0 
0 
-0.3967415282282253 
0 
0 
0 
0 
0 
0 
0 
0 
0 
0 
0 
0 
0 
0 
0 
0 
0 
0 
0 
0 
0 
-1.408494676067902 
0 
0 
-1.299699734921642 
0 
0.5705699695724887 
0 
-1.249685055807686 
0 
0 
0 
0 
0 
0 
0.674101449647781 
0 
0 
-0.8064457542160309 
1.709026056679011 
0 
0 
0 
0 
0 
0 
0 
0 
0 
-0.1350982153924213 
0 
0 
0 
0 
0 
0 
0 
0 
0 
0 
0 
0 
0 
0 
0 
0 
0 
0 
0 
0 
0 
-1.979840996060078 
0 
1.498893583761713 
0 
0 
0 
0 
-0.509274217644681 
0 
-0.7406218609324867 
0 
0 
0 
0 
0 
0 
0 
0 
0 
0 
0 
0 
0 
0 
0 
0 
-1.892922456182524 
0 
0 
0 
0 
0 
0 
1.539721458824183 
0 
0 
0 
0 
0 
0 
0 
0 
0 
0 
0 
0 
0 
0 
0 
0.3100170771299375 
-0.5699705158912674 
0 
0 
0.1336828087666841 
0 
0 
0 
0 
0 
0 
0 
0 
0 
0 
0 
0 
0.975894317897484 
0 
0 
0 
0 
0 
0 
0 
0 
0 
0 
0 
0 
0 
0 
0 
0 
0 
0 
0 
0 
0 
0 
0 
0 
0 
0 
0 
0.2417844861180709 
0 
0 
0 
0 
0 
0 
0 
0 
0 
0 
0 
0 
0 
0 
0 
0.1646924125055975 
0 
0 
0 
0 
0 
0 
0 
0 
0 
0 
0 
0 
0 
0 
0 
0 
0.01911532619772248 
0 
0 
0 
0 
0 
0 
0 
0 
0 
0 
0 
0 
0 
0 
-2.016652847921638 
0 
0 
0 
0 
0 
0 
0 
0 
0 
0 
0 
0 
0 
0 
0 
0 
0 
-1.140414078349717 
0 
0 
0 
0 
0 
0 
0 
0 
0 
0 
0 
0 
0 
-0.8040485038885534 
0 
0 
0 
0 
0 
0 
0 
0 
0 
0.7067081150684131 
0 
0 
0 
0 
0 
0 
0 
0 
0 
0 
0 
0.2031677617345954 
0 
0 
0 
0 
0 
0 
0 
0 
0 
0 
0 
0 
0 
0 
0 
0 
0 
0 
0 
0 
0 
0 
-1.373808062521849 
0 
0 
0 
0 
0 
0 
0 
0 
0 
0 
0 
1.335250491874229 
0.06397702220439791 
0 
-1.025147491828763 
0 
0 
0 
0 
0 
0 
0 
0 
0 
-0.6667961676131188 
0 
0 
0 
0 
0 
0 
1.700919354929245 
0 
0 
0 
0 
0 
0 
0 
0 
0 
0 
-1.33954148447642 
0 
0 
0 
0 
0 
0 
0 
0 
0 
0 
0 
0 
0 
-0.2421687971387464 
0 
0 
0 
0 
0 
-0.5773673228225293 
0 
0 
0 
0 
0 
0 
0 
0 
0 
0 
0 
0 
0 
0 
0 
0 
0 
0 
0 
0 
0 
0 
0 
0 
0 
0 
0 
0 
0 
0 
0 
-0.3361609049980618 
-0.1748290685690392 
0 
0 
0 
-1.259372780046824 
0 
0 
0 
0 
0 
0 
0 
0 
0 
0 
0 
0 
0 
0 
0 
0 
0 
0 
0 
0 
0 
0 
0 
0 
0 
0 
0 
0 
0 
0 
0 
0 
0 
0 
0 
0 
0 
-0.5726087440657437 
0 
0 
0 
0 
0 
0 
0 
0 
-0.5053095168838091 
0 
0 
0 
0 
0 
0 
0 
0 
0 
0 
0 
0 
0 
0 
0 
0 
0 
0 
0 
0 
0 
0 
0 
0 
0 
0 
0 
0 
0 
0 
0 
0 
0 
0 
0 
0 
0 
0 
0 
0 
0 
0 
0 
0 
0 
0 
0 
0 
0 
0 
0 
-0.9230332839630696 
0 
0 
0 
0 
0 
0 
0 
0 
0 
0 
0 
0 
0 
0 
0 
0 
0 
0 
0 
0 
0 
0 
0 
0 
0 
0 
0 
0 
-3.699363948477761 
-1.693592435811038 
0 
-1.230411922046784 
0 
0 
0 
0 
0 
0 
0 
0 
0 
0 
0 
0 
0 
0 
0 
0 
0 
0 
0 
0 
0 
0 
0 
-0.5623980977776435 
0 
0 
0 
0 
0 
0 
-1.759275404655074 
0 
0 
0 
0 
0 
0 
0 
0 
0 
0 
0 
0 
0 
0 
0 
0 
-1.24441952161543 
0 
-2.253580181469396 
0 
0 
0 
0 
0 
0.4821530234649737 
0 
0 
0 
0 
0 
0 
0 
0 
0 
0 
0 
0 
0 
-0.3302338319891844 
0 
0 
0 
0 
0.7128015211219595 
0 
0 
1.292094389929716 
0 
0 
0 
0 
0 
0 
0 
-0.513401232959763 
0 
0 
0 
0 
0 
0 
0 
0 
0 
0 
0 
0 
0 
0 
0 
0 
0 
-0.2285218533181348 
0 
0 
0 
0 
0 
0 
0 
0 
0 
0 
0 
0 
0 
0 
0 
0 
0 
0 
0 
0 
0 
0 
0 
0 
0 
0 
0 
0 
0 
0 
0 
0 
0 
0 
0 
0 
0 
0 
0 
0 
0 
0 
0 
0 
0 
0 
0 
0 
0 
0 
0 
0.6365532180623493 
-1.608544957758427 
-0.8758409856549205 
-0.5310517609809109 
0.09974571539016378 
0 
-0.2159503906201707 
-0.1990696700756722 
0 
0 
0 
0 
0 
0 
0 
0 
0 
0 
-2.707668153770499 
0 
0 
0 
0 
-0.9040924678326407 
0 
0 
0 
0 
0 
0 
0 
0 
0 
3.295607674805096 
0 
0 
0 
0 
0 
0 
0 
0 
0 
0 
0 
0 
1.689653269628489 
0 
0 
0 
1.951975656769144 
0 
0 
0 
0 
0 
0 
0 
0 
0 
0 
0 
0.3876508004753899 
0 
0 
0 
0 
0 
0 
0 
0 
0 
0 
0 
0 
0 
0 
0 
0 
0 
0 
0 
0 
0 
0 
-0.6904496928473118 
0.3396152460532896 
0 
0 
0 
0 
0 
0 
0 
-2.008030731282456 
0 
0 
0 
-2.051488027815792 
0 
0 
0 
0 
0 
0 
0 
-0.1210407846937579 
0 
0 
0 
0 
0 
0 
0 
0 
0 
0 
0 
0 
0 
2.42936218079454 
0 
0 
0 
0 
0 
0 
0 
0 
0 
0 
0.1434156321174039 
0 
0 
0 
0 
0 
0 
0 
0 
0 
0 
0 
0.4465642809157939 
0 
0 
0 
0 
0 
0 
0 
0 
0 
-1.339279088052126 
0 
0 
0 
0 
0 
0 
0 
0 
0 
0 
-4.466492004585659 
0 
0 
0 
0 
0 
-1.523043501495796 
0 
0 
0 
0.2388444582234746 
0 
0 
0 
0 
0 
0 
-0.6946915308921129 
0 
0 
0 
0 
0 
0 
0 
0 
0 
-2.495162921069198 
0 
0 
0.5627946192839506 
0 
0 
0 
0 
0 
0 
0 
0.004900879036329797 
0 
0 
0 
0 
0 
0 
-0.6691184751122066 
0 
0 
0 
0 
0 
0 
0 
0 
0.1308457003191045 
-1.973418164438136 
0 
0 
0 
0 
0 
0 
0 
0 
0 
0 
0 
0 
-3.276737767761475 
0 
0 
0 
-3.109049159734542 
-0.6004102161355568 
0 
0 
0 
0 
0 
0 
-0.5467030783700697 
0 
0 
0 
0 
0 
0 
0.886117542317743 
0 
0 
0 
0 
0 
0 
0 
0 
-0.747237828336688 
0 
0 
0 
0 
0 
0 
0 
-0.7566405752171441 
0 
0 
0 
0 
0 
-1.030029047398626 
0 
0 
0 
0 
0 
0 
0 
0 
0 
0 
0 
0 
0 
0 
0 
0 
0 
0 
0 
0 
0 
0 
0 
0 
0 
0 
0 
0 
0 
0 
0 
0 
0 
0 
0 
0 
0 
0 
0 
0 
0 
0 
0 
0 
0 
0 
-1.669487159178075 
-2.583526218573952 
0 
0 
0 
0 
-0.5030849669241213 
0 
0 
0 
0 
0 
0 
0 
0 
0 
0 
0 
0 
0 
0 
0 
0 
0 
0 
0 
0 
0 
0 
0 
0 
0 
0 
0 
0 
0 
0 
0 
0 
0 
0 
0 
0 
0 
-0.481010340863643 
0 
0 
0 
0 
0 
0 
0 
0 
0.9394122437856227 
0 
0 
0 
0 
0 
1.166715339777991 
1.075410949597425 
0 
0 
0 
-1.924352482711852 
0 
0 
0 
0 
0 
0 
0 
0.4803378939375984 
0 
0 
0 
0 
0 
0 
0 
0 
0 
0 
0 
0 
0 
0 
0 
0 
0 
0 
0 
0 
0 
0 
0 
0 
0 
0 
-0.1070040796437435 
0.05170549813471767 
0 
0 
0 
0 
0 
0 
0 
0 
0 
0 
0 
0 
0 
0 
0 
0 
-0.8097572658857123 
0 
0 
0 
0 
0 
0 
0 
0 
0 
0 
0 
0 
0 
0 
0 
0 
0 
0 
0 
0 
0 
0 
-1.781760328514129 
0 
0 
0 
0 
0 
0 
0 
0 
0 
0 
0 
0 
0 
0 
0 
0.1508853495884072 
0 
0 
0 
0 
0 
0 
0 
0 
0 
0 
0 
0 
0 
0 
0 
0 
2.058775280801116 
0 
0 
0.4306481176616813 
0 
-2.115454255384029 
0 
0 
0 
0 
0 
0 
0 
0 
0 
-1.987693829447083 
0 
0 
0 
0 
0 
0 
1.340159555751 
0 
0 
0 
0 
0 
0 
0 
-1.640665098760246 
0 
0 
0 
0 
-1.873571163381648 
0 
0 
0 
-0.5099789617313084 
0 
0 
0 
0 
0 
0 
0 
0 
0 
0 
0 
0 
0 
0 
0 
0 
0 
0 
0 
0 
0 
0 
0 
0 
0 
0 
0 
-0.3923674524521961 
0 
0 
0 
0 
0 
0 
-1.128197131092137 
0 
0 
0 
0 
0 
0 
0 
0 
0 
0 
0 
0 
0 
0 
0 
0 
0 
0 
0 
0 
-2.410016276877014 
0 
-2.357917806666571 
0 
0 
0 
0 
0 
0 
0 
0 
-3.785457986744452 
-1.271213499955175 
0 
0 
0.8106528793031106 
0 
0 
0 
0 
0 
0 
0 
0 
0 
-2.466796817584087 
0 
0 
0 
0 
0 
0 
0 
0 
0 
0 
0 
0 
0 
0 
0 
0 
0 
0 
0 
0 
0 
0 
0 
0 
0 
0 
0 
0 
-1.308827783713883 
0 
0 
-1.101699795715371 
0 
0 
0 
0 
0 
0 
0 
-0.1893598293691869 
0 
0 
0 
0 
0 
0 
0 
0 
0 
0 
0 
0 
0 
1.495537888453719 
0 
0 
0 
0 
0 
0 
0 
0 
0 
0 
0 
-2.666958426357199 
0 
0 
0 
0 
0 
0 
0 
0 
0 
0 
0 
0 
0 
0.1152101512494855 
0 
0 
0 
0 
0 
0 
0 
0 
0 
0 
0 
0 
-1.215369725910014 
0 
0 
0 
0 
0 
0 
0 
0 
0 
0 
0 
0 
0 
0 
0 
0 
0 
-1.150098540352257 
0 
0 
0 
0 
0 
0 
0 
0 
0 
0 
0 
0 
0 
0 
0 
0 
0 
0 
0 
0 
-6.182232772727463 
0 
0 
0 
0 
0.04334242822019308 
0 
0 
0 
0 
0 
0 
0 
0 
0 
0 
0 
0 
0 
0 
0 
0 
0 
0 
0 
-1.167663169974885 
0 
0 
0 
0 
0 
0.1362639889851968 
0 
0 
0 
0 
0 
0 
0 
0 
0 
0 
0 
0 
0 
0 
0 
0 
-0.4400957982910779 
0 
0 
0 
0 
0 
0 
0 
0 
0 
0 
0 
0 
0 
0 
0 
0 
0 
0 
0 
0 
0 
0 
6.068161514306674 
0 
0 
0 
0 
0 
0 
0 
0 
0 
0 
0 
0 
0 
0 
0 
0 
0 
0 
0 
0 
0 
0 
0 
0 
0 
0 
0 
0 
0 
0 
0 
0 
0 
0 
0 
-0.52232796378894 
0 
0 
0 
-0.3964333273208106 
0 
0 
0 
-2.016935459172631 
0 
0 
0 
0 
0 
0 
0 
0 
0 
0 
0 
0 
2.120504187492975 
0 
0 
0 
0 
1.67912746292299 
0 
0 
0 
0 
0 
0 
-1.461677679777477 
0 
0 
0 
0 
0 
0 
0 
0 
0 
0 
0 
0 
0 
0 
0 
0 
0 
0 
0 
-0.2345207370650024 
0 
0 
0 
0 
0 
0.7071670574658057 
0 
0 
0 
0 
0 
0 
0 
0 
0 
0 
0 
0 
0 
0 
0 
0 
0 
-0.01756985323941369 
0 
0 
0 
0 
0 
0 
0 
0 
0 
0 
0 
0 
0 
0 
0 
1.110169034507012 
0.4602533398251534 
0 
0 
1.580834935300521 
0 
0 
0 
0 
0 
0 
0 
0 
0 
0 
0 
0 
0 
0 
0 
0 
0 
0 
1.06296445009634 
0 
0 
0 
0 
0 
0 
0 
0 
0 
0 
0 
0 
0 
0 
0 
0 
0 
0 
0 
0 
0 
0 
0 
0 
1.276584307543669 
-2.076240306332678 
0 
0 
0 
0 
0 
0 
0 
0 
0 
0 
-0.4252964645873085 
0 
0 
0 
0.733184690049583 
0 
0 
0 
0 
0 
-0.819100519382298 
1.233759112625493 
0 
0 
0 
0 
0 
0 
0 
-0.7235350273576953 
0 
0 
0 
0 
0 
0 
0 
0 
-0.4256582688726971 
0 
0 
0 
0 
0 
0 
0 
0 
0 
0 
-0.6975642811658521 
0 
0 
0 
0 
0 
0 
0 
0 
0 
0 
0 
-2.118999093442966 
0 
0 
0 
0 
0 
0 
0 
0 
0 
0 
0 
-0.2179159512100969 
0 
-1.157785731661348 
0.3897601228577798 
0.5423004230709918 
0 
0 
0 
-0.02155503450575093 
-1.99699961999832 
0 
-1.30787563947 
-0.07692837649610973 
0 
0 
0 
0 
0 
0 
0 
0 
0 
0 
0 
0 
0 
0 
0 
0 
0 
0 
0 
0 
0.690365613773431 
0 
0 
0 
0 
0 
0 
0 
0 
0 
0 
0 
0 
0 
0 
0 
0 
0 
0 
0 
0 
0 
0 
0 
0 
0 
0 
0 
0 
0.9288433883186263 
0 
0 
-3.354197460987503 
0 
0 
0 
0 
-0.8563076803864327 
0 
0 
0 
0 
0 
0 
0 
0 
0.1643841248966086 
0 
0 
0 
0 
0 
0 
0 
0 
0 
0 
0 
0 
0 
0 
0 
0 
0 
-0.4419333556814248 
0 
0 
0 
0 
0 
0 
0 
0 
0 
0 
0 
0 
0 
-2.13561944201402 
0 
0 
0 
0 
-1.29139938855516 
0 
0 
0 
0 
0 
0 
0 
0 
0 
0 
0 
0 
0 
0 
0 
0 
0 
0 
0 
0 
0.640100721512373 
0 
0 
0 
0 
0 
0 
0 
0 
0 
-1.46505903611305 
0 
0 
0 
0 
0 
0 
0 
0 
0 
0 
-0.9135836309095178 
0 
0 
0 
0 
0 
0 
0 
0 
0 
0 
0 
0 
0 
0 
0 
0 
0 
0 
0 
0 
0 
0 
0 
0 
0 
0 
0 
0 
0 
0 
0 
0 
-0.8192830463862626 
0 
0 
0 
0 
0 
0 
0 
0 
0 
0 
0 
0 
0 
0 
0 
0 
0 
0 
0 
0 
0 
0 
0 
-0.597042003939804 
0 
0 
0 
0 
0 
0 
0 
0 
0 
0 
0 
0 
0 
0 
0 
0 
0 
0 
0 
0 
0 
0 
0 
0 
0 
0 
0 
0 
0 
0 
0 
0 
0 
0 
0 
0 
0 
0 
0 
0 
0 
0 
0 
0 
0 
0 
0 
0 
0 
0 
0 
0 
0 
0 
0 
0 
0 
0 
-1.789103295067484 
0 
0 
0 
0 
0 
0 
0 
-0.1443647239555363 
0 
2.137060951025801 
0 
0 
0 
0 
0 
0 
0 
0 
0 
0 
0 
0 
0 
0 
0 
0 
0 
0 
0 
1.282693760920391 
0 
0 
0 
0 
0 
0 
0 
0 
0 
0 
0 
0 
0 
0 
0 
0 
0 
0 
0 
0 
0 
0 
0 
0.2607347599042236 
0 
0 
0 
0 
0 
0 
0 
0 
0 
0 
0 
0 
0 
0 
0 
0 
0 
0 
0 
0 
0 
0 
0 
0 
0 
0 
0 
0 
0 
-1.932572475581347 
0 
0 
0 
-1.923814224412368 
0 
0 
0 
0 
0 
0 
0 
0 
0 
0 
0 
0 
-0.644963214988615 
0 
0 
0 
0 
-0.1903558895541476 
0 
0 
0 
0 
0 
0 
0 
0 
0 
-2.329465158846515 
0 
0 
1.435670462058382 
0 
-0.4379735891825402 
0 
0 
0 
0 
-3.569989855804019 
0 
0 
0 
0 
0 
-0.1103163130029059 
0 
0.3796362526610946 
0 
0 
0 
0 
0 
1.164681046505753 
0 
0 
0 
0 
0 
2.200160994245593 
0 
0 
0 
0 
0 
0 
0 
0 
0 
-0.8952984453247505 
0 
0 
0 
0 
0 
0 
0 
0 
0 
0 
0 
0 
0 
0 
0 
0 
0 
0 
0 
0 
0 
0 
0 
0 
0 
0 
0 
0 
0 
0 
0 
0 
0 
0 
0 
0 
0 
0 
0 
0 
0 
0 
0 
0 
0 
0 
0 
0 
0 
0 
0 
0 
0 
0 
0 
0 
0 
0 
0 
0 
0 
0 
0 
0 
0 
0 
0 
0 
-0.1207260480908768 
0 
0 
-1.158425772745663 
0 
0 
0 
0 
0 
0 
0 
0 
0 
0 
0 
0 
0 
0 
0 
0 
0 
0 
0 
0 
0 
0 
0 
0 
0 
0 
0 
0 
0 
0 
0 
0 
0 
0 
0 
0 
0 
0 
0 
0 
0 
0 
0 
0 
0 
0 
0 
0 
0 
0 
0 
0 
0 
0 
0 
0 
0 
0 
0 
0 
0 
0 
0 
0 
0 
0 
0 
0 
0 
0 
0 
0 
0 
0 
0 
0 
0 
0 
0 
0 
0 
0 
0 
0 
0 
-0.3810032960302155 
0 
-4.538748339103171 
2.917968090878186 
0 
0 
0 
0 
0 
0 
0 
0 
0 
0 
0 
0 
0 
0 
0 
0 
0 
0 
0 
0 
0 
-0.1119923912895664 
0 
0 
0 
0 
0 
0 
0 
0 
0 
0 
0 
0 
0 
0 
0 
0 
0 
0 
0 
0 
0 
0 
0 
0 
0 
0 
0 
0 
0 
0 
0 
0 
0 
0 
0 
0 
0 
0 
0 
0 
0 
0 
0 
0 
-2.323756406761081 
0 
0 
2.563648449971121 
0 
0 
-1.052123775016557 
0 
-1.017793549312508 
2.087481211707582 
0 
0 
0 
0 
0 
0 
0 
0 
0 
-0.1522604221031495 
0.5363408150132457 
0 
0 
0 
0 
0 
0 
0 
0 
0 
0 
0 
0 
0 
0 
0 
0 
0 
0 
0 
0 
0 
0 
0 
0 
-6.986023895461692 
0 
0 
0 
0 
0 
0 
0 
0 
0 
0 
0 
0 
0 
0 
-0.2954684046572966 
0 
0 
0 
0 
0 
0 
0 
0 
0 
0 
0 
0 
0 
0 
0 
0 
0 
0 
0 
0 
0 
0 
0 
0 
0 
0 
0 
0 
0 
0 
0 
0 
0 
0 
0 
0.1834071993412923 
0 
0 
0 
0 
0 
0 
0 
0 
0.1018938350550696 
0 
0 
0 
0 
0 
0 
0 
-0.1334558097316747 
0 
0 
0 
0 
0 
0 
0 
0 
0 
0 
0 
0 
0 
0 
0 
0 
0 
0 
0 
0 
0 
0 
0 
0 
0 
0 
0 
0 
0 
0 
0 
0 
0 
0 
0 
0 
0.08589605796939377 
0 
0 
0 
0 
-0.5359591145945926 
0 
0 
0 
0 
0 
0 
0 
0 
0 
0 
0 
0 
0 
0 
-0.4574161364502908 
0 
0 
0 
0 
0 
0 
0 
0 
0 
0 
0 
0 
0 
0 
0 
-0.1126238175375695 
0 
0 
0 
0 
0 
0 
-0.5206118598189753 
-2.660573009397391 
0 
0 
0 
0 
0 
0 
0 
0 
0 
0 
0 
0 
0 
0 
0 
0 
0.336620326012314 
0 
0 
0 
0 
0 
0 
0 
0 
0 
0 
0 
0 
0 
1.463530225550892 
0 
0 
0 
0 
0 
0 
0 
0 
0 
0 
0 
0 
0 
0 
0 
0 
0 
0 
0 
0 
0 
0 
-0.583310277198967 
1.758333208959942 
0 
0 
0 
0 
0 
0 
0 
0 
-0.4111136286176255 
0 
0 
0 
0 
0 
0 
0 
0 
-0.1483115860736944 
0 
0 
0 
0 
0 
0 
0 
0 
0 
0 
0 
0 
0 
0 
0 
0 
0 
0 
0 
0 
0 
0 
0 
0 
0 
0 
0 
0 
0 
0 
-2.00943363017276 
0 
0 
0 
0 
0 
0 
0 
0.802466308999936 
0 
0 
0 
0 
0 
0 
0 
0 
0 
0 
0 
0 
0 
0 
0 
0 
0 
0 
0 
0 
0 
0 
1.050328851049489 
0 
0 
0 
0 
0 
0 
0 
0 
0 
0 
0 
0 
0 
0 
0 
0 
0 
0 
0 
0 
0 
0 
0 
0 
0 
0 
0 
0 
0 
0 
0 
0 
0 
0 
0 
0 
0 
0 
0 
0 
0 
0 
0 
0 
0 
0 
0 
0 
-0.1803020509441807 
0 
0 
0 
0 
0 
-0.5482944867856149 
0 
0 
0 
0 
0 
0 
0 
0 
0 
0 
0 
0 
0 
0 
0 
0 
0 
0 
0 
0 
0 
0 
0 
0 
0 
0 
0 
0 
0 
0 
0 
0 
0 
0 
0 
0 
0 
0 
0 
0 
0 
0 
0 
0 
0 
0 
0 
0 
0 
0 
0 
-0.7290694781589738 
0 
0 
0 
0 
0 
0 
0 
0 
0 
0 
0 
-1.736430679639639 
0 
0 
0 
0 
0 
0 
0 
0 
0 
0 
0 
0 
0 
0 
0 
0 
0 
0 
0 
0 
0 
0 
0 
0 
0 
0 
0 
0 
0 
0 
0 
0 
0 
0 
0 
0 
0 
0 
0 
0 
0 
0 
0 
0 
0 
0 
0 
-0.7900281266553578 
0 
0 
0 
0 
0 
0 
0 
0 
0 
0 
0 
0 
0 
0 
-1.504989135092861 
0 
0 
0 
0 
0 
0 
0 
0 
0 
0 
0 
-0.2165038752516852 
0 
0 
0 
0 
0 
0 
0 
0 
0 
0 
0 
0 
0 
0 
0 
0 
0 
0 
0 
0 
0 
0 
0 
0 
0 
0 
0 
0 
0 
0 
0 
0 
0 
0 
0 
0 
0 
0 
0 
0 
0 
0 
0.5784024691511699 
0 
0 
0 
0 
0 
0 
0 
0 
0 
0 
0 
0 
0 
0 
0 
0 
0 
0 
0 
0 
0 
0 
0 
0 
0 
0 
0 
0 
0 
0 
0 
0 
0 
0 
0 
0 
0 
0 
0 
-0.9970464377010764 
0 
0 
0 
0 
0 
0 
0 
0 
0 
0 
0 
0 
0 
0 
0 
0 
0 
0 
0 
-0.5382474411318153 
0 
0 
0 
0 
0 
0 
0 
0 
0 
0 
0 
0 
0 
0 
0 
0 
0 
0 
0 
0 
0 
0 
-0.2933878504530822 
0 
0 
1.018375803867597 
0 
0 
0 
0 
0 
0 
-0.3251089280347972 
0 
0 
0 
0 
0 
0 
0 
0 
0 
0 
0 
0 
0 
0 
0 
0 
0 
0 
0 
0 
0 
0 
0 
0 
0 
0 
0 
0 
0 
0 
0 
0 
0 
0 
0 
0 
0 
0 
0 
0 
1.476751414845082 
0 
1.052834790721392 
0 
0 
0 
0 
-0.4141791415351591 
0 
0 
0 
0 
0 
0 
0 
0 
0 
0 
0 
0 
0 
0 
0 
0 
0 
0 
0 
0 
0 
-0.9979236744560869 
0 
0 
0 
0.8341140139375955 
0 
0 
0 
0 
0 
0 
0 
0 
0 
0 
0 
0 
0 
0 
0 
-0.09511737495811948 
2.815988589333673 
-0.01634448041028568 
0 
0 
0 
0 
0 
0 
0 
0 
0 
0 
0.3243325024850978 
0 
-2.840683760851263 
-0.3296199400965472 
0 
0 
0 
0 
0 
-0.8871614956284478 
0 
0 
0 
0 
0 
0 
0 
0 
0 
0 
0 
0 
0 
0 
-0.3661464861420414 
0 
0 
0 
0 
0 
0 
0 
0 
0 
0 
0 
0 
0 
0 
0 
0 
0 
0 
0 
0 
0 
0 
0 
0 
0 
0 
0 
0 
0 
0 
0 
0 
0 
0 
0 
0 
0 
0 
0 
0 
0 
0 
0 
0 
-0.6883217616377136 
0 
0 
0 
0 
0 
3.27855850195351 
0.9390909814292366 
0 
0 
0 
0 
0 
0 
0 
0 
0 
0 
0 
0 
0 
0 
0 
0 
0 
0 
0 
0 
0 
0 
0 
0 
0 
0 
0 
0 
0 
0 
0 
0 
0 
0 
0 
0 
0 
-1.02599294683312 
0 
0 
0 
0 
0 
0 
0 
0 
0 
0 
0 
0 
0 
0 
0 
0 
0 
0 
0 
0 
0 
1.794743774974189 
0 
0 
0 
0 
0 
0 
0 
-1.910138418596237 
0 
0 
0 
0 
0 
0 
0 
0 
0 
0 
0 
0 
0 
0 
0 
0 
0 
0 
0.1178313257186735 
0 
1.536291106696537 
0 
0 
0 
0 
0 
0 
0 
-1.021560239881217 
0 
0 
0 
0 
0 
0 
0 
0 
0 
0 
0.2778650104756461 
0 
0 
0 
0 
0 
0 
0 
0 
0 
0 
0 
0 
0 
0 
0 
0 
0 
0 
0 
0 
0 
0 
0 
0 
0 
0 
0 
0 
0 
0 
0 
0 
0 
0 
0 
0 
0 
0 
-0.08655513296494465 
0 
0 
0 
0 
0 
0 
0 
0 
0 
0 
0 
0 
0 
0 
0 
0 
0 
0 
0 
0 
0 
0 
0 
0 
0 
0 
0 
0 
0 
0 
0 
0 
0 
0 
0 
0 
0 
0 
0 
0 
0 
0 
2.658254241245728 
0.3871027005825559 
0 
0 
0 
0 
0 
0 
0 
0 
0 
0 
0 
0 
0 
0 
0 
0 
1.091020782122071 
0 
0 
0 
0 
0 
0 
0 
0 
0 
0 
0 
0 
0 
0 
0 
0 
0 
0 
0 
0 
0 
0 
0 
0 
0 
0 
0 
0 
0 
0 
0 
0 
0 
0 
0 
0 
0 
0 
0 
0 
0 
0 
0 
0 
0 
0 
0 
0 
0 
0 
0 
0 
0 
-0.009386767184206901 
0 
0 
1.14879817552277 
0 
0 
0 
0 
0 
0 
0 
0 
0 
0 
0 
0 
0 
0 
0 
0 
0 
0 
0 
0 
0 
0 
0 
0 
0 
0 
0 
0 
0 
0 
0 
0 
0 
0 
0 
0 
0 
0 
0 
0 
0 
0 
0 
0 
0 
0.289010589796171 
0 
-1.525247474274589 
0 
0 
0 
0 
0 
0 
0 
0 
0 
0 
0 
0 
0 
0 
0 
0 
0 
0 
0 
-2.970465747686635 
0 
0 
-0.3149639009520023 
0 
0 
0 
0 
-2.910340377776749 
0 
0 
0 
0 
0 
0 
0 
0 
1.625159444152863 
0 
0 
0 
0 
0 
0 
0 
0.01973200716340559 
0 
0 
0 
0 
0 
0 
0 
0 
0 
0 
0 
0 
0 
0 
0 
0 
0 
0 
0 
0 
0 
0 
0 
0 
0 
0 
0 
0 
0 
0 
0 
0.0619280958481105 
0 
0 
0 
-1.122189403198078 
0 
0 
0 
0 
0 
0 
0 
0 
0 
0 
0 
0 
0 
-0.7266457177789915 
0 
0 
0 
0 
0 
0 
0 
0 
0.8360357575045411 
0 
0 
0 
0 
0 
0 
0 
0 
0 
0 
0 
0 
0 
0 
0 
0 
0 
0 
0 
0 
0 
0 
0 
0 
0 
0 
0 
0 
0 
0 
0 
0 
0 
0 
0 
0 
0 
0 
0 
0 
0 
0 
0 
0 
0 
0 
0 
0 
0 
0 
0 
0 
0 
0 
0 
0 
0 
0 
0 
0 
0 
0 
0 
0 
0 
1.102884952634781 
0 
0 
0 
0 
0 
0 
0 
0 
0 
0 
0 
0 
0 
0 
0 
0 
0 
0 
0 
0 
0 
0 
0 
0 
0 
0 
0 
0 
0 
0 
0 
1.473701844744083 
0 
0 
0 
0 
0 
0 
0 
0 
0 
0 
0 
0 
0 
0 
0 
0 
0 
0 
0 
0 
0 
0 
0 
0 
0 
0 
0 
0 
0 
0 
0 
0 
0 
0 
0 
0 
0 
0 
0 
0 
0 
0 
0 
0 
0 
0 
0 
0 
0 
0 
0 
0 
0 
0 
0 
0 
0 
0 
0 
0 
0 
0 
0 
0 
0 
0 
0 
0 
0 
0 
0 
0 
0 
0 
0 
0 
0 
0 
0 
1.703477094699657 
0 
0 
0 
0 
0 
0 
0 
0 
0 
0 
0 
0 
0 
0 
0 
0 
0 
0 
0 
0 
0 
0 
0 
0 
0 
0 
0 
0 
0 
0 
0 
0 
0 
0 
0 
0 
0 
0 
0 
0 
0 
0 
0 
0 
0 
0 
0 
0 
0 
0 
0 
0 
0 
0 
0 
0 
0 
0 
0 
0 
0 
0 
2.647058725606109 
0 
0 
0 
0 
0 
0 
0 
1.444643535640591 
0 
0 
0 
0 
0 
0 
0 
0 
0 
0 
1.675354554873279 
0 
0 
0 
0 
0 
0 
0 
-2.593117532032006 
0 
0 
0 
0 
0 
0 
0 
0 
0 
0 
0 
0 
0 
0 
0 
0 
0 
0 
0 
0 
0 
0 
0 
0 
0 
0 
0 
0 
0 
0 
0 
0 
0 
0 
0 
0 
0 
0 
0 
0 
0 
0 
0 
0 
0 
0 
0 
0 
0 
0 
0 
0 
0 
0 
0 
0 
0.1250938704955054 
0 
-0.555602296313565 
0 
0 
0 
0 
0 
0 
0 
0 
0 
0 
0 
0 
0 
0 
0 
0 
0 
0 
0 
0 
0 
0 
0 
0 
0 
0 
0 
0 
0 
0 
0 
0 
0 
0 
0 
0.9273400233607314 
0 
0 
0 
0 
0 
0 
0 
0 
0 
0 
0 
0 
0 
0 
0 
0 
0 
0 
0 
0 
0 
0.761966076228691 
0 
0 
0 
0 
0 
0 
0 
0 
0 
0 
0 
0 
0 
0 
0 
0 
0 
0 
0 
0 
0 
0 
0 
0 
0 
0 
0 
0 
0 
0 
0 
0 
0 
0 
0 
0 
0 
0 
0 
0 
0 
0 
0 
0 
0 
0 
0 
0 
0 
0 
0 
0 
0 
0 
0 
0 
0 
0 
0 
0 
0 
0 
0 
-1.479356099607885 
0 
0 
0 
0 
0 
0 
0 
0 
0 
0 
0 
0 
0 
0 
0 
0 
0 
0 
0 
0 
0 
0 
0 
0 
0 
0 
0 
-0.03944513683296813 
0 
0 
0 
0 
0 
0 
0 
0 
0 
0 
0 
0 
0 
0 
0 
0 
0 
0 
0 
0 
0 
0 
0 
0 
-1.75130728048344 
0 
-0.2120607119596686 
0 
0 
-0.4737586717359035 
0 
0 
0 
0 
-1.555913686668069 
0 
0 
-0.4002482887046291 
0 
0 
0 
0 
0 
0 
0 
0 
0 
0 
0 
0 
0 
0 
0 
0 
0 
-2.505523011163456 
0 
0 
0.7709882504219534 
0 
0 
0 
0 
0 
0 
0 
0 
0 
0 
0 
0 
0 
0 
0 
0 
0 
0 
0 
0 
0 
0 
-0.343719258549765 
0 
0 
0 
0 
0 
2.495688780259347 
0 
0 
0 
0 
0 
0 
0 
0 
0 
0 
0 
0 
0 
0 
0 
0 
0 
0 
0 
0 
0 
0 
0 
0 
0 
0 
0 
0 
0 
0 
0 
0 
0 
0 
0 
0 
0 
-2.09457242621381 
0 
0 
0 
0 
0 
0 
0 
0 
0 
0 
0 
0 
0 
0 
0 
0 
0 
0 
0 
0 
0 
0 
0 
0 
0 
0 
0 
0 
0 
0 
0 
0 
0 
0 
0 
0 
0 
0 
0 
0 
0 
0 
0 
0 
0 
0 
0 
0 
0 
0 
0 
0 
0 
0 
0 
0 
0 
0 
0 
-0.03394363638935061 
0 
0 
0 
0 
0 
0.9609766405573108 
0 
0 
0 
0 
0 
0 
0 
-0.6070704392458082 
0 
0 
0 
0 
0 
0 
0 
0.1263933937865442 
0 
0 
0 
0 
0 
0 
0 
0 
0 
0 
0 
0 
0 
0 
0 
0 
0 
0.4941042506141744 
0 
0 
0 
0 
0 
0 
0 
0 
0 
0 
0 
0 
0 
0 
0 
0 
0 
0 
0 
0.3362186835868316 
0 
0 
0 
0 
0 
0 
0 
-2.055470386297265 
0 
0 
0 
0 
0 
0 
0 
0 
0 
0 
0 
0 
0 
0 
0 
0 
0 
0 
0 
0 
0 
0 
0 
0 
0 
0 
0 
0 
0 
0 
0 
0 
0 
0 
0 
0 
0 
0 
0 
0 
0.9672827416968236 
0 
0.3119966127916758 
0 
0 
0 
0 
0 
0 
0 
0 
0 
0 
0 
0 
0 
0 
0 
0 
0 
0 
0 
0 
2.540935980933061 
0 
-0.4558814376410448 
0 
0 
0 
0 
0 
0 
0 
0 
0 
0 
0 
0 
0 
0 
-1.826804385211384 
0 
0 
0 
0 
0 
0 
0 
0 
0 
0 
0 
0 
0 
0 
0 
0 
0 
0 
0 
0 
0 
0 
0 
0 
0 
0 
0 
0 
0 
0 
0 
0 
0 
0 
0 
0 
-0.04488899555624688 
0 
0 
0 
0 
0 
0 
0 
0 
0 
0 
1.606839546389879 
0 
0 
0 
0 
0 
0 
0 
0 
0 
0 
0 
0 
0 
0 
0 
0 
0 
0 
0 
0 
0 
0 
0 
0 
0 
0 
0 
0 
0 
0 
0 
0 
0 
0 
0 
0 
0 
0 
0 
0 
0 
0 
0 
0 
0 
0 
0 
0 
0 
0 
0 
0 
0 
0 
0 
0 
0 
0 
0 
0 
0 
0 
0 
0 
0 
0 
0 
0 
0 
0 
0 
0 
0 
0 
0 
0 
0 
0 
0 
0 
0 
0 
0 
0 
0 
0 
0 
-0.5700699531822598 
0 
0 
0 
0 
0 
0 
0 
0 
0 
0 
0 
0 
0 
0 
0 
0 
0 
0 
0 
0 
0 
0 
0.1787303942517541 
0 
0 
0 
0 
0 
0 
0 
0 
0 
0 
0 
0 
0 
0 
0 
0 
0 
0 
0 
0 
0 
0 
0 
0 
0 
0 
0 
0 
0 
0 
0 
0 
0 
-0.128809879423558 
0 
0 
0 
0 
0 
0 
0 
0 
0 
0 
0 
0 
0 
0 
0 
0 
0 
0 
0 
0 
0 
0 
-0.9896763205292154 
0 
0 
0 
0 
0 
0 
0 
0 
0 
0 
0 
0 
-0.4717124946010625 
0 
0 
0 
0 
0 
0 
0 
0 
-1.179252931115629 
0 
0 
0 
0 
0 
0 
0 
0 
0 
0 
0 
0 
0 
0 
0 
0 
0 
0 
0 
0 
0 
0 
0 
0 
0 
0 
0 
0 
0 
0 
0 
0 
0 
0 
0 
0 
0 
0 
0 
0 
0 
0 
0 
0 
0 
0 
0 
-0.976827070840062 
0 
0 
0 
0 
0 
0 
0 
0 
0 
0 
0 
0 
0 
0 
0 
0 
0 
0 
0 
0.3698798863635142 
0 
0 
0 
0 
0 
0 
0 
0 
0 
0 
0 
0 
0 
0 
0 
0 
0 
0 
0 
0 
0 
0 
0 
0 
0 
0 
0 
0 
0 
0 
0 
0 
0 
0 
0 
0 
0 
0 
0 
0 
0 
0 
0 
0 
0 
0 
0 
0 
0 
0 
0 
0 
0 
0 
0 
0 
0 
0 
0 
0 
0 
0 
0 
0 
0 
0 
0 
0 
0 
0 
0 
0 
0 
0 
0 
0 
0 
0 
0 
0 
0 
0 
0 
0 
0 
0 
0 
0 
0 
0 
0 
0 
0 
0 
0 
0 
0 
0 
0 
0 
0 
0 
0 
0 
0 
0 
0.05773963487063361 
0 
0 
0 
0 
0 
0 
0 
0 
0 
0 
0 
0 
0 
0 
0 
0 
0 
0 
0 
0 
0 
0 
0 
0 
0 
0 
0 
0 
0 
0 
0 
0 
0 
0 
0 
0 
0 
0 
0 
0 
0 
0 
0 
0 
0 
0 
0 
0 
0 
1.347046126792098 
0 
0 
0 
0 
0 
0 
0 
0 
0 
0 
0 
0 
0 
0 
0 
0 
0 
0 
0 
0 
0 
0 
0 
0 
0 
0 
0 
0 
0 
0 
0 
0 
0 
0 
0 
0 
0 
0 
0 
0 
0 
0 
0 
1.566115239998995 
0 
0 
0 
0 
0 
0 
0 
0 
0 
0 
0 
0 
0 
0 
0 
0 
0 
0 
0 
0 
0 
0 
0 
0 
0 
0 
0 
0 
0 
0 
0 
0 
0 
0 
0 
0 
0 
0 
0 
0 
0 
0 
0 
0 
0 
-0.1303116035315804 
0 
0 
0 
0 
0 
0 
0 
0 
-0.6824513452292063 
0 
0 
0 
0 
0 
0 
0 
-1.506131405829919 
0 
0 
0 
0 
0 
0 
0 
0 
0 
0 
0 
0 
0 
0 
0 
0 
0 
0 
0 
0 
0 
0 
0 
0 
0 
0 
0 
0 
0 
0 
0 
0 
0 
0 
0 
0 
0 
0 
0 
0 
-0.50635899531618 
0 
0 
0 
0 
0 
0 
0 
0 
0 
0 
0 
0 
0 
0 
0 
0 
0 
0 
0 
0 
0 
0 
0 
0 
0 
0 
0 
0 
0 
0 
0 
0 
0 
0.8246280296991601 
0 
0 
0 
0 
0 
0 
0 
0 
0 
0 
0 
0 
0 
0 
0 
0 
0 
0 
0 
0 
0 
0 
0 
0 
0 
0 
0 
0 
0 
0 
0 
0 
0 
0 
0 
0 
0 
0 
0 
0 
0 
0 
0 
0 
0 
0 
0 
0 
0 
0 
0 
0 
0 
0 
0 
-0.1539016873825421 
0 
0 
0 
0 
0 
0 
0 
0 
0 
0 
0 
0 
0 
-0.1208496859572567 
0 
0 
0 
0 
0 
0 
0 
0 
0 
0 
0 
0 
0 
0 
0 
0 
0 
0 
0 
0 
0 
0 
0 
0 
0 
0 
0 
0 
0 
0 
0 
0 
0 
0 
0 
-1.244714338749093 
0 
0 
0 
0 
0 
0 
0 
0 
0 
0 
0 
0 
0 
0 
0 
0 
0 
0 
0 
0 
0 
0 
0 
0 
0 
0 
0 
0 
0 
0 
0 
0 
0 
0 
0 
0 
0 
0 
0 
0 
0 
0 
0 
0 
0 
0 
0 
0 
0 
0 
0 
0 
0 
0 
0 
0 
0 
0 
0 
0 
0 
0 
0 
0 
0 
0 
0 
0 
0 
0 
0 
0 
-0.1621847113988122 
0 
0 
0 
0 
0 
0 
0 
0 
0 
0 
0 
0 
0 
0 
0 
0 
0 
0 
0 
0 
0 
0 
0 
0 
0 
0 
0 
0 
0 
0 
0 
0.02415826846075105 
-0.7414479590145916 
0 
0 
0 
0 
0 
0 
0 
0 
0 
0 
0 
0 
0 
0 
0 
0 
0 
1.325920862427842 
0 
0 
0 
0 
0 
0 
0 
3.172020598046784 
0 
0 
0 
0 
0 
0 
0 
-6.020922137735321 
0 
0 
0 
0 
0 
0 
0 
0 
0 
0 
0 
0 
0 
0 
0 
0 
0 
0 
0 
0 
0 
0 
0 
0 
0 
0 
0 
0 
0 
0 
0 
0 
0 
0 
0 
0 
0 
0 
0 
0 
0 
0 
0 
0 
0 
0 
0 
0 
0 
0 
0.7495064272676729 
0 
0 
0 
0 
0 
0 
0 
0 
0 
0 
0 
0 
0 
0 
0 
0 
0 
0 
0 
0 
0 
0 
0 
0 
0 
0 
0 
0 
0 
0 
0 
0 
0 
0 
0 
0 
0 
0 
0 
0 
0 
0 
0 
0 
0 
0 
0 
0 
0 
0 
0 
0 
0 
0 
0 
0 
0 
0 
0 
0 
0 
0 
0 
0 
0 
0 
0 
0 
0 
0 
0 
0 
0 
0 
0 
0 
0 
0 
0 
0 
0.5688634240055276 
0 
0 
0 
0 
0 
0 
0 
0 
0 
0 
0 
0 
0 
0 
0 
0 
0 
0 
0 
0 
0 
0 
0.09084791808999349 
0 
0 
0 
-2.314875808156151 
0 
0 
0.6944841168203122 
0 
0 
0 
0 
0 
0 
0 
0 
0 
0 
0 
0 
0 
0 
0 
0 
-1.135614713281643 
0 
0 
0 
0 
0 
0 
0 
0 
0 
0 
0 
-0.4874223680948236 
0 
0 
0 
0 
0 
0 
0 
0 
0 
0 
0 
0 
0 
0 
0 
0 
0 
0 
0 
0 
0 
0 
0 
0 
0 
0 
0 
0 
0 
0 
0 
0 
0 
0 
0 
0 
0 
0 
0 
0 
0 
0 
0 
0 
0 
0 
0 
0 
0 
0 
0 
0 
0 
0 
0 
0 
0 
0 
0 
0 
0 
0 
0 
0 
0 
0 
0 
0.03991754086910643 
0 
0 
0 
0 
0 
-0.4136397431805757 
0 
0 
0 
0 
0 
0 
0 
0 
0 
0 
0 
0 
0 
0 
0 
0 
0 
0 
0 
0 
0 
0 
0 
0 
0 
0 
0 
0 
0 
0 
0 
0 
0 
0 
0 
0 
0 
0 
0 
0 
0 
0 
0 
0 
0 
0 
0 
0 
0 
0 
0 
0 
0 
0 
0 
0 
0 
0 
0 
0 
0 
0 
0 
0 
0 
0 
0 
0 
0 
0 
0 
0 
0 
0 
0 
0 
0 
0 
0 
0 
0 
0 
0 
0 
0 
0 
0 
0 
0 
0 
0 
0 
0 
0 
0 
0 
0 
0 
0 
0 
0 
-1.184038929786335 
0 
0 
0 
0 
0 
0 
0 
0 
0 
0 
0 
0 
0 
0 
0 
0 
0 
0 
0 
0 
0 
0 
0 
0 
0 
0 
0 
0 
0 
0 
0 
0 
0 
0 
0 
0 
0 
0 
0 
0 
0 
0 
0 
0 
0 
0 
0 
0 
0 
0 
0 
0 
0 
0 
0 
0 
0 
0 
0 
0 
0 
0 
0 
0 
0 
0 
0 
0 
0 
0 
0 
0 
0 
0 
0 
0.6283687129940543 
0 
0 
0 
0 
0 
0 
0 
0 
0 
0 
0 
0 
0 
0 
0 
0 
0 
0 
0 
0 
0 
0 
0 
0 
0.5828922884747481 
0 
0 
0 
0 
0 
0 
0 
0 
0 
-0.7669966376117956 
0 
0 
0 
0 
0 
0 
0 
0 
0 
0 
0 
0 
0 
0 
0 
0 
0 
0 
0 
0 
0 
0 
0 
0 
0 
0 
0 
0 
0 
0 
0 
0 
0 
0 
0 
0 
0 
0 
0 
-0.85021088443662 
0 
0 
0 
0 
0 
0 
0 
0 
0 
0 
0 
0 
0 
0 
0 
-0.1853514384472463 
0 
0 
0 
0 
0 
0 
0 
0 
0 
0 
0 
0 
0 
0 
0 
0 
0 
0 
0 
0 
0 
0 
0 
0 
0 
0 
0 
0 
0 
0 
0 
0 
0 
0 
0 
0 
0 
-1.153168047779951 
0 
0 
0 
0 
0 
0 
0 
0 
0 
0 
0 
0 
0 
0 
0 
0 
0 
0 
0 
0 
0 
0 
0 
0 
0 
0 
0 
0 
0 
0 
0 
0 
0 
0 
0 
0 
0 
0 
0 
0 
0 
0 
0 
1.682365278508457 
0 
0 
0 
0 
0 
0 
0 
0 
0 
0 
0 
0 
2.433592134206611 
0 
0 
0 
0 
0 
0 
0 
0 
0 
0 
0 
0 
0 
0 
0 
0 
0 
0 
0 
0 
-0.7890594451233112 
0 
0 
0 
0 
0 
0 
0 
0 
0 
0 
0 
0 
-1.410263737103322 
0 
0 
0 
0 
0 
0 
0 
0 
0 
0 
0 
0 
0 
0 
0 
0 
0 
0 
0 
0 
0 
0 
0 
0 
0 
0 
0 
0 
0 
0 
0 
0 
0 
0 
0 
0 
0 
0 
0 
-1.329705335287828 
0 
0 
0 
0 
0 
0 
0 
0 
0 
0 
0 
0 
0 
0 
0 
0 
0 
0 
0 
0 
0 
0 
0 
0 
0 
0 
0 
0 
0 
0 
0 
0 
0 
0 
0 
0 
0 
0 
0 
0 
0 
0 
0 
0 
0 
0 
0 
0 
0 
0 
0 
0 
0 
0 
0 
0 
0 
0 
0 
0 
0 
0 
0 
0 
0 
0 
0 
0 
0 
0 
0 
0 
0 
0 
0 
0 
0 
0 
0 
0 
0 
0 
0 
0 
0 
0 
0 
0 
0 
0 
0 
0 
0 
0 
0 
0 
-0.3237142428623586 
0 
0 
0 
0 
0 
0 
0 
0 
0 
0 
0 
0 
0 
0 
0 
0 
0 
0 
0 
0 
0 
0 
0 
0 
0 
0 
0 
0 
0 
0 
0 
0 
0 
0 
0 
0 
0 
0 
0 
0.4280477707906042 
0 
0 
0 
0 
0 
0 
0 
0 
0 
0 
0 
0 
0 
0 
0 
-0.4436313111500726 
0 
0 
0 
0 
0 
0 
0 
0 
0 
0 
0 
0 
0 
0 
0 
0 
0 
0 
0 
0 
0 
0 
0 
0 
0 
0 
0 
0 
0 
0 
0 
0 
0 
0 
0 
0 
0 
0 
0 
0 
0 
0 
0 
0 
0 
0 
0 
0 
0 
0 
0 
0 
0 
0 
0 
0 
0 
0 
0 
0 
0 
0 
0 
0 
0.1579587946567479 
0.8413763316352447 
0 
0 
0 
0 
0 
0 
0 
0 
0 
0 
0 
0 
0 
0 
0 
0 
-1.023250422197232 
0 
0 
0 
0 
0 
0 
0 
0 
0 
0 
0 
0 
0 
0 
0 
0 
0 
0 
0 
0 
0 
0 
0 
0 
0 
0 
0 
0 
0 
0 
0 
0 
0 
0 
0 
0 
0 
0 
0 
0 
0 
0 
0 
0 
0 
0 
0 
0 
0 
0 
0 
0 
0 
0 
0 
0 
0 
0 
0 
0 
0 
0 
0 
0 
0 
0 
0 
0 
0 
0 
0 
0 
0 
0 
0 
0 
0 
0 
0 
0 
0 
0 
0 
0 
0 
0 
0 
0 
0 
0 
0 
2.126556032728013 
0 
0 
0 
0 
0 
0 
0 
0 
0 
0.7996790586092797 
0 
0 
-1.139985988407001 
0 
0 
0 
0 
0 
0 
0 
0 
0 
1.910361829776331 
0 
0 
0 
0 
0 
0 
0 
0 
0 
0 
0 
0 
0 
0 
0 
0 
0 
0 
0 
0 
0 
0 
0 
0 
0 
0 
0 
0 
0 
0 
0 
0 
0 
0 
0 
0 
0 
0 
0 
0 
0 
0 
0 
0 
0 
0 
0 
0 
0 
0 
0 
0 
0 
0 
0 
0 
0 
0 
0 
0 
0 
0 
0 
0 
0 
0 
0 
0 
0 
0 
0 
0 
0 
0 
0 
0 
0 
0 
0 
0 
0 
0 
0 
0 
0 
0 
0 
0 
0 
0 
0 
0 
0 
0 
0 
0 
0 
0 
0 
0 
0 
0 
0 
0 
0 
0 
0 
0 
0 
0 
0 
0 
0 
0 
0 
0 
0 
0 
0 
0 
0 
0 
0 
0 
0 
0 
0 
0 
0 
0 
0 
0 
0 
0 
0 
0 
0 
0 
0 
0 
0 
0 
0 
0 
0 
0 
0 
0 
0 
0 
0 
0 
0 
0 
0 
0 
0 
0 
0 
0 
0 
0 
0 
0 
0 
0 
0 
0 
0 
0 
0 
0 
0 
0 
0 
0 
0 
0 
0 
0 
0 
0 
0 
0 
0 
0 
0 
0 
0 
0 
0 
0 
0 
0 
0 
0 
0 
0 
0 
0 
0 
0 
0 
0 
0 
0 
0 
0 
0 
0 
0 
0 
0 
0 
0 
0 
0 
0 
0 
0 
0 
0 
0 
0 
0.3457601528096221 
0 
0 
0 
0 
0 
0 
0 
0 
0 
0 
0 
0 
0 
0 
0 
0 
0 
0 
0 
-0.9671002587928915 
0 
0 
0 
0 
0 
0 
0 
0 
0 
0 
0 
0 
0 
0 
0 
0 
0 
0 
0 
0 
0 
0 
0 
0 
0 
0 
0 
0 
0 
0 
0 
0 
0 
0 
0 
0 
0 
0 
0 
0 
0 
0 
0 
0 
0 
0 
0 
0 
0 
0 
0 
0 
0 
0 
0 
0 
0 
0 
0 
0 
0 
0 
0 
0 
0 
0 
0 
0 
0 
0 
0 
0 
0 
0 
0 
0 
0 
0 
0 
0 
0 
0 
0 
0 
0 
0 
0 
0 
0 
0 
0 
0 
0 
0 
0 
0 
0 
0 
0 
0 
0 
-0.4577946990260339 
0 
0 
0 
0 
0 
0 
0 
0 
0 
0 
0 
0 
0 
0 
0 
0 
0 
0 
-2.331299276694705 
0 
0 
0 
0 
0 
0 
0 
0 
0 
0 
0 
0 
0 
0 
0 
0 
0 
0 
0 
0 
0 
0 
0 
0 
0 
0 
0 
0 
0 
0 
0 
0 
-0.3818768738355808 
0 
-0.4577931473306405 
0 
0 
0.3286134358163332 
0 
0 
0 
0 
0 
0 
0 
0 
0 
0 
0 
0 
0 
0 
0 
0 
0 
0 
0 
0 
0 
0 
0 
0 
0.4452708933938324 
0 
0 
0 
0 
0 
0 
0 
0 
0 
0 
0 
0 
0 
0 
0 
0 
0 
0 
0 
0 
0 
0 
0 
0 
0 
0 
0 
0 
0 
0 
0 
0 
0 
0 
0 
0 
0 
0 
0 
0 
0 
0 
0 
0 
0 
0 
0 
0 
0 
0 
0 
0 
0 
-1.51202024254506 
0 
0 
0 
0 
0 
-0.1203691237080854 
0 
-0.05735805282098611 
0 
0 
0 
0 
0 
0 
0 
0 
0 
0 
0 
0 
0 
0 
0 
0 
0 
0 
0 
0 
0 
0 
0 
0 
0 
0 
0 
0 
0 
0 
0.388220311475337 
0 
0 
0 
0 
0 
0 
0 
0 
0 
0 
0 
0 
0 
0 
0 
0 
0 
0 
0 
0 
0 
0 
0 
-0.5257433798402103 
0.554622078595038 
0 
0 
0 
0 
0 
0 
0 
0 
0 
0 
0 
0 
0 
0 
0 
0.7030573064641904 
0 
0 
0 
0 
0 
0 
0 
0 
0 
0 
0 
0 
0 
0 
0 
0 
0 
0 
1.91129818159694 
0 
0 
0 
1.415645116614966 
0 
0 
0 
0 
0 
0 
0 
0 
0 
0 
0 
0 
0 
4.617069864407189 
0 
0 
0 
0 
0 
0 
0 
0 
0 
0 
0 
0 
0 
0 
0 
0 
0 
0 
0.1490150918556366 
0 
0 
0 
0 
0 
0 
0 
0 
0 
0 
0 
0 
0 
0 
0 
0 
0 
0 
0 
0 
0 
0 
0 
0 
0 
0 
0 
0 
0 
0 
0 
0 
0 
0 
0 
0 
0 
0 
0 
0 
0 
0 
0 
0 
0 
0 
0 
0 
0 
0 
0 
0 
0 
0 
0 
0 
0 
0 
0 
0 
0 
0 
0 
0 
0 
0 
0 
0 
0 
0 
0 
0 
0 
0 
0 
0 
0 
0 
0 
0 
0 
0 
0 
0 
0 
0 
0 
0 
0.8694543459802493 
0 
0 
0 
0 
0 
0 
0 
0 
0 
0 
0 
0 
0 
0 
0 
0 
0 
0 
0 
0 
0 
0 
0 
0 
0 
0 
0 
0 
0 
0 
0 
0 
0 
0 
0 
0 
0 
0 
0 
0 
0 
0 
0 
0 
0 
0 
0 
-0.2665298361345602 
0 
0 
0 
0 
0 
0 
0 
0 
0 
0 
0 
0 
0 
0 
0 
0 
0 
0 
0 
0 
0 
0 
0 
0 
0 
0 
0 
0 
0 
0 
0 
0 
0 
0 
0 
0 
0 
0 
-1.296171321055629 
0 
0 
0 
0 
0 
0 
0 
0.6627471076791563 
0 
0 
0 
0 
0 
0 
0 
0 
0 
0 
0 
0 
0 
0 
0 
0 
0 
0 
0 
0 
0 
0 
0 
0 
0 
0 
0 
0 
0 
0 
0 
0 
0 
0 
0 
0 
0 
0 
6.117431066659451 
0 
0 
0 
0 
0 
0 
0 
0 
0 
0 
0 
0 
0 
0 
0 
0 
0 
0 
0 
0 
0 
0 
0 
0 
0 
0 
-0.9232618558736794 
0 
0 
0 
0 
0 
0 
0 
0 
0 
0 
0 
0 
0 
0 
0 
0 
0 
0 
0 
0 
0 
0 
0 
0 
0 
0 
0 
0 
0 
-5.194506495864048 
0 
0 
0 
0 
0 
0 
0 
0 
0 
0 
0 
0 
0 
0 
0 
0 
0 
0 
0 
0 
0 
0 
0 
0 
0 
0 
1.864729057275031 
0 
0 
0 
0 
0 
0 
0 
0 
0 
0 
0 
0 
0 
0 
0 
0 
-1.136642942365086 
0 
0.03571691401869891 
0 
0 
0 
0 
0 
0 
0 
0 
0 
0 
0 
0 
0 
0 
0 
0 
0 
0 
0 
0 
0 
0 
0 
0 
0 
0 
0 
0 
0 
0 
0 
0 
0 
0 
0 
0 
0 
0 
0 
0 
0 
0 
0 
0 
0 
0 
0 
0 
0 
0 
0 
0 
0 
0 
0 
0 
0 
0 
0 
0 
0 
0 
0 
0 
0 
0 
0 
0 
0 
0 
0 
0 
0 
0 
-0.3897745721674885 
0 
0 
0 
0 
0 
0 
0 
0 
0 
0 
0 
0 
0 
0 
0 
0 
0 
0 
0 
0 
0 
0 
0 
0 
0 
0 
0 
0 
0 
0 
0 
0 
0 
0 
0 
0 
0 
0 
0 
0 
0 
0 
0 
0 
0 
0 
0 
0 
0 
0 
0 
0 
0 
0 
0 
0 
0 
0 
0 
0 
0 
0 
0 
0 
0 
0 
0 
0 
0 
0.2159305639707147 
0 
0 
0 
0 
0 
0 
0 
0 
0 
0 
0 
0 
0 
0 
0 
0 
0 
0 
0 
0 
0 
0 
0 
0 
0 
0 
0 
0 
0 
0 
0 
0 
0 
0 
0 
0 
0 
0 
0 
0 
0 
0 
0 
0 
0 
0 
0 
0 
0 
1.074058826706512 
0 
0 
0 
0 
0 
0 
0 
0 
0 
0 
0 
0 
0 
0 
0 
0 
0 
0 
0 
0 
0 
0 
0 
0 
0 
0 
0 
0 
0 
0 
0 
0 
0 
0 
0 
0 
0 
0 
0 
0 
0 
0 
0 
0 
0 
0 
0 
0 
0 
0 
0 
0 
0 
0 
0 
0 
0 
0 
0 
0 
0 
0 
0 
1.064941644904413 
0 
0 
0 
0 
0 
0 
0 
0 
0 
0 
0 
0 
0 
0 
0 
0 
0 
0 
0 
0 
0 
0 
0 
0 
0 
0 
0 
0 
0 
0 
0 
0 
0 
0 
0 
0 
0 
0 
0 
0 
0 
-0.4637295497377201 
0 
0 
0 
0 
0 
0 
0 
0 
0 
0 
0 
-0.3530476571017271 
0 
0 
0 
-0.6975199994111067 
0 
0 
0 
0 
0 
0 
0 
0 
0 
0 
0 
0 
0 
0 
0 
0 
0 
0 
0 
0 
0 
0 
0 
0 
0.3251780011659681 
0 
-0.4898825225925904 
0 
0 
0 
0 
0 
0 
0 
0 
0 
0 
0 
0 
0 
0 
0 
0 
0 
0 
0 
0 
0 
0 
0 
0 
0 
0 
0 
0 
0 
0 
0 
0 
0 
0 
0 
0 
0 
0 
0 
0 
0 
0 
0 
0 
0 
0 
0 
0 
0 
0 
0 
0 
0 
0 
0 
0 
0 
0 
0 
0 
0 
0 
0 
0 
0 
0 
0 
0 
0 
0 
0 
0 
0 
0 
0 
0 
0 
0 
0 
0 
0 
0 
0 
0 
0 
0 
0 
0 
0 
0 
0 
0 
0 
0 
0 
0 
1.552337524074606 
0 
0 
0 
0 
0 
0 
0 
0 
0 
0 
0 
0 
0 
0 
0 
0 
0 
0 
0 
0 
0 
0 
0 
0 
0 
0 
0 
0 
0 
0 
0 
0 
0 
0 
0 
0 
0 
0 
0 
0 
0 
0 
0 
0 
0 
0 
0 
0 
0 
0 
0 
0 
0 
0 
0 
0 
0 
0 
0 
0 
0 
0 
0 
0 
0 
0 
0 
0 
0 
0 
0 
0 
0 
0 
0 
0 
0 
0 
0 
0 
0 
0 
0 
0 
0 
0 
0 
0 
0 
0 
-3.508935973454978 
0 
0 
0 
0 
0 
0 
0 
0 
0 
0 
-0.5836638978417265 
0 
0 
0 
0 
0 
0 
0 
0 
0 
0 
-0.540778465802035 
0 
0 
0 
0 
0 
0 
0 
0 
0 
0 
0.183827587408432 
0 
0 
0 
0 
0 
0 
0 
0 
0 
0 
0 
0 
0 
0 
0 
0 
0 
0 
0 
0 
0 
0 
0 
0 
0 
0 
0 
0 
0 
0 
0 
0 
0 
0.3152946110036923 
0 
0 
0 
0 
0 
0 
0 
0 
0 
0 
0 
0 
0 
0 
0 
0 
0 
0 
0 
0 
0 
0 
0 
0 
0 
0 
0 
0 
0.3334252236740802 
0 
0 
0 
0 
0 
0 
0 
0 
0 
0 
0 
0 
0 
0 
0 
0 
0 
0 
0 
0 
0 
0 
0 
0 
0 
0 
0 
0 
0 
0 
0 
0 
0 
0 
0 
0 
0 
0 
0 
0 
0 
0 
0 
0 
0 
0 
0 
0 
0 
0 
0 
0 
0 
0 
0 
0 
0 
0 
0 
0 
0 
0 
0 
0 
0 
-0.1150872840605259 
0 
0 
0 
0 
0 
0 
0 
0 
0 
0 
0 
0 
0 
0 
0 
0 
0 
0 
0 
0 
0 
0 
0 
0 
0 
0 
0 
0 
0 
0 
0 
0 
0 
0 
0 
0 
0 
0 
0 
0 
0 
0 
0 
0 
0 
0 
0 
0 
0 
0 
0 
0 
0 
0 
0 
0 
0 
0 
0 
0 
0 
0 
0 
0 
0 
0 
0 
0 
0 
0 
0 
-0.9035019848910801 
0 
0 
0 
0 
0 
0 
0 
0 
0 
0 
1.23793331633821 
0 
0 
0 
0 
0 
0 
0 
0 
0 
0 
0 
0 
0 
3.273881834581389 
0 
0 
0 
0 
0 
0 
0 
0 
0 
0 
0 
0 
0 
0 
0 
0 
0 
0 
0 
0 
0 
0 
0 
0 
0 
0 
0 
0 
0 
0 
0 
0 
-0.7918742614039013 
0 
0 
0 
0 
0 
0 
0 
0 
0 
0 
0 
0 
0 
0 
0 
0 
0 
0 
0 
0 
0 
0 
0 
0 
0 
0 
0 
0 
0 
0 
0 
0 
-1.436410419682671 
0 
0 
0 
0 
0 
0 
0 
0 
0 
0 
0 
0 
0 
0 
0 
0 
0 
0 
0 
0 
0 
0 
0 
0 
0 
0 
0 
0 
0 
0 
0 
0 
0 
0 
0 
0 
0 
0 
0 
0 
0 
0 
0 
0 
0 
0 
0 
0 
0 
0 
0 
0 
0 
0 
0 
0 
0 
0 
0 
0 
0 
0 
0 
0 
0 
0 
0 
0 
0 
0 
0 
0 
0 
0 
0 
0 
0 
0 
0 
0 
0 
0 
0 
0 
0 
0 
0 
0 
0 
0 
0 
0 
0 
0 
0 
0 
0 
0 
0 
0 
0 
0 
0 
0 
0 
0 
0 
0 
0 
0 
0 
0 
0 
0 
0 
0 
0 
0 
0 
0 
0 
0 
0 
0.8872907937612057 
0 
0 
0 
0 
0 
0 
0 
0 
0 
0 
0 
0 
0 
0 
0 
0 
0 
0 
0 
0 
0 
0 
0 
0 
0 
0 
0 
0 
0 
0 
0 
0 
0 
0 
0 
0 
0 
0 
0 
0 
0 
0 
0 
0 
0 
0 
0 
0 
0 
0 
0 
0 
0 
0 
0 
0 
0 
0 
0 
0 
0 
0 
0 
0 
0 
0 
0 
0 
0 
0 
0 
0 
0 
0 
0 
0 
0 
0 
0 
0 
0 
0 
0 
0 
0 
-0.415275706416139 
0 
0 
0 
0 
0 
0 
0 
0 
0 
0 
0 
0 
0 
0 
0 
0 
0 
0 
0 
-2.830150239050826 
0 
0 
0 
0 
0 
0 
0 
0 
0 
0 
0 
0 
0 
0 
0 
-4.123653586378622 
0 
0 
0 
0 
1.785129164092959 
0 
0 
0 
0 
0 
0 
0 
0 
0 
0 
0 
0 
0 
0 
0 
2.914973840871637 
0 
0 
0 
0 
0 
0 
0 
0 
0 
0 
0 
0 
0 
0 
0 
0 
0 
0 
0 
0 
0 
0 
0 
0 
0 
0 
0 
0 
0 
0 
0 
0 
0 
0 
0 
0 
0 
0 
0 
0 
0 
0 
0 
0 
0 
0 
0 
0 
0 
0 
0 
0 
0 
0 
0 
0 
0 
0 
0 
0 
0 
0 
0 
0 
0 
0 
0 
0 
0 
0 
0 
0 
0 
0 
0 
0 
0 
0 
0 
0 
-0.4507437910712067 
0 
0 
0 
0 
0 
0 
0 
0 
0 
0 
0 
0 
0.0750091861817605 
0 
0 
0 
0 
0 
0 
0 
0 
0 
0 
0 
0 
0 
0 
0 
0 
0 
0 
0 
0 
0 
0 
0 
0 
0 
0 
0 
0 
0 
0 
0 
0 
0 
0 
0 
0 
0 
0 
0 
0 
0 
0 
0 
0 
0 
0 
0 
0 
0 
0 
0 
0 
0 
0 
0 
0 
0 
0 
0 
0 
0 
0 
0 
0 
0 
0 
0 
0 
0 
0 
0 
0 
0 
0 
0 
0 
0 
0 
0 
0 
0 
0 
0 
0 
0 
0 
0 
0 
0 
0 
0 
0 
0 
0 
0 
0 
0 
0 
0 
0 
0 
0 
0 
0 
0 
0 
0 
0 
0 
0 
0 
0 
0 
0 
0 
0 
0 
0 
0 
0 
0 
0 
0 
0 
0 
0 
0 
0 
0 
0 
0 
0 
0 
0 
0 
0 
0 
0 
0 
0 
0 
0 
0 
0 
0 
0 
0 
0 
0 
0 
0 
0 
0 
0 
0 
0 
0 
0 
0 
-0.6779116092535709 
0 
0 
0 
0 
0 
0 
0 
0 
-1.64550468145111 
0 
0 
-0.7454656835010072 
0 
0 
0 
0 
0 
0 
0 
0 
0 
0 
0 
0 
0 
0 
0 
0 
0 
0 
0 
0 
0 
0 
0 
0 
0 
0 
0 
0 
0 
0 
0 
0 
0 
0 
0 
0 
0 
0 
0 
0 
0 
0 
0 
0 
0 
0 
0 
0 
0 
0 
0 
2.697127031068833 
0 
0 
0 
0 
0 
0 
0 
0 
0 
0 
0 
0 
0 
0 
0 
0 
0 
0 
0 
0 
0 
0 
0 
0 
0 
0 
0 
0 
0 
0 
0 
0 
0 
0 
0 
0 
0 
0 
0 
0 
0 
0 
0 
0 
0 
0 
0 
0 
0 
0 
0 
0 
0 
0 
0 
0 
0 
0 
0 
0 
0 
0 
0 
0 
0 
0 
0 
0 
0 
0 
0 
0 
0 
0 
0 
0 
0 
0 
0 
0 
0 
0 
0 
0 
0 
0 
0 
0 
0 
0 
0 
0 
0 
0 
0 
0 
0 
0 
0 
0 
0 
0 
0 
0 
0 
0 
0 
0 
0 
0 
0 
0 
0 
0 
0 
0 
0 
0 
0 
0 
0 
0 
0 
-0.5276410718418081 
0 
0 
0 
0 
0 
0 
0 
0 
0 
0 
0 
0 
0 
0 
1.208699068833125 
0 
0 
0 
0 
0 
0 
0 
0 
0 
0 
0 
0 
0 
0 
0 
0 
0 
0 
0 
0 
0 
0 
0 
0 
0 
0 
0 
0 
0 
0 
0 
0 
0 
0 
0 
0 
0 
0 
0 
0 
0 
0 
0 
0 
0 
0 
0 
0 
0 
-0.910025787557719 
0 
0 
0 
0 
0 
0 
0 
0 
0 
0 
0 
0 
0 
0 
0 
0.6099639952313949 
0 
0 
0 
0 
0 
0 
0 
0 
0 
0 
0 
0 
0 
0 
0 
0 
0 
0 
0 
1.133588499198501 
0 
0 
0 
0 
0 
0 
0 
0 
0 
0 
0 
0 
0 
0 
0 
0 
0 
0 
0 
0 
0 
0 
0 
0 
0 
-5.090255897742666 
0 
0 
0 
0 
0 
0 
0 
0 
0 
0 
0 
0 
0 
0 
0 
0 
0 
0 
0 
0 
0 
0 
0 
0 
0 
0 
0 
0 
0 
0 
0 
2.458964896443596 
0 
0 
0 
0 
0 
0 
0 
0 
0 
0 
0 
0 
0 
0 
0 
0 
0 
0 
0 
0 
0 
0 
0 
0 
0 
0 
0 
0 
0 
0 
0 
0 
0 
0 
0 
0 
0 
0 
0 
0 
0 
0 
0 
-0.2603600366908793 
0 
0 
0 
0 
0 
0 
0 
0 
0 
0 
0 
0 
0 
0 
0 
0 
0 
0 
0 
0 
0 
0 
0 
0 
0 
0 
0 
0 
0 
0 
0 
0 
0 
0 
0 
0 
0 
0 
0 
0 
0 
0 
0 
0 
0 
0 
0 
0 
0 
0 
0 
0 
0 
0 
0 
0 
0 
0 
0 
0 
0 
0 
-2.760943593190794 
0 
0 
0 
0 
0 
0.9753833767513315 
0 
0 
0 
0 
0 
0 
0 
0 
0 
0 
0 
0 
0 
0 
0 
0 
0 
0 
0 
0 
0 
0 
0 
0 
0 
0 
0 
0 
0 
0 
0 
0 
0 
0 
0 
0 
0 
0 
0 
0 
0 
0 
0 
0 
0 
0 
0 
0 
0 
0 
0 
0 
0 
0 
0 
0 
0 
0 
0 
0 
0 
0 
0 
0 
0 
0 
0 
0 
0 
0 
0 
0 
0 
0 
0 
0 
0 
0 
0 
0 
0 
0 
0 
0 
0 
0 
-0.2130186356060308 
0 
0 
0 
0 
0 
0 
0 
0 
0 
0 
0 
0 
0 
0 
0 
0 
0 
0 
0 
0 
0 
0 
0 
0 
0 
0 
0 
0 
0 
0 
0 
0 
0 
0 
0 
0 
0 
0 
0 
0 
0 
0 
0 
0 
0 
0 
0 
0 
0 
0 
0 
0 
0 
0 
0 
0 
0 
0 
0 
0 
0 
0 
0 
0 
0 
0.3853134873218705 
0 
0 
-0.9395886678846224 
0 
0 
0 
0 
0 
0 
0 
0 
0 
0 
0 
0 
0 
0 
0 
0 
0 
0 
0 
0 
0 
0 
0 
0 
0 
0 
0 
0 
0 
0 
0 
0 
0 
0 
0 
0 
0 
0 
0 
0 
0 
0 
0 
0 
0 
0 
0 
0 
0 
0 
0 
0 
0 
0 
0 
0 
0 
0 
0 
0 
0 
0 
0 
0 
0 
0 
0 
0 
0 
0 
0 
0 
0 
0 
0 
0 
0 
0 
0 
0 
0 
0 
0 
0 
0 
0 
0 
0 
0 
0 
0 
0 
0 
0 
0 
0 
0 
0 
0 
0 
0 
0 
0 
0 
0 
0 
0 
0 
0 
0 
0 
0 
0 
0 
0 
0 
0 
0 
0 
0 
0 
0 
0 
0 
0 
0 
0 
0 
0 
0 
0 
0 
0 
0 
0 
0 
0 
0 
0 
0 
0 
0 
0 
0 
0 
0 
0 
0 
0 
0 
0 
0 
0 
0 
0 
0 
0 
0 
0 
0 
0 
0 
0 
0 
0 
0 
0 
0 
0 
0 
0 
0 
0 
0 
0 
0 
0 
0 
0 
0 
0 
0 
0 
0 
0 
0 
0 
0 
0 
0 
0 
0 
0 
0 
0 
0 
-0.9329956166926617 
0 
0 
0 
0 
0 
0 
0 
0 
0 
0 
1.760444565875581 
0 
0 
0 
0 
0 
0 
0 
0 
0 
0 
0 
0 
0 
0 
0 
0 
0 
0 
0 
0 
0 
0 
0 
0 
0 
0 
0 
0 
0 
0 
0 
0 
0 
0 
0 
0 
0 
0 
0 
0 
0 
0 
0 
0 
0 
0 
0 
0 
0 
0 
0 
0 
0 
0 
0 
0 
0 
0 
0 
0 
0 
0 
0 
0 
0.2437980807369358 
0 
0 
0 
0 
0 
0 
0 
0 
0 
0 
0 
0 
0 
0 
0 
0 
0 
0 
0 
0 
0 
0 
0 
0 
0 
0 
0 
0 
0 
0 
0 
0 
0 
0 
0 
0 
0 
0 
0 
0 
0 
0 
0 
0 
0 
0 
0 
0 
0 
0 
0 
0 
0 
0 
0 
0 
0 
0 
0 
0 
0 
0 
0 
0 
0 
0 
0 
0 
0 
0 
0 
0 
0 
0 
0 
0 
0.8785839685188448 
0 
0 
0 
0 
0 
0 
0 
0 
0 
0 
0 
0 
0 
0 
0 
0 
0 
0 
0 
0 
0 
0 
0 
0 
0 
0 
0 
0 
0 
0 
0 
0 
0 
0 
0 
0 
0 
0 
0 
0 
0 
0 
0 
0 
0 
0 
0 
0 
0 
0 
0 
0 
0 
0 
0 
0 
0 
0 
0 
0 
0 
0 
0 
0 
0 
0 
0 
0 
0 
0 
0 
0 
0 
0 
0 
0 
0 
0 
0 
0 
0 
0 
0 
0 
0 
0 
0 
0 
0 
0 
0 
0 
0 
0 
0 
0 
0 
0 
0 
0 
0 
0 
0 
0 
0 
0 
0 
-1.048454174409134 
0 
0 
0 
0 
0 
0 
0 
0 
0 
0 
0 
0 
0 
0 
0 
0 
0 
0 
0 
0 
0 
0 
0 
0 
0 
0 
0 
0 
0 
0 
1.272080814895505 
0 
0 
0 
0 
0 
0 
0 
0 
0 
0 
0 
0 
0 
0 
0 
0 
0 
0 
0 
0 
0 
0 
0 
0 
0 
0 
0 
0 
0 
0 
0 
0 
0 
0 
0 
0 
0 
0 
0 
0 
0 
0 
0 
0 
-1.087483291511286 
0 
0 
0 
0 
0 
0 
0 
-2.980666302500076 
0 
0 
2.188245841523252 
0 
0 
0 
0 
0 
0 
0 
0 
0 
0 
0 
0 
0 
0 
0 
-0.9686323500448402 
0 
0 
0 
0 
0 
0 
0 
0 
0 
0 
0 
0 
0 
0 
0 
0 
0 
0 
0 
0 
0 
0 
0 
0 
0 
0 
0 
0 
0 
0 
0 
0 
0 
0 
0 
0 
0 
0 
0 
0 
0 
0 
0 
0 
0 
0 
0 
0 
0 
0 
0 
0 
0 
0 
0 
0 
0 
0 
0 
0 
0 
0 
0 
-0.1059335938489338 
0 
0 
0 
0 
0 
0 
0 
0 
0 
0 
0 
0 
0 
0 
0 
0 
0 
0 
0 
0 
0 
0 
0 
0 
0 
0 
0 
0 
0 
0 
0 
0 
0 
0 
0 
0 
0 
0 
0 
0 
0 
0 
0 
0 
0 
0 
0 
0 
0 
0 
0 
0 
0 
0 
0 
0 
0 
0 
0 
0 
0 
0 
0 
0 
0 
0 
0 
0 
0 
0 
0 
0 
0 
0 
0 
0 
0 
0 
0 
0 
0 
0 
0 
0 
0 
0 
0 
0 
0 
0 
0 
0 
0 
0 
0 
0 
0 
0 
0 
0 
0 
0 
0 
0 
0 
0 
0 
0 
0 
0 
0 
0 
0 
0 
0 
0.9662573385955974 
0 
0 
0 
-2.439660724606222 
0 
0 
0 
0 
0 
0 
0 
0 
0 
0 
0 
0 
0 
0 
0 
0 
0 
0 
0 
0 
0 
0 
0 
0 
0 
0 
0 
0 
0 
0 
-0.8750751928289682 
0 
0 
0 
-3.261267612587352 
0 
0 
0 
0 
0 
0 
0 
0 
0 
0 
0 
0 
0 
0 
0 
0 
0 
0 
0 
0 
0 
0 
0 
0 
0 
0 
0 
0 
0 
0 
0 
0 
0 
0 
0 
0 
0 
0 
0 
0 
0 
0 
0 
0 
0 
0 
0 
0 
0 
0 
0 
0 
0 
0 
0 
0 
0 
0 
0 
0 
0 
0 
0 
0 
0 
0 
0 
0 
0 
0 
0 
0 
0 
0 
0 
0 
0 
0 
0 
0 
0 
0 
0 
0 
0 
0 
0 
0 
0 
0 
0 
0 
0 
0 
0 
0 
0 
0 
0 
0 
0 
0 
0 
0 
0 
0 
0 
0 
0 
0 
0 
0 
0 
0 
0 
0 
0 
0 
0 
0 
0 
0 
0 
0 
0 
0 
0 
0 
0 
0 
0 
0 
0 
0 
0 
0 
0 
0 
0 
0 
0 
0 
0 
0 
0 
0 
0 
0 
0 
0 
0 
-0.5835520865721816 
0 
0 
0 
0 
0 
0 
0 
0 
0 
0 
0 
0 
0 
0 
0 
0 
0 
0 
0 
0 
0 
0 
0 
0 
0 
0 
0 
0 
0 
0 
0 
0 
0 
0 
0 
0 
0 
0 
0 
0 
0 
0 
0 
0 
0 
0 
0 
0 
0 
0 
0 
0 
0 
0 
0 
0 
0 
0 
0 
0 
0 
1.347551319029242 
0 
0 
0 
0 
0 
0 
0 
0 
0 
0 
0 
0 
0 
0 
0 
0 
0 
0 
0 
0 
0 
0 
0 
0 
0 
0 
0 
-0.9111476835653771 
0 
0 
0 
0 
0 
0 
0 
0 
0 
0 
0 
0 
0 
0 
0 
0 
0 
0 
0 
0 
0 
0 
0 
0 
0 
0 
0 
0 
0 
0 
0 
0 
0 
0 
0 
-0.3367402822054433 
0 
0 
0 
0 
0 
0 
0 
0 
0 
0 
0 
0 
0 
0 
0 
0 
0 
0 
0 
0 
0 
0 
0 
0 
0 
0 
0 
0 
0 
0 
0 
0 
0 
0 
0 
0 
0 
0 
0 
0 
0 
0 
0 
0 
0 
0 
0 
0 
0 
0 
0 
0 
0 
0 
0 
0 
0 
0 
0 
0 
0 
0 
0 
0.9534526544831025 
0 
0 
0 
0 
0 
0 
0 
0 
0 
0 
0 
0 
0 
0 
0 
0 
0 
0 
0 
0 
0 
0 
0 
0 
0 
0 
0 
0 
0 
0 
0 
0 
0 
0 
0 
0 
0 
0 
0 
0 
0 
0 
0 
0 
0 
0 
0 
0 
0 
0 
0 
0 
0 
0 
0 
0 
0 
0 
0 
0 
0 
0 
0 
0 
0 
0 
0 
0 
0 
0 
0 
0 
0 
0 
0 
0 
0 
0 
0 
0 
0 
0 
0 
0 
0 
0 
0 
0 
0 
0 
0 
0 
0 
0 
0 
0 
0 
0 
0 
0 
0 
0 
0 
0 
0 
0 
0 
0 
0 
0 
0 
-3.707186295437586 
0 
0 
0 
0 
0 
0 
0 
0 
0 
0 
0 
0 
0 
0 
0 
0 
0 
0 
0 
0 
0 
0 
0 
0 
0 
0 
0 
0 
0 
0 
0 
0 
0 
0 
0 
0 
0 
0 
0 
0 
0 
0 
0 
0 
0 
0 
0.01147594152272544 
0 
0 
0 
0 
0 
0 
0 
0 
0 
0 
0 
0 
0 
0 
0 
0 
0 
0 
0 
0 
0 
0 
0 
0 
0 
0 
0 
0 
-1.357456233403163 
0 
0 
0 
0 
0 
0 
0 
0 
0 
0 
0 
0 
0 
0 
0 
0 
0 
0 
0 
0 
0 
0 
0 
0 
0 
0 
0 
0 
0 
0 
0 
0 
0 
0 
0 
0 
0 
0 
0 
0 
0 
0 
0 
0 
0 
0 
0 
0 
0.5874515480469007 
0 
0 
0 
0 
0 
0 
0 
0 
0 
0 
0 
0 
0 
0 
0 
0 
0 
0 
0 
0 
-1.370171257064522 
0 
0 
0 
0 
0 
0 
0 
0 
0 
0 
0 
0 
0 
0 
0 
0 
0 
0 
0 
0 
0 
0 
0 
-1.020761767824471 
0 
0 
0 
0 
0 
0 
0 
0 
0 
0 
0 
0 
0 
0 
0 
0 
0 
0 
0 
0 
0 
0 
0 
0 
0 
0 
0 
0 
0 
0 
0 
0 
0 
0 
0 
0 
0 
0 
0 
0 
0 
0 
0 
0 
0 
0 
0 
0 
0 
0 
0 
0 
0 
0 
0 
0 
0 
0 
0 
0 
0 
0 
0 
0 
0 
0 
0 
0 
0 
0 
0 
0 
0 
0 
0 
0 
0 
0 
0 
0 
0 
0 
0 
0 
0 
0 
0 
0 
0 
0 
0 
0 
-2.274547675232222 
0 
0 
0 
0 
0 
0 
0 
0 
0 
0 
0 
0 
0 
0 
0 
0 
0 
0 
0 
0 
-1.517842091637938 
0 
0 
0 
0 
0 
0 
0 
0 
0 
0 
0 
0 
0 
0 
0 
0 
0 
0 
0 
0 
0 
0 
0 
0 
0 
0 
0 
0 
0 
-0.2963213999322493 
0 
0 
0 
0 
0 
0 
0 
0 
0 
0 
0 
0 
0 
0 
0 
0 
0 
0 
0 
0 
0 
0 
0 
0 
0 
0 
0 
0 
0 
0 
-0.647388422522525 
0 
0 
0 
0 
-0.6306405925821028 
0 
0 
0 
0 
0 
0 
0 
0 
0 
0 
0 
0 
0 
0 
0 
0 
0 
0 
0 
0 
0 
0 
0 
0 
0 
0 
0 
0 
0 
0 
0 
0 
0 
0 
0 
0 
0 
0 
0 
0 
0 
0 
0 
0 
0 
0 
0 
0 
0 
0 
0 
0 
1.574113297150562 
0 
0 
0 
0 
0 
0 
0 
0 
-2.601760627666403 
0 
0 
0 
0 
0 
0 
0 
0 
0 
0 
0 
0 
0 
0 
0 
0 
0 
0 
0 
0 
0 
0 
0 
0 
0 
0 
0 
0 
0 
0 
0 
0 
0 
0 
0 
0 
0 
0 
0 
0 
0 
0 
0 
0 
0 
0 
0 
0 
-0.03372144069062454 
0 
0 
0 
0 
0 
0 
0 
0 
0 
0 
0 
0 
0 
0 
0 
0 
0 
0 
0 
0 
0 
0 
0 
0 
0 
0 
0 
0 
0 
0 
0 
0 
0 
0 
0 
0 
-1.885639900229966 
-0.614652296395947 
0 
0 
0 
0 
0 
0 
0.9176248290763973 
0 
0 
0 
0 
0 
0 
0 
0 
0 
0 
0 
0 
-4.36324195177663 
0 
0 
0 
0 
0 
0 
0 
0 
0 
0 
0 
0 
0 
0 
0 
0 
0 
0 
0 
0 
0 
0 
0 
0 
0 
0 
0 
0 
0 
0 
0 
0 
0 
0 
0 
0 
0 
0 
0 
-0.1988066210327052 
0 
0 
0 
0 
0 
0 
0 
0 
0 
0 
0 
0 
0 
0 
0 
0 
0 
0 
0 
0 
0 
0 
0 
0 
0 
0 
0 
0 
0 
0 
0 
0 
0 
0 
0 
0 
0 
0 
0 
0 
0 
0 
0 
0 
0 
0 
0 
-4.413026949596942 
0 
0 
0 
2.335623914002973 
0 
0 
0 
0 
0 
0 
0 
0 
0.0816043873606266 
0 
0 
0 
0 
0 
-2.834175862528716 
0 
0 
0 
0 
0 
0 
1.150697044204836 
0 
0 
0 
0 
0 
0 
0 
0 
0 
0 
0 
0 
0 
0 
0 
0 
0 
0 
0 
0 
0 
-0.913162744743461 
0 
2.25593058353273 
0 
0 
0 
0 
0 
0 
0 
0 
0 
0 
0 
0 
0 
0 
0 
0 
0 
0 
0 
0 
0 
0 
0 
0 
0 
0 
0 
0 
0 
0 
0 
0 
-0.7032441840552888 
0 
0 
0 
0 
0 
0 
0 
0 
0 
0 
0 
0 
0 
0 
0 
0 
0 
0 
0 
0 
0 
0 
0 
0 
0 
0 
0 
0 
0 
0 
0 
0 
0 
0 
0 
0 
0 
0 
0 
0 
0 
0 
0 
0 
0 
0 
0 
0 
0 
0 
0 
0 
0 
0 
0 
0 
0 
0 
0 
0 
0 
0 
0 
0.6050090944229908 
0 
0 
0 
0 
0 
0 
0 
0 
0 
0 
0 
0 
0 
0 
0 
0 
0 
0 
0 
0 
0 
0 
0 
0 
0.8130377194990116 
0 
0 
0 
0 
0 
0 
0 
0 
0 
0 
0 
0 
0 
0 
0 
0 
0 
0 
0 
0 
0 
0 
0 
0 
0 
0 
0 
0 
0 
0 
0 
0 
0 
0 
0 
0 
0 
0 
0 
0 
0 
0 
0 
0 
0 
0 
0 
0 
0 
0 
0 
0 
0 
0 
0 
0 
0 
0 
0 
0 
0 
0 
0 
0 
0 
0 
0 
0 
0 
0 
0 
0 
0 
1.488576313055393 
0 
0 
0 
0 
0 
0 
0 
0 
0 
0 
0 
0 
0 
0 
0 
0 
0 
0 
0 
0 
0 
0 
0 
0 
0 
0 
0 
0 
0 
0 
0 
-2.01395399105893 
0 
0 
0 
0 
0 
0 
0 
0 
0 
0 
0 
0 
0 
0 
0 
0 
0 
0 
0 
0 
0 
0 
2.787690834140499 
0 
0 
0 
0 
0 
0 
0 
0 
0 
0 
0 
0 
0 
0 
0 
0 
0 
0 
0 
0 
0 
0 
0 
0 
0 
0 
0 
0 
0 
0 
0 
0 
0 
0 
0 
0 
0 
0 
0 
0 
0 
0 
0 
0 
0 
0 
0 
0 
0 
0 
0 
0 
0 
0 
0 
0 
0 
0 
0 
0 
0 
0 
0 
0 
0 
0 
0 
0 
0 
0 
0 
0 
0 
0 
0 
0 
0 
0 
0 
0 
0 
0 
0 
0 
0 
0 
0 
0 
0 
0 
0 
0 
0 
0 
0 
0 
0 
0.1492068449460531 
0 
0 
0 
0 
0 
0 
0 
0 
0 
0 
0 
0 
0 
0 
0 
0 
0 
0 
0 
0 
0 
0 
0 
0 
0 
0 
0 
0 
0 
0 
0.5634649986325296 
0 
0 
0 
0 
0 
0 
0 
0 
0 
0 
0 
0 
0 
0 
0 
0 
0 
0 
0 
0 
0 
0 
0 
0 
0 
0 
0 
0 
0 
0 
0 
0 
0 
0 
0 
0 
0 
0 
0 
0 
0 
0 
0 
0 
0 
0 
0 
0 
0 
0 
0 
0 
0 
0 
0 
0 
0 
0 
0 
0 
0 
0 
0 
0 
0 
0 
0 
0 
0 
0 
0 
0 
0 
0 
0 
0 
0 
0 
0 
0 
0 
0 
0 
0 
0 
0 
0 
0 
1.660821152041546 
0 
0 
0 
0 
0 
0 
0 
0 
0 
0 
0 
0 
0 
0 
0 
0 
0 
0 
0 
0 
0 
0 
0 
-0.4446335955666569 
0 
0 
0 
0 
0 
0 
0 
0 
0 
0 
0 
0 
0 
0 
0 
0 
0 
0 
0 
0 
0 
0 
0 
0 
0 
0 
0 
0 
0 
0 
0 
0 
0 
0 
0 
0 
0 
0 
0 
0 
0 
0 
0 
0 
0 
0 
0 
0 
0 
0 
0 
0 
0 
0 
0 
0 
0 
0 
0 
0 
0 
0 
0 
0 
0 
0 
1.793426990925591 
0 
0 
0.423809707298961 
0 
0 
0 
0 
0 
0 
0 
0 
0 
0 
0 
0 
0 
0 
0 
0 
0 
0 
0 
0 
0 
0 
0 
0 
0 
0 
0 
0 
0 
0 
0 
0 
0 
0 
0 
0 
0 
0 
0 
0 
0 
0 
0 
0 
0 
0 
0 
0 
0 
0 
0 
0 
0 
0 
0 
0 
0 
0 
0 
0 
0 
0 
0 
0 
0 
0 
0 
0 
-0.8342375096186817 
0 
0 
0 
0 
0 
0 
0 
0 
0 
0 
0 
0 
0 
0.3097864885116254 
0 
0 
0 
0 
0 
0 
0 
0 
0 
0 
0 
0 
0 
0 
0 
0 
0 
0 
0 
0 
0 
0 
0 
0 
0 
0 
0 
0 
0 
0 
0 
0 
0 
0 
0 
0 
0 
0 
0 
0 
0 
0 
0 
0 
1.198049239492329 
0 
0 
0 
0 
0 
0 
0 
0 
-1.69527337473161 
0 
0 
0 
0 
0 
0 
0 
0 
0 
0 
0 
0 
0 
0 
0 
0 
0 
0.02351693738516143 
0 
0 
0 
0 
0 
0 
0 
0 
0 
0 
0 
0 
0 
0 
0 
0 
0 
0 
0 
0 
7.003641950968637 
0 
0 
0 
2.011092067190655 
0 
0 
0 
0 
0 
0 
0 
0 
0 
0 
0 
0 
0 
0 
0 
0 
0 
0 
0 
0 
0 
0 
0 
0 
0 
0 
0 
2.195237419361045 
0 
0 
0 
0 
0 
0 
0 
0 
1.50579986204612 
1.574347762337576 
0 
0 
0 
0 
0.8383356692724157 
0 
0 
0 
0 
0 
0 
0 
0 
0 
0 
0 
0 
0 
0 
0 
1.815583371628557 
0 
0 
0 
0 
0 
0 
0 
0 
1.189593565973419 
0 
0 
0 
0 
0 
0 
0 
0 
4.026909194303406 
0 
0 
0 
0 
0 
0 
0 
0 
0 
0 
0 
0 
0 
0 
0 
0 
0 
0 
0.7132235385983623 
2.505143789927348 
0 
0 
1.48440486504751 
0 
0 
0 
0 
0 
0 
0 
0 
0 
0 
0 
0 
0 
0 
0 
0 
3.302585880367772 
0 
0 
0 
0 
0 
0 
0 
0 
0 
0 
0 
0 
0 
0 
0 
0 
0 
1.855293159894377 
0 
3.039884530213138 
0 
0 
0 
0 
0 
0 
0 
0 
0 
0 
0 
0 
0 
0 
0 
0 
0 
0 
0 
0 
0 
0 
0 
0 
0 
0 
0 
0 
0 
0 
0 
0 
0 
0 
0 
0 
0 
0 
0 
0 
0 
0 
0 
0 
0 
0 
2.022907740783698 
0 
0 
0.9713497465309114 
0 
0 
1.48443557789301 
0 
0 
0 
0 
0 
0 
0 
0 
0 
0 
-0.9858470029211268 
0 
0 
0 
0 
-0.7996013619527774 
0 
0 
0 
0 
0 
0 
0 
0 
0 
0 
0 
0 
0 
0 
0 
0 
0 
0 
0 
0 
0 
0 
0.209505129160371 
0 
-0.1761743572392057 
0 
0 
0 
0 
0 
0 
0 
0 
0 
0 
0 
0 
0 
0 
0 
2.55181510165129 
0.5552903143050154 
0 
0 
0 
0 
0 
0 
0 
0 
0 
0 
0 
-1.895542435019271 
0 
0 
0 
0 
1.188719298779327 
0 
-2.404650108691284 
0 
0 
0 
0 
0 
0 
0 
0 
0 
0 
0 
0 
0 
0 
-0.1423433482335424 
0 
0 
0 
0 
0 
0 
0 
0 
-0.8893863776256533 
0 
0 
0 
0 
0 
0 
0 
0 
0.4484437984296329 
0 
0 
0 
0 
0 
0.8778849151067256 
0 
0 
0.2713265567536795 
0 
0 
0 
0 
0 
2.40832824084021 
0 
0 
0 
0 
0 
0.3031760257124158 
0 
0 
0.7792992306459522 
0 
0 
0 
0 
0 
0 
0 
0 
0 
0 
0 
0.814436176206883 
0 
0 
0 
0 
0 
0 
0 
0 
0 
0 
0 
0 
0.903091780662282 
0 
0 
0 
0 
0 
0 
0 
0 
0 
0 
0 
0 
0 
0 
0.2969709247565447 
0 
0 
0 
0 
0 
0 
0 
0 
0 
0 
0 
0 
0 
0 
-1.119263540677535 
0 
0 
0 
0 
0 
0 
0 
0 
0 
0 
0 
0 
0 
0 
0 
0 
0 
0 
0 
0 
0 
0 
0 
0 
0 
0 
0 
0 
0 
0 
0 
0 
0 
0 
0 
0 
0 
0 
0 
0 
-0.8597882204245316 
0 
0 
0 
0 
0 
0 
0 
0 
0 
-3.239159878569484 
0 
0 
0 
0 
0 
0 
0 
0 
0 
0 
0 
0 
-4.892787221498805 
0 
0 
0 
-0.1373026174370761 
0 
0 
-2.237262337228507 
0 
0 
0 
0 
0 
0 
0 
0 
0 
0 
0 
0 
0 
0 
0 
0 
0 
0 
0 
0 
0 
0 
0 
0 
0 
0 
0 
0 
0 
0 
0 
0 
0 
0 
0 
0 
0 
0 
0 
0 
0 
0 
0 
0 
0 
-1.819431325698555 
0 
0 
0 
0 
0 
0 
0 
0 
0 
0 
0 
0 
0 
0 
0 
0 
0 
0 
0 
0 
0 
0 
0 
0 
0 
0 
0 
0 
0 
0 
0 
0 
0 
0 
0 
0 
0 
0 
0 
0 
0 
0 
0 
0 
0 
0 
0 
0 
0 
0 
0 
0 
0 
0 
0 
0 
0 
0 
0 
-2.227652127905542 
0 
0 
0 
0 
0 
0 
0 
0 
0 
0 
0 
0 
0 
0 
0 
0 
0 
0 
0 
0 
0 
0 
0 
0 
0 
0 
0 
0 
0 
0 
0 
0 
0 
0 
0 
0 
0 
0 
0 
0 
0 
0 
0 
0 
0 
0 
-4.389655941981207 
0 
0 
0 
0 
-1.581737585237165 
0 
0 
0 
0 
0 
0 
0 
0 
0 
0 
0 
0 
-0.2599516319735096 
0 
0 
0 
0 
0 
0 
0 
0 
0 
0 
0 
0 
0 
0 
0 
0 
0 
0 
0 
0 
0 
0 
0 
0 
0 
0 
0 
0 
0 
0 
0 
0 
0 
0 
0 
0 
0 
0 
0 
0 
0 
0 
0 
0 
0 
0 
0 
0 
0 
0 
0 
0 
0 
0 
0 
0 
0 
0 
0 
0 
0 
0 
0 
-3.639900199852633 
0 
0 
0 
0 
0 
0 
0 
0 
0 
0 
0 
0 
0 
0 
0 
0 
0 
0 
0 
-2.604105703685942 
0 
0 
0 
0 
0 
0 
0 
0 
0 
0 
0 
0 
0 
0 
0 
0 
0 
0 
0 
0 
0 
0 
0 
0 
0 
0 
0 
-0.8689067401106408 
0 
0 
0 
0 
0 
0 
0 
0 
0 
0 
0 
0 
0 
0 
0 
0 
0 
0 
0 
0 
0 
0 
0 
0 
0 
0 
0 
0 
0 
0 
0 
0 
0 
0 
0 
0 
0 
0 
0 
0 
0 
0 
0.9561031692211062 
0 
0 
0 
-2.265753647511711 
-1.060669732503379 
0 
0 
0 
0 
0 
0 
0 
0 
-1.661337752010274 
-2.355037151212368 
0 
0 
0 
0 
0 
0 
0 
0 
-1.645963171253038 
0 
0 
0 
0 
0 
0 
0 
0 
0 
0 
0 
0 
0 
0 
0 
0 
0 
0 
0 
0 
0 
0 
0 
0 
0 
0 
0 
0 
0 
0 
0 
0 
0 
0 
0 
0 
0 
0 
0 
0 
0 
0 
0 
0 
0 
0 
0 
0 
0 
0 
0 
0 
0 
0 
0 
0 
0 
0 
0 
0.5999316107676557 
0 
0 
0 
0 
0 
0 
0 
0 
0 
0 
0 
0 
0 
0 
0 
0 
0 
0 
0 
0 
0 
0 
0 
0 
0 
0 
0 
0 
0 
0 
0 
0 
0 
0 
0 
0 
0 
0 
0 
0 
0 
0 
0 
0 
0 
0 
0 
0 
0 
0 
0 
0 
0 
0.6825750922875127 
0 
0 
0 
0 
0 
0 
0 
0 
0 
0 
0 
0 
0 
0 
0 
0 
0 
0 
0 
0 
0 
0 
0 
0 
0 
0 
0 
0 
0 
0 
0 
0 
0 
0 
0 
0 
0 
0 
0 
0 
0 
0 
0 
0 
0 
0.6645571533404294 
0 
0 
0 
0 
0 
0 
0 
0 
0 
0 
0 
0 
0 
0 
0 
0 
0 
0 
0 
0 
0 
0 
0 
0 
0 
0 
0 
0 
0 
0 
0 
0 
0 
0 
0 
0 
0 
0 
0 
0 
0 
-0.3890203126287098 
0 
0 
0 
0 
0 
0 
0 
0 
1.019405080508691 
0 
0 
0 
0 
0 
0 
0 
0 
0 
0 
0 
0 
0 
0 
0 
0 
0 
0 
0 
0 
0 
0 
0 
0 
0 
0 
0 
0 
0 
0 
0 
0 
0 
0 
0 
0 
0 
0 
0 
0 
0 
0 
0 
0 
0 
0 
0 
0 
0 
0 
0 
0 
0 
0 
0 
0 
0 
0 
0 
0 
0 
0 
0 
0 
0 
0 
0 
0 
0 
0 
0 
0 
0 
0 
0 
0 
0 
0 
0 
0 
0 
0 
0 
0 
0 
0 
0 
0 
0 
0 
0 
0 
0 
0 
0 
-1.039426179119313 
0 
0 
0 
0 
0 
0 
0 
0 
0 
0 
0 
0 
0 
0 
0 
0 
0 
0 
0 
0 
0 
0 
0 
0 
0 
0 
0 
0 
0 
0 
0 
0 
0 
2.995419888497642 
0 
0 
0 
0 
0 
0 
0 
0 
0 
0 
0 
0 
0 
0 
0 
0 
0 
0 
0 
0 
0 
0 
0 
0 
0 
0 
0 
0 
0 
0 
0 
0 
0 
-0.0527256811455033 
0 
0 
0 
0 
0 
0 
0 
0 
0 
0 
0 
0 
0 
0 
0 
0 
0 
0 
0 
0 
0 
0 
0 
0 
0 
0 
0 
0 
0 
0 
0 
0 
0 
0 
0 
0 
0 
0 
0 
0 
0 
0 
0 
0 
0 
0 
0 
0 
0 
0 
0 
0 
0 
0 
0 
0 
0 
0 
0 
0 
0 
0 
0 
0 
0 
0 
0 
0 
0 
0 
0 
0 
0 
0 
0 
0 
0 
0 
0 
0 
0.6754655074930188 
0 
0 
-0.1980388822027963 
0 
0 
0 
0 
0 
0 
0 
0 
0 
0 
0 
0 
0 
0 
0 
0 
0 
0 
0 
0 
0 
0 
0 
0 
0 
0 
0 
0 
0 
0 
0 
0 
0 
0 
0 
0 
0 
0 
0 
0 
0 
0 
0 
0 
0 
0 
0 
0 
0 
0 
0 
0 
0 
0 
0 
0 
0 
0 
0 
0 
0 
0 
0 
0 
0 
0 
0 
0 
0 
0 
0 
0 
0 
0 
0 
0 
0 
-1.25570584455953 
0 
0 
0 
0 
0 
0 
0 
0 
0 
0 
0 
0 
0 
0 
0 
0 
0 
0 
0 
0 
0 
0 
0 
0 
0 
0 
0.3852695879377739 
0 
0 
0 
0 
3.214407412158804 
0 
0 
0 
0 
0 
0 
0 
0 
0 
0 
0 
0 
0 
0 
0 
0 
0 
0 
0 
0 
0 
0 
0 
0 
0 
0 
0 
0 
0 
0 
0 
0 
0 
0.02249977037567988 
0 
0 
0 
0 
0 
0 
0 
-0.04194769178834142 
0 
0 
0 
0 
0 
-1.871674662333036 
0 
0 
0 
0 
0 
0 
0 
0 
0 
0 
0 
0 
0 
0 
0 
0 
0 
0 
0 
0 
0 
0 
0 
0 
0 
0 
0 
0 
0 
0 
0 
-1.417746026323331 
0 
0 
0 
0 
0 
0 
0 
-0.4498519654117668 
0 
0 
0 
0 
0 
0 
0 
0 
0 
0 
0 
0 
0 
0 
0 
0 
0 
0 
0 
0 
0 
0 
0 
0 
0 
0 
0 
0 
0 
0 
0 
0 
0 
0 
0 
0 
0 
0 
0 
0 
0 
0 
0 
0 
0 
0 
0 
0 
0 
0 
0 
1.491372186715955 
0 
0 
0 
0 
0 
0 
0 
0 
0 
0 
0 
0 
0 
0 
0 
0 
0 
0 
0 
0 
0 
0 
0 
0 
0 
0 
0 
0 
0 
0 
0 
0 
0 
0 
0 
0 
0 
0 
0 
0 
0 
0 
0 
0 
0 
0 
0 
0 
0 
0 
0 
0 
0 
0 
0 
0 
0 
0 
0 
0 
0 
0 
0 
0 
0 
0 
0 
0 
0 
0 
0 
0 
0 
0 
0 
0 
0 
0 
0 
0 
0 
0 
0 
0 
0 
0 
0 
0 
0 
0 
0 
0 
0 
0 
0 
0 
0 
0 
0 
0 
0 
0 
0 
0 
0 
0 
0 
0 
0 
0 
0 
0 
0 
0 
0 
0.4086591139450146 
0 
0 
0 
0 
0 
0 
0 
0 
-2.670761750246655 
0 
0 
0 
0 
0 
0 
0 
0 
0 
0.7516044854406347 
-2.38299752521235 
0 
0 
0 
0 
0 
0 
0 
0 
0 
0 
-0.9762815729142284 
0 
0 
0.8859889122212946 
0 
0 
0 
0 
0 
1.323064107997003 
0 
0 
0 
0 
0 
0 
0 
0 
0 
0 
0 
0 
0 
0 
0 
0 
1.013172225199643 
0 
0 
0 
0 
0 
0 
0 
0 
0 
0 
5.917516127727829 
-1.846412311289103 
0 
0 
0 
0 
0 
0 
0 
0 
0 
0 
0.405851157781408 
0 
0 
0 
0 
0 
-0.2906332966847718 
0 
0 
0 
0 
0 
0 
0 
0 
0 
0 
0 
0 
0 
0 
0 
0 
0 
0 
0 
0 
0 
0 
0 
0 
0 
0 
0 
0 
0 
0 
0 
0 
0 
0 
0 
0 
0 
0 
0 
0 
0 
0 
0 
0 
0 
0 
0 
0 
0 
0 
0 
0 
0 
0 
0 
0 
0 
0 
0 
0 
0 
0 
0 
0 
0 
0 
0 
0 
0 
0 
0 
0 
0 
0 
0 
0 
0 
0 
0 
0 
0 
0 
0 
0 
0 
0 
0 
0 
0 
0 
0 
0 
0 
0 
0 
0 
0 
0 
0 
0 
0 
0 
0 
0 
0 
0 
0 
0 
0 
0 
0 
0 
0 
0 
0 
0 
0 
0 
0 
0 
0 
0 
0 
0 
0 
0 
0 
0 
0 
0 
0 
0 
0 
0 
0 
0 
0 
0 
0 
0 
0 
0 
0 
0 
0 
0 
0 
0 
0 
0 
0 
0 
0 
0 
0 
0 
0 
0 
0 
0 
0 
0 
0 
0 
0 
0 
0 
0 
0 
0 
0 
0 
0 
0 
0 
0 
0 
0 
0 
0 
0 
0 
0 
0 
0 
0 
0 
0 
0 
0 
0 
0 
0 
0 
0 
0 
0 
0 
0 
0 
0 
0 
0 
0 
0 
0 
0 
0 
0 
0 
0 
0 
0.9561557583775093 
0 
0 
0 
0 
0 
0 
1.596215467564165 
0 
0 
0 
0 
0 
0 
0 
0 
0 
0 
0 
0 
0 
0 
0 
0 
0 
0 
0 
-1.009673175912696 
0 
0 
0 
0 
0 
0 
0 
0 
-5.829790241018072 
0 
0 
0 
0 
0 
0 
0 
0 
0 
0 
0 
0 
0 
0 
0 
0 
0 
0 
0 
0 
0 
0 
0 
0 
0 
0 
0 
0 
0 
0 
0 
0 
0 
0 
0 
0 
0 
0 
0 
0 
0 
0 
0 
0 
0 
0 
0 
0 
0 
0 
0 
0 
0 
0 
0 
0 
0 
0 
0 
0 
0 
0 
0 
0 
0 
0 
0 
0 
0 
0 
0 
0 
0 
0 
0 
0 
0 
0 
0 
0 
0 
0 
0 
0 
0 
0 
0 
0 
0 
0 
0 
0 
0 
0 
0 
0 
0 
0 
0 
0 
0 
0 
0 
0 
0 
0 
0 
0 
0 
0 
0 
0 
0 
0 
0 
0 
0 
0 
0 
0 
0 
0 
0 
0 
0 
0 
0 
0 
0 
0 
0 
0 
0 
0 
0 
0 
0 
0 
0 
0 
0 
0 
0 
0 
0 
0 
0 
0 
0 
0 
0 
0 
0 
0 
0 
0 
0 
0 
0 
0 
0 
0 
0 
0 
0 
0 
0 
0 
0 
0 
0 
0 
0 
0 
0 
0 
0 
0 
0 
0 
0 
0 
0 
0 
0 
0 
0 
0 
0 
0 
0 
0 
0 
0 
0 
0 
0 
0 
0 
0 
0 
0 
0.3123721531891822 
0 
0 
0 
0 
0 
0 
0 
0 
0 
0 
0 
0 
0 
0 
0 
0 
0 
0 
0 
0 
0 
0 
0 
0 
0 
0 
0 
-1.25790636947092 
0 
0 
0 
0 
0 
0 
0 
0 
0 
0 
0 
0 
-1.905041948527516 
0 
0 
0 
0 
0 
0 
0 
0 
0 
0 
0 
0 
0 
0 
0 
0 
0 
0 
0 
0 
0 
0 
0 
0 
0 
0 
0 
0 
0 
0 
0 
0 
0 
0 
0 
0 
0 
0 
0 
0 
0 
0 
0 
0 
0 
0 
0 
0 
0 
0 
0 
0 
0 
0 
0 
0 
0 
0 
0 
0 
0 
0 
0 
0 
0 
0 
0 
0 
0 
0 
0 
0 
0 
0 
0 
0 
0 
0 
0 
0 
0 
0 
0 
0 
0 
0 
0 
0 
0 
0 
0 
0 
0 
0 
0 
0 
0 
0 
0 
0 
0 
0 
0 
0 
0 
0 
0 
0 
0 
0 
0 
0 
0 
0 
0 
0 
0 
0 
0 
0 
0 
0 
0 
0 
0 
0 
0 
0 
0 
0 
0 
0 
0 
0 
0 
0 
0 
0 
0 
0 
0 
0 
0 
0 
0 
0 
0 
0 
0 
0 
0 
0 
0 
0 
0 
0 
0 
0 
0 
0 
0 
0 
0 
0 
0 
0 
0 
0 
0 
0 
0 
0 
0 
0 
0 
0 
0 
0 
-0.3361900650724448 
0 
0 
0 
0 
0 
0 
0 
0 
0 
0 
0 
0 
0 
0 
0 
0 
0 
0 
0 
0 
0 
0 
0 
0 
0 
0 
0 
0 
0 
0 
0 
0 
0 
0 
0 
0 
0 
0 
0 
0 
0 
0 
0 
0 
0 
0 
0 
0 
0 
0 
0 
0 
0 
0 
0 
0 
0 
0 
0 
0 
0 
0 
0 
0 
0 
0 
0 
0 
0 
0 
0 
0 
0 
0 
0 
0 
0 
0 
0 
0 
0 
0 
0 
0 
0 
0 
0 
0 
0 
0 
0 
0 
0 
0 
0 
0 
0 
0 
0 
0 
0 
0 
0 
0 
0 
0 
0 
0 
0 
0 
0 
0 
0 
0 
0 
0.04888935906144849 
0 
0 
0 
0 
0 
0 
0 
0 
0 
0 
0 
0 
0 
0 
0 
0 
0 
0 
0 
0 
0 
0 
0 
0 
0 
0 
0 
0 
0 
0 
0 
0 
0 
0 
0 
0 
0 
0 
0 
0 
0 
2.255749652130327 
0 
0 
0 
0 
0 
0 
0 
0 
0 
0 
0 
0 
0 
0 
0 
0 
0 
0 
0 
0.1446849911021677 
0 
0 
0 
0 
0 
0 
0 
0 
0 
0 
0 
0 
0 
0 
0 
0 
0 
0 
0 
0 
0 
0 
0 
0 
0 
0 
0 
0 
0 
0 
0 
0 
0 
0 
0 
0 
0 
0 
0 
0 
0 
0 
0 
0 
0 
0 
0 
0 
0 
0 
0 
0 
0 
0 
0 
0 
0 
0 
0 
0 
0 
0 
0 
0 
0 
0 
0 
0 
0 
-2.012396681771302 
0 
0 
0 
0 
0 
0 
0 
0 
0 
0 
0 
0 
0 
0 
0 
0 
0 
0 
0 
0 
0 
0 
0 
0 
0 
0 
0 
0 
0 
0 
0 
0 
0 
0 
0 
0 
0 
0 
0 
0 
0 
0 
0 
0 
0 
0 
0 
0 
0 
0 
0 
0 
0 
0 
0 
0 
0 
0 
0 
0 
0 
0 
0 
0 
0 
0 
0 
0 
0 
0 
0 
0 
0 
0 
0 
0 
0 
0 
0 
0 
0 
0 
0 
0 
0 
0 
0 
0 
0 
0 
0 
0 
0 
0 
0 
0 
0 
0 
0 
0 
0 
0 
0 
0 
0 
0 
0 
0 
0 
0 
0 
0 
0 
0 
0 
0 
0 
0 
0 
0 
0 
0 
0 
0 
0 
0 
0 
0 
0 
0.1173043750340605 
0 
0 
0 
0 
0 
0 
0 
0 
0 
0 
0 
0 
0 
0 
0 
0 
0 
0 
-5.095170583992369 
0 
0 
0 
0 
0 
0 
0 
-0.4106742994515081 
0 
0 
0 
0 
0 
0 
0 
0 
0 
1.148824669996714 
0 
0 
0 
0 
0 
0 
0 
0 
0 
0 
0 
0 
0 
0 
0 
0 
0 
0 
0 
0 
0 
0 
0 
0 
0 
0 
0 
-0.6259253759175985 
0 
0 
0 
0 
0 
0 
0 
0 
0 
0 
0 
0 
0 
0 
0 
0 
0 
0 
0 
0 
0 
0 
0 
0 
0 
0 
0 
0 
0 
0 
0 
0 
-1.094662802286851 
0 
0 
0 
0 
0 
0 
0 
0 
0 
0 
0 
0 
0 
0 
0 
0 
0 
0 
0 
0 
0 
0 
0 
0 
0 
0 
0 
0 
0 
0 
0 
0 
0 
0 
0 
0 
0 
0 
0 
0 
0 
0 
0 
0 
0 
0 
0 
0 
0 
0 
0 
0 
0 
0 
0 
0 
0 
0 
0 
0 
0 
0 
0 
0 
2.03318975384385 
0 
0 
0 
0 
0 
0 
0 
0 
0 
0 
0 
0 
0 
0 
0 
0 
0 
0 
0 
0 
0 
0 
0 
0 
0 
0 
0 
0 
0 
0 
0 
0 
0 
0 
0 
0 
0 
0 
0 
0 
0 
0 
0 
0 
0 
0 
0 
0 
0 
0 
0 
0 
0 
0 
0 
0 
0 
0 
0 
0 
0 
0 
0 
0 
0 
0 
0 
0 
0 
0 
0 
0 
0 
0 
0 
0 
0 
0 
0 
0 
0 
0 
0 
0 
0 
0 
0 
0 
0 
0 
0 
0 
0 
0 
0 
0 
0 
0 
0 
0 
0 
0 
0 
0 
0 
0 
0 
0 
0 
0 
0 
-0.717812017386383 
0 
0 
0 
0 
0 
0 
0 
0 
0 
0 
0 
0 
0 
0 
0 
0 
0 
0 
0 
0 
0 
0 
0 
0 
0 
0 
0 
0 
0 
0 
0 
0 
0 
0 
0 
0 
0 
-0.337324196437245 
0 
0 
0 
0 
0 
0 
0 
0 
0 
0 
0 
0 
0 
0 
0 
0 
0 
0 
0 
0 
0 
-1.209225733167742 
0 
0 
0 
0 
0 
0 
0 
0 
0 
0 
0 
0 
0 
0 
0 
0 
0 
0 
0 
0 
0 
0 
0 
0 
0 
0 
0 
0 
1.789640960706077 
0 
0 
1.15142670796277 
0 
0 
0 
0 
0 
0 
0 
0 
0 
0 
0 
0 
0 
0 
0 
0 
0 
0 
0 
0 
0 
0 
0 
0 
0 
0 
0 
0 
0 
0 
0 
0 
0 
0 
0 
0 
0 
0 
0 
0 
0 
0 
0 
0 
0 
0 
0 
0 
0 
0 
0 
0 
0 
0 
0 
0 
0 
0 
0 
0 
0 
0 
0 
0 
0 
0 
0 
0 
0 
0 
0 
0 
0 
0 
0 
-2.426588569478879 
0 
0 
0 
0 
0 
0 
0 
0 
0 
0 
0 
0 
0 
0 
0 
0 
0 
0 
0 
0 
0 
0 
0 
0 
0 
0 
0 
0 
0 
0 
0 
0 
0 
0 
0 
0 
0 
0 
0 
0 
0 
0 
0 
0 
0 
0 
0 
0 
0 
0 
0 
0 
0 
0 
0 
0 
0 
0 
0 
0 
0 
0 
0 
0 
0 
0 
0 
0 
0 
0 
0 
0 
0 
0 
0 
0 
0 
0 
0 
0 
0 
0 
0 
0 
0 
0 
0 
0 
0 
0 
0 
0 
0 
0 
0 
0 
0 
0 
0 
0 
0 
0 
0 
0 
0 
0 
0 
0 
0 
0 
0 
0 
0 
0 
0 
0 
0 
0 
0 
0 
0 
0 
0 
0 
0 
-1.19617388385515 
0 
0 
0 
0 
0 
0 
0 
0 
0 
0 
0 
0 
0 
0 
0 
0 
0 
0 
0 
0 
0 
0 
0 
0 
0 
0 
0 
0 
0 
0 
0 
0 
0 
0 
0 
0 
0 
0 
0 
0 
0 
0 
0 
0 
0 
0 
0 
0 
0 
0 
0 
0 
0 
0 
0 
0 
0 
0 
0 
0 
0 
0 
0 
0 
0 
0 
0 
0 
0 
0 
0 
0 
0 
0 
0 
0 
0 
0 
0 
0 
0 
0 
0 
0 
0 
0 
0 
0 
0 
0 
0 
0 
0 
0 
0 
0 
0 
0 
0 
0 
0 
0 
0 
0 
0 
0 
0 
0 
0 
0 
0 
0 
0 
0 
0 
0 
0 
0 
0 
0 
0 
0 
0 
0 
0 
0 
0 
0 
0 
0 
0 
0 
0 
0 
0 
0 
0 
0 
0 
0 
0 
0 
0 
0 
0 
0 
0 
0 
0 
0 
0 
0 
0 
0 
0 
0 
0 
0 
0 
0 
0 
0 
0 
0 
0 
0 
0 
0 
0 
0 
0 
0 
0 
0 
0 
0 
0 
0 
0 
0 
0 
0 
0 
0 
0 
0 
0 
0 
0 
0 
0 
0 
0 
0 
0 
0 
0 
0 
0 
0 
0 
0 
0 
0 
0 
0 
0 
0 
0 
0 
0 
0 
0 
0 
0 
0 
0 
0 
0 
0 
0 
0 
0 
0 
0 
0 
0 
0 
0 
0 
0 
0 
0 
0 
0 
0 
0 
0 
0 
0 
0 
0 
0 
0 
0 
0 
0 
0 
0 
0 
0 
0 
0 
-1.659262363132976 
0 
0 
0 
0 
0 
0 
0 
0 
0 
0 
0 
0 
0 
0 
0 
0 
0 
0 
0 
0 
0 
0 
0 
0 
0 
0 
0 
0 
0 
0 
0 
0 
0 
0 
0 
0 
0 
0 
0 
0 
0 
0 
0 
0 
0 
0 
0 
0 
0 
0 
0 
0 
0 
0 
0 
0 
0 
0 
0 
0 
0 
0 
0 
0 
0 
0 
0 
0 
0 
0 
0 
0 
0 
0 
0 
0 
0 
0 
0 
0 
0 
0 
0 
0 
0 
0 
0 
0 
0 
0 
0 
0 
0 
0 
0 
0 
0 
0 
0 
0 
0 
0 
0 
0 
0 
0 
0 
0 
0 
0 
0 
0 
0 
0 
0 
0 
0 
0 
0 
0 
0 
0 
0 
0 
0 
0 
0 
0 
0 
0 
0 
0 
0 
0 
0 
0 
0 
0 
0 
0 
0 
0 
0 
0 
0 
0 
0 
0 
0 
0 
0 
0 
0 
0 
0 
0 
0 
0 
0 
0 
0 
0 
0 
0 
0 
0 
0 
0 
0 
0 
0 
0 
0 
0 
0 
0 
0 
0 
0 
0 
0 
0 
0 
0 
0 
0 
0 
0 
0 
0 
0 
0 
0 
0.4891237783122047 
0 
0 
0 
0 
0 
0 
0 
0 
0 
0 
0 
0 
0 
0 
0 
0 
0 
0 
0 
0 
0 
0 
0 
0 
0 
0 
0 
0 
0 
0 
0 
0 
0 
0 
0 
0 
0 
0 
0 
0 
0 
0 
0 
0 
0 
0 
0 
0 
0 
0 
0 
0 
0 
0 
0 
0 
0 
0 
0 
0 
0 
0 
0 
0 
0 
0 
0 
0 
0 
0 
0 
0 
0 
0 
0 
0 
0 
0 
0 
0 
0 
0 
0 
0 
0 
0 
0 
0 
0 
0 
0 
0 
0 
0 
0 
0 
0 
0 
0 
0 
0 
0 
0 
0 
0 
0 
0 
0 
0 
0 
0 
0 
0 
0 
0 
0 
0 
0 
0 
0 
0 
0 
0 
0 
0 
0 
0 
0 
0 
0 
0 
0 
0 
0 
0 
0 
0 
0 
0 
0 
0 
0 
0 
0 
0 
0 
0 
0 
0 
0 
0 
0 
0 
0 
0 
0 
0 
0 
0 
0 
0 
0 
0 
0 
0 
0 
0 
0 
0 
0 
0 
0 
0 
0 
0 
0 
0 
0 
0 
0 
0 
0 
0 
0 
0 
0 
0 
0 
0 
0 
0 
0 
0 
0 
0 
0 
0 
0 
0 
0 
0 
0 
0 
0 
0 
0 
0 
0 
0 
0 
0 
0 
0 
0 
0 
0 
0 
0 
0 
0 
0 
0 
0 
0 
0 
0 
0 
0 
0 
0 
0 
0 
0 
0 
0 
0 
0 
0 
0 
0 
0 
0 
0 
0 
0 
0 
0 
0 
0 
0 
0 
0 
0 
0 
0 
0 
0 
0 
0 
0 
0 
0 
0 
0 
0 
0 
0 
0 
0 
0 
0 
0 
0 
0 
0 
0 
0 
0 
0 
0 
0 
0 
0 
0 
0 
0 
0 
0 
0 
0 
0 
0 
0 
0 
0 
0 
0 
0 
0 
0 
0 
0 
0 
0 
0 
0 
0 
0 
0 
0 
0 
0 
0 
0 
0 
0 
0 
0 
0 
0 
0 
0 
0 
0 
0 
0 
0 
0 
0 
0 
0 
0 
0 
0 
0 
0 
0 
0 
0 
0 
0 
0 
0 
0 
0 
0 
0 
0 
0 
0 
0 
0 
0 
0 
0 
0 
0 
0 
0 
0 
0 
0 
0 
0 
0 
0 
0 
0 
0 
0 
0 
0 
0 
0 
0 
0 
0 
0 
0 
0 
0 
0 
0 
0 
0 
0 
0 
0 
0 
0 
0 
0 
0 
0 
0 
0 
0 
0 
0 
0 
0 
0 
0 
0 
0 
0 
0 
0 
0 
0 
0 
0 
0 
0 
0 
0 
0 
0 
0 
0 
0 
0 
0 
0 
0 
0 
0 
0 
0 
0 
0 
0 
0 
0 
0 
0 
0 
0 
0 
0 
0 
0 
0 
0 
0 
0 
0 
0 
0 
0 
0 
0 
0 
0 
0 
0 
0 
0 
0 
0 
0 
0 
0 
0 
0 
0 
0 
0 
0 
0 
0 
0 
0 
0 
0 
0 
0 
0 
0 
0 
0 
0 
0 
0 
0 
0 
0 
0 
0 
0 
0 
0 
0 
0 
0 
0 
0 
0 
0 
0 
0 
0 
0 
0 
0 
0 
0 
0 
0 
0 
0 
0 
0 
0 
0 
0 
0 
0 
0 
0 
0 
0.384657603366405 
0 
0 
0 
0 
0 
0 
0 
0 
0 
0 
0 
0 
0 
0 
0 
0 
0 
0 
0 
0 
0 
0 
0 
0 
0 
0 
0 
0 
0 
0 
0 
0 
0 
0 
0 
0 
0 
0 
0 
0 
0 
0 
0 
0 
0 
0 
0 
0 
0 
0 
0 
0 
0 
0 
0 
0 
0 
0 
0 
0 
0 
0 
0 
0 
0 
0 
0 
0 
0 
0 
0 
0 
0 
0 
0 
0 
0 
0 
0 
-0.8665408561808969 
0 
0 
0 
0 
0 
0 
0 
0 
0 
0 
0 
0 
0 
0 
0 
0 
0 
0 
0 
0 
0 
0 
0 
0 
0 
0 
0 
0 
0 
0 
0 
0 
0 
0 
0 
0 
0 
0 
0 
0 
0 
0 
0 
0 
0 
0 
0 
0 
0 
0 
0 
0 
0 
0 
0 
0 
0 
0 
0 
0 
0 
0 
0 
0 
0 
0 
0 
0 
0 
0 
0 
0 
0 
0 
-0.6607051949413934 
0 
0 
0 
0 
0 
0 
0 
0 
0 
0 
0 
0 
0 
0 
0 
0 
0 
0 
0 
0 
0 
0 
0 
0 
0 
0 
0 
0 
0 
0 
0 
0 
0 
0 
0 
0 
0 
0 
0 
0 
0 
0 
0 
0 
0 
0 
0 
0 
0 
0 
0 
0 
0 
0 
0 
0 
0 
0 
0 
0 
0 
0 
0 
0 
0 
0 
0 
0 
0 
-0.08824276709900678 
0 
0 
0 
0 
0 
0 
0 
0 
0 
0 
0 
0 
0 
0 
0 
0 
0 
0 
0 
0 
0 
0 
0 
0 
0 
0 
0 
0 
0 
0 
0 
0 
0 
0 
0 
0 
0 
0 
0 
0 
0 
0 
0 
0 
0 
0 
0 
0 
0 
0 
0 
0 
0 
0 
0 
0 
0 
0 
0 
0 
0 
0 
0 
0 
0 
0 
0 
0 
0 
0 
0 
0 
0 
0 
0 
0 
0 
0 
0 
0 
0 
0 
0 
0 
0 
0 
0 
0 
0 
0 
0 
0 
0 
0 
0 
0 
0 
0 
0 
0 
0 
0 
0 
0 
0 
0 
0 
0 
0 
0 
0 
0 
0 
0 
0 
0 
0 
0 
0 
0 
0 
0 
0 
0 
0 
0 
0 
0 
0 
0 
0 
0 
0 
0 
0 
0 
0 
0 
0 
0 
0 
0 
0 
0 
0 
0 
0 
0 
0 
2.616370120217337 
0 
0 
0 
0 
0 
0 
0 
0 
0 
0 
0 
0 
0 
0 
0 
0 
0 
0 
0.02589602965004741 
0 
0 
0 
0 
0 
0 
0 
0 
0 
0 
0 
0 
0 
0 
0 
0 
0 
0 
0 
0 
0 
0 
0 
0 
0 
0 
0 
0 
0 
0 
0 
0 
0 
0 
0 
0 
1.698164572828616 
0 
0 
0 
0 
0 
0 
0 
0 
0 
0 
0 
0 
0 
0 
0 
0 
0 
0 
0 
0 
0 
0 
0 
0 
0 
0 
0 
0 
0 
0 
0 
0 
0 
0 
0 
0 
0 
0 
0 
0 
0 
0 
0 
0 
0 
0 
0 
0 
0 
0 
0 
0 
0 
0 
0 
0 
0 
0 
0 
0 
0 
0 
0 
0 
0 
0 
0 
0 
0 
0 
0 
0 
0 
0 
0 
0 
0 
0 
0 
0 
0 
0 
0 
-2.390816213088719 
-2.157949870979114 
0 
0 
0 
0 
0 
0 
0 
0 
0 
0 
0 
0 
0 
0 
0 
0 
0 
0 
0 
0 
0 
0 
0 
0 
0 
0 
0 
0 
0 
0 
0 
0 
0 
0 
0 
0 
0 
0 
0 
0 
0 
0 
0 
0 
0 
0 
0 
0 
0 
0 
0 
0 
0 
0 
0 
0 
0 
0 
0 
0 
0 
0 
0 
0 
0 
0 
0 
0 
-1.48760796715743 
0 
0 
0 
0 
0 
0 
0 
0 
0 
0 
0 
0 
0 
0 
0 
0 
0 
0 
0 
0 
0 
0 
0 
0 
0 
0 
0 
0 
0 
0 
0 
0 
0 
0 
0 
0 
0 
0 
0 
0 
0 
0 
0 
0 
0 
0 
0 
0 
0 
0 
0 
0 
0 
0 
0 
0 
0 
0 
0 
0 
0 
0 
0 
0 
0 
0 
0 
0 
0 
0 
0 
0 
0 
0 
0 
0 
0 
0 
0 
0 
0 
0 
0 
0 
0 
0 
0 
0 
0 
0 
0 
0 
0 
0 
0 
0 
0 
0 
0 
0 
0 
0 
0 
0 
0 
0 
0 
0 
0 
0 
0 
0 
0 
0 
0 
0 
0 
0 
0 
0 
0 
0 
0 
0 
0 
0 
0 
0 
0 
0 
0 
0 
0 
0 
0 
0 
0 
0 
0 
0 
0 
0 
0 
0 
0 
0 
0 
0 
0 
0 
0 
0 
0 
0 
0 
0 
0 
0 
0 
0 
0 
0 
0 
0 
0 
0.5323813223636272 
0 
0 
0 
0 
0 
0 
0 
0 
0 
0 
0 
0 
0 
0 
0 
0 
0 
0 
0 
0 
0 
0 
0 
0 
0 
0 
0 
0 
0 
0 
0 
0 
0 
0 
0 
0 
0 
0 
0 
0 
0 
0 
0 
0 
0 
0 
0 
0 
0 
0 
0 
0 
0 
0 
0 
0 
0 
0 
0 
0 
0 
0 
0 
0 
0 
0 
0 
0 
0 
0 
0.4075539944859323 
0 
0 
0 
0 
0.2722813399517773 
0 
0 
0 
0 
0 
0 
0 
0 
0 
0 
0 
0 
0 
0 
0 
0 
0 
0 
0 
0 
0 
0 
0 
0 
0 
0 
0 
0 
0 
0 
0 
0 
0 
0 
0 
0 
0 
0 
0 
0 
0 
0 
0 
0 
0 
0 
0 
0 
0 
0 
0 
0 
0 
0 
0 
0 
0 
0 
0 
0 
0 
0 
0 
0 
0 
0 
0 
0 
0 
0 
0 
0 
0 
0 
0 
0 
0 
0 
0 
0 
0 
0 
0 
0 
0 
0 
0 
0 
0 
0 
0 
0 
0 
0 
0 
0 
0.4019184896407697 
0 
0 
0 
0 
0 
0 
0 
0 
0 
0 
0 
0 
0 
0 
0 
0 
0 
0 
0 
0 
0 
0 
0 
0 
0 
0 
0 
0 
0 
0 
0 
0 
0 
0 
0 
0 
0 
0 
0 
0 
0 
0 
0 
0 
0 
0 
0 
0 
0 
0 
0 
0 
0 
0 
-4.633629229896636 
0 
0 
0 
0 
0 
0 
0 
0 
0 
0 
0 
0 
0 
0 
0 
0 
0 
0 
0 
0 
0 
0 
0 
0 
0 
0 
0 
0 
0 
0 
0 
0 
-2.594850267451035 
0 
0 
0 
0 
0 
0 
0 
0 
0 
0 
0 
0 
0 
0 
0 
0 
0 
0 
0 
0 
0 
0 
0 
0 
0 
0 
0 
0 
0 
0 
0 
0 
0 
0 
0 
0 
0 
0 
0 
0 
0 
0 
0 
0 
0 
0 
0 
0 
0 
0 
0 
0 
0 
0 
0 
0 
0 
0 
0 
0 
0 
0 
0 
0 
0 
0 
0 
0 
0 
0 
0 
0 
0 
0 
0 
0 
0 
0 
0 
0 
0 
0 
0 
0 
0 
0 
0 
0 
0 
0 
0 
0 
0 
0 
0 
0 
0 
0 
0 
0 
0 
0 
0 
0 
0 
0 
0 
0 
0 
-1.211837049477799 
0 
0 
0 
0 
0 
0 
0 
0 
0 
0 
0 
0 
0 
0 
0 
0 
0 
0 
0 
0 
0 
0 
0 
0 
0 
0 
0 
0 
0 
0 
0 
0 
0 
0 
0 
0 
0 
0 
0 
0 
0 
0 
0 
0 
0 
0 
0 
0 
0 
0 
0 
0 
0 
0 
0 
0 
0 
0 
0 
0 
0 
0 
0 
0 
0 
0 
0 
0 
0 
0 
0 
0 
0 
0 
0 
0 
0 
0 
0 
0 
0 
0 
0 
0 
0 
0 
0 
0 
0 
0 
0 
0 
0 
0 
0 
0 
0 
0 
0 
0 
0 
0 
0 
0 
0 
0 
0 
0 
0 
0 
0 
0 
0 
0 
0 
0 
0 
0 
0 
0 
0 
0 
0 
0 
0 
0 
0 
0 
0 
0 
0 
0 
0 
0 
0 
0 
0 
0 
0 
0 
0 
0 
0 
0 
0 
0 
0 
0 
0 
0 
0 
0 
0 
0 
0 
0 
0 
0 
0 
0 
0 
0 
0 
0 
0 
0 
0 
0 
0 
0 
0 
0 
0 
0 
0 
0 
0 
0 
0 
0 
0 
0 
0 
0 
0 
0 
0 
0 
0 
0 
0 
0 
0 
0 
0 
0 
0 
0 
0 
0 
0 
0 
0 
0 
0 
0 
0 
0 
0 
0 
0 
0 
0 
0 
0 
0 
0 
0 
0 
0 
0 
0 
0 
0 
0 
0 
0 
0 
0 
0 
0 
0 
0 
0 
0 
0 
0 
0 
0 
0 
0 
0 
0 
0 
0 
0 
0 
0 
0 
0 
0 
0 
0 
0 
0 
0 
0 
0 
0 
0 
0 
0 
0 
0 
0 
0 
0 
0 
0 
0 
0 
0 
0 
0 
0 
0 
0 
0 
0 
0 
0 
0 
0 
0 
0 
0 
0 
0 
0 
0 
0 
0 
0 
0 
0 
0 
0 
0 
0 
0 
0 
0 
0 
0 
0 
0 
0 
0 
0 
0 
0 
0 
0 
0 
0 
0 
0 
0 
0 
0 
0 
0 
0 
0 
0 
0 
0 
0 
0 
0 
0 
0 
0 
0 
0 
0 
0 
0 
0 
0 
0 
0 
0 
0 
0 
0 
0 
0 
0 
0 
0 
0 
0 
0 
0 
0 
0 
0 
0 
0 
0 
0 
0 
0 
0 
0 
0 
0 
0 
0 
0 
0 
0 
0 
0 
0 
0 
0 
0 
0 
