solver_type L1R_LR
nr_class 2
label 1 -1
nr_feature 98199
bias -1
w
-1.790027457590217 
0.2865520852468027 
0.03734309174836722 
-1.189954638359411 
-0.9384306726367786 
0 
0.8021698727794819 
0 
0.1943681378370352 
0 
2.261488414171123 
0 
0 
0 
0 
3.10611802712595 
1.021752960459257 
1.484346321668753 
0.5467587507165819 
0.02156007579014821 
1.317688788826185 
0.04824500379268357 
-0.3416989349170602 
0 
1.908426058906926 
0 
-0.0487016713493203 
0 
0 
1.492592135886862 
0.6703810496851906 
0 
0 
3.88428847304715 
0 
-0.5594705063927894 
-0.5520717097481724 
0 
0 
0 
0 
0 
-1.46692627520752 
0.2511299152328356 
0 
-1.40924910215885 
0.3023250424362483 
0 
0 
-2.564205550977663 
0 
0 
-1.758767033775619 
0 
0 
0.05766963484866199 
0 
0 
-0.2505448261357706 
0 
0 
-1.212368775321224 
1.904950661466837 
-1.545703171824377 
0 
-0.9793376336817412 
0 
0 
1.641243718056959 
0.7701872144875251 
0 
1.365538135202319 
0.9944937302632914 
0 
0 
0 
0 
0 
0 
-0.2751261298593264 
0 
2.21207760707861 
1.51200730162202 
0 
-0.7316918186712891 
0 
0 
-1.89308000414197 
0 
0 
0 
-0.6419248920099712 
1.404154284745471 
0 
0 
0 
0 
-1.271530547938059 
0.146136059957823 
-0.6141165228812511 
0.1629492461641686 
-0.3831249625963311 
0 
0 
0 
-0.6261845435529312 
0 
0 
-0.7237699163297191 
-1.251061914049536 
0 
-0.1109725255966974 
0 
0 
-0.5471070889460786 
0.1048150605547503 
0 
0 
0 
0 
0 
2.080063083798654 
0 
-0.1656945107198022 
1.646004324973923 
0 
-0.1945753913513869 
0 
0 
-0.7514810727657711 
2.215038256702977 
-0.6167592558807935 
-0.5383436994178611 
-0.5730387763892497 
0 
0.5767970241952762 
0 
-1.441812656721226 
-0.536359622533691 
0.6880120296851637 
-1.728099925170891 
0 
0 
0 
1.027664452046337 
-0.2447180344841723 
-1.733502935999553 
0 
-0.08523030355375495 
0 
0 
0 
0.2872557727599076 
0.5921501500899459 
0 
0 
0 
0.06462027660915073 
0.9298069538831563 
0 
-1.188556034117755 
1.122451929377619 
0.7152449002955134 
0 
0.6992361646925879 
0 
0 
0 
0.5649721562873495 
0 
0 
0 
0 
0 
0 
-2.322723734830832 
0.2797937845607267 
0 
1.237464987264026 
0 
0 
0 
0 
0 
-0.6081419577026306 
-0.5351812859984026 
-0.4086296789267455 
0 
0 
0 
0 
0 
0 
0 
-0.2122692467419664 
0 
0 
0 
0 
0 
-1.821038175078139 
-0.009053674073905598 
0 
0.2104285752603878 
0 
0 
0 
-0.6552007398432665 
0 
0 
-0.1362938892744299 
0 
0 
-1.658544932155994 
0 
-0.9894150091749213 
0 
0 
0 
0 
-1.959598335910779 
0 
-0.3442984815998662 
0 
0 
0 
0 
0 
0 
0 
-0.1687672031134922 
-0.8791490616421382 
0 
0 
-0.2040002979778146 
-1.082040028869531 
0 
0 
0 
0 
0.05150638335893266 
0 
-0.1888734237134399 
0 
-0.4470275854879934 
0 
0 
0 
0 
0 
0.4917550965119078 
0 
-1.603473339448913 
0 
0 
0 
0.1041921713688319 
0 
0 
-0.03582378060261352 
0 
0 
1.86532121231167 
0 
0 
-0.3463674767586915 
0 
0 
0 
-1.172635091072337 
0 
0 
0 
0 
0 
0 
0 
0.5266248939510486 
-0.7619942065205725 
0 
0 
0 
0 
0 
0 
-0.9841414422497995 
0.3935032824277928 
0.3635208006017659 
0 
0.4903077219540643 
-2.236646793174423 
0 
0 
-1.155950031356317 
0 
0 
0 
0 
0 
0 
1.597418353189408 
0 
0 
0 
0 
0.1433525530391683 
0 
0.9867737197416933 
0 
0.05908339528272497 
0 
0.2101890684379979 
1.275684745809424 
0.1606570876034747 
0 
0 
0 
0 
0 
0 
0 
0.7506923161449045 
1.269126507498336 
0 
-0.4239873420692913 
-0.870704810951239 
-0.7783677725702894 
0 
-0.9207659332767277 
0 
-0.9033332224186375 
0 
-1.412864077641649 
0 
0 
0 
-0.10128859508394 
0 
0 
0 
0 
0 
0 
0 
0.5373904188816996 
0.5377586111459661 
0 
0 
0 
-0.006714442387818724 
0 
-0.8138513396907411 
0 
0 
-0.710736421520222 
0.07141240507138147 
0 
-0.3468890711185094 
0 
0 
0 
-1.261140659742617 
0 
0 
0.127009728274437 
-0.95875539260754 
0 
0.5166578256117801 
0 
0 
-2.361001227818104 
0 
0 
-0.7533556292231343 
0.8576629019871713 
-2.32176912580373 
0 
0 
-1.081128845365193 
1.10433429949066 
1.278122111539767 
0 
0 
0.3558354613795901 
0.9861756896694602 
0 
-0.970772856527232 
0 
0 
0 
-0.6471681840886472 
-0.3774698440502644 
-0.5114447324861027 
0.07960682086762816 
0 
0 
0 
-0.5320595633920968 
0.03537724262616583 
1.373133304893061 
0 
0 
0 
0 
-0.189813228375093 
0 
-1.392187205323941 
0 
0.6965266062087487 
2.396339876328643 
0 
-1.648809861554312 
0 
0 
0 
0 
0 
0 
0 
0 
0 
0 
0 
0 
0 
0.3102269797685364 
0 
-3.610251237323798 
2.601304382477687 
-1.570842711857545 
0 
0 
0 
0 
0.7211128811419344 
0.7484736909598023 
0.7301071098690212 
-1.668834306264684 
0 
0 
0 
-1.495992739115664 
-1.870244800491983 
-0.1759935232009997 
0 
0.4582434020462854 
0 
0 
0.8062847559570813 
0.1137450668790485 
-3.729304846278235 
0 
0 
-2.149239734076443 
0 
-0.0502368915225962 
-0.9490422107252217 
-0.3711748756967588 
-0.06907424794623682 
-0.3289920643717193 
0 
-1.368612794977614 
0 
0.3241310018316004 
0 
-1.032211237484235 
-4.526415845747848 
0 
0 
0 
0 
0 
0 
0 
0 
0 
-0.7459421836956889 
0 
0 
0 
0 
0 
0 
0 
0 
-1.959953668213649 
-0.6277685741405368 
0 
0 
1.249977849093177 
0 
0 
0 
0 
2.478520701335948 
0 
-0.4518600169955205 
0 
0 
0 
-0.3824505750379141 
0 
0 
2.610069420226525 
0 
0 
0 
-3.058448080079489 
0 
0.4875558472548746 
0 
1.418680797145896 
-3.005576831073598 
0 
0 
2.293521358965013 
1.164967825533877 
0 
0 
0 
0 
0 
0 
0 
0 
-0.02627424459723453 
0 
-0.3457323518199718 
2.582150507914988 
0 
-0.2477751823344761 
-0.3355460243396412 
0 
0.1822476055965762 
-1.146526421277174 
0.05809405394029413 
-2.320791420610395 
0 
0 
-0.111781837124952 
0 
0 
0 
0 
-0.6507406260395915 
0.1363595395717999 
0 
0 
0 
0 
-0.3892074251014961 
0.7201158143369209 
0 
0.8860705487831199 
0.08660061460934077 
1.524491109347951 
0 
0 
-0.8605852223539111 
0 
-0.02961325981881202 
0 
0 
0 
0 
0 
0 
0 
-2.245088060517928 
0 
0 
0 
-0.0781600542797652 
0 
0 
0 
0 
0 
0 
0 
0 
0 
0 
-0.9481117045690471 
0 
0 
0 
0.4326463704032241 
-0.4157963721603178 
0 
0 
0 
0 
1.014029393933111 
0 
0 
0.5032949143599867 
0 
-0.4647883417818285 
0 
0 
0 
0 
1.700259835547194 
0 
0 
0 
0 
0 
0 
0 
0 
0 
0 
0 
0 
0 
-1.87295230540085 
0 
0 
-0.2891320969550985 
-0.900181625115103 
0 
0 
0 
0 
0 
0 
0.6030500673782498 
-1.069503656654435 
1.829542842352363 
0 
0 
0 
-1.654562891180379 
0 
-0.7050464965835429 
0 
-0.2988837177233792 
0 
0 
0 
0.8254913035128093 
0.8795110115817075 
0 
0 
0.6503211635504774 
0 
-1.343055661358569 
0 
0 
0 
-1.657489861672476 
0 
0.2102156246095061 
0.5552968439104097 
0 
0 
0 
0 
0 
-0.3576328733621212 
0 
0 
-0.4146192298659441 
0 
-4.47801777979013 
-0.4924410746338238 
-0.522410028896025 
0 
0 
-4.253580275684474 
0 
0 
0 
2.051602713323856 
-2.461239242171425 
-1.075327096884901 
0 
0 
0 
1.746182282891871 
0 
2.134645479369177 
0 
0 
0 
-0.02777024204443818 
-0.09020076138657178 
0 
0 
0 
0 
-0.3486789050760288 
0 
0.5397468836462639 
0 
0 
0 
0 
0 
0 
0 
0 
0 
0 
0 
0 
0 
0 
-1.176877997208261 
0 
0 
0.3116928920524716 
0 
0 
0 
0 
0 
0 
0 
0 
0 
0.3129053531042353 
0 
0 
0 
0 
0 
0 
1.032049620706413 
1.126571886841237 
0 
0 
0 
0 
-3.147029848143602 
0 
0 
0 
0.2890027808485985 
0 
0 
0 
-0.8048173663431472 
0 
0 
0 
0 
0 
0 
0 
0 
1.980477788584292 
0.05630856097555122 
0 
0 
-0.7288737534196919 
0 
0 
0 
0 
1.83153610994065 
0 
0 
0 
-1.260351318517865 
0 
0 
-2.680992215414224 
0 
0 
0 
0 
0 
0 
0 
0 
0 
0 
0 
0 
0 
-1.505491117296171 
0 
0 
0 
0 
3.223378963532686 
0 
0 
0 
0 
0 
0 
0 
0 
0 
0 
1.307634359344847 
2.458945354873243 
0 
0 
0 
0 
4.384931875311944 
0 
0 
0 
0 
-0.2347955296103927 
0 
-0.8810095750499859 
-0.8386971392364268 
0 
0 
-0.4316560848492309 
0 
2.522111169724606 
0 
-0.3415620921292435 
0 
0 
0 
0 
0 
0 
0 
0 
0 
0 
-1.544051612628758 
0 
0 
0 
0 
0 
0 
0 
0 
0 
0 
0 
0 
0 
0 
0.2634595291928378 
0 
-2.084590047900648 
0 
0 
0 
0.09221247230448219 
0 
0 
0 
0 
0 
0 
0 
0 
0 
-0.3512393841463232 
0 
-0.5793213130204009 
0 
-1.17976278566012 
0 
0 
-1.733533986402266 
0 
-0.2329189372075617 
1.035572776608402 
-0.5944501032387629 
0 
0 
-2.843585503482298 
0.4912306889401757 
0 
0 
0.04512866662508751 
0 
0 
0.6904796482929929 
0.5092153037250665 
0 
0.5764983806585898 
0 
0 
0 
0 
0 
-0.05826643856188127 
0 
-0.8904686592834769 
-3.7265929053974 
0 
0 
0.08072804843844532 
0 
0 
0 
0 
-1.035134137044176 
0 
0 
0 
0.461506729988283 
1.813075489797259 
0 
0 
0 
0 
0 
0 
0 
0 
0 
0 
-2.849656125934881 
-1.930867198340842 
0 
0 
0 
0 
0.5521228051002124 
0 
0.9096575799634054 
0 
0 
0 
0 
0 
0 
0 
0.115247240537259 
0 
-0.1420763158947068 
0 
0 
0 
0 
0 
0 
0 
0 
0 
0 
0 
0 
0 
0 
0 
0 
0 
0 
0.6865416557432814 
-0.7730279443234579 
-0.2204305723194228 
-0.1205393149240208 
0 
-0.6039623456233986 
0 
0 
0 
0 
0.05913264306476802 
0 
0 
0 
0 
0 
0.05713954981538628 
0 
0 
0 
0 
0.6576036461157903 
0 
0 
0 
0 
0 
3.031117261981056 
0 
0 
0 
0 
-0.4056667902372569 
0.4914999573041434 
0 
0 
0 
-0.279426121240398 
0 
0 
0 
0 
0 
0 
0 
0 
0.9248639740493809 
0 
0 
0 
-0.6887131239728977 
0.6699417111127718 
-1.598830273295647 
-1.013802619083301 
0 
0.8264056933888704 
0 
0 
0.7950737767154106 
0 
2.169420726977887 
0 
0 
0 
0.7319456763248334 
1.669769801205385 
0 
0 
0 
0 
-0.5741657390714697 
-0.3204055413890774 
0 
0 
0.6930019963849594 
0.5443406683316097 
0 
0 
1.983017729831559 
0.1484763535994722 
-0.1843055371418923 
0 
0 
-0.9045924680955126 
0 
-0.5081094519930316 
0 
-2.551341054500639 
0 
0.8914073059513011 
0 
0.2450731930454179 
-0.2612101770567196 
-0.4589741867252274 
0 
-1.155377777634828 
0.2979604856790531 
0 
0 
0 
0 
0 
0 
0 
0 
0 
0 
-1.764704564178626 
0 
0 
0 
-0.2018960807944739 
0 
0 
0 
-0.1832491825686805 
0 
0.7423108175944909 
0 
0 
-1.374631060388815 
0 
0 
0 
-0.5736891249018046 
0 
-1.029971528401956 
0 
0 
-2.453820572309274 
0 
0 
-1.266303341120728 
0 
0 
0 
0 
-1.632357129086872 
-1.138527190952628 
0.1394148291476196 
0 
0 
0 
0 
0 
0 
-1.917623661743839 
0 
-0.3956904006352632 
0 
0 
0 
0 
0 
0 
0 
0 
0.808748846532124 
0 
0 
0 
0.2212791283432548 
0 
-0.1339327039322474 
-0.01711146763373251 
0 
-2.192936619304089 
0 
-0.996443475075474 
0 
-0.04892527554872397 
0 
0 
0 
-0.1074004214970102 
0 
0 
0 
0 
0 
0.4242323637785659 
0 
0 
0 
0 
0 
0 
0 
0 
0.4648628796614513 
1.041756599914324 
0 
0 
0.1938225527979 
0 
0 
0 
0 
0 
0 
0 
-2.258271100645123 
0 
-1.293709499842663 
0.09725267130148234 
0.3781949541835976 
0 
-3.642746545345507 
-3.211179174961846 
-1.343712806941081 
0 
0 
0 
0 
1.46218845254931 
0 
0 
0.1874320344234149 
-1.042274859049578 
0.3393762504567527 
0 
0 
0 
-1.351457428552149 
-2.589966530649718 
0 
0 
1.079614449823241 
0 
0 
0 
0 
0 
-2.043735088742675 
0 
1.219667124083074 
0 
0 
0 
0.9337384498432299 
0 
0.6634671750460621 
0 
0 
0 
0 
0 
0 
0 
1.528311464689681 
0 
0 
0 
-1.398922895211543 
0 
0 
0 
0 
0 
-1.257102933116322 
0 
0 
-0.8405769553086311 
0 
0 
0 
0 
0 
0 
0 
0 
-0.3685808331442199 
1.076190821323245 
0 
0 
0 
0 
0.3227613293383447 
0 
0 
0 
0 
0 
0 
0.6912416829338889 
1.266097376007838 
0 
0 
0 
0 
0 
-2.882211816774772 
0 
0 
0.8104861284777918 
0 
1.814204416360236 
0 
-0.1500037443157368 
0 
0 
0 
0.7139207709561205 
0 
-0.1177018124707629 
-3.057756785652178 
-4.080845192497218 
1.127602302465747 
0 
0.3316381398697235 
0 
0 
0 
-0.1240833970838763 
-0.962878285971443 
0 
0 
0 
0 
-1.41991840148806 
0.8438094705222117 
0 
0 
0 
0 
0 
0 
-3.106481935358846 
0 
0 
-1.427560334549747 
0 
-2.03167201418335 
0.7430470295633714 
0 
0 
0 
0.0185213871092075 
0 
1.213195129421951 
0 
0 
0 
1.137182230257771 
2.260494819768787 
-1.039993516855247 
0 
2.148915884626574 
0 
-1.472135363074367 
0.1033974624767518 
0 
0 
-3.018043377508171 
-0.3899149471107323 
0 
0 
-0.5836052300297934 
0 
-0.07236511564592028 
0 
-0.2416154198424428 
-0.2745951480602996 
0 
0.261713467385224 
0 
0 
0 
0 
0 
0.03847983788493516 
-2.228896572723962 
-2.149960149684476 
0 
0 
0 
0 
0 
-1.445169323967457 
0.7828436090709557 
0 
0 
0 
-0.5878207135329503 
-0.3570195426383197 
-1.863907663365146 
0 
0 
0 
0 
0 
1.123920180726207 
0 
0 
0 
0.8866675941465828 
0 
0 
0 
0 
-0.2157005593942365 
-1.431242447398549 
0 
0 
0 
0 
0 
0.2326191134198135 
0 
0 
0 
1.012800396162058 
0 
0.523276553786364 
-0.6900515356848678 
-0.6361123368624481 
0 
0 
0 
-0.9071879331009246 
0 
0 
0 
0 
0 
0 
0 
0 
0.1703989449822629 
0 
0 
0 
0 
0 
0 
-2.395131696754314 
0 
0 
0 
0 
-2.826070695642507 
0.04826702620649571 
0 
0 
0 
-1.575295862402538 
0 
0 
0.6675619245803262 
-1.57495215136967 
1.440770326534731 
0 
-0.8873720875435276 
0 
0 
0 
0 
0 
0 
0 
0.6319409517855422 
0 
-0.5386240467588578 
-1.287743628046512 
0.3479672300208627 
-2.243245702608212 
1.14816450989642 
0 
0 
0 
0 
0 
0.02713177399764619 
-0.4659819742514345 
0 
0 
0 
0 
0.840476955028886 
0 
0 
0.4738689468286537 
0 
0.1967267656448799 
0.1273329365978109 
0 
0 
1.143204923636402 
0.7239314140192688 
0 
0 
0 
0 
0 
0 
0 
0 
-0.927282861051357 
0.1451657693953953 
0 
0 
-2.130984002987821 
0 
-0.2017469722101153 
-0.2662796327507772 
0.05029046972843501 
-1.676374967650301 
0 
0.06446721760806461 
-1.634299172006969 
-1.248231242430263 
0 
0 
0 
0 
2.64519309047562 
0 
0 
0 
0 
0 
0 
0 
0 
-1.048318284778821 
0 
0 
-1.399009722358756 
0 
0 
0 
0 
0 
0 
0 
-0.738237758239485 
0 
-1.436712989340773 
0 
0.3254584764239004 
0.02339643686267821 
0 
0 
0.911937738757165 
0.5774967571001275 
0 
0 
2.380828216147616 
0 
0 
0 
-0.7232219937756101 
-0.1637416021375475 
0 
0 
0 
0 
0 
0 
0 
0 
0 
-4.497161563623633 
0 
0 
-1.163891343120374 
0 
0 
0 
0 
0.8827584466976237 
0 
0 
0 
-1.596065459439847 
0 
0.003160413514637854 
0 
-6.135913042456674 
-0.9034212833335457 
0 
0 
0 
0 
0 
0 
0 
0 
0 
-1.019792620670496 
0 
0 
0 
-0.1307014877002108 
0 
0 
-0.9111872240303187 
0 
0 
0 
-1.686191957826886 
0.1467675914123846 
0 
0.5211029207298755 
0 
0 
0 
0 
0 
0 
0 
0 
0 
0 
0 
0 
0 
-0.8750656844086131 
-1.161441482232732 
0.8973105683306785 
-0.1369423005192952 
0 
0 
0 
0 
0 
-0.3791250020740724 
0.06220836552214459 
0 
0 
0 
0 
0 
0 
-3.114479076447709 
-1.661413142279818 
0 
2.520529098312697 
0.1439210490856283 
0 
0 
-1.237095837162658 
0 
-0.334633894409965 
0 
-0.2868463439577222 
0 
0 
0.3218332438010119 
0 
0 
0 
0 
-1.797527330592404 
0 
0 
0 
0 
0 
0.5668674072408229 
0 
0 
0.9894564918323311 
0 
0 
0 
0.6430934258507609 
0 
0 
0 
0.7480526014853244 
5.427887205700313 
0 
0 
0 
-0.7649949318682409 
1.388111235541357 
0 
0 
0 
0 
0 
-0.5011069064338821 
0 
0.9555372899530543 
0 
0 
0 
0.6969081528952223 
0 
0 
-0.1764263210057453 
0 
-0.2623202442738689 
0 
0 
0 
0.3049177374347554 
0.09550073421817741 
0 
-0.2630625422591598 
-0.7963609206854394 
-0.5260891219604962 
0 
0 
0 
0 
0 
0.378576237992503 
0 
0 
-2.028913985108219 
-1.041422790750562 
0 
0 
0 
0 
0 
0 
-1.704381637430528 
0 
0 
0 
0 
0 
0 
0 
0 
0 
0 
-4.068473832805389 
3.264667426421227 
0.2576823287328238 
1.015296708641884 
0 
0 
0 
0 
0 
0 
0 
-1.129752818852392 
-1.524238362698678 
0 
0 
0 
0 
0 
0 
0 
-0.3725180496769298 
0.8430990763021428 
0 
0 
0 
0 
0 
0 
0 
0 
0 
-0.6480113096798953 
0 
0 
0 
0 
0 
0 
-0.3988034885849613 
-0.9638910493454704 
-1.122202950680318 
0 
0 
0 
0 
-0.2039839069174644 
0 
-0.4391549596635145 
0 
0 
0.5962030231242793 
0.5651062180059389 
0 
-0.0856076377117576 
0 
0 
0 
-2.170897535254125 
0 
0.8653422556027947 
0 
0 
0 
-1.696491728222501 
0 
0 
0 
0 
0 
0 
0 
0 
0 
0 
0 
0 
0 
0 
0 
0 
0 
0 
0 
0 
0 
0.1798359806683628 
0 
0 
0 
0 
0 
0 
0 
0 
-1.396637976109943 
0 
0 
-2.096382235449589 
0 
0 
0 
0 
0 
0 
0 
0 
0 
0 
0 
0 
0 
0 
0 
0 
-1.091675955673681 
0 
0 
0 
0 
0 
0 
0 
0 
0 
0 
0 
0 
0 
0 
0 
0 
0 
-0.2647208101205191 
-2.448116537746071 
0 
0 
0 
0 
0 
0 
0 
0.9707683881947062 
0 
0 
-0.6363445547620968 
0 
0 
0 
0 
0 
0 
-1.540036176076991 
0 
0 
-1.109700727418734 
0 
0 
0 
0 
1.206426079982901 
0 
1.761494982911315 
0 
0 
0 
-0.60597474567225 
0 
0 
0 
0 
0 
0 
0 
0 
0 
0 
0 
0 
-0.8542791551950774 
0.8136856257114912 
-0.4014500098731088 
0 
0 
0 
0 
3.277392064671202 
0 
0 
0 
0 
0 
0 
0 
0 
0 
0 
0 
0 
0 
0 
0 
0 
0 
0 
0 
0 
0 
-1.378763301236523 
0 
0 
0 
0 
0 
0 
5.760763651396399 
0 
0 
0 
0 
0 
0 
0 
0 
0 
0.3634425038190003 
-1.097861440273152 
0 
0 
0 
0 
0 
0 
-1.935828892231679 
0 
0 
0 
1.219245627204385 
0 
0.4187703629480645 
-0.01614562232821654 
0.1975125056764789 
-0.4903591965024189 
-0.7955813102228131 
2.138500735376431 
0 
0 
0 
0 
0 
-1.240083437260572 
0 
0 
0 
0 
-0.908163846766942 
-0.06120317721029916 
0 
0 
0 
0 
-0.9019921627243986 
0 
0 
-0.7257948477541905 
0 
0 
0 
0 
-0.6457832272031618 
0 
0 
0 
0 
0 
0 
0 
0 
-0.7695681660860324 
0 
0.5279905390569418 
0 
0.02371780851537987 
4.203405649410121 
-2.632673029868851 
0 
0.5413291095502896 
0 
0.476136152359244 
0 
0 
0 
-0.1386177233740023 
0 
0 
0 
0 
0.639508312719287 
0 
0 
0 
0 
0 
0 
0 
0 
0 
0 
0 
0 
0 
0 
0 
0 
0.7797454993441042 
0 
0 
0 
0 
0 
-0.7995161006772843 
0 
0 
0.5316040472814896 
0 
1.091108285409127 
0 
3.183715243334027 
-2.159743319507619 
0 
-2.758536080952937 
0 
-1.987746391334607 
-0.3862286074214697 
0 
0 
0 
0 
-0.8582379579220602 
0 
0 
-0.02330780382481604 
0 
0 
0 
-0.8337965032592871 
-1.920614717864629 
0 
0 
-0.7418609462873101 
0.02961458594694971 
-0.8846983618317943 
-1.13486604806734 
0 
0 
0 
-2.570552506218152 
0 
0 
3.77192709890995 
0 
0 
1.06818640956508 
-0.4037472873989761 
0 
0 
0 
0.9561696123807074 
0 
0 
0 
0 
0 
-1.107426873028112 
0 
-1.246750266441015 
0 
-0.2371379313205047 
-0.8753035777477197 
0 
0 
-0.1110310430174537 
0 
0 
0 
0 
0 
0 
0 
0 
0 
-0.1856680929023918 
0 
0 
0 
0.1799385228349343 
0 
0 
-1.933589389831452 
0 
0 
0 
-1.456040826412718 
0 
0 
0 
0 
0 
0 
0 
0 
0 
-0.3265340989487957 
0 
0 
0 
0 
-1.977441169535159 
0 
0 
0 
0.650764609337144 
0 
0 
0 
0 
0 
0 
-1.689107616438605 
0 
0 
-0.2894223795166386 
0 
0 
0 
0 
0 
0 
0 
0 
0 
0.3929905199649602 
0 
0 
0 
-0.1785375039129642 
0 
0 
-0.4103762106453454 
-1.086417682872103 
0 
0 
-0.3695829315335967 
0 
1.261602248746239 
0 
0 
0 
0 
0 
-1.616094846609674 
0 
0 
-2.91770177365447 
-0.3480880033271938 
0 
0 
0 
0 
0 
-1.315953828937298 
0 
0.2711064547463081 
0 
0 
-3.79914635292009 
0 
0 
0.7671036572251033 
0 
-0.2138005198617051 
0 
0 
-0.4986773721410964 
0 
0 
0 
0 
0 
-0.2169789521851545 
0 
-1.273636621642735 
0 
0 
0.07907406926242544 
0 
0 
-1.164341398506929 
0 
0 
0 
-1.817185789946485 
0 
-0.5760132986398452 
0 
0 
0 
0 
0 
0 
0 
0 
0 
0 
0 
0 
0 
0 
-1.540992729289782 
-2.998285720558754 
0 
0 
0 
-0.5962531613702434 
0 
0 
0 
0 
0 
0 
0 
0.6673296640395601 
0 
-0.1013425952771864 
0 
0 
0 
0 
0 
0.7240859282859771 
0 
0 
0 
0 
0 
0 
0 
0 
0 
0 
0 
0 
0 
0 
0 
0 
-0.3953776587913541 
0.136753300436545 
0 
0 
0 
0 
0 
-0.7312109860450257 
0 
-3.054332620464333 
0 
-0.8471097501658376 
0 
0 
0 
-0.860145134514721 
-0.3291281419277063 
0 
0 
0 
0 
0 
0 
0 
0 
0 
0 
0 
0 
0 
0 
0 
0 
-0.7272008096507134 
-1.811218213834917 
0 
0 
0 
0 
0 
0 
0 
0 
0 
0 
0 
-0.7835526037394119 
1.218059551599586 
0 
0 
0 
0 
0 
0 
0.4200458453470164 
0 
0 
0.2092581399357388 
0 
-0.2037272832682579 
0 
0 
0 
0 
0 
0 
0 
1.994337834965157 
0 
0 
-0.3930644410791319 
0 
0 
0 
-0.824984520915903 
0 
0 
0 
0 
0 
0 
0 
0 
0 
-0.2815311545097624 
0 
-0.8333687095194273 
0 
0 
0 
0.7445161689962349 
0 
0 
0 
0 
0 
0 
-0.03478975454729374 
0 
-2.678477065724856 
-0.9927462183635079 
0 
-0.2549590091199747 
0 
0.4811957804833799 
0 
0.05938107905890355 
0 
0 
0 
-0.5723977185241721 
0 
-2.044278615345959 
0 
0 
1.825949771349766 
0 
-1.600590241280794 
1.250214714758463 
0 
0 
0 
0 
0.1969399746650196 
0 
0 
0 
0 
2.826738964593735 
0 
0 
0 
0 
0 
0 
0 
0 
0 
-0.08599463033358477 
0 
0 
0.2079985093486402 
0 
-0.8235599054124477 
0 
0 
0 
0.9728429171800204 
0 
0 
1.269079352007555 
0 
0 
0 
0 
0 
-0.5583290131737294 
0 
0 
0 
0 
0 
0 
0 
0 
0 
0 
0 
0 
0 
0 
0 
0 
0 
0 
-0.1785140484658529 
-0.3314650965637656 
0 
0 
0 
0 
0 
2.770317673624628 
0 
0 
0 
-4.786457852237813 
0.1866772628153075 
0 
0 
0 
0 
0 
0 
0 
0 
0 
0 
0 
0 
0 
0 
-1.075393100667111 
-1.906262917805156 
0 
0 
-1.851163303878228 
0.4869883696303901 
0 
0 
-1.238830510999375 
0 
0 
0 
0 
0 
0 
0 
0 
0 
0 
0 
0 
-0.1490500896989803 
0 
0 
0 
0 
0 
0 
0 
0 
-1.044213389271234 
0 
0 
0 
0 
0 
0 
0 
0 
0 
0 
0 
0 
1.045236267487121 
0 
0 
0 
3.206626915350807 
0 
0 
0 
0 
0 
0 
1.092907069543215 
-0.05470544142770086 
0 
0 
-1.51813804181306 
0 
-0.1816553659927057 
0 
0 
0.2101554311534107 
-0.8778494319123609 
-1.747345650521361 
0 
0 
-2.449191564461033 
0 
-0.8902243535885159 
0 
0 
0 
0 
0 
0 
0 
0 
0 
0 
0.3487372916296926 
0 
0 
0 
0 
0 
-2.241110754384852 
0 
0 
0 
0 
0 
0 
0 
0 
0 
0 
-0.6288441858325533 
0 
0 
0 
0 
0 
0 
0 
0 
0 
0 
1.063927004613342 
0 
0 
0 
-0.04726096979813576 
0 
0 
0 
0 
0 
0.9374638953548726 
0 
0.006897856802972687 
0 
0 
-0.09241738406126462 
0 
0 
0 
0 
0 
0 
0 
0 
0 
0.5794423585865439 
0 
0.312561273823389 
0 
0 
0 
0.9016849966945045 
-0.1986864850204712 
0 
0 
0 
-0.4561344860697372 
0 
0 
-1.668167711449451 
0 
0 
0 
0 
0 
0 
0 
-0.7420316294376539 
0 
0 
0 
0 
-1.924350354579555 
0 
-1.583517648559876 
-4.241854789072251 
0 
0 
0 
0 
0 
0 
-0.5000136978430189 
0 
0 
-1.329001693100544 
0 
0 
0 
0 
-0.9240138332126621 
0 
1.096094370416885 
0 
0 
0 
0 
0 
0 
0 
0 
0 
0 
0 
0 
0 
0 
0 
0 
-0.6305293664959505 
0 
-0.6999264560519272 
0 
-0.7461268406068797 
0 
0 
0 
0 
0 
0.1367386324273442 
-0.7905927948812218 
-1.094816861535032 
0 
0 
0 
0 
0 
0 
-0.2031208816468155 
0 
0.1903600243626503 
0 
1.993206642854556 
0 
0 
-0.198662824128606 
0.2366717981701148 
0 
0 
0 
0 
0 
0 
0 
0 
0 
0 
-0.2466206004133456 
0 
0 
0 
0 
0 
0 
0.6242650054522978 
0 
0 
0 
0 
1.592052601088192 
0 
-0.1060595372824656 
0 
-1.68718498895265 
0 
0 
0 
0 
0 
0 
0 
0 
0 
0 
0 
0.6118517327190606 
0.5711506551126773 
0 
0.3397200297129188 
0 
0 
0 
0 
0 
0 
0 
0 
0 
-0.627039571123387 
0 
0 
0 
-0.7307650409285323 
0 
-0.6592269438940841 
0 
0 
-0.5061692823992211 
0 
0 
0 
0 
0 
0 
0 
0 
0 
0 
-0.7533710177209362 
0 
1.34201931455813 
0 
-0.4480668543750587 
0.05295023049870937 
-0.8274801845357288 
0 
0 
0 
3.181380399433993 
0 
0 
6.252591251295733 
0 
0 
0 
0 
0 
0 
1.733457205950025 
0 
0 
0 
-1.439357826301754 
0 
0 
1.470373339561004 
-0.2140648666973516 
0 
0 
-0.3698198643973427 
0 
0 
0 
0 
0.7759271116169914 
0 
0 
0 
0 
0 
-0.5172147978812811 
0 
0 
0.746289546733046 
0 
0 
0 
0 
0 
0 
-2.507090937003477 
0 
0 
-1.642950621243082 
0 
0 
0 
0 
0 
-0.1764501936963354 
0 
0 
0 
0 
0 
0 
0.7263038120886419 
0 
0 
0 
0 
-1.81437084112332 
0 
0 
0 
0 
0 
0 
0 
0 
0 
-0.1904374433175011 
-1.368482466522457 
0 
0 
0 
0 
0 
0 
0 
0 
0 
-1.545977839631805 
0 
0 
0 
0 
0 
-0.1258616119554346 
0 
0 
0.4141536381613087 
0 
0 
0 
0 
0 
0.5346188413775811 
-0.2509886845172596 
0 
0 
-0.1697794066515296 
0 
-1.546277935835361 
0 
0 
0 
0.08898420532129306 
0 
0 
0 
-0.4362539558161698 
0 
0 
0 
0 
0 
0 
0 
0 
-2.067757016525173 
0 
0 
0 
-0.331470303815569 
0 
0 
-4.625874152904536 
0 
0 
0 
0 
-6.921164823742367 
-1.789978675272386 
-1.238305460181116 
0 
0 
0 
-0.5116290599168517 
-0.4832075900911279 
1.196738361472658 
-0.8407102936184023 
0 
0 
-0.8210827238520431 
0 
0 
0 
0 
0.07084138378430303 
0 
0 
0 
0 
0 
1.249469271424176 
0 
1.643495273128535 
0 
0 
0 
0.9889022590507662 
-0.8147653616956232 
0 
0 
0 
0 
0 
2.12078669296451 
0.7442703561141677 
0 
0 
-1.111307803130861 
0 
0 
0 
-0.2770883809569567 
0.700559532328942 
0.6689350100709818 
-3.65798241247087 
-3.650062272063985 
0 
0 
0 
0 
-3.867986897044172 
0 
0 
0 
0 
0 
0 
0 
2.71790836040691 
0 
-1.904563428983885 
0 
0 
0 
-0.3437000901204541 
1.873086581184381 
0 
0 
0 
0 
0 
0 
0 
0 
0 
0.03854322197269117 
-0.4833392283805236 
1.984964097168719 
0 
0.689342201530711 
0 
0.3691199356902627 
-0.9817311467634234 
0 
-0.1315330623768585 
0 
0 
-0.9752530052352401 
0.09531298749765635 
0.2433718285657243 
-1.523817184858433 
-0.942328718150506 
0.1843315402596221 
0 
0 
0 
0 
-1.801716969558067 
0 
0 
-2.138404289944701 
0 
0 
0 
0 
0 
0 
1.088282251574046 
0 
0 
0 
0 
0 
0 
0 
-0.2681215289556935 
-0.2036277530812356 
0 
0 
0.3032447040067207 
-0.3550989997832836 
0 
0 
0 
0 
0 
-4.921984980125825 
0 
0 
0 
0 
0 
0 
0 
0 
0.9077989518465945 
0 
0 
-0.2529805659603151 
1.807606593529622 
2.077560186660274 
0 
0 
0 
0 
0 
0 
0 
0 
0 
0 
0 
0 
0 
0 
0 
0 
0 
0.894681211054599 
0 
0 
0 
1.005353460086603 
0 
0 
0 
0 
-2.030842595055155 
0.6610199707424698 
0 
0.5760444099617817 
0 
0 
0 
0 
-2.39042168675963 
0 
1.012655868115467 
0 
-1.244664939913172 
0 
0 
0 
0 
0 
0 
0 
0 
1.94354986797618 
0 
0 
-0.2502281846587879 
0 
0 
0 
0 
0 
-0.5843784431621163 
-0.2667868992051324 
0 
0 
1.3575748781457 
0 
0 
0 
0 
0 
0.2092923942276638 
0 
0 
0 
0 
0 
0 
0 
0 
0.5438342689164584 
0 
0 
0 
0 
0 
0 
0 
0 
-0.9175225918556856 
0 
0 
-1.020006255492355 
0 
0 
0 
0 
-0.01165522160744725 
0.581423558163499 
0 
-4.801673314360279 
0 
0 
0 
0 
0 
0 
0 
0 
0 
0 
0 
0 
0 
0 
0 
0 
0 
0 
0 
0 
0 
0 
0 
0 
0 
0 
0 
0 
0 
0.5907319189270988 
0 
0 
-0.5709024538690507 
0 
0 
-0.2112107598474655 
0 
0 
0 
0 
0 
0 
0 
0 
0 
-1.187665060641751 
0 
0 
0 
0 
0 
0 
0 
0 
0 
0 
0 
0 
0 
0 
0 
0 
0 
0 
0 
0 
0 
0 
0 
0 
0 
-2.769208917942732 
0 
0 
0 
0 
0 
1.762611349482267 
0 
0 
-0.09390348548911938 
-0.6914299049549239 
0 
1.302761663048028 
0 
0 
0 
0.3940109595476009 
0 
0 
0.2129500520365514 
0 
0 
0 
0 
-1.771683864852853 
0.1098484553219474 
0 
0 
0 
0 
0 
0 
0 
0 
0 
0.5346470193708492 
2.823364613010448 
0 
0 
0.743104017396119 
0 
0.3086525846607194 
0 
0 
0 
0 
0 
0 
0 
0 
0 
0.8798346623691274 
0 
0 
0 
0 
0 
0 
0 
0 
0 
0 
0.8147956929683149 
0.07015675171886915 
0 
0 
-0.5036167333010359 
-2.063622008392018 
0 
0 
0 
-1.325151421665051 
-1.524217858238406 
0 
-0.5609709989821624 
0 
0.2877904994152923 
0 
0 
0 
0 
0 
0 
0 
3.757822959162246 
0 
0 
-0.7688044487400807 
0 
0 
0 
-2.036253920653227 
-0.2998911927698081 
0 
0 
-4.759172562616707 
0 
0 
0.4251792213554173 
1.275902910182805 
-0.07755294599871891 
0 
0 
-0.08006095773987053 
0 
0 
0.594866890814887 
0 
0 
0 
2.435337031417575 
0 
0 
0 
0 
0 
0 
0 
0 
0 
0 
0 
0 
0 
0 
0 
0 
0 
0 
0 
0 
0 
0 
0 
0 
0 
0 
0 
0 
0 
0 
0 
0 
-0.4315417279110414 
-0.8180948206210092 
0 
0 
0 
0 
-5.477313090301005 
0 
1.825185379315225 
-0.263675923316796 
0 
0 
0.01767654551926162 
0 
0 
0 
1.231242613856655 
0 
0 
0 
0 
0 
0 
0 
0 
0 
0 
0.2154072390816532 
0 
0 
-1.01374643446709 
0.1120109431541526 
-0.6036653021613633 
0 
0 
0 
0 
0 
0 
0 
0 
0 
0 
0 
-1.067379753319451 
-1.462472622778044 
0 
0 
0 
0 
0 
0.5900874023279038 
-0.1156205604765304 
0 
0 
0.06572723740091835 
0 
0 
0 
0 
-1.58915557789556 
0 
-0.04109925336672934 
0 
0 
0 
0 
0 
0 
0 
0 
0.3880274379787527 
1.502295778733544 
0 
0 
0 
1.846175391594686 
0 
0 
0 
0 
0 
0 
0 
0 
0 
0 
0 
0.1210670836953058 
0 
0 
0.316829718339279 
0 
-0.9134547315483365 
0 
0.269613621596171 
-0.7189495307370732 
-0.4320648784840986 
1.061789254268544 
0 
-1.692057043365525 
0 
-0.2936627927878695 
0 
0 
0 
0 
0 
-0.4497722275341276 
0 
-1.061490664776261 
0 
-1.938772614668426 
0 
1.290310421090726 
0 
0 
0.2444754702357808 
0 
0 
-1.239220628880013 
0 
0.5611570732324319 
-0.1333323408422157 
0 
0 
0 
0.7971873022638835 
0 
0 
0 
0 
0 
0 
0 
0 
-2.916390174267173 
0 
0 
-0.1583643460452087 
0 
0 
0 
0 
0 
-0.366613611461045 
0 
0 
1.99119596961676 
0 
1.37192244127451 
0 
-0.1620196996745155 
0 
0 
0 
-2.077842296233029 
-0.5895168044654711 
0 
0 
0 
0 
0 
0 
0 
0 
0 
0 
0 
0 
-1.257008547713785 
0 
0 
0 
0 
0 
0 
0.7194469072493758 
0 
0 
0 
0 
0 
0 
0 
0.2776030444639184 
0 
0 
-2.41132676934749 
-0.9094706294040147 
-0.8627064130733637 
-0.6748461279454874 
0 
0 
0 
0 
0 
-1.9554025670608 
0 
0 
0 
0 
0 
0 
-1.475069676515721 
1.964590536618943 
0 
0 
0 
0 
0 
0 
0 
0 
0 
0 
0 
0 
0 
0 
0 
0 
0 
0 
0 
0 
0 
0 
0 
0 
0 
0 
0 
0 
0 
0 
0 
0 
0 
0 
0 
0 
0 
0 
0.05162228238093902 
0 
0 
0 
0.02108296676612251 
0.3435889734847326 
0 
0 
0 
-1.613138108922596 
0 
0 
0 
-0.4819663860255375 
0 
0 
0 
2.058673206822387 
0.5288478209295308 
1.084065973041336 
-0.2733397951309339 
0 
0 
0 
0 
2.663834323822136 
0 
0 
0 
0 
0.009549060966497476 
-1.032403874716757 
0 
0 
0 
0 
-0.4042993511598684 
0 
0.4061023642933468 
0 
0 
0 
0 
0 
0.2487441972337752 
0.2068777293291688 
0 
0 
0 
0 
0 
0 
0 
0 
0 
3.017148500411365 
0 
0 
0 
0 
0 
0 
0 
-1.363953486977593 
0 
0 
0 
0 
0 
0 
0 
0 
0 
0 
0 
0 
0 
0 
0 
0 
0 
0 
0 
0 
0 
0 
0 
0 
-0.1364698071581925 
0.6696160893861048 
0 
0.823597961155773 
0 
0 
0 
0 
0 
0 
-1.822132292303039 
0 
-0.2462204230181433 
0 
0 
0 
0 
0 
0 
0 
0 
0 
-0.6387285541890833 
-0.6227909510303623 
0 
0 
0 
-0.3657110475626935 
0 
0 
0 
0 
-0.5343756720338632 
0 
0 
0.06140286690617172 
0 
0.8905864627760638 
0 
0 
0.3516723849345781 
0 
0 
0 
0.143788396287017 
0 
0 
0 
0 
0 
0 
0 
-1.982278114233974 
0 
0.7062102286810564 
0 
0 
0 
-2.36104909620444 
0 
0 
0 
0 
-0.4903147616950443 
0 
0 
0 
0 
0 
0 
0 
0 
0 
0 
0 
0 
0 
0 
0 
0 
-1.701894211581206 
0 
0 
0 
-1.660747976756289 
0 
0 
0 
0.4213408940933612 
0.4530321511658627 
0.4882444895623074 
0 
0 
-0.2263614849629689 
0 
0 
-0.9856963943567765 
0 
0 
0 
0 
-1.151704757792835 
0 
0 
0 
0 
0 
0 
-1.795249790033574 
0 
0.2194179147382008 
0 
-1.555249778555468 
0 
0 
0 
-1.725445354145193 
0 
0 
0 
0 
-7.523859947570688 
-5.304492450981074 
0.3850331249865083 
0 
0 
0 
-0.7871351553570182 
0 
-0.5538068773597045 
0 
0 
1.736188115465525 
0 
0 
0 
0 
0 
0 
0 
0 
0 
0 
0 
0 
0 
0 
-0.7474113703615607 
0 
0 
0 
0 
0 
-0.5280082435871052 
0 
0 
0 
0 
0 
0.03822957766302528 
0 
0 
0 
0 
0 
0 
0 
0 
0 
0 
0.9613063117413039 
0 
0 
0 
0 
0 
0 
0 
0 
0 
0 
0 
0 
0 
0 
0 
0 
0 
0 
-0.4018081606528296 
0 
-0.1362137236352294 
0 
0 
0 
0 
0 
0 
0 
1.67174610783166 
0 
0 
0 
0 
0 
0 
0 
1.045122360318664 
0 
0 
0 
0 
0 
0 
-0.7399452890283795 
0 
0 
0 
0 
0 
0 
0 
-0.518531432965913 
0 
0 
0 
0 
0 
0 
0 
0 
0 
0.2322542334793189 
0 
0 
-0.4936975431471905 
0.4100034485168633 
0 
0.4851107167607659 
0 
0.6393792368343007 
0 
0 
0 
0 
0 
0 
0 
0 
-0.8164465039566179 
0 
0 
0 
0 
-1.687820073959436 
0 
0.4220173166043025 
0 
0 
0 
0 
0 
0 
0 
2.135990036683983 
-0.3951086342093256 
0 
-0.755425370673197 
0 
0 
0 
0 
0 
0 
0 
0 
0 
0 
0 
0 
0 
0 
0 
0 
0 
0.6592637025824062 
0 
-0.8063037504282421 
0 
0 
0 
0 
-1.25730942923374 
0 
0 
0 
0 
1.135301719792353 
0 
0 
0 
0 
0 
0 
0 
0.3433824861418801 
0 
0 
0 
0 
0 
0 
0.09480649414987601 
0 
3.025079108609383 
0 
0 
0 
0 
-0.8572908576701449 
0 
0 
-1.160057713487023 
0 
0 
0 
-2.049399358924098 
0 
-0.5231916073945904 
0.1217761034363287 
0 
-2.049502189046489 
0 
0 
0 
0 
0 
0.6868157737295468 
0 
0 
-1.472919141237517 
0 
0 
0 
0 
0 
0 
0 
0 
0 
0 
0 
0 
0 
0 
0 
0 
1.23974492927256 
0 
0 
0 
0 
-1.665309317193696 
0.7779466889471846 
0 
0 
0 
0 
0 
0 
0 
0 
0.05569633810910556 
0 
0 
0 
0 
0 
0 
0 
13.94809588150834 
-0.2795912532793771 
0 
0 
0 
0 
0 
0 
0 
0 
0 
0 
0 
0 
0 
-1.141804574430446 
0 
0 
0 
-0.9049550585808885 
0 
0 
0 
0 
0 
0 
0 
0 
0 
-0.893002841021512 
0 
0 
0 
-2.276371961128109 
0 
0 
-2.883111457749137 
-0.9849363831549091 
0 
-0.2769823339448727 
0 
0 
1.926427437569851 
-1.4121190031854 
0 
0 
-0.4835835537332789 
0 
0 
0 
-0.9628452243455395 
0 
-0.6901645543951545 
0 
0 
0 
0 
0 
0 
0 
0 
0 
0 
0 
0 
1.660804790962094 
0 
0 
0 
0 
0 
0 
-0.02347370312661972 
0 
0 
0 
0 
0 
0 
0 
0 
0 
-0.3612453804700302 
0 
0 
0 
0 
0 
0 
0 
0 
0 
0 
0 
0 
-1.229915864116383 
0 
0 
0.0436156967998443 
0 
0 
0 
0 
0 
0 
0 
0 
0 
0 
0 
0 
0 
0 
0 
0 
0 
0 
0 
0 
0 
0 
0 
0 
0 
0 
0 
0 
0 
0 
0 
0 
0 
0 
-1.60138221328799 
0 
0 
0 
0 
0 
0 
0 
0 
0 
0 
0 
0 
0 
-0.7194491341167235 
0 
0 
0 
0 
-0.5391056465749365 
0 
0 
0 
0 
0 
-1.541759105102203 
0 
-0.7458082789106912 
0 
0 
0 
-2.974037218342976 
0 
-0.5096828201978573 
0 
0 
0 
0 
0 
0 
0 
0 
0 
0 
0 
0 
3.314179929447093 
0 
0 
0 
0 
0.04301316201449578 
0 
0.7597263587735198 
0.1024545143565733 
0 
0 
0 
0 
0 
0 
0 
0 
0.08113505333515256 
0 
0 
-1.617349013005828 
0 
0 
0 
0 
0 
-4.128876408695972 
0 
-4.270484648750169 
0.8147212219188644 
0 
0.1745534267340492 
0 
0 
0 
0 
0 
0 
0 
-0.8096080870040696 
0 
0 
0 
0 
0 
0 
0 
0 
0 
0 
0 
-0.4407954134293989 
0 
0.1146590393202555 
0 
0 
-3.679425747505335 
0 
0 
0 
-1.694021706652257 
0 
-1.173349789991476 
0 
0 
0 
0 
0 
0 
0 
0 
0 
0 
-0.4924445753696968 
0 
0 
0 
0 
0 
0 
0 
0.1138703374483712 
0 
0 
0 
0 
0 
-1.056837159385194 
0 
0 
-1.21829058023531 
0 
0 
0 
0 
0 
2.450168237791945 
0 
0 
0 
0 
0 
0 
0 
0 
0 
0 
0 
0 
-1.774308801147088 
0 
0 
0 
0 
0 
3.045638136446898 
0 
0 
0 
0 
0 
0 
0 
0 
0 
0 
0 
0.8406863798302723 
0 
0 
0 
0 
0 
0 
0 
0 
0 
0 
0 
-0.2093811554903732 
0 
0 
0 
0 
0 
0 
-1.827978926866708 
0 
0 
0 
0 
0 
0 
0 
0 
0 
0 
-1.087044886318685 
0 
0 
0 
0 
0 
0 
0 
0 
0 
0 
0 
0 
0 
0 
0 
0 
0 
0 
0 
0 
0 
0 
0.4508256149025507 
0 
0 
0 
0 
0 
0 
0 
0 
0 
0 
0 
0 
0 
0 
0 
-0.5367496627699773 
0 
0 
0 
0 
0 
0 
0 
0.3159467070129732 
0.8967250984556092 
0 
0 
0 
0 
0 
0 
0 
0 
0 
0 
0 
-0.6370185194746016 
0 
0 
0 
0 
0 
0 
0 
0 
0 
0 
0 
0 
0 
0 
0 
0 
0 
1.65835048366535 
0 
0 
0 
-0.2942464978882455 
0 
0 
0 
0 
0 
0 
0 
-2.582144057213054 
1.299989361295663 
0 
0 
0 
0 
0 
0 
0 
0 
0 
0 
0 
0 
0 
0 
0 
0 
0 
0 
0 
0 
0 
0 
0 
0 
0 
0 
0.7293105101877403 
0 
0 
0 
0 
0 
0 
0 
0 
0 
0 
0 
0 
-2.049150567741445 
0 
0 
0 
0 
0 
0 
0 
0 
0 
0 
0.6470001787760399 
0 
-0.4730798735038871 
0 
0 
0 
0 
0 
0 
0 
0 
0 
0 
0 
0 
0 
0 
0 
0 
0 
0 
0 
0 
0 
0 
0 
-1.963584578266209 
0 
0 
0 
0 
0 
0 
0 
0 
0 
0 
0 
0 
0 
0 
0 
0 
0 
-0.5417768020692182 
0 
0 
0 
-3.944154413604574 
0 
0 
0 
0 
-0.3825919400939567 
0 
0.5033983598019509 
0 
0 
0 
0 
-0.2636218374545138 
0 
0 
0 
0 
0 
0 
0 
0 
0 
0 
0 
0 
0 
-0.7515657509041176 
0 
0 
0 
0 
0 
0 
0 
0 
0 
0 
0 
0 
0 
0 
0 
0 
0 
0 
0 
0 
0 
0 
0 
0 
0 
0 
0 
0 
0 
0 
0 
0 
0 
0 
0 
0 
0 
0 
0 
0 
0 
0 
-0.7382374727854659 
0 
-1.054421452956295 
0 
0 
0 
0 
0.7170489178952962 
1.294866513498063 
0 
0 
0 
0 
0 
0 
0 
0 
0 
0 
0 
0 
0 
0 
0 
0 
0 
0 
0 
0 
0 
0 
0 
0 
0 
0 
0 
0 
-4.069078139140909 
0 
-2.385857673522952 
0.01957528910839737 
0 
0 
0 
0 
0 
0 
0 
0.2694160839835342 
0 
0 
0 
0 
0 
0 
0 
0 
0 
1.453463078463644 
0 
0 
-0.704432104284862 
0 
0 
0 
0 
0 
0 
0 
0 
0 
0 
0 
0 
0 
-0.3069420372904307 
0 
0 
0 
0 
0 
0 
0 
0 
0 
0 
0 
0 
0 
-1.657354357371305 
0 
0 
0 
-3.98123339815967 
0 
0 
0 
0 
0.4091429422915645 
0 
0 
0 
0 
0.655851484901876 
0 
0 
0 
0 
1.003366031603084 
0 
0 
0 
0 
0 
0 
0 
0 
-0.9534273217109811 
0 
0 
0 
0 
0 
0 
0 
0.8685140930856313 
0 
0 
-1.860288463557631 
0 
0 
0 
0.1155242805884581 
0 
0 
-4.7774522757623 
0 
0 
0 
0 
0 
0 
-1.042425725270351 
0 
0 
0 
-0.5761268738805875 
-0.2953622821189983 
0 
0 
0 
0 
0 
0 
0 
0 
0 
0 
0 
0 
0 
0.4868245043105711 
0 
0 
0 
0 
0 
0 
0 
0.2778678251511444 
0 
0 
0 
0 
0 
0 
-1.187712370700256 
1.255604618595196 
0 
0 
0 
0 
0 
-2.183415479792473 
0 
0 
0 
0 
0 
0 
0 
0 
0 
0 
0 
0 
0 
0 
0 
0 
0 
0 
0 
-4.139749432212199 
0 
0 
0 
0 
0 
0 
0 
0 
0 
0 
0 
0 
0 
0 
0 
0 
0 
0 
0 
0 
0 
0 
0 
0 
0 
0.1149944193086226 
0 
0 
0 
0 
0 
0 
0 
0 
0 
0 
0 
0 
0 
2.201593628954761 
0 
0 
0 
0 
0 
0 
0 
0 
0 
0 
0 
0 
0 
0 
0 
0 
-0.329690447982303 
0 
0 
0 
0 
0 
0 
0 
0 
0 
0 
0 
0 
0 
0 
0 
0 
0 
-2.342856547254293 
0 
0 
0 
0 
0 
0 
0 
0 
0 
0 
-0.6988937558382309 
0 
-1.438202445424688 
0.6785658565265403 
0 
1.775950714429015 
0 
0 
0 
0 
0 
0 
0 
0 
0 
0 
-3.777628502702108 
0 
0 
0 
0 
0 
0 
0 
0 
0 
0 
0 
0 
0 
0 
0 
0 
0 
0 
0 
0 
0 
1.584613570607805 
-0.6616092999836897 
0 
0 
0 
0 
0 
0.6113532392053809 
0 
0 
0 
-2.312737571058506 
1.553558358942133 
0 
0 
0 
0 
0 
0 
0 
0 
-2.174087703469221 
0 
0 
0 
0 
0 
0 
0 
0 
0 
0 
0 
0 
0 
0 
0 
0 
0 
0 
0 
0 
0 
0 
0 
0 
0 
0 
0 
0 
0 
0 
0 
0 
0 
0 
0 
0 
-0.5704487768830796 
0 
0 
0 
0 
0 
0 
0 
0 
0 
0 
0 
0 
0 
0 
0 
0 
0 
0 
0 
0 
0 
-1.357720341218498 
0 
0 
-0.7543065232132038 
0 
0 
0 
-1.351303532091151 
0 
0 
0 
0 
0 
0 
0.7549947831816681 
0 
0 
-0.9025835219864353 
2.222952922594497 
0 
0 
0 
0 
0 
0 
0 
0 
0 
-0.5408299346406028 
0 
0 
0 
0 
0 
0 
0 
0 
0 
0 
0 
0 
0 
0 
-0.8960068208469355 
0 
0 
0 
0 
0 
0 
-1.923676301804405 
0 
1.491038833224676 
-0.2717712985939974 
0 
0 
0 
-1.125516428444916 
0 
-3.997646470536282 
0 
0 
0 
0 
0 
0 
0 
0 
0 
0 
0 
0 
0 
0 
0 
0 
-1.657601046323275 
0 
0 
0 
0 
0 
0 
1.608275482496817 
0 
0 
0 
0 
0 
0 
0 
0 
0 
0 
0 
0 
0 
0 
0 
0.3619922156945023 
-0.2968261574112802 
0 
0 
0.009286626181460301 
0 
0 
0 
0 
0 
0 
-0.1354054333484761 
0 
0 
0 
0 
0 
1.411310552801932 
0 
0 
0 
0 
0 
0 
0 
0 
0 
0 
0 
0 
0 
0 
0 
0 
0 
0 
0 
0 
0 
0 
0 
0 
0 
0 
0 
0.4828905632730946 
0 
0 
0 
0 
0 
0 
0 
0 
0 
0 
0 
0 
0 
0 
0 
0.3043575649265261 
0 
0 
0 
0 
0 
0 
0 
0 
0 
0 
0 
0 
0 
0 
0 
0 
0.1912431378822293 
0 
0 
0 
0 
0 
0 
0 
0 
0 
0 
0 
0 
0 
-0.1019659589986321 
-2.205953541562876 
0 
0 
0 
0 
0 
0 
0 
0 
0 
0 
0 
0 
0 
0 
0 
0 
0 
-1.018519126248641 
0 
0 
0 
0 
0 
0 
0 
0 
0 
0 
0 
0 
0 
-0.8782282594208793 
0 
0 
0 
0 
0 
0 
0 
0 
0 
1.029087734208088 
0 
0 
0 
0 
0 
0 
0 
0 
0 
0 
0 
0.663351566747076 
0 
0 
0 
0 
0 
0 
0 
0 
0 
0 
0 
0 
0 
0 
0 
0 
0 
0 
0 
0 
0 
0 
-1.33037765517944 
0 
0 
0 
0 
0 
0 
0 
0 
0 
0 
0 
1.142545333343015 
0 
0 
-1.055002924206959 
0 
0 
0 
0 
0 
0 
0 
0 
0 
-0.5497470470513834 
0 
0 
0 
0 
0 
0 
1.483780456772345 
0 
0 
0 
0 
0 
0 
0 
0 
0 
0 
-1.413699820624442 
0 
0 
0 
0 
0 
0 
0 
0 
0 
0 
0 
0 
0 
-0.1987717619813827 
0 
0 
0 
0 
0 
-0.6596541229106223 
0 
0 
0 
0 
0 
0 
0 
0 
0 
0 
0 
0 
0 
0 
0 
0 
0 
0 
0 
0 
0 
0 
0 
0 
0 
0 
0 
0 
0 
0 
0 
0 
-0.1680245553328345 
0 
0 
0 
-0.9809558860955455 
0 
0 
0 
0 
0 
0 
0 
0 
0.09451628393832287 
0 
0 
0 
0 
0 
0 
0 
0 
0 
0 
0 
0 
0 
0 
0 
0 
0 
0 
0 
0 
0 
0 
0 
0 
0 
0 
0 
0.006217635863828671 
-0.7182337745462516 
0 
0 
0 
0 
0 
0 
0 
0 
-0.63786794921754 
0 
0 
0 
0 
0 
0 
0 
0 
0 
0 
0 
0 
0 
0 
0 
0 
0 
0 
0 
0 
0 
0 
0 
0 
0 
0 
0 
0 
0 
0 
0 
0 
0 
0 
0 
0 
0 
0 
0 
0 
0 
0 
0 
0 
0 
0 
0 
0 
0 
0 
0 
-0.7306660198925987 
0 
0 
0 
0 
0 
0 
0 
0 
0 
0 
0 
0 
0 
0 
0 
0 
0 
0 
0 
0 
0 
0 
0 
0 
0 
0 
0 
0 
-3.92782299890062 
-1.706371986027843 
0 
-1.528942182418442 
0 
0 
0 
0 
0 
0 
0 
0 
0 
0 
0 
0 
0 
0 
0 
0 
0 
0 
0 
0 
0 
0 
0 
-0.2838523243574978 
0 
0 
0 
0 
0 
0 
-1.581215776064914 
0 
0 
0 
0 
0 
0 
0 
0 
0 
0 
0 
0 
0 
0 
0 
0 
-0.1619310692286497 
0 
-2.509840432203061 
0 
0 
0 
0 
0 
1.853337438560079 
0 
0 
0 
0 
0 
0 
0 
0 
0 
0 
0 
0 
0 
-0.9411445839173254 
0 
0 
0 
0 
1.110365657511877 
0 
0 
1.204821258109198 
0 
0 
0 
0 
0 
0 
0 
-0.6333611024803133 
0 
0 
0 
0 
0 
0 
0 
0.006390699768670539 
0 
0 
0 
0 
0 
0 
0 
0 
0 
0 
0 
0 
0 
0 
0 
-0.3944921571367512 
0 
0 
0 
0 
0 
0 
0 
0 
0 
0 
0 
0 
0 
0 
0 
0 
0 
0 
0 
0 
0 
0 
0 
0 
0 
0 
0 
0 
0 
0 
0 
0 
0 
0 
0 
0 
0 
0 
0 
0 
0 
0 
0 
0 
0 
0.6157226985396861 
-1.079221799147044 
-0.8947844688458428 
-0.645059012499541 
0.04601082124803829 
0 
0 
-0.02513541654195324 
0 
0 
0 
0 
0 
0 
0 
0 
0 
-0.2505821289023765 
-2.593773918682027 
0 
0 
0 
0 
-0.9652665990810242 
0 
0 
0 
0 
0 
0 
0 
0 
0 
3.369276166938569 
0 
0 
0 
0 
0 
0 
0 
0 
0 
0 
0 
0 
1.341842924631151 
0 
0 
0 
1.15284084658014 
0 
0 
0 
0 
0 
0 
0 
0 
0 
0 
0 
1.118770538823831 
0 
0 
0 
0 
0 
0 
0 
0 
0 
0 
0 
0 
0 
0 
0 
0 
0 
0 
0 
0 
0 
0 
0 
0.6982400983978557 
0 
0 
0 
0 
0 
0 
0 
-1.879416106947752 
0 
0 
0 
-2.055013018529493 
0 
0 
0 
0 
0 
0 
0 
-0.6497549082084551 
0 
0 
0 
0 
0 
0 
0 
0 
0 
0 
0 
-0.6111343104368668 
0 
0 
0 
0 
0 
0 
0 
0 
0 
0 
0 
0 
0 
0 
0 
0 
0 
0 
0 
0 
0 
0 
0 
0 
0.8075635109691597 
-0.3233407407398963 
0 
0 
0 
0 
0 
0 
0 
0 
-3.688760522579816 
0 
0 
0 
0 
0 
0 
0 
0 
0 
0 
-4.810675475454469 
0 
0 
0 
0 
0 
-2.353888536324395 
0 
0 
0 
0 
0 
0 
0 
0 
0 
0 
-0.7845380072200617 
0 
0 
0 
0 
0 
0 
0 
0 
0 
-2.44526908528271 
0 
0 
0.8843991109058774 
0 
0 
0 
0 
0 
0 
0 
0.07040354526063695 
0 
0 
0 
0 
0 
0 
-1.574949703560976 
0 
0 
0 
0 
0 
0 
0 
0 
0.2501372524143469 
-2.07510191065834 
0 
0 
0 
0 
0 
0 
0 
0 
0 
0 
0 
0 
-3.264579114739453 
0 
0 
0 
-2.884922863947598 
-1.01780107008568 
0 
0 
0 
0 
0 
0 
0 
0 
0 
0 
0 
0 
0 
0.8074431190489174 
0 
0 
0 
0 
0 
0 
0 
0 
-0.545681243295751 
0 
0 
0 
0 
0 
-0.4493525126923876 
0 
-0.7073044867767919 
0 
0 
0 
0 
0 
-1.12802140550851 
0 
0 
0 
0 
0 
0 
0 
0 
0 
0 
0 
0 
0 
0 
0 
0 
0 
0 
0 
0 
0 
0 
0 
0 
0 
0 
0 
0 
0 
0 
0 
0 
0 
0 
0 
0 
0 
0 
0 
0 
0 
0 
0 
0 
0 
0 
-1.429566408063794 
-2.511903254654203 
0 
0 
0 
0 
-0.1675147540672781 
0 
0 
0 
0 
0 
0 
0 
0 
0 
0 
0 
0 
0 
0 
0 
0 
0 
0 
0 
0 
0 
0 
0 
0 
0 
0 
0 
0 
0 
0 
0 
0 
0 
0 
0 
0 
0 
-0.4608875643348965 
0 
0 
0 
0 
0 
0 
0 
0 
1.606589098303774 
0 
0 
0 
0 
0 
1.381081956699103 
1.340379012540672 
0 
0 
0 
-1.812799911684577 
0 
0 
0 
0 
0 
0 
0 
0.6399364107313325 
0 
0 
0 
0 
0 
-1.015946784003252 
0 
0 
0 
0 
0 
0 
0 
0 
0 
0 
0 
0 
0 
0 
0 
0 
0 
0 
0 
0 
-0.8199273636334822 
0.4679049347976341 
0 
0 
0 
0 
0 
0 
0 
0 
0 
0 
0 
0 
0 
0 
0 
0 
-0.9149425990847483 
0 
0 
0 
0 
0 
0 
0 
0 
0 
0 
0 
0 
0 
0 
0 
0 
0 
0 
0 
0 
0 
0 
-1.901251841371833 
0 
0 
0 
0 
0 
0 
0 
0 
0 
0 
0 
0 
0 
0 
0 
0.4524994773941596 
0 
0 
0 
0 
0 
0 
0 
0 
0 
0 
0 
0 
0 
0 
0 
0 
2.192576331351215 
0 
0 
0.6403238245125243 
0 
-1.402694271587874 
0 
0 
0 
0 
0.09084434463273454 
0 
0 
0.2679002722590428 
0 
-2.044034196806612 
0 
0 
0 
0 
0 
0 
1.166908903738072 
0 
0 
0 
0 
0 
0 
0 
-1.146310515652461 
0 
0 
0 
0 
-2.353886946628913 
0 
0 
0 
-0.5767311134956081 
0 
0 
0 
0 
0 
0 
0.3325223757785701 
0 
0 
0 
0 
-0.1749088269326318 
0 
0 
0 
0.0883961298189818 
0 
0 
0 
0 
0 
0 
0 
0 
0 
0 
0 
-0.2233850026493165 
0 
0 
0 
0 
0 
0 
-0.9809746441082097 
0 
0 
0 
0 
0 
0 
0 
0 
0 
0 
0 
0 
0 
0 
0 
0 
0 
0 
0 
0 
-2.86565506840695 
0 
-2.501076386563667 
0 
0 
0 
0 
0 
0 
0 
0 
-3.41436365176785 
-1.046992656384322 
0 
0 
0.8785858159072879 
0 
0 
0 
0 
0 
0 
0 
0 
0 
-2.558551334510621 
0 
0 
0 
0 
0 
0 
0 
0 
0 
0 
0 
0 
0 
0 
0 
0 
0 
0 
0 
0 
0 
0 
0 
0 
0 
0 
0 
0 
-1.089923112788107 
0 
0 
-1.176763669412242 
0 
0 
0 
-0.240381058978648 
0 
0 
0 
0 
0 
0 
0 
0 
0 
0 
0 
0 
0 
0 
0 
0 
0 
1.336887038938935 
0 
0 
0 
0 
0 
0 
0 
0 
0 
0 
0 
-3.143927643712029 
0 
0 
0 
0 
0 
0 
0 
0 
0 
0 
0 
0 
0 
0.1319336463212598 
0 
0 
0 
0 
0 
0 
0 
0 
0 
0 
0 
0 
-1.015385150361244 
0 
0 
0 
0 
0 
0 
0 
0 
0 
0 
0 
0 
0 
0 
0 
0 
0 
-1.211033136500168 
0 
0 
0 
0 
0 
0 
0 
0 
0 
0 
0 
0 
0 
0 
0 
0 
0 
0 
0 
0 
-5.742185627548792 
0 
0 
0 
0 
0 
0 
0 
0 
0 
0 
0 
0 
0 
0 
0 
0 
0 
0 
0 
0 
0 
0 
0 
0 
-0.9822115367714271 
0 
0 
0.02621935862547373 
0 
-0.01884954049917706 
0 
0 
0 
0 
0 
0 
0 
0 
0 
0 
0 
0 
0 
0 
0 
0 
0 
-0.4224706803155161 
0 
0 
0 
0 
0 
0 
0 
0 
0 
0 
0 
0 
0 
0 
0 
0 
0 
0 
0 
0 
0 
0 
5.889454665476478 
0 
0 
0 
0 
0 
0 
0 
0 
0 
0 
0 
0 
0 
0 
0 
0 
0 
0 
0 
0 
0 
0 
0 
0 
0 
0 
0 
0 
0 
0 
0 
0 
0 
0 
0 
-0.5342822700677102 
0 
0 
0 
-0.8360686374744645 
0 
0 
0 
-2.110463674010845 
0 
0 
0 
0 
0 
0 
0 
0 
0 
0 
0 
0 
2.312511057731235 
0 
0 
0 
0 
2.375289715284367 
0 
0 
0 
0 
0 
0 
-1.162621918532911 
0 
0 
0 
0 
0 
0 
0 
0 
0 
0 
0 
0 
0 
0 
0 
0 
0 
0 
0 
-0.2984624105113383 
0 
0 
0 
0 
0 
1.006626651327574 
0 
0 
0 
0 
0 
0 
0 
0 
0 
0 
0 
0 
0 
0 
0 
0 
0 
0 
0 
0 
0 
0 
0 
0 
0 
0 
0 
0 
0 
0 
0 
0 
0 
1.970165333066149 
0.7607613139224527 
0 
0 
1.560990687658453 
0 
0 
0 
0 
0 
0 
0 
0 
0 
0 
0 
0 
0 
0 
0 
0 
0 
0 
1.022618044763487 
0 
0 
0 
0 
0 
0 
0 
0 
0 
0 
0 
0 
0 
0 
0 
0 
0 
0 
0 
0 
0 
0 
0 
0 
1.322960544451586 
-2.061980034020666 
0 
0 
0 
0 
0 
0 
0 
0 
0 
0.1916013934929765 
-0.2361315727621192 
0 
0 
0 
1.228366333458075 
0 
0 
0 
0 
0 
-0.7545889993674638 
0.8920720182506199 
0 
0 
0 
0 
0 
0 
0 
-1.362397778461995 
0 
0 
0 
0 
0 
0 
0 
0 
-0.8473266886585287 
-0.05600153198232785 
0 
0 
0 
0 
0 
0 
0 
0 
0 
-1.03325776793678 
0 
0 
0 
0 
0 
0 
0 
0 
0 
0 
0 
-2.116724621036477 
0 
0 
0 
0 
0 
0 
0 
0 
0 
0 
0 
-0.6921565348463253 
0 
-1.22016554088459 
0.3304069784967622 
0.9263262906507331 
0 
0 
0 
-0.05352969354111853 
-2.019670207914721 
0 
-1.05000075407419 
-0.2366332222578709 
0 
0 
0 
0.06703640598640272 
0 
0 
0 
0 
0 
0 
0 
0 
0 
0 
0 
0 
0 
0 
0 
0 
0.5726395630577851 
0 
0 
0 
0 
0 
0 
0 
0 
0 
0 
0 
0 
0 
0 
0 
0 
0 
0 
0 
0 
0 
0 
0 
0 
0 
0 
0 
0 
0.9995494478669013 
0 
0 
-3.65309096588169 
0 
0 
0 
0 
-0.8594350266381106 
0 
0 
0 
0 
0 
0 
0 
0 
0.3066720381773867 
0 
0 
0 
0 
0 
0 
0 
0 
0 
0 
0 
0 
0 
0 
0 
0 
0 
-0.7392221324348515 
0 
0 
0 
0 
0 
0 
0 
0 
0 
0 
0 
0 
0 
-2.283733565654958 
0 
0 
0 
0 
-0.3308918423363502 
0 
0 
0 
0 
0 
0 
0 
0 
0 
0 
0 
0 
0 
0 
0 
-0.1035682370887233 
0 
0 
0 
0 
0.5705329512042179 
0 
0 
0 
0 
0 
0 
0 
0 
0 
-1.001687330726896 
0 
0 
0 
0 
0 
0 
0 
0 
0 
0 
-0.9686079673569467 
0 
0 
0 
0 
0 
0 
0 
0 
0 
0 
0 
0 
0 
0 
0 
0 
0 
0 
0 
0 
0 
0 
0 
0 
0 
0 
0 
0 
0 
0.5293630375281784 
0 
0 
-0.9758104705988887 
0 
0 
0 
0 
0 
0 
0 
0 
0 
0 
0 
0 
0 
0 
0 
0 
0 
0 
0 
0 
0 
0 
0 
-0.5083576347489716 
0 
0 
0 
0 
0 
0 
0 
0 
0 
0 
0 
0 
0 
0 
0 
0 
0 
0 
0 
0 
0 
0 
0 
0 
0 
0 
0 
0 
0 
0 
0 
0 
0 
0 
0 
0 
0 
0 
0 
0 
0 
0 
0 
0 
0 
0 
0 
0 
0 
0 
0 
0 
0 
0 
0 
0 
0 
0 
-1.776944693119014 
0 
0 
0 
0 
0 
0 
0 
0 
0 
2.404519494567392 
0 
0 
0 
0 
0 
0 
0 
0 
0 
0 
0 
0 
0 
0 
0 
0 
0 
0 
0 
1.568391402890561 
0 
0 
0 
0 
0 
0 
0 
0 
0 
0 
0 
0 
0 
0 
0 
0 
0 
0 
0 
0 
0 
0 
0 
0.7760055941136325 
0 
0 
0 
0 
0 
0 
0 
0 
0 
0 
0 
0 
0 
0 
0 
0 
0 
0 
0 
0 
0 
0 
0 
0 
0.01548074751276339 
0 
0 
0 
0 
-2.047986525657551 
0 
0 
0 
-2.444907591019115 
0 
0 
0 
0 
0 
0 
0 
0 
0 
0 
0 
0 
-0.6294045050508521 
0 
0 
0 
0 
-0.1790540548206422 
0 
0 
0 
0 
0 
0 
0 
0 
0 
-2.204782706691448 
0 
0 
0.3587770935922152 
0 
-0.6814241936697251 
0 
0 
0 
0 
-3.566624399310313 
0 
0 
0 
0 
0 
0 
0 
0.4366374603515901 
0 
0 
0 
0 
0 
1.473952856640079 
0 
0 
0 
0 
0 
2.073528911072774 
0 
0 
0 
0 
0 
0 
0 
0 
0 
-0.8643555158426584 
0 
0 
0 
0 
0 
0 
0 
0 
0 
0 
0 
0 
0 
0 
0 
0 
0 
0 
0 
0 
0 
0 
0 
0 
0 
0 
0 
0 
0 
0 
0 
0 
0 
0 
0 
0 
0 
0 
0 
0 
0 
0 
0 
0 
0 
0 
0 
0 
0 
0 
0 
0 
0 
0 
0 
0 
0 
0 
0 
0 
0 
0 
0 
0 
0 
0 
0 
0 
0 
0 
0 
-1.469300907339022 
0 
0 
0 
0 
0 
0 
0 
0 
0 
0 
0 
0 
0 
0 
0 
0 
0 
0 
0 
0 
0 
0 
0 
0 
0 
0 
0 
0 
0 
0 
0 
0 
0 
0 
0 
0 
0 
0 
0 
0 
0 
0 
0 
0 
0 
0 
0 
0 
0 
0 
0 
0 
0 
0 
0 
0 
0 
0 
0 
0 
0 
0 
0 
0 
0 
0 
0 
0 
0 
0 
0 
0 
0 
0 
0 
0 
0 
0 
0 
0 
0 
0 
0 
0 
0 
-0.6112925097744701 
0 
-4.131265243063838 
3.041621483169403 
0 
0 
0 
0 
0 
0 
0 
0 
0 
0 
0 
0 
0 
0 
0 
0 
0 
0 
0 
0 
0 
-0.2956122218547566 
0 
0 
0 
0 
0 
0 
0 
0 
0 
0 
0 
0 
0 
0 
0 
0 
0 
0 
0 
0 
0 
0 
0 
0 
0 
0 
0 
0 
0 
0 
0 
0 
0 
0 
0 
0 
0 
0 
0 
0 
0 
0 
0 
0 
-3.753588551162119 
0 
0 
2.701660427500707 
0 
0 
-1.190085892652463 
0 
-1.517227716677692 
1.523504925701025 
0 
0 
0 
0 
0 
0 
0 
0 
0 
-0.7298243276466599 
0.6730691400926508 
0 
0 
0 
0 
0 
0 
0 
0 
0 
0 
0 
0 
0 
0 
0 
0 
0 
0 
0 
0 
0 
0 
0 
0 
-7.025950774560968 
0 
0 
0 
-0.1634998104170247 
0 
0 
0 
0 
0 
0 
0 
0 
0 
0 
-0.3333740783206623 
0 
0 
0 
0 
0 
0 
0 
0 
0 
0 
0 
0 
0 
0 
0 
0 
0 
0 
0 
0 
0 
0 
0 
0 
0 
0 
0 
0 
0 
0 
0 
0 
0 
0 
0 
0.2627649660948199 
0 
0 
0 
0 
0 
0 
0 
0 
0.1262789621315794 
0 
0 
0 
0 
0 
0 
0 
-0.2161230284807901 
0 
0 
0 
0 
0 
0 
0 
0 
0 
0 
0 
0 
0 
0 
0 
0 
0 
0 
0 
0 
0 
0 
0 
0 
0 
0 
0 
0 
0 
0 
0 
0 
0 
0 
0 
0 
0 
0 
0 
0 
0 
-0.8167373900995089 
0 
0 
0 
0 
0 
0 
0 
0 
0 
0 
0 
0 
0 
0 
-0.5378052660127005 
0 
0 
0 
0 
0 
0 
0 
0 
0 
0 
0 
0 
0 
0 
0 
-0.02313106912266041 
-0.2055713031735382 
0 
0 
0 
0 
0 
-0.7368342268097751 
-3.574028847853824 
0 
0 
0 
0 
0 
0 
0 
0 
0 
0 
0 
0 
0 
0 
0 
0 
0.2627406546283337 
0 
0 
0 
0 
0 
0 
0 
0 
0 
0 
0 
0 
0 
1.552338101713106 
0 
0 
0 
0 
0 
0 
0 
0 
0 
0 
0 
0 
0 
0 
0 
0 
0 
0 
0 
0 
0 
0 
-0.5965724331441471 
1.915246995872834 
0 
0 
0 
0 
0 
0 
0 
0 
-0.7009092769062387 
0 
0 
0 
0 
0 
0 
0 
0 
-0.1652017867247271 
0 
0 
0 
0 
0 
0 
0 
0 
0 
0 
0 
0 
0 
0 
0 
0 
0 
0 
0 
0 
0 
0 
0 
0 
0 
0 
0 
0 
0 
0 
-2.424307658417774 
0 
0 
0 
0 
0 
0 
0 
1.207065266742345 
0 
0 
0 
0 
0 
0 
0 
0 
0 
0 
0 
0 
0 
0 
0 
0 
0 
0 
0 
0 
0 
0 
1.261965569467961 
0 
0 
0 
0 
0 
0 
0 
0 
0 
0 
0 
0 
0 
-0.09731409161277688 
0 
0 
0 
0 
0 
0 
0 
0 
0 
0 
0 
0 
0 
0 
0 
0 
0 
0 
0 
0 
0 
0 
0 
0 
0 
0 
0 
0 
0 
0 
0 
0 
0 
0 
-0.2089115484119655 
0 
0 
0 
0 
0 
-0.7790118584343215 
0 
0 
0 
0 
0 
0 
0 
0 
0 
0 
0 
0 
0 
0 
0 
0 
0 
0 
0 
0 
0 
0 
0 
0 
0 
0 
0 
0 
0 
0 
0 
0 
0 
0 
0 
0 
0 
0 
0 
0 
0 
0 
0 
0 
0 
0 
0 
0 
0 
0 
0 
-0.9317832665164216 
0 
0 
0 
0 
0 
0 
0 
0 
0 
0 
0 
-1.909255405734607 
0 
0 
0 
0 
0 
0 
0 
0 
0 
0 
0 
0 
0 
0 
0 
0 
0 
0 
0 
0 
0 
0 
0 
0 
0 
0 
0 
0 
0 
0 
0 
0 
0 
0 
0 
0 
0 
0 
0 
0 
0 
0 
0 
0 
0 
0 
0 
-0.4171495029690269 
0 
0 
0 
0 
0 
0 
0 
0 
0 
0 
0 
0 
0 
0 
-1.35920724024575 
0 
0 
0 
0 
0 
0 
0 
0 
0 
0 
0 
-0.07930016098415939 
0 
0 
0 
0 
0 
0 
0 
0 
0 
0 
0 
0 
0 
0 
0 
0 
0 
0 
0 
0 
0 
0 
0 
0 
0 
0 
0 
0 
0 
0 
0 
0 
0 
0 
0 
0 
0 
0 
0 
0 
0 
0 
0.3755596832816001 
0 
0 
0 
0 
0 
0 
0 
0 
0 
0 
0 
0 
0 
0 
0 
0 
0 
0 
0 
0 
0 
0 
0 
0 
0 
0 
0 
0 
0 
0 
0 
0 
0 
0 
0 
0 
0 
0 
0 
-1.11281959287994 
0 
0 
0 
0 
0 
0 
0 
0 
0 
0 
0 
0 
0 
0 
0 
0 
0 
0 
0 
-1.45527289655082 
0 
0 
0 
0 
0 
0 
0 
0 
0 
0 
0 
0 
0 
0 
0 
0 
0 
0 
0 
0 
0 
0 
-0.2930484882318872 
0 
0 
0.3859025110722152 
0 
0 
0 
0 
0 
0 
0 
0 
0 
0 
0 
0 
0 
0 
0 
0 
0 
0 
0 
0 
0 
0 
0 
0 
0 
0.1859615693096449 
0 
0 
0 
0 
0 
0 
0 
0 
0 
0 
0 
0 
0 
0 
0 
0 
0 
0 
0 
0 
0 
1.680004322449945 
0 
1.240008864112641 
0 
0 
0 
0 
-0.1533435198416026 
0 
0 
0 
0 
0 
0 
0 
0 
0 
0 
0 
0 
0 
0 
0 
0 
0 
0 
0 
0 
0 
-0.8596717149970721 
0 
0 
0 
0.4564568872029204 
0 
0 
0 
0 
0 
0 
0 
0 
0 
0 
0 
0 
0 
0 
0 
-0.03822553088092769 
3.006375479572894 
0 
0 
0 
0 
0 
0 
0 
0 
0 
0 
0 
0.2435068004781521 
0 
-2.876739904065898 
-0.3783104438569863 
0 
0 
0 
0 
0 
-2.091015329068936 
0 
0 
0 
0 
0 
0 
0 
0 
0 
0 
0 
0 
0 
0 
-0.4057728846886941 
0 
0 
0 
0 
0 
0 
0 
0 
0 
0 
0 
0 
0 
0 
0 
0 
0 
0 
0 
0 
0 
0 
0 
0 
0 
0 
0 
0 
0 
0 
0 
0 
0 
0 
0 
0 
0 
0 
0 
0 
0 
0 
0 
0 
-0.8530181953670408 
0 
0 
0 
0 
0 
4.009648056605123 
1.154562488974712 
0 
0 
0 
0 
0 
0 
0 
0 
0 
0 
0 
0 
0 
0 
0 
0 
0 
0 
0 
0 
0 
0 
0 
0 
0 
0 
0 
0 
0 
0 
0 
0 
0 
0 
0 
0 
0 
-1.07709673528091 
0 
0 
0 
0 
0 
0 
0 
0 
0 
0 
0 
0 
0 
0 
0 
0 
0 
0 
0 
0 
0 
2.030941630932857 
0 
0 
0 
0 
0 
0 
0 
-2.235460913504279 
0 
0 
0 
0 
0 
0 
0 
0 
0 
0 
0 
0 
0 
0 
0 
0 
0 
0 
0 
0 
0 
0 
0 
0 
0 
0 
0 
0 
-1.089023489420436 
0 
0 
0 
0 
0 
0 
0 
0 
0 
0 
0.8539165732522223 
0 
0 
0 
0 
0 
0 
0 
0 
0 
0 
-0.05048664212347223 
0 
0 
0 
0 
0 
0 
0 
0 
0 
0 
0 
0 
0 
0 
0 
0 
0 
0 
0 
0 
0 
0 
0 
0 
0 
0 
0 
-0.1789011894597058 
0 
0 
0 
0 
0 
0 
0 
0 
0 
0 
0 
0 
0 
0 
0 
0 
0 
0 
0 
0 
0 
0 
0 
0 
0 
0 
0 
0 
0 
0 
0 
0 
0 
0 
0 
0 
0 
0 
0 
0 
0 
0 
3.40628323031147 
1.054814305612738 
0 
0 
0 
0 
0 
0 
0.2063758589648987 
0 
0 
0 
0 
0 
0 
0 
0 
0 
0.988692411419469 
0 
0 
0 
0 
0 
0 
0 
0 
0 
0 
0 
0 
0 
0 
0 
0 
0 
0 
0 
0 
0 
0 
0 
0 
0 
0 
0 
0 
0 
0 
0 
0 
0 
0 
0 
0 
0 
0 
0 
0 
0 
0 
0 
0 
0 
0 
0 
0 
0 
0 
0 
0 
0 
0 
0 
0 
1.316833830452945 
0 
0 
0 
0 
0 
0 
0 
0 
0 
0 
0 
0 
0 
0 
0 
0 
0 
0 
0 
0 
0 
0 
0 
0 
0 
0 
0 
0 
0 
0 
0 
0 
0 
0 
0 
0 
0 
0 
0 
0 
0 
0 
0 
0 
0 
0.7736042063195069 
0 
-1.505682129079927 
0 
0 
0 
0 
0 
0 
0 
0 
0 
0 
0 
0 
0 
0 
0 
0 
0 
0 
0 
-2.959765377087487 
0 
0 
-0.3084499497874765 
0 
0 
0 
0 
-3.218388896255897 
0 
0 
0 
0 
0 
0 
0 
0 
1.671034551487701 
0 
0 
0 
0 
0 
0 
0 
0.2167822688887195 
0 
0 
0 
0 
0 
0 
0 
0 
0 
0 
0 
0 
0 
0 
0 
0 
0 
0 
0 
0 
0 
0 
0 
0 
0 
0 
0 
0 
0 
0 
0 
0.2350641268683767 
0 
0 
0 
-1.230516219337273 
0 
0 
0 
0 
0 
0 
0 
0 
0 
0 
0 
0 
0 
-0.9689412977900929 
0 
0 
0 
0 
0.366213351307052 
0 
0 
0 
1.549965985305892 
0 
0 
0 
0 
0 
0 
0 
0 
0 
0 
0 
0 
0 
0 
0 
0 
0 
0 
0 
0 
0 
0 
0 
0 
0 
0 
0 
0 
0 
0 
0 
0 
0 
0 
0 
0 
0 
0 
0 
0 
0 
0 
0 
0 
0 
0 
0 
0 
0 
0 
0 
0 
0 
0 
0 
0 
0 
0 
0 
0 
0 
0 
0 
0 
0 
1.036935720485601 
0 
0 
0 
0 
0 
0 
0 
0 
0 
0 
0 
0 
0 
0 
0 
0 
0 
0 
0 
0 
0 
0 
0 
0 
0 
0 
0 
0 
0 
0 
0 
1.288380382984486 
0 
0 
0 
0 
0 
0 
0 
0 
0 
0 
0 
0 
0 
0 
0 
0 
0 
0 
0 
0 
0 
0 
0 
0 
0 
0 
0 
0 
0 
0 
0 
0 
0 
0 
0 
0 
0 
0 
0 
0 
0 
0 
0 
0 
0 
0 
0 
0 
0 
0 
0 
0 
0 
0 
0 
0 
0 
0 
0 
0 
0 
0 
0 
0 
0 
0 
0 
0 
0 
0 
0 
0 
0 
0 
0 
0 
0 
0 
0 
1.949659829773956 
0 
0 
0 
0 
0 
0 
0 
0 
0 
0 
0 
0 
0 
0 
0 
0 
0 
0 
0 
0.258192018561234 
0 
0 
0 
0 
0 
0 
0 
0 
0 
0 
0 
0 
0 
0 
0 
0 
0 
0 
0 
0 
0 
0 
0 
0 
0 
0 
0 
0 
0 
0 
0 
0 
0 
0 
0 
0 
0 
0 
0 
0 
0 
0 
2.79733180860572 
0 
0 
0 
0 
0 
0 
0 
1.653746077680152 
0 
0 
0 
0 
0 
0 
0 
0 
0 
0 
1.725728986187563 
0 
0 
0 
0 
0 
0 
0 
-1.260041808007401 
0 
0 
0 
0 
0 
0 
0 
0 
0 
0 
0 
0 
0 
0 
0 
0 
0 
0 
0 
0 
0 
0 
0 
0 
0 
0 
0 
0 
0 
0 
0 
0 
0 
0 
0 
0 
0 
0 
0 
0 
0 
0 
0 
0 
0 
0 
0 
0 
0 
0 
0 
0 
0 
0 
0 
0 
0 
0 
-0.5084246922570322 
0 
0 
0 
0 
0 
0 
0 
0 
0 
0 
0 
0 
0 
0 
0 
0 
0 
0 
0 
0 
0 
0 
0 
0 
0 
0 
0 
0 
0 
0 
0 
0 
0 
0 
0 
0.9783129044961931 
0 
0 
0 
0 
0 
0 
0 
0 
0 
0 
0 
0 
0 
0 
0 
0 
0 
0 
0 
0 
0 
0 
0 
0 
0 
0 
0 
0 
0 
0 
0 
0 
0 
0 
0 
0 
0 
0 
0 
0 
0 
0 
0 
0 
0 
0 
0 
0 
0 
0 
0 
0 
0 
0 
0 
0 
0 
0 
0 
0 
0 
0 
0 
0 
0 
0 
0 
0 
0 
0 
0 
0 
0 
0 
0 
0 
0 
0 
0 
0 
0 
0 
0 
0 
0 
-1.676599719073786 
0 
0 
0 
0 
0 
0 
0 
0 
0 
0 
0 
0 
0 
0 
0 
0 
0 
0 
0 
0 
0 
0 
0 
0 
0 
0 
0 
0 
0 
0 
0 
0 
0 
0 
0 
0 
0 
0 
0 
0 
0 
0 
0 
0 
0 
0 
0 
0 
0 
0 
0 
0 
-1.147080403916531 
0 
-0.3944721301136941 
0 
0 
-0.3813422003753762 
0 
0 
0 
0 
-1.588889595510947 
0 
0 
-0.4047801014505457 
0 
0 
0 
0 
0 
0 
0 
0 
0 
0 
0 
0 
0 
0 
0 
0 
0 
-2.190432728807432 
0 
0 
0.7825513703200202 
0 
0 
0 
0 
0 
0 
0 
0 
0 
0 
0 
0 
0 
0 
0 
0.4465221244219666 
0 
0 
0 
0 
0 
0 
-0.3837755839300855 
0 
0 
0 
0 
0 
3.845510037582477 
0 
0 
0 
0 
0 
0 
0 
0 
0 
0 
0 
0 
0 
0 
0 
0 
0 
0 
-0.109300706963925 
0 
0 
0 
0 
0 
0 
0 
0 
0 
0 
0 
0 
0 
0 
0 
0 
0 
0 
-2.262929551526198 
0 
0 
0 
0 
0 
0 
0 
0 
0 
0 
0 
0 
0 
0 
0 
0 
0 
0 
0 
0 
0 
0 
0 
0 
0.08528971324618984 
0 
0 
0 
0 
0 
0 
0 
0 
0 
0 
0 
0 
0 
0 
0 
0 
0 
0 
0 
0 
0 
0 
0 
0 
0 
0 
0 
0 
0 
0 
0 
0 
0 
0 
-0.1056283936179401 
0 
0 
0 
0 
0 
1.002398486594369 
0 
0 
0 
0 
0 
0 
0 
0 
0 
0 
0 
0 
0 
0 
0 
0.397219832566983 
0 
0 
0 
0 
0 
0 
0 
0 
0 
0 
0 
0 
0 
0 
0 
0 
0 
0.4339586972026777 
0 
0 
0 
0 
0 
0 
0 
0 
0 
0 
0 
0 
0 
0 
0 
0 
0 
0 
0 
0.9069215022358935 
0 
0 
0 
0 
0 
0 
0 
-2.057768889981588 
0 
0 
0 
0 
0 
0 
0 
0 
0 
0 
0 
0 
0 
0 
0 
0 
0 
0 
0 
0 
0 
0 
0 
0 
0 
0 
0 
0 
0 
0 
0 
0 
0 
0 
0 
0 
0 
0 
0 
0 
0 
0 
0.4635095311929704 
0 
0 
0 
0 
0 
0 
0 
0 
0 
0 
0 
0 
0 
0 
0 
0 
0 
0 
0 
0 
0 
0 
-0.60558066103047 
0 
0 
0 
0 
0 
0 
0 
0 
0 
0 
0 
0 
0 
0 
-2.341944119301076 
0 
0 
0 
0 
0 
0 
0 
0 
0 
0 
0 
0 
0 
0 
0 
0 
0 
0 
0 
0 
0 
0 
0 
0 
0 
0 
0 
0 
0 
0 
-0.394373220946332 
0 
0 
0 
0 
0 
0 
0 
0 
0 
0 
0 
0 
0 
0 
0 
0 
1.968321676948062 
0 
0.03155599878280669 
0 
0 
0 
0 
0 
0 
0 
0 
0 
0 
0 
0 
0 
0 
0 
0 
0 
0 
0 
0 
0 
0 
0 
0 
0 
0 
0 
0 
0 
0 
0 
0 
0 
0 
0 
0 
0 
0 
0 
0 
0 
0 
0 
0 
0 
0 
0 
0 
0 
0 
0 
0 
0 
0 
0 
0 
0 
0 
0 
0 
0 
0 
0 
0 
0 
0 
0 
0 
0 
0 
0 
0 
0 
0 
0 
0 
0 
0 
0 
0 
0 
0 
0 
0 
0 
-0.04485163893629062 
0 
0 
0 
0 
0 
0 
0 
0 
0 
0 
0 
0 
0 
0 
0 
0 
0 
0 
0 
0 
0 
0 
0.4737210880434598 
0 
0 
0 
0 
0 
0 
0 
0 
0 
0 
0 
0 
0 
0 
0 
0 
0 
0 
0 
0 
0 
0 
0 
0 
0 
0 
0 
0 
0 
0 
0 
0 
0 
0 
0 
0 
0 
0 
0 
0 
0 
0 
0 
0 
0 
0 
0 
0 
0 
0 
0 
0 
0 
0 
0 
0 
-0.6784801850819147 
0 
0 
0 
0 
0 
0 
0 
0 
0 
0 
0 
0 
-0.483365829390843 
0 
0 
0 
0 
0 
0 
0 
0 
-1.106388871000475 
0 
0 
0 
0 
0 
0 
0 
0 
0 
0 
0 
0 
0 
0 
0 
0 
0 
0 
0 
0 
0 
0 
0 
0 
0 
0 
0 
0 
0 
0 
0 
0 
0 
0 
0 
0 
0 
0 
0 
0 
0 
0 
0 
0 
0 
0 
0 
-0.9126529210787971 
0 
0 
0 
0 
0 
0 
0 
0 
0 
0 
0 
0 
0 
0 
0 
0 
0 
0 
0 
1.260362459414191 
0 
0 
0 
0 
0 
0 
0 
0 
0 
0 
0 
0 
0 
0 
0 
0 
0 
0 
0 
0 
0 
0 
0 
0 
0 
0 
0 
0 
0 
0 
0 
0 
0 
0 
0 
0 
0 
0 
0 
0 
0 
0 
0 
0 
0 
0 
0 
0 
0 
0 
0 
0 
0 
0 
0 
0 
0 
0 
0 
0 
0 
0 
0 
0 
0 
0 
0 
0 
0 
0 
0 
0 
0 
0 
0 
0 
0 
0 
0 
0 
0 
0 
0 
0 
0 
0 
0 
0 
0 
0 
0 
0 
0 
0 
0 
0 
0 
0 
0 
0 
0 
0 
0 
0 
0 
0 
0.346883445967225 
0 
0 
0 
0 
0 
0 
0 
0 
0 
0 
0 
0 
0 
0 
0 
0 
0 
0 
0 
0 
0 
0 
0 
0 
0 
0 
0 
0 
0 
0 
0 
0 
0 
0 
0 
0 
0 
0 
0 
0 
0 
0 
0 
0 
0 
0 
0 
0 
0 
1.278880732771598 
0 
0 
0 
0 
0 
0 
0 
0 
0 
0 
0 
0 
0 
0 
0 
0 
0 
0 
0 
0 
0 
0 
0 
0 
0 
0 
0 
0 
0 
0 
0 
0 
0 
0 
0 
0 
0 
0 
0 
0 
0 
0 
0 
0 
0 
0 
0 
0 
0 
0 
0 
0 
0 
0 
0 
0 
0 
0 
0 
0 
0 
0 
0 
0 
0 
0 
0 
0 
0 
0 
0 
0 
0 
0 
0 
0 
0 
0 
0 
0 
0 
0 
0 
0 
0 
0 
0 
0 
0 
0 
0 
0 
0 
0 
0 
0 
0 
0 
-0.4384758744674291 
0 
0 
0 
0 
0 
0 
0 
-1.549903593392274 
0 
0 
0 
0 
0 
0 
0 
0 
0 
0 
0 
0 
0 
0 
0 
0 
0 
0 
0 
0 
0 
0 
0 
0 
0 
0 
0 
0 
0 
0 
0 
0 
0 
0 
0 
0 
0 
0 
0 
0 
-0.5557903241901945 
0 
0 
0 
0 
0 
0 
0 
0 
0 
0 
0 
0 
0 
0 
0 
0 
0 
0 
0 
0 
0 
0 
0 
0 
0 
0 
0 
0 
0 
0 
0 
0 
0 
0.9962930246961371 
0 
0 
0 
0 
0 
0 
0 
0 
0 
0 
0 
0 
0 
0 
0 
0 
0 
0 
0 
0 
0 
0 
0 
0 
0 
0 
0 
0 
0 
0 
0 
0 
0 
0 
0 
0 
0 
0 
0 
0 
0 
0 
0 
0 
0 
0 
0 
0 
0 
0 
0 
0 
0 
0 
0 
0 
0 
0 
0 
0 
0 
0 
0 
0 
0 
0 
0 
0 
0 
-0.04032805363419565 
0 
0 
0 
0 
0 
0 
0 
0 
-0.166256588825627 
0 
0 
0 
0 
0 
0 
0 
0 
0 
0 
0 
0 
0 
0 
0 
0 
0 
0 
0 
0 
0 
0 
0 
0 
0 
0 
-1.09035235098088 
0 
0 
0 
0 
0 
0 
0 
0 
0 
0 
0 
0 
0 
0 
0 
0 
0 
0 
0 
0 
0 
0 
0 
0 
0 
0 
0 
0 
0 
0 
0 
0 
0 
0 
0 
0 
0 
0 
0 
0 
0 
0 
0 
0 
0 
0 
0 
0 
0 
0 
0 
0 
0 
0 
0 
0 
0 
0 
0 
0 
0 
0 
0 
0 
0 
0 
0 
0 
0 
0 
0 
0 
-1.120017597438892 
0 
0 
0 
0 
0 
0 
0 
0 
0 
0 
0 
0 
0 
0 
0 
0 
0 
0 
0 
0 
0 
0 
0 
0 
0 
0 
0 
0 
0 
0 
0 
0.1039058219564163 
-0.5346626384252458 
0 
0 
0 
0 
0 
0 
0 
0 
0 
0 
0 
0 
0 
0 
0 
0 
0 
1.463153122104436 
0 
0 
0 
0 
0 
0 
0 
0 
0 
0 
0 
0 
0 
0 
0 
-6.029821260546123 
0 
0 
0 
0 
0 
0 
0 
0 
0 
0 
0 
0 
0 
0 
0 
0 
0 
0 
0 
0 
0 
0 
0 
0 
0 
0 
0 
0 
0 
0 
0 
0 
0 
0 
0 
0 
0 
0 
0 
0 
0 
0 
0 
0 
0 
0 
0 
0 
0 
0 
0.8325053412674085 
0 
0 
0 
0 
0 
0 
0 
0 
0 
0 
0.3702733440534402 
0 
0 
0 
0 
0 
0 
0 
0 
0 
0 
0 
0 
0 
0 
0 
0 
0 
0 
0 
0 
0 
0 
0 
0 
0 
0 
0 
0 
0 
0 
0 
0 
0 
0 
0 
0 
0 
0 
0 
0 
0 
0 
0 
0 
0 
0 
0 
0 
0 
0 
0 
0 
0 
0 
0 
0 
0 
0 
0 
0 
0 
0 
0 
0 
0 
0 
0 
0 
0 
1.252856715762432 
0 
0 
0 
0 
0 
0 
0 
0 
0 
0 
0 
0 
0 
0 
0 
0 
0 
0 
0 
0 
0 
0 
0.1274001174097413 
0 
0 
0 
-2.430452888929429 
0 
0 
0.4162974066155791 
0 
0 
0 
0 
0 
0 
0 
0 
0 
0 
0 
0 
0 
0 
0 
0 
-1.469484409568595 
0 
0 
0 
0 
0 
0 
0 
0 
0 
0 
0 
-0.506014464556345 
0 
0 
0 
0 
0 
0 
0 
0 
0 
0 
0 
0 
0 
0 
0 
0 
0 
0 
0 
0 
0 
0 
0 
0 
0 
0 
0 
0 
0 
0 
0 
0 
0 
0 
0 
0 
0 
0 
0 
0 
0 
0 
0 
0 
0 
0 
0 
-0.07166963204749501 
0 
0 
0 
0 
0 
0 
0 
0 
0 
0 
0 
0 
0 
0 
0 
0 
0 
0 
0 
0 
0 
0 
0 
0 
0 
-0.3214557676830509 
0 
0 
0 
0 
0 
0 
0 
0 
0 
0 
0 
0 
0 
0 
0 
0 
0 
0 
0 
0 
0 
0 
0 
0 
0 
0 
0 
0 
0 
0 
0 
0 
0 
0 
0 
0 
0 
0 
0 
0 
0 
0 
0 
0 
0 
0 
0 
0 
0 
0 
0 
0 
0 
0 
0 
0 
0 
0 
0 
0 
0 
0 
0 
0 
0 
0 
0 
0 
0 
0 
0 
0 
0 
0 
0 
0 
0 
0 
0 
0 
0 
0 
0 
0 
0 
0 
0 
0 
0 
0 
0 
0 
0 
0 
0 
0 
0 
0 
0 
0 
0 
-1.217055188759535 
0 
0 
0 
0 
0 
0 
0 
0 
0 
0 
0.07650108434167469 
0 
0 
0 
0 
0 
0 
0 
0 
0 
0 
0 
0 
0 
0 
0 
0 
0 
0 
0 
0 
0 
0 
0 
0 
0 
0 
0 
0 
0 
0 
0 
0 
0.1942110747052866 
0 
0 
0 
0 
0 
0 
0 
0 
0 
0 
0 
0 
0 
0 
0 
0 
0 
0 
0 
0 
0 
0 
0 
0 
0 
0 
0 
0 
0 
0 
0 
0.5657606847104787 
0 
0 
0 
0 
0 
0 
0 
0 
0 
0 
0 
0 
0 
0 
0 
0 
0 
0 
0 
0 
0 
0 
0 
0.01132032919188077 
0.7492307002106007 
0 
0 
0 
0 
0 
0 
0 
0 
0 
-0.7365797689785718 
0 
0 
0 
0 
0 
0 
0 
0 
0 
0 
0 
0 
0 
0 
0 
0 
0 
0 
0 
0 
0 
0 
0 
0 
0 
0 
0 
0 
0 
0 
0 
0 
0 
0 
0 
0 
0 
0 
0 
-0.7923528715149767 
0 
0 
0 
0 
0 
0 
0 
0 
0 
0 
0 
0 
0 
0 
0 
0 
0 
0 
0 
0 
0 
0 
0 
0 
0 
0 
0 
0 
0 
0 
0 
0 
0 
0 
0 
0 
0 
0 
0 
0 
0 
0 
0 
0 
0 
0 
0 
0 
0 
0 
0 
0 
0 
-0.992086132905979 
0 
0 
0 
0 
0 
0 
0 
0 
0 
0 
0 
0 
0 
0 
0 
0 
0 
0 
0 
0 
0 
0 
0 
0 
0 
0 
0 
0 
0 
0 
0 
0 
0 
0 
0 
0 
0 
0 
0 
0 
0 
0 
0 
1.868307519631245 
0 
0 
0 
0 
0 
0 
0 
0 
0 
0 
0 
0 
2.365759412668981 
0 
0 
0 
0 
0 
0 
0 
0 
0 
0 
0 
0 
0 
0 
0 
0 
0 
0 
0 
0 
0 
0 
0 
0 
0 
0 
0 
0 
0 
0 
0 
0 
0 
-1.480185339746459 
0 
0 
0 
0 
0 
0 
0 
0 
0 
0 
0 
0 
0 
0 
0 
0 
0.9832137688446661 
0 
0 
0 
0 
0 
0 
0 
0 
0 
0 
0 
0 
0 
0 
0 
0 
0 
0 
0 
0 
0 
0 
-1.033763072214594 
0 
0 
0 
0 
0 
0 
0 
0 
0 
0 
0 
0 
0 
0 
0 
0 
0 
0 
0 
0 
0 
0 
0 
0 
0 
0 
0 
0 
0 
0 
0 
0 
0 
0 
0 
0 
0 
0 
0 
0 
0 
0 
0 
0 
0 
0 
0 
0 
0 
0 
0 
0 
0 
0 
0 
0 
0 
0 
0 
0 
0 
0 
0 
0 
0 
0 
0 
0 
0 
0 
0 
0 
0 
0 
0 
0 
0 
0 
0 
0 
0 
0 
0 
0 
0 
0 
0 
0 
0 
0 
0 
0 
0 
0 
0 
0 
-0.2171965699975857 
0 
0 
0 
0 
0 
0 
0 
0 
0 
0 
0 
0 
0 
0 
0 
0 
0 
0 
0 
0 
0 
0 
0 
0 
0 
0 
0 
0 
0 
0 
0 
0 
0 
0 
0 
0 
0 
0 
0 
0.5275540632007544 
0 
0 
0 
0 
0 
0 
0 
0 
0 
0 
0 
0 
0 
0 
0 
-0.5747350437807185 
0 
0 
0 
0 
0 
0 
0 
0 
0 
0 
0 
0 
0 
0 
0 
0 
0 
0 
0 
0 
0 
0 
0 
0 
0 
0 
0 
0 
0 
0 
0 
0 
0 
0 
0 
0 
0 
0 
0 
0 
0 
0 
0 
0 
0 
0 
0 
0 
0 
0 
0 
0 
0 
0 
0 
0 
0 
0 
0 
0 
0 
0 
0 
0 
0.2319865128525568 
0.9277808393354297 
0 
0 
0 
0 
0 
0 
0 
0 
0 
0 
0 
0 
0 
0 
0 
0 
-1.060433189506324 
0 
0 
0 
0 
0 
0 
0 
0 
0 
0 
0 
0 
0 
0 
0 
0 
0 
0 
0 
0 
0 
0 
0 
0 
0 
0 
0 
0 
0 
0 
0 
0 
0 
0 
0 
0 
0 
0 
0 
0 
0 
0 
0 
0 
0 
0 
0 
0 
0 
0 
0 
0 
0 
0 
0 
0 
0 
0 
0 
0 
0 
0 
0 
0 
0 
0 
0 
0 
0 
0 
0 
0 
0 
0 
0 
0 
0 
0 
0 
0 
0 
0 
0 
0 
0 
0 
0 
0 
0 
0 
0 
2.416996520435597 
0 
0 
0 
0 
0 
0 
0 
0 
0 
0.2036197824431784 
0 
0 
-1.281870462468102 
0 
0 
0 
0 
0 
0 
0 
0 
0 
0 
0 
0 
0 
0 
0 
0 
0 
0 
0 
0 
0 
0 
0 
0 
0 
0 
0 
0 
0 
0 
0 
0 
0 
0 
0 
0 
0 
0 
0 
0 
0 
0 
0 
0 
0 
0 
0 
0 
0 
0 
0 
0 
0 
0 
0 
0 
0 
0 
0 
0 
0 
0 
0 
0 
0 
0 
0 
0 
0 
0 
0 
0 
0 
0 
0 
0 
0 
0 
0 
0 
0 
0 
0 
0 
0 
0 
0 
0.2145314049280544 
0 
0 
0 
0 
0 
0 
0 
0 
0 
0 
0 
0 
0 
0 
0 
0 
0 
0 
0 
0 
0 
0 
0 
0 
0 
0 
0 
0 
0 
0 
0 
0 
0 
0 
0 
0 
0 
0 
0 
0 
0 
0 
0 
0 
0 
0 
0 
0 
0 
0 
0 
0 
0 
0 
0 
0 
0 
0 
0 
0 
0 
0 
0 
0 
0 
0 
0 
0 
0 
0 
0 
0 
0 
0 
0 
0 
0 
0 
0 
0 
0 
0 
0 
0 
0 
0 
0 
0 
0 
0 
0 
0 
0 
0 
0 
0 
0 
0 
0 
0 
0 
0 
0 
0 
0 
0 
0 
0 
0 
0 
0 
0 
0 
0 
0 
0 
0 
0 
0 
0 
0 
0 
0 
0 
0 
0 
0 
0 
0 
0 
0 
0 
0 
0 
0 
0 
0 
0 
0 
0 
0 
0 
0 
0 
0 
0 
1.294764802964227 
0 
0 
0 
0 
0 
0 
0 
0 
0 
0 
0 
0 
0 
0 
0 
0 
0 
0 
0 
-0.7478086619612976 
0 
0 
0 
0 
0 
0 
0 
0 
0 
0 
0 
0 
0 
0 
0 
0 
0 
0 
0 
0 
0 
0 
0 
0 
0 
0 
0 
0 
0 
0 
0 
0 
0 
0 
0 
0 
0 
0 
-0.2705621970415627 
0 
0 
0 
0 
0 
0 
0 
0 
0 
0 
0 
0 
0 
0 
0 
0 
0 
0 
0 
0 
0 
0 
0 
0 
0 
0 
0 
0 
0 
0 
0 
0 
0 
0 
0 
0 
0 
0 
0 
0 
0 
0 
0 
0 
0 
0 
0 
0 
0 
0 
0 
0 
0 
0 
0 
0 
0 
0 
0 
0 
0 
0 
-0.2233202953948951 
0 
0 
0 
0 
0 
0 
0 
0 
0 
0 
0 
0 
0 
0 
0 
0 
0 
0 
-2.454147751641722 
0 
0 
0 
0 
0 
0 
0 
0 
0 
0 
0 
0 
0 
0 
0 
0 
0 
0 
0 
0 
0 
0 
0 
0 
0 
0 
0 
0 
0 
0 
0 
0 
-0.4470231971190126 
0 
-0.8887394825020616 
0 
0 
0.4997113068439008 
0 
0 
0 
0 
0 
0 
0 
0 
0 
0 
0 
0 
0 
0 
0 
0 
0 
0 
0 
0 
0 
0 
0 
0 
0 
0 
0 
0 
0 
0 
0 
0 
0 
0 
0 
0 
0 
0 
0 
0 
0 
0 
0 
0 
0 
0 
0 
0 
0 
0 
0 
0 
0 
0 
0 
0 
0 
0 
0 
0 
0 
0 
0 
0 
0 
0 
0 
0 
0 
0 
0 
0 
0 
0 
0 
0 
0 
0 
-1.488192934844346 
0 
0 
0 
0 
0 
-0.1108371704605337 
0 
0 
0 
0 
0 
0 
0 
0 
0 
0 
0 
0 
0 
0 
0 
0 
0 
0 
0 
0 
0 
0 
0 
0 
0 
0 
0 
0 
0 
0 
0 
0 
0.4749320974728141 
0 
0 
0 
0 
0 
0 
0 
0 
0 
0 
0 
0 
0 
0 
0 
0 
0 
0 
0 
0 
0 
0 
0 
-0.1955847202015817 
1.592492003380592 
0 
0 
0 
0 
0 
0 
0 
0 
0 
0 
0 
0 
0 
0 
0 
0.6856648386883403 
0 
0 
0 
0 
0 
0 
0 
0 
0 
0 
0 
0 
0 
0 
0 
0 
0 
0 
1.811870482152917 
0 
0 
0 
1.602831140613628 
0 
0 
0 
0 
0 
0 
0 
0 
0 
0 
0 
0 
0 
4.808599740956025 
0 
0 
0 
0 
0 
0 
0 
0 
0 
0 
0 
0 
0 
0 
0 
0 
0 
0 
0.1143219072072883 
0 
0 
0 
0 
0 
0 
0 
0 
0 
0 
0 
0 
0 
0 
0 
0 
0 
0 
0 
0 
0 
0 
0 
0 
0 
0 
0 
0 
0 
0 
0 
0 
0 
0 
0 
0 
0 
0 
0 
0 
0 
0 
0 
0 
0 
0 
0 
0 
0 
0 
0 
0 
0 
0 
0 
0 
0 
0 
0 
0 
0 
0 
0 
0 
0 
0 
0 
0 
0 
0 
0 
0 
0 
0 
0 
0 
0 
0 
0 
0 
0 
0 
0 
0 
0 
0 
0 
0 
0.7633860718567621 
0 
0 
0 
0 
0 
0 
0 
0 
0 
0 
0 
0 
0 
0 
0 
0 
0 
0 
0 
0 
0 
0 
0 
0 
0 
0 
0 
0 
0 
0 
0 
0 
0 
0 
0 
0 
0 
0 
0 
0 
0 
0 
0 
0 
0 
0 
0 
-0.1223954382410722 
0 
0 
0 
0 
0 
0 
0 
0 
0 
0 
0 
0 
0 
0 
0 
0 
0 
0 
0 
0 
0 
0 
0 
0 
0 
0 
0 
0 
0 
0 
0 
0 
0 
0 
0 
0 
0 
0 
-1.165611103722711 
0 
0 
0 
0 
0 
0 
0 
0.873580239862831 
0 
0 
0 
0 
0 
0 
0 
0 
0 
0 
0 
0 
0 
0 
0 
0 
0 
0 
0 
0 
0 
0 
0 
0 
0 
0 
0 
0 
0 
0 
0 
0 
0 
0 
0 
0 
0 
0 
6.067952788752394 
0 
0 
0 
0 
0 
0 
0 
0 
0 
0 
0 
0 
0 
0 
0 
0.04697070915935864 
0 
0 
0 
0 
0 
0 
0 
0 
0 
0 
-0.8305540878179318 
0 
0 
0 
0 
0 
0 
0 
0 
0 
0 
0 
0 
0 
0 
0 
0 
0 
0 
0 
0 
0 
0 
0 
0 
0 
0 
0 
0 
0 
-5.633442236763823 
0 
0 
0 
0 
0 
0 
0 
0 
0 
0 
0 
0 
0 
0 
0 
0 
0 
0 
0 
0 
0 
0 
0 
0 
0 
0 
2.018800744240284 
0 
0 
0 
0 
0 
0 
0 
0 
0 
0 
0 
0 
0 
0 
0 
0 
-1.135430902794358 
0 
0 
0 
0 
0 
0 
0 
0 
0 
0 
0 
0 
0 
0 
0 
0 
0 
0 
0 
0 
0 
0 
0 
0 
0 
0 
0 
0 
0 
0 
0 
0 
0 
0 
0 
0 
0 
0 
0 
0 
0 
0 
0 
0 
0 
0 
0 
0 
0 
0 
0 
0 
0 
0 
0 
0 
0 
0 
0 
0 
0 
0 
0 
0 
0 
0 
0 
0 
0 
0 
0 
0 
0 
0 
0 
0 
0 
0 
0 
0 
0 
0 
0 
0 
0 
0 
0 
0 
0 
0 
0 
0 
0 
0 
0 
0 
0 
0 
0 
0 
0 
0 
0 
0 
0 
0 
0 
0 
0 
0 
0 
0 
0 
0 
0 
0 
0 
0 
0 
0 
0 
0 
0 
0 
0 
0 
0 
0 
0 
0 
0 
0 
0 
0 
0 
0 
0 
0 
0 
0 
0 
0 
0 
0 
0 
0 
0.3135146377614815 
0 
0 
0 
0 
0 
0 
0 
0 
0 
0 
0 
0 
0 
0 
0 
0 
0 
0 
0 
0 
0 
0 
0 
0 
0 
0 
0 
0 
0 
0 
0 
0 
0 
0 
0 
0 
0 
0 
0 
0 
0 
0 
0 
0 
0 
0 
0 
0 
0 
1.210596162431161 
0 
0 
0 
0 
0 
0 
0 
0 
0 
0 
0 
0 
0 
0 
0 
0 
0 
0 
0 
0 
0 
0 
0 
0 
0 
0 
0 
0 
0 
0 
0 
0 
0 
0 
0 
0 
0 
0 
0 
0 
0 
0 
0 
0 
0 
0 
0 
0 
0 
0 
0 
0 
0 
0 
0 
0 
0 
0 
0 
0 
0 
0 
0 
1.183094563338614 
0 
0 
0 
0 
0 
0 
0 
0 
0 
0 
0 
0 
0 
0 
0 
0 
0 
0 
0 
0 
0 
0 
0 
0 
0 
0 
0 
0 
0 
0 
0 
0 
0 
0 
0 
0 
0 
0 
0 
0 
0 
-0.1942584284554265 
0 
0 
0 
0 
0 
0 
0 
0 
0 
0 
0 
-0.4403948421964484 
0 
0 
0 
-0.6974596762935614 
0 
0 
0 
0 
0 
0 
0 
0 
0 
0 
0 
0 
0 
0 
0 
0 
0 
0 
0 
0 
0 
0 
0 
0 
0.4376691389098551 
0 
-0.5170604775977046 
0 
0 
0 
0 
0 
0 
0 
0 
0 
0 
0 
0 
0 
0 
0 
0 
0 
0 
0 
0 
0 
0 
0 
0 
0 
0 
0 
0 
0 
0 
0 
0 
0 
0 
0 
0 
0 
0 
0 
0 
0 
0 
0 
0 
0 
0 
0 
0 
0 
0 
0 
0 
0 
0 
0 
0 
0 
0 
0 
0 
0 
0 
0 
0 
0 
0 
0 
0 
0 
0 
0 
0 
0 
0 
0 
0 
0 
0 
0 
0 
0 
0 
0 
0 
0 
0 
0 
0 
0 
0 
0 
0 
0 
0 
0 
0 
1.417327070338579 
0 
0 
0 
0 
0 
0 
0 
0 
0 
0 
0 
0 
0 
0 
0 
0 
0 
0 
0 
0 
0 
0 
0 
0 
0 
0 
0 
0 
0 
0 
0 
0 
0 
0 
0 
0 
0 
0 
0 
0 
0 
0 
0 
0 
0 
0 
0 
0 
0 
0 
0 
0 
0 
0 
0 
0 
0 
0 
0 
0 
0 
0 
0 
0 
0 
0 
0 
0 
0 
0 
0 
0 
0 
0 
0 
0 
0 
0 
0 
0 
0 
0 
0 
0 
0 
0 
0 
0 
0 
0 
-3.449106556377149 
0 
0 
0 
0 
0 
0 
0 
0 
0 
0 
-0.5346541826871385 
0 
0 
0 
0 
0 
0 
0 
0 
0 
0 
-0.6371810203073394 
0 
0 
0 
0 
0 
0 
0 
0 
0 
0 
0.2165847535302347 
0 
0 
0 
0 
0 
0 
0 
0 
0 
0 
0 
0 
0 
0 
0 
0 
0 
0 
0 
0 
0 
0 
0 
0 
0 
0 
0 
0 
0 
0 
0 
0 
0 
0.7564630431344138 
0 
0 
0 
0 
0 
0 
0 
0 
0 
0 
0 
0 
0 
0 
0 
0 
0 
0 
0 
0 
0 
0 
0 
0 
0 
0 
0 
0 
0.731962407892951 
0 
0 
0 
0 
0 
0 
0 
0 
0 
0 
0 
0 
0 
0 
0 
0 
0 
0 
0 
0 
0 
0 
0 
0 
0 
0 
0 
0 
0 
0 
0 
0 
0 
0 
0 
0 
0 
0 
0 
0 
0 
0 
0 
0 
0 
0 
0 
0 
0 
0 
0 
0 
0 
0 
0 
0 
0 
0 
0 
0 
0 
0 
0 
0 
0 
-0.1028451498867453 
0 
0 
0 
0 
0 
0 
0 
0 
0 
0 
0 
0 
0 
0 
0 
0 
0 
0 
0 
0 
0 
0 
0 
0 
0 
0 
0 
0 
0 
0 
0 
0 
0 
0 
0 
0 
0 
0 
0 
0 
0 
0 
0 
0 
0 
0 
0 
0 
0 
0 
0 
0 
0 
0 
0 
0 
0 
0 
0 
0 
0 
0 
0 
0 
0 
0 
0 
0 
0 
0 
0 
-1.020041127620374 
0 
0 
0 
0 
0 
0 
0 
0 
0 
0 
1.418018124723728 
0 
0 
0 
0 
0 
0 
0 
0 
0 
0 
0 
0 
0 
3.270018617249697 
0 
0 
0 
0 
0 
0 
0 
0 
0 
0 
0 
0 
0 
0 
0 
0 
0 
0 
0 
0 
0 
0 
0 
0 
0 
0 
0 
0 
0 
0 
0 
0 
-0.9678783759360035 
0 
0 
0 
0 
0 
0 
0 
0 
0 
0 
0 
0 
0 
0 
0 
0 
0 
0 
0 
0 
0 
0 
0 
0 
0 
0 
0 
0 
0 
0 
0 
0 
-1.126538265809287 
0 
0 
0 
0 
0 
0 
0 
0 
0 
0 
0 
0 
0 
0 
0 
0 
0 
0 
0 
0 
0 
0 
0 
0 
0 
0 
0 
0 
0 
0 
0 
0 
0 
0 
0 
0 
0 
0 
0 
0 
0 
0 
0 
0 
0 
0 
0 
0 
0 
0 
0 
0 
0 
0 
0 
0 
0 
0 
0 
0 
0 
0 
0 
0 
0 
0 
0 
0 
0 
0 
0 
0 
0 
0 
0 
0 
0 
0 
0 
0 
0 
0 
0 
0 
0 
0 
0 
0 
0 
0 
0 
0 
0 
0 
0 
0 
0 
0 
0 
0 
0 
0 
0 
0 
0 
0 
0 
0 
0 
0 
0 
0 
0 
0 
0 
0 
0 
0 
0 
0 
0 
0 
0 
0.9101306735775423 
0 
0 
0 
0 
0 
0 
0 
0 
0 
0 
0 
0 
0 
0 
0 
0 
0 
0 
0 
0 
0 
0 
0 
0 
0 
0 
0 
0 
0 
0 
0 
0 
0 
0 
0 
0 
0 
0 
0 
0 
0 
0 
0 
0 
0 
0 
0 
0 
0 
0 
0 
0 
0 
0 
0 
0 
0 
0 
0 
0 
0 
0 
0 
0 
0 
0 
0 
0 
0 
0 
0 
0 
0 
0 
0 
0 
0 
0 
0 
0 
0 
0 
0 
0 
0 
-0.3493479229578843 
0 
0 
0 
0 
0 
0 
0 
0 
0 
0 
0 
0 
0 
0 
0 
0 
0 
0 
0 
-2.555187872044588 
0 
0 
0 
0 
0 
0 
0 
0 
0 
0 
0 
0 
0 
0 
0 
-4.190774737704516 
0 
0 
0 
0 
2.134588672892539 
0 
0 
0 
0 
0 
0 
0 
0 
0 
0 
0 
0 
0 
0 
0 
2.636034243658072 
0 
0 
0 
0 
0 
0 
0 
0 
0 
0 
0 
0 
0 
0 
0 
0 
0 
0 
0 
0 
0 
0 
0 
0 
0 
0 
0 
0 
0 
0 
0 
0 
0 
0 
0 
0 
0 
0 
0 
0 
0 
0 
0 
0 
0 
0 
0 
0 
0 
0 
0 
0 
0 
0 
0 
0 
0 
0 
0 
0 
0 
0 
0 
0 
0 
0 
0 
0 
0 
0 
0 
0 
0 
0 
0 
0 
0 
0 
0 
0 
-0.4313350990260536 
0 
0 
0 
0 
0 
0 
0 
0 
0 
0 
0 
0 
0.03378262394647943 
0 
0 
0 
0 
0 
0 
0 
0 
0 
0 
0 
0 
0 
0 
0 
0 
0 
0 
0 
0 
0 
0 
0 
0 
0 
0 
0 
0 
0 
0 
0 
0 
0 
0 
0 
0 
0 
0 
0 
0 
0 
0 
0 
0 
0 
0 
0 
0 
0 
0 
0 
0 
0.1399031608857933 
0 
0 
0 
0 
0 
0 
-0.2337976609218228 
0 
0 
0 
0 
0 
0 
0 
0 
0 
0 
0 
0 
0 
0 
0 
0 
0 
0 
0 
0 
0 
0 
0 
0 
0 
0 
0 
0 
0 
0 
0 
0 
0 
0 
0 
0 
0 
0 
0 
0 
0 
0 
0 
0 
0 
0 
0 
0 
0 
0 
0 
0 
0 
0 
0 
0 
0 
0 
0 
0 
0 
0 
0 
0 
0 
0 
0 
0 
0 
0 
0 
0 
0 
0 
0 
0 
0 
0 
0 
0 
0 
0 
0 
0 
0 
0 
0 
0 
0 
0 
0 
0 
0 
0 
0 
0 
0 
0 
0 
-1.008102745802276 
0 
0 
0 
0 
0 
0 
0 
0 
-1.325047291507478 
0 
0 
-0.7737788942896048 
0 
0 
0 
0 
0 
0 
0 
0 
0 
0 
0 
0 
0 
0 
0 
0 
0 
0 
0 
0 
0 
0 
0 
0 
0 
0 
0 
0 
0 
0 
0 
0 
0 
0 
0 
0 
0 
0 
0 
0 
0 
0 
0 
0 
0 
0 
0 
0 
0 
0 
0 
3.096040714533189 
0 
0 
0 
0 
0 
0 
0 
0 
0 
0 
0 
0 
0 
0 
0 
0 
0 
0 
0 
0 
0 
0 
0 
0 
0 
0 
0 
0 
0 
0 
0 
0 
0 
0 
0 
0 
0 
0 
0 
0 
0 
0 
0 
0 
0 
0 
0 
0 
0 
0 
0 
0 
0 
0 
0 
0 
0 
0 
0 
0 
0 
0 
0 
0 
0 
0 
0 
0 
0 
0 
0 
0 
0 
0 
0 
0 
0 
0 
0 
0 
0 
0 
0 
0 
0 
0 
0 
0 
0 
0 
0 
0 
0 
0 
0 
0 
0 
0 
0 
0 
0 
0 
0 
0 
0 
0 
0 
0 
0 
0 
0 
0 
0 
0 
0 
0 
0 
0 
0 
0 
0 
0 
0 
-0.7454974340826369 
0 
0 
0 
0 
0 
0 
0 
0 
0 
0 
0 
0 
0 
0 
1.626301990121286 
0 
0 
0 
0 
0 
0 
0 
0 
0 
0 
0 
0 
0 
0 
0 
0 
0 
0 
0 
0 
0 
0 
0 
0 
0 
0 
0 
0 
0 
0 
0 
0 
0 
0 
0 
0 
0 
0 
0 
0 
0 
0 
0 
0 
0 
0 
0 
0 
0 
-1.323603927108317 
0 
0 
0 
0 
0 
0 
0 
0 
0 
0 
0 
0 
0 
0 
0 
0.9441400107431671 
0 
0 
0 
0 
0 
0 
0 
0 
0 
0 
0 
0 
0 
0 
0 
0 
0 
0 
0 
1.205743225273668 
0 
0 
0 
0 
0 
0 
0 
0 
0 
0 
0 
0 
0 
0 
0 
0 
0 
0 
0 
0 
0 
0 
0 
0 
0 
-5.092543798151237 
0 
0 
0 
0 
0 
0 
0 
0 
0 
0 
0 
0 
0 
0 
0 
0 
0 
0 
0 
0 
0 
0 
0 
0 
0 
0 
0 
0 
0 
0 
0 
2.609357647842255 
0 
0 
0 
0 
0 
0 
0 
0 
0 
0 
0 
0 
0 
0 
0 
0 
0 
0 
0 
0 
0 
0 
0 
0 
0 
0 
0 
0 
0 
0 
0 
0 
0 
0 
0 
0 
0 
0 
0 
0 
0 
0 
0 
-0.2480733272718422 
0 
0 
0 
0 
0 
0 
0 
0 
0 
0 
0 
0 
0 
0 
0 
0 
0 
0 
0 
0 
0 
0 
0 
0 
0 
0 
0 
0 
0 
0 
0 
0 
0 
0 
0 
0 
0 
0.511858978654027 
0 
0 
0 
0 
0 
0 
0 
0 
0 
0 
0 
0 
0 
0 
0 
0 
0 
0 
0 
0 
0 
0 
0 
0 
-3.138992902690891 
0 
0 
0 
0 
0 
1.482386551007227 
0 
0 
0 
0 
0 
0 
0 
0 
0 
0 
0 
0 
0 
0 
0 
0 
0 
0 
0 
0 
0 
0 
0 
0 
0 
0 
0 
0 
0 
0 
0 
0 
0 
0 
0 
0 
0 
0 
0 
0 
0 
0 
0 
0 
0 
0 
0 
0 
0 
0 
0 
0 
0 
0 
0 
0 
0 
0 
0 
0 
0 
0 
0 
0 
0 
0 
0 
0 
0 
0 
0 
0 
0 
0 
0 
0 
0 
0 
0 
0 
0 
0 
0 
0 
0 
0 
-0.1646886270558995 
0 
0 
0 
0 
0 
0 
0 
0 
0 
0 
0 
0 
0 
0 
0 
0 
0 
0 
0 
0 
0 
0 
0 
0 
0 
0 
0 
0 
0 
0 
0 
0 
0 
0 
0 
0 
0 
0 
0 
0 
0 
0 
0 
0 
0 
0 
0 
0 
0 
0 
0 
0 
0 
0 
0 
0 
0 
0 
0 
0 
0 
0 
0 
0 
0 
0.4887558714646614 
0 
0 
-1.020236861761523 
0 
0 
0 
0 
0 
0 
0 
0 
0 
0 
0 
0 
0 
0 
0 
0 
0 
0 
0 
0 
0 
0 
0 
0 
0 
0 
0 
0 
0 
0 
0 
0 
0 
0 
0 
0 
0 
0 
0 
0 
0 
0 
0 
0 
0 
0 
0 
0 
0 
0 
0 
0 
0 
0 
0 
0 
0 
0 
0 
0 
0 
0 
0 
0 
0 
0 
0 
0 
0 
0 
0 
0 
0 
0 
0 
0 
0 
0 
0 
0 
0 
0 
0 
0 
0 
0 
0 
0 
0 
0 
0 
0 
0 
0 
0 
0 
0 
0 
0 
0 
0 
0 
0 
0 
0 
0 
0 
0 
0 
0 
0 
0 
0 
0 
0 
0 
0 
0 
0 
0 
0 
0 
0 
0 
0 
0 
0 
0 
0 
0 
0 
0 
0 
0 
0 
0 
0 
0 
0 
0 
0 
0 
0 
0 
0 
0 
0 
0 
0 
0 
0 
0 
0 
0 
0 
0 
0 
0 
0 
0 
0 
0 
0 
0 
0 
0 
0 
0 
0 
0 
0 
0 
0 
0 
0 
0 
0 
0 
0 
0 
0 
0 
0 
0 
0 
0 
0 
0 
0 
0 
0 
0 
0 
0 
0 
0 
-1.029361188152729 
0 
0 
0 
0 
0 
0 
0 
0 
0 
0 
1.855483356304803 
0 
0 
0 
0 
0 
0 
0 
0 
0 
0 
0 
0 
0 
0 
0 
0 
0 
0 
0 
0 
0 
0 
0 
0 
0 
0 
0 
0 
0 
0 
0 
0 
0 
0 
0 
0 
0 
0 
0 
0 
0 
0 
0 
0 
0 
0 
0 
0 
0 
0 
0 
0 
0 
0 
0 
0 
0 
0 
0 
0 
0 
0 
0 
0 
0 
0 
0 
0 
0 
0 
0 
0 
0 
0 
0 
0 
0 
0 
0 
0 
0 
0 
0 
0 
0 
0 
0 
0 
0 
0 
0 
0 
0 
0 
0 
0 
0 
0 
0 
0 
0 
0 
0 
0 
0 
0 
0 
0 
0 
0 
0 
0 
0 
0 
0 
0 
0 
0 
0 
0 
0 
0 
0 
0 
0 
0 
0 
0 
0 
0 
0 
0 
0 
0 
0 
0 
0 
0 
0 
0 
0 
0 
0 
0 
0 
0 
0 
0 
0.3361137440341028 
0 
0 
0 
0 
0 
0 
0 
0 
0 
0 
0 
0 
0 
0 
0 
0 
0 
0 
0 
0 
0 
0 
0 
0 
0 
0 
0 
0 
0 
0 
0 
0 
0 
0 
0 
0 
0 
0 
0 
0 
0 
0 
0 
0 
0 
0 
0 
0 
0 
0 
0 
0 
0 
0 
0 
0 
0 
0 
0 
0 
0 
0 
0 
0 
0 
0 
0 
0 
0 
0 
0 
0 
0 
0 
0 
0 
0 
0 
0 
0 
0 
0 
0 
0 
0 
0 
0 
0 
0 
0 
0 
0 
0 
0 
0 
0 
0 
0 
0 
0 
-1.017817744705503 
0 
0 
0 
0 
0 
0 
0 
0 
0 
0 
0 
0 
0 
0 
0 
0 
0 
0 
0 
0 
0 
0 
0 
0 
0 
0 
0 
0 
0 
0 
1.625648519822702 
0 
0 
0 
0 
0 
0 
0 
0 
0 
0 
0 
0 
0 
0 
0 
0 
0 
0 
0 
0 
0 
0 
0 
0 
0 
0 
0 
0 
0 
0 
0 
0 
0 
0 
0 
0 
0 
0 
0 
0 
0 
0 
0 
0 
-1.168736980091974 
0 
0 
0 
0 
0 
0 
0 
-2.960787987369634 
0 
0 
2.707254996952645 
0 
0 
0 
0 
0 
0 
0 
0 
0 
0 
0 
0 
0 
0 
0 
-1.085597577385379 
0 
0 
0 
0 
0 
0 
0 
0 
0 
0 
0 
0 
0 
0 
0 
0 
0 
0 
0 
0 
0 
0 
0 
0 
0 
0 
0 
0 
0 
0 
0 
0 
0 
0 
0 
0 
0 
0 
0 
0 
0 
0 
0 
0 
0 
0 
0 
0 
0 
0 
0 
0 
0 
0 
0 
0 
0 
0 
0 
0 
0 
0 
0 
-0.5132755099017856 
0 
0 
0 
0 
0 
0 
0 
0 
0 
0 
0 
0 
0 
0 
0 
0 
0 
0 
0 
0 
0 
0 
0 
0 
0 
0 
0 
0 
0 
0 
0 
0 
0 
0 
0 
0 
0 
0 
0 
0 
0 
0 
0 
0 
0 
0 
0 
0 
0 
0 
0 
0 
0 
0 
0 
0 
0 
0 
0 
0 
0 
0 
0 
0 
0 
0 
0 
0 
0 
0 
0 
0 
0 
0 
0 
0 
0 
0 
0 
0 
0 
0 
0 
0 
0 
0 
0 
0 
0 
0 
0 
0 
0 
0 
0 
0 
0 
0 
0 
0 
0 
0 
0 
0 
0 
0 
0 
0 
0 
0 
0 
0 
0 
0 
0 
1.465079371452962 
0 
0 
0 
-2.483180730606562 
0 
0 
0 
0 
0 
0 
0 
0 
0 
0 
0 
0 
0 
0 
0 
0 
0 
0 
0 
0 
0 
0 
0 
0 
0 
0 
0 
0 
0 
0 
-0.7665287918814209 
0 
0 
0 
-3.312204664561557 
0 
0 
0 
0 
0 
0 
0 
0 
0 
0 
0 
0 
0 
0 
0 
0 
0 
0 
0 
0 
0 
0 
0 
0 
0 
0 
0 
0 
0 
0 
0 
0 
0 
0 
0 
0 
0 
0 
0 
0 
0 
0 
0 
0 
0 
0 
0 
0 
0 
0 
0 
0 
0 
0 
0 
0 
0 
0 
0 
0 
0 
0 
0 
0 
0 
0 
0 
0 
0 
0 
0 
0 
0 
0 
0 
0 
0 
0 
0 
0 
0 
0 
0 
0 
0 
0 
0 
0 
0 
0 
0 
0 
0 
0 
0 
0 
0 
0 
0 
0 
0 
0 
0 
0 
0 
0 
0 
0 
0 
0 
0 
0 
0 
0 
0 
0 
0 
0 
0 
0 
0 
0 
0 
0 
0 
0 
0 
0 
0 
0 
0 
0 
0 
0 
0 
0 
0 
0 
0 
0 
0 
0 
0 
0 
0 
0 
0 
0 
0 
0 
0 
-0.8911395124027463 
0 
0 
0 
0 
0 
0 
0 
0 
0 
0 
0 
0 
0 
0 
0 
0 
0 
0 
0 
0 
0 
0 
0 
0 
0 
0 
0 
0 
0.4103726602494393 
0 
0 
0 
0 
0 
0 
0 
0 
0 
0 
0 
0 
0 
0 
0 
0 
0 
0 
0 
0 
0 
0 
0 
0 
0 
0 
0 
0 
0 
0 
0 
0 
1.293171946020289 
0 
0 
0 
0 
0 
0 
0 
0 
0 
0 
0 
0 
0 
0 
0 
0 
0 
0 
0 
0 
0 
0 
0 
0 
0 
0 
0 
0 
0 
0 
0 
0 
0 
0 
0 
0 
0 
0 
0 
0 
0 
0 
0 
0 
0 
0 
0 
0 
0 
0 
0 
0 
0 
0 
0 
0 
0 
0 
0 
0 
0 
0 
0 
-0.5038752953205066 
0 
0 
0 
0 
0 
0 
0 
0 
0 
0 
0 
0 
0 
0 
0 
0 
0 
0 
0 
0 
0 
0 
0 
0 
0 
0 
0 
0 
0 
0 
0 
0 
0 
0 
0 
0 
0 
0 
0 
0 
0 
0 
0 
0 
0 
0 
0 
0 
0 
0 
0 
0 
0 
0 
0 
0 
0 
0 
0 
0 
0 
0 
0 
0.9474842318214078 
0 
0 
0 
0 
0 
0 
0 
0 
0 
0 
0 
0 
0 
0 
0 
0 
0 
0 
0 
0 
0 
0 
0 
0 
0 
0 
0 
0 
0 
0 
0 
0 
0 
0 
0 
0 
0 
0 
0 
0 
0 
0 
0 
0 
0 
0 
0 
0 
0 
0 
0 
0 
0 
0 
0 
0 
0 
0 
0 
0 
0 
0 
0 
0 
0 
0 
0 
0 
0 
0 
0 
0 
0 
0 
0 
0 
0 
0 
0 
0 
0 
0 
0 
0 
0 
0 
0 
0 
0 
0 
0 
0 
0 
0 
0 
0 
0 
0 
0 
0 
0 
0 
0 
0 
0 
0 
0 
0 
0 
0 
0 
-3.938842107552466 
0 
0 
0 
0 
0 
0 
0 
0 
0 
0 
0 
0 
0 
0 
0 
0 
0 
0 
0 
0 
0 
0 
0 
0 
0 
0 
0 
0 
0 
0 
0 
0 
0 
0 
0 
0 
0 
0 
0 
0 
0 
0 
0 
0 
0 
0 
0.1287917492249914 
0 
0 
0 
0 
0 
0 
0 
0 
0 
0 
0 
0 
0 
0 
0 
0 
0 
0 
0 
0 
0 
0 
0 
0 
0 
0 
0 
0 
-1.364620323558726 
0 
0 
0 
0 
0 
0 
0 
0 
0 
0 
0 
0 
0 
0 
0 
0 
0 
0 
0 
0 
0 
0 
0 
0 
0 
0 
0 
0 
0 
0 
0 
0 
0 
0 
0 
0 
0 
0 
0 
0 
0 
0 
0 
0 
0 
0 
0 
0 
0.9865614647936978 
0 
0 
0 
0 
1.303486739290502 
0 
0 
0 
0 
0 
0 
0 
0 
0 
0 
0 
0 
0 
0 
0 
-2.200134850503387 
0 
0 
0 
0 
0 
0 
0 
0 
0 
0 
0 
0 
0 
0 
0 
0 
0 
0 
0 
0 
0 
0 
0 
-0.9478180285155303 
0 
0 
0 
0 
0 
0 
0 
0 
0 
0 
0 
0 
0 
0 
0 
0 
0 
0 
0 
0 
0 
0 
0 
0 
0 
0 
0 
0 
0 
0 
0 
0 
0 
0 
0 
0 
0 
0 
0 
0 
0 
0 
0 
0 
0 
0 
0 
0 
0 
0 
0 
0 
0 
0 
0 
0 
0 
0 
0 
0 
0 
0 
0 
0 
0 
0 
0 
0 
0 
0 
0 
0 
0 
0 
0 
0 
0 
0 
0 
0 
0 
0 
0 
0 
0 
0 
0 
0 
0 
0 
0 
0 
-2.242656540488913 
0 
0 
0 
0 
0 
0 
0 
0 
0 
0 
0 
0 
0 
0 
0 
0 
0 
0 
0 
0 
-1.518900623757253 
0 
0 
0 
0 
0 
0 
0 
0 
0 
0 
0 
0 
0 
0 
0 
0 
0 
0 
0 
0 
0 
0 
0 
0 
0 
0 
0 
0 
0 
-0.4823017879838523 
0 
0 
0 
0 
0 
0 
0 
0 
0 
0 
0 
0 
0 
0 
0 
0 
0 
0 
0 
0 
0 
0 
0 
0 
0 
0 
0 
0 
0 
0 
-0.8159059350700728 
0 
0 
0 
0 
-0.3476008721124667 
0 
0 
0 
0 
0 
0 
0 
0 
0 
0 
0 
0 
0 
0 
0 
0 
0 
0 
0 
0 
0 
0 
0 
0 
0 
0 
0 
0 
0 
0 
0 
0 
0 
0 
0 
0 
0 
0 
0 
0 
0 
0 
0 
0 
0 
0 
0 
0 
0 
0 
0 
0 
1.594810171556107 
0 
0 
0 
0 
0 
0 
0 
0 
-2.192575816280943 
0 
0 
0 
0 
0 
0 
0 
0 
0 
0 
0 
0 
0 
0 
0 
0 
0 
0 
0 
0 
0 
0 
0 
0 
0 
0 
0 
0 
0 
0 
0 
0 
0 
0 
0 
0 
0 
0 
0 
0 
0 
0 
0 
0 
0 
0 
0 
0 
-0.1349585091505171 
0 
0 
0 
0 
0 
0 
0 
0 
0 
0 
0 
0 
0 
0 
0 
0 
0 
0 
0 
0 
0 
0 
0 
0 
0 
0 
0 
0 
0 
0 
0 
0 
0 
0 
0 
0 
-2.040562504095633 
-0.782779780495057 
0 
0 
0 
0 
0 
0 
0.9521057346971961 
0 
0 
0 
0 
0 
0 
0 
0 
0 
0 
0 
0 
-4.457624716991967 
0 
0 
0 
0 
0 
0 
0 
0 
0 
0 
0 
0 
0 
0 
0 
0 
0 
0 
-0.9753403096319582 
0 
0 
0 
0 
0 
0 
0 
0 
0 
0 
0 
0 
0 
0 
0 
0 
0 
0 
0 
0 
-0.2353070211745736 
0 
0 
0 
0 
0 
0 
0 
0 
0 
0 
0 
0 
0 
0 
0 
0 
0 
0 
0 
0 
0 
0 
0 
0 
0 
0 
0 
0 
0 
0 
0 
0 
0 
0 
0 
0 
0 
0 
0 
0 
0 
0 
0 
0 
0 
0 
0 
-3.957258025000071 
0 
0 
0 
2.835178112310079 
0 
0 
0 
0 
0 
0 
0 
0 
0.07039398695973392 
0 
0 
0 
0 
0 
-2.92733914628118 
0 
0 
0 
0 
0 
0 
1.135301239096867 
0 
0 
0 
0 
0 
0 
0 
0 
0 
0 
0 
0 
0 
0 
0 
0 
0 
0 
0 
0 
0 
-0.8295720869299487 
0 
0 
0 
0 
0 
0 
0 
0 
0 
0 
0 
0 
0 
0 
0 
0 
0 
0 
0 
0 
0 
0 
0 
0 
0 
0 
0 
0 
0 
0 
0 
0 
0 
0 
-0.6236062203837059 
0 
0 
0 
0 
0 
0 
0 
0 
0 
0 
0 
0 
0 
0 
0 
0 
0 
0 
0 
0 
0 
0 
0 
0 
0 
0 
0 
0 
0 
0 
0 
0 
0 
0 
0 
0 
0 
0 
0 
0 
0 
0 
0 
0 
0 
0 
0 
0 
0 
0 
0 
0 
0 
0 
0 
0 
0 
0 
0 
0 
0 
0 
0 
0.5845933771442826 
0 
0 
0 
0 
0 
0 
0 
0 
0 
0 
0 
0 
0 
0 
0 
0 
0 
0 
0 
0 
0 
0 
0 
0 
1.146793418375853 
0 
0 
0 
0 
0 
0 
0 
0 
0 
0 
0 
0 
0 
0 
0 
0 
0 
0 
0.3144345773160109 
0 
0 
0 
0 
0 
0 
0 
0 
0 
0 
0 
0 
0 
0 
0 
0 
0 
0 
0 
0 
0 
0 
0 
0 
0 
0 
0 
0 
0 
0 
0 
0 
0 
0 
0 
0 
0 
0 
0 
0 
0 
0 
0 
0 
0 
0 
0 
0 
0 
0 
0 
0 
0 
0 
1.919335111631458 
0 
0 
0 
0 
0 
0 
0 
0 
0 
0 
0 
0 
0 
0 
0 
0 
0 
0 
0 
0 
0 
0 
0 
0 
0 
0 
0 
0 
0 
0 
0 
-1.957380617458753 
0 
0 
0 
0 
0 
0 
0 
0 
0 
0 
0 
0 
0 
0 
0 
0 
0 
0 
0 
0 
0 
0 
0 
0 
0 
0 
0 
0 
0 
0 
0 
0 
0 
0 
0 
0 
0 
0 
0 
0 
0 
0 
0 
0 
0 
0 
0 
0 
0 
0 
0 
0 
0 
0 
0 
0 
0 
0 
0 
0 
0 
0 
0 
0 
0 
0 
0 
0 
0 
0 
0 
0 
0 
0 
0 
0 
0 
0 
0 
0 
0 
0 
0 
0 
0 
0 
0 
0 
0 
0 
0 
0 
0 
0 
0 
0 
0 
0 
0 
0 
0 
0 
0 
0 
0 
0 
0 
0 
0 
0 
0 
0 
0 
0 
0 
0 
0 
0 
0 
0 
0.2508118066960341 
0 
0 
0 
0 
0 
0 
0 
0 
0 
0 
0 
0 
0 
0 
0 
0 
0 
0 
0 
0 
0 
0 
0 
0 
0 
0 
0 
0 
0 
0 
0.6464462369359239 
0 
0 
0 
0 
0 
0 
0 
0 
0 
0 
0 
0 
0 
0 
0 
0 
0 
0 
0 
0 
0 
0 
0 
0 
0 
0 
0 
0 
0 
0 
0 
0 
0 
0 
0 
0 
0 
0 
0 
0 
0 
0 
0 
0 
0 
0 
0 
0 
0 
0.07523878562809995 
0 
0 
0 
0 
0 
0 
0 
0 
0 
0 
0 
0 
0 
0 
0 
0 
0 
0 
0 
0 
0 
0 
0 
0 
0 
0 
0 
0 
0 
0 
0 
0 
0 
0 
0 
0 
0.3075192141794806 
0 
0.02579465904072479 
0 
0 
0 
0 
0 
0 
0 
0 
0 
0 
0 
0 
0 
0 
0 
0 
0 
0 
0 
0 
0 
0 
0 
0 
0 
0 
0 
0 
0 
0 
0 
0 
0 
0 
0 
0 
0 
0 
0 
0 
0 
0 
0 
0 
0 
0 
0 
0 
0 
0 
0 
0 
0 
0 
0 
0 
0 
0 
0 
0 
0 
0 
0 
0 
0 
0 
0 
0 
0 
0 
0 
0 
0 
0 
0 
0 
0 
0 
0 
0 
0 
0 
0 
0 
0 
0 
0 
0 
0 
0 
1.733882311276946 
0 
0 
0.3778222373624575 
0 
0 
0 
0 
0 
0 
0 
0 
0 
0 
0 
0 
0 
0 
0 
0 
0 
0 
0 
0 
0 
0 
0 
0 
0 
0 
0 
0 
0 
0 
0 
0 
0 
0 
0 
0 
0 
0 
0 
0 
0 
0 
0 
0 
0 
0 
0 
0 
0 
0 
0 
0 
0 
0 
0 
0 
0 
0 
0 
0 
0 
0 
0 
0 
0 
0 
0 
0 
-0.9311122881715632 
0 
0 
0 
0 
0 
0 
0 
0 
0 
0 
0 
0 
0 
0 
0 
0 
0 
0 
0 
0 
0 
0 
0 
0 
0 
0 
0 
0 
0 
0 
0 
0 
0 
0 
0 
0 
0 
0 
0 
0 
0 
0 
0 
0 
0 
0 
0 
0 
0 
0 
0 
0 
0 
0 
0 
0 
0 
0 
1.202497923139008 
0 
0 
0 
0 
0 
0.06887219434517131 
0 
0 
-2.261629954399431 
0 
0 
0 
0 
0 
0 
0 
0 
0 
0 
0 
0 
0 
0 
0 
0 
0 
0.5142435408416105 
0 
0 
0 
0 
0 
0 
0 
0 
0 
0 
0 
0 
0 
0 
0 
0 
0 
0 
0 
0 
7.00839538059553 
0 
0 
0 
2.114468589633489 
0 
0 
0 
0 
0 
0 
0 
0 
0 
0 
0 
0 
0 
0 
0 
0 
0 
0 
0 
0 
0 
0 
0 
0 
0 
0 
0 
2.283587247323711 
0 
0 
0 
0 
0 
0 
0 
0 
1.652870622441698 
1.550381907384029 
0 
0 
0 
0 
0.8951762344115742 
0 
0 
0 
0 
0 
0 
0 
0 
0 
0 
0 
0 
0 
0 
0 
1.861018843912164 
0 
0 
0 
0 
0 
0 
0 
0 
1.322034558329907 
0 
0 
0 
0 
0 
0 
0 
0 
4.203925551259575 
0 
0 
0 
0 
0 
0 
0.4860138949560435 
0 
0 
0 
0 
0 
0 
0 
0 
0 
0 
0 
1.002425608183635 
2.752518163248233 
0 
0 
1.45615785552988 
0 
0 
0 
0 
0 
0 
0 
0 
0 
0 
0 
0 
0 
0 
0 
0 
3.683558765828852 
0 
0 
0 
0 
0 
0 
0 
0 
0 
0 
0 
0 
0 
0 
0 
0 
0 
1.828095368420448 
0 
2.857019131223061 
0 
0 
0 
0 
0 
0 
0 
0 
0 
0 
0 
0 
0 
0 
0 
0 
0 
0 
0 
0 
0 
0 
0 
0 
0 
0 
0 
0 
0 
0 
-0.9339510727157296 
0 
0 
0 
0 
0 
0 
0 
0 
0 
0 
0 
0 
0.5997519018969769 
0 
0 
1.997555465146425 
0 
0 
1.086916831120691 
0 
0 
0 
0 
0 
0 
0 
0 
0 
0 
0 
0 
0 
-0.8505430099852257 
0 
0 
0 
0 
-0.7157805919711086 
0 
0 
0 
0 
0 
0 
0 
0 
0 
0 
0 
0 
0 
0 
0 
0 
0 
0 
0 
0 
0 
0 
0.5102444579665703 
0 
0 
0 
0 
0 
0 
0 
0 
0 
0 
0 
0 
0 
0 
0 
0 
0 
2.556061343394944 
0.7220418403505722 
0 
0 
0 
0 
0 
0 
0 
0 
0 
0 
-0.2417939632802038 
-1.811950778411811 
0 
0 
0 
0 
1.280335088151062 
0 
-2.736215295325591 
0 
0 
0 
0 
0 
0 
0 
0 
0 
0 
0 
0 
0 
0 
-0.1936731487735224 
0 
0 
0 
0 
0 
0 
0 
0 
-0.8728084241984851 
0 
0 
0 
0 
0 
0 
0 
0 
0.4013057496586079 
0 
0 
0 
0 
0 
0.9355574298499555 
0 
0 
0.178001832807179 
0 
0 
0 
0 
0 
2.532555180570049 
0 
0 
0 
0 
0 
0.5805287214214674 
0 
0 
0.8773942280772089 
0 
0 
0 
0 
0 
0 
0 
0 
0 
0 
0 
0.9672394521848392 
0 
0 
0 
0 
0 
0 
0 
0 
0 
0 
0 
0 
0.9933235696895103 
0.02579515710778293 
0 
0 
0 
0 
0 
0 
0 
0 
0 
0 
0 
0 
0 
0.4262637579125524 
0 
0 
0 
0 
0 
0 
0 
0 
0 
0 
0 
0 
0 
0 
-1.561680193350154 
0 
0 
0 
0 
0 
0 
0 
0 
0 
0 
0 
0 
0 
0 
0 
0 
0 
0 
0 
0 
0 
0 
0 
0 
0 
0 
0 
0 
0 
0 
0 
0 
0 
0 
0 
0 
0 
0 
0 
0 
-0.6305849193311919 
0 
0 
0 
0 
0 
0 
0 
0 
0 
-3.655052914578424 
0 
0 
0 
0 
0 
0 
0 
0 
0 
0 
0 
0 
-5.152113659124582 
0 
0 
0 
-0.1569937942737233 
0 
0 
-2.544702569430316 
0 
0 
0 
0 
0 
0 
0 
0 
0 
0 
0 
0 
0 
0 
0 
0 
0 
0 
0 
0 
0 
0 
0 
0 
0 
0 
0 
0 
0 
0 
0 
0 
0 
0 
0 
0 
0 
0 
0 
0 
0 
0 
0 
0 
0 
-1.802096802809202 
0 
0 
0 
0 
0 
0 
0 
0 
0 
0 
0 
0 
0 
0 
0 
0 
0 
0 
0 
0 
0 
0 
0 
0 
0 
0 
0 
0 
0 
0 
0 
0 
0 
0 
0 
0 
0 
0 
0 
0 
0 
0 
0 
0 
0 
0 
0 
0 
0 
0 
0 
0 
0 
0 
0 
0 
0 
0 
0 
-1.837486180545233 
0 
0 
0 
0 
0 
0 
0 
0 
0 
0 
0 
0 
0 
0 
0 
0 
0 
0 
0 
0 
0 
0 
0 
0 
0 
0 
0 
0 
0 
0 
0 
0 
0 
0 
0 
0 
0 
0 
0 
0 
0 
0 
0 
0 
0 
0 
-4.68757844540677 
0 
0 
0 
0 
-1.582114295181025 
0 
0 
0 
0 
0 
0 
0 
0 
0 
0 
0 
0 
0 
0 
0 
0 
0 
0 
0 
0 
0 
0 
0 
0 
0 
0 
0 
0 
0 
0 
0 
0 
0 
0 
0 
0 
0 
0 
0 
0 
0 
0 
0 
0 
0 
0 
0 
0 
0 
0 
0 
0 
0 
0 
0 
0 
0 
0 
0 
0 
0 
0 
0 
0 
0 
0 
0 
0 
0 
0 
0 
0 
0 
0 
0 
0 
-3.097252460730394 
0 
0 
0 
0 
0 
0 
0 
0 
0 
0 
0 
0 
0 
0 
0 
0 
0 
0 
0 
-2.987101466731638 
0 
0 
0 
0 
0 
0 
0 
0 
0 
0 
0 
0 
0 
0 
0 
0 
0 
0 
0 
0 
0 
0 
0 
0 
0 
0 
0 
-0.9042198424834694 
0 
0 
0 
0 
0 
0 
0 
0 
0 
0 
0 
0 
0 
0 
-0.116246532401407 
0 
0 
0 
0 
0 
0 
0 
0 
0 
0 
0 
0 
0 
0 
0 
0 
0 
0 
0 
0 
0 
0 
0 
0 
0 
0 
0 
1.023299501420435 
0 
0 
0 
-2.465629447367447 
-0.795865128186422 
0 
0 
0 
0 
0 
0 
0 
0 
-1.612248953482636 
-3.033810041844326 
0 
0 
0 
0 
0 
0 
0 
0 
-1.734889255164291 
0 
0 
0 
0 
0 
0 
0 
0 
0 
0 
0 
0 
0 
0 
0 
0 
0 
0 
0 
0 
0 
0 
0 
0 
0 
0 
0 
0 
0 
0 
0 
0 
0 
0 
0 
0 
0 
0 
0 
0 
0 
0 
0 
0 
0 
0 
0 
0 
0 
0 
0.01863469806798966 
0 
0 
0 
0 
0 
0 
0 
0 
0.4813761162463651 
0 
0 
0 
0 
0 
0 
0 
0 
0 
0 
0 
0 
0 
0 
0 
0 
0 
0 
0 
0 
0 
0 
0 
0 
0 
0 
0 
0 
0 
0 
0 
0 
0 
0 
0 
0 
0 
0 
0 
0 
0 
0 
0 
0 
0 
0 
0 
0 
0 
0 
0 
0 
0 
0.550446773485578 
0 
0 
0 
0 
0 
0 
0 
0 
0 
0 
0 
0 
0 
0 
0 
0 
0 
0 
0 
0 
0 
0 
0 
0 
0 
0 
0 
0 
0 
0 
0 
0 
0 
0 
0 
0 
0 
0 
0 
0 
0 
0 
0 
0 
0 
0.7472498959710958 
0 
0 
0 
0 
0 
0 
0 
0 
0 
0 
0 
0 
0 
0 
0 
0 
0 
0 
0 
0 
0 
0 
0 
0 
0 
0 
0 
0 
0 
0 
0 
0 
0 
0 
0 
0 
0 
0 
0 
0 
0 
-0.2973394946951838 
0 
0 
0 
0 
0 
0 
0 
0 
0.8233532789030889 
0 
0 
0 
0 
0 
0 
0 
0 
0 
0 
0 
0 
0 
0 
0 
0 
0 
0 
0 
0 
0 
0 
0 
0 
0 
0 
0 
0 
0 
0 
0 
0 
0 
0 
0 
0 
0 
0 
0 
0 
0 
0 
0 
0 
0 
0 
0 
0 
0 
0 
0 
0 
0 
0 
0 
0 
0 
0 
0 
0 
0 
0 
0 
0 
0 
0 
0 
0 
0 
0 
0 
0 
0 
0 
0 
0 
0 
0 
0 
0 
0 
0 
0 
0 
0 
0 
0 
0 
0 
0 
0 
0 
0 
0 
0 
-1.183144977102861 
0 
0 
0 
0 
0 
0 
0 
0 
0 
0 
0 
0 
0 
0 
0 
0 
0 
0 
0 
0 
0 
0 
0 
0 
0 
0 
0 
0 
0 
0 
0 
0 
0 
5.42117878176644 
0 
0 
0 
0 
0 
0 
0 
0 
0 
0 
0 
0 
0 
0 
0 
0 
0 
0 
0 
0 
0 
0 
0 
0 
0 
0 
0 
0 
0 
0 
0 
0 
0 
0 
0 
0 
0 
0 
0 
0 
0 
0 
0 
0 
0 
0 
0 
0 
0 
0 
0 
0 
0 
0 
0 
0 
0 
0 
0 
0 
0 
0 
0 
0 
0 
0 
0 
0 
0 
0 
0 
0 
0 
0 
0 
0 
0 
0 
0 
0 
0 
0 
0 
0 
0 
0 
0 
0 
0 
0 
0 
0 
0 
0 
0 
0 
0 
0 
0 
0 
0 
0 
0 
0 
0 
0 
0 
0 
0 
0 
0 
0 
0 
0 
0.790339370259331 
0 
0 
-0.1361316280692577 
0 
0 
0 
0 
0 
0 
0 
0 
0 
0 
0 
0 
0.4175480329852833 
0 
0 
0 
0 
0 
0 
0 
0 
0 
0 
0 
0 
0 
0 
0 
0 
0 
0 
0 
0 
0 
0 
0 
0 
0 
0 
0 
0 
0 
0 
0 
0 
0 
0 
0 
0 
0 
0 
0 
0 
0 
0 
0 
0 
0 
0 
0 
0 
0 
0 
0 
0 
0 
0 
0 
0 
0 
0 
0 
0 
-0.264900258132282 
0 
0 
0 
-1.203719536458665 
0 
0 
0 
0 
0 
0 
0 
0 
0 
0 
0 
0 
0 
0 
0 
0 
0 
0 
0 
0 
0 
0 
0 
0 
0 
0 
0.4336188743280453 
0 
0 
0 
0 
3.840705639502191 
0 
0 
0 
0 
0 
0 
0 
0 
0 
0 
0 
0 
0 
0 
0 
0 
0 
0 
0 
0 
0 
0 
0 
0 
0 
0 
0 
0 
0 
0 
0 
0 
0 
0.1348508325028081 
0 
0 
0 
0 
0 
0 
0 
-0.0675697258268458 
0 
0 
0 
0 
0 
-1.838908428780582 
0 
0 
0 
0 
0 
0 
0 
0 
0 
0 
0 
0 
0 
0 
0 
0 
0 
0 
0 
0 
0 
0 
0 
0 
0 
0 
0 
0 
0 
0 
0 
-1.476665287379281 
0 
0 
0 
0 
0 
0 
0 
-0.09912818629806418 
0 
0 
0 
0 
0 
0 
0 
0 
0 
0 
0 
0 
-0.4554704371783819 
0 
0 
0 
0 
0 
0 
0 
0 
0 
0 
0 
0 
0 
0 
0 
0 
0 
0 
0 
0 
0 
0 
0 
0 
0 
0 
0 
0 
0 
0 
0 
0 
0 
0 
0 
0 
0 
0 
1.615576977335887 
0 
0 
0 
0 
0 
0 
0 
0 
0 
0 
0 
0 
0 
0 
0 
0 
0 
0 
0 
0 
0 
0 
0 
0 
0 
0 
0 
0 
0 
0 
0 
0 
-0.3705904186835887 
0 
0 
0 
0 
0 
0 
0 
0 
0 
0 
0 
0 
0 
0 
0 
0 
0 
0 
0 
0 
0 
0 
0 
0 
0 
0 
0 
0 
0 
0 
0 
0 
0 
0 
0 
0 
0 
0 
0 
0 
0 
0 
0 
0 
0 
0 
0 
0 
0 
0 
0 
0 
0 
0 
0 
0 
0 
0 
0 
0 
0 
0 
0 
0 
0 
0 
0 
0 
0 
0 
0 
0 
0 
0 
0 
0 
0 
0 
0 
0 
0 
0 
0.5987343867758551 
0 
0 
0 
0 
0 
0 
0 
0 
-2.902410061501128 
0 
0 
0 
0 
0 
0 
0 
0 
0 
0.8780751674285341 
-2.410887022509674 
0 
0 
0 
0 
0 
0 
0 
0 
0 
0 
-0.8619207242308311 
0 
0.0009642767724192092 
0.9599662564306057 
0 
0 
0 
0 
0 
1.165664804887513 
0 
0 
0 
0 
0 
0 
0 
0 
0 
0 
0 
0 
0 
0 
0 
0 
0.9768056565019425 
0 
0 
0 
0 
0 
0 
0 
0 
0 
0 
6.041181006369597 
-1.87237044158384 
0 
0 
0 
0 
0 
0 
0 
0 
0 
0 
0.4306852657622873 
0 
0 
0 
0 
0 
-0.07940914868753533 
-0.01859556021868371 
0 
0 
0 
0 
0 
0 
0 
0 
0 
0 
0 
0 
0 
0 
0 
0 
0 
0 
0 
0 
0 
0 
0.06305391726143259 
0 
0 
0 
0 
0 
0 
0 
0 
0 
0 
0 
0 
0 
0 
0 
0 
0 
0 
0 
0 
0 
0 
0 
0 
0 
0 
0 
0 
0 
0 
0 
0 
0 
0 
0 
0 
0 
0 
0 
0 
0 
0 
0 
0 
0 
0 
0 
0 
0 
0 
0 
0 
0 
0 
0 
0 
0 
0 
0 
0 
0 
0 
0 
0 
0 
0 
0 
0 
0 
0 
0 
0 
0 
0 
0 
0 
0 
0 
0 
0 
0 
0 
0 
0 
0 
0 
0 
0 
0 
0 
0 
0 
0 
0 
0 
0 
0 
0 
0 
0 
0 
0 
0 
0 
0 
0 
0 
0 
0 
0 
0 
0 
0 
0 
0 
0 
0 
0 
0 
0 
0 
0 
0 
0 
0 
0 
0 
0 
0 
0 
0 
0 
0 
0 
0 
0 
0 
0 
0 
0 
0 
0 
0 
0 
0 
0 
0 
0 
0 
0 
0 
0 
0 
0 
0 
0 
0 
0 
0 
0 
0 
0 
0 
0 
0 
0 
0 
0 
0 
0 
0 
0 
0 
0 
0 
0 
0 
0 
0 
0 
0 
0 
0 
0 
0 
0 
0 
0 
0.9274228171028014 
0 
0 
0 
0 
0 
0 
1.674074433945572 
0 
0 
0 
0 
0 
0 
0 
0 
0 
0 
0 
0 
0 
0 
0 
0 
0 
0 
0 
-1.029279677694433 
0 
0 
0 
0 
0 
0 
0 
0 
-5.769605681035312 
0 
0 
0 
0 
0 
0 
0 
0 
0 
0 
0 
0 
0 
0 
0 
0 
0 
0 
0 
0 
0 
0 
0 
0 
0 
0 
0 
0 
0 
0 
0 
0 
0 
0 
0 
0 
0 
0 
0 
0 
0 
0 
0 
0 
0 
0 
0 
0 
0 
0 
0 
0 
0 
0 
0 
0 
0 
0 
0 
0 
0 
0 
0 
0 
0 
0 
0 
0 
0 
0 
0 
0 
0 
0 
0 
0 
0 
0 
0 
0 
0 
0 
0 
0 
0 
0 
0 
0 
0 
0 
0 
0 
0 
0 
0 
0 
0 
0 
0 
0 
0 
0 
0 
0 
0 
0 
0 
0 
0 
0 
0 
0 
0 
0 
0 
0 
0 
0 
0 
0 
0 
0 
0 
0 
0 
0 
0 
0 
0 
0 
0 
0 
0 
0 
0 
0 
0 
0 
0 
0 
0 
0 
0 
0 
0 
0 
0 
0 
0 
0 
0 
0 
0 
0 
0 
0 
0 
0 
0 
0 
0 
0 
0 
0 
0 
0 
0 
0 
0 
0 
0 
0 
0 
0 
0 
0 
0 
0 
0 
0 
0 
0 
0 
0 
0 
0 
0 
0 
0 
0 
0 
0 
0 
0 
0 
0 
0 
0 
0 
0 
0 
0 
0.342430034790723 
0 
0 
0 
0 
0 
0 
0 
0 
0 
0 
0 
0 
0 
0 
0 
0 
0 
0 
0 
0.07340636970147611 
0 
0 
0 
0 
0 
0 
0 
0 
0 
0 
0 
0 
0 
0 
0 
0 
0 
0 
0 
0 
-2.101769282380847 
0 
0 
0 
0 
0 
0 
0 
0 
0 
0 
0 
0 
0 
0 
0 
0 
0 
0 
0 
0 
0 
0 
0 
0 
0 
0 
0 
0 
0 
0 
0 
0 
0 
0 
0 
0 
0 
1.771028144129948 
0 
0 
0 
0 
0 
0 
0 
0 
0 
0 
0 
0 
0 
0 
0 
0 
0 
0 
0 
0 
0 
0 
0 
0 
0 
0 
0 
0 
0 
0 
0 
0 
0 
0 
0 
0 
0 
0 
0 
0 
0 
0 
0 
0 
0 
0 
0 
0 
0 
0 
0 
0 
0 
0 
0 
0 
0 
0 
0 
0 
0 
0 
0 
0 
0 
0 
0 
0 
0 
0 
0 
0 
0 
0 
0 
0 
0 
0 
0 
0 
0 
0 
0 
0 
0 
0 
0 
0 
0 
0 
0 
0 
0 
0 
0 
0 
0 
0 
0 
0 
0 
0 
0 
0 
0 
0 
0 
0 
0 
0 
0 
0 
0 
0 
0 
0 
0 
0 
0 
0 
0 
0 
0 
0 
0 
0 
0 
0 
0 
0 
0 
0 
0 
0 
0 
0 
0 
0 
0 
0 
-0.4459045283404866 
0 
0 
0 
0 
0 
0 
0 
0 
0 
0 
0 
0 
0 
0 
0 
0 
0 
0 
0 
0 
0 
0 
0 
0 
0 
0 
0 
0 
0 
0 
0 
0 
0 
0 
0 
0 
0 
0 
0 
0 
0 
0 
0 
0 
0 
0 
0 
0 
0 
0 
0 
0 
0 
0 
0 
0 
0 
0 
0 
0 
0 
0 
0 
0 
0 
0 
0 
0 
0 
0 
0 
0 
0 
0 
0 
0 
0 
0 
0 
0 
0 
0 
0 
0 
0 
0 
0 
0 
0 
0 
0 
0 
0 
0 
0 
0 
0 
0 
0 
0 
0 
0 
0 
0 
0 
0 
0 
0 
0 
0 
0 
0 
0 
0 
0 
0.1959428481834621 
0 
0 
0 
0 
0 
0 
0 
0 
0 
0 
0 
0 
0 
0 
0 
0 
0 
0 
0 
0 
0 
0 
0 
0 
0 
0 
0 
0 
0 
0 
0 
0 
0 
0 
0 
0 
0 
0 
0 
0 
0 
2.306993791194341 
0 
0 
0 
0 
0 
0 
0 
0 
0 
0 
0 
0 
0 
0 
0 
0 
0 
0 
0 
0.2196052833056205 
0 
0 
0 
0 
0 
0 
0 
0 
0 
0 
0 
0 
0 
0 
0 
0 
0 
0 
0 
0 
0 
0 
0 
0 
0 
0 
0 
0 
0 
0 
0 
0 
0 
0 
0 
0 
0 
0 
0 
0 
0 
0 
0 
0 
0 
0 
0 
0 
0 
0 
0 
0 
0 
0 
0 
0 
0 
0 
0 
0 
0 
0 
0 
0 
0 
0 
0 
0 
0 
-2.271359886044033 
0 
0 
0 
0 
0 
0 
0 
0 
0 
0 
0 
0 
0 
0 
0 
0 
0 
0 
0 
0 
0 
0 
0 
0 
0 
0 
0 
0 
0 
0 
0 
0 
0 
0 
0 
0 
0 
0 
0 
0 
0 
0 
0 
0 
0 
0 
0 
0 
0 
0 
0 
0 
0 
0 
0 
0 
0 
0 
0 
0 
0 
0 
0 
0 
0 
0 
0 
0 
0 
0 
0 
0 
0 
0 
0 
0 
0 
0 
0 
0 
0 
0 
0 
0 
0 
0 
0 
0 
0 
0 
0 
0 
0 
0 
0 
0 
0 
0 
0 
0 
0 
0 
0 
0 
0 
0 
0 
0 
0 
0 
0 
0 
0 
0 
0 
0 
0 
0 
0 
0 
0 
0 
0 
0 
0 
0 
0 
0 
0 
0.5541248397980993 
0 
0 
0 
0 
0 
0 
0 
0 
0 
0 
0 
0 
0 
0 
0 
0 
0 
0 
-5.138368984508033 
0 
0 
0 
0 
0 
0 
0 
-0.391195826620512 
0 
0 
0 
0 
0 
0 
0 
0 
0 
1.654819927558773 
0 
0 
0 
0 
0 
0 
0 
0 
0 
0 
0 
0 
0 
0 
0 
0 
0 
0 
0 
0 
0 
0 
0 
0 
0 
0 
0 
-0.6535277918436848 
0 
0 
0 
0 
0 
0 
0 
0 
0 
0 
0 
0 
0 
0 
0 
0 
0 
0 
0 
0 
0 
0 
0 
0 
0 
0 
0 
0 
0 
0 
0 
0 
-1.051057121480224 
0 
0 
0 
0 
0 
0 
0 
0 
0 
0 
0 
0 
0 
0 
0 
0 
0 
0 
0 
0 
0 
0 
0 
0 
0 
0 
0 
0 
0 
0 
0 
0 
0 
0 
0 
0 
0 
0 
0 
0 
0 
0 
0 
0 
0 
0 
0 
0 
0 
0 
0 
0 
0 
0 
0 
0.1381460668740599 
0 
0 
0 
0 
0 
0 
0 
0 
2.076481916118339 
0 
0 
0 
0 
0 
0 
0 
0 
0 
0 
0 
0 
0 
0 
0 
0 
0 
0 
0 
0 
0 
0 
0 
0 
0 
0 
0 
0 
0 
0 
0 
0 
0 
0 
0 
0 
0 
0 
0 
0 
0 
0 
0 
0 
0 
0 
0 
0 
0 
0 
0 
0 
0 
0 
0 
0 
0 
0 
0 
0 
0 
0 
0 
0 
0 
0 
0 
0 
0 
0 
0 
0 
0 
0 
0 
0 
0 
0 
0 
0 
0 
0 
0 
0 
0 
0 
0 
0 
0 
0 
0 
0 
0 
0 
0 
0 
0 
0 
0 
0 
0 
0 
0 
0 
0 
0 
0 
0 
0 
0 
0 
-0.7713130339270314 
0 
0 
0 
0 
0 
0 
0 
0 
0 
0 
0 
0 
0 
0 
0 
0 
0 
0 
0 
0 
0 
0 
0 
0 
0 
0 
0 
0 
0 
0 
0 
0 
0 
0 
0 
0 
0 
0 
0 
0 
0 
0 
0 
0 
0 
0 
0 
0 
0 
0 
0 
0 
0 
0 
0 
0 
0 
0 
0 
-0.5030870711794186 
0 
0 
0 
0 
0 
0 
0 
0 
0 
0 
0 
0 
0 
0 
0 
0 
0 
0 
0 
0 
0 
0 
0 
0 
0 
0 
0 
0 
1.951797873573668 
0 
0 
1.171628605914869 
0 
0 
0 
0 
0 
0 
0 
0 
0 
0 
0 
0 
0 
0 
0 
0 
0 
0 
0 
0 
0 
0 
0 
0 
0 
0 
0 
0 
0 
0 
0 
0 
0 
0 
0 
0 
0 
0 
0 
0 
0 
0 
0 
0 
0 
0 
0 
0 
0 
0 
0 
0 
0 
0 
0 
0 
0 
0 
0 
0 
0 
0 
0 
0 
0 
0 
0 
0 
0 
0 
0 
0 
0 
0 
0 
-2.057675526091775 
0 
0 
0 
0 
0 
0 
0 
0 
0 
0 
0 
0 
0 
0 
0 
0 
0 
0 
0 
0 
0 
0 
0 
0 
0 
0 
0 
0 
0 
0 
0 
0 
0 
0 
0 
0 
0 
0 
0 
0 
0 
0 
0 
0 
0 
0 
0 
0 
0 
0 
0 
0 
0 
0 
0 
0 
0 
0 
0 
0 
0 
0 
0 
0 
0 
0 
0 
0 
0 
0 
0 
0 
0 
0 
0 
0 
0 
0 
0 
0 
0 
0 
0 
0 
0 
0 
0 
0 
0 
0 
0 
0 
0 
0 
0 
0 
0 
0 
0 
0 
0 
0 
0 
0 
0 
0 
0 
0 
0 
0 
0 
0 
0 
0 
0 
0 
0 
0 
0 
0 
0 
0 
0 
0 
0 
-0.6243386673723637 
0 
0 
0 
0 
0 
0 
0 
0 
0 
0 
0 
0 
0 
0 
0 
0 
0 
0 
0 
0 
-0.0336623403631599 
0 
0 
0 
0 
0 
0 
0 
0 
0 
0 
0 
0 
0 
0 
0 
0 
0 
0 
0 
0 
0 
0 
0 
0 
0 
0 
0 
0 
0 
0 
0 
0 
0 
0 
0 
0 
0 
0 
0 
0 
0 
0 
0 
0 
0 
0 
0 
0 
0 
0 
0 
0 
0 
0 
0 
0 
0 
0 
0 
0 
0 
0 
0 
0 
0 
0 
0 
0 
0 
0 
0 
0 
0 
0 
0 
0 
0 
0 
0 
0 
0 
0 
0 
0 
0 
0 
0 
0 
0 
0 
0 
0 
0 
0 
0 
0 
0 
0 
0 
0 
0 
0 
0 
0 
0 
0 
0 
0 
0 
0 
0 
0 
0 
0 
0 
0 
0 
0 
0 
0 
0 
0 
0 
0 
0 
0 
0 
0 
0 
0 
0 
0 
0 
0 
0 
0 
0 
0 
0 
0 
0 
0 
0 
0 
0 
0 
0 
0 
0 
0 
0 
0 
0 
0 
0 
0 
0 
0 
0 
0 
0 
0 
0 
0 
0 
0 
0 
0 
0 
0 
0 
0 
0 
0 
0 
0 
0 
0 
0 
0 
0 
0 
0 
0 
0 
0 
0 
0 
0 
0 
0 
0 
0 
0 
0 
0 
0 
0 
0 
0 
0 
0 
0 
0 
0 
0 
0 
0 
0 
0 
0 
0 
0 
0 
0 
0 
0 
0 
0 
0 
0 
0 
0 
0 
0 
0 
0 
0 
0 
0 
0 
0 
-1.600940671246412 
0 
0 
0 
0 
0 
0 
0 
0 
0 
0 
0 
0 
0 
0 
0 
0 
0 
0 
0 
0 
0 
0 
0 
0 
0 
0 
0 
0 
0 
0 
0 
0 
0 
0 
0 
0 
0 
0 
0 
0 
0 
0 
0 
0 
0 
0 
0 
0 
0 
0 
0 
0 
0 
0 
0 
0 
0 
0 
0 
0 
0 
0 
0 
0 
0 
0 
0 
0 
0 
0 
0 
0 
0 
0 
0 
0 
0 
0 
0 
0 
0 
0 
0 
0 
0 
0 
0 
0 
0 
0 
0 
0 
0 
0 
0 
0 
0 
0 
0 
0 
0 
0 
0 
0 
0 
0 
0 
0 
0 
0 
0 
0 
0 
0 
0 
0 
0 
0 
0 
0 
0 
0 
0 
0 
0 
0 
0 
0 
0 
0 
0 
0 
0 
0 
0 
0 
0 
0 
0 
0 
0 
0.06666065999295741 
0 
0 
0 
0 
0 
0 
0 
0 
0 
0 
0 
0 
0 
0 
0 
0 
0 
0 
0 
0 
0 
0 
0 
0 
0 
0 
0 
0 
0 
0 
0 
0 
0 
0 
0 
0 
0 
0 
0 
0 
0 
0 
0 
0 
0 
0 
0 
0 
0 
0 
0 
0.3329646944778668 
0 
0 
0 
0 
0 
0 
0 
0 
0 
0 
0 
0 
0 
0 
0 
0 
0 
0 
0 
0 
0 
0 
0 
0 
0 
0 
0 
0 
0 
0 
0 
0 
0 
0 
0 
0 
0 
0 
0 
0 
0 
0 
0 
0 
0 
0 
0 
0 
0 
0 
0 
0 
0 
0 
0 
0 
0 
0 
0 
0 
0 
0 
0 
0 
0 
0 
0 
0 
0 
0 
0 
0 
0 
0 
0 
0 
0 
0 
0 
0 
0 
0 
0 
0 
0 
0 
0 
0 
0 
0 
0 
0 
0 
0 
0 
0 
0 
0 
0 
0 
0 
0 
0 
0 
0 
0 
0 
0 
0 
0 
0 
0 
0 
0 
0 
0 
0 
0 
0 
0 
0 
0 
0 
0 
0 
0 
0 
0 
0 
0 
0 
0 
0 
0 
0 
0 
0 
0 
0 
0 
0 
0 
0 
0 
0 
0 
0 
0 
0 
0 
0 
0 
0 
0 
0 
0 
0 
0 
0 
0 
0 
0 
0 
0 
0 
0 
0 
0 
0 
0 
0 
0 
0 
0 
0 
0 
0 
0 
0 
0 
0 
0 
0 
0 
0 
0 
0 
0 
0 
0 
0 
0 
0 
0 
0 
0 
0 
0 
0 
0 
0 
0 
0 
0 
0 
0 
0 
0 
0 
0 
0 
0 
0 
0 
0 
0 
0 
0 
0 
0 
0 
0 
0 
0 
0 
0 
0 
0 
0 
0 
0 
0 
0 
0 
0 
0 
0 
0 
0 
0 
0 
0 
0 
0 
0 
0 
0 
0 
0 
0 
0 
0 
0 
0 
0 
0 
0 
0 
0 
0 
0 
0 
0 
0 
0 
0 
0 
0 
0 
0 
0 
0 
0 
0 
0 
0 
0 
0 
0 
0 
0 
0 
0 
0 
0 
0 
0 
0 
0 
0 
0 
0 
0 
0 
0 
0 
0 
0 
0 
0 
0 
0 
0 
0 
0 
0 
0 
0 
0 
0 
0 
0 
0 
0 
0 
0 
0 
0 
0 
0 
0 
0 
0 
0 
0 
0 
0 
0 
0 
0 
0 
0 
0 
0 
0 
0 
0 
0 
0 
0 
0 
0 
0 
0 
0 
0 
0 
0 
0 
0 
0 
0 
0 
0 
0 
0 
0 
0 
0 
0 
0 
0 
0 
0 
0 
0 
0 
0 
0 
0 
0 
0 
0 
0 
0 
0 
0 
0 
0 
0 
0 
0 
0 
0 
0 
0 
0 
0 
0 
0 
0 
0 
0 
0 
0 
0 
0 
0 
0 
0 
0 
0 
0 
0 
0 
0 
0 
0 
0 
0 
0 
0 
0 
0 
0 
0 
0 
0 
0 
0 
0 
0 
0 
0 
0 
0 
0 
0 
0 
0 
0 
0 
0 
0 
0 
0 
0 
0 
0 
0 
0 
0 
0 
0 
0 
0 
0 
0 
0 
0 
0 
0 
0 
0 
0 
0 
0 
0 
0 
0 
0 
0 
0 
0 
0 
0 
0 
0 
0 
0 
0 
0 
0 
0 
0 
0 
0 
0 
0 
0 
0 
0 
0 
0 
0 
0 
0 
0 
0 
0 
0 
0 
0 
0 
0 
0 
0 
0 
0 
0 
0 
0 
0 
0 
0 
0 
0 
0 
0 
0 
0 
0 
0 
0 
0 
0 
0 
0 
0 
0 
0 
0.4287517226702597 
0 
0 
0 
0 
0 
0 
0 
0 
0 
0 
0 
0 
0 
0 
0 
0 
0 
0 
0 
0 
0 
0 
0 
0 
0 
0 
0 
0 
0 
0 
0 
0 
0 
0 
0 
0 
0 
0 
0 
0 
0 
0 
0 
0 
0 
0 
0 
0 
0 
0 
0 
0 
0 
0 
0 
0 
0 
0 
0 
0 
0 
0 
0.01706478378695239 
0 
0 
0 
0 
0 
0 
0 
0 
0 
0 
0 
0 
0 
0 
0 
0 
-1.044054107630107 
0 
0 
0 
0 
0 
0 
0 
0 
0 
0 
0 
0 
0 
0 
0 
0 
0 
0 
0 
0 
0 
0 
0 
0 
0 
0 
0 
0 
0 
0 
0 
0 
0 
0 
0 
0 
0 
0 
0 
0 
0 
0 
0 
0 
0 
0 
0 
0 
0 
0 
0 
0 
0 
0 
0 
0 
0 
0 
0 
0 
0 
0 
0 
0 
0 
0 
0 
0 
0 
0 
0 
0 
0 
0 
0 
0 
0 
0 
0 
0 
0 
0 
0 
0 
0 
0 
0 
0 
0 
0 
0 
0 
0 
0 
0 
0 
0 
0 
0 
0 
0 
0 
0 
0 
0 
0 
0 
0 
0 
0 
0 
0 
0 
0 
0 
0 
0 
0 
0 
0 
0 
0 
0 
0 
0 
0 
0 
0 
0 
0 
0 
0 
0 
0 
0 
0 
0 
0 
0 
0 
0 
0 
0 
0 
-0.2032822641229428 
0 
0 
0 
0 
0 
0 
0 
0 
0 
0 
0 
0 
0 
0 
0 
0 
0 
0 
0 
0 
0 
0 
0 
0 
0 
0 
0 
0 
0 
0 
0 
0 
0 
0 
0 
0 
0 
0 
0 
0 
0 
0 
0 
0 
0 
0 
0 
0 
0 
0 
0 
0 
0 
0 
0 
0 
0 
0 
0 
0 
0 
0 
0 
0 
0 
0 
0 
0 
0 
0 
0 
0 
0 
0 
0 
0 
0 
0 
0 
0 
0 
0 
0 
0 
0 
0 
0 
0 
0 
0 
0 
0 
0 
0 
0 
0 
0 
0 
0 
0 
0 
0 
0 
0 
0 
0 
0 
0 
0 
0 
0 
0 
0 
0 
0 
0 
0 
0 
0 
0 
0 
0 
0 
0 
0 
0 
0 
0 
0 
0 
0 
0 
0 
0 
0 
0 
0 
0 
0 
0 
0 
0 
0 
0 
0 
0 
0 
0 
0 
2.827614974826776 
0 
0 
0 
0 
0 
0 
0 
0 
0 
0 
0 
0 
0 
0 
0 
0 
0 
0 
0.3473094766163953 
0 
0 
0 
0 
0 
0 
0 
0 
0 
0 
0 
0 
0 
0 
0 
0 
0 
0 
0 
0 
0 
0 
0 
0 
0 
0 
0 
0 
0 
0 
0 
0 
0 
0 
0 
0 
1.798808142879681 
0 
0 
0 
0 
0 
0 
0 
0 
0 
0 
0 
0 
0 
0 
0 
0 
0 
0 
0 
0 
0 
0 
0 
0 
0 
0 
0 
0 
0 
0 
0 
0 
0 
0 
0 
0 
0 
0 
0 
0 
0 
0 
0 
0 
0 
0 
0 
0 
0 
0 
0 
0 
0 
0 
0 
0 
0 
0 
0 
0 
0 
0 
0 
0 
0 
0 
0 
0 
0 
0 
0 
0 
0 
0 
0 
0 
0 
0 
0 
0 
0 
0 
0 
-2.563915348432737 
-2.320195658038467 
0 
0 
0 
0 
0 
0 
0 
0 
0 
0 
0 
0 
0 
0 
0 
0 
0 
0 
0 
0 
0 
0 
0 
0 
0 
0 
0 
0 
0 
0 
0 
0 
0 
0 
0 
0 
0 
0 
0 
0 
0 
0 
0 
0 
0 
0 
0 
0 
0 
0 
0 
0 
0 
0 
0 
0 
0 
0 
0 
0 
0 
0 
0 
0 
0 
0 
0 
0 
-1.768618773797258 
0 
0 
0 
0 
0 
0 
0 
0 
0 
0 
0 
0 
0 
0 
0 
0 
0 
0 
0 
0 
0 
0 
0 
0 
0 
0 
0 
0 
0 
0 
0 
0 
0 
0 
0 
0 
0 
0 
0 
0 
0 
0 
0 
0 
0 
0 
0 
0 
0 
0 
0 
0 
0 
0 
0 
0 
0 
0 
0 
0 
0 
0 
0 
0 
0 
0 
0 
0 
0 
0 
0 
0 
0 
0 
0 
0 
0 
0 
0 
0 
0 
0 
0 
0 
0 
0 
0 
0 
0 
0 
0 
0 
0 
0 
0 
0 
0 
0 
0 
0 
0 
0 
0 
0 
0 
0 
0 
0 
0 
0 
0 
0 
0 
0 
0 
0 
0 
0 
0 
0 
0 
0 
0 
0 
0 
0 
0 
0 
0 
0 
0 
0 
0 
0 
0 
0 
0 
0 
0 
0 
0 
0 
0 
0 
0 
0 
0 
0 
0 
0 
0 
0 
0 
0 
0 
0 
0 
0 
0 
0 
0 
0 
0 
0 
0 
0.7097732061392007 
0 
0 
0 
0 
0 
0 
0 
0 
0 
0 
0 
0 
0 
0 
0 
0 
0 
0 
0 
0 
0 
0 
0 
0 
0 
0 
0 
0 
0 
0 
0 
0 
0 
0 
0 
0 
0 
0 
0 
0 
0 
0 
0 
0 
0 
0 
0 
0 
0 
0 
0 
0 
0 
0 
0 
0 
0 
0 
0 
0 
0 
0 
0 
0 
0 
0 
0 
0 
0 
0 
0.2205148952296626 
0 
0 
0 
0 
0 
0 
0 
0 
0 
0 
0 
0 
0 
0 
0 
0 
0 
0 
0 
0 
0 
0 
0 
0 
0 
0 
0 
0 
0 
0 
0 
0 
0 
0 
0 
0 
0 
0 
0 
0 
0 
0 
0 
0 
0 
0 
0 
0 
0 
0 
0 
0 
0 
0 
0 
0 
0 
0 
0 
0 
0 
0 
0 
0 
0 
0 
0 
0 
0 
0 
0 
0 
0 
0 
0 
0 
0 
0 
0 
0 
0 
0 
0 
0 
0 
0 
0 
0 
0 
0 
0 
0 
0 
0 
0 
0 
0 
0 
0 
0 
0 
0.630913433639601 
0 
0 
0 
0 
0 
0 
0 
0 
0 
0 
0 
0 
0 
0 
0 
0 
0 
0 
0 
0 
0 
0 
0 
0 
0 
0 
0 
0 
0 
0 
0 
0 
0 
0 
0 
0 
0 
0 
0 
0 
0 
0 
0 
0 
0 
0 
0 
0 
0 
0 
0 
0 
0 
0 
-5.033774633885181 
0 
0 
0 
0 
0 
0 
0 
0 
0 
0 
0 
0 
0 
0 
0 
0 
0 
0 
0 
0 
0 
0 
0 
0 
0 
0 
0 
0 
0 
0 
0 
0 
-2.784593270266578 
0 
0 
0 
0 
0 
0 
0 
0 
0 
0 
0 
0 
0 
0 
0 
0 
0 
0 
0 
0 
0 
0 
0 
0 
0 
0 
0 
0 
0 
0 
0 
0 
0 
0 
0 
0 
0 
0 
0 
0 
0 
0 
0 
0 
0 
0 
0 
0 
0 
0 
0 
0 
0 
0 
0 
0 
0 
0 
0 
0 
0 
0 
0 
0 
0 
0 
0 
0 
0 
0 
0 
0 
0 
0 
0 
0 
0 
0 
0 
0 
0 
0 
0 
0 
0 
0 
0 
0 
0 
0 
0 
0 
0 
0 
0 
0 
0 
0 
0 
0 
0 
0 
0 
0 
0 
0 
0 
0 
0 
-1.022601335608615 
0 
0 
0 
0 
0 
0 
0 
0 
0 
0 
0 
0 
0 
0 
0 
0 
0 
0 
0 
0 
0 
0 
0 
0 
0 
0 
0 
0 
0 
0 
0 
0 
0 
0 
0 
0 
0 
0 
0 
0 
0 
0 
0 
0 
0 
0 
0 
0 
0 
0 
0 
0 
0 
0 
0 
0 
0 
0 
0 
0 
0 
0 
0 
0 
0 
0 
0 
0 
0 
0 
0 
0 
0 
0 
0 
0 
0 
0 
0 
0 
0 
0 
0 
0 
0 
0 
0 
0 
0 
0 
0 
0 
0 
0 
0 
0 
0 
0 
0 
0 
0 
0 
0 
0 
0 
0 
0 
0 
0 
0 
0 
0 
0 
0 
0 
0 
0 
0 
0 
0 
0 
0 
0 
0 
0 
0 
0 
0 
0 
0 
0 
0 
0 
0 
0 
0 
0 
