solver_type L1R_LR
nr_class 2
label 1 -1
nr_feature 98199
bias -1
w
-1.6002644820609 
0.2826917162467799 
0 
-1.306399138497585 
-1.014139237178023 
0 
0.3439829645058414 
0 
0.160703618686486 
0 
2.204762905792842 
0 
0 
0 
0 
3.06853027422653 
1.149505917044128 
1.360110686930044 
1.200894262165651 
0 
1.093817286931575 
0 
-0.672163008132092 
0 
1.59301834744001 
0 
0 
0 
0 
1.23473139501991 
0.5471039261036552 
0 
0 
3.64890476022805 
0 
-0.6339107066937681 
0 
0 
0 
0 
0 
0 
-1.075396263472198 
0.09156941610175717 
0 
-1.527064915315268 
0.5739482684375424 
0 
0 
-1.813705643144658 
0 
0 
-1.813073819112397 
0 
0 
0 
0 
0 
-0.1587526470025555 
0 
0 
-1.20831225688496 
1.209651283701038 
-1.514975213156691 
0 
-0.8080266617131351 
0 
0 
1.200961948795225 
0.4887699854217385 
0 
1.201130987639693 
0.7715346170671665 
0 
0 
0 
0 
0 
0 
-0.2717403353435611 
0 
1.695180176583553 
1.424096751014922 
0 
0 
0 
0 
-2.052815418704434 
0 
0 
0 
-0.3889215113685946 
1.315863507265394 
0 
0 
0 
0 
-0.1999944245841447 
0.03500099082805313 
-0.3991063136073015 
0 
0.555854166745259 
0 
0 
0 
-0.7066977601793617 
-0.2243229001471337 
0 
-0.5399794667611674 
-1.499339869745491 
0 
0 
0 
0 
0 
0 
0 
0 
0 
0 
0 
2.475735496268653 
0 
0 
1.053765591427504 
0 
-0.3819409615222706 
0 
0 
-0.5796745186642386 
2.168491559780001 
-0.500617927163665 
-1.290994661204337 
-0.8341499321294733 
-0.07668464108501673 
0.388714941639347 
0 
-1.548746426021403 
-0.5538665993298089 
0.2819432284581701 
-1.867002117085412 
0 
0 
0 
0.4814964993361604 
-0.0949307037455531 
-1.083294791807992 
0 
-0.1320099705774696 
0 
0 
0 
0.1394245157567064 
0.3369082204921854 
0 
0 
0 
0 
0.656047069488833 
0 
-1.439084508313899 
1.758922047164735 
0.6708941630821547 
0 
1.277295736687054 
0 
0 
0 
0 
0 
0 
0 
0 
0 
0 
-2.293429762262897 
0.4835203409416939 
0 
1.687283024917121 
0 
0 
0 
0 
0 
-0.6010906800895693 
-0.4968725826208786 
-0.43170797885177 
0 
0 
0 
0 
0 
0 
0 
-0.232093689138987 
0 
-0.8099567116077836 
0 
0 
0 
-1.148783417709111 
-0.5214055299411233 
0 
0.7287431482607089 
0 
0 
0 
0 
0 
0 
-0.06695274431572201 
0 
0 
-0.7529962446399687 
0 
-0.9326731395070373 
0 
0 
0.08553916054881254 
0 
-1.336774306851918 
0 
-0.1261411754293794 
0 
0 
0 
0 
0 
0 
0 
-0.2712830598617438 
-1.412294749956114 
0 
0 
-0.06529114116692826 
-0.9788512177504131 
0 
0 
0 
0 
0 
0 
0 
0 
-1.223600821217141 
0 
0 
0 
0 
0 
0.6371549023891587 
0 
-1.603505252098612 
0 
0 
0 
0 
0 
0 
0 
0 
0 
1.274038610768789 
0 
0 
-0.4756210268668326 
0 
0 
0 
-1.009659716803175 
0 
0 
0 
0 
-0.1051758356995864 
0 
0 
0.6701136256198549 
-1.005109750657295 
0 
0 
0 
0 
0 
0 
-1.188367137642419 
0.9404266052505639 
0.235707406621685 
0 
0.1260924337708295 
-2.309334897238559 
0 
0 
-1.125892033669156 
0 
0 
0 
0.1603636792030382 
0 
0 
1.938889395783966 
0 
0 
0 
0 
0.5965293609570526 
0 
1.306977848423167 
0 
0.4124828910453575 
0 
0.05397003851941355 
1.165484726717434 
0.2210837331294718 
0 
0 
0 
0 
0 
0 
0 
0.3596970421523035 
1.574109604204983 
0 
-0.27790709417547 
-0.9287600124026938 
0.2381884302835329 
0 
-0.862774228388831 
0 
-0.3489798628649444 
0 
-1.03682605580406 
0 
0 
0 
-0.1841609061714042 
0 
0 
0 
-0.1774657107785519 
0 
0 
0 
0.6281949334672098 
0.1551954264308879 
0 
0 
0 
-0.03303142725734168 
0 
-1.269863581994889 
-0.06778134780783809 
0 
-0.9538110797012674 
0 
0 
0 
0 
0 
0 
-1.023942288179659 
0 
0 
0 
-1.266445318407362 
0 
0.37670702846724 
0 
0 
-2.227784421562539 
0 
0 
-1.047127631147897 
0.6636587113066531 
-2.055034333895085 
0 
0 
-1.258155685970771 
1.010701969686322 
1.094294407703357 
0 
0 
0.3241001231693261 
0.2482825425961459 
0 
-0.5549480618095802 
0 
0 
0 
-0.819088758506991 
-0.1506361898255852 
-0.4325957446012405 
0 
0 
0.2319834306939164 
0 
-0.9047076649510217 
0 
1.175211731108591 
0 
0 
0 
0 
-0.2155858046560684 
0 
-1.074826992598617 
0 
0.6515832382958741 
2.430663761181675 
0 
-1.364722763902364 
0 
0 
0 
0 
0 
0 
0 
0 
0 
0 
0 
0 
0 
0 
0 
-3.353758573300205 
1.913399118115605 
-1.529946270646438 
0 
0 
0 
0 
0.5008927460917971 
0.7462389450640552 
0.5217712439383737 
-1.304580459551037 
0 
0 
0 
-0.5230561949832679 
-2.069953978476167 
-0.4442149839204097 
0 
0.397198985706983 
0 
0 
0.8419469672558617 
0 
-3.435428309811381 
0 
0 
-1.957243081442614 
0 
0 
-1.093349014965126 
-0.2437685679821681 
-0.3828977612959715 
-0.3394406145243427 
0 
-1.153203117057202 
0 
0.05985279216648426 
0.2052787903536072 
-1.419499805470127 
-4.088850148907066 
0 
0 
0 
0 
0 
0 
0 
0 
0 
-1.068259557950898 
0 
0 
0 
0 
0 
0 
0 
0 
-1.607234085003491 
-0.6451577179830857 
0 
0 
1.40726535031221 
0 
0 
0 
0 
2.06042009752369 
0 
-0.7697126686368003 
-0.06091595933714997 
0 
0 
-0.1214694913596835 
0.09798326547395828 
0 
2.274390757689234 
0 
0 
0 
-3.152699671817889 
0 
0.4784082000478989 
0 
0.9153141133788736 
-2.951663177392824 
0 
-0.0460541833520474 
2.45815794313122 
1.241075966630033 
0 
0 
0 
0 
0 
0 
0 
0 
0 
0 
-0.1871508112645101 
2.351478880628693 
0 
0 
-1.434267291243669 
0 
0 
-1.466455793989314 
0 
-2.337104055224709 
0 
0 
-0.1986579901811343 
0 
0 
0 
0 
0 
0.05937628345810198 
0 
0 
0 
0 
0 
0.528903134067481 
0.2078630428008788 
1.539481497472506 
0.0780935619767151 
0.8436066714769969 
0 
0 
-0.6127007974411208 
0 
0 
0 
0 
0 
0 
0 
0 
0 
-2.507403000898147 
0 
0 
0 
-0.1538335497012281 
0 
0 
0 
0 
0 
0 
0 
0 
0 
0 
-1.193358915706964 
0 
0 
0 
0 
-0.5017707637103337 
0 
0 
0 
0 
0.7461190655206088 
0 
0 
0.3662918787947024 
-0.2543319244256649 
-0.684501771407818 
0 
0 
0 
0 
1.329136715906981 
0 
0 
0 
0 
0 
0 
0 
0 
0 
0 
0 
0 
0 
-1.880744576072545 
0 
0 
-0.4417695869416616 
-0.5547047693456662 
0 
-0.1001575523571427 
0 
0 
0 
0 
0.2812798979505727 
-0.8565771096052182 
1.688999030414849 
0 
0 
0 
-1.998733860777318 
0 
-0.7518005330200336 
-0.0584742009608243 
-0.4882205033324624 
0 
0 
0 
0.7312915856049632 
0.6705741707887712 
0 
0 
1.015547625553723 
0 
-1.316818733966991 
0 
0 
0 
-1.403346372088838 
0 
0.05641500997802804 
0.3181723656950474 
0 
0 
0 
0 
0 
0 
-0.2370686223860531 
0 
0 
0 
-4.321362223772548 
-0.7891574379141649 
-0.5255887560037444 
0 
0 
-2.485378446555805 
0 
0 
0 
1.851590310904492 
-2.500822884104016 
-1.397493138066326 
0 
0 
0 
1.704365894487078 
0 
2.178931982302984 
0 
0 
0 
0 
-0.1552948746830545 
0 
0 
0 
0 
0 
0 
0 
0 
0 
0 
0 
0 
0 
0 
0 
0 
0 
0 
0 
0 
0 
-1.208342555167619 
0 
0 
2.686584095834224 
0 
0 
0 
-0.3275791903873359 
0 
0 
0 
0 
0 
0.3384556086936419 
0 
0 
0 
0 
0 
0 
0.5135692917446328 
1.761505816836092 
0 
0 
0 
0 
-3.353204574327456 
0 
0 
0 
0.1097979543591787 
0 
0 
0 
-1.121542000664432 
0 
0 
0 
0 
0 
0 
0 
0 
2.002878800030431 
0 
0 
0 
-0.6506638155804594 
0 
0 
0 
0 
1.423429723198464 
0 
0 
0 
-1.150881950759153 
0 
0 
-2.976935575207328 
0 
0 
0 
0 
0 
0 
0 
0 
0 
0 
0 
0 
-0.01565141041537987 
-1.616674363477686 
0 
0 
0 
0 
3.121051581520271 
0 
0 
0 
0 
0 
0 
0 
0 
0 
0 
1.356768134101441 
2.075400284599871 
0 
0 
0 
0 
4.004452879245572 
0 
0 
0 
0 
-0.06321737624997303 
0 
-0.258806319048794 
-0.8516986422657836 
0 
0 
-0.1483360450921416 
0 
2.526368504514473 
0 
0 
0 
0 
0 
0 
0 
0 
0 
0 
0 
0 
-1.39445303252839 
0 
0 
0 
0 
0 
0 
0 
0 
0 
0 
0 
0 
0 
0 
0.03995843386565447 
0 
0.3726525558864663 
0 
0 
0 
0 
0 
0 
0 
0 
0 
0 
0 
0 
0 
-0.494948044021841 
0 
-0.2310885368495731 
0 
-1.340822555232137 
0 
0 
-1.471523724208054 
0 
-0.8566464718623859 
1.20969944120566 
-0.6791308731489991 
0 
0.04520465482723557 
-3.222720770692215 
0.5565143940423779 
0 
0 
0 
0 
0 
0.2966076101525387 
0.4094008415870564 
-0.273815139509882 
0.3944870780618829 
0 
-0.305250270234823 
0 
0 
0 
0 
0 
-1.298509521041819 
-3.67475782005277 
0 
0 
0 
0 
0 
0 
0 
-1.618902452450923 
0 
0 
0 
0.07084377728838354 
1.594870817653584 
0 
0 
0 
0 
0 
0 
0 
0 
0 
0 
-2.211289709084237 
-1.17083253834771 
0 
0 
0 
0 
0.2849360363656798 
0 
0.5305262101613961 
0 
-0.060303486633268 
0 
0 
0 
0 
0 
0.122168958165218 
0 
-0.2559813931493462 
0 
0 
0 
0 
0 
0 
0 
0 
0 
0 
0 
0 
0 
0 
0 
0 
0 
0 
0.6802436806779223 
-0.6844999230643807 
-0.2667597827989863 
0 
0 
0 
0 
0 
0 
0 
0 
0 
0 
0 
0 
0 
0 
0 
0 
0 
0 
0.0784944900093686 
0 
0 
0 
0 
0 
2.779362148544981 
0 
0 
0 
0 
0 
0.3518936550895699 
0 
0 
0 
-0.2488252801318813 
0 
0 
0 
0 
0 
0 
0 
0 
0.356486268830911 
0 
0 
0 
0 
0.5638742084870857 
-1.087082318619907 
-1.06301300833343 
0 
0.7318531679334924 
0 
0 
0.8362800115683032 
0 
2.595485193157747 
0 
0 
0 
0.2948271807511536 
2.441614029119474 
0 
0 
0 
0 
-0.3059959499453235 
-0.08141140121013372 
0 
0 
0.03494777305127218 
0.456355051689618 
0 
0 
1.794689241148346 
0 
-0.1349108441943217 
0 
0 
-0.5571597915549534 
0 
-0.3727748853896633 
0 
-1.896724150598536 
0 
0.4938486426516605 
0 
0 
0 
-0.7022270973513337 
0 
-1.137989984619935 
0.1934178443164099 
-0.008067073517983551 
0 
0 
0 
0 
0 
0 
0 
0 
0 
-1.021740362009242 
0 
0 
0 
-0.117400712541304 
0 
0 
0 
-0.3612199372471318 
0 
1.341324312286097 
0 
0 
-1.547580931590999 
0 
0 
0 
0 
0 
-0.6263351492047385 
0 
0 
-2.514427775993648 
0 
0 
-1.111524194880359 
0 
0 
0 
0 
-1.538759933382446 
-1.398894732382353 
0.1977387380812835 
0 
0 
0 
0.02537067228408049 
0 
0 
-2.147115804880392 
0 
-0.2908066211135829 
0 
0 
0 
0 
0 
0.2569407279038906 
0 
0 
0.5992857139064605 
0 
0 
0 
0.03885225789195336 
0 
-0.2703155809348698 
-0.3361814029110587 
0 
-2.426815562478184 
0 
-0.9243175558409119 
0 
-0.05522842210455274 
0 
0 
0 
0 
0 
0 
0 
0 
0 
0.216498430809803 
0 
0 
0 
0 
0 
0 
0 
-0.6451868495484906 
0.930525033379328 
1.098249373659144 
0 
0 
0.5351840528445647 
0 
0 
0 
0 
0 
0 
0 
-2.314867891389111 
0 
-1.191430336796624 
0.7820219758678324 
0.4231707771042852 
0 
-3.897575988515616 
-2.960631449382834 
-1.611667879739295 
0 
0 
0 
0 
1.132353279395735 
0 
0 
0.02962924256904086 
-1.12449013668931 
0.2207069499907328 
0 
0 
0 
-1.211369735587915 
-2.691173656010794 
0 
0 
0.8835496960192921 
0 
0 
0 
0 
0 
-2.125399545362147 
0 
1.378421148493306 
0 
0 
0 
1.619794096877518 
0 
0 
0.1320698823100681 
0 
0 
0 
0 
0 
0 
1.517552848422371 
-0.08856052679956075 
0 
0 
-1.300371387548631 
-0.7628317162410973 
0 
0 
0 
0 
-1.431041918886262 
0 
0 
-0.595563295844863 
0 
0 
0 
0 
0 
0 
0 
0 
0 
0.8686264644461232 
0 
0 
0 
0.1911792142523467 
0.3792533044968697 
0 
0 
0 
0 
0 
0 
0.4459342456766278 
0.8817743162074784 
0 
0 
0 
0 
0 
-2.806677335749545 
0 
0 
0.6235285620673675 
0 
1.825008615777745 
0 
0 
0 
0 
0 
0.2865400855151181 
0.1122535208593157 
0 
-3.550319054918987 
-3.538913481878218 
0.8484256270235913 
0 
0.1282665090454578 
0 
-1.984626354023163 
0 
0 
-1.011659951678563 
0 
0 
0 
0 
-1.00417468126183 
1.461637842024007 
0 
0 
0 
0 
0 
0 
-3.671562971820774 
0 
0 
-0.8822329351479648 
0 
-1.500778161039774 
0.4162414654121873 
0 
0 
0 
0 
0 
0.9507871982400195 
0 
0 
0 
1.664464140534571 
2.017516656534714 
-0.3600048581067699 
0 
1.856833123560106 
0 
-1.219194427108062 
0.1083751684377 
0 
0 
-3.779299978391811 
-0.6824905594664323 
-0.1622438538614426 
0 
-0.5771165317412154 
0 
-0.5323152901173616 
0 
-0.5351146035445458 
-0.3133812114626878 
0 
0.06314562567312571 
0 
0 
0 
0 
0 
0 
-2.253605035047683 
-2.177732284075043 
0 
0 
0 
0 
0 
-0.7041581924003577 
0.9487401650987732 
0 
0 
0 
-0.7137604686442759 
-0.5290731484746741 
-0.6941547348933134 
0 
0 
0 
0 
0 
0.9790358561725373 
0 
0 
0 
0.7754672796040342 
0 
0 
0 
0 
0 
-1.411594346009975 
0 
0 
0 
0.5975701739843387 
0 
0.2876976914449406 
0 
0 
0 
1.129103517063381 
0 
0.2868934904126523 
-0.7331251743158846 
0 
0 
0 
0 
-0.8860877072818192 
0 
0 
0 
0 
0 
0 
0 
0 
0.378840562262616 
0 
0 
0 
0 
0 
0 
-1.91492715872502 
0 
0 
0 
0 
-2.878358132102313 
0.09106902182988806 
0 
0 
0 
-1.518163159654566 
0 
0 
0.5256591226807007 
-0.8136027398636215 
1.335792369915904 
0 
-0.7662271981191506 
0 
0 
0 
0 
0 
0 
0 
0.7664470512497518 
0 
-0.623219228368474 
-0.893907122400713 
0.4700877771918369 
-2.053463971756757 
1.399255698904054 
0.1502858721746335 
0 
0 
0 
-0.5176944495056716 
0 
-0.1113030848235615 
0 
0 
0 
0 
0.5486901156061312 
0 
0 
0.7024512582703357 
0 
0 
0 
0 
0 
0.6714220496265282 
1.033504882579616 
0 
0 
0 
0 
0 
0 
0 
0 
-0.8341860287793622 
0.2412890373205723 
0 
0 
-2.253091079208688 
0 
-0.2738467858177019 
0 
0 
-1.556822499723673 
0 
0 
-1.49823987261734 
-0.9873780244522697 
0 
0 
0 
0 
0.8575626938616072 
0 
0 
0 
0 
0 
0 
0 
0 
-0.6108327084305778 
0 
0 
-1.289929893437197 
0 
0 
0 
0 
-0.6864069663980013 
0 
0 
-0.8107612671128019 
0 
-1.295498414688734 
0 
0.05542361280133847 
1.370495070696115 
0 
0 
0.4853966148529025 
0.3789757197268462 
0 
0 
1.992970793524713 
0 
0 
0 
-0.4584619235773093 
-0.4897906453205598 
0 
0 
0 
0 
0 
0 
0 
0 
0 
-4.441319406936631 
0 
0 
-0.4661882267413602 
0 
0 
0 
0 
0.4755388117579105 
0 
0 
0 
-1.439751584363022 
0 
0 
0 
-5.795061653402182 
-0.2739005125052728 
0 
0 
0 
0 
0 
0 
0 
0 
0 
-0.01062656674313651 
0 
0 
0 
-0.2536818512472006 
0 
0 
-0.6403216734107352 
0 
0 
0 
-0.9520022569760144 
0 
0 
0.1415403988484048 
0 
0 
0 
0 
0 
0 
0 
0 
0 
0 
0 
0 
0 
-0.7313698400854332 
-0.09437329106727072 
0.9702516406091738 
0 
0 
0 
0 
0 
0 
-0.7714920648426518 
0 
0 
0 
0 
0 
0 
0 
-3.337732610373474 
-1.02981352069123 
0 
2.341210308525799 
0 
0 
0 
-1.074454744246961 
0 
-0.6759973377654746 
0 
0 
0 
0 
0 
0 
0 
0 
0 
-2.065592863522752 
0 
0 
0 
0 
0 
0.6697710518763653 
0 
0 
0.8819843371112183 
-0.4206861729264233 
0 
0 
0.5629258988039444 
0 
0 
0 
1.076167024564301 
5.04149525012029 
0 
0 
0 
-0.559631838411932 
1.297780370749579 
0 
0 
0 
0 
0 
-0.5229198649373974 
0 
0.9544085392427063 
0 
0 
0 
0.6226646373084473 
0 
0 
-0.2519348256525371 
0 
-0.4365325126849514 
0 
0 
0 
0.2421021458341914 
0.05552555595808063 
0 
0 
-0.2977191891169284 
-0.7985071472399669 
0 
0 
0 
0 
0 
0.0926268188377446 
0 
0 
-1.977656973332928 
-1.48737610987965 
0 
0 
0 
0 
0 
-0.08197094494479719 
-1.808058102586831 
0 
0 
0 
0 
0 
0 
0 
0 
0 
0 
-3.013087104600559 
1.055119779129622 
0 
1.353211970910526 
1.708144478912233 
0 
0 
0 
0 
0 
0.07590011136940948 
-1.208566244712476 
-0.8247811590752084 
0 
0 
0 
0 
0 
0 
0 
0 
0.7955354047415131 
0 
0 
0 
0 
0 
0 
0 
0 
0.3855151276438852 
-0.3694786638815431 
0 
0 
0 
0 
0 
0 
-0.1746324120292066 
-1.002441583236845 
-1.024236880636266 
0 
0 
0 
0 
-0.04275048592486828 
0 
-0.8716519198282228 
0 
0 
0.7097240730401739 
0.4245366849538237 
0 
-0.03936078963528403 
0 
0 
0 
-1.984022674432929 
0 
1.204019719710278 
0 
0 
0 
-1.660774867354354 
0 
0 
0 
0 
0 
0 
0 
0 
0 
0 
0 
0 
0 
0 
0 
0 
0 
0 
-0.4877174318252231 
0 
0 
0.1167552800064624 
0 
0 
0 
0 
0 
0 
0 
0 
-1.081481743981439 
0 
0 
-1.429215514530107 
0 
0 
0 
0 
0 
0 
0 
0 
0 
0 
0 
-0.06467795997383147 
0 
0 
0 
0 
-1.223031274308994 
0 
0 
0 
0 
0 
0 
0 
0 
0 
0 
0 
0 
0 
0 
0 
0 
0.04914326188372911 
-0.763076894626577 
-1.829009460129006 
0 
0 
0 
0 
0 
0 
0 
0.2740084394220926 
0 
0 
0 
0 
0 
0 
0 
0 
0.07190341845256011 
-1.624289180869106 
0 
0 
-1.396660735025648 
0 
0 
0 
0 
1.153010552684023 
0 
1.379428591439694 
0 
0 
0 
-0.8163102627136561 
0 
0 
0 
0 
0 
0 
0 
0 
0 
0 
0 
0 
-0.7988844659667241 
1.045843982819148 
0 
0 
0 
0 
0 
3.036340349179987 
0 
0 
0 
0 
0 
0 
0 
0 
0 
0 
0 
0 
0 
0 
0 
0 
0 
0 
0 
0 
0 
-1.34025652448174 
0 
0 
0 
0 
0 
0 
5.777516342510508 
0 
0 
0 
0 
0 
0 
0 
0 
0 
0.1365915960037027 
-0.8416789192080739 
0 
0 
0 
0 
0 
0 
-1.87820393469588 
0 
0 
0 
1.081685750650319 
0 
0.1271708038812153 
-0.05887532300899444 
0.2855064694904249 
-0.5314197688308692 
-0.9392176512727 
1.253859633537798 
0 
0 
0 
0 
0 
0 
0 
-0.158858083533092 
0 
0 
-1.102782020981831 
-0.2555199819175471 
0 
0 
0 
0 
-1.091993574823532 
0 
0 
0 
0 
0 
0 
0 
-0.09193518815356193 
0 
0 
0 
0 
0 
0 
0 
0 
-0.7344642729072027 
0 
0.5935968215491801 
0 
0 
3.478285132615978 
-2.646990269318469 
0 
0.349433802334728 
0 
0.6795128957794182 
0 
0 
0 
-0.5282667466318488 
0 
0 
0 
0 
0.6298308346747126 
0 
0 
0 
0 
0 
0 
0 
0 
0 
0 
0 
0 
0 
0 
0 
0 
0.6841185313231619 
0 
0 
0 
0 
0 
-0.1459765143654403 
0 
0 
0.312666903806019 
0 
0.6034927836955529 
0 
3.118273299565915 
0 
0 
-2.886927401216015 
0 
-1.665095484573144 
-0.3554419495687131 
0 
0 
0 
0 
-0.9209233750110865 
0 
0 
-0.2073067852992534 
0 
0 
0 
-0.2596911542390987 
-1.836669778889057 
0 
0 
-0.4149796636333947 
0.2516730211032527 
-1.023139511986081 
-1.27982938332366 
0 
0 
0 
-2.569952022764686 
0 
0 
3.4084224769773 
0 
0 
0.817890982150021 
-0.546411297624938 
0 
0 
0 
0.7226122418199462 
0 
0 
0 
0 
0 
-0.9455780542221686 
-0.1681857340843325 
0 
0 
-3.235697933654638 
0 
0 
0 
-0.07039660091826604 
0 
0 
0 
0 
0 
0 
0 
-0.2268470342486559 
0 
-0.182249152961196 
0 
0 
0 
0.1546856719160048 
0 
0 
-2.058973858603166 
0 
0 
0 
-1.612271229039368 
0 
0 
0 
0 
0 
0 
0 
0 
0 
0 
0 
0 
0 
0 
-1.923927922164604 
0.01621615891717442 
0 
0 
0.9039318095469581 
0 
0 
0 
-0.1555039601691481 
0 
0 
-1.894217275907591 
0 
0 
-0.4130783430934603 
0 
0 
0 
0 
0 
0 
0 
0 
0 
0.2645506802199943 
0 
0 
0 
-0.1294058098228689 
0 
0 
0 
-1.055151880083491 
0 
0 
0 
0 
1.044651324802839 
0 
0 
0 
0 
0 
-1.596486182846972 
0 
0 
-2.956797680812913 
-0.1553537164398486 
0 
0 
0 
0 
0 
-1.128757075367992 
0 
0.06965077324047773 
0 
0 
-4.41070811544981 
0 
0 
0.6554827355518536 
0 
0 
0 
0 
0 
0 
0 
0 
0.669837465300499 
0 
-0.3538819158883049 
0 
-1.13891213041299 
0 
0 
0 
0 
0 
-1.066238147176166 
0 
0 
0 
-1.2967145431488 
0 
-0.6377325004835004 
0 
0 
0 
0 
0 
0 
0 
0 
0 
0 
0 
0 
0 
0 
-1.828290475122943 
-2.632543056562485 
0 
0 
0 
-0.6728294169081337 
0 
0 
0 
0 
0 
0 
0 
0.2043048826107894 
0 
-2.225775327952613 
0 
0 
0 
0 
0 
0.3844842718384469 
0 
-0.2098539571240819 
0 
0 
0 
0 
0 
0 
0 
-0.1773155271492684 
0 
0 
0 
0 
0 
0 
-0.671235931993223 
0.2502711442020995 
0 
-1.173182140726307 
0 
0 
0 
-0.7891604308207229 
0 
-3.306919242152274 
0 
-1.400229865134968 
0 
0 
0 
0 
-0.2078986855197774 
0 
0 
0 
0 
0 
0 
0 
0 
0 
0 
0 
0 
0 
0 
-0.1192646626416608 
0 
0 
-1.49266673086138 
0 
0 
0 
0 
0 
0 
0 
0 
0 
0 
0 
-0.3949143776143279 
0.4578219581295768 
0 
0 
0 
0 
0 
0 
0.00145438587861191 
0 
0 
0 
0 
-0.4494385480637814 
0 
0 
0 
0 
0 
0 
0 
1.862951286323845 
0 
0 
-0.1619781412349664 
0 
0 
0 
-0.7650174866624696 
0 
0 
0 
0 
0 
0 
0 
0 
0 
-0.3910156082544947 
0 
-0.7300765203475336 
0 
0 
0 
0.4968873341403563 
0 
0 
0 
0 
0 
0 
-0.06349043601510304 
0 
-2.832874594614816 
-1.134220684452606 
0 
0 
0 
0.5619331639466656 
0 
0 
0 
0 
0 
-0.7736176578283884 
0 
-1.21211593523594 
0 
0 
1.786312128196993 
0 
-1.216882502728719 
1.171709595608941 
0 
0 
0 
0 
0 
0 
0 
0 
0 
2.868112900780888 
0 
0 
0 
0 
0 
0 
0 
0 
0 
0 
0 
0 
0.285032806873938 
-0.07015726892797335 
-0.5687257066507622 
0 
0 
0 
0.9103513570234769 
0 
0 
0.9865712054739695 
0 
0 
0 
0 
0 
-0.5234206098605593 
0 
0 
0 
0 
0 
0 
0 
0 
0 
0 
0 
0 
0 
0 
0 
0 
0 
0 
-0.2018373092938658 
-0.2883661845473982 
0 
0 
0 
0 
0 
2.823689283968051 
0 
0 
0 
-4.443839881480767 
0 
0 
0 
0 
0 
0 
0.002124126114370035 
0 
0 
0 
0 
0 
0 
0 
0 
-1.803404868404106 
-1.563043730403103 
0 
0 
-1.142661906441918 
0.6371029315152433 
0 
0 
-0.7961111413870234 
0 
0 
0 
0 
0 
0 
0 
0 
0 
0 
0 
0 
-1.297729846688631 
0 
0 
0 
0 
0 
0 
-0.6393021523452374 
0 
-0.8512003002966404 
0 
0 
0 
0 
0 
0 
0 
0 
0 
0 
0 
0 
1.025023365225658 
0 
0 
0 
3.407144742340654 
0 
0 
0 
0 
0 
0 
0.7751143957398873 
-0.1703250483570999 
0 
0 
-1.193642892942718 
0 
-0.6429078214462076 
0 
0 
0 
-0.8923227599405731 
-1.738495092890275 
0.1271891903415066 
0 
-1.777270423346312 
0 
-0.8453541005364392 
0 
0 
0 
0 
0 
0 
0 
0 
-0.07789002905214346 
0 
0.5859803649351647 
0 
0 
0 
0 
0 
-1.112020940244214 
0 
0 
0 
0 
0 
0 
0 
0 
0 
0.6395509389344254 
-0.8305454312804143 
0 
0 
0 
0 
0 
0 
0 
0 
0 
0 
1.123411672157124 
0 
0 
0 
0 
0 
0 
0 
0 
0 
0.929819471453969 
0 
0 
0 
0 
-0.1424016218970574 
0.1595503617362523 
0 
0 
0 
0 
0 
0 
0 
0 
0.6180239334455839 
0 
0 
0 
0 
0 
0.3267152470109345 
0 
0 
0 
0 
-0.299970914393594 
0 
0 
-1.63307145882326 
0 
0 
0 
0 
0 
0 
0 
-0.8125481800701762 
0 
0 
0 
0 
-1.402112400875417 
0 
-1.469678596989787 
-4.274835583904927 
0 
0 
0 
0 
0 
0 
-0.6392373533648992 
0 
0 
-1.320903866255834 
0 
0 
0 
0 
-0.5635586796901475 
0 
1.031227803784767 
0 
0 
0 
0 
0 
0 
0 
0 
0 
0 
0 
0 
0 
0 
0 
0 
-0.7103300533551784 
0 
-0.4433310626041804 
0 
0 
0 
0 
0 
0 
0 
0 
-0.8101454552444192 
-1.061884751749808 
0 
0 
0 
0 
0 
0 
-0.2880310758832905 
0 
0.3086377520170715 
0 
2.132477156221095 
0 
0 
-0.1149761762833279 
0.1298633785382758 
0 
0 
0 
0 
-0.1326468217007965 
0 
-0.7145988940321613 
0 
0 
0 
0.8858644769326016 
0 
0 
0 
0 
0 
0 
0.3134930970084093 
0 
0 
0 
0 
0 
0 
-0.2057699495374134 
0 
-2.377272271513779 
0 
0 
0 
0 
0 
0 
0 
0 
0 
0 
0 
0.3851147752096877 
0.8576687196726762 
0 
0 
0 
0 
0 
0 
0.2844500988591649 
0 
0 
0 
0 
-0.323576241017049 
0 
0 
0 
-0.878399993060216 
0 
-0.7569576347114028 
0 
0 
-0.1735663816945435 
0 
0 
0 
0 
0 
0 
0 
0 
0 
0 
-0.6917405106977854 
0 
1.389890292907604 
0 
-0.2720164566456179 
0 
-0.5252476643789888 
0 
0 
0 
2.978574059639452 
0 
0 
5.241186267353366 
0 
0 
0 
0 
0 
0 
1.615329319101021 
0 
0 
0 
-1.747819251828006 
0 
0 
1.412433240091556 
-0.497943963105987 
0 
0 
-0.1292231102388452 
0 
0 
0 
0 
0.3029550861531896 
0 
0 
0 
0 
0 
0 
0 
0 
0 
0 
0 
0 
0 
0 
0 
-1.44626285867672 
0 
0 
-1.893041337571731 
0 
0 
0 
0 
0 
-0.01784166580888969 
0 
0 
0 
0 
0 
0 
0.3333505912731434 
0 
0 
0 
0 
-1.74816778449304 
0 
0 
0 
0 
0 
0 
0 
0 
0 
0 
-0.4882527080094529 
0 
0 
0 
0 
0 
0 
0 
0 
0 
-0.9970721217733528 
0 
0 
0 
0 
0 
1.1100524096125 
0 
0 
0.6149002202562435 
0 
0 
0 
0 
0 
0.4169658494466928 
-0.4423872643773089 
0 
0 
0 
0 
-1.69672738365491 
0 
0 
0 
0 
0 
-0.09943961544239811 
0 
-0.1182489888326572 
0 
0 
0 
0 
0 
0 
0 
0 
-1.040633912864051 
0 
0 
0 
-0.3349037548583734 
0 
0 
-5.029489878103032 
0 
0 
0 
0 
-6.756509003803396 
-1.69094234091248 
-1.28026044320536 
0 
0 
0 
-0.5815687223511905 
-0.7553430179633472 
1.03949536987916 
-1.07353750197112 
0 
0 
-0.9060187279321128 
0 
0 
0 
0 
0.02194287657498125 
0 
0 
0 
0 
0 
1.087813099872424 
0 
1.393760627550295 
0 
0 
0 
0 
-0.2160923646221258 
0 
0 
0 
0 
0 
1.848132197831689 
0.5141276870192614 
0 
0 
-1.717793458820882 
0 
0 
0 
-0.2253927910935052 
0.5075272663493708 
0.2102955753337888 
-3.038074876891653 
-3.610185294151414 
0 
0 
0 
0 
-3.621678443692777 
0 
0 
0 
0 
0 
0 
0 
2.371314732841052 
0 
-1.951722621688097 
0 
0 
0 
-0.4152058983219558 
2.128333309485846 
0 
0 
0 
0 
0 
0 
0 
0 
0 
0 
-0.4208729023142953 
1.729794372639222 
0 
0.4866179993976761 
0 
0.1572278894329114 
-0.505047712854043 
0 
-0.6538033441864335 
0 
0 
-0.9469579468768301 
0.01506144979306098 
0 
-0.6839449876165763 
-0.8646647847232133 
0.03811119129235838 
0 
0 
0 
0 
-2.069785825320177 
0 
0 
-2.340089232554262 
0 
0 
0 
0 
0 
0 
1.262821597997009 
0 
0 
0 
0 
0 
0 
0 
-0.4150616109614824 
0 
0 
0 
0.00812117655785235 
-0.3085402456791672 
0 
0 
0 
0 
0 
-4.88551250016616 
0 
0 
0 
0 
0 
0 
0 
0 
0.9191301381492373 
0 
0 
-0.2978556329305392 
1.506886969371289 
1.677649095770476 
0 
0 
0 
0 
0 
0 
0 
0 
0 
0 
0 
0 
0 
0 
0 
0 
0 
0.5887220388226409 
0 
-0.09445861934055409 
0 
0.5038159970327487 
0 
0 
2.006694356787514 
0 
-1.256770248454408 
0.5913619612916868 
0 
0.3126991201371394 
0 
0 
0 
0 
-2.220451388209615 
0 
1.343325140564957 
0 
-1.203383523681324 
0 
0 
0 
0 
0 
0 
0 
0 
1.694693811216513 
0 
0 
-0.08928748662104895 
0 
0 
0 
0 
0 
-0.7161235408479461 
-0.4302433168441602 
0 
0 
1.09222302249118 
0 
0 
0 
0 
0 
0.2484332370395514 
0 
0 
0 
0 
0 
0 
0 
0 
0 
0 
0 
0 
0 
0 
0 
0 
0 
-1.048577678396522 
0 
0 
-0.9130074185669604 
0 
0 
0 
0 
0 
0.5257356025853565 
0 
-3.543119671377083 
0 
0 
0 
0 
0 
0 
0 
0 
0 
0 
0 
0 
0 
0 
0 
0 
0 
0.01963750333853758 
0 
0 
0 
0 
0 
0 
0 
0 
0 
0 
0 
0.7209238255719357 
0 
0 
-0.7598874917489469 
0 
0 
0 
0 
0 
0 
0 
0 
0 
0 
0 
0 
-1.363665348449322 
0 
0 
0 
0 
0 
0 
0 
0 
0 
0 
0 
0 
0 
0 
0 
0 
0 
0 
0 
0 
0 
0 
0 
0 
0 
-2.390103567161657 
0 
0 
0 
0 
0 
1.566029733166162 
0 
0 
-0.07982414414844212 
-0.6029293254934695 
0 
0.9271899387862894 
0 
0 
0 
0.1615060667676383 
0 
-0.01860517263270115 
0.05217154886622795 
0 
0 
0 
0 
-1.787209871642572 
0 
0 
0 
0 
0 
0 
0 
0 
0 
0 
0.3751562039857368 
2.391405223376929 
0 
0 
0.2527551708295324 
0 
0.1549276476601176 
0 
0 
0 
0 
0 
0 
0 
0 
0 
0.9626652481273746 
0 
0 
0 
0 
0 
0 
0 
0 
0 
0 
0.3718818284320958 
0 
0 
0 
-0.5742254304795176 
-2.014216500059873 
0 
0 
0 
-1.400813354861418 
-1.011422712183863 
0 
-0.6272280998982804 
0 
0 
0 
0 
0 
0 
0 
0 
0 
3.286484221995455 
0 
0 
0 
0 
0 
0 
-2.280506781954506 
-0.1922683887039297 
0 
0 
-4.43166677044141 
0 
0 
0.1641469350902127 
1.293322122427366 
-0.3072407952243 
0 
0 
-0.1061017586739298 
0 
0 
0.7646759860628604 
0 
0 
0 
2.195611281041386 
0 
0 
0 
0 
0 
0 
0 
0 
0 
0 
0 
0 
0 
0 
0 
0 
0 
0 
0 
0 
0 
0 
0 
0 
0 
-0.1693576738775824 
0 
0 
0 
0 
0 
0 
-0.3115885393510097 
0 
0 
0 
0 
0 
-5.176476959466255 
0 
1.495133198865817 
-0.2402289706713147 
0 
0 
0 
0 
0 
0 
1.063311844890188 
0 
0 
0 
0 
0 
0 
0 
0 
0 
0 
0.1880841133889916 
0 
0 
-1.053793308893672 
0.05978205008765715 
-0.4250240915974886 
0 
0 
0 
-0.184088257607033 
0 
0 
0 
0 
0 
0 
0 
-1.193819284823087 
-1.582928985315532 
0 
0 
0 
0 
0 
0.7762191623535395 
-0.2106094323810774 
0 
0 
0.02501367866021938 
0 
0 
0 
0 
-1.464383144188077 
0 
-0.06678535744926364 
0 
0 
0 
0 
0 
0 
0 
0 
0.3390532281157709 
1.476022227517699 
0 
0 
0 
1.578247476956015 
0 
0 
0 
0.04087668416850754 
0 
-0.8061323375534053 
0 
0 
0 
0 
0 
0 
0 
0 
0.1568425521385513 
0 
-1.163504026614912 
0 
1.665420044769969 
-0.581676200245251 
0 
1.286321289552959 
0 
-0.8764395124331161 
0 
-0.1249821263703117 
0 
0 
0 
0 
0 
-0.4397734031408701 
0 
-0.6690292844529736 
0 
-2.219591692550743 
0 
1.158233735117456 
0 
0 
0 
0 
0 
0 
0 
0.6231045409971285 
-0.1511875693294351 
0 
0 
0 
0.6123347079327521 
0 
0 
0 
0 
0 
0 
0 
0 
-2.354233360674151 
0 
0 
0 
0 
0 
0 
0 
0 
0 
0 
0 
1.874605878057067 
0 
1.260933535819 
0 
-0.6366767737259002 
0 
0 
0 
-1.95798022568034 
-0.5950080098425747 
0 
0 
0 
0 
0 
0 
0 
0 
0 
0 
0 
0 
0 
0 
0 
0 
0 
0 
0 
0.4111437951148877 
0 
0 
0 
0 
0 
0 
0 
0.012600265702211 
0 
0 
-2.382877569466584 
-1.032879516048606 
-1.153787073318293 
-0.6688997786867003 
0 
0 
0 
0 
0 
-2.066235021595877 
0 
0 
0 
0 
0 
0 
-1.003620316055743 
1.700451571498986 
0 
0 
0 
0 
0 
0 
0 
0 
0 
0 
0 
0 
0 
0 
0 
0 
0 
0 
0 
0 
0 
0 
0 
0 
0 
0 
0 
0 
0 
0 
0 
0 
0 
0 
0 
0 
0 
0 
0.007114378230275062 
0 
0 
0 
0 
0.2112314259192588 
0 
0 
0 
-1.275179693524527 
0 
0 
0 
-0.4779642961471337 
0 
0 
0 
1.58150049682917 
1.262543827063606 
0 
-0.134351193836597 
0 
0 
0 
0 
2.030113920562389 
0 
0 
0 
0 
0.5074460486804675 
-1.043778782590803 
0 
0 
0 
0 
-0.3876900228263407 
0 
0.1267950002677942 
0 
0 
0 
0 
0 
0 
0.4490487379666419 
0 
0 
0 
0 
0 
0 
0 
0 
0 
2.75399427306363 
0 
0 
0 
0 
0 
0 
0 
-0.6054809805207577 
0 
0 
0 
0 
0 
0 
0 
0 
-0.06404148539312286 
0 
0 
0 
0 
0 
0 
0 
0 
0 
0 
0 
0 
0 
0 
0 
-0.1366370162648965 
0.4463395759580484 
0 
1.461781515721113 
0 
0 
0 
0 
0 
0 
-1.474393436942537 
0 
-0.3282220440123019 
0 
0 
0 
0 
0 
0 
0 
0 
0 
-0.6425147474155266 
-0.1438300853292616 
0 
0 
0 
0 
0 
0 
0 
0 
-0.3794399037585334 
0 
0 
0 
0 
0.4918005110841411 
0 
0 
0.02957613541625421 
0 
0 
0 
0 
0 
0 
0 
0 
0 
0 
0 
-2.249649547550757 
0 
0.5620262032432788 
0 
0 
0 
-2.114153976132303 
0 
0 
0 
0 
-0.6254549271434858 
0 
0 
0 
0 
0 
0 
0 
0 
0 
0 
0 
0 
0 
0 
0 
0 
-1.853310474036122 
0 
0 
0 
-1.186859265053395 
0 
0 
0 
0.775735721453069 
0.4846636051141462 
0 
0 
0 
-0.481694559935627 
0 
0 
-0.8842592205533458 
0 
0 
0 
0 
-1.14026322548642 
0 
0 
0 
0 
0 
0 
-1.932024387163638 
0 
0.07045345279439616 
0 
-1.535086647412088 
0 
0 
0 
-1.681342824820451 
0 
0 
0 
0 
-7.000524349314526 
-5.342765584847153 
0.2037137048758015 
0 
0 
0 
-0.5620370599379014 
0 
0 
0 
0 
1.45218402542356 
0 
0 
0 
-0.3210130312835568 
0 
0 
0 
0 
0 
0 
0 
0 
0 
0 
-1.131700830169503 
0 
0 
0 
0 
0 
-1.044965700588 
0 
0 
0 
0 
0 
0 
0 
0 
0 
0 
0 
0 
0 
0 
0 
0 
0.3646366439177067 
0 
0 
0 
0 
0 
0 
0 
0 
0 
0 
0 
0 
0 
0 
0 
0 
0 
0 
0 
0 
-0.2157407528005147 
-0.1470445079258989 
0 
0 
0 
0 
0 
0 
1.390322896525007 
0 
0 
0 
0 
0 
0 
0 
0.842141599764104 
0 
0 
0 
0 
0 
0 
-0.4674881262144281 
0 
0 
0 
0 
0 
0 
0 
-0.4189798103678744 
0 
0 
0 
0 
0 
0 
0 
0 
0 
0.1056132966290239 
0 
0 
-0.2403043772847547 
1.443844141599277 
0 
0.3214299282265379 
0 
1.090740428556909 
0 
0 
0 
0 
0 
0 
0 
0 
-0.9445903339534398 
0 
0 
0 
0 
-1.756851871643569 
0 
0.8956823284049063 
0 
0 
0 
0 
0 
0 
0 
2.137888967591189 
0 
0 
-0.2872209680723827 
0 
0 
0 
0 
0 
0 
0 
0 
0 
0 
0 
0 
0 
0 
0 
0 
0 
0.6422613876582112 
0 
-0.6409178760857903 
0 
0 
0 
0 
-1.179332661475797 
0 
0 
0 
0 
0.8221548387583747 
0 
0 
0 
0 
0 
0 
0 
0.08189337858465573 
0 
0 
0 
0 
0 
0 
0 
0 
3.198072649857206 
0 
0 
0 
0 
-0.2239382880497825 
0 
0 
-0.9346934431892831 
0.09825183087516368 
0 
0 
-2.325007245570486 
0 
-0.8593721969479644 
0.1120907230346666 
0 
-1.77847707912646 
0 
0 
0 
0 
0 
0.6252161321573615 
0 
0 
-1.067956808677358 
0 
0 
0 
0 
0 
0 
0 
0 
0 
0 
0 
0 
0 
0 
0 
0 
0.9341345174584151 
0 
0 
0 
0 
-2.14998790889095 
0.7369006312617522 
0 
0 
0 
0 
0 
0 
0 
0 
0 
0 
0 
0 
0 
0 
0 
0 
12.69120599293074 
-0.4915781951097797 
0 
0 
0 
0 
0 
0 
0 
0 
0 
0 
0 
0 
0 
-1.136434927718027 
0 
0 
0 
-0.7410791755892003 
0 
0 
0 
0 
0 
0 
0 
0 
0 
-0.8352790764912571 
0 
0 
0 
-1.794638120391858 
0 
0 
-1.759783295550187 
-0.7845644044761789 
0 
-0.1727795824753348 
0 
0 
0.6479851312083386 
-1.344298070985623 
0 
0 
-0.3282184105705668 
0 
0 
0 
-0.963687496803627 
0 
-1.788442480275724 
0 
0 
0 
0 
0 
0 
0 
0 
0 
0 
0 
0 
0.4522196925155706 
0 
0 
0 
0 
0 
0 
-0.4395419385332535 
0 
0 
0 
0 
0 
0 
0 
0 
0 
-0.3142659435581937 
0 
0 
0 
0 
0 
0 
0 
0 
0 
0 
0 
0 
-1.588819733070018 
0 
0 
0 
0.2900601717212962 
0 
0 
0 
0 
0 
0 
0 
0 
0 
0 
0 
0 
0 
0 
0 
0 
0 
0 
0 
0 
0 
0 
0 
0 
0 
0 
0 
0 
0 
0 
0 
0 
0 
-1.022356555409364 
0 
0 
0 
0 
0 
0 
0 
0 
0 
0 
0 
0 
0 
-0.7498675749759486 
0 
0 
0 
0 
-0.704106724839161 
0 
0 
0 
0 
0 
-1.2457566660316 
0 
-0.7924124228877187 
0 
0 
0 
-2.325823046775344 
0 
-0.7097137778084319 
0 
0 
0 
0 
0 
0 
0 
0 
0 
0 
0 
0 
2.973993763830451 
0 
0 
0 
0 
0 
0 
0.1571056620025439 
0.6428462419770733 
0 
0 
0 
0 
0 
0 
0 
0 
0.02996708173472775 
0 
0 
-1.105278143157231 
0 
0 
0 
0 
0 
-4.027770999510555 
0 
-2.638207815032871 
0.6926291450351338 
0 
0 
0 
0 
0 
0 
0 
0 
0 
-0.670973712596988 
0 
0 
0 
0 
0 
0 
0 
0 
0 
0 
0 
-0.586666590985182 
0 
0.07958834959340563 
0 
0 
-4.07343693943286 
0 
0 
0 
-1.664464032428282 
0 
-1.226380055171708 
0 
0 
0 
0 
0 
0 
0 
0 
0 
0 
-0.3501775898217455 
0 
0 
0 
0 
0 
0 
0 
0 
0 
0 
0 
0 
0 
-0.9324528978259213 
0 
0 
-1.063161214881961 
0 
0 
0 
0 
0 
2.401765220103016 
0 
0 
0 
0 
0 
0 
0 
0 
0 
0 
0 
0 
-1.750060776105334 
0 
0 
0 
0 
0 
2.602399698332716 
0 
0 
0 
0 
0 
0 
0 
0 
0 
0 
0 
0.810746997371625 
0 
0 
0 
0 
0 
0 
0 
0 
0 
0 
0 
-0.200284399494289 
0 
0 
0 
0 
0 
0 
-0.5510575340662309 
0 
0 
0 
0 
0 
0 
0 
0 
-0.322587877661531 
0 
-1.162359434690152 
0 
0 
0 
0 
0 
0 
0 
0 
0 
0 
0 
0 
0 
0 
0 
0 
0 
0 
0 
0 
0 
0 
0 
0 
0 
0 
0 
0 
0 
0 
0 
0 
0 
0 
0 
0 
0 
0 
0 
0 
0 
0 
0 
0 
0 
0 
0.3169498949685602 
0.6726111122297441 
0 
0 
0 
0 
0 
0 
0 
0 
0 
0 
0 
-0.4746254397242921 
0 
0 
0 
0 
0 
0 
0 
0 
0 
0 
0 
0 
0 
0 
0 
0 
0 
1.402123887911801 
0 
0 
0 
-0.3301255127260224 
0 
0 
0 
0 
0 
0 
0 
-2.164443700410237 
0.8203770545572964 
0 
0 
0 
0 
0 
0 
0 
0 
0 
0 
0 
0 
0 
0 
0 
0 
0 
0 
0 
0 
0 
0 
0 
0 
0 
0 
0.5421640653462431 
0 
0 
0 
0 
0 
0 
0 
0 
0 
0 
0 
0 
-1.244243000059734 
0 
0 
0 
0 
0 
0 
0 
0 
0 
0 
0.6576541500965626 
0 
-0.7147200235817319 
0 
0 
0 
0 
0 
0 
0 
0 
0 
0 
0 
0 
0 
0 
0 
0 
0 
0 
0 
0 
0 
0 
0 
-1.993328300451437 
0 
0 
0 
0 
0 
0 
0 
0 
0 
0 
0 
0 
0 
0 
0 
0 
0 
-0.9064761231190716 
0 
0 
0 
-3.589459404885792 
0 
0 
0 
0 
-0.4087045165658005 
0 
0.7450848449097897 
0 
0 
0 
0 
-0.1298945060066105 
0 
0 
0 
0 
0 
0 
0 
0 
0 
0 
0 
0 
0 
-0.4026145059630228 
0 
0 
0 
0 
0 
0 
0 
0 
0 
0 
0 
0 
0 
-0.08210885036451665 
0 
0 
0 
0 
0 
0 
0 
0 
0 
0 
0 
0 
0 
0 
0 
0 
0 
0 
0 
0 
0 
0 
0 
0 
0 
0 
0 
0 
-0.555718136613805 
0 
-1.100815122942977 
0 
0 
0 
0 
0.190885130141726 
1.001015356445848 
0 
0 
0 
0 
0 
0 
0 
0 
0 
0 
0 
0 
0 
0 
0 
0 
0 
0 
0 
0 
0 
0 
0 
0 
0 
0 
0 
0 
-3.944310037573374 
0 
-2.490859543209202 
0 
0 
0 
0 
0 
0 
0 
0 
0.2742034150228109 
0 
0 
0 
0 
0 
0 
0 
0 
0 
1.046805462589507 
0 
0 
0 
0 
0 
0 
0 
0 
0 
0 
0 
0 
0 
0 
0 
0 
-0.131346307222042 
0 
0 
0 
0 
0 
0 
0 
0 
0 
0 
0 
0 
0 
-1.596852361912707 
0 
0 
0 
-3.637232131064573 
0 
0 
0 
0 
0 
0 
0 
0 
0 
0.7321072400954748 
0 
0 
0 
0 
0.5224935252872524 
0 
0 
0 
0 
0 
0 
0 
0 
-0.8801973149069029 
0 
0 
0 
0 
0 
0 
0 
0.8365943002525049 
0 
0 
-1.886258958500142 
0 
0 
0 
0 
0 
0 
-1.347403859136704 
0 
0 
0 
0 
0 
0 
-1.003764787966073 
0 
0 
0 
-0.571891999970164 
-0.1297041572400546 
0 
0 
0 
0 
0 
0 
0 
0 
0 
0 
0 
0 
0 
0.3127353800018987 
0 
0 
0 
0 
0 
0 
0 
1.001965923494399 
0 
0 
0 
0 
0 
0 
-1.120304802953315 
0 
0 
0 
0 
0 
0 
-0.9556112803536473 
0 
0 
0 
0 
0 
0 
0 
0 
0 
0 
0 
0 
0 
0 
0 
0 
0 
0 
0 
-3.195570598481921 
0 
0 
0 
0 
0 
0 
0 
0 
0 
0 
-0.08835070406116986 
0 
0 
0 
0 
0 
0 
0 
0 
0 
0 
0 
0 
0 
0 
0 
0 
0 
0 
0 
0 
0 
0 
0 
0 
0 
0 
0 
0 
0.2867179535364828 
0 
-0.2016499673095259 
0 
0 
0 
0 
0 
0 
0 
0 
0 
0 
0 
0 
0 
0 
0 
0 
0 
0 
0 
0 
0 
0 
0 
0 
0 
0 
0 
0 
0 
0 
0 
0 
-2.793260856302958 
0 
0 
0 
0 
0 
0 
0 
-0.4147726974089075 
0 
0 
-0.7012940640745404 
0 
-1.386582816580091 
0.4081384174563892 
0 
1.169300571955419 
0 
0 
0 
0 
0 
0 
0 
0 
0 
0 
-3.745528675244066 
0 
0 
0 
0 
0 
0 
0 
0 
0 
0 
0 
0 
0 
0 
0 
0 
0 
0 
0 
0 
0 
1.897893729400908 
-0.6329384934427357 
0 
0 
0 
0 
0 
0.4248483499047246 
0 
0 
0 
-2.791315806036114 
1.315519758029555 
0 
0 
0 
0 
0 
0 
0 
0 
-1.823439745820855 
0 
0 
0 
0 
0 
0 
0 
0 
0 
0 
0 
0 
0 
0 
0 
0 
0 
0 
0 
0 
0 
0 
0 
0 
0 
0 
0 
0 
0 
0 
0 
0 
0 
0 
0 
0 
-0.41618678417061 
0 
0 
0 
0 
0 
0 
0 
0 
0 
0 
0 
0 
0 
0 
0 
0 
0 
0 
0 
0 
0 
-1.501901356131751 
0 
0 
-1.221789839878378 
0 
0 
0 
-1.190575862311387 
0 
0 
0 
0 
0 
0 
0.6038633663445412 
0 
0 
-0.7459680004566393 
1.69023405259751 
0 
0 
0 
0 
0 
0 
0 
0 
0 
-0.3438897863061043 
0 
0 
0 
0 
0 
0 
0 
0 
0 
0 
0 
0 
0 
0 
0 
0 
0 
0 
0 
0 
0 
-1.845955108038511 
0 
1.508168718219745 
-0.1653664847406856 
0 
0 
0 
-0.5274413523009622 
0 
-0.8455956381273392 
0 
0 
0 
0 
0 
0 
0 
0 
0 
0 
0 
0 
0 
0 
0 
0 
-1.730310514695821 
0 
0 
0 
0 
0 
0 
1.209447094513477 
0 
0 
0 
0 
0 
0 
0 
0 
0 
0 
0 
0 
0 
0 
0 
0.3061458063880004 
-0.4083095244801421 
0 
0 
0.06208471479658982 
0 
0 
0 
0 
0 
0 
0 
0 
0 
0 
0 
0 
1.352043102386788 
0 
0 
0 
0 
0 
0 
0 
0 
0 
0 
0 
0 
0 
0 
0 
0 
0 
0 
0 
0 
0 
0 
0 
0 
0 
0 
0 
0.1797001010752035 
0 
0 
0 
0 
0 
0 
0 
0 
0 
0 
0 
0 
0 
0 
0 
0.1353148158969785 
0 
0 
0 
0 
0 
0 
0 
0 
0 
0 
0 
0 
0 
0 
0 
0 
0 
0 
0 
0 
0 
0 
0 
0 
0 
0 
0 
0 
0 
0 
0 
-2.043533165946376 
0 
0 
0 
0 
0 
0 
0 
0 
0 
0 
0 
0 
0 
0 
0 
0 
0 
-1.201209916476559 
0 
0 
0 
0 
0 
0 
0 
0 
0 
0 
0 
0 
0 
-0.6526184086914001 
0 
0 
0 
0 
0 
0 
0 
0 
0 
0.634967621992738 
0 
0 
0 
0 
0 
0 
0 
0 
0 
0 
0 
0.1714713528041894 
0 
0 
0 
0 
0 
0 
0 
0 
0 
0 
0 
0 
0 
0 
0 
0 
0 
0 
0 
0 
0 
0 
-1.386732671894827 
0 
0 
0 
0 
0 
0 
0 
0 
0 
0 
0 
0.9136922878694781 
0 
0 
-1.146403526849685 
0 
0 
0 
0 
0 
0 
0 
0 
0 
-0.6714229235193818 
0 
0 
0 
0 
0 
0 
1.584286773211078 
0 
0 
0 
0 
0 
0 
0 
0 
0 
0 
-1.404650129398779 
0 
0 
0 
0 
0 
0 
0 
0 
0 
0 
0 
0 
0 
-0.2429706980762956 
0 
0 
0 
0 
0 
-0.7171695292017823 
0 
0 
0 
0 
0 
0 
0 
0 
0 
0 
0 
0 
0 
0 
0 
0 
0 
0 
0 
0 
0 
0 
0 
0 
0 
0 
0 
0 
0 
0 
0 
-0.1770698374032705 
0 
0 
0 
0 
-1.150534183409061 
0 
0 
0 
0 
0 
0 
0 
0 
0 
0 
0 
0 
0 
0 
0 
0 
0 
0 
0 
0 
0 
0 
0 
0 
0 
0 
0 
0 
0 
0 
0 
0 
0 
0 
0 
0 
0 
-0.7391625292154774 
0 
0 
0 
0 
0 
0 
0 
0 
-0.5517077000361742 
0 
0 
0 
0 
0 
0 
0 
0 
0 
0 
0 
0 
0 
0 
0 
0 
0 
0 
0 
0 
0 
0 
0 
0 
0 
0 
0 
0 
0 
0 
0 
0 
0 
0 
0 
0 
0 
0 
0 
0 
0 
0 
0 
0 
0 
0 
0 
0 
0 
0 
0 
-0.7727116288457977 
0 
0 
0 
0 
0 
0 
0 
0 
0 
0 
0 
0 
0 
0 
0 
0 
0 
0 
0 
0 
0 
0 
0 
0 
0 
0 
0 
0 
-3.593728932227053 
-1.821487348888109 
0 
-1.354014817469511 
0 
0 
0 
0 
0 
0 
0 
0 
0 
0 
0 
0 
0 
0 
0 
0 
0 
0 
0 
0 
0 
0 
0 
-0.2524320051550729 
0 
0 
0 
0 
0 
0 
-1.754192223466087 
0 
0 
0 
0 
0 
0 
0 
0 
0 
0 
0 
0 
0 
0 
0 
0 
-0.9413283037875019 
0 
-2.575693305202958 
0 
0 
0 
0 
0 
0.2955555382776202 
0 
0 
0 
0 
0 
0 
0 
0 
0 
0 
0 
0 
0 
0 
0 
0 
0 
0 
0.6039541064092214 
0 
0 
0.9804754871330799 
0 
0 
0 
0 
0 
0 
0 
-0.4231783334588515 
0 
0 
0 
0 
0 
0 
0 
0 
0 
0 
0 
0 
0 
0 
0 
0 
0 
-0.03566278149077392 
0 
0 
0 
0 
0 
0 
0 
0 
0 
0 
0 
0 
0 
0 
0 
0 
0 
0 
0 
0 
0 
0 
0 
0 
0 
0 
0 
0 
0 
0 
0 
0 
0 
0 
0 
0 
0 
0 
0 
0 
0 
0 
0 
0 
0 
0 
0 
0 
0 
0 
0 
0.6273371246723596 
-1.386126259084075 
-0.8824672134974589 
-0.5664004390929123 
0.04943100976830572 
0 
0 
-0.05952553232066993 
0 
0 
0 
0 
0 
0 
0 
0 
0 
0 
-2.672636327531821 
0 
0 
0 
0 
-0.8445751172744106 
0 
0 
0 
0 
0 
0 
0 
0 
0 
3.180413407884189 
0 
0 
0 
0 
0 
0 
0 
0 
0 
0 
0 
0 
1.162691892086077 
0 
0 
0 
1.752555900071593 
0 
0 
0 
0 
0 
0 
0 
0 
0 
0 
0 
0 
0 
0 
0 
0 
0 
0 
0 
0 
0 
0 
0 
0 
0 
0 
0 
0 
0 
0 
0 
0 
0 
0 
-0.6103000413459575 
0.2182998182881803 
0 
0 
0 
0 
0 
0 
0 
-0.280553414110895 
0 
0 
0.4077753752189199 
-2.129532909597169 
0 
0 
0 
0 
0 
0 
0 
-0.1893702154447109 
0 
0 
0 
0 
0 
0 
0 
0 
0 
0 
0 
0 
0 
2.510696350403477 
0 
0 
0 
0 
0 
0 
0 
0 
0 
0 
0 
0 
0 
0 
0 
0 
0 
0 
0 
0 
0 
0 
0.5314871885325549 
0 
0 
0 
0 
0 
0 
0 
0 
0 
-1.40106530911877 
0 
0 
0 
0 
0 
0 
0 
0 
0 
0 
-4.094174702037979 
0 
0 
0 
0 
0 
-1.398005544009596 
0 
0 
0 
0.09891288716793634 
0 
0 
0 
0 
0 
0 
-0.6884752232191961 
0 
0 
0 
0 
0 
0 
0 
0 
0 
-2.363819162834368 
0 
0 
0.7101571647371632 
0 
0 
0 
0 
0 
0 
0 
0 
0 
0 
0 
0 
0 
0 
-0.7388199152203984 
0 
0 
0 
0 
0 
0 
0 
0 
0.01269743596083 
-1.949322476533671 
0 
0 
0 
0 
0 
0 
0 
0 
0 
0 
0 
0 
-3.377696942399673 
0 
0 
0 
-3.012315642538614 
-0.3251544478147455 
0 
0 
0 
0 
0 
0 
-0.2784257303495948 
0 
0 
0 
0 
0 
0 
0.678855830302768 
0 
0 
0 
0 
0 
0 
0 
0 
-0.7747301294481261 
0 
0 
0 
0 
0 
-0.4769547117463268 
0 
-0.746414522330746 
0 
0 
0 
0 
0 
-0.9433505693287817 
0 
0 
0 
0 
0 
0 
0 
0 
0 
0 
0 
0 
0 
0 
0 
0 
0 
0 
0 
0 
0 
0 
0 
0 
0 
0 
0 
0 
0 
0 
0 
0 
0 
0 
0 
0 
0 
0 
0 
0 
0 
0 
0 
0 
0 
0 
-1.333251904936022 
-2.576631306910456 
0 
0 
0 
0 
-0.3843405866599781 
0 
0 
0 
0 
0 
0 
0 
0 
0 
0 
0 
0 
0 
0 
0 
0 
0 
0 
0 
0 
0 
0 
0 
0 
0 
0 
0 
0 
0 
0 
0 
0 
0 
0 
0 
0 
0 
-0.4980143577213776 
0 
0 
0 
0 
0 
0 
0 
0 
0.8328839978800148 
0 
0 
0 
0 
0 
0.9182410107023667 
1.280000256656541 
0 
0 
0 
-1.855052703345772 
0 
0 
0 
0 
0 
0 
0 
0.3167418020829426 
0 
0 
0 
0 
0 
0 
0 
0 
0 
0 
0 
0 
0 
0 
0 
0 
0 
0 
0 
0 
0 
0 
0 
0 
0 
0 
-0.6874465408802835 
0 
0 
0 
0 
0 
0 
0 
0 
0 
0 
0 
0 
0 
0 
0 
0 
0 
-0.7826705707080964 
0 
0 
0 
0 
0 
0 
0 
0 
0 
0 
0 
0 
0 
0 
0 
0 
0 
0 
0 
0 
0 
0 
-1.670211465276612 
0 
0 
0 
0 
0 
0 
0 
0 
0 
0 
0 
0 
0 
0 
0 
0 
0 
0 
0 
0 
0 
0 
0 
0 
0 
0 
0 
0 
0 
0 
0 
0 
1.961801186744281 
0 
0 
0.2600952631892639 
0 
-2.379648893044798 
0 
0 
0 
0 
0 
0 
0 
0 
0 
-1.8355093098616 
0 
0 
0 
0 
0 
0 
1.302002349615275 
0 
0 
0 
0 
0 
0 
0 
-1.338098283405083 
0 
0 
0 
0 
-2.042191076358503 
0 
0 
0 
-0.5448694502014029 
0 
0 
0 
0 
0 
0 
0 
0 
0 
0 
0 
0 
0 
0 
0 
0 
0 
0 
0 
0 
0 
0 
0 
0 
0 
0 
0 
-0.2805902755418567 
0 
0 
0 
0 
0 
0 
-1.109531286423008 
0 
0 
0 
0 
0 
0 
0 
0 
0 
0 
0 
0 
0 
0 
0 
0 
0 
0 
0 
0 
-2.218651685952897 
0 
-2.137380791815534 
0 
0 
0 
0 
0 
0 
0 
0 
-3.661265747176489 
-1.162020834003366 
0 
0 
0.5906932863948847 
0 
0 
0 
0 
0 
0 
0 
0 
0 
-1.94389146767431 
0 
0 
0 
0 
0 
0 
0 
0 
0 
0 
0 
0 
0 
0 
0 
0 
0 
0 
0 
0 
0 
0 
0 
0 
0 
0 
0 
0 
-1.499118743492497 
0 
0 
-0.9682199397852818 
0 
0 
0 
-0.06775403096591789 
0 
0 
0 
-0.1444447044270803 
0 
0 
0 
0 
0 
0 
0 
0 
0 
0 
0 
0 
0 
1.365696232245322 
0 
0 
0 
0 
0 
0 
0 
0 
0 
0 
0 
-2.313464309945495 
0 
0 
0 
0 
0 
0 
0 
0 
0 
0 
0 
0 
0 
0.10763002685999 
0 
0 
0 
0 
0 
0 
0 
0 
0 
0 
0 
0 
-0.9998453771883299 
0 
0 
0 
0 
0 
0 
0 
0 
0 
0 
0 
0 
0 
0 
0 
0 
0 
-1.176803853288931 
0 
0 
0 
0 
0 
0 
0 
0 
0 
0 
0 
0 
0 
0 
0 
0 
0 
0 
0 
0 
-6.013336653704432 
0 
0 
0 
0 
0 
0 
0 
0 
0 
0 
0 
0 
0 
0 
0 
0 
0 
0 
0 
0 
0 
0 
0 
0 
-1.125057327909026 
0 
0 
0 
0 
0 
0.09374276418052169 
0 
0 
0 
0 
0 
0 
0 
0 
0 
0 
0 
0 
0 
0 
0 
0 
-0.06934669755351149 
0 
0 
0 
0 
0 
0 
0 
0 
0 
0 
0 
0 
0 
0 
0 
0 
0 
0 
0 
0 
0 
0 
5.834001051159623 
0 
0 
0 
0 
0 
0 
0 
0 
0 
0 
0 
0 
0 
0 
0 
0 
0 
0 
0 
0 
0 
0 
0 
0 
0 
0 
0 
0 
0 
0 
0 
0 
0 
0 
0 
-0.4120970228308516 
0 
0 
0 
-0.5648478390745068 
0 
0 
0 
-2.261376099548994 
0 
0 
0 
0 
0 
0 
0 
0 
0 
0 
0 
0 
1.899301205113934 
0 
0 
0 
0 
1.300211506295101 
0 
0 
0 
0 
-0.0635540132409646 
0 
-1.40337895190824 
0 
0 
0 
0 
0 
0 
0 
0 
0 
0 
0 
0 
0 
0 
0 
0 
0 
0 
0 
-0.1652592499790158 
0 
0 
0 
0 
0 
0.5989494171937889 
0 
0 
0 
0 
0 
0 
0 
0 
0 
0 
0 
0 
0 
0 
0 
0 
0 
-0.1744084185677977 
0 
0 
0 
0 
0 
0 
0 
0 
0 
0 
0 
0 
0 
0 
0 
0.08456560187255049 
0.4573211869002741 
0 
0 
1.320168176530676 
0 
0 
0 
0 
0 
0 
0 
0 
0 
0 
0 
0 
0 
0 
0 
0 
0 
0 
0.9761746431715352 
0 
0 
0 
0 
0 
0 
0 
0 
0 
0 
0 
0 
0 
0 
0 
0 
0 
0 
0 
0 
0 
0 
0 
0 
1.27288425122931 
-2.081743344509635 
0 
0 
0 
0 
0 
0 
0 
0 
0 
0 
-0.5690230798837281 
0 
0 
0 
0.6435333161568924 
0 
0 
0 
0 
0 
-0.7529737225263281 
0.9789085970098969 
0 
0 
0 
0 
0 
0 
0 
-1.16402659395133 
0 
0 
0 
0 
0 
0 
0 
0 
-0.3970042281125232 
0 
0 
0 
0 
0 
0 
0 
0 
0 
0 
-0.3998452744920549 
0 
0 
0 
0 
0 
0 
0 
0 
0 
0 
0 
-2.046149511585803 
0 
0 
0 
0 
0 
0 
0 
0 
0 
0 
0 
-0.2474438147590929 
0 
-0.9977015261269681 
0.04496662913948625 
0.2875949053094055 
0 
0 
0 
0 
-1.886562600721494 
0 
-1.056069203388268 
-0.1085259858213188 
0 
0 
0 
0 
0 
0 
0 
0 
0 
0 
0 
0 
0 
0 
0 
0 
0 
0 
0 
0 
0.5755009951054877 
0 
0 
0 
0 
0 
0 
0 
0 
0 
0 
-0.07136917592386319 
0 
0 
0 
0 
0 
0 
0 
0 
0 
0 
0 
0 
0 
0 
0 
0 
0 
0.643407321807104 
0 
0 
-3.428356623904473 
0 
0 
0 
0 
-0.713355233299388 
0 
0 
0 
0 
0 
0 
0 
0 
0.1504800180152733 
0 
0 
0 
0 
0 
0 
0 
0 
0 
0 
0 
0 
0 
0 
0 
0 
0 
-0.6390650573583713 
0 
0 
0 
0 
0 
0 
0 
0 
0 
0 
0 
0 
0 
-1.912393937983442 
0 
0 
0 
0 
0 
0 
0 
0 
0 
0 
0 
0 
0 
0 
0 
0 
0 
0 
0 
0 
0 
0 
0 
0 
0 
0.438046693648139 
0 
0 
0 
0 
0 
0 
0 
0 
0 
-0.4340096416864683 
0 
0 
0 
0 
0 
0 
0 
0 
0 
0 
-0.8953140171933224 
0 
0 
0 
0 
0 
0 
0 
0 
0 
0 
0 
0 
0 
0 
0 
0 
0 
0 
0 
0 
0 
0 
0 
0 
0 
0 
0 
0 
0 
0 
0 
0 
-0.8830653045003248 
0 
0 
0 
0 
0 
0 
0 
0 
0 
0 
0 
0 
0 
0 
0 
0 
0 
0 
0 
0 
0 
0 
0 
-0.5521978911422926 
0 
0 
0 
0 
0 
0 
0 
0 
0 
0 
0 
0 
0 
0 
0 
0 
0 
0 
0 
0 
0 
0 
0 
0 
0 
0 
0 
0 
0 
0 
0 
0 
0 
0 
0 
0 
0 
0 
0 
0 
0 
0 
0 
0 
0 
0 
0 
0 
0 
0 
0 
0 
0 
0 
0 
0 
0 
0 
-1.856280288193763 
0 
0 
0 
0 
0 
0 
0 
-0.1581153317260672 
0 
2.105631844738884 
0 
0 
0 
0 
0 
0 
0 
0 
0 
0 
0 
0 
0 
0 
0 
0 
0 
0 
0 
1.240489135420421 
0 
0 
0 
0 
0 
0 
0 
0 
0 
0 
0 
0 
0 
0 
0 
0 
0 
0 
0 
0 
0 
0 
0 
0.9136231449515325 
0 
0 
0 
0 
0 
0 
0 
0 
0 
0 
0 
0 
0 
0 
0 
0 
0 
0 
0 
0 
0 
0 
0 
0 
0 
0 
0 
0 
0 
-2.201090292631361 
0 
0 
0 
-1.806776759645134 
0 
0 
0 
0 
0 
0 
0 
0 
0 
0 
0 
0 
-0.6383182967769848 
0 
0 
0 
0 
-0.159510426881386 
0 
0 
0 
0 
0 
0 
0 
0 
0 
-2.213588007027509 
0 
0 
0.7000281497132355 
0 
-0.2756859055181535 
0 
0 
0 
0 
-3.539366851916812 
0 
0 
0 
0 
0 
0 
0 
0.7888945980497075 
0 
0 
0 
0 
0 
1.06431737588893 
0 
0 
0 
0 
0 
2.003058514797953 
0 
0 
0 
0 
0 
0 
0 
0 
0 
-0.8642323946692815 
0 
0 
0 
0 
0 
0 
0 
0 
0 
0 
0 
0 
0 
0 
0 
0 
0 
0 
0 
0 
0 
0 
0 
0 
0 
0 
0 
0 
0 
0 
0 
0 
0 
0 
0 
0 
0 
0 
0 
0 
0 
0 
0 
0 
0 
0 
0 
0 
0 
0 
0 
0 
0 
0 
0 
0 
0 
0 
0 
0 
0 
0 
0 
0 
0 
0 
0 
0 
0 
0 
0 
-0.8709016865077424 
0 
0 
0 
0 
0 
0 
0 
0 
0 
0 
0 
0 
0 
0 
0 
0 
0 
0 
0 
0 
0 
0 
0 
0 
0 
0 
0 
0 
0 
0 
0 
0 
0 
0 
0 
0 
0 
0 
0 
0 
0 
0 
0 
0 
0 
0 
0 
0 
0 
0 
0 
0 
0 
0 
0 
0 
0 
0 
0 
0 
0 
0 
0 
0 
0 
0 
0 
0 
0 
0 
0 
0 
0 
0 
0 
0 
0 
0 
0 
0 
0 
0 
0 
0 
0 
-0.1975056802447814 
0 
-4.613059594034492 
2.742163354136479 
0 
0 
0 
0 
0 
0 
0 
0 
0 
0 
0 
0 
0 
0 
0 
0 
0 
0 
0 
0 
0 
-0.07153431628713014 
0 
0 
0 
0 
0 
0 
0 
0 
0 
0 
0 
0 
0 
0 
0 
0 
0 
0 
0 
0 
0 
0 
0 
0 
0 
0 
0 
0 
0 
0 
0 
0 
0 
0 
0 
0 
0 
0 
0 
0 
0 
0 
0 
0 
-2.194740269704193 
0 
0 
2.468904811341183 
0 
0 
-0.8645615246259973 
0 
-1.228902817487105 
1.733088589823827 
0 
0 
0 
0 
0 
0 
0 
0 
0 
-0.5278550425845711 
0.5004334064005714 
0 
0 
0 
0 
0 
0 
0 
0 
0 
0 
0 
0 
0 
0 
0 
0 
0 
0 
0 
0 
0 
0 
0 
0 
-6.794018892378693 
0 
0 
0 
-0.046476413366315 
0 
0 
0 
0 
0 
0 
0 
0 
0 
0 
-0.3358761412368914 
0 
0 
0 
0 
0 
0 
0 
0 
0 
0 
0 
0 
0 
0 
0 
0 
0 
0 
0 
0 
0 
0 
0 
0 
0 
0 
0 
0 
0 
0 
0 
0 
0 
0 
0 
0.1351098739165387 
0 
0 
0 
0 
0 
0 
0 
0 
0.0398431039919399 
0 
0 
0 
0 
0 
0 
0 
-0.06044998942577889 
0 
0 
0 
0 
0 
0 
0 
0 
0 
0 
0 
0 
0 
0 
0 
0 
0 
0 
0 
0 
0 
0 
0 
0 
0 
0 
0 
0 
0 
0 
0 
0 
0 
0 
0 
0 
0.06157631184238075 
0 
0 
0 
0 
-0.7223250019256003 
0 
0 
0 
0 
0 
0 
0 
0 
0 
0 
0 
0 
0 
0 
-0.4713809289658897 
0 
0 
0 
0 
0 
0 
0 
0 
0 
0 
0 
0 
0 
0 
0 
-0.1293661589802409 
0 
0 
0 
0 
0 
0 
-0.3467329460664881 
-2.302276439388372 
0 
0 
0 
0 
0 
0 
0 
0 
0 
0 
0 
0 
0 
0 
0 
0 
0.271633284612078 
0 
0 
0 
0 
0 
0 
0 
0 
0 
0 
0 
0 
0 
1.526730333913525 
0 
0 
0 
0 
0 
0 
0 
0 
0 
0 
0 
0 
0 
0 
0 
0 
0 
0 
0 
0 
0 
0 
-0.6237174912986462 
1.712388306695085 
0 
0 
0 
0 
0 
0 
0 
0 
-0.2337429413277106 
0 
0 
0 
0 
0 
0 
0 
0 
-0.100312426594313 
0 
0 
0 
0 
0 
0 
0 
0 
0 
0 
0 
0 
0 
0 
0 
0 
0 
0 
0 
0 
0 
0 
0 
0 
0 
0 
0 
0 
0 
0 
-1.877435920724147 
0 
0 
0 
0 
0 
0 
0 
0.2166036084212745 
0 
0 
0 
0 
0 
0 
0 
0 
0 
0 
0 
0 
0 
0 
0 
0 
0 
0 
0 
0 
0 
0 
0.9727621726835093 
0 
0 
0 
0 
0 
0 
0 
0 
0 
0 
0 
0 
0 
0 
0 
0 
0 
0 
0 
0 
0 
0 
0 
0 
0 
0 
0 
0 
0 
0 
0 
0 
0 
0 
0 
0 
0 
0 
0 
0 
0 
0 
0 
0 
0 
0 
0 
0 
-0.05841951044563144 
0 
0 
0 
0 
0 
-0.6962856859158586 
0 
0 
0 
0 
0 
0 
0 
0 
0 
0 
0 
0 
0 
0 
0 
0 
0 
0 
0 
0 
0 
0 
0 
0 
0 
0 
0 
0 
0 
0 
0 
0 
0 
0 
0 
0 
0 
0 
0 
0 
0 
0 
0 
0 
0 
0 
0 
0 
0 
0 
0 
-0.5768645247642061 
0 
0 
0 
0 
0 
0 
0 
0 
0 
0 
0 
-1.886150223691569 
0 
0 
0 
0 
0 
0 
0 
0 
0 
0 
0 
0 
0 
0 
0 
0 
0 
0 
0 
0 
0 
0 
0 
0 
0 
0 
0 
0 
0 
0 
0 
0 
0 
0 
0 
0 
0 
0 
0 
0 
0 
0 
0 
0 
0 
0 
0 
-0.7910128321640794 
0 
0 
0 
0 
0 
0 
0 
0 
0 
0 
0 
0 
0 
0 
-1.471927851237375 
0 
0 
0 
0 
0 
0 
0 
0 
0 
0 
0 
-0.1652136868428294 
0 
0 
0 
0 
0 
0 
0 
0 
0 
0 
0 
0 
0 
0 
0 
0 
0 
0 
0 
0 
0 
0 
0 
0 
0 
0 
0 
0 
0 
0 
0 
0 
0 
0 
0 
0 
0 
0 
0 
0 
0 
0 
0 
0 
0 
0 
0 
0 
0 
0 
0 
0 
0 
0 
0 
0 
0 
0 
0 
0 
0 
0 
0 
0 
0 
0 
0 
0 
0 
0 
0 
0 
0 
0 
0 
0 
0 
0 
0 
0 
0 
0 
-1.027457432956604 
0 
0 
0 
0 
0 
0 
0 
0 
0 
0 
0 
0 
0 
0 
0 
0 
0 
0 
0 
-0.6023559202912944 
0 
0 
0 
0 
0 
0 
0 
0 
0 
0 
0 
0 
0 
0 
0 
0 
0 
0 
0 
0 
0 
0 
-0.3652861804944864 
0 
0 
0.9435712874874573 
0 
0 
0 
0 
0 
0 
-0.1740109386093847 
0 
0 
0 
0 
0 
0 
0 
0 
0 
0 
0 
0 
0 
0 
0 
0 
0 
0 
0 
0 
0 
0 
0 
0 
0 
0 
0 
0 
0 
0 
0 
0 
0 
0 
0 
0 
0 
0 
0 
0 
1.734508974020378 
0 
0.8036611507012438 
0 
0 
0 
0 
-0.2972783463248664 
0 
0 
0 
0 
0 
0 
0 
0 
0 
0 
0 
0 
0 
0 
0 
0 
0 
0 
0 
0 
0 
-1.074958611364104 
0 
0 
0 
0.3191583745694075 
0 
0 
0 
0 
0 
0 
0 
0 
0 
0 
0 
0 
0 
0 
0 
0 
2.455280998865866 
-0.0889816540012994 
0 
0 
0 
0 
0 
0 
0 
0 
0 
0 
0.2841788265688927 
0 
-2.597508285996757 
-0.3454507264138892 
0 
0 
0 
0 
0 
-0.8757393698405923 
0 
0 
0 
0 
0 
0 
0 
0 
0 
0 
0 
0 
0 
0 
-0.3027089558287509 
0 
0 
0 
0 
0 
0 
0 
0 
0 
0 
0 
0 
0 
0 
0 
0 
0 
0 
0 
0 
0 
0 
0 
0 
0 
0 
0 
0 
0 
0 
0 
0 
0 
0 
0 
0 
0 
0 
0 
0 
0 
0 
0 
0 
-0.6086834003722963 
0 
0 
0 
0 
0 
2.84969882767007 
0.9031289348954774 
0 
0 
0 
0 
0 
0 
0 
0 
0 
0 
0 
0 
0 
0 
0 
0 
0 
0 
0 
0 
0 
0 
0 
0 
0 
0 
0 
0 
0 
0 
0 
0 
0 
0 
0 
0 
0 
-0.9307373280274738 
0 
0 
0 
0 
0 
0 
0 
0 
0 
0 
0 
0 
0 
0 
0 
0 
0 
0 
0 
0 
0 
1.777563392437923 
0 
0 
0 
0 
0 
0 
0 
-1.920841544646701 
0 
0 
0 
0 
0 
0 
0 
0 
0 
0 
0 
0 
0 
0 
0 
0 
0 
0 
0 
0 
1.413792081488854 
0 
0 
0 
0 
0 
0 
0 
-0.9936393399179782 
0 
0 
0 
0 
0 
0 
0 
0 
0 
0 
0.1293708091568598 
0 
0 
0 
0 
0 
0 
0 
0 
0 
0 
-0.1857994108836462 
0 
0 
0 
0 
0 
0 
0 
0 
0 
0 
0 
0 
0 
0 
0 
0 
0 
0 
0 
0 
0 
0 
0 
0 
0 
0 
0 
-0.14207756766769 
0 
0 
0 
0 
0 
0 
0 
0 
0 
0 
0 
0 
0 
0 
0 
0 
0 
0 
0 
0 
0 
0 
0 
0 
0 
0 
0 
0 
0 
0 
0 
0 
0 
0 
0 
0 
0 
0 
0 
0 
0 
0 
2.595308373018456 
0.7684014916886169 
0 
0 
0 
0 
0 
0 
0 
0 
0 
0 
0 
0 
0 
0 
0 
0 
1.029295100367262 
0 
0 
0 
0 
0 
0 
0 
0 
0 
0 
0 
0 
0 
0 
0 
0 
0 
0 
0 
0 
0 
0 
0 
0 
0 
0 
0 
0 
0 
0 
0 
0 
0 
0 
0 
0 
0 
0 
0 
0 
0 
0 
0 
0 
0 
0 
0 
0 
0 
0 
0 
0 
0 
-0.04263620607826768 
0 
0 
1.225378165314468 
0 
0 
0 
0 
0 
0 
0 
0 
0 
0 
0 
0 
0 
0 
0 
0 
0 
0 
0 
0 
0 
0 
0 
0 
0 
0 
0 
0 
0 
0 
0 
0 
0 
0 
0 
0 
0 
0 
0 
0 
0 
0 
0 
0 
0 
0 
0 
-1.435429771001203 
0 
0 
0 
0 
0 
0 
0 
0 
0 
0 
0 
0 
0 
0 
0 
0 
0 
0 
0 
-2.928003171517652 
0 
0 
-0.2162872830610559 
0 
0 
0 
0 
-2.922418345352222 
0 
0 
0 
0 
0 
0 
0 
0 
1.267227728653533 
0 
0 
0 
0 
0 
0 
0 
0 
0 
0 
0 
0 
0 
0 
0 
0 
0 
0 
0 
0 
0 
0 
0 
0 
0 
0 
0 
0 
0 
0 
0 
0 
0 
0 
0 
0 
0 
0 
0 
0.08696379759623873 
0 
0 
0 
-0.9876892913370707 
0 
0 
0 
0 
0 
0 
0 
0 
0 
0 
0 
0 
0 
-0.4851066159226939 
0 
0 
0 
0 
0.1643601034790629 
0 
0 
0 
0.8293623132823564 
0 
0 
0 
0 
0 
0 
0 
0 
0 
0 
0 
0 
0 
0 
0 
0 
0 
0 
0 
0 
0 
0 
0 
0 
0 
0 
0 
0 
0 
0 
0 
0 
0 
0 
0 
0 
0 
0 
0 
0 
0 
0 
0 
0 
0 
0 
0 
0 
0 
0 
0 
0 
0 
0 
0 
0 
0 
0 
0 
0 
0 
0 
0 
0 
0 
1.255574767949377 
0 
0 
0 
0 
0 
0 
0 
0 
0 
0 
0 
0 
0 
0 
0 
0 
0 
0 
0 
0 
0 
0 
0 
0 
0 
0 
0 
0 
0 
0 
0 
1.440615971318056 
0 
0 
0 
0 
0 
0 
0 
0 
0 
0 
0 
0 
0 
0 
0 
0 
0 
0 
0 
0 
0 
0 
0 
0 
0 
0 
0 
0 
0 
0 
0 
0 
0 
0 
0 
0 
0 
0 
0 
0 
0 
0 
0 
0 
0 
0 
0 
0 
0 
0 
0 
0 
0 
0 
0 
0 
0 
0 
0 
0 
0 
0 
0 
0 
0 
0 
0 
0 
0 
0 
0 
0 
0 
0 
0 
0 
0 
0 
0 
1.602531205650594 
0 
0 
0 
0 
0 
0 
0 
0 
0 
0 
0 
0 
0 
0 
0 
0 
0 
0 
0 
0 
0 
0 
0 
0 
0 
0 
0 
0 
0 
0 
0 
0 
0 
0 
0 
0 
0 
0 
0 
0 
0 
0 
0 
0 
0 
0 
0 
0 
0 
0 
0 
0 
0 
0 
0 
0 
0 
0 
0 
0 
0 
0 
2.476146835424468 
0 
0 
0 
0 
0 
0 
0 
1.342441808860869 
0 
0 
0 
0 
0 
0 
0 
0 
0 
0 
1.508304755544019 
0 
0 
0 
0 
0 
0 
0 
-2.997767050789546 
0 
0 
0 
0 
0 
0 
0 
0 
0 
0 
0 
0 
0 
0 
0 
0 
0 
0 
0 
0 
0 
0 
0 
0 
0 
0 
0 
0 
0 
0 
0 
0 
0 
0 
0 
0 
0 
0 
0 
0 
0 
0 
0 
0 
0 
0 
0 
0 
0 
0 
0 
0 
0 
0 
0 
0 
0.04403731063452201 
0 
-0.6795515375460279 
0 
0 
0 
0 
0 
0 
0 
0 
0 
0 
0 
0 
0 
0 
0 
0 
0 
0 
0 
0 
0 
0 
0 
0 
0 
0 
0 
0 
0 
0 
0 
0 
0 
0 
0 
0.8693506322254483 
0 
0 
0 
0 
0 
0 
0 
0 
0 
0 
0 
0 
0 
0 
0 
0 
0 
0 
0 
0 
0 
0.6793296114233497 
0 
0 
0 
0 
0 
0 
0 
0 
0 
0 
0 
0 
0 
0 
0 
0 
0 
0 
0 
0 
0 
0 
0 
0 
0 
0 
0 
0 
0 
0 
0 
0 
0 
0 
0 
0 
0 
0 
0 
0 
0 
0 
0 
0 
0 
0 
0 
0 
0 
0 
0 
0 
0 
0 
0 
0 
0 
0 
0 
0 
0 
0 
0 
-1.513406202362127 
0 
0 
0 
0 
0 
0 
0 
0 
0 
0 
0 
0 
0 
0 
0 
0 
0 
0 
0 
0 
0 
0 
0 
0 
0 
0 
0 
0 
0 
0 
0 
0 
0 
0 
0 
0 
0 
0 
0 
0 
0 
0 
0 
0 
0 
0 
0 
0 
0 
0 
0 
0 
-1.688756451503314 
0 
-0.09184018378927819 
0 
0 
-0.4264259262692471 
0 
0 
0 
0 
-1.536386123885443 
0 
0 
-0.317057835599797 
0 
0 
0 
0 
0 
0 
0 
0 
0 
0 
0 
0 
0 
0 
0 
0 
0 
-2.485004170417142 
0 
0 
0.5571818760785128 
0 
0 
0 
0 
0 
0 
0 
0 
0 
0 
0 
0 
0 
0 
0 
0.1507511953422888 
0 
0 
0 
0 
0 
0 
-0.2605743333874691 
0 
0 
0 
0 
0 
2.252143107842062 
0 
0 
0 
0 
0 
0 
0 
0 
0 
0 
0 
0 
0 
0 
0 
0 
0 
0 
0 
0 
0 
0 
0 
0 
0 
0 
0 
0 
0 
0 
0 
0 
0 
0 
0 
0 
0 
-2.004334658333155 
0 
0 
0 
0 
0 
0 
0 
0 
0 
0 
0 
0 
0 
0 
0 
0 
0 
0 
0 
0 
0 
0 
0 
0 
0 
0 
0 
0 
0 
0 
0 
0 
0 
0 
0 
0 
0 
0 
0 
0 
0 
0 
0 
0 
0 
0 
0 
0 
0 
0 
0 
0 
0 
0 
0 
0 
0 
0 
0 
0 
0 
0 
0 
0 
0 
0.6829778818521296 
0 
0 
0 
0 
0 
0 
0 
-0.393530029446989 
0 
0 
0 
0 
0 
0 
0 
0.235816193590552 
0 
0 
0 
0 
0 
0 
0 
0 
0 
0 
0 
0 
0 
0 
0 
0 
0 
0 
0 
0 
0 
0 
0 
0 
0 
0 
0 
0 
0 
0 
0 
0 
0 
0 
0 
0 
0 
0.2465568102804918 
0 
0 
0 
0 
0 
0 
0 
-2.062211878939027 
0 
0 
0 
0 
0 
0 
0 
0 
0 
0 
0 
0 
0 
0 
0 
0 
0 
0 
0 
0 
0 
0 
0 
0 
0 
0 
0 
0 
0 
0 
0 
0 
0 
0 
0 
0 
0 
0 
0 
0 
0.8741602098658119 
0 
0.2888013444770834 
0 
0 
0 
0 
0 
0 
0 
0 
0 
0 
0 
0 
0 
0 
0 
0 
0 
0 
0 
0 
2.493460736614886 
0 
-0.6041983243067669 
0 
0 
0 
0 
0 
0 
0 
0 
0 
0 
0 
0 
0 
0 
-2.38094776936599 
0 
0 
0 
0 
0 
0 
0 
0 
0 
0 
0 
0 
0 
0 
0 
0 
0 
0 
0 
0 
0 
0 
0 
0 
0 
0 
0 
0 
0 
0 
0 
0 
0 
0 
0 
0 
0 
0 
0 
0 
0 
0 
0 
0 
0 
0 
0 
1.784576230165318 
0 
0 
0 
0 
0 
0 
0 
0 
0 
0 
0 
0 
0 
0 
0 
0 
0 
0 
0 
0 
0 
0 
0 
0 
0 
0 
0 
0 
0 
0 
0 
0 
0 
0 
0 
0 
0 
0 
0 
0 
0 
0 
0 
0 
0 
0 
0 
0 
0 
0 
0 
0 
0 
0 
0 
0 
0 
0 
0 
0 
0 
0 
0 
0 
0 
0 
0 
0 
0 
0 
0 
0 
0 
0 
0 
0 
0 
0 
0 
0 
0 
0 
0 
0 
0 
0 
0 
0 
0 
0 
0 
0 
0 
0 
0 
0 
0 
0 
0 
0 
0 
0 
0 
0 
0 
0 
0 
0 
0 
0 
0.2685756043453225 
0 
0 
0 
0 
0 
0 
0 
0 
0 
0 
0 
0 
0 
0 
0 
0 
0 
0 
0 
0 
0 
0 
0 
0 
0 
0 
0 
0 
0 
0 
0 
0 
0 
-0.1831275774369748 
0 
0 
0 
0 
0 
0 
0 
0 
0 
0 
0 
0 
0 
0 
0 
0 
0 
0 
0 
0 
0 
0 
-0.8750394221589413 
0 
0 
0 
0 
0 
0 
0 
0 
0 
0 
0 
0 
-0.560550361377857 
0 
0 
0 
0 
0 
0 
0 
0 
0 
0 
0 
0 
0 
0 
0 
0 
0 
0 
0 
0 
0 
0 
0 
0 
0 
0 
0 
0 
0 
0 
0 
0 
0 
0 
0 
0 
0 
0 
0 
0 
0 
0 
0 
0 
0 
0 
0 
0 
0 
0 
0 
0 
0 
0 
0 
0 
-0.9407747887099438 
0 
0 
0 
0 
0 
0 
0 
0 
0 
0 
0 
0 
0 
0 
0 
0 
0 
0 
0 
0.7259937713964592 
0 
0 
0 
0 
0 
0 
0 
0 
0 
0 
0 
0 
0 
0 
0 
0 
0 
0 
0 
0 
0 
0 
0 
0 
0 
0 
0 
0 
0 
0 
0 
0 
0 
0 
0 
0 
0 
0 
0 
0 
0 
0 
0 
0 
0 
0 
0 
0 
0 
0 
0 
0 
0 
0 
0 
0 
0 
0 
0 
0 
0 
0 
0 
0 
0 
0 
0 
0 
0 
0 
0 
0 
0 
0 
0 
0 
0 
0 
0 
0 
0 
0 
0 
0 
0 
0 
0 
0 
0 
0 
0 
0 
0 
0 
0 
0 
0 
0 
0 
0 
0 
0 
0 
0 
0 
0 
0 
0 
0 
0 
0 
0 
0 
0 
0 
0 
0 
0 
0 
0 
0 
0 
0 
0 
0 
0 
0 
0 
0 
0 
0 
0 
0 
0 
0 
0 
0 
0 
0 
0 
0 
0 
0 
0 
0 
0 
0 
0 
0 
0 
0 
0 
0 
0 
0 
0 
1.157281332688356 
0 
0 
0 
0 
0 
0 
0 
0 
0 
0 
0 
0 
0 
0 
0 
0 
0 
0 
0 
0 
0 
0 
0 
0 
0 
0 
0 
0 
0 
0 
0 
0 
0 
0 
0 
0 
0 
0 
0 
0 
0 
0 
0 
0.998070631967462 
0 
0 
0 
0 
0 
0 
0 
0 
0 
0 
0 
0 
0 
0 
0 
0 
0 
0 
0 
0 
0 
0 
0 
0 
0 
0 
0 
0 
0 
0 
0 
0 
0 
0 
0 
0 
0 
0 
0 
0 
0 
0 
0 
0 
0 
-0.1481202363914001 
0 
0 
0 
0 
0 
0 
0 
0 
-0.8270004813580295 
0 
0 
0 
0 
0 
0 
0 
-1.285246487086889 
0 
0 
0 
0 
0 
0 
0 
0 
0 
0 
0 
0 
0 
0 
0 
0 
0 
0 
0 
0 
0 
0 
0 
0 
0 
0 
0 
0 
0 
0 
0 
0 
0 
0 
0 
0 
0 
0 
0 
0 
-0.5320973290555356 
0 
0 
0 
0 
0 
0 
0 
0 
0 
0 
0 
0 
0 
0 
0 
0 
0 
0 
0 
0 
0 
0 
0 
0 
0 
0 
0 
0 
0 
0 
0 
0 
0 
0.7654202717038857 
0 
0 
0 
0 
0 
0 
0 
0 
0 
0 
0 
0 
0 
0 
0 
0 
0 
0 
0 
0 
0 
0 
0 
0 
0 
0 
0 
0 
0 
0 
0 
0 
0 
0 
0 
0 
0 
0 
0 
0 
0 
0 
0 
0 
0 
0 
0 
0 
0 
0 
0 
0 
0 
0 
0 
-0.2190604402114723 
0 
0 
0 
0 
0 
0 
0 
0 
0 
0 
0 
0 
0 
-0.1589423360216005 
0 
0 
0 
0 
0 
0 
0 
0 
0 
0 
0 
0 
0 
0 
0 
0 
0 
0 
0 
0 
0 
0 
0 
0 
0 
0 
0 
0 
0 
0 
0 
0 
0 
0 
0 
-1.107946019360336 
0 
0 
0 
0 
0 
0 
0 
0 
0 
0 
0 
0 
0 
0 
0 
0 
0 
0 
0 
0 
0 
0 
0 
0 
0 
0 
0 
0 
0 
0 
0 
0 
0 
0 
0 
0 
0 
0 
0 
0 
0 
0 
0 
0 
0 
0 
0 
0 
0 
0 
0 
0 
0 
0 
0 
0 
0 
0 
0 
0 
0 
0 
0 
0 
0 
0 
0 
0 
0 
0 
0 
0 
-0.06848167922231989 
0 
0 
0 
0 
0 
0 
0 
0 
0 
0 
0 
0 
0 
0 
0 
0 
0 
0 
0 
0 
0 
0 
0 
0 
0 
0 
0 
0 
0 
0 
0 
0 
-0.6367913343667926 
0 
0 
0 
0 
0 
0 
0 
0 
0 
0 
0 
0 
0 
0 
0 
0 
0 
1.335814218507728 
0 
0 
0 
0 
0 
0 
0 
2.662838096601798 
0 
0 
0 
0 
0 
0 
0 
-6.154723864651992 
0 
0 
0 
0 
0 
0 
0 
0 
0 
0 
0 
0 
0 
0 
0 
0 
0 
0 
0 
0 
0 
0 
0 
0 
0 
0 
0 
0 
0 
0 
0 
0 
0 
0 
0 
0 
0 
0 
0 
0 
0 
0 
0 
0 
0 
0 
0 
0 
0 
0 
0.4718416347375818 
0 
0 
0 
0 
0 
0 
0 
0 
0 
0 
0 
0 
0 
0 
0 
0 
0 
0 
0 
0 
0 
0 
0 
0 
0 
0 
0 
0 
0 
0 
0 
0 
0 
0 
0 
0 
0 
0 
0 
0 
0 
0 
0 
0 
0 
0 
0 
0 
0 
0 
0 
0 
0 
0 
0 
0 
0 
0 
0 
0 
0 
0 
0 
0 
0 
0 
0 
0 
0 
0 
0 
0 
0 
0 
0 
0 
0 
0 
0 
0 
0.4590285220141199 
0 
0 
0 
0 
0 
0 
0 
0 
0 
0 
0 
0 
0 
0 
0 
0 
0 
0 
0 
0 
0 
0 
0 
0 
0 
0 
-2.262168908323975 
0 
0 
0.593762764430768 
0 
0 
0 
0 
0 
0 
0 
0 
0 
0 
0 
0 
0 
0 
0 
0 
-0.9974402369746327 
0 
0 
0 
0 
0 
0 
0 
0 
0 
0 
0 
-0.3811616367390963 
0 
0 
0 
0 
0 
0 
0 
0 
0 
0 
0 
0 
0 
0 
0 
0 
0 
0 
0 
0 
0 
0 
0 
0 
0 
0 
0 
0 
0 
0 
0 
0 
0 
0 
0 
0 
0 
0 
0 
0 
0 
0 
0 
0 
0 
0 
0 
0 
0 
0 
0 
0 
0 
0 
0 
0 
0 
0 
0 
0 
0 
0 
0 
0 
0 
0 
0 
0 
0 
0 
0 
0 
0 
-0.2423895273036076 
0 
0 
0 
0 
0 
0 
0 
0 
0 
0 
0 
0 
0 
0 
0 
0 
0 
0 
0 
0 
0 
0 
0 
0 
0 
0 
0 
0 
0 
0 
0 
0 
0 
0 
0 
0 
0 
0 
0 
0 
0 
0 
0 
0 
0 
0 
0 
0 
0 
0 
0 
0 
0 
0 
0 
0 
0 
0 
0 
0 
0 
0 
0 
0 
0 
0 
0 
0 
0 
0 
0 
0 
0 
0 
0 
0 
0 
0 
0 
0 
0 
0 
0 
0 
0 
0 
0 
0 
0 
0 
0 
0 
0 
0 
0 
0 
0 
0 
0 
0 
0 
-1.221995350520421 
0 
0 
0 
0 
0 
0 
0 
0 
0 
0 
0 
0 
0 
0 
0 
0 
0 
0 
0 
0 
0 
0 
0 
0 
0 
0 
0 
0 
0 
0 
0 
0 
0 
0 
0 
0 
0 
0 
0 
0 
0 
0 
0 
0 
0 
0 
0 
0 
0 
0 
0 
0 
0 
0 
0 
0 
0 
0 
0 
0 
0 
0 
0 
0 
0 
0 
0 
0 
0 
0 
0 
0 
0 
0 
0 
0.5069474523602986 
0 
0 
0 
0 
0 
0 
0 
0 
0 
0 
0 
0 
0 
0 
0 
0 
0 
0 
0 
0 
0 
0 
0 
0.002971406269114777 
0.5367771098659699 
0 
0 
0 
0 
0 
0 
0 
0 
0 
-0.8042229294642516 
0 
0 
0 
0 
0 
0 
0 
0 
0 
0 
0 
0 
0 
0 
0 
0 
0 
0 
0 
0 
0 
0 
0 
0 
0 
0 
0 
0 
0 
0 
0 
0 
0 
0 
0 
0 
0 
0 
0 
-1.287188952034282 
0 
0 
0 
0 
0 
0 
0 
0 
0 
0 
0 
0 
0 
0 
0 
-0.1323509317611665 
0 
0 
0 
0 
0 
0 
0 
0 
0 
0 
0 
0 
0 
0 
0 
0 
0 
0 
0 
0 
0 
0 
0 
0 
0 
0 
0 
0 
0 
0 
0 
0 
0 
0 
0 
0 
0 
-1.390646356350151 
0 
0 
0 
0 
0 
0 
0 
0 
0 
0 
0 
0 
0 
0 
0 
0 
0 
0 
0 
0 
0 
0 
0 
0 
0 
0 
0 
0 
0 
0 
0 
0 
0 
0 
0 
0 
0 
0 
0 
0 
0 
0 
0 
1.649085556305643 
0 
0 
0 
0 
0 
0 
0 
0 
0 
0 
0 
0 
2.028943272311654 
0 
0 
0 
0 
0 
0 
0 
0 
0 
0 
0 
0 
0 
0 
0 
0 
0 
0 
0 
0 
-0.9381961163034973 
0 
0 
0 
0 
0 
0 
0 
0 
0 
0 
0 
0 
-1.419620028199725 
0 
0 
0 
0 
0 
0 
0 
0 
0 
0 
0 
0 
0 
0 
0 
0 
0 
0 
0 
0 
0 
0 
0 
0 
0 
0 
0 
0 
0 
0 
0 
0 
0 
0 
0 
0 
0 
0 
0 
-1.063379327622898 
0 
0 
0 
0 
0 
0 
0 
0 
0 
0 
0 
0 
0 
0 
0 
0 
0 
0 
0 
0 
0 
0 
0 
0 
0 
0 
0 
0 
0 
0 
0 
0 
0 
0 
0 
0 
0 
0 
0 
0 
0 
0 
0 
0 
0 
0 
0 
0 
0 
0 
0 
0 
0 
0 
0 
0 
0 
0 
0 
0 
0 
0 
0 
0 
0 
0 
0 
0 
0 
0 
0 
0 
0 
0 
0 
0 
0 
0 
0 
0 
0 
0 
0 
0 
0 
0 
0 
0 
0 
0 
0 
0 
0 
0 
0 
0 
-0.3580968975984378 
0 
0 
0 
0 
0 
0 
0 
0 
0 
0 
0 
0 
0 
0 
0 
0 
0 
0 
0 
0 
0 
0 
0 
0 
0 
0 
0 
0 
0 
0 
0 
0 
0 
0 
0 
0 
0 
0 
0 
0.1469667129042475 
0 
0 
0 
0 
0 
0 
0 
0 
0 
0 
0 
0 
0 
0 
0 
-0.3919431278348808 
0 
0 
0 
0 
0 
0 
0 
0 
0 
0 
0 
0 
0 
0 
0 
0 
0 
0 
0 
0 
0 
0 
0 
0 
0 
0 
0 
0 
0 
0 
0 
0 
0 
0 
0 
0 
0 
0 
0 
0 
0 
0 
0 
0 
0 
0 
0 
0 
0 
0 
0 
0 
0 
0 
0 
0 
0 
0 
0 
0 
0 
0 
0 
0 
0.135160094216421 
0.7873929564853791 
0 
0 
0 
0 
0 
0 
0 
0 
0 
0 
0 
0 
0 
0 
0 
0 
-1.07338020018853 
0 
0 
0 
0 
0 
0 
0 
0 
0 
0 
0 
0 
0 
0 
0 
0 
0 
0 
0 
0 
0 
0 
0 
0 
0 
0 
0 
0 
0 
0 
0 
0 
0 
0 
0 
0 
0 
0 
0 
0 
0 
0 
0 
0 
0 
0 
0 
0 
0 
0 
0 
0 
0 
0 
0 
0 
0 
0 
0 
0 
0 
0 
0 
0 
0 
0 
0 
0 
0 
0 
0 
0 
0 
0 
0 
0 
0 
0 
0 
0 
0 
0 
0 
0 
0 
0 
0 
0 
0 
0 
0 
1.995535161475143 
0 
0 
0 
0 
0 
0 
0 
0 
0 
0.7454151688428716 
0 
0 
-1.257235112626328 
0 
0 
0 
0 
0 
0 
0 
0 
0 
1.871342086477486 
0 
0 
0 
0 
0 
0 
0 
0 
0 
0 
0 
0 
0 
0 
0 
0 
0 
0 
0 
0 
0 
0 
0 
0 
0 
0 
0 
0 
0 
0 
0 
0 
0 
0 
0 
0 
0 
0 
0 
0 
0 
0 
0 
0 
0 
0 
0 
0 
0 
0 
0 
0 
0 
0 
0 
0 
0 
0 
0 
0 
0 
0 
0 
0 
0 
0 
0 
0 
0 
0 
0 
0 
0 
0 
0 
0 
0 
0 
0 
0 
0 
0 
0 
0 
0 
0 
0 
0 
0 
0 
0 
0 
0 
0 
0 
0 
0 
0 
0 
0 
0 
0 
0 
0 
0 
0 
0 
0 
0 
0 
0 
0 
0 
0 
0 
0 
0 
0 
0 
0 
0 
0 
0 
0 
0 
0 
0 
0 
0 
0 
0 
0 
0 
0 
0 
0 
0 
0 
0 
0 
0 
0 
0 
0 
0 
0 
0 
0 
0 
0 
0 
0 
0 
0 
0 
0 
0 
0 
0 
0 
0 
0 
0 
0 
0 
0 
0 
0 
0 
0 
0 
0 
0 
0 
0 
0 
0 
0 
0 
0 
0 
0 
0 
0 
0 
0 
0 
0 
0 
0 
0 
0 
0 
0 
0 
0 
0 
0 
0 
0 
0 
0 
0 
0 
0 
0 
0 
0 
0 
0 
0 
0 
0 
0 
0 
0 
0 
0 
0 
0 
0 
0 
0 
0 
0.07489573376449499 
0 
0 
0 
0 
0 
0 
0 
0 
0 
0 
0 
0 
0 
0 
0 
0 
0 
0 
0 
-0.9221416217792881 
0 
0 
0 
0 
0 
0 
0 
0 
0 
0 
0 
0 
0 
0 
0 
0 
0 
0 
0 
0 
0 
0 
0 
0 
0 
0 
0 
0 
0 
0 
0 
0 
0 
0 
0 
0 
0 
0 
0 
0 
0 
0 
0 
0 
0 
0 
0 
0 
0 
0 
0 
0 
0 
0 
0 
0 
0 
0 
0 
0 
0 
0 
0 
0 
0 
0 
0 
0 
0 
0 
0 
0 
0 
0 
0 
0 
0 
0 
0 
0 
0 
0 
0 
0 
0 
0 
0 
0 
0 
0 
0 
0 
0 
0 
0 
0 
0 
0 
0 
0 
0 
0 
0 
0 
0 
0 
0 
0 
0 
0 
0 
0 
0 
0 
0 
0 
0 
0 
0 
0 
-2.205710933638587 
0 
0 
0 
0 
0 
0 
0 
0 
0 
0 
0 
0 
0 
0 
0 
0 
0 
0 
0 
0 
0 
0 
0 
0 
0 
0 
0 
0 
0 
0 
0 
0 
-0.2951263127731157 
0 
0 
0 
0 
0.3413110052985469 
0 
0 
0 
0 
0 
0 
0 
0 
0 
0 
0 
0 
0 
0 
0 
0 
0 
0 
0 
0 
0 
0 
0 
0 
0.4228637721850242 
0 
0 
0 
0 
0 
0 
0 
0 
0 
0 
0 
0 
0 
0 
0 
0 
0 
0 
0 
0 
0 
0 
0 
0 
0 
0 
0 
0 
0 
0 
0 
0 
0 
0 
0 
0 
0 
0 
0 
0 
0 
0 
0 
0 
0 
0 
0 
0 
0 
0 
0 
0 
0 
-1.231701378260826 
0 
0 
0 
0 
0 
-0.3081011903594793 
0 
0 
0 
0 
0 
0 
0 
0 
0 
0 
0 
0 
0 
0 
0 
0 
0 
0 
0 
0 
0 
0 
0 
0 
0 
0 
0 
0 
0 
0 
0 
0 
0.2752562356305596 
0 
0 
0 
0 
0 
0 
0 
0 
0 
0 
0 
0 
0 
0 
0 
0 
0 
0 
0 
0 
0 
0 
0 
-0.3021496571613805 
0.386078273585059 
0 
0 
0 
0 
0 
0 
0 
0 
0 
0 
0 
0 
0 
0 
0 
0.6009774737973378 
0 
0 
0 
0 
0 
0 
0 
0 
0 
0 
0 
0 
0 
0 
0 
0 
0 
0 
1.445860874364652 
0 
0 
0 
1.401211214565018 
0 
0 
0 
0 
0 
0 
0 
0 
0 
0 
0 
0 
0 
4.46695335564521 
0 
0 
0 
0 
0 
0 
0 
0 
0 
0 
0 
0 
0 
0 
0 
0 
0 
0 
0 
0 
0 
0 
0 
0 
0 
0 
0 
0 
0 
0 
0 
0 
0 
0 
0 
0 
0 
0 
0 
0 
0 
0 
0 
0 
0 
0 
0 
0 
0 
0 
0 
0 
0 
0 
0 
0 
0 
0 
0 
0 
0 
0 
0 
0 
0 
0 
0 
0 
0 
0 
0 
0 
0 
0 
0 
0 
0 
0 
0 
0 
0 
0 
0 
0 
0 
0 
0 
0 
0 
0 
0 
0 
0 
0 
0 
0 
0 
0 
0 
0 
0 
0 
0 
0 
0 
0 
0 
0.7794678109398777 
0 
0 
0 
0 
0 
0 
0 
0 
0 
0 
0 
0 
0 
0 
0 
0 
0 
0 
0 
0 
0 
0 
0 
0 
0 
0 
0 
0 
0 
0 
0 
0 
0 
0 
0 
0 
0 
0 
0 
0 
0 
0 
0 
0 
0 
0 
0 
-0.3598322416921185 
0 
0 
0 
0 
0 
0 
0 
0 
0 
0 
0 
0 
0 
0 
0 
0 
0 
0 
0 
0 
0 
0 
0 
0 
0 
0 
0 
0 
0 
0 
0 
0 
0 
0 
0 
0 
0 
0 
-1.253648596451157 
0 
0 
0 
0 
0 
0 
0 
0.5976402604971945 
0 
0 
0 
0 
0 
0 
0 
0 
0 
0 
0 
0 
0 
0 
0 
0 
0 
0 
0 
0 
0 
0 
0 
0 
0 
0 
0 
0 
0 
0 
0 
0 
0 
0 
0 
0 
0 
0 
6.070905730220009 
0 
0 
0 
0 
0 
0 
0 
0 
0 
0 
0 
0 
0 
0 
0 
0 
0 
0 
0 
0 
0 
0 
0 
0 
0 
0 
-0.7745881637065644 
0 
0 
0 
0 
0 
0 
0 
0 
0 
0 
0 
0 
0 
0 
0 
0 
0 
0 
0 
0 
0 
0 
0 
0 
0 
0 
0 
0 
0 
-4.958346923257418 
0 
0 
0 
0 
0 
0 
0 
0 
0 
0 
0 
0 
0 
0 
0 
0 
0 
0 
0 
0 
0 
0 
0 
0 
0 
0 
1.722668996161567 
0 
0 
0 
0 
0 
0 
0 
0 
0 
0 
0 
0 
0 
0 
0 
0 
-1.179097090520814 
0 
0 
0 
0 
0 
0 
0 
0 
0 
0 
0 
0 
0 
0 
0 
0 
0 
0 
0 
0 
0 
0 
0 
0 
0 
0 
0 
0 
0 
0 
0 
0 
0 
0 
0 
0 
0 
0 
0 
0 
0 
0 
0 
0 
0 
0 
0 
0 
0 
0 
0 
0 
0 
0 
0 
0 
0 
0 
0 
0 
0 
0 
0 
0 
0 
0 
0 
0 
0 
0 
0 
0 
0 
0 
0 
0 
-0.2969566574158853 
0 
0 
0 
0 
0 
0 
0 
0 
0 
0 
0 
0 
0 
0 
0 
0 
0 
0 
0 
0 
0 
0 
0 
0 
0 
0 
0 
0 
0 
0 
0 
0 
0 
0 
0 
0 
0 
0 
0 
0 
0 
0 
0 
0 
0 
0 
0 
0 
0 
0 
0 
0 
0 
0 
0 
0 
0 
0 
0 
0 
0 
0 
0 
0 
0 
0 
0 
0 
0 
0.1297247041819384 
0 
0 
0 
0 
0 
0 
0 
0 
0 
0 
0 
0 
0 
0 
0 
0 
0 
0 
0 
0 
0 
0 
0 
0 
0 
0 
0 
0 
0 
0 
0 
0 
0 
0 
0 
0 
0 
0 
0 
0 
0 
0 
0 
0 
0 
0 
0 
0 
0 
0.9716023439880304 
0 
0 
0 
0 
0 
0 
0 
0 
0 
0 
0 
0 
0 
0 
0 
0 
0 
0 
0 
0 
0 
0 
0 
0 
0 
0 
0 
0 
0 
0 
0 
0 
0 
0 
0 
0 
0 
0 
0 
0 
0 
0 
0 
0 
0 
0 
0 
0 
0 
0 
0 
0 
0 
0 
0 
0 
0 
0 
0 
0 
0 
0 
0 
0.981603082403157 
0 
0 
0 
0 
0 
0 
0 
0 
0 
0 
0 
0 
0 
0 
0 
0 
0 
0 
0 
0 
0 
0 
0 
0 
0 
0 
0 
0 
0 
0 
0 
0 
0 
0 
0 
0 
0 
0 
0 
0 
0 
-0.4336987281597725 
0 
0 
0 
0 
0 
0 
0 
0 
0 
0 
0 
-0.3539547961011253 
0 
0 
0 
-0.538629407385503 
0 
0 
0 
0 
0 
0 
0 
0 
0 
0 
0 
0 
0 
0 
0 
0 
0 
0 
0 
0 
0 
0 
0 
0 
0.2106559857559839 
0 
-0.3482549036266161 
0 
0 
0 
0 
0 
0 
0 
0 
0 
0 
0 
0 
0 
0 
0 
0 
0 
0 
0 
0 
0 
0 
0 
0 
0 
0 
0 
0 
0 
0 
0 
0 
0 
0 
0 
0 
0 
0 
0 
0 
0 
0 
0 
0 
0 
0 
0 
0 
0 
0 
0 
0 
0 
0 
0 
0 
0 
0 
0 
0 
0 
0 
0 
0 
0 
0 
0 
0 
0 
0 
0 
0 
0 
0 
0 
0 
0 
0 
0 
0 
0 
0 
0 
0 
0 
0 
0 
0 
0 
0 
0 
0 
0 
0 
0 
0 
1.388098247302481 
0 
0 
0 
0 
0 
0 
0 
0 
0 
0 
0 
0 
0 
0 
0 
0 
0 
0 
0 
0 
0 
0 
0 
0 
0 
0 
0 
0 
0 
0 
0 
0 
0 
0 
0 
0 
0 
0 
0 
0 
0 
0 
0 
0 
0 
0 
0 
0 
0 
0 
0 
0 
0 
0 
0 
0 
0 
0 
0 
0 
0 
0 
0 
0 
0 
0 
0 
0 
0 
0 
0 
0 
0 
0 
0 
0 
0 
0 
0 
0 
0 
0 
0 
0 
0 
0 
0 
0 
0 
0 
-3.636388987041963 
0 
0 
0 
0 
0 
0 
0 
0 
0 
0 
-0.5391398627385795 
0 
0 
0 
0 
0 
0 
0 
0 
0 
0 
-0.7483489511853756 
0 
0 
0 
0 
0 
0 
0 
0 
0 
0 
0.1732347860701093 
0 
0 
0 
0 
0 
0 
0 
0 
0 
0 
0 
0 
0 
0 
0 
0 
0 
0 
0 
0 
0 
0 
0 
0 
0 
0 
0 
0 
0 
0 
0 
0 
0 
0.1746833581729273 
0 
0 
0 
0 
0 
0 
0 
0 
0 
0 
0 
0 
0 
0 
0 
0 
0 
0 
0 
0 
0 
0 
0 
0 
0 
0 
0 
0 
0.1721369307442023 
0 
0 
0 
0 
0 
0 
0 
0 
0 
0 
0 
0 
0 
0 
0 
0 
0 
0 
0 
0 
0 
0 
0 
0 
0 
0 
0 
0 
0 
0 
0 
0 
0 
0 
0 
0 
0 
0 
0 
0 
0 
0 
0 
0 
0 
0 
0 
0 
0 
0 
0 
0 
0 
0 
0 
0 
0 
0 
0 
0 
0 
0 
0 
0 
0 
0 
0 
0 
0 
0 
0 
0 
0 
0 
0 
0 
0 
0 
0 
0 
0 
0 
0 
0 
0 
0 
0 
0 
0 
0 
0 
0 
0 
0 
0 
0 
0 
0 
0 
0 
0 
0 
0 
0 
0 
0 
0 
0 
0 
0 
0 
0 
0 
0 
0 
0 
0 
0 
0 
0 
0 
0 
0 
0 
0 
0 
0 
0 
0 
0 
0 
0 
0 
0 
0 
0 
0 
-0.6932506557042546 
0 
0 
0 
0 
0 
0 
0 
0 
0 
0 
1.113169074016027 
0 
0 
0 
0 
0 
0 
0 
0 
0 
0 
0 
0 
0 
3.062094357519853 
0 
0 
0 
0 
0 
0 
0 
0 
0 
0 
0 
0 
0 
0 
0 
0 
0 
0 
0 
0 
0 
0 
0 
0 
0 
0 
0 
0 
0 
0 
0 
0 
-0.730712948705982 
0 
0 
0 
0 
0 
0 
0 
0 
0 
0 
0 
0 
0 
0 
0 
0 
0 
0 
0 
0 
0 
0 
0 
0 
0 
0 
0 
0 
0 
0 
0 
0 
-1.327198087323456 
0 
0 
0 
0 
0 
0 
0 
0 
0 
0 
0 
0 
0 
0 
0 
0 
0 
0 
0 
0 
0 
0 
0 
0 
0 
0 
0 
0 
0 
0 
0 
0 
0 
0 
0 
0 
0 
0 
0 
0 
0 
0 
0 
0 
0 
0 
0 
0 
0 
0 
0 
0 
0 
0 
0 
0 
0 
0 
0 
0 
0 
0 
0 
0 
0 
0 
0 
0 
0 
0 
0 
0 
0 
0 
0 
0 
0 
0 
0 
0 
0 
0 
0 
0 
0 
0 
0 
0 
0 
0 
0 
0 
0 
0 
0 
0 
0 
0 
0 
0 
0 
0 
0 
0 
0 
0 
0 
0 
0 
0 
0 
0 
0 
0 
0 
0 
0 
0 
0 
0 
0 
0 
0 
0.860722156004148 
0 
0 
0 
0 
0 
0 
0 
0 
0 
0 
0 
0 
0 
0 
0 
0 
0 
0 
0 
0 
0 
0 
0 
0 
0 
0 
0 
0 
0 
0 
0 
0 
0 
0 
0 
0 
0 
0 
0 
0 
0 
0 
0 
0 
0 
0 
0 
0 
0 
0 
0 
0 
0 
0 
0 
0 
0 
0 
0 
0 
0 
0 
0 
0 
0 
0 
0 
0 
0 
0 
0 
0 
0 
0 
0 
0 
0 
0 
0 
0 
0 
0 
0 
0 
0 
-0.4323895783628991 
0 
0 
0 
0 
0 
0 
0 
0 
0 
0 
0 
0 
0 
0 
0 
0 
0 
0 
0 
-2.654609528837072 
0 
0 
0 
0 
0 
0 
0 
0 
0 
0 
0 
0 
0 
0 
0 
-4.186118388289272 
0 
0 
0 
0 
1.680317946416077 
0 
0 
0 
0 
0 
0 
0 
0 
0 
0 
0 
0 
0 
0 
0 
2.572612295659201 
0 
0 
0 
0 
0 
0 
0 
0 
0 
0 
0 
0 
0 
0 
0 
0 
0 
0 
0 
0 
0 
0 
0 
0 
0 
0 
0 
0 
0 
0 
0 
0 
0 
0 
0 
0 
0 
0 
0 
0 
0 
0 
0 
0 
0 
0 
0 
0 
0 
0 
0 
0 
0 
0 
0 
0 
0 
0 
0 
0 
0 
0 
0 
0 
0 
0 
0 
0 
0 
0 
0 
0 
0 
0 
0 
0 
0 
0 
0 
0 
-0.3441167959180816 
0 
0 
0 
0 
0 
0 
0 
0 
0 
0 
0 
0 
0 
0 
0 
0 
0 
0 
0 
0 
0 
0 
0 
0 
0 
0 
0 
0 
0 
0 
0 
0 
0 
0 
0 
0 
0 
0 
0 
0 
0 
0 
0 
0 
0 
0 
0 
0 
0 
0 
0 
0 
0 
0 
0 
0 
0 
0 
0 
0 
0 
0 
0 
0 
0 
0 
0 
0 
0 
0 
0 
0 
0 
0 
0 
0 
0 
0 
0 
0 
0 
0 
0 
0 
0 
0 
0 
0 
0 
0 
0 
0 
0 
0 
0 
0 
0 
0 
0 
0 
0 
0 
0 
0 
0 
0 
0 
0 
0 
0 
0 
0 
0 
0 
0 
0 
0 
0 
0 
0 
0 
0 
0 
0 
0 
0 
0 
0 
0 
0 
0 
0 
0 
0 
0 
0 
0 
0 
0 
0 
0 
0 
0 
0 
0 
0 
0 
0 
0 
0 
0 
0 
0 
0 
0 
0 
0 
0 
0 
0 
0 
0 
0 
0 
0 
0 
0 
0 
0 
0 
0 
0 
-0.8314786087932862 
0 
0 
0 
0 
0 
0 
0 
0 
-1.647109800611628 
0 
0 
-0.8331331562040614 
0 
0 
0 
0 
0 
0 
0 
0 
0 
0 
0 
0 
0 
0 
0 
0 
0 
0 
0 
0 
0 
0 
0 
0 
0 
0 
0 
0 
0 
0 
0 
0 
0 
0 
0 
0 
0 
0 
0 
0 
0 
0 
0 
0 
0 
0 
0 
0 
0 
0 
0 
2.645128379072865 
0 
0 
0 
0 
0 
0 
0 
0 
0 
0 
0 
0 
0 
0 
0 
0 
0 
0 
0 
0 
0 
0 
0 
0 
0 
0 
0 
0 
0 
0 
0 
0 
0 
0 
0 
0 
0 
0 
0 
0 
0 
0 
0 
0 
0 
0 
0 
0 
0 
0 
0 
0 
0 
0 
0 
0 
0 
0 
0 
0 
0 
0 
0 
0 
0 
0 
0 
0 
0 
0 
0 
0 
0 
0 
0 
0 
0 
0 
0 
0 
0 
0 
0 
0 
0 
0 
0 
0 
0 
0 
0 
0 
0 
0 
0 
0 
0 
0 
0 
0 
0 
0 
0 
0 
0 
0 
0 
0 
0 
0 
0 
0 
0 
0 
0 
0 
0 
0 
0 
0 
0 
0 
0 
-0.5645752118431391 
0 
0 
0 
0 
0 
0 
0 
0 
0 
0 
0 
0 
0 
0 
1.102772180035805 
0 
0 
0 
0 
0 
0 
0 
0 
0 
0 
0 
0 
0 
0 
0 
0 
0 
0 
0 
0 
0 
0 
0 
0 
0 
0 
0 
0 
0 
0 
0 
0 
0 
0 
0 
0 
0 
0 
0 
0 
0 
0 
0 
0 
0 
0 
0 
0 
0 
-0.8393391384331981 
0 
0 
0 
0 
0 
0 
0 
0 
0 
0 
0 
0 
0 
0 
0 
0.8160866347150239 
0 
0 
0 
0 
0 
0 
0 
0 
0 
0 
0 
0 
0 
0 
0 
0 
0 
0 
0 
1.065817709813269 
0 
0 
0 
0 
0 
0 
0 
0 
0 
0 
0 
0 
0 
0 
0 
0 
0 
0 
0 
0 
0 
0 
0 
0 
0 
-4.98128513963764 
0 
0 
0 
0 
0 
0 
0 
0 
0 
0 
0 
0 
0 
0 
0 
0 
0 
0 
0 
0 
0 
0 
0 
0 
0 
0 
0 
0 
0 
0 
0 
3.115162751011565 
0 
0 
0 
0 
0 
0 
0 
0 
0 
0 
0 
0 
0 
0 
0 
0 
0 
0 
0 
0 
0 
0 
0 
0 
0 
0 
0 
0 
0 
0 
0 
0 
0 
0 
0 
0 
0 
0 
0 
0 
0 
0 
0 
0 
0 
0 
0 
0 
0 
0 
0 
0 
0 
0 
0 
0 
0 
0 
0 
0 
0 
0 
0 
0 
0 
0 
0 
0 
0 
0 
0 
0 
0 
0 
0 
0 
0 
0 
0 
0 
0 
0 
0 
0 
0 
0 
0 
0 
0 
0 
0 
0 
0 
0 
0 
0 
0 
0 
0 
0 
0 
0 
0 
0 
0 
0 
-2.620242870619283 
0 
0 
0 
0 
0 
0.7796735379818855 
0 
0 
0 
0 
0 
0 
0 
0 
0 
0 
0 
0 
0 
0 
0 
0 
0 
0 
0 
0 
0 
0 
0 
0 
0 
0 
0 
0 
0 
0 
0 
0 
0 
0 
0 
0 
0 
0 
0 
0 
0 
0 
0 
0 
0 
0 
0 
0 
0 
0 
0 
0 
0 
0 
0 
0 
0 
0 
0 
0 
0 
0 
0 
0 
0 
0 
0 
0 
0 
0 
0 
0 
0 
0 
0 
0 
0 
0 
0 
0 
0 
0 
0 
0 
0 
0 
-0.2597666917043711 
0 
0 
0 
0 
0 
0 
0 
0 
0 
0 
0 
0 
0 
0 
0 
0 
0 
0 
0 
0 
0 
0 
0 
0 
0 
0 
0 
0 
0 
0 
0 
0 
0 
0 
0 
0 
0 
0 
0 
0 
0 
0 
0 
0 
0 
0 
0 
0 
0 
0 
0 
0 
0 
0 
0 
0 
0 
0 
0 
0 
0 
0 
0 
0 
0 
0.4159035041405675 
0 
0 
-0.8627028204676872 
0 
0 
0 
0 
0 
0 
0 
0 
0 
0 
0 
0 
0 
0 
0 
0 
0 
0 
0 
0 
0 
0 
0 
0 
0 
0 
0 
0 
0 
0 
0 
0 
0 
0 
0 
0 
0 
0 
0 
0 
0 
0 
0 
0 
0 
0 
0 
0 
0 
0 
0 
0 
0 
0 
0 
0 
0 
0 
0 
0 
0 
0 
0 
0 
0 
0 
0 
0 
0 
0 
0 
0 
0 
0 
0 
0 
0 
0 
0 
0 
0 
0 
0 
0 
0 
0 
0 
0 
0 
0 
0 
0 
0 
0 
0 
0 
0 
0 
0 
0 
0 
0 
0 
0 
0 
0 
0 
0 
0 
0 
0 
0 
0 
0 
0 
0 
0 
0 
0 
0 
0 
0 
0 
0 
0 
0 
0 
0 
0 
0 
0 
0 
0 
0 
0 
0 
0 
0 
0 
0 
0 
0 
0 
0 
0 
0 
0 
0 
0 
0 
0 
0 
0 
0 
0 
0 
0 
0 
0 
0 
0 
0 
0 
0 
0 
0 
0 
0 
0 
0 
0 
0 
0 
0 
0 
0 
0 
0 
0 
0 
0 
0 
0 
0 
0 
0 
0 
0 
0 
0 
0 
0 
0 
0 
0 
0 
-0.8983318026777233 
0 
0 
0 
0 
0 
0 
0 
0 
0 
0 
1.640118037555457 
0 
0 
0 
0 
0 
0 
0 
0 
0 
0 
0 
0 
0 
0 
0 
0 
0 
0 
0 
0 
0 
0 
0 
0 
0 
0 
0 
0 
0 
0 
0 
0 
0 
0 
0 
0 
0 
0 
0 
0 
0 
0 
0 
0 
0 
0 
0 
0 
0 
0 
0 
0 
0 
0 
0 
0 
0 
0 
0 
0 
0 
0 
0 
0 
0.3842798729606694 
0 
0 
0 
0 
0 
0 
0 
0 
0 
0 
0 
0 
0 
0 
0 
0 
0 
0 
0 
0 
0 
0 
0 
0 
0 
0 
0 
0 
0 
0 
0 
0 
0 
0 
0 
0 
0 
0 
0 
0 
0 
0 
0 
0 
0 
0 
0 
0 
0 
0 
0 
0 
0 
0 
0 
0 
0 
0 
0 
0 
0 
0 
0 
0 
0 
0 
0 
0 
0 
0 
0 
0 
0 
0 
0 
0 
0.4631934177499537 
0 
0 
0 
0 
0 
0 
0 
0 
0 
0 
0 
0 
0 
0 
0 
0 
0 
0 
0 
0 
0 
0 
0 
0 
0 
0 
0 
0 
0 
0 
0 
0 
0 
0 
0 
0 
0 
0 
0 
0 
0 
0 
0 
0 
0 
0 
0 
0 
0 
0 
0 
0 
0 
0 
0 
0 
0 
0 
0 
0 
0 
0 
0 
0 
0 
0 
0 
0 
0 
0 
0 
0 
0 
0 
0 
0 
0 
0 
0 
0 
0 
0 
0 
0 
0 
0 
0 
0 
0 
0 
0 
0 
0 
0 
0 
0 
0 
0 
0 
0 
0 
0 
0 
0 
0 
0 
0 
-0.8814079828542633 
0 
0 
0 
0 
0 
0 
0 
0 
0 
0 
0 
0 
0 
0 
0 
0 
0 
0 
0 
0 
0 
0 
0 
0 
0 
0 
0 
0 
0 
0 
1.256302479307277 
0 
0 
0 
0 
0 
0 
0 
0 
0 
0 
0 
0 
0 
0 
0 
0 
0 
0 
0 
0 
0 
0 
0 
0 
0 
0 
0 
0 
0 
0 
0 
0 
0 
0 
0 
0 
0 
0 
0 
0 
0 
0 
0 
0 
-1.075217400792244 
0 
0 
0 
0 
0 
0 
0 
-2.992182840547207 
0 
0 
1.916969697213075 
0 
0 
0 
0 
0 
0 
0 
0 
0 
0 
0 
0 
0 
0 
0 
-0.8436543674256468 
0 
0 
0 
0 
0 
0 
0 
0 
0 
0 
0 
0 
0 
0 
0 
0 
0 
0 
0 
0 
0 
0 
0 
0 
0 
0 
0 
0 
0 
0 
0 
0 
0 
0 
0 
0 
0 
0 
0 
0 
0 
0 
0 
0 
0 
0 
0 
0 
0 
0 
0 
0 
0 
0 
0 
0 
0 
0 
0 
0 
0 
0 
0 
-0.05962157620484326 
0 
0 
0 
0 
0 
0 
0 
0 
0 
0 
0 
0 
0 
0 
0 
0 
0 
0 
0 
0 
0 
0 
0 
0 
0 
0 
0 
0 
0 
0 
0 
0 
0 
0 
0 
0 
0 
0 
0 
0 
0 
0 
0 
0 
0 
0 
0 
0 
0 
0 
0 
0 
0 
0 
0 
0 
0 
0 
0 
0 
0 
0 
0 
0 
0 
0 
0 
0 
0 
0 
0 
0 
0 
0 
0 
0 
0 
0 
0 
0 
0 
0 
0 
0 
0 
0 
0 
0 
0 
0 
0 
0 
0 
0 
0 
0 
0 
0 
0 
0 
0 
0 
0 
0 
0 
0 
0 
0 
0 
0 
0 
0 
0 
0 
0 
0.8006501681309005 
0 
0 
0 
-2.225558498330106 
0 
0 
0 
0 
0 
0 
0 
0 
0 
0 
0 
0 
0 
0 
0 
0 
0 
0 
0 
0 
0 
0 
0 
0 
0 
0 
0 
0 
0 
0 
-0.9519815250786348 
0 
0 
0 
-3.15080878745504 
0 
0 
0 
0 
0 
0 
0 
0 
0 
0 
0 
0 
0 
0 
0 
0 
0 
0 
0 
0 
0 
0 
0 
0 
0 
0 
0 
0 
0 
0 
0 
0 
0 
0 
0 
0 
0 
0 
0 
0 
0 
0 
0 
0 
0 
0 
0 
0 
0 
0 
0 
0 
0 
0 
0 
0 
0 
0 
0 
0 
0 
0 
0 
0 
0 
0 
0 
0 
0 
0 
0 
0 
0 
0 
0 
0 
0 
0 
0 
0 
0 
0 
0 
0 
0 
0 
0 
0 
0 
0 
0 
0 
0 
0 
0 
0 
0 
0 
0 
0 
0 
0 
0 
0 
0 
0 
0 
0 
0 
0 
0 
0 
0 
0 
0 
0 
0 
0 
0 
0 
0 
0 
0 
0 
0 
0 
0 
0 
0 
0 
0 
0 
0 
0 
0 
0 
0 
0 
0 
0 
0 
0 
0 
0 
0 
0 
0 
0 
0 
0 
0 
-0.5162887433876098 
0 
0 
0 
0 
0 
0 
0 
0 
0 
0 
0 
0 
0 
0 
0 
0 
0 
0 
0 
0 
0 
0 
0 
0 
0 
0 
0 
0 
0 
0 
0 
0 
0 
0 
0 
0 
0 
0 
0 
0 
0 
0 
0 
0 
0 
0 
0 
0 
0 
0 
0 
0 
0 
0 
0 
0 
0 
0 
0 
0 
0 
1.286687083787117 
0 
0 
0 
0 
0 
0 
0 
0 
0 
0 
0 
0 
0 
0 
0 
0 
0 
0 
0 
0 
0 
0 
0 
0 
0 
0 
0 
-0.8820628673035129 
0 
0 
0 
0 
0 
0 
0 
0 
0 
0 
0 
0 
0 
0 
0 
0 
0 
0 
0 
0 
0 
0 
0 
0 
0 
0 
0 
0 
0 
0 
0 
0 
0 
0 
0 
0 
0 
0 
0 
0 
0 
0 
0 
0 
0 
0 
0 
0 
0 
0 
0 
0 
0 
0 
0 
0 
0 
0 
0 
0 
0 
0 
0 
0 
0 
0 
0 
0 
0 
0 
0 
0 
0 
0 
0 
0 
0 
0 
0 
0 
0 
0 
0 
0 
0 
0 
0 
0 
0 
0 
0 
0 
0 
0 
0 
0 
0 
0 
0 
0.90473522292753 
0 
0 
0 
0 
0 
0 
0 
0 
0 
0 
0 
0 
0 
0 
0 
0 
0 
0 
0 
0 
0 
0 
0 
0 
0 
0 
0 
0 
0 
0 
0 
0 
0 
0 
0 
0 
0 
0 
0 
0 
0 
0 
0 
0 
0 
0 
0 
0 
0 
0 
0 
0 
0 
0 
0 
0 
0 
0 
0 
0 
0 
0 
0 
0 
0 
0 
0 
0 
0 
0 
0 
0 
0 
0 
0 
0 
0 
0 
0 
0 
0 
0 
0 
0 
0 
0 
0 
0 
0 
0 
0 
0 
0 
0 
0 
0 
0 
0 
0 
0 
0 
0 
0 
0 
0 
0 
0 
0 
0 
0 
0 
-3.924478837809321 
0 
0 
0 
0 
0 
0 
0 
0 
0 
0 
0 
0 
0 
0 
0 
0 
0 
0 
0 
0 
0 
0 
0 
0 
0 
0 
0 
0 
0 
0 
0 
0 
0 
0 
0 
0 
0 
0 
0 
0 
0 
0 
0 
0 
0 
0 
0 
0 
0 
0 
0 
0 
0 
0 
0 
0 
0 
0 
0 
0 
0 
0 
0 
0 
0 
0 
0 
0 
0 
0 
0 
0 
0 
0 
0 
-1.407141401315464 
0 
0 
0 
0 
0 
0 
0 
0 
0 
0 
0 
0 
0 
0 
0 
0 
0 
0 
0 
0 
0 
0 
0 
0 
0 
0 
0 
0 
0 
0 
0 
0 
0 
0 
0 
0 
0 
0 
0 
0 
0 
0 
0 
0 
0 
0 
0 
0 
0.489755090250863 
0 
0 
0 
0 
0.7184473767913431 
0 
0 
0 
0 
0 
0 
0 
0 
0 
0 
0 
0 
0 
0 
0 
-1.737678963665714 
0 
0 
0 
0 
0 
0 
0 
0 
0 
0 
0 
0 
0 
0 
0 
0 
0 
0 
0 
0 
0 
0 
0 
-0.9796119271575462 
0 
0 
0 
0 
0 
0 
0 
0 
0 
0 
0 
0 
0 
0 
0 
0 
0 
0 
0 
0 
0 
0 
0 
0 
0 
0 
0 
0 
0 
0 
0 
0 
0 
0 
0 
0 
0 
0 
0 
0 
0 
0 
0 
0 
0 
0 
0 
0 
0 
0 
0 
0 
0 
0 
0 
0 
0 
0 
0 
0 
0 
0 
0 
0 
0 
0 
0 
0 
0 
0 
0 
0 
0 
0 
0 
0 
0 
0 
0 
0 
0 
0 
0 
0 
0 
0 
0 
0 
0 
0 
0 
0 
-2.170106347003476 
0 
0 
0 
0 
0 
0 
0 
0 
0 
0 
0 
0 
0 
0 
0 
0 
0 
0 
0 
0 
-1.428846770084958 
0 
0 
0 
0 
0 
0 
0 
0 
0 
0 
0 
0 
0 
0 
0 
0 
0 
0 
0 
0 
0 
0 
0 
0 
0 
0 
0 
0 
0 
-0.3736037241036605 
0 
0 
0 
0 
0 
0 
0 
0 
0 
0 
0 
0 
0 
0 
0 
0 
0 
0 
0 
0 
0 
0 
0 
0 
0 
0 
0 
0 
0 
0 
-0.6760928133007736 
0 
0 
0 
0 
-0.5856965230032237 
0 
0 
0 
0 
0 
0 
0 
0 
0 
0 
0 
0 
0 
0 
0 
0 
0 
0 
0 
0 
0 
0 
0 
0 
0 
0 
0 
0 
0 
0 
0 
0 
0 
0 
0 
0 
0 
0 
0 
0 
0 
0 
0 
0 
0 
0 
0 
0 
0 
0 
0 
0 
1.521457895581362 
0 
0 
0 
0 
0 
0 
0 
0 
-2.624289378902051 
0 
0 
0 
0 
0 
0 
0 
0 
0 
0 
0 
0 
0 
0 
0 
0 
0 
0 
0 
0 
0 
0 
0 
0 
0 
0 
0 
0 
0 
0 
0 
0 
0 
0 
0 
0 
0 
0 
0 
0 
0 
0 
0 
0 
0 
0 
0 
0 
-0.09136364626019894 
0 
0 
0 
0 
0 
0 
0 
0 
0 
0 
0 
0 
0 
0 
0 
0 
0 
0 
0 
0 
0 
0 
0 
0 
0 
0 
0 
0 
0 
0 
0 
0 
0 
0 
0 
0 
-1.905093203908871 
-0.6719890392158702 
0 
0 
0 
0 
0 
0 
0.7577174084564504 
0 
0 
0 
0 
0 
0 
0 
0 
0 
0 
0 
0 
-3.97437729884684 
0 
0 
0 
0 
0 
0 
0 
0 
0 
0 
0 
0 
0 
0 
0 
0 
0 
0 
0 
0 
0 
0 
0 
0 
0 
0 
0 
0 
0 
0 
0 
0 
0 
0 
0 
0 
0 
0 
0 
-0.2071269697717748 
0 
0 
0 
0 
0 
0 
0 
0 
0 
0 
0 
0 
0 
0 
0 
0 
0 
0 
0 
0 
0 
0 
0 
0 
0 
0 
0 
0 
0 
0 
0 
0 
0 
0 
0 
0 
0 
0 
0 
0 
0 
0 
0 
0 
0 
0 
0 
-4.897582760916681 
0 
0 
0 
2.672473730605201 
0 
0 
0 
0 
0 
0 
0 
0 
0.5520141231782723 
0 
0 
0 
0 
0 
0 
0 
0 
0 
0 
0 
0 
1.102632310425659 
0 
0 
0 
0 
0 
0 
0 
0 
0 
0 
0 
0 
0 
0 
0 
0 
0 
0 
0 
0 
0 
-0.7703802104012363 
0 
2.180630851155615 
0 
0 
0 
0 
0 
0 
0 
0 
0 
0 
0 
0 
0 
0 
0 
0 
0 
0 
0 
0 
0 
0 
0 
0 
0 
0 
0 
0 
0 
0 
0 
0 
-0.8505904534490508 
0 
0 
0 
0 
0 
0 
0 
0 
0 
0 
0 
0 
0 
0 
0 
0 
0 
0 
0 
0 
0 
0 
0 
0 
0 
0 
0 
0 
0 
0 
0 
0 
0 
0 
0 
0 
0 
0 
0 
0 
0 
0 
0 
0 
0 
0 
0 
0 
0 
0 
0 
0 
0 
0 
0 
0 
0 
0 
0 
0 
0 
0 
0 
0.3702271103590804 
0 
0 
0 
0 
0 
0 
0 
0 
0 
0 
0 
0 
0 
0 
0 
0 
0 
0 
0 
0 
0 
0 
0 
0 
0.5352989414917023 
0 
0 
0 
0 
0 
0 
0 
0 
0 
0 
0 
0 
0 
0 
0 
0 
0 
0 
0 
0 
0 
0 
0 
0 
0 
0 
0 
0 
0 
0 
0 
0 
0 
0 
0 
0 
0 
0 
0 
0 
0 
0 
0 
0 
0 
0 
0 
0 
0 
0 
0 
0 
0 
0 
0 
0 
0 
0 
0 
0 
0.1167561876316385 
0 
0 
0 
0 
0 
0 
0 
0 
0 
0 
0 
0 
1.369787416633146 
0 
0 
0 
0 
0 
0 
0 
0 
0 
0 
0 
0 
0 
0 
0 
0 
0 
0 
0 
0 
0 
0 
0 
0 
0 
0 
0 
0 
0 
0 
0 
-1.802337630079121 
0 
0 
0 
0 
0 
0 
0 
0 
0 
0 
0 
0 
0 
0 
0 
0 
0 
0 
0 
0 
0 
0 
2.739560735002323 
0 
0 
0 
0 
0 
0 
0 
0 
0 
0 
0 
0 
0 
0 
0 
0 
0 
0 
0 
0 
0 
0 
0 
0 
0 
0 
0 
0 
0 
0 
0 
0 
0 
0 
0 
0 
0 
0 
0 
0 
0 
0 
0 
0 
0 
0 
0 
0 
0 
0 
0 
0 
0 
0 
0 
0 
0 
0 
0 
0 
0 
0 
0 
0 
0 
0 
0 
0 
0 
0 
0 
0 
0 
0 
0 
0 
0 
0 
0 
0 
0 
0 
0 
0 
0 
0 
0 
0 
0 
0 
0 
0 
0 
0 
0 
0 
0 
0.00699500799201488 
0 
0 
0 
0 
0 
0 
0 
0 
0 
0 
0 
0 
0 
0 
0 
0 
0 
0 
0 
0 
0 
0 
0 
0 
0 
0 
0 
0 
0 
0 
0.3906774008279396 
0 
0 
0 
0 
0 
0 
0 
0 
0 
0 
0 
0 
0 
0 
0 
0 
0 
0 
0 
0 
0 
0 
0 
0 
0 
0 
0 
0 
0 
0 
0 
0 
0 
0 
0 
0 
0 
0 
0 
0 
0 
0 
0 
0 
0 
0 
0 
0 
0 
0 
0 
0 
0 
0 
0 
0 
0 
0 
0 
0 
0 
0 
0 
0 
0 
0 
0 
0 
0 
0 
0 
0 
0 
0 
0 
0 
0 
0 
0 
0 
0 
0 
0 
0 
0 
0 
0 
0 
1.63108029095192 
0 
0 
0 
0 
0 
0 
0 
0 
0 
0 
0 
0 
0 
0 
0 
0 
0 
0 
0 
0 
0 
0 
0 
-0.2360578638347048 
0 
0 
0 
0 
0 
0 
0 
0 
0 
0 
0 
0 
0 
0 
0 
0 
0 
0 
0 
0 
0 
0 
0 
0 
0 
0 
0 
0 
0 
0 
0 
0 
0 
0 
0 
0 
0 
0 
0 
0 
0 
0 
0 
0 
0 
0 
0 
0 
0 
0 
0 
0 
0 
0 
0 
0 
0 
0 
0 
0 
0 
0 
0 
0 
0 
0 
1.704704796047195 
0 
0 
0.4330639579808045 
0 
0 
0 
0 
0 
0 
0 
0 
0 
0 
0 
0 
0 
0 
0 
0 
0 
0 
0 
0 
0 
0 
0 
0 
0 
0 
0 
0 
0 
0 
0 
0 
0 
0 
0 
0 
0 
0 
0 
0 
0 
0 
0 
0 
0 
0 
0 
0 
0 
0 
0 
0 
0 
0 
0 
0 
0 
0 
0 
0 
0 
0 
0 
0 
0 
0 
0 
0 
-0.4556872243962137 
0 
0 
0 
0 
0 
0 
0 
0 
0 
0 
0 
0 
0 
0.2853822126650099 
0 
0 
0 
0 
0 
0 
0 
0 
0 
0 
0 
0 
0 
0 
0 
0 
0 
0 
0 
0 
0 
0 
0 
0 
0 
0 
0 
0 
0 
0 
0 
0 
0 
0 
0 
0 
0 
0 
0 
0 
0 
0 
0 
0 
1.19827491712653 
0 
0 
0 
0 
0 
0 
0 
0 
-1.508008122233298 
0 
0 
0 
0 
0 
0 
0 
0 
0 
0 
0 
0 
0 
0 
0 
0 
0 
0 
0 
0 
0 
0 
0 
0 
0 
0 
0 
0 
0 
0 
0 
0 
0 
0 
0 
0 
0 
0 
6.644283009171232 
0 
0 
0 
1.889422008685263 
0 
0 
0 
0 
0 
0 
0 
0 
0 
0 
0 
0 
0 
0 
0 
0 
0 
0 
0 
0 
0 
0 
0 
0 
0 
0 
0 
1.737802852608188 
0 
0 
0 
0 
0 
0 
0 
0 
1.39907408774132 
1.474169821342904 
0 
0 
0 
0 
0.9011218461271603 
0 
0 
0 
0 
0 
0 
0 
0 
0 
0 
0 
0 
0 
0 
0 
1.769731268258392 
0 
0 
0 
0 
0 
0 
0 
0 
0.9572477590697113 
0 
0 
0 
0 
0 
0 
0 
0 
3.601755230575159 
0 
0 
0 
0 
0 
0 
0.3743430985411342 
0 
0 
0 
0 
0 
0 
0 
0 
0 
0 
0 
0.2005689041506465 
2.496109417422121 
0 
0 
1.589988971989761 
0 
0 
0 
0 
0 
0 
0 
0 
0 
0 
0 
0 
0 
0 
0 
0 
3.307766240267505 
0 
0 
0 
0 
0 
0 
0 
0 
0 
0 
0 
0 
0 
0 
0 
0 
0 
1.73150495999762 
0 
2.773220001019269 
0 
0 
0 
0 
0 
0 
0 
0 
0 
0 
0 
0 
0 
0 
0 
0 
0 
0 
0 
0 
0 
0 
0 
0 
0 
0 
0 
0 
0 
0 
0 
0 
0 
0 
0 
0 
0 
0 
0 
0 
0 
0 
0 
0 
0 
0 
1.628924344746547 
0 
0 
1.063803693625687 
0 
0 
1.703741412043802 
0 
0 
0 
0 
0 
0 
0 
0 
0 
0 
-0.8871030441802139 
0 
0 
0 
0 
-0.637282132032252 
0 
0 
0 
0 
0 
0 
0 
0 
0 
0 
0 
0 
0 
0 
0 
0 
0 
0 
0 
0 
0 
0 
0.2705167609817162 
0 
-0.1496611113098956 
0 
0 
0 
0 
0 
0 
0 
0 
0 
0 
0 
0 
0 
0 
0 
2.586742290136808 
0.3968764002205015 
0 
0 
0 
0 
0 
0 
0 
0 
0 
0 
-0.2021651351866678 
-1.903219907014975 
0 
0 
0 
0 
1.119588960782393 
0 
-2.294210003479766 
0 
0 
0 
0 
0 
0 
0 
0 
0 
0 
0 
0 
0 
0 
-0.1523329635487839 
0 
0 
0 
0 
0 
0 
0 
0 
-0.9196366527382759 
0 
0 
0 
0 
0 
0 
0 
0 
0.3687896771222342 
0 
0 
0 
0 
0 
0.9162208374013531 
0 
0 
0 
0 
0 
0 
0 
0 
2.365160536361958 
0 
0 
0 
0 
0 
0.2679754313236404 
0 
0 
0.7904156447226863 
0 
0 
0 
0 
0 
0 
0 
0 
0 
0 
0 
0.8661436696727014 
0 
0 
0 
0 
0 
0 
0 
0 
0 
0 
0 
0 
0.9030526439751357 
0 
0 
0 
0 
0 
0 
0 
0 
0 
0 
0 
0 
0 
0 
0.3848578904972635 
0 
0 
0 
0 
0 
0 
0 
0 
0 
0 
0 
0 
0 
0 
-0.968064174091728 
0 
0 
0 
0 
0 
0 
0 
0 
0 
0 
0 
0 
0 
0 
0 
0 
0 
0 
0 
0 
0 
0 
0 
0 
0 
0 
0 
0 
0 
0 
0 
0 
0 
0 
0 
0 
0 
0 
0 
0 
-0.3414392437616356 
0 
0 
0 
0 
0 
0 
0 
0 
0 
0 
0 
0 
0 
0 
0 
0 
0 
0 
0 
0 
0 
0 
0 
0 
0 
0 
0 
0 
0 
0 
0 
0 
0 
0 
0 
0 
0 
0 
0 
0 
0 
0 
0 
0 
0 
0 
0 
0 
0 
0 
0 
0 
0 
0 
0 
0 
0 
0 
0 
0 
0 
0 
0 
0 
0 
0 
0 
0 
0 
0 
0 
0 
0 
0 
0 
0 
0 
0 
0 
0 
0 
0 
0 
0 
0 
0 
0 
0 
0 
0 
0 
0 
0 
0 
0 
0 
0 
0 
0 
0 
0 
0 
0 
0 
0 
0 
0 
0 
0 
0 
0 
0 
0 
0 
0 
0 
0 
0 
0 
0 
0 
0 
0 
0 
0 
0 
0 
0 
0 
0 
0 
0 
0 
0 
0 
-2.76502946355379 
0 
0 
0 
0 
0 
0 
0 
0 
0 
0 
0 
0 
0 
0 
0 
0 
0 
0 
0 
0 
0 
0 
0 
0 
0 
0 
0 
0 
0 
0 
0 
0 
0 
0 
0 
0 
0 
0 
0 
0 
0 
0 
0 
0 
0 
0 
-4.015020803217417 
0 
0 
0 
0 
0 
0 
0 
0 
0 
0 
0 
0 
0 
0 
0 
0 
0 
0 
0 
0 
0 
0 
0 
0 
0 
0 
0 
0 
0 
0 
0 
0 
0 
0 
0 
0 
0 
0 
0 
0 
0 
0 
0 
0 
0 
0 
0 
0 
0 
0 
0 
0 
0 
0 
0 
0 
0 
0 
0 
0 
0 
0 
0 
0 
0 
0 
0 
0 
0 
0 
0 
0 
0 
0 
0 
0 
0 
0 
0 
0 
0 
0 
0 
0 
0 
0 
0 
0 
0 
0 
0 
0 
0 
0 
0 
0 
0 
0 
0 
0 
0 
-3.292963276012634 
0 
0 
0 
0 
0 
0 
0 
0 
0 
0 
0 
0 
0 
0 
0 
0 
0 
0 
0 
0 
0 
0 
0 
0 
0 
0 
0 
0 
0 
0 
0 
0 
0 
0 
0 
0 
0 
0 
0 
0 
0 
0 
-0.1398595376716805 
0 
0 
0 
0 
0 
0 
0 
0 
0 
0 
0 
0 
0 
0 
0 
0 
0 
0 
0 
0 
0 
0 
0 
0 
0 
0 
0 
0.7680280336012848 
0 
0 
0 
-2.360354579439472 
-0.9726346154506754 
0 
0 
0 
0 
0 
0 
0 
0 
-1.700171564237659 
-2.335918316632639 
0 
0 
0 
0 
0 
0 
0 
0 
-1.683209573376737 
0 
0 
0 
0 
0 
0 
0 
0 
0 
0 
0 
0 
0 
0 
0 
0 
0 
0 
0 
0 
0 
0 
0 
0 
0 
0 
0 
0 
0 
0 
0 
0 
0 
0 
0 
0 
0 
0 
0 
0 
0 
0 
0 
0 
0 
0 
0 
0 
0 
0 
0 
0 
0 
0 
0 
0 
0 
0 
0 
0.6067062603258807 
0 
0 
0 
0 
0 
0 
0 
0 
0 
0 
0 
0 
0 
0 
0 
0 
0 
0 
0 
0 
0 
0 
0 
0 
0 
0 
0 
0 
0 
0 
0 
0 
0 
0 
0 
0 
0 
0 
0 
0 
0 
0 
0 
0 
0 
0 
0 
0 
0 
0 
0 
0 
0 
0.5339760376647992 
0 
0 
0 
0 
0 
0 
0 
0 
0 
0 
0 
0 
0 
0 
0 
0 
0 
0 
0 
0 
0 
0 
0 
0 
0 
0 
0 
0 
0 
0 
0 
0 
0 
0 
0 
0 
0 
0 
0 
0 
0 
0 
0 
0 
0 
1.246488278443332 
0 
0 
0 
0 
0 
0 
0 
0 
0 
0 
0 
0 
0 
0 
0 
0 
0 
0 
0 
0 
0 
0 
0 
0 
0 
0 
0 
0 
0 
0 
0 
0 
0 
0 
0 
0 
0 
0 
0 
0 
0 
-0.1717516758354162 
0 
0 
0 
0 
0 
0 
0 
0 
1.071445078533428 
0 
0 
0 
0 
0 
0 
0 
0 
0 
0 
0 
0 
0 
0 
0 
0 
0 
0 
0 
0 
0 
0 
0 
0 
0 
0 
0 
0 
0 
0 
0 
0 
0 
0 
0 
0 
0 
0 
0 
0 
0 
0 
0 
0 
0 
0 
0 
0 
0 
0 
0 
0 
0 
0 
0 
0 
0 
0 
0 
0 
0 
0 
0 
0 
0 
0 
0 
0 
0 
0 
0 
0 
0 
0 
0 
0 
0 
0 
0 
0 
0 
0 
0 
0 
0 
0 
0 
0 
0 
0 
0 
0 
0 
0 
0 
-1.253512726680073 
0 
0 
0 
0 
0 
0 
0 
0 
0 
0 
0 
0 
0 
0 
0 
0 
0 
0 
0 
0 
0 
0 
0 
0 
0 
0 
0 
0 
0 
0 
0 
0 
0 
2.494723170142988 
0 
0 
0 
0 
0 
0 
0 
0 
0 
0 
0 
0 
0 
0 
0 
0 
0 
0 
0 
0 
0 
0 
0 
0 
0 
0 
0 
0 
0 
0 
0 
0 
0 
0 
0 
0 
0 
0 
0 
0 
0 
0 
0 
0 
0 
0 
0 
0 
0 
0 
0 
0 
0 
0 
0 
0 
0 
0 
0 
0 
0 
0 
0 
0 
0 
0 
0 
0 
0 
0 
0 
0 
0 
0 
0 
0 
0 
0 
0 
0 
0 
0 
0 
0 
0 
0 
0 
0 
0 
0 
0 
0 
0 
0 
0 
0 
0 
0 
0 
0 
0 
0 
0 
0 
0 
0 
0 
0 
0 
0 
0 
0 
0 
0 
0.7155099428944877 
0 
0 
-0.1004857778523695 
0 
0 
0 
0 
0 
0 
0 
0 
0 
0 
0 
0 
0.2291325336891058 
0 
0 
0 
0 
0 
0 
0 
0 
0 
0 
0 
0.1544946143851617 
0 
0 
0 
0 
0 
0 
0 
0 
0 
0 
0 
0 
0 
0 
0 
0 
0 
0 
0 
0 
0 
0 
0 
0 
0 
0 
0 
0 
0 
0 
0 
0 
0 
0 
0 
0 
0 
0 
0 
0 
0 
0 
0 
0 
0 
0 
0 
0 
-0.03617288504330658 
0 
0 
0 
-0.8534946316592293 
0 
0 
0 
0 
0 
0 
0 
0 
0 
0 
0 
0 
0 
0 
0 
0 
0 
0 
0 
0 
0 
0 
0 
0 
0 
0 
0.4062356602816829 
0 
0 
0 
0 
3.507132174290873 
0 
0 
0 
0 
0 
0 
0 
0 
0 
0 
0 
0 
0 
0 
0 
0 
0 
0 
0 
0 
0 
0 
0 
0 
0 
0 
0 
0 
0 
0 
0 
0 
0 
0.004208649602991467 
0 
0 
0 
0 
0 
0 
0 
0 
0 
0 
0 
0 
0 
-1.415567730776611 
0 
0 
0 
0 
0 
0 
0 
0 
0 
0 
0 
0 
0 
0 
0 
0 
0 
0 
0 
0 
0 
0 
0 
0 
0 
0 
0 
0 
0 
0 
0 
-1.312541221574296 
0 
0 
0 
0 
0 
0 
0 
-0.4492273436687623 
0 
0 
0 
0 
0 
0 
0 
0 
0 
0 
0 
0 
0 
0 
0 
0 
0 
0 
0 
0 
0 
0 
0 
0 
0 
0 
0 
0 
0 
0 
0 
0 
0 
0 
0 
0 
0 
0 
0 
0 
0 
0 
0 
0 
0 
0 
0 
0 
0 
0 
0 
1.490601588782446 
0 
0 
0 
0 
0 
0 
0 
0 
0 
0 
0 
0 
0 
0 
0 
0 
0 
0 
0 
0 
0 
0 
0 
0 
0 
0 
0 
0 
0 
0 
0 
0 
0 
0 
0 
0 
0 
0 
0 
0 
0 
0 
0 
0 
0 
0 
0 
0 
0 
0 
0 
0 
0 
0 
0 
0 
0 
0 
0 
0 
0 
0 
0 
0 
0 
0 
0 
0 
0 
0 
0 
0 
0 
0 
0 
0 
0 
0 
0 
0 
0 
0 
0 
0 
0 
0 
0 
0 
0 
0 
0 
0 
0 
0 
0 
0 
0 
0 
0 
0 
0 
0 
0 
0 
0 
0 
0 
0 
0 
0 
0 
0 
0 
0 
0 
0.4136972218355443 
0 
0 
0 
0 
0 
0 
0 
0 
-2.703639987211156 
0 
0 
0 
0 
0 
0 
0 
0 
0 
0.6810055080501676 
-2.419083114727544 
0 
0 
0 
0 
0 
0 
0 
0 
0 
0 
-0.9006728313203672 
0 
0 
0.8311692434389266 
0 
0 
0 
0 
0 
1.032604549458897 
0 
0 
0 
0 
0 
0 
0 
0 
0 
0 
0 
0 
0 
0 
0 
0 
0.8826620706828708 
0 
0 
0 
0 
0 
0 
0 
0 
0 
0 
5.718385673573351 
-1.848986249350044 
0 
0 
0 
0 
0 
0 
0 
0 
0 
0 
0.2012892277012817 
0 
0 
0 
0 
0 
-0.3612440888291001 
0 
0 
0 
0 
0 
0 
0 
0 
0 
0 
0 
0 
0 
0 
0 
0 
0 
0 
0 
0 
0 
0 
0 
0 
0 
0 
0 
0 
0 
0 
0 
0 
0 
0 
0 
0 
0 
0 
0 
0 
0 
0 
0 
0 
0 
0 
0 
0 
0 
0 
0 
0 
0 
0 
0 
0 
0 
0 
0 
0 
0 
0 
0 
0 
0 
0 
0 
0 
0 
0 
0 
0 
0 
0 
0 
0 
0 
0 
0 
0 
0 
0 
0 
0 
0 
0 
0 
0 
0 
0 
0 
0 
0 
0 
0 
0 
0 
0 
0 
0 
0 
0 
0 
0 
0 
0 
0 
0 
0 
0 
0 
0 
0 
0 
0 
0 
0 
0 
0 
0 
0 
0 
0 
0 
0 
0 
0 
0 
0 
0 
0 
0 
0 
0 
0 
0 
0 
0 
0 
0 
0 
0 
0 
0 
0 
0 
0 
0 
0 
0 
0 
0 
0 
0 
0 
0 
0 
0 
0 
0 
0 
0 
0 
0 
0 
0 
0 
0 
0 
0 
0 
0 
0 
0 
0 
0 
0 
0 
0 
0 
0 
0 
0 
0 
0 
0 
0 
0 
0 
0 
0 
0 
0 
0 
0 
0 
0 
0 
0 
0 
0 
0 
0 
0 
0 
0 
0 
0 
0 
0 
0 
0 
0.8072138710622426 
0 
0 
0 
0 
0 
0 
1.533334633038181 
0 
0 
0 
0 
0 
0 
0 
0 
0 
0 
0 
0 
0 
0 
0 
0 
0 
0 
0 
-0.9551667047031992 
0 
0 
0 
0 
0 
0 
0 
0 
-5.76803776185725 
0 
0 
0 
0 
0 
0 
0 
0 
0 
0 
0 
0 
0 
0 
0 
0 
0 
0 
0 
0 
0 
0 
0 
0 
0 
0 
0 
0 
0 
0 
0 
0 
0 
0 
0 
0 
0 
0 
0 
0 
0 
0 
0 
0 
0 
0 
0 
0 
0 
0 
0 
0 
0 
0 
0 
0 
0 
0 
0 
0 
0 
0 
0 
0 
0 
0 
0 
0 
0 
0 
0 
0 
0 
0 
0 
0 
0 
0 
0 
0 
0 
0 
0 
0 
0 
0 
0 
0 
0 
0 
0 
0 
0 
0 
0 
0 
0 
0 
0 
0 
0 
0 
0 
0 
0 
0 
0 
0 
0 
0 
0 
0 
0 
0 
0 
0 
0 
0 
0 
0 
0 
0 
0 
0 
0 
0 
0 
0 
0 
0 
0 
0 
0 
0 
0 
0 
0 
0 
0 
0 
0 
0 
0 
0 
0 
0 
0 
0 
0 
0 
0 
0 
0 
0 
0 
0 
0 
0 
0 
0 
0 
0 
0 
0 
0 
0 
0 
0 
0 
0 
0 
0 
0 
0 
0 
0 
0 
0 
0 
0 
0 
0 
0 
0 
0 
0 
0 
0 
0 
0 
0 
0 
0 
0 
0 
0 
0 
0 
0 
0 
0 
0 
0.2915939760343509 
0 
0 
0 
0 
0 
0 
0 
0 
0 
0 
0 
0 
0 
0 
0 
0 
0 
0 
0 
0 
0 
0 
0 
0 
0 
0 
0 
-1.241624002890771 
0 
0 
0 
0 
0 
0 
0 
0 
0 
0 
0 
0 
-1.797938064808261 
0 
0 
0 
0 
0 
0 
0 
0 
0 
0 
0 
0 
0 
0 
0 
0 
0 
0 
0 
0 
0 
0 
0 
0 
0 
0 
0 
0 
0 
0 
0 
0 
0 
0 
0 
0 
0 
1.638090277511272 
0 
0 
0 
0 
0 
0 
0 
0 
0 
0 
0 
0 
0 
0 
0 
0 
0 
0 
0 
0 
0 
0 
0 
0 
0 
0 
0 
0 
0 
0 
0 
0 
0 
0 
0 
0 
0 
0 
0 
0 
0 
0 
0 
0 
0 
0 
0 
0 
0 
0 
0 
0 
0 
0 
0 
0 
0 
0 
0 
0 
0 
0 
0 
0 
0 
0 
0 
0 
0 
0 
0 
0 
0 
0 
0 
0 
0 
0 
0 
0 
0 
0 
0 
0 
0 
0 
0 
0 
0 
0 
0 
0 
0 
0 
0 
0 
0 
0 
0 
0 
0 
0 
0 
0 
0 
0 
0 
0 
0 
0 
0 
0 
0 
0 
0 
0 
0 
0 
0 
0 
0 
0 
0 
0 
0 
0 
0 
0 
0 
0 
0 
0 
0 
0 
0 
0 
0 
0 
0 
0 
-0.2243776054969001 
0 
0 
0 
0 
0 
0 
0 
0 
0 
0 
0 
0 
0 
0 
0 
0 
0 
0 
0 
0 
0 
0 
0 
0 
0 
0 
0 
0 
0 
0 
0 
0 
0 
0 
0 
0 
0 
0 
0 
0 
0 
0 
0 
0 
0 
0 
0 
0 
0 
0 
0 
0 
0 
0 
0 
0 
0 
0 
0 
0 
0 
0 
0 
0 
0 
0 
0 
0 
0 
0 
0 
0 
0 
0 
0 
0 
0 
0 
0 
0 
0 
0 
0 
0 
0 
0 
0 
0 
0 
0 
0 
0 
0 
0 
0 
0 
0 
0 
0 
0 
0 
0 
0 
0 
0 
0 
0 
0 
0 
0 
0 
0 
0 
0 
0 
0 
0 
0 
0 
0 
0 
0 
0 
0 
0 
0 
0 
0 
0 
0 
0 
0 
0 
0 
0 
0 
0 
0 
0 
0 
0 
0 
0 
0 
0 
0 
0 
0 
0 
0 
0 
0 
0 
0 
0 
0 
0 
2.200011484405898 
0 
0 
0 
0 
0 
0 
0 
0 
0 
0 
0 
0 
0 
0 
0 
0 
0 
0 
0 
0.1073134386892803 
0 
0 
0 
0 
0 
0 
0 
0 
0 
0 
0 
0 
0 
0 
0 
0 
0 
0 
0 
0 
0 
0 
0 
0 
0 
0 
0 
0 
0 
0 
0 
0 
0 
0 
0 
0 
0 
0 
0 
0 
0 
0 
0 
0 
0 
0 
0 
0 
0 
0 
0 
0 
0 
0 
0 
0 
0 
0 
0 
0 
0 
0 
0 
0 
0 
0 
0 
0 
0 
-2.061797559847538 
0 
0 
0 
0 
0 
0 
0 
0 
0 
0 
0 
0 
0 
0 
0 
0 
0 
0 
0 
0 
0 
0 
0 
0 
0 
0 
0 
0 
0 
0 
0 
0 
0 
0 
0 
0 
0 
0 
0 
0 
0 
0 
0 
0 
0 
0 
0 
0 
0 
0 
0 
0 
0 
0 
0 
0 
0 
0 
0 
0 
0 
0 
0 
0 
0 
0 
0 
0 
0 
0 
0 
0 
0 
0 
0 
0 
0 
0 
0 
0 
0 
0 
0 
0 
0 
0 
0 
0 
0 
0 
0 
0 
0 
0 
0 
0 
0 
0 
0 
0 
0 
0 
0 
0 
0 
0 
0 
0 
0 
0 
0 
0 
0 
0 
0 
0 
0 
0 
0 
0 
0 
0 
0 
0 
0 
0 
0 
0 
0 
0 
0 
0 
0 
0 
0 
0 
0 
0 
0 
0 
0 
0 
0 
0 
0 
0 
0 
0 
-4.970821435037268 
0 
0 
0 
0 
0 
0 
0 
-0.5153884609023804 
0 
0 
0 
0 
0 
0 
0 
0 
0 
1.255318865921541 
0 
0 
0 
0 
0 
0 
0 
0 
0 
0 
0 
0 
0 
0 
0 
0 
0 
0 
0 
0 
0 
0 
0 
0 
0 
0 
0 
-0.6432063355854669 
0 
0 
0 
0 
0 
0 
0 
0 
0 
0 
0 
0 
0 
0 
0 
0 
0 
0 
0 
0 
0 
0 
0 
0 
0 
0 
0 
0 
0 
0 
0 
0 
-0.9913935622446705 
0 
0 
0 
0 
0 
0 
0 
0 
0 
0 
0 
0 
0 
0 
0 
0 
0 
0 
0 
0 
0 
0 
0 
0 
0 
0 
0 
0 
0 
0 
0 
0 
0 
0 
0 
0 
0 
0 
0 
0 
0 
0 
0 
0 
0 
0 
0 
0 
0 
0 
0 
0 
0 
0 
0 
0 
0 
0 
0 
0 
0 
0 
0 
0 
1.805685351441135 
0 
0 
0 
0 
0 
0 
0 
0 
0 
0 
0 
0 
0 
0 
0 
0 
0 
0 
0 
0 
0 
0 
0 
0 
0 
0 
0 
0 
0 
0 
0 
0 
0 
0 
0 
0 
0 
0 
0 
0 
0 
0 
0 
0 
0 
0 
0 
0 
0 
0 
0 
0 
0 
0 
0 
0 
0 
0 
0 
0 
0 
0 
0 
0 
0 
0 
0 
0 
0 
0 
0 
0 
0 
0 
0 
0 
0 
0 
0 
0 
0 
0 
0 
0 
0 
0 
0 
0 
0 
0 
0 
0 
0 
0 
0 
0 
0 
0 
0 
0 
0 
0 
0 
0 
0 
0 
0 
0 
0 
0 
0 
-0.6927961096766292 
0 
0 
0 
0 
0 
0 
0 
0 
0 
0 
0 
0 
0 
0 
0 
0 
0 
0 
0 
0 
0 
0 
0 
0 
0 
0 
0 
0 
0 
0 
0 
0 
0 
0 
0 
0 
0 
0 
0 
0 
0 
0 
0 
0 
0 
0 
0 
0 
0 
0 
0 
0 
0 
0 
0 
0 
0 
0 
0 
-1.083116701578695 
0 
0 
0 
0 
0 
0 
0 
0 
0 
0 
0 
0 
0 
0 
0 
0 
0 
0 
0 
0 
0 
0 
0 
0 
0 
0 
0 
0 
1.762731529182791 
0 
0 
0.9181774236752521 
0 
0 
0 
0 
0 
0 
0 
0 
0 
0 
0 
0 
0 
0 
0 
0 
0 
0 
0 
0 
0 
0 
0 
0 
0 
0 
0 
0 
0 
0 
0 
0 
0 
0 
0 
0 
0 
0 
0 
0 
0 
0 
0 
0 
0 
0 
0 
0 
0 
0 
0 
0 
0 
0 
0 
0 
0 
0 
0 
0 
0 
0 
0 
0 
0 
0 
0 
0 
0 
0 
0 
0 
0 
0 
0 
-2.359518563797493 
0 
0 
0 
0 
0 
0 
0 
0 
0 
0 
0 
0 
0 
0 
0 
0 
0 
0 
0 
0 
0 
0 
0 
0 
0 
0 
0 
0 
0 
0 
0 
0 
0 
0 
0 
0 
0 
0 
0 
0 
0 
0 
0 
0 
0 
0 
0 
0 
0 
0 
0 
0 
0 
0 
0 
0 
0 
0 
0 
0 
0 
0 
0 
0 
0 
0 
0 
0 
0 
0 
0 
0 
0 
0 
0 
0 
0 
0 
0 
0 
0 
0 
0 
0 
0 
0 
0 
0 
0 
0 
0 
0 
0 
0 
0 
0 
0 
0 
0 
0 
0 
0 
0 
0 
0 
0 
0 
0 
0 
0 
0 
0 
0 
0 
0 
0 
0 
0 
0 
0 
0 
0 
0 
0 
0 
-1.346706302416336 
0 
0 
0 
0 
0 
0 
0 
0 
0 
0 
0 
0 
0 
0 
0 
0 
0 
0 
0 
0 
-0.03919906094576854 
0 
0 
0 
0 
0 
0 
0 
0 
0 
0 
0 
0 
0 
0 
0 
0 
0 
0 
0 
0 
0 
0 
0 
0 
0 
0 
0 
0 
0 
0 
0 
0 
0 
0 
0 
0 
0 
0 
0 
0 
0 
0 
0 
0 
0 
0 
0 
0 
0 
0 
0 
0 
0 
0 
0 
0 
0 
0 
0 
0 
0 
0 
0 
0 
0 
0 
0 
0 
0 
0 
0 
0 
0 
0 
0 
0 
0 
0 
0 
0 
0 
0 
0 
0 
0 
0 
0 
0 
0 
0 
0 
0 
0 
0 
0 
0 
0 
0 
0 
0 
0 
0 
0 
0 
0 
0 
0 
0 
0 
0 
0 
0 
0 
0 
0 
0 
0 
0 
0 
0 
0 
0 
0 
0 
0 
0 
0 
0 
0 
0 
0 
0 
0 
0 
0 
0 
0 
0 
0 
0 
0 
0 
0 
0 
0 
0 
0 
0 
0 
0 
0 
0 
0 
0 
0 
0 
0 
0 
0 
0 
0 
0 
0 
0 
0 
0 
0 
0 
0 
0 
0 
0 
0 
0 
0 
0 
0 
0 
0 
0 
0 
0 
0 
0 
0 
0 
0 
0 
0 
0 
0 
0 
0 
0 
0 
0 
0 
0 
0 
0 
0 
0 
0 
0 
0 
0 
0 
0 
0 
0 
0 
0 
0 
0 
0 
0 
0 
0 
0 
0 
0 
0 
0 
0 
0 
0 
0 
0 
0 
0 
0 
0 
-1.631955523865186 
0 
0 
0 
0 
0 
0 
0 
0 
0 
0 
0 
0 
0 
0 
0 
0 
0 
0 
0 
0 
0 
0 
0 
0 
0 
0 
0 
0 
0 
0 
0 
0 
0 
0 
0 
0 
0 
0 
0 
0 
0 
0 
0 
0 
0 
0 
0 
0 
0 
0 
0 
0 
0 
0 
0 
0 
0 
0 
0 
0 
0 
0 
0 
0 
0 
0 
0 
0 
0 
0 
0 
0 
0 
0 
0 
0 
0 
0 
0 
0 
0 
0 
0 
0 
0 
0 
0 
0 
0 
0 
0 
0 
0 
0 
0 
0 
0 
0 
0 
0 
0 
0 
0 
0 
0 
0 
0 
0 
0 
0 
0 
0 
0 
0 
0 
0 
0 
0 
0 
0 
0 
0 
0 
0 
0 
0 
0 
0 
0 
0 
0 
0 
0 
0 
0 
0 
0 
0 
0 
0 
0 
0 
0 
0 
0 
0 
0 
0 
0 
0 
0 
0 
0 
0 
0 
0 
0 
0 
0 
0 
0 
0 
0 
0 
0 
0 
0 
0 
0 
0 
0 
0 
0 
0 
0 
0 
0 
0 
0 
0 
0 
0 
0 
0 
0 
0 
0 
0 
0 
0 
0 
0 
0 
0.4911325346847527 
0 
0 
0 
0 
0 
0 
0 
0 
0 
0 
0 
0 
0 
0 
0 
0 
0 
0 
0 
0 
0 
0 
0 
0 
0 
0 
0 
0 
0 
0 
0 
0 
0 
0 
0 
0 
0 
0 
0 
0 
0 
0 
0 
0 
0 
0 
0 
0 
0 
0 
0 
0 
0 
0 
0 
0 
0 
0 
0 
0 
0 
0 
0 
0 
0 
0 
0 
0 
0 
0 
0 
0 
0 
0 
0 
0 
0 
0 
0 
0 
0 
0 
0 
0 
0 
0 
0 
0 
0 
0 
0 
0 
0 
0 
0 
0 
0 
0 
0 
0 
0 
0 
0 
0 
0 
0 
0 
0 
0 
0 
0 
0 
0 
0 
0 
0 
0 
0 
0 
0 
0 
0 
0 
0 
0 
0 
0 
0 
0 
0 
0 
0 
0 
0 
0 
0 
0 
0 
0 
0 
0 
0 
0 
0 
0 
0 
0 
0 
0 
0 
0 
0 
0 
0 
0 
0 
0 
0 
0 
0 
0 
0 
0 
0 
0 
0 
0 
0 
0 
0 
0 
0 
0 
0 
0 
0 
0 
0 
0 
0 
0 
0 
0 
0 
0 
0 
0 
0 
0 
0 
0 
0 
0 
0 
0 
0 
0 
0 
0 
0 
0 
0 
0 
0 
0 
0 
0 
0 
0 
0 
0 
0 
0 
0 
0 
0 
0 
0 
0 
0 
0 
0 
0 
0 
0 
0 
0 
0 
0 
0 
0 
0 
0 
0 
0 
0 
0 
0 
0 
0 
0 
0 
0 
0 
0 
0 
0 
0 
0 
0 
0 
0 
0 
0 
0 
0 
0 
0 
0 
0 
0 
0 
0 
0 
0 
0 
0 
0 
0 
0 
0 
0 
0 
0 
0 
0 
0 
0 
0 
0 
0 
0 
0 
0 
0 
0 
0 
0 
0 
0 
0 
0 
0 
0 
0 
0 
0 
0 
0 
0 
0 
0 
0 
0 
0 
0 
0 
0 
0 
0 
0 
0 
0 
0 
0 
0 
0 
0 
0 
0 
0 
0 
0 
0 
0 
0 
0 
0 
0 
0 
0 
0 
0 
0 
0 
0 
0 
0 
0 
0 
0 
0 
0 
0 
0 
0 
0 
0 
0 
0 
0 
0 
0 
0 
0 
0 
0 
0 
0 
0 
0 
0 
0 
0 
0 
0 
0 
0 
0 
0 
0 
0 
0 
0 
0 
0 
0 
0 
0 
0 
0 
0 
0 
0 
0 
0 
0 
0 
0 
0 
0 
0 
0 
0 
0 
0 
0 
0 
0 
0 
0 
0 
0 
0 
0 
0 
0 
0 
0 
0 
0 
0 
0 
0 
0 
0 
0 
0 
0 
0 
0 
0 
0 
0 
0 
0 
0 
0 
0 
0 
0 
0 
0 
0 
0 
0 
0 
0 
0 
0 
0 
0 
0 
0 
0 
0 
0 
0 
0 
0 
0 
0 
0 
0 
0 
0 
0 
0 
0 
0 
0 
0 
0 
0 
0 
0 
0 
0 
0 
0 
0 
0 
0 
0 
0 
0 
0 
0 
0 
0 
0 
0 
0 
0 
0 
0 
0 
0 
0 
0 
0 
0 
0 
0 
0 
0 
0 
0 
0 
0 
0 
0 
0 
0 
0 
0 
0 
0 
0 
0 
0 
0 
0 
0 
0 
0 
0 
0 
0 
0 
0 
0.3798198288986899 
0 
0 
0 
0 
0 
0 
0 
0 
0 
0 
0 
0 
0 
0 
0 
0 
0 
0 
0 
0 
0 
0 
0 
0 
0 
0 
0 
0 
0 
0 
0 
0 
0 
0 
0 
0 
0 
0 
0 
0 
0 
0 
0 
0 
0 
0 
0 
0 
0 
0 
0 
0 
0 
0 
0 
0 
0 
0 
0 
0 
0 
0 
0 
0 
0 
0 
0 
0 
0 
0 
0 
0 
0 
0 
0 
0 
0 
0 
0 
-0.8933030019385847 
0 
0 
0 
0 
0 
0 
0 
0 
0 
0 
0 
0 
0 
0 
0 
0 
0 
0 
0 
0 
0 
0 
0 
0 
0 
0 
0 
0 
0 
0 
0 
0 
0 
0 
0 
0 
0 
0 
0 
0 
0 
0 
0 
0 
0 
0 
0 
0 
0 
0 
0 
0 
0 
0 
0 
0 
0 
0 
0 
0 
0 
0 
0 
0 
0 
0 
0 
0 
0 
0 
0 
0 
0 
0 
0 
0 
0 
0 
0 
0 
0 
0 
0 
0 
0 
0 
0 
0 
0 
0 
0 
0 
0 
0 
0 
0 
0 
0 
0 
0 
0 
0 
0 
0 
0 
0 
0 
0 
0 
0 
0 
0 
0 
0 
0 
0 
0 
0 
0 
0 
0 
0 
0 
0 
0 
0 
0 
0 
0 
0 
0 
0 
0 
0 
0 
0 
0 
0 
0 
0 
0 
0 
0 
0 
-0.04000692448747215 
0 
0 
0 
0 
0 
0 
0 
0 
0 
0 
0 
0 
0 
0 
0 
0 
0 
0 
0 
0 
0 
0 
0 
0 
0 
0 
0 
0 
0 
0 
0 
0 
0 
0 
0 
0 
0 
0 
0 
0 
0 
0 
0 
0 
0 
0 
0 
0 
0 
0 
0 
0 
0 
0 
0 
0 
0 
0 
0 
0 
0 
0 
0 
0 
0 
0 
0 
0 
0 
0 
0 
0 
0 
0 
0 
0 
0 
0 
0 
0 
0 
0 
0 
0 
0 
0 
0 
0 
0 
0 
0 
0 
0 
0 
0 
0 
0 
0 
0 
0 
0 
0 
0 
0 
0 
0 
0 
0 
0 
0 
0 
0 
0 
0 
0 
0 
0 
0 
0 
0 
0 
0 
0 
0 
0 
0 
0 
0 
0 
0 
0 
0 
0 
0 
0 
0 
0 
0 
0 
0 
0 
0 
0 
0 
0 
0 
0 
0 
0 
2.526619512619461 
0 
0 
0 
0 
0 
0 
0 
0 
0 
0 
0 
0 
0 
0 
0 
0 
0 
0 
0 
0 
0 
0 
0 
0 
0 
0 
0 
0 
0 
0 
0 
0 
0 
0 
0 
0 
0 
0 
0 
0 
0 
0 
0 
0 
0 
0 
0 
0 
0 
0 
0 
0 
0 
0 
0 
1.853939012547891 
0 
0 
0 
0 
0 
0 
0 
0 
0 
0 
0 
0 
0 
0 
0 
0 
0 
0 
0 
0 
0 
0 
0 
0 
0 
0 
0 
0 
0 
0 
0 
0 
0 
0 
0 
0 
0 
0 
0 
0 
0 
0 
0 
0 
0 
0 
0 
0 
0 
0 
0 
0 
0 
0 
0 
0 
0 
0 
0 
0 
0 
0 
0 
0 
0 
0 
0 
0 
0 
0 
0 
0 
0 
0 
0 
0 
0 
0 
0 
0 
0 
0 
0 
-2.388605454205603 
-2.006575909232683 
0 
0 
0 
0 
0 
0 
0 
0 
0 
0 
0 
0 
0 
0 
0 
0 
0 
0 
0 
0 
0 
0 
0 
0 
0 
0 
0 
0 
0 
0 
0 
0 
0 
0 
0 
0 
0 
0 
0 
0 
0 
0 
0 
0 
0 
0 
0 
0 
0 
0 
0 
0 
0 
0 
0 
0 
0 
0 
0 
0 
0 
0 
0 
0 
0 
0 
0 
0 
-1.420798371239752 
0 
0 
0 
0 
0 
0 
0 
0 
0 
0 
0 
0 
0 
0 
0 
0 
0 
0 
0 
0 
0 
0 
0 
0 
0 
0 
0 
0 
0 
0 
0 
0 
0 
0 
0 
0 
0 
0 
0 
0 
0 
0 
0 
0 
0 
0 
0 
0 
0 
0 
0 
0 
0 
0 
0 
0 
0 
0 
0 
0 
0 
0 
0 
0 
0 
0 
0 
0 
0 
0 
0 
0 
0 
0 
0 
0 
0 
0 
0 
0 
0 
0 
0 
0 
0 
0 
0 
0 
0 
0 
0 
0 
0 
0 
0 
0 
0 
0 
0 
0 
0 
0 
0 
0 
0 
0 
0 
0 
0 
0 
0 
0 
0 
0 
0 
0 
0 
0 
0 
0 
0 
0 
0 
0 
0 
0 
0 
0 
0 
0 
0 
0 
0 
0 
0 
0 
0 
0 
0 
0 
0 
0 
0 
0 
0 
0 
0 
0 
0 
0 
0 
0 
0 
0 
0 
0 
0 
0 
0 
0 
0 
0 
0 
0 
0 
0.5965680667560476 
0 
0 
0 
0 
0 
0 
0 
0 
0 
0 
0 
0 
0 
0 
0 
0 
0 
0 
0 
0 
0 
0 
0 
0 
0 
0 
0 
0 
0 
0 
0 
0 
0 
0 
0 
0 
0 
0 
0 
0 
0 
0 
0 
0 
0 
0 
0 
0 
0 
0 
0 
0 
0 
0 
0 
0 
0 
0 
0 
0 
0 
0 
0 
0 
0 
0 
0 
0 
0 
0 
0.4255466672940765 
0 
0 
0 
0 
0.2602232976306877 
0 
0 
0 
0 
0 
0 
0 
0 
0 
0 
0 
0 
0 
0 
0 
0 
0 
0 
0 
0 
0 
0 
0 
0 
0 
0 
0 
0 
0 
0 
0 
0 
0 
0 
0 
0 
0 
0 
0 
0 
0 
0 
0 
0 
0 
0 
0 
0 
0 
0 
0 
0 
0 
0 
0 
0 
0 
0 
0 
0 
0 
0 
0 
0 
0 
0 
0 
0 
0 
0 
0 
0 
0 
0 
0 
0 
0 
0 
0 
0 
0 
0 
0 
0 
0 
0 
0 
0 
0 
0 
0 
0 
0 
0 
0 
0 
0.2504688903224986 
0 
0 
0 
0 
0 
0 
0 
0 
0 
0 
0 
0 
0 
0 
0 
0 
0 
0 
0 
0 
0 
0 
0 
0 
0 
0 
0 
0 
0 
0 
0 
0 
0 
0 
0 
0 
0 
0 
0 
0 
0 
0 
0 
0 
0 
0 
0 
0 
0 
0 
0 
0 
0 
0 
-4.529450975451744 
0 
0 
0 
0 
0 
0 
0 
0 
0 
0 
0 
0 
0 
0 
0 
0 
0 
0 
0 
0 
0 
0 
0 
0 
0 
0 
0 
0 
0 
0 
0 
0 
-2.424475861026704 
0 
0 
0 
0 
0 
0 
0 
0 
0 
0 
0 
0 
0 
0 
0 
0 
0 
0 
0 
0 
0 
0 
0 
0 
0 
0 
0 
0 
0 
0 
0 
0 
0 
0 
0 
0 
0 
0 
0 
0 
0 
0 
0 
0 
0 
0 
0 
0 
0 
0 
0 
0 
0 
0 
0 
0 
0 
0 
0 
0 
0 
0 
0 
0 
0 
0 
0 
0 
0 
0 
0 
0 
0 
0 
0 
0 
0 
0 
0 
0 
0 
0 
0 
0 
0 
0 
0 
0 
0 
0 
0 
0 
0 
0 
0 
0 
0 
0 
0 
0 
0 
0 
0 
0 
0 
0 
0 
0 
0 
-1.338861558490272 
0 
0 
0 
0 
0 
0 
0 
0 
0 
0 
0 
0 
0 
0 
0 
0 
0 
0 
0 
0 
0 
0 
0 
0 
0 
0 
0 
0 
0 
0 
0 
0 
0 
0 
0 
0 
0 
0 
0 
0 
0 
0 
0 
0 
0 
0 
0 
0 
0 
0 
0 
0 
0 
0 
0 
0 
0 
0 
0 
0 
0 
0 
0 
0 
0 
0 
0 
0 
0 
0 
0 
0 
0 
0 
0 
0 
0 
0 
0 
0 
0 
0 
0 
0 
0 
0 
0 
0 
0 
0 
0 
0 
0 
0 
0 
0 
0 
0 
0 
0 
0 
0 
0 
0 
0 
0 
0 
0 
0 
0 
0 
0 
0 
0 
0 
0 
0 
0 
0 
0 
0 
0 
0 
0 
0 
0 
0 
0 
0 
0 
0 
0 
0 
0 
0 
0 
0 
0 
0 
0 
0 
0 
0 
0 
0 
0 
0 
0 
0 
0 
0 
0 
0 
0 
0 
0 
0 
0 
0 
0 
0 
0 
0 
0 
0 
0 
0 
0 
0 
0 
0 
0 
0 
0 
0 
0 
0 
0 
0 
0 
0 
0 
0 
0 
0 
0 
0 
0 
0 
0 
0 
0 
0 
0 
0 
0 
0 
0 
0 
0 
0 
0 
0 
0 
0 
0 
0 
0 
0 
0 
0 
0 
0 
0 
0 
0 
0 
0 
0 
0 
0 
0 
0 
0 
0 
0 
0 
0 
0 
0 
0 
0 
0 
0 
0 
0 
0 
0 
0 
0 
0 
0 
0 
0 
0 
0 
0 
0 
0 
0 
0 
0 
0 
0 
0 
0 
0 
0 
0 
0 
0 
0 
0 
0 
0 
0 
0 
0 
0 
0 
0 
0 
0 
0 
0 
0 
0 
0 
0 
0 
0 
0 
0 
0 
0 
0 
0 
0 
0 
0 
0 
0 
0 
0 
0 
0 
0 
0 
0 
0 
0 
0 
0 
0 
0 
0 
0 
0 
0 
0 
0 
0 
0 
0 
0 
0 
0 
0 
0 
0 
0 
0 
0 
0 
0 
0 
0 
0 
0 
0 
0 
0 
0 
0 
0 
0 
0 
0 
0 
0 
0 
0 
0 
0 
0 
0 
0 
0 
0 
0 
0 
0 
0 
0 
0 
0 
0 
0 
0 
0 
0 
0 
0 
0 
0 
0 
0 
0 
0 
0 
0 
0 
0 
0 
0 
0 
0 
0 
0 
0 
0 
0 
0 
0 
0 
0 
0 
0 
0 
0 
0 
0 
0 
0 
0 
0 
0 
0 
0 
0 
0 
0 
0 
0 
0 
0 
0 
0 
0 
0 
0 
0 
0 
0 
0 
0 
0 
0 
0 
0 
0 
0 
0 
0 
0 
0 
0 
0 
0 
0 
0 
0 
0 
0 
0 
0 
0 
0 
0 
0 
0 
0 
0 
0 
0 
0 
0 
0 
0 
0 
0 
0 
0 
0 
0 
0 
0 
0 
0 
0 
0 
0 
0 
0 
0 
0 
0 
0 
0 
0 
0 
0 
0 
0 
0 
0 
0 
0 
0 
0 
0 
0 
0 
0 
0 
0 
0 
0 
0 
0 
0 
0 
0 
0 
0 
0 
0 
0 
0 
0 
0 
0 
0 
0 
0 
0 
0 
0 
0 
0 
0 
0 
0 
0 
0 
0 
0 
0 
0 
0 
0 
0 
0 
0 
0 
0 
0 
0 
0 
0 
0 
0 
0 
0 
0 
0 
0 
0 
0 
0 
0 
0 
0 
0 
0 
0 
0 
0 
0 
0 
0 
0 
0 
0 
0 
0 
0 
0 
0 
0 
0 
0 
0 
0 
0 
0 
0.4833653835905137 
0 
0 
0 
0 
0 
0 
0 
0 
0 
0 
0 
0 
0 
0 
0 
0 
0 
0 
0 
0 
0 
0 
0 
0 
0 
0 
0 
0 
0 
0 
0 
0 
0 
0 
0 
0 
0 
0 
0 
0 
0 
0 
0 
0 
0 
0 
0 
0 
0 
0 
0 
0 
0 
0 
0 
0 
0 
0 
0 
0 
0 
0 
0 
0 
0 
0 
0 
0 
0 
0 
0 
0 
0 
0 
0 
0 
0 
0 
0 
0 
0 
0 
0 
0 
0 
0 
0 
0 
0 
0 
0 
0 
0 
0 
0 
0 
0 
0 
0 
0 
0 
0 
0 
0 
0 
0 
0 
0 
0 
0 
0 
0 
0 
0 
0 
0 
0 
0 
0 
0 
0 
0 
0 
0 
0 
0 
0 
0 
0 
0 
0 
0 
0 
0 
0 
0 
0 
0 
0 
0 
0 
0 
0 
0 
0 
0 
0 
0 
0 
0 
0 
0 
0 
0 
0 
0 
0 
0 
0 
0 
0 
0 
0 
0 
0 
0 
0 
0 
0 
0 
0 
0 
0 
0 
0 
0 
0 
0 
0 
0 
0 
0 
0 
0 
0 
0 
0 
0 
0 
0 
0 
0 
0 
0 
0 
0 
0 
0 
0 
0 
-0.6887588572442118 
0 
1.219126958336611 
0 
0 
0 
0 
0 
0 
0 
0 
0 
0 
0 
0 
0 
0 
0 
0 
0 
1.356434241381077 
0 
0 
0 
0 
0 
0 
0 
0 
0 
0 
0 
1.69546370250039 
0 
0 
0 
0 
0 
0 
0 
0 
0 
0 
0 
0 
0.2723369877672277 
0 
0 
0 
0 
0 
0 
0 
0 
0 
0 
0.3155433929775124 
0 
0 
0 
0 
0 
0 
0 
0 
0 
0 
0 
0 
0 
0 
0 
0 
0 
0 
0 
0 
0 
0.2781655912765879 
0 
0 
0 
0 
0 
-0.4318825991105575 
0.03723683398015396 
0 
0 
0 
0 
0 
1.23024844096658 
0 
0 
0 
0 
0 
0 
0 
0 
0 
0 
0 
0 
0 
0 
0 
0 
0 
0 
0 
