solver_type L1R_LR
nr_class 2
label 1 -1
nr_feature 98199
bias -1
w
-1.965048974141197 
0.341979138470718 
0 
-1.391513453758131 
-1.074311382715413 
0 
0.5912556576820788 
0 
0.300220120024487 
0 
2.059792902523938 
0 
0 
0 
0 
3.197660472298024 
1.133700623802213 
1.343475302859825 
1.342368322097297 
0.008821995120514223 
1.288901287346803 
0.4920223091963665 
-1.40895564426498 
0 
1.804907151891066 
0 
0 
0 
0 
1.383385223078993 
0.5159463231993714 
0 
0 
5.176283813424375 
0 
-0.4929966086342492 
0 
0 
0 
0 
0 
0 
-0.967564736575867 
0.05480431945542999 
-0.06694363151994076 
-1.828511716846102 
0.3181927633745013 
0 
0 
-1.780988517144418 
0 
0 
-1.829294854577758 
-0.01516744723877033 
0 
0 
0 
0 
-0.2696049329148412 
0 
0 
-1.214061124052085 
1.282475389642424 
-1.667544845407302 
0 
-0.9542799709931216 
0 
0 
1.334294383077312 
0.6198707338532129 
0 
1.05528663587512 
0.829862007211689 
0 
0 
0 
-0.02404903323942427 
0 
0 
-0.2661220480598797 
0 
2.152999200962944 
1.509998473915463 
0 
-0.003610894367870825 
0 
-0.1689804639452081 
-2.293508251577794 
0 
0 
0 
-0.4939559934521306 
1.208646864155891 
0 
0 
0 
0 
-0.2129520123943846 
0 
-0.3201248411245762 
0 
0.1898439984383632 
0 
-0.1532652846828771 
0 
-0.3257890375180694 
-0.08631962443894362 
0 
-0.7723669786040908 
-1.433144239155004 
0 
-0.6218557388389177 
0 
0 
0 
0 
-0.04783972892184084 
0.05088224386713705 
0 
0 
0 
2.387313247078107 
0 
0 
1.383337993759702 
0 
-0.07798104873460696 
0 
0 
-0.3777211878346864 
2.35853474224484 
-0.3655774570411249 
-1.158137377422914 
-0.9255019086614955 
0 
0.4630035490852709 
0 
-1.592677163384434 
-0.715596585480449 
0.2924169940808798 
-2.155257039004798 
0 
0 
0.0517888875180585 
0.446941736056673 
-0.03926021882841389 
-1.412632685626353 
0 
-0.1127791853356696 
0 
0 
0 
0.1809269189502933 
0.3531865643490985 
0 
0 
0 
0 
0.5390320985126943 
-0.02995978484324274 
-1.293225195794315 
1.993300806534138 
0.7214396680462036 
0 
1.068789237282715 
0 
0 
0 
0 
0 
0 
0 
0 
0 
0 
-2.340742278420504 
0.2235433610857636 
0 
1.710708368184225 
0 
0 
0 
0 
0 
-0.7839475817400832 
-0.490354900423945 
-0.2048744411284997 
0 
0 
0 
0 
0 
0 
0 
-0.1609397082016028 
0 
-0.6898747852784601 
0 
0 
0 
-1.031193086344103 
-0.3440097307865108 
0 
0.9871665471527986 
0 
0 
0 
-0.4149888697557908 
0 
0 
-0.2187477253494026 
0 
0 
-0.6867977064988805 
0 
-0.8697596175042888 
0 
0 
0.01177830608030911 
0 
-1.349574500610227 
0 
-0.3173336978785548 
0 
0 
0 
0 
0 
0 
0 
-0.3279370237463793 
-1.049144265749689 
0 
0 
-0.1764495035273585 
-0.9503287424193084 
0 
0 
0 
0 
0 
0 
0 
0 
-1.249572185136529 
0 
0 
0 
0 
0 
0.6430708490937677 
0 
-1.783703442705176 
0 
0 
0 
0 
0 
0 
0 
0 
0 
1.321095795180157 
0 
0 
-0.3605125081595532 
0 
0 
0 
-0.9832633807160088 
0 
0 
0 
0 
-0.2513661187419131 
0 
0 
0.7208241374519625 
-1.081436390423612 
0 
0 
0 
0 
0 
0 
-1.36533057784801 
1.087368954845633 
0.332170560424923 
0 
0.1737225865633225 
-2.477585205368348 
0 
0 
-1.034502661347828 
0 
0 
0 
0.3165062788430229 
0 
0 
1.711005977959803 
0 
0 
0 
0 
0.7214115779123597 
0 
0.9637052842834191 
0 
0.4311642319461547 
0 
0.2600875422077364 
1.428539028712496 
0.3178820501418359 
0 
0 
0 
0 
0 
0 
0 
0.260312764714729 
2.196557070441318 
0 
0 
-0.9636029284257948 
0.5066500169453413 
0 
-1.110863125364642 
0 
-0.4184176335532547 
0 
-1.188717395261489 
0 
0 
0 
0 
0 
0 
-0.2351286660289305 
-0.152012257607385 
0 
0 
0 
0.7354180194196934 
0.1783386451176021 
0.002930432873878648 
0 
0 
0 
0 
-1.295694687412822 
-0.02679835616992164 
0 
-1.212996770104796 
0.00955012569041112 
0 
0 
0 
0 
0 
-1.371510192417046 
0 
0 
0.0463357883233336 
-1.157428638028632 
0 
0.5472181526898099 
0 
0 
-2.302277938918701 
0 
0 
-0.6477066544137131 
0.4324298812818999 
-2.137029198353361 
0 
0 
-1.32121606920547 
0.733843533535063 
1.104695982353094 
0 
0 
0 
0 
0 
-0.9376600545296879 
0 
0 
0 
-0.8120885656893453 
-0.01923248292979774 
-0.3146341321721859 
0 
0 
0.7010110551780914 
0 
-0.8779512740133545 
0 
1.181289397379196 
0 
0 
0 
0 
-0.6218340635026137 
0 
-1.159715285238949 
0 
1.031388135696686 
2.705269609748187 
0 
-1.356575049102997 
0 
0 
0 
0 
0 
0 
0 
0 
0 
0 
0 
0 
0 
0 
-0.04526123393233044 
-1.963036110943684 
1.883161856593073 
-1.537570488941838 
0 
0 
0 
0 
0.21164120460825 
1.009562458913649 
0.2853685304715275 
-1.667026285181664 
0 
0 
0 
-1.504386985334672 
-1.890020722570757 
-0.2104673480210569 
0 
0.3999157351819865 
0 
0 
1.016066690465397 
0 
-3.620214148007008 
0 
0 
-1.821320703532321 
0 
0 
-0.9846718722704652 
-0.4057600488657136 
-0.3828878192575421 
-0.7190551681250682 
0 
-0.8040257123847282 
0 
0 
0.3808104342480688 
-1.527398216736459 
0 
0 
0 
0 
0 
0 
0 
0 
0 
0 
-0.9746951987305813 
0 
0 
0 
0 
0 
0 
0 
0 
-1.901334386577574 
-0.8104715279333387 
0 
0 
0.9975501342248206 
0 
0 
0 
0 
2.179835232291884 
0 
-0.6285998842257627 
-0.2644490276794321 
0 
0 
-0.3184319453986539 
0 
0 
2.045596116044138 
0 
0 
0 
-3.433527202326024 
0 
0.6590377282002745 
0 
1.055432420055029 
-3.074770416169252 
0 
0 
3.164571745185238 
1.248949522167793 
0 
0 
0 
0 
0 
0 
0 
0 
-0.4808368614335868 
0 
-0.3449535443345199 
2.866118476495096 
0 
0 
-1.566961907286857 
0 
0 
-1.094134699385712 
0 
-2.309646147081512 
0 
0 
-0.3182278066545767 
0 
0 
0 
0 
0 
0.2346009123149419 
0 
0 
0 
0 
0 
0.4197847468498011 
0.250408248054679 
1.42402391938056 
0 
1.202713333228472 
0 
0 
-0.8547178832533425 
0 
0 
0 
0 
0 
0 
0 
0 
0 
-2.580821968197228 
0 
0 
0 
-0.379075590275901 
0 
0 
0 
0 
0 
-0.03331337214173589 
0 
0 
0 
0 
-1.213549137186987 
0 
0 
0 
0 
-0.3628494330709169 
0 
0 
0 
0 
0.8011349713112733 
0 
0 
0.5159624203343624 
-0.2303271166344355 
-0.8415624970791324 
0 
0 
0 
0 
1.490694504837562 
0 
0 
0 
0 
0 
0 
0 
0 
0 
0 
0 
0 
0 
-2.20649687544738 
0 
0 
-0.5208475672953361 
-0.2359679433085828 
0 
-0.01430370881617375 
0 
0 
0 
0.07277108055276874 
0.4590435212903454 
-1.060028102850833 
1.863125353241452 
0 
0 
0 
-1.80487960424353 
0 
-0.3628928171410546 
-0.02720050878798574 
-0.5449724504672526 
0 
0 
0 
0.821143522587409 
0.7547825330547888 
0 
0 
0.8605872853768346 
0 
-1.39573031048023 
0 
0 
0 
-1.460783671418544 
0 
0.1617045412877617 
0.3243139748726012 
0 
0 
0 
0 
0 
0 
-0.3153670591859203 
0 
-0.4974038599222654 
0 
-4.569582773473334 
-0.6509045009375507 
-0.6675680018070895 
0 
0 
-2.549972554194821 
0 
0 
0 
2.17558228076779 
-2.602353112646298 
-1.373442209476726 
0 
0 
0 
1.802721878634248 
0 
2.185879819298234 
0 
0 
0 
-0.3782239040731364 
-0.222845552930029 
0 
0 
0 
0.1168365656635126 
0 
0 
0.1244526106768164 
0 
0 
0 
0 
0 
0 
0 
0 
0 
0 
0 
0 
0 
0 
-1.278084438955177 
0 
0 
2.585489241199424 
0 
0 
0 
-0.436341177318298 
0 
0 
0 
0 
0 
0.3966664407756074 
0 
0 
0 
0 
0 
0 
0.7387162589653723 
1.521742897349288 
0 
0 
0 
0 
-3.299011592833731 
0 
0 
0 
0.3333547004452845 
0 
0 
0 
-0.6212517632194884 
0 
0 
0 
0 
0 
0 
0 
0 
1.973335882579304 
0.2596181445738169 
0 
0 
-0.8243046028782173 
0 
0 
0 
0 
1.61258591587774 
0 
0 
0 
-1.182752179698513 
0 
0 
-2.716225426556915 
0 
0 
0 
0 
0 
0 
0 
0 
0 
0 
0 
0 
0 
-1.957730538659332 
0 
0 
0 
0 
3.044374299632939 
0 
0 
0 
0 
0 
0 
0 
0.3782039118937157 
0 
0 
1.139089226038552 
2.090686026823152 
0 
0 
0 
0 
4.096306891409123 
0 
0 
0 
0 
-0.1182074183121685 
0 
-0.4776735384853157 
-0.9554831764401695 
0 
0 
-0.519009565438923 
0 
2.384799564452716 
0 
0 
0 
0 
0 
0 
0 
0 
0 
0 
0 
0 
-1.616183616522635 
0 
0 
0 
0 
0 
0 
0 
0 
0 
0 
0 
0 
0 
0 
0.2376280671306879 
0 
0.5721664123817297 
0 
0 
0 
0 
0 
0 
0 
0 
0 
0 
0 
0 
0 
-0.2020327729054558 
0 
-0.1164238857443711 
0 
-1.166066832259491 
0 
-0.1098394318429074 
-1.867835758110113 
0 
-0.762912614286545 
1.214863736675581 
-0.6636704511558217 
0 
0.01486104080616302 
-3.147522988363797 
0.6343492250690236 
0 
0 
0 
0 
0 
0.230067965746274 
0.344315670543369 
-0.1719174566080809 
0.404490047594312 
0 
-0.4691406689910767 
0 
0 
0 
0 
0 
-1.335383014778556 
-4.079870775185409 
0 
0 
0.03106953160829507 
0 
0 
0 
0 
-1.292673325311611 
0 
0 
0 
1.171120887533313 
1.647434741456784 
0 
0 
0 
0 
0 
0 
0 
0 
0 
0 
-1.82913454562818 
-1.796139916980641 
0 
0 
0 
0 
0.256461242683679 
0 
0.6144596110324063 
0 
-0.00831637262372085 
0 
0 
0 
0 
0 
0.2622783925125211 
-0.01248909695546557 
-0.09769009154700722 
0 
0 
0 
0 
0 
0 
0 
0 
0 
0 
0 
0 
0 
0 
0 
0 
0 
0 
0.7506304715334242 
-0.8906565672797949 
-0.2743863947854153 
0 
0 
-0.3352531849050193 
0 
0.3174522388288401 
0 
0 
0 
0 
0 
0 
0 
0 
0.3240171706624103 
0 
0 
0 
0 
0.2712913695573084 
0 
0 
0 
0 
0 
2.848056226870592 
0 
0 
0 
0 
0 
0.445012645657016 
0 
0 
0 
-0.2299809946591555 
0 
0 
0 
0 
0 
0 
0 
0 
0.4856484235916569 
0 
0 
0 
0 
0.6095095413890659 
-2.177391109687491 
-1.053811763858325 
-0.4622213989680981 
0.89593497221718 
0 
0 
0.7558512160901167 
0 
2.506181411984299 
0 
0 
0 
0.3058292473456952 
2.210329810955002 
0 
0 
0 
0 
-0.1563311748328514 
-0.5664695262223224 
0 
0 
0.21894007935223 
0.5414165841709301 
0 
0 
1.759923137840427 
0.3375041670919968 
-0.0401345256571886 
0 
0 
-0.6605852103717383 
0 
-0.4951137246169658 
0 
-1.897498803934045 
0 
0.4595558127227659 
0 
0 
-0.3340402377924904 
-1.334005393098561 
0 
-1.101133968938454 
0 
0 
0 
0 
0 
0 
0 
0 
0 
0 
0 
-1.351001885203261 
0 
0 
0 
-0.1507335264813665 
0 
0 
0 
-0.2960323132430262 
0 
1.42748752915103 
0 
0 
-1.327617293822343 
0 
0 
0 
0 
0 
-1.013271671332643 
0 
0 
-2.592858254335785 
0 
0 
-0.9093355760979511 
0 
0 
0 
0 
-1.54019496255605 
-1.602151982688705 
0.2448324055338824 
0 
0 
0 
0 
0 
0 
-2.101749414335964 
0 
-0.5207177090462256 
0 
0 
0 
0 
0 
0.1149489136184779 
0 
0 
0.82094177484815 
0 
0 
0 
0 
0 
-0.3646624355148042 
0 
0 
-2.603350749021491 
0 
-0.771785724841516 
0 
-0.2017978249704118 
0 
0 
0 
-0.2020528868615622 
0 
0 
0 
0 
0 
0.4884835966611795 
0 
0 
0 
0 
-0.07639571435156266 
0 
0 
-0.7909465281969976 
0.993313282103371 
1.120093652288742 
0 
0 
0.5069489518167815 
0 
0 
0 
0 
0 
0 
0 
-2.33763052184812 
0 
-1.047376025165295 
1.080338625060732 
0.07792449802705069 
0 
-4.286513960203566 
-2.996998987164869 
-1.949243395768435 
0 
0 
0 
0 
1.196304604956129 
0 
0 
0.03239916778223887 
-0.9875233815991288 
0 
0 
0 
0 
-1.126738849901013 
-2.727296695899669 
0 
0 
0.7497923443647038 
-0.02931782316739334 
0 
0 
0 
0 
-2.107282498753011 
0 
1.405189102618897 
0 
0 
0 
1.252685455269563 
0 
0.4686977663972115 
0 
0 
0 
0 
0 
0 
0 
1.771043878952132 
0 
0 
0 
-1.102267395025325 
-1.064256806629681 
0 
0 
0.07784093415741013 
0 
-1.398428294964129 
0 
0 
-0.7818822014100116 
0 
0 
0 
0 
0 
0 
0 
0 
-0.3422933849181595 
0.9400873240958545 
0 
0 
0 
1.43235017359452 
0.6623483589810194 
0 
0 
0 
0 
0 
0 
0.4003078595272127 
0.6330764153342389 
0 
0 
0 
0 
0 
-2.968096890909166 
0 
0 
0.4095854157178579 
0 
1.553125559082464 
0 
0 
0 
0 
0 
0.4157953811876529 
0 
0 
-3.670159101369257 
-3.770636968340694 
1.010470976377994 
0 
0.03824711002200529 
0 
-2.129157777663829 
0 
-0.2789480112464735 
-0.8852095352510871 
0 
0 
0 
0 
-1.201258786501208 
1.826467688251624 
0 
0 
0 
0 
0 
0 
-3.928564345063047 
0 
0 
-0.8891373152413032 
0 
-1.603609051931041 
0.516158577964818 
0 
0 
0 
0 
0 
0.9438457183144705 
0 
0 
0 
1.843389727363422 
1.828700162517091 
-0.6715280428619265 
0 
1.868575965998449 
0 
-1.487974071642371 
0 
0 
0 
-4.191113793643376 
-0.5936214959187492 
-0.3433085136824927 
0 
-0.6536813470071669 
0 
-0.4196376279278787 
0 
-0.6427840871632562 
-0.275703353805741 
0 
0.08136983314392793 
0 
0 
-0.1682342597706429 
0 
0 
0 
-2.183734736721796 
-2.147011287955691 
0 
0 
0 
0 
0 
-0.8178929184927155 
0.7905926837261993 
0 
0 
0 
-0.744231582320304 
0 
-0.7354217253985711 
0 
0 
0 
0 
0 
0.6459190911022797 
0 
0 
0 
0.7964577581954421 
0 
0 
0.1408266266894464 
0 
-0.04739837723522686 
-1.513270181261021 
0 
0 
0 
0.692401299582488 
0 
0.3629376028807629 
0 
0 
0 
1.127509656190857 
0 
0.3325814294060873 
-0.8113358422845065 
0 
0 
0 
0 
-0.9292602087083786 
0 
0 
0 
0 
0 
0 
0 
0 
0.2188601143262055 
0 
0 
0 
0 
0 
0 
-2.273644385086771 
0 
0 
0 
0 
-2.864348823869126 
0.2879138770684758 
0 
0 
0 
-1.767702446706508 
0 
0 
0.4118399707782965 
-1.956886925890782 
1.371717108345716 
0 
-0.6100362834111058 
0 
0 
0 
0 
0 
0 
-0.003675419723142806 
0.713428588441627 
0 
-0.6198191185666891 
-1.220268313940007 
0.6298554522095301 
-2.357191800973692 
1.420219788078155 
0.3375123408498841 
0 
0 
-0.137662455513392 
-0.3295572346455641 
0 
-0.1501648041290956 
0 
0 
0 
0 
0 
0 
0 
1.270733340385347 
-0.7385483838553216 
0 
0 
0 
0 
1.201031676189176 
0.7245325548130059 
0 
0 
0 
0 
0 
-0.2216437124859165 
0 
0 
-0.9383935217600808 
0.7165655026765837 
0 
0 
-2.264429952125024 
0 
-0.1209163086100639 
-0.0358454512041143 
0.002588948534644904 
-1.381813959460412 
0 
0 
-1.529240158900962 
-1.782139767939927 
0 
0 
0 
0 
1.442995993514915 
0 
0 
0 
0 
0 
0 
0 
0 
-0.3514490275450797 
0.1806776082391271 
0 
-1.023152482985178 
0 
0 
0 
0 
-0.6227847395103007 
0 
0 
-1.046721492337526 
0 
-1.083189597188457 
0 
0 
1.336884133409758 
0 
0 
0.4855396661393757 
0.3759543307121269 
0 
0 
1.754829833726413 
0 
0 
0 
-0.5624636144443386 
-0.491727146941881 
0 
0 
0 
0 
0 
0 
0 
0 
0 
-4.741660789134555 
0 
0 
-2.164776674321571 
0 
0 
0 
0 
0.4367369567576769 
0 
0 
0 
-2.132336458134148 
0 
0 
0 
-5.814604557767541 
-0.1788278546987507 
0 
0 
0 
0 
0 
0 
0 
0 
-0.1607375506318141 
-0.001465033233866928 
0 
0 
0 
-0.2320265498969376 
0 
0 
-0.7164391302812604 
0 
0 
0 
-0.9673306505222339 
0 
0 
0.1843501000852175 
0 
0 
0 
0 
0 
0 
0 
0 
0 
0 
0 
0 
0 
-0.7137318603712428 
-0.03795313415535874 
0.9392046406081386 
-0.09780156789371031 
0 
0 
0 
0 
-0.3773086583329079 
-0.5801983550693592 
0 
0 
0 
0 
0 
0 
0 
-3.570319891710719 
-1.600074297802588 
0 
2.220876491499479 
0.3175355799756287 
0 
0 
-0.8230610786126519 
0 
-1.021406203107592 
0 
-0.3695333558591645 
0 
0 
0 
0 
0 
0 
0 
-2.082032795204982 
0 
0 
0 
-0.02448032851064238 
0 
0.343894559907508 
0 
0 
0.9051572453951992 
-0.1709202256249636 
0 
0 
0.6458696597083458 
0 
0 
0 
1.206322968378719 
5.294657245172777 
0 
0 
0 
-0.7365011660720973 
1.420512585320394 
0 
0 
0 
0 
0 
-0.4166904736058324 
0 
0.8851789537157105 
0 
0 
0 
0.6408101888193238 
0 
0 
-0.1449101689423343 
0 
-0.5004824156108891 
0 
0 
0 
0.3295872128411778 
0.1939925775108146 
0 
0 
-0.5001095894760526 
-0.7786837935566768 
0 
0 
0 
0 
0 
0.9996786358642119 
0 
0 
-2.269748161104978 
-1.738934565283727 
0 
0 
0 
0 
0 
-0.5184402771485588 
-1.837131501450013 
0 
0 
0 
0 
0 
0 
0 
0 
0 
0 
-2.897946195634623 
2.890198503298066 
0 
0.9551209598310846 
1.609786232763487 
0 
0 
0 
0 
0 
0.06725561574357017 
-1.342069307707958 
-0.6315381804628609 
0 
0 
0 
0 
0 
0 
0 
0 
0.9136093389798724 
0 
0 
0 
0 
0 
0 
0 
0 
0.3383746708327231 
-0.5853296866612289 
0 
0 
-0.2403793999921726 
0 
0 
0 
-0.5450632709629742 
-0.9246133442882287 
-0.8927954673435241 
0 
0 
0 
0 
-0.6326992835451875 
0 
-0.8211435580443048 
0 
0 
0.7099636975551905 
0.04285911765841229 
0 
-0.2391711989753473 
0 
0 
0 
-2.321962205011297 
0 
0.7789872383432502 
0 
0 
0 
-1.629254494342957 
0 
0 
0 
0 
0 
0 
0 
0 
0 
0 
0 
0 
0 
0 
0 
0 
0 
0 
-0.4181421458947713 
0 
0 
0.07425757000651888 
0 
0 
0 
0 
0 
0 
0 
0 
-1.513484679511853 
0 
0 
-0.9798008068217665 
0 
0 
0 
0 
0 
0 
0 
0 
0 
0 
0 
-0.209959565021473 
0 
0 
0 
0 
-1.162791953961389 
0 
0 
0 
0 
0 
0 
0 
0 
0 
0 
0 
0 
0 
0 
0 
0 
0.6954308687609907 
-0.737614918090262 
-2.399590894014494 
0 
0 
0 
0 
0 
0 
0 
0.2508039002192491 
0 
0 
0 
0 
0 
0 
0.05900920525677211 
0 
0.225710980159107 
-1.520516599662128 
0 
0 
-1.362730925281575 
0 
0 
0 
0 
1.321705334435547 
0 
1.485044445678506 
0 
0 
0 
-0.9579739665401168 
0 
0 
0 
0 
0 
0 
0 
0 
0 
0 
0 
0 
-0.7713845286361865 
1.23918041155491 
0 
0 
0 
0 
0 
3.123107456081582 
0 
0 
0 
0 
0 
0 
0 
0 
0 
0 
0 
0 
0 
0 
0 
0 
0 
0 
0 
0 
0 
-0.7790878751259537 
0 
0 
0 
0 
0 
0 
6.583721436839256 
0 
0 
0 
0 
0 
0 
0 
0 
0 
0.2531996136458888 
-1.217684127341226 
0 
0 
0 
0 
0 
0 
-1.963797669052742 
0 
0 
0 
1.041677987480061 
0 
0.052999081881783 
-0.2861254741807259 
0.1819714055051135 
-0.576832332028259 
-1.053152094529242 
1.318586445032064 
0 
0 
0 
0 
0 
0 
0 
-0.1873641170887771 
0 
0 
-1.229254660294364 
-0.2986673673988174 
0 
0 
0 
0 
-1.22339765066103 
0 
0 
-0.344248795827128 
0 
0 
0 
0 
-0.1927135342379916 
-0.5569222001693515 
0 
0 
0 
0 
0 
0 
0 
-0.7019768716600081 
0 
0.6380429963141402 
0 
0 
3.628845554095677 
-2.674922805770795 
0 
0.5065335089435258 
0 
0.8746538914853239 
0 
0 
0 
-0.7009083007336604 
0 
0 
0 
0 
0.6745438131517584 
0 
0 
0 
0 
0 
0 
0 
0 
0 
0 
0 
0 
0 
0 
0 
0 
0.6663364559365615 
0 
0 
-0.228607638245979 
0 
0 
0 
0 
0 
0.3507803489173446 
0 
0.4528378521478711 
0 
3.301700949262285 
-1.742239035888681 
0 
-3.241831050254136 
0 
-0.9574082973291845 
-0.5111932939375686 
0 
0 
0 
0 
-0.6894209691096666 
0 
0 
-0.3575394966510096 
0 
0 
0 
-0.1953957996344075 
-1.845700954879286 
0 
0 
-0.4743677609130343 
0.160925130951998 
-1.468033093879599 
-0.9526686658678883 
0 
0 
0 
-2.616683593110156 
-0.03358543276707531 
0 
3.590958230583133 
0 
0 
0.7459927551340626 
-0.6456084080351902 
0 
0 
0 
0.6771761749185445 
0 
0 
0 
0 
0 
-1.04026654988814 
0 
-1.40587610282262 
0 
-3.500384411613987 
-0.675406469929674 
0 
0 
-0.1404474990111057 
0 
0 
0 
0 
0 
0 
0 
-0.3177161071409272 
0 
-0.4947687249171559 
0 
0 
0 
0.1135405323558573 
0 
0 
-1.745456922966483 
0 
0 
0 
-2.005419103114368 
0 
0 
0.1972723363007509 
0 
0 
0 
0 
0 
0 
0 
0 
0 
0 
0 
-1.973375207869411 
0 
0 
0 
0.9154605181406073 
0 
0 
0 
-0.05707810825907159 
0 
0 
-2.449923874793137 
0 
0 
-0.4697623347788349 
0 
0 
0 
0 
0 
0 
0 
0 
0 
0.6006614131705245 
0 
0 
0 
-0.1714891715586103 
0 
0 
0 
-1.260321450544441 
0 
0 
0 
0 
1.12021931457683 
0 
0 
0 
0 
0 
0 
0 
0 
-3.059175724868203 
-0.2867081796661805 
0 
0 
0 
0 
0 
-1.169645656493923 
0 
0.1640823910862183 
0 
0 
-4.234364539407004 
0 
0 
0.7584973038354461 
0 
0 
0 
0 
0 
0 
0 
0 
0.5639978530205037 
0 
-0.5487905735090669 
0 
-1.248389566953395 
0 
0 
0 
0 
-0.1494483724502434 
-0.6325824331496548 
0 
0 
0 
-1.09814505733284 
0 
-0.7206317260925451 
0 
0 
0 
0 
0 
0 
0 
0 
0 
0 
0 
0 
0 
0 
-2.069753102346239 
-2.68495127640963 
0 
0 
0 
-0.2676650333448671 
0 
0 
0 
0 
0 
0 
0 
0 
0 
-2.307178696668448 
0 
0 
0 
0 
0 
0.7404416941998195 
0 
-0.8401141741985869 
0 
0 
0 
0 
0 
0 
0 
-0.08864444742490757 
0 
0 
0 
0 
0 
0 
-0.5438209157340036 
0.09981968109424563 
0 
-1.397429472783365 
0 
0 
0 
-0.6989476389472035 
0 
-3.360434569733829 
0 
-1.609195559694819 
0 
0 
0 
0 
-0.05382401843292499 
0 
0 
0 
0 
0 
0 
0 
0 
0 
0 
0 
0 
0 
0 
-0.02158347344095015 
0 
0 
-1.732340562964874 
0 
0 
0 
0 
0 
0 
0 
0 
0 
0 
0 
-0.8948812092313079 
0.7792026473281941 
0 
0 
0 
0 
0 
0 
0 
0 
0 
0.0121425980227151 
0 
-0.274565650424637 
0 
0 
0 
0 
0 
0 
0 
1.77371705845157 
0 
0 
0 
0 
0 
0 
-0.9633723623655344 
0 
0 
0 
0 
0 
0 
0 
0 
0 
-0.4419432173795075 
0 
-0.764827245287461 
0 
0 
0 
0.6221274882516276 
0 
0 
0 
0 
0 
0 
-0.1378294189257074 
0 
-2.312487535417938 
-1.476063075244054 
0 
0 
0 
0.5009959376712559 
0 
0 
0 
0 
0 
-0.6294633128408036 
0 
-1.122733090354821 
0 
0 
1.819964616122993 
-0.3026425381632768 
-1.331169183157938 
1.243220707796515 
0 
0 
0 
0 
0 
0 
0 
0 
0 
3.133312887935575 
0 
0 
0 
0 
0 
0 
0 
0 
0 
-0.05871924495351351 
0 
0 
0.08599132096510295 
-0.1642702230203418 
-0.4731237950641168 
0 
0 
0 
1.792627316033441 
0 
0 
0.9068904018994728 
0 
0 
0 
0 
0 
-0.5801344002931547 
0 
0 
0 
0 
0 
0 
0 
0 
0 
0 
0 
0 
0 
0 
0 
0 
0 
0 
-0.08090358182707236 
-0.2152829276654693 
0 
0 
0 
0 
0 
2.716745141829184 
0 
0 
0 
-4.686615339622507 
0.09416670596648903 
0 
0 
0 
0 
0 
0.132621741605469 
0 
0 
0 
0 
0 
0 
0 
0 
-1.766473374408419 
-1.643517642961202 
0 
0 
-1.428709579242826 
0.4198164493485154 
0 
0 
-1.213331276106885 
0 
0 
0 
0 
0 
0 
0 
0 
0 
0 
0 
0 
-1.489010574015256 
0 
0 
0 
0 
0 
0 
-0.04266111578390909 
0 
-0.9759167704238575 
0 
0 
0 
0.06218882676501233 
0 
0 
0 
0 
0 
0 
-0.5477934055509348 
0 
0.7832798569871642 
0 
0 
0 
3.17092663640822 
0 
0 
0 
0 
0 
0 
1.119435472675868 
-0.07238374992850538 
0 
0 
-1.08892570800062 
-0.07853893830199694 
-0.5099671573888233 
0 
0 
0 
-0.888849043539125 
-2.007162029110991 
0.3985879257863084 
0 
-2.518363048160718 
0 
-0.7270259673970547 
0 
0 
0 
0 
0 
0 
0 
0 
-0.2644712350716258 
0 
0.7883493057102314 
0 
0 
0 
0 
0 
-1.385123952742431 
0 
0 
0 
0 
0 
0 
0 
0 
0 
0 
-0.6932865918240353 
0 
0 
0 
0 
0 
0 
0 
0 
0 
0 
1.190553874015346 
0 
0 
0 
0 
0 
0 
0 
0 
0 
0.8222848183548749 
0 
0 
0 
0 
-0.06712761483693411 
0.1652226023851311 
0 
0 
0 
0 
0 
0 
0 
0 
0.4801412655705782 
0 
0.2785329307705415 
0 
0 
0 
0 
0 
0 
0 
0 
-0.1704511148674028 
0 
0 
-1.863919051342331 
0 
0 
0 
0 
0 
0 
0 
-0.7648764983502892 
0 
0 
0 
0 
-1.506199884133924 
0 
-1.593347194046815 
-4.487467608442877 
0 
0 
0 
0 
0 
0 
-0.8841853704872736 
0 
0 
-1.463410442118338 
0 
0 
0 
0 
-0.9720594190913368 
0 
1.135733750629022 
0 
0 
0 
0 
0 
0 
0 
0 
0 
0 
0 
0 
0 
0 
0 
0 
-0.7501734589969697 
0 
-0.6096213967317052 
0 
0 
0 
0 
0 
0 
0 
0.1083436957401562 
-0.7220000194965035 
-1.275918385156934 
0 
0 
0 
0 
0 
0 
-0.1214759795229691 
0 
0.165237495086649 
0 
3.043174040868559 
0.04129074907633389 
0.1225109048153342 
0 
0.05645045558631192 
0 
0 
0 
0 
-0.4404304352478733 
0.03964069907788696 
-0.6546818738806554 
0 
0 
0 
0.8786743647134577 
0 
0 
0 
0 
0 
0 
0.4143742111688363 
0 
0 
0 
0 
0 
0 
-0.1636275815876895 
0 
-2.53172748197932 
0 
0 
0 
0 
0 
0 
0 
0 
0 
0 
0 
0.6750123538939462 
1.18114068915255 
0 
0.0375637601569752 
0 
0 
0 
0 
0.1726990240846879 
0 
0 
0 
0 
-0.430848910628504 
0 
0 
0 
-1.007615846521017 
0 
-0.6795458516389873 
0 
0 
-0.1297926872402928 
0 
0 
0 
0 
0 
0 
0 
0 
0 
0 
-0.7693137818537738 
0 
1.432979553598041 
0 
-0.2124081218673417 
0 
-0.7462613388266139 
0 
-0.02742412130306523 
0 
3.02143896851479 
0 
0 
5.400246566999232 
0 
0 
0 
0 
0 
0 
1.638594465621763 
0 
0 
0 
-1.649811517381636 
0 
0 
1.538357523705469 
-0.6978155320708652 
0 
0 
-0.307389742501589 
0 
0 
0 
0 
0.3112816436305209 
0 
0 
0 
0 
0 
0 
0 
0 
0 
0 
0 
0 
0 
0 
0 
-1.78208470987947 
0 
0 
-1.616553099062477 
0 
0 
0 
0 
0 
-0.08310178294148725 
0 
0 
0 
0 
0 
0 
0.2386653750313973 
0 
0 
0 
0 
-1.724814130033594 
0 
0 
0 
0 
0 
0 
0 
0 
0 
0 
-0.5589963500556784 
0 
0 
0 
0 
0 
0 
0 
0 
0 
-1.461706504156415 
0 
0 
0 
0 
0 
1.238706145677093 
0 
0 
0.07956233317479294 
0 
0 
0 
0 
0 
0.5729176718349721 
-0.464439894291362 
0 
0 
-0.1646218607589795 
0 
-1.688175453053289 
0 
0 
0 
0 
0 
-1.658505017901464 
0 
-0.2366167848041083 
0 
0 
0 
0 
0 
0 
0 
0 
-1.039301159767659 
0 
0 
0 
-0.4938868385297376 
0 
0 
-4.994963977009811 
0 
0 
0 
0 
-6.805373423754698 
-1.49756208059305 
-1.344448533495618 
0 
0 
0 
-0.4817403135948509 
-0.8425939969909553 
1.029866620854603 
-1.194676789043892 
0 
0 
-0.9388980279727999 
0 
0 
0 
0 
0.06079980720755886 
0 
0 
0 
0 
0 
1.143644438804162 
0 
1.518654696999997 
0 
0 
0 
0.007389350362312133 
-0.06072818819364192 
0 
0 
0 
0 
0 
1.940336986825124 
0.6939710520388246 
0 
0 
-1.791902069971724 
0 
0 
0 
-0.4624816915875344 
0.5487387355738369 
0.2624449883205187 
-3.312887708707548 
-3.984424415393481 
0 
0 
0 
0 
-3.932923931218308 
0 
0 
0 
0 
0 
0 
0 
2.534466801978436 
0 
-1.94930123024766 
0 
0 
0 
-0.09536140971890807 
2.066321244905821 
0.07139575082390844 
0 
0 
0 
0 
0 
0 
0 
0 
0 
-0.4809655464540528 
1.678552005830637 
0 
0.5684275784434685 
0 
0.3571927434723108 
-0.8589457228756723 
0 
-0.5311908381558304 
0 
0 
-0.9207559410754823 
0.01438186194651277 
0 
-0.6227334281553608 
-0.9269043885013824 
0.5343129296714175 
0 
0 
0 
0 
-2.122122014521743 
0 
0 
-1.750753100733174 
0 
0 
0 
0 
0 
0 
1.450704107034226 
0 
0 
0 
0 
0 
0 
0 
-0.158091659273095 
-0.4727976275935312 
0 
0 
0 
-0.1999430761876794 
0 
0 
0 
0 
0 
-5.014851955691658 
0 
0 
0 
0 
0 
0 
0 
0 
1.11948935271001 
0 
0 
-0.2290525315784384 
1.495332482708174 
1.703606613895215 
0 
0 
0 
0 
0 
0 
0 
0 
0 
0 
0 
0 
0 
0 
0 
0 
0 
0.6397293439598448 
0 
-1.338098478030388 
0 
0.09245132728031284 
0 
0 
2.011183318952744 
0 
-1.763753660652162 
0.6134811673092476 
0 
0.4567525234952893 
0 
0 
0 
0 
-2.391605812372255 
0 
1.272248567970415 
0 
-1.418301178501162 
0 
0 
0 
0 
0 
0 
0 
0 
1.756415804359483 
0 
0 
-0.06012456826339086 
0 
0 
0 
0 
0 
-0.6389895542218255 
-0.3006272136028121 
0 
0 
1.237850297283932 
0 
0 
0 
0 
0 
0.406355135167584 
0 
0 
0 
0 
0 
0 
0 
0 
0.08882990480194887 
0 
0 
0 
0 
-0.06206418494396935 
0 
0 
0.1230696072306202 
-1.033750689228504 
0 
0 
-0.922691172163211 
0 
0 
0 
0 
0 
0.5556097666432608 
0 
-3.501834374574503 
0 
0 
0 
0 
0 
0.2411852172235486 
0 
0 
0 
0 
0 
0 
0 
0 
0 
0 
0 
0 
0 
0 
0 
-0.1238404471031971 
0 
0 
0 
0 
0 
0 
0 
0.5690087287037878 
0 
0 
-0.9810545046918761 
0 
0 
0 
0 
0 
0 
0 
0 
0 
0 
0 
0 
-1.456698719221557 
0 
0 
0 
0 
0 
0 
0 
0 
0 
0 
0 
0 
0 
0 
0 
0 
0 
0 
0 
0 
0 
0 
0 
0 
0 
-2.558483220817095 
0 
0 
0 
0 
0 
1.384049351440383 
0 
0 
-0.1077862480185541 
-0.6042905165398953 
-0.06981414829142527 
1.059735509863668 
0 
0 
0 
0.05885973568299985 
0 
0 
0 
0 
0 
0 
0 
-1.50064901340678 
0 
0 
0.1503647984159974 
0 
0 
0 
0 
0 
0 
0 
0.3328329424835953 
2.642757356056485 
0 
0 
0.2816580053288635 
0 
0.7520970600646059 
0 
0 
0 
0 
0 
0 
0 
0 
0 
1.038696086901108 
0 
0.05748188128816927 
0 
0 
0 
0 
0 
0 
0 
0 
0.5553583739107101 
0 
0 
0 
-0.5770374517252075 
-2.015854456043147 
0 
0 
0 
-1.363875292333586 
-0.2782223397445314 
0 
-0.4562534586054353 
0 
0 
0 
0 
0 
0 
0 
0 
0 
2.75934228772938 
0 
0 
0 
0 
0 
0 
-2.270230560136687 
0 
0 
0 
-4.703914041231671 
0 
0 
0.4299675191433397 
1.294532591907592 
-0.2328033505583392 
0 
0 
-0.06188637649860494 
0 
0 
1.140768050829964 
0 
0 
0 
2.327476211516442 
0 
0 
0 
0 
0 
0 
0 
0 
0 
0 
0 
0 
0 
0 
0 
0 
0 
0 
0 
0 
0 
0.121103097429013 
0 
0 
0 
-0.1931241031118087 
0 
0 
0 
0 
0 
0 
-0.4933232229420423 
0 
0 
0 
0 
0 
-5.228996451899681 
0 
1.586974630219362 
-0.2899600875592038 
0 
0 
0 
0 
0 
0 
1.191766009869979 
0 
0 
0 
0 
0 
0 
0 
0 
0 
0 
0.2469378925007335 
-0.009037985571407824 
0 
-1.151660478999069 
0 
-0.5372792631554559 
0 
0 
0 
-0.1729844731670966 
0 
0 
0 
0 
0 
0 
0 
-1.3064068985337 
-1.457020812204088 
0 
0 
0 
0 
0 
1.67037973100726 
-0.2443555727477162 
0 
0 
0.006198409022510449 
0 
0 
0 
0 
-0.6837939468328473 
0 
-0.3574795652536909 
0 
0 
0 
0 
0 
0 
0 
-0.484843478238328 
0.5795367721192919 
1.73601204423971 
0 
0 
0 
1.57731400097484 
0 
0 
0 
0.06276426119551273 
0 
-1.014877854207622 
0 
0 
0 
0 
0 
0.003399184550356948 
0 
0 
0.07346817097501382 
0 
-1.292794521571748 
0 
2.280686241529732 
-0.5594251819285595 
0 
0.9154006606073396 
0 
-1.263247751302845 
0 
-0.2712128966980206 
0 
0 
0 
0 
0 
-0.1216199291999277 
0 
-0.7697796034086361 
0 
-2.281362523362668 
0 
1.282500711938764 
0 
0 
0.08497284080626588 
0 
0 
0 
0 
0.6376651796458559 
-0.08710843549771968 
0 
0 
0 
0.5244745596656005 
0 
0 
0 
0 
0 
0 
0 
0 
-2.184398846705206 
0 
0 
0 
0 
0 
0 
0 
0 
0 
0 
0 
1.986175326162121 
0 
1.220433668174737 
0 
-0.5780185927172558 
0 
0 
0 
-2.208460183759684 
-0.5091647505242779 
0 
0 
0 
0 
0 
0 
0 
0 
0 
0 
0 
0 
-0.2497976606091239 
0 
0 
0 
0 
0 
0 
0.9015654211942632 
0 
0 
0 
0 
0 
0 
0 
0.04881946237420015 
0 
0 
-2.624488335155679 
-1.236892828860756 
-0.8144293658153068 
-0.7650174138792272 
0 
0 
0 
0 
0 
-2.1356500212461 
0 
0 
0 
0 
0 
0 
-1.216878814717883 
1.872098005555305 
0 
0 
0 
0 
0 
0 
0 
0 
0 
0 
0 
0 
0 
0 
0 
0 
0 
0 
0 
0 
0 
0.2779981352898759 
0 
0 
0 
0 
0 
0 
0 
0 
0 
0 
0 
0 
0 
0 
0 
0 
0.06458287325114373 
0 
0 
0 
0 
0.2611563158398854 
0 
0 
0 
-1.131882771041898 
0 
0 
0 
0 
0 
0 
0 
2.054695683374571 
1.303854753529695 
0.1438308368939628 
-0.176594666819262 
0 
-0.02974221747023214 
0 
0 
2.543841761407094 
0 
0 
0 
0 
1.019389392339178 
-2.771889740392556 
0 
0 
0 
0 
-0.4427950254619636 
0 
0.1406736764641405 
0 
0 
0 
0 
0 
0.04009674947365017 
0.5697220089527122 
0 
0 
0 
0 
0 
0 
0 
0 
0 
3.045575667430439 
0 
0 
0 
0 
0 
0 
0 
-0.6829854185495969 
0 
0 
0 
0 
0 
0 
0 
0 
-0.1834686956657008 
0 
0 
0 
0 
0 
0 
0 
0 
0 
0 
0 
0 
0 
0 
0 
0 
0.4480333277502073 
0 
1.178663446406631 
0 
0 
0 
0 
0 
0 
-1.663150033826834 
0 
-0.4183709181347868 
0 
0 
0 
0 
0 
0 
0 
0 
0 
-0.8357803051246832 
-0.4423047047848111 
0 
0 
0 
0 
0 
0 
0 
0 
-0.514031924064224 
0 
0 
0 
0 
0.494431122555854 
0 
0 
0.396307863726233 
0 
0 
0 
0.02538341295842214 
0 
0 
0 
0 
0 
0 
0 
-2.192994535632815 
0 
1.008514953999053 
0 
0 
0 
-2.13535430423159 
0 
0 
0 
0 
-0.7934939650993946 
0 
0 
0 
0 
0 
0 
0 
0 
0 
0 
0 
0 
0 
0 
0 
0 
-2.071511955248448 
0 
0 
0 
-1.368815380043004 
0 
0 
0 
1.364727433937955 
0.5099387556541868 
0 
0 
0 
-0.4264664609240803 
0 
0 
-0.9583225671862939 
0 
0 
0 
0 
-1.176437221852616 
0 
0 
0 
0 
0 
0 
-1.837647260805645 
0 
0.1740945227272324 
0 
-1.535657180481125 
0 
0 
0 
-1.792085885216056 
0 
0 
0 
0 
-7.377659499064984 
-5.430499982776611 
0.2718698920376492 
0 
0 
0 
-0.379675119029123 
-0.8673156584292457 
-0.9867144938824233 
-0.1692822057348985 
0 
1.775130770235651 
0 
0 
0 
-0.5295514426814584 
0 
0 
0 
0 
0 
0 
0 
0 
0 
0 
-1.208142182759995 
0 
0 
0 
0 
0 
-1.218012116759101 
0 
0 
0 
0 
0 
0 
0 
0 
0 
0 
0 
0 
0 
0 
0 
0 
0.4514961947292817 
0 
0 
0 
0 
0 
0 
0 
0 
0 
0 
0 
0 
0 
0 
0 
0 
0 
0 
0 
0 
-0.2154824976704484 
-0.3179818749337465 
0 
0 
0 
0 
0 
0 
1.5612518977334 
0 
0 
0 
0 
0 
0 
0 
1.513425875239968 
0 
0 
0 
0 
0 
0 
-0.5576947702864286 
0 
0 
0 
0 
0 
0 
0 
-0.7933912673678583 
0 
0 
0 
0 
0 
0 
0 
0 
0 
0.2345262356944853 
0 
0 
-0.3125439929532663 
1.666241758870513 
0 
0.4168882651426668 
0 
0.768621390491079 
0 
0 
0 
0 
0 
0 
0 
0 
-0.8610596018642905 
0 
0 
0 
0 
-2.290358976342662 
0 
0.9678503744592951 
0 
0 
0 
0 
0 
0 
0 
2.219269609626325 
-0.5374305806747752 
0 
-0.3345234167961847 
0 
0 
0 
0 
0 
0 
0 
0 
0 
0 
0 
0 
0 
0 
0 
0 
0 
0.7968149520624454 
0 
-0.7629374497325346 
0 
0 
0 
0 
-1.242091296110495 
0 
0 
0 
0 
1.130082495139868 
0 
0 
0 
0 
0 
0 
0 
0.0600350668644404 
0 
0 
0 
0 
0 
0 
0.1970649927818004 
0 
3.289108936983989 
0 
0 
0 
0 
-0.5634567549817687 
0 
0 
-0.4336967451535568 
0.1443969344065772 
0 
0 
-2.377488740199191 
0 
-0.8799517250915007 
0.04718690440198364 
0 
-1.871334078242016 
0 
0 
0 
0 
0 
0.6825827206484677 
0 
0 
-1.396523990057479 
0 
0 
0 
0 
0 
0 
0 
0 
0 
0 
0 
0 
0 
0 
0 
0 
1.055325974447064 
0 
0 
0 
0 
-2.083449357316504 
0.7077398236339771 
0 
0 
0 
0 
0 
0 
0 
0 
0 
0 
0 
0 
0 
0 
0 
0 
13.46488828291484 
-0.7047204099997794 
0 
0 
0 
0 
0 
0 
0 
0 
0 
0 
0 
0 
0 
-1.111107388010844 
0 
0 
0 
-0.9544048286241592 
0 
0 
0 
0 
0 
0 
0 
0 
0 
-0.9335343298655038 
0 
0 
0 
-1.801698527988823 
0 
0 
-1.633748474753429 
-1.077284366008992 
0 
-0.3706879977633317 
0 
0 
0.8288759641843058 
-1.577903108654477 
0 
0 
-0.3864823080951679 
0 
0 
0 
-1.106665243575226 
0 
-0.651073106676731 
0 
0 
0 
0 
0 
0 
0 
0 
0 
0 
0 
0 
0.7113805907196553 
0 
0 
0 
0 
0 
0 
-0.5963874072966749 
0 
0 
0 
0 
0 
0 
0 
0 
0 
-0.3794346829597483 
0 
0 
0 
0 
0 
0 
0 
0 
0 
0 
0 
0 
-1.448016873782073 
0 
0 
0 
0.6654862594689396 
0 
0 
0 
0 
0 
0 
0 
0 
0 
0 
0 
0 
0 
0 
0 
0 
0 
0 
0 
0 
0 
0 
0 
0 
0 
0 
0 
0 
0 
0 
0 
0 
0 
-1.309880609113247 
0 
0 
0 
0 
0 
0 
0 
0 
0 
0 
0 
0 
0 
-0.8074465661125581 
0 
0 
0 
0 
-0.5420064059837102 
0 
0 
0 
0 
0 
-1.316306202323999 
0 
-0.7208082995037387 
0 
0 
0 
-2.540370855432955 
0 
-0.4602944803447467 
0 
0 
0 
0 
0 
0 
0 
0 
0 
0 
0 
0 
3.146315792584192 
0 
0 
0 
0 
0 
0 
0.4142911680088548 
0 
0 
0 
0 
0 
0 
0 
0 
0 
0 
0 
0 
-1.339827389784005 
0 
0 
0 
0 
0 
-4.517423531596169 
0 
-3.587305876836424 
0.7698258491705338 
0 
0 
0 
0 
0 
0 
0 
0 
0 
-0.4984759587871478 
0 
0 
0 
0 
0 
0 
0 
0 
0 
0 
0 
-0.735149861430094 
0 
0.1871992813099668 
0 
0 
-4.094678878026806 
0 
0 
0 
-1.863436068713173 
0 
-1.173108673633063 
0 
0 
0 
0 
0 
0 
0 
0 
0 
0 
-0.6125999403732284 
0 
0 
0 
0 
0 
0 
0 
0.06750168243529107 
0 
0 
0 
0 
0 
-1.289487934731479 
0 
0 
-1.403202483495194 
0 
0 
0 
0 
0 
2.418519942647019 
0 
0 
0 
0 
0 
0 
0 
0 
0 
0 
0 
0 
-1.693061611651011 
0 
0 
0 
0 
0 
2.973186438764411 
0 
0 
0 
0 
0 
0 
0 
0 
0 
0 
0 
0.8163354653583835 
0 
0 
0 
0 
0 
0 
0 
0 
0 
0 
0 
-0.4266113699890836 
0 
0 
0 
0 
0 
0 
-1.200027664035731 
0 
0 
0 
0 
0 
0 
0 
0 
-0.6329694480728286 
0 
-1.268942584733297 
0 
0 
0 
0 
0 
0 
0 
0 
0 
0 
0 
0 
0 
0 
0 
0 
0 
0 
0 
0 
0 
0 
0.5628274560735911 
0 
0 
0 
0 
0 
0 
0 
0 
0 
0 
0 
0 
0 
0 
0 
-0.8995986846764945 
0 
0 
0 
0 
0 
0 
0 
0.3249886089335494 
0.8270093696709661 
0 
0 
0 
0 
0 
0 
0 
0 
0 
0 
0 
-2.281130398150403 
0 
0 
0 
0 
0 
0 
0 
0 
0 
0 
0 
0 
0 
0 
0 
0 
0 
1.751652822682271 
0 
0 
0 
-0.4006664368419325 
0 
0 
0 
0 
0 
0 
0 
-2.479108400754801 
1.143971923506003 
0 
0 
0 
0 
0 
0 
0 
0 
0 
0 
0 
0 
0 
0 
0 
0 
0 
0 
0 
0 
0 
0 
0 
0 
0 
0 
0.6783006551583218 
0 
0 
0 
0 
0 
0 
0 
0 
0 
0 
0 
0 
-1.71718973358908 
0 
0 
0 
0 
0 
0 
0 
0 
0 
0 
0.690612865231607 
0 
-0.6725900757474874 
0 
0 
0 
0 
0 
0 
0 
0 
0 
0 
0 
0 
0 
0 
0 
0 
0 
0 
0 
0 
0 
0 
0 
-2.01645177694967 
0 
0 
0 
0 
0 
0 
0 
0 
0 
0 
0 
0 
0 
0 
0 
0 
0 
-0.6074322006393206 
0 
0 
0 
-3.469201734453593 
0 
0 
0 
0 
-0.5114718738930619 
0 
0 
0 
0 
0 
0 
-0.2502279213266487 
0 
0 
0 
0 
0 
0 
0 
0 
0 
0 
0 
0 
0 
-0.5527623040652767 
0 
0 
0 
0 
0 
0 
0 
0 
0 
0 
0 
0 
0 
0 
0 
0 
0 
0 
0 
0 
0 
0 
0 
0 
0 
0 
0 
0 
0.05919394533456783 
0 
0 
0 
0 
0 
0 
0 
0 
0 
0 
0 
0 
0 
-0.761537117330729 
0 
-1.224008302253118 
0 
0 
0 
0 
0.7528114524015109 
0.82499123673169 
0 
0 
0 
0 
0 
0 
0 
0 
0 
0 
0 
0 
0 
0 
0 
0 
0 
0 
0 
0 
0 
0 
0 
0 
0 
0 
0 
0 
-3.125432956073309 
0 
-2.702079875596325 
0 
0 
0 
0 
0 
0 
0 
0 
0.2676991304431253 
0 
0 
0 
0 
0 
0 
0 
0 
0 
1.120207392089232 
0 
0 
-0.7940591140405481 
0 
0 
0 
0 
0 
0 
0 
0 
0 
0 
0 
0 
0 
-0.1423176677752837 
0 
0 
0 
0 
0 
0 
0 
0 
0 
0 
0 
0 
0 
-1.037781817581827 
0 
0 
0 
-3.854366234850459 
0 
0 
0 
0 
0.05872830543809168 
0 
0 
0 
0 
0.9548139495009741 
0 
0 
0 
0 
0.9265402048257744 
0 
0 
0 
0 
0 
0 
0 
0 
-1.078750544240086 
0 
0 
0 
0 
0 
0 
0 
0.91993807781056 
0 
0 
-2.011809203003951 
0 
0 
0 
0 
0 
0 
-1.284915756189083 
0 
0 
0 
0 
0 
0 
-1.141751066008129 
0 
0 
0 
-0.6491379038677366 
-0.365747259636894 
0 
0 
0 
0 
0 
0 
0 
0 
0 
0 
0 
0 
0 
0.4340225481475945 
0 
0 
0 
0 
0 
0 
0 
1.225526608608198 
0 
0 
0 
0 
0 
0 
-1.13267333402613 
1.160335683803648 
0 
0 
0 
0 
0 
-2.158850653963289 
0 
0 
0 
0 
0 
0 
0 
0 
0 
0 
0 
0 
0 
0 
0 
0 
0 
0 
0 
-3.223824081047468 
0 
0 
0 
0 
0 
0 
0 
0 
0 
0 
-0.00595277149350305 
0 
0 
0 
0 
0 
0 
0 
0 
0 
0 
0 
0 
0 
0 
0 
0 
0 
0 
0 
0 
0 
0 
0 
0 
0 
0 
0 
0 
0.3494867459821451 
0 
0 
0 
0 
0 
0 
0 
0 
0 
0 
0 
0 
0 
0 
0 
0 
0 
0 
0 
0 
0 
0 
0 
0 
0 
0 
0 
0 
0 
0 
0 
0 
0 
0 
-2.810386231263583 
0 
0 
0 
0 
0 
0 
0 
-0.7609751925211608 
0 
0 
-0.8150216959021549 
0 
-1.667568753909423 
0.1528026233799009 
0 
0.8281913821659709 
0 
0 
0 
0 
0 
0 
0 
0 
0 
0 
-4.006196341953766 
0 
0 
0 
0 
0 
0 
0 
0 
0 
0 
0 
0 
0 
0 
0 
0 
0 
0 
0 
0 
0 
2.126666176140339 
-0.9174806326089422 
0 
0 
0 
0 
0 
0.5453718420666071 
0 
0 
0 
-2.578789664436317 
1.3613864017521 
0 
0 
0 
0 
0 
0 
0 
0 
-1.653575758824529 
0 
0 
0 
0 
0 
0 
0 
0 
0 
0 
0 
0 
0 
0 
0 
0 
0 
0 
0 
0 
0 
0 
0 
0 
0 
0 
0 
0 
0 
0 
0 
0 
0 
0 
0 
0 
-0.01153063778449641 
0 
0 
0 
0 
0 
0 
0 
0 
0 
0 
0 
0 
0 
0 
0 
0 
0 
0 
0 
0 
0 
-1.480951201495366 
0 
0 
-1.290514891506635 
-0.4251783148511289 
0.05038340930319453 
0 
-1.374113120451524 
0 
0 
0 
0 
0 
0 
0.5663534532134981 
0 
0 
-0.9387306026556723 
1.340811152726139 
0 
0 
0 
0 
0 
0 
0 
0 
0 
-0.1722095213812601 
0 
0 
0 
0 
0 
0 
0 
0 
0 
0 
0 
0 
0 
0 
0 
0 
0 
0 
0 
0 
0 
-1.934139972900952 
0 
1.5496227212595 
-0.2389608226099826 
0 
0 
0 
0 
0 
-0.6690732536343732 
0 
0 
0 
0 
0 
0 
0 
0 
0 
0 
0 
0 
0 
0 
0 
0 
-2.164107493734974 
0 
0 
0 
0 
0 
0 
1.455971613826103 
0 
0 
0 
0 
0 
0 
0 
0 
0 
0 
0 
0 
0 
0 
0 
0.3418568579192814 
-0.3975179056648521 
0 
0 
0.02973036904186388 
0 
0 
0 
0 
0 
0 
0 
0 
0 
0 
0 
0 
1.070042711653241 
0 
0 
0 
0 
0 
0 
0 
0 
0 
0 
0 
0 
0 
0 
0 
0 
0 
0 
0 
0 
0 
0 
0 
0 
0 
0 
0 
0.03583272105213493 
0.1059753192559936 
0 
0 
0 
0 
0 
0 
0 
0 
0 
0 
0 
0 
0 
0 
0.1336374825159613 
0 
0 
0 
0 
0 
0 
0 
0 
0 
0 
0 
0 
0 
0 
0 
0 
0.03406344218723668 
0 
0 
0 
0 
0 
0 
0 
0 
0 
0 
0 
0 
0 
0 
-1.991941076199589 
0 
0 
0 
0 
0 
0 
0 
0 
0 
0 
0 
0 
0 
0 
0 
0 
0 
-1.507953816423498 
0 
0 
0 
0 
0 
0 
0 
0 
0 
0 
0 
0 
0 
-0.7638665239047173 
0 
0 
0 
0 
0 
0 
0 
0 
0 
0.8456245997579823 
0 
0 
0 
0 
0 
0 
0 
0 
0 
0 
0 
0 
0 
0 
0 
0 
0 
0 
0 
0 
0 
0 
0 
0 
0 
0 
0 
0 
0 
0 
0 
0 
0 
0 
-1.579540786825074 
0 
0 
0 
0 
0 
0 
0 
0 
0 
0 
0 
1.679415027979133 
0 
0 
-1.079729777927504 
0 
0 
0 
0 
0 
0 
0 
0 
0 
-0.4347976893040637 
0 
0 
0 
0 
0 
0 
1.844022731224608 
0 
0 
0 
0 
0 
0 
0 
0 
0 
0 
-1.546346685136232 
0 
0 
0 
0 
0 
0 
0 
0 
0 
0 
0 
0 
0 
-0.2848386788024662 
0 
0 
0 
0 
0 
-0.4869108341485698 
0 
0 
0 
0 
0 
0 
0 
0 
0 
0 
0 
0 
0 
0 
0 
0 
0 
0 
0 
0 
0 
0 
0 
0 
0 
0 
0 
0 
0 
0 
0 
0 
-0.03001580149631454 
0 
0 
0 
-1.522152323885703 
0 
0 
0 
0 
0 
0 
0 
0 
0.177667949441453 
0 
0 
0 
0 
0 
0 
0 
0 
0 
0 
0 
0 
0 
0 
0 
0 
0 
0 
0 
0 
0 
0 
0 
0 
0 
0 
0 
0 
-0.7654046130931694 
0 
0 
0 
0 
0 
0 
0 
0 
-0.5569382620682026 
0 
0 
0 
0 
0 
0 
0 
0 
0 
0 
0 
0 
0 
0 
0 
0 
0 
0 
0 
0 
0 
0 
0 
0 
0 
0 
0 
0 
0 
0 
0.04772990768468684 
0 
0 
0 
0 
0 
0 
0 
0 
0 
0 
0 
0 
0 
0 
0 
0 
0 
0 
0 
0 
-1.008222299425795 
0 
0 
0 
0 
0 
0 
0 
0 
0 
0 
0 
0 
0 
0 
0 
0 
0 
0 
0 
0 
0 
0 
0 
0 
0 
0 
0 
0 
-3.835920721646905 
-1.842724392648658 
0 
-1.362876439181408 
0 
0.0279250809996973 
0 
0 
0 
0 
0 
0 
0 
0 
0 
0 
0 
0 
0 
0 
0 
0 
0 
0 
0 
0 
0 
-0.5863876612439283 
0 
0 
0 
0 
0 
0 
0 
0 
0 
0 
0 
0 
0 
0 
0 
0 
0 
0 
0 
0 
0 
0 
0 
-1.691188981370545 
0 
-2.671618892313935 
0 
0 
0 
0 
0 
0.3827251352519668 
0 
0 
0 
0 
0 
0 
0 
0 
0 
0 
0 
0 
0 
-0.5699146458875232 
0 
0 
0 
0 
0.8240100017313981 
0 
0 
0.963510481718041 
0 
0 
0 
0 
0 
0 
0 
-0.4102581759900658 
0 
0 
0 
0 
0 
0 
0 
0 
0 
0 
0 
0 
0 
0 
0 
0 
0 
-0.1511268543085945 
0 
0 
0 
0 
0 
0 
0 
0 
0 
0 
0 
0 
0 
0 
0 
0 
0 
0 
0 
0 
0 
0 
0 
0 
0 
0 
0 
0 
0 
0 
0 
0 
0 
0 
0 
0 
0 
0 
0 
0 
0 
0 
0 
0 
0 
0 
0 
0 
0 
0 
0 
0.7320514020889594 
0 
-2.733019649693578 
-0.4260370989056886 
0 
0 
-0.5104630769363957 
-0.4037196344522395 
0 
0 
0 
0 
0 
0 
0 
0 
0 
0 
-2.680771055900582 
0 
0 
0 
0 
-0.9826331152138377 
0 
0 
0 
0 
0 
0 
0 
0 
0 
3.286658291865712 
0 
0 
0 
0 
0 
0 
0 
0 
0 
0 
0 
0 
1.401386035631532 
0 
0 
0 
1.949133060944828 
0 
0 
0 
0 
0 
0 
0 
0 
0 
0 
0 
1.159756340279992 
0 
0 
0 
0 
0 
0 
0 
0 
0 
0 
0 
0 
0 
0 
0 
0 
0 
0 
0 
0 
0 
0 
-0.364684573705021 
0.22515964804253 
0 
0 
0 
0 
0 
0 
0 
-1.930934294169072 
0 
0 
0 
-2.107389400959218 
0 
0 
0 
0 
0 
0 
0 
-0.06521284897023111 
0 
0 
0 
0 
0 
0 
0 
0 
0 
0 
0 
0 
0 
2.280393919603416 
0 
0 
0 
0 
0 
0 
0 
0 
0 
0 
0.1080790712493991 
0 
0 
0 
0 
0 
0 
0 
0 
0 
0 
0 
0.6467387285127542 
0 
0 
0 
0 
0 
0 
0 
0 
0 
-1.424214873047847 
0 
0 
0 
0 
0 
0 
0 
0 
0 
0 
-3.982491109891384 
0 
0 
0 
0 
0 
-2.11076924228688 
0 
0 
0 
0.3020993726258089 
-0.004210385353926051 
0 
0 
0 
0 
0 
-0.6203839334797764 
0 
0 
0 
0 
0 
0 
0 
0 
0 
-2.551897451128886 
0 
0 
0.4763611127426938 
0 
0 
0 
0 
0 
0 
0 
0.2805304208120281 
0 
0 
0 
0 
0 
0 
-0.8395111409995092 
0 
0 
0 
0 
0 
0 
0 
0 
0.2052093570766118 
-2.078197474665681 
0 
0 
0 
0 
0 
0 
0 
0 
0 
0 
0 
0 
-3.435126787966301 
0 
0 
0 
-3.273367489027572 
0 
0 
0 
0 
0 
0 
0 
-0.633266416954027 
0 
0 
0 
0 
0 
0 
0.9467051160548631 
0 
0 
0 
0 
0 
0 
0 
0 
0 
0 
0 
0 
0 
0 
-0.3899775347147879 
0 
-0.7670246848223449 
0 
0 
0 
0 
0 
-1.236272356517619 
0 
0 
0 
0 
0 
0 
0 
0 
0 
0 
0 
0 
0 
0 
0 
0 
0 
0 
0 
0 
0 
0 
0 
0 
0 
0 
0 
0 
0 
0 
0 
0 
0 
0 
0 
0 
0 
0 
0 
0 
0 
0 
0 
0 
0 
0 
0 
-1.667107109878768 
0 
0 
0 
0 
-0.4149709825355841 
0 
0 
0 
0 
0 
0 
0 
0 
0 
0 
0 
0 
0 
0 
0 
0 
0 
0 
0 
0 
0 
0 
0 
0 
0 
0 
0 
0 
0 
0 
0 
0 
0 
0 
0 
0 
0 
-0.6491670413519183 
0 
0 
0 
0 
0 
0 
0 
0 
0.9391122117912421 
0 
0 
0 
0 
0 
1.620704392167784 
0 
0 
0 
0 
-2.049006448463806 
0 
0 
0 
0 
0 
0 
0 
0.5733391072843344 
0 
0 
0 
0 
0 
0 
0 
0 
0 
0 
0 
0 
0 
0 
0 
0 
0 
0 
0 
0 
0 
0 
0 
0 
0 
0 
-0.8744652992442458 
0.2868405587183389 
0 
0 
0 
0 
0 
0 
0 
0 
0 
0 
0 
0 
0 
0 
0 
0 
-0.963286949704925 
0 
0 
0 
0 
0 
0 
0 
0 
0 
0 
0 
0 
0 
0 
0 
0 
0 
0 
0 
0 
0 
0 
-1.833697904664029 
0 
0 
0 
0 
0 
0 
0 
0 
0 
0 
0 
0 
0 
0 
0 
0.2005611853364593 
0 
0 
0 
0 
0 
0 
0 
0 
0 
0 
0 
0 
0 
0 
0 
0 
2.016247568805018 
0 
0 
0.01653916915980767 
0 
-2.020566530634276 
0 
0 
0 
-0.3915139167384606 
0 
0 
0 
0 
0 
-1.773598229136829 
0 
0 
0 
0 
0 
0 
0.8317693724090333 
0 
0 
0 
0 
0 
0 
0 
-1.08811018985379 
0 
0 
0 
0 
-2.185710490245055 
0 
0 
0 
-0.3668968647431457 
0 
0 
0 
0 
0 
0 
0.08643532071592061 
0 
0 
0 
0 
0 
0 
0 
0 
0 
0 
0 
0 
0 
0 
0 
0 
0 
0 
0 
0 
-0.3677062235033966 
0 
0 
0 
0 
0 
0 
-2.783039931966073 
0 
0 
0 
0 
0 
0 
0 
0 
0 
0 
0 
0 
0 
0 
0 
0 
0 
0 
0 
0 
-2.716531325011495 
0 
-2.481952597170149 
0 
0 
0 
0 
0 
0 
0 
0 
-3.533862472031289 
-1.403846052241076 
0 
0 
0.8009754287033712 
0 
0 
0 
0 
0 
0 
0 
0 
0 
-2.444576698248359 
0 
0 
0 
0 
0 
0 
0 
0 
0 
0 
0 
0 
0 
0 
0 
0 
0 
0 
0 
0 
0 
0 
0 
0 
0 
0 
0 
0 
-1.181913781596036 
0 
0 
-0.7570671357885225 
0 
0 
0 
-0.02752780147269875 
0 
0 
0 
-0.3903902542565556 
0 
0 
0 
0 
0 
0 
0 
0 
0 
0 
0 
0 
0 
1.366610386390178 
0 
0 
0 
0 
0 
0 
0 
0 
0 
0 
0 
-2.092625178174337 
0 
0 
0 
0 
0 
0 
0 
0 
0 
0 
0 
0 
0 
0.1586586382648961 
0 
0 
0 
0 
0 
0 
0 
0 
0 
0 
0 
0 
-1.327793290756107 
0 
0 
0 
0 
0 
0 
0 
0 
0 
0 
0 
0 
0 
0 
0 
0 
0 
-1.021431419677458 
0 
0 
0 
0 
0 
0 
0 
0 
0 
0 
0 
0 
0 
0 
0 
0 
0 
0 
0 
0 
-6.235742402463426 
0 
0 
0 
0 
0 
0 
0 
0 
0 
0 
0 
0 
0 
0 
0 
0 
0 
0 
0 
0 
0 
0 
0 
0 
-0.2007994111527777 
0 
0 
0.08120153288125463 
0 
0 
0.4433822676076007 
0 
0 
0 
0 
0 
0 
0 
0 
0 
0 
0 
0 
0 
0 
0 
0 
-0.2972874942177146 
0 
0 
0 
0 
0 
0 
0 
0 
0 
0 
0 
0 
0 
0 
0 
0 
0 
0 
0 
0 
0 
0 
6.136380924463606 
0 
0 
0 
0 
0 
0 
0 
0 
0 
0 
0 
0 
0 
0 
0 
0 
0 
0 
0 
0 
0 
0 
0 
0 
0 
0 
0 
0 
0 
0 
0 
0 
0 
0 
0 
-0.05226279518351418 
0 
0 
0 
-0.690883799540728 
0 
0 
0 
-2.102560388057016 
0 
0 
0 
0 
0 
0 
0 
0 
0 
0 
0 
0 
2.426766707450024 
0 
0 
0 
0 
1.801214720308898 
0 
0 
0 
0 
-0.06911787625848517 
0 
-1.625793927592194 
0 
0 
0 
0 
0 
0 
0 
0 
0 
0 
0 
0 
0 
0 
0 
0 
0 
0 
0 
-0.3675783627264002 
0 
0 
0 
0 
0 
0.8157065508023916 
0 
0 
0 
0 
-0.04561327589755241 
0 
0 
0 
0 
0 
0 
0 
0 
0 
0 
0 
0 
0 
0 
0 
0 
0 
0 
0 
0 
0 
0 
0 
0 
0 
0 
0 
0 
0.1444046039520054 
0.398101013821212 
0 
0 
1.439354508609619 
0 
0 
0 
0 
0 
0 
0 
0 
0 
0 
0 
0 
0 
0 
0 
0 
0 
0 
0 
0 
0 
0 
0 
0 
0 
0 
0 
0 
0 
0 
0 
0 
0 
0 
0 
0 
0 
0 
0 
0 
0 
0 
0 
1.427418175202448 
-2.148131880365352 
0 
0 
0 
0 
0 
0 
0 
0 
0 
0.0517031631434707 
0 
0 
0 
0 
0.887102914705568 
0 
0 
0 
0 
0 
-1.481141196050684 
0.8392275341740357 
0 
0 
0 
0 
0 
0 
0 
-1.205553736569773 
0 
0 
0 
0 
0 
0 
0 
0 
-0.7942762718150447 
-0.08606370094848324 
0 
0 
0 
0 
0 
0 
0 
0 
0 
-1.184331211051152 
0 
0 
0 
0 
0 
0 
0 
0 
0 
0 
0 
-2.118100099144846 
0 
0 
0 
0 
0 
0 
0 
0 
0 
0 
0 
-0.6149883019334915 
0 
-0.6164128659888117 
0.5354509951996347 
0.2367692981818072 
0 
0 
0 
0 
-2.153326575752254 
0 
-1.445952415479272 
-0.2078992736284927 
0 
0 
0 
0 
0 
0 
0 
0 
0 
0 
0 
0 
0 
0 
0 
0 
0 
0 
0 
0 
0.6513613769889338 
0 
0 
0 
0 
0 
0 
0 
0 
0 
0 
0 
0 
0 
0 
0 
0 
0 
0 
0 
0 
0 
0 
0 
0 
0 
0 
0 
0 
0.8882085941833795 
0 
0 
-2.295250966099861 
0 
0 
0 
0 
-1.074906188907571 
0 
0 
0 
0 
0 
0 
0 
0 
0.2756004230020434 
0 
0 
0 
0 
0 
0 
0 
0 
0 
0 
0 
0 
0 
0 
0 
0 
0 
-1.009734907266228 
0 
0 
0 
0 
0 
0 
0 
0 
0 
0 
0 
0 
0 
-2.186006079895868 
0 
0 
0 
0 
-0.6937093274391967 
0 
0 
0 
0 
0 
0 
0 
0 
0 
0 
0 
0 
0 
0 
0 
0 
0 
0 
0 
0 
0.3244288729734821 
0 
0 
0 
0 
0 
0 
0 
0 
0 
-1.911148164543504 
0 
0 
0 
0 
0 
0 
0 
0 
0 
0 
-0.8800031932027708 
0 
0 
0 
0 
0 
0 
0 
0 
0 
0 
0 
0 
0 
0 
0 
0 
0 
0 
0 
0 
0 
0 
0 
0 
0 
0 
0 
0 
0 
0 
0 
0 
-0.9307506311051238 
0 
0 
0 
0 
0 
0 
0 
0 
0 
0 
0 
0 
0 
0 
0 
0 
0 
0 
0 
0 
0 
0 
0 
-0.7397477736385668 
0 
0 
0 
0 
0 
0 
0 
0 
0 
0 
0 
0 
0 
0 
0 
0 
0 
0 
0 
0 
0 
0 
0 
0 
0 
0 
0 
0 
0 
0 
0 
0 
0 
0 
0 
0 
0 
0 
0 
0 
0 
0 
0 
0 
0 
0 
0 
0 
0 
0 
0 
0 
0 
0 
0 
0 
0 
0 
-1.852635801391386 
0 
0 
0 
0 
0 
0 
0 
-0.1763886372637948 
0 
2.197281684354761 
0 
0 
0 
0 
0 
0 
0 
-0.02431627722909075 
0 
0 
0 
0 
0 
0 
0 
0 
0 
0 
0 
1.293734160901576 
0 
0 
0 
0 
0 
0 
0 
0 
0 
0 
0 
0 
0 
0 
0 
0 
0 
0 
0 
0 
0 
0 
0 
0.454749220177386 
0 
0 
0 
0 
0 
0 
0 
0 
0 
0 
0 
0 
0 
0 
0 
0 
0 
0 
0 
0 
0 
0 
0 
0 
0 
0 
0 
0 
0 
-2.20967112185356 
0 
0 
0 
-2.006626524268669 
0 
0 
0 
0 
0 
0 
0 
0 
0 
0 
0 
0 
-0.3977772821172164 
0 
0 
0 
0 
0 
0 
0 
0 
0 
0 
0 
0 
0 
0 
-1.626898144073379 
0 
0 
0 
0 
-0.4218912841936524 
0 
0 
0 
0 
-3.587890354586269 
0 
0 
0 
0 
0 
-0.165805939743129 
0 
0.3797459558917679 
0 
0 
0 
0 
0 
1.229075884404949 
0 
0 
0 
0 
0 
2.148838934249097 
0 
0 
0 
0 
0 
0 
0 
0 
0 
-1.055155646264392 
0 
0 
0 
0 
0 
0 
0 
0 
0 
0 
0 
0 
0 
0 
0 
0 
0 
0 
0 
0 
0 
0 
0 
0 
0 
0 
0 
0 
0 
0 
0 
0 
0 
0 
0 
0 
0 
0 
0 
0 
0 
0 
0 
0 
0 
0 
0 
0 
0 
0 
0 
0 
0 
0 
0 
0 
0 
0 
0 
0 
0 
0 
0 
0 
0 
0 
0 
0 
-0.1354479948017037 
0 
0 
-1.10055563688338 
0 
0 
0 
0 
0 
0 
0 
0 
0 
0 
0 
0 
0 
0 
0 
0 
0 
0 
0 
0 
0 
0 
0 
0 
0 
0 
0 
0 
0 
0 
0 
0 
0 
0 
0 
0 
0 
0 
0 
0 
0 
0 
0 
0 
0 
0 
0 
0 
0 
0 
0 
0 
0 
0 
0 
0 
0 
0 
0 
0 
0 
0 
0 
0 
0 
0 
0 
0 
0 
0 
0 
0 
0 
0 
0 
0 
0 
0 
0 
0 
0 
0 
0 
0 
0 
-0.7369928996306409 
0 
-4.155238601226527 
2.979465669873954 
0 
0 
0 
0 
0 
0 
0 
0 
0 
0 
0 
0 
0 
0 
0 
0 
0 
0 
0 
0 
0 
0 
0 
0 
0 
0 
0 
0 
0 
0 
0 
0 
0 
0 
0 
0 
0 
0 
0 
0 
0 
0 
0 
0 
0 
0 
0 
0 
0 
0 
0 
0 
0 
0 
0 
0 
0 
0 
0 
0 
0 
0 
0 
0 
0 
0 
-0.4148956160083684 
0 
0 
2.179227477497574 
0 
0 
-1.283379139691124 
0 
-1.315113903249652 
1.277260923858184 
0 
0 
0 
0 
0 
0 
0 
0 
0 
-0.7919363700787044 
0.567463294490634 
0 
0 
0 
0 
0 
0 
0 
0 
0 
0 
0 
0 
0 
0 
0 
0 
0 
0 
0 
0 
0 
0 
0 
0 
-6.811108661328322 
0 
0 
0 
-0.3340989353740996 
0 
0 
0 
0 
0 
0 
0 
0 
0 
0 
-0.4140139920828864 
0 
0 
0 
0 
0 
0 
0 
0 
0 
0 
0 
0 
0 
0 
0 
0 
0 
0 
0 
0 
0 
0 
0 
0 
0 
0 
0 
0 
0 
0 
0 
0 
0 
0 
0 
0.2250230179454178 
0 
0 
0 
0 
0 
0 
0 
0 
0.2025643026055807 
0 
0 
0 
0 
0 
0 
0 
-0.1329669201353587 
0 
0 
0 
0 
0 
0 
0 
0 
0 
0 
0 
0 
0 
0 
0 
0 
0 
0 
0 
0 
0 
0 
0 
0 
0 
0 
0 
0 
0 
0 
0 
0 
0 
0 
0 
0 
0 
0 
0 
0 
0 
-0.5675853196833204 
0 
0 
0 
0 
0 
0 
0 
0 
0 
0 
0 
0 
0 
0 
-0.7814825790189438 
0 
0 
0 
0 
0 
0 
0 
0 
0 
0 
0 
0 
0 
0 
0 
0 
0 
0 
0 
0 
0 
0 
-1.67030814287184 
-2.562929673426449 
0 
0 
0 
0 
0 
0 
0 
0 
0 
0 
0 
0 
0 
0 
0 
0 
0 
0 
0 
0 
0 
0 
0 
0 
0 
0 
0 
0 
0 
0 
1.676132765986036 
0 
0 
0 
0 
0 
0 
0 
0 
0 
0 
0 
0 
0 
0 
0 
0 
0 
0 
0 
0 
0 
0 
-0.4154327358863303 
1.692629575484806 
0 
0 
0 
0 
0 
0 
0 
0 
-0.1780321674302035 
0 
0 
0 
0 
0 
0 
0 
0 
-0.1687473981375234 
0 
0 
0 
0 
0 
0 
0 
0 
0 
0 
0 
0 
0 
0 
0 
0 
0 
0 
0 
0 
0 
0 
0 
0 
0 
0 
0 
0 
0 
0 
-2.150490628668491 
0 
0 
0 
0 
0 
0 
0 
0.7473177559499358 
0 
0 
0 
0 
0 
0 
0 
0 
0 
0 
0 
0 
0 
0 
0 
0 
0 
0 
0 
0 
0 
0 
1.066228393457973 
0 
0 
0 
0 
0 
0 
0 
0 
0 
0 
0 
0 
0 
-0.02811898691824017 
0 
0 
0 
0 
0 
0 
0 
0 
0 
0 
0 
0 
0 
0 
0 
0 
0 
0 
0 
0 
0 
0 
0 
0 
0 
0 
0 
0 
0 
0 
0 
0 
0 
0 
-0.4196156577484397 
0 
0 
0 
0 
0 
-0.669207764279259 
0 
0 
0 
0 
0 
0 
0 
0 
0 
0 
0 
0 
0 
0 
0 
0 
0 
0 
0 
0 
0 
0 
0 
0 
0 
0 
0 
0 
0 
0 
0 
0 
0 
0 
0 
0 
0 
0 
0 
0 
0 
0 
0 
0 
0 
0 
0 
0 
0 
0 
0 
-0.7364049140645906 
0 
0 
0 
0 
0 
0 
0 
0 
0 
0 
0 
-2.082223837898005 
0 
0 
0 
0 
0 
0 
0 
0 
0 
0 
0 
0 
0 
0 
0 
0 
0 
0 
0 
0 
0 
0 
0 
0 
0 
0 
0 
0 
0 
0 
0 
0 
0 
0.498004471081379 
0 
0 
0 
0 
0 
0 
0 
0 
0 
0 
0 
0 
0 
-0.6795029551815341 
0 
0 
0 
0 
0 
0 
0 
0 
0 
0 
0 
0 
0 
0 
-1.634977860783397 
0 
0 
0 
0 
0 
0 
0 
0 
0 
0 
0 
-0.3800895849615942 
0 
0 
0 
0 
0 
0 
0 
0 
0 
0 
0 
0 
0 
0 
0 
0 
0 
0 
0 
0 
0 
0 
0 
0 
0 
0 
0 
0 
0 
0 
0 
0 
0 
0 
0 
0 
0 
0 
0 
0 
0 
0 
0.1243804702794081 
0 
0 
0 
0 
0 
0 
0 
0 
0 
0 
0 
0 
0 
0 
0 
0 
0 
0 
0 
0 
0 
0 
0 
0 
0 
0 
0 
0 
0 
0 
0 
0 
0 
0 
0 
0 
0 
0 
0 
-1.05893571461021 
0 
0 
0 
0 
0 
0 
0 
0 
0 
0 
0 
0 
0 
0 
0 
0 
0 
0 
0 
-1.094357332681987 
0 
0 
0 
0 
0 
0 
0 
0 
0 
0 
0 
0 
0 
0 
0 
0 
0 
0 
0 
0 
0 
0 
-0.4420893073757097 
0 
0 
1.022661302463108 
0 
0 
0 
0 
0 
0 
-0.3877711728830555 
0 
0 
0 
0 
0 
0 
0 
0 
0 
0 
0 
0 
0 
0 
0 
0 
0 
0 
0 
0 
0 
0 
0 
0 
0 
0 
0 
0 
0 
0 
0 
0 
0 
0 
0 
0 
0 
0 
0 
0 
1.757690076723584 
0 
1.129386522095244 
0 
0 
0 
0 
-1.438460481472216 
0 
0 
0 
0 
0 
0 
0 
0 
0 
0 
0 
0 
0 
0 
0 
0 
0 
0 
0 
0.4215891861238345 
0 
-0.9900711380479049 
0 
0 
0 
0.00357258509005756 
0 
0 
0 
0 
0 
0 
0 
0 
0 
0 
0 
0 
0 
0 
0 
-0.0557752707808589 
2.96609793191916 
-0.001895954377055675 
0 
0 
0 
0 
0 
0 
0 
0 
0 
0 
0.293149155000584 
0 
-2.783879886264966 
-0.3815325527988513 
0 
0 
0 
0 
0 
-0.6775375434432593 
0 
0 
0 
0 
0 
0 
0 
0 
0 
0 
0 
0 
0 
0 
-0.6241125655334652 
0 
0 
0 
0 
0 
0 
0 
0 
0 
0 
0 
0 
0 
0 
0 
0 
0 
0 
0 
0 
0 
0 
0 
0 
0 
0 
0 
0 
0 
0 
0 
0 
0 
0 
0 
0 
0 
0 
0 
0 
0 
0 
0 
0 
-1.22949150592844 
0 
0 
0 
0 
0 
3.56564325408057 
0.7117940392347055 
0 
0 
0 
0 
0 
0 
0 
0 
0 
0 
0 
0 
0 
0 
0 
0 
0 
0 
0 
0 
0 
0 
0 
0 
0 
0 
0 
0 
0 
0 
0 
0 
0 
0 
0 
0 
0 
-1.006027016351584 
0 
0 
0 
0 
0 
0 
0 
0 
0 
0 
0 
0 
0 
0 
0 
0 
0 
0 
0 
0 
0 
1.986856610314209 
0 
0 
0 
0 
0 
0 
0 
-2.277775687498655 
0 
0 
0 
0 
0 
0 
0 
0 
0 
0 
0 
0 
0 
0 
0 
0 
0 
0 
0 
0 
1.374585992083073 
0 
0 
0 
0 
0 
0 
0 
-1.034182831745113 
0 
0 
0 
0 
0 
0 
0 
0 
0 
0 
0.3762564396973899 
0 
0 
0 
0 
0 
0 
0 
0 
0 
0 
0 
0 
0 
0 
0 
0 
0 
0 
0 
0 
0 
0 
0 
0 
0 
0 
0 
0 
0 
0 
0 
0 
0 
0 
0 
0 
0 
0 
-0.1059985206816547 
0 
0 
0 
0 
0 
0 
0 
0 
0 
0 
0 
0 
0 
0 
0 
0 
0 
0 
0 
0 
0 
0 
0 
0 
0 
0 
0 
0 
0 
0 
0 
0 
0 
0 
0 
0 
0 
0 
0 
0 
0 
0 
2.076262301558736 
1.402483695175042 
0 
0 
0 
0 
0 
0 
0 
0 
0 
0 
0 
0 
0 
-0.05390775247603469 
0 
0 
1.124004735103365 
0 
0 
0 
0 
0 
0 
0 
0 
0 
0 
0 
0 
0 
0 
0 
0 
0 
0 
0 
0 
0 
0 
0 
0 
0 
0 
0 
0 
0 
0 
0 
-0.1294501347283732 
0 
0 
0 
0 
0 
0 
0 
0 
0 
0 
0 
0 
0 
0 
0 
0 
0 
0 
0 
0.200056566830684 
0 
0.2312979348494236 
0 
0 
1.217698169064782 
-0.04823421384006516 
0 
0 
0 
0 
0 
0 
0 
0 
0 
0 
0 
0 
0 
0 
0 
0 
0 
0 
0 
0 
0 
0 
0 
0 
0 
0 
0 
0 
0 
0 
0 
0 
0 
0 
0 
0 
0 
0 
0 
0 
0 
0 
0 
0 
0.5667940047507238 
0 
-1.700071015346261 
0 
0 
0 
0 
0 
0 
0 
0 
0 
0 
0 
0 
0 
0 
0 
0 
0 
0 
0 
-3.047342322345763 
0 
0 
-0.4378827295761331 
0 
0 
0 
0 
-2.797795412520604 
0 
0 
0 
0 
0 
0 
0 
0 
2.63011911500804 
0 
0 
0 
0 
0 
0 
0 
0.04190707821198286 
0 
0 
0 
0 
0 
0 
0 
0 
0 
0 
0 
0 
0 
0 
0 
0 
0 
0 
0 
0 
0 
0 
0 
0 
0 
0 
0 
0 
0 
0 
0 
0 
0 
0 
0 
-1.20682662777679 
0 
0 
0 
0 
0 
0 
0 
0.09115398336916639 
0 
0 
0 
0 
0 
-0.532860047740561 
0 
0 
0 
0 
0.1629111796914906 
0 
0 
0 
1.278820100498333 
0 
0 
0 
0 
0 
0 
0 
0 
0 
0 
0 
0 
0 
0 
0 
0 
0 
0 
0 
0 
0 
0 
0 
0 
0 
0 
0 
0 
0 
0 
0 
0 
0 
0 
0 
0 
0 
0 
0 
0 
0 
0 
0 
0 
0 
0 
0 
0 
0 
0 
0 
0 
0 
0 
0 
0 
0 
0 
0 
0 
0 
0 
0 
0 
0 
1.135974414831575 
0 
0 
0 
0 
0 
0 
0 
0 
0 
0 
0 
0 
0 
0 
0 
0 
0 
0 
0 
0 
0 
0 
0 
0 
0 
0 
0 
0 
0 
0 
0 
1.383901486058899 
0 
0 
0 
0 
0 
0 
0 
0 
0 
0 
0 
0 
0 
0 
0 
0 
0 
0 
0 
0 
0 
0 
0 
0 
0 
0 
0 
0 
0 
0 
0 
0 
0 
0 
0 
0 
0 
0 
0 
0 
0 
0 
0 
0 
0 
0 
0 
0 
0 
0 
0 
0 
0 
0 
0 
0 
0 
0 
0 
0 
0 
0 
0 
0 
0 
0 
0 
0 
0 
0 
0 
0 
0 
0 
0 
0 
0 
0 
0 
1.732865642425413 
0 
0 
0 
0 
0 
0 
0 
0 
0 
0 
0 
0 
0 
0 
0 
0 
0 
0 
0 
0.0516953091086849 
0 
0 
0 
0 
0 
0 
0 
0 
0 
0 
0 
0 
0 
0 
0 
0 
0 
0 
0 
0 
0 
0 
0 
0 
0 
0 
0 
0 
0 
0 
0 
0 
0 
0 
0 
0 
0 
0 
0 
0 
0 
0 
2.530499163506471 
0 
0 
0 
0 
0 
0 
0 
1.717186757761472 
0 
0 
0 
0 
0 
0 
0 
0 
0 
0 
1.030263701503939 
0 
0 
0 
0 
0 
0 
0 
-3.165839919357143 
0 
0 
0 
0 
0 
0 
0 
0 
0 
0 
0 
0 
0 
0 
0 
0 
0 
0 
0 
0 
0 
0 
0 
0 
0 
0 
0 
0 
0 
0 
0 
0 
0 
0 
0 
0 
0 
0 
0 
0 
0 
0 
0 
0 
0 
0 
0 
0 
0 
0 
0 
0 
0 
0 
0 
0 
0.1501921158628289 
0 
-0.5485591551986327 
0 
0 
0 
0 
0 
0 
0 
0 
0 
0 
0 
0 
0 
0 
0 
0 
0 
0 
0 
0 
0 
0 
0 
0 
0 
0 
0 
0 
0 
0 
0 
0 
0 
0 
0 
0.9253258392061423 
0 
0 
0 
0 
0 
0 
0 
0 
0 
0 
0 
0 
0 
0 
0 
0 
0 
0 
0 
0 
0 
0.7758037680843659 
0 
0 
0 
0 
0 
0 
0 
0 
0 
0 
0 
0 
0 
0 
0 
0 
0 
0 
0 
0 
0 
0 
0 
0 
0 
0 
0 
0 
0 
0 
0 
0 
0 
0 
0 
0 
0 
0 
0 
0 
0 
0 
0 
0 
0 
0 
0 
0 
0 
0 
0 
0 
0 
0 
0 
0 
0 
0 
0 
0 
0 
0 
0 
-1.582389497723521 
0 
0 
0 
0 
0 
0 
0 
0 
0 
0 
0 
0 
0 
0 
0 
0 
0 
0 
0 
0 
0 
0 
0 
0 
0 
0 
0 
-0.04104674560356397 
0 
0 
0 
0 
0 
0 
0 
0 
0 
0 
0 
0 
0 
0 
0 
0 
0 
0 
0 
0 
0 
0 
0 
0 
-1.125574626584607 
0 
-0.5099678809400503 
0 
0 
-0.4864260885795713 
0 
0 
0 
0 
-1.557200997484977 
0 
0 
-0.3846988001234175 
0 
0 
0 
0 
0 
0 
0 
0 
0 
0 
0 
0 
0 
0 
0 
0 
0 
-2.518043584069412 
0 
0 
0.5047442657531036 
0 
0 
0 
0 
0 
0 
0 
0 
0 
0 
0 
0 
0 
0 
0 
0.430392933682601 
0 
0 
0 
0 
0 
0 
-0.3896589136589769 
0 
0 
0 
0 
0 
1.839294343232484 
0 
0 
0 
0 
0 
0 
0 
0 
0 
0 
0 
0 
0 
0 
0 
0 
0 
0 
0 
0 
0 
0 
0 
0 
0 
0 
0 
0 
0 
0 
0 
0 
0 
0 
0 
0 
0 
-2.31933606830243 
0 
0 
0 
0 
0 
0 
0 
0 
0 
0 
0 
0 
0 
0 
0 
0 
0 
0 
0 
0 
0 
0 
0 
0 
0 
0 
0 
0 
0 
0 
0 
0 
0 
0 
0 
0 
0 
0 
0 
0 
0 
0 
0 
0 
0 
0 
0 
0 
0 
0 
0 
0 
0 
0 
0 
0 
0 
0 
0 
0 
0 
0 
0 
0 
0 
1.118962346998544 
0 
0 
0 
0 
0 
0 
0 
-0.1568008739011193 
0 
0 
0 
0 
0 
0 
0 
0 
0 
0 
0 
0 
0 
0 
0 
0 
0 
0 
0 
0 
0 
0 
0 
0 
0 
0.1342864723092384 
0 
0 
0 
0 
0 
0 
0 
0 
0 
0 
0 
0 
0 
0 
0 
0 
0 
0 
0 
0 
0 
0 
0 
0 
0 
0 
0 
-2.104301255501635 
0 
0 
0 
0 
0 
0 
0 
0 
0 
0 
0 
0 
0 
0 
0 
0 
0 
0 
0 
0 
0 
0 
0 
0 
0 
0 
0 
0 
0 
0 
0 
0 
0 
0 
0 
0 
0 
0 
0 
0 
0.8753512991499594 
0 
0.3490322946824424 
0 
0 
0 
0 
0 
0 
0 
0 
0 
0 
0 
0 
0 
0 
0 
0 
0 
0 
0 
0 
2.824038844652285 
0 
-0.7144570530903988 
0 
0 
0 
0 
0 
0 
0 
0 
0 
0 
0 
0 
0 
0 
-2.63581245779201 
0 
0 
0 
0 
0 
0 
0 
0 
0 
0 
0 
0 
0 
0 
0 
0 
0 
0 
0 
0 
0 
0 
0 
0 
0 
0 
0 
0 
0 
0 
0 
0 
0 
0 
0 
0 
0 
0 
0 
0 
0 
0 
0 
0 
0 
0 
0 
1.955939245992695 
0 
0 
0 
0 
0 
0 
0 
0 
0 
0 
0 
0 
0 
0 
0 
0 
0 
0 
0 
0 
0 
0 
0 
0 
0 
0 
0 
0 
0 
0 
0 
0 
0 
0 
0 
0 
0 
0 
0 
0 
0 
0 
0 
0 
0 
0 
0 
0 
0 
0 
0 
0 
0 
0 
0 
0 
0 
0 
0 
0 
0 
0 
0 
0 
0 
0 
0 
0 
0 
0 
0 
0 
0 
0 
0 
0 
0 
0 
0 
0 
0 
0 
0 
0 
0 
0 
0 
0 
0 
0 
0 
0 
0 
0 
0 
0 
0 
0 
0 
0 
0 
0 
0 
0 
0 
0 
0 
0 
0 
0 
0.1244390432627394 
0 
0 
0 
0 
0 
0 
0 
0 
0 
0 
0 
0 
0 
0 
0 
0 
0 
0 
0 
0 
0 
0 
0 
0 
0 
0 
0 
0 
0 
0 
0 
0 
0 
-0.2318224778999411 
0 
0 
0 
0 
0 
0 
0 
0 
0 
0 
0 
0 
0 
0 
0 
0 
0 
0 
0 
0 
0 
0 
-1.194889774059337 
0 
0 
0 
0 
0 
0 
0 
0 
0 
0 
0 
0 
-0.6016109323246871 
0 
0 
0 
0 
0 
0 
0 
0 
-1.078836226239132 
0 
0 
0 
0 
0 
0 
0 
0 
0 
0 
0 
0 
0 
0 
0 
0 
0 
0 
0 
0 
0.04946105993995852 
0 
0 
0 
0 
0 
0 
0 
0 
0 
0 
0 
0 
0 
0 
0 
0 
0 
0 
0 
0 
0 
0 
0 
0 
0 
0 
-1.049817675417738 
0 
0 
0 
0 
0 
0 
0 
0 
0 
0 
0 
0 
0 
0 
0 
0 
0 
0 
0 
0.6834066276416262 
0 
0 
0 
0 
0 
0 
0 
0 
0 
0 
0 
0 
0 
0 
0 
0 
0 
0 
0 
0 
0 
0 
0 
0 
0 
0 
0 
0 
0 
0 
0 
0 
0 
0 
0 
0 
0 
0 
0 
0 
0 
0 
0 
0 
0 
0 
0 
0 
0 
0 
0 
0 
0 
0 
0 
0 
0 
0 
0 
0 
0 
0 
0 
0 
0 
0 
0 
0 
0 
0 
0 
0 
0 
0 
0 
0 
0 
0 
0 
0 
0 
0 
0 
0 
0 
0 
0 
0 
0 
0 
0 
0 
0 
0 
0 
0 
0 
0 
0 
0 
0 
0 
0 
0 
0 
0 
0.1832523218343694 
0 
0 
0 
0 
0 
0 
0 
0 
0 
0 
0 
0 
0 
0 
0 
0 
0 
0 
0 
0 
0 
0 
0 
0 
0 
0 
0 
0 
0 
0 
0 
0 
0 
0 
0 
0 
0 
0 
0 
0 
0 
0 
0 
0 
0 
0 
0 
0 
0 
1.027005924345095 
0 
0 
0 
0 
0 
0 
0 
0 
0 
0 
0 
0 
0 
0 
0 
0 
0 
0 
0 
0 
0 
0 
0 
0 
0 
0 
0 
0 
0 
0 
0 
0 
0 
0 
0 
0 
0 
0 
0 
0 
0 
0 
0 
1.535497381164102 
0 
0 
0 
0 
0 
0 
0 
0 
0 
0 
0 
0 
0 
0 
0 
0 
0 
0 
0 
0 
0 
0 
0 
0 
0 
0 
0 
0 
0 
-0.08670029557862347 
0 
0 
0 
0 
0 
0 
0 
0 
0 
0 
0 
0 
0 
0 
0 
-0.1093282669615897 
0 
0 
0 
0 
0 
0 
0 
0 
-0.8569106316251395 
0 
0 
0 
0 
0 
0 
0 
-1.416910931874946 
0 
0 
0 
0 
0 
0 
0 
0 
0 
0 
0 
0 
0 
0 
0 
0 
0 
0 
0 
0 
0 
0 
0 
0 
0 
0 
0 
0 
0 
0 
0 
0 
0 
0 
0 
0 
0 
0 
0 
0 
-0.6182028357398356 
0 
0 
0 
0 
0 
0 
0 
0 
0 
0 
0 
0 
0 
0 
0 
0 
0 
0 
0 
0 
0 
0 
0 
0 
0 
0 
0 
0 
0 
0 
0 
0 
0 
0.7978250590110791 
0 
0 
0 
0 
0 
0 
0 
0 
0 
0 
0 
0 
0 
0 
0 
0 
0 
0 
0 
0 
0 
0 
0 
0 
0 
0 
0 
0 
0 
0 
0 
0 
0 
0 
0 
0 
0 
0 
0 
0 
0 
0 
0 
0 
0 
0 
0 
0 
0 
0 
0 
0 
0 
0 
0 
-0.2769496695129457 
0 
0 
0 
0 
0 
0 
0 
0 
0 
0 
0 
0 
0 
0 
0 
0 
0 
0 
0 
0 
0 
0 
0 
0 
0 
0 
0 
0 
0 
0 
0 
0 
0 
0 
0 
0 
0 
0 
0 
0 
0 
0 
0 
0 
0 
0 
0 
0 
0 
0 
0 
0 
0 
0 
0 
0 
0 
0 
0 
0 
0 
0 
0 
0 
0 
0 
0 
0 
0 
0 
0 
0 
0 
0 
0 
0 
0 
0 
0 
0 
0 
0 
0 
0 
0 
0 
0 
0 
0 
0 
0 
0 
0 
0 
0 
0 
0 
0 
0 
0 
0 
0 
0 
0 
0 
0 
0 
0 
0 
0 
0 
0 
0 
0 
0 
0 
0 
0 
0 
0 
0 
0 
-0.1241458549577555 
0 
0 
0 
0 
0 
0 
0 
0 
0 
0 
0 
0 
0 
0 
0 
0 
0 
0 
0 
0 
0 
0 
0 
0 
0 
0 
0 
0 
0 
0 
0 
0 
-0.8646825222358732 
0 
0 
0 
0 
0 
0 
0 
0 
0 
0 
0 
0 
0 
0 
0 
0 
0 
1.308068437483098 
0 
0 
0 
0 
0 
0 
0 
3.841735016718568 
0 
0 
0 
0 
0 
0 
0 
-6.089752209524138 
0 
0 
0 
0 
0 
0 
0 
0 
0 
0 
0 
0 
0 
0 
0 
0 
0 
0 
0 
0 
0 
0 
0 
0 
0 
0 
0 
0 
0 
0 
0 
0 
0 
0 
0 
0 
0 
0 
0 
0 
0 
0 
0 
0 
0 
0 
0 
0 
0 
0 
0.8743097633696381 
0 
0 
0 
0 
0 
0 
0 
0 
0 
0 
0 
0 
0 
0 
0 
0 
0 
0 
0 
0 
0 
0 
0 
0 
0 
0 
0 
0 
0 
0 
0 
0 
0 
0 
0 
0 
0 
0 
0 
0 
0 
0 
0 
0 
0 
0 
0 
0 
0 
0 
0 
0 
0 
0 
0 
0 
0 
0 
0 
0 
0 
0 
0 
0 
0 
0 
0 
0 
0 
0 
0 
0 
0 
0 
0 
0 
0 
0 
0 
0 
0.577489469460684 
0 
0 
0 
0 
0 
0 
0 
0 
0 
0 
0 
0 
0 
0 
0 
0 
0 
0 
0 
0 
0 
0 
0 
0 
0 
0 
-2.314644227992118 
0 
0 
0.6926204573092284 
0 
0 
0 
0 
0 
0 
0 
0 
0 
0 
0 
0 
0 
0 
0 
0 
-0.9118648559683306 
0 
0 
0 
0 
0 
0 
0 
0 
0 
0 
-0.05358651026927801 
-0.4927245014371554 
0 
0 
0 
0 
0 
0 
0 
0 
0 
0 
0 
0 
0 
0 
0 
0 
0 
0 
0 
0 
0 
0 
0 
0 
0 
0 
0 
0 
0 
0 
0 
0 
0 
0 
0 
0 
0 
0 
0 
0 
0 
0 
0 
0 
0 
0 
0 
0 
0 
0 
0 
0 
0 
0 
0 
0 
0 
0 
0 
0 
0 
0 
0 
0 
0 
0 
0 
0 
0 
0 
0 
0 
0 
-0.3121418183786097 
0 
0 
0 
0 
0 
0 
0 
0 
0 
0 
0 
-0.1143018346586849 
0 
0 
0 
0 
0 
0 
0 
0 
0 
0 
0 
0 
0 
0 
0 
0 
0 
0 
0 
0 
0 
0 
0 
0 
0 
0 
0 
0 
0 
0 
0 
0 
0 
0 
0 
0 
0 
0 
0 
0 
0 
0 
0 
0 
0 
0 
0 
0 
0 
0 
0 
0 
0 
0 
0 
0 
0 
0 
0 
0 
0 
0 
0 
0 
0 
0 
0 
0 
0 
0 
0 
0 
0 
0 
0 
0 
0 
0 
0 
0 
0 
0 
0 
0 
0 
0 
0 
0 
0 
-1.308641136088967 
0 
0 
0 
0 
0 
0 
0 
0 
0 
0 
0 
0 
0 
0 
0 
0 
0 
0 
0 
0 
0 
0 
0 
0 
0 
0 
0 
0 
0 
0 
0 
0 
0 
0 
0 
0 
0 
1.84056200762278 
0 
0 
0 
0 
0 
0 
0 
0 
0 
0 
0 
0 
0 
0 
0 
0 
0 
0 
0 
0 
0 
0 
0 
0 
0 
0 
0 
0 
0 
0 
0 
0 
0 
0 
0 
0 
0 
0.5721884608106539 
0 
0 
0 
0 
0 
0 
0 
0 
0 
0 
0 
0 
0 
0 
0 
0 
0 
0 
0 
0 
0 
0 
0 
0.08222651357369731 
0.4133430264143915 
0 
0 
0 
0 
0 
0 
0 
0 
0 
-0.6373013735368891 
0 
0 
0 
0 
0 
0 
0 
0 
0 
0 
0 
0 
0 
0 
0 
0 
0 
0 
0 
0 
-0.1465583944281495 
0 
0 
0 
0 
0 
0 
0 
0 
0 
0 
0 
0 
0 
0 
0 
0 
0 
0 
-1.2835312000523 
0 
0 
0 
0 
0 
0 
0 
0 
0 
0 
0 
0 
0 
0 
0 
-1.181760231766365 
0 
0 
0 
0 
0 
0 
0 
0 
0 
0 
0 
0 
0 
0 
0 
0 
0 
0 
0 
0 
0 
0 
0 
0 
0 
0 
0 
0 
0 
0 
0 
0 
0 
0 
0 
0 
0 
-1.286785250015983 
0 
0 
0 
0 
0 
0 
0 
0 
0 
0 
0 
0 
0 
0 
0 
0 
0 
0 
0 
0 
0 
0 
0 
0 
0 
0 
0 
0 
0 
0 
0 
0 
0 
0 
0 
0 
0 
0 
0 
0 
0 
0 
0 
1.584861413533525 
0 
0 
0 
0 
0 
0 
0 
0 
0 
0 
0 
0 
2.214068259152257 
0 
0 
0 
0 
0 
0 
0 
0 
0 
0 
0 
0 
0 
0 
0 
0 
0 
0 
0 
0 
-0.4563018439638794 
0 
0 
0 
0 
0 
0 
0 
0 
0 
0 
0 
0 
-1.442695732341714 
0 
0 
0 
0 
0 
0 
0 
0 
0 
0 
0 
0 
0 
0 
0 
0 
0.140756287209044 
0 
0 
0 
0 
0 
0 
0 
0 
0 
0 
0 
0 
0 
0 
0 
0 
0 
0 
0 
0 
0 
0 
-1.039234702524765 
0 
0 
0 
0 
0 
0 
0 
0 
0 
0 
0 
0 
0 
0 
0 
0 
0 
0 
0 
0 
0 
0 
0 
0 
0 
0 
0 
0 
0 
0 
0 
0 
0 
0 
0 
0 
0 
0 
0 
0 
0 
0 
0 
0 
0 
0 
0 
0 
0 
0 
0 
0 
0 
0 
0 
0 
0 
0 
0 
0 
0 
0 
0 
0 
0 
0 
0 
0 
0 
0 
0 
0 
0 
0 
0 
0 
0 
0 
0 
0 
0 
0 
0 
0 
0 
0 
0 
0 
0 
0 
0 
0 
0 
0 
0 
0 
-0.3734388804436009 
0 
0 
0 
0 
0 
0 
0 
0 
0 
0 
0 
0 
0 
0 
0 
0 
0 
0 
0 
0 
0 
0 
0 
0 
0 
0 
0 
0 
0 
0 
0 
0 
0 
0 
0 
0 
0 
0 
0 
0.4139792887892708 
0 
0 
0 
0 
0 
0 
0 
0 
0 
0 
0 
0 
0 
0 
0 
-0.4430050231368679 
0 
0 
0 
0 
0 
0 
0 
0 
0 
0 
0 
0 
0 
0 
0 
0 
0 
0 
0 
0 
0 
0 
0 
0 
0 
0 
0 
0 
0 
0 
0 
0 
0 
0 
0 
0 
0 
0 
0 
0 
0 
0 
0 
0 
0 
0 
0 
0 
0 
0 
0 
0 
0 
0 
0 
0 
0 
0 
0 
0 
0 
0 
0 
0 
0.129843641385959 
0.3562923010748754 
0 
0 
0 
0 
0 
0 
0 
0 
0 
0 
0 
0 
0 
0 
0 
0 
-0.9508269422957845 
0 
0 
0 
0 
0 
0 
0 
0 
0 
0 
0 
0 
0 
0 
0 
0 
0 
0 
0 
0 
-0.620199862269684 
0 
0 
0 
0 
0 
0 
0 
0 
0 
0 
0 
0 
0 
0 
0 
0 
0 
0 
0 
0 
0 
0 
0 
0 
0 
0 
0 
0 
0 
0 
0 
0 
0 
0 
0 
0 
0 
0 
0 
0 
0 
0 
0 
0 
0 
0 
0 
0 
0 
0 
0 
0 
0 
0 
0 
0 
0 
0 
0 
0 
0 
0 
0 
0 
0 
0 
0 
0 
0 
0 
2.240618294077463 
0 
0 
0 
0 
0 
0 
0 
0 
0 
0.80864195081351 
0 
0 
-1.471433467563188 
0 
0 
0 
0 
0 
0 
0 
0 
0 
2.099405446217035 
0 
0 
0 
0 
0 
0 
0 
0 
0 
0 
0 
0 
0 
0 
0 
0 
0 
0 
0 
0 
0 
0 
0 
0 
0 
0 
0 
0 
0 
0 
0 
0 
0 
0 
0 
0 
0 
0 
0 
0 
0 
0 
0 
0 
0 
0 
0 
0 
0 
0 
0 
0 
0 
0 
0 
0 
0 
0 
0 
0 
0 
0 
0 
0 
0 
0 
0 
0 
0 
0 
0 
0 
0 
0 
0 
0 
0 
0 
0 
0 
0 
0 
0 
0 
0 
0 
0 
0 
0 
0 
0 
0 
0 
0 
0 
0 
0 
0 
0 
0 
0 
0 
0 
0 
0 
0 
0 
0 
0 
0 
0 
0 
0 
0 
0 
0 
0 
0 
0 
0 
0 
0 
0 
0 
0 
0 
0 
0 
0 
0 
0 
0 
0 
0 
0 
0 
0 
0 
0 
0 
0 
0 
0 
0 
0 
0 
0 
0 
0 
0 
0 
0 
0 
0 
0 
0 
0 
0 
0 
0 
0 
0 
0 
0 
0 
0 
0 
0 
0 
0 
0 
0 
0 
0 
0 
0 
0 
0 
0 
0 
0 
0 
0 
0 
0 
0 
0 
0 
0 
0 
0 
0 
0 
0 
0 
0 
0 
0 
0 
0 
0 
0 
0 
0 
0 
0 
0 
0 
0 
0 
0 
0 
0 
0 
0 
0 
0 
0 
0 
0 
0 
0 
0 
0 
0.1980844656524848 
0 
0 
0 
0 
0 
0 
0 
0 
0 
0 
0 
0 
0 
0 
0 
0 
0 
0 
0 
-0.9430082161981364 
0 
0 
0 
0 
0 
0 
0 
0 
0 
0 
0 
0 
0 
0 
0 
0 
0 
0 
0 
0 
0 
0 
0 
0 
0 
0 
0 
0 
0 
0 
0 
0 
0 
0 
0 
0 
0 
0 
-0.0003306414047391422 
0 
0 
0 
0 
0 
0 
0 
0 
0 
0 
0 
0 
0 
0 
0 
0 
0 
0 
0 
0 
0 
0 
0 
0 
0 
0 
0 
0 
0 
0 
0 
0 
0 
0 
0 
0 
0 
0 
0 
0 
0 
0 
0 
0 
0 
0 
0 
0 
0 
0 
0 
0 
0 
0 
0 
0 
0 
0 
0 
0 
0 
0 
-0.2104756952497058 
0 
0 
0 
0 
0 
0 
0 
0 
0 
0 
0 
0 
0 
0 
0 
0 
0 
0 
-2.415429107026937 
0 
0 
0 
0 
0 
0 
0 
0 
0 
0 
0 
0 
0 
0 
0 
0 
0 
0 
0 
0 
0 
0 
0 
0 
0 
0 
0 
0 
0 
0 
0 
0 
-0.4688275242632155 
0 
-0.6332908281014983 
0 
0 
0.6010079365429853 
0 
0 
0 
0 
0 
0 
0 
0 
0 
0 
0 
0 
0 
0 
0 
0 
0 
0 
0 
0 
0 
0 
0 
0 
0.5747095239634232 
0 
0 
0 
0 
0 
0 
0 
0 
0 
0 
0 
0 
0 
0 
0 
0 
0 
0 
0 
0 
0 
0 
0 
0 
0 
0 
0 
0 
0 
0 
0 
0 
0 
0 
0 
0 
0 
0 
0 
0 
0 
0 
0 
0 
0 
0 
0 
0 
0 
0 
0 
0 
0 
-1.464207483084515 
0 
0 
0 
0 
0 
-0.326160346884466 
0 
0 
0 
0 
0 
0 
0 
0 
0 
0 
0 
0 
0 
0 
0 
0 
0 
0 
0 
0 
0 
0 
0 
0 
0 
0 
0 
0 
0 
0 
0 
0 
0.2336345286328233 
0 
0 
0 
0 
0 
0 
0 
0 
0 
0 
0 
0 
0 
0 
0 
0 
0 
0 
0 
0 
0 
0 
0 
-0.5245224443185782 
0.7289634488718267 
0 
0 
0 
0 
0 
0 
0 
0 
0 
0 
0 
0 
0 
0 
0 
0.5656911458187178 
0 
0 
0 
0 
0 
0 
0 
0 
0 
0 
0 
0 
0 
0 
0 
0 
0 
0 
1.783339130381581 
0 
0 
0 
1.467971335319696 
0 
0 
0 
0 
0 
0 
0 
0 
0 
0 
0 
0 
0 
4.598356548236457 
0 
0 
0 
0 
0 
0 
0 
0 
0 
0 
0 
0 
0 
0 
0 
0 
0 
0 
0.2139533863210128 
0 
0 
0 
0 
0 
0 
0 
0 
0 
0 
0 
0 
0 
0 
0 
0 
0 
0 
0 
0 
0 
0 
0 
0 
0 
0 
0 
0 
0 
0 
0 
0 
0 
0 
0 
0 
0 
0 
0 
0 
0 
0 
0 
0 
0 
0 
0 
0 
0 
0 
0 
0 
0 
0 
0 
0 
0 
0 
0 
0 
0 
0 
0 
0 
0 
0 
0 
0 
0 
0 
0 
0 
0 
0 
0 
0 
0 
0 
0 
0 
0 
0 
0 
0 
0 
0 
0 
0 
0.844612260343785 
0 
0 
0 
0 
0 
0 
0 
0 
0 
0 
0 
0 
0 
0 
0 
0 
0 
0 
0 
0 
0 
0 
0 
0 
0 
0 
0 
0 
0 
0 
0 
0 
0 
0 
0 
0 
0 
0 
0 
0 
0 
0 
0 
0 
0 
0 
0 
-0.2894839860814126 
0 
0 
0 
0 
0 
0 
0 
0 
0 
0 
0 
0 
0 
0 
0 
0 
0 
0 
0 
0 
0 
0 
0 
0 
0 
0 
0 
0 
0 
0 
0 
0 
0 
0 
0 
0 
0 
0 
-1.33429905041507 
0 
0 
0 
0 
0 
0 
0 
0.7019570440622757 
0 
0 
0 
0 
0 
0 
0 
0 
0 
0 
0 
0 
0 
0 
0 
0 
0 
0 
0 
0 
0 
0 
0 
0 
0 
0 
0 
0 
0 
0 
0 
0 
0 
0 
0 
0 
0 
0 
6.266483849042856 
0 
0 
0 
0 
0 
0 
0 
0 
0 
0 
0 
0 
0 
0 
0 
0 
0 
0 
0 
0 
0 
0 
0 
0 
0 
0 
-0.4306320940858654 
0 
0 
0 
0 
0 
0 
0 
0 
0 
0 
0 
0 
0 
0 
0 
0 
0 
0 
0 
0 
0 
0 
0 
0 
0 
0 
0 
0 
0 
-5.275997298498255 
0 
0 
0 
0 
0 
0 
0 
0 
0 
0 
0 
0 
0 
0 
0 
0 
0 
0 
0 
0 
0 
0 
0 
0 
0 
0 
1.717057640708209 
0 
0 
0 
0 
0 
0 
0 
0 
0 
0 
0 
0 
0 
0 
0 
0 
-1.295641545346628 
0 
0.2307194406450636 
0 
0 
0 
0 
0 
0 
0 
0 
0 
0 
0 
0 
0 
0 
0 
0 
0 
0 
0 
0 
0 
0 
0 
0 
0 
0 
0 
0 
0 
0 
0 
0 
0 
0 
0 
0 
0 
0 
0 
0 
0 
0 
0 
0 
0 
0 
0 
0 
0 
0 
0 
0 
0 
0 
0 
0 
0 
0 
0 
0 
0 
0 
0 
0 
0 
0 
0 
0 
0 
0 
0 
0 
0 
0 
-0.9847951264006277 
0 
0 
0 
0 
0 
0 
0 
0 
0 
0 
0 
0 
0 
0 
0 
0 
0 
0 
0 
0 
0 
0 
0 
0 
0 
0 
0 
0 
0 
0 
0 
0 
0 
0 
0 
0 
0 
0 
0 
0 
0 
0 
0 
0 
0 
0 
0 
0 
0 
0 
0 
0 
0 
0 
0 
0 
0 
0 
0 
0 
0 
0 
0 
0 
0 
0 
0 
0 
0 
0.2540345249357123 
0 
0 
0 
0 
0 
0 
0 
0 
0 
0 
0 
0 
0 
0 
0 
0 
0 
0 
0 
0 
0 
0 
0 
0 
0 
0 
0 
0 
0 
0 
0 
0 
0 
0 
0 
0 
0 
0 
0 
0 
0 
0 
0 
0 
0 
0 
0 
0 
0 
1.13733444218617 
0 
0 
0 
0 
0 
0 
0 
0 
0 
0 
0 
0 
0 
0 
0 
0 
0 
0 
0 
0 
0 
0 
0 
0 
0 
0 
0 
0 
0 
0 
0 
0 
0 
0 
0 
0 
0 
0 
0 
0 
0 
0 
0 
0 
0 
0 
0 
0 
0 
0 
0 
0 
0 
0 
0 
0 
0 
0 
0 
0 
0 
0 
0 
1.145508495697076 
0 
0 
0 
0 
0 
0 
0 
0 
0 
0 
0 
0 
0 
0 
0 
0 
0 
0 
0 
0 
0 
0 
0 
0 
0 
0 
0 
0 
0 
0 
0 
0 
0 
0 
0 
0 
0 
0 
0 
0 
0 
-0.5444022164518847 
0 
0 
0 
0 
0 
0 
0 
0 
0 
0 
0 
-0.393339461500999 
0 
0 
0 
0 
0 
0 
0 
0 
0 
0 
0 
0 
0 
0 
0 
0 
0 
0 
0 
0 
0 
0 
0 
0 
0 
0 
0 
0 
0.4753428237502314 
0 
-0.5762588122081637 
0 
0 
0 
0 
0 
0 
0 
0 
0 
0 
0 
0 
0 
0 
0 
0 
0 
0 
0 
0 
0 
0 
0 
0 
0 
0 
0 
0 
0 
0 
0 
0 
0 
0 
0 
0 
0 
0 
0 
0 
0 
0 
0 
0 
0 
0 
0 
0 
0 
0 
0 
0 
0 
0 
0 
0 
0 
0 
0 
0 
0 
0 
0 
0 
0 
0 
0 
0 
0 
0 
0 
0 
0 
0 
0 
0 
0 
0 
0 
0 
0 
0 
0 
0 
0 
0 
0 
0 
0 
0 
0 
0 
0 
0 
0 
0 
1.504600179372352 
0 
0 
0 
0 
0 
0 
0 
0 
0 
0 
0 
0 
0 
0 
0 
0 
0 
0 
0 
0 
0 
0 
0.978393228395198 
0 
0 
0 
0 
0 
0 
0 
0 
0 
0 
0 
0 
0 
0 
0 
0 
0 
0 
0 
0 
0 
0 
0 
0 
0 
0 
0 
0 
0 
0 
0 
0 
0 
0 
0 
0 
0 
0 
0 
0 
0 
0 
0 
0 
0 
0 
0 
0 
0 
0 
0 
0 
0 
0 
0 
0 
0 
0 
0 
0 
0 
0 
0 
0 
0 
0 
0 
-3.443754812148257 
0 
0 
0 
0 
0 
0 
0 
0 
0 
0 
-0.7001383420998651 
0 
0 
0 
0 
0 
0 
0 
0 
0 
0 
-0.6747794354930766 
0 
0 
0 
0 
0 
0 
0 
0 
0 
0 
0 
0 
0 
0 
0 
0 
0 
0 
0 
0 
0 
0 
0 
0 
0 
0 
0 
0 
0 
0 
0 
0 
0 
0 
0 
0 
0 
0 
0 
0 
0 
0 
0 
0 
0.4490292505413981 
0 
0 
0 
0 
0 
0 
0 
0 
0 
0 
0 
0 
0 
0 
0 
0 
0 
0 
0 
0 
0 
0 
0 
0 
0 
0 
0 
0 
0.5122079035595593 
0 
0 
0 
0 
0 
0 
0 
0 
0 
0 
0 
0 
0 
0 
0 
0 
0 
0 
0 
0 
0 
0 
0 
0 
0 
0 
0 
0 
0 
0 
0 
0 
0 
0 
0 
0 
0 
0 
0 
0 
0 
0 
0 
0 
0 
0 
0 
0 
0 
0 
0 
0 
0 
0 
0 
0 
0 
0 
0 
0 
0 
0 
0 
0 
0 
-0.05106076549706292 
0 
0 
0 
0 
0 
0 
0 
0 
0 
0 
0 
0 
0 
0 
0 
0 
0 
0 
0 
0 
0 
0 
0 
0 
0 
0 
0 
0 
0 
0 
0 
0 
0 
0 
0 
0 
0 
0 
0 
0 
0 
0 
0 
0 
0 
0 
0 
0 
0 
0 
0 
0 
0 
0 
0 
0 
0 
0 
0 
0 
0 
0 
0 
0 
0 
0 
0 
0 
0 
0 
0 
-0.9001535345677767 
0 
0 
0 
0 
0.3626146056107971 
0 
0 
0 
0 
0 
1.29456032981968 
0 
0 
0 
0 
0 
0 
0 
0 
0 
0 
0 
0 
0 
3.245872113296814 
0 
0 
0 
0 
0 
0 
0 
0 
0 
0 
0 
0 
0 
0 
0 
0 
0 
0 
0 
0 
0 
0 
0 
0 
0 
0 
0 
0 
0 
0 
0 
0 
-0.4786940616887422 
0 
0 
0 
0 
0 
0 
0 
-0.06146226284204478 
0 
0 
0 
0 
0 
0 
0 
0 
0 
0 
0 
0 
0 
0 
0 
0 
0 
0 
0 
0 
0 
0 
0 
0 
-1.472350983268306 
0 
0 
0 
0 
0 
0 
0 
0 
0 
0 
0 
0 
0 
0 
0 
0 
0 
0 
0 
0 
0 
0 
0 
0 
0 
0 
0 
0 
0 
0 
0 
0 
0 
0 
0 
0 
0 
0 
0 
0 
0 
0 
0 
0 
0 
0 
0 
0 
0 
0 
0 
0 
0 
0 
0 
0 
0 
0 
0 
0 
0 
0 
0 
0 
0 
0 
0 
0 
0 
0 
0 
0 
0 
0 
0 
0 
0 
0 
0 
0 
0 
0 
0 
0 
0 
0 
0 
0 
0 
0 
0 
0 
0 
0 
0 
0 
0 
0 
0 
0 
0 
0 
0 
0 
0 
0 
0 
0 
0 
0 
0 
0 
0 
0 
0 
0 
0 
0 
0 
0 
0 
0 
0 
0.850163047642283 
0 
0 
0 
0 
0 
0 
0 
0 
0 
0 
0 
0 
0 
0 
0 
0 
0 
0 
0 
0 
0 
0 
0 
0 
0 
0 
0 
0 
0 
0 
0 
0 
0 
0 
0 
0 
0 
0 
0 
0 
0 
0 
0 
0 
0 
0 
0 
0 
0 
0 
0 
0 
0 
0 
0 
0 
0 
0 
0 
0 
0 
0 
0 
0 
0 
0 
0 
0 
0 
0 
0 
0 
0 
0 
0 
0 
0 
0 
0 
0 
0 
0 
0 
0 
0 
-0.4381332977298636 
0 
0 
0 
0 
0 
0 
0 
0 
0 
0 
0 
0 
0 
0 
0 
0 
0 
0 
0 
-2.949824149433306 
0 
0 
0 
0 
0 
0 
0 
0 
0 
0 
0 
0 
0 
0 
0 
-4.299042734075865 
0 
0 
0 
0 
2.578971709620126 
0 
0 
0 
0 
0 
0 
0 
0 
0 
0 
0 
0 
0 
0 
0 
2.609805581095868 
0 
0 
0 
0 
0 
0 
0 
0 
0 
0 
0 
0 
0 
0 
0 
0 
0 
0 
0 
0 
0 
0 
0 
0 
0 
0 
0 
0 
0 
0 
0 
0 
0 
0 
0 
0 
0 
0 
0 
0 
0 
0 
0 
0 
0 
0 
0 
0 
0 
0 
0 
0 
0 
0 
0 
0 
0 
0 
0 
0 
0 
0 
0 
0 
0 
0 
0 
0 
0 
0 
0 
0 
0 
0 
0 
0 
0 
0 
0 
0 
-0.2590318785602081 
0 
0 
0 
0 
0 
0 
0 
0 
0 
0 
0 
0 
0.05754506507869921 
0 
0 
0 
0 
0 
0 
0 
0 
0 
0 
0 
0 
0 
0 
0 
0 
0 
0 
0 
0 
0 
0 
0 
0 
0 
0 
0 
0 
0 
0 
0 
0 
0 
0 
0 
0 
0 
0 
0 
0 
0 
0 
0 
0 
0 
0 
0 
0 
0 
0 
0 
0 
0 
0 
0 
0 
0 
0 
0 
-0.07655286198131521 
0 
0 
0 
0 
0 
0 
0 
0 
0 
0 
0 
0 
0 
0 
0 
0 
0 
0 
0 
0 
0 
0 
0 
0 
0 
0 
0 
0 
0 
0 
0 
0 
0 
0 
0 
0 
0 
0 
0 
0 
0 
0 
0 
0 
0 
0 
0 
0 
0 
0 
0 
0 
0 
0 
0 
0 
0 
0 
0 
0 
0 
0 
0 
0 
0 
0 
0 
0 
0 
0 
0 
0 
0 
0 
0 
0 
0 
0 
0 
0 
0 
0 
0 
0 
0 
0 
0 
0 
0 
0 
0 
0 
0 
0 
0 
0 
0 
0 
0 
-0.8716933176705393 
0 
0 
0 
0 
0 
0 
0 
0 
-1.647990319195499 
0 
0 
-0.790926834442361 
0 
0 
0 
0 
0 
0 
0 
0 
0 
0 
0 
0 
0 
0 
0 
0 
0 
0 
0 
0 
0 
0 
0 
0 
0 
0 
0 
0 
0 
0 
0 
0 
0 
0 
0 
0 
0 
0 
0 
0 
0 
0 
0 
0 
0 
0 
0 
0 
0 
0 
0 
2.999368120241197 
0 
0 
0 
0 
0 
0 
0 
0 
0 
0 
0 
0 
0 
0 
0 
0 
0 
0 
0 
0 
0 
0 
0 
0 
0 
0 
0 
0 
0 
0 
0 
0 
0 
0 
0 
0 
0 
0 
0 
0 
0 
0 
0 
0 
0 
0 
0 
0 
0 
0 
0 
0 
0 
0 
0 
0 
0 
0 
0 
0 
0 
0 
0 
0 
0 
0 
0 
0 
0 
0 
0 
0 
0 
0 
0 
0 
0 
0 
0 
0 
0 
0 
0 
0 
0 
0 
0 
0 
0 
0 
0 
0 
0 
0 
0 
0 
0 
0 
0 
0 
0 
0 
0 
0 
0 
0 
0 
0 
0 
0 
0 
0 
0 
0 
0 
0 
0 
0 
0 
0 
0 
0 
0 
-0.7018917452676993 
0 
0 
0 
0 
0 
0 
0 
0 
0 
0 
0 
0 
0 
0 
1.138677383657746 
0 
0 
0 
0 
0 
0 
0 
0 
0 
0 
0 
0 
0 
0 
0 
0 
0 
0 
0 
0 
0 
0 
0 
0 
0 
0 
0 
0 
0 
0 
0 
0 
0 
0 
0 
0 
0 
0 
0 
0 
0 
0 
0 
0 
0 
0 
0 
0 
0 
-1.199764124969081 
0 
0 
0 
0 
0 
0 
0 
0 
0 
0 
0 
0 
0 
0 
0 
1.061695075335904 
0 
0 
0 
0 
0 
0 
0 
0 
0 
0 
0 
0 
0 
0 
0 
0 
0 
0 
0 
0.986992202318973 
0 
0 
0 
0 
0 
0 
0 
0 
0 
0 
0 
0 
0 
0 
0 
0 
0 
0 
0 
0 
0 
0 
0 
0 
0 
-5.544370722156652 
0 
0 
0 
0 
0 
0 
0 
0 
0 
0 
0 
0 
0 
0 
0 
0 
0 
0 
0 
0 
0 
0 
0 
0 
0 
0 
0 
0 
0 
0 
0 
2.392003218266701 
0 
0 
0 
0 
0 
0 
0 
0 
0 
0 
0 
0 
0 
0 
0 
0 
0 
0 
0 
0 
0 
0 
0 
0 
0 
0 
0 
0 
0 
0 
0 
0 
0 
0 
0 
0 
0 
0 
0 
0 
0 
0 
0 
-0.1269823765621926 
0 
0 
0 
0 
0 
0 
0 
0 
0 
0 
0 
0 
0 
0 
0 
0 
0 
0 
0 
0 
0 
0 
0 
0 
0 
0 
0 
0 
0 
0 
0 
0 
0 
0 
0 
0 
0 
0 
0 
0 
0 
0 
0 
0 
0 
0 
0 
0 
0 
0 
0 
0 
0 
0 
0 
0 
0 
0 
0 
0 
0 
0 
-3.213107939719628 
0 
0 
0 
0 
0 
1.498516216219601 
0 
0 
0 
0 
0 
0 
0 
0 
0 
0 
0 
0 
0 
0 
0 
0 
0 
0 
0 
0 
0 
0 
0 
0 
0 
0 
0 
0 
0 
0 
0 
0 
0 
0 
0 
0 
0 
0 
0 
0 
0 
0 
0 
0 
0 
0 
0 
0 
0 
0 
0 
0 
0 
0 
0 
0 
0 
0 
0 
0 
0 
0 
0 
0 
0 
0 
0 
0 
0 
0 
0 
0 
0 
0 
0 
0 
0 
0 
0 
0 
0 
0 
0 
0 
0 
0 
-0.3375162754869412 
0 
0 
0 
0 
0 
0 
0 
0 
0 
0 
0 
0 
0 
0 
0 
0 
0 
0 
0 
0 
0 
0 
0 
0 
0 
0 
0 
0 
0 
0 
0 
0 
0 
0 
0 
0 
0 
0 
0 
0 
0 
0 
0 
0 
0 
0 
0 
0 
0 
0 
0 
0 
0 
0 
0 
0 
0 
0 
0 
0 
0 
0 
0 
0 
0 
0.6215913953053979 
0 
0 
-0.9895642419930772 
0 
0 
0 
0 
0 
0 
0 
0 
0 
0 
0 
0 
0 
0 
0 
0 
0 
0 
0 
0 
0 
0 
0 
0 
0 
0 
0 
0 
0 
0 
0 
0 
0 
0 
0 
0 
0 
0 
0 
0 
0 
0 
0 
0 
0 
0 
0 
0 
0 
0 
0 
0 
0 
0 
0 
0 
0 
0 
0 
0 
0 
0 
0 
0 
0 
0 
0 
0 
0 
0 
0 
0 
0 
0 
0 
0 
0 
0 
0 
0 
0 
0 
0 
0 
0 
0 
0 
0 
0 
0 
0 
0 
0 
0 
0 
0 
0 
0 
0 
0 
0 
0 
0 
0 
0 
0 
0 
0 
0 
0 
0 
0 
0 
0 
0 
0 
0 
0 
0 
0 
0 
0 
0 
0 
0 
0 
0 
0 
0 
0 
0 
0 
0 
0 
0 
0 
0 
0 
0 
0 
0 
0 
0 
0 
0 
0 
0 
0 
0 
0 
0 
0 
0 
0 
0 
0 
0 
0 
0 
0 
0 
0 
0 
0 
0 
0 
0 
0 
0 
0 
0 
0 
0 
0 
0 
0 
0 
0 
0 
0 
0 
0 
0 
0 
0 
0 
0 
0 
0 
0 
0 
0 
0 
0 
0 
0 
-1.00785489334463 
0 
0 
0 
0 
0 
0 
0 
0 
0 
0 
1.849151764399605 
0 
0 
0 
0 
0 
0 
0 
0 
0 
0 
0 
0 
0 
0 
0 
0 
0 
0 
0 
0 
0 
0 
0 
0 
0 
0 
0 
0 
0 
0 
0 
0 
0 
0 
0 
0 
0 
0 
0 
0 
0 
0 
0 
0 
0 
0 
0 
0 
0 
0 
0 
0 
0 
0 
0 
0 
0 
0 
0 
0 
0 
0 
0 
0 
0.001029258465841738 
0 
0 
0 
0 
0 
0 
0 
0 
0 
0 
0 
0 
0 
0 
0 
0 
0 
0 
0 
0 
0 
0 
0 
0 
0 
0 
0 
0 
0 
0 
0 
0 
0 
0 
0 
0 
0 
0 
0 
0 
0 
0 
0 
0 
0 
0 
0 
0 
0 
0 
0 
0 
0 
0 
0 
0 
0 
0 
0 
0 
0 
0 
0 
0 
0 
0 
0 
0 
0 
0 
0 
0 
0 
0 
0 
0 
0.7295087264182043 
0 
0 
0 
0 
0 
0 
0 
0 
0 
0 
0 
0 
0 
0 
0 
0 
0 
0 
0 
0 
0 
0 
0 
0 
0 
0 
0 
0 
0 
0 
0 
0 
0 
0 
0 
0 
0 
0 
0 
0 
0 
0 
0 
0 
0 
0 
0 
0 
0 
0 
0 
0 
0 
0 
0 
0 
0 
0 
0 
0 
0 
0 
0 
0 
0 
0 
0 
0 
0 
0 
0 
0 
0 
0 
0 
0 
0 
0 
0 
0 
0 
0 
0 
0 
0 
0 
0 
0 
0 
0 
0 
0 
0 
0 
0 
0 
0 
0 
0 
0 
0 
0 
0 
0 
0 
0 
0 
-0.9968365260928004 
0 
0 
0 
0 
0 
0 
0 
0 
0 
0 
0 
0 
0 
0 
0 
0 
0 
0 
0 
0 
0 
0 
0 
0 
0 
0 
0 
0 
0 
0 
2.574590385995798 
0 
0 
0 
0 
0 
0 
0 
0 
0 
0 
0 
0 
0 
0 
0 
0 
0 
0 
0 
0 
0 
0 
0 
0 
0 
0 
0 
0 
0 
0 
0 
0 
0 
0 
0 
0 
0 
0 
0 
0 
0 
0 
0 
0 
-1.377515240343325 
0 
0 
0 
0 
0 
0 
0 
-1.635867436044943 
0 
0 
0.7726450831341712 
0 
0 
0 
0 
0 
0 
0 
0 
0 
0 
0 
0 
0 
0 
0 
-0.9342670532605079 
0 
0 
0 
0 
0 
0 
0 
0 
0 
0 
0 
0 
0 
0 
0 
0 
0 
0 
0 
0 
0 
0 
0 
0 
0 
0 
0 
0 
0 
0 
0 
0 
0 
0 
0 
0 
0 
0 
0 
0 
0 
0 
0 
0 
0 
0 
0 
0 
0 
0 
0 
0 
0 
0 
0 
0 
0 
0 
0 
0 
0 
0 
0 
-0.4574420254487033 
0 
0 
0 
0 
0 
0 
0 
0 
0 
0 
0 
0 
0 
0 
0 
0 
0 
0 
0 
0 
0 
0 
0 
0 
0 
0 
0 
0 
0 
0 
0 
0 
0 
0 
0 
0 
0 
0 
0 
0 
0 
0 
0 
0 
0 
0 
0 
0 
0 
0 
0 
0 
0 
0 
0 
0 
0 
0 
0 
0 
0 
0 
0 
0 
0 
0 
0 
0 
0 
0 
0 
0 
0 
0 
0 
0 
0 
0 
0 
0 
0 
0 
0 
0 
0 
0 
0 
0 
0 
0 
0 
0 
0 
0 
0 
0 
0 
0 
0 
0 
0 
0 
0 
0 
0 
0 
0 
0 
0 
0 
0 
0 
0 
0 
0 
2.086102441343983 
0 
0 
0 
-2.546312141103941 
0 
0 
0 
0 
0 
0 
0 
0 
0 
0 
0 
0 
0 
0 
0 
0 
0 
0 
0 
0 
0 
0 
0 
0 
0 
0 
0 
0 
0 
0 
-0.9165690949365429 
0 
0 
0 
-3.109469417333962 
0 
0 
0 
0 
0 
0 
0 
0 
0 
0 
0 
0 
0 
0 
0 
0 
0 
0 
0 
0 
0 
0 
0 
0 
0 
0 
0 
0 
0 
0 
0 
0 
0 
0 
0 
0 
0 
0 
0 
0 
0 
0 
0 
0 
0 
0 
0 
0 
0 
0 
0 
0 
0 
0 
0 
0 
0 
0 
0 
0 
0 
0 
0 
0 
0 
0 
0 
0 
0 
0 
0 
0 
0 
0 
0 
0 
0 
0 
0 
0 
0 
0 
0 
0 
0 
0 
0 
0 
0 
0 
0 
0 
0 
0 
0 
0 
0 
0 
0 
0 
0 
0 
0 
0 
0 
0 
0 
0 
0 
0 
0 
0 
0 
0 
0 
0 
0 
0 
0 
0 
0 
0 
0 
0 
0 
0 
0 
0 
0 
0 
0 
0 
0 
0 
0 
0 
0 
0 
0 
0 
0 
0 
0 
0 
0 
0 
0 
0 
0 
0 
0 
-0.6420969953914456 
0 
0 
0 
0 
0 
0 
0 
0 
0 
0 
0 
0 
0 
0 
0 
0 
0 
0 
0 
0 
0 
0 
0 
0 
0 
0 
0 
0 
0.1772224212946558 
0 
0 
0 
0 
0 
0 
0 
0 
0 
0 
0 
0 
0 
0 
0 
0 
0 
0 
0 
0 
0 
0 
0 
0 
0 
0 
0 
0 
0 
0 
0 
0 
1.320402786582925 
0 
0 
0 
0 
0 
0 
0 
0 
0 
0 
0 
0 
0 
0 
0 
0 
0 
0 
0 
0 
0 
0 
0 
0 
0 
0 
0 
-1.130332425963519 
0 
0 
0 
0 
0 
0 
0 
0 
0 
0 
0 
0 
0 
0 
0 
0 
0 
0 
0 
0 
0 
0 
0 
0 
0 
0 
0 
0 
0 
0 
0 
0 
0 
0 
0 
-0.5772665383603264 
0 
0 
0 
0 
0 
0 
0 
0 
0 
0 
0 
0 
0 
0 
0 
0 
0 
0 
0 
0 
0 
0 
0 
0 
0 
0 
0 
0 
0 
0 
0 
0 
0 
0 
0 
0 
0 
0 
0 
0 
0 
0 
0 
0 
0 
0 
0 
0 
0 
0 
0 
0 
0 
0 
0 
0 
0 
0 
0 
0 
0 
0 
0 
1.026229873653646 
0 
0 
0 
0 
-0.0119558858719128 
0 
0 
0 
0 
0 
0 
0 
0 
0 
0 
0 
0 
0 
0 
0 
0 
0 
0 
0 
0 
0 
0 
0 
0 
0 
0 
0 
0 
0 
0 
0 
0 
0 
0 
0 
0 
0 
0 
0 
0 
0 
0 
0 
0 
0 
0 
0 
0.1319423069468983 
0 
0 
0 
0 
0 
0 
0 
0 
0 
0 
0 
0 
0 
0 
0 
0 
0 
0 
0 
0 
0 
0 
0 
0 
0 
0 
0 
0 
0 
0 
0 
0 
0 
0 
0 
0 
0 
0 
0 
0 
0 
0 
0 
0 
0 
0 
0 
0 
0 
0 
0 
0 
0 
0 
0 
0 
0 
0 
-4.235010042831724 
0 
0 
0 
0 
0 
0 
0 
0 
0 
0 
0 
0 
0 
0 
0 
0 
0 
0 
0 
0 
0 
0 
0 
0 
0 
0 
0 
0 
0 
0 
0 
0 
0 
0 
0 
0 
0 
0 
0 
0 
0 
0 
0 
0 
0 
0 
0.02436336670261759 
0 
0 
0 
0 
0 
0 
0 
0 
0 
0 
0 
0 
0 
0 
0 
0 
0 
0 
0 
0 
0 
0 
0 
0 
0 
0 
0 
0 
-1.481186702227365 
0 
0 
0 
0 
0 
0 
0 
0 
0 
0 
0 
0 
0 
0 
0 
0 
0 
0 
0 
0 
0 
0 
0 
0 
0 
0 
0 
0 
0 
0 
0 
0 
0 
0 
0 
0 
0 
0 
0 
0 
0 
0 
0 
0 
0 
0 
0 
0 
0.5660356744808892 
0 
0 
0 
0 
0.7965452076026903 
0 
0 
0 
0 
0 
0 
0 
0 
0 
0 
0 
0 
0 
0 
0 
-2.035373346208825 
0 
0 
0 
0 
0 
0 
0 
0 
0 
0 
0 
0 
0 
0 
0 
0 
0 
0 
0 
0 
0 
0 
0 
-1.122084244119664 
0 
0 
0 
0 
0 
0 
0 
0 
0 
0 
-0.007188089185238869 
0 
0 
0 
0 
0 
0 
0 
0 
0 
0 
0 
0 
0 
0 
0 
0 
0 
0 
0 
0 
0 
0 
0 
0 
0 
0 
0 
0 
0 
0 
0 
0 
0 
0 
0 
0 
0 
0 
0 
0 
0 
0 
0 
0 
0 
0 
0 
0 
0 
0 
0 
0 
0 
0 
0 
0 
0 
0 
0 
0 
0 
0 
0 
0 
0 
0 
0 
0 
0 
0 
0 
0 
0 
0 
0 
0 
0 
0 
0 
0 
0 
-2.316811153965963 
0 
0 
0 
0 
0 
0 
0 
0 
0 
0 
0 
0 
0 
0 
0 
0 
0 
0 
0 
0 
-1.424036219363036 
0 
0 
0 
0 
0 
0 
0 
0 
0 
0 
0 
0 
0 
0 
0 
0 
0 
0 
0 
0 
0 
0 
0 
0 
0 
0 
0 
0 
0 
-0.5828347692523814 
0 
0 
0 
0 
0 
0 
0 
0 
0 
0 
0 
0 
0 
0 
0 
0 
0 
0 
0 
0 
0 
0 
0 
0 
0 
0 
0 
0 
0 
0 
-0.8507704424573931 
0 
0 
0 
0 
-0.486935742077857 
0 
0 
0 
0 
0 
0 
0 
0 
0 
0 
0 
0 
0 
0 
0 
0 
0 
0 
0 
0 
0 
0 
0 
0 
0 
0 
0 
0 
0 
0 
0 
0 
0 
0 
0 
0 
0 
0 
0 
0 
0 
0 
0 
0 
0 
0 
0 
0 
0 
0 
0 
0 
1.896801675464815 
0 
0 
0 
0 
0 
0 
0 
0 
-2.491738866064052 
0 
0 
0 
0 
0 
0 
0 
0 
0 
0 
0 
0 
0 
0 
0 
0 
0 
0 
0 
0 
0 
0 
0 
0 
0 
0 
0 
0 
0 
0 
0 
0 
0 
0 
0 
0 
0 
0 
0 
0 
0 
0 
0 
0 
0 
0 
0 
0 
0 
0 
0 
0 
0 
0 
0 
0 
0 
0 
0 
0 
0 
0 
0 
0 
0 
0 
0 
0 
0 
0 
0 
0 
0 
0 
0 
0 
0 
0 
0 
0 
0 
0 
0 
0 
0 
-1.863129783056659 
-0.6097235885520201 
0 
0 
0 
0 
0 
0 
0.9440076144816363 
0 
0 
0 
0 
0 
0 
0 
0 
0 
0 
0 
0 
-5.070510449900842 
0 
0 
0 
0 
0 
0 
0 
0 
0 
0 
0 
0 
0 
0 
0 
0 
0 
0 
0 
0 
0 
0 
0 
0 
0 
0 
0 
0 
0 
0 
0 
0 
0 
0 
0 
0 
0 
0 
0 
-0.2706064123521169 
0 
0 
0 
0 
0 
0 
0 
0 
0 
0 
0 
0 
0 
0 
0 
0 
0 
0 
0 
0 
0 
0 
0 
0 
0 
0 
0 
0 
0 
0 
0 
0 
0 
0 
0 
0 
0 
0 
0 
0 
0 
0 
0 
0 
0 
0 
0 
-3.920263808777882 
0 
0 
0 
2.180624118140067 
0 
0 
0 
0 
0 
0 
0 
0 
0.09151578730780274 
0 
0 
0 
0 
0 
-2.475387548548173 
0 
0 
0 
0 
0 
0 
1.119117980698401 
0 
0 
0 
0 
0 
0 
0 
0 
0 
0 
0 
0 
0 
0 
0 
0 
0 
0 
0 
0 
0 
-0.7824040207690028 
0 
2.264976733760133 
0 
0 
0 
0 
0 
0 
0 
0 
0 
0 
0 
0 
0 
0 
0 
0 
0 
0 
0 
0 
0 
0 
0 
0 
0 
0 
0 
0 
0 
0 
0 
0 
-0.7448349170607171 
0 
0 
0 
0 
0 
0 
0 
0 
0 
0 
0 
0 
0 
0 
0 
0 
0 
0 
0 
0 
0 
0 
0 
0 
0 
0 
0 
0 
0 
0 
0 
0 
0 
0 
0 
0 
0 
0 
0 
0 
0 
0 
0 
0 
0 
0 
0 
0 
0 
0 
0 
0 
0 
0 
0 
0 
0 
0 
0 
0 
0 
0 
0 
0.06175790180847827 
0 
0 
0 
0 
0 
0 
0 
0 
0 
0 
0 
0 
0 
0 
0 
0 
0 
0 
0 
0 
0 
0 
0 
0 
0.4503350770396847 
0 
0 
0 
0 
0 
0 
0 
0 
0 
0 
0 
0 
0 
0 
0 
0 
0 
0 
0 
0 
0 
0 
0 
0 
0 
0 
0 
0 
0 
0 
0 
0 
0 
0 
0 
0 
0 
0 
0 
0 
0 
0 
0 
0 
0 
0 
0 
0 
0 
0 
0 
0 
0 
0 
0 
0 
0 
0 
0 
0 
0.5778283325327203 
0 
0 
0 
0 
0 
0 
0 
0 
0 
0 
0 
0 
1.320100247196242 
0 
0 
0 
0 
0 
0 
0 
0 
0 
0 
0 
0 
0 
0 
0 
0 
0 
0 
0 
0 
0 
0 
0 
0 
0 
0 
0 
0 
0 
0 
0 
-0.2794561253975432 
0 
0 
0 
0 
0 
0 
0 
0 
0 
0 
0 
0 
0 
0 
0 
0 
0 
0 
0 
0 
0 
0 
2.824517039308494 
0 
0 
0 
0 
0 
0 
0 
0 
0 
0 
0 
0 
0 
0 
0 
0 
0 
0 
0 
0 
0 
0 
0 
0 
0 
0 
0 
0 
0 
0 
0 
0 
0 
0 
0 
0 
0 
0 
0 
0 
0 
0 
0 
0 
0 
0 
0 
0 
0 
0 
0 
0 
0 
0 
0 
0 
0 
0 
0 
0 
0 
0 
0 
0 
0 
0 
0 
0 
0 
0 
0 
0 
0 
0 
0 
0 
0 
0 
0 
0 
0 
0 
0 
0 
0 
0 
0 
0 
0 
0 
0 
0 
0 
0 
0 
0 
0 
0 
0 
0 
0 
0 
0 
0 
0 
0 
0 
0 
0 
0 
0 
0 
0 
0 
0 
0 
0 
0 
0 
0 
0 
0 
0 
0 
0 
0 
0 
0 
0.6465591224547853 
0 
0 
0 
0 
0 
0 
0 
0 
0 
0 
0 
0 
0 
0 
0 
0 
0 
0 
0 
0 
0 
0 
0 
0 
0 
0 
0 
0 
0 
0 
0 
0 
0 
0 
0 
0 
0 
0 
0 
0 
0 
0 
0 
0 
0 
0 
0 
0 
0 
0.4773297550430882 
0 
0 
0 
0 
0 
0 
0 
0 
0 
0 
0 
0 
0 
0 
0 
0 
0 
0 
0 
0 
0 
0 
0 
0 
0 
0 
0 
0 
0 
0 
0 
0 
0 
0 
0 
0 
0 
0 
1.622517138674773 
0 
0 
0 
0 
0 
0 
0 
0 
0 
0 
0 
0 
0 
0 
0 
0 
0 
0 
0 
0 
0 
0 
0 
-0.5700070556716527 
0 
0 
0 
0 
0 
0 
0 
0 
0 
0 
0 
0 
0 
0 
0 
0 
0 
0 
0 
0 
0 
0 
0 
0 
0 
0 
0 
0 
0 
0 
0 
0 
0 
0 
0 
0 
0 
0 
0 
0 
0 
0 
0 
0 
0 
0 
0 
0 
0 
0 
0 
0 
0 
0 
0 
0 
0 
0 
0 
0 
0 
0 
0 
0 
0 
0 
1.383455849074742 
0 
0 
0.2832637972104217 
0 
0 
0 
0 
0 
0 
0 
0 
0 
0 
0 
0 
0 
0 
0 
0 
0 
0 
0 
0 
0 
0 
0 
0 
0 
0 
0 
0 
0 
0 
0 
0 
0 
0 
0 
0 
0 
0 
0 
0 
0 
0 
0 
0 
0 
0 
0 
0 
0 
0 
0 
0 
0 
0 
0 
0 
0 
0 
0 
0 
0 
0 
0 
0 
0 
0 
0 
0 
-0.6204136620821846 
0 
0 
0 
0 
0 
0 
0 
0 
0 
0 
0 
0 
0 
0.06921157980380427 
0 
0 
0 
0 
0 
0 
0 
0 
0 
0 
0 
0 
0 
0 
0 
0 
0 
0 
0 
0 
0 
0 
0 
0 
0 
0 
0 
0 
0 
0 
0 
0 
0 
0 
0 
0 
0 
0 
0 
0 
0 
0 
0 
0 
1.251962565821186 
0 
0 
0 
0 
0 
0.04841074175753798 
0 
0 
-1.900245643082985 
0 
0 
0 
0 
0 
0 
0 
0 
0 
0 
0 
0 
0 
0 
0 
0 
0 
0 
0 
0 
0 
0 
0 
0 
0 
0 
0 
0 
0 
0 
0 
0 
0 
0 
0 
0 
0 
0 
6.430289725786755 
0 
0 
0 
1.790120583034565 
0 
0 
0 
0 
0 
0 
0 
0 
0 
0 
0 
0 
0 
0 
0 
0 
0 
0 
0 
0 
0 
0 
0 
0 
0 
0 
0 
1.989567917305687 
0 
0 
0 
0 
0 
0 
0 
0 
0.7418253324302 
1.659176156907646 
0 
0 
0 
0 
0.9316450389293161 
0 
0 
0 
0 
0 
0 
0 
0 
0 
0 
0 
0 
0 
0 
0 
1.882894008481007 
0 
0 
0 
0 
0 
0 
0 
0 
1.042567756964298 
0 
0 
0 
0 
0 
0 
0 
0 
3.924635922168863 
0 
0 
0 
0 
0 
0 
0.4577141658639293 
0 
0 
0 
0 
0 
0 
0 
0 
0 
0 
0 
0.5397263021551485 
2.542483730935766 
0 
0 
1.577666594032583 
0 
0 
0 
-0.003662837104904222 
0 
0 
0 
0 
0 
0 
0 
0 
0 
0 
0 
0 
3.466206452625047 
0 
0 
0 
0 
0 
0 
0 
0 
0 
0 
0 
0 
0 
0 
0 
0 
0 
1.724763517267579 
0 
2.691126126863667 
0 
0 
0 
0 
0 
0 
0 
0 
0 
0 
0 
0 
0 
0 
0 
0 
0 
0 
0 
0 
0 
0 
0 
0 
0 
0 
0 
0 
0 
0 
0 
0 
0 
0 
0 
0 
0 
0 
0 
0 
0 
0 
0 
0 
0 
0 
2.347698941887022 
0 
0 
0.8460414616518707 
0 
0 
1.443174929197403 
0 
0 
0 
0 
0 
0 
0 
0 
0 
0 
-0.516917489176322 
0 
0 
0 
0.2021732839890091 
-0.9197854144908227 
0 
0 
0 
0 
0 
0 
0 
0 
0 
0 
0 
0 
0 
0 
0 
0 
0 
0 
0 
0 
0 
0 
0.252343041513633 
0 
-0.3225606758699667 
0 
0 
0 
0 
0 
0 
0 
0 
0 
0 
0 
0 
0 
0 
0 
2.529852700718224 
0.5211371458652312 
0 
0 
0 
0 
0 
0 
0 
0 
0 
0 
-0.1949494820544681 
-1.884051464617915 
0 
0 
0 
0 
1.107675377613094 
0 
-2.562091405381242 
0 
0 
0 
0 
0 
0 
0 
0 
0 
0 
0 
0 
0 
0 
-0.1959271867739256 
0 
0 
0 
0 
0 
0 
0 
0 
0 
0 
0 
0 
0 
0 
0 
0 
0 
0.4132067595643645 
0 
0 
0 
0 
0 
0.9273852643266378 
0 
0 
0.1418912561867042 
0 
0 
0 
0 
0 
2.393309673683405 
0 
0 
0 
0 
0 
0.2847590550165596 
0 
0 
0.8681008846962022 
0 
0 
0 
0 
0 
0 
0 
0 
0 
0 
0 
0.7702062401795337 
0 
0 
0 
0 
0 
0 
0 
0 
0 
0 
0 
0 
0.900885082130522 
0 
0 
0 
0 
0 
0 
0 
0 
0 
0 
0 
0 
0 
0 
0.3281449656144323 
0 
0 
0 
0 
0 
0 
0 
0 
0 
0 
0 
0 
0 
0 
-1.347566241285589 
0 
0 
0 
0 
0 
0 
0 
0 
0 
0 
0 
0 
0 
0 
0 
0 
0 
0 
0 
0 
0 
0 
0 
0 
0 
0 
0 
0 
0 
0 
0 
0 
0 
0 
0 
0 
0 
0 
0 
0 
-1.271855249788454 
0 
0 
0 
0 
0 
0 
0 
0 
0 
-3.532125514737588 
0 
0 
0 
0 
0 
0 
0 
0 
0 
0 
0 
0 
-4.944843799018988 
0 
0 
0 
-0.2008465601562665 
0 
0 
-2.371537468929315 
0 
0 
0 
0 
0 
0 
0 
0 
0 
0 
0 
0 
0 
0 
0 
0 
0 
0 
0 
0 
0 
0 
0 
0 
0 
0 
0 
0 
0 
0 
0 
0 
0 
0 
0 
0 
0 
0 
0 
0 
0 
0 
0 
0 
0 
-1.961613965847813 
0 
0 
0 
0 
0 
0 
0 
0 
0 
0 
0 
0 
0 
0 
0 
0 
0 
0 
0 
0 
0 
0 
0 
0 
0 
0 
0 
0 
0 
0 
0 
0 
0 
0 
0 
0 
0 
0 
0 
0 
0 
0 
0 
0 
0 
0 
0 
0 
0 
0 
0 
0 
0 
0 
0 
0 
0 
0 
0 
-2.786075473207959 
0 
0 
0 
0 
0 
0 
0 
0 
0 
0 
0 
0 
0 
0 
0 
0 
0 
0 
0 
0 
0 
0 
0 
0 
0 
0 
0 
0 
0 
0 
0 
0 
0 
0 
0 
0 
0 
0 
0 
0 
0 
0 
0 
0 
0 
0 
-4.507321529560336 
0 
0 
0 
0 
-1.526742464535707 
0 
0 
0 
0 
0 
0 
0 
0 
0 
-0.2421009184186967 
0 
0 
-0.264343271162396 
0 
0 
0 
0 
0 
0 
0 
0 
0 
0 
0 
0 
0 
0 
0 
0 
0 
0 
0 
0 
0 
0 
0 
0 
0 
0 
0 
0 
0 
0 
0 
0 
0 
0 
0 
0 
0 
0 
0 
0 
0 
0 
0 
0 
0 
0 
0 
0 
0 
0 
0 
0 
0 
0 
0 
0 
0 
0 
0 
0 
0 
0 
0 
-3.729013089131158 
0 
0 
0 
0 
0 
0 
0 
0 
0 
0 
0 
0 
0 
0 
0 
0 
0 
0 
0 
-2.787872644017146 
0 
0 
0 
0 
0 
0 
0 
0 
0 
0 
0 
0 
0 
0 
0 
0 
0 
0 
0 
0 
0 
0 
0 
0 
0 
0 
0 
-0.8910746593190435 
0 
0 
0 
0 
0 
0 
0 
0 
0 
0 
0 
0 
0 
0 
-0.1113042018684324 
0 
0 
0 
0 
0 
0 
0 
0 
0 
0 
0 
0 
0 
0 
0 
0 
0 
0 
0 
0 
0 
0 
0 
0 
0 
0 
0 
0.989717512804301 
0 
0 
0 
-2.350068173093928 
-1.201531269225462 
0 
0 
0 
0 
0 
0 
0 
0 
-1.723752679287083 
-2.566844759763775 
0 
0 
0 
0 
0 
0 
0 
0 
-1.706632406871696 
0 
0 
0 
0 
0 
0 
0 
0 
0 
0 
0 
0 
0 
0 
0 
0 
0 
0 
0 
0 
0 
0 
0 
0 
0 
0 
0 
0 
0 
0 
0 
0 
0 
0 
0 
0 
0 
0 
0 
0 
0 
0 
0 
0 
0 
0 
0 
0 
0 
0 
0 
0 
0 
0 
0 
0 
0 
0 
0 
0.5274036511524397 
0 
0 
0 
0 
0 
0 
0 
0 
0 
0 
0 
0 
0 
0 
0 
0 
0 
0 
0 
0 
0 
0 
0 
0 
0 
0 
0 
0 
0 
0 
0 
0 
0 
0 
0 
0 
0 
0 
0 
0 
0 
0 
0 
0 
0 
0 
0 
0 
0 
0 
0 
0 
0 
0.5727756959680014 
0 
0 
0 
0 
0 
0 
0 
0 
0 
0 
0 
0 
0 
0 
0 
0 
0 
0 
0 
0 
0 
0 
0 
0 
0 
0 
0 
0 
0 
0 
0 
0 
0 
0 
0 
0 
0 
0 
0 
0 
0 
0 
0 
0 
0 
0.6888163167134209 
0 
0 
0 
0 
0 
0 
0 
0 
0 
0 
0 
0 
0 
0 
0 
0 
0 
0 
0 
0 
0 
0 
0 
0 
0 
0 
0 
0 
0 
0 
0 
0 
0 
0 
0 
0 
0 
0 
0 
0 
0 
0 
0 
0 
0 
0 
0 
0 
0 
0 
1.060103644827495 
0 
0 
0 
0 
0 
0 
0 
0 
0 
0 
0 
0 
0 
0 
0 
0 
0 
0 
0 
0 
0 
0 
0 
0 
0 
0 
0 
0 
0 
0 
0 
0 
0 
0 
0 
0 
0 
0 
0 
0 
0 
0 
0 
0 
0 
0 
0 
0 
0 
0 
0 
0 
0 
0 
0 
0 
0 
0 
0 
0 
0 
0 
0 
0 
0 
0 
0 
0 
0 
0 
0 
0 
0 
0 
0 
0 
0 
0 
0 
0 
0 
0 
0 
0 
0 
0 
0 
0 
0 
0 
0 
0 
0 
0 
0 
-1.12078365797886 
0 
0 
0 
0 
0 
0 
0 
0 
0 
0 
0 
0 
0 
0 
0 
0 
0 
0 
0 
0 
0 
0 
0 
0 
0 
0 
0 
0 
0 
0 
0 
0 
0 
3.243966095242589 
0 
0 
0 
0 
0 
0 
0 
0 
0 
0 
0 
0 
0 
0 
0 
0 
0 
0 
0 
0 
0 
0 
0 
0 
0 
0 
0 
0 
0 
0 
0 
0 
0 
-0.04449097464525224 
0 
0 
0 
0 
0 
0 
0 
0 
0 
0 
0 
0 
0 
0 
0 
0 
0 
0 
0 
0 
0 
0 
0 
0 
0 
0 
0 
0 
0 
0 
0 
0 
0 
0 
0 
0 
0 
0 
0 
0 
0 
0 
0 
0 
0 
0 
0 
0 
0 
0 
0 
0 
0 
0 
0 
0 
0 
0 
0 
0 
0 
0 
0 
0 
0 
0 
0 
0 
0 
0 
0 
0 
0 
0 
0 
0 
0 
0 
0 
0 
0.8284175354387314 
0 
0 
-0.09426686926087081 
0 
0 
0 
0 
0 
0 
0 
0 
0 
0 
0 
0 
0 
0 
0 
0 
0 
0 
0 
0 
0 
0 
0 
0 
0 
0 
0 
0 
0 
0 
0 
0 
0 
0 
0 
0 
0 
0 
0 
0 
0 
0 
0 
0 
0 
0 
0 
0 
0 
0 
0 
0 
0 
0 
0 
0 
-0.1172521750574672 
0 
0 
0 
0 
0 
0 
0 
0 
0 
0 
0 
0 
0 
0 
0 
0 
-0.1237999169534782 
0 
0 
0 
-1.283902275842859 
0 
0 
0 
0 
0 
0 
0 
0 
0 
0 
0 
0 
0 
0 
0 
0 
0 
0 
0 
0 
0 
0 
0 
0 
0 
0 
0.2559856168233192 
0 
0 
0 
0 
3.466369912123724 
0 
0 
0 
0 
0 
0 
0 
0 
0 
0 
0 
0 
0 
0 
0 
0 
0 
0 
0 
0 
0 
0 
0 
0 
0 
0 
0 
0 
0 
0 
0 
0 
0 
0 
0 
0 
0 
0 
0 
0 
0 
-0.104595630055748 
0 
0 
0 
0 
0 
-1.637100080357757 
0 
0 
0 
0 
0 
0 
0 
0 
0 
0 
0 
0 
0 
0 
0 
0 
0 
0 
0 
0 
0 
0 
0 
0 
0 
0 
0 
0 
0 
0 
0 
-1.3644994289481 
0 
0 
0 
0 
0 
0 
0 
-0.3136957339666873 
0 
0 
0 
0 
0 
0 
0 
0 
0 
0 
0 
0 
0 
0 
0 
0 
0 
0 
0 
0 
0 
0 
0 
0 
0 
0 
0 
0 
0 
0 
0 
0 
0 
0 
0 
0 
0 
-0.002806523237845406 
0 
0 
0 
0 
0 
0 
0 
0 
0 
0 
0 
0 
0 
1.253262255495943 
0 
0 
0 
0 
0 
0 
0 
0 
0 
0 
0 
0 
0 
0 
0 
0 
0 
0 
0 
0 
0 
0 
0 
0 
0 
0 
0 
0 
0 
0 
0 
0 
-0.1350751909165007 
0 
0 
0 
0 
0 
0 
0 
0 
0 
0 
0 
0 
0 
0 
0 
0 
0 
0 
0 
0 
0 
0 
0 
0 
0 
0 
0 
0 
0 
0 
0 
0 
0 
0 
0 
0 
0 
0 
0 
0 
0 
0 
0 
0 
0 
0 
0 
0 
0 
0 
0 
0 
0 
0 
0 
0 
0 
0 
0 
0 
0 
0 
0 
0 
0 
0 
0 
0 
0 
0 
0 
0 
0 
0 
0 
0 
0 
0 
0 
0 
0 
0 
0.3992119583534947 
0 
0 
0 
0 
0 
0 
0 
0 
-2.627275213182359 
0 
0 
0 
0 
0 
0 
0 
0 
0 
0.7867889988982664 
-2.623793180493424 
0 
0 
0 
0 
0 
0 
0 
0 
0 
0 
-0.9665100154431673 
0 
0.02562690815679015 
0.8689976205943374 
0 
0 
0 
0 
-0.05882001103671766 
0.985588313559615 
0 
0 
0 
0 
0 
0 
0 
0 
0 
0 
0 
0 
0 
0 
0 
0 
0.5700386856140802 
0 
0 
0 
0 
0 
0 
0 
0 
0 
0 
5.87159538386888 
-2.000323219078946 
0 
0 
0 
0 
0 
0 
0 
0 
0 
0 
0.2917782514210808 
0 
0 
0 
0 
0 
-0.282046630346898 
0 
0 
0 
0 
0 
0 
0 
0 
0 
0 
0 
0 
0 
0 
0 
0 
0 
0 
0 
0 
0 
0 
0 
0.01725024299694529 
0 
0 
0 
0 
0 
0 
0 
0 
0 
0 
0 
0 
0 
0 
0 
0 
0 
0 
0 
0 
0 
0 
0 
0 
0 
0 
0 
0 
0 
0 
0 
0 
0 
0 
0 
0 
0 
0 
0 
0 
0 
0 
0 
0 
0 
0 
0 
0 
0 
0 
0 
0 
0 
0 
0 
0 
0 
0 
0 
0 
0 
0 
0 
0 
0 
0 
0 
0 
0 
0 
0 
0 
0 
0 
0 
0 
0 
0 
0 
0 
0 
0 
0 
0 
0 
0 
0 
0 
0 
0 
0 
0 
0 
0 
0 
0 
0 
0 
0 
0 
0 
0 
0 
0 
0 
0 
0 
0 
0 
0 
0 
0 
0 
0 
0 
0 
0 
0 
0 
0 
0 
0 
0 
0 
0 
0 
0 
0 
0 
0 
0 
0 
0 
0 
0 
0 
0 
0 
0 
0 
0 
0 
0 
0 
0 
0 
0 
0 
0 
0 
0 
0 
0 
0 
0 
0 
0 
0 
0 
0 
0 
0 
0 
0 
0 
0 
0 
0 
0 
0 
0 
0 
0 
0 
0 
0 
0 
0 
0 
0 
0 
0 
0 
0 
0 
0 
0 
0 
0.9815678120692273 
0 
0 
0 
0 
0 
0 
1.749495868307405 
0 
0 
0 
0 
0 
0 
0 
0 
0 
0 
0 
0 
0 
0 
0 
0 
0 
0 
0 
-1.119743726261449 
0 
0 
0 
0 
0 
0 
0 
0 
-5.927623626652593 
0 
0 
0 
0 
0 
0 
0 
0 
0 
0 
0 
0 
0 
0 
0 
0 
0 
0 
0 
0 
0 
0 
0 
0 
0 
0 
0 
0 
0 
0 
0 
0 
0 
0 
0 
0 
0 
0 
0 
0 
0 
0 
0 
0 
0 
0 
0 
0 
0 
0 
0 
0 
0 
0 
0 
0 
0 
0 
0 
0 
0 
0 
0 
0 
0 
0 
0 
0 
0 
0 
0 
0 
0 
0 
0 
0 
0 
0 
0 
0 
0 
0 
0 
0 
0 
0 
0 
0 
0 
0 
0 
0 
0 
0 
0 
0 
0 
0 
0 
0 
0 
0 
0 
0 
0 
0 
0 
0 
0 
0 
0 
0 
0 
0 
0 
0 
0 
0 
0 
0 
0 
0 
0 
0 
0 
0 
0 
0 
0 
0 
0 
0 
0 
0 
0 
0 
0 
0 
0 
0 
0 
0 
0 
0 
0 
0 
0 
0 
0 
0 
0 
0 
0 
0 
0 
0 
0 
0 
0 
0 
0 
0 
0 
0 
0 
0 
0 
0 
0 
0 
0 
0 
0 
0 
0 
0 
0 
0 
0 
0 
0 
0 
0 
0 
0 
0 
0 
0 
0 
0 
0 
0 
0 
0 
0 
0 
0 
0 
0 
0 
0 
0 
0.3210606478745625 
0 
0 
0 
0 
0 
0 
0 
0 
0 
0 
0 
0 
0 
0 
0 
0 
0 
0 
0 
0.06435636492456022 
0 
0 
0 
0 
0 
0 
0 
-1.447785049097539 
0 
0 
0 
0 
0 
0 
0 
0 
0 
0 
0 
0 
-2.11398409615555 
0 
0 
0 
0 
0 
0 
0 
0 
0 
0 
0 
0 
0 
0 
0 
0 
0 
0 
0 
0 
0 
0 
0 
0 
0 
0 
0 
0 
0 
0 
0 
0 
0 
0 
0 
0 
0 
1.557999213261587 
0 
0 
0 
0 
0 
0 
0 
0 
0 
0 
0 
0 
0 
0 
0 
0 
0 
0 
0 
0 
0 
0 
0 
0 
0 
0 
0 
0 
0 
0 
0 
0 
0 
0 
0 
0 
0 
0 
0 
0 
0 
0 
0 
0 
0 
0 
0 
0 
0 
0 
0 
0 
0 
0 
0 
0 
0 
0 
0 
0 
0 
0 
0 
0 
0 
0 
0 
0 
0 
0 
0 
0 
0 
0 
0 
0 
0 
0 
0 
0 
0 
0 
0 
0 
0 
0 
0 
0 
0 
0 
0 
0 
0 
0 
0 
0 
0 
0 
0 
0 
0 
0 
0 
0 
0 
0 
0 
0 
0 
0 
0 
0 
0 
0 
0 
0 
0 
0 
0 
0 
0 
0 
0 
0 
0 
0 
0 
0 
0 
0 
0 
0 
0 
0 
0 
0 
0 
0 
0 
0 
-0.3759896490535537 
0 
0 
0 
0 
0 
0 
0 
0 
0 
0 
0 
0 
0 
0 
0 
0 
0 
0 
0 
0 
0 
0 
0 
0 
0 
0 
0 
0 
0 
0 
0 
0 
0 
0 
0 
0 
0 
0 
0 
0 
0 
0 
0 
0 
0 
0 
0 
0 
0 
0 
0 
0 
0 
0 
0 
0 
0 
0 
0 
0 
0 
0 
0 
0 
0 
0 
0 
0 
0 
0 
0 
0 
0 
0 
0 
0 
0 
0 
0 
0 
0 
0 
0 
0 
0 
0 
0 
0 
0 
0 
0 
0 
0 
0 
0 
0 
0 
0 
0 
0 
0 
0 
0 
0 
0 
0 
0 
0 
0 
0 
0 
0 
0 
0 
0 
0.171256466464544 
0 
0 
0 
0 
0 
0 
0 
0 
0 
0 
0 
0 
0 
0 
0 
0 
0 
0 
0 
0 
0 
0 
0 
0 
0 
0 
0 
0 
0 
0 
0 
0 
0 
0 
0 
0 
0 
0 
0 
0 
0 
2.332262511243653 
0 
0 
0 
0 
0 
0 
0 
0 
0 
0 
0 
0 
0 
0 
0 
0 
0 
0 
0 
0.2270401452219731 
0 
0 
0 
0 
0 
0 
0 
0 
0 
0 
0 
0 
0 
0 
0 
0 
0 
0 
0 
0 
0 
0 
0 
0 
0 
0 
0 
0 
0 
0 
0 
0 
0 
0 
0 
0 
0 
0 
0 
0 
0 
0 
0 
0 
0 
0 
0 
0 
0 
0 
0 
0 
0 
0 
0 
0 
0 
0 
0 
0 
0 
0 
0 
0 
0 
0 
0 
0 
0 
0 
0 
0 
0 
0 
0 
0 
0 
0 
0 
0 
0 
0 
0 
0 
0 
0 
0 
0 
0 
0 
0 
0 
0 
0 
0 
0 
0 
0 
0 
0 
0 
0 
0 
0 
0 
0 
0 
0 
0 
0 
0 
0 
0 
0 
0 
0 
0 
0 
0 
0 
0 
0 
0 
0 
0 
0 
0 
0 
0 
0 
0 
0 
0 
0 
0 
0 
0 
0 
0 
0 
0 
0 
0 
0 
0 
0 
0 
0 
0 
0 
0 
0 
0 
0 
0 
0 
0 
0 
0 
0 
0 
0 
0 
0 
0 
0 
0 
0 
0 
0 
0 
0 
0 
0 
0 
0 
0 
0 
0 
0 
0 
0 
0 
0 
0 
0 
0 
0 
0 
0 
0 
0 
0 
0 
0 
0 
0 
0 
0 
0 
0 
0 
0 
0 
0 
0 
0 
0 
0 
0 
0 
0 
0 
0 
0 
0 
0 
0 
-5.255750816452458 
0 
0 
0 
0 
0 
0 
0 
-0.8046985191321048 
0 
0 
0 
0 
0 
0 
0 
0 
0 
1.42225081493587 
0 
0 
0 
0 
0 
0 
0 
0 
0 
0 
0 
0 
0 
0 
0 
0 
0 
0 
0 
0 
0 
0 
0 
0 
0 
0 
0 
-0.6753524447780399 
0 
0 
0 
0 
0 
0 
0 
0 
0 
0 
0 
0 
0 
0 
0 
0 
0 
0 
0 
0 
0 
0 
0 
0 
0 
0 
0 
0 
0 
0 
0 
0 
-1.327653413758372 
0 
0 
0 
0 
0 
0 
0 
0 
0 
0 
0 
0 
0 
0 
0 
0 
0 
0 
0 
0 
0 
0 
0 
0 
0 
0 
0 
0 
0 
0 
0 
0 
0 
0 
0 
0 
0 
0 
0 
0 
0 
0 
0 
0 
0 
0 
0 
0 
0 
0 
0 
0 
0 
0 
0 
0 
0 
0 
0 
0 
0 
0 
0 
0 
2.050967901878849 
0 
0 
0 
0 
0 
0 
0 
0 
0 
0 
0 
0 
0 
0 
0 
0 
0 
0 
0 
0 
0 
0 
0 
0 
0 
0 
0 
0 
0 
0 
0 
0 
0 
0 
0 
0 
0 
0 
0 
0 
0 
0 
0 
0 
0 
0 
0 
0 
0 
0 
0 
0 
0 
0 
0 
0 
0 
0 
0 
0 
0 
0 
0 
0 
0 
0 
0 
0 
0 
0 
0 
0 
0 
0 
0 
0 
0 
0 
0 
0 
0 
0 
0 
0 
0 
0 
0 
0 
0 
0 
0 
0 
0 
0 
0 
0 
0 
0 
0 
0 
0 
0 
0 
0 
0 
0 
0 
0 
0 
0 
0 
-0.6956448664599207 
0 
0 
0 
0 
0 
0 
0 
0 
0 
0 
0 
0 
0 
0 
0 
0 
0 
0 
0 
0 
0 
0 
0 
0 
0 
0 
0 
0 
0 
0 
0 
0 
0 
0 
0 
0 
0 
0 
0 
0 
0 
0 
0 
0 
0 
0 
0 
0 
0 
0 
0 
0 
0 
0 
0 
0 
0 
0 
0 
-1.413518410977365 
0 
0 
0 
0 
0 
0 
0 
0 
0 
0 
0 
0 
0 
0 
0 
0 
0 
0 
0 
0 
0 
0 
0 
0 
0 
0 
0 
0 
1.154071822309003 
0 
0 
1.138491030578949 
0 
0 
0 
0 
0 
0 
0 
0 
0 
0 
0 
0 
0 
0 
0 
0 
0 
0 
0 
0 
0 
0 
0 
0 
0 
0 
0 
0 
0 
0 
0 
0 
0 
0 
0 
0 
0 
0 
0 
0 
0 
0 
0 
0 
0 
0 
0 
0 
0 
0 
0 
0 
0 
0 
0 
0 
0 
0 
0 
0 
0 
0 
0 
0 
0 
0 
0 
0 
0 
0 
0 
0 
0 
0 
0 
-2.494761519873491 
0 
0 
0 
0 
0 
0 
0 
0 
0 
0 
0 
0 
0 
0 
0 
0 
0 
0 
0 
0 
0 
0 
0 
0 
0 
0 
0 
0 
0 
0 
0 
0 
0 
0 
0 
0 
0 
0 
0 
0 
0 
0 
0 
0 
0 
0 
0 
0 
0 
0 
0 
0 
0 
0 
0 
0 
0 
0 
0 
0 
0 
0 
0 
0 
0 
0 
0 
0 
0 
0 
0 
0 
0 
0 
0 
0 
0 
0 
0 
0 
0 
0 
0 
0 
0 
0 
0 
0 
0 
0 
0 
0 
0 
0 
0 
0 
0 
0 
0 
0 
0 
0 
0 
0 
0 
0 
0 
0 
0 
0 
0 
0 
0 
0 
0 
0 
0 
0 
0 
0 
0 
0 
0 
0 
0 
-1.357501455623528 
0 
0 
0 
0 
0 
0 
0 
0 
0 
0 
0 
0 
0 
0 
0 
0 
0 
0 
0 
0 
-0.07440183676320042 
0 
0 
0 
0 
0 
0 
0 
0 
0 
0 
0 
0 
0 
0 
0 
0 
0 
0 
0 
0 
0 
0 
0 
0 
0 
0 
0 
0 
0 
0 
0 
0 
0 
0 
0 
0 
0 
0 
0 
0 
0 
0 
0 
0 
0 
0 
0 
0 
0 
0 
0 
0 
0 
0 
0 
0 
0 
0 
0 
0 
0 
0 
0 
0 
0 
0 
0 
0 
0 
0 
0 
0 
0 
0 
0 
0 
0 
0 
0 
0 
0 
0 
0 
0 
0 
0 
0 
0 
0 
0 
0 
0 
0 
0 
0 
0 
0 
0 
0 
0 
0 
0 
0 
0 
0 
0 
0 
0 
0 
0 
0 
0 
0 
0 
0 
0 
0 
0 
0 
0 
0 
0 
0 
0 
0 
0 
0 
0 
0 
0 
0 
0 
0 
0 
0 
0 
0 
0 
0 
0 
0 
0 
0 
0 
0 
0 
0 
0 
0 
0 
0 
0 
0 
0 
0 
0 
0 
0 
0 
0 
0 
0 
0 
0 
0 
0 
0 
0 
0 
0 
0 
0 
0 
0 
0 
0 
0 
0 
0 
0 
0 
0 
0 
0 
0 
0 
0 
0 
0 
0 
0 
0 
0 
0 
0 
0 
0 
0 
0 
0 
0 
0 
0 
0 
0 
0 
0 
0 
0 
0 
0 
0 
0 
0 
0 
0 
0 
0 
0 
0 
0 
0 
0 
0 
0 
0 
0 
0 
0 
0 
0 
0 
-1.649617383860221 
0 
0 
0 
0 
0 
0 
0 
0 
0 
0 
0 
0 
0 
0 
0 
0 
0 
0 
0 
0 
0 
0 
0 
0 
0 
0 
0 
0 
0 
0 
0 
0 
0 
0 
0 
0 
0 
0 
0 
0 
0 
0 
0 
0 
0 
0 
0 
0 
0 
0 
0 
0 
0 
0 
0 
0 
0 
0 
0 
0 
0 
0 
0 
0 
0 
0 
0 
0 
0 
0 
0 
0 
0 
0 
0 
0 
0 
0 
0 
0 
0 
0 
0 
0 
0 
0 
0 
0 
0 
0 
0 
0 
0 
0 
0 
0 
0 
0 
0 
0 
0 
0 
0 
0 
0 
0 
0 
0 
0 
0 
0 
0 
0 
0 
0 
0 
0 
0 
0 
0 
0 
0 
0 
0 
0 
0 
0 
0 
0 
0 
0 
0 
0 
0 
0 
0 
0 
0 
0 
0 
0 
0 
0 
0 
0 
0 
0 
0 
0 
0 
0 
0 
0 
0 
0 
0 
0 
0 
0 
0 
0 
0 
0 
0 
0 
0 
0 
0 
0 
0 
0 
0 
0 
0 
0 
0 
0 
0 
0 
0 
0 
0 
0 
0 
0 
0 
0 
0 
0 
0 
0 
0 
0 
0.3362833846696961 
0 
0 
0 
0 
0 
0 
0 
0 
0 
0 
0 
0 
0 
0 
0 
0 
0 
0 
0 
0 
0 
0 
0 
0 
0 
0 
0 
0 
0 
0 
0 
0 
0 
0 
0 
0 
0 
0 
0 
0 
0 
0 
0 
0 
0 
0 
0 
0 
0 
0 
0 
0 
0 
0 
0 
0 
0 
0 
0 
0 
0 
0 
0 
0 
0 
0 
0 
0 
0 
0 
0 
0 
0 
0 
0 
0 
0 
0 
0 
0 
0 
0 
0 
0 
0 
0 
0 
0 
0 
0 
0 
0 
0 
0 
0 
0 
0 
0 
0 
0 
0 
0 
0 
0 
0 
0 
0 
0 
0 
0 
0 
0 
0 
0 
0 
0 
0 
0 
0 
0 
0 
0 
0 
0 
0 
0 
0 
0 
0 
0 
0 
0 
0 
0 
0 
0 
0 
0 
0 
0 
0 
0 
0 
0 
0 
0 
0 
0 
0 
0 
0 
0 
0 
0 
0 
0 
0 
0 
0 
0 
0 
0 
0 
0 
0 
0 
0 
0 
0 
0 
0 
0 
0 
0 
0 
0 
0 
0 
0 
0 
0 
0 
0 
0 
0 
0 
0 
0 
0 
0 
0 
0 
0 
0 
0 
0 
0 
0 
0 
0 
0 
0 
0 
0 
0 
0 
0 
0 
0 
0 
0 
0 
0 
0 
0 
0 
0 
0 
0 
0 
0 
0 
0 
0 
0 
0 
0 
0 
0 
0 
0 
0 
0 
0 
0 
0 
0 
0 
0 
0 
0 
0 
0 
0 
0 
0 
0 
0 
0 
0 
0 
0 
0 
0 
0 
0 
0 
0 
0 
0 
0 
0 
0 
0 
0 
0 
0 
0 
0 
0 
0 
0 
0 
0 
0 
0 
0 
0 
0 
0 
0 
0 
0 
0 
0 
0 
0 
0 
0 
0 
0 
0 
0 
0 
0 
0 
0 
0 
0 
0 
0 
0 
0 
0 
0 
0 
0 
0 
0 
0 
0 
0 
0 
0 
0 
0 
0 
0 
0 
0 
0 
0 
0 
0 
0 
0 
0 
0 
0 
0 
0 
0 
0 
0 
0 
0 
0 
0 
0 
0 
0 
0 
0 
0 
0 
0 
0 
0 
0 
0 
0 
0 
0 
0 
0 
0 
0 
0 
0 
0 
0 
0 
0 
0 
0 
0 
0 
0 
0 
0 
0 
0 
0 
0 
0 
0 
0 
0 
0 
0 
0 
0 
0 
0 
0 
0 
0 
0 
0 
0 
0 
0 
0 
0 
0 
0 
0 
0 
0 
0 
0 
0 
0 
0 
0 
0 
0 
0 
0 
0 
0 
0 
0 
0 
0 
0 
0 
0 
0 
0 
0 
0 
0 
0 
0 
0 
0 
0 
0 
0 
0 
0 
0 
0 
0 
0 
0 
0 
0 
0 
0 
0 
0 
0 
0 
0 
0 
0 
0 
0 
0 
0 
0 
0 
0 
0 
0 
0 
0 
0 
0 
0 
0 
0 
0 
0 
0 
0 
0 
0 
0 
0 
0 
0 
0 
0 
0 
0 
0 
0 
0 
0 
0 
0 
0 
0 
0 
0 
0 
0 
0 
0 
0 
0 
0 
0 
0 
0 
0 
0 
0 
0 
0 
0 
0 
0 
0 
0 
0 
0 
0 
0 
0 
0 
0 
0 
0 
0 
0 
0 
0 
0.4480672561423519 
0 
0 
0 
0 
0 
0 
0 
0 
0 
0 
0 
0 
0 
0 
0 
0 
0 
0 
0 
0 
0 
0 
0 
0 
0 
0 
0 
0 
0 
0 
0 
0 
0 
0 
0 
0 
0 
0 
0 
0 
0 
0 
0 
0 
0 
0 
0 
0 
0 
0 
0 
0 
0 
0 
0 
0 
0 
0 
0 
0 
0 
0 
0 
0 
0 
0 
0 
0 
0 
0 
0 
0 
0 
0 
0 
0 
0 
0 
0 
-0.9552934356241457 
0 
0 
0 
0 
0 
0 
0 
0 
0 
0 
0 
0 
0 
0 
0 
0 
0 
0 
0 
0 
0 
0 
0 
0 
0 
0 
0 
0 
0 
0 
0 
0 
0 
0 
0 
0 
0 
0 
0 
0 
0 
0 
0 
0 
0 
0 
0 
0 
0 
0 
0 
0 
0 
0 
0 
0 
0 
0 
0 
0 
0 
0 
0 
0 
0 
0 
0 
0 
0 
0 
0 
0 
0 
0 
0 
0 
0 
0 
0 
0 
0 
0 
0 
0 
0 
0 
0 
0 
0 
0 
0 
0 
0 
0 
0 
0 
0 
0 
0 
0 
0 
0 
0 
0 
0 
0 
0 
0 
0 
0 
0 
0 
0 
0 
0 
0 
0 
0 
0 
0 
0 
0 
0 
0 
0 
0 
0 
0 
0 
0 
0 
0 
0 
0 
0 
0 
0 
0 
0 
0 
0 
0 
0 
0 
0 
0 
0 
0 
0 
0 
0 
0 
0 
0 
0 
0 
0 
0 
0 
0 
0 
0 
0 
0 
0 
0 
0 
0 
0 
0 
0 
0 
0 
0 
0 
0 
0 
0 
0 
0 
0 
0 
0 
0 
0 
0 
0 
0 
0 
0 
0 
0 
0 
0 
0 
0 
0 
0 
0 
0 
0 
0 
0 
0 
0 
0 
0 
0 
0 
0 
0 
0 
0 
0 
0 
0 
0 
0 
0 
0 
0 
0 
0 
0 
0 
0 
0 
0 
0 
0 
0 
0 
0 
0 
0 
0 
0 
0 
0 
0 
0 
0 
0 
0 
0 
0 
0 
0 
0 
0 
0 
0 
0 
0 
0 
0 
0 
0 
0 
0 
0 
0 
0 
0 
0 
0 
0 
0 
0 
0 
0 
0 
0 
0 
0 
0 
0 
0 
0 
0 
0 
0 
0 
0 
0 
0 
0 
0 
0 
0 
0 
0 
0 
0 
2.812604682689412 
0 
0 
0 
0 
0 
0 
0 
0 
0 
0 
0 
0 
0 
0 
0 
0 
0 
0 
0.08664849211445405 
0 
0 
0 
0 
0 
0 
0 
0 
0 
0 
0 
0 
0 
0 
0 
0 
0 
0 
0 
0 
0 
0 
0 
0 
0 
0 
0 
0 
0 
0 
0 
0 
0 
0 
0 
0 
1.772845624991175 
0 
0 
0 
0 
0 
0 
0 
0 
0 
0 
0 
0 
0 
0 
0 
0 
0 
0 
0 
0 
0 
0 
0 
0 
0 
0 
0 
0 
0 
0 
0 
0 
0 
0 
0 
0 
0 
0 
0 
0 
0 
0 
0 
0 
0 
0 
0 
0 
0 
0 
0 
0 
0 
0 
0 
0 
0 
0 
0 
0 
0 
0 
0 
0 
0 
0 
0 
0 
0 
0 
0 
0 
0 
0 
0 
0 
0 
0 
0 
0 
0 
0 
0 
-2.078133742790841 
-1.674015785142634 
0 
0 
0 
0 
0 
0 
0 
0 
0 
0 
0 
0 
0 
0 
0 
0 
0 
0 
0 
0 
0 
0 
0 
0 
0 
0 
0 
0 
0 
0 
0 
0 
0 
0 
0 
0 
0 
0 
0 
0 
0 
0 
0 
0 
0 
0 
0 
0 
0 
0 
0 
0 
0 
0 
0 
0 
0 
0 
0 
0 
0 
0 
0 
0 
0 
0 
0 
0 
-1.661732230938192 
0 
0 
0 
0 
0 
0 
0 
0 
0 
0 
0 
0 
0 
0 
0 
0 
0 
0 
0 
0 
0 
0 
0 
0 
0 
0 
0 
0 
0 
0 
0 
0 
0 
0 
0 
0 
0 
0 
0 
0 
0 
0 
0 
0 
0 
0 
0 
0 
0 
0 
0 
0 
0 
0 
0 
0 
0 
0 
0 
0 
0 
0 
0 
0 
0 
0 
0 
0 
0 
0 
0 
0 
0 
0 
0 
0 
0 
0 
0 
0 
0 
0 
0 
0 
0 
0 
0 
0 
0 
0 
0 
0 
0 
0 
0 
0 
0 
0 
0 
0 
0 
0 
0 
0 
0 
0 
0 
0 
0 
0 
0 
0 
0 
0 
0 
0 
0 
0 
0 
0 
0 
0 
0 
0 
0 
0 
0 
0 
0 
0 
0 
0 
0 
0 
0 
0 
0 
0 
0 
0 
0 
0 
0 
0 
0 
0 
0 
0 
0 
0 
0 
0 
0 
0 
0 
0 
0 
0 
0 
0 
0 
0 
0 
0 
0 
0.6439247995780562 
0 
0 
0 
0 
0 
0 
0 
0 
0 
0 
0 
0 
0 
0 
0 
0 
0 
0 
0 
0 
0 
0 
0 
0 
0 
0 
0 
0 
0 
0 
0 
0 
0 
0 
0 
0 
0 
0 
0 
0 
0 
0 
0 
0 
0 
0 
0 
0 
0 
0 
0 
0 
0 
0 
0 
0 
0 
0 
0 
0 
0 
0 
0 
0 
0 
0 
0 
0 
0 
0 
0.3745870429572134 
0 
0 
0 
0 
0.3267332981757743 
0 
0 
0 
0 
0 
0 
0 
0 
0 
0 
0 
0 
0 
0 
0 
0 
0 
0 
0 
0 
0 
0 
0 
0 
0 
0 
0 
0 
0 
0 
0 
0 
0 
0 
0 
0 
0 
0 
0 
0 
0 
0 
0 
0 
0 
0 
0 
0 
0 
0 
0 
0 
0 
0 
0 
0 
0 
0 
0 
0 
0 
0 
0 
0 
0 
0 
0 
0 
0 
0 
0 
0 
0 
0 
0 
0 
0 
0 
0 
0 
0 
0 
0 
0 
0 
0 
0 
0 
0 
0 
0 
0 
0 
0 
0 
0 
0.5033986001625684 
0 
0 
0 
0 
0 
0 
0 
0 
0 
0 
0 
-0.02183206476500417 
0 
0 
0 
0 
0 
0 
0 
0 
0 
0 
0 
0 
0 
0 
0 
0 
0 
0 
0 
0 
0 
0 
0 
0 
0 
0 
0 
0 
0 
0 
0 
0 
0 
0 
0 
0 
0 
0 
0 
0 
0 
0 
-4.757009222846074 
0 
0 
0 
0 
0 
0 
0 
0 
0 
0 
0 
0 
0 
0 
0 
0 
0 
0 
0 
0 
0 
0 
0 
0 
0 
0 
0 
0 
0 
0 
0 
0 
-2.607019628471726 
0 
0 
0 
0 
0 
0 
0 
0 
0 
0 
0 
0 
0 
0 
0 
0 
0 
0 
0 
0 
0 
0 
0 
0 
0 
0 
0 
0 
0 
0 
0 
0 
0 
0 
0 
0 
0 
0 
0 
0 
0 
0 
0 
0 
0 
0 
0 
0 
0 
0 
0 
0 
0 
0 
0 
0 
0 
0 
0 
0 
0 
0 
0 
0 
0 
0 
0 
0 
0 
0 
0 
0 
0 
0 
0 
0 
0 
0 
0 
0 
0 
0 
0 
0 
0 
0 
0 
0 
0 
0 
0 
0 
0 
0 
0 
0 
0 
0 
0 
0 
0 
0 
0 
0 
0 
0 
0 
0 
0 
-1.344178752161262 
0 
0 
0 
0 
0 
0 
0 
0 
0 
0 
0 
0 
0 
0 
0 
0 
0 
0 
0 
0 
0 
0 
0 
0 
0 
0 
0 
0 
0 
0 
0 
0 
0 
0 
0 
0 
0 
0 
0 
0 
0 
0 
0 
0 
0 
0 
0 
0 
0 
0 
0 
0 
0 
0 
0 
0 
0 
0 
0 
0 
0 
0 
0 
0 
0 
0 
0 
0 
0 
0 
0 
0 
0 
0 
0 
0 
0 
0 
0 
0 
0 
0 
0 
0 
0 
0 
0 
0 
0 
0 
0 
0 
0 
0 
0 
0 
0 
0 
0 
0 
0 
0 
0 
0 
0 
0 
0 
0 
0 
0 
0 
0 
0 
0 
0 
0 
0 
0 
0 
0 
0 
0 
0 
0 
0 
0 
0 
0 
0 
0 
0 
0 
0 
0 
0 
0 
0 
0 
0 
0 
0 
0 
0 
0 
0 
0 
0 
0 
0 
0 
0 
0 
0 
0 
0 
0 
0 
0 
0 
0 
0 
0 
0 
0 
0 
0 
0 
0 
0 
0 
0 
0 
0 
0 
0 
0 
0 
0 
0 
0 
0 
0 
