solver_type L1R_LR
nr_class 2
label 1 -1
nr_feature 98199
bias -1
w
-1.930620720352388 
0.4249371564472526 
0 
-1.642972503446581 
-0.9999551532954062 
0 
0.3765651481596958 
0 
0.1802239391461735 
0 
2.014584860841366 
0.06813085198814911 
0 
0 
0 
3.109134535492617 
1.266752179883477 
1.327309500403852 
1.084950424044458 
0.03873794951912196 
1.208132172471665 
0.006633475735793036 
-0.7157742467086409 
0 
1.600187403547727 
0 
0 
0 
0 
1.189499535779172 
0.6881874036157696 
0 
0 
3.854184721135936 
0 
-0.4299219381748434 
0 
0 
0 
0 
0 
0 
-1.08178122769759 
0.09580412963713866 
0 
-1.635375906458944 
0.5704937852987628 
0 
0 
-1.920069879949836 
0 
0 
-1.759294930635693 
-0.1492757761716368 
-0.2282544431749133 
0 
0 
0 
-0.1686246138764479 
0 
0 
-1.385044949716979 
1.390161457439462 
-1.759103934966679 
0 
-0.7561734814788146 
0 
0 
0 
0.4772438859164212 
0 
1.074208806728113 
0.7770848618086244 
0 
0 
0 
0 
0 
0 
-0.2575461068447308 
0 
2.156882755338884 
1.529223661994763 
0 
0 
0 
-0.01843219650940971 
-2.059282366861051 
0 
0 
0 
-0.2291019765109154 
1.347707723918479 
0 
0 
0 
0 
-0.4773250295272537 
0.07208841002141049 
-0.3911225563526792 
0.06812893867327197 
0.2790604813534676 
0 
0 
0 
-0.6642664718479431 
-0.2092222602698002 
0 
-0.6097027229928016 
-1.427092513987924 
0 
-0.08529754291421725 
0 
0 
0 
0 
0 
0 
0 
0 
0 
2.337679178640502 
0 
0 
1.205080705963607 
0 
-0.3490695538902716 
0 
0 
-0.4372741832420431 
2.121250517601052 
-0.5187139643110427 
-1.209573852361746 
-0.7746446431104065 
0 
0.4720338960043756 
0 
-1.440346134420938 
-0.6915669999587175 
0.2524571612014517 
-1.96742187138568 
0 
0 
0.09706983295781133 
0.65546738372679 
-0.1127110517729045 
-1.436868765482629 
0 
0 
0 
0 
0 
0.2418999389227729 
0.44269679343469 
0 
0 
0 
0 
0.6360120959945635 
0 
-1.409028584931483 
1.888156835891265 
0.7573094695846886 
0 
1.278073583645971 
0 
0 
0 
0 
0 
0 
0 
0 
0 
0 
-2.490872905410297 
0.5699117481078776 
0 
1.766534385590633 
0 
0 
0 
0 
0 
-0.6715099817173731 
-0.3743914538301715 
-0.5709574663356478 
0 
0 
0 
0 
0 
0 
0 
-0.2797074641764746 
0 
-0.7928246834938396 
0 
0 
0 
-0.9926926931872121 
-0.3337029221301791 
0 
1.074698042631709 
0 
0 
0 
-0.5621545910903677 
0 
0 
-0.1188477054892951 
0 
0 
-0.6296472737722755 
0 
-1.080379223888597 
0 
0 
0 
0 
-1.211433132739192 
0 
-0.150805416745985 
0 
0 
0 
0 
0 
0 
0 
-0.3263713502355209 
-1.098005451115407 
0 
0 
-0.1978030512075261 
-0.8667232493123781 
0 
0 
0 
0 
0 
0 
-0.2386218898216217 
0 
-1.289785719213359 
0 
0 
0 
0 
0 
0.6205994675734948 
0 
-1.956175249659645 
0 
0 
0 
0.003884328050715275 
0 
0 
0 
0 
0 
1.435151813261397 
0 
0 
-0.3370011245584123 
0 
0 
0 
-1.092783503605572 
0 
0 
0 
0.03047253858068223 
0 
0 
0 
1.108378753495938 
-0.7674852874789487 
0 
0 
0 
0 
0 
0 
-1.160405957436791 
1.068840548843841 
0.3183587669861218 
0 
0 
-2.252694727976535 
0 
0 
-1.045535177623779 
0 
0 
0 
0.1358018765941031 
0 
0 
2.058638627304697 
0 
0 
0 
0 
0.5132413824388343 
0 
0.9306681191242101 
0 
0.4617335056719059 
0 
0.00124246242012884 
1.249836815064354 
0.3037299203957331 
0 
0 
0 
0 
0 
0 
0 
0.451342785515707 
1.77552020016986 
0 
-0.424688759799892 
-0.9093097283703306 
0.3896406792556894 
0 
-0.7655923363118445 
0 
-0.2986119441546232 
0 
-0.9150736406442436 
0 
0 
0 
-0.07253563545212524 
0 
0 
0 
-0.5192270504965522 
0 
0 
0 
0.7034237042447673 
0.1815338535100003 
0 
0 
0 
0 
0 
-1.340874502113883 
-0.02185269492436489 
0 
-0.9125008126180352 
0.05250481024223773 
0 
-0.1434992188449991 
0 
0 
0 
-1.139836249703189 
0 
0 
0 
-1.406340945090497 
0 
0.4697534905667705 
0 
0 
-2.126944755083946 
0 
0 
-0.8963023518627392 
0.6693611869666915 
-2.156551473451502 
0 
0 
-1.197036123578146 
1.025552519202812 
1.172195500061986 
0 
0 
0.04192122593305864 
0.2265386557943513 
0 
-1.131178606034947 
0 
0 
0 
-0.7071388389547235 
-0.6182180187578021 
-0.3827542584504777 
0 
0 
0.3609107203997282 
0 
-0.6954973275560274 
0 
1.301957319630787 
0 
0 
0 
0 
0 
0 
-1.110622663301585 
0 
0.5726799459889351 
2.539777136572393 
0 
-1.54694068005344 
0 
0 
0 
0 
0 
0 
0 
0 
0 
0 
0 
0 
0 
0 
0 
-3.597768425433493 
2.013793568756263 
-1.581039882597345 
0 
0 
0 
0 
0.4570741682685622 
0.9298937144735918 
0.5354192411786173 
-1.391412182256169 
0 
0 
0 
-1.315258566477038 
-2.060547863424618 
-0.6463159895005471 
0 
0.4360270217895536 
0 
0 
1.037023424038443 
0 
-3.530075357005058 
0 
0 
-1.857995476472585 
0 
0 
-0.8060380453389874 
-0.2675571330243418 
-0.2804107057897466 
-0.5345544205167396 
0 
-1.061693273113272 
0 
0 
0.2738317173964096 
-1.600197421636043 
-3.847517551271677 
0 
0 
0 
0 
0 
0 
0 
0 
0 
-1.262956177158682 
0 
0 
0 
0 
0 
0 
0 
0 
-1.554359600110658 
-0.6959520834945278 
0 
0 
1.467453437989915 
0 
0 
0 
0 
2.210219390216928 
0 
-0.7579810372277569 
0 
0 
0 
0 
0.4388439081663134 
0 
2.383979810224254 
0 
0 
0 
-3.480809627064895 
0 
0.3022411240774924 
0 
0 
-2.948827757345891 
0 
0 
2.618048208030591 
1.235071104888495 
0 
0 
0 
0 
0 
0 
0 
0 
0 
0 
-0.09223199766241456 
2.155743702867044 
0 
0 
-1.598919459024988 
0 
0 
-0.9984358737554385 
0 
-2.951492348526785 
0 
0 
-0.9042334060021922 
0 
0 
0 
0 
0 
0.1373164037342426 
0 
0 
0 
0 
0 
0.6004257838422491 
0.02915506900544202 
1.670924594048538 
0.1116435959889819 
0.965340527247664 
0 
0 
-1.028116927046562 
0 
0 
0 
0 
0 
0 
0 
0 
0 
-2.5499314645611 
0 
0 
0 
-0.2737202829335399 
0 
0 
0 
0 
0 
0 
0 
0 
0 
-0.02210287531427147 
-1.204559279223789 
0 
0 
0 
0.02472217799977809 
-0.3931473456811321 
0 
0 
0 
0 
1.069432539452759 
0 
0 
0.5910803386645969 
0 
-0.7787766112605 
0 
0 
0 
0 
1.637896940566686 
0 
0 
0 
0 
0 
0 
0 
0 
0 
0 
0 
0 
0 
-1.937773116376833 
0 
0 
-0.2835071122003631 
-0.4665902411949278 
0 
0 
0 
0 
0 
0 
0.5215859015830779 
-0.9872346145206116 
2.150807706791541 
0 
0 
0 
-1.695417262439591 
0 
-0.6147735170724892 
0 
-0.4803362053354639 
0 
0 
0 
0.7905418443037472 
0.7705637006569348 
0 
0 
0.6475447267038431 
0 
-1.343148915674462 
0 
0 
0 
-1.325068849573871 
0 
0.2596249739387968 
0.2935722599601812 
0 
0 
0 
0 
0 
0 
-0.1533415225071452 
0 
0 
0 
-4.418861592100782 
-0.7267760706918155 
-0.5686234771595197 
0 
0 
-3.687853855580608 
0 
0 
0 
2.054105504828703 
-2.578875618083764 
-2.192066230321925 
0 
0 
0 
1.794863505287085 
0 
2.244314180113068 
0 
0 
0 
0 
-0.2373140579603702 
0 
0 
0 
0 
0 
0 
0.01339845474026636 
0 
0 
0 
0 
0 
0 
0 
-0.01651251604269273 
0 
0 
0 
0 
0 
0 
-1.273224201600879 
0 
0 
2.697112176952962 
0 
0 
0 
-0.1441220500983825 
0 
0 
0 
0 
0 
0.5778173556006578 
0 
0 
0 
0 
0 
0 
0.7798015058783058 
1.898074351624767 
0 
0 
0 
0 
-3.435530879182344 
0 
0 
0 
0.26521591637137 
0 
0 
0 
-0.7499436506917124 
0 
0 
0 
0 
0 
0 
0 
0 
2.063412003137013 
0 
0 
0 
-0.7250625168055234 
0 
0 
0 
0 
1.569942098191775 
0 
0 
0 
-1.455917759237552 
0 
0 
-3.001473111254333 
0 
0 
0 
0 
0 
0 
0 
0 
0 
0 
0 
0 
0 
-1.704741510097943 
0 
0 
0 
0 
3.070009361617223 
0 
0 
0 
0 
0 
0 
0 
0 
0 
0 
0.9876951653228504 
2.183170359969657 
0 
0 
0 
0 
4.195067386335126 
0 
0 
0 
0 
-0.1870782733347684 
0 
-0.3812414121625387 
-0.9466393131584407 
0 
0 
-0.1400163088550669 
0 
2.554400737157133 
0 
0 
0 
0 
0 
0 
0 
0 
0 
0 
0 
0 
-1.488887442743454 
0 
0 
0 
0 
0 
0 
0 
0 
0 
0 
0 
0 
0 
0 
0.2668092721658507 
0 
0.4873432819191548 
0 
0 
0 
0 
0 
0 
0 
0 
0 
0 
0 
0 
0 
-0.4780745997605475 
0 
-0.1123807940016951 
0 
-1.276466806567284 
0 
0 
-1.617560841053695 
0 
-0.7849319663813439 
1.370455225705549 
-0.7281463157816966 
0 
0.3240287962535597 
-3.220960597079471 
0.5274173230051945 
0 
-0.3244401185053719 
0 
0 
0 
0.3626067559596025 
0.4399014799737928 
-0.4630310341329831 
0.4707279231422751 
0 
-0.2546172436360925 
0 
0 
0 
0 
0 
-1.798935690189027 
-3.968402255640013 
0 
0 
0 
0 
0 
0 
0 
-1.710905558142876 
0 
0 
0 
0.2988943678968961 
1.603175436364481 
0 
0 
0 
0 
0 
0 
0 
0 
0 
0 
-2.110882149358627 
-1.519064406163039 
0 
0 
0 
0 
0.3154423952542775 
0 
0.6362800977449162 
0 
-0.06006553686433266 
0 
0 
0 
0 
-0.1153827337483635 
0.3112366242011021 
0 
-0.2185020838332243 
0 
0 
0 
0 
0 
0 
0 
0 
0 
0 
0 
0 
0 
0 
0 
0 
0 
0 
0.5199816897140732 
-0.7982133825335704 
-0.2674489473757185 
0 
0 
-0.1781693814126749 
0 
0.1651119733486119 
0 
0 
0 
0 
0 
0 
0 
0 
0.2916125410589368 
0 
0 
0 
0 
0.1184061693096996 
0 
0 
0 
0 
0 
2.959087430355714 
0 
0 
0 
0 
0 
0.4364592511595055 
0 
0 
0 
-0.2888987463850952 
0.3356025402242022 
0 
0 
0 
0 
0 
0 
0 
0 
0 
0 
0 
0 
0.6192257675422115 
-2.305942161319038 
-1.171345297617855 
0 
0.2175418872249861 
0 
0 
0.698015582932444 
0 
2.1487822866126 
0 
0 
0 
0 
1.735279916967919 
0 
0 
0 
0 
-0.2751588658734557 
-0.4907971287797473 
0 
0 
0.122450189302032 
0.5113856194750973 
0 
0 
1.756186864330778 
0.2089994617814762 
-0.1704999034445455 
0 
0 
-0.6291599469013574 
0 
-0.4020583083147183 
0 
-1.654322962858331 
0 
0.4201289138476627 
0 
0 
-0.01870441779483616 
-0.7427369317372279 
0 
-1.131077059574458 
0.372505799155625 
-0.5998838518651818 
0 
0 
0 
0 
0 
0 
0 
0 
0 
-0.9248796318301499 
0 
0 
0 
-0.2563552535433083 
0 
0 
0 
-0.3434159925799025 
0 
1.495200812145086 
0 
0 
-1.448830047167632 
0 
0 
0 
0 
0 
-0.7066557961633181 
0 
0 
-2.517514088422693 
0 
0 
-0.9709466187758993 
0 
0 
0 
0 
-1.769112789475526 
-1.314544576697975 
0.2392120882391272 
0 
0 
0 
0 
0 
0 
-2.116569307197579 
0 
-0.3604206333803096 
0 
0 
0 
0 
0 
0.1992423735339323 
0 
0 
0.7978018633043745 
0 
0 
0 
0.07247912013375757 
0 
-0.488920760450881 
0 
0 
-2.450431386202615 
0 
-0.9452442691513047 
0 
-0.3925742826686025 
0 
0 
0 
-0.1335275380729512 
0 
0 
0 
0 
0 
0.5675968474733719 
0 
0 
0 
0 
0 
0 
0 
-0.7572729029398366 
0.9626905335288686 
1.116532653284258 
0 
0 
0.523148245597283 
0 
0 
0 
0 
0 
0 
0 
-2.221888403559478 
0 
-1.330932138668739 
0.8750955177484153 
0.4989281010500332 
0 
-3.830401949044949 
-3.123059685435498 
-1.908203938142945 
0 
0 
0 
0 
1.135692738025205 
0 
0 
0.04752751553220806 
-0.9496457862123333 
0.4407571894384246 
0 
0 
0 
-1.179006940731719 
-2.706094143751429 
0 
0 
0.7785051262414484 
0 
0 
0 
0 
0 
-1.946784027571613 
0 
1.473020473193184 
0 
0 
0 
1.317349490037853 
0 
0 
0 
0 
0 
0 
0 
0 
0 
1.585752282665907 
-0.3979841433424629 
0 
0 
-1.484703627079202 
-0.8424142753658126 
0 
0 
0 
0 
-1.306313070421856 
0 
0 
-0.6449448836196386 
0 
0 
0 
0 
0 
0 
0 
0 
-0.3218400691715136 
0.9105272044447919 
0 
0 
0 
0.3458283570413294 
0.495068662780817 
0 
0 
0 
0 
0 
0 
0.5322737379371546 
0.9876324514755797 
0 
0 
0 
0 
0 
-3.001040430493933 
0 
0 
0.6128916341157105 
0 
1.682411086222365 
0 
-0.009822883997307297 
0 
0 
0 
0.182709946667446 
0 
0 
-3.714132771756872 
-3.662004705342192 
0.7459226017928025 
0 
0.1911245489535026 
0 
-1.720568619326341 
0 
-0.1752448558554537 
-0.9635823100654281 
0 
0 
0 
0 
-1.206632306876333 
1.701202655335803 
0 
0 
0 
0 
0 
0 
-3.674230791029382 
0 
0 
-0.8233420447333202 
0 
-1.550635866887105 
0.5553456502531785 
0 
-0.139926215247001 
0 
0 
0 
0.8599315259224721 
0 
0 
0 
1.83902040534403 
1.954953822985487 
-0.2401111704898695 
0 
2.141608284368202 
0 
-1.495154112972023 
0.1051863711747927 
0 
0 
-4.029905020389128 
-0.4921921907798929 
-0.2989970690870444 
0 
-0.5272355764836229 
0 
-0.7931863674845359 
0 
-0.6357044639193009 
-0.3032009996689668 
0 
0.1816697026681332 
0 
0 
0 
0 
0 
0 
-2.157194191231304 
-2.166375523871289 
0 
0 
0 
0 
0 
-0.7130649409314964 
0.8604364085434522 
0.07845007742683974 
0 
0 
-0.6960601012129735 
-0.6290443285373263 
-0.7068094581221603 
0 
0 
0 
0 
0 
1.11472238797398 
0 
0 
0 
0.5071905528528063 
0 
0 
0 
0 
-0.05339716594945176 
-1.496744051628679 
0 
0 
0 
0.6389936602595067 
0 
0.3454929986750135 
0 
0 
0 
0.7620868576184214 
0 
0.344909022093582 
-0.8226110627366016 
0 
0 
0 
0 
-0.8387544601400534 
0 
0 
0 
0 
0 
0 
0 
0 
0.2561187716249156 
0 
0 
0 
0 
0 
0 
-2.81153012212838 
0 
0 
0 
0 
-3.038300274381834 
0.163004165654447 
0 
0 
0 
-1.535940870338677 
0 
0 
0.4598616620619958 
-1.652232477988012 
1.436946945234161 
0 
-0.6679311831340249 
0 
0 
0 
0 
0 
0 
0 
0.7662135571602229 
0 
-0.5960889267102771 
-0.9484046060795871 
0.4866361704799607 
-2.265177689469764 
0.9566969377499175 
0.03703390698418985 
0 
0 
-0.1851619060478722 
-0.5546040178330843 
0 
-0.09215652611074905 
0 
0 
0 
0 
0.6212732961711208 
0 
0 
0.9836531914954182 
0 
0 
0 
0 
0 
0.7384525008949541 
0.6255813279774765 
0 
0 
0 
0 
0 
0 
0 
0 
-1.180254551328685 
0.4373465171862923 
0 
0 
-2.132066777652499 
0 
-0.1347874739688321 
0 
0.03285353031708104 
-1.528931324332964 
0 
0 
-1.579377788243137 
-1.273045699475288 
0 
0 
0 
0 
0.786973432384522 
0 
0 
0 
0 
0 
0 
0 
0 
-0.5065602978348284 
0 
0 
-1.251367293843816 
0 
0 
0 
0 
-0.5414537398829669 
0 
0 
-0.6540288913114949 
0 
-1.504022717515727 
0 
0.1522764535488161 
1.422494790885682 
0 
0 
0.04761507807336102 
0.6283269507871088 
0 
0 
2.066513233411862 
0 
0 
0 
-0.4620855556580193 
-0.3671593894876788 
0 
0 
0 
0 
0 
0 
0 
0 
0 
-4.617268147920896 
0 
0 
-1.221900742557144 
0 
0 
0 
0 
0.4672353733364963 
0 
0 
0 
-1.579903481906687 
0 
0 
0 
-5.560540629994274 
-0.2562708488407592 
0 
0 
0 
0 
0 
0 
0 
0 
0 
0 
-0.3707427472015397 
0 
0 
-0.144294402931265 
0 
0 
-0.6185526729275727 
0 
0 
0 
-1.352218224279018 
0 
0 
0.2667018953545244 
0 
0 
0 
0 
0 
0 
0 
0 
0 
0 
0 
0 
0 
-0.8088075746784442 
0 
0.8876310566478152 
0 
0 
0 
0 
0 
0 
-0.7770651221570851 
0 
0 
0 
0 
0 
0 
0 
-3.277466438306317 
-1.758292809492909 
0 
2.266492880148192 
0.1205474190613392 
0 
0 
-1.159834653157942 
0 
-0.7937975561497616 
0 
-0.007276656509523766 
0 
0 
0 
0 
0 
0 
0 
-5.522182791560838 
0 
0 
0 
0 
0 
0.4129175916509879 
0 
0 
0.9046908480836815 
0 
0 
0 
0.6372571931691587 
0 
0 
0 
1.217944305128377 
5.181600721106756 
0 
0 
0 
-0.7065197238591294 
1.28122075783999 
0 
0 
0 
0 
0 
-0.5371201649439 
0 
1.070874826704375 
0 
0 
0 
0.7280567532877605 
0 
0 
-0.4755000868251871 
0 
-0.512703641507432 
0 
0 
0 
0.20878782362918 
0.08927891107858742 
0 
0 
-0.5319804855720458 
-0.7729138853538948 
0 
0 
0 
0 
0 
0.2165784187939036 
0 
0 
-1.94538858569649 
-1.602483355350521 
0 
0 
0 
0 
0 
0 
-1.800772565855831 
0 
0 
0 
0 
0 
0 
0 
0 
0 
0 
-2.899933205044515 
2.730624826572894 
0 
1.218785310175822 
1.789098040268849 
0 
0 
0 
0 
0 
0.2327360105325193 
-1.151948150140184 
-0.7598042363280193 
0 
0 
0 
0 
0 
0 
0 
0 
1.218639198451127 
0 
0 
0 
0 
0 
0 
0 
0 
0.4504466150824024 
-0.1352931990797704 
0 
0 
0 
0 
0 
0 
-0.3608361104028889 
-0.9185815356295937 
-1.005885691233709 
0 
0 
-0.02449081871010479 
0 
-0.6653698337051895 
0 
-0.9404474563776187 
0 
0 
0.7406942634513015 
0.528174986730127 
0 
-0.02778681530205089 
0 
0 
0 
-2.087618392075659 
0 
0.7907652796152062 
0 
0 
0 
-1.743920143616925 
0 
0 
0 
0 
0 
0 
0 
0 
0 
0 
0 
0 
0 
0 
0 
0 
0 
0 
-0.5146851923727386 
0 
0 
0.06376461739140923 
0 
0 
0 
0 
0 
0 
0 
0 
-1.452946954507772 
0 
0 
-1.486318474499022 
0 
0 
0 
0 
0 
0 
0 
0 
0 
0 
0 
-0.1320887912204662 
0 
0 
0 
0 
-1.177850847498888 
0 
0 
0 
0 
0 
0 
0 
0 
0 
0 
0 
0 
0 
0 
0 
0 
0.1571598477917744 
-0.5847298952442758 
-1.82278689378898 
0 
0 
0 
0 
0 
0 
0 
0.4015939476501279 
0 
0 
0 
0 
0 
0 
0.03065073582893953 
0 
0.116538473200167 
-1.619523780429477 
0 
0 
-1.422367044353708 
0 
0 
0 
0 
1.075776401500444 
0 
0.8704785440897369 
0 
0 
0 
-0.8235500194026203 
0 
0 
0 
0 
0 
0 
0 
0 
0 
0 
0 
0 
-0.7224844481497945 
1.643532655342187 
0 
0 
0 
0 
0 
3.14362412778037 
0 
0 
0 
0 
0 
0 
0 
0 
0 
0 
0 
0 
0 
0 
0 
0 
0 
0 
0 
0 
0 
-1.355234817081415 
0 
0 
0 
0 
0 
0 
5.929627435543239 
0 
0 
0 
0 
0 
0 
0 
0 
0 
0.2817805933532957 
-1.204745665670078 
0 
0 
0 
0 
0 
0 
-1.929284595442521 
0 
0 
0 
1.110510360292782 
0 
0.2475943491841333 
0 
0.3456729999662516 
-0.5271388164420805 
-0.8210709199049264 
1.563356720060339 
0 
0 
0 
0 
0 
0 
0 
-0.1641582591521806 
0 
0 
-1.242773734476435 
-0.2436862980495971 
0 
0 
0 
0 
-1.169424889783013 
0 
0 
-0.6461736441507777 
0 
0 
0 
0 
-0.2352519108151989 
-0.2974343257697256 
0 
0 
0 
0 
0 
0 
0 
-0.7636176168191803 
0 
0.6149298244762864 
0 
0 
3.878089606994244 
-2.788762877650262 
0 
0.4712917623883787 
0 
0.8619930023676525 
0 
0 
0 
-0.4685957307667895 
0 
0 
0 
0 
0.7957456097296281 
0 
0 
0 
0 
0 
0 
0 
0 
0 
0 
0 
0 
0 
0 
0 
0 
0.7804870514758464 
0 
0 
-0.5657627067899229 
0 
0 
-0.102790547776968 
0 
0 
0.3836867112336563 
0 
0.7219141433200015 
0 
3.29121090309429 
-1.842934314668099 
-0.3467867831780392 
-3.247031184692796 
0 
-1.67910640484533 
-0.2294650656215069 
0 
0 
0 
0 
-0.8667760896783369 
0 
0 
-0.4132403750285925 
0 
0 
0 
-0.08879937872203945 
-1.976468935041637 
0 
0 
-0.5481016358200875 
0.2960061105571369 
-1.26359054554284 
-1.19601117225572 
0 
0 
0 
-2.507198745532413 
0 
0 
3.389534501589897 
0 
0 
0.7288517230070839 
-0.5532465053841159 
0 
0 
0 
0.5854487119406192 
0 
0 
0 
0 
0 
-1.034228758067847 
0 
-1.267966911645264 
0 
-3.422236119072489 
-0.4920212292878444 
0 
0 
0 
0 
0 
0 
0 
0 
0 
0 
-0.2423649639293577 
0 
-0.3196329552428711 
0 
0 
0 
0.3786391276880977 
0 
0 
-2.107089232683748 
0 
0 
0 
-1.918109774495245 
0 
0 
0 
0 
0 
0 
0 
0 
0 
-0.05308769888857702 
0 
0 
0 
0 
-2.065867336288246 
0.09111651003816246 
0 
0 
0.7145354856232898 
0 
0 
0 
-0.1830871420832381 
0 
0 
-2.239323552296497 
0 
0 
-0.5075872364027066 
0 
0 
0 
0 
0 
0 
0 
0 
0 
0.5365035131089048 
0 
0 
0 
0 
0 
0 
0 
-1.005964161541114 
0 
0 
0 
0 
0.9253437591894723 
0 
0 
0 
0 
0 
-1.526758632254489 
0 
0 
-2.942546894618865 
-0.1809149216539476 
0 
0 
0 
0 
0 
-1.085956550450395 
0 
0.355938885234444 
0 
0 
-4.269526904606088 
0 
0 
0.7010820914529208 
0 
0 
0 
0 
0 
0 
0 
0 
0.6069850923230131 
0 
-0.5002849425953353 
0 
-1.171315949313737 
0 
0 
0 
0 
0 
-1.085990853065412 
0 
0 
0 
-1.029077490646144 
0 
-0.6967983421092168 
0 
0 
0 
0 
0 
0 
0 
0 
0 
0 
0 
0 
0 
0 
-1.925919154007002 
-2.609883614074659 
0 
0 
0 
-0.6586588354290816 
-0.8048541618325722 
0 
0 
0 
0 
0 
0 
0.09249786933811177 
0 
-1.962437846957818 
0 
0 
0 
0 
0 
0.6033820628272251 
0 
0 
0 
0 
0 
0 
0 
0 
0 
-0.1253902568570983 
0 
0 
0 
0 
0 
0 
-0.5573950117845248 
0.3742077680381444 
0 
-1.166713674164965 
0 
0 
0 
-0.753439521419343 
0 
-3.372662793292704 
0 
-1.261432745351329 
0 
0 
0 
0 
0 
0 
0 
0 
0 
0 
0 
0 
0 
0 
0 
0 
0 
0 
0 
-0.05711257680112829 
0 
0 
-1.828033446527368 
0 
0 
0 
0 
0 
0 
0 
0 
0 
0 
0 
-0.7807055048133993 
0.6484171347532062 
0 
0 
0 
0 
0 
0 
0.2571875263308536 
0 
0 
0.1310399989384153 
0 
-0.3436135424227985 
0 
0 
0 
0 
0 
0 
0 
1.786629806458666 
0 
0 
-0.4270723781942087 
0 
0 
0 
-0.8349731320003497 
0 
0 
0 
0 
0 
0 
0 
0 
0 
-0.6379497112739171 
0 
-0.8215884518787343 
0 
0 
0 
0.7129356886651945 
0 
0 
0 
0 
0 
0 
-0.2470573332495396 
0 
-2.619996328856567 
-1.245346930952032 
0 
0 
0 
0.5437672497643277 
0 
0.01843967501986875 
0 
0 
0 
-0.7008054410112862 
0 
-0.9715463731782357 
0 
0 
1.830272465407311 
-0.6072369245512699 
-1.279912759722325 
1.061678909614909 
0 
0 
0 
0 
0.3403375487226375 
0 
0 
0 
0 
2.44316336717165 
0 
0 
0 
0 
0 
0 
0 
0 
0 
-0.4647821609445055 
0 
0 
0.2545684898034615 
-0.08650061756919605 
-0.6124946183740898 
0 
0 
0 
0 
0 
0 
1.193257996858939 
0 
0 
0 
0 
0 
-0.5620113374254324 
0 
0 
0 
0 
0 
0 
0 
0 
0 
0 
0 
0 
0 
0 
0 
0 
0 
0 
-0.08724236798825329 
-0.2873344290018701 
0 
0 
0 
0 
0 
2.545359827305035 
0 
0 
0 
-4.511751108880446 
0.05407324746404103 
0 
0 
0 
0 
0 
0.06145908108059331 
0 
0 
0 
0 
0 
0 
0 
0 
-1.584267518631369 
-1.179853609021663 
0 
0 
-1.081465897757246 
0.6621925321935228 
0 
0 
-1.21258981355809 
0 
0 
0 
0 
0 
0 
0 
0 
0 
0 
0 
0 
-1.167317460791835 
0 
0 
0 
0 
0.07476173718632778 
0 
-0.4952384225047012 
0 
-0.8948122878025028 
0 
0 
0 
0 
0 
0 
0 
0 
0 
0 
-0.3234943017757755 
0 
1.161052586345099 
0 
0 
0 
3.431994997630487 
0 
0 
0 
0 
0 
0 
0.897041245306368 
-0.1441845884313584 
0 
0 
-1.409233459979083 
0 
-0.9852076588181601 
0 
0 
0 
-0.3232808649078342 
-1.880836144389936 
0.268798007608631 
0 
-2.18589588078718 
0 
-0.7024906500869137 
0 
0 
0 
0 
0.06498299495377849 
0 
0 
0 
-0.3831745351737542 
0 
0.3887631136937049 
0 
0 
0 
0 
0 
-1.257571775721702 
0 
0 
0 
0 
0 
0 
0 
0 
0 
0 
-0.7858638728014039 
0 
0 
0 
0 
0 
0 
0 
0 
0 
0 
1.449198721592623 
0 
0 
0 
0 
0 
0 
0 
0 
0 
0.8266682573614881 
0 
0 
0 
0 
0 
0.1352604595333975 
0 
0 
0 
0 
0 
0 
0 
0 
0.5201534208121995 
0 
0.1918692124536927 
0 
0 
0 
0.310464601712676 
0 
0 
0 
0 
-0.4373628218102031 
0 
0 
-1.594812318032287 
0 
0 
0 
0 
0 
0 
0 
-0.7478722154537071 
0 
0 
0 
0 
-1.353096094593553 
0 
-1.577589964575813 
-4.445747139788842 
0 
0 
0 
0 
0 
0 
-0.8869768161978611 
0 
0 
-1.482427949664049 
0 
0 
0 
0 
-0.9513739894754584 
0 
1.172060230451351 
0 
0 
0 
0 
0 
0 
0 
0 
0 
0 
0 
0 
0 
0 
0 
0 
-0.9986072557945164 
0 
-0.4209436350098862 
0 
0 
0 
0 
0 
0 
0 
0.09935095428178868 
-0.7585340834531394 
-1.147419967521298 
0 
0 
0 
0 
0 
0 
-0.5772798584107791 
0 
0.09376452600811897 
0 
2.235929212211269 
0 
0.1910330297401438 
0 
0.4049874426326131 
0 
0 
0 
0 
-0.172716523982786 
0 
-0.3374478933528513 
0 
0 
0 
0.8338684241803984 
0 
0 
0 
0 
0 
0 
0.388782475558204 
0 
0 
0 
0 
0 
0 
-0.2826146955515034 
0 
-2.427851214329894 
0 
0 
0 
0 
0 
0 
0 
0 
0 
0 
0 
0.5595448417657438 
1.058125070739081 
0 
0.1568698814139792 
0 
0 
-0.03552671300191173 
0 
0 
0 
0 
0 
0 
-0.4618769639722788 
0 
0 
0 
-0.8129421572211673 
0 
-0.7180649230909777 
0 
0 
-0.7484183882737633 
0 
0 
0 
0 
0 
0 
0 
0 
0 
0 
-0.8509803339706081 
0 
1.471999658317037 
0 
-0.2271154098445423 
0 
-0.561075657160207 
0 
-0.1054194169070436 
0 
3.006953848211363 
0 
0 
5.604916196594645 
0 
0 
0 
0 
0 
0 
1.698949836028688 
0 
0 
0 
-1.672832343599243 
0 
0 
1.499311706703964 
-0.4267563790319286 
0 
0 
-0.2342552997062638 
0 
0 
0 
0 
0 
0 
0 
0 
0 
0 
0 
0 
0 
0 
0 
0 
0 
0 
0 
0 
-1.732467848139269 
0 
0 
-1.755075323451082 
0 
0 
0 
0 
0 
-0.09537855178836908 
0 
0 
0 
0 
0 
0 
0 
0 
0 
0 
0 
-1.663968678171123 
0 
0 
0 
0 
0 
0 
0 
0 
0 
0 
-0.5486073432019971 
0 
0 
0 
0 
0 
0 
0 
0 
0 
-0.4691358670472604 
0 
0 
0 
0 
0 
1.610422832218639 
0 
0 
0.3605579266990018 
0 
0 
0 
0 
0 
0.5562114963759898 
-0.4809382541766846 
0 
0 
-0.1475375833184598 
0 
-1.655256129721311 
0 
0 
0 
0 
0 
0 
0 
-0.1765909273498725 
0 
0 
0 
0 
0 
0 
0 
0 
-1.113680092724246 
0 
0 
0 
-0.3003332321534916 
0 
0 
-4.838399589077586 
0 
0 
0 
0 
-6.694331805073928 
-1.678249045620364 
-1.253090318117439 
0 
0 
0 
-0.4797007719976681 
-0.77352202009063 
1.119891614877703 
-1.15716402831061 
0 
0 
-0.8518118452631466 
0 
0 
0 
0 
0.08480518547956323 
0 
0 
0 
0 
0 
1.115371377114032 
0 
1.506069759385167 
0 
0 
0 
0 
-0.08419470510518511 
0 
0 
0 
0 
0 
1.770637807419147 
0.7245368242162636 
0 
0 
-1.789903284040272 
0 
0 
0 
-0.477297467284459 
0.4433059279337948 
0.4715664914498006 
-3.344162657143452 
-3.830127856186497 
0 
0 
0 
0 
-3.713461179609085 
0 
0 
0 
0 
0 
0 
0 
2.433140287714277 
0 
-1.935670200734683 
0 
0 
0 
-0.4168119550279472 
2.110456561951443 
0 
0 
0 
0 
0 
0 
0 
0 
0 
0 
-0.4129053395103375 
1.64071071980993 
0 
0.6076475435578493 
0 
0.381092697563551 
-0.537756619133266 
0 
-0.5148995855892585 
0 
0 
-0.964530451699344 
0 
0 
-0.5092301516104619 
-0.8489416129734833 
0.06301114074198681 
0 
0 
0 
0 
-2.059447004858198 
0 
0 
-2.394079136879232 
0 
0 
0 
0 
0 
0 
1.400370127034781 
0 
0 
0 
0 
0 
0 
0 
-0.5265262271483059 
-0.1898383738372409 
0 
0 
0.04715366260052806 
-0.1888405037337269 
0 
0 
0 
0 
0 
-4.806489076943955 
0 
0 
0 
0 
0 
0 
0 
0 
0.8034240640378473 
0 
0 
-0.3872072600479484 
1.527301545802973 
1.256904595418721 
0 
0 
0 
0 
0 
0 
0 
0 
0 
0 
0 
0 
0 
0 
0 
0 
0 
0.6312296610707688 
0 
-0.1797088868368873 
0 
0.4866062577490901 
0 
0 
2.088531684405881 
0 
-1.670328821155171 
0.7408574170555317 
0 
0.363512471763809 
0 
0 
0 
0 
-2.412027029463187 
0 
1.229746408103328 
0 
-1.311552793232572 
0 
0 
0 
0 
0 
0 
0 
0 
1.747342631799877 
0 
0 
-0.1663597192778899 
0 
0 
0 
0 
0 
-0.7093190007021357 
-0.3659901243943437 
0 
0 
1.260722684653212 
0 
0 
0 
0 
0 
0.3266196624053829 
0 
0 
0 
0 
0 
0 
0 
0 
0.09827586443835143 
0 
0 
0 
0 
0 
0 
0 
0.06216830843706038 
-1.131634275284861 
0 
0 
-0.887772321092834 
0 
0 
0 
0 
0 
0.6298209217329183 
0 
-3.341354969389563 
0 
0 
0 
0 
0 
0.04978899532793043 
0 
0 
0 
0 
0 
0 
0 
0 
0 
0 
0 
0.2533312487012853 
0 
0 
0 
0 
0 
0 
0 
0 
0 
0 
0 
0.8438431103147266 
0 
0 
-0.9084726879513131 
0 
0 
0 
0 
0 
0 
0 
0 
0 
0 
0 
0 
-1.493257652942861 
0 
0 
0 
0 
0 
0 
0 
0 
0 
0 
0 
0 
0 
0 
0 
0 
0 
0 
0 
0 
0 
0 
0 
0 
0 
-2.417346944676798 
0 
0 
0 
0 
0 
1.069862602397635 
0 
0 
-0.08699383846558845 
-0.6160799269978887 
-0.06080180930082046 
0.9006865083723851 
0 
0 
0 
0.2927576622192702 
0 
0 
0 
0 
0 
0 
0 
-1.675059574268254 
0 
0 
0.1531344312110599 
0 
0 
0 
0 
0 
0 
0 
0.3254644895354859 
2.627744296129078 
0 
0 
0.279979539884087 
0 
0.3237008941895745 
0 
0 
0 
0 
0 
0 
0 
0 
0 
0.9702139868558377 
0 
0 
0 
0 
0 
0 
0 
0 
0 
0 
0.429754707883985 
0 
0 
0 
-0.5171881297148822 
-1.938484384355375 
0 
0 
0 
-1.352290307090629 
-1.007179706673633 
0 
-0.7758001208319559 
0 
0 
0 
0 
0 
0 
0 
0 
0 
3.545474623195472 
0 
0 
0 
0 
0 
0 
-2.069889396626294 
-0.1807512897361719 
0 
0 
-4.683039859950414 
0 
0 
0.03396712613063206 
1.311970640937225 
-0.08706741794955342 
0 
0 
-0.1214538923797189 
0 
0 
0.8257989402836073 
0 
0 
0 
2.255255659988888 
0 
0 
0 
0 
0 
0 
0 
0 
0 
0 
0 
0 
0 
0 
0 
0 
0 
0 
0 
0 
0 
0 
0 
0 
0 
-0.1495529550831373 
0 
0 
0 
0 
0 
0 
-0.5395804722377198 
0 
0 
0 
0 
0 
-5.262152076275336 
0 
1.61939601355366 
-0.284414447802322 
0 
0 
0 
0 
0 
0 
1.214759426514511 
0 
0 
0 
0 
0 
0 
0 
0 
0 
0 
0.1784861765186225 
0 
0 
-1.004363250394644 
0.07729442323157078 
-0.5996666640836375 
0 
0 
0 
-0.1059376439632338 
0 
0 
0 
0 
0 
0 
0 
-1.241285815839648 
-1.611818767712157 
0 
0 
0 
0 
0 
0.7101568067660774 
-0.1635008188290876 
0 
0 
0.003700243521295014 
0 
0 
0 
0 
-1.487967830187283 
0 
0 
0 
0 
0 
0 
0 
0 
0 
0 
0.2127479763130031 
1.430683130378369 
0 
0 
0 
1.647509224135628 
0 
0 
0 
0.1231079818776825 
0 
-0.902677847688271 
0.009095167282733168 
0 
0 
0 
0 
0.04262036874789333 
0 
0 
0.1004703923165583 
0 
-1.22225261725023 
0 
1.022140365448626 
-0.5377038684600887 
0 
1.123404193460804 
0 
-1.230279042636978 
0 
-0.165862127271875 
0 
0 
0 
0 
0 
-0.3584332163763835 
0 
-0.7323039073070866 
0 
-2.157735285857821 
0 
1.136324771694013 
0 
0 
0 
0 
0 
0 
0 
0.7049022793276693 
-0.1128023861016123 
0 
0 
0 
0.7667576020019506 
0 
0 
0 
0 
0 
0 
0 
0 
-2.503600714729599 
0 
0 
0 
0 
0 
0 
0 
0 
0 
0 
0 
1.924374541265445 
0 
1.255853255971007 
0 
-0.502856181120071 
0 
0 
0 
-2.050453015880857 
-0.6573546182955523 
0 
0 
0 
0 
0 
0 
0 
0 
0 
0 
0 
0 
-0.06679243956496564 
0 
0 
0 
0 
0 
0 
0.7560970763456628 
0 
0 
0 
0 
0 
0 
0 
0 
0 
0 
-2.442467262440892 
-0.9596070322371247 
-1.058866793219246 
-0.6827509308593343 
0 
0 
0 
0 
0 
-2.066541477740118 
0 
0 
0 
0 
0 
0 
-1.137005960266813 
1.807631571929754 
0 
0 
0 
0 
0 
0 
0 
0 
0 
0 
0 
0 
0 
0 
0 
0 
0 
0 
0 
0 
0 
0 
0 
0 
0 
0 
0 
0 
0 
0 
0 
0 
0 
0 
0 
0 
0 
0 
0.137412656333982 
0 
0 
0 
0 
0.1485116750967493 
0 
0 
0 
-1.228227769354392 
0 
0 
0 
-0.3362907963228672 
0 
0 
0 
1.80359146241306 
1.225740398870818 
0.505987522805157 
-0.1129566940214244 
0 
0 
0 
0 
2.542657447299613 
0 
0 
0 
0 
0.5114001867054584 
-1.138291627528932 
0 
0 
0 
0 
-0.2504955757262539 
0 
0 
0 
0 
0 
0 
0 
0 
0.6604383005659182 
0 
0 
0 
0 
0 
0 
0 
0 
0 
3.163203562276429 
0 
0 
0 
0 
0 
0 
0 
-1.030027416612314 
0 
0 
0 
0 
0 
0 
0 
0 
-0.06970457805279096 
0 
0 
0 
0 
0 
0 
0 
0 
0 
0 
0 
0 
0 
0 
0 
-0.3168405948452479 
0.4986124272942885 
0 
1.084038210792172 
0 
0 
0 
0 
0 
0 
-1.522157951100115 
0 
-0.1632989354320515 
0 
0 
0 
0 
0 
0 
0 
0 
0 
-0.5601789229099492 
-0.02835496255651382 
0 
0 
0 
-0.05616438066238848 
0 
0 
0 
0 
-0.389717926033732 
0 
0 
0 
0 
0.6096398455314952 
0 
0 
0.3959641696367388 
0 
0 
0 
0.09954996108539198 
0 
0 
0 
0 
0 
0 
0 
-2.14219700264659 
0 
0.823943637888399 
0 
0 
0 
-1.883128630525001 
0 
0 
0 
0 
-0.553073403949602 
0 
0 
0 
0 
0 
0 
0 
0 
0 
0 
0 
0 
0 
0 
0 
0 
-1.901764696170222 
0 
0 
0 
-1.297803126096343 
0 
-0.5801569830226674 
0 
0.8510344193150272 
0.644635752571704 
0 
0 
0 
-0.6132498946891455 
0 
0 
-0.9315195627753306 
0 
0 
0 
0 
-1.050305263917629 
0 
0 
0 
0 
0 
0 
-1.997708375918207 
0 
0.1272091650344705 
0 
-1.473987697500759 
0 
0 
0 
-1.844057961498574 
0 
0 
0 
0 
-7.253278906671142 
-5.360637981115717 
0.1926431154437602 
0 
0 
0 
-0.6406007193655851 
-0.2500095965810154 
-0.1570970157613767 
0 
0 
1.706927262233859 
0 
0 
0 
-0.4439835604806346 
0 
0 
0 
0 
0 
0 
0 
0 
0 
0 
-1.114817517261513 
0 
0 
0 
0 
0 
-1.057222831946939 
0 
0 
0 
0 
0 
0 
0 
0 
0 
0 
0 
0 
0 
0 
0 
0 
0.5697670201661811 
0 
0 
0 
0 
0 
0 
0 
0 
0 
0 
0 
0 
0 
0 
0 
-0.04571003875028697 
0 
0 
0 
0 
-0.2655465034731745 
-0.2714801996643523 
0 
0 
0 
0 
0 
0 
1.534921321473306 
0 
0 
0 
0 
0 
0 
0 
1.125913538825993 
-0.5499379083727469 
0 
0 
0 
0 
0 
-0.6202998660106073 
0 
0 
0 
0 
0 
0 
0 
-0.2447946309150538 
0 
0 
0 
0 
0 
0 
0 
0 
0 
0.2000813898673968 
0 
0 
-0.2479134127945138 
1.574866321280095 
0 
0.4352802713018836 
0 
1.068382975531827 
0 
0 
0 
0 
0 
0 
0 
0 
-0.9728351147295163 
0 
0 
0 
0 
-1.716423354465594 
0 
1.397440716241267 
0 
0 
0 
0 
0 
0 
0 
1.896460494999096 
-0.3364477496237632 
0 
-0.1371088308417609 
0 
0 
0 
0 
0 
0 
0 
0 
0 
0 
0 
0 
0 
0 
0 
0 
0 
0.6640205336874951 
0 
-0.7122383635389777 
0 
0 
0 
0 
-1.078212789682504 
0 
0 
0 
0 
1.2919020583925 
0 
0 
0 
0 
0 
0 
0 
0.2771721745407639 
0 
0 
0 
0 
0 
0 
0 
0 
3.345423579259636 
0 
0 
0 
0 
-0.1353124929952413 
0 
0 
-1.014549374189186 
0.1708404394749456 
0 
0 
-2.151753215727032 
0 
-0.8535787541244384 
0.1129560735603614 
0 
-1.826362699445951 
0 
0 
0 
0 
0 
0.531589598919662 
0 
0 
-1.379318949909913 
0 
0 
0 
0 
0 
0 
0 
0 
0 
0 
0 
0 
0 
0 
0 
0 
1.067059879202187 
0 
0 
0 
0 
-1.957918968559802 
0.7968664794888268 
0 
0 
0 
0 
0 
0 
0 
0 
0 
0 
0 
0 
0 
0 
0 
0 
13.11802728291812 
-0.5250045992191976 
0 
0 
0 
0 
0 
0 
0 
0 
0 
0 
0 
0 
0 
-1.150248356099893 
0 
0 
0 
-0.8670779010794458 
0 
0 
0 
0 
0 
0 
0 
0 
0 
-0.8390883618037827 
0 
0 
0 
-1.836576899830441 
0 
0 
-1.217914994785454 
-0.6882122822431755 
0 
-0.3523796376797294 
0 
0 
1.04914089752685 
-1.390447783043954 
0 
0 
-0.3190527997855771 
0 
0 
0 
-0.8752098355107711 
0 
-0.6410115572258501 
0 
0 
0 
0 
0 
0 
0 
0 
0 
0 
0 
0 
0.6130693895966562 
0 
0 
0 
0 
0 
0 
-0.466261013646333 
0 
0 
0 
0 
0 
0 
0 
0 
0 
-0.3195823493785266 
0 
0 
0 
0 
0 
0 
0 
0 
0 
0 
0 
0 
-1.291870364208446 
0 
0 
0 
0.2301394972358759 
0 
0 
0 
0 
0 
0 
0 
0 
0 
0 
0 
0 
0 
0 
0 
0 
0 
0 
0 
0 
0 
0 
0 
0 
0 
0 
0 
0 
0 
0 
0 
0 
0 
-1.384908733665959 
0 
0 
0 
0 
0 
0 
0 
0 
0 
0 
0 
0 
0 
-0.7785516130177682 
0 
0 
0 
0 
-0.6264587651869824 
0 
0 
0 
0 
0 
-1.378285315797495 
0 
-0.8701910383452124 
0 
0 
0 
-1.986402718587033 
0 
-0.06692655344363836 
0 
0 
0 
0 
0 
0 
0 
0 
0 
0 
0 
0 
3.127833406054715 
0 
0 
0 
0 
0 
0 
0.2408285501136414 
0.6469575299627745 
0 
0 
0 
0 
0 
0 
0 
0 
0.1295808928330939 
0 
0 
-1.874573640814941 
0 
0 
0 
0 
0 
-4.468215684391674 
0 
-3.210180537506075 
0.7636581918556343 
0 
0 
0 
0 
0 
0 
0 
0 
0 
-0.6698499861267998 
0 
0 
0 
0 
0 
0 
0 
0 
0 
0 
0 
-0.8631152088566881 
0 
0.2130098951201033 
0 
0 
-3.972495043617359 
0 
0 
0 
-1.697037143134099 
0 
-1.210251514832143 
0 
0 
0 
0 
0 
0 
0 
0 
0 
0 
-0.4886974475701423 
0 
0 
0 
0 
0 
0 
0 
0.01337558507786447 
0 
0 
0 
0 
0 
-1.004010036486757 
0 
0 
-1.185526007430769 
0.2647869338306799 
0 
0 
0 
0 
2.420473428369164 
0 
0 
0 
0 
0 
0 
0 
0 
0 
0 
0 
0 
-1.689998346773092 
0 
0 
0 
0 
0 
2.971546367082772 
0 
0 
0 
0 
0 
0 
0 
0 
0 
0 
0 
0.8493276935956303 
0 
0 
0 
0 
0 
0 
0 
0 
0 
0 
0 
-0.2761697145258076 
0 
0 
0 
0 
0 
0 
-1.140379865488066 
0 
0 
0 
0 
0 
0 
0 
0 
-0.3344009028041367 
0 
-1.151042025261569 
0 
0 
0 
0 
0 
0 
0 
0 
0 
0 
0 
0 
0 
0 
0 
0 
0 
0 
0 
0 
0 
0 
0.4202322272773394 
0 
0 
0 
0 
0 
0 
0 
0 
0 
0 
0 
0 
0 
0 
0 
-0.778418244461037 
0 
0 
0 
0 
0 
0 
0 
0.3688402075527155 
0.7698843709628086 
0 
0 
0 
0 
0 
0 
0 
0 
0 
0 
0 
-0.5312794373459163 
0 
0 
0 
0 
0 
0 
0 
0 
0 
0 
0 
0 
0 
0 
0 
0 
0 
1.641983450623379 
0 
0 
0 
-0.3526659696868001 
0 
0 
0 
0 
0 
0 
0 
-2.277335855866187 
1.028153138217981 
0 
0 
0 
0 
0 
0 
0 
0 
0 
0 
0 
0 
0 
0 
0 
0 
0 
0 
0 
0 
0 
0 
0 
0 
0 
0 
0.5908187110506773 
0 
0 
0 
0 
0 
0 
0 
0 
0 
0 
0 
0 
-1.453843991260453 
0 
0 
0 
0 
0 
0 
0 
0 
0 
0 
0.8733945004406155 
0 
-0.7838006901656119 
0 
0 
0 
0 
0 
0 
0 
0 
0 
0 
0 
0 
0 
0 
0 
0 
0 
0 
0 
0 
0 
0 
0 
-1.956956296318642 
0 
0 
0 
0 
0 
0 
0 
0 
0 
0 
0 
0 
0 
0 
0 
0 
0 
-0.8403680593205469 
0 
0 
0 
-3.776011167532101 
0 
0 
0 
0 
-0.4710902444085838 
0 
0.7354825835826732 
0 
0 
0 
0 
-0.3144226425622428 
0 
0 
0 
0 
0 
0 
0 
0 
0 
0 
0 
0 
0 
-0.3876691002433516 
0 
0 
0 
0 
0 
0 
0 
0 
0 
0 
0 
0 
0 
-0.1775606523840095 
0 
0 
0 
0 
0 
0 
0 
0 
0 
0 
0 
0 
0 
0 
0 
0 
0 
0 
0 
0 
0 
0 
0 
0 
0 
0 
0 
0 
-0.7882676824896676 
0 
-1.13080484239701 
0 
0 
0 
0 
0.4799382953048652 
1.282139430908905 
0 
0 
0.04289633675277139 
0 
0 
0 
0 
0 
0 
0 
0 
0 
0 
0 
0 
0 
0 
0 
0 
0 
0 
0 
0 
0 
0 
0 
0 
0 
-3.987867186984042 
0 
-2.409413790918396 
0.1583834150189453 
0 
0 
0 
0 
0 
0 
0 
0.3046032698569871 
0 
0 
0 
0 
0 
0 
0 
0 
0 
1.085097193248188 
0 
0 
-0.6355809157051262 
0 
0 
0 
0 
0 
0 
0 
0 
0 
0 
0 
0 
0 
-0.1682099878560042 
0 
0 
0 
0 
0 
0 
0 
0 
0 
0 
0 
0 
0 
-1.45712091454531 
0 
0 
0 
-3.896883340464153 
0 
0 
0 
0 
0.04701445306790951 
0 
0 
0 
0 
0.8373128689504449 
0 
0 
-0.286229631574438 
0 
0.589509545270447 
0 
0 
0 
0 
0 
0 
0 
0 
-0.8294149375960735 
0 
0 
0 
0 
0 
0 
0 
0.9591384739873965 
0 
0 
-1.872679890132051 
0 
0 
0 
0 
0 
0 
-1.236300288369545 
0 
0 
0 
0 
0 
0 
-1.099605957311773 
0 
0 
0 
-0.5040282099206973 
-0.1123413843512291 
0 
0 
0 
0 
0 
0 
0 
0 
0 
0 
0 
0 
0 
0.3228161598882008 
0 
0 
0 
0 
0 
0 
0 
1.101795247640253 
0 
0 
0 
0 
0 
0 
-1.080444042140138 
1.101307029931125 
0 
0 
0 
0 
0 
-1.93609883742364 
0 
0 
0 
0 
0 
0 
0 
0 
0 
0 
0 
0 
0 
0 
0 
0 
0 
0 
0 
-3.604832687629532 
0 
0 
0 
0 
0 
0 
0 
0 
0 
0 
-0.05371785137407832 
0 
0 
0 
0 
0 
0 
0 
0 
0 
0 
0 
0 
0 
0 
0 
0 
0 
0 
0 
0 
0 
0 
0 
0 
0 
0 
0 
0 
0.3868000645129839 
0 
-0.1250872221112014 
0 
0 
0 
0 
0 
0 
0 
0 
0 
0 
0 
0 
0 
0 
0 
0 
0 
0 
0 
0 
0 
0 
0 
0 
0 
0 
0 
0 
0 
0 
0 
0 
-2.579176966500159 
0 
0 
0 
0 
0 
0 
0 
0 
0 
0 
-0.7224985187194717 
0 
-1.496797889611568 
0.2964744836029216 
0 
1.35197542312004 
0 
0 
0 
0 
0 
0 
0 
0 
0 
0 
-3.877871626507019 
0 
0 
0 
0 
0 
0 
0 
0 
0 
0 
0 
0 
0 
0 
0 
0 
0 
0 
0 
0 
0 
2.021798369543698 
-0.711452527378214 
0 
0 
0 
0 
0 
0.6052956606693271 
0 
0 
0 
-2.437410018775074 
1.326037441806466 
0 
0 
0 
0 
0 
0 
0 
0 
-1.673935632712239 
0 
0 
0 
0 
0 
0 
0 
0 
0 
0 
0 
0 
0 
0 
0 
0 
0 
0 
0 
0 
0 
0 
0 
0 
0 
0 
0 
0 
0 
0 
0 
0 
0 
0 
0 
0 
-0.5301755236307116 
0 
0 
0 
0 
0 
0 
0 
0 
0 
0 
0 
0 
0 
0 
0 
0 
0 
0 
0 
0 
0 
-1.710947359482822 
0 
0 
-1.414878219214786 
0 
0 
0 
-1.239428130374529 
0 
0 
0 
0 
0 
0 
0.61490789658889 
0 
0 
-0.7958406748670193 
1.736237633380587 
0 
0 
0 
0 
0 
0 
0 
0 
0 
-0.189926406770811 
0 
0 
0 
0 
0 
0 
0 
0 
0 
0 
0 
0 
0 
0 
0 
0 
0 
0 
0 
0 
0 
-1.854455478243175 
0 
1.635153571769073 
-0.2246844020417507 
0 
0 
0 
-0.487493113722539 
0 
-0.5898323269387928 
0 
0 
0 
0 
0 
0 
0 
0 
0 
0 
0 
0 
0 
0 
0 
0 
-1.901108721575442 
0 
0 
0 
0 
0 
0 
1.488331761642772 
0 
0 
0 
0 
0 
0 
0 
0 
0 
0 
0 
0 
0 
0 
0 
0.05989964677730033 
0 
0 
0 
0.04251433222064925 
0 
0 
0 
0 
0 
0 
0 
0 
0 
0 
0 
0 
0.6942828495351145 
0 
0 
0 
0 
0 
0 
0 
0 
0 
0 
0 
0 
0 
0 
0 
0 
0 
0 
0 
0 
0 
0 
0 
0 
0 
0 
0 
0.1878504815785291 
0 
0 
0 
0 
0 
0 
0 
0 
0 
0 
0 
0 
0 
0 
0 
0.07492344407764799 
0 
0 
0 
0 
0 
0 
0 
0 
0 
0 
0 
0 
0 
0 
0 
0 
0.0553906009582726 
0 
0 
0 
0 
0 
0 
0 
0 
0 
0 
0 
0 
0 
0 
-2.030262889108035 
0 
0 
0 
0 
0 
0 
0 
0 
0 
0 
0 
0 
0 
0 
0 
0 
0 
-1.035997716396121 
0 
0 
0 
0 
0 
0 
0 
0 
0 
0 
0 
0 
0 
-0.5846251451071428 
0 
0 
0 
0 
0 
0 
0 
0 
0 
0.7469555511918562 
0 
0 
0 
0 
0 
0 
0 
0 
0 
0 
0 
0 
0 
0 
0 
0 
0 
0 
0 
-0.1917288800154642 
0 
0 
0 
0 
0 
0 
0 
0 
0 
0 
0 
0 
0 
0 
-1.542330093519241 
0 
0 
0 
0 
0 
0 
0 
0 
0 
0 
0 
1.380962290555509 
0 
0 
-1.086248964305883 
0 
0 
0 
0 
0 
0 
0 
0 
0 
-0.6515376526687444 
0 
0 
0 
0 
0 
0 
1.808004829798807 
0 
0 
0 
0 
0 
0 
0 
0 
0 
0 
-1.457089346229767 
0 
0 
0 
0 
0 
0 
0 
0 
0 
0 
0 
0 
0 
-0.2404429703036095 
0 
0 
0 
0 
0 
-0.5556638635751405 
0 
0 
0 
0 
0 
0 
0 
0 
0 
0 
0 
0 
0 
0 
0 
0 
0 
0 
0 
0 
0 
0 
0 
0 
0 
0 
0 
0 
0 
0 
0 
-0.06117775466706655 
-0.07580047709433632 
0 
0 
0 
-1.180970751675297 
0 
0 
0 
0 
0 
0 
0 
0 
0 
0 
0 
0 
0 
0 
0 
0 
0 
0 
0 
0 
0 
0 
0 
0 
0 
0 
0 
0 
0 
0 
0 
0 
0 
0 
0 
0 
0 
-0.6635122658291985 
0 
0 
0 
0 
0 
0 
0 
0 
-0.5052493456652677 
0 
0 
0 
0 
0 
0 
0 
0 
0 
0 
0 
0 
0 
0 
0 
0 
0 
0 
0 
0 
0 
0 
0 
0 
0 
0 
0 
0 
0 
0 
0 
0 
0 
0 
0 
0 
0 
0 
0 
0 
0 
0 
0 
0 
0 
0 
0 
0 
0 
0 
0 
-0.7778656966702185 
0 
0 
0 
0 
0 
0 
0 
0 
0 
0 
0 
0 
0 
0 
0 
0 
0 
0 
0 
0 
0 
0 
0 
0 
0 
0 
0 
0 
-3.742266300898435 
-1.501632413502331 
0 
-1.304694524525975 
0 
0 
0 
0 
0 
0 
0 
0 
0 
0 
0 
0 
0 
0 
0 
0 
0 
0 
0 
0 
0 
0 
0 
-0.7834825841864166 
0 
0 
0 
0 
0 
0 
-1.74800722783618 
0 
0 
0 
0 
0 
0 
0 
0 
0 
0 
0 
0 
0 
0 
0 
0 
-1.421688250824867 
0 
-2.689908974144916 
0 
0 
0 
0 
0 
0.4950427743031479 
0 
0 
0 
0 
0 
0 
0 
0 
0 
0 
0 
0 
0 
0 
0 
0 
0 
0 
0.8476832455043688 
0 
0 
1.058045463566556 
0 
0 
0 
0 
0 
0 
0 
-1.487202437723414 
0 
0 
0 
0 
0 
0 
0 
0 
0 
0 
0 
0 
0 
0 
0 
0 
0 
-0.2635346599255444 
0 
0 
0 
0 
0 
0 
0 
0 
0 
0 
0 
0 
0 
0 
0 
0 
0 
0 
0 
0 
0 
0 
0 
0 
0 
0 
0 
0 
0 
0 
0 
0 
0 
0 
0 
0 
0 
0 
0 
0 
0 
0 
0 
0 
0 
0 
0 
0 
0 
0 
0 
0.2419152514192305 
-2.190054038149128 
-0.6669075965083607 
-0.4635776468372968 
0 
0 
0 
-0.2903902975016527 
0 
0 
0 
0 
0 
0 
0 
0 
0 
0 
-2.837547098441739 
0 
0 
0 
0 
-0.9036201427699189 
0 
0 
0 
0 
0 
0 
0 
0 
0 
3.309437786862163 
0 
0 
0 
0 
0 
0 
0 
0 
0 
0 
0 
0 
1.702450988691367 
0 
0 
0 
1.930500315548946 
0 
0 
0 
0 
0 
0 
0 
0 
0 
0 
0 
0.8453372889964917 
0 
0 
0 
0 
0 
0 
0 
0 
0 
0 
0 
0 
0 
0 
0 
0 
0 
0 
0 
0 
0 
0 
-0.3842529891418208 
0.3240187731398027 
0 
0 
0 
0 
0 
0 
0 
-2.344129133731943 
0 
0 
0 
-2.090701480983931 
0 
0 
0 
0 
0 
0 
0 
-0.1483397867052586 
0 
0 
0 
0 
0 
0 
0 
0 
0 
0 
0 
0 
0 
2.543987006292003 
0 
0 
0 
0 
0 
0 
0 
0 
0 
0 
0 
0.02784348677978427 
0 
0 
0 
0 
0 
0 
0 
0 
0 
0 
0.6433550239866293 
0 
0 
0 
0 
0 
0 
0 
0 
0 
-1.352654498144644 
0 
0 
0 
0 
0 
0 
0 
0.005697063201281239 
0 
0 
-4.203584555527012 
0 
0 
0 
0 
0 
-1.411066174064954 
0 
0 
0 
0.1009444983595807 
0 
0 
0 
0 
0 
0 
-0.7365220590659316 
0 
0 
0 
0 
0 
0 
0 
0 
0 
-2.453148976499876 
0 
0 
0.7372473813379328 
0 
0 
0 
0 
0 
0 
0 
0.02311168706585199 
0 
0 
0 
0 
0 
0 
-0.6596006966611896 
0 
0 
0 
0 
0 
0 
0 
0 
0.08209790393819542 
-2.087891773521989 
0 
0 
0 
0 
0 
0 
0 
0 
0 
0 
0 
0 
-3.326383439017667 
0 
0 
0 
-2.98340206162367 
-0.5629569843864692 
0 
0 
0 
0 
0 
0 
-0.4292696481315967 
0 
0 
0 
0 
0 
0 
0.7778237389282281 
0 
0 
0 
0 
0 
0 
0 
0 
-1.82025815248428 
0 
0 
0 
0 
0 
-0.5011345694287827 
0 
-0.7679823897377631 
0 
0 
0 
0 
0 
-1.10504751157948 
0 
0 
0 
0 
0 
0 
0 
0 
0 
0 
0 
0 
0 
0 
0 
0 
0 
0 
0 
0 
0 
0 
0 
0 
0 
0 
0 
0 
0 
0 
0 
0 
0 
0 
0 
0 
0 
0 
0 
0 
0 
0 
0 
0 
0 
0 
-1.901820681992808 
-3.214879619895961 
0 
0 
0 
0 
-0.3368442091209974 
0 
0 
0 
0 
0 
0 
0 
0 
0 
0 
0 
0 
0 
0 
0 
0 
0 
0 
0 
0 
0 
0 
0 
0 
0 
0 
0 
0 
0 
0 
0 
0 
0 
0 
0 
0 
0 
-0.2968415396707445 
0 
0 
0 
0 
0 
0 
0 
0 
0.1234260106625372 
0 
0 
0 
0 
0 
1.335182262007778 
1.102988346781483 
0 
0 
0 
-2.07108385638676 
0 
0 
0 
0 
0 
0 
0 
0.5293008994052431 
0 
0 
0 
0 
0 
0 
0 
0 
0 
0 
0 
0 
0 
0 
0 
0 
0 
0 
0 
0 
0 
0 
0 
0 
0 
0 
-0.8184379390908094 
0 
0 
0 
0 
0 
0 
0 
0 
0 
0 
0 
0 
0 
0 
0 
0 
0 
-0.872190975490564 
0 
0 
0 
0 
0 
0 
0 
0 
0 
0 
0 
0 
0 
0 
0 
0 
0 
0 
0 
0 
0 
0 
-1.953378374194589 
0 
0 
0 
0 
0 
0 
0 
0 
0 
0 
0 
0 
0 
0 
0 
0.1029676778929946 
0 
0 
0 
0 
0 
0 
0 
0 
0 
0 
0 
0 
0 
0 
0 
0 
2.004183580605991 
0 
0 
0.4160382579844973 
0 
-1.759445631776678 
0 
0 
0 
0 
0 
0 
0 
0 
0 
-2.063612989388777 
0 
0 
0 
0 
0 
0 
1.318044561467165 
0 
0 
0 
0 
0 
0 
0 
-1.117177784816206 
0 
0 
0 
0 
-2.308814632508839 
0 
0 
0 
-0.2810759856666383 
0 
0 
0 
0 
0 
0 
0 
0 
0 
0 
0 
0 
0 
0 
0 
0 
0 
0 
0 
0 
0 
0 
0 
0 
0 
0 
0 
-0.4490471836805474 
0 
0 
0 
0 
0 
0 
-0.8236394525005139 
0 
0 
0 
0 
0 
0 
0 
0 
0 
0 
0 
0 
0 
0 
0 
0 
0 
0 
0 
0 
-2.496670874390176 
0 
-2.418269491954771 
0 
0 
0 
0 
0 
0 
0 
0 
-3.087584795917265 
-1.307847561432296 
0 
0 
0.8064107926593781 
0 
0 
0 
0 
0 
0 
0 
0 
0 
-2.541144455257486 
0 
0 
0 
0 
0 
0 
0 
0 
0 
0 
0 
0 
0 
0 
0 
0 
0 
0 
0 
0 
0 
0 
0 
0 
0 
0 
0 
0 
-1.352468820872027 
0 
0 
-1.11466333455221 
0 
0 
0 
-0.1010559269665322 
0 
0 
0 
-0.1614671946024162 
0 
0 
0 
0 
0 
0 
0 
0 
0 
0 
0 
0 
0 
1.502609687410456 
0 
0 
0 
0 
0 
0 
0 
0 
0 
0 
0 
-2.6126278517514 
0 
0 
0 
0 
0 
0 
0 
0 
0 
0 
0 
0 
0 
0.1716171441185802 
0 
0 
0 
0 
0 
0 
0 
0 
0 
0 
0 
0 
-1.482559970893027 
0 
0 
0 
0 
0 
0 
0 
0 
0 
0 
0 
0 
0 
0 
0 
0 
0 
-1.188167895988009 
0 
0 
0 
0 
0 
0 
0 
0 
0 
0 
0 
0 
0 
0 
0 
0 
0 
0 
0 
0 
-6.114073346205784 
0 
0 
0 
0 
0 
0 
0 
0 
0 
0 
0 
0 
0 
0 
0 
0 
0 
0 
0 
0 
0 
0 
0 
0 
-1.052773947535046 
0 
0 
0 
0 
-0.03326540005077031 
0 
0 
0 
0 
0 
0 
0 
0 
0 
0 
0.6953957115525551 
0 
0 
0 
0 
0 
0 
-0.4824953247238224 
0 
0 
0 
0 
0 
0 
0 
0 
0 
0 
0 
0 
0 
0 
0 
0 
0 
0 
0 
0 
0 
0 
5.686491991881129 
0 
0 
0 
0 
0 
0 
0 
0 
0 
0 
0 
0 
0 
0 
0 
0 
0 
0 
0 
0 
0 
0 
-0.1603424079598917 
0 
0 
0 
0 
0 
0 
0 
0 
0 
0 
0 
0 
-0.4555873099432988 
0 
0 
0 
-0.710650668827216 
0 
0 
0 
-2.400641155490601 
0 
0 
0 
0 
0 
0 
0 
0 
0 
0 
0 
0 
2.084596009015322 
0 
0 
0 
0 
1.742545866302062 
0 
0 
0 
0 
-0.007357494290880894 
0 
-1.436068792720838 
0 
0 
0 
0 
0 
0 
0 
0 
0 
0 
0 
0 
0 
0 
0 
0 
0 
0 
0 
-0.2716070746011084 
-0.5185172349363917 
0 
0 
0 
0 
0.6457500214975664 
0 
0 
0 
0 
0 
0 
0 
0 
0 
0 
0 
0 
0 
0 
0 
0 
0 
0 
0 
0 
0 
0 
0 
0 
0 
0 
0 
0 
0 
0 
0 
0 
0 
0.1020591955618945 
0.534167151243458 
0 
0 
1.449596703321215 
0 
0 
0 
0 
0 
0 
0 
0 
0 
0 
0 
0 
0 
0 
0 
0 
0 
0 
0.9936837412490174 
0 
0 
0 
0 
0 
0 
0 
0 
0 
0 
0 
0 
0 
0 
0 
0 
0 
0 
0 
0 
0 
0 
0 
0 
1.369700981506055 
-2.108520429319685 
0 
0 
0 
0 
0 
0 
0 
0 
0 
0 
-1.085966454338564 
0 
0 
0 
0.9129481068883191 
0 
0 
0 
0 
0 
-0.7568492038671645 
0.7947720966737334 
0 
0 
0 
0 
0 
0 
0 
-1.374507347085358 
0 
0 
0 
0 
0 
0 
0 
0 
-0.6126207923487047 
0 
0 
0 
0 
0 
0 
0 
0 
0 
0 
-1.020971966240065 
0 
0 
0 
0 
0 
0 
0 
0 
0 
0 
0 
-2.131416474447835 
0 
0 
0 
0 
0 
0 
0 
0 
0 
0 
0 
-0.275349365524228 
0 
-1.16306479014147 
0.3857482219206661 
0.6419503812048488 
0 
0 
0 
0 
-1.936149134422397 
0 
-1.102634778826075 
-0.1619428039932707 
0 
0 
0 
0 
0 
0 
0 
0 
0 
0 
0 
0 
0 
0 
0 
0 
0 
0 
0 
0 
0.6994049312334244 
0 
0 
0 
0 
0 
0 
0 
0 
0 
0 
0 
0 
0 
0 
0 
0 
0 
0 
0 
0 
0 
0 
0 
0 
0 
0 
0 
0 
0.914723067823997 
0 
0 
-3.287781379147612 
0 
0 
0 
0 
-0.8765388740310623 
0 
0 
0 
0 
0 
0 
0 
0 
0.267133492011671 
0 
0 
0 
0 
0 
0 
0 
0 
0 
0 
0 
0 
0 
0 
0 
0 
0 
-0.7650897565756333 
0 
0 
0 
0 
0 
0 
0 
0 
0 
0 
0 
0 
0 
-2.159598786203891 
0 
0 
0 
0 
-0.280753293866678 
0 
0 
0 
0 
0 
0 
0 
0 
0 
0 
0 
0 
0 
0 
0 
0 
0 
0 
0 
0 
0.6415955888392652 
0 
0 
0 
0 
0 
0 
0 
0 
0 
-1.650536057486939 
0 
0 
0 
0 
0 
0 
0 
0 
0 
0 
-0.9350813079691577 
0 
0 
0 
0 
0 
0 
0 
0 
0 
0 
0 
0 
0 
0 
0 
0 
0 
0 
0 
0 
0 
0 
0 
0 
0 
0 
0 
0 
0 
0 
0 
0 
-0.8591925339110161 
0 
0 
0 
0 
0 
0 
0 
0 
0 
0 
0 
0 
0 
0 
0 
0 
0 
0 
0 
0 
0 
0 
0 
-0.5806533132738542 
0 
0 
0 
0 
0 
0 
0 
0 
0 
0 
0 
0 
0 
0 
0 
0 
0 
0 
0 
0 
0 
0 
0 
0 
0 
0 
0 
0 
0 
0 
0 
0 
0 
0 
0 
0 
0 
0 
0 
0 
0 
0 
0 
0 
0 
0 
0 
0 
0 
0 
0 
0 
0 
0 
0 
0 
0 
0 
-1.748782139899678 
0 
0 
0 
0 
0 
0 
0 
-0.0506237051639232 
0 
1.98677890390256 
0 
0 
0 
0 
0 
0 
0 
0 
0 
0 
0 
0 
0 
0 
0 
0 
0 
0 
0 
1.318376721598921 
0 
0 
0 
0 
0 
0 
0 
0 
0 
0 
0 
0 
0 
0 
0 
0 
0 
0 
0 
0 
0 
0 
0 
0 
0 
0 
0 
0 
0 
0 
0 
0 
0 
0 
0 
0 
0 
0 
0 
0 
0 
0 
0 
0 
0 
0 
0 
0 
0 
0 
0 
0 
0 
-2.372032709800729 
0 
0 
0 
-1.838843277482031 
0 
0 
0 
0 
0 
0 
0 
0 
0 
0 
0 
0 
-0.6912152008280084 
0 
0 
0 
0 
-0.07529338849350015 
0 
0 
0 
0 
0 
0 
0 
0 
0 
-2.788303963126119 
0 
0 
0.3961709563228798 
0 
-0.4151780208613635 
0 
0 
0 
0 
-3.561025464651514 
0 
0 
0 
0 
0 
-0.05872854873417666 
0 
0.3440069032082129 
0 
0 
0 
0 
0 
1.295539630097515 
0 
0 
0 
0 
0 
2.259379029087743 
0 
0 
0 
0 
0 
0 
0 
0 
0 
-0.8990191537327531 
0 
0 
0 
0 
0 
0 
0 
0 
0 
0 
0 
0 
0 
0 
0 
0 
0 
0 
0 
0 
0 
0 
0 
0 
0 
0 
0 
0 
0 
0 
0 
0 
0 
0 
0 
0 
0 
0 
0 
0 
0 
0 
0 
0 
0 
0 
0 
0 
0 
0 
0 
0 
0 
0 
0 
0 
0 
0 
0 
0 
0 
0 
0 
0 
0 
0 
0 
0 
-0.09359043623826396 
0 
0 
-1.089770957118549 
0 
0 
0 
0 
0 
0 
0 
0 
0 
0 
0 
0 
0 
0 
0 
0 
0 
0 
0 
0 
0 
0 
0 
0 
0 
0 
0 
0 
0 
0 
0 
0 
0 
0 
0 
0 
0 
0 
0 
0 
0 
0 
0 
0 
0 
0 
0 
0 
0 
0 
0 
0 
0 
0 
0 
0 
0 
0 
0 
0 
0 
0 
0 
0 
0 
0 
0 
0 
0 
0 
0 
0 
0 
0 
0 
0 
0 
0 
0 
0 
0 
0 
0 
0 
0 
-0.3810771871101806 
0 
-4.303816646490939 
2.890094252747322 
0 
0 
0 
0 
0 
0 
0 
0 
0 
0 
0 
0 
0 
0 
0 
0 
0 
0 
0 
0 
0 
-0.1612642404865148 
0 
0 
0 
0 
0 
0 
0 
0 
0 
0 
0 
0 
0 
0 
0 
0 
0 
0 
0 
0 
0 
0 
0 
0 
0 
0 
0 
0 
0 
0 
0 
0 
0 
0 
0 
0 
0 
0 
0 
0 
0 
0 
0 
0 
-2.022179091584014 
0 
0 
2.67975396628202 
0 
0 
-1.033430624772767 
0 
-1.381407329863989 
1.822130640550708 
0 
0 
0 
0 
0 
0 
0 
0 
0 
-0.6840771179511956 
0.5581478052270031 
0 
0 
0 
0 
0 
0 
0 
0 
0 
0 
0 
0 
0 
0 
0 
0 
0 
0 
0 
0 
0 
0 
0 
0 
-6.928271435333192 
0 
0 
0 
-0.05789159171320656 
0 
0 
0 
0 
0 
0 
0 
0 
0 
0 
-0.3250990317670681 
0 
0 
0 
0 
0 
0 
0 
0 
0 
0 
0 
0 
0 
0 
0 
0 
0 
0 
0 
0 
0 
0 
0 
0 
0 
0 
0 
0 
0 
0 
0 
0 
0 
0 
0 
0.2158968022470139 
0 
0 
0 
0 
0 
0 
0 
0 
0.1095566493775159 
0 
0 
0 
0 
0 
0 
0 
-0.1424381351211723 
0 
0 
0 
0 
0 
0 
0 
0 
0 
0 
0 
0 
0 
0 
0 
0 
0 
0 
0 
0 
0 
0 
0 
0 
0 
0 
0 
0 
0 
0 
0 
0 
0 
0 
0 
0 
0.04809270886482507 
0 
0 
0 
0 
-0.5841866683522017 
0 
0 
0 
0 
0 
0 
0 
0 
0 
0 
0 
0 
0 
0 
-0.3220954115515843 
0 
0 
0 
0 
0 
0 
0 
0 
0 
0 
0 
0 
0 
0 
0 
0 
0 
0 
0 
0 
0 
0 
-0.4539551147822637 
-2.818167144628918 
0 
0 
0 
0 
0 
0 
0 
0 
0 
0 
0 
0 
0 
0 
0 
0 
0.4587767887909466 
0 
0 
0 
0 
0 
0 
0 
0 
0 
0 
0 
0 
0 
1.53562760973599 
0 
0 
0 
0 
0 
0 
0 
0 
0 
0 
0 
0 
0 
0 
0 
0 
0 
0 
0 
0 
0 
0 
-0.4499971804288357 
1.74828800868011 
0 
0 
0 
0 
0 
0 
0 
0 
-0.429517907668573 
0 
0 
0 
0 
0 
0 
0 
0 
-0.1717503288175155 
0 
0 
0 
0 
0 
0 
0 
0 
0 
0 
0 
0 
0 
0 
0 
0 
0 
0 
0 
0 
0 
0 
0 
0 
0 
0 
0 
0 
0 
0 
-1.674372694427669 
0 
0 
0 
0 
0 
0 
0 
0.8727254437186919 
0 
0 
0 
0 
0 
0 
0 
0 
0 
0 
0 
0 
0 
0 
0 
0 
0 
0 
0 
0 
0 
0 
1.071346419344141 
0 
0 
0 
0 
0 
0 
0 
0 
0 
0 
0 
0 
0 
0 
0 
0 
0 
0 
0 
0 
0 
0 
0 
0 
0 
0 
0 
0 
0 
0 
0 
0 
0 
0 
0 
0 
0 
0 
0 
0 
0 
0 
0 
0 
0 
0 
0 
0 
-0.2732502314130446 
0 
0 
0 
0 
0 
-0.5957255006359663 
0 
0 
0 
0 
0 
0 
0 
0 
0 
0 
0 
0 
0 
0 
0 
0 
0 
0 
0 
0 
0 
0 
0 
0 
0 
0 
0 
0 
0 
0 
0 
0 
0 
0 
0 
0 
0 
0 
0 
0 
0 
0 
0 
0 
0 
0 
0 
0 
0 
0 
0 
-0.6087694699324693 
0 
0 
0 
0 
0 
0 
0 
0 
0 
0 
0 
-1.75164739922726 
0 
0 
0 
0 
0 
0 
0 
0 
0 
0 
0 
0 
0 
0 
0 
0 
0 
0 
0 
0 
0 
0 
0 
0 
0 
0 
0 
0 
0 
0 
0 
0 
0 
0 
0 
0 
0 
0 
0 
0 
0 
0 
0 
0 
0 
0 
0 
-0.6000967511170087 
0 
0 
0 
0 
0 
0 
0 
0 
0 
0 
0 
0 
0 
0 
-1.454425484912147 
0 
0 
0 
0 
0 
0 
0 
0 
0 
0 
0 
-0.4845635309192359 
0 
0 
0 
0 
0 
0 
0 
0 
0 
0 
0 
0 
0 
0 
0 
0 
0 
0 
0 
0 
0 
0 
0 
0 
0 
0 
0 
0 
0 
0 
0 
0 
0 
0 
0 
0 
0 
0 
0 
0 
0 
0 
0.4062047359738947 
0 
0 
0 
0 
0 
0 
0 
0 
0 
0 
0 
0 
0 
0 
0 
0 
0 
0 
0 
0 
0 
0 
0 
0 
0 
0 
0 
0 
0 
0 
0 
0 
0 
0 
0 
0 
0 
0 
0 
-1.112977499549897 
0 
0 
0 
0 
0 
0 
0 
0 
0 
0 
0 
0 
0 
0 
0 
0 
0 
0 
0 
-0.9169909735559 
0 
0 
0 
0 
0 
0 
0 
0 
0 
0 
0 
0 
0 
0 
0 
0 
0 
0 
0 
0 
0 
0 
-0.3405037455369664 
0 
0 
1.088789707410439 
0 
0 
0 
0 
0 
0 
-0.2630103180335852 
0 
0 
0 
0 
0 
0 
0 
0 
0 
0 
0 
0 
0 
0 
0 
0 
0 
0 
0 
0 
0 
0 
0 
0 
0 
0 
0 
0 
0 
0 
0 
0 
0 
0 
0 
0 
0 
0 
0 
0 
1.419956999694175 
0 
1.010035072221059 
0 
0 
0 
0 
-0.1600874070105527 
0 
0 
0 
0 
0 
0 
0 
0 
0 
0 
0 
0 
0 
0 
0 
0 
0 
0 
0 
0.09870695372908092 
0 
-1.047123893672665 
0 
0 
0 
0.2407388988995085 
0 
0 
0 
0 
0 
0 
0 
0 
0 
0 
0 
0 
0 
0 
0 
-0.06320093870086525 
2.862426505353774 
-0.05256289445268585 
0 
0 
0 
0 
0 
0 
0 
0 
0 
0 
0.4115943411334091 
0 
-2.815553045592968 
-0.3522052009554125 
0 
0 
0 
0 
0 
-0.7022322385758828 
0 
0 
0 
0 
0 
0 
0 
0 
0 
0 
0 
0 
0 
0 
-0.3182059590129276 
0 
0 
0 
0 
0 
0 
0 
0 
0 
0 
0 
0 
0 
0 
0 
0 
0 
0 
0 
0 
0 
0 
0 
0 
0 
0 
0 
0 
0 
0 
0 
0 
0 
0 
0 
0 
0 
0 
0 
0 
0 
0 
0 
0 
-0.7621416341009007 
0 
0 
0 
0 
0 
3.520986799898088 
0.8986950903285468 
0 
0 
0 
0 
0 
0 
0 
0 
0 
0 
0 
0 
0 
0 
0 
0 
0 
0 
0 
0 
0 
0 
0 
0 
0 
0 
0 
0 
0 
0 
0 
0 
0 
0 
0 
0 
0 
-1.117562466856605 
0 
0 
0 
0 
0 
0 
0 
0 
0 
0 
0 
0 
0 
0 
0 
0 
0 
0 
0 
0 
0 
1.873408779445154 
0 
0 
0 
0 
0 
0 
0 
-2.022137237003525 
0 
0 
0 
0 
0 
0 
0 
0 
0 
0 
0 
0 
0 
0 
0 
0 
0 
0 
0.06675350437979337 
0 
1.511680788747103 
0 
0 
0 
0 
0 
0 
0 
-1.009811633076563 
0 
0 
0 
0 
0 
0 
0 
0 
0 
0 
0.2602474391647116 
0 
0 
0 
0 
0 
0 
0 
0 
0 
0 
0 
0 
0 
0 
0 
0 
0 
0 
0 
0 
0 
0 
0 
0 
0 
0 
0 
0 
0 
0 
0 
0 
0 
0 
0 
0 
0 
0 
-0.1262352929436067 
0 
0 
0 
0 
0 
0 
0 
0 
0 
0 
0 
0 
0 
0 
0 
0 
0 
0 
0 
0 
0 
0 
0 
0 
0 
0 
0 
0 
0 
0 
0 
0 
0 
0 
0 
0 
0 
0 
0 
0 
0 
0 
2.828620893070126 
0.639251349040015 
0 
0 
0 
0 
0 
0 
0 
0 
0 
0 
0 
0 
0 
-0.09731143562863268 
0 
0 
1.093315939816933 
0 
0 
0 
0 
0 
0 
0 
0 
0 
0 
0 
0 
0 
0 
0 
0 
0 
0 
0 
0 
0 
0 
0 
0 
0 
0 
0 
0 
0 
0 
0 
0 
0 
0 
0 
0 
0 
0 
0 
0 
0 
0 
0 
0 
0 
0 
0 
0 
0 
0 
0 
0 
0 
0 
0 
0 
1.252168500738088 
0 
0 
0 
0 
0 
0 
0 
0 
0 
0 
0 
0 
0 
0 
0 
0 
0 
0 
0 
0 
0 
0 
0 
0 
0 
0 
0 
0 
0 
0 
0 
0 
0 
0 
0 
0 
0 
0 
0 
0 
0 
0 
0 
0 
0 
0.3780399021102565 
0 
-1.487942469512971 
0 
0 
0 
0 
0 
0 
0 
0 
0 
0 
0 
0 
0 
0 
0 
0 
0 
0 
0 
-2.914241005855121 
0 
0 
-0.3181281106940105 
0 
0 
0 
0 
-3.285676240360975 
0 
0 
0 
0 
0 
0 
0 
0 
1.907018426080352 
0 
0 
0 
0 
0 
0 
0 
0.09077722510708604 
0 
0 
0 
0 
0 
0 
0 
0 
0 
0 
0 
0 
0 
0 
0 
0 
0 
0 
0 
0 
0 
0 
0 
0 
0 
0 
0 
0 
0 
0 
0 
0 
0 
0 
0 
-1.074024853114069 
0 
0 
0 
0 
0 
0 
0 
0 
0 
0 
0 
0 
0 
-1.799014440718576 
0 
0 
0 
0 
0.2194137887364476 
0 
0 
0 
0.5917945233350036 
0 
0 
0 
0 
0 
0 
0 
0 
0 
0 
0 
0 
0 
0 
0 
0 
0 
0 
0 
0 
0 
0 
0 
0 
0 
0 
0 
0 
0 
0 
0 
0 
0 
0 
0 
0 
0 
0 
0 
0 
0 
0 
0 
0 
0 
0 
0 
0 
0 
0 
0 
0 
0 
0 
0 
0 
0 
0 
0 
0 
0 
0 
0 
0 
0 
1.130072442422808 
0 
0 
0 
0 
0 
0 
0 
0 
0 
0 
0 
0 
0 
0 
0 
0 
0 
0 
0 
0 
0 
0 
0 
0 
0 
0 
0 
0 
0 
0 
0 
1.735994054335288 
0 
0 
0 
0 
0 
0 
0 
0 
0 
0 
0 
0 
0 
0 
0 
0 
0 
0 
0 
0 
0 
0 
0 
0 
0 
0 
0 
0 
0 
0 
0 
0 
0 
0 
0 
0 
0 
0 
0 
0 
0 
0 
0 
0 
0 
0 
0 
0 
0 
0 
0 
0 
0 
0 
0 
0 
0 
0 
0 
0 
0 
0 
0 
0 
0 
0 
0 
0 
0 
0 
0 
0 
0 
0 
0 
0 
0 
0 
0 
1.676216819624526 
0 
0 
0 
0 
0 
0 
0 
0 
0 
0 
0 
0 
0 
0 
0 
0 
0 
0 
0 
0 
0 
0 
0 
0 
0 
0 
0 
0 
0 
0 
0 
0 
0 
0 
0 
0 
0 
0 
0 
0 
0 
0 
0 
0 
0 
0 
0 
0 
0 
0 
0 
0 
0 
0 
0 
0 
0 
0 
0 
0 
0 
0 
2.540534073090978 
0 
0 
0 
0 
0 
0 
0 
1.929415453784488 
0 
0 
0 
0 
0 
0 
0 
0 
0 
0 
1.658740481503228 
0 
0 
0 
0 
0 
0 
0 
-3.038851970057798 
0 
0 
0 
0 
0 
0 
0 
0 
0 
0 
0 
0 
0 
0 
0 
0 
0 
0 
0 
0 
0 
0 
0 
0 
0 
0 
0 
0 
0 
0 
0 
0 
0 
0 
0 
0 
0 
0 
0 
0 
0 
0 
0 
0 
0 
0 
0 
0 
0 
0 
0 
0 
0 
0 
0 
0 
0.1279058530167543 
0 
-0.5248397194464325 
0 
0 
0 
0 
0 
0 
0 
0 
0 
0 
0 
0 
0 
0 
0 
0 
0 
0 
0 
0 
0 
0 
0 
0 
0 
0 
0 
0 
0 
0 
0 
0 
0 
0 
0 
1.069468363716148 
0 
0 
0 
0 
0 
0 
0 
0 
0 
0 
0 
0 
0 
0 
0 
0 
0 
0 
0 
0 
0 
0.7938878395920024 
0 
0 
0 
0 
0 
0 
0 
0 
0 
0 
0 
0 
0 
0 
0 
0 
0 
0 
0 
0 
0 
0 
0 
0 
0 
0 
0 
0 
0 
0 
0 
0 
0 
0 
0 
0 
0 
0 
0 
0 
0 
0 
0 
0 
0 
0 
0 
0 
0 
0 
0 
0 
0 
0 
0 
0 
0 
0 
0 
0 
0 
0 
0 
-1.727516200339635 
0 
0 
0 
0 
0 
0 
0 
0 
0 
0 
0 
0 
0 
0 
0 
0 
0 
0 
0 
0 
0 
0 
0 
0 
0 
0 
0 
0 
0 
0 
0 
0 
0 
0 
0 
0 
0 
0 
0 
0 
0 
0 
0 
0 
0 
0 
0 
0 
0 
0 
0 
0 
-1.653105475557847 
0 
-0.3703997929111266 
0 
0 
-0.389720791037206 
0 
0 
0 
0 
-1.636960315048404 
0 
0 
-0.4007267622273427 
0 
0 
0 
0 
0 
0 
0 
0 
0 
0 
0 
0 
0 
0 
0 
0 
0 
-2.533461937080845 
0 
0 
0.8395619289811951 
0 
0 
0 
0 
0 
0 
0 
0 
0 
0 
0 
0 
0 
0 
0 
0.3014789339384492 
0 
0 
0 
0 
0 
0 
-0.3018447534015686 
0 
0 
0 
0 
0 
2.490162072903259 
0 
0 
0 
0 
0 
0 
0 
0 
0 
0 
0 
0 
0 
0 
0 
0 
0 
0 
0 
0 
0 
0 
0 
0 
0 
0 
0 
0 
0 
0 
0 
0 
0 
0 
0 
0 
0 
-2.111773343552324 
0 
0 
0 
0 
0 
0 
0 
0 
0 
0 
0 
0 
0 
0 
0 
0 
0 
0 
0 
0 
0 
0 
0 
0 
0 
0 
0 
0 
0 
0 
0 
0 
0 
0 
0 
0 
0 
0 
0 
0 
0 
0 
0 
0 
0 
0 
0 
0 
0 
0 
0 
0 
0 
0 
0 
0 
0 
0 
0 
0 
0 
0 
0 
0 
0 
0.9048395921904539 
0 
0 
0 
0 
0 
0 
0 
-0.5805318445415231 
0 
0 
0 
0 
0 
0 
0 
0.2056739379997775 
0 
0 
0 
0 
0 
0 
0 
0 
0 
0 
0 
0 
0 
0 
0 
0 
0 
0.06326444977287817 
0 
0 
0 
0 
0 
0 
0 
0 
0 
0 
0 
0 
0 
0 
0 
0 
0 
0 
0 
0.226096714474443 
0 
0 
0 
0 
0 
0 
0 
-2.069486012198059 
0 
0 
0 
0 
0 
0 
0 
0 
0 
0 
0 
0 
0 
0 
0 
0 
0 
0 
0 
0 
0 
0 
0 
0 
0 
0 
0 
0 
0 
0 
0 
0 
0 
0 
0 
0 
0 
0 
0 
0 
0.6766729533376296 
0 
0.4508852624981861 
0 
0 
0 
0 
0 
0 
0 
0 
0 
0 
0 
0 
0 
0 
0 
0 
0 
0 
0 
0 
2.613246232119468 
0 
-0.2799542647858541 
0 
0 
0 
0 
0 
0 
0 
0 
0 
0 
0 
0 
0 
0 
-2.359345028414341 
0 
0 
0 
0 
0 
0 
0 
0 
0 
0 
0 
0 
0 
0 
0 
0 
0 
0 
0 
0 
0 
0 
0 
0 
0 
0 
0 
0 
0 
0 
-0.05655302671734527 
0 
0 
0 
0 
0 
0 
0 
0 
0 
0 
0 
0 
0 
0 
0 
0 
1.90125243209901 
0 
0 
0 
0 
0 
0 
0 
0 
0 
0 
0 
0 
0 
0 
0 
0 
0 
0 
0 
0 
0 
0 
0 
0 
0 
0 
0 
0 
0 
0 
0 
0 
0 
0 
0 
0 
0 
0 
0 
0 
0 
0 
0 
0 
0 
0 
0 
0 
0 
0 
0 
0 
0 
0 
0 
0 
0 
0 
0 
0 
0 
0 
0 
0 
0 
0 
0 
0 
0 
0 
0 
0 
0 
0 
0 
0 
0 
0 
0 
0 
0 
0 
0 
0 
0 
0 
0 
0 
0 
0 
0 
0 
0 
0 
0 
0 
0 
0 
0 
0 
0 
0 
0 
0 
0 
0 
0 
0 
0 
0 
0.2958564534990905 
0 
0 
0 
0 
0 
0 
0 
0 
0 
0 
0 
0 
0 
0 
0 
0 
0 
0 
0 
0 
0 
0 
0 
0 
0 
0 
0 
0 
0 
0 
0 
0 
0 
-0.1883617308590198 
0 
0 
0 
0 
0 
0 
0 
0 
0 
0 
0 
0 
0 
0 
0 
0 
0 
0 
0 
0 
0 
0 
-0.8428487423117277 
0 
0 
0 
0 
0 
0 
0 
0 
0 
0 
0 
0 
-0.250112831530085 
0 
0 
0 
0 
0 
0 
0 
0 
-1.191778240931399 
0 
0 
0 
0 
0 
0 
0 
0 
0 
0 
0 
0 
0 
0 
0 
0 
0 
0 
0 
0 
0.006256404086369227 
0 
0 
0 
0 
0 
0 
0 
0 
0 
0 
0 
0 
0 
0 
0 
0 
0 
0 
0 
0 
0 
0 
0 
0 
0 
0 
-0.9852160914636107 
0 
0 
0 
0 
0 
0 
0 
0 
0 
0 
0 
0 
0 
0 
0 
0 
0 
0 
0 
0.5967144358350911 
0 
0 
0 
0 
0 
0 
0 
0 
0 
0 
0 
0 
0 
0 
0 
0 
0 
0 
0 
0 
0 
0 
0 
0 
0 
0 
0 
0 
0 
0 
0 
0 
0 
0 
0 
0 
0 
0 
0 
0 
0 
0 
0 
0 
0 
0 
0 
0 
0 
0 
0 
0 
0 
0 
0 
0 
0 
0 
0 
0 
0 
0 
0 
0 
0 
0 
0 
0 
0 
0 
0 
0 
0 
0 
0 
0 
0 
0 
0 
0 
0 
0 
0 
0 
0 
0 
0 
0 
0 
0 
0 
0 
0 
0 
0 
0 
0 
0 
0 
0 
0 
0 
0 
0 
0 
0 
0.1105136985172117 
0 
0 
0 
0 
0 
0 
0 
0 
0 
0 
0 
0 
0 
0 
0 
0 
0 
0 
0 
0 
0 
-0.06657527990520841 
0 
0 
0 
0 
0 
0 
0 
0 
0 
0 
0 
0 
0 
0 
0 
0 
0 
0 
0 
0 
0 
0 
0 
0 
0 
0 
0 
1.351250140721736 
0 
0 
0 
0 
0 
0 
0 
0 
0 
0 
0 
0 
0 
0 
0 
0 
0 
0 
0 
0 
0 
0 
0 
0 
0 
0 
0 
0 
0 
0 
0 
0 
0 
0 
0 
0 
0 
0 
0 
0 
0 
0 
0 
1.452087764925503 
0 
0 
0 
0 
0 
0 
0 
0 
0 
0 
0 
0 
0 
0 
0 
0 
0 
0 
0 
0 
0 
0 
0 
0 
0 
0 
0 
0 
0 
0 
0 
0 
0 
0 
0 
0 
0 
0 
0 
0 
0 
0 
0 
0 
0 
-0.06470646453405203 
0 
0 
0 
0 
0 
0 
0 
0 
-1.21213102749776 
0 
0 
0 
0 
0 
0 
0 
-1.375123737066856 
0 
0 
0 
0 
0 
0 
0 
0 
0 
0 
0 
0 
0 
0 
0 
0 
0 
0 
0 
0 
0 
0 
0 
0 
0 
0 
0 
0 
0 
0 
0 
0 
0 
0 
0 
0 
0 
0 
0 
0 
-0.5906302086336857 
0 
0 
0 
0 
0 
0 
0 
0 
0 
0 
0 
0 
0 
0 
0 
0 
0 
0 
0 
0 
0 
0 
0 
0 
0 
0 
0 
0 
0 
0 
0 
0 
0 
0.8278389584052398 
0 
0 
0 
0 
0 
0 
0 
0 
0 
0 
0 
0 
0 
0 
0 
0 
0 
0 
0 
0 
0 
0 
0 
0 
0 
0 
0 
0 
0 
0 
0 
0 
0 
0 
0 
0 
0 
0 
0 
0 
0 
0 
0 
0 
0 
0 
0 
0 
0 
0 
0 
0 
0 
0 
0 
-0.1625029141650714 
0 
0 
0 
0 
0 
0 
0 
0 
0 
0 
0 
0 
0 
-0.05774972926255982 
0 
0 
0 
0 
0 
0 
0 
0 
0 
0 
0 
0 
0 
0 
0 
0 
0 
0 
0 
0 
0 
0 
0 
0 
0 
0 
0 
0 
0 
0 
0 
0 
0 
0 
0 
-1.184273843943582 
0 
0 
0 
0 
0 
0 
0 
0 
0 
0 
0 
0 
0 
0 
0 
0 
0 
0 
0 
0 
0 
0 
0 
0 
0 
0 
0 
0 
0 
0 
0 
0 
0 
0 
0 
0 
0 
0 
0 
0 
0 
0 
0 
0 
0 
0 
0 
0 
0 
0 
0 
0 
0 
0 
0 
0 
0 
0 
0 
0 
0 
0 
0 
0 
0 
0 
0 
0 
0 
0 
0 
0 
-0.01391912120850005 
0 
0 
0 
0 
0 
0 
0 
0 
0 
0 
0 
0 
0 
0 
0 
0 
0 
0 
0 
0 
0 
0 
0 
0 
0 
0 
0 
0 
0 
0 
0 
0.09373161237524402 
-0.6584015161825531 
0 
0 
0 
0 
0 
0 
0 
0 
0 
0 
0 
0 
0 
0 
0 
0 
0 
1.372474207812183 
0 
0 
0 
0 
0 
0 
0 
3.17287203614731 
0 
0 
0 
0 
0 
0 
0 
-6.055186779051655 
0 
0 
0 
0 
0 
0 
0 
0 
0 
0 
0 
0 
0 
0 
0 
0 
0 
0 
0 
0 
0 
0 
0 
0 
0 
0 
0 
0 
0 
0 
0 
0 
0 
0 
0 
0 
0 
0 
0 
0 
0 
0 
0 
0 
0 
0 
0 
0 
0 
0 
0.8056833199366227 
0 
0 
0 
0 
0 
0 
0 
0 
0 
0 
0 
0 
0 
0 
0 
0 
0 
0 
0 
0 
0 
0 
0 
0 
0 
0 
0 
0 
0 
0 
0 
0 
0 
0 
0 
0 
0 
0 
0 
0 
0 
0 
0 
0 
0 
0 
0 
0 
0 
0 
0 
0 
0 
0 
0 
0 
0 
0 
0 
0 
0 
0 
0 
0 
0 
0 
0 
0 
0 
0 
0 
0 
0 
0 
0 
0 
0 
0 
0 
0 
0 
0 
0 
0 
0 
0 
0 
0 
0 
0 
0 
0 
0 
0 
0 
0 
0 
0 
0 
0 
0 
0 
0 
0.0477115011795206 
0 
0 
0 
-2.261966637135441 
0 
0 
0.6333705812981094 
0 
0 
0 
0 
0 
0 
0 
0 
0 
0 
0 
0 
0 
0 
0 
0 
-0.8486592945959554 
0 
0 
0 
0 
0 
0 
0 
0 
0 
0 
0 
-0.4916212129853961 
0 
0 
0 
0 
0 
0 
0 
0 
0 
0 
0 
0 
0 
0 
0 
0 
0 
0 
0 
0 
0 
0 
0 
0 
0 
0 
0 
0 
0 
0 
0 
0 
0 
0 
0 
0 
0 
0 
0 
0 
0 
0 
0 
0 
0 
0 
0 
0 
0 
0 
0 
0 
0 
0 
0 
0 
0 
0 
0 
0 
0 
0 
0 
0 
0 
0 
0 
0.03375585293653657 
0 
0 
0 
0 
0 
-0.292602550605943 
0 
0 
0 
0 
0 
0 
0 
0 
0 
0 
0 
-0.7328069244555614 
0 
0 
0 
0 
0 
0 
0 
0 
0 
0 
0 
0 
0 
0 
0 
0 
0 
0 
0 
0 
0 
0 
0 
0 
0 
0 
0 
0 
0 
0 
0 
0 
0 
0 
0 
0 
0 
0 
0 
0 
0 
0 
0 
0 
0 
0 
0 
0 
0 
0 
0 
0 
0 
0 
0 
0 
0 
0 
0 
0 
0 
0 
0 
0 
0 
0 
0 
0 
0 
0 
0 
0 
0 
0 
0 
0 
0 
0 
0 
0 
0 
0 
0 
0 
0 
0 
0 
0 
0 
-1.167756867437309 
0 
0 
0 
0 
0 
0 
0 
0 
0 
0 
0 
0 
0 
0 
0 
0 
0 
0 
0 
0 
0 
0 
0 
0 
0 
0 
0 
0 
0 
0 
0 
0 
0 
0 
0 
0 
0 
0 
0 
0 
0 
0 
0 
0 
0 
0 
0 
0 
0 
0 
0 
0 
0 
0 
0 
0 
0 
0 
0 
0 
0 
0 
0 
0 
0 
0 
0 
0 
0 
0 
0 
0 
0 
0 
0 
0.5427126770522557 
0 
0 
0 
0 
0 
0 
0 
0 
0 
0 
0 
0 
0 
0 
0 
0 
0 
0 
0 
0 
0 
0 
0 
0.06602143138479011 
0.5778327262219623 
0 
0 
0 
0 
0 
0 
0 
0 
0 
-0.8070574218615927 
0 
0 
0 
0 
0 
0 
0 
0 
0 
0 
0 
0 
0 
0 
0 
0 
0 
0 
0 
0 
0 
0 
0 
0 
0 
0 
0 
0 
0 
0 
0 
0 
0 
0 
0 
0 
0 
0 
0 
-1.170478253561867 
0 
0 
0 
0 
0 
0 
0 
0 
0 
0 
0 
0 
0 
0 
0 
-0.1997378546442361 
0 
0 
0 
0 
0 
0 
0 
0 
0 
0 
0 
0 
0 
0 
0 
0 
0 
0 
0 
0 
0 
0 
0 
0 
0 
0 
0 
0 
0 
0 
0 
0 
0 
0 
0 
0 
0 
-1.504346043076744 
0 
0 
0 
0 
0 
0 
0 
0 
0 
0 
0 
0 
0 
0 
0 
0 
0 
0 
0 
0 
0 
0 
0 
0 
0 
0 
0 
0 
0 
0 
0 
0 
0 
0 
0 
0 
0 
0 
0 
0 
0 
0 
0 
1.681050161368442 
0 
0 
0 
0 
0 
0 
0 
0 
0 
0 
0 
0 
2.151022896529836 
0 
0 
0 
0 
0 
0 
0 
0 
0 
0 
0 
0 
0 
0 
0 
0 
0 
0 
0 
0 
-0.5221609722236085 
0 
0 
0 
0 
0 
0 
0 
0 
0 
0 
0 
0 
-1.367323741382212 
0 
0 
0 
0 
0 
0 
0 
0 
0 
0 
0 
0 
0 
0 
0 
0 
0 
0 
0 
0 
0 
0 
0 
0 
0 
0 
0 
0 
0 
0 
0 
0 
0 
0 
0 
0 
0 
0 
0 
-0.996716136003485 
0 
0 
0 
0 
0 
0 
0 
0 
0 
0 
0 
0 
0 
0 
0 
0 
0 
0 
0 
0 
0 
0 
0 
0 
0 
0 
0 
0 
0 
0 
0 
0 
0 
0 
0 
0 
0 
0 
0 
0 
0 
0 
0 
0 
0 
0 
0 
0 
0 
0 
0 
0 
0 
0 
0 
0 
0 
0 
0 
0 
0 
0 
0 
0 
0 
0 
0 
0 
0 
0 
0 
0 
0 
0 
0 
0 
0 
0 
0 
0 
0 
0 
0 
0 
0 
0 
0 
0 
0 
0 
0 
0 
0 
0 
0 
0 
-0.3003443651559061 
0 
0 
0 
0 
0 
0 
0 
0 
0 
0 
0 
0 
0 
0 
0 
0 
0 
0 
0 
0 
0 
0 
0 
0 
0 
0 
0 
0 
0 
0 
0 
0 
0 
0 
0 
0 
0 
0 
0 
0 
0 
0 
0 
0 
0 
0 
0 
0 
0 
0 
0 
0 
0 
0 
0 
-0.4823093335325433 
0 
0 
0 
0 
0 
0 
0 
0 
0 
0 
0 
0 
0 
0 
0 
0 
0 
0 
0 
0 
0 
0 
0 
0 
0 
0 
0 
0 
0 
0 
0 
0 
0 
0 
0 
0 
0 
0 
0 
0 
0 
0 
0 
0 
0 
0 
0 
0 
0 
0 
0 
0 
0 
0 
0 
0 
0 
0 
0 
0 
0 
0 
0 
0 
0.3314440090097254 
0.9963923784101804 
0 
0 
0 
0 
0 
0 
0 
0 
0 
0 
0 
0 
0 
0 
0 
0 
-1.007699614484897 
0 
0 
0 
0 
0 
0 
0 
0 
0 
0 
0 
0 
0 
0 
0 
0 
0 
0 
0 
0 
0 
0 
0 
0 
0 
0 
0 
0 
0 
0 
0 
0 
0 
0 
0 
0 
0 
0 
0 
0 
0 
0 
0 
0 
0 
0 
0 
0 
0 
0 
0 
0 
0 
0 
0 
0 
0 
0 
0 
0 
0 
0 
0 
0 
0 
0 
0 
0 
0 
0 
0 
0 
0 
0 
0 
0 
0 
0 
0 
0 
0 
0 
0 
0 
0 
0 
0 
0 
0 
0 
0 
2.085997332240233 
0 
0 
0 
0 
0 
0 
0 
0 
0 
0.8287043970269316 
0 
0 
-1.385812866755714 
0 
0 
0 
0 
0 
0 
0 
0 
0 
2.028702177877903 
0 
0 
0 
0 
0 
0 
0 
0 
0 
0 
0 
0 
0 
0 
0 
0 
0 
0 
0 
0 
0 
0 
0 
0 
0 
0 
0 
0 
0 
0 
0 
0 
0 
0 
0 
0 
0 
0 
0 
0 
0 
0 
0 
0 
0 
0 
0 
0 
0 
0 
0 
0 
0 
0 
0 
0 
0 
0 
0 
0 
0 
0 
0 
0 
0 
0 
0 
0 
0 
0 
0 
0 
0 
0 
0 
0 
0 
0 
0 
0 
0 
0 
0 
0 
0 
0 
0 
0 
0 
0 
0 
0 
0 
0 
0 
0 
0 
0 
0 
0 
0 
0 
0 
0 
0 
0 
0 
0 
0 
0 
0 
0 
0 
0 
0 
0 
0 
0 
0 
0 
0 
0 
0 
0 
0 
0 
0 
0 
0 
0 
0 
0 
0 
0 
0 
0 
0 
0 
0 
0 
0 
0 
0 
0 
0 
0 
0 
0 
0 
0 
0 
0 
0 
0 
0 
0 
0 
0 
0 
0 
0 
0 
0 
0 
0 
0 
0 
0 
0 
0 
0 
0 
0 
0 
0 
0 
0 
0 
0 
0 
0 
0 
0 
0 
0 
0 
0 
0 
0 
0 
0 
0 
0 
0 
0 
0 
0 
0 
0 
0 
0 
0 
0 
0 
0 
0 
0 
0 
0 
0 
0 
0 
0 
0 
0 
0 
0 
0 
0 
0 
0 
0 
0 
0 
0.3288626874723774 
0 
0 
0 
0 
0 
0 
0 
0 
0 
0 
0 
0 
0 
0 
0 
0 
0 
0 
0 
-0.9551154644417317 
0 
0 
0 
0 
0 
0 
0 
0 
0 
0 
0 
0 
0 
0 
0 
0 
0 
0 
0 
0 
0 
0 
0 
0 
0 
0 
0 
0 
0 
0 
0 
0 
0 
0 
0 
0 
0 
0 
-0.1125569175209279 
0 
0 
0 
0 
0 
0 
0 
0 
0 
0 
0 
0 
0 
0 
0 
0 
0 
0 
0 
0 
0 
0 
0 
0 
0 
0 
0 
0 
0 
0 
0 
0 
0 
0 
0 
0 
0 
0 
0 
0 
0 
0 
0 
0 
0 
0 
0 
0 
0 
0 
0 
0 
0 
0 
0 
0 
0 
0 
0 
0 
0 
0 
-0.3047859504826438 
0 
0 
0 
0 
0 
0 
0 
0 
0 
0 
0 
0 
0 
0 
0 
0 
0 
0 
-2.327943414245227 
0 
0 
0 
0 
0 
0 
0 
0 
0 
0 
0 
0 
0 
0 
0 
0 
0 
0 
0 
0 
0 
0 
0 
0 
0 
0 
0 
0 
0 
0 
0 
0 
-0.4122844250082391 
0 
-0.4202046486728142 
0 
0 
0.4451523218356491 
0 
0 
0 
0 
0 
0 
0 
0 
0 
0 
0 
0 
0 
0 
0 
0 
0 
0 
0 
0 
0 
0 
0 
0 
0.9338843499451264 
0 
0 
0 
0 
0 
0 
0 
0 
0 
0 
0 
0 
0 
0 
0 
0 
0 
0 
0 
0 
0 
0 
0 
0 
0 
0 
0 
0 
0 
0 
0 
0 
0 
0 
0 
0 
0 
0 
0 
0 
0 
0 
0 
0 
0 
0 
0 
0 
0 
0 
0 
0 
0 
-1.489899183842261 
0 
0 
0 
0 
0 
-0.1348839463188616 
0 
0 
0 
0 
0 
0 
0 
0 
0 
0 
0 
0 
0 
0 
0 
0 
0 
0 
0 
0 
0 
0 
0 
0 
0 
0 
0 
0 
0 
0 
0 
0 
0.3422511275779884 
0 
0 
0 
0 
0 
0 
0 
0 
0 
0 
0 
0 
0 
0 
0 
0 
0 
0 
0 
0 
0 
0 
0 
-0.4915181947545597 
0.6930059187231823 
0 
0 
0 
0 
0 
0 
0 
0 
0 
0 
0 
0 
0 
0 
0 
0.754225527061259 
0 
0 
0 
0 
0 
0 
0 
0 
0 
0 
0 
0 
0 
0 
0 
0 
0 
0 
1.90905915603933 
0 
0 
0 
1.536165895645607 
0 
0 
0 
0 
0 
0 
0 
0 
0 
0 
0 
0 
0 
5.330105037507377 
0 
0 
0 
0 
0 
0 
0 
0 
0 
0 
0 
0 
0 
0 
0 
0 
0 
0 
0.0496855994952474 
0 
0 
0 
0 
0 
0 
0 
0 
0 
0 
0 
0 
0 
0 
0 
0 
0 
0 
0 
0 
0 
0 
0 
0 
0 
0 
0 
0 
0 
0 
0 
0 
0 
0 
0 
0 
0 
0 
0 
0 
0 
0 
0 
0 
0 
0 
0 
0 
0 
0 
0 
0 
0 
0 
0 
0 
0 
0 
0 
0 
0 
0 
0 
0 
0 
0 
0 
0 
0 
0 
0 
0 
0 
0 
0 
0 
0 
0 
0 
0 
0 
0 
0 
0 
0 
0 
0 
0 
0 
0 
0 
0 
0 
0 
0 
0 
0 
0 
0 
0 
0 
0 
0 
0 
0 
0 
0 
0 
0 
0 
0 
0 
0 
0 
0 
0 
0 
0 
0 
0 
0 
0 
0 
0 
0 
0 
0 
0 
0 
0 
0 
0 
0 
0 
0 
0 
-0.3746029983751054 
0 
0 
0 
0 
0 
0 
0 
0 
0 
0 
0 
0 
0 
0 
0 
0 
0 
0 
0 
0 
0 
0 
0 
0 
0 
0 
0 
0 
0 
0 
0 
0 
0 
0 
0 
0 
0 
0 
-1.217433189080187 
0 
0 
0 
0 
0 
0 
0 
0.6790934341097534 
0 
0 
0 
0 
0 
0 
0 
0 
0 
0 
0 
0 
0 
0 
0 
0 
0 
0 
0 
0 
0 
0 
0 
0 
0 
0 
0 
0 
0 
0 
0 
0 
0 
0 
0 
0 
0 
0 
6.302130116617294 
0 
0 
0 
0 
0 
0 
0 
0 
0 
0 
0 
0 
0 
0 
0 
0 
0 
0 
0 
0 
0 
0 
0 
0 
0 
0 
-0.8047519048969802 
0 
0 
0 
0 
0 
0 
0 
0 
0 
0 
0 
0 
0 
0 
0 
0 
0 
0 
0 
0 
0 
0 
0 
0 
0 
0 
0 
0 
0 
-5.652589460278136 
0 
0 
0 
0 
0 
0 
0 
0 
0 
0 
0 
0 
0 
0 
0 
0 
0 
0 
0 
0 
0 
0 
0 
0 
0 
0 
1.924228690377258 
0 
0 
0 
0 
0 
0 
0 
0 
0 
0 
0 
0 
0 
0 
0 
0 
-1.175784483218509 
0 
0.09667082777925579 
0 
0 
0 
0 
0 
0 
0 
0 
0 
0 
0 
0 
0 
0 
0 
0 
0 
0 
0 
0 
0 
0 
0 
0 
0 
0 
0 
0 
0 
0 
0 
0 
0 
0 
0 
0 
0 
0 
0 
0 
0 
0 
0 
0 
0 
0 
0 
0 
0 
0 
0 
0 
0 
0 
0 
0 
0 
0 
0 
0 
0 
0 
0 
0 
0 
0 
0 
0 
0 
0 
0 
0 
0 
0 
-0.278072194729894 
0 
0 
0 
0 
0 
0 
0 
0 
0 
0 
0 
0 
0 
0 
0 
0 
0 
0 
0 
0 
0 
0 
0 
0 
0 
0 
0 
0 
0 
0 
0 
0 
0 
0 
0 
0 
0 
0 
0 
0 
0 
0 
0 
0 
0 
0 
0 
0 
0 
0 
0 
0 
0 
0 
0 
0 
0 
0 
0 
0 
0 
0 
0 
0 
0 
0 
0 
0 
0 
0.2376682531262414 
0 
0 
0 
0 
0 
0 
0 
0 
0 
0 
0 
0 
0 
0 
0 
0 
0 
0 
0 
0 
0 
0 
0 
0 
0 
0 
0 
0 
0 
0 
0 
0 
0 
0 
0 
0 
0 
0 
0 
0 
0 
0 
0 
0 
0 
0 
0 
0 
0 
1.104881781195232 
0 
0 
0 
0 
0 
0 
0 
0 
0 
0 
0 
0 
0 
0 
0 
0 
0 
0 
0 
0 
0 
0 
0 
0 
0 
0 
0 
0 
0 
0 
0 
0 
0 
0 
0 
0 
0 
0 
0 
0 
0 
0 
0 
0 
0 
0 
0 
0 
0 
0 
0 
0 
0 
0 
0 
0 
0 
0 
0 
0 
0 
0 
0 
1.087791119020475 
0 
0 
0 
0 
0 
0 
0 
0 
0 
0 
0 
0 
0 
0 
0 
0 
0 
0 
0 
0 
0 
0 
0 
0 
0 
0 
0 
0 
0 
0 
0 
0 
0 
0 
0 
0 
0 
0 
0 
0 
0 
-0.5575414385468429 
0 
0 
0 
0 
0 
0 
0 
0 
0 
0 
0 
0 
0 
0 
0 
-0.584760672496993 
0 
0 
0 
0 
0 
0 
0 
0 
0 
0 
0 
0 
0 
0 
0 
0 
0 
0 
0 
0 
0 
0 
0 
0 
0.3200898960547245 
0 
-0.4888323403563303 
0 
0 
0 
0 
0 
0 
0 
0 
0 
0 
0 
0 
0 
0 
0 
0 
0 
0 
0 
0 
0 
0 
0 
0 
0 
0 
0 
0 
0 
0 
0 
0 
0 
0 
0 
0 
0 
0 
0 
0 
0 
0 
0 
0 
0 
0 
0 
0 
0 
0 
0 
0 
0 
0 
0 
0 
0 
0 
0 
0 
0 
0 
0 
0 
0 
0 
0 
0 
0 
0 
0 
0 
0 
0 
0 
0 
0 
0 
0 
0 
0 
0 
0 
0 
0 
0 
0 
0 
0 
0 
0 
0 
0 
0 
0 
0 
1.337856049694636 
0 
0 
0 
0 
0 
0 
0 
0 
0 
0 
0 
0 
0 
0 
0 
0 
0 
0 
0 
0 
0 
0 
0 
0 
0 
0 
0 
0 
0 
0 
0 
0 
0 
0 
0 
0 
0 
0 
0 
0 
0 
0 
0 
0 
0 
0 
0 
0 
0 
0 
0 
0 
0 
0 
0 
0 
0 
0 
0 
0 
0 
0 
0 
0 
0 
0 
0 
0 
0 
0 
0 
0 
0 
0 
0 
0 
0 
0 
0 
0 
0 
0 
0 
0 
0 
0 
0 
0 
0 
0 
-3.504869835586908 
0 
0 
0 
0 
0 
0 
0 
0 
0 
0 
-0.7515562084170074 
0 
0 
0 
0 
0 
0 
0 
0 
0 
0 
-0.6702959326553366 
0 
0 
0 
0 
0 
0 
0 
0 
0 
0 
0.08193005279361759 
0 
0 
0 
0 
0 
0 
0 
0 
0 
0 
0 
0 
0 
0 
0 
0 
0 
0 
0 
0 
0 
0 
0 
0 
0 
0 
0 
0 
0 
0 
0 
0 
0 
0.3799164249753315 
0 
0 
0 
0 
0 
0 
0 
0 
0 
0 
0 
0 
0 
0 
0 
0 
0 
0 
0 
0 
0 
0 
0 
0 
0 
0 
0 
0 
0.3790741398683631 
0 
0 
0 
0 
0 
0 
0 
0 
0 
0 
0 
0 
0 
0 
0 
0 
0 
0 
0 
0 
0 
0 
0 
0 
0 
0 
0 
0 
0 
0 
0 
0 
0 
0 
0 
0 
0 
0 
0 
0 
0 
0 
0 
0 
0 
0 
0 
0 
0 
0 
0 
0 
0 
0 
0 
0 
0 
0 
0 
0 
0 
0 
0 
0 
0 
-0.04761246556762751 
0 
0 
0 
0 
0 
0 
0 
0 
0 
0 
0 
0 
0 
0 
0 
0 
0 
0 
0 
0 
0 
0 
0 
0 
0 
0 
0 
0 
0 
0 
0 
0 
0 
0 
0 
0 
0 
0 
0 
0 
0 
0 
0 
0 
0 
0 
0 
0 
0 
0 
0 
0 
0 
0 
0 
0 
0 
0 
0 
0 
0 
0 
0 
0 
0 
0 
0 
0 
0 
0 
0 
-0.8106015677758802 
0 
0 
0 
0 
0 
0 
0 
0 
0 
0 
1.247808394578326 
0 
0 
0 
0 
0 
0 
0 
0 
0 
0 
0 
0 
0 
3.216564592788665 
0 
0 
0 
0 
0 
0 
0 
0 
0 
0 
0 
0 
0 
0 
0 
0 
0 
0 
0 
0 
0 
0 
0 
0 
0 
0 
0 
0 
0 
0 
0 
0 
-0.9351912630790339 
0 
0 
0 
0 
0 
0 
0 
0 
0 
0 
0 
0 
0 
0 
0 
0 
0 
0 
0 
0 
0 
0 
0 
0 
0 
0 
0 
0 
0 
0 
0 
0 
-1.440001478420517 
0 
0 
0 
0 
0 
0 
0 
0 
0 
0 
0 
0 
0 
0 
0 
0 
0 
0 
0 
0 
0 
0 
0 
0 
0 
0 
0 
0 
0 
0 
0 
0 
0 
0 
0 
0 
0 
0 
0 
0 
0 
0 
0 
0 
0 
0 
0 
0 
0 
0 
0 
0 
0 
0 
0 
0 
0 
0 
0 
0 
0 
0 
0 
0 
0 
0 
0 
0 
0 
0 
0 
0 
0 
0 
0 
0 
0 
0 
0 
0 
0 
0 
0 
0 
0 
0 
0 
0 
0 
0 
0 
0 
0 
0 
0 
0 
0 
0 
0 
0 
0 
0 
0 
0 
0 
0 
0 
0 
0 
0 
0 
0 
0 
0 
0 
0 
0 
0 
0 
0 
0 
0 
0 
0.9203133093763812 
0 
0 
0 
0 
0 
0 
0 
0 
0 
0 
0 
0 
0 
0 
0 
0 
0 
0 
0 
0 
0 
0 
0 
0 
0 
0 
0 
0 
0 
0 
0 
0 
0 
0 
0 
0 
0 
0 
0 
0 
0 
0 
0 
0 
0 
0 
0 
0 
0 
0 
0 
0 
0 
0 
0 
0 
0 
0 
0 
0 
0 
0 
0 
0 
0 
0 
0 
0 
0 
0 
0 
0 
0 
0 
0 
0 
0 
0 
0 
0 
0 
0 
0 
0 
0 
-0.4923884912632075 
0 
0 
0 
0 
0 
0 
0 
0 
0 
0 
0 
0 
0 
0 
0 
0 
0 
0 
0 
-2.616599668324376 
0 
0 
0 
0 
0 
0 
0 
0 
0 
0 
0 
0 
0 
0 
0 
-4.187402023325803 
0 
0 
0 
0 
1.959289652462745 
0 
0 
0 
0 
0 
0 
0 
0 
0 
0 
0 
0 
0 
0 
0 
2.763686455998501 
0 
0 
0 
0 
0 
0 
0 
0 
0 
0 
0 
0 
0 
0 
0 
0 
0 
0 
0 
0 
0 
0 
0 
0 
0 
0 
0 
0 
0 
0 
0 
0 
0 
0 
0 
0 
0 
0 
0 
0 
0 
0 
0 
0 
0 
0 
0 
0 
0 
0 
0 
0 
0 
0 
0 
0 
0 
0 
0 
0 
0 
0 
0 
0 
0 
0 
0 
0 
0 
0 
0 
0 
0 
0 
0 
0 
0 
0 
0 
0 
-0.2431418729280432 
0 
0 
0 
0 
0 
0 
0 
0 
0 
0 
0 
0 
0 
0 
0 
0 
0 
0 
0 
0 
0 
0 
0 
0 
0 
0 
0 
0 
0 
0 
0 
0 
0 
0 
0 
0 
0 
0 
0 
0 
0 
0 
0 
0 
0 
0 
0 
0 
0 
0 
0 
0 
0 
0 
0 
0 
0 
0 
0 
0 
0 
0 
0 
0 
0 
0 
0 
0 
0 
0 
0 
0 
0 
0 
0 
0 
0 
0 
0 
0 
0 
0 
0 
0 
0 
0 
0 
0 
0 
0 
0 
0 
0 
0 
0 
0 
0 
0 
0 
0 
0 
0 
0 
0 
0 
0 
0 
0 
0 
0 
0 
0 
0 
0 
0 
0 
0 
0 
0 
0 
0 
0 
0 
0 
0 
0 
0 
0 
0 
0 
0 
0 
0 
0 
0 
0 
0 
0 
0 
0 
0 
0 
0 
0 
0 
0 
0 
0 
0 
0 
0 
0 
0 
0 
0 
0 
0 
0 
0 
0 
0 
0 
0 
0 
0 
0 
0 
0 
0 
0 
0 
0 
-0.6926018873526265 
0 
0 
0 
0 
0 
0 
0 
0 
-1.622418048323036 
0 
0 
-0.8791804773852329 
0 
0 
0 
0 
0 
0 
0 
0 
0 
0 
0 
0 
0 
0 
0 
0 
0 
0 
0 
0 
0 
0 
0 
0 
0 
0 
0 
0 
0 
0 
0 
0 
0 
0 
0 
0 
0 
0 
0 
0 
0 
0 
0 
0 
0 
0 
0 
0 
0 
0 
0 
2.825897317198888 
0 
0 
0 
0 
0 
0 
0 
0 
0 
0 
0 
0 
0 
0 
0 
0 
0 
0 
0 
0 
0 
0 
0 
0 
0 
0 
0 
0 
0 
0 
0 
0 
0 
0 
0 
0 
0 
0 
0 
0 
0 
0 
0 
0 
0 
0 
0 
0 
0 
0 
0 
0 
0 
0 
0 
0 
0 
0 
0 
0 
0 
0 
0 
0 
0 
0 
0 
0 
0 
0 
0 
0 
0 
0 
0 
0 
0 
0 
0 
0 
0 
0 
0 
0 
0 
0 
0 
0 
0 
0 
0 
0 
0 
0 
0 
0 
0 
0 
0 
0 
0 
0 
0 
0 
0 
0 
0 
0 
0 
0 
0 
0 
0 
0 
0 
0 
0 
0 
0 
0 
0 
0 
0 
-0.4836353110346293 
0 
0 
0 
0 
0 
0 
0 
0 
0 
0 
0 
0 
0 
0 
0.9760157777832196 
0 
0 
0 
0 
0 
0 
0 
0 
0 
0 
0 
0 
0 
0 
0 
0 
0 
0 
0 
0 
0 
0 
0 
0 
0 
0 
0 
0 
0 
0 
0 
0 
0 
0 
0 
0 
0 
0 
0 
0 
0 
0 
0 
0 
0 
0 
0 
0 
0 
-0.8179800726450016 
0 
0 
0 
0 
0 
0 
0 
0 
0 
0 
0 
0 
0 
0 
0 
0.8903544587690592 
0 
0 
0 
0 
0 
0 
0 
0 
0 
0 
0 
0 
0 
0 
0 
0 
0 
0 
0 
1.254386846165409 
0 
0 
0 
0 
0 
0 
0 
0 
0 
0 
0 
0 
0 
0 
0 
0 
0 
0 
0 
0 
0 
0 
0 
0 
0 
-5.19841324372055 
0 
0 
0 
0 
0 
0 
0 
0 
0 
0 
0 
0 
0 
0 
0 
0 
0 
0 
0 
0 
0 
0 
0 
0 
0 
0 
0 
0 
0 
0 
0 
2.457441663554439 
0 
0 
0 
0 
0 
0 
0 
0 
0 
0 
0 
0 
0 
0 
0 
0 
0 
0 
0 
0 
0 
0 
0 
0 
0 
0 
0 
0 
0 
0 
0 
0 
0 
0 
0 
0 
0 
0 
0 
0 
0 
0 
0 
-0.3246742058483504 
0 
0 
0 
0 
0 
0 
0 
0 
0 
0 
0 
0 
0 
0 
0 
0 
0 
0 
0 
0 
0 
0 
0 
0 
0 
0 
0 
0 
0 
0 
0 
0 
0 
0 
0 
0 
0 
0 
0 
0 
0 
0 
0 
0 
0 
0 
0 
0 
0 
0 
0 
0 
0 
0 
0 
0 
0 
0 
0 
0 
0 
0 
-2.765426824904487 
0 
0 
0 
0 
0 
0.8971510463273179 
0 
0 
0 
0 
0 
0 
0 
0 
0 
0 
0 
0 
0 
0 
0 
0 
0 
0 
0 
0 
0 
0 
0 
0 
0 
0 
0 
0 
0 
0 
0 
0 
0 
0 
0 
0 
0 
0 
0 
0 
0 
0 
0 
0 
0 
0 
0 
0 
0 
0 
0 
0 
0 
0 
0 
0 
0 
0 
0 
0 
0 
0 
0 
0 
0 
0 
0 
0 
0 
0 
0 
0 
0 
0 
0 
0 
0 
0 
0 
0 
0 
0 
0 
0 
0 
0 
-0.2278486471199002 
0 
0 
0 
0 
0 
0 
0 
0 
0 
0 
0 
0 
0 
0 
0 
0 
0 
0 
0 
0 
0 
0 
0 
0 
0 
0 
0 
0 
0 
0 
0 
0 
0 
0 
0 
0 
0 
0 
0 
0 
0 
0 
0 
0 
0 
0 
0 
0 
0 
0 
0 
0 
0 
0 
0 
0 
0 
0 
0 
0 
0 
0 
0 
0 
0 
0.469341577840832 
0 
0 
-0.9553494786978538 
0 
0 
0 
0 
0 
0 
0 
0 
0 
0 
0 
0 
0 
0 
0 
0 
0 
0 
0 
0 
0 
0 
0 
0 
0 
0 
0 
0 
0 
0 
0 
0 
0 
0 
0 
0 
0 
0 
0 
0 
0 
0 
0 
0 
0 
0 
0 
0 
0 
0 
0 
0 
0 
0 
0 
0 
0 
0 
0 
0 
0 
0 
0 
0 
0 
0 
0 
0 
0 
0 
0 
0 
0 
0 
0 
0 
0 
0 
0 
0 
0 
0 
0 
0 
0 
0 
0 
0 
0 
0 
0 
0 
0 
0 
0 
0 
0 
0 
0 
0 
0 
0 
0 
0 
0 
0 
0 
0 
0 
0 
0 
0 
0 
0 
0 
0 
0 
0 
0 
0 
0 
0 
0 
0 
0 
0 
0 
0 
0 
0 
0 
0 
0 
0 
0 
0 
0 
0 
0 
0 
0 
0 
0 
0 
0 
0 
0 
0 
0 
0 
0 
0 
0 
0 
0 
0 
0 
0 
0 
0 
0 
0 
0 
0 
0 
0 
0 
0 
0 
0 
0 
0 
0 
0 
0 
0 
0 
0 
0 
0 
0 
0 
0 
0 
0 
0 
0 
0 
0 
0 
0 
0 
0 
0 
0 
0 
-1.027909501886502 
0 
0 
0 
0 
0 
0 
0 
0 
0 
0 
1.57481994965337 
0 
0 
0 
0 
0 
0 
0 
0 
0 
0 
0 
0 
0 
0 
0 
0 
0 
0 
0 
0 
0 
0 
0 
0 
0 
0 
0 
0 
0 
0 
0 
0 
0 
0 
0 
0 
0 
0 
0 
0 
0 
0 
0 
0 
0 
0 
0 
0 
0 
0 
0 
0 
0 
0 
0 
0 
0 
0 
0 
0 
0 
0 
0 
0 
0 
0 
0 
0 
0 
0 
0 
0 
0 
0 
0 
0 
0 
0 
0 
0 
0 
0 
0 
0 
0 
0 
0 
0 
0 
0 
0 
0 
0 
0 
0 
0 
0 
0 
0 
0 
0 
0 
0 
0 
0 
0 
0 
0 
0 
0 
0 
0 
0 
0 
0 
0 
0 
0 
0 
0 
0 
0 
0 
0 
0 
0 
0 
0 
0 
0 
0 
0 
0 
0 
0 
0 
0 
0 
0 
0 
0 
0.6407959488266674 
0 
0 
0 
0 
0 
0 
0 
0 
0 
0 
0 
0 
0 
0 
0 
0 
0 
0 
0 
0 
0 
0 
0 
0 
0 
0 
0 
0 
0 
0 
0 
0 
0 
0 
0 
0 
0 
0 
0 
0 
0 
0 
0 
0 
0 
0 
0 
0 
0 
0 
0 
0 
0 
0 
0 
0 
0 
0 
0 
0 
0 
0 
0 
0 
0 
0 
0 
0 
0 
0 
0 
0 
0 
0 
0 
0 
0 
0 
0 
0 
0 
0 
0 
0 
0 
0 
0 
0 
0 
0 
0 
0 
0 
0 
0 
0 
0 
0 
0 
0 
0 
0 
0 
0 
0 
0 
0 
-1.103645755661328 
0 
0 
0 
0 
0 
0 
0 
0 
0 
0 
0 
0 
0 
0 
0 
0 
0 
0 
0 
0 
0 
0 
0 
0 
0 
0 
0 
0 
0 
0 
0.8090952739487102 
0 
0 
0 
0 
0 
0 
0 
0 
0 
0 
0 
0 
0 
0 
0 
0 
0 
0 
0 
0 
0 
0 
0 
0 
0 
0 
0 
0 
0 
0 
0 
0 
0 
0 
0 
0 
0 
0 
0 
0 
0 
0 
0 
0 
-1.112558176629424 
0 
0 
0 
0 
0 
0 
0 
-2.978680228007276 
0 
0 
2.018716318935701 
0 
0 
0 
0 
0 
0 
0 
0 
0 
0 
0 
0 
0 
0 
0 
-1.057827627977442 
0 
0 
0 
0 
0 
0 
0 
0 
0 
0 
0 
0 
0 
0 
0 
0 
0 
0 
0 
0 
0 
0 
0 
0 
0 
0 
0 
0 
0 
0 
0 
0 
0 
0 
0 
0 
0 
0 
0 
0 
0 
0 
0 
0 
0 
0 
0 
0 
0 
0 
0 
0 
0 
0 
0 
0 
0 
0 
0 
0 
0 
0 
0 
-0.139151006952676 
0 
0 
0 
0 
0 
0 
0 
0 
0 
0 
0 
0 
0 
0 
0 
0 
0 
0 
0 
0 
0 
0 
0 
0 
0 
0 
0 
0 
0 
0 
0 
0 
0 
0 
0 
0 
0 
0 
0 
0 
0 
0 
0 
0 
0 
0 
0 
0 
0 
0 
0 
0 
0 
0 
0 
0 
0 
0 
0 
0 
0 
0 
0 
0 
0 
0 
0 
0 
0 
0 
0 
0 
0 
0 
0 
0 
0 
0 
0 
0 
0 
0 
0 
0 
0 
0 
0 
0 
0 
0 
0 
0 
0 
0 
0 
0 
0 
0 
0 
0 
0 
0 
0 
0 
0 
0 
0 
0 
0 
0 
0 
0 
0 
0 
0 
1.181889125595956 
0 
0 
0 
-2.479203715277061 
0 
0 
0 
0 
0 
0 
0 
0 
0 
0 
0 
0 
0 
0 
0 
0 
0 
0 
0 
0 
0 
0 
0 
0 
0 
0 
0 
0 
0 
0 
-0.7917971810191681 
0 
0 
0 
-3.422004071368486 
0 
0 
0 
0 
0 
0 
0 
0 
0 
0 
0 
0 
0 
0 
0 
0 
0 
0 
0 
0 
0 
0 
0 
0 
0 
0 
0 
0 
0 
0 
0 
0 
0 
0 
0 
0 
0 
0 
0 
0 
0 
0 
0 
0 
0 
0 
0 
0 
0 
0 
0 
0 
0 
0 
0 
0 
0 
0 
0 
0 
0 
0 
0 
0 
0 
0 
0 
0 
0 
0 
0 
0 
0 
0 
0 
0 
0 
0 
0 
0 
0 
0 
0 
0 
0 
0 
0 
0 
0 
0 
0 
0 
0 
0 
0 
0 
0 
0 
0 
0 
0 
0 
0 
0 
0 
0 
0 
0 
0 
0 
0 
0 
0 
0 
0 
0 
0 
0 
0 
0 
0 
0 
0 
0 
0 
0 
0 
0 
0 
0 
0 
0 
0 
0 
0 
0 
0 
0 
0 
0 
0 
0 
0 
0 
0 
0 
0 
0 
0 
0 
0 
-0.7496423880887239 
0 
0 
0 
0 
0 
0 
0 
0 
0 
0 
0 
0 
0 
0 
0 
0 
0 
0 
0 
0 
0 
0 
0 
0 
0 
0 
0 
0 
0 
0 
0 
0 
0 
0 
0 
0 
0 
0 
0 
0 
0 
0 
0 
0 
0 
0 
0 
0 
0 
0 
0 
0 
0 
0 
0 
0 
0 
0 
0 
0 
0 
1.329031792597134 
0 
0 
0 
0 
0 
0 
0 
0 
0 
0 
0 
0 
0 
0 
0 
0 
0 
0 
0 
0 
0 
0 
0 
0 
0 
0 
0 
-0.3828505586930314 
0 
0 
0 
0 
0 
0 
0 
0 
0 
0 
0 
0 
0 
0 
0 
0 
0 
0 
0 
0 
0 
0 
0 
0 
0 
0 
0 
0 
0 
0 
0 
0 
0 
0 
0 
-0.3024714095685512 
0 
0 
0 
0 
0 
0 
0 
0 
0 
0 
0 
0 
0 
0 
0 
0 
0 
0 
0 
0 
0 
0 
0 
0 
0 
0 
0 
0 
0 
0 
0 
0 
0 
0 
0 
0 
0 
0 
0 
0 
0 
0 
0 
0 
0 
0 
0 
0 
0 
0 
0 
0 
0 
0 
0 
0 
0 
0 
0 
0 
0 
0 
0 
0.9502498129615646 
0 
0 
0 
0 
0 
0 
0 
0 
0 
0 
0 
0 
0 
0 
0 
0 
0 
0 
0 
0 
0 
0 
0 
0 
0 
0 
0 
0 
0 
0 
0 
0 
0 
0 
0 
0 
0 
0 
0 
0 
0 
0 
0 
0 
0 
0 
0 
0 
0 
0 
0 
0 
0.02173811438799854 
0 
0 
0 
0 
0 
0 
0 
0 
0 
0 
0 
0 
0 
0 
0 
0 
0 
0 
0 
0 
0 
0 
0 
0 
0 
0 
0 
0 
0 
0 
0 
0 
0 
0 
0 
0 
0 
0 
0 
0 
0 
0 
0 
0 
0 
0 
0 
0 
0 
0 
0 
0 
0 
0 
0 
0 
0 
0 
-4.191578349261234 
0 
0 
0 
0 
0 
0 
0 
0 
0 
0 
0 
0 
0 
0 
0 
0 
0 
0 
0 
0 
0 
0 
0 
0 
0 
0 
0 
0 
0 
0 
0 
0 
0 
0 
0 
0 
0 
0 
0 
0 
0 
0 
0 
0 
0 
0 
0 
0 
0 
0 
0 
0 
0 
0 
0 
0 
0 
0 
0 
0 
0 
0 
0 
0 
0 
0 
0 
0 
0 
0 
0 
0 
0 
0 
0 
-1.447337084702413 
0 
0 
0 
0 
0 
0 
0 
0 
0 
0 
0 
0 
0 
0 
0 
0 
0 
0 
0 
0 
0 
0 
0 
0 
0 
0 
0 
0 
0 
0 
0 
0 
0 
0 
0 
0 
0 
0 
0 
0 
0 
0 
0 
0 
0 
0 
0 
0 
0.3408562653749954 
0 
0 
0 
0 
0.7058237462541417 
0 
0 
0 
0 
0 
0 
0 
0 
0 
0 
0 
0 
0 
0 
0 
-1.214768483569055 
0 
0 
0 
0 
0 
0 
0 
0 
0 
0 
0 
0 
0 
0 
0 
0 
0 
0 
0 
0 
0 
0 
0 
-1.044607166855221 
0 
0 
0 
0 
0 
0 
0 
0 
0 
0 
-0.04070123745760725 
0 
0 
0 
0 
0 
0 
0 
0 
0 
0 
0 
0 
0 
0 
0 
0 
0 
0 
0 
0 
0 
0 
0 
0 
0 
0 
0 
0 
0 
0 
0 
0 
0 
0 
0 
0 
0 
0 
0 
0 
0 
0 
0 
0 
0 
0 
0 
0 
0 
0 
0 
0 
0 
0 
0 
0 
0 
0 
0 
0 
0 
0 
0 
0 
0 
0 
0 
0 
0 
0 
0 
0 
0 
0 
0 
0 
0 
0 
0 
0 
0 
-2.17542066908276 
0 
0 
0 
0 
0 
0 
0 
0 
0 
0 
0 
0 
0 
0 
0 
0 
0 
0 
0 
0 
-1.403012263707826 
0 
0 
0 
0 
0 
0 
0 
0 
0 
0 
0 
0 
0 
0 
0 
0 
0 
0 
0 
0 
0 
0 
0 
0 
0 
0 
0 
0 
0 
-0.3560520464002221 
0 
0 
0 
0 
0 
0 
0 
0 
0 
0 
0 
0 
0 
0 
0 
0 
0 
0 
0 
0 
0 
0 
0 
0 
0 
0 
0 
0 
0 
0 
-0.7779095764587963 
0 
0 
0 
0 
-0.5621493089013848 
0 
0 
0 
0 
0 
0 
0 
0 
0 
0 
0 
0 
0 
0 
0 
0 
0 
0 
0 
0 
0 
0 
0 
0 
0 
0 
0 
0 
0 
0 
0 
0 
0 
0 
0 
0 
0 
0 
0 
0 
0 
0 
0 
0 
0 
0 
0 
0 
0 
0 
0 
0 
1.616085406680572 
0 
0 
0 
0 
0 
0 
0 
0 
-2.588066831705097 
0 
0 
0 
0 
0 
0 
0 
0 
0 
0 
0 
0 
0 
0 
0 
0 
0 
0 
0 
0 
0 
0 
0 
0 
0 
0 
0 
0 
0 
0 
0 
0 
0 
0 
0 
0 
0 
0 
0 
0 
0 
0 
0 
0 
0 
0 
0 
0 
-0.04051363078929582 
0 
0 
0 
0 
0 
0 
0 
0 
0 
0 
0 
0 
0 
0 
0 
0 
0 
0 
0 
0 
0 
0 
0 
0 
0 
0 
0 
0 
0 
0 
0 
0 
0 
0 
0 
0 
-2.583168183411821 
-0.6396066366700751 
0 
0 
0 
0 
0 
0 
0.9053832416374064 
0 
0 
0 
0 
0 
0 
0 
0 
0 
0 
0 
0 
-4.085230822929783 
0 
0 
0 
0 
0 
0 
0 
0 
0 
0 
0 
0 
0 
0 
0 
0 
0 
0 
0 
0 
0 
0 
0 
0 
0 
0 
0 
0 
0 
0 
0 
0 
0 
0 
0 
0 
0 
0 
0 
-0.2174935605837814 
0 
0 
0 
0 
0 
0 
0 
0 
0 
0 
0 
0 
0 
0 
0 
0 
0 
0 
0 
0 
0 
0 
0 
0 
0 
0 
0 
0 
0 
0 
0 
0 
0 
0 
0 
0 
0 
0 
0 
0 
0 
0 
0 
0 
0 
0 
0 
-4.374525611932351 
0 
0 
0 
0 
0 
0 
0 
0 
0 
0 
0 
0 
0 
0 
0 
0 
0 
0 
-2.587185239500089 
0 
0 
0 
0 
0 
0 
1.102403788526315 
0 
0 
0 
0 
0 
0 
0 
0 
0 
0 
0 
0 
0 
0 
0 
0 
0 
0 
0 
0 
0 
-0.5040760439274254 
0 
2.241736106291195 
0 
0 
0 
0 
0 
0 
0 
0 
0 
0 
0 
0 
0 
0 
0 
0 
0 
0 
0 
0 
0 
0 
0 
0 
0 
0 
0 
0 
0 
0 
0 
0 
-0.7804360231591272 
0 
0 
0 
0 
0 
0 
0 
0 
0 
0 
0 
0 
0 
0 
0 
0 
0 
0 
0 
0 
0 
0 
0 
0 
0 
0 
0 
0 
0 
0 
0 
0 
0 
0 
0 
0 
0 
0 
0 
0 
0 
0 
0 
0 
0 
0 
0 
0 
0 
0 
0 
0 
0 
0 
0 
0 
0 
0 
0 
0 
0 
0 
0 
0.5256978271926284 
0 
0 
0 
0 
0 
0 
0 
0 
0 
0 
0 
0 
0 
0 
0 
0 
0 
0 
0 
0 
0 
0 
0 
0 
0.540063992553161 
0 
0 
0 
0 
0 
0 
0 
0 
0 
0 
0 
0 
0 
0 
0 
0 
0 
0 
0.0299352740069759 
0 
0 
0 
0 
0 
0 
0 
0 
0 
0 
0 
0 
0 
0 
0 
0 
0 
0 
0 
0 
0 
0 
0 
0 
0 
0 
0 
0 
0 
0 
0 
0 
0 
0 
0 
0 
0 
0 
0 
0 
0 
0.08035014009036789 
0 
0 
0 
0 
0 
0 
0 
0 
0 
0 
0 
0 
1.003018610501895 
0 
0 
0 
0 
0 
0 
0 
0 
0 
0 
0 
0 
0 
0 
0 
0 
0 
0 
0 
0 
0 
0 
0 
0 
0 
0 
0 
0 
0 
0 
0 
-2.000600790406832 
0 
0 
0 
0 
0 
0 
0 
0 
0 
0 
0 
0 
0 
0 
0 
0 
0 
0 
0 
0 
0 
0 
2.937629829926396 
0 
0 
0 
0 
0 
0 
0 
0 
0 
0 
0 
0 
0 
0 
0 
0 
0 
0 
0 
0 
0 
0 
0 
0 
0 
0 
0 
0 
0 
0 
0 
0 
0 
0 
0 
0 
0 
0 
0 
0 
0 
0 
0 
0 
0 
0 
0 
0 
0 
0 
0 
0 
0 
0 
0 
0 
0 
0 
0 
0 
0 
0 
0 
0 
0 
0 
0 
0 
0 
0 
0 
0 
0 
0 
0 
0 
0 
0 
0 
0 
0 
0 
0 
0 
0 
0 
0 
0 
0 
0 
0 
0 
0 
0 
0 
0 
0 
0.1558025682262186 
0 
0 
0 
0 
0 
0 
0 
0 
0 
0 
0 
0 
0 
0 
0 
0 
0 
0 
0 
0 
0 
0 
0 
-1.93917482894337 
0 
0 
0 
0 
0 
0 
0.4761696674549436 
0 
0 
0 
0 
0 
0 
0 
0 
0 
0 
0 
0 
0 
0 
0 
0 
0 
0 
0 
0 
0 
0 
0 
0 
0 
0 
0 
0 
0 
0 
0 
0 
0 
0 
0 
0 
0 
0 
0 
0 
0 
0 
0 
0 
0 
0 
0 
0 
0 
0.2022915512191791 
0 
0 
0 
0 
0 
0 
0 
0 
0 
0 
0 
0 
0 
0 
0 
0 
0 
0 
0 
0 
0 
0 
0 
0 
0 
0 
0 
0 
0 
0 
0 
0 
0 
0 
0 
0 
0 
0 
1.827617585612221 
0 
0 
0 
0 
0 
0 
0 
0 
0 
0 
0 
0 
0 
0 
0 
0 
0 
0 
0 
0 
0 
0 
0 
0 
0 
0 
0 
0 
0 
0 
0 
0 
0 
0 
0 
0 
0 
0 
0 
0 
0 
0 
0 
0 
0 
0 
0 
0 
0 
0 
0 
0 
0 
0 
0 
0 
0 
0 
0 
0 
0 
0 
0 
0 
0 
0 
0 
0 
0 
0 
0 
0 
0 
0 
0 
0 
0 
0 
0 
0 
0 
0 
0 
0 
0 
0 
0 
0 
0 
0 
1.929176617418508 
0 
0 
0.5381193831298107 
0 
0 
0 
0 
0 
0 
0 
0 
0 
0 
0 
0 
0 
0 
0 
0 
0 
0 
0 
0 
0 
0 
0 
0 
0 
0 
0 
0 
0 
0 
0 
0 
0 
0 
0 
0 
0 
0 
0 
0 
0 
0 
0 
0 
0 
0 
0 
0 
0 
0 
0 
0 
0 
0 
0 
0 
0 
0 
0 
0 
0 
0 
0 
0 
0 
0 
0 
0 
-1.016961978522064 
0 
0 
0 
0 
0 
0 
0 
0 
0 
0 
0 
0 
0 
0.3685202843228803 
0 
0 
0 
0 
0 
0 
0 
0 
0 
0 
0 
0 
0 
0 
0 
0 
0 
0 
0 
0 
0 
0 
0 
0 
0 
0 
0 
0 
0 
0 
0 
0 
0 
0 
0 
0 
0 
0 
0 
0 
0 
0 
0 
0 
1.242419952654448 
0 
0 
0 
0 
0 
0.001939335502925988 
0 
0 
-1.790297411754932 
0 
0 
0 
0 
0 
0 
0 
0 
0 
0 
0 
0 
0 
0 
0 
0 
0 
0 
0 
0 
0 
0 
0 
0 
0 
0 
0 
0 
0 
0 
0 
0 
0 
0 
0 
0 
0 
0 
7.233383801869196 
0 
0 
0 
2.063956628912056 
0 
0 
0 
0 
0 
0 
0 
0 
0 
0 
0 
0 
0 
0 
0 
0 
0 
0 
0 
0 
0 
0 
0 
0 
0 
0 
0 
2.093728530782731 
0 
0 
0 
0 
0 
0 
0 
0 
1.425449781757193 
1.691380973319706 
0 
0 
0 
0 
0.6077255504386163 
0 
0 
0 
0 
0 
0 
0 
0 
0 
0 
0 
0 
0 
0 
0 
0.1902977238048147 
0 
0 
0 
0 
0 
0 
0 
0 
1.86241823619919 
0 
0 
0 
0 
0 
0 
0 
0 
4.694737721712985 
0 
0 
0 
0 
0 
0 
0.08770031840126678 
0 
0 
0 
0 
0 
0 
0 
0 
0 
0 
0 
2.43639121080374 
2.288152059520582 
0 
0 
0 
0 
0 
0 
0 
0 
0 
0 
0 
0 
0 
0 
0 
0 
0 
0 
0 
3.346930869502075 
0 
0 
0 
0 
0 
0 
0 
0 
0 
0 
0 
0 
0 
0 
0 
0 
0 
1.853764485354444 
0 
3.031947516374133 
0 
0 
0 
0 
0 
0 
0 
0 
0 
0 
0 
0 
0 
0 
0 
0 
0 
0 
0 
0 
0 
0 
0 
0 
0 
0 
0 
0 
0 
0 
0 
0 
0 
0 
0 
0 
0 
0 
0 
0 
0 
0 
0 
0 
0 
0 
2.272952814995708 
0 
0 
1.329133515495758 
0 
0 
1.656776797866778 
0 
0 
0 
0 
0 
0 
0 
0 
0 
0 
-1.685506716868416 
0 
0 
0 
0 
-0.7479096366946989 
0 
0 
0 
0 
0 
0 
0 
0 
0 
0 
0 
0 
0 
0 
0 
0 
0 
0 
0 
0 
0 
0 
0 
0 
-0.2629703125684929 
0 
0 
0 
0 
0 
0 
0 
0 
0 
0 
0 
0 
0 
0 
0 
2.414104350788711 
0.5747003371622464 
0 
0 
0 
0 
0 
0 
0 
0 
0 
0 
-0.09925645068095845 
-1.765965295498856 
0 
0 
0 
0 
1.156844844244157 
0 
-2.328819357942723 
0 
0 
0 
0 
-0.8826671682272504 
0 
0 
0 
0 
0 
0 
0 
0 
0 
-0.1443500237189919 
0 
0 
0 
0 
0 
0 
0 
0 
-0.8595151557249945 
0 
0 
0 
0 
0 
0 
0 
0 
0.4551352989854423 
0 
0 
0 
0 
0 
0.8754794140152247 
0 
0 
0.208674634356149 
0 
0 
0 
0 
0 
2.418381067594185 
0 
0 
0 
0 
0 
0.3301846087091145 
0 
0 
0.8122981455566155 
0 
0 
0 
0 
0 
0 
0 
0 
0 
0 
0 
0.7703664779233583 
0 
0 
0 
0 
0 
0 
0 
0 
0 
0 
0 
0 
0.88330565344518 
0 
0 
0 
0 
0 
0 
0 
0 
0 
0 
0 
0 
0 
0 
0.3676594996927846 
0 
0 
0 
0 
0 
0 
0 
0 
0 
0 
0 
0 
0 
0 
-1.128746353990054 
0 
0 
0 
0 
0 
0 
0 
0 
0 
0 
0 
0 
0 
0 
0 
0 
0 
0 
0 
0 
0 
0 
0 
0 
0 
0 
0 
0 
0 
0 
0 
0 
0 
0 
0 
0 
0 
0 
0 
0 
-1.022788808930974 
0 
0 
0 
0 
0 
0 
0 
0 
0 
-3.290370465871387 
0 
0 
0 
0 
0 
0 
0 
0 
0 
0 
0 
0 
-4.720038029685315 
0 
0 
0 
-0.1786419284008684 
0 
0 
-2.261594358638299 
0 
0 
0 
0 
0 
0 
0 
0 
0 
0 
0 
0 
0 
0 
0 
0 
0 
0 
0 
0 
0 
0 
0 
0 
0 
0 
0 
0 
0 
0 
0 
0 
0 
0 
0 
0 
0 
0 
0 
0 
0 
0 
0 
0 
0 
-1.885964051560896 
0 
0 
0 
0 
0 
0 
0 
0 
0 
0 
0 
0 
0 
0 
0 
0 
0 
0 
0 
0 
0 
0 
0 
0 
0 
0 
0 
0 
0 
0 
0 
0 
0 
0 
0 
0 
0 
0 
0 
0 
0 
0 
0 
0 
0 
0 
0 
0 
0 
0 
0 
0 
0 
0 
0 
0 
0 
0 
0 
-2.273050003749492 
0 
0 
0 
0 
0 
0 
0 
0 
0 
0 
0 
0 
0 
0 
0 
0 
0 
0 
0 
0 
0 
0 
0 
0 
0 
0 
0 
0 
0 
0 
0 
0 
0 
0 
0 
0 
0 
0 
0 
0 
0 
0 
0 
0 
0 
0 
-4.473029712986702 
0 
0 
0 
0 
-1.976717873161455 
0 
0 
0 
0 
0 
0 
0 
0 
0 
0 
0 
0 
-0.2188715936535109 
0 
0 
0 
0 
0 
0 
0 
0 
0 
0 
0 
0 
0 
0 
0 
0 
0 
0 
0 
0 
0 
0 
0 
0 
0 
0 
0 
0 
0 
0 
0 
0 
0 
0 
0 
0 
0 
0 
0 
0 
0 
0 
0 
0 
0 
0 
0 
0 
0 
0 
0 
0 
0 
0 
0 
0 
0 
0 
0 
0 
0 
0 
0 
-3.727073641510376 
0 
0 
0 
0 
0 
0 
0 
0 
0 
0 
0 
0 
0 
0 
0 
0 
0 
0 
0 
-2.931732278529275 
0 
0 
0 
0 
0 
0 
0 
0 
0 
0 
0 
0 
0 
0 
0 
0 
0 
0 
0 
0 
0 
0 
0 
0 
0 
0 
0 
-0.7968552838109143 
0 
0 
0 
0 
0 
0 
0 
0 
0 
0 
0 
0 
0 
0 
-0.09714737683875846 
0 
0 
0 
0 
0 
0 
0 
0 
0 
0 
0 
0 
0 
0 
0 
0 
0 
0 
0 
0 
0 
0 
0 
0 
0 
0 
0 
1.089893602397006 
0 
0 
0 
-2.387062748445038 
-0.9676622955515278 
0 
0 
0 
0 
0 
0 
0 
0 
-1.64610961272108 
-2.340984729189501 
0 
0 
0 
0 
0 
0 
0 
0 
-1.699978859134705 
0 
0 
0 
0 
0 
0 
0 
0 
0 
0 
0 
0 
0 
0 
0 
0 
0 
0 
0 
0 
0 
0 
0 
0 
0 
0 
0 
0 
0 
0 
0 
0 
0 
0 
0 
0 
0 
0 
0 
0 
0 
0 
0 
0 
0 
0 
0 
0 
0 
0 
0 
0 
0 
0 
0 
0 
0 
0 
0 
0.6130853409566934 
0 
0 
0 
0 
0 
0 
0 
0 
0 
0 
0 
0 
0 
0 
0 
0 
0 
0 
0 
0 
0 
0 
0 
0 
0 
0 
0 
0 
0 
0 
0 
0 
0 
0 
0 
0 
0 
0 
0 
0 
0 
0 
0 
0 
0 
0 
0 
0 
0 
0 
0 
0 
0 
0.5143730542593742 
0 
0 
0 
0 
0 
0 
0 
0 
0 
0 
0 
0 
0 
0 
0 
0 
0 
0 
0 
0 
0 
0 
0 
0 
0 
0 
0 
0 
0 
0 
0 
0 
0 
0 
0 
0 
0 
0 
0 
0 
0 
0 
0 
0 
0 
0.7898389691208755 
0 
0 
0 
0 
0 
0 
0 
0 
0 
0 
0 
0 
0 
0 
0 
0 
0 
0 
0 
0 
0 
0 
0 
0 
0 
0 
0 
0 
0 
0 
0 
0 
0 
0 
0 
0 
0 
0 
0 
0 
0 
0 
0 
0 
0 
0 
0 
0 
0 
0 
1.191063677047682 
0 
0 
0 
0 
0 
0 
0 
0 
0 
0 
0 
0 
0 
0 
0 
0 
0 
0 
0 
0 
0 
0 
0 
0 
0 
0 
0 
0 
0 
0 
0 
0 
0 
0 
0 
0 
0 
0 
0 
0 
0 
0 
0 
0 
0 
0 
0 
0 
0 
0 
0 
0 
0 
0 
0 
0 
0 
0 
0 
0 
0 
0 
0 
0 
0 
0 
0 
0 
0 
0 
0 
0 
0 
0 
0 
0 
0 
0 
0 
0 
0 
0 
0 
0 
0 
0 
0 
0 
0 
0 
0 
0 
0 
0 
0 
-1.129352879874327 
0 
0 
0 
0 
0 
0 
0 
0 
0 
0 
0 
0 
0 
0 
0 
0 
0 
0 
0 
0 
0 
0 
0 
0 
0 
0 
0 
0 
0 
0 
0 
0 
0 
2.864173719148954 
0 
0 
0 
0 
0 
0 
0 
0 
0 
0 
0 
0 
0 
0 
0 
0 
0 
0 
0 
0 
0 
0 
0 
0 
0 
0 
0 
0 
0 
0 
0 
0 
0 
0 
0 
0 
0 
0 
0 
0 
0 
0 
0 
0 
0 
0 
0 
0 
0 
0 
0 
0 
0 
0 
0 
0 
0 
0 
0 
0 
0 
0 
0 
0 
0 
0 
0 
0 
0 
0 
0 
0 
0 
0 
0 
0 
0 
0 
0 
0 
0 
0 
0 
0 
0 
0 
0 
0 
0 
0 
0 
0 
0 
0 
0 
0 
0 
0 
0 
0 
0 
0 
0 
0 
0 
0 
0 
0 
0 
0 
0 
0 
0 
0 
1.124208711434348 
0 
0 
-0.1386342988524592 
0 
0 
0 
0 
0 
0 
0 
0 
0 
0 
0 
0 
0.0291952806121999 
0 
0 
0 
0 
0 
0 
0 
0 
0 
0 
0 
0 
0 
0 
0 
0 
0 
0 
0 
0 
0 
0 
0 
0 
0 
0 
0 
0 
0 
0 
0 
0 
0 
0 
0 
0 
0 
0 
0 
0 
0 
0 
0 
0 
0 
0 
0 
0 
0 
0 
0 
0 
0 
0 
0 
0 
0 
0 
0 
0 
-0.09148938359397101 
0 
0 
0 
-1.223321266769057 
0 
0 
0 
0 
0 
0 
0 
0 
0 
0 
0 
0 
0 
0 
0 
0 
0 
0 
0 
0 
0 
0 
0 
0 
0 
0 
0 
0 
0 
0 
0 
3.566660530134 
0 
0 
0 
0 
0 
0 
0 
0 
0 
0 
0 
0 
0 
0 
0 
0 
0 
0 
0 
0 
0 
0 
0 
0 
0 
0 
0 
0 
0 
0 
0 
0 
0 
0 
0 
0 
0 
0 
0 
0 
0 
0 
0 
0 
0 
0 
0 
-1.682144853849491 
0 
0 
0 
0 
0 
0 
0 
0 
0 
0 
0 
0 
0 
0 
0 
0 
0 
0 
0 
0 
0 
0 
0 
0 
0 
0 
0 
0 
0 
0 
0 
-1.460068927527495 
0 
0 
0 
0 
0 
0 
0 
-0.4946761559269267 
0 
0 
0 
0 
0 
0 
0 
0 
0 
0 
0 
0 
0 
0 
0 
0 
0 
0 
0 
0 
0 
0 
0 
0 
0 
0 
0 
0 
0 
0 
0 
0 
-0.005310042484095753 
0 
0 
0 
0 
0 
0 
0 
0 
0 
0 
0 
0 
0 
0 
0 
0 
0 
0 
1.521787078479598 
0 
0 
0 
0 
0 
0 
0 
0 
0 
0 
0 
0 
0 
0 
0 
0 
0 
0 
0 
0 
0 
0 
0 
0 
0 
0 
0 
0 
0 
0 
0 
0 
0 
0 
0 
0 
0 
0 
0 
0 
0 
0 
0 
0 
0 
0 
0 
0 
0 
0 
0 
0 
0 
0 
0 
0 
0 
0 
0 
0 
0 
0 
0 
0 
0 
0 
0 
0 
0 
0 
0 
0 
0 
0 
0 
0 
0 
0 
0 
0 
0 
0 
0 
0 
0 
0 
0 
0 
0 
0 
0 
0 
0 
0 
0 
0 
0 
0 
0 
0 
0 
0 
0 
0 
0 
0 
0 
0 
0 
0 
0 
0 
0 
0 
0 
0.4239648448539161 
0 
0 
0 
0 
0 
0 
0 
0 
-2.58019128136627 
0 
0 
0 
0 
0 
0 
0 
0 
0 
0.7452125156871303 
-2.407465581466355 
0 
0 
0 
0 
0 
0 
0 
0 
0 
0 
-0.9093690868402209 
0 
0.0395803922555976 
0.8480946401058771 
0 
0 
0 
0 
0 
1.302741113505031 
0 
0 
0 
0 
0 
0 
0 
0 
0 
0 
0 
0 
0 
0 
0 
0 
0.9653323515706374 
0 
0 
0 
0 
0 
0 
0 
0 
0 
0 
5.921218607923896 
-1.868334339346065 
0 
0 
0 
0 
0 
0 
0 
0 
0 
0 
0.3124155965020434 
0 
0 
0 
0 
0 
-0.1217925138941999 
0 
0 
0 
0 
0 
0 
0 
0 
0 
0 
0 
0 
0 
0 
0 
0 
0 
0 
0 
0 
0 
0 
0 
0 
0 
0 
0 
0 
0 
0 
0 
0 
0 
0 
0 
0 
0 
0 
0 
0 
0 
0 
0 
0 
0 
0 
0 
0 
0 
0 
0 
0 
0 
0 
0 
0 
0 
0 
0 
0 
0 
0 
0 
0 
0 
0 
0 
0 
0 
0 
0 
0 
0 
0 
0 
0 
0 
0 
0 
0 
0 
0 
0 
0 
0 
0 
0 
0 
0 
0 
0 
0 
0 
0 
0 
0 
0 
0 
0 
0 
0 
0 
0 
0 
0 
0 
0 
0 
0 
0 
0 
0 
0 
0 
0 
0 
0 
0 
0 
0 
0 
0 
0 
0 
0 
0 
0 
0 
0 
0 
0 
0 
0 
0 
0 
0 
0 
0 
0 
0 
0 
0 
0 
0 
0 
0 
0 
0 
0 
0 
0 
0 
0 
0 
0 
0 
0 
0 
0 
0 
0 
0 
0 
0 
0 
0 
0 
0 
0 
0 
0 
0 
0 
0 
0 
0 
0 
0 
0 
0 
0 
0 
0 
0 
0 
0 
0 
0 
0 
0 
0 
0 
0 
0 
0 
0 
0 
0 
0 
0 
0 
0 
0 
0 
0 
0 
0 
0 
0 
0 
0 
0 
1.101363577974132 
0 
0 
0 
0 
0 
0 
1.594413537171534 
0 
0 
0 
0 
0 
0 
0 
0 
0 
0 
0 
0 
0 
0 
0 
0 
0 
0 
0 
-0.9840391851338232 
0 
0 
0 
0 
0 
0 
0 
0 
-5.780468869959829 
0 
0 
0 
0 
0 
0 
0 
0 
0 
0 
0 
0 
0 
0 
0 
0 
0 
0 
0 
0 
0 
0 
0 
0 
0 
0 
0 
0 
0 
0 
0 
0 
0 
0 
0 
0 
0 
0 
0 
0 
0 
0 
0 
0 
0 
0 
0 
0 
0 
0 
0 
0 
0 
0 
0 
0 
0 
0 
0 
0 
0 
0 
0 
0 
0 
0 
0 
0 
0 
0 
0 
0 
0 
0 
0 
0 
0 
0 
0 
0 
0 
0 
0 
0 
0 
0 
0 
0 
0 
0 
0 
0 
0 
0 
0 
0 
0 
0 
0 
0 
0 
0 
0 
0 
0 
0 
0 
0 
0 
0 
0 
0 
0 
0 
0 
0 
0 
0 
0 
0 
0 
0 
0 
0 
0 
0 
0 
0 
0 
0 
0 
0 
0 
0 
0 
0 
0 
0 
0 
0 
0 
0 
0 
0 
0 
0 
0 
0 
0 
0 
0 
0 
0 
0 
0 
0 
0 
0 
0 
0 
0 
0 
0 
0 
0 
0 
0 
0 
0 
0 
0 
0 
0 
0 
0 
0 
0 
0 
0 
0 
0 
0 
0 
0 
0 
0 
0 
0 
0 
0 
0 
0 
0 
0 
0 
0 
0 
0 
0 
0 
0 
0 
0.2924352714573301 
0 
0 
0 
0 
0 
0 
0 
0 
0 
0 
0 
0 
0 
0 
0 
0 
0 
0 
0 
0 
0 
0 
0 
0 
0 
0 
0 
-1.117950750858665 
0 
0 
0 
0 
0 
0 
0 
0 
0 
0 
0 
0 
-1.764309680970327 
0 
0 
0 
0 
0 
0 
0 
0 
0 
0 
0 
0 
0 
0 
0 
0 
0 
0 
0 
0 
0 
0 
0 
0 
0 
0 
0 
0 
0 
0 
0 
0 
0 
0 
0 
0 
0 
1.503517881369058 
0 
0 
0 
0 
0 
0 
0 
0 
0 
0 
0 
0 
0 
0 
0 
0 
0 
0 
0 
0 
0 
0 
0 
0 
0 
0 
0 
0 
0 
0 
0 
0 
0 
0 
0 
0 
0 
0 
0 
0 
0 
0 
0 
0 
0 
0 
0 
0 
0 
0 
0 
0 
0 
0 
0 
0 
0 
0 
0 
0 
0 
0 
0 
0 
0 
0 
0 
0 
0 
0 
0 
0 
0 
0 
0 
0 
0 
0 
0 
0 
0 
0 
0 
0 
0 
0 
0 
0 
0 
0 
0 
0 
0 
0 
0 
0 
0 
0 
0 
0 
0 
0 
0 
0 
0 
0 
0 
0 
0 
0 
0 
0 
0 
0 
0 
0 
0 
0 
0 
0 
0 
0 
0 
0 
0 
0 
0 
0 
0 
0 
0 
0 
0 
0 
0 
0 
0 
0 
0 
0 
-0.35929713508588 
0 
0 
0 
0 
0 
0 
0 
0 
0 
0 
0 
0 
0 
0 
0 
0 
0 
0 
0 
0 
0 
0 
0 
0 
0 
0 
0 
0 
0 
0 
0 
0 
0 
0 
0 
0 
0 
0 
0 
0 
0 
0 
0 
0 
0 
0 
0 
0 
0 
0 
0 
0 
0 
0 
0 
0 
0 
0 
0 
0 
0 
0 
0 
0 
0 
0 
0 
0 
0 
0 
0 
0 
0 
0 
0 
0 
0 
0 
0 
0 
0 
0 
0 
0 
0 
0 
0 
0 
0 
0 
0 
0 
0 
0 
0 
0 
0 
0 
0 
0 
0 
0 
0 
0 
0 
0 
0 
0 
0 
0 
0 
0 
0 
0 
0 
0.02454173545582184 
0 
0 
0 
0 
0 
0 
0 
0 
0 
0 
0 
0 
0 
0 
0 
0 
0 
0 
0 
0 
0 
0 
0 
0 
0 
0 
0 
0 
0 
0 
0 
0 
0 
0 
0 
0 
0 
0 
0 
0 
0 
2.349252796042788 
0 
0 
0 
0 
0 
0 
0 
0 
0 
0 
0 
0 
0 
0 
0 
0 
0 
0 
0 
0.1188775300684726 
0 
0 
0 
0 
0 
0 
0 
0 
0 
0 
0 
0 
0 
0 
0 
0 
0 
0 
0 
0 
0 
0 
0 
0 
0 
0 
0 
0 
0 
0 
0 
0 
0 
0 
0 
0 
0 
0 
0 
0 
0 
0 
0 
0 
0 
0 
0 
0 
0 
0 
0 
0 
0 
0 
0 
0 
0 
0 
0 
0 
0 
0 
0 
0 
0 
0 
0 
0 
0 
-1.923821352763941 
0 
0 
0 
0 
0 
0 
0 
0 
0 
0 
0 
0 
0 
0 
0 
0 
0 
0 
0 
0 
0 
0 
0 
0 
0 
0 
0 
0 
0 
0 
0 
0 
0 
0 
0 
0 
0 
0 
0 
0 
0 
0 
0 
0 
0 
0 
0 
0 
0 
0 
0 
0 
0 
0 
0 
0 
0 
0 
0 
0 
0 
0 
0 
0 
0 
0 
0 
0 
0 
0 
0 
0 
0 
0 
0 
0 
0 
0 
0 
0 
0 
0 
0 
0 
0 
0 
0 
0 
0 
0 
0 
0 
0 
0 
0 
0 
0 
0 
0 
0 
0 
0 
0 
0 
0 
0 
0 
0 
0 
0 
0 
0 
0 
0 
0 
0 
0 
0 
0 
0 
0 
0 
0 
0 
0 
0 
0 
0 
0 
0.03014506909714431 
0 
0 
0 
0 
0 
0 
0 
0 
0 
0 
0 
0 
0 
0 
0 
0 
0 
0 
-4.939075366649026 
0 
0 
0 
0 
0 
0 
0 
-0.540133650334214 
0 
0 
0 
0 
0 
0 
0 
0 
0 
1.399418170879755 
0 
0 
0 
0 
0 
0 
0 
0 
0 
0 
0 
0 
0 
0 
0 
0 
0 
0 
0 
0 
0 
0 
0 
0 
0 
0 
0 
-0.6383295198368501 
0 
0 
0 
0 
0 
0 
0 
0 
0 
0 
0 
0 
0 
0 
0 
0 
0 
0 
0 
0 
0 
0 
0 
0 
0 
0 
0 
0 
0 
0 
0 
0 
-0.9838140342288472 
0 
0 
0 
0 
0 
0 
0 
0 
0 
0 
0 
0 
0 
0 
0 
0 
0 
0 
0 
0 
0 
0 
0 
0 
0 
0 
0 
0 
0 
0 
0 
0 
0 
0 
0 
0 
0 
0 
0 
0 
0 
0 
0 
0 
0 
0 
0 
0 
0 
0 
0 
0 
0 
0 
0 
0 
0 
0 
0 
0 
0 
0 
0 
0 
2.080835383193541 
0 
0 
0 
0 
0 
0 
0 
0 
0 
0 
0 
0 
0 
0 
0 
0 
0 
0 
0 
0 
0 
0 
0 
0 
0 
0 
0 
0 
0 
0 
0 
0 
0 
0 
0 
0 
0 
0 
0 
0 
0 
0 
0 
0 
0 
0 
0 
0 
0 
0 
0 
0 
0 
0 
0 
0 
0 
0 
0 
0 
0 
0 
0 
0 
0 
0 
0 
0 
0 
0 
0 
0 
0 
0 
0 
0 
0 
0 
0 
0 
0 
0 
0 
0 
0 
0 
0 
0 
0 
0 
0 
0 
0 
0 
0 
0 
0 
0 
0 
0 
0 
0 
0 
0 
0 
0 
0 
0 
0 
0 
0 
-0.6778362066915538 
0 
0 
0 
0 
0 
0 
0 
0 
0 
0 
0 
0 
0 
0 
0 
0 
0 
0 
0 
0 
0 
0 
0 
0 
0 
0 
0 
0 
0 
0 
0 
0 
0 
0 
0 
0 
0 
0 
0 
0 
0 
0 
0 
0 
0 
0 
0 
0 
0 
0 
0 
0 
0 
0 
0 
0 
0 
0 
0 
-1.098045126102284 
0 
0 
0 
0 
0 
0 
0 
0 
0 
0 
0 
0 
0 
0 
0 
0 
0 
0 
0 
0 
0 
0 
0 
0 
0 
0 
0 
0 
1.664278849826625 
0 
0 
1.015899498703244 
0 
0 
0 
0 
0 
0 
0 
0 
0 
0 
0 
0 
0 
0 
0 
0 
0 
0 
0 
0 
0 
0 
0 
0 
0 
0 
0 
0 
0 
0 
0 
0 
0 
0 
0 
0 
0 
0 
0 
0 
0 
0 
0 
0 
0 
0 
0 
0 
0 
0 
0 
0 
0 
0 
0 
0 
0 
0 
0 
0 
0 
0 
0 
0 
0 
0 
0 
0 
0 
0 
0 
0 
0 
0 
0 
-2.431828627171223 
0 
0 
0 
0 
0 
0 
0 
0 
0 
0 
0 
0 
0 
0 
0 
0 
0 
0 
0 
0 
0 
0 
0 
0 
0 
0 
0 
0 
0 
0 
0 
0 
0 
0 
0 
0 
0 
0 
0 
0 
0 
0 
0 
0 
0 
0 
0 
0 
0 
0 
0 
0 
0 
0 
0 
0 
0 
0 
0 
0 
0 
0 
0 
0 
0 
0 
0 
0 
0 
0 
0 
0 
0 
0 
0 
0 
0 
0 
0 
0 
0 
0 
0 
0 
0 
0 
0 
0 
0 
0 
0 
0 
0 
0 
0 
0 
0 
0 
0 
0 
0 
0 
0 
0 
0 
0 
0 
0 
0 
0 
0 
0 
0 
0 
0 
0 
0 
0 
0 
0 
0 
0 
0 
0 
0 
-0.8728574665949634 
0 
0 
0 
0 
0 
0 
0 
0 
0 
0 
0 
0 
0 
0 
0 
0 
0 
0 
0 
0 
0 
0 
0 
0 
0 
0 
0 
0 
0 
0 
0 
0 
0 
0 
0 
0 
0 
0 
0 
0 
0 
0 
0 
0 
0 
0 
0 
0 
0 
0 
0 
0 
0 
0 
0 
0 
0 
0 
0 
0 
0 
0 
0 
0 
0 
0 
0 
0 
0 
0 
0 
0 
0 
0 
0 
0 
0 
0 
0 
0 
0 
0 
0 
0 
0 
0 
0 
0 
0 
0 
0 
0 
0 
0 
0 
0 
0 
0 
0 
0 
0 
0 
0 
0 
0 
0 
0 
0 
0 
0 
0 
0 
0 
0 
0 
0 
0 
0 
0 
0 
0 
0 
0 
0 
0 
0 
0 
0 
0 
0 
0 
0 
0 
0 
0 
0 
0 
0 
0 
0 
0 
0 
0 
0 
0 
0 
0 
0 
0 
0 
0 
0 
0 
0 
0 
0 
0 
0 
0 
0 
0 
0 
0 
0 
0 
0 
0 
0 
0 
0 
0 
0 
0 
0 
0 
0 
0 
0 
0 
0 
0 
0 
0 
0 
0 
0 
0 
0 
0 
0 
0 
0 
0 
0 
0 
0 
0 
0 
0 
0 
0 
0 
0 
0 
0 
0 
0 
0 
0 
0 
0 
0 
0 
0 
0 
0 
0 
0 
0 
0 
0 
0 
0 
0 
0 
0 
0 
0 
0 
0 
0 
0 
0 
0 
0 
0 
0 
0 
0 
0 
0 
0 
0 
0 
0 
0 
0 
0 
0 
0 
0 
0 
0 
-1.618570094148867 
0 
0 
0 
0 
0 
0 
0 
0 
0 
0 
0 
0 
0 
0 
0 
0 
0 
0 
0 
0 
0 
0 
0 
0 
0 
0 
0 
0 
0 
0 
0 
0 
0 
0 
0 
0 
0 
0 
0 
0 
0 
0 
0 
0 
0 
0 
0 
0 
0 
0 
0 
0 
0 
0 
0 
0 
0 
0 
0 
0 
0 
0 
0 
0 
0 
0 
0 
0 
0 
0 
0 
0 
0 
0 
0 
0 
0 
0 
0 
0 
0 
0 
0 
0 
0 
0 
0 
0 
0 
0 
0 
0 
0 
0 
0 
0 
0 
0 
0 
0 
0 
0 
0 
0 
0 
0 
0 
0 
0 
0 
0 
0 
0 
0 
0 
0 
0 
0 
0 
0 
0 
0 
0 
0 
0 
0 
0 
0 
0 
0 
0 
0 
0 
0 
0 
0 
0 
0 
0 
0 
0 
0 
0 
0 
0 
0 
0 
0 
0 
0 
0 
0 
0 
0 
0 
0 
0 
0 
0 
0 
0 
0 
0 
0 
0 
0 
0 
0 
0 
0 
0 
0 
0 
0 
0 
0 
0 
0 
0 
0 
0 
0 
0 
0 
0 
0 
0 
0 
0 
0 
0 
0 
0 
0.4199265537613829 
0 
0 
0 
0 
0 
0 
0 
0 
0 
0 
0 
0 
0 
0 
0 
0 
0 
0 
0 
0 
0 
0 
0 
0 
0 
0 
0 
0 
0 
0 
0 
0 
0 
0 
0 
0 
0 
0 
0 
0 
0 
0 
0 
0 
0 
0 
0 
0 
0 
0 
0 
0 
0 
0 
0 
0 
0 
0 
0 
0 
0 
0 
0 
0 
0 
0 
0 
0 
0 
0 
0 
0 
0 
0 
0 
0 
0 
0 
0 
0 
0 
0 
0 
0 
0 
0 
0 
0 
0 
0 
0 
0 
0 
0 
0 
0 
0 
0 
0 
0 
0 
0 
0 
0 
0 
0 
0 
0 
0 
0 
0 
0 
0 
0 
0 
0 
0 
0 
0 
0 
0 
0 
0 
0 
0 
0 
0 
0 
0 
0 
0 
0 
0 
0 
0 
0 
0 
0 
0 
0 
0 
0 
0 
0 
0 
0 
0 
0 
0 
0 
0 
0 
0 
0 
0 
0 
0 
0 
0 
0 
0 
0 
0 
0 
0 
0 
0 
0 
0 
0 
0 
0 
0 
0 
0 
0 
0 
0 
0 
0 
0 
0 
0 
0 
0 
0 
0 
0 
0 
0 
0 
0 
0 
0 
0 
0 
0 
0 
0 
0 
0 
0 
0 
0 
0 
0 
0 
0 
0 
0 
0 
0 
0 
0 
0 
0 
0 
0 
0 
0 
0 
0 
0 
0 
0 
0 
0 
0 
0 
0 
0 
0 
0 
0 
0 
0 
0 
0 
0 
0 
0 
0 
0 
0 
0 
0 
0 
0 
0 
0 
0 
0 
0 
0 
0 
0 
0 
0 
0 
0 
0 
0 
0 
0 
0 
0 
0 
0 
0 
0 
0 
0 
0 
0 
0 
0 
0 
0 
0 
0 
0 
0 
0 
0 
0 
0 
0 
0 
0 
0 
0 
0 
0 
0 
0 
0 
0 
0 
0 
0 
0 
0 
0 
0 
0 
0 
0 
0 
0 
0 
0 
0 
0 
0 
0 
0 
0 
0 
0 
0 
0 
0 
0 
0 
0 
0 
0 
0 
0 
0 
0 
0 
0 
0 
0 
0 
0 
0 
0 
0 
0 
0 
0 
0 
0 
0 
0 
0 
0 
0 
0 
0 
0 
0 
0 
0 
0 
0 
0 
0 
0 
0 
0 
0 
0 
0 
0 
0 
0 
0 
0 
0 
0 
0 
0 
0 
0 
0 
0 
0 
0 
0 
0 
0 
0 
0 
0 
0 
0 
0 
0 
0 
0 
0 
0 
0 
0 
0 
0 
0 
0 
0 
0 
0 
0 
0 
0 
0 
0 
0 
0 
0 
0 
0 
0 
0 
0 
0 
0 
0 
0 
0 
0 
0 
0 
0 
0 
0 
0 
0 
0 
0 
0 
0 
0 
0 
0 
0 
0 
0 
0 
0 
0 
0 
0 
0 
0 
0 
0 
0 
0 
0 
0 
0 
0 
0 
0 
0 
0 
0 
0 
0 
0 
0 
0 
0 
0 
0 
0 
0 
0 
0 
0 
0 
0 
0 
0 
0 
0 
0 
0 
0 
0 
0 
0 
0 
0 
0 
0 
0 
0 
0 
0 
0 
0 
0 
0 
0 
0 
0 
0 
0 
0 
0 
0 
0 
0 
0 
0 
0 
0 
0 
0 
0 
0 
0 
0 
0 
0 
0 
0 
0.4469788622044312 
0 
0 
0 
0 
0 
0 
0 
0 
0 
0 
0 
0 
0 
0 
0 
0 
0 
0 
0 
0 
0 
0 
0 
0 
0 
0 
0 
0 
0 
0 
0 
0 
0 
0 
0 
0 
0 
0 
0 
0 
0 
0 
0 
0 
0 
0 
0 
0 
0 
0 
0 
0 
0 
0 
0 
0 
0 
0 
0 
0 
0 
0 
0 
0 
0 
0 
0 
0 
0 
0 
0 
0 
0 
0 
0 
0 
0 
0 
0 
-0.8651148846316586 
0 
0 
0 
0 
0 
0 
0 
0 
0 
0 
0 
0 
0 
0 
0 
0 
0 
0 
0 
0 
0 
0 
0 
0 
0 
0 
0 
0 
0 
0 
0 
0 
0 
0 
0 
0 
0 
0 
0 
0 
0 
0 
0 
0 
0 
0 
0 
0 
0 
0 
0 
0 
0 
0 
0 
0 
0 
0 
0 
0 
0 
0 
0 
0 
0 
0 
0 
0 
0 
0 
0 
0 
0 
0 
0 
0 
0 
0 
0 
0 
0 
0 
0 
0 
0 
0 
0 
0 
0 
0 
0 
0 
0 
0 
0 
0 
0 
0 
0 
0 
0 
0 
0 
0 
0 
0 
0 
0 
0 
0 
0 
0 
0 
0 
0 
0 
0 
0 
0 
0 
0 
0 
0 
0 
0 
0 
0 
0 
0 
0 
0 
0 
0 
0 
0 
0 
0 
0 
0 
0 
0 
0 
0 
0 
0 
0 
0 
0 
0 
0 
0 
0 
0 
0 
0 
0 
0 
0 
0 
0 
0 
0 
0 
0 
0 
0 
0 
0 
0 
0 
0 
0 
0 
0 
0 
0 
0 
0 
0 
0 
0 
0 
0 
0 
0 
0 
0 
0 
0 
0 
0 
0 
0 
0 
0 
0 
0 
0 
0 
0 
0 
0 
0 
0 
0 
0 
0 
0 
0 
0 
0 
0 
0 
0 
0 
0 
0 
0 
0 
0 
0 
0 
0 
0 
0 
0 
0 
0 
0 
0 
0 
0 
0 
0 
0 
0 
0 
0 
0 
0 
0 
0 
0 
0 
0 
0 
0 
0 
0 
0 
0 
0 
0 
0 
0 
0 
0 
0 
0 
0 
0 
0 
0 
0 
0 
0 
0 
0 
0 
0 
0 
0 
0 
0 
0 
0 
0 
0 
0 
0 
0 
0 
0 
0 
0 
0 
0 
0 
0 
0 
0 
0 
0 
0 
2.679543541464644 
0 
0 
0 
0 
0 
0 
0 
0 
0 
0 
0 
0 
0 
0 
0 
0 
0 
0 
0.06871148103178854 
0 
0 
0 
0 
0 
0 
0 
0 
0 
0 
0 
0 
0 
0 
0 
0 
0 
0 
0 
0 
0 
0 
0 
0 
0 
0 
0 
0 
0 
0 
0 
0 
0 
0 
0 
0 
1.834065575785554 
0 
0 
0 
0 
0 
0 
0 
0 
0 
0 
0 
0 
0 
0 
0 
0 
0 
0 
0 
0 
0 
0 
0 
0 
0 
0 
0 
0 
0 
0 
0 
0 
0 
0 
0 
0 
0 
0 
0 
0 
0 
0 
0 
0 
0 
0 
0 
0 
0 
0 
0 
0 
0 
0 
0 
0 
0 
0 
0 
0 
0 
0 
0 
0 
0 
0 
0 
0 
0 
0 
0 
0 
0 
0 
0 
0 
0 
0 
0 
0 
0 
0 
0 
-2.376579114493076 
-2.112655208128731 
0 
0 
0 
0 
0 
0 
0 
0 
0 
0 
0 
0 
0 
0 
0 
0 
0 
0 
0 
0 
0 
0 
0 
0 
0 
0 
0 
0 
0 
0 
0 
0 
0 
0 
0 
0 
0 
0 
0 
0 
0 
0 
0 
0 
0 
0 
0 
0 
0 
0 
0 
0 
0 
0 
0 
0 
0 
0 
0 
0 
0 
0 
0 
0 
0 
0 
0 
0 
-1.524714374694763 
0 
0 
0 
0 
0 
0 
0 
0 
0 
0 
0 
0 
0 
0 
0 
0 
0 
0 
0 
0 
0 
0 
0 
0 
0 
0 
0 
0 
0 
0 
0 
0 
0 
0 
0 
0 
0 
0 
0 
0 
0 
0 
0 
0 
0 
0 
0 
0 
0 
0 
0 
0 
0 
0 
0 
0 
0 
0 
0 
0 
0 
0 
0 
0 
0 
0 
0 
0 
0 
0 
0 
0 
0 
0 
0 
0 
0 
0 
0 
0 
0 
0 
0 
0 
0 
0 
0 
0 
0 
0 
0 
0 
0 
0 
0 
0 
0 
0 
0 
0 
0 
0 
0 
0 
0 
0 
0 
0 
0 
0 
0 
0 
0 
0 
0 
0 
0 
0 
0 
0 
0 
0 
0 
0 
0 
0 
0 
0 
0 
0 
0 
0 
0 
0 
0 
0 
0 
0 
0 
0 
0 
0 
0 
0 
0 
0 
0 
0 
0 
0 
0 
0 
0 
0 
0 
0 
0 
0 
0 
0 
0 
0 
0 
0 
0 
0.7051717702070171 
0 
0 
0 
0 
0 
0 
0 
0 
0 
0 
0 
0 
0 
0 
0 
0 
0 
0 
0 
0 
0 
0 
0 
0 
0 
0 
0 
0 
0 
0 
0 
0 
0 
0 
0 
0 
0 
0 
0 
0 
0 
0 
0 
0 
0 
0 
0 
0 
0 
0 
0 
0 
0 
0 
0 
0 
0 
0 
0 
0 
0 
0 
0 
0 
0 
0 
0 
0 
0 
0 
0.3872165720974725 
0 
0 
0 
0 
0.3299009059416491 
0 
0 
0 
0 
0 
0 
0 
0 
0 
0 
0 
0 
0 
0 
0 
0 
0 
0 
0 
0 
0 
0 
0 
0 
0 
0 
0 
0 
0 
0 
0 
0 
0 
0 
0 
0 
0 
0 
0 
0 
0 
0 
0 
0 
0 
0 
0 
0 
0 
0 
0 
0 
0 
0 
0 
0 
0 
0 
0 
0 
0 
0 
0 
0 
0 
0 
0 
0 
0 
0 
0 
0 
0 
0 
0 
0 
0 
0 
0 
0 
0 
0 
0 
0 
0 
0 
0 
0 
0 
0 
0 
0 
0 
0 
0 
0 
0.7711424848578323 
0 
0 
0 
0 
0 
0 
0 
0 
0 
0 
0 
0 
0 
0 
0 
0 
0 
0 
0 
0 
0 
0 
0 
0 
0 
0 
0 
0 
0 
0 
0 
0 
0 
0 
0 
0 
0 
0 
0 
0 
0 
0 
0 
0 
0 
0 
0 
0 
0 
0 
0 
0 
0 
0 
-4.557273334905987 
0 
0 
0 
0 
0 
0 
0 
0 
0 
0 
0 
0 
0 
0 
0 
0 
0 
0 
0 
0 
0 
0 
0 
0 
0 
0 
0 
0 
0 
0 
0 
0 
-2.535892055025596 
0 
0 
0 
0 
0 
0 
0 
0 
0 
0 
0 
0 
0 
0 
0 
0 
0 
0 
0 
0 
0 
0 
0 
0 
0 
0 
0 
0 
0 
0 
0 
0 
0 
0 
0 
0 
0 
0 
0 
0 
0 
0 
0 
0 
0 
0 
0 
0 
0 
0 
0 
0 
0 
0 
0 
0 
0 
0 
0 
0 
0 
0 
0 
0 
0 
0 
0 
0 
0 
0 
0 
0 
0 
0 
0 
0 
0 
0 
0 
0 
0 
0 
0 
0 
0 
0 
0 
0 
0 
0 
0 
0 
0 
0 
0 
0 
0 
0 
0 
0 
0 
0 
0 
0 
0 
0 
0 
0 
0 
-1.204295266147665 
0 
0 
0 
0 
0 
0 
0 
0 
0 
0 
0 
0 
0 
0 
0 
0 
0 
0 
0 
0 
0 
0 
0 
0 
0 
0 
0 
0 
0 
0 
0 
0 
0 
0 
0 
0 
0 
0 
0 
0 
0 
0 
0 
0 
0 
0 
0 
0 
0 
0 
0 
0 
0 
0 
0 
0 
0 
0 
0 
0 
0 
0 
0 
0 
0 
0 
0 
0 
0 
0 
0 
0 
0 
0 
0 
0 
0 
0 
0 
0 
0 
0 
0 
0 
0 
0 
0 
0 
0 
0 
0 
0 
0 
0 
0 
0 
0 
0 
0 
0 
0 
0 
0 
0 
0 
0 
0 
0 
0 
0 
0 
0 
0 
0 
0 
0 
0 
0 
0 
0 
0 
0 
0 
0 
0 
0 
0 
0 
0 
0 
0 
0 
0 
0 
0 
0 
0 
0 
0 
0 
0 
0 
0 
0 
0 
0 
0 
0 
0 
0 
0 
0 
0 
0 
0 
0 
0 
0 
0 
0 
0 
0 
0 
0 
0 
0 
0 
0 
0 
0 
0 
0 
0 
0 
0 
0 
0 
0 
0 
0 
0 
0 
0 
0 
0 
0 
0 
0 
0 
0 
0 
0 
0 
0 
0 
0 
0 
0 
0 
0 
0 
0 
0 
0 
0 
0 
0 
0 
0 
0 
0 
0 
0 
0 
0 
0 
0 
0 
0 
0 
0 
0 
0 
0 
0 
0 
0 
0 
0 
0 
0 
0 
0 
0 
0 
0 
0 
0 
0 
0 
0 
0 
0 
0 
0 
0 
0 
0 
0 
0 
0 
0 
0 
0 
0 
0 
0 
0 
0 
0 
0 
0 
0 
0 
0 
0 
0 
0 
0 
0 
0 
0 
0 
0 
0 
0 
0 
0 
0 
0 
0 
0 
0 
0 
0 
0 
0 
0 
0 
0 
0 
0 
0 
0 
0 
0 
0 
0 
0 
0 
0 
0 
0 
0 
0 
0 
0 
0 
0 
0 
0 
0 
0 
0 
0 
0 
0 
0 
0 
0 
0 
0 
0 
0 
0 
0 
0 
0 
0 
0 
0 
0 
0 
0 
0 
0 
0 
0 
0 
0 
0 
0 
0 
0 
0 
0 
0 
0 
0 
0 
0 
0 
0 
0 
0 
0 
0 
0 
0 
0 
0 
0 
0 
0 
0 
0 
0 
0 
0 
0 
0 
0 
0 
0 
0 
0 
0 
0 
0 
0 
0 
0 
0 
0 
0 
0 
0 
0 
0 
0 
0 
0 
0 
0 
0 
0 
0 
0 
0 
0 
0 
0 
0 
0 
0 
0 
0 
0 
0 
0 
0 
0 
0 
0 
0 
0 
0 
0 
0 
0 
0 
0 
0 
0 
0 
0 
0 
0 
0 
0 
0 
0 
0 
0 
0 
0 
0 
0 
0 
0 
0 
0 
0 
0 
0 
0 
0 
0 
0 
0 
0 
0 
0 
0 
0 
0 
0 
0 
0 
0 
0 
0 
