solver_type L1R_LR
nr_class 2
label 1 -1
nr_feature 98199
bias -1
w
-1.866262339929686 
0.3331806264055744 
0 
-1.49528083843766 
-0.9685645678283291 
0 
0.4724817219604775 
0 
0 
-0.2941702149153176 
2.12218144096478 
0 
0 
0 
0 
2.956248955752449 
1.239797073778215 
1.54507824045812 
1.065792366046416 
0 
0.9395139522165831 
0 
-0.3031697841992483 
0 
2.249327132475907 
0 
0 
0 
0 
1.069501043280253 
0.5345512010184104 
0 
0 
3.63062664124414 
0 
-0.5514218302761993 
0 
0 
0 
0 
0 
0 
-0.8719783347123979 
0.1027584609054815 
0 
-1.842281535869031 
0.5656095885733909 
0 
0 
-2.208772620456126 
0 
0 
-1.690225512477381 
0 
0 
0 
0 
0 
-0.2791522735415147 
0 
0 
-1.266228634178612 
1.355712142383452 
-1.592753314128069 
0 
-0.595677827914071 
0 
0 
0.97290446213833 
0.4382404843539096 
0 
1.231464038231129 
0.7759544154175728 
0 
0 
0 
0 
0 
0 
-0.2452855758951982 
0 
1.443326413127027 
1.268178273978187 
0 
0 
0 
0 
-2.05027874632948 
0 
0 
0 
-0.5720302403284558 
1.234856290012513 
0 
0 
0 
0 
-0.4109555892668957 
0.02742578096921996 
-0.4672122499690271 
0.0890560141607311 
0.05102552550411759 
0 
0 
0 
-0.6370156359400219 
-0.1769012478278716 
0 
-0.6700282234269227 
-1.313791495099573 
0 
0 
0 
0 
0 
0 
0 
0 
0 
0 
0 
2.470743927355342 
0 
0 
1.112583183312636 
0 
-0.4088870846381394 
0 
0 
-0.4602372982382313 
2.158893810941441 
-0.518101233521546 
-1.12286706809655 
-0.967659732495807 
0 
0.223767268224453 
0 
-1.586926587118098 
-0.5768667971441797 
0.216850665297851 
-1.804226735124567 
0 
0 
0 
0.4045846031223496 
0 
-1.621141490512875 
0 
0 
0 
0 
0 
0.205564055667137 
0.3396327608721557 
0 
0 
0 
0 
0.5826211732923141 
0 
-1.446477258775239 
1.865838777524067 
0.5678408016438886 
0 
1.171332075107665 
0 
0 
0 
0 
0 
0 
0 
0 
0 
0 
-2.164267317798053 
0.4852491901037298 
0 
1.748131789362954 
0 
0 
0 
0 
0 
-0.7087507447272724 
-0.3464042983792839 
0 
0 
0 
0 
0 
0 
0 
0 
-0.5074148549756791 
0 
-0.8053461911400175 
0 
0 
0 
-0.9767927594228288 
-0.3863282729082732 
0 
0.6217165416645671 
0 
0 
0 
-0.3824120723653298 
0 
0 
-0.3000476070845783 
0 
0 
-0.7754938738730378 
0 
-1.356105461831603 
0 
0 
0.1490671341776493 
0 
-1.265740994701664 
0 
-0.07793940059169593 
0 
0 
0 
0 
0 
0 
0 
-0.3664316341143621 
-1.454172316586322 
0 
0 
-0.1432325137465504 
-1.408800205746448 
0 
0 
0 
0 
0 
0 
-0.08082015090755575 
0 
-1.58629838965614 
0 
0 
0 
0 
0 
0.6800852798526474 
0 
-1.703303177082272 
0 
0 
0 
0 
0 
0 
-0.0895078399253952 
0 
0 
1.633267356270311 
0 
0 
0 
0 
0 
0 
-0.9308352545174258 
0 
0 
0 
0 
-0.1352888147583173 
0 
0 
0.6429456498944027 
-1.128104194939532 
0 
0 
0 
0 
0 
0 
-1.357315903027054 
0.7354079190925162 
0.2388349420149575 
0 
0.16890798827785 
-2.361470631471484 
0 
0 
-1.176202253758282 
0 
0 
0 
0.2226637667835372 
0 
0 
2.046200966772172 
0 
0 
0 
0 
0.6225041108065016 
0.7223331159228315 
1.268131849362637 
0 
0.20461017515809 
0 
0 
1.079795323720834 
0.0516962674966882 
0 
0 
0 
0 
0 
0 
0 
0.3008056930019024 
1.631942276974659 
0 
-0.2739897042419823 
-0.8708787908152391 
1.084847544766226 
0 
-0.9345448764190988 
-0.02275552053461618 
-0.3572063323772711 
0 
-1.108553358505464 
0 
0 
0 
-0.2123912072073192 
0 
0 
0 
-0.2450503722348899 
0 
0 
0 
0.8098965303348998 
0.5303838363966861 
0.0988861323833741 
0 
0 
0 
0 
-1.473003235637122 
-0.1512776100935135 
0 
-0.5954517588511415 
0 
0 
0 
0 
0 
0 
-1.300200786374856 
0 
0 
0 
-1.332018660080627 
0 
0.2751197156302562 
0 
0 
-2.558875977722884 
0 
0 
-1.091033766470127 
0.788090416641987 
-2.105749670964411 
0 
0 
-1.41702674434777 
0.7205516520764331 
1.427328085523568 
0 
0 
0.2803018627129822 
0 
0 
-0.8814751965757873 
0 
0 
0 
-0.5985760959678772 
-0.1644980584027945 
-0.3250300699706126 
0 
0 
0.3863891508490329 
0 
-0.9805384406971445 
0 
1.18011700069554 
0 
0 
0 
0 
-0.3422824210907972 
0 
-1.159164538766171 
0 
0.7371712019290193 
2.519432811385869 
0 
-1.527749198632464 
0 
0 
0 
0 
0 
0 
0 
0 
0 
-0.1966548602189188 
0 
0 
0 
0 
0 
-3.306869439196219 
1.132486839004506 
-1.505725872456075 
0 
0 
0 
0 
0.6560918463534168 
1.047648266113412 
0.4126463322342999 
-1.469527830519155 
0 
0 
0 
-1.181792418499099 
-2.086871022452127 
-0.5362723920152155 
0 
0.5747984261519054 
0 
0 
1.246483132804614 
0 
-3.353861596520222 
0 
0 
-2.010262342108268 
0 
0 
-0.8367580519803592 
-0.3099068464385809 
-0.1104493916950825 
-0.5613469692109678 
0 
-1.183186959292024 
0 
0 
0.4122486757107577 
-1.379170735751142 
-4.057095527999093 
0 
0 
0 
0 
0 
0 
0 
0 
0 
-1.439496926568187 
0 
0 
0 
0 
0 
0 
0 
0 
-1.418085090000123 
0 
0 
0 
1.395638876202529 
0 
0 
0 
0 
2.236432127139557 
0 
-0.8612220368815332 
-0.1572365069309289 
0 
0 
0 
0 
0 
2.076074474337203 
0 
0 
0 
-3.095701607479247 
0 
0.3200933541536752 
0 
1.073914465508532 
-2.915138194913887 
0 
-0.03263525790832073 
2.653875106893888 
1.332476114255337 
0 
0 
0 
0 
0 
0 
0 
-0.1840736744107246 
-0.1062786514103742 
0 
0 
2.215776480405785 
0 
0 
-1.326974444164878 
0 
0 
-1.22418692396555 
0 
-2.306473951516882 
0 
0.5637536177520193 
-0.2859833713361701 
0 
0 
0 
0 
0 
0.1346677027194597 
0 
0 
0 
0 
0 
0.381313191863338 
0.1807604062406494 
1.620544091462816 
0.1450148096021315 
0.9208914101844726 
0 
0 
-0.8676034226042658 
0 
0 
0 
0 
0 
0 
0 
0 
0 
-2.476460564476635 
0 
0 
0 
0 
0 
0 
0 
0 
0 
0 
0 
0 
0 
0 
-1.324683930676605 
0 
0 
0 
0 
-0.625136366083682 
0 
0 
0 
0 
0.7950676585769717 
0 
0 
0.4228340303167561 
0 
-0.6472198967959942 
0 
0 
0 
0 
1.544640835697117 
0 
0 
0 
0 
0 
0 
0 
0 
0 
0 
0 
0 
0 
-1.594590720483469 
0 
0 
-0.614245276472403 
-0.5405728206874398 
0 
0 
0 
0 
0 
0 
0.07911261085863137 
-0.9073395847040098 
1.49177294596695 
0 
0 
0 
-1.614794437099915 
0 
0 
-0.04942231790070786 
-0.3005055574074314 
0 
0 
0 
0.697733453389619 
1.058515592115711 
0 
0 
1.032917659206682 
0 
-1.297839982194801 
0 
0 
0 
-1.560717139846289 
0 
0 
0.2793861841763813 
0 
0 
0 
0 
0 
0 
0 
0 
-0.2000525793310198 
0 
-4.309791899654691 
-0.6345387417360621 
-0.4299881517241528 
0 
0 
-2.008613850853948 
0 
0 
0 
1.779345812929174 
-2.809580000268141 
-1.171207075137763 
0 
0 
0 
1.642569222766774 
0 
2.370653393976041 
0 
0 
0 
0 
-0.2141727245631109 
0 
0 
0 
0 
0 
0 
0 
0 
0 
0 
0 
0 
0 
0 
0 
0 
0 
0 
0 
0 
0 
-1.261510271908497 
0 
0 
2.5449817926603 
0 
0 
0 
-0.5049439133399272 
0 
0 
0 
0 
0 
0.327465984650183 
0 
0 
0 
0 
0 
0 
0.05175507378924954 
1.856499167752386 
0 
0 
0 
0 
-3.142982046456798 
0 
0 
0 
0.09574457650303359 
0 
0 
0 
-0.6242553331174336 
0 
0 
0 
0 
0 
0 
0 
0 
1.883900269541939 
0 
0 
0 
-0.6872739232521046 
0 
0 
0 
0 
1.565857005734006 
0 
0 
0 
-0.9509427180660428 
0 
0 
-2.547095995090796 
0 
0 
0 
0 
0 
0 
0 
0 
0 
0 
0 
0 
-0.08324951992694459 
-1.184083188306985 
0 
0 
0 
0 
3.166244454586671 
0 
0 
0 
0 
0 
0 
0 
0 
0 
0 
1.003856096840704 
1.952797053143974 
0 
0 
0 
0 
4.016718717371432 
0 
0 
0 
0 
-0.27028538796749 
0 
-0.2047303843573683 
-0.9084936901169165 
0 
0 
-0.048409499622659 
0 
2.505838215312876 
0 
0 
0 
0 
0 
0 
0 
0 
0 
0 
0 
0 
-1.61933201810332 
0 
0 
0 
0 
0 
0 
0 
0 
0 
0 
0 
0 
0 
0 
0.09438430236353268 
0 
0.2009835261967962 
0 
0 
0 
0 
0 
0 
0 
0 
0 
0 
0 
0 
0 
-0.5248224605971803 
0 
-0.02516863843407304 
0 
-1.501768477291032 
0 
0 
-1.871010494761061 
0 
-0.7320960089429909 
1.264811420411368 
-0.7001855405488435 
0 
0.09368812119025949 
-3.207742960677757 
0.4715812035998344 
0 
0 
0 
0 
0 
0.0809226969703435 
0.2441942449145942 
-0.2092258252781571 
0.4000125287764508 
0 
-0.586489146571812 
0 
0 
0 
0 
0 
-1.125750203038382 
-4.086123848277381 
0 
0 
0 
0 
0 
0 
0 
-1.670676637614566 
0 
0 
0 
0.1290802146798666 
1.475734897644204 
0 
0 
0 
0 
0 
0 
0 
0 
0 
0 
-2.157776950625458 
-1.296344503907138 
0 
0 
0 
0 
0.2378182617885754 
0 
0.6230231799295444 
0 
-0.1082730478520233 
0 
0 
0 
0 
0 
0.4853919420944874 
0 
-0.2287999001545942 
0 
0 
0 
0 
0 
0 
0 
0 
0 
0 
0 
0 
0 
0 
0 
0 
0 
0 
0.6312047222069033 
-0.6639620678681034 
-0.3205310254222175 
0 
0 
-0.378412016748188 
0 
0 
0 
0 
0.2377422355171278 
0 
0 
0 
0 
0 
0.4674806739416861 
0 
0 
0 
0 
0 
-0.08121222740629519 
0 
0 
0 
0 
3.034130855815839 
0 
0 
0 
0 
0 
0.9767010972152447 
0 
0 
0 
-0.223256688421016 
0 
0 
0 
0 
0 
0 
0 
0 
0.2099231561072743 
0 
0 
0 
0 
0.6193739217894098 
-2.122969014652542 
-1.264233882878376 
0 
0.5089827087266065 
0 
0 
0.6437487628221663 
0 
2.172155933823257 
0 
0 
0 
0.3662674041607267 
1.783943923484256 
0 
0 
0 
0 
-0.09606800499283567 
-0.154676369095736 
0 
0 
0.1414634565164983 
0.3960462106362089 
0 
0 
1.568011257834291 
0 
-0.2179112268333581 
0 
0 
-0.153849900727803 
0 
-0.2914237454390105 
0 
-1.77600091943444 
0 
0.3138180301656848 
0 
0 
0 
-0.9880660059256479 
0 
-1.215094039421466 
0.1435538770647033 
0 
0 
0 
0 
0 
0 
0 
0 
0 
0 
-0.7391625345695494 
0 
0 
0 
-0.1126662358309555 
0 
0 
0 
-0.1876614898014491 
0 
1.013386634745316 
0 
0 
-1.255585485588837 
0 
0 
0 
-0.1225273557426816 
0 
-0.5422913047636795 
0 
0 
-2.669764536390194 
0 
0 
-0.704728447315259 
0 
0 
0 
0 
-1.445865024155413 
-0.9897704683709515 
0.3018993411539173 
0 
0 
0 
0 
0 
0 
-2.042792609286584 
0 
0 
0 
0 
0 
0 
0 
0.1424841888507118 
0 
0 
0.6754320657253983 
0 
0 
0 
0.2095623182203738 
0 
-0.4292860945447589 
0 
0 
-2.968042765481867 
0 
-1.091685675437623 
0 
-0.144719120145684 
0 
0 
0 
0 
0 
0 
0 
0 
0 
0.6162022912593524 
0 
0 
0 
0 
0 
0 
0 
-0.8850743336535121 
0.8683108111501462 
1.156945293621872 
0 
0 
0.07377580155408973 
0 
0 
0 
0 
0 
0 
0 
-2.47210134412389 
0 
-1.308321444004963 
0.6154194014537687 
0.3501401908197472 
0 
-3.787165254823457 
-3.115280128803849 
-1.627781087959487 
0 
0 
0 
0 
1.2877520012515 
0 
0 
0.06748275808616945 
-1.082250441924959 
0.150168602014515 
-0.1376963237919665 
0 
0 
-1.08817343169391 
-2.583301733545417 
0 
0 
0.8044859968212275 
0 
0 
0 
0 
0 
-2.05201875111295 
0 
1.201848713364918 
0 
0 
0 
1.15118972952777 
0 
0 
0.04146437153436355 
0 
0 
0 
0 
0 
0 
1.155123539079183 
-0.05337777705243636 
0 
0 
-1.360817632981667 
-0.7519497648938267 
0 
0 
0 
0 
-1.423042533182153 
0 
0 
-0.6841430852727723 
0 
0 
0 
0 
0 
0 
0 
0 
-0.4556771572897446 
0.7021397271899315 
0 
0 
0 
0.2795860215083593 
0.312099837808151 
0 
0 
0 
0 
0 
0 
0.4053516015146823 
0.7792170674472286 
0 
0 
0 
0 
0 
-3.058186105408745 
0 
0 
0.4746246025682882 
0 
1.558458873833027 
0 
0 
0 
0 
0 
0.4196693781679017 
0.1088321278985129 
0 
-3.75282528604038 
-3.617834361423094 
0.8677224177956794 
0 
0.0002386361318740195 
0 
-1.975417178405767 
0 
-0.2088755010535899 
-1.059766912361199 
0 
0 
0 
0 
-1.326667291013635 
1.422949246206175 
0 
0 
0 
0 
0 
0 
-3.714863569963302 
0.09500377924806032 
0 
-0.7343552914782083 
0 
-1.55526477950793 
0.4636580063402769 
0 
-0.039030809554689 
0 
0 
0 
0.9917147038835781 
0 
0 
0 
1.232907175858613 
2.082113320797978 
-0.3010636380621742 
0 
1.786891394611963 
0 
-0.9834064758221597 
0 
0 
0 
-4.115901181451648 
-0.6319686967280925 
-0.2718269108429519 
0 
-0.592834879244355 
0 
-0.06045004104106411 
0 
-0.638812058463896 
-0.3777759130701567 
-0.2658748659141854 
0.3972647559066957 
0 
0 
0 
0 
0 
0 
-2.216656625559554 
-2.068711272183847 
0 
0 
0 
0 
0 
-1.066323019281949 
0.9852417145181067 
0 
0 
0 
-0.7084774067637734 
-0.3280996143246029 
-0.7329204208555908 
0 
0 
0 
0 
0 
1.054834364272595 
0 
0 
0 
0.6457998042846185 
0 
0 
0 
0 
0 
-1.396892643971648 
0 
0 
0 
0.5533160300025088 
0 
0.356925487965885 
0 
0 
0 
0.9210530609084264 
0 
0.5443638400964531 
-0.6296462447110606 
0 
0 
0 
0 
-0.9318732834789061 
0 
0 
0 
0 
0 
0 
0 
0 
0.2309093828951246 
0 
0 
0 
0 
0 
0 
-1.8175934089433 
0 
0 
0 
0 
-2.825134488265121 
0.03570046629668964 
0 
0 
0 
-1.229409701126714 
0 
0 
0.4482392719767428 
-1.773959272740527 
1.147907444048977 
0 
-0.8197804154306276 
0 
0 
0 
0.3705916694939334 
0 
0 
0 
0.9184695645337722 
0 
-0.254448219304258 
-1.370572285234107 
0.2795485883498551 
-2.29206925739408 
1.027777106241151 
0.288958482119809 
0 
0 
0 
-0.4998046711279633 
0 
-0.08499153405879115 
0 
0 
0 
0 
0.2672660157954657 
0 
0 
0.602005833899587 
0 
0 
0 
0 
0 
0.8353998879315522 
0.7694310742550813 
0 
0 
0 
0 
0 
0 
0 
0 
-0.5080612069425635 
0.3314657477091657 
0 
0 
-2.246691599724982 
0 
-0.3027645455979067 
0 
0 
-1.649862423696474 
0 
0 
-1.477983686877803 
-1.040527790039894 
0 
0 
0 
0 
0.5645145448720516 
0 
0 
0 
0 
0 
0 
0 
0 
-0.5014324731274429 
0 
0 
-1.189217655463487 
0 
0 
0 
0 
-0.6661341129949683 
0 
0 
0 
0 
-1.554590561488928 
0 
0 
1.548902187055307 
0 
0 
0.3729339646038046 
0.4489233808944072 
0 
0 
1.793715953566494 
0 
0 
0 
-0.8725605730576127 
-0.3838804971056007 
0 
0 
0 
0 
0 
0 
0 
0 
0 
0 
0 
0 
-1.247255527420891 
0 
0 
0 
0 
0.5385037029015989 
0 
0 
0 
-1.805270493418346 
0 
0 
0 
-6.747805366880765 
0 
0 
0 
0 
0 
0 
0 
0 
0 
0 
0 
0 
0 
0 
-0.3057005338873373 
0 
0 
-0.3502954089294412 
0 
0 
0 
-0.7069475277327125 
0 
0 
0.04490677348157399 
0 
0 
0 
0 
0 
0 
0 
0 
0 
0 
0 
0 
0 
-0.5659220282728812 
-0.1101058384957865 
0.8745402638256247 
0 
0 
0 
0 
0 
0 
-1.032653806383749 
0 
0 
0 
0 
0 
0 
0 
-3.147499302651489 
-1.609293588984804 
0 
2.446339466048627 
0 
0 
0 
-1.259746540743552 
0 
-0.2221930622485442 
0 
0 
0 
0 
0 
0 
0 
0 
0 
-2.071647014838733 
0 
0 
0 
0 
0 
0.4749970957667446 
0 
0 
0.8201682355095249 
0 
0 
0 
0.6874384751026427 
0 
0 
0 
1.181351808993313 
5.09495227849838 
0 
0 
0 
-0.9054960106066107 
1.292962713523569 
0 
0 
0 
0 
0 
-0.6108160465518386 
0 
0.6894868516328729 
0 
0 
0 
0.7577089383589879 
0 
0 
-0.146750441230136 
0 
-0.6071902820054328 
0 
0 
0 
0.2240831816469444 
0.1957030008138661 
0 
0 
-0.6387858255179163 
0 
0 
0 
0 
0 
0 
0.4310297442590693 
0 
0 
-1.912517731435108 
-1.880544471572557 
0 
0 
0 
0 
0 
0 
-1.752868058810361 
0 
0 
0 
0 
0 
0 
0 
0 
0 
0 
-3.015815063366631 
2.688020592428611 
0 
0.6787552839865075 
1.60721392094873 
0 
0 
0 
0 
0 
0.5228673501732585 
-1.391013891348184 
-0.6589763143002047 
0 
0 
0 
0 
0 
0 
0 
0 
0.6117997410703705 
0 
0 
0 
0 
0 
0 
0 
0 
0.431543025636543 
-0.3526036129990478 
0 
0 
-0.07000203860270565 
0 
0 
0 
0 
-0.8861403898101682 
-0.8592627852000803 
0 
0 
0 
0 
-0.6001349173776968 
0 
-0.4884098805035825 
0 
0 
0.6952860170220266 
0 
0 
0 
0 
0 
0 
-2.127406707321529 
0 
0.5045459274035599 
0 
0 
0 
-1.609864853892619 
0 
0 
0 
0 
0 
0 
0 
0 
0 
0 
0 
0 
0 
0 
0 
0 
0 
0 
-0.7097928875438803 
0 
0 
0.1462431176844793 
0 
0 
0 
0 
0 
0 
0 
0 
-0.9165171965539878 
0 
0 
-1.886697755884508 
0 
0 
0 
0 
0 
0 
0 
0 
0 
0 
0 
0 
0 
0 
0 
0 
-1.202066004500595 
0 
0 
0 
0 
0 
0 
0 
0 
0 
0 
0 
0 
0 
0 
0 
0 
0 
-0.2793907314852747 
-2.217472471722507 
0 
0 
0 
0 
0 
0 
0 
0.08889469477580145 
0 
0 
0 
0 
0 
0 
0 
0 
0.03929252993791139 
-1.673181144625782 
0 
0 
-1.434431255821165 
0 
0 
0 
0 
1.167938262225345 
0 
1.32083037007327 
0 
0 
0 
-0.9534513765202031 
0 
0 
0 
0 
0 
0 
0 
0 
0.1310960388537091 
0 
0 
0 
-0.7986039819983066 
1.557007760876551 
0 
0 
0 
0 
0 
3.043228979120116 
0 
0 
0 
0 
0 
0 
0 
0 
0 
0 
0 
0 
0 
0 
0 
0 
0 
0 
0 
0 
0 
-1.464885998304817 
0 
0 
0 
0 
0 
0 
5.683387483407379 
0 
0 
0 
0 
0 
0 
0 
0 
0 
0.01048632626755027 
-1.190965333331854 
0 
0 
0 
0 
0 
0 
-1.961950788920552 
0 
0 
0 
1.078487475280621 
0 
0.1247873521689272 
-0.1126891997297444 
0.2931220812276111 
-0.5374466688908655 
-0.5775490926143149 
1.169738150684775 
0 
0 
0 
0 
0 
0 
0 
-0.1645750227093416 
0 
0 
-0.6911563114200455 
-0.2938072198723042 
0 
0 
0 
0 
-0.8784762940881137 
0 
0 
-0.3942128408286353 
0 
0 
0 
0 
-0.3098218536083275 
0 
0 
0 
0 
0 
0 
0 
0 
-0.7620492679466566 
0 
0.5685914270755814 
0 
0.09787282864537771 
3.555657769778154 
-2.668010533838853 
0 
0.4786276280265807 
0 
0.5778118230734433 
0 
0 
0 
-0.8740899870965095 
0 
0 
0 
0 
0.5645577649454965 
0 
0 
0 
0 
0 
0 
0 
0 
0 
0 
0 
0 
0 
0 
0 
0 
0.6208892034150986 
0 
0 
0 
0 
0 
-0.08441847302651186 
0 
0 
0.3019380784728721 
0 
0.8342541652815195 
0 
3.250837022065463 
-1.810974151865499 
0 
-3.117820516738895 
0 
-2.036410341866892 
-0.1625414961648207 
0 
0 
0 
0 
-0.8493078969336703 
0 
0 
-0.3638083228007527 
0 
0 
0 
-0.4090552929716832 
-1.869473829760905 
0 
0 
-0.3998544408388333 
0.05950357133749101 
-1.203746013562842 
-1.605984982337955 
0 
0 
0 
-1.923674802567573 
-0.5444078817702645 
0 
3.573601885245674 
0 
0 
0.6367706678099405 
-0.8442473723022369 
0 
0 
0 
0.691648588059136 
0 
0 
0 
0 
0 
-1.080623353121622 
-0.1195350083417775 
-1.322046312798795 
0 
-3.02341848301521 
-0.4317214522965837 
0 
0 
-0.07297364086889001 
0 
0 
0 
0 
0 
0 
0 
-0.1951226672726971 
0 
-0.4077651058365102 
0 
0 
0 
0.04962310037268905 
0 
0 
-1.840875380477585 
0 
0 
0 
-0.920910613171137 
0 
0 
0 
0 
0 
0 
0 
0 
0 
-0.1313007857175975 
0 
0 
0 
0 
-1.589109876356775 
0 
0 
0 
0.5142500728161271 
0 
0 
0 
-0.009174356006418766 
0 
0 
-2.303557758035532 
0 
0 
-0.4479204082398771 
0 
0 
0 
0 
0 
0 
0 
0 
0 
0.4596864525629515 
0 
0 
0 
0 
0 
0 
0 
-1.061942830382751 
0 
0 
-0.1859973266045888 
0 
1.587189500830326 
0 
0 
0 
0 
0 
-1.60529181258156 
0 
0 
-2.687591028457663 
0 
0 
0 
0 
0 
0 
-1.093858214621933 
0 
0.1318452109697982 
0 
0 
-4.126226223847041 
0 
0 
0.461874723647334 
0 
0 
0 
0 
0 
0 
0 
0 
0.7245565116174644 
0 
-0.3598290388938686 
0 
-1.299576648379292 
0 
0 
0 
0 
0 
-1.123927820624441 
0 
0 
0 
-1.572979667956064 
0 
-0.5338950455721349 
0 
0 
0 
0 
0 
0 
0 
0 
0 
0 
0 
0 
0 
0 
-1.871412072017301 
-2.377544178719937 
0 
0 
0 
-0.6579720381537682 
0 
0 
0 
0 
0 
0 
0 
0 
0 
-2.588503749328205 
0 
0 
0 
0 
0 
0.1132389244964378 
0 
-0.3665988503259696 
0 
0 
0 
0 
0 
0 
0 
-0.2429399425407706 
0 
0 
0 
0 
0 
0 
-0.5122958114640346 
0.1942196524511237 
0 
-1.155838432628446 
0 
0 
0 
-0.7651830449955597 
0 
-2.980605870789439 
0 
-1.06745600024085 
0 
0 
0 
0 
-0.2299134135809654 
0 
0 
0 
0 
0 
0 
0 
0 
0 
0 
0 
0 
0 
0 
-0.12845127290532 
0 
0 
-1.334866240837811 
0 
0 
0 
0 
0 
0 
0 
0 
0 
0 
0 
-0.6050533541562637 
0.5096990341118912 
0 
0 
0 
0 
0 
0 
0.003306104450202795 
0 
0 
0.1046205808825082 
0 
-0.4994848563598408 
0 
0 
0 
0 
0 
0 
0 
1.707700003613408 
0 
0 
-0.02356536851657762 
0 
0 
0 
-0.8431497861010181 
0 
0 
0 
0 
0 
0 
0 
0 
0 
-0.3049814484553438 
0 
-0.5866523544150473 
0 
0 
0 
0.4551919529913331 
0 
0 
0 
0 
0 
0 
-0.06827936492443458 
0 
-2.463663274134271 
-1.154268799046484 
0 
0 
0 
0.2243030107911919 
0 
0 
0 
0 
0 
-0.6291293054128517 
0.3156521143396748 
-0.8020516006856169 
0 
0 
1.575521078070353 
0 
-0.988687159707931 
1.157759425030599 
0 
0 
0 
0 
0.1161032675653112 
0 
0 
0 
0 
2.806350755998823 
0 
0 
0 
0 
0 
0 
0 
0 
0 
0 
0 
0 
0.3745938734257131 
-0.1527179811230624 
-0.4717395425901003 
0 
0 
0 
0.932384732934803 
0 
0 
0.8104057889701835 
0 
0 
0 
0 
0 
-0.3467585145004979 
0 
0 
0 
0 
0 
0 
0 
0 
0 
0 
0 
0 
0 
0 
0 
0 
0 
0 
0 
-0.2664802198252912 
0 
0 
0 
0 
0 
2.520851750800804 
0 
0 
0 
-4.426014770001981 
0 
0 
0 
0 
0 
0 
0 
0 
0 
0 
0 
0 
0 
0 
0 
-1.099752870516974 
-1.552018679974682 
0 
0 
-1.471662123759935 
0.7670121271354512 
0 
0 
-0.9312385183647709 
0 
0 
0 
0 
0 
0 
0 
0 
0 
0 
0 
0 
-1.137607672269014 
0 
0 
0 
0 
0.04298286773893283 
0 
-0.5664171100451266 
0 
-0.9840812179690687 
0 
0 
0 
0 
0 
0 
0 
0 
0 
0 
0 
0 
0.6575359302636478 
0 
0 
0 
3.338034982691575 
0 
0 
0 
0 
0 
0 
0.9440272848248154 
-0.01066778683597541 
0 
0 
-1.317485932002128 
0 
-0.8239116384794916 
0 
0 
0 
-0.557748913897826 
-2.014539633948905 
0 
0 
-2.413298636358219 
0 
-0.2802750107127453 
0 
0 
0 
0 
0 
0 
0 
0 
-0.3910572509735901 
0 
0.1664754112427637 
0 
0 
0 
0 
0 
-1.00788769887513 
0 
0 
0 
0 
0 
0 
0 
0 
0 
0 
-0.905342273346878 
0.1451595155826015 
0 
0 
0 
0 
0 
0 
0 
0 
0 
0.9357441580254814 
0 
0 
0 
0 
0 
0 
0 
0 
0 
0.8626374160077718 
0 
0 
0 
0 
-0.07462533696528623 
0.2920140338909274 
0 
0 
0 
0 
0 
0 
0 
0 
0.618829788117689 
0 
0 
0 
0 
0 
0.4213349848392476 
0 
0 
0 
0 
-0.5811123261056566 
0 
0 
-1.638178975372837 
0 
0 
0 
0 
0 
0 
0 
-0.7907031788557432 
0 
0 
0 
0 
-1.106228639190634 
0 
-1.543304532441137 
-4.225417051426429 
0 
0 
0 
0 
0 
0 
-0.8019948962495331 
0 
0 
-1.46146167596858 
0 
0 
0 
0 
-0.5198947500526251 
0 
1.290552507713838 
0 
0 
0 
0 
0 
0 
0 
0 
0 
0 
0 
0 
0 
0 
0 
0 
-0.7292710732363997 
0 
-0.4160633076583115 
0 
0 
0 
0 
0 
0 
0 
0.001364112291568991 
-0.1582714232002248 
-1.048342235537894 
0 
0 
0 
0 
0 
0 
-0.2770183921257315 
0 
0.281519228216322 
0 
1.954133483421387 
0 
0 
-0.1060746998116606 
0.2640275276909945 
0 
0 
0 
0 
-0.1251012091051508 
0.2039976009385636 
-0.7236743328396866 
0 
0 
0 
0.8036097912799596 
0 
0 
0 
0 
0 
0 
0.31241605301874 
0 
0 
0 
0 
0 
0 
0 
0 
-2.260651119043748 
0 
0 
0 
0 
0 
0 
0 
0 
0 
0 
0 
0.4479926992060396 
0.6260297003776408 
0 
0 
0 
0 
0 
0 
0.05082334671366488 
0 
0 
0 
0 
-0.585551466482091 
0 
0 
0 
-0.8367472415616324 
0 
-0.862112985890826 
0 
0 
-0.2847925099068834 
0 
0 
0 
0 
0 
0 
0 
0 
0 
0 
-0.2247975308932744 
0 
1.399794384733525 
0 
-0.2841444766580804 
0 
-0.636042094678157 
0 
0 
0 
2.795739161086922 
0 
0 
5.014949363264676 
0 
0 
0 
0 
0 
0 
1.633356835199251 
0 
0 
0 
-1.708208852009665 
0 
0 
1.152132350023498 
-0.6376065557087337 
0 
0 
0 
0 
0 
0 
0 
0.05199848379048778 
0 
0 
0 
0 
0 
0 
0 
0 
0 
0 
0 
0 
0 
0 
0 
-1.7593808365183 
0 
0 
-2.326162835715936 
0 
0 
0 
0 
0 
-0.07244569939990259 
0 
0 
0 
0 
0 
0 
0.1716869461092483 
0 
0 
0 
0 
-1.565118945822683 
0 
0 
0 
0 
0 
0 
0 
0 
0 
-0.08499631797705491 
-0.475386350249852 
0 
0 
0 
0 
0 
0 
0 
0 
0 
-0.7812175296158155 
0 
0 
0 
0 
0 
1.453332864942814 
0 
0 
0.8210438112941878 
0 
0 
0 
0 
0 
0.7923638266544559 
-0.01303438121285747 
0 
0 
0 
0 
-0.5529574514813526 
0 
3.273176148488085 
0 
0.07986957443127114 
0 
-0.2530104370536254 
0 
0 
0 
0 
0 
0 
0 
0 
0 
0 
0 
0 
0 
0 
0 
0 
0 
-1.925335685251809 
0 
0 
0 
0 
0 
-1.697689394805578 
-0.8363460873606857 
0 
0 
0 
-0.4854564594188531 
0 
1.002095619460301 
-0.8852235477558142 
0 
0 
-0.2339213207138726 
0 
0 
0 
0 
0 
0 
0 
0 
0 
0 
0.9050086279898609 
0 
1.347500181773403 
0 
0 
0 
0 
-0.416371992297479 
0 
0 
0.2239340755795471 
0.09940413566388048 
0 
2.222004685428572 
0.8261956953611048 
0 
0 
0 
0 
0 
0 
-0.07088874665324006 
0.3108364674083798 
1.10165147067426 
0 
0 
0 
0 
0 
0 
-3.506183226292645 
0 
0 
0 
0 
0 
0 
0 
2.260702352892503 
0 
-2.04899191418502 
0 
0 
0 
-0.4393927325395584 
2.042073602234971 
0 
0 
0 
0 
0 
0 
0 
0 
0 
0 
-0.4518049965257219 
1.801603964062568 
0 
0.5051805655932564 
0 
0.115203307864174 
-0.4744982966405008 
0 
0 
0 
0 
-0.8111862582213462 
0 
0 
-0.3838193302501045 
-0.8445534009694626 
0.02361142485594922 
0 
0 
0 
0 
-2.002221483892892 
0 
0 
-2.562169564147668 
0 
0 
0 
0 
0 
0 
0.9947874204722395 
0 
0 
0 
0 
0 
0 
0 
-0.515517315717258 
-0.1903476880341185 
0 
0 
0 
-0.2266208520922384 
0 
0 
0 
0 
0 
-5.117969492942289 
0 
0 
0 
0 
0 
0 
0 
0 
0.6542213372723253 
0 
0 
-0.3719463004279717 
1.37874088598875 
1.597962700861189 
0 
0 
0 
0 
0 
0 
0 
0 
0 
0 
0 
0 
0 
0 
0 
0 
0 
0.5930345151354659 
0 
0 
0 
0.4094985128438743 
0 
0 
1.911286964349399 
0 
-1.321968879289514 
0.188915594753119 
0 
0.5129530219961774 
0 
0 
0 
0 
-2.147734174658884 
0 
1.234628027978074 
0 
-1.276899762403953 
0 
0 
0 
0 
0 
0 
0 
0 
1.551868601668205 
0 
0 
-0.1448089027586411 
0 
0 
0 
0 
0 
-0.4451493062756707 
-0.5270787961935715 
0 
0 
1.126480479949703 
0 
0 
0 
0 
0 
0.07686790158847018 
0 
0 
0 
0 
0 
0 
0 
0 
0 
0 
0 
0 
0 
-0.1678770332307955 
0 
0 
0 
-1.194162210634143 
0 
0 
-0.5512412231403542 
0 
0 
0 
0 
0 
0.2466141055483875 
0 
-3.660694931950281 
0 
0 
0.2789301721245956 
0 
0 
0 
0 
0 
0 
0 
0 
0 
0 
0 
0 
0 
0 
0.2790542796448205 
0 
0 
0 
-0.05632759181292472 
0 
0 
0 
0 
0 
0 
0 
0.5982942233040728 
0 
0 
-0.6103914368076034 
0 
0 
0 
0 
0 
0 
0 
0 
0 
0 
0 
0 
-1.416474522486102 
0 
0 
0 
0 
0 
0 
0 
0 
0 
0 
0 
0 
0 
0 
0 
0 
0 
0 
0 
0 
0 
0 
0 
0 
0 
-2.448085142300876 
0 
0 
0 
0 
0 
1.470604237475103 
0 
0 
-0.2451852802896149 
-0.6774490401265018 
-0.1145786678478255 
0.612645997405329 
0 
0 
0 
0.213743466340893 
0 
0 
0 
0 
0 
0 
0 
-1.619395761206566 
0 
0 
0 
0 
0 
0 
0 
0 
0 
0 
0.3025508240389667 
2.359088470936308 
0 
0 
0 
0 
0.2551601754624445 
0 
0 
0 
0 
0 
0 
0 
0 
0 
0.7197140796205347 
0 
0 
0 
0 
0 
0 
0 
0 
0 
0 
0.4630592634413889 
0 
0 
0 
-0.584903187991365 
-2.205298764183881 
0 
0 
0 
-1.397851282719144 
-0.9301161156810246 
0 
-1.061277462158681 
0 
0 
0 
0 
0 
0 
0 
0 
0 
3.276487614875302 
0 
0 
0 
0 
0 
0 
-2.132107257747019 
-0.3655529520729469 
0 
0 
-4.878192853471041 
0 
0 
0 
1.214351797566982 
-0.6743714295106126 
0 
0 
-0.2046684378683681 
0 
0 
0.7423292242239832 
0 
0 
0 
2.012462973056273 
0 
0 
0 
0 
0 
0 
0 
0 
0 
0 
0 
0 
0 
0 
0 
0 
0 
0 
0 
0 
0 
0 
0 
0 
0 
-0.2368383462859607 
0 
0 
0 
0 
0 
0 
-0.2172462344481905 
0 
0 
0 
0 
0 
-4.711957761822278 
0 
1.374085338436566 
0 
0 
0 
0 
0 
0 
0 
0.7558420702674951 
0 
0 
0 
0 
0 
0 
0 
0 
0 
0 
0.09503871426406017 
0 
0 
-1.205025043975884 
0.2334996708306213 
-0.6012511740401284 
0 
0 
0 
-0.1008950779721081 
0 
0 
0 
0 
0 
0 
0 
-1.271319316813824 
-1.716657922066708 
0 
0 
0 
0 
0 
0.4694985763782236 
-0.1716630632464943 
0 
0 
0 
0 
0 
0 
0 
-2.069654285226214 
0 
-0.03173745731900628 
0 
0 
0 
0 
0 
0 
0 
0 
0.1389069707549505 
1.812942258467442 
0 
0 
0 
1.402950368174951 
0 
0 
0 
0.06040436902658754 
0 
-1.327604873460592 
0 
0 
0 
0 
0 
0.3030051343150854 
0 
0 
0.02211136197022667 
0 
-0.9126271961388439 
0 
1.641911426485268 
-0.7298196674821678 
0 
0.7456556005206516 
0 
-1.908651264361303 
0 
0 
0 
0 
0 
0 
0 
-0.3783157494478263 
0 
-1.036865036440241 
0 
-2.271512457100731 
0 
1.05744657244952 
0 
0 
0 
0 
0 
0 
0 
0.400855146541687 
-0.1653615776154031 
0 
0 
0 
0.4092465301728171 
0 
0 
0 
0 
0 
0 
0 
0 
-2.307717292068951 
0 
0 
0 
0 
0 
0 
0 
0 
0 
0 
0 
1.767426424709921 
0 
1.210837336638292 
0 
-0.5105088711885538 
0 
0 
0 
-2.004186161600247 
-0.2471036120489812 
0 
0 
0 
0 
0 
0 
0 
0 
0 
0 
0 
0 
0 
0 
0 
0 
0 
0 
0 
0.3226821530979358 
0 
0 
0 
0 
0 
0 
0 
0 
0 
0 
-2.661932599412613 
-0.708900469980627 
-1.190143758277527 
-0.8216505647779449 
0 
0 
0 
0 
0 
-2.087424850010285 
0 
0 
0 
0 
0 
0 
-1.247039548621266 
1.531258190123889 
0 
0 
0 
0 
0 
0 
0 
0 
0 
0 
0 
0 
0 
0 
0 
0 
0 
0 
0 
0 
0 
0 
0 
0 
0 
0 
0 
0 
0 
0 
0 
0 
0 
0 
0 
0 
0 
0 
0 
0 
0 
0 
0 
0.07589678692591613 
0 
0 
0 
-1.159958228734148 
0 
0 
0 
-0.1241156008086367 
0 
0 
0 
1.885776230191647 
1.318901693857492 
0 
-0.3136469596349311 
0 
0 
0 
0 
2.070648402053292 
0 
0 
0 
0 
0.09321945192628216 
-1.230356999069677 
0 
0 
0 
0 
-0.05419695453586623 
0 
0.08952118483654148 
0 
0 
0 
0 
0 
0 
0.3572230566313525 
0 
0 
0 
0 
0 
0 
0 
0 
0 
2.611791429277445 
0 
0 
0 
0 
0 
0 
0 
-1.020995751072332 
0 
0 
0 
0 
0 
0 
0 
0 
-0.06105650781916759 
0 
0 
0 
0 
0 
0 
0 
0 
0 
0 
0 
0 
0 
0 
0 
0 
0.4010354920902983 
0 
1.32339803856642 
0 
0 
0 
0 
0 
0 
-1.983020041758101 
0 
-0.3821534891604714 
0 
0 
0 
0 
0 
0 
0 
0 
0 
-0.4451893654271585 
-0.3009649001459561 
0 
0 
0 
-0.2079044460305258 
0 
0 
0 
0 
-0.4035646236507313 
0 
0 
0.06259857809478936 
0 
0.7277512342013147 
0 
0 
0.3800300445288592 
0 
0 
0 
0 
0 
0 
0 
0 
0 
0 
0 
-2.319932113076675 
0 
0.4447224817801227 
0 
0 
0 
-2.169192659241328 
0 
0 
0 
0 
-0.5281524264568535 
0 
0 
0 
0 
0 
0 
0 
0 
0 
0 
0 
0 
0 
0 
0 
0 
-1.740959930184273 
0 
0 
0 
-0.7688385580702939 
0.3730727832696735 
0 
0 
0.8011572386025977 
0.4255546599036002 
0.2226888031343535 
0 
0 
-0.5638780692620548 
0 
0 
-1.033029750618514 
0 
0 
0 
0 
-1.265639117025758 
0 
0.2441838020512388 
0 
0 
0 
0 
-1.764108697500214 
0 
0.4201381098878033 
0 
-1.825825527335916 
0 
0 
0 
-1.746933033464001 
0 
0 
0 
0 
-6.921399568431681 
-5.21044213912081 
0.07120492832009985 
0 
0 
0 
-0.5438577146763172 
0 
-0.4407607099224231 
0 
0 
1.386139164476598 
0 
0 
0 
-0.5251277427569993 
0 
0 
0 
0 
0 
0 
0 
0 
0 
0 
-1.377577452923691 
0 
0 
0 
0 
0 
-1.078387158398058 
0 
0 
0 
0 
0 
0.0432201535843762 
0 
0 
0 
0 
0 
0 
0 
0 
0 
0 
0.1691456833239574 
0 
0 
0 
0 
0 
0 
0 
0 
0 
0 
0 
0 
0 
0 
0 
-0.00565711779088638 
0 
0 
0 
0 
0 
-0.2595350736448374 
0 
0 
0 
0 
0 
0 
1.090652748904741 
0 
0 
0 
0 
0 
0 
0 
0.7574175399693832 
-0.0597670406735859 
0 
0 
0 
0 
0 
-1.000874469607767 
0 
0 
0 
0 
0 
0 
0 
-0.2456526231517708 
0 
0 
0 
0 
0 
0 
0 
0 
0 
0.1570834022122202 
0 
0 
-0.3567705720249336 
1.308069620818968 
0 
0.5639025322185232 
0 
0.9330887926353647 
0 
0 
0 
0 
0 
0 
0 
0 
-0.9475374121359813 
0 
0 
0 
0 
-1.811132507975313 
0 
0.8719296749238239 
0 
0 
0 
0 
0 
0 
0 
2.027840514562927 
-0.6240526295276196 
0 
0 
0 
0 
0 
0 
0 
0 
0 
0 
0 
0 
0 
0 
0 
0 
0 
0 
0 
0.5500007880856219 
0 
-0.8143647075306115 
0 
0 
0 
0 
-1.166030647830492 
0 
0 
0 
0 
0.9166657923651596 
0 
0 
0 
0 
0 
0 
0 
0.1243683876415515 
0 
0 
0 
0 
0 
0 
0 
0 
2.96228459527631 
0 
0 
0 
0 
0 
0 
0 
-0.8043360295741441 
0.4363034171531182 
0 
0 
-2.347800153648512 
0 
-0.9146323872998785 
0.1053158470702107 
0 
-1.771335185688754 
0 
0 
0 
0 
0 
1.163734805851092 
0 
0 
-0.3628815396731723 
0 
0 
0 
0 
0 
0 
0 
0 
0 
0 
0 
0 
0 
0 
0 
0 
0.8188448499438492 
0 
0 
0 
0 
-1.972871172132022 
0.9926713661230887 
0 
0 
0 
0 
0 
0 
0 
0 
0 
0 
0 
0 
0 
0 
0 
0 
12.46992662301522 
-0.4951280442133625 
0 
0 
0 
0 
0 
0 
0 
0 
0 
0 
0 
0 
0 
-1.107462799513039 
0 
0 
0 
-0.8142453204114 
0 
0 
0 
0 
0 
0 
0 
0 
0 
-0.8050460582191601 
0 
0 
0 
-1.852680959702022 
0 
0.2594334301693657 
-1.848571531621243 
-0.6887163719153425 
0 
-0.1389955638329621 
0 
0 
0 
-1.431142201420776 
0 
0 
-0.5408604326252234 
0 
0 
0 
-0.9680666293527089 
0 
-0.6939544336344516 
0 
0 
0 
0 
0 
0 
0 
0 
0 
0 
0 
0 
0.4840321216105508 
0 
0 
0 
0 
0 
0 
-0.5446199194363687 
0 
0 
0 
0 
0 
0 
0 
0 
0 
-0.362851926714356 
0 
0 
0 
0 
0 
0 
0 
0 
0 
0 
0 
0 
-1.364728151294417 
0 
0 
0 
0 
0 
0.5380339486968612 
0 
0 
0 
0 
0 
0 
0 
0 
0 
0 
0 
0 
0 
0 
0 
0 
0 
0 
0 
0 
0 
0 
0 
0 
0 
0 
0 
0 
0 
0 
0 
-1.05674769828972 
0 
0 
0 
0 
0 
0 
0 
0 
0 
0 
0 
0 
0 
-0.7055759321022339 
0 
0 
0 
0 
0 
0 
0 
0 
0 
0 
-0.7561792985720098 
0 
-0.8590812361080369 
0 
0 
0 
-2.117821841425509 
0 
-0.8001108308909325 
0 
0 
0 
0 
0 
0 
0 
0 
0 
0 
0 
0 
3.345589653694769 
0 
0 
0 
0 
0 
0 
0.2855544339929197 
0.7799978737283745 
0 
0 
0 
0 
0 
0 
0 
0 
0 
0 
0 
0 
0 
0 
0 
0 
0 
-4.227045756949841 
0 
-3.318905247850107 
0.6703845250811398 
0 
0 
0 
0 
0 
0 
0 
0 
0 
-0.3381293383951398 
0 
0 
0 
0 
0 
0 
0 
0 
0 
0 
0 
-0.7158462187861201 
0 
0.2130306625514997 
0 
0 
-3.767797993754053 
0 
0 
0 
-1.641308843008916 
0 
-1.228145376653654 
0 
0 
0 
0 
0 
0 
0 
0 
0 
0 
-0.2574032285122951 
0 
0 
0 
0 
0 
0 
0 
0.2404754962650678 
0 
0 
0 
0 
0 
-0.8220482555704708 
0 
0 
-0.3924092683993682 
0 
0 
0 
0 
0 
2.480193843606383 
0 
0 
0 
0 
0 
0 
0 
0 
0 
0 
0 
0 
-1.514248449361683 
0 
0 
0 
0 
0 
1.470869831722815 
0 
0 
0 
0 
0 
0 
0 
0 
0 
0 
0 
0.7245700483648546 
0 
0 
0 
0 
0 
0 
0 
0 
0 
0 
0 
-0.4486279986029622 
0 
0 
0 
0 
0 
0 
-0.8397810821737061 
0 
0 
0 
0 
0 
0 
0 
0 
-0.3118843099426293 
0 
-1.013630964023115 
0 
0 
0 
0 
0 
0 
0 
0 
0 
0 
0 
0 
0 
0 
0 
0 
0 
0 
0 
0 
0 
0 
0 
0 
0 
0 
0 
0 
0 
0 
0 
0 
0 
0 
0 
0 
0 
0 
-0.9541262617027836 
0 
0 
0 
0 
0 
0 
0 
0 
0.3594600715028233 
0 
0 
0 
0 
0 
0 
0 
0 
0 
0 
0 
-0.6958357449637594 
0 
0 
0 
0 
0 
0 
0 
0 
0 
0 
0 
0 
0 
0 
0 
0 
0 
1.728667861761841 
0 
0 
0 
-0.3198718678037296 
0 
0 
0 
0 
0 
0 
0 
-2.330151293776806 
1.197823782946315 
0 
0 
0 
0 
0 
0.08910251095987465 
0 
0 
0 
0 
0 
0 
0 
0 
0 
0 
0 
0 
0 
0 
0 
0 
0 
0 
0 
0 
0.3903102726730927 
0 
0 
0 
0 
0 
0 
0 
0 
0 
0 
0 
0 
-1.264001083041768 
0 
0 
0 
0 
0 
0 
0 
0 
0 
0 
0.4238134190870545 
0 
-0.4653493547817745 
0 
0 
0 
0 
0 
0 
0 
0 
0 
0 
0 
0 
0 
0 
0 
0 
0 
0 
0 
0 
0 
0 
0 
-1.960819138789846 
0 
0 
0 
0 
0 
0 
0 
0 
0 
0 
0 
0 
0 
0 
0 
0 
0 
-0.9197616884717846 
0 
0 
0 
-3.421644498633141 
0 
0 
0 
0 
-0.4754022014901334 
0 
0.4923283386353857 
0 
0 
0 
0 
-0.1642465097087737 
0 
0 
0 
0 
0 
0 
0 
0 
0 
0 
0 
0 
0 
-0.5451760933998485 
0 
0 
0 
0 
0 
0 
0 
0 
0 
0 
0 
0 
0 
-0.06325715138261137 
0 
0 
0 
0 
0 
0 
0 
0 
0 
0 
0 
0 
0 
0 
0 
0 
0 
0 
0 
0 
0 
0 
0 
0 
0 
0 
0 
0 
-0.5631828386419167 
0 
-1.0109600262091 
0 
0 
0 
0 
0.02161801696618615 
1.042366935496117 
0 
0 
0.09065297582885588 
0 
0 
0 
0 
0 
0 
0 
0 
0 
0 
0 
0 
0 
0 
0 
0 
0 
0 
0 
0 
0 
0 
0 
0 
0 
-4.442461083002944 
0 
-2.348868902696372 
0 
0 
0 
0 
0 
0 
0 
0 
0.3389304678554309 
0 
0 
0 
0 
0 
0 
0 
0 
0 
0.8638101898435134 
0 
0 
-0.9548707034599144 
0 
0 
0 
0 
0 
0 
0 
0 
0 
0 
0 
0 
0 
0 
0 
0 
0 
0 
0 
0 
0 
0 
0 
0 
0 
0 
0 
-1.416348796440933 
0 
0 
0 
-3.840361493107789 
0 
0 
0 
0 
0 
0 
0 
0 
0 
0.6447001233475065 
0 
0 
0 
0 
0.4641233881952376 
0 
0 
0 
0 
0 
0 
0 
0 
-0.7308480933193161 
0 
0 
0 
0 
0 
0 
0 
0.746951320825719 
0 
0 
-0.93801019109318 
0 
0 
0 
0 
0 
0 
-1.297026327125308 
0 
0 
0 
0 
0 
0 
-1.120777134663587 
0 
0 
0 
-0.6669545482370292 
-0.05677427878465767 
0 
0 
0 
0 
0 
0 
0 
0 
0 
0 
0 
0 
0 
0.3368313634298652 
0 
0 
0 
0 
0 
0 
0 
1.10864935153763 
0 
0 
0 
0 
0 
0 
-0.9766053058374293 
0.590223280422249 
0 
0 
0 
0 
0 
-1.567505312866502 
0 
0 
0 
0 
0 
0 
0 
0 
0 
0 
0 
0 
0 
0 
0 
0 
0 
0 
0 
-3.542260199259645 
0 
0 
0 
0 
0 
0 
0 
0 
0 
0 
0 
0 
0 
0 
0 
0 
0 
0 
0 
0 
0 
0 
0 
0 
0 
0 
0 
0 
0 
0 
0 
0 
0 
0 
0 
0 
0 
0 
0 
0.1513757372025872 
0 
-0.2868479286982434 
0 
0 
0 
0 
0 
0 
0 
0 
0 
0 
0 
0 
0 
0 
0 
0 
0 
0 
0 
0 
0 
0 
0 
0 
0 
0 
0 
0 
0 
0 
0 
0 
-2.699588936459415 
0 
0 
0 
0 
0 
0 
0 
-0.1319533323627984 
0 
0 
-0.3900702079388275 
0 
0 
0.3409763445903903 
0 
1.071919036500836 
0 
0 
0 
0 
0 
0 
0 
0 
0 
0 
-3.973302039949879 
0 
0 
0 
0 
0 
0 
0 
0 
0 
0 
0 
0 
0 
0 
0 
0 
0 
0 
0 
0 
0 
1.824516560718022 
-0.8266999442514393 
0 
0 
0 
0 
0 
0.3389495294581856 
0 
0 
0 
-1.169098229402703 
1.295996985188806 
0 
0 
0 
0 
0 
0 
0 
0 
-1.220222598366687 
0 
0 
0 
0 
0 
0 
0 
0 
0 
0 
0 
0 
0 
0 
0 
0 
0 
0 
0 
0 
0 
0 
0 
0 
0 
0 
0 
0 
0 
0 
0 
0 
0 
0 
0 
0 
-1.10606014668159 
0 
0 
0 
0 
0 
0 
0 
0 
0 
0 
0 
0 
0 
0 
0 
0 
0 
0 
0 
0 
0 
-1.520405438450443 
0 
0 
-1.188897557276724 
0 
0.01567148487696675 
0 
-1.328272834890313 
0 
0 
0 
0 
0 
0 
0.498453617787947 
0 
0 
-0.9830930178420509 
1.683624459206496 
0 
0 
0 
0 
0 
0 
0 
0 
0 
-0.3582062133804823 
0 
0 
0 
0 
0 
0 
0 
0 
0 
0 
0 
0 
0 
0 
0 
0 
0 
0 
0 
0 
0 
-1.88219658468622 
0 
1.441765834027933 
-0.2765135905352487 
0 
0 
0 
0 
0 
-0.9450636342149189 
0 
0 
0 
0 
0 
0 
0 
0 
0 
0 
0 
0 
0 
0 
0 
0 
-1.767871056414352 
0 
0 
0 
0 
0 
0 
1.184036282723763 
0 
0 
0 
0 
0 
0 
0 
0 
0 
0 
0 
0 
0 
0 
0 
0.245493221896529 
-0.4159484607407171 
0 
0 
0.1166776735339411 
0 
0 
0 
0 
0 
0 
0 
0 
0 
0 
0 
0 
0.7531484990513907 
0 
0 
0 
0 
0 
0 
0 
0 
0 
0 
0 
0 
0 
0 
0 
0 
0 
0 
0 
0 
0 
0 
0 
0 
0 
0 
0 
0.2427616403095961 
0 
0 
0 
0 
0 
0 
0 
0 
0 
0 
0 
0 
0 
0 
0 
0 
0 
0 
0 
0 
0 
0 
0 
0 
0 
0 
0 
0 
0 
0 
0 
0 
0 
0 
0 
0 
0 
0 
0 
0 
0 
0 
0 
0 
0 
0 
0 
-2.0777250956581 
0 
0 
0 
0 
0 
0 
0 
0 
0 
0 
0 
0 
0 
0 
0 
0 
0 
-1.119536529673572 
0 
0 
0 
0 
0 
0 
0 
0 
0 
0 
0 
0 
0 
0 
0 
0 
0 
0 
0 
0 
0 
0 
0 
0.4173018313429358 
0 
0 
0 
0 
0 
0 
0 
0 
0 
0 
0 
0 
0 
0 
0 
0 
0 
0 
0 
-0.03986774352534749 
0 
0 
0 
0 
0 
0 
0 
0 
0 
0 
0 
0 
0 
0 
-1.169455478749974 
0 
0 
0 
0 
0 
0 
0 
0 
0 
0 
0 
0.8499793679900226 
0 
0 
-1.171145642354547 
0 
0 
0 
0 
0 
0 
0 
0 
0 
-0.7722084626324159 
0 
0 
0 
0 
0 
0 
1.406287227389659 
0 
0 
0 
0 
0 
0 
0 
0 
0 
0 
0 
0 
0 
0 
0 
0 
0 
0 
0 
0 
0 
0 
0 
0 
-0.3478788324347672 
0 
0 
0 
0 
0 
-0.5798330888798042 
0 
0 
0 
0 
0 
0 
0 
0 
0 
0 
0 
0 
0 
0 
0 
0 
0 
0 
0 
0 
0 
0 
0 
0 
0 
0 
0 
0 
0 
0 
0 
0 
-0.1156914834971826 
0 
0 
0 
-1.360252298110064 
0 
0 
0 
0 
0 
0 
0 
0 
0 
0 
0 
0 
0 
0 
0 
0 
0 
0 
0 
0 
0 
0 
0 
0 
0 
0 
0 
0 
0 
0 
0 
0 
0 
0 
0 
0 
0 
-0.696719386520296 
0 
0 
0 
0 
0 
0 
0 
0 
-0.7948744789317768 
0 
0 
0 
0 
0 
0 
0 
0 
0 
0 
0 
0 
0 
0 
0 
0 
0 
0 
0 
0 
0 
0 
0 
0 
0 
0 
0 
0 
0 
0 
0 
0 
0 
0 
0 
0 
0 
0 
0 
0 
0 
0 
0 
0 
0 
0 
0 
0 
0 
0 
0 
-0.8054406240504379 
0 
0 
0 
0 
0 
0 
0 
0 
0 
0 
0 
0 
0 
0 
0 
0 
0 
0 
0 
0 
0 
0 
0 
0 
0 
0 
0 
0 
-1.713324716599396 
-1.5251489946677 
0 
-1.089903780755281 
0 
0 
0 
0 
0 
0 
0 
0 
0 
0 
0 
0 
0 
0 
0 
0 
0 
0 
0 
0 
0 
0 
0 
-0.9843402799803046 
0 
0 
0 
0 
0 
0 
-1.718006485609241 
0 
0 
0 
0 
0 
0 
0 
0 
0 
0 
0 
0 
0 
0 
0 
0 
-0.4243955916428009 
0 
-2.760591119960869 
0 
0 
0 
0 
0 
0.2283201102130315 
0 
0 
0 
0 
0 
0 
0 
0 
0 
0 
0 
0 
0 
0 
0 
0 
0 
0 
0.4627932350597974 
0 
0 
0.9633726286296481 
0 
0 
0 
0 
0 
0 
0 
-0.296895146422939 
0 
0 
0 
0 
0 
0 
0 
0 
0 
0 
0 
0 
0 
0 
0 
0 
0 
-0.08680383931412528 
0 
0 
0 
0 
0 
0 
0 
0 
0 
0 
0 
0 
0 
0 
0 
0 
0 
0 
0 
0 
0 
0 
0 
0 
0 
0 
0 
0 
0 
0 
0 
0 
0 
0 
0 
0 
0 
0 
0 
0 
0 
0 
0 
0 
0 
0 
0 
0 
0 
0 
0 
0.6028069444602663 
-1.402572165195204 
-0.903352941746939 
-0.494161670169062 
0 
0 
0 
0 
0 
0 
0 
0 
0 
0 
0 
0 
0 
0 
-2.270207259345351 
0 
0 
0 
0 
-0.8254599362674147 
0 
0 
0 
0 
0 
0 
0 
0 
0 
3.176396092772883 
0 
0 
0 
0 
0 
0 
0 
0 
0 
0 
0 
0 
1.258659794939183 
0 
0 
0 
1.984606166224768 
0 
0 
0 
0 
0 
0 
0 
0 
0 
0 
0 
0 
0 
0 
0 
0 
0 
0 
0 
0 
0 
0 
0 
0 
0 
0 
0 
0 
0 
0 
0 
0 
0 
0 
-0.6881402910496032 
0.1262411018530513 
0 
0 
0 
0 
0 
0 
0 
-2.156404646142653 
0 
0 
0 
-2.071204324627514 
0 
0 
0 
0 
0 
0 
0 
-0.1903621310528587 
0 
0 
0 
0 
0 
0 
0 
0 
0 
0 
0 
0 
0 
1.85682303534785 
0 
0 
0 
0 
0 
0 
0 
0 
0 
0 
0 
0 
0 
0 
0 
0 
0 
0 
0 
0 
0 
0 
0.5045102664179419 
0 
0 
0 
0 
0 
0 
0 
0 
0 
-1.025672495941979 
0 
0 
0 
0 
0 
0 
0 
0 
0 
0 
-3.966861763465439 
0 
0 
0 
0 
0 
-1.000460701887202 
0 
0 
0 
0 
0 
0 
0 
0 
0 
0 
-0.7330094634457918 
0 
0 
0 
0 
0 
0 
0 
0 
0 
-2.324196401475295 
0 
0 
0.7026528799162595 
0 
0 
0 
0 
0 
0 
0 
0 
0 
0 
0 
0 
0 
0 
-0.6836912696485565 
0 
0 
0 
0 
0 
0 
0 
0 
0.1603546717907134 
-2.010606981000243 
0 
0 
0 
0 
0 
0 
0 
0 
0 
0 
0 
0 
0 
0 
0 
0 
-2.950426242262723 
-0.5395193707887972 
0 
0 
0 
0 
0 
0 
0 
0 
0 
0 
0 
0 
0 
0.6289664448881172 
0 
0 
0 
0 
0 
0 
0 
0 
-0.7102986929836763 
0 
0 
0 
0 
0 
-0.5794961624581001 
0 
-0.8126737380578757 
0 
0 
0 
0 
0 
-0.9055755669589475 
0 
0 
0 
0 
0 
0 
0 
0 
0 
0 
0 
0 
0 
0 
0 
0 
0 
0 
0 
0 
0 
0 
0 
0 
0 
0 
0 
0 
0 
0 
0 
0 
0 
0 
0 
0 
0 
0 
0 
0 
0 
0 
0 
0 
0 
0 
-1.413398532573752 
-2.717153681784693 
0 
0 
0 
0 
-0.3825768417831947 
0 
0 
0 
0 
0 
0 
0 
0 
0 
0 
0 
0 
0 
0 
0 
0 
0 
0 
0 
0 
0 
0 
0 
0 
0 
0 
0 
0 
0 
0 
0 
0 
0 
0 
0 
0 
0 
-0.5351476238963703 
0 
0 
0 
0 
0 
0 
0 
0 
0.7353586390116156 
0 
0 
0 
0 
0 
1.162704695049188 
0.902040803042777 
-0.03297115575205089 
0 
0 
-1.861231485984596 
0 
0 
0 
0 
0 
0 
0 
0.3058364704724322 
0 
0 
0 
0 
0 
0 
0 
0 
0 
0 
0 
0 
0 
0 
0 
0 
0 
0 
0 
0 
0 
0 
0 
0 
0 
0 
-0.8374217338786459 
0 
0 
0 
0 
0 
0 
0 
0 
0 
0 
0 
0 
0 
0 
0 
0 
0 
-0.8424846738238082 
0 
0 
0 
0 
0 
0 
0 
0 
0 
0 
0 
0 
0 
0 
0 
0 
0 
0 
0 
0 
0 
0 
-1.823269251366851 
0 
0 
0 
0 
0 
0 
0 
0 
0 
0 
0 
0 
0 
0 
0 
0 
0 
0 
0 
0 
0 
0 
0 
0 
0 
0 
0 
0 
0 
0 
0 
0 
1.913043066534079 
0 
0 
0.2377711602921108 
0 
-2.378055368566834 
0 
0 
0 
0 
0 
0 
0 
0 
0 
-1.842085876955342 
0 
0 
0 
0 
0 
0 
0.9367794133112897 
0 
0 
0 
0 
0 
0 
0 
-1.371837553689882 
0 
0 
0 
0 
-2.224379648945726 
0 
0 
0 
-0.4959992550480878 
0 
0 
0 
0 
0 
0 
0 
0 
0 
0 
0 
0 
0 
0 
0 
0 
0 
0 
0 
0 
0 
0 
0 
0 
0 
0 
0 
-0.29294756502473 
0 
0 
0 
0 
0 
0 
-1.056230257483187 
0 
0 
0 
0 
0 
0 
0 
0 
0 
0 
0 
0 
0 
0 
0 
0 
0 
0 
0 
0 
-2.496919707323341 
0 
-2.073635829097857 
0 
0 
0 
0 
0 
0 
0 
0 
-3.536801060766659 
-1.159396332857629 
0 
0 
0.5921897761926416 
0 
0 
0 
0 
0 
0 
0 
0 
0 
-2.15302105957264 
0 
0 
0 
0 
0 
0 
0 
0 
0 
0 
0 
0 
0 
0 
0 
0 
0 
0 
0 
0 
0 
0 
0 
0 
0 
0 
0 
0 
-0.8377080530708961 
0 
0 
-1.189501192149972 
0 
0 
0 
-0.0933512400067515 
0 
0 
0 
0 
0 
0 
0 
0 
0 
0 
0 
0 
0 
0 
0 
0 
0 
1.273139738036915 
0 
0 
0 
0 
0 
0 
0 
0 
0 
0 
0 
-2.354556136725817 
0 
0 
0 
0 
0 
0 
0 
0 
0 
0 
0 
0 
0 
0.4776933654830169 
0 
0 
0 
0 
0 
0 
0 
0 
0 
0 
0 
0 
-1.111869594470886 
0 
0 
0 
0 
0 
0 
0 
0 
0 
0 
0 
0 
0 
0 
0 
0 
0 
-1.104676061045867 
0 
0 
0 
0 
0 
0 
0 
0 
0 
0 
0 
0 
0 
0 
0 
0 
0 
0 
0 
0 
-5.866121320895548 
0 
0 
0 
0 
0 
0 
0 
0 
0 
0 
0 
0 
0 
0 
0 
0 
0 
0 
0 
0 
0 
0 
0 
0 
-1.165813951589783 
0 
0 
0 
0 
0 
0.09985618721325454 
0 
0 
0 
0 
0 
0 
0 
0 
0 
0 
0 
0 
0 
0 
0 
0 
-0.3657196937125141 
0 
0 
0 
0 
0 
0 
0 
0 
0 
0 
0 
0 
0 
0 
0 
0 
0 
0 
0 
0 
0 
0 
4.694878709545362 
0 
0 
0 
0 
0 
0 
0 
0 
0 
0 
0 
0 
0 
0 
0 
0 
0 
0 
0 
0 
0 
0 
0 
0 
0 
0 
0 
0 
0 
0 
0 
0 
0 
0 
0 
-0.4473388000022991 
0 
0 
0 
-0.4445848414564698 
0 
0 
0 
-2.044028739117014 
0 
0 
0 
0 
0 
0 
0 
0 
0 
0 
0 
0 
1.883347110302401 
0 
0 
0 
0 
1.474493658204187 
0 
0 
0 
0 
-0.07145808587601747 
0 
-2.016480698752589 
0 
0 
0 
0 
0 
0 
0 
0 
0 
0 
0 
0 
0 
0 
0 
0 
0 
0 
0 
0 
0 
0 
0 
0 
0 
0.6861204973102628 
0 
0 
0 
0 
0 
0 
0 
0 
0 
0 
0 
0 
0 
0 
0 
0 
0 
-0.07843473592761394 
0 
0 
0 
0 
0 
0 
0 
0 
0 
0 
0 
0 
0 
0 
0 
0 
0.3296816995151638 
0 
0 
1.317702501445955 
0 
0 
0 
0 
0 
0 
0 
0 
0 
0 
0 
0 
0 
0 
0 
0 
0 
0 
1.062462598965765 
0 
0 
0.3105626768419618 
0 
0 
0 
0 
0 
0 
0 
0 
0 
0 
0 
0 
0 
0 
0 
0 
0 
0 
0 
0 
0 
1.345469051696406 
-2.15044077478869 
0 
0 
0 
0 
0 
0 
0 
0 
0 
0 
-0.3991070474231355 
0 
0 
0 
0.7321623380114657 
0 
0 
0 
0 
0 
-0.8723583390269531 
0.8422252299669344 
0 
0 
0 
0 
0 
0 
0 
-0.6007093362542189 
0 
0 
0 
0 
0 
0 
0 
0 
-0.451810335633475 
0 
0 
0 
0 
0 
0 
0 
0 
0 
0 
-0.565847886715931 
0 
0 
0 
0 
0 
0 
0 
0 
0 
0 
0 
-2.027971157201845 
0 
0 
0 
0 
0 
0 
0 
0 
0 
0 
0 
-0.1550867686625197 
0 
-1.153861912332235 
0.1195474598285644 
0.3440605237568468 
0 
0 
0 
-0.4384590500461475 
-1.88104369162595 
0 
-0.4059938402810507 
-0.07114936891100313 
0 
0 
0 
0 
0 
0 
0 
0 
0 
0 
0 
0 
0 
0 
0 
0 
0 
0 
0 
0 
0.6498970404361802 
0 
0 
0 
0 
0 
0 
0 
0 
0 
0 
0 
0 
0 
0 
0 
0 
0 
0 
0 
0 
0 
0 
0 
0 
0 
0 
0 
0 
0.6904921915320111 
0 
0 
-2.812913036958829 
0 
0 
0 
0 
-0.7545751512923994 
0 
0 
0 
0 
0 
0 
0 
0 
0.1318521317768187 
0 
0 
0 
0 
0 
0 
0 
0 
0 
0 
0 
0 
0 
0 
0 
0 
0 
-0.4056330198823372 
0 
0 
0 
0 
0 
0 
0 
0 
0 
0 
0 
0 
0 
-2.044245167214503 
0 
0 
0 
0 
-0.2983174899767839 
0 
0 
0 
0 
0 
0 
0 
0 
0 
0 
0 
0 
0 
0 
0 
0 
0 
0 
0 
0 
0.5287975043300153 
0 
0 
0.00111335000230707 
0 
0 
0 
0 
0 
0 
-1.621399228656085 
0 
0 
0 
0 
0 
0 
0 
0 
0 
0 
-1.077832163401304 
0 
0 
0 
0 
0 
0 
0 
0 
0 
0 
0 
0 
0 
0 
0 
0 
0 
0 
0 
0 
0 
0 
0 
0 
0 
0 
0 
0 
0 
0 
0 
0 
-0.8428240213130508 
0 
0 
0 
0 
0 
0 
0 
0 
0 
0 
0 
0 
0 
0 
0 
0 
0 
0 
0 
0 
0 
0 
0 
-0.6872254105274521 
0 
0 
0 
0 
0 
0 
0 
0 
0 
0 
0 
0 
0 
0 
0 
0 
0 
0 
0 
0 
0 
0 
0 
0 
0 
0 
0 
0 
0 
0 
0 
0 
0 
0 
0 
0 
0 
0 
0 
0 
0 
0 
0 
0 
0 
0 
0 
0 
0 
0 
0 
0 
0 
0 
0 
0 
0 
0 
-1.888748090599372 
0 
0 
0 
0 
0 
0 
0 
-0.4036254088478525 
0 
2.067388240171194 
0 
0 
0 
0 
0 
0 
0 
-0.07016976971390022 
0 
0 
0 
0 
0 
0 
0 
0 
0 
0 
0 
1.150465928890548 
0 
0 
0 
0 
0 
0 
0 
0 
0 
0 
0 
0 
0 
0 
0 
0 
0 
0 
0 
0 
0 
0 
0 
0.2752056960883009 
0 
0 
0 
0 
0 
0 
0 
0 
0 
0 
0 
0 
0 
0 
0 
0 
0 
0 
0 
0 
0 
0 
0 
0 
0 
0 
0 
0 
0 
-1.68112273978797 
0 
0 
0 
-1.011853386600599 
0 
0 
0 
0 
0 
0 
0 
0 
0 
0 
0 
0 
-0.6130276500158958 
0 
0 
0 
0 
-0.1221791523056809 
0 
0 
0 
0 
0 
0 
0 
0 
0 
-1.880463445311822 
0 
0 
0.2825766533821416 
0 
-0.6242877257413033 
0 
0 
0 
0 
-3.45085628391062 
0 
0 
0 
0 
0 
0 
0 
0.3849185917045322 
0 
0 
0 
0 
0 
1.019106407862898 
0 
0 
0 
0 
0 
1.984082961731447 
0 
0 
0 
0 
0 
0 
0 
0 
0 
-0.4558794657681649 
0 
0 
0 
0 
0 
0 
0 
0 
0 
0 
0 
0 
0 
0 
0 
0 
0 
0 
0 
0 
0 
0 
0 
0 
0 
0 
0 
0 
0 
0 
0 
0 
0 
0 
0 
0 
0 
0 
0 
0 
0 
0 
0 
0 
0 
0 
0 
0 
0 
0 
0 
0 
0 
0 
0 
0 
0 
0 
0 
0 
0 
0 
0 
0 
0 
0 
0 
0 
-0.3829438177841147 
0 
0 
-1.107466453870785 
0 
0 
0 
0 
0 
0 
0 
0 
0 
0 
0 
0 
0 
0 
0 
0 
0 
0 
0 
0 
0 
0 
0 
0 
0 
0 
0 
0 
0 
0 
0 
0 
0 
0 
0 
0 
0 
0 
0 
0 
0 
0 
0 
0 
0 
0 
0 
0 
0 
0 
0 
0 
0 
0 
0 
0 
0 
0 
0 
0 
0 
0 
0 
0 
0 
0 
0 
0 
0 
0 
0 
0 
0 
0 
0 
0 
0 
0 
0 
0 
0 
0 
0 
0 
0 
-0.3915985407483314 
0 
-4.500472311684854 
2.765083229420131 
0 
0 
0 
0 
0 
0 
0 
0 
0 
0 
0 
0 
0 
0 
0 
0 
0 
0 
0 
0 
0 
-0.1085462721493931 
0 
0 
0 
0 
0 
0 
0 
0 
0 
0 
0 
0 
0 
0 
0 
0 
0 
0 
0 
0 
0 
0 
0 
0 
0 
0 
0 
0 
0 
0 
0 
0 
0 
0 
0 
0 
0 
0 
0 
0 
0 
0 
0 
0 
-1.996370855975043 
0 
0 
2.548494124019227 
0 
0 
-1.075833130323429 
0 
-1.297953274095686 
1.436285132493967 
0 
0 
0 
0 
0 
0 
0 
0 
0 
-0.7096160860746804 
0.428674804979285 
0 
0 
0 
0 
0 
0 
0 
0 
0 
0 
0 
0 
0 
0 
0 
0 
0 
0 
0 
0 
0 
0 
0 
0 
-6.822752937477854 
0 
0 
0 
0 
0 
0 
0 
0 
0 
0 
0 
0 
0 
0 
-0.1597616791538158 
0 
0 
0 
0 
0 
0 
0 
0 
0 
0 
0 
0 
0 
0 
0 
0 
0 
0 
0 
0 
0 
0 
0 
0 
0 
0 
0 
0 
0 
0 
0 
0 
0 
0 
0 
0.05825413662345801 
0 
0 
0 
0 
0 
0 
0 
0 
0 
0 
0 
0 
0 
0 
0 
0 
0 
0 
0 
0 
0 
0 
0 
0 
0 
0 
0 
0 
0 
0 
0 
0 
0 
0 
0 
0 
0 
0 
0 
0 
0 
0 
0 
0 
0 
0 
0 
0 
0 
0 
0 
0 
0 
0.1840184350811936 
0 
0 
0 
0 
-0.7908801013931666 
0 
0 
0 
0 
0 
0 
0 
0 
0 
0 
0 
0 
0 
0 
-0.2025474553282937 
0 
0 
0 
0 
0 
0 
0 
0 
0 
0 
0 
0 
0 
0 
0 
-0.06185734815726338 
0 
0 
0 
0 
0 
0 
-0.603249502763366 
-1.891449871800397 
0 
0 
0 
0 
0 
0 
0 
0 
0 
0 
0 
0 
0 
0 
0 
0 
0.0893773221215471 
0 
0 
0 
0 
0 
0 
0 
0 
0 
0 
0 
0 
0 
1.022554247173312 
0 
0 
0 
0 
0 
0 
0 
0 
0 
0 
0 
0 
0 
0 
0 
0 
0 
0 
0 
0 
0 
0 
-0.4957496033728603 
1.643149072468107 
0 
0 
0 
0 
0 
0 
0 
0 
-0.4099584526671245 
0 
0 
0 
0 
0 
0 
0 
0 
-0.01667366300679259 
0 
0 
0 
0 
0 
0 
0 
0 
0 
0 
0 
0 
0 
0 
0 
0 
0 
0 
0 
0 
0 
0 
0 
0 
0 
0 
0 
0 
0 
0 
-1.870741135275682 
0 
0 
0 
0 
0 
0 
0 
0.3322585584783878 
0 
0 
0 
0 
0 
0 
0 
0 
0 
0 
0 
0 
0 
0 
0 
0 
0 
0 
0 
0 
0 
0 
0.3777559299573834 
0 
0 
0 
0 
0 
0 
0 
0 
0 
0 
0 
0 
0 
0 
0 
0 
0 
0 
0 
0 
0 
0 
0 
0 
0 
0 
0 
0 
0 
0 
0 
0 
0 
0 
0 
0 
0 
0 
0 
0 
0 
0 
0 
0 
0 
0 
0 
0 
0 
0 
0 
0 
0 
0 
-0.8384347049646724 
0 
0 
0 
0 
0 
0 
0 
0 
0 
0 
0 
0 
0 
0 
0 
0 
0 
0 
0 
0 
0 
0 
0 
0 
0 
0 
0 
0 
0 
0 
0 
0 
0 
0 
0 
0 
0 
0 
0 
0 
0 
0 
0 
0 
0 
0 
0 
0 
0 
0 
0 
-0.6465918873928001 
0 
0 
0 
0 
0 
0 
0 
0 
0 
0 
0 
-1.594432551980434 
0 
0 
0 
0 
0 
0 
0 
0 
0 
0 
0 
0 
0 
0 
0 
0 
0 
0 
0 
0 
0 
0 
0 
0 
0 
0 
0 
0 
0 
0 
0 
0 
0 
0 
0 
0 
0 
0 
0 
0 
0 
0 
0 
0 
0 
0 
0 
-0.7695565823557359 
0 
0 
0 
0 
0 
0 
0 
0 
0 
0 
0 
0 
0 
0 
-1.52428051038646 
0 
0 
0 
0 
0 
0 
0 
0 
0 
0 
0 
-0.2078651137871881 
0 
0 
0 
0 
0 
0 
0 
0 
0 
0 
0 
0 
0 
0 
0 
0 
0 
0 
0 
0 
0 
0 
0 
0 
0 
0 
0 
0 
0 
0 
0 
0 
0 
0 
0 
0 
0 
0 
0 
0 
0 
0 
0 
0 
0 
0 
0 
0 
0 
0 
0 
0 
0 
0 
0 
0 
0 
0 
0 
0 
0 
0 
0 
0 
0 
0 
0 
0 
0 
0 
0 
0 
0 
0 
0 
0 
0 
0 
0 
0 
0 
0 
-0.934902926198282 
0 
0 
0 
0 
0 
0 
0 
0 
0 
0 
0 
0 
0 
0 
0 
0 
0 
0 
0 
-0.5497102387970937 
0 
0 
0 
0 
0 
0 
0 
0 
0 
0 
0 
0 
0 
0 
0 
0 
0 
0 
0 
0 
0 
0 
-0.2784540496282154 
0 
0 
0.9074156395460634 
0 
0 
0 
0 
0 
0 
-0.1961495647085802 
0 
0 
0 
0 
0 
0 
0 
0 
0 
0 
0 
0 
0 
0 
0 
0 
0 
0 
0 
0 
0 
0 
0 
0 
0 
0 
0 
0 
0 
0 
0 
0 
0 
0 
0 
0 
0 
0 
0 
0 
1.341449379885215 
0 
0.8056488285919483 
0 
0 
0 
0 
-0.307287792982545 
0 
0 
0 
0 
0 
0 
0 
0 
0 
0 
0 
0 
0 
0 
0 
0 
0 
0 
0 
0.001707761841828914 
0 
-1.350833999683355 
0 
0 
0 
0.3426517853353998 
0 
0 
0 
0 
0 
0 
0 
0 
0 
0 
0 
0 
0 
0 
0 
0 
2.415894688757553 
-0.09951828606196006 
0 
0 
0 
0 
0 
0 
0 
0 
0 
0 
0.3457910275037259 
0 
-2.474172699589514 
-0.2664738490008135 
0 
0 
0 
0 
0 
-0.9702095806846462 
0 
0 
0 
0 
0 
0 
0 
0 
0 
0 
0 
0 
0 
0 
-0.6011382511782918 
0 
0 
0 
0 
0 
0 
0 
0 
0 
0 
0 
0 
0 
0 
0 
0 
0 
0 
0 
0 
0 
0 
0 
0 
0 
0 
0 
0 
0 
0 
0 
0 
0 
0 
0 
0 
0 
0 
0 
0 
0 
0 
0 
0 
-0.4293653935695352 
0 
0 
0 
0 
0 
3.132204471999329 
0.8392625988231277 
0 
0 
0 
0 
0 
0 
0 
0 
0 
0 
0 
0 
0 
0 
0 
0 
0 
0 
0 
0 
0 
0 
0 
0 
0 
0 
0 
0 
0 
0 
0 
0 
0 
0 
0 
0 
0 
-0.9345510971990395 
0 
0 
0 
0 
0 
0 
0 
0 
0 
0 
0 
0 
0 
0 
0 
0 
0 
0 
0 
0 
0 
1.78618946397423 
0 
0 
0 
0 
0 
0 
0 
-1.926778897884637 
0 
0 
0 
0 
0 
0 
0 
0 
0 
0 
0 
0 
0 
0 
0 
0 
0 
0 
0.006054265604614044 
0 
1.333635735539494 
0 
0 
0 
0 
0 
0 
0 
-1.013714605137084 
0 
0 
0 
0 
0 
0 
0 
0 
0 
0 
0.08471747789447649 
0 
0 
0 
0 
0 
0 
0 
0 
0 
0 
0 
0 
0 
0 
0 
0 
0 
0 
0 
0 
0 
0 
0 
0 
0 
0 
0 
0 
0 
0 
0 
0 
0 
0 
0 
0 
0 
0 
-0.05920481245724125 
0 
0 
0 
0 
0 
0 
0 
0 
0 
0 
0 
0 
0 
0 
0 
0 
0 
0 
0 
0 
0 
0 
0 
0 
0 
0 
0 
0 
0 
0 
0 
0 
0 
0 
0 
0 
0 
0 
0 
0 
0 
0 
2.659342228515794 
0.710157748077656 
0 
0 
0 
0 
0 
0 
0 
0 
0 
0 
0 
0 
0 
0 
0 
0 
0.9680227507333551 
0 
0 
0 
0 
0 
0 
0 
0 
0 
0 
0 
0 
0 
0 
0 
0 
0 
0 
0 
0 
0 
0 
0 
0 
0 
0 
0 
0 
0 
0 
0 
0 
0 
0 
0 
0 
0 
0 
0 
0 
0 
0 
0 
0 
0 
0 
0 
0 
0 
0 
0 
0 
0 
0 
0 
0 
1.151730447669154 
0 
0 
0 
0 
0 
0 
0 
0 
0 
0 
0 
0 
0 
0 
0 
0 
0 
0 
0 
0 
0 
0 
0 
0 
0 
0 
0 
0 
0 
0 
0 
0 
0 
0 
0 
0 
0 
0 
0 
0 
0 
0 
0 
0 
0 
0 
0 
-1.135383946216412 
0 
0 
0 
0 
0 
0 
0 
0 
0 
0 
0 
0 
0 
0 
0 
0 
0 
0 
0 
-2.945657064358934 
0 
0 
-0.4595478185234139 
0 
0 
0 
0 
-2.725398406870735 
0 
0 
0 
0 
0 
0 
0 
0 
1.555908970301128 
0 
0 
0 
0 
0 
0 
0 
0 
0 
0 
0 
0 
0 
0 
0 
0 
0 
0 
0 
0 
0 
0 
0 
0 
0 
0 
0 
0 
0 
0 
0 
0 
0 
0 
0 
0 
0 
0 
0 
0.1858417050810283 
0 
0 
0 
-0.977810730386486 
0 
0 
0 
0 
0 
0 
0 
0 
0 
0 
0 
0 
0 
0 
0 
0 
0 
0 
0 
0 
0 
0 
0 
0 
0 
0 
0 
0 
0 
0 
0 
0 
0 
0 
0 
0 
0 
0 
0 
0 
0 
0 
0 
0 
0 
0 
0 
0 
0 
0 
0 
0 
0 
0 
0 
0 
0 
0 
0 
0 
0 
0 
0 
0 
0 
0 
0 
0 
0 
0 
0 
0 
0 
0 
0 
0 
0 
0 
0 
0 
0 
0 
0 
0 
0 
0 
0 
0 
0.9401477777221471 
0 
0 
0 
0 
0 
0 
0 
0 
0 
0 
0 
0 
0 
0 
0 
0 
0 
0 
0 
0 
0 
0 
0 
0 
0 
0 
0 
0 
0 
0 
0 
1.114345230772996 
0 
0 
0 
0 
0 
0 
0 
0 
0 
0 
0 
0 
0 
0 
0 
0 
0 
0 
0 
0 
0 
0 
0 
0 
0 
0 
0 
0 
0 
0 
0 
0 
0 
0 
0 
0 
0 
0 
0 
0 
0 
0 
0 
0 
0 
0 
0 
0 
0 
0 
0 
0 
0 
0 
0 
0 
0 
0 
0 
0 
0 
0 
0 
0 
0 
0 
0 
0 
0 
0 
0 
0 
0 
0 
0 
0 
0 
0 
0 
1.592547257715602 
0 
0 
0 
0 
0 
0 
0 
0 
0 
0 
0 
0 
0 
0 
0 
0 
0 
0 
0 
0 
0 
0 
0 
0 
0 
0 
0 
0 
0 
0 
0 
0 
0 
0 
0 
0 
0 
0 
0 
0 
0 
0 
0 
0 
0 
0 
0 
0 
0 
0 
0 
0 
0 
0 
0 
0 
0 
0 
0 
0 
0 
0 
2.433332694664066 
0 
0 
0 
0 
0 
0 
0 
1.064436618242543 
0 
0 
0 
0 
0 
0 
0 
0 
0 
0 
1.393618331668014 
0 
0 
0 
0 
0 
0 
0 
-3.23215827943653 
0 
0 
0 
0 
0 
0 
0 
0 
0 
0 
0 
0 
0 
0 
0 
0 
0 
0 
0 
0 
0 
0 
0 
0 
0 
0 
0 
0 
0 
0 
0 
0 
0 
0 
0 
0 
0 
0 
0 
0 
0 
0 
0 
0 
0 
0 
0 
0 
0 
0 
0 
0 
0 
0 
0 
0 
0 
0 
-0.4755560435046426 
0 
0 
0 
0 
0 
0 
0 
0 
0 
0 
0 
0 
0 
0 
0 
0 
0 
0 
0 
0 
0 
0 
0 
0 
0 
0 
0 
0 
0 
0 
0 
0 
0 
0 
0 
0.9478231387850931 
0 
0 
0 
0 
0 
0 
0 
0 
0 
0 
0 
0 
0 
0 
0 
0 
0 
0 
0 
0 
0 
0.5663600574603549 
0 
0 
0 
0 
0 
0 
0 
0 
0 
0 
0 
0 
0 
0 
0 
0 
0 
0 
0 
0 
0 
0 
0 
0 
0 
0 
0 
0 
0 
0 
0 
0 
0 
0 
0 
0 
0 
0 
0 
0 
0 
0 
0 
0 
0 
0 
0 
0 
0 
0 
0 
0 
0 
0 
0 
0 
0 
0 
0 
0 
0 
0 
0 
-1.481736071230041 
0 
0 
0 
0 
0 
0 
0 
0 
0 
0 
0 
0 
0 
0 
0 
0 
0 
0 
0 
0 
0 
0 
0 
0 
0 
0 
0 
-0.2377469223581985 
0 
0 
0 
0 
0 
0 
0 
0 
0 
0 
0 
0 
0 
0 
0 
0 
0 
0 
0 
0 
0 
0 
0 
0 
-2.331486105728879 
0 
0 
0 
0 
-0.521974348574526 
0 
0 
0 
0 
-1.61597091768894 
0 
0 
-0.3036491483897574 
0 
0 
0 
0 
0 
0 
0 
0 
0 
0 
0 
0 
0 
0 
0 
0 
0 
-2.658271937662677 
0 
0 
0 
0 
0 
0 
0 
0 
0 
0 
0 
0 
0 
0 
0 
0 
0 
0 
0.1500758772554293 
0 
0 
0 
0 
0 
0 
-0.4185544659530097 
0 
0 
0 
0 
0 
2.194463580302434 
0 
0 
0 
0 
0 
0 
0 
0 
0 
0 
0 
0 
0 
0 
0 
0 
0 
0 
0 
0 
0 
0 
0 
0 
0 
0 
0 
0 
0 
0 
0 
0 
0 
0 
0 
0 
0 
-2.138084483102703 
0 
0 
0 
0 
0 
0 
0 
0 
0 
0 
0 
0 
0 
0 
0 
0 
0 
0 
0 
0 
0 
0 
0 
0 
0 
0 
0 
0 
0 
0 
0 
0 
0 
0 
0 
0 
0 
0 
0 
0 
0 
0 
0 
0 
0 
0 
0 
0 
0 
0 
0 
0 
0 
0 
0 
0 
0 
0 
0 
0 
0 
0 
0 
0 
0 
1.807598024914598 
0 
0 
0 
0 
0 
0 
0 
-0.2594728257567319 
0 
0 
0 
0 
0 
0 
0 
0.1508005022158741 
0 
0 
0 
0 
0 
0 
0 
0 
0 
0 
0 
0 
0 
0 
0 
0 
0 
0 
0 
0 
0 
0 
0 
0 
0 
0 
0 
0 
0 
0 
0 
0 
0 
0 
0 
0 
0 
0 
0 
0 
0 
0 
0 
0 
0 
-2.090070047172293 
0 
0 
0 
0 
0 
0 
0 
0 
0 
0 
0 
0 
0 
0 
0 
0 
0 
0 
0 
0 
0 
0 
0 
0 
0 
0 
0 
0 
0 
0 
0 
0 
0 
0 
0 
0 
0 
0 
0 
0 
0.9068646211408508 
0 
0.2795859904364287 
0 
0 
0 
0 
0 
0 
0 
0 
0 
0 
0 
0 
0 
0 
0 
0 
0 
0 
0 
0 
2.497680184005296 
0 
-0.5880678103520652 
0 
0 
0 
0 
0 
0 
0 
0 
0 
0 
0 
0 
0 
0 
-2.350076330451043 
0 
0 
0 
0 
0 
0 
0 
0 
0 
0 
0 
0 
0 
0 
0 
0 
0 
0 
0 
0 
0 
0 
0 
0 
0 
0 
0 
0 
0 
0 
0 
0 
0 
0 
0 
0 
0 
0 
0 
0 
0 
0 
0 
0 
0 
0 
0 
1.979125836835078 
0 
0 
0 
0 
0 
0 
0 
0 
0 
0 
0 
0 
0 
0 
0 
0 
0 
0 
0 
0 
0 
0 
0 
0 
0 
0 
0 
0 
0 
0 
0 
0 
0 
0 
0 
0 
0 
0 
0 
0 
0 
0 
0 
0 
0 
0 
0 
0 
0 
0 
0 
0 
0 
0 
0 
0 
0 
0 
0 
0 
0 
0 
0 
0 
0 
0 
0 
0 
0 
0 
0 
0 
0 
0 
0 
0 
0 
0 
0 
0 
0 
0 
0 
0 
0 
0 
0 
0 
0 
0 
0 
0 
0 
0 
0 
0 
0 
0 
0 
0 
0 
0 
0 
0 
0 
0 
0 
0 
0 
0 
0.1782557415210672 
0 
0 
0 
0 
0 
0 
0 
0 
0 
0 
0 
0 
0 
0 
0 
0 
0 
0 
0 
0 
0 
0 
0 
0 
0 
0 
0 
0 
0 
0 
0 
0 
0 
-0.1135133905803639 
0 
0 
0 
0 
0 
0 
0 
0 
0 
0 
0 
0 
0 
0 
0 
0 
0 
0 
0 
0 
0 
0 
-0.6743902308303365 
0 
0 
0 
0 
0 
0 
0 
0 
0 
0 
0 
0 
-0.4473505376967826 
0 
0 
0 
0 
0 
0 
0 
0 
-1.110392354039073 
0 
0 
0 
0 
0 
0 
0 
0 
0 
0 
0 
0 
0 
0 
0 
0 
0 
0 
0 
0 
0 
0 
0 
0 
0 
0 
0 
0 
0 
0 
0 
0 
0 
0 
0 
0 
0 
0 
0 
0 
0 
0 
0 
0 
0 
0 
0 
-0.9962286498658769 
0 
0 
0 
0 
0 
0 
0 
0 
0 
0 
0 
0 
0 
0 
0 
0 
0 
0 
0 
0.3749253952669465 
0 
0 
0 
0 
0 
0 
0 
0 
0 
0 
0 
0 
0 
0 
0 
0 
0 
0 
0 
0 
0 
0 
0 
0 
0 
0 
0 
0 
0 
0 
0 
0 
0 
0 
0 
0 
0 
0 
0 
0 
0 
0 
0 
0 
0 
0 
0 
0 
0 
0 
0 
0 
0 
0 
0 
0 
0 
0 
0 
0 
0 
0 
0 
0 
0 
0 
0 
0 
0 
0 
0 
0 
0 
0 
0 
0 
0 
0 
0 
0 
0 
0 
0 
0 
0 
0 
0 
0 
0 
0 
0 
0 
0 
0 
0 
0 
0 
0 
0 
0 
0 
0 
0 
0 
0 
0 
0 
0 
0 
0 
0 
0 
0 
0 
0 
0 
0 
0 
0 
0 
0 
0 
0 
0 
0 
0 
0 
0 
0 
0 
0 
0 
0 
0 
0 
0 
0 
0 
0 
0 
0 
0 
0 
0 
0 
0 
0 
0 
0 
0 
0 
0 
0 
0 
0 
0 
1.10612756108939 
0 
0 
0 
0 
0 
0 
0 
0 
0 
0 
0 
0 
0 
0 
0 
0 
0 
0 
0 
0 
0 
0 
0 
0 
0 
0 
0 
0 
0 
0 
0 
0 
0 
0 
0 
0 
0 
0 
0 
0 
0 
0 
0 
1.072971821550047 
0 
0 
0 
0 
0 
0 
0 
0 
0 
0 
0 
0 
0 
0 
0 
0 
0 
0 
0 
0 
0 
0 
0 
0 
0 
0 
0 
0 
0 
0 
0 
0 
0 
0 
0 
0 
0 
0 
0 
0 
0 
0 
0 
0 
0 
-0.1023156804885542 
0 
0 
0 
0 
0 
0 
0 
0 
-1.051611883676235 
0 
0 
0 
0 
0 
0 
0 
-1.100907290418855 
0 
0 
0 
0 
0 
0 
0 
0 
0 
0 
0 
0 
0 
0 
0 
0 
0 
0 
0 
0 
0 
0 
0 
0 
0 
0 
0 
0 
0 
0 
0 
0 
0 
0 
0 
0 
0 
0 
0 
0 
-0.8957552139681929 
0 
0 
0 
0 
0 
0 
0 
0 
0 
0 
0 
0 
0 
0 
0 
0 
0 
0 
0 
0 
0 
0 
0 
0 
0 
0 
0 
0 
0 
0 
0 
0 
0 
0.7728979011952698 
0 
0 
0 
0 
0 
0 
0 
0 
0 
0 
0 
0 
0 
0 
0 
0 
0 
0 
0 
0 
0 
0 
0 
0 
0 
0 
0 
0 
0 
0 
0 
0 
0 
0 
0 
0 
0 
0 
0 
0 
0 
0 
0 
0 
0 
0 
0 
0 
0 
0 
0 
0 
0 
0 
0 
-0.2836811833868306 
0 
0 
0 
0 
0 
0 
0 
0 
0 
0 
0 
0 
0 
-0.05383936270372245 
0 
0 
0 
0 
0 
0 
0 
0 
0 
0 
0 
0 
0 
0 
0 
0 
0 
0 
0 
0 
0 
0 
0 
0 
0 
0 
0 
0 
0 
0 
0 
0 
0 
0 
0 
-1.183340186962346 
0 
0 
0 
0 
0 
0 
0 
0 
0 
0 
0 
0 
0 
0 
0 
0 
0 
0 
0 
0 
0 
0 
0 
0 
0 
0 
0 
0 
0 
0 
0 
0 
0 
0 
0 
0 
0 
0 
0 
0 
0 
0 
0 
0 
0 
0 
0 
0 
0 
0 
0 
0 
0 
0 
0 
0 
0 
0 
0 
0 
0 
0 
0 
0 
0 
0 
0 
0 
0 
0 
0 
0 
-0.1116753435308408 
0 
0 
0 
0 
0 
0 
0 
0 
0 
0 
0 
0 
0 
0 
0 
0 
0 
0 
0 
0 
0 
0 
0 
0 
0 
0 
0 
0 
0 
0 
0 
0.04227172594184783 
-0.7072143569363703 
0 
0 
0 
0 
0 
0 
0 
0 
0 
0 
0 
0 
0 
0 
0 
0 
0 
1.307745910744824 
0 
0 
0 
0 
0 
0 
0 
3.085097535207384 
0 
0 
0 
0 
0 
0 
0 
-6.156559883595698 
0 
0 
0 
0 
0 
0 
0 
0 
0 
0 
0 
0 
0 
0 
0 
0 
0 
0 
0 
0 
0 
0 
0 
0 
0 
0 
0 
0 
0 
0 
0 
0 
0 
0 
0 
0 
0 
0 
0 
0 
0 
0 
0 
0 
0 
0 
0 
0 
0 
0 
0.4745156288549368 
0 
0 
0 
0 
0 
0 
0 
0 
0 
0 
0 
0 
0 
0 
0 
0 
0 
0 
0 
0 
0 
0 
0 
0 
0 
0 
0 
0 
0 
0 
0 
0 
0 
0 
0 
0 
0 
0 
0 
0 
0 
0 
0 
0 
0 
0 
0 
0 
0 
0 
0 
0 
0 
0 
0 
0 
0 
0 
0 
0 
0 
0 
0 
0 
0 
0 
0 
0 
0 
0 
0 
0 
0 
0 
0 
0 
0 
0 
0 
0 
0.288738444984607 
0 
0 
0 
0 
0 
0 
0 
0 
0 
0 
0 
0 
0 
0 
0 
0 
0 
0 
0 
0 
0 
0 
0 
0 
0 
0 
-2.738464247630267 
0 
0 
0.7409314643536133 
0 
0 
0 
0 
0 
0 
0 
0 
0 
0 
0 
0 
0 
0 
0 
0 
-0.520922113377729 
0 
0 
0 
0 
0 
0 
0 
0 
0 
0 
0 
-0.2782319420304061 
0 
0 
0 
0 
0 
0 
0 
0 
0 
0 
0 
0 
0 
0 
0 
0 
0 
0 
0 
0 
0 
0 
0 
0 
0 
0 
0 
0 
0 
0 
0 
0 
0 
0 
0 
0 
0 
0 
0 
0 
0 
0 
0 
0 
0 
0 
0 
0 
0 
0 
0 
0 
0 
0 
0 
0 
0 
0 
0 
0 
0 
0 
0 
0 
0 
0 
0 
0.0248598418374409 
0 
0 
0 
0 
0 
-0.2514731973399628 
0 
0 
0 
0 
0 
0 
0 
0 
0 
0 
0 
0 
0 
0 
0 
0 
0 
0 
0 
0 
0 
0 
0 
0 
0 
0 
0 
0 
0 
0 
0 
0 
0 
0 
0 
0 
0 
0 
0 
0 
0 
0 
0 
0 
0 
0 
0 
0 
0 
0 
0 
0 
0 
0 
0 
0 
0 
0 
0 
0 
0 
0 
0 
0 
0 
0 
0 
0 
0 
0 
0 
0 
0 
0 
0 
0 
0 
0 
0 
0 
0 
0 
0 
0 
0 
0 
0 
0 
0 
0 
0 
0 
0 
0 
0 
0 
0 
0 
0 
0 
0 
-1.305973423458403 
0 
0 
0 
0 
0 
0 
0 
0 
0 
0 
0 
0 
0 
0 
0 
0 
0 
0 
0 
0 
0 
0 
0 
0 
0 
0 
0 
0 
0 
0 
0 
0 
0 
0 
0 
0 
0 
0 
0 
0 
0 
0 
0 
0 
0 
0 
0 
0 
0 
0 
0 
0 
0 
0 
0 
0 
0 
0 
0 
0 
0 
0 
0 
0 
0 
0 
0 
0 
0 
0 
0 
0 
0 
0 
0 
0.5702188606735051 
0 
0 
0 
0 
0 
0 
0 
0 
0 
0 
0 
0 
0 
0 
0 
0 
0 
0 
0 
0 
0 
0 
0 
0.2977451987764974 
0.3510126449573246 
0 
0 
0 
0 
0 
0 
0 
0 
0 
-0.8952363926534712 
0 
0 
0 
0 
0 
0 
0 
0 
0 
0 
0 
0 
0 
0 
0 
0 
0 
0 
0 
0 
0 
0 
0 
0 
0 
0 
0 
0 
0 
0 
0 
0 
0 
0 
0 
0 
0 
0 
0 
-1.099665021955991 
0 
0 
0 
0 
0 
0 
0 
0 
0 
0 
0 
0 
0 
0 
0 
-0.0285723907163738 
0 
0 
0 
0 
0 
0 
0 
0 
0 
0 
0 
0 
0 
0 
0 
0 
0 
0 
0 
0 
0 
0 
0 
0 
0 
0 
0 
0 
0 
0 
0 
0 
0 
0 
0 
0 
0 
-1.195200481613796 
0 
0 
0 
0 
0 
0 
0 
0 
0 
0 
0 
0 
0 
0 
0 
0 
0 
0 
0 
0 
0 
0 
0 
0 
0 
0 
0 
0 
0 
0 
0 
0 
0 
0 
0 
0 
0 
0 
0 
0 
0 
0 
0 
1.6406825576517 
0 
0 
0 
0 
0 
0 
0 
0 
0 
0 
0 
0 
2.101490253301882 
0 
0 
0 
0 
0 
0 
0 
0 
0 
0 
0 
0 
0 
0 
0 
0 
0 
0 
0 
0 
-0.8587957195478786 
0 
0 
0 
0 
0 
0 
0 
0 
0 
0 
0 
0 
-1.329413198715995 
0 
0 
0 
0 
0 
0 
0 
0 
0 
0 
0 
0 
0 
0 
0 
0 
0 
0 
0 
0 
0 
0 
0 
0 
0 
0 
0 
0 
0 
0 
0 
0 
0 
0 
0 
0 
0 
0 
0 
-0.9970285873525198 
0 
0 
0 
0 
0 
0 
0 
0 
0 
0 
0 
0 
0 
0 
0 
0 
0 
0 
0 
0 
0 
0 
0 
0 
0 
0 
0 
0 
0 
0 
0 
0 
0 
0 
0 
0 
0 
0 
0 
0 
0 
0 
0 
0 
0 
0 
0 
0 
0 
0 
0 
0 
0 
0 
0 
0 
0 
0 
0 
0 
0 
0 
0 
0 
0 
0 
0 
0 
0 
0 
0 
0 
0 
0 
0 
0 
0 
0 
0 
0 
0 
0 
0 
0 
0 
0 
0 
0 
0 
0 
0 
0 
0 
0 
0 
0 
-0.2413200529370304 
0 
0 
0 
0 
0 
0 
0 
0 
0 
0 
0 
0 
0 
0 
0 
0 
0 
0 
0 
0 
0 
0 
0 
0 
0 
0 
0 
0 
0 
0 
0 
0 
0 
0 
0 
0 
0 
0 
0 
0.1669129188158453 
0 
0 
0 
0 
0 
0 
0 
0 
0 
0 
0 
0 
0 
0 
0 
-0.2715830156037299 
0 
0 
0 
0 
0 
0 
0 
0 
0 
0 
0 
0 
0 
0 
0 
0 
0 
0 
0 
0 
0 
0 
0 
0 
0 
0 
0 
0 
0 
0 
0 
0 
0 
0 
0 
0 
0 
0 
0 
0 
0 
0 
0 
0 
0 
0 
0 
0 
0 
0 
0 
0 
0 
0 
0 
0 
0 
0 
0 
0 
0 
0 
0 
0 
0.1098178309068624 
0.9698983253359768 
0 
0 
0 
0 
0 
0 
0 
0 
0 
0 
0 
0 
0 
0 
0 
0 
-1.056097330588924 
0 
0 
0 
0 
0 
0 
0 
0 
0 
0 
0 
0 
0 
0 
0 
0 
0 
0 
0 
0 
0 
0 
0 
0 
0 
0 
0 
0 
0 
0 
0 
0 
0 
0 
0 
0 
0 
0 
0 
0 
0 
0 
0 
0 
0 
0 
0 
0 
0 
0 
0 
0 
0 
0 
0 
0 
0 
0 
0 
0 
0 
0 
0 
0 
0 
0 
0 
0 
0 
0 
0 
0 
0 
0 
0 
0 
0 
0 
0 
0 
0 
0 
0 
0 
0 
0 
0 
0 
0 
0 
0 
1.931303576532416 
0 
0 
0 
0 
0 
0 
0 
0 
0 
0.5803373805429791 
0 
0 
-1.3571844339307 
0 
0 
0 
0 
0 
0 
0 
0 
0 
1.936583905429232 
0 
0 
0 
0 
0 
0 
0 
0 
0 
0 
0 
0 
0 
0 
0 
0 
0 
0 
0 
0 
0 
0 
0 
0 
0 
0 
0 
0 
0 
0 
0 
0 
0 
0 
0 
0 
0 
0 
0 
0 
0 
0 
0 
0 
0 
0 
0 
0 
0 
0 
0 
0 
0 
0 
0 
0 
0 
0 
0 
0 
0 
0 
0 
0 
0 
0 
0 
0 
0 
0 
0 
0 
0 
0 
0 
0 
0 
0 
0 
0 
0 
0 
0 
0 
0 
0 
0 
0 
0 
0 
0 
0 
0 
0 
0 
0 
0 
0 
0 
0 
0 
0 
0 
0 
0 
0 
0 
0 
0 
0 
0 
0 
0 
0 
0 
0 
0 
0 
0 
0 
0 
0 
0 
0 
0 
0 
0 
0 
0 
0 
0 
0 
0 
0 
0 
0 
0 
0 
0 
0 
0 
0 
0 
0 
0 
0 
0 
0 
0 
0 
0 
0 
0 
0 
0 
0 
0 
0 
0 
0 
0 
0 
0 
0 
0 
0 
0 
0 
0 
0 
0 
0 
0 
0 
0 
0 
0 
0 
0 
0 
0 
0 
0 
0 
0 
0 
0 
0 
0 
0 
0 
0 
0 
0 
0 
0 
0 
0 
0 
0 
0 
0 
0 
0 
0 
0 
0 
0 
0 
0 
0 
0 
0 
0 
0 
0 
0 
0 
0 
0 
0 
0 
0 
0 
0.1508912943126342 
0 
0 
0 
0 
0 
0 
0 
0 
0 
0 
0 
0 
0 
0 
0 
0 
0 
0 
0 
-0.9033609969126111 
0 
0 
0 
0 
0 
0 
0 
0 
0 
0 
0 
0 
0 
0 
0 
0 
0 
0 
0 
0 
0 
0 
0 
0 
0 
0 
0 
0 
0 
0 
0 
0 
0 
0 
0 
0 
0 
0 
-0.1734528026298817 
0 
0 
0 
0 
0 
0 
0 
0 
0 
0 
0 
0 
0 
0 
0 
0 
0 
0 
0 
0 
0 
0 
0 
0 
0 
0 
0 
0 
0 
0 
0 
0 
0 
0 
0 
0 
0 
0 
0 
0 
0 
0 
-0.1236404463536727 
0 
0 
0 
0 
0 
0 
0 
0 
0 
0 
0 
0 
0 
0 
0 
0 
0 
0 
0 
-0.3134130624504102 
0 
0 
0 
0 
0 
0 
0 
0 
0 
0 
0 
0 
0 
0 
0 
0 
0 
0 
0 
0 
0 
0 
0 
0 
0 
0 
0 
0 
0 
0 
0 
0 
0 
0 
0 
0 
0 
0 
0 
0 
0 
0 
0 
0 
0 
0 
0 
0 
0 
0 
0 
-0.4583059885062861 
0 
0 
0 
0 
0.3506715452203904 
0 
0 
0 
0 
0 
0 
0 
0 
0 
0 
0 
0 
0 
0 
0 
0 
0 
0 
0 
0 
0 
0 
0 
0 
0 
0 
0 
0 
0 
0 
0 
0 
0 
0 
0 
0 
0 
0 
0 
0 
0 
0 
0 
0 
0 
0 
0 
0 
0 
0 
0 
0 
0 
0 
0 
0 
0 
0 
0 
0 
0 
0 
0 
0 
0 
0 
0 
0 
0 
0 
0 
0 
0 
0 
0 
0 
0 
0 
-1.729393000073098 
0 
0 
0 
0 
0 
-0.1708826382782777 
0 
0 
0 
0 
0 
0 
0 
0 
0 
0 
0 
0 
0 
0 
0 
0 
0 
0 
0 
0 
0 
0 
0 
0 
0 
0 
0 
0 
0 
0 
0 
0 
0.1306281308729847 
0 
0 
0 
0 
0 
0 
0 
0 
0 
0 
0 
0 
0 
0 
0 
0 
0 
0 
0 
0 
0 
0 
0 
-0.08423584922628502 
0.2676949682743052 
0 
0 
0 
0 
0 
0 
0 
0 
0 
0 
0 
0 
0 
0 
0 
0.6234154927842039 
0 
0 
0 
0 
0 
0 
0 
0 
0 
0 
0 
0 
0 
0 
0 
0 
0 
0 
1.568245562201825 
0 
0 
0 
1.434319200813443 
0 
0 
0 
0 
0 
0 
0 
0 
0 
0 
0 
0 
0 
4.269264029749639 
0 
0 
0 
0 
0 
0 
0 
0 
0 
0 
0 
0 
0 
0 
0 
0 
0 
0 
0.02394309492997206 
0 
0 
0 
0 
0 
0 
0 
0 
0 
0 
0 
0 
0 
0 
0 
0 
0 
0 
0 
0 
0 
0 
0 
0 
0 
0 
0 
0 
0 
0 
0 
0 
0 
0 
0 
0 
0 
0 
0 
0 
0 
0 
0 
0 
0 
0 
0 
0 
0 
0 
0 
0 
0 
0 
0 
0 
0 
0 
0 
0 
0 
0 
0 
0 
0 
0 
0 
0 
0 
0 
0 
0 
0 
0 
0 
0 
0 
0 
0 
0 
0 
0 
0 
0 
0 
0 
0 
0 
0.7102842349084261 
0 
0 
0 
0 
0 
0 
0 
0 
0 
0 
0 
0 
0 
0 
0 
0 
0 
0 
0 
0 
0 
0 
0 
0 
0 
0 
0 
0 
0 
0 
0 
0 
0 
0 
0 
0 
0 
0 
0 
0 
0 
0 
0 
0 
0 
0 
0 
-0.3020901103421616 
0 
0 
0 
0 
0 
0 
0 
0 
0 
0 
0 
0 
0 
0 
0 
0 
0 
0 
0 
0 
0 
0 
0 
0 
0 
0 
0 
0 
0 
0 
0 
0 
0 
0 
0 
0 
0 
0 
-1.262351097913711 
0 
0 
0 
0 
0 
0 
0 
0.4544310764021602 
0 
0 
0 
0 
0 
0 
0 
0 
0 
0 
0 
0 
0 
0 
0 
0 
0 
0 
0 
0 
0 
0 
0 
0 
0 
0 
0 
0 
0 
0 
0 
0 
0 
0 
0 
0 
0 
0 
5.617036661796618 
0 
0 
0 
0 
0 
0 
0 
0 
0 
0 
0 
0 
0 
0 
0 
0 
0 
0 
0 
0 
0 
0 
0 
0 
0 
0 
-0.4781635848062261 
0 
0 
0 
0 
0 
0 
0 
0 
0 
0 
0 
0 
0 
0 
0 
0 
0 
0 
0 
0 
0 
0 
0 
0 
0 
0 
0 
0 
0 
-4.853971427762227 
0 
0 
0 
0 
0 
0 
0 
0 
0 
0 
0 
0 
0 
0 
0 
0 
0 
0 
0 
0 
0 
0 
0 
0 
0 
0 
1.788334379311052 
0 
0 
0 
0 
0 
0 
0 
0 
0 
0 
0 
0 
0 
0 
0 
0 
-1.091968669075508 
0 
0 
0 
0 
0 
0 
0 
0 
0 
0 
0 
0 
0 
0 
0 
0 
0 
0 
0 
0 
0 
0 
0 
0 
0 
0 
0 
0 
0 
0 
0 
0 
0 
0 
0 
0 
0 
0 
0 
0 
0 
0 
0 
0 
0 
0 
0 
0 
0 
0 
0 
0 
0 
0 
0 
0 
0 
0 
0 
0 
0 
0 
0 
0 
0 
0 
0 
0 
0 
0 
0 
0 
0 
0 
0 
0 
-0.1502280529322187 
0 
0 
0 
0 
0 
0 
0 
0 
0 
0 
0 
0 
0 
0 
0 
0 
0 
0 
0 
0 
0 
0 
0 
0 
0 
0 
0 
0 
0 
0 
0 
0 
0 
0 
0 
0 
0 
0 
0 
0 
0 
0 
0 
0 
0 
0 
0 
0 
0 
0 
0 
0 
0 
0 
0 
0 
0 
0 
0 
0 
0 
0 
0 
0 
0 
0 
0 
0 
0 
0.157248584740333 
0 
0 
0 
0 
0 
0 
0 
0 
0 
0 
0 
0 
0 
0 
0 
0 
0 
0 
0 
0 
0 
0 
0 
0 
0 
0 
0 
0 
0 
0 
0 
0 
0 
0 
0 
0 
0 
0 
0 
0 
0 
0 
0 
0 
0 
0 
0 
0 
0 
0.8547202271755395 
0 
0 
0 
0 
0 
0 
0 
0 
0 
0 
0 
0 
0 
0 
0 
0 
0 
0 
0 
0 
0 
0 
0 
0 
0 
0 
0 
0 
0 
0 
0 
0 
0 
0 
0 
0 
0 
0 
0 
0 
0 
0 
0 
0 
0 
0 
0 
0 
0 
0 
0 
0 
0 
0 
0 
0 
0 
0 
0 
0 
0 
0 
0 
0.9768293574668775 
0 
0 
0 
0 
0 
0 
0 
0 
0 
0 
0 
0 
0 
0 
0 
0 
0 
0 
0 
0 
0 
0 
0 
0 
0 
0 
0 
0 
0 
0 
0 
0 
0 
0 
0 
0 
0 
0 
0 
0 
0 
-0.4840438780927821 
0 
0 
0 
0 
0 
0 
0 
0 
0 
0 
0 
-0.2679714393432918 
0 
0 
0 
-0.4930951864027566 
0 
0 
0 
0 
0 
0 
0 
0 
0 
0 
0 
0 
0 
0 
0 
0 
0 
0 
0 
0 
0 
0 
0 
0 
0.09530393593193164 
0 
-0.3575204632760324 
0 
0 
0 
0 
0 
0 
0 
0 
0 
0 
0 
0 
0 
0 
0 
0 
0 
0 
0 
0 
0 
0 
0 
0 
0 
0 
0 
0 
0 
0 
0 
0 
0 
0 
0 
0 
0 
0 
0 
0 
0 
0 
0 
0 
0 
0 
0 
0 
0 
0 
0 
0 
0 
0 
0 
0 
0 
0 
0 
0 
0 
0 
0 
0 
0 
0 
0 
0 
0 
0 
0 
0 
0 
0 
0 
0 
0 
0 
0 
0 
0 
0 
0 
0 
0 
0 
0 
0 
0 
0 
0 
0 
0 
0 
0 
0 
1.286124309469048 
0 
0 
0 
0 
0 
0 
0 
0 
0 
0 
0 
0 
0 
0 
0 
0 
0 
0 
0 
0 
0 
0 
0 
0 
0 
0 
0 
0 
0 
0 
0 
0 
0 
0 
0 
0 
0 
0 
0 
0 
0 
0 
0 
0 
0 
0 
0 
0 
0 
0 
0 
0 
0 
0 
0 
0 
0 
0 
0 
0 
0 
0 
0 
0 
0 
0 
0 
0 
0 
0 
0 
0 
0 
0 
0 
0 
0 
0 
0 
0 
0 
0 
0 
0 
0 
0 
0 
0 
0 
0 
-3.672727498874883 
0 
0 
0 
0 
0 
0 
0 
0 
0 
0 
-0.4632816853844486 
0 
0 
0 
0 
0 
0 
0 
0 
0 
0 
-0.4159068147535607 
0 
0 
0 
0 
0 
0 
0 
0 
0 
0 
0 
0 
0 
0 
0 
0 
0 
0 
0 
0 
0 
0 
0 
0 
0 
0 
0 
0 
0 
0 
0 
0 
0 
0 
0 
0 
0 
0 
0 
0 
0 
0 
0 
0 
0.1082666733032916 
0 
0 
0 
0 
0 
0 
0 
0 
0 
0 
0 
0 
0 
0 
0 
0 
0 
0 
0 
0 
0 
0 
0 
0 
0 
0 
0 
0 
0.4302383582091365 
0 
0 
0 
0 
0 
0 
0 
0 
0 
0 
0 
0 
0 
0 
0 
0 
0 
0 
0 
0 
0 
0 
0 
0 
0 
0 
0 
0 
0 
0 
0 
0 
0 
0 
0 
0 
0 
0 
0 
0 
0 
0 
0 
0 
0 
0 
0 
0 
0 
0 
0 
0 
0 
0 
0 
0 
0 
0 
0 
0 
0 
0 
0 
0 
0 
-0.1803834255584277 
0 
0 
0 
0 
0 
0 
0 
0 
0 
0 
0 
0 
0 
0 
0 
0 
0 
0 
0 
0 
0 
0 
0 
0 
0 
0 
0 
0 
0 
0 
0 
0 
0 
0 
0 
0 
0 
0 
0 
0 
0 
0 
0 
0 
0 
0 
0 
0 
0 
0 
0 
0 
0 
0 
0 
0 
0 
0 
0 
0 
0 
0 
0 
0 
0 
0 
0 
0 
0 
0 
0 
-0.8431334638326092 
0 
0 
0 
0 
0 
0 
0 
0 
0 
0 
1.155819082576543 
0 
0 
0 
0 
0 
0 
0 
0 
0 
0 
0 
0 
0 
2.844101356728891 
0 
0 
0 
0 
0 
0 
0 
0 
0 
0 
0 
0 
0 
0 
0 
0 
0 
0 
0 
0 
0 
0 
0 
0 
0 
0 
0 
0 
0 
0 
0 
0 
-0.7166544953957938 
0 
0 
0 
0 
0 
0 
0 
0 
0 
0 
0 
0 
0 
0 
0 
0 
0 
0 
0 
0 
0 
0 
0 
0 
0 
0 
0 
0 
0 
0 
0 
0 
-1.410987596611459 
0 
0 
0 
0 
0 
0 
0 
0 
0 
0 
0 
0 
0 
0 
0 
0 
0 
0 
0 
0 
0 
0 
0 
0 
0 
0 
0 
0 
0 
0 
0 
0 
0 
0 
0 
0 
0 
0 
0 
0 
0 
0 
0 
0 
0 
0 
0 
0 
0 
0 
0 
0 
0 
0 
0 
0 
0 
0 
0 
0 
0 
0 
0 
0 
0 
0 
0 
0 
0 
0 
0 
0 
0 
0 
0 
0 
0 
0 
0 
0 
0 
0 
0 
0 
0 
0 
0 
0 
0 
0 
0 
0 
0 
0 
0 
0 
0 
0 
0 
0 
0 
0 
0 
0 
0 
0 
0 
0 
0 
0 
0 
0 
0 
0 
0 
0 
0 
0 
0 
0 
0 
0 
0 
0.868278590158334 
0 
0 
0 
0 
0 
0 
0 
0 
0 
0 
0 
0 
0 
0 
0 
0 
0 
0 
0 
0 
0 
0 
0 
0 
0 
0 
0 
0 
0 
0 
0 
0 
0 
0 
0 
0 
0 
0 
0 
0 
0 
0 
0 
0 
0 
0 
0 
0 
0 
0 
0 
0 
0 
0 
0 
0 
0 
0 
0 
0 
0 
0 
0 
0 
0 
0 
0 
0 
0 
0 
0 
0 
0 
0 
0 
0 
0 
0 
0 
0 
0 
0 
0 
0 
0 
-0.4748439826845603 
0 
0 
0 
0 
0 
0 
0 
0 
0 
0 
0 
0 
0 
0 
0 
0 
0 
0 
0 
-2.556826718935966 
0 
0 
0 
0 
0 
0 
0 
0 
0 
0 
0 
0 
0 
0 
0 
-4.116193485085574 
0 
0 
0 
0 
1.800694308923721 
0 
0 
0 
0 
0 
0 
0 
0 
0 
0 
0 
0 
0 
0 
0 
2.551408263851632 
0 
0 
0 
0 
0 
0 
0 
0 
0 
0 
0 
0 
0 
0 
0 
0 
0 
0 
0 
0 
0 
0 
0 
0 
0 
0 
0 
0 
0 
0 
0 
0 
0 
0 
0 
0 
0 
0 
0 
0 
0 
0 
0 
0 
0 
0 
0 
0 
0 
0 
0 
0 
0 
0 
0 
0 
0 
0 
0 
0 
0 
0 
0 
0 
0 
0 
0 
0 
0 
0 
0 
0 
0 
0 
0 
0 
0 
0 
0 
0 
-0.4822090131366774 
0 
0 
0 
0 
0 
0 
0 
0 
0 
0 
0 
0 
0 
0 
0 
0 
0 
0 
0 
0 
0 
0 
0 
0 
0 
0 
0 
0 
0 
0 
0 
0 
0 
0 
0 
0 
0 
0 
0 
0 
0 
0 
0 
0 
0 
0 
0 
0 
0 
0 
0 
0 
0 
0 
0 
0 
0 
0 
0 
0 
0 
0 
0 
0 
0 
0 
0 
0 
0 
0 
0 
0 
0 
0 
0 
0 
0 
0 
0 
0 
0 
0 
0 
0 
0 
0 
0 
0 
0 
0 
0 
0 
0 
0 
0 
0 
0 
0 
0 
0 
0 
0 
0 
0 
0 
0 
0 
0 
0 
0 
0 
0 
0 
0 
0 
0 
0 
0 
0 
0 
0 
0 
0 
0 
0 
0 
0 
0 
0 
0 
0 
0 
0 
0 
0 
0 
0 
0 
0 
0 
0 
0 
0 
0 
0 
0 
0 
0 
0 
0 
0 
0 
0 
0 
0 
0 
0 
0 
0 
0 
0 
0 
0 
0 
0 
0 
0 
0 
0 
0 
0 
0 
-0.8039128120099585 
0 
0 
0 
0 
0 
0 
0 
0 
-1.619140962453957 
0 
0 
-0.8039480339255338 
0 
0 
0 
0 
0 
0 
0 
0 
0 
0 
0 
0 
0 
0 
0 
0 
0 
0 
0 
0 
0 
0 
0 
0 
0 
0 
0 
0 
0 
0 
0 
0 
0 
0 
0 
0 
0 
0 
0 
0 
0 
0 
0 
0 
0 
0 
0 
0 
0 
0 
0 
2.544749294268436 
0 
0 
0 
0 
0 
0 
0 
0 
0 
0 
0 
0 
0 
0 
0 
0 
0 
0 
0 
0 
0 
0 
0 
0 
0 
0 
0 
0 
0 
0 
0 
0 
0 
0 
0 
0 
0 
0 
0 
0 
0 
0 
0 
0 
0 
0 
0 
0 
0 
0 
0 
0 
0 
0 
0 
0 
0 
0 
0 
0 
0 
0 
0 
0 
0 
0 
0 
0 
0 
0 
0 
0 
0 
0 
0 
0 
0 
0 
0 
0 
0 
0 
0 
0 
0 
0 
0 
0 
0 
0 
0 
0 
0 
0 
0 
0 
0 
0 
0 
0 
0 
0 
0 
0 
0 
0 
0 
0 
0 
0 
0 
0 
0 
0 
0 
0 
0 
0 
0 
0 
0 
0 
0 
-0.2773377937339983 
0 
0 
0 
0 
0 
0 
0 
0 
0 
0 
0 
0 
0 
0 
1.041412316767866 
0 
0 
0 
0 
0 
0 
0 
0 
0 
0 
0 
0 
0 
0 
0 
0 
0 
0 
0 
0 
0 
0 
0 
0 
0 
0 
0 
0 
0 
0 
0 
0 
0 
0 
0 
0 
0 
0 
0 
0 
0 
0 
0 
0 
0 
0 
0 
0 
0 
-1.261398736834867 
0 
0 
0 
0 
0 
0 
0 
0 
0 
0 
0 
0 
0 
0 
0 
0.4214002468515988 
0 
0 
0 
0 
0 
0 
0 
0 
0 
0 
0 
0 
0 
0 
0 
0 
0 
0 
0 
1.148459670022513 
0 
0 
0 
0 
0 
0 
0 
0 
0 
0 
0 
0 
0 
0 
0 
0 
0 
0 
0 
0 
0 
0 
0 
0 
0 
-3.389970976777259 
0 
0 
0 
0 
0 
0 
0 
0 
0 
0 
0 
0 
0 
0 
0 
0 
0 
0 
0 
0 
0 
0 
0 
0 
0 
0 
0 
0 
0 
0 
0 
2.288741061632243 
0 
0 
0 
0 
0 
0 
0 
0 
0 
0 
0 
0 
0 
0 
0 
0 
0 
0 
0 
0 
0 
0 
0 
0 
0 
0 
0 
0 
-0.07399556176802545 
0 
0 
0 
0 
0 
0 
0 
0 
0 
0 
0 
0 
0 
0 
0 
0 
0 
0 
0 
0 
0 
0 
0 
0 
0 
0 
0 
0 
0 
0 
0 
0 
0 
0 
0 
0 
0 
0 
0 
0 
0 
0 
0 
0 
0 
0 
0 
0 
0 
0 
0 
0 
0 
0 
0 
0 
0 
0 
0 
0 
0 
0 
0 
0 
0 
0 
0 
0 
0 
0 
0 
0 
0 
0 
0 
0 
0 
-2.630706577099179 
0 
0 
0 
0 
0 
0.7424124206869248 
0 
0 
0 
0 
0 
0 
0 
0 
0 
0 
0 
0 
0 
0 
0 
0 
0 
0 
0 
0 
0 
0 
0 
0 
0 
0 
0 
0 
0 
0 
0 
0 
0 
0 
0 
0 
0 
0 
0 
0 
0 
0 
0 
0 
0 
0 
0 
0 
0 
0 
0 
0 
0 
0 
0 
0 
0 
0 
0 
0 
0 
0 
0 
0 
0 
0 
0 
0 
0 
0 
0 
0 
0 
0 
0 
0 
0 
0 
0 
0 
0 
0 
0 
0 
0 
0 
-0.2733436808142446 
0 
0 
0 
0 
0 
0 
0 
0 
0 
0 
0 
0 
0 
0 
0 
0 
0 
0 
0 
0 
0 
0 
0 
0 
0 
0 
0 
0 
0 
0 
0 
0 
0 
0 
0 
0 
0 
0 
0 
0 
0 
0 
0 
0 
0 
0 
0 
0 
0 
0 
0 
0 
0 
0 
0 
0 
0 
0 
0 
0 
0 
0 
0 
0 
0 
0.3621203794822182 
0 
0 
-0.9041521384401484 
0 
0 
0 
0 
0 
0 
0 
0 
0 
0 
0 
0 
0 
0 
0 
0 
0 
0 
0 
0 
0 
0 
0 
0 
0 
0 
0 
0 
0 
0 
0 
0 
0 
0 
0 
0 
0 
0 
0 
0 
0 
0 
0 
0 
0 
0 
0 
0 
0 
0 
0 
0 
0 
0 
0 
0 
0 
0 
0 
0 
0 
0 
0 
0 
0 
0 
0 
0 
0 
0 
0 
0 
0 
0 
0 
0 
0 
0 
0 
0 
0 
0 
0 
0 
0 
0 
0 
0 
0 
0 
0 
0 
0 
0 
0 
0 
0 
0 
0 
0 
0 
0 
0 
0 
0 
0 
0 
0 
0 
0 
0 
0 
0 
0 
0 
0 
0 
0 
0 
0 
0 
0 
0 
0 
0 
0 
0 
0 
0 
0 
0 
0 
0 
0 
0 
0 
0 
0 
0 
0 
0 
0 
0 
0 
0 
0 
0 
0 
0 
0 
0 
0 
0 
0 
0 
0 
0 
0 
0 
0 
0 
0 
0 
0 
0 
0 
0 
0 
0 
0 
0 
0 
0 
0 
0 
0 
0 
0 
0 
0 
0 
0 
0 
0 
0 
0 
0 
0 
0 
0 
0 
0 
0 
0 
0 
0 
-0.9335819723408179 
0 
0 
0 
0 
0 
0 
0 
0 
0 
0 
1.650935604519979 
0 
0 
0 
0 
0 
0 
0 
0 
0 
0 
0 
0 
0 
0 
0 
0 
0 
0 
0 
0 
0 
0 
0 
0 
0 
0 
0 
0 
0 
0 
0 
0 
0 
0 
0 
0 
0 
0 
0 
0 
0 
0 
0 
0 
0 
0 
0 
0 
0 
0 
0 
0 
0 
0 
0 
0 
0 
0 
0 
0 
0 
0 
0 
0 
0 
0 
0 
0 
0 
0 
0 
0 
0 
0 
0 
0 
0 
0 
0 
0 
0 
0 
0 
0 
0 
0 
0 
0 
0 
0 
0 
0 
0 
0 
0 
0 
0 
0 
0 
0 
0 
0 
0 
0 
0 
0 
0 
0 
0 
0 
0 
0 
0 
0 
0 
0 
0 
0 
0 
0 
0 
0 
0 
0 
0 
0 
0 
0 
0 
0 
0 
0 
0 
0 
0 
0 
0 
0 
0 
0 
0 
0.241703268156479 
0 
0 
0 
0 
0 
0 
0 
0 
0 
0 
0 
0 
0 
0 
0 
0 
0 
0 
0 
0 
0 
0 
0 
0 
0 
0 
0 
0 
0 
0 
0 
0 
0 
0 
0 
0 
0 
0 
0 
0 
0 
0 
0 
0 
0 
0 
0 
0 
0 
0 
0 
0 
0 
0 
0 
0 
0 
0 
0 
0 
0 
0 
0 
0 
0 
0 
0 
0 
0 
0 
0 
0 
0 
0 
0 
0 
0 
0 
0 
0 
0 
0 
0 
0 
0 
0 
0 
0 
0 
0 
0 
0 
0 
0 
0 
0 
0 
0 
0 
0 
0 
0 
0 
0 
0 
0 
0 
-0.8568538866896824 
0 
0 
0 
0 
0 
0 
0 
0 
0 
0 
0 
0 
0 
0 
0 
0 
0 
0 
0 
0 
0 
0 
0 
0 
0 
0 
0 
0 
0 
0 
1.172982102183736 
0 
0 
0 
0 
0 
0 
0 
0 
0 
0 
0 
0 
0 
0 
0 
0 
0 
0 
0 
0 
0 
0 
0 
0 
0 
0 
0 
0 
0 
0 
0 
0 
0 
0 
0 
0 
0 
0 
0 
0 
0 
0 
0 
0 
-1.326371614299167 
0 
0 
0 
0 
0 
0 
0 
-2.824953494076397 
0 
0 
1.954288802106625 
0 
0 
0 
0 
0 
0 
0 
0 
0 
0 
0 
0 
0 
0 
0 
-0.8521057512329093 
0 
0 
0 
0 
0 
0 
0 
0 
0 
0 
0 
0 
0 
0 
0 
0 
0 
0 
0 
0 
0 
0 
0 
0 
0 
0 
0 
0 
0 
0 
0 
0 
0 
0 
0 
0 
0 
0 
0 
0 
0 
0 
0 
0 
0 
0 
0 
0 
0 
0 
0 
0 
0 
0 
0 
0 
0 
0 
0 
0 
0 
0 
0 
-0.04593600078808381 
0 
0 
0 
0 
0 
0 
0 
0 
0 
0 
0 
0 
0 
0 
0 
0 
0 
0 
0 
0 
0 
0 
0 
0 
0 
0 
0 
0 
0 
0 
0 
0 
0 
0 
0 
0 
0 
0 
0 
0 
0 
0 
0 
0 
0 
0 
0 
0 
0 
0 
0 
0 
0 
0 
0 
0 
0 
0 
0 
0 
0 
0 
0 
0 
0 
0 
0 
0 
0 
0 
0 
0 
0 
0 
0 
0 
0 
0 
0 
0 
0 
0 
0 
0 
0 
0 
0 
0 
0 
0 
0 
0 
0 
0 
0 
0 
0 
0 
0 
0 
0 
0 
0 
0 
0 
0 
0 
0 
0 
0 
0 
0 
0 
0 
0 
0.8256978245226454 
0 
0 
0 
-2.417652866315957 
0 
0 
0 
0 
0 
0 
0 
0 
0 
0 
0 
0 
0 
0 
0 
0 
0 
0 
0 
0 
0 
0 
0 
0 
0 
0 
0 
0 
0 
0 
-1.019732600463504 
0 
0 
0 
-3.162915077618612 
0 
0 
0 
0 
0 
0 
0 
0 
0 
0 
0 
0 
0 
0 
0 
0 
0 
0 
0 
0 
0 
0 
0 
0 
0 
0 
0 
0 
0 
0 
0 
0 
0 
0 
0 
0 
0 
0 
0 
0 
0 
0 
0 
0 
0 
0 
0 
0 
0 
0 
0 
0 
0 
0 
0 
0 
0 
0 
0 
0 
0 
0 
0 
0 
0 
0 
0 
0 
0 
0 
0 
0 
0 
0 
0 
0 
0 
0 
0 
0 
0 
0 
0 
0 
0 
0 
0 
0 
0 
0 
0 
0 
0 
0 
0 
0 
0 
0 
0 
0 
0 
0 
0 
0 
0 
0 
0 
0 
0 
0 
0 
0 
0 
0 
0 
0 
0 
0 
0 
0 
0 
0 
0 
0 
0 
0 
0 
0 
0 
0 
0 
0 
0 
0 
0 
0 
0 
0 
0 
0 
0 
0 
0 
0 
0 
0 
0 
0 
0 
0 
0 
0 
0 
0 
0 
0 
0 
0 
0 
0 
0 
0 
0 
0 
0 
0 
0 
0 
0 
0 
0 
0 
0 
0 
0 
0 
0 
0 
0 
0 
0 
0 
0 
0 
0 
0 
0 
0 
0 
0 
0 
0 
0 
0 
0 
0 
0 
0 
0 
0 
0 
0 
0 
0 
0 
0 
0 
0 
0 
0 
0 
0 
0 
1.198779507384262 
0 
0 
0 
0 
0 
0 
0 
0 
0 
0 
0 
0 
0 
0 
0 
0 
0 
0 
0 
0 
0 
0 
0 
0 
0 
0 
0 
-0.9357736348546951 
0 
0 
0 
0 
0 
0 
0 
0 
0 
0 
0 
0 
0 
0 
0 
0 
0 
0 
0 
0 
0 
0 
0 
0 
0 
0 
0 
0 
0 
0 
0 
0 
0 
0 
0 
-0.2463776602474116 
0 
0 
0 
0 
0 
0 
0 
0 
0 
0 
0 
0 
0 
0 
0 
0 
0 
0 
0 
0 
0 
0 
0 
0 
0 
0 
0 
0 
0 
0 
0 
0 
0 
0 
0 
0 
0 
0 
0 
0 
0 
0 
0 
0 
0 
0 
0 
0 
0 
0 
0 
0 
0 
0 
0 
0 
0 
0 
0 
0 
0 
0 
0 
0.9229318379129772 
0 
0 
0 
0 
0 
0 
0 
0 
0 
0 
0 
0 
0 
0 
0 
0 
0 
0 
0 
0 
0 
0 
0 
0 
0 
0 
0 
0 
0 
0 
0 
0 
0 
0 
0 
0 
0 
0 
0 
0 
0 
0 
0 
0 
0 
0 
0 
0 
0 
0 
0 
0 
0 
0 
0 
0 
0 
0 
0 
0 
0 
0 
0 
0 
0 
0 
0 
0 
0 
0 
0 
0 
0 
0 
0 
0 
0 
0 
0 
0 
0 
0 
0 
0 
0 
0 
0 
0 
0 
0 
0 
0 
0 
0 
0 
0 
0 
0 
0 
0 
0 
0 
0 
0 
0 
0 
0 
0 
0 
0 
0 
-4.033546912983783 
0 
0 
0 
0 
0 
0 
0 
0 
0 
0 
0 
0 
0 
0 
0 
0 
0 
0 
0 
0 
0 
0 
0 
0 
0 
0 
0 
0 
0 
0 
0 
0 
0 
0 
0 
0 
0 
0 
0 
0 
0 
0 
0 
0 
0 
0 
0 
0 
0 
0 
0 
0 
0 
0 
0 
0 
0 
0 
0 
0 
0 
0 
0 
0 
0 
0 
0 
0 
0 
0 
0 
0 
0 
0 
0 
-1.387572248593421 
0 
0 
0 
0 
0 
0 
0 
0 
0 
0 
0 
0 
0 
0 
0 
0 
0 
0 
0 
0 
0 
0 
0 
0 
0 
0 
0 
0 
0 
0 
0 
0 
0 
0 
0 
0 
0 
0 
0 
0 
0 
0 
0 
0 
0 
0 
0 
0 
0.4850436386567638 
0 
0 
0 
0 
0.3163349925720153 
0 
0 
0 
0 
0 
0 
0 
0 
0 
0 
0 
0 
0 
0 
0 
-1.700109270543286 
0 
0 
0 
0 
0 
0 
0 
0 
0 
0 
0 
0 
0 
0 
0 
0 
0 
0 
0 
0 
0 
0 
0 
-1.168948268973832 
0 
0 
0 
0 
0 
0 
0 
0 
0 
0 
0 
0 
0 
0 
0 
0 
0 
0 
0 
0 
0 
0 
0 
0 
0 
0 
0 
0 
0 
0 
0 
0 
0 
0 
0 
0 
0 
0 
0 
0 
0 
0 
0 
0 
0 
0 
0 
0 
0 
0 
0 
0 
0 
0 
0 
0 
0 
0 
0 
0 
0 
0 
0 
0 
0 
0 
0 
0 
0 
0 
0 
0 
0 
0 
0 
0 
0 
0 
0 
0 
0 
0 
0 
0 
0 
0 
0 
0 
0 
0 
0 
0 
-2.159753800115218 
0 
0 
0 
0 
0 
0 
0 
0 
0 
0 
0 
0 
0 
0 
0 
0 
0 
0 
0 
0 
-1.372660710197114 
0 
0 
0 
0 
0 
0 
0 
0 
0 
0 
0 
0 
0 
0 
0 
0 
0 
0 
0 
0 
0 
0 
0 
0 
0 
0 
0 
0 
0 
-0.2194645001472915 
0 
0 
0 
0 
0 
0 
0 
0 
0 
0 
0 
0 
0 
0 
0 
0 
0 
0 
0 
0 
0 
0 
0 
0 
0 
0 
0 
0 
0 
0 
-0.07030208211592449 
0 
0 
0 
0 
-0.6224607075044624 
0 
0 
0 
0 
0 
0 
0 
0 
0 
0 
0 
0 
0 
0 
0 
0 
0 
0 
0 
0 
0 
0 
0 
0 
0 
0 
0 
0 
0 
0 
0 
0 
0 
0 
0 
0 
0 
0 
0 
0 
0 
0 
0 
0 
0 
0 
0 
0 
0 
0 
0 
0 
1.701922448692181 
0 
0 
0 
0 
0 
0 
0 
0 
-2.59107089130539 
0 
0 
0 
0 
0 
0 
0 
0 
0 
0 
0 
0 
0 
0 
0 
0 
0 
0 
0 
0 
0 
0 
0 
0 
0 
0 
0 
0 
0 
0 
0 
0 
0 
0 
0 
0 
0 
0 
0 
0 
0 
0 
0 
0 
0 
0 
0 
0 
-0.07344486891411375 
0 
0 
0 
0 
0 
0 
0 
0 
0 
0 
0 
0 
0 
0 
0 
0 
0 
0 
0 
0 
0 
0 
0 
0 
0 
0 
0 
0 
0 
0 
0 
0 
0 
0 
0 
0 
-1.975139139484142 
-0.6896464331774702 
0 
0 
0 
0 
0 
0 
0.5817470010980155 
0 
0 
0 
0 
0 
0 
0 
0 
0 
0 
0 
0 
-3.900512741110463 
0 
0 
0 
0 
0 
0 
0 
0 
0 
0 
0 
0 
0 
0 
0 
0 
0 
0 
0 
0 
0 
0 
0 
0 
0 
0 
0 
0 
0 
0 
0 
0 
0 
0 
0 
0 
0 
0 
0 
-0.2548385781094682 
0 
0 
0 
0 
0 
0 
0 
0 
0 
0 
0 
0 
0 
0 
0 
0 
0 
0 
0 
0 
0 
0 
0 
0 
0 
0 
0 
0 
0 
0 
0 
0 
0 
0 
0 
0 
0 
0 
0 
0 
0 
0 
0 
0 
0 
0 
0 
-4.233165789319432 
0 
0 
0 
2.031441936223918 
0 
0 
0 
0 
0 
0 
0 
0 
0.1351171441849422 
0 
0 
0 
0 
0 
-3.105681025491185 
0 
0 
0 
0 
0 
0 
0.9523838002539116 
0 
0 
0 
0 
0 
0 
0 
0 
0 
0 
0 
0 
0 
0 
0 
0 
0 
0 
0 
0 
0 
-0.1866270302711314 
0 
2.135201940144956 
0 
0 
0 
0 
0 
0 
0 
0 
0 
0 
0 
0 
0 
0 
0 
0 
0 
0 
0 
0 
0 
0 
0 
0 
0 
0 
0 
0 
0 
0 
0 
0 
-0.1551463896753733 
0 
0 
0 
0 
0 
0 
0 
0 
0 
0 
0 
0 
0 
0 
0 
0 
0 
0 
0 
0 
0 
0 
0 
0 
0 
0 
0 
0 
0 
0 
0 
0 
0 
0 
0 
0 
0 
0 
0 
0 
0 
0 
0 
0 
0 
0 
0 
0 
0 
0 
0 
0 
0 
0 
0 
0 
0 
0 
0 
0 
0 
0 
0 
0.3692466156566703 
0 
0 
0 
0 
0 
0 
0 
0 
0 
0 
0 
0 
0 
0 
0 
0 
0 
0 
0 
0 
0 
0 
0 
0 
0.7782291157539242 
0 
0 
0 
0 
0 
0 
0 
0 
0 
0 
0 
0 
0 
0 
0 
0 
0 
0 
0 
0 
0 
0 
0 
0 
0 
0 
0 
0 
0 
0 
0 
0 
0 
0 
0 
0 
0 
0 
0 
0 
0 
0 
0 
0 
0 
0 
0 
0 
0 
0 
0 
0 
0 
0 
0 
0 
0 
0 
0 
0 
0.1218600562154277 
0 
0 
0 
0 
0 
0 
0 
0 
0 
0 
0 
0 
1.585442114323368 
0 
0 
0 
0 
0 
0 
0 
0 
0 
0 
0 
0 
0 
0 
0 
0 
0 
0 
0 
0 
0 
0 
0 
0 
0 
0 
0 
0 
0 
0 
0 
-1.745824051153725 
0 
0 
0 
0 
0 
0 
0 
0 
0 
0 
0 
0 
0 
0 
0 
0 
0 
0 
0 
0 
0 
0 
2.696290161364686 
0 
0 
0 
0 
0 
0 
0 
0 
0 
0 
0 
0 
0 
0 
0 
0 
0 
0 
0 
0 
0 
0 
0 
0 
0 
0 
0 
0 
0 
0 
0 
0 
0 
0 
0 
0 
0 
0 
0 
0 
0 
0 
0 
0 
0 
0 
0 
0 
0 
0 
0 
0 
0 
0 
0 
0 
0 
0 
0 
0 
0 
0 
0 
0 
0 
0 
0 
0 
0 
0 
0 
0 
0 
0 
0 
0 
0 
0 
0 
0 
0 
0 
0 
0 
0 
0 
0 
0 
0 
0 
0 
0 
0 
0 
0 
0 
0 
0 
0 
0 
0 
0 
0 
0 
0 
0 
0 
0 
0 
0 
0 
0 
0 
0 
0 
0 
0 
0 
0 
0 
0 
0 
0 
0 
0 
0 
0 
0 
0.3980839534586094 
0 
0 
0 
0 
0 
0 
0 
0 
0 
0 
0 
0 
0 
0 
0 
0 
0 
0 
0 
0 
0 
0 
0 
0 
0 
0 
0 
0 
0 
0 
0 
0 
0 
0 
0 
0 
0 
0 
0 
0 
0 
0 
0 
0 
0 
0 
0 
0 
0 
0 
0 
0 
0 
0 
0 
0 
0 
0 
0 
0 
0 
0 
0 
0 
0 
0 
0 
0 
0 
0 
0 
0 
0 
0 
0 
0 
0 
0 
0 
0 
0 
0 
0 
0 
0 
0 
0 
0 
1.515798629663726 
0 
0 
0 
0 
0 
0 
0 
0 
0 
0 
0 
0 
0 
0 
0 
0 
0 
0 
0 
0 
0 
0 
0 
-0.05602234013921872 
0 
0 
0 
0 
0 
0 
0 
0 
0 
0 
0 
0 
0 
0 
0 
0 
0 
0 
0 
0 
0 
0 
0 
0 
0 
0 
0 
0 
0 
0 
0 
0 
0 
0 
0 
0 
0 
0 
0 
0 
0 
0 
0 
0 
0 
0 
0 
0 
0 
0 
0 
0 
0 
0 
0 
0 
0 
0 
0 
0 
0 
0 
0 
0 
0 
0 
1.694354295601744 
0 
0 
0.4070212798227232 
0 
0 
0 
0 
0 
0 
0 
0 
0 
0 
0 
0 
0 
0 
0 
0 
0 
0 
0 
0 
0 
0 
0 
0 
0 
0 
0 
0 
0 
0 
0 
0 
0 
0 
0 
0 
0 
0 
0 
0 
0 
0 
0 
0 
0 
0 
0 
0 
0 
0 
0 
0 
0 
0 
0 
0 
0 
0 
0 
0 
0 
0 
0 
0 
0 
0 
0 
0 
-0.6256011040978041 
0 
0 
0 
0 
0 
0 
0 
0 
0 
0 
0 
0 
0 
0.2203423583216952 
0 
0 
0 
0 
0 
0 
0 
0 
0 
0 
0 
0 
0 
0 
0 
0 
0 
0 
0 
0 
0 
0 
0 
0 
0 
0 
0 
0 
0 
0 
0 
0 
0 
0 
0 
0 
0 
0 
0 
0 
0 
0 
0 
0 
1.01423781305326 
0 
0 
0 
0 
0 
0 
0 
0 
-1.374869725594576 
0 
0 
0 
0 
0 
0 
0 
0 
0 
0 
0 
0 
0 
0 
0 
0 
0 
0 
0 
0 
0 
0 
0 
0 
0 
0 
0 
0 
0 
0 
0 
0 
0 
0 
0 
0 
0 
0 
6.766215531256011 
0 
0 
0 
1.887240310278624 
0 
0 
0 
0 
0 
0 
0 
0 
0 
0 
0 
0 
0 
0 
0 
0 
0 
0 
0 
0 
0 
0 
0 
0 
0 
0 
0 
1.890679984537279 
0 
0 
0 
0 
0 
0 
0 
0 
1.480897864288486 
1.43742603223175 
0 
0 
0 
0 
0.6386515876706589 
0 
0 
0 
0 
0 
0 
0 
0 
0 
0 
0 
0 
0 
0 
0 
1.706473828828812 
0 
0 
0 
0 
0 
0 
0 
0 
0.9092276881926461 
0 
0 
0 
0 
0 
0 
0 
0 
4.570859595475976 
0 
0 
0 
0 
0 
0 
0.3163581391089133 
0 
0 
0 
0 
0 
0 
0 
0 
0 
0 
0 
0.6161793665282318 
2.536193231892859 
0 
0 
1.396699719119698 
0 
0 
0 
0 
0 
0 
0 
0 
0 
0 
0 
0 
0 
0 
0 
0 
3.345244720008726 
0 
0 
0 
0 
0 
0 
0 
0 
0 
0 
0 
0 
0 
0 
0 
0 
0 
1.62632963292349 
0 
2.611781580136039 
0 
0 
0 
0 
0 
0 
0 
0 
0 
0 
0 
0 
0 
0 
0 
0 
0 
0 
0 
0 
0 
0 
0 
0 
0 
0 
0 
0 
0 
0 
0 
0 
0 
0 
0 
0 
0 
0 
0 
0 
0 
0 
0 
0 
0 
0 
1.879881918765858 
0 
0 
0.6655123501125376 
0 
0 
1.394932202419127 
0 
0 
0 
0 
0 
0 
0 
0 
0 
0 
-0.0777986058431312 
0 
0 
0 
0 
-0.6208631107296879 
0 
0 
0 
0 
0 
0 
0 
0 
0 
0 
0 
0 
0 
0 
0 
0 
0 
0 
0 
0 
0 
0 
0 
0 
-0.1316242062308738 
0 
0 
0 
0 
0 
0 
0 
0 
0 
0 
0 
0 
0 
0 
0 
2.480365157593129 
0.3504196202046098 
0 
0 
0 
0 
0 
0 
0 
0 
0 
0 
-0.2276672285036434 
-1.961713541335808 
0 
0 
0 
0 
1.048451256002682 
0 
-2.403775504542586 
0 
0 
0 
0 
0 
0 
0 
0 
0 
0 
0 
0 
0 
0 
-0.1444428487827527 
0 
0 
0 
0 
0 
0 
0 
0 
-0.8798827541204254 
0 
0 
0 
0 
0 
0 
0 
0 
0.4361052273054342 
0 
0 
0 
0 
0 
0.8596626424710657 
0 
0 
0.110459198131391 
0 
0 
0 
0 
0 
2.384061343901266 
0 
0 
0 
0 
0 
0.301083787331124 
0 
0 
0.6884104311645544 
0 
0 
0 
0 
0 
0 
0 
0 
0 
0 
0 
0.8590002451933786 
0 
0 
0 
0 
0 
0 
0 
0 
0 
0 
0 
0 
0.8063833269760065 
0 
0 
0 
0 
0 
0 
0 
0 
0 
0 
0 
0 
0 
0 
0.3428988630688562 
0 
0 
0 
0 
0 
0 
0 
0 
0 
0 
0 
0 
0 
0 
-0.8985835000308136 
0 
0 
0 
0 
0 
0 
0 
0 
0 
0 
0 
0 
0 
0 
0 
0 
0 
0 
0 
0 
0 
0 
0 
0 
0 
0 
0 
0 
0 
0 
0 
0 
0 
0 
0 
0 
0 
0 
0 
0 
-0.600830346398335 
0 
0 
0 
0 
0 
0 
0 
0 
0 
-3.249902492104397 
0 
0 
0 
0 
0 
0 
0 
0 
0 
0 
0 
0 
-4.830211006019979 
0 
0 
0 
0 
0 
0 
-2.303666003400984 
0 
0 
0 
0 
0 
0 
0 
0 
0 
0 
0 
0 
0 
0 
0 
0 
0 
0 
0 
0 
0 
0 
0 
0 
0 
0 
0 
0 
0 
0 
0 
0 
0 
0 
0 
0 
0 
0 
0 
0 
0 
0 
0 
0 
0 
-1.618790943159234 
0 
0 
0 
0 
0 
0 
0 
0 
0 
0 
0 
0 
0 
0 
0 
0 
0 
0 
0 
0 
0 
0 
0 
0 
0 
0 
0 
0 
0 
0 
0 
0 
0 
0 
0 
0 
0 
0 
0 
0 
0 
0 
0 
0 
0 
0 
0 
0 
0 
0 
0 
0 
0 
0 
0 
0 
0 
0 
0 
-2.108137931301616 
0 
0 
0 
0 
0 
0 
0 
0 
0 
0 
0 
0 
0 
0 
0 
0 
0 
0 
0 
0 
0 
0 
0 
0 
0 
0 
0 
0 
0 
0 
0 
0 
0 
0 
0 
0 
0 
0 
0 
0 
0 
0 
0 
0 
0 
0 
-4.205165000700514 
0 
0 
0 
0 
-1.345937723736661 
0 
0 
0 
0 
0 
0 
0 
0 
0 
0 
0 
0 
-0.1634080079645023 
0 
0 
0 
0 
0 
0 
0 
0 
0 
0 
0 
0 
0 
0 
0 
0 
0 
0 
0 
0 
0 
0 
0 
0 
0 
0 
0 
0 
0 
0 
0 
0 
0 
0 
0 
0 
0 
0 
0 
0 
0 
0 
0 
0 
0 
0 
0 
0 
0 
0 
0 
0 
0 
0 
0 
0 
0 
0 
0 
0 
0 
0 
0 
-3.755424780452457 
0 
0 
0 
0 
0 
0 
0 
0 
0 
0 
0 
0 
0 
0 
0 
0 
0 
0 
0 
-2.679328780825435 
0 
0 
0 
0 
0 
0 
0 
0 
0 
0 
0 
0 
0 
0 
0 
0 
0 
0 
0 
0 
0 
0 
0 
0 
0 
0 
0 
-0.8052240682129576 
0 
0 
0 
0 
0 
0 
0 
0 
0 
0 
0 
0 
0 
0 
0 
0 
0 
0 
0 
0 
0 
0 
0 
0 
0 
0 
0 
0 
0 
0 
0 
0 
0 
0 
0 
0 
0 
0 
0 
0 
0 
0 
0 
0 
0 
0 
-2.265348145785 
-0.9144473792286713 
0 
0 
0 
0 
0 
0 
0 
0 
-1.74946919005645 
-2.335438694406347 
0 
0 
0 
0 
0 
0 
0 
0 
-1.730580595498846 
0 
0 
0 
0 
0 
0 
0 
0 
0 
0 
0 
0 
0 
0 
0 
0 
0 
0 
0 
0 
0 
0 
0 
0 
0 
0 
0 
0 
0 
0 
0 
0 
0 
0 
0 
0 
0 
0 
0 
0 
0 
0 
0 
0 
0 
0 
0 
0 
0 
0 
0 
0 
0 
0 
0 
0 
0 
0 
0 
0.4495781398877083 
0 
0 
0 
0 
0 
0 
0 
0 
0 
0 
0 
0 
0 
0 
0 
0 
0 
0 
0 
0 
0 
0 
0 
0 
0 
0 
0 
0 
0 
0 
0 
0 
0 
0 
0 
0 
0 
0 
0 
0 
0 
0 
0 
0 
0 
0 
0 
0 
0 
0 
0 
0 
0 
0.2305858235739554 
0 
0 
0 
0 
0 
0 
0 
0 
0 
0 
0 
0 
0 
0 
0 
0 
0 
0 
0 
0 
0 
0 
0 
0 
0 
0 
0 
0 
0 
0 
0 
0 
0 
0 
0 
0 
0 
0 
0 
0 
0 
0 
0 
0 
0 
0.5341751290778357 
0 
0 
0 
0 
0 
0 
0 
0 
0 
0 
0 
0 
0 
0 
0 
0 
0 
0 
0 
0 
0 
0 
0 
0 
0 
0 
0 
0 
0 
0 
0 
0 
0 
0 
0 
0 
0 
0 
0 
0 
0 
-0.3303504325722918 
0 
0 
0 
0 
0 
0 
0 
0 
0.9376239800257209 
0 
0 
0 
0 
0 
0 
0 
0 
0 
0 
0 
0 
0 
0 
0 
0 
0 
0 
0 
0 
0 
0 
0 
0 
0 
0 
0 
0 
0 
0 
0 
0 
0 
0 
0 
0 
0 
0 
0 
0 
0 
0 
0 
0 
0 
0 
0 
0 
0 
0 
0 
0 
0 
0 
0 
0 
0 
0 
0 
0 
0 
0 
0 
0 
0 
0 
0 
0 
0 
0 
0 
0 
0 
0 
0 
0 
0 
0 
0 
0 
0 
0 
0 
0 
0 
0 
0 
0 
0 
0 
0 
0 
0 
0 
0 
-1.050621646694482 
0 
0 
0 
0 
0 
0 
0 
0 
0 
0 
0 
0 
0 
0 
0 
0 
0 
0 
0 
0 
0 
0 
0 
0 
0 
0 
0 
0 
0 
0 
0 
0 
0 
2.413197336314684 
0 
0 
0 
0 
0 
0 
0 
0 
0 
0 
0 
0 
0 
0 
0 
0 
0 
0 
0 
0 
0 
0 
0 
0 
0 
0 
0 
0 
0 
0 
0 
0 
0 
0 
0 
0 
0 
0 
0 
0 
0 
0 
0 
0 
0 
0 
0 
0 
0 
0 
0 
0 
0 
0 
0 
0 
0 
0 
0 
0 
0 
0 
0 
0 
0 
0 
0 
0 
0 
0 
0 
0 
0 
0 
0 
0 
0 
0 
0 
0 
0 
0 
0 
0 
0 
0 
0 
0 
0 
0 
0 
0 
0 
0 
0 
0 
0 
0 
0 
0 
0 
0 
0 
0 
0 
0 
0 
0 
0 
0 
0 
0 
0 
0 
0.6584299901158838 
0 
0 
-0.1766673482946557 
0 
0 
0 
0 
0 
0 
0 
0 
0 
0 
0 
0 
0 
0 
0 
0 
0 
0 
0 
0 
0 
0 
0 
0 
0.127796776280782 
0 
0 
0 
0 
0 
0 
0 
0 
0 
0 
0 
-0.1016320999050628 
0 
0 
0 
0 
0 
0 
0 
0 
0 
0 
0 
0 
0 
0 
0 
0 
0 
0 
0 
0 
0 
0 
0 
0 
0 
0 
0 
0 
0 
0 
0 
0 
0 
0 
0 
0 
0 
0 
0 
0 
0 
0 
0 
0 
0 
0 
0 
0 
0 
0 
0 
0 
0 
0 
0 
0 
0 
0 
0 
0 
0 
0 
0 
0 
0 
0 
0 
0.3024521709704359 
0 
0 
0 
0 
2.880305239454772 
0 
0 
0 
0 
0 
0 
0 
0 
0 
0 
0 
0 
0 
0 
0 
0 
0 
0 
0 
0 
0 
0 
0 
0 
0 
0 
0 
0 
0 
0 
0 
0 
0 
0 
0 
0 
0 
0 
0 
0 
0 
-0.06238035304340071 
0 
0 
0 
0 
0 
-1.637070698078567 
0 
0 
0 
0 
0 
0 
0 
0 
0 
0 
0 
0 
0 
0 
0 
0 
0 
0 
0 
0 
0 
0 
0 
0 
0 
0 
0 
0 
0 
0 
0 
-1.097684690458146 
0 
0 
0 
0 
0 
0 
0 
-0.3725175439320943 
0 
0 
0 
0 
0 
0 
0 
0 
0 
0 
0 
0 
0 
0 
0 
0 
0 
0 
0 
0 
0 
0 
0 
0 
0 
0 
0 
0 
0 
0 
0 
0 
0 
0 
0 
0 
0 
0 
0 
0 
0 
0 
0 
0 
0 
0 
0 
0 
0 
0 
0 
1.503680153056107 
0 
0 
0 
0 
0 
0 
0 
0 
0 
0 
0 
0 
0 
0 
0 
0 
0 
0 
0 
0 
0 
0 
0 
0 
0 
0 
0 
0 
0 
0 
0 
0 
0 
0 
0 
0 
0 
0 
0 
0 
0 
0 
0 
0 
0 
0 
0 
0 
0 
0 
0 
0 
0 
0 
0 
0 
0 
0 
0 
0 
0 
0 
0 
0 
0 
0 
0 
0 
0 
0 
0 
0 
0 
0 
0 
0 
0 
0 
0 
0 
0 
0 
0 
0 
0 
0 
0 
0 
0 
0 
0 
0 
0 
0 
0 
0 
0 
0 
0 
0 
0 
0 
0 
0 
0 
0 
0 
0 
0 
0 
0 
0 
0 
0 
0 
0.451935332520582 
0 
0 
0 
0 
0 
0 
0 
0 
-2.7366657719756 
0 
0 
0 
0 
0 
0 
0 
0 
0 
0.5611066054037301 
-2.467142489860576 
0 
0 
0 
0 
0 
0 
0 
0 
0 
0 
-1.011101826480507 
0 
0 
0.784421181190077 
0 
0 
0 
0 
0 
0.9270450334127617 
0 
0 
0 
0 
0 
0 
0 
0 
0 
0 
0 
0 
0 
0 
0 
0 
0.7921482300218347 
0 
0 
0 
0 
0 
0 
0 
0 
0 
0 
5.657628111360597 
-2.043988882529761 
0 
0 
0 
0 
0 
0 
0 
0 
0 
0 
0.2635290589479958 
0 
0 
0 
0 
0 
-0.4994702425210088 
0 
0 
0 
0 
0 
0 
0 
0 
0 
0 
0 
0 
0 
0 
0 
0 
0 
0 
0 
0 
0 
0 
0 
0 
0 
0 
0 
0 
0 
0 
0 
0 
0 
0 
0 
0 
0 
0 
0 
0 
0 
0 
0 
0 
0 
0 
0 
0 
0 
0 
0 
0 
0 
0 
0 
0 
0 
0 
0 
0 
0 
0 
0 
0 
0 
0 
0 
0 
0 
0 
0 
0 
0 
0 
0 
0 
0 
0 
0 
0 
0 
0 
0 
0 
0 
0 
0 
0 
0 
0 
0 
0 
0 
0 
0 
0 
0 
0 
0 
0 
0 
0 
0 
0 
0 
0 
0 
0 
0 
0 
0 
0 
0 
0 
0 
0 
0 
0 
0 
0 
0 
0 
0 
0 
0 
0 
0 
0 
0 
0 
0 
0 
0 
0 
0 
0 
0 
0 
0 
0 
0 
0 
0 
0 
0 
0 
0 
0 
0 
0 
0 
0 
0 
0 
0 
0 
0 
0 
0 
0 
0 
0 
0 
0 
0 
0 
0 
0 
0 
0 
0 
0 
0 
0 
0 
0 
0 
0 
0 
0 
0 
0 
0 
0 
0 
0 
0 
0 
0 
0 
0 
0 
0 
0 
0 
0 
0 
0 
0 
0 
0 
0 
0 
0 
0 
0 
0 
0 
0 
0 
0.9748744563702274 
0 
0.8903139728639555 
0 
0 
0 
0 
0 
0 
1.273225153308594 
0 
0 
0 
0 
0 
0 
0 
0 
0 
0 
0 
0 
0 
0 
0 
0 
0 
0 
0 
-0.95082664702057 
0 
0 
0 
0 
0 
0 
0 
0 
-5.745649241245733 
0 
0 
0 
0 
0 
0 
0 
0 
0 
0 
0 
0 
0 
0 
0 
0 
0 
0 
0 
0 
0 
0 
0 
0 
0 
0 
0 
0 
0 
0 
0 
0 
0 
0 
0 
0 
0 
0 
0 
0 
0 
0 
0 
0 
0 
0 
0 
0 
0 
0 
0 
0 
0 
0 
0 
0 
0 
0 
0 
0 
0 
0 
0 
0 
0 
0 
0 
0 
0 
0 
0 
0 
0 
0 
0 
0 
0 
0 
0 
0 
0 
0 
0 
0 
0 
0 
0 
0 
0 
0 
0 
0 
0 
0 
0 
0 
0 
0 
0 
0 
0 
0 
0 
0 
0 
0 
0 
0 
0 
0 
0 
0 
0 
0 
0 
0 
0 
0 
0 
0 
0 
0 
0 
0 
0 
0 
0 
0 
0 
0 
0 
0 
0 
0 
0 
0 
0 
0 
0 
0 
0 
0 
0 
0 
0 
0 
0 
0 
0 
0 
0 
0 
0 
0 
0 
0 
0 
0 
0 
0 
0 
0 
0 
0 
0 
0 
0 
0 
0 
0 
0 
0 
0 
0 
0 
0 
0 
0 
0 
0 
0 
0 
0 
0 
0 
0 
0 
0 
0 
0 
0 
0 
0 
0 
0 
0 
0 
0 
0 
0 
0 
0 
0.1362975359311001 
0 
0 
0 
0 
0 
0 
0 
0 
0 
0 
0 
0 
0 
0 
0 
0 
0 
0 
0 
0 
0 
0 
0 
0 
0 
0 
0 
-1.282083235399543 
0 
0 
0 
0 
0 
0 
0 
0 
0 
0 
0 
0 
-1.722312642809534 
0 
0 
0 
0 
0 
0 
0 
0 
0 
0 
0 
0 
0 
0 
0 
0 
0 
0 
0 
0 
0 
0 
0 
0 
0 
0 
0 
0 
0 
0 
0 
0 
0 
0 
0 
0 
0 
1.614526707416952 
0 
0 
0 
0 
0 
0 
0 
0 
0 
0 
0 
0 
0 
0 
0 
0 
0 
0 
0 
0 
0 
0 
0 
0 
0 
0 
0 
0 
0 
0 
0 
0 
0 
0 
0 
0 
0 
0 
0 
0 
0 
0 
0 
0 
0 
0 
0 
0 
0 
0 
0 
0 
0 
0 
0 
0 
0 
0 
0 
0 
0 
0 
0 
0 
0 
0 
0 
0 
0 
0 
0 
0 
0 
0 
0 
0 
0 
0 
0 
0 
0 
0 
0 
0 
0 
0 
0 
0 
0 
0 
0 
0 
0 
0 
0 
0 
0 
0 
0 
0 
0 
0 
0 
0 
0 
0 
0 
0 
0 
0 
0 
0 
0 
0 
0 
0 
0 
0 
0 
0 
0 
0 
0 
0 
0 
0 
0 
0 
0 
0 
0 
0 
0 
0 
0 
0 
0 
0 
0 
0 
-0.1617779665659904 
0 
0 
0 
0 
0 
0 
0 
0 
0 
0 
0 
0 
0 
0 
0 
0 
0 
0 
0 
0 
0 
0 
0 
0 
0 
0 
0 
0 
0 
0 
0 
0 
0 
0 
0 
0 
0 
0 
0 
0 
0 
0 
0 
0 
0 
0 
0 
0 
0 
0 
0 
0 
0 
0 
0 
0 
0 
0 
0 
0 
0 
0 
0 
0 
0 
0 
0 
0 
0 
0 
0 
0 
0 
0 
0 
0 
0 
0 
0 
0 
0 
0 
0 
0 
0 
0 
0 
0 
0 
0 
0 
0 
0 
0 
0 
0 
0 
0 
0 
0 
0 
0 
0 
0 
0 
0 
0 
0 
0 
0 
0 
0 
0 
0 
0 
0 
0 
0 
0 
0 
0 
0 
0 
0 
0 
0 
0 
0 
0 
0 
0 
0 
0 
0 
0 
0 
0 
0 
0 
0 
0 
0 
0 
0 
0 
0 
0 
0 
0 
0 
0 
0 
0 
0 
0 
0 
0 
2.12340469025978 
0 
0 
0 
0 
0 
0 
0 
0 
0 
0 
0 
0 
0 
0 
0 
0 
0 
0 
0 
0.1823968464863422 
0 
0 
0 
0 
0 
0 
0 
0 
0 
0 
0 
0 
0 
0 
0 
0 
0 
0 
0 
0 
0 
0 
0 
0 
0 
0 
0 
0 
0 
0 
0 
0 
0 
0 
0 
0 
0 
0 
0 
0 
0 
0 
0 
0 
0 
0 
0 
0 
0 
0 
0 
0 
0 
0 
0 
0 
0 
0 
0 
0 
0 
0 
0 
0 
0 
0 
0 
0 
0 
-2.015835373458832 
0 
0 
0 
0 
0 
0 
0 
0 
0 
0 
0 
0 
0 
0 
0 
0 
0 
0 
0 
0 
0 
0 
0 
0 
0 
0 
0 
0 
0 
0 
0 
0 
0 
0 
0 
0 
0 
0 
0 
0 
0 
0 
0 
0 
0 
0 
0 
0 
0 
0 
0 
0 
0 
0 
0 
0 
0 
0 
0 
0 
0 
0 
0 
0 
0 
0 
0 
0 
0 
0 
0 
0 
0 
0 
0 
0 
0 
0 
0 
0 
0 
0 
0 
0 
0 
0 
0 
0 
0 
0 
0 
0 
0 
0 
0 
0 
0 
0 
0 
0 
0 
0 
0 
0 
0 
0 
0 
0 
0 
0 
0 
0 
0 
0 
0 
0 
0 
0 
0 
0 
0 
0 
0 
0 
0 
0 
0 
0 
0 
0 
0 
0 
0 
0 
0 
0 
0 
0 
0 
0 
0 
0 
0 
0 
0 
0 
0 
0 
-5.138588682168719 
0 
0 
0 
0 
0 
0 
0 
-0.5165622040289274 
0 
0 
0 
0 
0 
0 
0 
0 
0 
1.740625111736792 
0 
0 
0 
0 
0 
0 
0 
0 
0 
0 
0 
0 
0 
0 
0 
0 
0 
0 
0 
0 
0 
0 
0 
0 
0 
0 
0 
-0.6495446556301137 
0 
0 
0 
0 
0 
0 
0 
0 
0 
0 
0 
0 
0 
0 
0 
0 
0 
0 
0 
0 
0 
0 
0 
0 
0 
0 
0 
0 
0 
0 
0 
0 
-0.9247287978873919 
0 
0 
0 
0 
0 
0 
0 
0 
0 
0 
0 
0 
0 
0 
0 
0 
0 
0 
0 
0 
0 
0 
0 
0 
0 
0 
0 
0 
0 
0 
0 
0 
0 
0 
0 
0 
0 
0 
0 
0 
0 
0 
0 
0 
0 
0 
0 
0 
0 
0 
0 
0 
0 
0 
0 
0 
0 
0 
0 
0 
0 
0 
0 
0 
1.997478692712187 
0 
0 
0 
0 
0 
0 
0 
0 
0 
0 
0 
0 
0 
0 
0 
0 
0 
0 
0 
0 
0 
0 
0 
0 
0 
0 
0 
0 
0 
0 
0 
0 
0 
0 
0 
0 
0 
0 
0 
0 
0 
0 
0 
0 
0 
0 
0 
0 
0 
0 
0 
0 
0 
0 
0 
0 
0 
0 
0 
0 
0 
0 
0 
0 
0 
0 
0 
0 
0 
0 
0 
0 
0 
0 
0 
0 
0 
0 
0 
0 
0 
0 
0 
0 
0 
0 
0 
0 
0 
0 
0 
0 
0 
0 
0 
0 
0 
0 
0 
0 
0 
0 
0 
0 
0 
0 
0 
0 
0 
0 
0 
-0.7055370645487789 
0 
0 
0 
0 
0 
0 
0 
0 
0 
0 
0 
0 
0 
0 
0 
0 
0 
0 
0 
0 
0 
0 
0 
0 
0 
0 
0 
0 
0 
0 
0 
0 
0 
0 
0 
0 
0 
0 
0 
0 
0 
0 
0 
0 
0 
0 
0 
0 
0 
0 
0 
0 
0 
0 
0 
0 
0 
0 
0 
-1.092938948254605 
0 
0 
0 
0 
0 
0 
0 
0 
0 
0 
0 
0 
0 
0 
0 
0 
0 
0 
0 
0 
0 
0 
0 
0 
0 
0 
0 
0 
1.826688062323472 
0 
0 
0.829064066207189 
0 
0 
0 
0 
0 
0 
0 
0 
0 
0 
0 
0 
0 
0 
0 
0 
0 
0 
0 
0 
0 
0 
0 
0 
0 
0 
0 
0 
0 
0 
0 
0 
0 
0 
0 
0 
0 
0 
0 
0 
0 
0 
0 
0 
0 
0 
0 
0 
0 
0 
0 
0 
0 
0 
0 
0 
0 
0 
0 
0 
0 
0 
0 
0 
0 
0 
0 
0 
0 
0 
0 
0 
0 
0 
0 
-2.181203350384954 
0 
0 
0 
0 
0 
0 
0 
0 
0 
0 
0 
0 
0 
0 
0 
0 
0 
0 
0 
0 
0 
0 
0 
0 
0 
0 
0 
0 
0 
0 
0 
0 
0 
0 
0 
0 
0 
0 
0 
0 
0 
0 
0 
0 
0 
0 
0 
0 
0 
0 
0 
0 
0 
0 
0 
0 
0 
0 
0 
0 
0 
0 
0 
0 
0 
0 
0 
0 
0 
0 
0 
0 
0 
0 
0 
0 
0 
0 
0 
0 
0 
0 
0 
0 
0 
0 
0 
0 
0 
0 
0 
0 
0 
0 
0 
0 
0 
0 
0 
0 
0 
0 
0 
0 
0 
0 
0 
0 
0 
0 
0 
0 
0 
0 
0 
0 
0 
0 
0 
0 
0 
0 
0 
0 
0 
-1.300292173451146 
0 
0 
0 
0 
0 
0 
0 
0 
0 
0 
0 
0 
0 
0 
0 
0 
0 
0 
0 
0 
-0.0192784990505562 
0 
0 
0 
0 
0 
0 
0 
0 
0 
0 
0 
0 
0 
0 
0 
0 
0 
0 
0 
0 
0 
0 
0 
0 
0 
0 
0 
0 
0 
0 
0 
0 
0 
0 
0 
0 
0 
0 
0 
0 
0 
0 
0 
0 
0 
0 
0 
0 
0 
0 
0 
0 
0 
0 
0 
0 
0 
0 
0 
0 
0 
0 
0 
0 
0 
0 
0 
0 
0 
0 
0 
0 
0 
0 
0 
0 
0 
0 
0 
0 
0 
0 
0 
0 
0 
0 
0 
0 
0 
0 
0 
0 
0 
0 
0 
0 
0 
0 
0 
0 
0 
0 
0 
0 
0 
0 
0 
0 
0 
0 
0 
0 
0 
0 
0 
0 
0 
0 
0 
0 
0 
0 
0 
0 
0 
0 
0 
0 
0 
0 
0 
0 
0 
0 
0 
0 
0 
0 
0 
0 
0 
0 
0 
0 
0 
0 
0 
0 
0 
0 
0 
0 
0 
0 
0 
0 
0 
0 
0 
0 
0 
0 
0 
0 
0 
0 
0 
0 
0 
0 
0 
0 
0 
0 
0 
0 
0 
0 
0 
0 
0 
0 
0 
0 
0 
0 
0 
0 
0 
0 
0 
0 
0 
0 
0 
0 
0 
0 
0 
0 
0 
0 
0 
0 
0 
0 
0 
0 
0 
0 
0 
0 
0 
0 
0 
0 
0 
0 
0 
0 
0 
0 
0 
0 
0 
0 
0 
0 
0 
0 
0 
0 
0 
0 
0 
0 
0 
0 
0 
0 
0 
0 
0 
0 
0 
0 
0 
0 
0 
0 
0 
0 
0 
0 
0 
0 
0 
0 
0 
0 
0 
0 
0 
0 
0 
0 
0 
0 
0 
0 
0 
0 
0 
0 
0 
0 
0 
0 
0 
0 
0 
0 
0 
0 
0 
0 
0 
0 
0 
0 
0 
0 
0 
0 
0 
0 
0 
0 
0 
0 
0 
0 
0 
0 
0 
0 
0 
0 
0 
0 
0 
0 
0 
0 
0 
0 
0 
0 
0 
0 
0 
0 
0 
0 
0 
0 
0 
0 
0 
0 
0 
0 
0 
0 
0 
0 
0 
0 
0 
0 
0 
0 
0 
0 
0 
0 
0 
0 
0 
0 
0 
0 
0 
0 
0 
0 
0 
0 
0 
0 
0 
0 
0 
0 
0 
0 
0 
0 
0 
0 
0 
0 
0 
0 
0 
0 
0 
0 
0 
0 
0 
0 
0 
0 
0 
0 
0 
0 
0 
0 
0 
0 
0 
0 
0 
0 
0 
0 
0 
0 
0 
0 
0 
0 
0 
0 
0 
0 
0 
0 
0 
0 
0 
0 
0 
0 
0 
0 
0 
0 
0 
0 
0 
0 
0 
0 
0.3329313314531506 
0 
0 
0 
0 
0 
0 
0 
0 
0 
0 
0 
0 
0 
0 
0 
0 
0 
0 
0 
0 
0 
0 
0 
0 
0 
0 
0 
0 
0 
0 
0 
0 
0 
0 
0 
0 
0 
0 
0 
0 
0 
0 
0 
0 
0 
0 
0 
0 
0 
0 
0 
0 
0 
0 
0 
0 
0 
0 
0 
0 
0 
0 
0 
0 
0 
0 
0 
0 
0 
0 
0 
0 
0 
0 
0 
0 
0 
0 
0 
0 
0 
0 
0 
0 
0 
0 
0 
0 
0 
0 
0 
0 
0 
0 
0 
0 
0 
0 
0 
0 
0 
0 
0 
0 
0 
0 
0 
0 
0 
0 
0 
0 
0 
0 
0 
0 
0 
0 
0 
0 
0 
0 
0 
0 
0 
0 
0 
0 
0 
0 
0 
0 
0 
0 
0 
0 
0 
0 
0 
0 
0 
0 
0 
0 
0 
0 
0 
0 
0 
0 
0 
0 
0 
0 
0 
0 
0 
0 
0 
0 
0 
0 
0 
0 
0 
0 
0 
0 
0 
0 
0 
0 
0 
0 
0 
0 
0 
0 
0 
0 
0 
0 
0 
0 
0 
0 
0 
0 
0 
0 
0 
0 
0 
0 
0 
0 
0 
0 
0 
0 
0 
0 
0 
0 
0 
0 
0 
0 
0 
0 
0 
0 
0 
0 
0 
0 
0 
0 
0 
0 
0 
0 
0 
0 
0 
0 
0 
0 
0 
0 
0 
0 
0 
0 
0 
0 
0 
0 
0 
0 
0 
0 
0 
0 
0 
0 
0 
0 
0 
0 
0 
0 
0 
0 
0 
0 
0 
0 
0 
0 
0 
0 
0 
0 
0 
0 
0 
0 
0 
0 
0 
0 
0 
0 
0 
0 
0 
0 
0 
0 
0 
0 
0 
0 
0 
0 
0 
0 
0 
0 
0 
0 
0 
0 
0 
0 
0 
0 
0 
0 
0 
0 
0 
0 
0 
0 
0 
0 
0 
0 
0 
0 
0 
0 
0 
0 
0 
0 
0 
0 
0 
0 
0 
0 
0 
0 
0 
0 
0 
0 
0 
0 
0 
0 
0 
0 
0 
0 
0 
0 
0 
0 
0 
0 
0 
0 
0 
0 
0 
0 
0 
0 
0 
0 
0 
0 
0 
0 
0 
0 
0 
0 
0 
0 
0 
0 
0 
0 
0 
0 
0 
0 
0 
0 
0 
0 
0 
0 
0 
0 
0 
0 
0 
0 
0 
0 
0 
0 
0 
0 
0 
0 
0 
0 
0 
0 
0 
0 
0 
0 
0 
0 
0 
0 
0 
0 
0 
0 
0 
0 
0 
0 
0 
0 
0 
0 
0 
0 
0 
0 
0 
0 
0 
0 
0 
0 
0 
0 
0 
0 
0 
0 
0 
0 
0 
0 
0 
0 
0 
0 
0 
0 
0 
0 
0 
0 
0 
0 
0 
0 
0 
0 
0 
0 
0 
0 
0 
0 
0 
0 
0 
0 
0 
0 
0 
0 
0 
0 
0 
0 
0 
0 
0 
0 
0 
0 
0 
0 
0 
0 
0 
0 
0 
0 
0 
0 
0 
0 
0 
0 
0 
0 
0 
0 
0 
0 
0 
0 
0 
0 
0 
0 
0 
0 
0 
0 
0 
0 
0 
0 
0 
0 
0 
0 
0 
0 
0 
0 
0 
0 
0 
0.2296504260745129 
0 
0 
0 
0 
0 
0 
0 
0 
0 
0 
0 
0 
0 
0 
0 
0 
0 
0 
0 
0 
0 
0 
0 
0 
0 
0 
0 
0 
0 
0 
0 
0 
0 
0 
0 
0 
0 
0 
0 
0 
0 
0 
0 
0 
0 
0 
0 
0 
0 
0 
0 
0 
0 
0 
0 
0 
0 
0 
0 
0 
0 
0 
0 
0 
0 
0 
0 
0 
0 
0 
0 
0 
0 
0 
0 
0 
0 
0 
0 
-0.7724319924871178 
0 
0 
0 
0 
0 
0 
0 
0 
0 
0 
0 
0 
0 
0 
0 
0 
0 
0 
0 
0 
0 
0 
0 
0 
0 
0 
0 
0 
0 
0 
0 
0 
0 
0 
0 
0 
0 
0 
0 
0 
0 
0 
0 
0 
0 
0 
0 
0 
0 
0 
0 
0 
0 
0 
0 
0 
0 
0 
0 
0 
0 
0 
0 
0 
0 
0 
0 
0 
0 
0 
0 
0 
0 
0 
0 
0 
0 
0 
0 
0 
0 
0 
0 
0 
0 
0 
0 
0 
0 
0 
0 
0 
0 
0 
0 
0 
0 
0 
0 
0 
0 
0 
0 
0 
0 
0 
0 
0 
0 
0 
0 
0 
0 
0 
0 
0 
0 
0 
0 
0 
0 
0 
0 
0 
0 
0 
0 
0 
0 
0 
0 
0 
0 
0 
0 
0 
0 
0 
0 
0 
0 
0 
0 
0 
0 
0 
0 
0 
0 
0 
0 
0 
0 
0 
0 
0 
0 
0 
0 
0 
0 
0 
0 
0 
0 
0 
0 
0 
0 
0 
0 
0 
0 
0 
0 
0 
0 
0 
0 
0 
0 
0 
0 
0 
0 
0 
0 
0 
0 
0 
0 
0 
0 
0 
0 
0 
0 
0 
0 
0 
0 
0 
0 
0 
0 
0 
0 
0 
0 
0 
0 
0 
0 
0 
0 
0 
0 
0 
0 
0 
0 
0 
0 
0 
0 
0 
0 
0 
0 
0 
0 
0 
0 
0 
0 
0 
0 
0 
0 
0 
0 
0 
0 
0 
0 
0 
0 
0 
0 
0 
0 
0 
0 
0 
0 
0 
0 
0 
0 
0 
0 
0 
0 
0 
0 
0 
0 
0 
0 
0 
0 
0 
0 
0 
0 
0 
0 
0 
0 
0 
0 
0 
0 
0 
0 
0 
0 
0 
0 
0 
0 
0 
0 
0 
2.503509295279 
0 
0 
0 
0 
0 
0 
0 
0 
0 
0 
0 
0 
0 
0 
0 
0 
0 
0 
0 
0 
0 
0 
0 
0 
0 
0 
0 
0 
0 
0 
0 
0 
0 
0 
0 
0 
0 
0 
0 
0 
0 
0 
0 
0 
0 
0 
0 
0 
0 
0 
0 
0 
0 
0 
0 
1.650695367643038 
0 
0 
0 
0 
0 
0 
0 
0 
0 
0 
0 
0 
0 
0 
0 
0 
0 
0 
0 
0 
0 
0 
0 
0 
0 
0 
0 
0 
0 
0 
0 
0 
0 
0 
0 
0 
0 
0 
0 
0 
0 
0 
0 
0 
0 
0 
0 
0 
0 
0 
0 
0 
0 
0 
0 
0 
0 
0 
0 
0 
0 
0 
0 
0 
0 
0 
0 
0 
0 
0 
0 
0 
0 
0 
0 
0 
0 
0 
0 
0 
0 
0 
0 
-2.291038865285744 
-2.068837606731775 
0 
0 
0 
0 
0 
0 
0 
0 
0 
0 
0 
0 
0 
0 
0 
0 
0 
0 
0 
0 
0 
0 
0 
0 
0 
0 
0 
0 
0 
0 
0 
0 
0 
0 
0 
0 
0 
0 
0 
0 
0 
0 
0 
0 
0 
0 
0 
0 
0 
0 
0 
0 
0 
0 
0 
0 
0 
0 
0 
0 
0 
0 
0 
0 
0 
0 
0 
0 
-1.371497758250369 
0 
0 
0 
0 
0 
0 
0 
0 
0 
0 
0 
0 
0 
0 
0 
0 
0 
0 
0 
0 
0 
0 
0 
0 
0 
0 
0 
0 
0 
0 
0 
0 
0 
0 
0 
0 
0 
0 
0 
0 
0 
0 
0 
0 
0 
0 
0 
0 
0 
0 
0 
0 
0 
0 
0 
0 
0 
0 
0 
0 
0 
0 
0 
0 
0 
0 
0 
0 
0 
0 
0 
0 
0 
0 
0 
0 
0 
0 
0 
0 
0 
0 
0 
0 
0 
0 
0 
0 
0 
0 
0 
0 
0 
0 
0 
0 
0 
0 
0 
0 
0 
0 
0 
0 
0 
0 
0 
0 
0 
0 
0 
0 
0 
0 
0 
0 
0 
0 
0 
0 
0 
0 
0 
0 
0 
0 
0 
0 
0 
0 
0 
0 
0 
0 
0 
0 
0 
0 
0 
0 
0 
0 
0 
0 
0 
0 
0 
0 
0 
0 
0 
0 
0 
0 
0 
0 
0 
0 
0 
0 
0 
0 
0 
0 
0 
0.4072250690591657 
0 
0 
0 
0 
0 
0 
0 
0 
0 
0 
0 
0 
0 
0 
0 
0 
0 
0 
0 
0 
0 
0 
0 
0 
0 
0 
0 
0 
0 
0 
0 
0 
0 
0 
0 
0 
0 
0 
0 
0 
0 
0 
0 
0 
0 
0 
0 
0 
0 
0 
0 
0 
0 
0 
0 
0 
0 
0 
0 
0 
0 
0 
0 
0 
0 
0 
0 
0 
0 
0 
0.1844940926195007 
0 
0 
0 
0 
0.2489041093401332 
0 
0 
0 
0 
0 
0 
0 
0 
0 
0 
0 
0 
0 
0 
0 
0 
0 
0 
0 
0 
0 
0 
0 
0 
0 
0 
0 
0 
0 
0 
0 
0 
0 
0 
0 
0 
0 
0 
0 
0 
0 
0 
0 
0 
0 
0 
0 
0 
0 
0 
0 
0 
0 
0 
0 
0 
0 
0 
0 
0 
0 
0 
0 
0 
0 
0 
0 
0 
0 
0 
0 
0 
0 
0 
0 
0 
0 
0 
0 
0 
0 
0 
0 
0 
0 
0 
0 
0 
0 
0 
0 
0 
0 
0 
0 
0 
0.0867124925929884 
0 
0 
0 
0 
0 
0 
0 
0 
0 
0 
0 
0 
0 
0 
0 
0 
0 
0 
0 
0 
0 
0 
0 
0 
0 
0 
0 
0 
0 
0 
0 
0 
0 
0 
0 
0 
0 
0 
0 
0 
0 
0 
0 
0 
0 
0 
0 
0 
0 
0 
0 
0 
0 
0 
-4.44659606708645 
0 
0 
0 
0 
0 
0 
0 
0 
0 
0 
0 
0 
0 
0 
0 
0 
0 
0 
0 
0 
0 
0 
0 
0 
0 
0 
0 
0 
0 
0 
0 
0 
-2.442969135707058 
0 
0 
0 
0 
0 
0 
0 
0 
0 
0 
0 
0 
0 
0 
0 
0 
0 
0 
0 
0 
0 
0 
0 
0 
0 
0 
0 
0 
0 
0 
0 
0 
0 
0 
0 
0 
0 
0 
0 
0 
0 
0 
0 
0 
0 
0 
0 
0 
0 
0 
0 
0 
0 
0 
0 
0 
0 
0 
0 
0 
0 
0 
0 
0 
0 
0 
0 
0 
0 
0 
0 
0 
0 
0 
0 
0 
0 
0 
0 
0 
0 
0 
0 
0 
0 
0 
0 
0 
0 
0 
0 
0 
0 
0 
0 
0 
0 
0 
0 
0 
0 
0 
0 
0 
0 
0 
0 
0 
0 
-1.256145988875757 
0 
0 
0 
0 
0 
0 
0 
0 
0 
0 
0 
0 
0 
0 
0 
0 
0 
0 
0 
0 
0 
0 
0 
0 
0 
0 
0 
0 
0 
0 
0 
0 
0 
0 
0 
0 
0 
0 
0 
0 
0 
0 
0 
0 
0 
0 
0 
0 
0 
0 
0 
0 
0 
0 
0 
0 
0 
0 
0 
0 
0 
0 
0 
0 
0 
0 
0 
0 
0 
0 
0 
0 
0 
0 
0 
0 
0 
0 
0 
0 
0 
0 
0 
0 
0 
0 
0 
0 
0 
0 
0 
0 
0 
0 
0 
0 
0 
0 
0 
0 
0 
0 
0 
0 
0 
0 
0 
0 
0 
0 
0 
0 
0 
0 
0 
0 
0 
0 
0 
0 
0 
0 
0 
0 
0 
0 
0 
0 
0 
0 
0 
0 
0 
0 
0 
0 
0 
0 
0 
0 
0 
0 
0 
0 
0 
0 
0 
0 
0 
0 
0 
0 
0 
0 
0 
0 
0 
0 
0 
0 
0 
0 
0 
0 
0 
0 
0 
0 
0 
0 
0 
0 
0 
0 
0 
0 
0 
0 
0 
0 
0 
0 
0 
0 
0 
0 
0 
0 
0 
0 
0 
0 
0 
0 
0 
0 
0 
0 
0 
0 
0 
0 
0 
0 
0 
0 
0 
0 
0 
0 
0 
0 
0 
0 
0 
0 
0 
0 
0 
0 
0 
0 
0 
0 
0 
0 
0 
0 
0 
0 
0 
0 
0 
0 
0 
0 
0 
0 
0 
0 
0 
0 
0 
0 
0 
0 
0 
0 
0 
0 
0 
0 
0 
0 
0 
0 
0 
0 
0 
0 
0 
0 
0 
0 
0 
0 
0 
0 
0 
0 
0 
0 
0 
0 
0 
0 
0 
0 
0 
0 
0 
0 
0 
0 
0 
0 
0 
0 
0 
0 
0 
0 
0 
0 
0 
0 
0 
0 
0 
0 
0 
0 
0 
0 
0 
0 
0 
0 
0 
0 
0 
0 
0 
0 
0 
0 
0 
0 
0 
0 
0 
0 
0 
0 
0 
0 
0 
0 
0 
0 
0 
0 
0 
0 
0 
0 
0 
0 
0 
0 
0 
0 
0 
0 
0 
0 
0 
0 
0 
0 
0 
0 
0 
0 
0 
0 
0 
0 
0 
0 
0 
0 
0 
0 
0 
0 
0 
0 
0 
0 
0 
0 
0 
0 
0 
0 
0 
0 
0 
0 
0 
0 
0 
0 
0 
0 
0 
0 
0 
0 
0 
0 
0 
0 
0 
0 
0 
0 
0 
0 
0 
0 
0 
0 
0 
0 
0 
0 
0 
0 
0 
0 
0 
0 
0 
0 
0 
0 
0 
0 
0 
0 
0 
0 
0 
0 
0 
0 
0 
0 
0 
0 
0 
0 
0 
0 
0 
0 
0 
0 
0 
0 
0 
0 
0 
0 
0 
0 
0 
0 
0 
0 
0 
0 
0 
0 
0 
0 
0 
0 
0 
0 
0 
0 
0 
0 
0 
0 
0 
0 
0 
0 
0 
0 
0 
0 
0 
0 
0 
0 
0 
0 
0 
0 
0 
0 
0 
0 
0 
0 
0 
0 
0 
0 
0 
0 
0 
0 
0 
0 
0 
0 
0 
0 
0 
0 
0 
0 
0 
0 
0 
0 
0 
0 
0 
0 
0 
0 
0 
0 
0 
0 
0 
0 
0 
0 
0 
0 
0 
0 
0 
0 
0 
0 
0 
0 
0 
0 
0 
0 
0 
0 
0 
0 
0 
0 
0 
0 
0 
0 
0 
0 
0 
0 
0 
0 
0 
0 
0 
0 
0 
0 
0 
0 
0 
0 
0.008598534236438435 
0 
0 
0 
0 
0 
0 
0 
0 
0 
0 
0 
0 
0 
0 
0 
0 
0 
0 
0 
0 
0 
0 
0 
0 
0 
0 
0 
0 
0 
0 
0 
0 
0 
0 
0 
0 
0 
0 
0 
0 
0 
0 
0 
0 
0 
0 
0 
0 
0 
0 
0 
0 
0 
0 
0 
0 
0 
0 
0 
0 
0 
0 
0 
0 
0 
0 
0 
0 
0 
0 
0 
0 
0 
0 
0 
0 
0 
0 
0 
0 
0 
0 
0 
0 
0 
0 
0 
0 
0 
0 
0 
0 
0 
0 
0 
0 
0 
0 
0 
0 
0 
0 
0 
0 
0 
0 
0 
0 
0 
0 
0 
0 
0 
0 
0 
0 
0 
0 
0 
0 
0 
0 
0 
0 
0 
0 
0 
0 
0 
0 
0 
0 
0 
0 
0 
0 
0 
0 
0 
0 
0 
0 
0 
0 
0 
0 
0 
0 
0 
0 
0 
0 
0 
0 
0 
0 
0 
0 
0 
0 
0 
0 
0 
0 
0 
0 
0 
0 
0 
0 
0 
0 
0 
0 
0 
0 
0 
0 
0 
0 
0 
0 
0 
0 
0 
0 
0 
0 
0 
0 
0 
0 
0 
0 
0 
0 
0 
0 
0 
0 
-0.6054272645816231 
0 
1.311609525317314 
0 
0 
0 
0 
0 
0 
0 
0 
0 
0 
0 
0 
0 
0 
0 
0 
0 
1.241778276248019 
0 
0 
0 
0 
0 
0 
0 
0 
0 
0 
0 
1.746426857937725 
0 
0 
0 
0 
0 
0 
0 
0 
0 
0 
0 
0 
0.1441716799988176 
0 
0 
0 
0 
0 
0 
0 
0 
0 
0 
0.1758379384117449 
0 
0 
0 
0 
0 
0 
0 
0 
0 
0 
0 
0 
0 
0 
0 
0 
0 
0 
0 
0 
0 
0.1995839610694615 
0 
0 
0 
0 
0 
-0.2519133568090159 
0 
0 
0 
0 
0 
0 
1.376591244718513 
0 
0 
0 
0 
0 
0 
0 
0 
0 
0 
0 
0 
0 
0 
0 
0 
0 
0 
0 
0 
0 
0 
0 
2.571952465489201 
0 
0 
0 
0 
0 
0 
0 
0 
0 
0 
0 
0 
0 
0 
0 
0 
0 
0 
0 
0 
0 
0 
0 
0 
0 
0 
0 
0 
0 
0 
0 
0 
0 
0 
0 
0 
0 
0 
0 
0.054335736011388 
0 
0 
0.826144299050482 
0 
0 
0 
0 
0 
0 
0.7407067089637757 
0 
0 
0 
0 
0 
0 
0 
0 
0 
0 
0 
0 
0 
0 
0 
0 
-1.368754826557912 
0 
0 
0 
0 
0 
0 
0 
0 
0 
0 
0 
0 
0 
0 
0 
0 
0 
0 
0 
0 
0 
0 
